~o
<STREAMINFO> 1 39
<VECSIZE> 39<NULLD><MFCC_D_A_Z_0><DIAGC>
~h "ap"
<BEGINHMM>
<NUMSTATES> 5
<STATE> 2
<NUMMIXES> 2
<MIXTURE> 1 5.873728e-01
<MEAN> 39
 -6.259418e+00 6.978948e-01 -7.410088e-01 -2.015548e+00 -3.962394e+00 -1.455259e+00 -1.763564e+00 1.800885e-01 1.573233e+00 9.311296e-01 -4.595548e-01 1.983039e-01 1.006217e+01 4.116221e-01 -1.611377e-01 -4.448352e-01 -6.640033e-01 3.310860e-01 7.548051e-01 2.012467e-01 8.273480e-03 9.913556e-02 1.555745e-01 -2.578721e-03 -6.579503e-01 -4.451405e-01 1.265070e-01 2.455136e-01 2.207481e-01 2.564589e-01 2.941820e-01 1.979591e-01 1.700215e-01 9.437867e-02 1.238622e-02 1.632335e-03 -1.271254e-01 1.953136e-02 -6.796221e-01
<VARIANCE> 39
 3.513811e+01 5.268571e+01 3.802575e+01 1.813246e+01 2.464387e+01 5.027826e+01 2.507830e+01 2.506526e+01 2.277668e+01 2.776927e+01 2.195708e+01 1.706495e+01 1.776089e+02 3.094406e-01 4.280502e-01 7.048368e-01 1.075499e+00 1.797678e+00 1.434946e+00 1.445540e+00 1.415588e+00 1.526775e+00 1.994266e+00 1.516789e+00 1.474998e+00 8.292959e-01 3.452753e-01 3.656088e-01 1.580431e-01 1.715119e-01 4.037312e-01 5.210897e-01 2.621663e-01 2.560711e-01 2.740251e-01 2.703419e-01 2.831271e-01 2.721457e-01 1.573213e+00
<GCONST> 1.033041e+02
<MIXTURE> 2 4.126275e-01
<MEAN> 39
 -3.524281e+00 4.942684e+00 2.073647e+00 3.239726e-01 -2.644619e+00 2.965840e-01 -1.048247e+00 1.991701e+00 2.675729e+00 -4.356115e-02 -1.810935e+00 6.335332e-01 1.441018e+00 -2.768395e+00 -3.037362e+00 -1.238192e+00 2.236884e-01 -1.887157e+00 -2.712484e+00 -1.223669e+00 -1.414305e+00 -7.535846e-01 -8.338713e-01 -5.783035e-01 6.922344e-02 6.778862e+00 3.590183e-01 1.349344e-01 -8.829968e-02 -4.177900e-01 2.687669e-01 4.740049e-01 1.789357e-01 8.697654e-02 9.267626e-02 2.994519e-01 2.209419e-01 -1.435037e-01 -5.621490e-01
<VARIANCE> 39
 5.877638e+01 6.345447e+01 2.289132e+01 2.093786e+01 4.263943e+01 6.826920e+01 3.473745e+01 3.032076e+01 2.602294e+01 2.860837e+01 2.385371e+01 1.712535e+01 2.428366e+02 4.454262e+00 4.138163e+00 2.293624e+00 2.855203e+00 3.989966e+00 4.001888e+00 2.682256e+00 2.505676e+00 2.477660e+00 2.366900e+00 3.122184e+00 2.076399e+00 8.600343e+00 1.145468e+00 1.011039e+00 3.037730e-01 3.197142e-01 8.439626e-01 1.092346e+00 4.577833e-01 4.873596e-01 4.020914e-01 4.333835e-01 3.627763e-01 3.408078e-01 4.392572e+00
<GCONST> 1.282619e+02
<STATE> 3
<NUMMIXES> 2
<MIXTURE> 1 5.475948e-01
<MEAN> 39
 1.730141e+00 5.396900e+00 2.979443e+00 2.980064e-01 2.827229e+00 3.780864e+00 1.311935e+00 2.040479e+00 1.958584e+00 9.342184e-01 4.303109e-01 2.993647e-02 -8.112883e+00 1.892163e-01 2.711275e-01 8.723720e-02 -8.592603e-02 -1.261791e-02 1.458549e-01 5.116019e-02 1.489245e-01 1.121614e-01 7.486651e-02 1.508456e-02 -2.437592e-02 -3.918256e-01 -2.426885e-02 -2.265658e-02 -3.700065e-02 -4.058734e-02 -5.325380e-02 -5.551245e-02 -3.161433e-02 -3.127516e-02 -2.968764e-02 -3.694331e-02 -3.470763e-02 3.607012e-03 2.334688e-02
<VARIANCE> 39
 1.153550e+01 2.515905e+01 1.065769e+01 1.439141e+01 1.817510e+01 1.805563e+01 1.481710e+01 1.721275e+01 1.746030e+01 1.572711e+01 1.295899e+01 1.089344e+01 3.117417e+01 1.875882e-01 2.929442e-01 4.479924e-01 6.515561e-01 8.464286e-01 1.031463e+00 1.017398e+00 1.171895e+00 1.222814e+00 1.362734e+00 1.271717e+00 1.130083e+00 1.480227e-01 2.329786e-02 4.796829e-02 7.900656e-02 1.241961e-01 1.558959e-01 1.928460e-01 1.936055e-01 2.419025e-01 2.458455e-01 2.871445e-01 2.578939e-01 2.286812e-01 8.638453e-03
<GCONST> 7.437165e+01
<MIXTURE> 2 4.524039e-01
<MEAN> 39
 -2.930989e+00 -2.510739e+00 -2.862285e+00 -1.143615e+00 -9.184020e-01 -1.928295e+00 -1.362720e+00 -2.062045e+00 -1.115897e+00 -1.138706e+00 -1.181441e+00 -3.737314e-01 6.541629e+00 2.526397e-01 1.033029e-01 2.030090e-01 1.982285e-01 3.311126e-01 2.192539e-01 1.563116e-01 -4.121785e-02 -8.918332e-02 3.887988e-04 1.122840e-01 9.447616e-02 -7.567123e-01 1.439593e-02 4.422706e-02 5.993274e-02 6.050463e-02 2.475336e-02 2.652903e-02 2.617637e-02 5.947381e-02 4.895142e-02 4.511073e-02 5.318418e-02 1.766221e-02 4.204145e-03
<VARIANCE> 39
 1.188746e+01 1.831564e+01 1.694176e+01 1.367775e+01 2.183551e+01 1.784869e+01 1.784100e+01 2.064195e+01 1.705682e+01 1.874847e+01 1.382693e+01 1.420611e+01 5.282620e+01 1.182521e-01 2.245728e-01 3.683124e-01 5.629203e-01 8.461184e-01 1.046695e+00 1.110505e+00 1.180720e+00 1.298817e+00 1.376639e+00 1.152866e+00 1.191659e+00 1.955179e-01 2.126561e-02 4.359622e-02 7.741798e-02 1.157005e-01 1.759768e-01 2.362644e-01 2.240216e-01 2.328076e-01 2.645352e-01 2.912273e-01 2.420681e-01 2.587844e-01 1.246869e-02
<GCONST> 7.605863e+01
<STATE> 4
<NUMMIXES> 2
<MIXTURE> 1 7.913184e-01
<MEAN> 39
 4.430132e-01 -8.619061e-01 -8.894777e-02 1.238491e-01 3.037320e-01 -4.748902e-02 2.669635e-01 -4.269295e-01 -4.059634e-01 -4.677479e-02 2.954985e-01 1.527510e-02 -3.448617e-01 2.880758e-01 2.293936e-01 2.071709e-01 1.433906e-01 2.602236e-01 2.198804e-01 1.263617e-01 1.070907e-01 4.652631e-02 5.590449e-02 6.972968e-02 2.888590e-02 -7.949554e-01 -1.108363e-02 1.460432e-02 5.957001e-04 4.287351e-03 -2.473597e-02 -1.660071e-02 -1.127592e-02 1.807915e-02 1.257885e-02 3.582149e-03 -3.383655e-03 8.769820e-03 1.638393e-02
<VARIANCE> 39
 1.429101e+01 3.309989e+01 1.892108e+01 1.717075e+01 2.358003e+01 2.678434e+01 1.974478e+01 2.320052e+01 2.113469e+01 1.789275e+01 1.545017e+01 1.437449e+01 7.886815e+01 1.073287e-01 2.408665e-01 3.517224e-01 6.221486e-01 9.330280e-01 1.038574e+00 1.031787e+00 1.167229e+00 1.397821e+00 1.381293e+00 1.231031e+00 1.325781e+00 8.142605e-02 1.992861e-02 4.489336e-02 6.942057e-02 1.246336e-01 1.879784e-01 2.201568e-01 2.050447e-01 2.258811e-01 2.842793e-01 2.934921e-01 2.504140e-01 2.883621e-01 6.639650e-03
<GCONST> 7.736794e+01
<MIXTURE> 2 2.086834e-01
<MEAN> 39
 -7.890240e-01 1.506546e+00 1.505659e-02 -6.161939e-02 -1.687640e+00 -7.138736e-01 -9.288220e-01 1.363193e+00 8.463217e-01 1.202731e-01 -7.613808e-01 2.372316e-02 1.779266e+00 -1.058069e+00 -9.260937e-01 -7.904900e-01 -4.739785e-01 -9.650368e-01 -8.846924e-01 -4.829961e-01 -3.993778e-01 -1.889763e-01 -2.212034e-01 -2.621056e-01 -1.169347e-01 2.976578e+00 4.187930e-02 -5.467841e-02 -3.607200e-03 -1.573228e-02 9.492458e-02 6.335310e-02 3.868078e-02 -6.753574e-02 -5.022387e-02 -1.480312e-02 7.216771e-03 -3.494127e-02 -6.151161e-02
<VARIANCE> 39
 3.324451e+01 4.571066e+01 2.474302e+01 2.198278e+01 3.896536e+01 4.856214e+01 2.731704e+01 2.311198e+01 2.332110e+01 2.059634e+01 1.986341e+01 1.380349e+01 2.037674e+02 2.948706e+00 3.903854e+00 1.748364e+00 2.036999e+00 3.602593e+00 4.839451e+00 2.569781e+00 2.265408e+00 2.280641e+00 2.122614e+00 1.898365e+00 1.497272e+00 1.630000e+01 6.891058e-01 7.300009e-01 3.721060e-01 4.005482e-01 8.140820e-01 1.046502e+00 5.063260e-01 4.233040e-01 4.425488e-01 4.173177e-01 3.692218e-01 2.923121e-01 4.179563e+00
<GCONST> 1.233710e+02
<TRANSP> 5
 0.000000e+00 1.000000e+00 0.000000e+00 0.000000e+00 0.000000e+00
 0.000000e+00 8.237581e-01 1.762419e-01 0.000000e+00 0.000000e+00
 0.000000e+00 0.000000e+00 9.754825e-01 2.451747e-02 0.000000e+00
 0.000000e+00 0.000000e+00 0.000000e+00 9.958273e-01 4.172667e-03
 0.000000e+00 0.000000e+00 0.000000e+00 0.000000e+00 0.000000e+00
<ENDHMM>
~h "cl"
<BEGINHMM>
<NUMSTATES> 5
<STATE> 2
<NUMMIXES> 2
<MIXTURE> 1 7.014516e-01
<MEAN> 39
 5.664068e+00 -1.022267e+00 -4.638083e-01 6.757539e-02 8.813569e-01 -3.666528e-01 6.930665e-01 6.999339e-01 2.141399e-01 5.534933e-01 1.022042e+00 -1.000689e+00 -4.256226e+00 4.313357e-01 -9.858839e-02 -1.051136e-02 1.381081e-02 1.008596e-01 -3.679801e-02 1.057804e-02 8.108786e-02 -3.213697e-02 4.671015e-02 8.407520e-02 -9.786526e-02 -3.221287e-01 -1.145486e-02 8.932099e-03 -1.565985e-02 1.472163e-02 1.272349e-02 -3.596225e-02 1.078945e-02 3.194930e-02 -2.863503e-02 1.505688e-03 1.167608e-02 -6.107032e-03 8.783311e-03
<VARIANCE> 39
 3.345216e+01 1.287325e+01 1.390764e+01 9.835616e+00 1.800186e+01 2.531662e+01 1.955170e+01 2.708232e+01 2.931493e+01 2.017285e+01 2.369195e+01 2.500178e+01 1.335656e+01 3.391383e-01 3.336630e-01 5.346270e-01 7.169562e-01 1.031334e+00 1.176193e+00 1.298556e+00 1.569818e+00 1.743851e+00 1.470487e+00 1.613447e+00 1.539625e+00 1.402940e-01 6.606223e-02 6.421153e-02 9.871295e-02 1.437319e-01 2.037495e-01 2.316800e-01 2.489282e-01 3.102888e-01 3.345589e-01 3.022515e-01 3.271971e-01 3.077345e-01 2.388361e-02
<GCONST> 8.441450e+01
<MIXTURE> 2 2.985486e-01
<MEAN> 39
 4.949217e+00 -2.119637e-01 -1.616957e+00 1.111464e+00 2.131996e+00 -2.821164e+00 1.143942e+00 2.775838e+00 -1.023354e+00 8.789065e-02 3.052610e+00 -2.088522e+00 -3.915671e+00 -1.832357e+00 3.438766e-01 1.488158e-01 -5.830969e-02 -5.526612e-01 3.637111e-01 -1.414844e-01 -5.559905e-01 2.761891e-01 -1.250912e-01 -5.563039e-01 4.826843e-01 1.405162e+00 -7.100930e-02 -3.378628e-02 5.275236e-02 -5.636754e-02 -6.075538e-02 1.103853e-01 -5.596287e-02 -1.277478e-01 5.098649e-02 -1.269335e-02 -8.798420e-02 2.176967e-02 5.710674e-02
<VARIANCE> 39
 5.938099e+01 1.592384e+01 1.795617e+01 1.396569e+01 2.452416e+01 3.830670e+01 2.537039e+01 4.024210e+01 3.477148e+01 2.440320e+01 4.206787e+01 3.210070e+01 3.706332e+01 5.229488e+00 1.404029e+00 1.332164e+00 1.436659e+00 1.915259e+00 3.476357e+00 2.562938e+00 3.355654e+00 3.609103e+00 2.706427e+00 3.099899e+00 2.536854e+00 2.757197e+00 1.221720e+00 2.275598e-01 1.955458e-01 2.330388e-01 3.389992e-01 5.180494e-01 4.230598e-01 5.318299e-01 5.981070e-01 5.101966e-01 5.525164e-01 4.275470e-01 6.638340e-01
<GCONST> 1.167983e+02
<STATE> 3
<NUMMIXES> 2
<MIXTURE> 1 6.394849e-01
<MEAN> 39
 -2.410768e+00 4.171363e-02 7.479830e-01 -2.981112e-01 -2.285346e-01 1.437048e+00 -1.629838e-01 -4.573853e-01 5.209057e-01 5.493143e-02 -6.023611e-01 5.407066e-01 1.429717e+00 6.257924e-01 7.024515e-02 1.764529e-01 -1.529935e-01 -7.084394e-03 1.934869e-01 -1.300729e-02 -1.311847e-01 3.298047e-01 6.761124e-02 -7.382740e-03 9.212220e-02 -6.325642e-01 -3.748718e-02 1.923162e-02 -4.843775e-02 5.441273e-02 6.579048e-03 -1.226132e-01 3.603639e-02 9.720831e-02 -1.756026e-02 1.920611e-02 4.098905e-02 -2.692471e-02 2.234577e-02
<VARIANCE> 39
 1.468298e+01 5.499515e+00 1.034584e+01 9.584880e+00 1.503092e+01 2.159205e+01 1.936683e+01 2.438352e+01 2.453229e+01 1.967988e+01 1.850078e+01 1.857558e+01 1.237677e+01 2.044956e-01 3.380515e-01 6.482689e-01 7.706791e-01 9.730944e-01 1.320551e+00 1.360460e+00 1.515675e+00 1.679233e+00 1.477466e+00 1.365149e+00 1.360461e+00 1.223073e-01 1.174271e-01 7.740518e-02 1.478120e-01 1.689468e-01 2.188353e-01 3.150462e-01 3.103777e-01 3.557210e-01 4.067878e-01 3.383979e-01 3.004966e-01 3.111540e-01 9.732868e-02
<GCONST> 8.422450e+01
<MIXTURE> 2 3.605227e-01
<MEAN> 39
 -3.067058e+00 2.222050e-01 -3.825457e-01 6.556233e-01 -2.194036e-01 -4.972098e-01 3.024584e-01 8.327902e-01 1.214379e-01 -4.855082e-02 -5.933861e-02 -6.184039e-03 2.198541e+00 -1.090748e+00 -1.173615e-01 -2.954556e-01 2.413421e-01 1.546819e-02 -3.151253e-01 2.842434e-02 2.235036e-01 -6.019536e-01 -1.331547e-01 -1.041040e-02 -1.543006e-01 1.103349e+00 1.029522e-01 -3.236578e-02 7.869899e-02 -9.572790e-02 -2.544131e-03 2.005206e-01 -5.983678e-02 -1.588475e-01 2.512271e-02 -3.083460e-02 -5.956023e-02 4.009522e-02 -6.352881e-02
<VARIANCE> 39
 2.695594e+01 7.631438e+00 1.377873e+01 1.205974e+01 1.730036e+01 2.856359e+01 2.237277e+01 2.981486e+01 2.876727e+01 2.118130e+01 1.863322e+01 1.962343e+01 2.214390e+01 1.988504e+00 7.877750e-01 1.382566e+00 1.293662e+00 1.933582e+00 3.624427e+00 2.543039e+00 3.803891e+00 3.252845e+00 2.565066e+00 2.113071e+00 2.533671e+00 1.367974e+00 6.082497e-01 1.314513e-01 2.535591e-01 2.480376e-01 3.137955e-01 5.720454e-01 4.110066e-01 5.811148e-01 6.288950e-01 4.342337e-01 3.694139e-01 4.290809e-01 5.160161e-01
<GCONST> 1.073497e+02
<STATE> 4
<NUMMIXES> 2
<MIXTURE> 1 7.825765e-01
<MEAN> 39
 4.637357e+00 1.687170e-01 -2.234021e-01 -2.416359e-01 8.956438e-02 -8.601031e-01 -1.933824e-01 -7.723432e-01 -6.093581e-01 -1.124896e-01 1.957234e-01 -2.320651e-01 -3.307458e+00 4.225309e-01 -7.904505e-02 -3.341958e-02 3.488819e-02 1.148273e-01 -6.365444e-02 1.677725e-02 1.077703e-01 1.985861e-02 6.882936e-02 1.443380e-01 -8.370314e-02 -3.790176e-01 -1.334125e-02 -1.536603e-04 -1.313388e-02 4.138356e-03 -3.533935e-03 -2.786004e-02 -6.352455e-04 1.288095e-02 -1.051200e-02 -1.766828e-03 5.907787e-03 -1.141596e-03 1.267175e-02
<VARIANCE> 39
 4.495247e+01 1.146718e+01 1.523540e+01 1.442919e+01 1.720203e+01 2.901157e+01 2.350092e+01 2.797110e+01 2.636240e+01 2.077336e+01 2.199676e+01 1.855560e+01 2.984627e+01 2.421928e-01 3.268032e-01 5.561666e-01 6.828461e-01 9.750444e-01 1.309414e+00 1.370608e+00 1.473342e+00 1.506689e+00 1.424262e+00 1.346387e+00 1.335579e+00 1.129484e-01 3.908282e-02 5.729887e-02 1.058775e-01 1.315217e-01 1.909968e-01 2.507604e-01 2.696781e-01 2.928973e-01 2.901890e-01 2.856082e-01 2.713575e-01 2.668998e-01 1.492142e-02
<GCONST> 8.306815e+01
<MIXTURE> 2 2.174238e-01
<MEAN> 39
 3.075300e+00 -2.258690e-01 -1.512022e+00 -4.672714e-01 -3.040428e-01 -3.317889e+00 -1.101390e+00 -8.685582e-02 -1.926020e+00 -6.746982e-01 6.675467e-01 -4.298324e-01 5.065127e-01 -7.509592e-01 1.479749e-01 4.015305e-03 -7.320753e-02 -2.723450e-01 -7.270762e-02 -1.678528e-01 -3.073683e-01 -9.794651e-02 -2.761181e-01 -2.014169e-01 1.482801e-01 8.188820e-01 1.425599e-02 -5.666573e-03 5.492042e-02 -9.594942e-03 1.428449e-02 9.908465e-02 -1.110225e-02 -3.809480e-02 4.173691e-02 1.502975e-02 -1.778509e-02 8.931769e-03 -4.345648e-02
<VARIANCE> 39
 6.111153e+01 2.037185e+01 2.341808e+01 1.796342e+01 2.338044e+01 4.399938e+01 3.442503e+01 2.909952e+01 3.041349e+01 2.530836e+01 2.188812e+01 2.204540e+01 5.062801e+01 3.420579e+00 1.153917e+00 1.405285e+00 1.312367e+00 1.782425e+00 3.245476e+00 2.711699e+00 2.224369e+00 2.344149e+00 1.983661e+00 1.936057e+00 2.120304e+00 2.540835e+00 7.023702e-01 1.936588e-01 2.396392e-01 2.369547e-01 3.235472e-01 5.651339e-01 5.133688e-01 3.699668e-01 4.613048e-01 4.060168e-01 3.690103e-01 4.009739e-01 5.525504e-01
<GCONST> 1.124573e+02
<TRANSP> 5
 0.000000e+00 1.000000e+00 0.000000e+00 0.000000e+00 0.000000e+00
 0.000000e+00 9.708956e-01 2.910435e-02 0.000000e+00 0.000000e+00
 0.000000e+00 0.000000e+00 9.948114e-01 5.188593e-03 0.000000e+00
 0.000000e+00 0.000000e+00 0.000000e+00 9.866923e-01 1.330762e-02
 0.000000e+00 0.000000e+00 0.000000e+00 0.000000e+00 0.000000e+00
<ENDHMM>
~h "cm"
<BEGINHMM>
<NUMSTATES> 5
<STATE> 2
<NUMMIXES> 2
<MIXTURE> 1 7.235470e-01
<MEAN> 39
 -2.292733e+00 6.877637e-02 7.648316e-03 -3.114686e-01 3.267348e-01 1.203940e+00 1.031220e+00 1.360245e+00 1.029002e+00 1.299817e+00 1.419118e+00 7.548130e-01 -2.598341e+00 -8.055284e-03 1.027554e-02 2.061150e-03 2.349344e-02 6.976533e-02 8.331645e-02 3.299598e-02 2.443578e-02 7.381670e-03 1.641069e-02 1.378954e-02 4.619167e-03 6.016467e-02 6.095706e-03 -7.808409e-03 -1.449062e-02 -2.502592e-02 -4.279957e-02 -5.805871e-02 -4.607951e-02 -3.080710e-02 -3.267608e-02 -3.733686e-02 -3.241423e-02 -1.994771e-02 2.067906e-02
<VARIANCE> 39
 1.338405e+01 1.006820e+01 1.024174e+01 1.266722e+01 1.262402e+01 1.286428e+01 1.456677e+01 1.703797e+01 1.662251e+01 1.486540e+01 1.562213e+01 1.259311e+01 2.769433e+01 2.210998e-01 3.544191e-01 4.995603e-01 7.702959e-01 9.346824e-01 1.150381e+00 1.257758e+00 1.382427e+00 1.435302e+00 1.377214e+00 1.293786e+00 1.162193e+00 2.311287e-01 3.033772e-02 5.805347e-02 8.673281e-02 1.354916e-01 1.756711e-01 2.288099e-01 2.465799e-01 2.734178e-01 2.768980e-01 2.743302e-01 2.519587e-01 2.261048e-01 1.550550e-02
<GCONST> 7.660638e+01
<MIXTURE> 2 2.764541e-01
<MEAN> 39
 -1.508220e+00 -1.047698e+00 -3.692401e-01 -1.213735e+00 -1.196680e+00 -1.608770e+00 -6.504481e-01 1.655410e-01 2.351458e-01 -1.132832e-01 -6.474628e-02 1.163221e-01 1.988390e-02 2.250436e-01 -1.170702e-01 -9.466093e-02 -1.661475e-01 -2.657773e-01 -3.701715e-01 -2.702737e-01 -2.402261e-01 -1.792507e-01 -1.859716e-01 -2.367585e-01 -7.323617e-02 8.658143e-01 2.195996e-02 2.121176e-02 3.159722e-02 7.889759e-02 1.089607e-01 1.478912e-01 1.120147e-01 6.108541e-02 4.672310e-02 6.789496e-02 6.658589e-02 2.905257e-02 -4.878788e-02
<VARIANCE> 39
 1.647849e+01 1.677702e+01 1.439325e+01 1.804328e+01 1.801687e+01 1.885353e+01 2.031142e+01 2.118684e+01 2.004173e+01 1.714530e+01 1.850401e+01 1.552227e+01 5.651952e+01 9.161758e-01 1.093978e+00 1.160890e+00 1.399499e+00 1.601396e+00 1.854496e+00 1.942688e+00 1.976427e+00 1.912000e+00 1.763930e+00 1.684788e+00 1.576689e+00 1.607842e+00 1.284223e-01 1.781847e-01 2.153322e-01 2.608298e-01 3.163493e-01 3.501689e-01 3.721147e-01 3.732426e-01 3.868262e-01 3.477958e-01 3.094011e-01 3.056922e-01 2.718756e-01
<GCONST> 9.937696e+01
<STATE> 3
<NUMMIXES> 2
<MIXTURE> 1 5.850810e-01
<MEAN> 39
 3.429555e-01 -4.804024e-01 -4.664220e-01 -2.439014e-01 1.667969e-04 1.898286e-01 1.132277e-01 1.912684e-01 4.804823e-01 5.770563e-01 3.875811e-01 3.166274e-01 3.340394e+00 3.122932e-02 5.201611e-02 6.847227e-02 1.635537e-01 1.806146e-01 1.937914e-01 1.640249e-01 9.217680e-02 6.651297e-02 4.345076e-02 4.388719e-02 7.554854e-03 -1.322321e-01 -1.073531e-03 4.876322e-03 -5.546785e-04 -2.384528e-02 -4.310823e-02 -6.987254e-02 -7.923318e-02 -7.215793e-02 -1.222863e-01 -1.372984e-01 -1.216257e-01 -7.755779e-02 -9.721087e-03
<VARIANCE> 39
 5.200315e+00 5.149451e+00 5.467872e+00 7.602215e+00 8.985466e+00 1.001568e+01 1.161380e+01 1.219282e+01 1.163395e+01 1.095642e+01 1.146788e+01 1.049728e+01 1.328092e+01 1.516793e-01 2.606037e-01 4.026535e-01 6.093508e-01 7.657682e-01 9.733617e-01 1.147970e+00 1.158500e+00 1.266509e+00 1.256294e+00 1.224928e+00 1.127563e+00 1.787586e-01 2.624657e-02 4.745296e-02 7.990725e-02 1.184845e-01 1.533083e-01 1.942170e-01 2.268124e-01 2.232421e-01 2.316658e-01 2.335173e-01 2.341863e-01 2.218578e-01 1.702423e-02
<GCONST> 6.699817e+01
<MIXTURE> 2 4.149157e-01
<MEAN> 39
 6.686494e-01 -5.856456e-01 -7.611275e-01 -1.044052e+00 -1.286022e+00 -1.612423e+00 -1.712235e+00 -1.403651e+00 -1.785368e+00 -1.898486e+00 -1.999158e+00 -1.090614e+00 4.272463e+00 6.160028e-02 -4.573859e-02 -8.040898e-02 -1.494531e-01 -2.138787e-01 -2.387041e-01 -2.270425e-01 -1.795518e-01 -9.926006e-02 -6.386302e-02 -7.816862e-02 -2.505635e-02 1.252015e-01 -4.900116e-03 4.762258e-03 1.842862e-02 5.425361e-02 8.282492e-02 1.160580e-01 1.281718e-01 1.111977e-01 1.829381e-01 2.027353e-01 1.798867e-01 1.111848e-01 -4.082705e-02
<VARIANCE> 39
 6.648236e+00 6.884271e+00 6.860211e+00 1.033062e+01 1.116083e+01 1.163420e+01 1.246798e+01 1.462638e+01 1.327477e+01 1.238147e+01 1.201242e+01 1.167244e+01 2.041506e+01 2.805290e-01 3.719269e-01 5.168240e-01 7.438453e-01 9.214709e-01 1.090580e+00 1.178616e+00 1.324305e+00 1.369061e+00 1.388088e+00 1.351544e+00 1.227401e+00 4.071340e-01 4.350436e-02 6.792955e-02 1.001205e-01 1.504031e-01 1.885091e-01 2.243785e-01 2.372420e-01 2.626006e-01 2.621844e-01 2.578660e-01 2.468543e-01 2.407270e-01 4.733150e-02
<GCONST> 7.585263e+01
<STATE> 4
<NUMMIXES> 2
<MIXTURE> 1 5.100882e-01
<MEAN> 39
 1.862236e+00 1.745493e+00 2.019727e+00 2.899547e+00 2.264391e+00 1.622294e+00 2.039126e+00 7.408852e-01 1.290244e+00 9.590374e-01 1.005934e+00 3.615959e-01 -7.062005e+00 5.911736e-02 8.551709e-02 1.446408e-01 1.502853e-01 1.491972e-01 1.541147e-01 2.010062e-01 9.664071e-02 6.834331e-02 -2.789916e-02 -1.159411e-02 -6.656729e-03 -5.014898e-01 9.402315e-03 5.947376e-03 -1.895167e-02 -4.626082e-02 -7.262305e-02 -8.144790e-02 -1.282333e-01 -1.466880e-01 -1.749025e-01 -1.720487e-01 -1.412974e-01 -8.170399e-02 2.509999e-02
<VARIANCE> 39
 1.288903e+01 7.073853e+00 7.113893e+00 8.260889e+00 9.762941e+00 1.135880e+01 1.137362e+01 1.245792e+01 1.142700e+01 1.122343e+01 1.138014e+01 1.120406e+01 2.203658e+01 1.916057e-01 3.041228e-01 4.521706e-01 6.642789e-01 8.801150e-01 1.057455e+00 1.111029e+00 1.260520e+00 1.392834e+00 1.349688e+00 1.245208e+00 1.101892e+00 1.459584e-01 2.479091e-02 4.965255e-02 7.775544e-02 1.170971e-01 1.578188e-01 1.920573e-01 2.056085e-01 2.282717e-01 2.338382e-01 2.358753e-01 2.246675e-01 2.190213e-01 1.226701e-02
<GCONST> 6.969902e+01
<MIXTURE> 2 4.899106e-01
<MEAN> 39
 3.169328e+00 1.721262e+00 1.243962e+00 1.949731e+00 7.005395e-01 -3.983807e-01 -9.019784e-01 -2.118693e+00 -1.945012e+00 -2.010783e+00 -1.645177e+00 -1.117226e+00 -4.805916e+00 7.383881e-02 7.145737e-02 9.108555e-02 6.777298e-02 6.567825e-02 -3.886417e-02 -3.022137e-02 -9.426994e-02 -5.594674e-02 3.162379e-02 7.770534e-02 3.940452e-02 -5.543680e-01 -2.490061e-02 -2.498316e-02 -9.487781e-03 9.817865e-03 4.500638e-02 7.823429e-02 1.342282e-01 1.597637e-01 1.956104e-01 1.805777e-01 1.558745e-01 1.051185e-01 5.338601e-03
<VARIANCE> 39
 1.070783e+01 7.222353e+00 7.543174e+00 8.763291e+00 1.027308e+01 1.069586e+01 1.053693e+01 1.216373e+01 1.169754e+01 1.099257e+01 1.202976e+01 1.163542e+01 2.408794e+01 1.790893e-01 2.681586e-01 4.467306e-01 6.396272e-01 8.451594e-01 9.123514e-01 1.112239e+00 1.220199e+00 1.275846e+00 1.252101e+00 1.320687e+00 1.213323e+00 1.556507e-01 2.430387e-02 4.853335e-02 8.822250e-02 1.318044e-01 1.652182e-01 1.729557e-01 1.867395e-01 2.152140e-01 2.238407e-01 2.216287e-01 2.376606e-01 2.177037e-01 1.315421e-02
<GCONST> 6.932312e+01
<TRANSP> 5
 0.000000e+00 1.000000e+00 0.000000e+00 0.000000e+00 0.000000e+00
 0.000000e+00 9.752277e-01 2.477233e-02 0.000000e+00 0.000000e+00
 0.000000e+00 0.000000e+00 9.823169e-01 1.768317e-02 0.000000e+00
 0.000000e+00 0.000000e+00 0.000000e+00 9.559096e-01 4.409045e-02
 0.000000e+00 0.000000e+00 0.000000e+00 0.000000e+00 0.000000e+00
<ENDHMM>
~h "co"
<BEGINHMM>
<NUMSTATES> 5
<STATE> 2
<NUMMIXES> 2
<MIXTURE> 1 6.372956e-01
<MEAN> 39
 -4.220331e+00 2.589672e-01 5.253701e-01 -2.366542e+00 -6.478922e+00 -1.016521e+00 3.319820e+00 3.422433e+00 1.434509e-01 -2.160780e+00 -8.807499e-01 1.193323e+00 7.210438e+00 -5.949984e-01 -1.444041e-01 1.984178e-02 8.730081e-02 8.969163e-01 3.068472e-01 5.175912e-01 -4.592065e-01 -6.575922e-01 -2.928367e-02 5.129364e-01 1.834155e-01 1.010205e+00 1.886261e-01 -1.136141e-01 -1.501640e-01 6.931101e-02 8.612596e-03 4.482296e-02 -8.019952e-02 1.137613e-01 2.818958e-01 2.248868e-01 1.909868e-02 1.190583e-02 -4.179892e-01
<VARIANCE> 39
 1.019489e+01 1.271108e+01 1.599539e+01 1.510448e+01 3.469627e+01 4.165667e+01 3.209223e+01 4.318225e+01 2.001964e+01 2.546854e+01 2.168590e+01 2.277010e+01 5.799472e+01 6.186036e-01 9.073738e-01 1.078767e+00 1.241813e+00 1.696643e+00 2.058061e+00 2.153667e+00 2.294884e+00 2.193923e+00 2.276448e+00 1.506621e+00 1.817118e+00 1.108196e+00 8.020703e-02 1.668637e-01 1.948702e-01 1.900610e-01 2.906195e-01 4.216037e-01 4.016429e-01 3.963334e-01 3.581926e-01 3.597184e-01 3.092818e-01 3.191759e-01 1.489768e-01
<GCONST> 1.005017e+02
<MIXTURE> 2 3.627049e-01
<MEAN> 39
 -5.998797e-01 -3.381437e-01 -1.024535e+00 -7.772491e-01 -7.118638e+00 1.715422e+00 2.717402e+00 7.095725e+00 8.245991e+00 4.440938e+00 5.338122e-01 2.056598e+00 -4.849914e+00 -4.680976e-01 -2.337095e-01 3.762938e-01 -6.699941e-01 -1.686252e+00 -1.679079e+00 -8.768649e-01 -8.640841e-01 -1.077116e+00 -1.483371e+00 -1.065189e+00 -7.564877e-01 3.468819e+00 -1.564796e-01 1.977129e-01 9.418865e-02 3.646174e-02 5.538614e-01 2.319610e-01 2.546567e-01 -7.497458e-02 -4.008421e-01 -1.153506e-01 2.008584e-01 3.678575e-02 8.798727e-02
<VARIANCE> 39
 1.638142e+01 2.958217e+01 2.856951e+01 2.740694e+01 1.273838e+02 5.517735e+01 8.062006e+01 6.822311e+01 5.000103e+01 4.414803e+01 3.543115e+01 2.964748e+01 9.404430e+01 1.409924e+00 2.817077e+00 2.485156e+00 2.233088e+00 8.053308e+00 3.504642e+00 4.402751e+00 4.664143e+00 5.279003e+00 3.100951e+00 2.399122e+00 2.760352e+00 3.396147e+00 1.768159e-01 3.898621e-01 3.150291e-01 3.112099e-01 1.028007e+00 6.928547e-01 8.287548e-01 7.357811e-01 6.865252e-01 6.209529e-01 4.816521e-01 5.595788e-01 6.407329e-01
<GCONST> 1.281183e+02
<STATE> 3
<NUMMIXES> 2
<MIXTURE> 1 7.901209e-01
<MEAN> 39
 -6.594834e-01 -8.997393e-01 -7.849701e-01 -5.789339e-01 -2.634717e-02 -7.085614e-01 -4.347201e-01 -9.827058e-01 -5.012669e-01 -9.892070e-02 1.439114e-01 -5.461765e-02 2.177148e+00 2.010438e-01 6.067760e-02 2.487089e-02 1.013847e-01 3.493621e-01 8.507384e-02 -3.447218e-02 -1.030686e-01 -3.180655e-02 9.071378e-02 6.913034e-02 3.186516e-02 -5.241450e-01 1.696308e-02 1.864891e-02 1.180169e-02 1.075280e-02 -5.026070e-02 -1.254722e-02 -1.125924e-02 9.134664e-03 6.530890e-03 -1.798039e-02 -3.865146e-02 -1.748471e-02 -1.753320e-02
<VARIANCE> 39
 1.197165e+01 1.001422e+01 1.493333e+01 1.616381e+01 2.176609e+01 2.083969e+01 3.930820e+01 3.259820e+01 2.460876e+01 2.559618e+01 2.377309e+01 2.359626e+01 4.756458e+01 2.153053e-01 4.017878e-01 6.190790e-01 8.092771e-01 1.108450e+00 1.228067e+00 1.522773e+00 1.596812e+00 1.828861e+00 1.790130e+00 1.580176e+00 1.434048e+00 1.501561e-01 4.061802e-02 7.811572e-02 1.211534e-01 1.706378e-01 2.197007e-01 2.507042e-01 3.009513e-01 3.183406e-01 3.829054e-01 3.746457e-01 3.241007e-01 2.879433e-01 2.316310e-02
<GCONST> 8.707147e+01
<MIXTURE> 2 2.098823e-01
<MEAN> 39
 -2.759176e-01 -9.654554e-01 -8.594937e-01 -9.873339e-02 -4.488003e+00 -1.793273e+00 -1.169078e+00 -3.145340e-01 1.410834e+00 2.409106e-01 -1.690179e+00 -1.132099e+00 1.997099e+00 -3.273630e-01 -1.853547e-01 1.388752e-02 -2.229893e-01 -9.125885e-01 -2.158661e-01 -2.206506e-01 2.330176e-01 1.553362e-01 -2.632507e-01 -2.623909e-01 -2.364946e-01 1.328254e+00 -5.238052e-02 -3.551694e-02 -4.935870e-03 -2.043603e-02 1.870174e-01 7.064011e-02 7.154932e-02 -1.930973e-02 -1.677064e-02 6.141529e-02 1.358872e-01 7.057059e-02 2.301102e-02
<VARIANCE> 39
 1.018787e+01 1.845798e+01 2.116913e+01 2.200396e+01 4.718230e+01 2.930311e+01 4.277962e+01 4.159284e+01 4.997292e+01 3.848610e+01 3.777855e+01 2.910586e+01 5.958137e+01 9.208632e-01 2.106238e+00 1.828055e+00 2.312654e+00 5.395140e+00 2.937376e+00 4.259468e+00 3.862185e+00 6.038899e+00 3.801254e+00 3.791392e+00 2.871412e+00 2.439767e+00 1.094253e-01 3.935853e-01 2.776332e-01 3.779136e-01 1.077857e+00 5.159552e-01 6.561701e-01 6.681771e-01 1.176800e+00 7.405351e-01 6.997645e-01 5.192522e-01 5.030364e-01
<GCONST> 1.218578e+02
<STATE> 4
<NUMMIXES> 2
<MIXTURE> 1 8.981938e-01
<MEAN> 39
 3.344986e+00 3.248419e+00 2.751982e+00 2.331301e+00 6.236874e+00 3.537180e+00 1.059206e+00 1.250143e+00 -7.743000e-01 8.591203e-03 1.043382e+00 3.198341e-01 -9.027851e+00 5.495828e-02 2.268962e-01 -1.239812e-02 3.106217e-02 1.811030e-01 1.684759e-01 2.247098e-01 2.002687e-01 -1.451631e-02 1.409283e-02 5.621360e-03 7.725970e-02 -5.507405e-01 -1.593245e-02 -6.791853e-03 -2.733702e-02 -2.201853e-02 -3.220730e-02 -3.008597e-02 -1.543544e-02 -3.992077e-03 -7.253483e-03 -5.660044e-03 -1.785794e-03 3.957434e-04 2.412197e-02
<VARIANCE> 39
 7.717741e+00 1.134243e+01 1.340572e+01 1.469288e+01 1.549319e+01 1.595106e+01 2.572798e+01 2.721903e+01 1.663866e+01 1.847182e+01 1.924097e+01 1.494973e+01 2.602860e+01 1.802138e-01 2.889786e-01 5.193525e-01 6.855865e-01 8.468124e-01 9.432815e-01 1.172131e+00 1.347697e+00 1.321302e+00 1.425841e+00 1.338343e+00 1.178195e+00 1.001879e-01 2.696128e-02 5.385844e-02 9.469585e-02 1.235078e-01 1.626083e-01 1.811846e-01 2.198762e-01 2.640053e-01 2.548302e-01 2.791979e-01 2.704824e-01 2.296063e-01 7.880169e-03
<GCONST> 7.555589e+01
<MIXTURE> 2 1.018059e-01
<MEAN> 39
 -4.408374e-01 1.077172e+00 2.038968e+00 1.311510e+00 -1.450754e-01 -4.912280e-01 -8.889908e-01 -3.844212e-02 -6.395260e-01 1.272987e-02 -3.921421e-02 1.113365e+00 -2.186481e-01 -1.373996e-01 -8.495754e-02 1.771020e-01 1.244754e-01 4.257964e-03 -1.127638e-01 -1.215612e-01 -1.845224e-01 -4.529073e-02 -7.985138e-02 4.175770e-02 3.216391e-02 5.724260e-01 3.470372e-02 1.994942e-02 4.584351e-02 4.902581e-02 9.558086e-02 5.756408e-02 5.686793e-02 4.219186e-02 5.393312e-03 2.357288e-02 2.646845e-03 -5.717976e-02 -6.844938e-03
<VARIANCE> 39
 1.257311e+01 9.090446e+00 1.266403e+01 1.353986e+01 3.914442e+01 3.025991e+01 4.033046e+01 3.074566e+01 1.912646e+01 2.336397e+01 2.383973e+01 1.883653e+01 7.210233e+01 7.348609e-01 6.923636e-01 9.543390e-01 1.038588e+00 4.487431e+00 2.030383e+00 4.153313e+00 2.010181e+00 1.548521e+00 2.333656e+00 1.814799e+00 1.660157e+00 2.466202e+00 1.206151e-01 1.242389e-01 2.003989e-01 2.225901e-01 7.778826e-01 3.643409e-01 8.803170e-01 3.955353e-01 3.095990e-01 4.701527e-01 3.437427e-01 3.500519e-01 3.260644e-01
<GCONST> 1.043934e+02
<TRANSP> 5
 0.000000e+00 1.000000e+00 0.000000e+00 0.000000e+00 0.000000e+00
 0.000000e+00 8.931975e-01 1.068025e-01 0.000000e+00 0.000000e+00
 0.000000e+00 0.000000e+00 9.886232e-01 1.137681e-02 0.000000e+00
 0.000000e+00 0.000000e+00 0.000000e+00 9.621108e-01 3.788916e-02
 0.000000e+00 0.000000e+00 0.000000e+00 0.000000e+00 0.000000e+00
<ENDHMM>
~h "ds"
<BEGINHMM>
<NUMSTATES> 5
<STATE> 2
<NUMMIXES> 2
<MIXTURE> 1 7.625163e-01
<MEAN> 39
 2.651755e-01 -2.638569e-01 -2.126878e-01 -1.835501e-01 8.577961e-02 1.067333e-01 -2.408914e-01 3.510149e-01 -4.985465e-01 -1.819202e-02 -4.040913e-01 -3.797445e-01 -2.254705e+00 1.202981e-01 3.858362e-02 6.681689e-02 5.320377e-02 9.956427e-02 7.099402e-02 1.866118e-02 1.117193e-02 -1.119941e-02 2.744666e-02 -2.209627e-03 -2.471633e-02 -2.598977e-01 -1.933887e-02 2.393608e-04 -1.186572e-02 -2.193091e-02 -3.635627e-02 -2.147754e-02 -3.282953e-02 -2.103933e-02 7.115420e-04 8.926524e-03 1.929243e-02 -3.035208e-03 2.176546e-02
<VARIANCE> 39
 1.134144e+01 7.927211e+00 1.015226e+01 1.080791e+01 1.438243e+01 1.764120e+01 1.829753e+01 1.864504e+01 2.084445e+01 1.929821e+01 1.619066e+01 1.508681e+01 2.894794e+01 2.467452e-01 3.141274e-01 5.187163e-01 7.496935e-01 1.005079e+00 1.183375e+00 1.326424e+00 1.394423e+00 1.522117e+00 1.530581e+00 1.421207e+00 1.237382e+00 1.739492e-01 4.058138e-02 5.990088e-02 1.009344e-01 1.475321e-01 1.984070e-01 2.380882e-01 2.665937e-01 2.793463e-01 3.080365e-01 3.114070e-01 2.909551e-01 2.524030e-01 2.001138e-02
<GCONST> 7.930788e+01
<MIXTURE> 2 2.374968e-01
<MEAN> 39
 -1.303725e+00 -8.130414e-01 -1.643229e+00 -1.997867e+00 -2.100571e+00 -1.009250e+00 -1.364828e+00 -9.363918e-01 3.266679e-01 8.357179e-02 8.653144e-01 2.258272e-01 1.905087e+00 -4.152027e-01 -1.301436e-01 -2.658204e-01 -1.774864e-01 -3.274221e-01 -2.468809e-01 -1.056060e-01 -3.374323e-02 6.542213e-03 -6.407548e-02 7.753645e-03 8.852671e-02 9.086623e-01 4.323677e-02 7.092850e-03 3.989478e-02 7.105637e-02 9.346943e-02 5.841657e-02 1.056037e-01 5.614290e-02 3.243977e-03 -2.309915e-02 -4.589611e-02 1.739002e-02 -3.782899e-02
<VARIANCE> 39
 2.252060e+01 1.285969e+01 1.951655e+01 1.821738e+01 2.737265e+01 3.280048e+01 3.222582e+01 2.598233e+01 3.507264e+01 3.755158e+01 2.382509e+01 2.346445e+01 5.848449e+01 1.617570e+00 1.022603e+00 1.350422e+00 1.676206e+00 2.454678e+00 2.460729e+00 2.740984e+00 2.421004e+00 2.561790e+00 2.640169e+00 2.149511e+00 1.930638e+00 2.213587e+00 2.811128e-01 1.705230e-01 2.457047e-01 3.105650e-01 4.599659e-01 4.674607e-01 4.786056e-01 4.607573e-01 4.736380e-01 4.906911e-01 4.119071e-01 3.697788e-01 4.950592e-01
<GCONST> 1.107643e+02
<STATE> 3
<NUMMIXES> 2
<MIXTURE> 1 6.027476e-01
<MEAN> 39
 -2.510520e+00 2.920546e+00 -8.288504e-01 -1.772612e-01 -2.042220e+00 -3.032573e+00 6.099247e-01 -2.586915e+00 1.193398e+00 -7.917770e-01 8.245131e-01 3.701984e-01 1.722400e+01 1.184981e+00 9.172065e-01 8.276829e-01 9.665833e-01 1.301492e+00 1.241826e+00 5.751064e-01 3.648159e-01 -2.569580e-02 -4.683532e-01 -5.034118e-01 -7.121822e-02 4.750801e-01 -6.771223e-02 -2.889464e-01 -1.185722e-01 -1.100454e-01 -2.021317e-01 4.105041e-02 -2.351673e-01 2.003067e-01 -3.655661e-02 2.796901e-01 6.843408e-02 1.435130e-01 -9.397705e-01
<VARIANCE> 39
 2.398919e+01 1.653547e+01 1.346042e+01 1.633965e+01 1.689482e+01 1.987654e+01 2.281159e+01 1.828382e+01 1.980939e+01 2.107687e+01 2.356387e+01 1.620978e+01 5.724538e+01 2.374979e+00 2.335057e+00 1.303008e+00 1.785574e+00 2.067737e+00 1.633685e+00 2.607498e+00 1.921098e+00 2.983966e+00 3.013541e+00 2.432409e+00 1.722969e+00 2.871711e+00 6.692291e-01 3.882892e-01 2.866530e-01 4.010637e-01 4.046656e-01 4.142338e-01 5.294282e-01 3.515909e-01 5.887821e-01 5.340303e-01 5.346954e-01 3.267987e-01 1.175185e+00
<GCONST> 1.112827e+02
<MIXTURE> 2 3.972533e-01
<MEAN> 39
 -6.503345e+00 -2.887364e+00 -5.244354e+00 -4.055903e+00 -7.869243e+00 -5.430955e+00 -4.393149e+00 -1.315113e+00 -5.208201e-01 2.838945e+00 2.172036e+00 2.271499e+00 1.760012e+00 -1.360527e+00 -1.119657e-01 1.443683e-01 -1.617844e-01 -4.435367e-01 -7.288289e-01 5.907483e-01 -3.419980e-01 8.458643e-01 -1.584916e-02 5.130910e-01 -1.085364e-01 3.029249e+00 7.466809e-01 3.962840e-01 3.892286e-01 4.182671e-01 8.895571e-01 4.892738e-01 4.666897e-01 5.086314e-02 -1.601888e-02 -4.944952e-01 -3.325383e-01 -1.584825e-01 1.255065e-01
<VARIANCE> 39
 3.391418e+01 1.678811e+01 1.190615e+01 1.039541e+01 1.757421e+01 2.403089e+01 2.307146e+01 2.187515e+01 2.285935e+01 2.522751e+01 2.396501e+01 2.102379e+01 4.483989e+02 6.524784e+00 2.364415e+00 2.428885e+00 1.987639e+00 5.011044e+00 3.207340e+00 3.432478e+00 2.207386e+00 2.553803e+00 2.755392e+00 2.176014e+00 1.719925e+00 6.278224e+01 1.163155e+00 3.281139e-01 2.282102e-01 2.998784e-01 7.116063e-01 6.305988e-01 5.684116e-01 4.477861e-01 6.608729e-01 5.657858e-01 4.758675e-01 3.621572e-01 9.132947e+00
<GCONST> 1.239735e+02
<STATE> 4
<NUMMIXES> 2
<MIXTURE> 1 8.458158e-01
<MEAN> 39
 1.572644e+00 1.696825e+00 3.212602e+00 3.332065e+00 3.145400e+00 1.928540e+00 2.705998e+00 5.194921e-01 1.125144e+00 -2.196886e-01 -4.672850e-02 7.498193e-01 2.886776e+00 2.303425e-01 -2.615078e-02 1.063317e-01 5.238059e-02 1.362723e-01 1.124187e-01 1.731676e-02 6.519516e-02 -8.969706e-02 -6.062233e-02 -1.150815e-01 -1.130258e-01 -6.863154e-01 -1.236738e-02 1.328018e-03 -3.899988e-02 -4.767684e-02 -5.620121e-02 -6.337503e-02 -4.935474e-02 -5.202286e-02 -1.595204e-02 -5.017733e-04 1.525564e-02 -1.239235e-02 1.173785e-02
<VARIANCE> 39
 9.258325e+00 8.959894e+00 1.263555e+01 1.297524e+01 1.294271e+01 1.170494e+01 1.586659e+01 1.216877e+01 1.555260e+01 1.358200e+01 1.317697e+01 1.274701e+01 7.946353e+01 1.938107e-01 2.785523e-01 4.558387e-01 6.388124e-01 8.404761e-01 1.033153e+00 1.191831e+00 1.312164e+00 1.420585e+00 1.436380e+00 1.405091e+00 1.213002e+00 1.004249e-01 3.664257e-02 5.338516e-02 8.849587e-02 1.162783e-01 1.603381e-01 2.075658e-01 2.287668e-01 2.496572e-01 2.781847e-01 2.896220e-01 2.797429e-01 2.465471e-01 1.675843e-02
<GCONST> 7.507155e+01
<MIXTURE> 2 1.541865e-01
<MEAN> 39
 -9.944319e-02 6.484942e-01 1.021400e+00 8.840203e-01 5.529355e-01 -8.109494e-01 9.354079e-01 -1.249799e+00 1.411202e+00 1.543576e-01 1.210737e+00 8.099899e-01 3.728987e+00 -1.939488e-01 -2.957779e-01 -1.522231e-01 -1.552785e-01 -8.785460e-02 -1.307132e-01 1.753081e-02 -6.711961e-02 2.171565e-01 1.094587e-01 3.088305e-01 2.135113e-01 -1.619960e-01 3.318764e-02 8.575155e-03 1.288673e-01 1.615425e-01 1.911160e-01 2.020320e-01 1.895730e-01 1.761609e-01 4.658914e-02 -2.901786e-02 -7.448731e-02 2.241156e-02 -2.278231e-02
<VARIANCE> 39
 1.314523e+01 1.216315e+01 1.103343e+01 1.262185e+01 1.527180e+01 1.507633e+01 1.739917e+01 1.718484e+01 2.111683e+01 1.525850e+01 1.884784e+01 1.389492e+01 7.229933e+01 6.337315e-01 5.998886e-01 7.356850e-01 9.428483e-01 1.160603e+00 1.561475e+00 1.516342e+00 1.883649e+00 1.673970e+00 1.735006e+00 1.671652e+00 1.357236e+00 7.170990e-01 1.149044e-01 1.127167e-01 1.278810e-01 1.676852e-01 2.231616e-01 2.927636e-01 2.872957e-01 3.829805e-01 3.461794e-01 3.434784e-01 3.449337e-01 2.749994e-01 1.167314e-01
<GCONST> 9.055880e+01
<TRANSP> 5
 0.000000e+00 1.000000e+00 0.000000e+00 0.000000e+00 0.000000e+00
 0.000000e+00 9.928170e-01 7.183015e-03 0.000000e+00 0.000000e+00
 0.000000e+00 0.000000e+00 8.558147e-01 1.441853e-01 0.000000e+00
 0.000000e+00 0.000000e+00 0.000000e+00 9.696831e-01 3.031688e-02
 0.000000e+00 0.000000e+00 0.000000e+00 0.000000e+00 0.000000e+00
<ENDHMM>
~h "kj"
<BEGINHMM>
<NUMSTATES> 5
<STATE> 2
<NUMMIXES> 2
<MIXTURE> 1 7.480752e-01
<MEAN> 39
 6.870192e+00 -2.205163e-01 -2.574591e+00 1.095805e-01 1.119847e+00 -8.945316e-01 -7.250108e-01 -5.848894e-01 -1.244467e-01 4.750484e-01 -1.018256e+00 -2.972574e-01 -4.139893e+00 -7.364240e-02 1.066632e-01 -4.053446e-02 -6.271914e-02 -2.365750e-03 1.083296e-01 -2.704764e-02 3.703309e-02 5.344239e-02 -2.832589e-02 5.589016e-02 2.541754e-02 -1.510231e-02 -4.689138e-02 -3.668746e-03 1.278685e-02 -1.186992e-02 -5.152635e-02 -4.160088e-02 -1.011377e-02 -1.209004e-02 -2.444845e-02 1.344234e-03 -2.328121e-02 2.361103e-02 3.200255e-02
<VARIANCE> 39
 1.293269e+01 1.473384e+01 9.179030e+00 1.629934e+01 1.628033e+01 2.070952e+01 1.899189e+01 1.831120e+01 1.913170e+01 1.691319e+01 1.450848e+01 1.667955e+01 1.039398e+01 4.692119e-01 5.485606e-01 4.823391e-01 8.478238e-01 9.801518e-01 1.236564e+00 1.829107e+00 1.815624e+00 1.448473e+00 1.788932e+00 1.378622e+00 1.249593e+00 2.387445e-01 8.139434e-02 1.010094e-01 8.873529e-02 1.618346e-01 1.819507e-01 2.291867e-01 3.418418e-01 3.501611e-01 2.761629e-01 3.461486e-01 2.688423e-01 2.366589e-01 4.502849e-02
<GCONST> 8.387453e+01
<MIXTURE> 2 2.519232e-01
<MEAN> 39
 5.061890e+00 -7.039589e-01 -1.923312e+00 -8.732048e-02 4.615991e-01 -2.673650e+00 -1.408833e+00 -1.683287e+00 -5.683676e-01 3.737886e-01 -1.565768e+00 6.852771e-01 -2.667010e+00 -8.725050e-01 -7.960348e-01 4.330769e-02 2.058876e-01 -4.330721e-01 -5.629280e-01 -1.256469e-01 -6.010289e-01 -1.309172e-02 2.643369e-05 -5.650025e-02 3.574689e-02 1.394518e+00 1.260261e-01 -8.945884e-02 -1.716534e-02 4.517525e-03 1.300524e-01 1.555635e-01 2.676291e-02 8.969744e-02 8.179434e-02 -1.269040e-02 3.496512e-02 -7.602662e-02 -3.936129e-02
<VARIANCE> 39
 2.516487e+01 3.419485e+01 1.707093e+01 1.665843e+01 2.186905e+01 3.253189e+01 2.772477e+01 2.809128e+01 2.291587e+01 2.083080e+01 1.432344e+01 1.774670e+01 3.131236e+01 1.585090e+00 2.110225e+00 2.012475e+00 1.420354e+00 2.396517e+00 2.643856e+00 2.826413e+00 1.690528e+00 2.224608e+00 2.105738e+00 1.479995e+00 1.550661e+00 1.301368e+00 2.657835e-01 3.314011e-01 3.012049e-01 2.436856e-01 3.891969e-01 5.155509e-01 5.250295e-01 3.305823e-01 3.810388e-01 4.406667e-01 2.756153e-01 2.697698e-01 2.990556e-01
<GCONST> 1.067778e+02
<STATE> 3
<NUMMIXES> 2
<MIXTURE> 1 6.220359e-01
<MEAN> 39
 3.502749e+00 -4.543296e+00 -4.336233e+00 -6.651792e-02 1.547928e+00 -2.760090e+00 -4.402853e+00 -3.334737e+00 -9.923627e-01 -7.042471e-01 6.827282e-02 7.013854e-01 2.780100e+00 4.305068e-02 3.729630e-01 9.474468e-02 1.129909e-01 1.541022e-01 1.847952e-01 1.516003e-01 2.056725e-01 2.641156e-02 6.023940e-02 5.950586e-02 2.165422e-02 -4.494117e-01 -5.594387e-02 3.115428e-02 4.235404e-02 -2.035180e-02 -4.813249e-02 1.012668e-02 4.479190e-02 6.176441e-02 1.819238e-02 5.961244e-02 1.512057e-02 8.038147e-03 1.188242e-02
<VARIANCE> 39
 1.145504e+01 1.586711e+01 1.162420e+01 1.466528e+01 1.364286e+01 2.015458e+01 2.510261e+01 1.672213e+01 1.709827e+01 1.782771e+01 1.500099e+01 1.452299e+01 1.206251e+01 2.814876e-01 3.756289e-01 5.599867e-01 7.480395e-01 9.098963e-01 1.172354e+00 1.272759e+00 1.418213e+00 1.331944e+00 1.590477e+00 1.495613e+00 1.260318e+00 1.522298e-01 6.127814e-02 6.447970e-02 1.122472e-01 1.477512e-01 1.908897e-01 2.241122e-01 2.784574e-01 2.993046e-01 2.793703e-01 3.239104e-01 3.094131e-01 2.471510e-01 3.341744e-02
<GCONST> 8.066743e+01
<MIXTURE> 2 3.779634e-01
<MEAN> 39
 2.908883e+00 -4.411420e+00 -3.892819e+00 -8.560943e-01 3.247133e-01 -3.107989e+00 -4.772715e+00 -2.224716e+00 -2.198559e-01 3.053354e-01 -1.304950e-01 6.598662e-01 3.464408e+00 -4.453064e-01 -2.278744e-01 -1.158495e-01 -1.734446e-01 -9.716056e-02 -5.673916e-02 -1.722852e-01 -1.813639e-01 -1.267359e-01 -3.627335e-02 -5.923414e-03 -1.408476e-02 6.184586e-01 7.327043e-02 8.364264e-02 2.350539e-02 3.685941e-02 8.332216e-02 3.286267e-02 1.563605e-02 -2.333686e-02 -1.489722e-02 -8.138554e-02 -7.068928e-03 -2.364142e-02 -1.161272e-01
<VARIANCE> 39
 1.205043e+01 2.071137e+01 1.274088e+01 1.630727e+01 1.680428e+01 2.047008e+01 2.142011e+01 1.767302e+01 1.938671e+01 1.765044e+01 1.713314e+01 1.458499e+01 1.866300e+01 8.857104e-01 1.267994e+00 1.060738e+00 1.049019e+00 1.661836e+00 1.649133e+00 2.016267e+00 2.049558e+00 2.116009e+00 1.810487e+00 1.652417e+00 1.310490e+00 7.620414e-01 1.439123e-01 2.589652e-01 1.846236e-01 2.030405e-01 3.162678e-01 3.026526e-01 3.944814e-01 3.979261e-01 4.107138e-01 3.500013e-01 3.345522e-01 2.658624e-01 2.070832e-01
<GCONST> 9.638177e+01
<STATE> 4
<NUMMIXES> 2
<MIXTURE> 1 7.844642e-01
<MEAN> 39
 -1.538978e+00 2.107650e+00 1.271165e+00 2.980508e-01 8.284849e-03 1.324438e+00 1.549530e+00 1.047691e+00 2.966975e-01 3.021340e-01 1.514204e-01 -2.991383e-01 -1.332165e+00 9.651624e-02 5.439693e-02 -6.005436e-03 -2.995647e-02 1.139397e-02 3.310059e-02 2.457799e-02 1.707496e-02 7.512950e-03 1.009482e-02 1.024558e-03 -1.940749e-02 -1.091587e-01 -2.763144e-03 -1.401906e-02 -1.520581e-02 -4.792801e-03 -1.497904e-02 -2.999272e-02 -2.193526e-02 -1.239831e-02 -8.382875e-03 -6.699239e-03 -4.516328e-03 5.639590e-03 8.228628e-03
<VARIANCE> 39
 2.109844e+01 1.125688e+01 1.031693e+01 1.185457e+01 1.376888e+01 1.598506e+01 1.894960e+01 1.680990e+01 1.654672e+01 1.823900e+01 1.557060e+01 1.384559e+01 1.175641e+01 4.176477e-01 4.110665e-01 5.892662e-01 8.617191e-01 1.089360e+00 1.311002e+00 1.518076e+00 1.524691e+00 1.588481e+00 1.646880e+00 1.455035e+00 1.300032e+00 2.152927e-01 7.549403e-02 7.835183e-02 1.121019e-01 1.689076e-01 2.104995e-01 2.583348e-01 2.940610e-01 3.064823e-01 3.244098e-01 3.299470e-01 2.961874e-01 2.643960e-01 3.673968e-02
<GCONST> 8.297745e+01
<MIXTURE> 2 2.155458e-01
<MEAN> 39
 2.528985e+00 -5.915130e+00 -2.389650e+00 -9.676650e-01 -7.074094e-01 -3.364383e+00 -3.704583e+00 -2.488301e+00 -7.530444e-01 -1.111285e+00 -2.126150e-01 8.504437e-01 4.823465e+00 -1.772505e-01 -2.597091e-01 1.646751e-02 9.134445e-02 -1.756193e-02 -1.414960e-01 -7.958108e-02 -6.944386e-02 -3.129577e-03 -5.488557e-02 -4.121861e-03 7.335734e-02 3.021668e-01 2.144095e-02 4.446744e-02 4.693956e-02 1.626194e-02 5.776602e-02 1.061798e-01 8.049075e-02 4.297955e-02 3.406203e-02 2.444898e-02 1.462854e-02 -1.799365e-02 -3.550997e-02
<VARIANCE> 39
 3.520784e+01 5.087792e+01 1.960641e+01 1.868320e+01 1.947026e+01 3.046275e+01 3.089632e+01 2.495428e+01 1.869971e+01 2.172527e+01 1.648281e+01 1.502455e+01 6.185846e+01 1.051466e+00 1.906076e+00 1.133018e+00 1.214989e+00 1.513488e+00 1.942325e+00 2.051643e+00 1.873041e+00 1.758233e+00 1.742344e+00 1.535230e+00 1.398608e+00 2.050754e+00 1.582773e-01 3.068930e-01 1.999053e-01 2.351514e-01 2.955180e-01 3.711464e-01 3.978076e-01 3.695630e-01 3.531305e-01 3.444789e-01 2.983019e-01 2.853169e-01 2.867122e-01
<GCONST> 1.037603e+02
<TRANSP> 5
 0.000000e+00 1.000000e+00 0.000000e+00 0.000000e+00 0.000000e+00
 0.000000e+00 9.420956e-01 5.790440e-02 0.000000e+00 0.000000e+00
 0.000000e+00 0.000000e+00 9.543445e-01 4.565546e-02 0.000000e+00
 0.000000e+00 0.000000e+00 0.000000e+00 9.963735e-01 3.626486e-03
 0.000000e+00 0.000000e+00 0.000000e+00 0.000000e+00 0.000000e+00
<ENDHMM>
~h "kn"
<BEGINHMM>
<NUMSTATES> 5
<STATE> 2
<NUMMIXES> 2
<MIXTURE> 1 6.454263e-01
<MEAN> 39
 -2.553424e+00 -1.178164e-01 -3.174690e+00 -2.664217e+00 -3.107527e+00 -1.988908e+00 6.712894e-01 -2.886484e+00 2.046829e+00 -1.146105e+00 9.650178e-04 -2.588325e+00 7.511617e+00 -4.681191e-01 7.633206e-01 5.109450e-01 1.268220e-01 7.422415e-01 -1.420655e-02 1.080181e+00 9.256759e-01 1.749670e+00 6.516735e-01 4.277665e-01 9.583411e-01 1.786340e+00 -7.773340e-02 8.891746e-02 2.128577e-01 1.725539e-01 2.855721e-01 3.502381e-01 -2.288553e-01 -1.032607e-01 -5.902662e-01 -1.227069e-01 -4.584567e-02 1.360717e-01 -1.042655e+00
<VARIANCE> 39
 1.407639e+01 1.730149e+01 1.270148e+01 9.762551e+00 1.587725e+01 2.449015e+01 2.633362e+01 3.709388e+01 3.558909e+01 2.018849e+01 1.850613e+01 1.748593e+01 2.164142e+01 1.821701e+00 1.000398e+00 1.257944e+00 1.049969e+00 1.169666e+00 1.902609e+00 2.420564e+00 3.932148e+00 3.143558e+00 1.754576e+00 1.442016e+00 1.392266e+00 5.108282e+00 4.151354e-01 2.409221e-01 2.523213e-01 1.504222e-01 2.053897e-01 3.513271e-01 4.874919e-01 8.711622e-01 4.824670e-01 3.491775e-01 2.537296e-01 3.138913e-01 5.303651e-01
<GCONST> 1.042339e+02
<MIXTURE> 2 3.545737e-01
<MEAN> 39
 -6.862462e+00 7.545515e-02 1.442493e+00 -3.117735e+00 -2.373602e+00 1.848420e+00 -9.943262e-01 1.304005e+00 -1.722642e+00 6.743000e-01 -7.563812e-01 -9.360567e-01 -8.978910e+00 1.339646e+00 -5.748324e-01 -9.538561e-01 4.083570e-01 -4.024983e-01 -1.054999e+00 -2.869788e-01 -2.063041e+00 -6.339955e-02 -2.954445e-01 -2.323281e-01 -5.784889e-01 3.158411e+00 1.552405e-02 5.474012e-02 -8.672179e-02 -8.307541e-03 1.097610e-01 2.176487e-02 2.477930e-01 2.865053e-01 4.169925e-01 7.617342e-02 9.423076e-02 9.746355e-02 4.598808e-01
<VARIANCE> 39
 1.963235e+01 1.301463e+01 1.295974e+01 9.285984e+00 1.996632e+01 1.456997e+01 1.964302e+01 5.693521e+01 1.586594e+01 2.065143e+01 2.371936e+01 1.838385e+01 3.421492e+01 2.187226e+00 1.539874e+00 2.033785e+00 8.801333e-01 1.660214e+00 2.211130e+00 2.533859e+00 4.466589e+00 1.957832e+00 2.112376e+00 2.580661e+00 2.552491e+00 9.313308e+00 3.459137e-01 1.352754e-01 3.016173e-01 9.885895e-02 2.212683e-01 2.235216e-01 3.532633e-01 7.697091e-01 3.387611e-01 2.836832e-01 3.352869e-01 3.786546e-01 7.842858e-01
<GCONST> 1.056326e+02
<STATE> 3
<NUMMIXES> 2
<MIXTURE> 1 3.017211e-01
<MEAN> 39
 5.303351e-01 -2.452896e+00 -2.271460e+00 -1.489565e+00 -2.076760e+00 -2.824973e+00 1.368747e-01 -1.610763e+00 8.363767e-01 -9.528987e-01 3.762985e-01 -6.871721e-01 4.459499e+00 1.287478e-01 3.726646e-02 -1.278672e-01 -2.155697e-02 1.904290e-01 -8.282395e-02 2.349624e-01 5.237853e-01 6.448732e-01 3.161863e-01 3.487144e-01 4.145128e-01 7.060480e-01 -7.276300e-03 2.892958e-01 2.581453e-01 2.999015e-01 3.521950e-01 3.532725e-01 -4.792946e-02 1.085478e-01 -1.362554e-01 1.488611e-01 -1.834915e-02 1.176482e-01 -4.796631e-01
<VARIANCE> 39
 9.865513e+00 1.125866e+01 1.093261e+01 1.016146e+01 1.223271e+01 1.462613e+01 1.905994e+01 3.067795e+01 2.499798e+01 1.886168e+01 1.659132e+01 1.724312e+01 2.126337e+01 7.303613e-01 1.442135e+00 1.162719e+00 1.292461e+00 1.681705e+00 1.749416e+00 1.878518e+00 2.173087e+00 2.148369e+00 1.509861e+00 1.434842e+00 1.339486e+00 3.253359e+00 1.217752e-01 2.003137e-01 1.617563e-01 2.012000e-01 2.767432e-01 2.506311e-01 4.038776e-01 6.122513e-01 5.147787e-01 3.744990e-01 3.151168e-01 3.017029e-01 3.816304e-01
<GCONST> 9.731283e+01
<MIXTURE> 2 6.982799e-01
<MEAN> 39
 4.126128e-01 6.712689e-01 2.659920e-01 6.044638e-01 8.240635e-01 4.239627e-01 -1.635119e-01 1.527202e-01 2.323781e-01 5.986489e-01 2.405346e-01 6.877748e-01 -4.270441e-02 1.895594e-02 -5.980369e-02 7.360206e-02 7.496928e-02 -4.536289e-02 4.974819e-02 -1.052002e-01 -2.076370e-01 -3.258195e-01 -1.355551e-01 -1.579478e-01 -1.550055e-01 -3.749086e-01 4.370319e-03 -1.323891e-01 -1.166163e-01 -1.402161e-01 -1.701816e-01 -1.583751e-01 1.325860e-02 -5.015341e-02 4.146073e-02 -6.859350e-02 -3.929531e-03 -7.005939e-02 1.922371e-01
<VARIANCE> 39
 7.901363e+00 7.660110e+00 8.372269e+00 7.786894e+00 1.036492e+01 1.159466e+01 1.454210e+01 1.567171e+01 1.527088e+01 1.350748e+01 1.400491e+01 1.306539e+01 1.664988e+01 2.869155e-01 5.734408e-01 6.216615e-01 8.169388e-01 1.166198e+00 1.194312e+00 1.268797e+00 1.736803e+00 1.363093e+00 1.473974e+00 1.281425e+00 1.371538e+00 1.112625e+00 5.181227e-02 9.232823e-02 9.692046e-02 1.440070e-01 2.041343e-01 2.051671e-01 2.557005e-01 3.241535e-01 3.072085e-01 2.843125e-01 2.620300e-01 2.724075e-01 1.881084e-01
<GCONST> 8.150815e+01
<STATE> 4
<NUMMIXES> 2
<MIXTURE> 1 4.724871e-01
<MEAN> 39
 1.252884e-01 1.784565e-02 9.046172e-01 1.391680e-01 -7.557043e-01 -4.366777e-01 -1.054527e+00 -7.532716e-02 -1.569191e+00 -1.840632e-01 -4.793042e-01 1.344017e-01 -2.918083e+00 -4.629322e-02 2.085458e-01 3.006054e-01 7.931750e-02 7.324938e-02 2.318113e-01 -1.937538e-02 2.903978e-01 4.713785e-02 1.029565e-01 -2.145394e-02 -5.246517e-02 -5.697667e-01 -2.334680e-03 4.539031e-02 6.226848e-02 1.167003e-01 2.174257e-01 2.500109e-01 2.326628e-01 1.878452e-01 1.383287e-01 2.312017e-02 3.754135e-03 -6.986511e-02 3.122605e-02
<VARIANCE> 39
 8.172133e+00 9.288316e+00 8.167956e+00 7.664962e+00 8.742836e+00 1.169699e+01 1.252964e+01 1.368652e+01 1.462414e+01 1.510941e+01 1.266312e+01 1.299446e+01 2.318245e+01 1.645911e-01 2.930428e-01 4.395376e-01 6.377361e-01 1.005662e+00 1.015914e+00 1.231292e+00 1.256576e+00 1.473286e+00 1.358837e+00 1.242076e+00 1.313936e+00 1.056033e-01 2.214967e-02 5.531051e-02 8.933131e-02 1.152831e-01 1.567410e-01 1.578330e-01 2.300391e-01 2.295069e-01 2.983575e-01 2.822490e-01 2.428962e-01 2.390411e-01 7.640323e-03
<GCONST> 7.053425e+01
<MIXTURE> 2 5.275129e-01
<MEAN> 39
 -8.941042e-01 1.421190e+00 2.388969e+00 1.098395e+00 2.032966e+00 3.539076e+00 1.294592e+00 2.585840e+00 -1.033204e+00 -3.258950e-01 -9.397383e-01 -7.813132e-01 -4.899665e+00 -2.218769e-01 4.721909e-02 6.929750e-02 -1.628596e-01 -5.457100e-02 1.586374e-01 -3.629788e-02 6.769154e-02 -2.748333e-01 -1.276002e-01 -8.810946e-02 -9.037405e-02 -4.831959e-01 -2.559173e-02 -4.414256e-02 -6.366414e-02 -1.235437e-01 -2.116897e-01 -2.325045e-01 -1.757471e-01 -1.554369e-01 -7.874554e-02 -1.953041e-02 2.823505e-02 6.515872e-02 1.975898e-02
<VARIANCE> 39
 1.150570e+01 1.054875e+01 9.507730e+00 8.216949e+00 1.081373e+01 1.249306e+01 1.174263e+01 1.396469e+01 1.604437e+01 1.543799e+01 1.278270e+01 1.205768e+01 2.394986e+01 1.626093e-01 3.446900e-01 5.141379e-01 6.071172e-01 9.886038e-01 1.151237e+00 1.314706e+00 1.318565e+00 1.483138e+00 1.425770e+00 1.252787e+00 1.049868e+00 1.300414e-01 2.085384e-02 4.622054e-02 8.642241e-02 1.090783e-01 1.454319e-01 1.504915e-01 2.177631e-01 2.292558e-01 2.916041e-01 2.857754e-01 2.548974e-01 2.257697e-01 8.074333e-03
<GCONST> 7.159578e+01
<TRANSP> 5
 0.000000e+00 1.000000e+00 0.000000e+00 0.000000e+00 0.000000e+00
 0.000000e+00 7.987384e-01 2.012615e-01 0.000000e+00 0.000000e+00
 0.000000e+00 0.000000e+00 9.852781e-01 1.472190e-02 0.000000e+00
 0.000000e+00 0.000000e+00 0.000000e+00 9.594085e-01 4.059146e-02
 0.000000e+00 0.000000e+00 0.000000e+00 0.000000e+00 0.000000e+00
<ENDHMM>
~h "kt"
<BEGINHMM>
<NUMSTATES> 5
<STATE> 2
<NUMMIXES> 2
<MIXTURE> 1 6.796670e-01
<MEAN> 39
 6.327147e-01 -1.635781e-01 1.774047e-01 1.165650e-01 3.466085e-01 6.061270e-01 5.674968e-01 8.620138e-02 2.220994e-01 3.008352e-02 4.779972e-01 2.113200e-02 -5.833713e-01 3.537451e-01 -5.556881e-02 1.143654e-01 1.670261e-02 1.331225e-01 1.550492e-01 8.756647e-02 -2.149542e-02 -2.009787e-02 1.099570e-02 5.071133e-02 -2.020464e-02 -4.970123e-01 -5.681771e-02 1.641844e-02 -2.893064e-02 -3.389366e-02 -6.008133e-02 -7.743213e-02 -9.174232e-02 -3.616664e-03 -2.671492e-02 8.753953e-03 -6.823830e-02 1.062034e-02 3.715711e-02
<VARIANCE> 39
 7.117296e+00 5.276972e+00 6.739621e+00 8.628304e+00 1.091089e+01 1.226384e+01 1.336015e+01 1.491151e+01 1.547363e+01 1.501877e+01 1.370604e+01 1.276033e+01 1.004215e+01 2.111611e-01 3.128694e-01 5.158816e-01 6.881142e-01 9.375660e-01 1.115436e+00 1.343343e+00 1.450901e+00 1.494607e+00 1.548266e+00 1.374327e+00 1.204310e+00 1.704028e-01 7.310455e-02 6.847125e-02 1.119321e-01 1.449873e-01 2.013213e-01 2.416254e-01 2.814023e-01 3.098145e-01 3.133898e-01 3.403000e-01 2.818277e-01 2.502727e-01 7.967810e-02
<GCONST> 7.670817e+01
<MIXTURE> 2 3.203367e-01
<MEAN> 39
 -9.204111e-01 7.858839e-02 -4.218752e-01 -6.404167e-01 -1.028185e+00 -9.412983e-01 -1.143087e+00 1.155814e-01 -1.111839e-01 8.442277e-02 -7.478624e-01 2.999219e-02 9.759145e-01 -8.163288e-01 1.436994e-01 -2.823683e-01 -4.010930e-02 -3.015813e-01 -3.786253e-01 -1.839129e-01 4.664255e-02 5.790557e-02 -2.105635e-02 -1.079149e-01 3.621004e-02 1.139224e+00 1.126281e-01 -3.416751e-02 6.445421e-02 8.099569e-02 1.329317e-01 1.608121e-01 1.915267e-01 8.719209e-03 6.031204e-02 -2.026556e-02 1.410880e-01 -2.204699e-02 -7.055912e-02
<VARIANCE> 39
 1.452151e+01 8.345479e+00 9.835802e+00 1.313762e+01 1.530134e+01 1.969504e+01 1.910220e+01 1.803769e+01 1.910403e+01 1.887317e+01 1.604431e+01 1.369894e+01 2.265880e+01 1.255918e+00 7.823500e-01 9.834180e-01 1.323119e+00 1.628926e+00 2.149264e+00 2.176891e+00 2.017116e+00 2.064638e+00 2.307447e+00 1.830939e+00 1.499550e+00 1.624794e+00 3.137179e-01 1.350560e-01 1.916103e-01 2.335923e-01 3.072791e-01 4.137656e-01 4.018462e-01 3.875394e-01 3.938141e-01 4.437997e-01 3.265865e-01 2.857023e-01 5.078585e-01
<GCONST> 9.833872e+01
<STATE> 3
<NUMMIXES> 2
<MIXTURE> 1 6.835288e-01
<MEAN> 39
 -2.541743e+00 2.068566e-01 -5.497645e-01 1.316650e+00 1.804016e-01 -1.778519e+00 -3.084838e-01 -8.973229e-01 -7.639629e-02 2.127131e-02 -1.758695e-01 1.129618e-01 3.092657e+00 5.344096e-01 -5.630985e-03 1.044311e-01 -9.350915e-03 1.184335e-01 2.364203e-01 2.073846e-01 -4.801381e-02 -6.041888e-02 -8.144902e-02 1.325296e-01 3.685058e-02 -7.228047e-01 -1.731480e-02 5.989293e-02 1.009452e-02 -1.585850e-02 -1.255094e-02 -8.345946e-02 -4.124906e-02 -1.324953e-02 -2.012915e-02 -2.645068e-02 -6.926040e-02 3.149739e-02 -2.585007e-02
<VARIANCE> 39
 5.707268e+00 5.721391e+00 8.061650e+00 1.202470e+01 1.180026e+01 1.383965e+01 1.489611e+01 1.636576e+01 1.644851e+01 1.737940e+01 1.451353e+01 1.337723e+01 8.690187e+00 1.498463e-01 3.233141e-01 5.528808e-01 7.889466e-01 1.010072e+00 1.256385e+00 1.296312e+00 1.350145e+00 1.430969e+00 1.677117e+00 1.323606e+00 1.186708e+00 8.862964e-02 8.530667e-02 7.430024e-02 1.231972e-01 1.703275e-01 2.247577e-01 2.769434e-01 2.807472e-01 3.102439e-01 3.121169e-01 3.925937e-01 2.694261e-01 2.575445e-01 1.247219e-01
<GCONST> 7.826871e+01
<MIXTURE> 2 3.164670e-01
<MEAN> 39
 -2.979999e+00 1.178949e+00 -4.175842e-01 1.640232e+00 1.788939e-02 -2.872198e+00 -1.081814e+00 -7.826160e-01 -3.195447e-01 -4.045007e-01 -1.441016e+00 2.535571e-01 2.958107e+00 -9.078225e-01 2.313751e-02 -1.235093e-01 1.500485e-01 -1.028695e-01 -3.928457e-01 -3.410816e-01 2.124840e-02 9.840763e-02 8.707828e-02 -2.674831e-01 -9.686952e-02 1.232466e+00 1.518727e-01 -1.383963e-01 -4.690460e-03 -3.130326e-02 7.063950e-03 2.342427e-01 1.142379e-01 4.288902e-02 2.701727e-02 6.517676e-02 1.609366e-01 -7.872410e-02 -9.777144e-02
<VARIANCE> 39
 1.259508e+01 6.339656e+00 9.432715e+00 1.132716e+01 1.487840e+01 2.395094e+01 1.970628e+01 1.589342e+01 1.784641e+01 1.562311e+01 1.669853e+01 1.308258e+01 1.718373e+01 8.480289e-01 7.439916e-01 9.587665e-01 1.148854e+00 1.561388e+00 2.266481e+00 1.927690e+00 1.901022e+00 1.872063e+00 1.994759e+00 1.896504e+00 1.524945e+00 1.174022e+00 3.408736e-01 1.150729e-01 1.739826e-01 2.125913e-01 2.874984e-01 4.621181e-01 3.949850e-01 3.238350e-01 3.405237e-01 3.512568e-01 3.618271e-01 2.910481e-01 5.118871e-01
<GCONST> 9.529668e+01
<STATE> 4
<NUMMIXES> 2
<MIXTURE> 1 6.844955e-01
<MEAN> 39
 1.378182e+00 -9.653195e-02 2.287498e-01 -5.078024e-01 2.599949e-01 8.940104e-01 4.513408e-01 1.928577e-01 -1.096169e-01 -7.156933e-03 8.121110e-02 -3.742209e-01 -1.790885e+00 3.093070e-01 -1.216704e-01 1.618183e-01 -1.604909e-02 8.296434e-02 2.026569e-01 9.866425e-02 4.015079e-02 1.963990e-02 8.130196e-02 1.088437e-01 -1.328252e-02 -2.812145e-01 -2.330538e-02 1.263414e-02 2.437647e-03 1.896769e-02 1.499203e-03 8.852156e-04 -2.138926e-02 7.458113e-03 -1.091389e-02 -2.492837e-03 -5.853212e-03 2.973014e-02 2.510519e-02
<VARIANCE> 39
 6.369853e+00 5.951896e+00 8.103371e+00 8.663818e+00 1.194688e+01 1.373148e+01 1.338544e+01 1.549203e+01 1.614348e+01 1.560489e+01 1.363480e+01 1.184508e+01 5.269633e+00 2.148359e-01 3.197801e-01 4.763421e-01 6.627286e-01 9.000067e-01 1.046913e+00 1.261921e+00 1.346904e+00 1.462440e+00 1.454131e+00 1.345551e+00 1.226829e+00 1.156159e-01 4.962041e-02 6.671835e-02 9.902989e-02 1.357563e-01 1.862101e-01 2.209925e-01 2.576661e-01 2.768643e-01 3.015564e-01 3.002965e-01 2.700301e-01 2.374348e-01 2.423334e-02
<GCONST> 7.329279e+01
<MIXTURE> 2 3.155000e-01
<MEAN> 39
 1.267668e-01 1.243462e-01 4.377219e-01 -8.388498e-02 3.182541e-02 5.029382e-01 -2.643928e-01 1.368321e-01 -5.033175e-01 -2.094444e-01 1.327276e-02 3.561204e-01 -2.589886e-01 -5.248027e-01 1.829777e-01 -2.936401e-01 -5.403845e-02 -1.572010e-01 -3.291222e-01 -2.042224e-01 -5.724747e-02 -7.508796e-02 -1.516245e-01 -2.046115e-01 2.280873e-02 4.492043e-01 3.777587e-02 -3.265940e-02 -7.908843e-03 -2.948707e-02 8.833677e-03 -2.629116e-03 3.576216e-02 -1.375729e-02 2.383736e-02 8.843634e-03 1.692062e-02 -5.556473e-02 -3.700488e-02
<VARIANCE> 39
 1.238709e+01 1.237958e+01 1.139312e+01 1.215350e+01 1.577537e+01 1.876594e+01 1.687587e+01 1.680638e+01 1.724668e+01 1.698796e+01 1.581064e+01 1.290928e+01 1.178201e+01 8.761327e-01 8.917077e-01 8.143622e-01 1.079582e+00 1.472154e+00 1.511528e+00 1.786316e+00 1.688960e+00 1.767465e+00 1.711225e+00 1.591831e+00 1.294674e+00 7.581801e-01 2.220738e-01 1.642915e-01 1.705315e-01 2.096711e-01 2.828420e-01 3.187324e-01 3.745971e-01 3.238653e-01 3.532852e-01 3.432317e-01 3.416757e-01 2.666988e-01 1.852202e-01
<GCONST> 9.217649e+01
<TRANSP> 5
 0.000000e+00 1.000000e+00 0.000000e+00 0.000000e+00 0.000000e+00
 0.000000e+00 9.952781e-01 4.721915e-03 0.000000e+00 0.000000e+00
 0.000000e+00 0.000000e+00 9.746835e-01 2.531648e-02 0.000000e+00
 0.000000e+00 0.000000e+00 0.000000e+00 9.872701e-01 1.272993e-02
 0.000000e+00 0.000000e+00 0.000000e+00 0.000000e+00 0.000000e+00
<ENDHMM>
~h "pr"
<BEGINHMM>
<NUMSTATES> 5
<STATE> 2
<NUMMIXES> 2
<MIXTURE> 1 2.288783e-01
<MEAN> 39
 -1.270476e+00 -7.443037e-03 -4.252400e-01 4.534767e-01 1.301388e+00 -8.355656e-01 -4.137417e-01 -4.119619e-01 -1.740798e-01 1.256206e-01 5.327199e-02 5.412261e-01 1.198225e+00 -6.188477e-01 -2.893496e-01 -4.898782e-02 -1.592205e-01 2.911728e-02 -5.386524e-02 1.583845e-01 -1.544734e-01 -2.646563e-02 -5.226279e-02 -1.894804e-02 1.524159e-01 7.149157e-01 5.366597e-02 1.004057e-02 -9.332259e-03 -5.825689e-03 -2.016471e-03 3.963530e-02 -3.974991e-03 -3.979458e-02 -1.961733e-02 -3.768192e-02 1.147666e-02 -9.027416e-04 -3.968216e-02
<VARIANCE> 39
 2.005692e+01 2.127509e+01 2.214466e+01 3.304561e+01 5.852246e+01 4.106376e+01 5.901648e+01 4.800170e+01 3.703139e+01 3.503393e+01 4.707203e+01 4.658318e+01 1.395223e+01 1.516431e+00 1.488241e+00 1.919651e+00 2.496174e+00 2.645190e+00 3.195840e+00 3.670521e+00 4.025197e+00 3.419993e+00 3.123309e+00 3.820772e+00 3.367368e+00 8.904696e-01 2.867528e-01 2.402183e-01 3.075607e-01 3.958949e-01 4.250094e-01 5.165087e-01 6.029788e-01 6.109564e-01 5.521819e-01 5.134625e-01 6.120985e-01 5.046895e-01 2.063318e-01
<GCONST> 1.182651e+02
<MIXTURE> 2 7.711201e-01
<MEAN> 39
 -4.982221e-01 -8.198438e-01 5.889270e-01 -1.745687e-02 3.537092e-01 4.113812e-01 -2.833201e-01 -5.457557e-01 -2.325620e-01 -9.742886e-02 1.347533e-02 2.617331e-01 5.575148e-01 1.574328e-01 6.901351e-02 2.569456e-02 3.258442e-02 -2.290433e-02 3.654769e-02 -2.973817e-02 2.707398e-02 1.628529e-02 -1.026869e-02 -1.396611e-03 -1.856656e-02 -1.858020e-01 -2.806070e-03 5.711621e-04 -1.502165e-04 4.455932e-03 -1.806007e-03 -1.240002e-02 -1.155731e-03 1.464297e-02 4.854292e-03 1.648911e-02 -5.700380e-03 -6.657440e-03 5.733731e-04
<VARIANCE> 39
 1.256678e+01 1.510097e+01 1.848245e+01 2.533223e+01 6.504429e+01 3.744902e+01 5.113349e+01 4.503818e+01 3.959533e+01 3.407653e+01 3.548291e+01 4.559302e+01 6.042804e+00 2.081125e-01 3.922718e-01 5.867173e-01 9.217627e-01 1.088968e+00 1.383103e+00 1.552756e+00 1.621990e+00 1.707633e+00 1.601705e+00 1.615623e+00 1.436645e+00 9.224004e-02 3.601192e-02 7.038230e-02 1.132759e-01 1.768833e-01 2.159179e-01 2.688653e-01 3.171581e-01 3.208479e-01 3.414277e-01 3.203797e-01 3.323538e-01 2.986928e-01 1.637186e-02
<GCONST> 8.903046e+01
<STATE> 3
<NUMMIXES> 2
<MIXTURE> 1 4.101490e-01
<MEAN> 39
 -4.169276e+00 9.901226e-01 1.757902e+00 -4.751183e-01 -2.864164e+00 2.433726e+00 -2.223577e+00 -5.323591e+00 3.523460e+00 -4.353131e+00 -2.042539e-01 -1.172194e-01 3.526198e+00 -1.203078e-01 4.239001e-02 -3.038433e-02 1.658881e-02 3.155215e-01 -2.825221e-01 7.331491e-02 2.697273e-01 -1.676305e-01 -1.206617e-02 1.655334e-01 -1.622861e-01 6.006552e-02 -1.745353e-01 8.153456e-02 5.723372e-02 5.098727e-02 2.453678e-01 -2.225768e-02 2.549568e-01 1.826663e-01 -8.004294e-02 -1.161086e-02 2.611807e-01 2.894871e-02 1.248894e-01
<VARIANCE> 39
 1.041183e+01 1.440364e+01 1.100231e+01 1.801506e+01 1.249695e+01 2.105803e+01 1.520344e+01 1.604985e+01 2.474397e+01 2.319651e+01 1.951561e+01 1.806226e+01 4.574194e+00 7.471287e-01 4.927588e-01 5.274538e-01 8.827924e-01 1.304105e+00 1.839995e+00 1.344961e+00 1.422108e+00 1.714112e+00 1.902776e+00 2.199608e+00 1.217677e+00 3.182211e-01 1.316744e-01 7.536351e-02 1.031151e-01 1.751695e-01 2.465199e-01 4.275114e-01 2.483250e-01 3.174312e-01 3.588420e-01 3.904909e-01 3.546838e-01 2.537731e-01 4.903198e-02
<GCONST> 8.676184e+01
<MIXTURE> 2 5.898499e-01
<MEAN> 39
 -5.881904e+00 -1.168549e+00 2.004703e+00 1.708636e-01 4.312794e-01 3.572331e+00 5.138395e-01 -2.900284e+00 2.246968e+00 -4.061368e+00 3.441177e+00 -2.674691e-01 5.091832e+00 1.416382e-01 -5.810858e-02 2.436142e-02 -7.304760e-02 -1.913228e-01 1.598437e-01 -7.561439e-02 -1.493971e-01 1.714648e-01 4.013177e-02 -1.797261e-01 1.692753e-01 -1.139611e-01 1.227727e-01 -5.154183e-02 -3.788096e-02 -4.103166e-02 -1.553130e-01 -6.995011e-04 -1.697621e-01 -9.726530e-02 5.054715e-02 2.227980e-02 -1.799958e-01 -3.147760e-02 -8.907533e-02
<VARIANCE> 39
 6.943416e+00 2.242880e+01 1.184513e+01 1.316690e+01 1.256448e+01 1.812410e+01 1.529668e+01 1.583609e+01 2.079821e+01 2.108416e+01 1.760431e+01 1.801998e+01 3.629253e+00 4.269752e-01 3.220256e-01 5.156928e-01 7.591867e-01 1.097738e+00 1.534084e+00 1.640596e+00 1.418796e+00 1.565353e+00 1.784699e+00 1.701849e+00 1.281259e+00 1.619548e-01 9.787231e-02 6.897213e-02 9.496974e-02 1.502087e-01 2.089532e-01 3.239704e-01 2.854944e-01 2.548407e-01 3.383426e-01 3.310266e-01 3.409375e-01 2.719337e-01 3.773002e-02
<GCONST> 8.184940e+01
<STATE> 4
<NUMMIXES> 2
<MIXTURE> 1 2.868268e-01
<MEAN> 39
 -3.528673e+00 -6.988949e-01 1.422308e+00 -1.697190e+00 -8.353373e-01 1.927964e+00 -7.966701e-01 -2.043364e+00 3.557242e+00 -2.838013e+00 -2.172985e-01 1.865470e+00 2.705611e+00 -4.150456e-02 -7.453477e-02 6.631472e-02 -5.777479e-02 -5.581487e-03 2.093136e-02 -3.541816e-02 -5.721384e-02 3.015714e-02 1.962291e-02 -9.028136e-03 4.318653e-02 7.256888e-02 1.701172e-02 1.599209e-02 8.696647e-03 2.232427e-03 3.435920e-02 1.197252e-02 1.837210e-02 3.477615e-02 -2.339584e-03 2.972792e-02 2.500627e-03 -2.617952e-03 -1.167836e-02
<VARIANCE> 39
 2.025102e+01 2.171210e+01 2.694194e+01 3.947058e+01 2.555672e+01 4.488500e+01 2.226016e+01 3.178039e+01 4.452340e+01 5.296965e+01 3.935110e+01 2.432449e+01 1.456156e+01 8.028411e-01 7.511770e-01 9.898100e-01 1.321373e+00 1.432806e+00 1.909732e+00 1.574305e+00 1.904940e+00 2.126176e+00 2.002116e+00 2.188281e+00 1.598988e+00 5.069867e-01 1.531542e-01 1.367700e-01 1.836299e-01 2.457257e-01 2.869871e-01 3.841080e-01 3.130223e-01 3.678215e-01 4.178002e-01 3.851789e-01 4.302115e-01 3.059394e-01 8.959187e-02
<GCONST> 1.019385e+02
<MIXTURE> 2 7.131834e-01
<MEAN> 39
 4.876427e+00 1.180606e+00 -1.972013e+00 6.232895e-01 1.284364e-01 -2.516486e+00 1.005123e+00 3.430256e+00 -2.589414e+00 3.338941e+00 -9.366095e-01 -1.032418e+00 -4.206200e+00 8.983590e-02 6.541495e-02 -6.667197e-02 7.077152e-02 -5.533624e-03 -2.631254e-02 6.891761e-03 3.002728e-02 -4.751855e-02 1.383438e-02 2.963519e-02 -5.818354e-02 -8.971909e-02 -8.923693e-03 -7.200873e-03 -3.571988e-03 2.802687e-03 -1.628406e-02 -3.389515e-03 -9.049226e-03 -1.925544e-02 2.251491e-04 -1.553345e-02 2.027162e-03 -1.714927e-03 6.436786e-03
<VARIANCE> 39
 1.345313e+01 1.951521e+01 3.564559e+01 5.073278e+01 2.792242e+01 3.273352e+01 2.341800e+01 2.585866e+01 3.272998e+01 2.990285e+01 4.011010e+01 4.112127e+01 8.148255e+00 1.506706e-01 3.074613e-01 4.777357e-01 7.407461e-01 9.477988e-01 1.216851e+00 1.278830e+00 1.352200e+00 1.448879e+00 1.507897e+00 1.254344e+00 1.142348e+00 6.292750e-02 2.523084e-02 5.544623e-02 8.991247e-02 1.352468e-01 1.820547e-01 2.349502e-01 2.495538e-01 2.602759e-01 2.781748e-01 2.945774e-01 2.463661e-01 2.205207e-01 8.303646e-03
<GCONST> 8.224589e+01
<TRANSP> 5
 0.000000e+00 1.000000e+00 0.000000e+00 0.000000e+00 0.000000e+00
 0.000000e+00 9.929498e-01 7.050243e-03 0.000000e+00 0.000000e+00
 0.000000e+00 0.000000e+00 9.836243e-01 1.637574e-02 0.000000e+00
 0.000000e+00 0.000000e+00 0.000000e+00 9.940158e-01 5.984191e-03
 0.000000e+00 0.000000e+00 0.000000e+00 0.000000e+00 0.000000e+00
<ENDHMM>
~h "pw"
<BEGINHMM>
<NUMSTATES> 5
<STATE> 2
<NUMMIXES> 2
<MIXTURE> 1 6.815757e-01
<MEAN> 39
 -1.784442e-01 1.399713e+00 2.714436e-01 2.527853e-01 7.518005e-01 1.421133e+00 1.052787e+00 1.120548e+00 6.009091e-01 3.821650e-01 1.474529e-01 -2.303875e-01 -1.913027e+00 1.318027e-01 1.912399e-01 1.062434e-02 -7.768564e-03 3.381342e-02 7.836226e-02 6.374880e-02 7.028484e-02 1.187280e-02 3.126033e-02 1.187695e-02 1.010946e-02 -2.325147e-01 -3.279364e-02 -1.518528e-02 1.071134e-03 -6.253174e-03 -4.324067e-02 -6.301986e-02 -3.337396e-02 -1.985003e-02 -2.512343e-02 -8.350253e-03 -1.980931e-02 1.579661e-02 3.226165e-02
<VARIANCE> 39
 1.191237e+01 1.576990e+01 8.906782e+00 9.652552e+00 1.165002e+01 1.266674e+01 1.424079e+01 1.654027e+01 1.502313e+01 1.395244e+01 1.357898e+01 1.163701e+01 1.511355e+01 2.965319e-01 3.959096e-01 5.195080e-01 7.458565e-01 9.481134e-01 1.138161e+00 1.267493e+00 1.403251e+00 1.459579e+00 1.349469e+00 1.369612e+00 1.197680e+00 1.715997e-01 4.808531e-02 7.201874e-02 1.013297e-01 1.476268e-01 1.847988e-01 2.292427e-01 2.569503e-01 2.856944e-01 2.975981e-01 2.713849e-01 2.865624e-01 2.450349e-01 2.387576e-02
<GCONST> 7.737007e+01
<MIXTURE> 2 3.184295e-01
<MEAN> 39
 -2.330769e+00 -7.733416e-01 1.038564e-01 3.914495e-02 -5.045746e-01 -8.438195e-01 -1.910222e-01 4.976273e-02 -1.810773e-01 -1.642917e-01 -4.934090e-01 2.033175e-01 1.658535e+00 -3.040644e-01 -4.345837e-01 -1.165412e-02 1.676068e-02 -8.084177e-02 -1.934478e-01 -1.367560e-01 -1.667877e-01 -2.991186e-02 -6.829581e-02 -2.937739e-02 -1.715879e-02 5.418026e-01 6.935254e-02 2.843194e-02 -9.207980e-03 1.182131e-02 8.487722e-02 1.279251e-01 6.434168e-02 3.823851e-02 4.960212e-02 2.116238e-02 3.867879e-02 -3.305966e-02 -6.021451e-02
<VARIANCE> 39
 1.707029e+01 2.465277e+01 1.417942e+01 1.437155e+01 1.777158e+01 2.179968e+01 2.081680e+01 2.141252e+01 1.837248e+01 1.713534e+01 1.546477e+01 1.407867e+01 2.836096e+01 1.029655e+00 1.288551e+00 1.136531e+00 1.262596e+00 1.572312e+00 1.971306e+00 1.857101e+00 1.792095e+00 1.821608e+00 1.693617e+00 1.701977e+00 1.392836e+00 1.110846e+00 1.844523e-01 2.530143e-01 2.156045e-01 2.499963e-01 3.070201e-01 3.908146e-01 3.769077e-01 3.543696e-01 3.713355e-01 3.391868e-01 3.431801e-01 2.844019e-01 2.223500e-01
<GCONST> 9.862728e+01
<STATE> 3
<NUMMIXES> 2
<MIXTURE> 1 7.426354e-01
<MEAN> 39
 1.501462e+00 -3.016962e+00 -1.155668e+00 -4.487539e-01 -5.384040e-01 -2.461628e+00 -2.528430e+00 -3.569566e+00 -1.957988e+00 -1.338696e+00 1.681119e-02 2.044937e-01 4.771620e+00 1.469385e-01 2.365699e-01 7.234170e-02 9.427293e-02 1.563102e-01 2.018433e-01 1.148876e-01 1.350508e-01 1.170978e-02 4.585500e-02 2.145306e-02 3.817400e-02 -7.193640e-01 -2.545673e-02 2.142419e-02 1.358929e-02 5.343405e-03 -1.636054e-02 -1.499779e-02 1.333203e-02 4.001315e-02 3.105541e-02 2.163924e-02 -1.956726e-02 -1.170490e-03 1.197822e-02
<VARIANCE> 39
 1.352643e+01 2.331958e+01 1.151429e+01 1.121964e+01 1.360812e+01 2.008081e+01 2.028439e+01 2.359646e+01 1.714631e+01 1.460094e+01 1.321301e+01 1.203692e+01 6.148540e+01 2.078165e-01 3.327641e-01 4.544322e-01 6.337769e-01 8.926092e-01 1.041685e+00 1.190240e+00 1.425838e+00 1.417344e+00 1.292999e+00 1.201981e+00 1.117300e+00 1.248996e-01 3.591721e-02 6.070931e-02 9.121388e-02 1.249419e-01 1.830362e-01 2.169957e-01 2.445427e-01 2.983041e-01 2.952778e-01 2.665096e-01 2.482812e-01 2.326561e-01 2.063668e-02
<GCONST> 7.842410e+01
<MIXTURE> 2 2.573640e-01
<MEAN> 39
 -7.321386e-01 -1.132422e+00 1.022343e-03 -6.365784e-01 -2.134240e+00 -2.996046e+00 -2.026359e+00 -1.207437e+00 -3.245582e-01 -3.125334e-01 -8.778751e-01 2.250363e-02 5.937009e+00 -3.476410e-01 -8.228015e-01 -2.376212e-01 -2.372543e-01 -4.476258e-01 -6.877081e-01 -4.975411e-01 -5.736948e-01 -1.534606e-01 -1.941616e-01 -4.038948e-02 -7.258637e-02 2.178410e+00 9.679940e-02 -2.320711e-02 -3.082020e-02 -7.180666e-03 8.957348e-02 9.926604e-02 9.467497e-03 -7.268283e-02 -6.683099e-02 -4.965570e-02 6.742188e-02 -1.137811e-02 -1.090814e-01
<VARIANCE> 39
 1.849706e+01 3.260572e+01 1.395599e+01 1.472336e+01 2.288440e+01 3.479726e+01 2.729997e+01 3.058533e+01 1.809752e+01 1.853369e+01 1.641690e+01 1.519045e+01 1.218736e+02 1.474374e+00 2.220281e+00 1.325296e+00 1.387546e+00 2.637154e+00 3.499770e+00 2.771156e+00 2.576156e+00 1.763538e+00 1.933848e+00 1.795153e+00 1.807889e+00 7.813486e+00 2.583250e-01 4.289060e-01 2.368460e-01 2.667710e-01 5.356020e-01 7.070941e-01 5.373280e-01 4.858356e-01 3.282280e-01 3.806405e-01 3.456230e-01 3.725764e-01 1.861259e+00
<GCONST> 1.126082e+02
<STATE> 4
<NUMMIXES> 2
<MIXTURE> 1 7.158700e-01
<MEAN> 39
 8.316963e-01 1.227099e+00 2.252171e-01 1.663571e-01 5.846289e-01 1.290309e+00 8.564197e-01 8.659053e-01 3.747131e-01 3.451897e-01 2.806848e-01 -6.006444e-02 -2.593312e+00 1.166367e-01 1.763502e-01 7.202634e-03 -4.685580e-03 3.954682e-02 1.140716e-01 9.214895e-02 9.336846e-02 3.975106e-02 4.295314e-02 4.659468e-03 -8.065931e-03 -2.515179e-01 -2.743751e-02 -1.904401e-02 -2.282839e-03 -8.230169e-03 -4.080134e-02 -5.532485e-02 -2.938847e-02 -9.150187e-03 -7.486233e-03 -7.598799e-03 -1.865345e-02 1.007442e-02 3.352596e-02
<VARIANCE> 39
 1.177966e+01 1.432578e+01 8.824878e+00 9.439152e+00 1.145091e+01 1.442230e+01 1.460642e+01 1.736019e+01 1.571735e+01 1.443443e+01 1.328379e+01 1.223265e+01 1.523898e+01 2.988337e-01 4.031199e-01 5.152575e-01 7.191343e-01 9.659626e-01 1.181651e+00 1.281365e+00 1.404830e+00 1.439917e+00 1.403732e+00 1.309615e+00 1.210502e+00 1.806552e-01 4.778989e-02 7.346736e-02 9.898859e-02 1.410745e-01 1.884784e-01 2.349015e-01 2.552177e-01 2.819372e-01 2.900076e-01 2.900691e-01 2.652051e-01 2.458192e-01 2.470539e-02
<GCONST> 7.759497e+01
<MIXTURE> 2 2.841379e-01
<MEAN> 39
 -1.458783e+00 -1.976785e+00 -1.521056e-01 -2.793655e-01 -1.204297e+00 -2.060443e+00 -1.077308e+00 -7.942646e-01 -1.325591e-01 -2.372814e-01 -4.123525e-01 1.651828e-01 3.192086e+00 -2.729436e-01 -4.277986e-01 -1.360785e-02 1.794528e-04 -9.417860e-02 -2.505264e-01 -1.971238e-01 -1.957406e-01 -7.127976e-02 -9.464122e-02 -7.110874e-03 4.474235e-03 5.804571e-01 7.144016e-02 4.360113e-02 4.830534e-03 1.784483e-02 9.903642e-02 1.360762e-01 6.843438e-02 1.530634e-02 1.331741e-02 1.683662e-02 4.796436e-02 -2.434320e-02 -8.117521e-02
<VARIANCE> 39
 1.863551e+01 2.519922e+01 1.524317e+01 1.431026e+01 1.719378e+01 2.365491e+01 2.260685e+01 2.724335e+01 2.067689e+01 1.850688e+01 1.606933e+01 1.502940e+01 4.494592e+01 1.045225e+00 1.442743e+00 1.029654e+00 1.182187e+00 1.579723e+00 2.091724e+00 1.854224e+00 1.923966e+00 1.751024e+00 1.758197e+00 1.666588e+00 1.476912e+00 2.187298e+00 1.841828e-01 2.644280e-01 1.873695e-01 2.300949e-01 3.079103e-01 4.189830e-01 3.756092e-01 3.917701e-01 3.609704e-01 3.591934e-01 3.392900e-01 3.101917e-01 3.819740e-01
<GCONST> 1.013804e+02
<TRANSP> 5
 0.000000e+00 1.000000e+00 0.000000e+00 0.000000e+00 0.000000e+00
 0.000000e+00 9.941252e-01 5.874824e-03 0.000000e+00 0.000000e+00
 0.000000e+00 0.000000e+00 9.890078e-01 1.099223e-02 0.000000e+00
 0.000000e+00 0.000000e+00 0.000000e+00 9.971170e-01 2.882906e-03
 0.000000e+00 0.000000e+00 0.000000e+00 0.000000e+00 0.000000e+00
<ENDHMM>
~h "si"
<BEGINHMM>
<NUMSTATES> 5
<STATE> 2
<NUMMIXES> 2
<MIXTURE> 1 7.717676e-01
<MEAN> 39
 6.673842e-01 7.917712e-01 2.661904e-01 4.476671e-01 5.038130e-01 6.683145e-01 3.747526e-01 3.259349e-01 -1.593709e-03 -9.678503e-02 -1.362956e-01 -1.611100e-01 -1.029961e+00 2.267558e-02 3.688988e-02 -1.015185e-02 -1.029268e-02 7.043832e-03 3.717054e-02 2.367240e-02 5.117007e-02 1.009283e-02 1.387517e-02 9.898434e-03 -1.069777e-02 -8.340759e-02 -1.251020e-02 -1.350724e-02 -1.093021e-02 -1.607052e-02 -2.604618e-02 -3.225344e-02 -2.897870e-02 -2.473554e-02 -9.579103e-03 -3.206306e-03 -3.898742e-03 1.921193e-03 1.176833e-02
<VARIANCE> 39
 9.476305e+00 6.619167e+00 7.681308e+00 9.629094e+00 1.229363e+01 1.317491e+01 1.421568e+01 1.617953e+01 1.529610e+01 1.471704e+01 1.390414e+01 1.291670e+01 9.243698e+00 1.671702e-01 2.861930e-01 4.519899e-01 6.702619e-01 8.931525e-01 1.076203e+00 1.233016e+00 1.328666e+00 1.363856e+00 1.370654e+00 1.303079e+00 1.154412e+00 7.678004e-02 2.664527e-02 5.105696e-02 8.590628e-02 1.289506e-01 1.738889e-01 2.091077e-01 2.423825e-01 2.608272e-01 2.717285e-01 2.759303e-01 2.623953e-01 2.325020e-01 9.651879e-03
<GCONST> 7.095738e+01
<MIXTURE> 2 2.282639e-01
<MEAN> 39
 -1.591996e+00 -1.607799e+00 1.060719e-02 -3.025204e-01 -1.447796e+00 -2.194255e+00 -1.513600e+00 -2.365627e+00 -3.529580e-01 -4.014307e-01 -5.315076e-01 3.802179e-01 3.680067e+00 -8.040261e-02 -1.366391e-01 -1.463756e-02 -2.897917e-02 -7.063489e-02 -1.189152e-01 -5.201912e-02 -1.045955e-01 -6.275741e-03 3.105647e-03 -1.273103e-03 2.609661e-02 1.816304e-01 4.320692e-02 4.438862e-02 3.243351e-02 5.003308e-02 8.545688e-02 1.085379e-01 9.397487e-02 8.137325e-02 3.227758e-02 1.437338e-02 1.734955e-02 -5.669306e-03 -4.155463e-02
<VARIANCE> 39
 2.117137e+01 2.199499e+01 1.817611e+01 1.885567e+01 2.558806e+01 2.416753e+01 2.385429e+01 2.549064e+01 2.185976e+01 2.152743e+01 1.993704e+01 1.709522e+01 2.337374e+01 7.316074e-01 1.008619e+00 8.814765e-01 1.123778e+00 1.430705e+00 1.736570e+00 1.732139e+00 1.800387e+00 1.700430e+00 1.695867e+00 1.594271e+00 1.374205e+00 8.044352e-01 1.172335e-01 1.769911e-01 1.660526e-01 2.212888e-01 2.772316e-01 3.454910e-01 3.473530e-01 3.602346e-01 3.461153e-01 3.461135e-01 3.233380e-01 2.760550e-01 1.271548e-01
<GCONST> 9.678817e+01
<STATE> 3
<NUMMIXES> 2
<MIXTURE> 1 4.633608e-01
<MEAN> 39
 5.230225e-01 -4.539937e-01 -8.261226e-01 -1.306054e+00 -1.241518e+00 -9.667070e-01 -1.307638e+00 -6.856315e-01 -8.916331e-01 -4.596702e-01 -1.822339e-01 -3.896401e-01 -9.103326e-01 4.090290e-02 8.574770e-02 1.213527e-01 1.639787e-01 1.998497e-01 2.084552e-01 1.953485e-01 1.751785e-01 1.446751e-01 1.043848e-01 6.071982e-02 2.756404e-02 3.775760e-03 2.933535e-02 6.687260e-02 1.062580e-01 1.438304e-01 1.751047e-01 1.855847e-01 1.817038e-01 1.674031e-01 1.357434e-01 9.455725e-02 5.600594e-02 2.561540e-02 1.115422e-02
<VARIANCE> 39
 3.192034e+00 4.068726e+00 6.214317e+00 7.387743e+00 1.023769e+01 1.125055e+01 1.207864e+01 1.387674e+01 1.406286e+01 1.458667e+01 1.421268e+01 1.259734e+01 1.889818e+00 1.313922e-01 2.673579e-01 4.623522e-01 6.617461e-01 9.092121e-01 1.071897e+00 1.220047e+00 1.364964e+00 1.376568e+00 1.429029e+00 1.333271e+00 1.152796e+00 4.278076e-02 2.478363e-02 5.117499e-02 8.784702e-02 1.231310e-01 1.643064e-01 1.952953e-01 2.259447e-01 2.617905e-01 2.699263e-01 2.918162e-01 2.776797e-01 2.393522e-01 7.637465e-03
<GCONST> 6.539904e+01
<MIXTURE> 2 5.366205e-01
<MEAN> 39
 8.500232e-01 4.865729e-01 5.211374e-01 6.322352e-01 1.251157e+00 1.579603e+00 1.140554e+00 1.565547e+00 7.163049e-01 5.990614e-01 5.077074e-01 -9.655330e-02 -9.909242e-01 -3.934697e-02 -6.821453e-02 -1.171354e-01 -1.466457e-01 -1.730960e-01 -1.731569e-01 -1.644198e-01 -1.375971e-01 -1.224916e-01 -8.531592e-02 -4.732866e-02 -2.057781e-02 -1.899842e-02 -2.914934e-02 -5.690226e-02 -8.960440e-02 -1.211053e-01 -1.502668e-01 -1.618442e-01 -1.569314e-01 -1.468338e-01 -1.170386e-01 -8.314747e-02 -5.035798e-02 -2.088084e-02 -4.853989e-03
<VARIANCE> 39
 2.796380e+00 3.357914e+00 4.933953e+00 6.253430e+00 8.910013e+00 1.004439e+01 1.106369e+01 1.266309e+01 1.307313e+01 1.334474e+01 1.254905e+01 1.111717e+01 1.663993e+00 1.261772e-01 2.533723e-01 4.335796e-01 6.279498e-01 8.679034e-01 1.041870e+00 1.197293e+00 1.314724e+00 1.357920e+00 1.392838e+00 1.303255e+00 1.117603e+00 4.143691e-02 2.219746e-02 4.545662e-02 7.765585e-02 1.113086e-01 1.562872e-01 1.887055e-01 2.212694e-01 2.493617e-01 2.657344e-01 2.779762e-01 2.614431e-01 2.233690e-01 6.934474e-03
<GCONST> 6.234283e+01
<STATE> 4
<NUMMIXES> 2
<MIXTURE> 1 7.634104e-01
<MEAN> 39
 -8.787708e-01 1.720582e-01 -1.242039e-02 1.844637e-01 -1.124268e-02 -1.582788e-01 3.030411e-01 -6.624354e-02 2.602364e-01 1.181113e-01 -9.544821e-03 2.401781e-01 3.520453e-01 5.649387e-02 7.929733e-02 9.743033e-04 6.327968e-03 1.738260e-02 4.877041e-02 1.009793e-02 3.741006e-02 2.588907e-03 1.065934e-02 5.695806e-03 -1.785057e-02 -1.099069e-01 -1.502772e-02 -1.367131e-02 -6.654822e-03 -1.154145e-02 -2.018441e-02 -2.485079e-02 -1.940770e-02 -1.688321e-02 -7.241071e-03 3.489840e-04 -1.741013e-03 3.440829e-03 1.971264e-02
<VARIANCE> 39
 9.686089e+00 9.494746e+00 8.223101e+00 1.057226e+01 1.282638e+01 1.431988e+01 1.571491e+01 1.740488e+01 1.615830e+01 1.521645e+01 1.419405e+01 1.305721e+01 1.135248e+01 2.318944e-01 3.406651e-01 5.021083e-01 7.191944e-01 9.350293e-01 1.145975e+00 1.310562e+00 1.402269e+00 1.438174e+00 1.423046e+00 1.327554e+00 1.191550e+00 1.433168e-01 3.375210e-02 6.032123e-02 9.381286e-02 1.369658e-01 1.804033e-01 2.236156e-01 2.579391e-01 2.767796e-01 2.864031e-01 2.850069e-01 2.655052e-01 2.387227e-01 1.607385e-02
<GCONST> 7.520161e+01
<MIXTURE> 2 2.366203e-01
<MEAN> 39
 -3.406005e+00 -2.496559e+00 -5.091241e-01 -3.536357e-01 -1.061542e+00 -2.601192e+00 -6.639303e-01 -1.886436e+00 -9.976609e-02 -1.372577e-01 5.870938e-02 1.218877e+00 5.772756e+00 -2.603199e-01 -2.608797e-01 2.293298e-02 -7.113082e-03 -7.311501e-02 -2.156835e-01 -6.018379e-02 -1.872604e-01 2.995904e-03 -3.465217e-02 -3.606446e-03 9.592266e-02 5.317776e-01 5.875964e-02 4.165972e-02 2.323234e-02 3.431632e-02 6.444476e-02 8.298736e-02 6.211538e-02 5.552367e-02 2.176262e-02 -2.601067e-03 5.670686e-03 -1.653664e-02 -6.375306e-02
<VARIANCE> 39
 2.605388e+01 2.964259e+01 1.895599e+01 1.998542e+01 2.448809e+01 2.511077e+01 2.591295e+01 3.091070e+01 2.494538e+01 2.171662e+01 2.118536e+01 1.992719e+01 4.717282e+01 1.290088e+00 1.361317e+00 1.073272e+00 1.325746e+00 1.657585e+00 1.964951e+00 1.970882e+00 2.162666e+00 1.967263e+00 1.831758e+00 1.722381e+00 1.512572e+00 2.076745e+00 2.150066e-01 2.367119e-01 1.943159e-01 2.550567e-01 3.151571e-01 3.840781e-01 3.872647e-01 4.301924e-01 3.941354e-01 3.678988e-01 3.448150e-01 3.058019e-01 3.512802e-01
<GCONST> 1.049687e+02
<TRANSP> 5
 0.000000e+00 1.000000e+00 0.000000e+00 0.000000e+00 0.000000e+00
 0.000000e+00 9.897094e-01 1.029055e-02 0.000000e+00 0.000000e+00
 0.000000e+00 0.000000e+00 9.912907e-01 8.709289e-03 0.000000e+00
 0.000000e+00 0.000000e+00 0.000000e+00 9.844432e-01 1.555679e-02
 0.000000e+00 0.000000e+00 0.000000e+00 0.000000e+00 0.000000e+00
<ENDHMM>
~h "st"
<BEGINHMM>
<NUMSTATES> 5
<STATE> 2
<NUMMIXES> 2
<MIXTURE> 1 6.998514e-01
<MEAN> 39
 -3.782259e-01 -3.240871e+00 1.546617e+00 -2.967581e+00 -1.353937e+00 -4.745638e+00 -2.560847e+00 -5.955378e-01 9.017147e-03 -8.352639e-01 4.151161e-02 2.775936e-01 7.208314e+00 2.160699e-01 1.615590e-01 1.118538e-01 2.637460e-01 2.313388e-01 3.204012e-01 2.415495e-01 -2.280482e-02 2.333813e-02 -2.456554e-02 -4.571461e-02 5.562975e-02 -7.535143e-01 -1.610852e-02 4.959171e-02 -4.875629e-02 5.482517e-02 3.162818e-02 4.974461e-02 -1.326538e-02 -2.692695e-02 -4.247155e-02 -1.050988e-02 -1.037279e-02 -9.606473e-03 -5.235190e-02
<VARIANCE> 39
 1.364388e+01 1.349797e+01 1.184798e+01 1.530480e+01 1.792774e+01 2.037843e+01 1.736643e+01 2.226122e+01 1.773040e+01 1.806106e+01 1.536417e+01 1.259177e+01 3.810658e+01 2.339283e-01 3.674869e-01 5.551525e-01 7.537273e-01 1.011068e+00 1.351645e+00 1.366759e+00 1.691984e+00 1.372832e+00 1.639201e+00 1.452134e+00 1.176226e+00 1.930692e-01 3.379550e-02 7.959383e-02 9.484107e-02 1.474261e-01 1.924417e-01 2.637050e-01 2.580341e-01 3.388908e-01 2.693681e-01 3.199308e-01 2.910984e-01 2.130592e-01 6.426755e-02
<GCONST> 8.257128e+01
<MIXTURE> 2 3.001481e-01
<MEAN> 39
 -1.377067e+00 -1.553014e+00 -3.262443e-01 -1.959538e+00 -1.239216e+00 -2.900428e+00 -2.042453e+00 3.152966e-01 4.708931e-01 -2.254848e-01 2.823855e-01 -2.505498e-01 5.339679e+00 -5.387166e-01 -1.010211e+00 2.557461e-01 -9.373490e-01 -6.820093e-01 -1.257738e+00 -6.615165e-01 -1.714244e-01 -1.011209e-01 -1.177222e-01 2.060867e-02 3.767128e-02 2.548773e+00 1.664926e-01 1.134995e-01 4.995266e-02 1.323838e-01 1.269237e-01 2.530065e-01 2.279098e-01 8.022893e-02 6.867153e-02 9.329367e-02 1.200430e-02 4.381750e-02 -4.058566e-01
<VARIANCE> 39
 1.980123e+01 2.190385e+01 1.345505e+01 2.570860e+01 2.435464e+01 3.632298e+01 3.110601e+01 2.568664e+01 1.742117e+01 1.831983e+01 2.120995e+01 1.650821e+01 8.913049e+01 1.798140e+00 1.773550e+00 1.512629e+00 2.127655e+00 2.609245e+00 3.482709e+00 3.267252e+00 2.820136e+00 1.833808e+00 2.310002e+00 2.569403e+00 1.746333e+00 5.134380e+00 2.536668e-01 3.465112e-01 2.616938e-01 3.927245e-01 4.340013e-01 6.155666e-01 5.694585e-01 5.037034e-01 2.994457e-01 3.781851e-01 4.279334e-01 3.054822e-01 1.265737e+00
<GCONST> 1.132627e+02
<STATE> 3
<NUMMIXES> 2
<MIXTURE> 1 7.395010e-01
<MEAN> 39
 5.918872e-01 4.456923e-02 2.376660e-01 4.762361e-01 4.009764e-01 3.456760e-01 2.530243e-01 -9.381026e-02 -1.842023e-01 -7.409521e-02 -1.159600e-01 2.076923e-02 -9.017995e-01 1.211945e-01 1.223914e-01 -2.637635e-02 1.808594e-01 1.326510e-01 1.715970e-01 8.094367e-02 2.459925e-02 -2.055828e-02 1.688007e-02 -8.503250e-03 5.002095e-04 -4.832305e-01 -9.520155e-03 -1.329889e-02 -1.349987e-02 -2.035703e-02 -2.557850e-02 -2.715824e-02 -2.294551e-02 -9.643338e-04 -3.935759e-04 2.622074e-03 6.724803e-03 -3.917484e-03 2.884475e-02
<VARIANCE> 39
 1.298095e+01 1.297960e+01 1.102174e+01 1.610291e+01 1.499561e+01 1.898446e+01 1.610160e+01 1.737013e+01 1.758684e+01 1.701607e+01 1.471724e+01 1.364063e+01 3.159023e+01 2.222428e-01 3.303847e-01 5.017244e-01 6.990198e-01 8.952571e-01 1.099250e+00 1.239210e+00 1.368424e+00 1.384776e+00 1.446198e+00 1.401941e+00 1.246793e+00 1.830735e-01 3.432183e-02 5.929976e-02 9.752154e-02 1.385460e-01 1.778358e-01 2.222790e-01 2.553610e-01 2.815279e-01 2.853334e-01 2.977318e-01 2.925739e-01 2.561502e-01 1.642167e-02
<GCONST> 7.860159e+01
<MIXTURE> 2 2.605086e-01
<MEAN> 39
 -1.329252e+00 5.540600e-02 -5.018770e-01 -1.270756e+00 -1.136059e+00 -8.042216e-01 -6.699458e-01 2.300007e-01 4.501454e-01 2.836200e-01 2.537550e-01 -8.368794e-02 2.173295e+00 -3.551238e-01 -3.105698e-01 6.937456e-02 -5.010583e-01 -3.799175e-01 -4.501233e-01 -2.117303e-01 -5.960586e-02 5.605276e-02 -4.276030e-02 2.378406e-02 2.394333e-03 1.316102e+00 2.897511e-02 3.516683e-02 3.397948e-02 5.489581e-02 6.926752e-02 6.853273e-02 5.933917e-02 3.258241e-03 -3.367513e-04 -5.559420e-03 -1.480500e-02 9.535182e-03 -8.053039e-02
<VARIANCE> 39
 1.758735e+01 1.956420e+01 1.498126e+01 2.611426e+01 2.584686e+01 2.686546e+01 2.244840e+01 2.156578e+01 2.046966e+01 1.965506e+01 1.707435e+01 1.530666e+01 6.667924e+01 1.569188e+00 1.556867e+00 1.359046e+00 2.286252e+00 2.413004e+00 2.567450e+00 2.314769e+00 2.198525e+00 2.168091e+00 2.042745e+00 1.886873e+00 1.612552e+00 3.975497e+00 2.685499e-01 2.628034e-01 2.456566e-01 4.511709e-01 4.827814e-01 5.225174e-01 4.599918e-01 4.439349e-01 4.270910e-01 4.144792e-01 3.868565e-01 3.265124e-01 9.013458e-01
<GCONST> 1.097135e+02
<STATE> 4
<NUMMIXES> 2
<MIXTURE> 1 7.273157e-01
<MEAN> 39
 1.569369e-03 5.337471e-01 -4.151630e-02 1.115552e+00 9.251691e-01 1.250943e+00 8.183396e-01 1.882744e-01 1.122751e-02 1.314114e-01 1.096206e-01 9.847339e-02 -1.526922e+00 2.396627e-02 7.121200e-02 -8.365660e-03 8.414332e-02 7.870173e-02 1.449397e-01 8.096410e-02 3.288079e-02 6.771507e-04 1.595062e-02 6.217177e-03 -7.274798e-03 -1.768649e-01 -7.310500e-03 -1.762646e-02 -1.469762e-02 -4.392286e-02 -4.888353e-02 -5.262017e-02 -3.897749e-02 -1.085116e-02 -5.039725e-03 -7.197888e-03 -9.364617e-03 -2.871201e-03 2.605456e-02
<VARIANCE> 39
 5.176619e+00 5.154065e+00 6.887297e+00 9.148265e+00 1.160264e+01 1.331746e+01 1.371331e+01 1.480780e+01 1.446337e+01 1.435976e+01 1.322650e+01 1.179323e+01 6.538331e+00 1.935217e-01 3.027424e-01 4.820963e-01 6.937110e-01 9.328784e-01 1.118654e+00 1.241512e+00 1.378291e+00 1.433861e+00 1.452516e+00 1.353696e+00 1.165849e+00 1.057676e-01 3.090164e-02 5.326819e-02 9.178410e-02 1.291542e-01 1.803596e-01 2.208174e-01 2.485021e-01 2.754282e-01 2.890923e-01 2.991982e-01 2.726591e-01 2.379973e-01 1.272617e-02
<GCONST> 7.101627e+01
<MIXTURE> 2 2.726909e-01
<MEAN> 39
 -1.535795e-01 -7.775394e-01 -3.631037e-01 -2.248229e+00 -2.069087e+00 -2.242885e+00 -1.501196e+00 -3.676023e-01 -1.134799e-03 -2.266565e-01 -2.505763e-01 -2.737581e-01 2.445474e+00 -6.666429e-02 -1.668988e-01 -9.241507e-03 -2.069088e-01 -1.805416e-01 -3.155214e-01 -1.820149e-01 -8.764566e-02 1.764448e-03 -3.710174e-02 -1.664203e-02 2.216901e-02 4.062679e-01 2.011849e-02 4.366475e-02 4.108190e-02 1.093055e-01 1.246183e-01 1.408491e-01 1.045044e-01 3.266157e-02 2.039249e-02 2.203832e-02 2.422308e-02 1.167804e-02 -6.410043e-02
<VARIANCE> 39
 1.255510e+01 1.384593e+01 1.334016e+01 1.862920e+01 1.938408e+01 2.274440e+01 2.080122e+01 2.150168e+01 1.861371e+01 1.663008e+01 1.552135e+01 1.434006e+01 2.078233e+01 8.088009e-01 1.029789e+00 1.029759e+00 1.705103e+00 1.791087e+00 2.102867e+00 1.970251e+00 1.903635e+00 1.799179e+00 1.615750e+00 1.528939e+00 1.504912e+00 1.339624e+00 1.399202e-01 1.879321e-01 1.980593e-01 3.103493e-01 3.390013e-01 4.068297e-01 3.809166e-01 3.879509e-01 3.743055e-01 3.259078e-01 3.171645e-01 3.103123e-01 2.341470e-01
<GCONST> 9.774333e+01
<TRANSP> 5
 0.000000e+00 1.000000e+00 0.000000e+00 0.000000e+00 0.000000e+00
 0.000000e+00 8.922189e-01 1.077810e-01 0.000000e+00 0.000000e+00
 0.000000e+00 0.000000e+00 9.915794e-01 8.420573e-03 0.000000e+00
 0.000000e+00 0.000000e+00 0.000000e+00 9.910758e-01 8.924160e-03
 0.000000e+00 0.000000e+00 0.000000e+00 0.000000e+00 0.000000e+00
<ENDHMM>
~h "spe"
<BEGINHMM>
<NUMSTATES> 5
<STATE> 2
<NUMMIXES> 2
<MIXTURE> 1 4.774322e-01
<MEAN> 39
 -9.059194e-01 2.108310e+00 3.199934e-01 1.768521e+00 3.882496e-01 2.100060e+00 1.501014e+00 8.010951e-03 -3.759870e-01 6.385396e-01 1.436636e+00 6.591241e-01 -5.332027e-02 -4.986333e-02 1.649960e-01 5.627774e-02 1.425489e-01 7.844716e-02 1.975876e-01 3.765345e-03 -6.461503e-02 -2.716575e-02 1.058939e-01 1.644446e-01 6.517963e-02 -2.371127e-01 -4.567992e-03 -3.865470e-02 -2.593024e-02 -3.909764e-02 -4.655119e-02 -6.766152e-02 -1.545218e-02 2.318034e-02 -2.313748e-03 -2.361452e-02 -3.309393e-02 -3.437351e-02 2.798992e-03
<VARIANCE> 39
 3.433255e+01 2.067565e+01 6.846377e+01 7.241483e+01 4.343726e+01 4.593158e+01 3.890488e+01 3.959954e+01 2.900697e+01 2.964035e+01 3.034013e+01 2.288373e+01 4.396181e+01 3.416393e-01 4.339492e-01 7.335890e-01 9.933105e-01 1.224575e+00 1.340200e+00 1.340144e+00 1.487628e+00 1.513990e+00 1.424910e+00 1.604939e+00 1.276119e+00 2.040431e-01 4.984357e-02 7.275929e-02 1.379505e-01 1.748118e-01 2.359775e-01 2.737154e-01 2.664945e-01 2.766364e-01 2.835943e-01 2.744539e-01 3.061123e-01 2.527329e-01 2.467495e-02
<GCONST> 9.412276e+01
<MIXTURE> 2 5.225667e-01
<MEAN> 39
 4.469095e-01 -1.619602e+00 1.038610e+00 -3.678541e+00 -1.533309e+00 -1.911267e+00 -1.269358e+00 2.112548e-02 2.298394e-01 -7.544018e-02 -9.358615e-01 -2.681630e-01 1.901188e+00 1.208999e-01 -4.162397e-01 8.911122e-02 -3.162810e-01 -1.698254e-01 -2.646092e-01 -1.794150e-01 1.078478e-01 7.177890e-02 4.525004e-02 -1.863563e-01 -1.246574e-01 5.679435e-01 -2.330455e-03 3.069051e-02 1.326140e-02 6.859524e-02 4.888501e-02 5.466846e-02 2.349384e-02 -3.835696e-02 -1.134396e-02 1.160034e-02 4.733387e-03 3.517030e-02 -2.101805e-02
<VARIANCE> 39
 2.492785e+01 3.623408e+01 7.300751e+01 4.789450e+01 5.300976e+01 5.165112e+01 4.650053e+01 6.672022e+01 4.142744e+01 3.629711e+01 3.343740e+01 3.374207e+01 1.811980e+01 1.178897e+00 1.830087e+00 2.277200e+00 2.696048e+00 3.188985e+00 2.974311e+00 3.103482e+00 3.837224e+00 3.598451e+00 2.813135e+00 2.607033e+00 2.394798e+00 6.978999e-01 1.534946e-01 2.636606e-01 2.863770e-01 4.148634e-01 4.657229e-01 5.297574e-01 5.014213e-01 6.394427e-01 6.047238e-01 4.972272e-01 4.730214e-01 4.426132e-01 1.052423e-01
<GCONST> 1.180449e+02
<STATE> 3
<NUMMIXES> 2
<MIXTURE> 1 4.202491e-01
<MEAN> 39
 -2.571159e+00 3.118301e+00 8.522875e-01 1.382275e+00 1.988041e-01 -2.274448e+00 4.844617e-01 -9.597548e-01 -9.523305e-01 -8.267735e-01 4.324523e-01 1.691848e+00 2.966106e-01 -1.006510e-01 -2.722908e-02 1.351087e-02 -1.271455e-01 -2.395288e-01 -1.366686e-01 5.085225e-02 3.860494e-02 1.007349e-01 8.070578e-02 4.096535e-02 -4.831092e-02 1.259204e-01 5.567757e-02 -9.004878e-02 -4.081696e-03 -5.333496e-02 -1.662485e-02 4.437799e-02 -2.855884e-02 3.795094e-02 2.211497e-02 3.975936e-02 -1.591347e-02 -8.444508e-02 2.801503e-02
<VARIANCE> 39
 2.164285e+01 2.205364e+01 3.447190e+01 2.257553e+01 4.144257e+01 3.410557e+01 2.542134e+01 3.000713e+01 2.678768e+01 2.596036e+01 2.318621e+01 2.251270e+01 8.473911e+00 1.045509e+00 1.285956e+00 1.466795e+00 1.373177e+00 2.228384e+00 1.983778e+00 1.861472e+00 2.154222e+00 2.042552e+00 2.156994e+00 1.886726e+00 1.976169e+00 2.746506e-01 1.190593e-01 1.563571e-01 2.052066e-01 2.150510e-01 3.505262e-01 3.429994e-01 3.492505e-01 3.919449e-01 3.834505e-01 4.143405e-01 3.485267e-01 3.381958e-01 3.791793e-02
<GCONST> 1.002488e+02
<MIXTURE> 2 5.797489e-01
<MEAN> 39
 2.351872e+00 -2.929346e+00 2.712401e-01 -1.717479e+00 -1.083771e+00 7.140209e-01 -1.691556e+00 1.423044e-01 -2.913857e-01 1.545721e-01 -1.183165e+00 -2.450847e+00 2.171323e+00 2.748410e-02 9.650107e-02 -4.789599e-02 1.651788e-01 2.014633e-01 9.507207e-02 1.932983e-02 -6.010929e-02 -8.160774e-02 -9.288689e-02 -4.055488e-02 3.524778e-02 -1.595268e-01 -4.085643e-02 6.765795e-02 9.409998e-04 4.113978e-02 1.278201e-02 -2.872027e-02 2.991989e-02 -2.120786e-02 -1.300619e-02 -2.626941e-02 1.497015e-02 6.380446e-02 -2.750689e-02
<VARIANCE> 39
 5.105645e+00 1.964734e+01 3.897404e+01 2.430768e+01 4.338195e+01 3.494755e+01 2.590242e+01 3.652037e+01 2.894883e+01 2.875003e+01 3.396734e+01 2.711265e+01 1.212062e+01 1.857433e-01 4.935070e-01 6.794471e-01 8.619802e-01 1.279560e+00 1.401918e+00 1.400101e+00 1.710330e+00 1.583266e+00 1.605656e+00 1.579797e+00 1.523054e+00 1.298092e-01 3.152600e-02 7.372569e-02 1.126057e-01 1.543527e-01 2.447105e-01 2.531979e-01 2.730820e-01 3.239001e-01 3.184120e-01 3.173842e-01 3.081060e-01 2.885662e-01 1.460554e-02
<GCONST> 8.740028e+01
<STATE> 4
<NUMMIXES> 2
<MIXTURE> 1 5.302799e-01
<MEAN> 39
 -1.205881e+00 1.210801e+00 -2.353237e+00 2.159380e+00 3.070408e+00 2.335966e+00 3.493305e+00 8.042032e-01 7.893060e-01 6.263172e-01 1.052668e+00 1.797464e+00 -3.953017e+00 -1.511556e-02 1.676291e-02 -4.226860e-02 7.012674e-02 7.144283e-02 1.222497e-01 1.161510e-01 5.132648e-02 3.828806e-02 4.004744e-02 6.046144e-02 6.931072e-02 -1.010451e-01 8.507776e-03 -2.942412e-03 1.620515e-02 -2.542032e-02 -3.646579e-02 -3.772735e-02 -4.854034e-02 -1.921896e-02 -1.764594e-02 -1.310948e-02 -1.158510e-02 -2.476659e-02 2.227947e-02
<VARIANCE> 39
 7.482029e+00 7.636718e+00 1.191397e+01 1.078379e+01 1.535340e+01 1.910200e+01 1.750447e+01 1.870783e+01 1.820664e+01 1.828006e+01 1.627962e+01 1.488854e+01 3.637044e+00 1.646461e-01 2.977995e-01 5.074969e-01 6.768922e-01 9.094426e-01 1.183041e+00 1.239676e+00 1.436677e+00 1.430817e+00 1.397401e+00 1.417058e+00 1.263589e+00 6.374037e-02 2.733532e-02 5.383398e-02 9.648041e-02 1.310912e-01 1.775348e-01 2.311355e-01 2.363822e-01 2.822825e-01 2.775120e-01 2.704284e-01 2.773029e-01 2.462317e-01 8.675591e-03
<GCONST> 7.291603e+01
<MIXTURE> 2 4.697205e-01
<MEAN> 39
 1.036564e+00 -8.763514e-01 1.637943e+00 -1.408756e+00 -2.437717e+00 -1.862919e+00 -2.852698e+00 -4.545701e-01 -5.227519e-02 -4.450939e-01 -5.460161e-01 -1.083368e+00 2.091220e+00 2.890048e-02 -3.385573e-02 3.021328e-02 -6.167051e-02 -4.936195e-02 -1.017735e-01 -1.214643e-01 -3.178424e-02 -3.401683e-02 -2.699051e-02 -4.823159e-02 -5.905200e-02 7.657112e-02 -1.127204e-02 4.887586e-03 -1.779070e-02 2.806196e-02 4.379333e-02 4.687304e-02 5.320602e-02 1.924246e-02 1.928623e-02 1.610630e-02 1.325112e-02 2.845925e-02 -2.411515e-02
<VARIANCE> 39
 1.150159e+01 2.785424e+01 4.523368e+01 2.616066e+01 5.512506e+01 3.437617e+01 3.401731e+01 3.656451e+01 3.480087e+01 3.028403e+01 3.542209e+01 2.477977e+01 1.127789e+01 3.740704e-01 9.032307e-01 1.096896e+00 1.303553e+00 1.819404e+00 1.669527e+00 1.803700e+00 1.868305e+00 2.005194e+00 1.788150e+00 1.833440e+00 1.531644e+00 3.794950e-01 5.002931e-02 1.199193e-01 1.461677e-01 1.997785e-01 2.590602e-01 2.806501e-01 3.079524e-01 3.436479e-01 3.746124e-01 3.406060e-01 3.314452e-01 2.867930e-01 3.504807e-02
<GCONST> 9.701500e+01
<TRANSP> 5
 0.000000e+00 1.000000e+00 0.000000e+00 0.000000e+00 0.000000e+00
 0.000000e+00 9.746765e-01 2.532346e-02 0.000000e+00 0.000000e+00
 0.000000e+00 0.000000e+00 9.928592e-01 7.140832e-03 0.000000e+00
 0.000000e+00 0.000000e+00 0.000000e+00 9.951980e-01 4.802007e-03
 0.000000e+00 0.000000e+00 0.000000e+00 0.000000e+00 0.000000e+00
<ENDHMM>
