~o
<STREAMINFO> 1 13
<VECSIZE> 13<NULLD><MFCC_0><DIAGC>
~h "ap"
<BEGINHMM>
<NUMSTATES> 5
<STATE> 2
<NUMMIXES> 2
<MIXTURE> 1 6.170182e-01
<MEAN> 13
 -3.644913e+00 -3.650506e+00 -3.728472e+00 -2.494354e+00 2.876974e+00 5.835921e+00 5.816426e+00 1.784351e+00 -1.184175e-01 1.705629e+00 1.832112e+00 -1.803382e+00 5.009062e+01
<VARIANCE> 13
 4.497505e+00 4.582180e+00 4.702404e+00 5.812513e+00 7.306744e+00 8.850058e+00 9.499783e+00 1.083652e+01 1.097905e+01 1.218960e+01 1.095251e+01 1.128551e+01 1.197080e+00
<GCONST> 4.892315e+01
<MIXTURE> 2 3.829858e-01
<MEAN> 13
 -3.842248e+00 -3.890125e+00 -3.484606e+00 -3.674838e+00 -1.244402e+00 1.207161e+00 7.496374e-01 -1.772518e+00 -1.418331e+00 2.633990e-01 1.193818e+00 -2.243896e+00 5.141485e+01
<VARIANCE> 13
 6.966037e+00 9.654187e+00 1.163918e+01 1.108747e+01 1.443364e+01 1.916006e+01 2.384579e+01 2.094674e+01 1.932666e+01 1.883261e+01 1.560054e+01 1.740820e+01 8.779749e+00
<GCONST> 5.847079e+01
<STATE> 3
<NUMMIXES> 2
<MIXTURE> 1 6.464324e-01
<MEAN> 13
 -4.908592e+00 1.569059e+00 -1.276150e+00 -5.178730e-01 -1.554736e-01 3.630553e+00 4.882450e+00 2.597755e+00 8.033690e-02 2.157604e+00 8.987750e-01 -2.176518e+00 4.434938e+01
<VARIANCE> 13
 1.452910e+00 2.334897e+00 4.215128e+00 5.713593e+00 8.370003e+00 8.668777e+00 1.011207e+01 1.101545e+01 1.126084e+01 1.173836e+01 1.077744e+01 9.674418e+00 6.652243e-01
<GCONST> 4.641638e+01
<MIXTURE> 2 3.535598e-01
<MEAN> 13
 -8.916339e+00 -5.164307e-02 -1.578827e+00 -1.108474e+00 1.463066e+00 6.628053e-04 3.035405e+00 1.705358e-01 -6.347474e-01 1.049843e+00 2.181830e-01 -9.832948e-01 4.931715e+01
<VARIANCE> 13
 9.581921e+00 1.316134e+01 8.461602e+00 8.702612e+00 1.309006e+01 1.246404e+01 1.543231e+01 1.332442e+01 1.341572e+01 1.466331e+01 1.374998e+01 1.182624e+01 1.094341e+01
<GCONST> 5.621536e+01
<STATE> 4
<NUMMIXES> 2
<MIXTURE> 1 4.278775e-01
<MEAN> 13
 -7.243198e+00 -5.898256e+00 -1.233117e+00 1.831912e+00 2.815352e+00 -6.349956e-01 3.904603e+00 6.126064e-01 -1.854000e+00 2.901025e-01 1.563994e+00 -1.797120e+00 5.053438e+01
<VARIANCE> 13
 1.104213e+01 3.607339e+01 1.463558e+01 2.204952e+01 2.117151e+01 2.282309e+01 1.895001e+01 2.518599e+01 1.973514e+01 1.789022e+01 1.483012e+01 1.363573e+01 2.937203e+01
<GCONST> 6.256100e+01
<MIXTURE> 2 5.719826e-01
<MEAN> 13
 -1.316646e+01 -1.546053e+01 -8.348098e+00 8.264678e-01 -1.494700e+00 -7.912212e+00 7.454680e-01 -4.126399e+00 -5.136990e+00 -2.416938e+00 1.113441e-01 -1.276501e+00 6.988293e+01
<VARIANCE> 13
 1.990152e+01 3.067901e+01 2.425202e+01 2.388440e+01 3.641935e+01 2.772308e+01 2.730512e+01 2.318044e+01 2.450263e+01 2.245596e+01 1.865273e+01 1.591679e+01 6.330213e+01
<GCONST> 6.618788e+01
<TRANSP> 5
 0.000000e+00 1.000000e+00 0.000000e+00 0.000000e+00 0.000000e+00
 0.000000e+00 9.787596e-01 2.124041e-02 0.000000e+00 0.000000e+00
 0.000000e+00 0.000000e+00 9.831045e-01 1.689546e-02 0.000000e+00
 0.000000e+00 0.000000e+00 0.000000e+00 9.967198e-01 3.280215e-03
 0.000000e+00 0.000000e+00 0.000000e+00 0.000000e+00 0.000000e+00
<ENDHMM>
~h "cl"
<BEGINHMM>
<NUMSTATES> 5
<STATE> 2
<NUMMIXES> 2
<MIXTURE> 1 6.253938e-01
<MEAN> 13
 -5.545564e+00 -2.498713e+00 -1.044927e+00 -2.891192e+00 8.335232e-01 3.422156e+00 3.919623e+00 1.938013e+00 2.820706e-01 6.655225e-01 6.406364e-01 -2.421073e+00 4.848975e+01
<VARIANCE> 13
 1.412078e+01 1.593974e+01 2.485787e+01 1.468575e+01 1.715431e+01 2.240521e+01 1.715470e+01 2.650923e+01 2.434388e+01 2.790834e+01 2.551243e+01 1.904535e+01 1.261229e+01
<GCONST> 6.252210e+01
<MIXTURE> 2 3.745752e-01
<MEAN> 13
 -1.612183e+01 -8.286609e+00 6.054722e+00 -6.624031e+00 7.823962e+00 -3.730422e+00 7.876270e-01 7.268600e+00 -2.745435e-01 -6.539219e+00 -1.285202e+00 3.580093e+00 5.644358e+01
<VARIANCE> 13
 4.403478e+01 3.876019e+01 4.381956e+01 7.677537e+01 9.570618e+01 6.968999e+01 4.259703e+01 7.184868e+01 6.047001e+01 8.907883e+01 1.049807e+02 1.104591e+02 4.092382e+01
<GCONST> 7.794923e+01
<STATE> 3
<NUMMIXES> 2
<MIXTURE> 1 6.035838e-01
<MEAN> 13
 -2.124403e+01 3.002010e+00 -2.180016e-01 -5.615195e+00 -3.536174e+00 1.461288e+01 1.539281e+00 -3.459343e+00 9.250392e+00 -3.578116e+00 -3.417709e+00 5.981788e+00 6.013518e+01
<VARIANCE> 13
 2.774421e+01 5.518999e+00 1.102875e+01 9.336869e+00 1.380771e+01 1.930511e+01 2.107319e+01 1.817877e+01 1.736256e+01 1.837353e+01 1.679818e+01 1.637404e+01 1.285040e+01
<GCONST> 5.902752e+01
<MIXTURE> 2 3.964522e-01
<MEAN> 13
 -1.447202e+01 1.849909e+00 -3.090131e+00 -4.819665e+00 -3.369059e+00 9.273675e+00 -7.229926e-02 -4.444295e+00 4.654784e+00 -2.631365e+00 -2.389977e+00 4.254545e+00 5.685735e+01
<VARIANCE> 13
 4.595652e+01 1.453834e+01 1.290652e+01 1.415807e+01 2.096280e+01 2.697900e+01 3.053306e+01 2.943651e+01 2.188313e+01 2.300406e+01 2.014256e+01 1.937686e+01 2.170435e+01
<GCONST> 6.400957e+01
<STATE> 4
<NUMMIXES> 2
<MIXTURE> 1 5.920595e-01
<MEAN> 13
 -1.938706e+01 1.647240e+00 5.533576e+00 -2.723391e+00 -3.774980e+00 8.825876e+00 3.632411e+00 -2.973499e+00 2.661198e+00 4.035914e+00 -8.388018e+00 2.658571e+00 5.430515e+01
<VARIANCE> 13
 6.269946e+01 7.688839e+00 1.573822e+01 1.662348e+01 1.908165e+01 3.078350e+01 2.043423e+01 3.036671e+01 2.861703e+01 3.075556e+01 2.700258e+01 1.917573e+01 3.820879e+01
<GCONST> 6.511642e+01
<MIXTURE> 2 4.078202e-01
<MEAN> 13
 -2.272386e+01 3.043256e-01 7.251621e+00 -3.606017e+00 -9.669838e+00 1.129419e+01 -1.324382e+00 -1.111024e+01 3.141479e+00 4.263954e+00 -1.418030e+01 7.209218e+00 5.967821e+01
<VARIANCE> 13
 3.725827e+01 1.024666e+01 1.670032e+01 1.689855e+01 2.063629e+01 3.689430e+01 2.495887e+01 3.601627e+01 4.203687e+01 2.598141e+01 2.641961e+01 3.419571e+01 3.218840e+01
<GCONST> 6.618993e+01
<TRANSP> 5
 0.000000e+00 1.000000e+00 0.000000e+00 0.000000e+00 0.000000e+00
 0.000000e+00 9.835203e-01 1.647971e-02 0.000000e+00 0.000000e+00
 0.000000e+00 0.000000e+00 9.882847e-01 1.171527e-02 0.000000e+00
 0.000000e+00 0.000000e+00 0.000000e+00 9.943802e-01 5.619832e-03
 0.000000e+00 0.000000e+00 0.000000e+00 0.000000e+00 0.000000e+00
<ENDHMM>
~h "cm"
<BEGINHMM>
<NUMSTATES> 5
<STATE> 2
<NUMMIXES> 2
<MIXTURE> 1 5.055157e-01
<MEAN> 13
 -1.231382e+01 -1.531394e-01 -2.419376e+00 -4.030843e+00 5.223432e-01 1.051849e+00 -7.853405e-01 1.064778e-02 -1.986482e+00 4.852717e-01 2.336089e+00 -7.506019e-01 5.878086e+01
<VARIANCE> 13
 1.652214e+01 1.184851e+01 1.093022e+01 1.313151e+01 1.318791e+01 1.490523e+01 1.684691e+01 1.691370e+01 1.629380e+01 1.507239e+01 1.701066e+01 1.513928e+01 1.860480e+01
<GCONST> 5.904736e+01
<MIXTURE> 2 4.944236e-01
<MEAN> 13
 -6.317260e+00 -1.119315e-01 -3.222716e+00 -4.206100e+00 -1.533132e+00 -2.189175e+00 -4.002853e+00 -3.572496e+00 -5.167581e+00 -3.234169e+00 -2.057488e+00 -2.967697e+00 6.772653e+01
<VARIANCE> 13
 1.155929e+01 1.163202e+01 1.216943e+01 1.320889e+01 1.340922e+01 1.250587e+01 1.358522e+01 1.562998e+01 1.593608e+01 1.455229e+01 1.388312e+01 1.284890e+01 5.078046e+01
<GCONST> 5.891156e+01
<STATE> 3
<NUMMIXES> 2
<MIXTURE> 1 5.153936e-01
<MEAN> 13
 -8.030362e+00 2.485818e+00 -3.064647e-01 -1.520560e+00 8.051858e-01 1.529079e+00 3.982964e+00 2.693140e+00 1.133879e+00 9.937428e-01 5.174758e-01 -2.412438e+00 4.747911e+01
<VARIANCE> 13
 6.987061e+00 3.939443e+00 6.288285e+00 8.228008e+00 1.003925e+01 1.084475e+01 1.138065e+01 1.316742e+01 1.411727e+01 1.417438e+01 1.330343e+01 1.233011e+01 4.117567e+00
<GCONST> 5.266774e+01
<MIXTURE> 2 4.845850e-01
<MEAN> 13
 -7.505409e+00 1.102822e+00 -5.050536e-01 -2.814177e+00 -1.097864e+00 -1.671670e+00 -4.031624e-01 -1.115631e+00 -1.429424e+00 -3.330149e-01 2.465950e-01 -2.287176e+00 5.132494e+01
<VARIANCE> 13
 1.615339e+01 1.479574e+01 1.177261e+01 1.628693e+01 1.665996e+01 1.754515e+01 1.587102e+01 1.976508e+01 2.057177e+01 1.754822e+01 1.567581e+01 1.493703e+01 1.313625e+01
<GCONST> 5.997141e+01
<STATE> 4
<NUMMIXES> 2
<MIXTURE> 1 6.318349e-01
<MEAN> 13
 -4.438774e+00 -3.160371e+00 -4.109666e+00 -3.343368e+00 1.366439e+00 3.785859e+00 4.627576e+00 9.805134e-01 -5.097659e-01 1.149334e+00 1.096263e+00 -2.688633e+00 5.102966e+01
<VARIANCE> 13
 5.557740e+00 5.863237e+00 5.827952e+00 7.220463e+00 9.948604e+00 1.113083e+01 1.230278e+01 1.415972e+01 1.402582e+01 1.370885e+01 1.342199e+01 1.235328e+01 3.037796e+00
<GCONST> 5.246415e+01
<MIXTURE> 2 3.682126e-01
<MEAN> 13
 -7.705684e+00 -3.788599e+00 -2.643658e+00 -6.812239e+00 -2.520251e+00 -2.049729e+00 4.772329e-01 -1.989978e-01 -7.070212e-01 1.954554e-01 9.959151e-01 -2.454655e+00 5.729734e+01
<VARIANCE> 13
 1.944430e+01 1.797808e+01 1.696713e+01 1.814427e+01 2.044941e+01 2.075759e+01 1.908889e+01 2.084213e+01 2.007088e+01 1.971459e+01 1.820210e+01 1.752018e+01 2.740890e+01
<GCONST> 6.257209e+01
<TRANSP> 5
 0.000000e+00 1.000000e+00 0.000000e+00 0.000000e+00 0.000000e+00
 0.000000e+00 9.894781e-01 1.052187e-02 0.000000e+00 0.000000e+00
 0.000000e+00 0.000000e+00 9.859769e-01 1.402311e-02 0.000000e+00
 0.000000e+00 0.000000e+00 0.000000e+00 9.927675e-01 7.232469e-03
 0.000000e+00 0.000000e+00 0.000000e+00 0.000000e+00 0.000000e+00
<ENDHMM>
~h "co"
<BEGINHMM>
<NUMSTATES> 5
<STATE> 2
<NUMMIXES> 2
<MIXTURE> 1 4.181293e-01
<MEAN> 13
 -5.473828e+00 -4.616471e+00 2.268164e+00 8.633420e-01 -1.567822e+00 -2.587382e+00 -1.451440e+00 -4.514586e+00 -2.740138e+00 -2.270686e+00 -2.040573e+00 -5.731392e+00 5.770092e+01
<VARIANCE> 13
 2.043528e+01 1.408834e+01 1.964507e+01 2.344442e+01 2.316428e+01 3.412865e+01 4.545763e+01 5.359076e+01 2.989552e+01 3.058450e+01 2.723541e+01 2.295036e+01 6.120876e+01
<GCONST> 6.752872e+01
<MIXTURE> 2 5.819020e-01
<MEAN> 13
 -6.057053e+00 -6.876118e+00 -4.103817e-01 -1.938886e+00 -9.272718e+00 -7.859509e+00 -8.491876e+00 -6.409403e+00 -4.168748e+00 -5.537447e+00 -5.419262e+00 -1.052099e+01 6.884721e+01
<VARIANCE> 13
 1.358175e+01 1.468525e+01 2.835285e+01 2.555766e+01 3.928022e+01 4.023251e+01 4.952746e+01 5.960918e+01 5.003849e+01 4.457197e+01 4.108886e+01 3.800148e+01 2.813342e+01
<GCONST> 6.952959e+01
<STATE> 3
<NUMMIXES> 2
<MIXTURE> 1 5.906490e-01
<MEAN> 13
 -3.624087e+00 3.350455e+00 3.449191e+00 1.182211e+00 2.508635e+00 1.331748e+00 1.066883e+00 5.190088e-01 -3.535538e+00 -1.980459e+00 -1.821370e+00 -5.313095e+00 4.495048e+01
<VARIANCE> 13
 4.538089e+00 6.190694e+00 9.691879e+00 1.105888e+01 1.430148e+01 1.406800e+01 1.612276e+01 1.534339e+01 1.698308e+01 1.670509e+01 1.633588e+01 1.760315e+01 3.342580e+00
<GCONST> 5.523378e+01
<MIXTURE> 2 4.093409e-01
<MEAN> 13
 -9.343526e-01 -7.004188e-01 5.204847e+00 3.162552e+00 1.953371e+00 -2.842741e+00 -5.024138e+00 -7.001463e+00 -6.514579e+00 -4.925873e+00 -3.774053e+00 -8.038100e+00 5.313875e+01
<VARIANCE> 13
 5.811007e+00 1.022796e+01 1.781815e+01 2.468739e+01 2.029851e+01 2.229056e+01 2.170515e+01 2.421649e+01 2.538806e+01 2.650153e+01 2.331704e+01 2.148665e+01 1.990674e+01
<GCONST> 6.216224e+01
<STATE> 4
<NUMMIXES> 2
<MIXTURE> 1 5.065094e-01
<MEAN> 13
 -4.125644e+00 -1.648538e+00 -2.351124e+00 -1.269779e+00 1.177380e+00 4.064463e+00 5.609151e+00 3.095985e+00 1.118636e+00 2.210160e+00 1.421726e+00 -2.073598e+00 4.728661e+01
<VARIANCE> 13
 3.598662e+00 1.278261e+01 6.480158e+00 8.687656e+00 1.042350e+01 1.147740e+01 9.859692e+00 1.084582e+01 1.148783e+01 1.251323e+01 1.147751e+01 1.122052e+01 7.548833e+00
<GCONST> 5.305597e+01
<MIXTURE> 2 4.935253e-01
<MEAN> 13
 -4.405144e+00 -3.797941e+00 -3.434113e+00 -3.081199e+00 8.223056e-01 2.764895e+00 2.879168e+00 -7.281451e-01 -1.928677e+00 -5.738141e-02 2.029659e-01 -2.741959e+00 4.973923e+01
<VARIANCE> 13
 1.116397e+01 1.167037e+01 8.456439e+00 8.819802e+00 1.257517e+01 1.632922e+01 1.254428e+01 1.308374e+01 1.558728e+01 1.484648e+01 1.478250e+01 1.537613e+01 6.270194e+00
<GCONST> 5.620568e+01
<TRANSP> 5
 0.000000e+00 1.000000e+00 0.000000e+00 0.000000e+00 0.000000e+00
 0.000000e+00 9.909810e-01 9.018931e-03 0.000000e+00 0.000000e+00
 0.000000e+00 0.000000e+00 9.753546e-01 2.464537e-02 0.000000e+00
 0.000000e+00 0.000000e+00 0.000000e+00 9.906087e-01 9.391282e-03
 0.000000e+00 0.000000e+00 0.000000e+00 0.000000e+00 0.000000e+00
<ENDHMM>
~h "ds"
<BEGINHMM>
<NUMSTATES> 5
<STATE> 2
<NUMMIXES> 2
<MIXTURE> 1 3.167571e-01
<MEAN> 13
 -8.107149e+00 4.417442e+00 5.941912e+00 5.131759e+00 6.761671e+00 3.522515e+00 6.455574e+00 -2.290172e-02 1.904264e+00 1.184622e-01 1.983376e+00 -7.852901e-01 5.907121e+01
<VARIANCE> 13
 1.372907e+01 9.432270e+00 1.100537e+01 9.310290e+00 1.138223e+01 1.383229e+01 1.442224e+01 1.627723e+01 1.602391e+01 1.462216e+01 1.501536e+01 1.399094e+01 9.654607e+01
<GCONST> 5.927728e+01
<MIXTURE> 2 6.832317e-01
<MEAN> 13
 -1.161540e+01 2.208776e-01 7.009830e-01 -5.639005e-01 7.644612e-01 -7.729256e-01 2.353289e+00 -1.767522e+00 6.715856e-01 2.310072e-01 2.810640e+00 -1.111216e+00 5.742682e+01
<VARIANCE> 13
 1.983747e+01 9.540250e+00 1.263860e+01 1.302570e+01 1.974894e+01 2.357329e+01 2.627544e+01 2.443410e+01 2.909410e+01 2.844640e+01 2.039041e+01 1.913351e+01 6.806505e+01
<GCONST> 6.375253e+01
<STATE> 3
<NUMMIXES> 2
<MIXTURE> 1 4.154629e-01
<MEAN> 13
 -5.701544e+00 2.798364e+00 1.442902e+00 9.523532e-01 2.879078e+00 4.129291e+00 5.789119e+00 3.169475e+00 2.048628e+00 2.027515e+00 1.804332e+00 -1.941707e+00 4.746414e+01
<VARIANCE> 13
 7.817211e+00 4.838151e+00 8.776396e+00 7.700018e+00 1.278153e+01 1.219320e+01 1.300997e+01 1.470049e+01 1.463570e+01 1.324357e+01 1.330012e+01 1.140949e+01 1.001743e+01
<GCONST> 5.463454e+01
<MIXTURE> 2 5.844907e-01
<MEAN> 13
 -5.037316e+00 1.389624e+00 -1.007872e+00 -2.781281e+00 -3.184996e+00 8.350666e-01 2.732955e+00 1.303701e+00 1.404162e+00 2.476522e+00 7.397420e-01 -3.073063e+00 4.672340e+01
<VARIANCE> 13
 7.047550e+00 5.156653e+00 8.699545e+00 9.737138e+00 1.462992e+01 1.427548e+01 1.607750e+01 2.006830e+01 1.794317e+01 1.840883e+01 1.890483e+01 1.531287e+01 5.896382e+00
<GCONST> 5.628526e+01
<STATE> 4
<NUMMIXES> 2
<MIXTURE> 1 6.139128e-01
<MEAN> 13
 -5.948967e+00 -2.604467e+00 -3.265844e+00 -2.720216e+00 1.814493e+00 3.401249e+00 4.897130e+00 7.722672e-01 -1.110325e-01 1.415304e+00 1.848145e+00 -2.247653e+00 5.252474e+01
<VARIANCE> 13
 1.755461e+01 7.318305e+00 8.180346e+00 8.660216e+00 1.098633e+01 1.510197e+01 1.323780e+01 1.512461e+01 1.510752e+01 1.445155e+01 1.354113e+01 1.243077e+01 7.378860e+00
<GCONST> 5.592997e+01
<MIXTURE> 2 3.858387e-01
<MEAN> 13
 -1.302205e+01 -3.360382e+00 -1.202629e+00 -4.805242e+00 -2.251426e+00 7.873507e-01 1.406452e+00 -2.351362e-01 -9.005213e-01 -1.573804e-01 1.524726e+00 -1.619678e+00 5.977400e+01
<VARIANCE> 13
 6.862017e+01 2.222543e+01 1.735374e+01 1.987987e+01 1.667167e+01 4.440199e+01 2.816597e+01 2.662587e+01 2.205971e+01 2.088405e+01 1.950203e+01 1.747245e+01 3.719008e+01
<GCONST> 6.587267e+01
<TRANSP> 5
 0.000000e+00 1.000000e+00 0.000000e+00 0.000000e+00 0.000000e+00
 0.000000e+00 9.934188e-01 6.581283e-03 0.000000e+00 0.000000e+00
 0.000000e+00 0.000000e+00 9.824342e-01 1.756583e-02 0.000000e+00
 0.000000e+00 0.000000e+00 0.000000e+00 9.919149e-01 8.085149e-03
 0.000000e+00 0.000000e+00 0.000000e+00 0.000000e+00 0.000000e+00
<ENDHMM>
~h "kj"
<BEGINHMM>
<NUMSTATES> 5
<STATE> 2
<NUMMIXES> 2
<MIXTURE> 1 5.828561e-01
<MEAN> 13
 -2.527628e+01 3.453553e+00 3.152030e+00 -5.132452e+00 -4.844001e+00 1.436666e+01 9.997445e-01 -2.843832e+00 8.923955e+00 -4.587671e+00 -4.608484e+00 6.967449e+00 6.001043e+01
<VARIANCE> 13
 1.249568e+01 5.979234e+00 1.422711e+01 1.012120e+01 1.368656e+01 2.332259e+01 2.227452e+01 1.691347e+01 1.917760e+01 1.769377e+01 1.909889e+01 1.838034e+01 1.286680e+01
<GCONST> 5.911576e+01
<MIXTURE> 2 4.171676e-01
<MEAN> 13
 -1.821909e+01 4.214829e+00 2.084269e+00 -5.978358e+00 -6.540382e+00 8.176297e+00 -6.731541e-01 -3.099365e+00 7.712885e+00 -3.518687e+00 -4.168072e+00 4.335276e+00 5.585784e+01
<VARIANCE> 13
 4.666366e+01 1.019830e+01 2.158617e+01 2.184681e+01 1.981461e+01 3.973531e+01 2.585557e+01 2.494588e+01 3.429827e+01 2.353864e+01 1.914584e+01 2.266394e+01 2.778147e+01
<GCONST> 6.544256e+01
<STATE> 3
<NUMMIXES> 2
<MIXTURE> 1 6.451094e-01
<MEAN> 13
 -6.821815e+00 1.419952e+00 -1.628283e+00 -1.748573e+00 -1.521940e+00 2.540681e+00 3.466597e+00 1.381796e+00 9.991798e-01 1.706472e+00 2.248018e-01 -1.914709e+00 4.770951e+01
<VARIANCE> 13
 1.302747e+01 1.094537e+01 8.719217e+00 1.054940e+01 1.828751e+01 1.775348e+01 1.606389e+01 1.643911e+01 1.819522e+01 1.556238e+01 1.536765e+01 1.619523e+01 8.016246e+00
<GCONST> 5.797749e+01
<MIXTURE> 2 3.547787e-01
<MEAN> 13
 -1.513562e+01 3.672446e-01 -2.099830e+00 -2.393411e+00 -1.641601e+00 6.450987e-01 -1.551168e+00 5.218675e-01 -5.626212e-01 -1.440643e+00 1.263616e+00 -1.364833e-02 5.718697e+01
<VARIANCE> 13
 3.396234e+01 5.919335e+01 2.264150e+01 1.716819e+01 2.079876e+01 4.194576e+01 2.168513e+01 3.795371e+01 2.495292e+01 1.948205e+01 1.925782e+01 1.561585e+01 4.229137e+01
<GCONST> 6.658284e+01
<STATE> 4
<NUMMIXES> 2
<MIXTURE> 1 6.022970e-01
<MEAN> 13
 -2.217698e+01 4.614594e+00 2.008695e+00 2.671184e+00 -1.135138e+00 8.585318e-01 7.126871e+00 1.878464e+00 -2.010328e+00 3.261066e+00 5.305764e-01 -2.635021e+00 5.431041e+01
<VARIANCE> 13
 2.868556e+01 1.472811e+01 1.536101e+01 2.132852e+01 1.622412e+01 1.534098e+01 2.271535e+01 1.693426e+01 1.915043e+01 2.542251e+01 1.728222e+01 1.914743e+01 1.565506e+01
<GCONST> 6.194043e+01
<MIXTURE> 2 3.976250e-01
<MEAN> 13
 -2.149043e+01 -3.988602e-01 1.054428e+00 2.015044e+00 -3.786670e+00 -2.903900e+00 4.995817e+00 -2.389569e+00 -4.906343e+00 4.482218e+00 8.549631e-01 -3.195834e+00 5.760120e+01
<VARIANCE> 13
 4.094802e+01 2.833372e+01 2.480065e+01 2.043927e+01 1.696185e+01 1.831254e+01 3.498887e+01 1.724538e+01 1.907827e+01 2.315273e+01 1.818024e+01 1.679939e+01 2.624955e+01
<GCONST> 6.439821e+01
<TRANSP> 5
 0.000000e+00 1.000000e+00 0.000000e+00 0.000000e+00 0.000000e+00
 0.000000e+00 9.801090e-01 1.989096e-02 0.000000e+00 0.000000e+00
 0.000000e+00 0.000000e+00 9.949756e-01 5.024430e-03 0.000000e+00
 0.000000e+00 0.000000e+00 0.000000e+00 9.938964e-01 6.103687e-03
 0.000000e+00 0.000000e+00 0.000000e+00 0.000000e+00 0.000000e+00
<ENDHMM>
~h "kn"
<BEGINHMM>
<NUMSTATES> 5
<STATE> 2
<NUMMIXES> 2
<MIXTURE> 1 5.843781e-01
<MEAN> 13
 -2.731114e+00 3.791742e+00 3.533367e+00 -1.873425e+00 1.886377e+00 3.508992e+00 1.838546e+00 6.060332e-01 -9.305514e-01 6.339229e-01 5.433890e-01 -2.426536e+00 4.485672e+01
<VARIANCE> 13
 2.440507e+01 1.443961e+01 1.201208e+01 7.620196e+00 1.336437e+01 1.507358e+01 1.493898e+01 1.991844e+01 1.934394e+01 1.654465e+01 1.394248e+01 1.177565e+01 1.471168e+01
<GCONST> 5.883310e+01
<MIXTURE> 2 4.156209e-01
<MEAN> 13
 5.614783e-01 2.054063e+00 -1.116788e+00 -3.104321e+00 -2.034138e+00 -1.885880e+00 1.516657e+00 -6.152174e+00 2.658422e-01 3.615690e+00 7.345871e-01 -1.727020e+00 5.487360e+01
<VARIANCE> 13
 2.773262e+01 1.869807e+01 3.220696e+01 1.353285e+01 1.798550e+01 3.309589e+01 4.993666e+01 2.921319e+01 3.183227e+01 4.924306e+01 4.393597e+01 2.746640e+01 7.856722e+01
<GCONST> 6.871198e+01
<STATE> 3
<NUMMIXES> 2
<MIXTURE> 1 5.155974e-01
<MEAN> 13
 5.138545e+00 8.592401e-03 -2.023712e+00 1.981171e+00 6.174009e+00 1.319559e+00 3.266020e+00 -1.469816e+00 6.244947e-01 3.457191e-01 1.903868e+00 -1.035667e+00 5.886660e+01
<VARIANCE> 13
 1.053344e+01 1.538758e+01 1.282305e+01 1.108153e+01 1.602302e+01 2.049590e+01 1.887100e+01 1.497004e+01 1.915454e+01 1.661628e+01 1.589819e+01 1.617010e+01 3.909080e+01
<GCONST> 6.035315e+01
<MIXTURE> 2 4.843912e-01
<MEAN> 13
 5.840164e+00 -3.591828e-01 -2.501799e+00 7.471439e-01 3.866750e+00 -1.714637e+00 2.915152e-01 -5.551688e+00 -2.842706e+00 -3.152422e+00 -5.657659e-01 -3.435084e+00 5.894904e+01
<VARIANCE> 13
 9.340620e+00 2.841152e+01 1.902013e+01 1.461216e+01 1.833367e+01 2.138474e+01 1.895592e+01 2.344701e+01 2.004337e+01 1.670952e+01 1.453615e+01 1.533909e+01 3.761318e+01
<GCONST> 6.201747e+01
<STATE> 4
<NUMMIXES> 2
<MIXTURE> 1 6.004574e-01
<MEAN> 13
 -3.165410e+00 7.792388e-01 1.083713e+00 -1.876964e+00 2.559573e+00 3.244332e+00 2.727132e+00 2.620124e+00 -1.259390e+00 1.643785e-01 4.367141e-01 -3.303155e+00 4.550216e+01
<VARIANCE> 13
 5.224318e+00 1.655693e+01 1.312280e+01 8.207933e+00 1.619417e+01 1.246996e+01 1.789610e+01 1.576366e+01 1.519552e+01 1.603979e+01 1.330373e+01 1.324711e+01 8.648242e+00
<GCONST> 5.680750e+01
<MIXTURE> 2 3.995476e-01
<MEAN> 13
 -4.034740e+00 -2.575258e+00 4.142113e-01 -3.420462e+00 -4.424514e+00 8.974780e-01 3.555146e+00 -3.129376e+00 -1.018135e+00 4.136056e+00 -4.648023e-01 -2.634057e+00 4.825809e+01
<VARIANCE> 13
 7.066498e+00 1.299161e+01 2.065093e+01 1.245759e+01 1.887918e+01 2.281008e+01 3.814567e+01 3.582643e+01 2.064903e+01 3.730470e+01 3.619402e+01 1.866189e+01 1.030941e+01
<GCONST> 6.274274e+01
<TRANSP> 5
 0.000000e+00 1.000000e+00 0.000000e+00 0.000000e+00 0.000000e+00
 0.000000e+00 9.544627e-01 4.553731e-02 0.000000e+00 0.000000e+00
 0.000000e+00 0.000000e+00 9.881499e-01 1.185014e-02 0.000000e+00
 0.000000e+00 0.000000e+00 0.000000e+00 9.911599e-01 8.840122e-03
 0.000000e+00 0.000000e+00 0.000000e+00 0.000000e+00 0.000000e+00
<ENDHMM>
~h "kt"
<BEGINHMM>
<NUMSTATES> 5
<STATE> 2
<NUMMIXES> 2
<MIXTURE> 1 6.097583e-01
<MEAN> 13
 -1.056571e+01 3.401229e+00 -2.609859e+00 1.126842e+00 1.665158e+00 -2.934043e-01 3.636561e+00 2.433481e+00 1.029721e+00 -2.190463e-01 8.711840e-01 -1.657820e+00 4.968733e+01
<VARIANCE> 13
 4.750922e+00 5.048198e+00 7.487248e+00 9.217901e+00 1.076746e+01 1.110281e+01 1.317845e+01 1.479360e+01 1.484862e+01 1.483444e+01 1.296655e+01 1.161302e+01 7.982264e+00
<GCONST> 5.384720e+01
<MIXTURE> 2 3.902552e-01
<MEAN> 13
 -1.353942e+01 2.762029e+00 -3.772512e+00 2.765374e-01 -3.735043e-01 -3.710632e+00 1.216444e+00 1.884778e-01 -9.468433e-01 -1.177928e+00 -1.255247e+00 -1.743961e+00 5.523724e+01
<VARIANCE> 13
 6.240400e+00 8.933565e+00 9.672698e+00 1.443340e+01 1.587506e+01 1.767615e+01 1.914520e+01 1.854897e+01 1.972174e+01 2.259066e+01 2.011484e+01 1.575459e+01 1.639812e+01
<GCONST> 5.901656e+01
<STATE> 3
<NUMMIXES> 2
<MIXTURE> 1 5.717908e-01
<MEAN> 13
 -7.230410e+00 2.546189e+00 -1.229831e+00 -1.133930e-01 5.350326e-01 1.923586e+00 4.526846e+00 2.703710e+00 8.691680e-01 9.578385e-01 6.372243e-01 -2.038517e+00 4.610177e+01
<VARIANCE> 13
 6.238897e+00 5.376545e+00 6.924526e+00 7.345516e+00 1.213598e+01 1.028412e+01 1.336791e+01 1.383467e+01 1.331008e+01 1.461852e+01 1.285756e+01 1.166708e+01 3.150818e+00
<GCONST> 5.281040e+01
<MIXTURE> 2 4.282046e-01
<MEAN> 13
 -9.048950e+00 2.371787e+00 -2.673810e+00 -1.454049e+00 -2.155716e+00 -1.421043e+00 2.067425e+00 9.631344e-02 1.855223e-01 7.827627e-01 6.948927e-02 -2.103374e+00 4.981763e+01
<VARIANCE> 13
 1.459727e+01 1.299303e+01 1.251972e+01 1.354388e+01 2.054800e+01 1.644359e+01 2.024924e+01 2.070174e+01 2.161106e+01 2.237255e+01 1.675749e+01 1.436310e+01 1.278068e+01
<GCONST> 6.034440e+01
<STATE> 4
<NUMMIXES> 2
<MIXTURE> 1 5.537713e-01
<MEAN> 13
 -8.394547e+00 -1.604869e+00 -5.468814e+00 -1.960577e+00 2.287781e+00 3.814529e+00 5.968045e+00 1.128079e+00 2.885411e-02 1.322820e+00 1.491818e+00 -1.522381e+00 5.277249e+01
<VARIANCE> 13
 1.008518e+01 6.830307e+00 6.412308e+00 7.398287e+00 8.356919e+00 9.545674e+00 1.071686e+01 1.264909e+01 1.309423e+01 1.267505e+01 1.240543e+01 1.142259e+01 5.537354e+00
<GCONST> 5.304994e+01
<MIXTURE> 2 4.459871e-01
<MEAN> 13
 -1.288741e+01 -2.870009e+00 -4.194218e+00 -1.776853e+00 -1.013133e-01 -1.351944e+00 2.398616e+00 -1.158126e+00 -5.630530e-01 -2.721262e-01 2.832732e-01 -1.052953e+00 5.845746e+01
<VARIANCE> 13
 1.616751e+01 1.777969e+01 1.280287e+01 1.320010e+01 1.430894e+01 1.601434e+01 1.733426e+01 1.977876e+01 2.149913e+01 1.715935e+01 1.530929e+01 1.406141e+01 2.348671e+01
<GCONST> 6.039390e+01
<TRANSP> 5
 0.000000e+00 1.000000e+00 0.000000e+00 0.000000e+00 0.000000e+00
 0.000000e+00 9.909099e-01 9.090099e-03 0.000000e+00 0.000000e+00
 0.000000e+00 0.000000e+00 9.937295e-01 6.270504e-03 0.000000e+00
 0.000000e+00 0.000000e+00 0.000000e+00 9.970480e-01 2.952063e-03
 0.000000e+00 0.000000e+00 0.000000e+00 0.000000e+00 0.000000e+00
<ENDHMM>
~h "pr"
<BEGINHMM>
<NUMSTATES> 5
<STATE> 2
<NUMMIXES> 2
<MIXTURE> 1 7.121860e-01
<MEAN> 13
 -5.176423e+00 -1.043872e+00 1.242944e+00 -3.211290e+00 -3.294051e+00 3.204375e+00 2.840000e+00 7.153381e-01 6.711567e-01 3.468747e+00 4.038191e-01 -3.017280e+00 4.683370e+01
<VARIANCE> 13
 8.597526e+00 1.286246e+01 2.831418e+01 1.495536e+01 3.774813e+01 1.950486e+01 2.223239e+01 2.626118e+01 3.404958e+01 2.693481e+01 2.008152e+01 2.291461e+01 6.320078e+00
<GCONST> 6.241441e+01
<MIXTURE> 2 2.878254e-01
<MEAN> 13
 -9.175414e+00 -1.385225e+01 -1.683747e+00 -6.772200e+00 7.603807e+00 1.185754e+01 -5.611466e-02 -1.754313e+00 1.241697e+00 1.860983e-01 6.103502e+00 -1.534633e+00 5.508400e+01
<VARIANCE> 13
 1.014178e+01 2.447642e+01 2.803866e+01 5.283343e+01 3.935530e+01 1.135131e+02 3.025668e+01 4.188914e+01 7.187478e+01 4.273459e+01 8.029377e+01 5.106351e+01 7.815358e+00
<GCONST> 7.066158e+01
<STATE> 3
<NUMMIXES> 2
<MIXTURE> 1 3.543268e-01
<MEAN> 13
 -1.778168e+01 -7.523297e+00 4.866380e+00 -2.754090e+00 1.130863e+01 -8.217270e+00 9.379994e-01 9.600314e+00 8.706973e-01 -3.718983e+00 -5.576028e+00 8.143758e+00 5.704403e+01
<VARIANCE> 13
 2.892737e+01 3.155210e+01 1.747116e+01 4.093470e+01 3.485269e+01 6.862163e+01 2.524166e+01 4.497824e+01 2.826982e+01 4.181942e+01 4.563370e+01 4.995913e+01 3.246707e+01
<GCONST> 7.038301e+01
<MIXTURE> 2 6.457497e-01
<MEAN> 13
 -1.347844e+01 -8.189267e+00 -4.486008e-01 -6.263356e+00 -2.013696e+00 1.426768e+00 8.847592e+00 9.668857e-01 -5.235910e-01 -1.380672e+00 2.756206e+00 -1.981779e+00 5.921461e+01
<VARIANCE> 13
 3.220444e+01 3.966494e+01 4.669595e+01 3.389050e+01 6.086879e+01 5.434254e+01 6.759972e+01 6.492787e+01 6.185435e+01 3.567078e+01 4.388654e+01 5.065474e+01 1.454264e+01
<GCONST> 7.298552e+01
<STATE> 4
<NUMMIXES> 2
<MIXTURE> 1 6.227625e-01
<MEAN> 13
 -1.996452e+01 3.517024e+00 1.731569e+01 -1.617587e+01 2.823776e+00 1.272402e+01 -5.589645e+00 -4.673004e+00 1.149916e+01 -5.589993e+00 -8.164680e+00 9.040027e+00 5.289150e+01
<VARIANCE> 13
 1.642035e+01 1.544199e+01 1.244097e+01 2.692304e+01 2.534508e+01 2.088083e+01 1.707330e+01 3.064056e+01 2.971672e+01 3.933680e+01 3.195363e+01 1.900316e+01 1.033020e+01
<GCONST> 6.358108e+01
<MIXTURE> 2 3.772655e-01
<MEAN> 13
 -7.429467e+00 2.421777e+00 5.835401e+00 -5.890711e+00 4.640336e+00 2.303197e+00 -5.368477e-01 3.938625e+00 1.816364e-01 -1.154795e-01 -3.145428e+00 8.013837e-01 4.504031e+01
<VARIANCE> 13
 1.055744e+01 7.317582e+00 3.416609e+01 4.498009e+01 1.743521e+01 2.935189e+01 2.309551e+01 2.309663e+01 2.241295e+01 2.103378e+01 3.571835e+01 3.287315e+01 5.098042e+00
<GCONST> 6.294709e+01
<TRANSP> 5
 0.000000e+00 1.000000e+00 0.000000e+00 0.000000e+00 0.000000e+00
 0.000000e+00 9.834117e-01 1.658841e-02 0.000000e+00 0.000000e+00
 0.000000e+00 0.000000e+00 9.949499e-01 5.050047e-03 0.000000e+00
 0.000000e+00 0.000000e+00 0.000000e+00 9.928906e-01 7.109390e-03
 0.000000e+00 0.000000e+00 0.000000e+00 0.000000e+00 0.000000e+00
<ENDHMM>
~h "pw"
<BEGINHMM>
<NUMSTATES> 5
<STATE> 2
<NUMMIXES> 2
<MIXTURE> 1 6.130159e-01
<MEAN> 13
 -1.216945e+01 -6.359799e-01 8.263615e-02 1.980246e-02 1.891681e+00 -3.715728e-01 3.717934e+00 1.595129e+00 -4.316004e-02 1.521413e+00 6.224012e-01 -7.743853e-01 5.063721e+01
<VARIANCE> 13
 1.295677e+01 1.339310e+01 8.961247e+00 1.097547e+01 1.261260e+01 1.328016e+01 1.312113e+01 1.480850e+01 1.583085e+01 1.485173e+01 1.395051e+01 1.253182e+01 1.320789e+01
<GCONST> 5.723240e+01
<MIXTURE> 2 3.870041e-01
<MEAN> 13
 -1.483354e+01 -6.614183e+00 -1.758796e+00 -7.061512e-01 1.714560e-01 -4.104786e+00 5.491357e-01 -2.537199e+00 -2.037975e+00 1.612073e-01 -2.101694e-01 -9.332284e-01 5.873167e+01
<VARIANCE> 13
 1.755498e+01 2.100602e+01 1.394913e+01 1.380609e+01 1.766723e+01 1.917612e+01 1.655972e+01 1.899955e+01 1.786714e+01 1.577807e+01 1.551035e+01 1.433908e+01 2.835348e+01
<GCONST> 6.103068e+01
<STATE> 3
<NUMMIXES> 2
<MIXTURE> 1 6.044728e-01
<MEAN> 13
 -1.046568e+01 -5.779213e+00 -2.993073e+00 -5.684823e-01 1.151494e+00 -4.074756e+00 -3.327559e-01 -5.754673e+00 -4.397236e+00 -1.034921e+00 4.004278e-01 -3.576744e-01 6.067550e+01
<VARIANCE> 13
 9.462606e+00 1.326204e+01 1.147373e+01 8.612007e+00 1.155925e+01 1.444570e+01 1.713193e+01 1.680366e+01 1.691175e+01 1.444848e+01 1.459025e+01 1.267728e+01 3.216673e+01
<GCONST> 5.828799e+01
<MIXTURE> 2 3.955423e-01
<MEAN> 13
 -1.229340e+01 -8.781951e+00 -4.590857e+00 -3.603876e+00 -2.917870e+00 -8.484496e+00 -3.369345e+00 -7.949521e+00 -4.416333e+00 -2.707582e+00 -6.980012e-01 -1.200185e+00 7.060533e+01
<VARIANCE> 13
 1.414433e+01 1.176915e+01 1.237431e+01 1.202312e+01 1.521517e+01 1.577316e+01 1.860409e+01 2.062167e+01 2.241417e+01 1.713746e+01 1.643710e+01 1.440928e+01 2.861348e+01
<GCONST> 6.021223e+01
<STATE> 4
<NUMMIXES> 2
<MIXTURE> 1 4.918778e-01
<MEAN> 13
 -6.961099e+00 -1.091925e+00 -7.088896e-01 -4.255598e-01 2.515934e+00 -4.114604e-01 1.021469e+00 -2.396935e+00 -3.307907e+00 -7.559209e-01 -5.184192e-01 -1.194006e+00 5.065016e+01
<VARIANCE> 13
 1.167160e+01 1.574018e+01 1.065072e+01 8.355867e+00 1.422590e+01 1.418092e+01 1.787718e+01 2.231421e+01 1.675339e+01 1.682719e+01 1.394458e+01 1.519348e+01 2.200606e+01
<GCONST> 5.897895e+01
<MIXTURE> 2 5.081173e-01
<MEAN> 13
 -5.428726e+00 -7.952351e+00 -1.451892e+00 -2.850745e+00 -1.997263e+00 -5.920863e+00 -3.627225e+00 -6.910411e+00 -3.654576e+00 -1.470213e+00 -1.048840e+00 -2.449094e+00 6.332797e+01
<VARIANCE> 13
 1.398929e+01 3.479158e+01 2.032978e+01 1.553060e+01 3.356895e+01 2.843285e+01 1.861403e+01 2.732521e+01 3.072101e+01 2.068777e+01 2.139186e+01 2.486415e+01 7.044735e+01
<GCONST> 6.591364e+01
<TRANSP> 5
 0.000000e+00 1.000000e+00 0.000000e+00 0.000000e+00 0.000000e+00
 0.000000e+00 9.966443e-01 3.355784e-03 0.000000e+00 0.000000e+00
 0.000000e+00 0.000000e+00 9.712903e-01 2.870966e-02 0.000000e+00
 0.000000e+00 0.000000e+00 0.000000e+00 9.780152e-01 2.198478e-02
 0.000000e+00 0.000000e+00 0.000000e+00 0.000000e+00 0.000000e+00
<ENDHMM>
~h "si"
<BEGINHMM>
<NUMSTATES> 5
<STATE> 2
<NUMMIXES> 2
<MIXTURE> 1 6.555267e-01
<MEAN> 13
 -1.019358e+01 1.213652e+00 1.784347e+00 5.352116e-02 2.659967e+00 1.288592e+00 3.608892e+00 1.650605e+00 9.984201e-02 2.914584e-01 1.070172e+00 -1.370837e+00 4.840107e+01
<VARIANCE> 13
 1.281121e+01 8.617585e+00 7.437455e+00 9.947025e+00 1.097127e+01 1.207980e+01 1.361660e+01 1.518407e+01 1.537201e+01 1.459259e+01 1.354059e+01 1.252472e+01 1.418887e+01
<GCONST> 5.631759e+01
<MIXTURE> 2 3.443285e-01
<MEAN> 13
 -1.216477e+01 -2.501963e+00 -3.093937e-02 -1.831796e+00 -5.558647e-01 -2.986951e+00 6.132020e-01 -2.103476e+00 -1.093712e+00 -1.494992e-01 1.462163e+00 -9.997054e-01 5.646995e+01
<VARIANCE> 13
 2.356233e+01 2.839855e+01 2.066387e+01 1.874938e+01 2.179200e+01 1.907742e+01 2.405112e+01 2.278987e+01 2.304862e+01 2.094869e+01 2.026620e+01 1.706293e+01 5.386142e+01
<GCONST> 6.470644e+01
<STATE> 3
<NUMMIXES> 2
<MIXTURE> 1 5.497679e-01
<MEAN> 13
 -5.325741e+00 2.573151e+00 2.080051e+00 -1.725875e+00 4.689816e+00 3.684205e+00 2.775478e+00 5.423329e+00 -6.978045e-01 1.397083e-04 1.437856e+00 -2.515461e+00 4.232021e+01
<VARIANCE> 13
 2.373948e+00 3.054120e+00 4.636408e+00 6.180723e+00 8.546472e+00 8.746645e+00 1.083943e+01 1.209154e+01 1.291258e+01 1.377899e+01 1.176728e+01 1.061478e+01 1.063614e+00
<GCONST> 4.848930e+01
<MIXTURE> 2 4.498844e-01
<MEAN> 13
 -5.198104e+00 1.910776e+00 7.506052e-01 -3.872960e+00 9.281479e-01 1.878299e-01 4.204862e-01 3.083704e+00 -1.042432e+00 1.336067e-01 6.886821e-01 -3.233955e+00 4.347150e+01
<VARIANCE> 13
 5.758333e+00 6.019048e+00 9.084483e+00 9.915287e+00 1.168848e+01 1.295481e+01 1.513273e+01 1.716415e+01 1.783477e+01 1.813133e+01 1.594233e+01 1.441317e+01 2.784575e+00
<GCONST> 5.475838e+01
<STATE> 4
<NUMMIXES> 2
<MIXTURE> 1 6.190424e-01
<MEAN> 13
 -7.961001e+00 2.243847e+00 1.492073e+00 -9.149954e-01 2.875535e+00 1.927841e+00 3.371767e+00 3.447641e+00 9.255584e-02 2.034513e-01 8.419869e-01 -2.122370e+00 4.521600e+01
<VARIANCE> 13
 6.535546e+00 5.352853e+00 6.689289e+00 8.802788e+00 9.704358e+00 1.070238e+01 1.227140e+01 1.343010e+01 1.415657e+01 1.416788e+01 1.303101e+01 1.190423e+01 3.600515e+00
<GCONST> 5.289714e+01
<MIXTURE> 2 3.806597e-01
<MEAN> 13
 -9.499017e+00 1.321616e-01 4.779620e-01 -2.326744e+00 -2.887690e-01 -1.928201e+00 9.406393e-01 6.520966e-01 -1.231706e-01 3.075028e-01 5.876946e-01 -1.617088e+00 4.920284e+01
<VARIANCE> 13
 1.928668e+01 1.954757e+01 1.414359e+01 1.795877e+01 1.489785e+01 1.713008e+01 1.848806e+01 1.904758e+01 2.002059e+01 1.837484e+01 1.747545e+01 1.537650e+01 1.533457e+01
<GCONST> 6.099962e+01
<TRANSP> 5
 0.000000e+00 1.000000e+00 0.000000e+00 0.000000e+00 0.000000e+00
 0.000000e+00 9.903808e-01 9.619161e-03 0.000000e+00 0.000000e+00
 0.000000e+00 0.000000e+00 9.932423e-01 6.757755e-03 0.000000e+00
 0.000000e+00 0.000000e+00 0.000000e+00 9.889916e-01 1.100840e-02
 0.000000e+00 0.000000e+00 0.000000e+00 0.000000e+00 0.000000e+00
<ENDHMM>
~h "st"
<BEGINHMM>
<NUMSTATES> 5
<STATE> 2
<NUMMIXES> 2
<MIXTURE> 1 5.462329e-01
<MEAN> 13
 -5.010853e+00 1.548627e-01 -3.158513e+00 -4.024251e+00 -6.806809e-01 -6.950640e-01 -1.533828e+00 -4.503949e-01 -2.224490e+00 -9.494872e-01 -8.478101e-01 -2.576732e+00 6.923690e+01
<VARIANCE> 13
 7.376750e+00 6.724627e+00 7.829644e+00 1.007839e+01 1.170058e+01 9.936878e+00 1.132897e+01 1.557929e+01 1.450653e+01 1.345956e+01 1.300280e+01 1.191387e+01 4.351963e+01
<GCONST> 5.618439e+01
<MIXTURE> 2 4.537748e-01
<MEAN> 13
 -5.466925e+00 -1.042107e+00 -3.841170e+00 -6.549349e+00 -2.946485e+00 -3.906518e+00 -5.547452e+00 -3.817343e+00 -5.279880e+00 -3.653996e+00 -2.808614e+00 -3.151821e+00 7.341917e+01
<VARIANCE> 13
 4.294694e+00 8.424927e+00 7.307734e+00 1.084993e+01 1.057924e+01 8.608114e+00 1.110316e+01 1.383212e+01 1.379802e+01 1.233800e+01 1.244793e+01 1.240321e+01 2.261233e+01
<GCONST> 5.469511e+01
<STATE> 3
<NUMMIXES> 2
<MIXTURE> 1 5.967222e-01
<MEAN> 13
 -1.018265e+01 9.587550e-01 8.088903e-01 -9.116929e-01 1.001819e+00 1.555989e-01 2.828479e+00 -1.207894e-02 2.229458e-01 -8.066458e-02 9.652856e-01 -2.239098e+00 5.213788e+01
<VARIANCE> 13
 1.461984e+01 6.479944e+00 8.614610e+00 1.138422e+01 1.206637e+01 1.299427e+01 1.388902e+01 1.637859e+01 1.753345e+01 1.642942e+01 1.437789e+01 1.314059e+01 1.083816e+01
<GCONST> 5.679884e+01
<MIXTURE> 2 4.033133e-01
<MEAN> 13
 -9.890750e+00 -2.031186e+00 3.972532e-01 -5.489703e+00 -2.900133e+00 -3.362946e+00 3.274207e-01 -1.729908e+00 -1.577173e+00 -1.165296e+00 4.116612e-01 -2.764591e+00 6.055011e+01
<VARIANCE> 13
 2.055009e+01 2.145915e+01 1.439928e+01 1.905658e+01 1.771917e+01 2.261524e+01 2.353191e+01 2.285386e+01 2.371744e+01 2.158755e+01 1.846359e+01 1.591330e+01 4.535537e+01
<GCONST> 6.361258e+01
<STATE> 4
<NUMMIXES> 2
<MIXTURE> 1 7.221718e-01
<MEAN> 13
 -3.658200e+00 -7.012168e-01 -9.931007e-01 -4.055745e+00 -1.866889e+00 1.237298e+00 6.426157e-01 -1.141014e+00 -4.206517e-01 -6.134973e-01 -1.140813e+00 -3.595697e+00 5.383551e+01
<VARIANCE> 13
 1.789116e+01 2.970360e+01 1.786572e+01 1.787714e+01 2.171049e+01 1.878614e+01 2.007093e+01 2.289990e+01 2.845103e+01 2.334011e+01 2.325875e+01 1.755559e+01 2.449257e+01
<GCONST> 6.378448e+01
<MIXTURE> 2 2.778608e-01
<MEAN> 13
 -1.353333e+00 -3.313704e+00 1.396191e+00 -1.747204e+01 -2.177410e+00 -8.995080e+00 -6.871433e+00 -4.595452e+00 -1.027772e+00 -4.893813e+00 -9.958770e+00 -1.251927e+00 6.362500e+01
<VARIANCE> 13
 2.916696e+01 3.155052e+01 8.065727e+01 4.916325e+01 5.192083e+01 5.156359e+01 5.323018e+01 5.764194e+01 4.262071e+01 3.807161e+01 3.109340e+01 3.472153e+01 1.667714e+01
<GCONST> 7.211401e+01
<TRANSP> 5
 0.000000e+00 1.000000e+00 0.000000e+00 0.000000e+00 0.000000e+00
 0.000000e+00 9.709475e-01 2.905250e-02 0.000000e+00 0.000000e+00
 0.000000e+00 0.000000e+00 9.919952e-01 8.004802e-03 0.000000e+00
 0.000000e+00 0.000000e+00 0.000000e+00 9.530011e-01 4.699888e-02
 0.000000e+00 0.000000e+00 0.000000e+00 0.000000e+00 0.000000e+00
<ENDHMM>
~h "spe"
<BEGINHMM>
<NUMSTATES> 5
<STATE> 2
<NUMMIXES> 2
<MIXTURE> 1 7.081420e-01
<MEAN> 13
 -2.584789e+00 -5.016537e+00 -3.608805e+00 -3.225480e+00 3.024712e+00 5.380507e+00 5.461552e+00 1.378983e+00 -7.962432e-01 1.603839e+00 1.904134e+00 -2.401150e+00 4.934312e+01
<VARIANCE> 13
 1.735297e+00 2.584747e+00 4.330782e+00 5.903300e+00 7.937298e+00 9.412797e+00 1.112028e+01 1.197875e+01 1.237390e+01 1.260469e+01 1.198579e+01 1.047696e+01 6.652243e-01
<GCONST> 4.731495e+01
<MIXTURE> 2 2.918729e-01
<MEAN> 13
 -3.391519e+00 -5.441081e+00 -3.411245e+00 -4.866096e+00 2.803230e-01 1.408708e+00 2.256809e+00 -1.911660e-01 -1.322206e+00 -1.078046e-01 -5.548985e-02 -3.360141e+00 5.226473e+01
<VARIANCE> 13
 1.084422e+01 1.420957e+01 1.575375e+01 2.156770e+01 2.113470e+01 2.454587e+01 1.740001e+01 2.339713e+01 2.067047e+01 1.876024e+01 1.995311e+01 1.912341e+01 1.039159e+01
<GCONST> 6.126451e+01
<STATE> 3
<NUMMIXES> 2
<MIXTURE> 1 5.697803e-01
<MEAN> 13
 -3.585856e+00 -1.318900e+00 -2.242923e+00 -2.733831e+00 -6.954252e-03 1.836178e+00 3.091599e+00 1.836530e-01 -7.179369e-01 1.023420e+00 -4.417767e-03 -3.732139e+00 5.044364e+01
<VARIANCE> 13
 1.502002e+01 1.866312e+01 1.394666e+01 1.197320e+01 1.982289e+01 2.147539e+01 1.864746e+01 2.065043e+01 2.019986e+01 1.990759e+01 1.840611e+01 1.728642e+01 7.560251e+00
<GCONST> 6.043573e+01
<MIXTURE> 2 4.302606e-01
<MEAN> 13
 2.154852e-01 -5.037303e+00 2.548864e+00 -6.386579e+00 -5.917588e+00 -2.164503e+00 -3.485255e+00 -1.545521e+00 -2.632464e+00 -2.390478e-01 -1.583924e+00 -7.104576e+00 5.657039e+01
<VARIANCE> 13
 1.089253e+01 2.837343e+01 4.808189e+01 3.630101e+01 5.295502e+01 4.379877e+01 2.938664e+01 4.448839e+01 3.790360e+01 3.552120e+01 4.033854e+01 3.068813e+01 1.548029e+01
<GCONST> 6.908143e+01
<STATE> 4
<NUMMIXES> 2
<MIXTURE> 1 5.639272e-01
<MEAN> 13
 -6.038505e+00 1.960720e+00 -1.373348e+00 -6.443344e-01 -7.137145e-01 2.284893e+00 4.199437e+00 2.226561e+00 1.293169e+00 2.653560e+00 5.168201e-01 -2.022815e+00 4.655714e+01
<VARIANCE> 13
 1.090586e+01 4.443780e+00 5.857825e+00 8.047695e+00 1.262513e+01 1.337267e+01 1.358415e+01 1.358005e+01 1.512232e+01 1.387278e+01 1.373402e+01 1.261010e+01 6.790401e+00
<GCONST> 5.438876e+01
<MIXTURE> 2 4.360787e-01
<MEAN> 13
 -1.298794e+01 -1.947924e+00 -1.903858e+00 -1.570248e+00 -3.957120e-01 -2.359922e+00 1.553377e+00 -1.740479e+00 -1.165715e+00 2.313229e-01 -1.140432e-01 -8.086792e-01 5.656379e+01
<VARIANCE> 13
 1.789409e+01 2.617036e+01 1.426537e+01 1.318569e+01 1.763603e+01 1.932146e+01 2.238473e+01 1.975569e+01 1.685780e+01 1.685380e+01 1.696874e+01 1.505099e+01 3.262328e+01
<GCONST> 6.187868e+01
<TRANSP> 5
 0.000000e+00 1.000000e+00 0.000000e+00 0.000000e+00 0.000000e+00
 0.000000e+00 9.966421e-01 3.358002e-03 0.000000e+00 0.000000e+00
 0.000000e+00 0.000000e+00 9.976348e-01 2.365177e-03 0.000000e+00
 0.000000e+00 0.000000e+00 0.000000e+00 9.974574e-01 2.542672e-03
 0.000000e+00 0.000000e+00 0.000000e+00 0.000000e+00 0.000000e+00
<ENDHMM>
