~o
<STREAMINFO> 1 39
<VECSIZE> 39<NULLD><MFCC_D_A_Z_0><DIAGC>
~h "ap"
<BEGINHMM>
<NUMSTATES> 5
<STATE> 2
<NUMMIXES> 2
<MIXTURE> 1 5.893973e-01
<MEAN> 39
 -6.215351e+00 7.565535e-01 -7.042875e-01 -2.013180e+00 -3.935786e+00 -1.417626e+00 -1.740448e+00 2.093546e-01 1.580479e+00 9.448815e-01 -4.462102e-01 2.086380e-01 9.936844e+00 4.095827e-01 -1.589320e-01 -4.442102e-01 -6.612024e-01 3.288251e-01 7.492665e-01 1.965509e-01 5.509142e-03 9.712756e-02 1.526319e-01 -4.193388e-03 -6.565054e-01 -4.414396e-01 1.221620e-01 2.401710e-01 2.180428e-01 2.565444e-01 2.914920e-01 1.942193e-01 1.693127e-01 9.295273e-02 1.300237e-02 2.185517e-03 -1.289675e-01 1.825686e-02 -6.681494e-01
<VARIANCE> 39
 3.564848e+01 5.297911e+01 3.812302e+01 1.811494e+01 2.467658e+01 5.049065e+01 2.519472e+01 2.523993e+01 2.276054e+01 2.778036e+01 2.194418e+01 1.698635e+01 1.799275e+02 3.111006e-01 4.291317e-01 7.050027e-01 1.077501e+00 1.796174e+00 1.438284e+00 1.445519e+00 1.421533e+00 1.525476e+00 1.996483e+00 1.514205e+00 1.473311e+00 8.284882e-01 3.522955e-01 3.733070e-01 1.608268e-01 1.715841e-01 4.063993e-01 5.262092e-01 2.638981e-01 2.577243e-01 2.739961e-01 2.702681e-01 2.835993e-01 2.717056e-01 1.615480e+00
<GCONST> 1.034767e+02
<MIXTURE> 2 4.106032e-01
<MEAN> 39
 -3.571033e+00 4.902753e+00 2.051040e+00 3.361605e-01 -2.665325e+00 2.540898e-01 -1.075576e+00 1.962958e+00 2.668082e+00 -7.052472e-02 -1.834690e+00 6.330172e-01 1.543631e+00 -2.784096e+00 -3.057583e+00 -1.244204e+00 2.234072e-01 -1.898013e+00 -2.726280e+00 -1.226646e+00 -1.418384e+00 -7.537618e-01 -8.348090e-01 -5.796814e-01 7.109753e-02 6.818912e+00 3.668618e-01 1.420918e-01 -8.645666e-02 -4.221518e-01 2.723139e-01 4.817585e-01 1.811808e-01 8.979779e-02 9.352932e-02 3.011725e-01 2.252880e-01 -1.437767e-01 -5.795561e-01
<VARIANCE> 39
 5.855500e+01 6.350679e+01 2.283239e+01 2.096976e+01 4.277020e+01 6.828103e+01 3.469949e+01 3.022565e+01 2.609864e+01 2.857242e+01 2.381228e+01 1.719304e+01 2.422900e+02 4.437906e+00 4.092340e+00 2.298186e+00 2.868821e+00 3.987485e+00 3.990776e+00 2.693327e+00 2.507028e+00 2.489333e+00 2.372744e+00 3.135398e+00 2.082101e+00 8.381869e+00 1.137569e+00 1.006300e+00 3.026048e-01 3.175459e-01 8.435728e-01 1.085217e+00 4.561014e-01 4.864502e-01 4.024706e-01 4.338206e-01 3.603712e-01 3.413504e-01 4.355480e+00
<GCONST> 1.281937e+02
<STATE> 3
<NUMMIXES> 2
<MIXTURE> 1 5.483626e-01
<MEAN> 39
 1.723216e+00 5.340874e+00 2.974626e+00 3.213555e-01 2.816246e+00 3.784859e+00 1.329377e+00 2.005472e+00 1.940208e+00 9.475285e-01 4.194015e-01 2.539981e-02 -8.073607e+00 1.917174e-01 2.734862e-01 9.035746e-02 -8.061115e-02 -6.691817e-03 1.480231e-01 5.312178e-02 1.517491e-01 1.136604e-01 7.698870e-02 1.829078e-02 -2.338954e-02 -3.981859e-01 -2.447326e-02 -2.267566e-02 -3.783180e-02 -4.157107e-02 -5.369317e-02 -5.633648e-02 -3.261701e-02 -3.305135e-02 -3.136451e-02 -3.593881e-02 -3.375455e-02 4.528015e-03 2.292760e-02
<VARIANCE> 39
 1.146617e+01 2.528206e+01 1.076265e+01 1.443807e+01 1.839059e+01 1.800091e+01 1.487433e+01 1.719772e+01 1.744477e+01 1.576276e+01 1.295610e+01 1.087752e+01 3.108753e+01 1.846870e-01 2.887301e-01 4.491314e-01 6.563140e-01 8.441704e-01 1.031234e+00 1.022840e+00 1.173075e+00 1.224818e+00 1.356190e+00 1.270384e+00 1.130439e+00 1.462365e-01 2.281117e-02 4.764047e-02 7.928189e-02 1.243167e-01 1.547519e-01 1.922117e-01 1.943506e-01 2.413612e-01 2.468399e-01 2.845102e-01 2.565971e-01 2.285922e-01 8.198744e-03
<GCONST> 7.426389e+01
<MIXTURE> 2 4.516370e-01
<MEAN> 39
 -2.924108e+00 -2.538241e+00 -2.872693e+00 -1.156420e+00 -9.393783e-01 -1.905903e+00 -1.336924e+00 -2.087926e+00 -1.130107e+00 -1.112723e+00 -1.150034e+00 -3.779931e-01 6.543267e+00 2.516347e-01 1.024638e-01 2.038289e-01 1.975088e-01 3.306901e-01 2.159803e-01 1.562322e-01 -4.431819e-02 -9.383418e-02 -4.067041e-03 1.086707e-01 9.419868e-02 -7.562126e-01 1.497432e-02 4.448396e-02 6.041143e-02 6.140476e-02 2.625260e-02 2.841324e-02 2.748037e-02 6.073592e-02 4.976458e-02 4.449106e-02 5.244981e-02 1.681505e-02 4.170859e-03
<VARIANCE> 39
 1.182195e+01 1.845070e+01 1.697896e+01 1.357263e+01 2.173748e+01 1.796876e+01 1.788894e+01 2.070165e+01 1.702363e+01 1.888998e+01 1.395870e+01 1.419649e+01 5.270098e+01 1.194974e-01 2.279954e-01 3.703257e-01 5.652161e-01 8.485336e-01 1.049257e+00 1.113587e+00 1.181605e+00 1.299635e+00 1.376167e+00 1.148381e+00 1.187230e+00 1.983825e-01 2.145856e-02 4.374812e-02 7.765397e-02 1.161656e-01 1.761216e-01 2.374954e-01 2.249873e-01 2.337097e-01 2.647130e-01 2.925379e-01 2.419061e-01 2.583439e-01 1.266583e-02
<GCONST> 7.617809e+01
<STATE> 4
<NUMMIXES> 2
<MIXTURE> 1 7.918457e-01
<MEAN> 39
 4.420102e-01 -8.603977e-01 -9.076604e-02 1.224247e-01 3.028538e-01 -5.676758e-02 2.601430e-01 -4.216845e-01 -4.042622e-01 -5.171814e-02 2.921632e-01 1.522823e-02 -3.390933e-01 2.880966e-01 2.292299e-01 2.067169e-01 1.429642e-01 2.602515e-01 2.205097e-01 1.262642e-01 1.065508e-01 4.652154e-02 5.615325e-02 6.935043e-02 2.823745e-02 -7.949747e-01 -1.123214e-02 1.481690e-02 7.938773e-04 4.635853e-03 -2.475934e-02 -1.664861e-02 -1.130126e-02 1.825835e-02 1.259238e-02 3.552029e-03 -3.249323e-03 8.969022e-03 1.632441e-02
<VARIANCE> 39
 1.432088e+01 3.309791e+01 1.889829e+01 1.718794e+01 2.357552e+01 2.678597e+01 1.974992e+01 2.320556e+01 2.114364e+01 1.787400e+01 1.545903e+01 1.438544e+01 7.900636e+01 1.074409e-01 2.410033e-01 3.513620e-01 6.215573e-01 9.335800e-01 1.039201e+00 1.030766e+00 1.166904e+00 1.397395e+00 1.381803e+00 1.231704e+00 1.326344e+00 8.160016e-02 2.003939e-02 4.496293e-02 6.937122e-02 1.247918e-01 1.881293e-01 2.200338e-01 2.049026e-01 2.258027e-01 2.842246e-01 2.937476e-01 2.506155e-01 2.886207e-01 6.841161e-03
<GCONST> 7.741442e+01
<MIXTURE> 2 2.081555e-01
<MEAN> 39
 -7.873396e-01 1.520539e+00 2.091730e-02 -6.046499e-02 -1.689032e+00 -7.044869e-01 -9.260482e-01 1.368857e+00 8.498334e-01 1.225797e-01 -7.566407e-01 2.804242e-02 1.767689e+00 -1.063811e+00 -9.308217e-01 -7.940168e-01 -4.760979e-01 -9.715070e-01 -8.908680e-01 -4.856202e-01 -3.993292e-01 -1.888855e-01 -2.225345e-01 -2.619695e-01 -1.153948e-01 2.992595e+00 4.253538e-02 -5.573993e-02 -4.129591e-03 -1.693208e-02 9.518398e-02 6.358718e-02 3.890833e-02 -6.814086e-02 -5.003298e-02 -1.494384e-02 6.587460e-03 -3.592360e-02 -6.140617e-02
<VARIANCE> 39
 3.328426e+01 4.578996e+01 2.476463e+01 2.195771e+01 3.900222e+01 4.864408e+01 2.732691e+01 2.311482e+01 2.334619e+01 2.061875e+01 1.986171e+01 1.378791e+01 2.040921e+02 2.952216e+00 3.912867e+00 1.750904e+00 2.041774e+00 3.603442e+00 4.843024e+00 2.574594e+00 2.270633e+00 2.285348e+00 2.126194e+00 1.901666e+00 1.499256e+00 1.630223e+01 6.914490e-01 7.324470e-01 3.731775e-01 4.007255e-01 8.166181e-01 1.050109e+00 5.073204e-01 4.240025e-01 4.430712e-01 4.176321e-01 3.696275e-01 2.918658e-01 4.195837e+00
<GCONST> 1.234243e+02
<TRANSP> 5
 0.000000e+00 1.000000e+00 0.000000e+00 0.000000e+00 0.000000e+00
 0.000000e+00 8.235694e-01 1.764306e-01 0.000000e+00 0.000000e+00
 0.000000e+00 0.000000e+00 9.757017e-01 2.429826e-02 0.000000e+00
 0.000000e+00 0.000000e+00 0.000000e+00 9.958210e-01 4.178983e-03
 0.000000e+00 0.000000e+00 0.000000e+00 0.000000e+00 0.000000e+00
<ENDHMM>
~h "cl"
<BEGINHMM>
<NUMSTATES> 5
<STATE> 2
<NUMMIXES> 2
<MIXTURE> 1 7.105787e-01
<MEAN> 39
 6.417877e+00 -1.203273e+00 -5.369990e-01 2.208734e-01 8.313171e-01 -7.393293e-01 9.414718e-01 1.167329e+00 2.463932e-02 7.841159e-01 1.147547e+00 -1.538076e+00 -4.882693e+00 4.219785e-01 -8.683563e-02 -1.553426e-02 4.706603e-03 1.134805e-01 -4.641610e-02 1.400300e-02 7.080372e-02 -2.079040e-02 4.989375e-02 9.906315e-02 -9.915899e-02 -3.116143e-01 -1.518687e-02 9.850178e-03 -1.549657e-02 1.591554e-02 9.723909e-03 -3.339727e-02 1.450441e-02 3.143329e-02 -2.387977e-02 1.694516e-03 1.445506e-02 -3.224611e-03 1.067844e-02
<VARIANCE> 39
 3.323703e+01 1.353486e+01 1.491499e+01 9.334879e+00 1.944704e+01 2.608639e+01 1.981369e+01 2.771793e+01 3.087582e+01 2.103137e+01 2.556745e+01 2.527892e+01 1.259628e+01 3.331346e-01 3.367042e-01 5.290663e-01 7.042710e-01 1.018863e+00 1.175347e+00 1.289468e+00 1.546250e+00 1.750073e+00 1.417795e+00 1.604158e+00 1.472965e+00 1.366715e-01 6.367566e-02 6.308330e-02 9.638224e-02 1.418221e-01 2.000858e-01 2.311162e-01 2.434140e-01 2.958872e-01 3.269494e-01 2.886723e-01 3.232822e-01 2.942066e-01 2.349513e-02
<GCONST> 8.423574e+01
<MIXTURE> 2 2.894193e-01
<MEAN> 39
 5.682814e+00 -2.450445e-01 -1.685430e+00 1.366352e+00 2.639162e+00 -3.277558e+00 1.574888e+00 3.668022e+00 -1.215408e+00 3.059585e-01 3.743683e+00 -2.739905e+00 -4.734052e+00 -1.993686e+00 3.744771e-01 1.684884e-01 -2.939476e-02 -6.503564e-01 4.801529e-01 -1.671987e-01 -5.858945e-01 3.524392e-01 -1.711973e-01 -6.891215e-01 5.727249e-01 1.503292e+00 -1.244437e-01 -3.155036e-02 5.881583e-02 -6.804421e-02 -7.865196e-02 1.161405e-01 -7.122368e-02 -1.625928e-01 5.459118e-02 -3.171754e-02 -1.166973e-01 3.579665e-02 9.913140e-02
<VARIANCE> 39
 5.765505e+01 1.640069e+01 1.849217e+01 1.337124e+01 2.521788e+01 3.778136e+01 2.505791e+01 4.144500e+01 3.463746e+01 2.595596e+01 4.552249e+01 3.284464e+01 3.671408e+01 5.082105e+00 1.437525e+00 1.349695e+00 1.445917e+00 1.919512e+00 3.406888e+00 2.505085e+00 3.539990e+00 3.618075e+00 2.875563e+00 3.178347e+00 2.617081e+00 2.898610e+00 1.179090e+00 2.277169e-01 1.917637e-01 2.267748e-01 3.315688e-01 4.936369e-01 3.959144e-01 5.468350e-01 6.041436e-01 5.319994e-01 5.530196e-01 4.357482e-01 6.737807e-01
<GCONST> 1.170581e+02
<STATE> 3
<NUMMIXES> 2
<MIXTURE> 1 6.414036e-01
<MEAN> 39
 -2.349463e+00 4.425307e-02 7.518482e-01 -2.970864e-01 -1.872940e-01 1.445172e+00 -1.580241e-01 -4.876827e-01 5.081885e-01 4.940739e-02 -5.877942e-01 5.881732e-01 1.397645e+00 6.109528e-01 7.872263e-02 1.919127e-01 -1.532965e-01 -1.545580e-02 1.966119e-01 -5.967567e-03 -1.481006e-01 3.461154e-01 6.655614e-02 -8.515931e-03 9.595431e-02 -6.342425e-01 -3.913949e-02 2.006725e-02 -5.224159e-02 5.511423e-02 7.702167e-03 -1.248856e-01 3.260408e-02 1.018462e-01 -1.871663e-02 2.013846e-02 3.901441e-02 -3.027453e-02 2.366308e-02
<VARIANCE> 39
 1.527042e+01 5.643741e+00 1.051590e+01 9.788831e+00 1.511883e+01 2.160816e+01 1.922801e+01 2.482413e+01 2.497222e+01 1.996027e+01 1.869036e+01 1.866277e+01 1.319318e+01 2.083711e-01 3.383163e-01 6.501526e-01 7.785013e-01 9.846308e-01 1.341012e+00 1.359459e+00 1.514097e+00 1.708706e+00 1.490977e+00 1.364480e+00 1.377786e+00 1.277132e-01 1.175523e-01 7.824478e-02 1.490006e-01 1.712049e-01 2.217906e-01 3.197140e-01 3.080284e-01 3.558886e-01 4.149019e-01 3.424393e-01 2.999046e-01 3.137585e-01 1.003606e-01
<GCONST> 8.471758e+01
<MIXTURE> 2 3.585974e-01
<MEAN> 39
 -3.025101e+00 2.349891e-01 -4.903881e-01 6.536101e-01 -1.790427e-01 -5.400259e-01 2.483901e-01 8.868383e-01 9.004486e-02 -7.647687e-02 -5.796042e-02 1.479080e-02 2.225770e+00 -1.085395e+00 -1.362669e-01 -3.208835e-01 2.344409e-01 2.168793e-02 -3.285362e-01 9.933225e-03 2.438658e-01 -6.437364e-01 -1.331645e-01 -1.136333e-02 -1.646148e-01 1.137466e+00 1.125572e-01 -3.550559e-02 8.598804e-02 -9.885719e-02 -3.285053e-03 2.062416e-01 -5.516107e-02 -1.677281e-01 2.463090e-02 -3.006752e-02 -5.609633e-02 4.315934e-02 -6.906909e-02
<VARIANCE> 39
 2.761214e+01 7.936585e+00 1.414611e+01 1.227016e+01 1.762096e+01 2.916806e+01 2.206371e+01 3.098111e+01 2.955964e+01 2.161497e+01 1.889222e+01 1.971811e+01 2.305772e+01 2.051346e+00 8.011230e-01 1.403898e+00 1.325679e+00 1.944078e+00 3.695627e+00 2.478967e+00 3.910894e+00 3.315199e+00 2.626070e+00 2.121067e+00 2.542888e+00 1.441524e+00 6.086364e-01 1.342164e-01 2.581818e-01 2.503774e-01 3.160569e-01 5.849493e-01 4.035829e-01 5.920911e-01 6.486807e-01 4.438145e-01 3.727061e-01 4.332173e-01 5.379139e-01
<GCONST> 1.080356e+02
<STATE> 4
<NUMMIXES> 2
<MIXTURE> 1 7.569816e-01
<MEAN> 39
 3.961871e+00 1.801642e-01 -1.066712e-01 -2.724601e-01 8.870780e-02 -5.394389e-01 -1.527474e-01 -6.745507e-01 -3.518489e-01 -1.003971e-01 1.505269e-01 -1.595718e-01 -2.949807e+00 4.593822e-01 -9.221378e-02 -4.902733e-02 3.072593e-02 1.185374e-01 -5.186135e-02 8.728240e-03 1.256230e-01 4.143664e-03 6.715380e-02 1.330863e-01 -8.098541e-02 -3.821395e-01 -1.369663e-02 -1.774744e-03 -1.176960e-02 6.787506e-03 -3.477350e-03 -3.483602e-02 3.063878e-03 8.545754e-03 -1.424548e-02 -4.770537e-03 8.252007e-03 4.737793e-04 1.293032e-02
<VARIANCE> 39
 4.408440e+01 1.036491e+01 1.381789e+01 1.354382e+01 1.666962e+01 2.803293e+01 2.288339e+01 2.647939e+01 2.526695e+01 1.987048e+01 2.119902e+01 1.834716e+01 2.711246e+01 2.499176e-01 3.249764e-01 5.519128e-01 6.848734e-01 9.637695e-01 1.278642e+00 1.381069e+00 1.491458e+00 1.484220e+00 1.429974e+00 1.370196e+00 1.342990e+00 1.086110e-01 4.319082e-02 5.775548e-02 1.060913e-01 1.319595e-01 1.892526e-01 2.461444e-01 2.740580e-01 3.021285e-01 2.878719e-01 2.874018e-01 2.799175e-01 2.705314e-01 1.610429e-02
<GCONST> 8.263833e+01
<MIXTURE> 2 2.430229e-01
<MEAN> 39
 2.342006e+00 -3.750471e-01 -1.232813e+00 -2.253717e-01 -3.791628e-01 -2.827709e+00 -8.305873e-01 -3.196208e-01 -1.591084e+00 -5.354024e-01 5.957372e-01 -4.517819e-01 5.708914e-01 -8.493969e-01 1.876895e-01 6.320715e-02 -3.512615e-02 -2.496412e-01 -4.987652e-02 -9.649234e-02 -3.187969e-01 -2.499140e-02 -2.191272e-01 -1.751205e-01 1.444453e-01 7.472376e-01 1.453497e-02 1.816611e-03 4.239815e-02 -1.356174e-02 1.405873e-02 1.060425e-01 -1.798417e-02 -1.546902e-02 4.909526e-02 1.901764e-02 -2.252687e-02 5.029318e-03 -4.112322e-02
<VARIANCE> 39
 6.249904e+01 1.827333e+01 2.200880e+01 1.656354e+01 2.115895e+01 4.103922e+01 3.367786e+01 2.510529e+01 2.926723e+01 2.275126e+01 2.080630e+01 2.179692e+01 4.271034e+01 3.345678e+00 1.044485e+00 1.258610e+00 1.224392e+00 1.744646e+00 3.024446e+00 2.861031e+00 2.066387e+00 2.210298e+00 1.860846e+00 2.007336e+00 2.120268e+00 2.116319e+00 7.567291e-01 1.795362e-01 2.180609e-01 2.274539e-01 3.178005e-01 5.144259e-01 5.310091e-01 3.603876e-01 4.285889e-01 3.783903e-01 3.772463e-01 3.913554e-01 4.751237e-01
<GCONST> 1.102909e+02
<TRANSP> 5
 0.000000e+00 1.000000e+00 0.000000e+00 0.000000e+00 0.000000e+00
 0.000000e+00 9.630094e-01 3.699064e-02 0.000000e+00 0.000000e+00
 0.000000e+00 0.000000e+00 9.946422e-01 5.357764e-03 0.000000e+00
 0.000000e+00 0.000000e+00 0.000000e+00 9.887077e-01 1.129225e-02
 0.000000e+00 0.000000e+00 0.000000e+00 0.000000e+00 0.000000e+00
<ENDHMM>
~h "cm"
<BEGINHMM>
<NUMSTATES> 5
<STATE> 2
<NUMMIXES> 2
<MIXTURE> 1 7.214218e-01
<MEAN> 39
 -2.277226e+00 4.038860e-02 -6.323960e-03 -3.067735e-01 3.255203e-01 1.205113e+00 1.019584e+00 1.340227e+00 1.026262e+00 1.290459e+00 1.408055e+00 7.567635e-01 -2.517685e+00 -9.531959e-03 9.462902e-03 3.975945e-03 2.540380e-02 7.238364e-02 8.688245e-02 3.707323e-02 2.763104e-02 9.804659e-03 1.932917e-02 1.540173e-02 6.572714e-03 5.685304e-02 6.062981e-03 -7.096922e-03 -1.359292e-02 -2.421392e-02 -4.202579e-02 -5.774260e-02 -4.645362e-02 -3.153854e-02 -3.378576e-02 -3.822911e-02 -3.322333e-02 -2.025158e-02 1.995335e-02
<VARIANCE> 39
 1.325865e+01 9.951551e+00 1.015403e+01 1.257870e+01 1.253373e+01 1.279409e+01 1.454064e+01 1.695226e+01 1.656847e+01 1.485139e+01 1.563226e+01 1.256892e+01 2.748754e+01 2.177750e-01 3.511747e-01 4.969082e-01 7.665455e-01 9.327984e-01 1.147991e+00 1.255440e+00 1.373682e+00 1.434227e+00 1.379558e+00 1.300852e+00 1.166072e+00 2.273175e-01 2.996140e-02 5.763454e-02 8.648858e-02 1.350197e-01 1.758495e-01 2.289882e-01 2.463317e-01 2.718573e-01 2.763509e-01 2.750431e-01 2.530234e-01 2.269168e-01 1.528463e-02
<GCONST> 7.644663e+01
<MIXTURE> 2 2.785817e-01
<MEAN> 39
 -1.450355e+00 -1.032770e+00 -3.552059e-01 -1.205507e+00 -1.171458e+00 -1.591624e+00 -6.887572e-01 1.183275e-01 1.815320e-01 -1.679632e-01 -1.243505e-01 8.810434e-02 9.058454e-02 2.208551e-01 -1.137024e-01 -9.165603e-02 -1.637037e-01 -2.628496e-01 -3.677378e-01 -2.691633e-01 -2.412138e-01 -1.782417e-01 -1.836836e-01 -2.364055e-01 -7.030736e-02 8.511799e-01 2.135097e-02 1.989483e-02 3.048264e-02 7.814014e-02 1.062981e-01 1.453413e-01 1.128924e-01 6.325336e-02 5.053432e-02 7.085241e-02 6.928486e-02 3.161950e-02 -4.804793e-02
<VARIANCE> 39
 1.659876e+01 1.672130e+01 1.430081e+01 1.798461e+01 1.797329e+01 1.871700e+01 2.034629e+01 2.124384e+01 2.007832e+01 1.726021e+01 1.866568e+01 1.545172e+01 5.673343e+01 9.114755e-01 1.089983e+00 1.149162e+00 1.391779e+00 1.603626e+00 1.840588e+00 1.928381e+00 1.966530e+00 1.903380e+00 1.764793e+00 1.672902e+00 1.566844e+00 1.593496e+00 1.286954e-01 1.780999e-01 2.131490e-01 2.604552e-01 3.166576e-01 3.480648e-01 3.693671e-01 3.714675e-01 3.861422e-01 3.493301e-01 3.083327e-01 3.035366e-01 2.679784e-01
<GCONST> 9.926342e+01
<STATE> 3
<NUMMIXES> 2
<MIXTURE> 1 5.792440e-01
<MEAN> 39
 4.080689e-01 -4.939793e-01 -5.004744e-01 -3.163501e-01 -1.032649e-01 5.299413e-02 -2.842788e-02 4.788062e-02 3.598824e-01 4.516721e-01 2.850776e-01 2.643606e-01 3.439703e+00 3.468002e-02 6.259528e-02 8.424047e-02 1.970073e-01 2.236780e-01 2.439892e-01 2.158085e-01 1.295088e-01 9.830346e-02 6.890755e-02 6.338642e-02 1.500513e-02 -1.447840e-01 -2.134942e-03 6.585363e-03 3.141740e-03 -1.545712e-02 -3.105464e-02 -5.547998e-02 -6.138451e-02 -5.660730e-02 -1.087218e-01 -1.237167e-01 -1.119197e-01 -7.454024e-02 -1.197041e-02
<VARIANCE> 39
 5.200242e+00 5.163941e+00 5.438219e+00 7.571802e+00 9.057098e+00 1.027284e+01 1.189902e+01 1.250766e+01 1.188521e+01 1.119485e+01 1.161555e+01 1.053236e+01 1.341303e+01 1.494189e-01 2.568791e-01 3.979428e-01 5.957440e-01 7.453268e-01 9.466321e-01 1.124687e+00 1.155713e+00 1.259792e+00 1.242558e+00 1.209656e+00 1.122291e+00 1.746036e-01 2.617305e-02 4.701112e-02 7.873888e-02 1.174952e-01 1.532978e-01 1.959317e-01 2.314239e-01 2.270938e-01 2.350340e-01 2.366682e-01 2.359212e-01 2.214879e-01 1.661315e-02
<GCONST> 6.696466e+01
<MIXTURE> 2 4.207502e-01
<MEAN> 39
 6.071489e-01 -5.411183e-01 -7.150056e-01 -9.414864e-01 -1.147920e+00 -1.440354e+00 -1.502905e+00 -1.194632e+00 -1.606125e+00 -1.699739e+00 -1.828431e+00 -1.015794e+00 4.162895e+00 5.939099e-02 -5.759247e-02 -1.015443e-01 -1.905612e-01 -2.672983e-01 -3.014706e-01 -2.920269e-01 -2.265263e-01 -1.408166e-01 -9.890631e-02 -1.021081e-01 -3.716803e-02 1.367182e-01 -3.567244e-03 2.260081e-03 1.289835e-02 4.138870e-02 6.503996e-02 9.457287e-02 1.015627e-01 8.824081e-02 1.607364e-01 1.795970e-01 1.619530e-01 1.039933e-01 -3.725814e-02
<VARIANCE> 39
 6.501768e+00 6.831609e+00 6.877954e+00 1.040628e+01 1.134731e+01 1.180906e+01 1.259073e+01 1.474215e+01 1.352661e+01 1.274975e+01 1.227477e+01 1.176803e+01 2.030741e+01 2.794951e-01 3.679598e-01 5.144022e-01 7.288741e-01 8.906432e-01 1.058016e+00 1.147415e+00 1.298270e+00 1.353491e+00 1.383579e+00 1.353303e+00 1.226370e+00 4.014575e-01 4.257078e-02 6.723758e-02 1.013730e-01 1.521799e-01 1.901374e-01 2.273522e-01 2.394555e-01 2.647279e-01 2.671256e-01 2.629755e-01 2.513910e-01 2.419496e-01 4.710158e-02
<GCONST> 7.586366e+01
<STATE> 4
<NUMMIXES> 2
<MIXTURE> 1 5.099717e-01
<MEAN> 39
 1.896977e+00 1.749913e+00 2.036285e+00 2.919092e+00 2.260809e+00 1.586267e+00 1.972306e+00 6.435296e-01 1.207344e+00 9.312319e-01 1.040120e+00 3.854209e-01 -7.114505e+00 6.037339e-02 9.455754e-02 1.671981e-01 1.826834e-01 1.920753e-01 1.954926e-01 2.339887e-01 1.237883e-01 8.922921e-02 -1.551074e-02 -4.364119e-03 -9.199999e-03 -5.075355e-01 9.420256e-03 6.980825e-03 -1.782910e-02 -4.570736e-02 -6.898347e-02 -7.330829e-02 -1.173614e-01 -1.335518e-01 -1.634563e-01 -1.704040e-01 -1.458343e-01 -8.546019e-02 2.667671e-02
<VARIANCE> 39
 1.281653e+01 7.069438e+00 7.144969e+00 8.178601e+00 9.739317e+00 1.145780e+01 1.172416e+01 1.285211e+01 1.178338e+01 1.130874e+01 1.129675e+01 1.124612e+01 2.218594e+01 1.891849e-01 3.002176e-01 4.436871e-01 6.444756e-01 8.680841e-01 1.047654e+00 1.102979e+00 1.262597e+00 1.391968e+00 1.347342e+00 1.231993e+00 1.091436e+00 1.395974e-01 2.478801e-02 4.943391e-02 7.717194e-02 1.161067e-01 1.580434e-01 1.940649e-01 2.111231e-01 2.349769e-01 2.396280e-01 2.370009e-01 2.227290e-01 2.198997e-01 1.193280e-02
<GCONST> 6.966922e+01
<MIXTURE> 2 4.900258e-01
<MEAN> 39
 3.132518e+00 1.716488e+00 1.230852e+00 1.934212e+00 7.120185e-01 -3.382468e-01 -8.065467e-01 -1.985630e+00 -1.837258e+00 -1.964230e+00 -1.679978e+00 -1.135410e+00 -4.769237e+00 7.185306e-02 6.142189e-02 6.554619e-02 3.099961e-02 1.566646e-02 -8.717878e-02 -7.234389e-02 -1.273422e-01 -8.062968e-02 1.592770e-02 6.825893e-02 4.005442e-02 -5.472509e-01 -2.483891e-02 -2.619721e-02 -1.128733e-02 7.830522e-03 4.016710e-02 6.853826e-02 1.205510e-01 1.435499e-01 1.815598e-01 1.775244e-01 1.605298e-01 1.081434e-01 3.716600e-03
<VARIANCE> 39
 1.088163e+01 7.244660e+00 7.485820e+00 8.828620e+00 1.028824e+01 1.073908e+01 1.061451e+01 1.233356e+01 1.194422e+01 1.114524e+01 1.196437e+01 1.154421e+01 2.351026e+01 1.812163e-01 2.720954e-01 4.513272e-01 6.509043e-01 8.401140e-01 9.009166e-01 1.101270e+00 1.203507e+00 1.273167e+00 1.258911e+00 1.338221e+00 1.226000e+00 1.636948e-01 2.432106e-02 4.872705e-02 8.899907e-02 1.327736e-01 1.650526e-01 1.736543e-01 1.878496e-01 2.164555e-01 2.285752e-01 2.233991e-01 2.375666e-01 2.163730e-01 1.344710e-02
<GCONST> 6.953486e+01
<TRANSP> 5
 0.000000e+00 1.000000e+00 0.000000e+00 0.000000e+00 0.000000e+00
 0.000000e+00 9.756849e-01 2.431504e-02 0.000000e+00 0.000000e+00
 0.000000e+00 0.000000e+00 9.820786e-01 1.792140e-02 0.000000e+00
 0.000000e+00 0.000000e+00 0.000000e+00 9.558947e-01 4.410529e-02
 0.000000e+00 0.000000e+00 0.000000e+00 0.000000e+00 0.000000e+00
<ENDHMM>
~h "co"
<BEGINHMM>
<NUMSTATES> 5
<STATE> 2
<NUMMIXES> 2
<MIXTURE> 1 6.494830e-01
<MEAN> 39
 -4.109177e+00 3.872576e-01 6.095199e-01 -2.242954e+00 -6.127928e+00 -6.210599e-01 3.497710e+00 3.818439e+00 3.701944e-01 -1.905785e+00 -8.180312e-01 1.284932e+00 6.421380e+00 -6.054897e-01 -1.301338e-01 2.775620e-02 7.410941e-02 8.412318e-01 2.843586e-01 5.048409e-01 -4.694091e-01 -6.666803e-01 -5.463374e-02 5.081652e-01 1.869293e-01 1.040634e+00 1.904169e-01 -1.155864e-01 -1.475259e-01 6.587542e-02 -3.699001e-03 2.584319e-02 -7.903967e-02 1.152210e-01 2.831144e-01 2.290363e-01 1.619541e-02 1.059574e-02 -4.069297e-01
<VARIANCE> 39
 1.133135e+01 1.347480e+01 1.643669e+01 1.564183e+01 3.927947e+01 4.380595e+01 3.223082e+01 4.264204e+01 2.078735e+01 2.768973e+01 2.255784e+01 2.294855e+01 6.941065e+01 6.249985e-01 9.330627e-01 1.085466e+00 1.244390e+00 1.775672e+00 2.083790e+00 2.166218e+00 2.331496e+00 2.212327e+00 2.277265e+00 1.491438e+00 1.839655e+00 1.102282e+00 8.689241e-02 1.698526e-01 1.969643e-01 1.882579e-01 3.089325e-01 4.349081e-01 4.105206e-01 3.979935e-01 3.566523e-01 3.490494e-01 3.059295e-01 3.234455e-01 1.731063e-01
<GCONST> 1.017090e+02
<MIXTURE> 2 3.505169e-01
<MEAN> 39
 -5.211324e-01 -5.020383e-01 -1.125550e+00 -7.878025e-01 -7.724320e+00 1.363244e+00 2.467843e+00 6.991804e+00 8.407499e+00 4.418660e+00 3.570273e-01 1.967436e+00 -4.533131e+00 -4.933404e-01 -2.661103e-01 4.018724e-01 -6.866121e-01 -1.760347e+00 -1.750246e+00 -9.245658e-01 -8.973394e-01 -1.109068e+00 -1.521205e+00 -1.129604e+00 -8.113513e-01 3.643491e+00 -1.764949e-01 2.126474e-01 9.348524e-02 3.801093e-02 6.157157e-01 2.744181e-01 2.864031e-01 -8.784170e-02 -4.383532e-01 -1.280349e-01 2.321798e-01 4.335589e-02 8.357096e-02
<VARIANCE> 39
 1.511169e+01 2.914525e+01 2.815510e+01 2.747961e+01 1.239330e+02 5.402928e+01 8.210699e+01 6.918280e+01 5.195255e+01 4.455342e+01 3.558023e+01 3.017276e+01 9.172017e+01 1.450423e+00 2.909813e+00 2.561093e+00 2.310586e+00 8.334138e+00 3.536467e+00 4.550385e+00 4.716078e+00 5.437274e+00 3.171601e+00 2.394917e+00 2.753933e+00 3.011319e+00 1.660278e-01 3.993612e-01 3.214515e-01 3.203745e-01 9.943312e-01 6.771358e-01 8.288791e-01 7.454555e-01 6.858681e-01 6.424084e-01 4.829002e-01 5.712276e-01 6.522976e-01
<GCONST> 1.282201e+02
<STATE> 3
<NUMMIXES> 2
<MIXTURE> 1 7.876269e-01
<MEAN> 39
 -6.780654e-01 -8.999149e-01 -7.826324e-01 -5.884603e-01 -3.985901e-02 -7.139343e-01 -4.146365e-01 -9.782845e-01 -5.061952e-01 -1.056369e-01 1.509382e-01 -3.879846e-02 2.200564e+00 2.004875e-01 5.995711e-02 2.389683e-02 1.025205e-01 3.528589e-01 8.578122e-02 -3.228069e-02 -1.032658e-01 -3.330597e-02 8.967136e-02 6.964628e-02 3.314865e-02 -5.245078e-01 1.759570e-02 1.871672e-02 1.150955e-02 1.079243e-02 -5.076003e-02 -1.244863e-02 -1.261103e-02 9.166790e-03 7.255331e-03 -1.804526e-02 -3.940291e-02 -1.815013e-02 -1.798471e-02
<VARIANCE> 39
 1.203083e+01 9.998157e+00 1.490111e+01 1.615460e+01 2.184851e+01 2.087576e+01 3.932884e+01 3.262933e+01 2.453959e+01 2.553652e+01 2.371106e+01 2.355218e+01 4.781619e+01 2.143897e-01 4.003486e-01 6.184931e-01 8.079410e-01 1.107310e+00 1.227382e+00 1.518835e+00 1.595329e+00 1.821807e+00 1.785925e+00 1.576972e+00 1.431689e+00 1.495926e-01 4.054579e-02 7.782209e-02 1.211029e-01 1.705600e-01 2.190415e-01 2.507898e-01 3.007412e-01 3.180020e-01 3.813779e-01 3.734997e-01 3.234402e-01 2.874610e-01 2.312998e-02
<GCONST> 8.702244e+01
<MIXTURE> 2 2.123766e-01
<MEAN> 39
 -2.806412e-01 -9.730991e-01 -8.887254e-01 -1.240614e-01 -4.489584e+00 -1.805665e+00 -1.200774e+00 -3.498189e-01 1.397241e+00 2.289505e-01 -1.679835e+00 -1.159972e+00 2.060024e+00 -3.198563e-01 -1.826779e-01 1.342012e-02 -2.241356e-01 -8.989819e-01 -2.136678e-01 -2.221370e-01 2.286087e-01 1.536268e-01 -2.574887e-01 -2.584544e-01 -2.373741e-01 1.311723e+00 -5.212630e-02 -3.523693e-02 -3.859538e-03 -1.887012e-02 1.854588e-01 7.054808e-02 7.211181e-02 -1.794089e-02 -1.648758e-02 6.074457e-02 1.344344e-01 7.170480e-02 2.144740e-02
<VARIANCE> 39
 1.015690e+01 1.838583e+01 2.118200e+01 2.203835e+01 4.702423e+01 2.930620e+01 4.273520e+01 4.170210e+01 4.978180e+01 3.857465e+01 3.770890e+01 2.910593e+01 5.954345e+01 9.182441e-01 2.091262e+00 1.817160e+00 2.298912e+00 5.366622e+00 2.921680e+00 4.238307e+00 3.848185e+00 6.010847e+00 3.800599e+00 3.777158e+00 2.859015e+00 2.432287e+00 1.088469e-01 3.905848e-01 2.766303e-01 3.763139e-01 1.068062e+00 5.127850e-01 6.529432e-01 6.668353e-01 1.171612e+00 7.415763e-01 6.975543e-01 5.171096e-01 4.974342e-01
<GCONST> 1.217256e+02
<STATE> 4
<NUMMIXES> 2
<MIXTURE> 1 8.979111e-01
<MEAN> 39
 3.342605e+00 3.243015e+00 2.751920e+00 2.331249e+00 6.230514e+00 3.530551e+00 1.052929e+00 1.242119e+00 -7.734601e-01 7.219463e-03 1.039448e+00 3.161111e-01 -9.005167e+00 5.587632e-02 2.270282e-01 -1.149923e-02 3.153977e-02 1.818938e-01 1.690481e-01 2.244408e-01 1.998087e-01 -1.434008e-02 1.429957e-02 6.290242e-03 7.766245e-02 -5.512305e-01 -1.614072e-02 -6.982769e-03 -2.750920e-02 -2.216408e-02 -3.234648e-02 -3.023330e-02 -1.535211e-02 -3.621508e-03 -7.283152e-03 -5.364050e-03 -1.462074e-03 5.437582e-04 2.402606e-02
<VARIANCE> 39
 7.721729e+00 1.134272e+01 1.338929e+01 1.469019e+01 1.549884e+01 1.597958e+01 2.573668e+01 2.722973e+01 1.666531e+01 1.846712e+01 1.923161e+01 1.494446e+01 2.619674e+01 1.804676e-01 2.888657e-01 5.199537e-01 6.857852e-01 8.462402e-01 9.438649e-01 1.172650e+00 1.347244e+00 1.321790e+00 1.425171e+00 1.339450e+00 1.178765e+00 1.000940e-01 2.700262e-02 5.389992e-02 9.466890e-02 1.234542e-01 1.625973e-01 1.812922e-01 2.198795e-01 2.638401e-01 2.550611e-01 2.791592e-01 2.705649e-01 2.297053e-01 7.881102e-03
<GCONST> 7.557074e+01
<MIXTURE> 2 1.020880e-01
<MEAN> 39
 -4.227120e-01 1.065832e+00 2.039988e+00 1.312809e+00 -1.236857e-01 -4.707297e-01 -8.864440e-01 -2.369098e-02 -6.301185e-01 1.420964e-02 -1.684303e-02 1.103319e+00 -2.749991e-01 -1.383115e-01 -8.366585e-02 1.767916e-01 1.223189e-01 6.476093e-03 -1.168261e-01 -1.211537e-01 -1.833320e-01 -4.486802e-02 -7.708149e-02 3.834382e-02 2.760097e-02 5.677953e-01 3.548452e-02 2.131257e-02 4.804771e-02 5.046649e-02 9.632009e-02 5.952124e-02 5.726227e-02 3.897168e-02 3.737058e-03 2.204513e-02 -3.600557e-04 -5.814261e-02 -6.288659e-03
<VARIANCE> 39
 1.252857e+01 9.113681e+00 1.267584e+01 1.353459e+01 3.917452e+01 3.016607e+01 4.034658e+01 3.083064e+01 1.915973e+01 2.333084e+01 2.392588e+01 1.889160e+01 7.191121e+01 7.336417e-01 6.927974e-01 9.542146e-01 1.038026e+00 4.482082e+00 2.026538e+00 4.134631e+00 2.012701e+00 1.549525e+00 2.329266e+00 1.815624e+00 1.659806e+00 2.457795e+00 1.205879e-01 1.240605e-01 2.004041e-01 2.222087e-01 7.767071e-01 3.647430e-01 8.771554e-01 3.976731e-01 3.109357e-01 4.697558e-01 3.446371e-01 3.500703e-01 3.246171e-01
<GCONST> 1.043852e+02
<TRANSP> 5
 0.000000e+00 1.000000e+00 0.000000e+00 0.000000e+00 0.000000e+00
 0.000000e+00 8.903183e-01 1.096818e-01 0.000000e+00 0.000000e+00
 0.000000e+00 0.000000e+00 9.886459e-01 1.135417e-02 0.000000e+00
 0.000000e+00 0.000000e+00 0.000000e+00 9.622116e-01 3.778838e-02
 0.000000e+00 0.000000e+00 0.000000e+00 0.000000e+00 0.000000e+00
<ENDHMM>
~h "ds"
<BEGINHMM>
<NUMSTATES> 5
<STATE> 2
<NUMMIXES> 2
<MIXTURE> 1 7.751068e-01
<MEAN> 39
 2.377164e-01 -2.765355e-01 -2.262169e-01 -2.174765e-01 5.529952e-02 1.172035e-01 -2.588727e-01 3.395387e-01 -4.651791e-01 -3.986172e-02 -3.828760e-01 -3.625300e-01 -2.196251e+00 1.194543e-01 3.791690e-02 6.615797e-02 5.443408e-02 1.013827e-01 7.157999e-02 2.169585e-02 1.339947e-02 -9.952521e-03 2.684845e-02 -3.900031e-03 -2.433286e-02 -2.575952e-01 -1.910694e-02 8.125728e-04 -1.132368e-02 -2.051841e-02 -3.527488e-02 -2.167324e-02 -3.298670e-02 -2.137697e-02 2.784173e-04 9.785885e-03 1.927719e-02 -3.637807e-03 2.149957e-02
<VARIANCE> 39
 1.152195e+01 8.000795e+00 1.035870e+01 1.094850e+01 1.457739e+01 1.805485e+01 1.858788e+01 1.877345e+01 2.139220e+01 1.983826e+01 1.638709e+01 1.522379e+01 2.970657e+01 2.505489e-01 3.167408e-01 5.222733e-01 7.542306e-01 1.010474e+00 1.189687e+00 1.333648e+00 1.396829e+00 1.527047e+00 1.538243e+00 1.426353e+00 1.243534e+00 1.765209e-01 4.174253e-02 6.071057e-02 1.021619e-01 1.490593e-01 1.997827e-01 2.397597e-01 2.683844e-01 2.804163e-01 3.098780e-01 3.139752e-01 2.920065e-01 2.534537e-01 2.131659e-02
<GCONST> 7.978503e+01
<MIXTURE> 2 2.249112e-01
<MEAN> 39
 -1.297582e+00 -8.048264e-01 -1.690062e+00 -1.992203e+00 -2.116813e+00 -1.107525e+00 -1.364666e+00 -9.594143e-01 2.606159e-01 1.713375e-01 8.675840e-01 2.100240e-01 1.918166e+00 -4.488736e-01 -1.365341e-01 -2.833245e-01 -1.967499e-01 -3.667905e-01 -2.710811e-01 -1.256080e-01 -4.626280e-02 3.448188e-03 -6.226085e-02 1.771379e-02 9.618056e-02 9.792228e-01 4.443474e-02 4.737089e-03 4.066195e-02 7.078717e-02 9.693922e-02 6.316099e-02 1.144890e-01 6.177254e-02 5.262121e-03 -2.845966e-02 -4.916398e-02 2.011271e-02 -3.709882e-02
<VARIANCE> 39
 2.283323e+01 1.297240e+01 1.945481e+01 1.836364e+01 2.764971e+01 3.219356e+01 3.216560e+01 2.604155e+01 3.423056e+01 3.680371e+01 2.375652e+01 2.364929e+01 5.849355e+01 1.679137e+00 1.055221e+00 1.384838e+00 1.709419e+00 2.510722e+00 2.509908e+00 2.801809e+00 2.470470e+00 2.604586e+00 2.684665e+00 2.176334e+00 1.954299e+00 2.267948e+00 2.911924e-01 1.743799e-01 2.503731e-01 3.152332e-01 4.706372e-01 4.753855e-01 4.838917e-01 4.664067e-01 4.767138e-01 4.927739e-01 4.148261e-01 3.742163e-01 5.208400e-01
<GCONST> 1.112591e+02
<STATE> 3
<NUMMIXES> 2
<MIXTURE> 1 6.225088e-01
<MEAN> 39
 -2.647009e+00 2.761294e+00 -9.411849e-01 -3.053495e-01 -2.187507e+00 -3.152154e+00 6.065269e-01 -2.573873e+00 1.192014e+00 -7.409000e-01 9.024991e-01 3.959974e-01 1.718821e+01 1.171411e+00 9.191797e-01 8.295012e-01 9.660076e-01 1.315496e+00 1.228076e+00 5.956163e-01 3.523324e-01 -5.361347e-03 -5.001775e-01 -4.959569e-01 -7.647377e-02 5.614381e-01 -4.338712e-02 -2.667179e-01 -1.027055e-01 -9.015144e-02 -1.783100e-01 6.246560e-02 -2.355639e-01 1.988347e-01 -3.975468e-02 2.715785e-01 5.381371e-02 1.397003e-01 -9.673455e-01
<VARIANCE> 39
 2.434251e+01 1.687986e+01 1.337425e+01 1.667048e+01 1.731131e+01 2.019809e+01 2.255215e+01 1.821233e+01 1.973477e+01 2.086645e+01 2.352133e+01 1.616243e+01 5.515501e+01 2.401062e+00 2.344629e+00 1.321165e+00 1.798228e+00 2.051159e+00 1.637159e+00 2.644346e+00 1.924615e+00 2.991598e+00 3.024793e+00 2.449509e+00 1.724873e+00 3.526664e+00 6.996923e-01 4.018280e-01 2.888575e-01 4.104072e-01 4.221248e-01 4.317964e-01 5.228791e-01 3.551460e-01 5.895010e-01 5.267369e-01 5.376744e-01 3.263153e-01 1.208486e+00
<GCONST> 1.117769e+02
<MIXTURE> 2 3.774902e-01
<MEAN> 39
 -6.636281e+00 -2.975116e+00 -5.313389e+00 -4.139172e+00 -8.050658e+00 -5.447280e+00 -4.627628e+00 -1.363966e+00 -6.034536e-01 2.954056e+00 2.168694e+00 2.300893e+00 1.224085e+00 -1.434961e+00 -1.792241e-01 1.118501e-01 -2.000868e-01 -4.756918e-01 -7.710391e-01 5.862065e-01 -3.294133e-01 8.707024e-01 1.135306e-02 5.290163e-01 -1.052594e-01 2.968734e+00 7.690731e-01 4.047592e-01 4.005530e-01 4.288886e-01 9.169787e-01 4.911711e-01 4.921660e-01 5.147066e-02 -8.563558e-03 -5.164776e-01 -3.387078e-01 -1.631419e-01 1.850803e-01
<VARIANCE> 39
 3.341399e+01 1.697866e+01 1.177023e+01 9.972219e+00 1.678538e+01 2.336483e+01 2.223628e+01 2.195668e+01 2.310920e+01 2.571711e+01 2.406216e+01 2.090145e+01 4.614851e+02 6.442720e+00 2.283570e+00 2.396770e+00 1.914873e+00 4.876764e+00 3.178308e+00 3.287195e+00 2.202359e+00 2.526574e+00 2.620420e+00 2.094415e+00 1.711389e+00 6.531345e+01 1.146543e+00 3.200256e-01 2.227233e-01 2.895929e-01 7.034120e-01 6.099252e-01 5.620661e-01 4.492168e-01 6.628711e-01 5.720878e-01 4.712735e-01 3.596137e-01 9.345587e+00
<GCONST> 1.234911e+02
<STATE> 4
<NUMMIXES> 2
<MIXTURE> 1 8.597562e-01
<MEAN> 39
 1.512019e+00 1.725723e+00 3.172770e+00 3.315682e+00 3.083024e+00 1.865676e+00 2.681914e+00 4.868698e-01 1.155781e+00 -1.974746e-01 3.330956e-03 7.828233e-01 3.110188e+00 2.220238e-01 -2.938881e-02 1.155655e-01 6.662629e-02 1.514811e-01 1.224086e-01 3.066986e-02 7.381570e-02 -7.920293e-02 -5.293844e-02 -1.068900e-01 -1.051369e-01 -6.824225e-01 -1.267258e-02 7.419788e-04 -3.616492e-02 -4.549407e-02 -5.360738e-02 -5.994444e-02 -4.707111e-02 -4.941253e-02 -1.804130e-02 -2.620104e-03 9.680015e-03 -1.569964e-02 9.772681e-03
<VARIANCE> 39
 9.418182e+00 9.138316e+00 1.263077e+01 1.292961e+01 1.312633e+01 1.190263e+01 1.597387e+01 1.227128e+01 1.565233e+01 1.362065e+01 1.322885e+01 1.264877e+01 8.048852e+01 2.096567e-01 2.844270e-01 4.570357e-01 6.434908e-01 8.371601e-01 1.032680e+00 1.194172e+00 1.314641e+00 1.423720e+00 1.441165e+00 1.412022e+00 1.213116e+00 1.034531e-01 3.838689e-02 5.456865e-02 8.926103e-02 1.176755e-01 1.616994e-01 2.094055e-01 2.300032e-01 2.516272e-01 2.803814e-01 2.912702e-01 2.815995e-01 2.449376e-01 1.751427e-02
<GCONST> 7.549499e+01
<MIXTURE> 2 1.402452e-01
<MEAN> 39
 7.481329e-02 2.827572e-01 8.864782e-01 5.855754e-01 4.844113e-01 -7.872047e-01 6.638892e-01 -1.258106e+00 1.122611e+00 1.555809e-02 9.549513e-01 4.940898e-01 2.160953e+00 -1.736804e-01 -2.955776e-01 -2.344492e-01 -2.602637e-01 -1.937588e-01 -2.127253e-01 -6.322153e-02 -1.368343e-01 1.784628e-01 7.617161e-02 2.942632e-01 1.865080e-01 -1.410135e-01 3.939345e-02 1.271934e-02 1.250971e-01 1.656643e-01 1.965868e-01 2.045555e-01 2.030742e-01 1.800043e-01 6.291201e-02 -1.732462e-02 -4.633505e-02 4.747837e-02 -1.342480e-02
<VARIANCE> 39
 1.238841e+01 1.039843e+01 1.049001e+01 1.197170e+01 1.510479e+01 1.504236e+01 1.696744e+01 1.745278e+01 2.114189e+01 1.517536e+01 1.949827e+01 1.436242e+01 6.255111e+01 6.002576e-01 6.025632e-01 7.124023e-01 8.996986e-01 1.170440e+00 1.573122e+00 1.542537e+00 1.933582e+00 1.719458e+00 1.741755e+00 1.688550e+00 1.363594e+00 7.456641e-01 1.095846e-01 1.114054e-01 1.309319e-01 1.670983e-01 2.272906e-01 2.977620e-01 2.863905e-01 3.907512e-01 3.416594e-01 3.372054e-01 3.483858e-01 2.804161e-01 1.201258e-01
<GCONST> 9.018889e+01
<TRANSP> 5
 0.000000e+00 1.000000e+00 0.000000e+00 0.000000e+00 0.000000e+00
 0.000000e+00 9.927995e-01 7.200456e-03 0.000000e+00 0.000000e+00
 0.000000e+00 0.000000e+00 8.555177e-01 1.444822e-01 0.000000e+00
 0.000000e+00 0.000000e+00 0.000000e+00 9.700027e-01 2.999734e-02
 0.000000e+00 0.000000e+00 0.000000e+00 0.000000e+00 0.000000e+00
<ENDHMM>
~h "kj"
<BEGINHMM>
<NUMSTATES> 5
<STATE> 2
<NUMMIXES> 2
<MIXTURE> 1 7.464427e-01
<MEAN> 39
 6.879097e+00 -2.059246e-01 -2.572952e+00 1.066189e-01 1.121155e+00 -8.930820e-01 -7.364503e-01 -5.867195e-01 -1.339595e-01 4.570987e-01 -1.026222e+00 -3.001029e-01 -4.152691e+00 -7.597479e-02 1.061268e-01 -4.042302e-02 -6.115985e-02 -1.216766e-03 1.088823e-01 -2.507869e-02 3.915972e-02 5.546288e-02 -2.734402e-02 5.694338e-02 2.687280e-02 -1.294956e-02 -4.733263e-02 -4.693503e-03 1.250629e-02 -1.199323e-02 -5.148280e-02 -4.196303e-02 -8.755596e-03 -1.098040e-02 -2.274935e-02 3.764728e-03 -2.245068e-02 2.363846e-02 3.271012e-02
<VARIANCE> 39
 1.296978e+01 1.481165e+01 9.176702e+00 1.629819e+01 1.632116e+01 2.074106e+01 1.900979e+01 1.831846e+01 1.911732e+01 1.690726e+01 1.450644e+01 1.668134e+01 1.043566e+01 4.737672e-01 5.495821e-01 4.846329e-01 8.475701e-01 9.807518e-01 1.237634e+00 1.836644e+00 1.813732e+00 1.451866e+00 1.790487e+00 1.379931e+00 1.251974e+00 2.411917e-01 8.151436e-02 1.011927e-01 8.907012e-02 1.621161e-01 1.823638e-01 2.296853e-01 3.428528e-01 3.503046e-01 2.765901e-01 3.460187e-01 2.686341e-01 2.363977e-01 4.503729e-02
<GCONST> 8.394343e+01
<MIXTURE> 2 2.535574e-01
<MEAN> 39
 4.989506e+00 -8.167301e-01 -1.927822e+00 -6.756746e-02 4.236743e-01 -2.689639e+00 -1.412081e+00 -1.728792e+00 -5.406385e-01 4.441317e-01 -1.523737e+00 6.911820e-01 -2.527322e+00 -8.671969e-01 -8.055787e-01 3.424164e-02 1.967710e-01 -4.338695e-01 -5.525652e-01 -1.347728e-01 -6.051983e-01 -1.260619e-02 4.778446e-03 -5.693020e-02 2.987530e-02 1.398117e+00 1.288233e-01 -7.804307e-02 -1.771436e-02 4.602808e-03 1.353796e-01 1.579187e-01 2.307463e-02 9.229098e-02 7.558423e-02 -2.160840e-02 3.280723e-02 -7.509286e-02 -4.823621e-02
<VARIANCE> 39
 2.502158e+01 3.449688e+01 1.717007e+01 1.664495e+01 2.180679e+01 3.228303e+01 2.771085e+01 2.812345e+01 2.291595e+01 2.079063e+01 1.435340e+01 1.774945e+01 3.136684e+01 1.572471e+00 2.101253e+00 2.014993e+00 1.428709e+00 2.409345e+00 2.637407e+00 2.785924e+00 1.703549e+00 2.213841e+00 2.099567e+00 1.466315e+00 1.546734e+00 1.292134e+00 2.652576e-01 3.401955e-01 3.041488e-01 2.444940e-01 3.884615e-01 5.100550e-01 5.224687e-01 3.326010e-01 3.802117e-01 4.394738e-01 2.755024e-01 2.731680e-01 3.022031e-01
<GCONST> 1.067858e+02
<STATE> 3
<NUMMIXES> 2
<MIXTURE> 1 6.237120e-01
<MEAN> 39
 3.487542e+00 -4.472562e+00 -4.352676e+00 -5.082752e-02 1.542605e+00 -2.749859e+00 -4.354506e+00 -3.312361e+00 -1.032757e+00 -6.806865e-01 4.945755e-02 6.847878e-01 2.718760e+00 2.723332e-02 3.835124e-01 1.055002e-01 1.169860e-01 1.611469e-01 2.077287e-01 1.780363e-01 2.359526e-01 5.705848e-02 8.355486e-02 7.711805e-02 3.720534e-02 -4.356699e-01 -5.439297e-02 2.824721e-02 4.535697e-02 -2.085730e-02 -4.856676e-02 1.146819e-02 4.282016e-02 6.007975e-02 2.347728e-02 5.883407e-02 1.938582e-02 1.051899e-02 1.406500e-02
<VARIANCE> 39
 1.144256e+01 1.582338e+01 1.146018e+01 1.451942e+01 1.363543e+01 2.003360e+01 2.507202e+01 1.668568e+01 1.695522e+01 1.773692e+01 1.502937e+01 1.468838e+01 1.189505e+01 2.925417e-01 3.823267e-01 5.667029e-01 7.429938e-01 9.079977e-01 1.176478e+00 1.266104e+00 1.400731e+00 1.326675e+00 1.586917e+00 1.503186e+00 1.270563e+00 1.593644e-01 6.159830e-02 6.506956e-02 1.130530e-01 1.468679e-01 1.904477e-01 2.241598e-01 2.774179e-01 2.985232e-01 2.796727e-01 3.220704e-01 3.101086e-01 2.506595e-01 3.292369e-02
<GCONST> 8.071687e+01
<MIXTURE> 2 3.762868e-01
<MEAN> 39
 3.006106e+00 -4.588384e+00 -3.914258e+00 -9.058800e-01 3.148400e-01 -3.120033e+00 -4.876117e+00 -2.244153e+00 -1.270948e-01 2.335003e-01 -8.721922e-02 6.889335e-01 3.586486e+00 -3.915945e-01 -2.360366e-01 -1.465211e-01 -1.831662e-01 -1.002482e-01 -9.210108e-02 -2.320042e-01 -2.406729e-01 -1.852773e-01 -8.307663e-02 -4.184233e-02 -4.339023e-02 5.740187e-01 6.737380e-02 8.893203e-02 2.202581e-02 3.512422e-02 8.136740e-02 2.684570e-02 1.805351e-02 -2.688203e-02 -2.711411e-02 -7.615726e-02 -1.629204e-02 -2.877517e-02 -1.167919e-01
<VARIANCE> 39
 1.157263e+01 2.044191e+01 1.286315e+01 1.654066e+01 1.674912e+01 2.070171e+01 2.130211e+01 1.770305e+01 1.946731e+01 1.792159e+01 1.710225e+01 1.408091e+01 1.869337e+01 8.547921e-01 1.232767e+00 1.011636e+00 1.050422e+00 1.628643e+00 1.618114e+00 1.962296e+00 1.997274e+00 2.095070e+00 1.799258e+00 1.608520e+00 1.255781e+00 7.993104e-01 1.405502e-01 2.539375e-01 1.804446e-01 2.039398e-01 3.131160e-01 3.002546e-01 3.928359e-01 3.892054e-01 4.081154e-01 3.530495e-01 3.270952e-01 2.538311e-01 2.048832e-01
<GCONST> 9.591705e+01
<STATE> 4
<NUMMIXES> 2
<MIXTURE> 1 7.775388e-01
<MEAN> 39
 -1.544777e+00 2.114403e+00 1.278481e+00 2.987663e-01 1.248542e-02 1.336447e+00 1.558152e+00 1.051016e+00 3.021130e-01 3.060423e-01 1.535881e-01 -3.022599e-01 -1.334505e+00 1.019810e-01 5.561802e-02 -6.973000e-03 -3.090828e-02 1.198861e-02 3.426147e-02 2.476821e-02 1.683244e-02 7.759054e-03 1.063738e-02 1.372416e-03 -1.986602e-02 -1.137124e-01 -3.272434e-03 -1.404675e-02 -1.552634e-02 -4.913590e-03 -1.550380e-02 -3.099391e-02 -2.257064e-02 -1.240596e-02 -9.039290e-03 -7.025841e-03 -4.844976e-03 5.791494e-03 8.402095e-03
<VARIANCE> 39
 2.093905e+01 1.118653e+01 1.027021e+01 1.182091e+01 1.372749e+01 1.593503e+01 1.889686e+01 1.677395e+01 1.652044e+01 1.821820e+01 1.555476e+01 1.382853e+01 1.168773e+01 4.114474e-01 4.068752e-01 5.861733e-01 8.588708e-01 1.085520e+00 1.306474e+00 1.515010e+00 1.520490e+00 1.584964e+00 1.644906e+00 1.453605e+00 1.298365e+00 2.110543e-01 7.468121e-02 7.765780e-02 1.115356e-01 1.684234e-01 2.096909e-01 2.573566e-01 2.931684e-01 3.056460e-01 3.237506e-01 3.295387e-01 2.960204e-01 2.641736e-01 3.616885e-02
<GCONST> 8.280178e+01
<MIXTURE> 2 2.224737e-01
<MEAN> 39
 2.419238e+00 -5.689769e+00 -2.305229e+00 -9.300122e-01 -6.929922e-01 -3.267200e+00 -3.578830e+00 -2.395696e+00 -7.440038e-01 -1.078795e+00 -2.102130e-01 8.273335e-01 4.644297e+00 -1.914165e-01 -2.539369e-01 2.139796e-02 9.135106e-02 -1.968992e-02 -1.407811e-01 -7.463502e-02 -6.441548e-02 -3.306935e-03 -5.418155e-02 -4.390344e-03 7.261418e-02 3.068496e-01 2.277739e-02 4.234448e-02 4.586525e-02 1.643236e-02 5.730535e-02 1.058216e-01 7.968451e-02 4.168222e-02 3.552601e-02 2.417060e-02 1.544034e-02 -1.770932e-02 -3.483379e-02
<VARIANCE> 39
 3.566791e+01 5.140942e+01 1.968272e+01 1.862633e+01 1.944985e+01 3.043229e+01 3.121150e+01 2.511091e+01 1.872262e+01 2.171215e+01 1.651179e+01 1.508624e+01 6.153691e+01 1.051269e+00 1.874150e+00 1.129087e+00 1.213155e+00 1.516237e+00 1.938319e+00 2.050128e+00 1.881196e+00 1.766290e+00 1.746850e+00 1.542187e+00 1.405367e+00 2.000807e+00 1.588462e-01 3.022532e-01 1.991577e-01 2.346844e-01 2.960107e-01 3.709490e-01 3.979042e-01 3.718069e-01 3.546363e-01 3.455935e-01 2.997396e-01 2.860163e-01 2.810079e-01
<GCONST> 1.037580e+02
<TRANSP> 5
 0.000000e+00 1.000000e+00 0.000000e+00 0.000000e+00 0.000000e+00
 0.000000e+00 9.423780e-01 5.762202e-02 0.000000e+00 0.000000e+00
 0.000000e+00 0.000000e+00 9.539444e-01 4.605556e-02 0.000000e+00
 0.000000e+00 0.000000e+00 0.000000e+00 9.963749e-01 3.625099e-03
 0.000000e+00 0.000000e+00 0.000000e+00 0.000000e+00 0.000000e+00
<ENDHMM>
~h "kn"
<BEGINHMM>
<NUMSTATES> 5
<STATE> 2
<NUMMIXES> 2
<MIXTURE> 1 6.342987e-01
<MEAN> 39
 -2.532260e+00 -2.778661e-01 -3.228693e+00 -2.594262e+00 -3.234517e+00 -2.055936e+00 5.279635e-01 -3.051773e+00 1.894776e+00 -1.195211e+00 -1.306897e-02 -2.704396e+00 7.536106e+00 -4.862267e-01 7.561584e-01 4.819511e-01 8.625859e-02 7.158039e-01 -6.990852e-02 1.145450e+00 9.808883e-01 1.858824e+00 6.751624e-01 4.331281e-01 9.394271e-01 1.943310e+00 -9.793082e-02 1.144868e-01 2.293206e-01 1.649810e-01 3.062097e-01 3.649300e-01 -2.137468e-01 -6.848731e-02 -5.752446e-01 -1.155584e-01 -4.337281e-02 1.554371e-01 -1.065687e+00
<VARIANCE> 39
 1.428593e+01 1.765922e+01 1.291959e+01 9.756769e+00 1.585769e+01 2.504427e+01 2.692039e+01 3.704284e+01 3.698490e+01 2.061754e+01 1.897527e+01 1.731091e+01 2.241851e+01 1.909697e+00 1.076239e+00 1.336786e+00 1.056216e+00 1.183880e+00 1.886746e+00 2.431224e+00 3.925164e+00 2.972055e+00 1.774230e+00 1.478019e+00 1.449566e+00 5.074824e+00 4.211042e-01 2.452891e-01 2.559076e-01 1.542243e-01 1.975756e-01 3.535641e-01 4.967743e-01 8.843882e-01 4.941221e-01 3.573277e-01 2.608310e-01 3.180545e-01 5.450851e-01
<GCONST> 1.048319e+02
<MIXTURE> 2 3.657014e-01
<MEAN> 39
 -6.906185e+00 9.086679e-02 1.459024e+00 -3.135619e+00 -2.326899e+00 1.850572e+00 -9.864709e-01 1.352204e+00 -1.672977e+00 6.744860e-01 -7.319384e-01 -9.161863e-01 -8.984948e+00 1.341615e+00 -5.761136e-01 -9.530634e-01 4.108793e-01 -4.084317e-01 -1.057424e+00 -2.975768e-01 -2.079100e+00 -8.144183e-02 -3.073104e-01 -2.463819e-01 -5.843534e-01 3.151111e+00 2.138776e-02 5.244965e-02 -9.132236e-02 -8.397554e-03 1.076556e-01 2.022783e-02 2.439420e-01 2.863280e-01 4.161865e-01 7.483938e-02 9.638773e-02 9.829784e-02 4.620541e-01
<VARIANCE> 39
 1.947321e+01 1.298632e+01 1.289334e+01 9.266997e+00 1.973710e+01 1.470995e+01 1.966983e+01 5.675115e+01 1.566004e+01 2.040940e+01 2.357664e+01 1.839436e+01 3.463931e+01 2.191454e+00 1.538132e+00 2.039786e+00 8.775645e-01 1.661315e+00 2.206602e+00 2.531984e+00 4.444152e+00 1.922146e+00 2.094629e+00 2.557673e+00 2.554844e+00 9.335380e+00 3.456793e-01 1.348489e-01 3.007072e-01 9.901096e-02 2.218431e-01 2.229519e-01 3.543220e-01 7.710413e-01 3.402992e-01 2.838010e-01 3.356777e-01 3.800361e-01 7.883133e-01
<GCONST> 1.055687e+02
<STATE> 3
<NUMMIXES> 2
<MIXTURE> 1 3.422069e-01
<MEAN> 39
 5.852638e-01 -2.220216e+00 -2.236779e+00 -1.358657e+00 -1.880665e+00 -2.829687e+00 1.657903e-01 -1.435462e+00 1.099490e+00 -6.864567e-01 4.895120e-01 -3.423430e-01 4.529080e+00 1.325792e-01 1.274910e-01 -1.398922e-02 6.448113e-02 2.547482e-01 2.590613e-02 2.027010e-01 5.115741e-01 5.349546e-01 3.317425e-01 3.125916e-01 4.228593e-01 4.257488e-01 -1.449563e-02 2.447391e-01 2.343930e-01 2.772689e-01 3.184855e-01 3.392555e-01 -4.971742e-02 5.650026e-02 -1.628262e-01 1.083484e-01 -3.958759e-02 6.264631e-02 -4.515392e-01
<VARIANCE> 39
 1.021954e+01 1.185622e+01 1.055532e+01 1.027400e+01 1.216333e+01 1.386788e+01 1.875465e+01 2.920289e+01 2.333648e+01 1.876448e+01 1.629294e+01 1.759438e+01 1.984890e+01 6.344072e-01 1.187075e+00 1.001023e+00 1.214500e+00 1.548755e+00 1.613250e+00 1.738333e+00 1.992937e+00 2.096128e+00 1.433364e+00 1.365200e+00 1.268488e+00 2.850907e+00 1.128787e-01 1.992933e-01 1.547063e-01 1.957166e-01 2.758450e-01 2.375813e-01 3.852540e-01 5.764745e-01 4.701096e-01 3.690053e-01 3.030668e-01 3.063965e-01 3.341997e-01
<GCONST> 9.534367e+01
<MIXTURE> 2 6.577933e-01
<MEAN> 39
 3.745001e-01 7.325865e-01 3.953978e-01 6.440344e-01 8.896044e-01 6.092688e-01 -2.036548e-01 1.665264e-01 6.903845e-02 5.525832e-01 1.719263e-01 5.855173e-01 -3.338672e-01 1.005231e-02 -1.080803e-01 2.937268e-02 3.927741e-02 -8.833398e-02 5.303623e-03 -1.080745e-01 -2.452370e-01 -3.243406e-01 -1.699783e-01 -1.652711e-01 -1.876858e-01 -2.942982e-01 9.524587e-03 -1.353478e-01 -1.269574e-01 -1.517629e-01 -1.822902e-01 -1.801701e-01 1.688949e-02 -3.534377e-02 6.339479e-02 -6.126847e-02 7.690618e-03 -5.402182e-02 2.166652e-01
<VARIANCE> 39
 7.715307e+00 7.366435e+00 8.114644e+00 7.666887e+00 1.036127e+01 1.115836e+01 1.436940e+01 1.568851e+01 1.533762e+01 1.346795e+01 1.393695e+01 1.296386e+01 1.576352e+01 3.089923e-01 6.376778e-01 6.859286e-01 8.308968e-01 1.186905e+00 1.242873e+00 1.307399e+00 1.787282e+00 1.393644e+00 1.493788e+00 1.311184e+00 1.392294e+00 1.384860e+00 5.290269e-02 9.359015e-02 9.698731e-02 1.417519e-01 2.016974e-01 2.012977e-01 2.571033e-01 3.319269e-01 3.127510e-01 2.872870e-01 2.635693e-01 2.747826e-01 1.947668e-01
<GCONST> 8.208203e+01
<STATE> 4
<NUMMIXES> 2
<MIXTURE> 1 4.817317e-01
<MEAN> 39
 -8.155663e-02 2.856531e-01 1.117726e+00 1.046643e-01 -6.482481e-01 -1.440970e-01 -1.051903e+00 8.106256e-02 -1.723596e+00 -3.225897e-01 -5.556089e-01 4.794916e-02 -3.318536e+00 -5.773277e-02 2.170777e-01 3.195342e-01 9.989174e-02 9.756220e-02 2.547825e-01 1.368716e-02 3.148940e-01 7.803325e-02 1.144847e-01 -5.475584e-03 -3.641544e-02 -5.493983e-01 -9.678299e-04 3.779534e-02 5.555431e-02 1.147704e-01 2.100998e-01 2.381340e-01 2.311543e-01 1.885901e-01 1.431217e-01 3.537811e-02 1.106303e-02 -6.059981e-02 3.074206e-02
<VARIANCE> 39
 8.693690e+00 9.292391e+00 8.456347e+00 7.484104e+00 9.012703e+00 1.244918e+01 1.235137e+01 1.409318e+01 1.440365e+01 1.476084e+01 1.280529e+01 1.312903e+01 2.258066e+01 1.645233e-01 2.952918e-01 4.336651e-01 6.319193e-01 1.002532e+00 1.024360e+00 1.232562e+00 1.260973e+00 1.465351e+00 1.349283e+00 1.233567e+00 1.317093e+00 1.070720e-01 2.292153e-02 5.612038e-02 9.113210e-02 1.144127e-01 1.571081e-01 1.613394e-01 2.256879e-01 2.296440e-01 2.979495e-01 2.776485e-01 2.445475e-01 2.377732e-01 8.143418e-03
<GCONST> 7.077726e+01
<MIXTURE> 2 5.182679e-01
<MEAN> 39
 -7.410517e-01 1.251265e+00 2.185603e+00 1.157956e+00 1.988865e+00 3.356500e+00 1.394125e+00 2.470663e+00 -8.381622e-01 -1.872849e-01 -8.589851e-01 -6.941085e-01 -4.477407e+00 -2.122383e-01 2.945186e-02 4.805830e-02 -1.848868e-01 -8.032845e-02 1.312852e-01 -7.127050e-02 3.389334e-02 -3.216073e-01 -1.428082e-01 -1.146507e-01 -1.105110e-01 -5.060606e-01 -2.641897e-02 -4.253298e-02 -6.141658e-02 -1.348834e-01 -2.218507e-01 -2.369770e-01 -1.841089e-01 -1.630217e-01 -8.859227e-02 -3.348850e-02 2.124218e-02 5.960787e-02 1.928865e-02
<VARIANCE> 39
 1.099943e+01 1.061765e+01 9.811132e+00 8.297245e+00 1.101700e+01 1.319859e+01 1.185173e+01 1.429562e+01 1.611379e+01 1.579042e+01 1.285852e+01 1.205055e+01 2.547671e+01 1.662103e-01 3.424527e-01 5.105850e-01 6.084286e-01 9.793397e-01 1.135804e+00 1.309104e+00 1.299740e+00 1.467399e+00 1.419780e+00 1.259136e+00 1.030481e+00 1.323842e-01 2.034314e-02 4.741330e-02 8.595271e-02 1.103331e-01 1.441174e-01 1.489117e-01 2.181416e-01 2.276540e-01 2.884651e-01 2.871103e-01 2.550023e-01 2.275038e-01 7.677570e-03
<GCONST> 7.169037e+01
<TRANSP> 5
 0.000000e+00 1.000000e+00 0.000000e+00 0.000000e+00 0.000000e+00
 0.000000e+00 7.911993e-01 2.088007e-01 0.000000e+00 0.000000e+00
 0.000000e+00 0.000000e+00 9.852672e-01 1.473278e-02 0.000000e+00
 0.000000e+00 0.000000e+00 0.000000e+00 9.597830e-01 4.021693e-02
 0.000000e+00 0.000000e+00 0.000000e+00 0.000000e+00 0.000000e+00
<ENDHMM>
~h "kt"
<BEGINHMM>
<NUMSTATES> 5
<STATE> 2
<NUMMIXES> 2
<MIXTURE> 1 6.859864e-01
<MEAN> 39
 5.797684e-01 -1.631686e-01 1.416248e-01 1.133321e-01 2.955154e-01 5.530894e-01 5.391168e-01 6.612686e-02 2.119733e-01 3.105225e-02 4.627623e-01 2.854015e-02 -5.068603e-01 3.605531e-01 -6.004920e-02 1.134048e-01 1.945285e-02 1.349440e-01 1.628300e-01 9.965158e-02 -1.907522e-02 -1.921438e-02 1.314068e-02 6.235294e-02 -2.153918e-02 -4.958687e-01 -5.131294e-02 1.631050e-02 -2.410457e-02 -3.077688e-02 -5.415037e-02 -7.106373e-02 -8.579341e-02 -2.188934e-03 -2.438768e-02 7.873196e-03 -6.486326e-02 1.144426e-02 2.970756e-02
<VARIANCE> 39
 7.343072e+00 5.286345e+00 6.753759e+00 8.694114e+00 1.103078e+01 1.233654e+01 1.337278e+01 1.490561e+01 1.545968e+01 1.511295e+01 1.370394e+01 1.271523e+01 1.026135e+01 2.087191e-01 3.117245e-01 5.136005e-01 6.897073e-01 9.367593e-01 1.117210e+00 1.349890e+00 1.441901e+00 1.483727e+00 1.547251e+00 1.378822e+00 1.204122e+00 1.673465e-01 7.396793e-02 6.863017e-02 1.119820e-01 1.458485e-01 2.028923e-01 2.417580e-01 2.834767e-01 3.079717e-01 3.108020e-01 3.399014e-01 2.838130e-01 2.500021e-01 8.093860e-02
<GCONST> 7.679282e+01
<MIXTURE> 2 3.140180e-01
<MEAN> 39
 -9.005727e-01 8.995523e-02 -3.589993e-01 -5.845403e-01 -9.884686e-01 -8.987221e-01 -1.096513e+00 1.344338e-01 -8.801148e-02 8.738669e-02 -7.356739e-01 4.590400e-02 9.188589e-01 -8.546059e-01 1.564739e-01 -2.878451e-01 -4.361200e-02 -3.129437e-01 -4.073993e-01 -2.163814e-01 4.318510e-02 5.800942e-02 -2.612738e-02 -1.369576e-01 4.193417e-02 1.170346e+00 1.062479e-01 -3.510077e-02 5.555253e-02 7.483894e-02 1.238974e-01 1.539510e-01 1.847825e-01 5.542814e-03 5.574156e-02 -1.928625e-02 1.385903e-01 -2.471506e-02 -5.858838e-02
<VARIANCE> 39
 1.510271e+01 8.331058e+00 9.748395e+00 1.323050e+01 1.525184e+01 1.990311e+01 1.907793e+01 1.802092e+01 1.894453e+01 1.867445e+01 1.603084e+01 1.364459e+01 2.285401e+01 1.241511e+00 7.924730e-01 9.778950e-01 1.331811e+00 1.615368e+00 2.112053e+00 2.148628e+00 2.027591e+00 2.060784e+00 2.289170e+00 1.824675e+00 1.494490e+00 1.584597e+00 3.249804e-01 1.363288e-01 1.911224e-01 2.345725e-01 3.056466e-01 4.163922e-01 4.033166e-01 3.862798e-01 3.928203e-01 4.373774e-01 3.299900e-01 2.836376e-01 5.103132e-01
<GCONST> 9.832956e+01
<STATE> 3
<NUMMIXES> 2
<MIXTURE> 1 6.830796e-01
<MEAN> 39
 -2.511267e+00 1.850768e-01 -6.677755e-01 1.301551e+00 2.189182e-01 -1.724913e+00 -3.118387e-01 -9.019122e-01 -8.586367e-02 -1.431346e-02 -1.565867e-01 7.998044e-02 3.041277e+00 5.397782e-01 -1.096839e-02 1.166377e-01 -3.216051e-03 1.274514e-01 2.570152e-01 2.174411e-01 -4.479909e-02 -4.724807e-02 -7.996394e-02 1.370059e-01 2.738374e-02 -7.202940e-01 -9.413784e-03 6.426909e-02 1.282052e-02 -1.250611e-02 -7.893062e-03 -8.345944e-02 -4.304976e-02 -1.494405e-02 -2.341221e-02 -2.048009e-02 -6.882352e-02 3.443460e-02 -3.733246e-02
<VARIANCE> 39
 5.584561e+00 5.849844e+00 7.975989e+00 1.197976e+01 1.204825e+01 1.397219e+01 1.494020e+01 1.640207e+01 1.674109e+01 1.759125e+01 1.455405e+01 1.351436e+01 8.734632e+00 1.480237e-01 3.282622e-01 5.496276e-01 7.784053e-01 1.003803e+00 1.258388e+00 1.281736e+00 1.359882e+00 1.474483e+00 1.698012e+00 1.306566e+00 1.190010e+00 9.414056e-02 8.813681e-02 7.491199e-02 1.237170e-01 1.686531e-01 2.228244e-01 2.727604e-01 2.751448e-01 3.130108e-01 3.196124e-01 3.959906e-01 2.653951e-01 2.574733e-01 1.315878e-01
<GCONST> 7.847601e+01
<MIXTURE> 2 3.169220e-01
<MEAN> 39
 -2.737722e+00 1.267051e+00 -4.947926e-01 1.595356e+00 1.201317e-01 -2.744298e+00 -1.138020e+00 -8.349727e-01 -4.339167e-01 -3.886922e-01 -1.390678e+00 2.269416e-01 2.613629e+00 -9.076935e-01 4.110489e-02 -1.390059e-01 1.188678e-01 -1.176154e-01 -4.164667e-01 -3.547763e-01 6.446343e-03 5.718964e-02 8.095926e-02 -2.748554e-01 -8.731990e-02 1.204791e+00 1.253959e-01 -1.457392e-01 -8.238729e-03 -3.194019e-02 -3.985506e-03 2.197645e-01 1.148376e-01 4.702558e-02 3.992124e-02 5.517172e-02 1.562828e-01 -8.340967e-02 -6.591952e-02
<VARIANCE> 39
 1.182347e+01 6.336896e+00 9.482656e+00 1.070475e+01 1.522214e+01 2.392738e+01 1.985643e+01 1.567677e+01 1.762396e+01 1.569671e+01 1.689382e+01 1.316904e+01 1.637030e+01 7.871321e-01 7.519225e-01 9.636338e-01 1.126042e+00 1.618147e+00 2.246709e+00 1.951609e+00 1.870647e+00 1.850023e+00 2.005127e+00 1.918702e+00 1.523863e+00 1.116039e+00 3.283625e-01 1.161732e-01 1.733139e-01 2.081197e-01 2.976632e-01 4.754965e-01 4.030651e-01 3.240227e-01 3.377573e-01 3.617910e-01 3.633789e-01 2.924607e-01 4.863075e-01
<GCONST> 9.506763e+01
<STATE> 4
<NUMMIXES> 2
<MIXTURE> 1 6.577832e-01
<MEAN> 39
 1.275372e+00 -8.867677e-02 1.759389e-01 -6.612144e-01 1.434303e-01 7.500436e-01 3.396499e-01 1.413137e-01 -1.801225e-01 -1.035546e-01 -5.943462e-02 -4.510271e-01 -1.718531e+00 3.144298e-01 -1.070717e-01 1.932988e-01 2.222585e-02 1.445125e-01 2.603205e-01 1.608263e-01 9.036592e-02 7.041001e-02 1.201172e-01 1.447436e-01 1.198751e-03 -2.815010e-01 -7.509240e-03 1.183280e-02 1.830030e-02 3.370608e-02 1.982542e-02 2.267684e-02 -4.930223e-03 1.732926e-02 1.950129e-03 1.331016e-02 1.273971e-02 3.717914e-02 1.443238e-02
<VARIANCE> 39
 6.539278e+00 6.178674e+00 8.325693e+00 8.679182e+00 1.189019e+01 1.425537e+01 1.380720e+01 1.585503e+01 1.645330e+01 1.546021e+01 1.375523e+01 1.174990e+01 5.675568e+00 2.098694e-01 3.188757e-01 4.748285e-01 6.483037e-01 8.788700e-01 1.018328e+00 1.240495e+00 1.358296e+00 1.466681e+00 1.443435e+00 1.337784e+00 1.232373e+00 1.200423e-01 5.169414e-02 6.833643e-02 1.012546e-01 1.368419e-01 1.866225e-01 2.251869e-01 2.585636e-01 2.834302e-01 3.090726e-01 2.991252e-01 2.648869e-01 2.348575e-01 2.880143e-02
<GCONST> 7.378333e+01
<MIXTURE> 2 3.422214e-01
<MEAN> 39
 5.630661e-01 8.354017e-02 7.539030e-01 2.817633e-02 3.787560e-01 8.948532e-01 1.686485e-02 3.306355e-01 -3.836051e-01 -2.235465e-02 2.077285e-01 3.708510e-01 -7.043130e-01 -4.555027e-01 1.225129e-01 -3.161118e-01 -1.309661e-01 -2.577867e-01 -3.915815e-01 -3.003008e-01 -1.422452e-01 -1.644263e-01 -2.066533e-01 -2.462339e-01 -7.057657e-03 3.776890e-01 1.876562e-03 -2.860016e-02 -3.836617e-02 -5.324921e-02 -2.634377e-02 -4.276315e-02 -6.296367e-04 -3.027470e-02 -3.561436e-03 -2.241440e-02 -2.000481e-02 -6.285040e-02 -1.012695e-02
<VARIANCE> 39
 1.132085e+01 1.177876e+01 1.115131e+01 1.186281e+01 1.532000e+01 1.813724e+01 1.644227e+01 1.626518e+01 1.711439e+01 1.708743e+01 1.556471e+01 1.300000e+01 1.108110e+01 7.788927e-01 8.655773e-01 7.808439e-01 1.064016e+00 1.409162e+00 1.438198e+00 1.690387e+00 1.628212e+00 1.750699e+00 1.687927e+00 1.521785e+00 1.295456e+00 6.984472e-01 1.869748e-01 1.520333e-01 1.641834e-01 1.998045e-01 2.760996e-01 3.032568e-01 3.619348e-01 3.112860e-01 3.474619e-01 3.455198e-01 3.334645e-01 2.720240e-01 1.563069e-01
<GCONST> 9.059024e+01
<TRANSP> 5
 0.000000e+00 1.000000e+00 0.000000e+00 0.000000e+00 0.000000e+00
 0.000000e+00 9.954233e-01 4.576727e-03 0.000000e+00 0.000000e+00
 0.000000e+00 0.000000e+00 9.741744e-01 2.582560e-02 0.000000e+00
 0.000000e+00 0.000000e+00 0.000000e+00 9.862289e-01 1.377106e-02
 0.000000e+00 0.000000e+00 0.000000e+00 0.000000e+00 0.000000e+00
<ENDHMM>
~h "pr"
<BEGINHMM>
<NUMSTATES> 5
<STATE> 2
<NUMMIXES> 2
<MIXTURE> 1 2.343391e-01
<MEAN> 39
 -1.287820e+00 4.570627e-03 -4.055511e-01 5.564929e-01 1.364117e+00 -9.386544e-01 -4.793974e-01 -4.183633e-01 -1.165411e-01 1.119266e-01 9.474408e-02 5.318480e-01 1.195568e+00 -6.471248e-01 -2.909306e-01 -4.297537e-02 -1.561935e-01 2.310298e-02 -7.301182e-02 1.546498e-01 -1.428643e-01 -2.010189e-02 -4.467201e-02 -2.569570e-02 1.487788e-01 7.406121e-01 5.499002e-02 1.113473e-02 -1.503450e-02 -1.169254e-02 1.899680e-03 4.959878e-02 -3.309892e-03 -4.787400e-02 -2.473912e-02 -4.518533e-02 9.787315e-03 4.715952e-03 -4.119797e-02
<VARIANCE> 39
 2.017561e+01 2.152663e+01 2.196433e+01 3.310277e+01 5.789822e+01 4.079288e+01 5.855334e+01 4.837470e+01 3.665505e+01 3.441389e+01 4.689542e+01 4.670373e+01 1.416973e+01 1.532837e+00 1.518812e+00 1.950938e+00 2.496135e+00 2.666318e+00 3.199177e+00 3.704630e+00 4.068581e+00 3.441425e+00 3.143075e+00 3.880989e+00 3.374450e+00 8.956735e-01 2.923577e-01 2.441008e-01 3.096110e-01 3.928729e-01 4.266375e-01 5.154509e-01 6.018210e-01 6.185824e-01 5.543709e-01 5.121822e-01 6.167813e-01 4.993603e-01 2.104162e-01
<GCONST> 1.184221e+02
<MIXTURE> 2 7.656679e-01
<MEAN> 39
 -5.571392e-01 -7.763051e-01 6.052437e-01 9.319001e-02 8.302900e-01 4.052522e-01 -6.374464e-01 -7.841063e-01 -1.343915e-01 -3.743454e-01 1.702636e-02 5.806718e-01 5.100275e-01 1.656005e-01 7.003012e-02 2.689971e-02 3.406954e-02 -1.876632e-02 4.741694e-02 -2.725106e-02 2.286910e-02 1.597338e-02 -1.282423e-02 1.182894e-03 -1.647542e-02 -1.933926e-01 -3.138180e-03 -3.831516e-06 1.130486e-03 6.043176e-03 -3.081380e-03 -1.539692e-02 -9.971466e-04 1.811346e-02 7.277681e-03 1.832403e-02 -5.080777e-03 -7.525854e-03 1.252959e-03
<VARIANCE> 39
 1.296459e+01 1.529264e+01 1.859715e+01 2.518576e+01 6.495454e+01 3.843509e+01 5.077961e+01 4.508110e+01 3.848585e+01 3.172838e+01 3.601521e+01 4.487332e+01 6.283460e+00 2.096463e-01 3.944909e-01 5.873913e-01 9.280750e-01 1.105955e+00 1.393941e+00 1.554650e+00 1.634295e+00 1.711529e+00 1.575765e+00 1.655970e+00 1.439906e+00 9.334006e-02 3.714935e-02 7.198242e-02 1.138222e-01 1.797906e-01 2.198914e-01 2.724403e-01 3.196907e-01 3.258291e-01 3.417655e-01 3.154696e-01 3.430493e-01 3.015517e-01 1.740803e-02
<GCONST> 8.932681e+01
<STATE> 3
<NUMMIXES> 2
<MIXTURE> 1 4.289889e-01
<MEAN> 39
 -4.347079e+00 6.190536e-01 1.617497e+00 -5.221737e-01 -2.605669e+00 2.275933e+00 -2.251053e+00 -5.176490e+00 3.105002e+00 -4.357640e+00 1.339419e-01 -2.641534e-01 3.703609e+00 -1.362922e-01 7.566690e-02 9.276198e-03 5.088195e-02 3.528231e-01 -2.292689e-01 1.301457e-01 2.993324e-01 -1.291135e-01 -3.840623e-03 2.058682e-01 -1.353714e-01 7.731183e-02 -1.364299e-01 7.784658e-02 7.235871e-02 6.275279e-02 2.194785e-01 2.201815e-02 2.528830e-01 1.750282e-01 -3.670888e-02 9.589465e-03 2.267633e-01 4.468442e-02 1.026993e-01
<VARIANCE> 39
 1.033931e+01 1.597245e+01 1.097607e+01 1.745979e+01 1.299248e+01 2.068260e+01 1.512139e+01 1.642315e+01 2.482780e+01 2.339935e+01 2.032050e+01 1.818545e+01 4.721383e+00 7.204147e-01 4.685867e-01 5.389276e-01 8.817612e-01 1.262499e+00 1.845740e+00 1.353410e+00 1.400917e+00 1.755601e+00 1.946683e+00 2.132766e+00 1.258595e+00 2.985197e-01 1.392142e-01 7.347798e-02 1.003224e-01 1.729938e-01 2.501129e-01 4.153624e-01 2.549892e-01 3.102377e-01 3.656989e-01 3.964880e-01 3.663984e-01 2.591213e-01 5.185524e-02
<GCONST> 8.695772e+01
<MIXTURE> 2 5.710102e-01
<MEAN> 39
 -5.678744e+00 -1.027480e+00 2.037127e+00 2.713289e-01 4.253423e-01 3.625814e+00 6.182204e-01 -2.708705e+00 2.418020e+00 -3.942103e+00 3.306986e+00 -1.357863e-01 4.933946e+00 1.651601e-01 -8.563558e-02 -4.148872e-03 -1.055486e-01 -2.405243e-01 1.392408e-01 -1.225793e-01 -1.866041e-01 1.562534e-01 3.715877e-02 -2.150907e-01 1.603187e-01 -1.320620e-01 1.053893e-01 -5.358367e-02 -5.221500e-02 -5.224254e-02 -1.532363e-01 -3.469323e-02 -1.849582e-01 -1.030189e-01 2.173019e-02 1.066264e-02 -1.685573e-01 -4.723962e-02 -8.116670e-02
<VARIANCE> 39
 7.231888e+00 2.174509e+01 1.183196e+01 1.331516e+01 1.263351e+01 1.803479e+01 1.517347e+01 1.637945e+01 2.101530e+01 2.102621e+01 1.785022e+01 1.764334e+01 3.838036e+00 4.060977e-01 3.217865e-01 5.127228e-01 7.589059e-01 1.081335e+00 1.511037e+00 1.647822e+00 1.395271e+00 1.549599e+00 1.756814e+00 1.689301e+00 1.264367e+00 1.570381e-01 9.828635e-02 6.934804e-02 9.508154e-02 1.502416e-01 2.119570e-01 3.181422e-01 2.792705e-01 2.538652e-01 3.406952e-01 3.268883e-01 3.404400e-01 2.664089e-01 3.820368e-02
<GCONST> 8.174100e+01
<STATE> 4
<NUMMIXES> 2
<MIXTURE> 1 2.953699e-01
<MEAN> 39
 -3.067539e+00 -6.129361e-01 1.215766e+00 -1.668406e+00 -1.142763e+00 1.738794e+00 -6.918055e-01 -1.906738e+00 2.877084e+00 -2.382748e+00 -3.980966e-01 1.663405e+00 2.345203e+00 -3.261073e-02 -6.899314e-02 6.420054e-02 -3.415145e-02 -5.793985e-04 3.307693e-02 -1.636732e-02 -6.589155e-02 2.963101e-02 2.045501e-02 5.426112e-03 3.860351e-02 6.808718e-02 1.856756e-02 2.113694e-02 1.841798e-02 1.259288e-02 4.574275e-02 1.587236e-02 3.588802e-02 5.610906e-02 1.556310e-02 4.527200e-02 7.996920e-03 -3.368068e-03 -8.883772e-03
<VARIANCE> 39
 2.242981e+01 2.177168e+01 2.697702e+01 3.845353e+01 2.648709e+01 4.525737e+01 2.419757e+01 3.198151e+01 4.978630e+01 5.624738e+01 3.916232e+01 2.564477e+01 1.601077e+01 7.805837e-01 7.489963e-01 9.853825e-01 1.363373e+00 1.443867e+00 1.946478e+00 1.612996e+00 1.924986e+00 2.159889e+00 2.046639e+00 2.168838e+00 1.638425e+00 4.886093e-01 1.479756e-01 1.359609e-01 1.836699e-01 2.518912e-01 2.897357e-01 3.885188e-01 3.246939e-01 3.684926e-01 4.260280e-01 3.946345e-01 4.262246e-01 3.143011e-01 8.592425e-02
<GCONST> 1.026043e+02
<MIXTURE> 2 7.046342e-01
<MEAN> 39
 4.713320e+00 1.070526e+00 -1.868980e+00 5.145749e-01 -1.137599e-01 -2.397475e+00 1.261562e+00 3.503448e+00 -2.461628e+00 3.406427e+00 -8.742466e-01 -1.220744e+00 -3.986123e+00 8.725785e-02 6.431225e-02 -6.730488e-02 6.070026e-02 -9.269382e-03 -3.496030e-02 -1.610357e-03 3.508610e-02 -4.885127e-02 1.096974e-02 2.112159e-02 -5.703303e-02 -9.128045e-02 -9.958872e-03 -9.203676e-03 -7.569870e-03 -1.436517e-03 -2.055898e-02 -5.077041e-03 -1.633467e-02 -2.863139e-02 -7.627293e-03 -2.254952e-02 -7.596061e-04 -1.717621e-03 5.414828e-03
<VARIANCE> 39
 1.394365e+01 1.945586e+01 3.558390e+01 5.053059e+01 2.982288e+01 3.269022e+01 2.421219e+01 2.599146e+01 3.389843e+01 3.030451e+01 3.999715e+01 4.189515e+01 8.996771e+00 1.467808e-01 3.042399e-01 4.751581e-01 7.278090e-01 9.300910e-01 1.201430e+00 1.274030e+00 1.351150e+00 1.436316e+00 1.505967e+00 1.229584e+00 1.145128e+00 6.038262e-02 2.444338e-02 5.371638e-02 8.913681e-02 1.320268e-01 1.772166e-01 2.316451e-01 2.458581e-01 2.569821e-01 2.743210e-01 2.937016e-01 2.410720e-01 2.202351e-01 7.962978e-03
<GCONST> 8.212782e+01
<TRANSP> 5
 0.000000e+00 1.000000e+00 0.000000e+00 0.000000e+00 0.000000e+00
 0.000000e+00 9.925114e-01 7.488653e-03 0.000000e+00 0.000000e+00
 0.000000e+00 0.000000e+00 9.841245e-01 1.587549e-02 0.000000e+00
 0.000000e+00 0.000000e+00 0.000000e+00 9.942359e-01 5.764151e-03
 0.000000e+00 0.000000e+00 0.000000e+00 0.000000e+00 0.000000e+00
<ENDHMM>
~h "pw"
<BEGINHMM>
<NUMSTATES> 5
<STATE> 2
<NUMMIXES> 2
<MIXTURE> 1 6.746259e-01
<MEAN> 39
 -1.621764e-01 1.404601e+00 2.634327e-01 2.412448e-01 7.403144e-01 1.415825e+00 1.039996e+00 1.108310e+00 5.896093e-01 3.697032e-01 1.421262e-01 -2.388482e-01 -1.925497e+00 1.340487e-01 1.941053e-01 1.264725e-02 -5.144557e-03 3.885322e-02 8.469763e-02 6.920645e-02 7.485368e-02 1.463867e-02 3.437410e-02 1.406926e-02 1.088305e-02 -2.357814e-01 -3.321517e-02 -1.440217e-02 2.206243e-03 -4.673239e-03 -4.112997e-02 -6.118205e-02 -3.121289e-02 -1.783798e-02 -2.352146e-02 -6.582696e-03 -1.850920e-02 1.687991e-02 3.205551e-02
<VARIANCE> 39
 1.187252e+01 1.571335e+01 8.902659e+00 9.629002e+00 1.164099e+01 1.263338e+01 1.424317e+01 1.659539e+01 1.504732e+01 1.394659e+01 1.359271e+01 1.163584e+01 1.507986e+01 2.936349e-01 3.922719e-01 5.155278e-01 7.422590e-01 9.437524e-01 1.131759e+00 1.262710e+00 1.400426e+00 1.455835e+00 1.346812e+00 1.368542e+00 1.197715e+00 1.692819e-01 4.742628e-02 7.124446e-02 1.009311e-01 1.471249e-01 1.843403e-01 2.281813e-01 2.564631e-01 2.860951e-01 2.979057e-01 2.712255e-01 2.868359e-01 2.449838e-01 2.330940e-02
<GCONST> 7.723124e+01
<MIXTURE> 2 3.253749e-01
<MEAN> 39
 -2.317633e+00 -7.283251e-01 1.244168e-01 6.704671e-02 -4.526306e-01 -7.798167e-01 -1.350208e-01 1.018012e-01 -1.397102e-01 -1.250418e-01 -4.667250e-01 2.119673e-01 1.600363e+00 -2.999130e-01 -4.277077e-01 -1.526419e-02 1.106823e-02 -8.889719e-02 -2.014401e-01 -1.437740e-01 -1.710945e-01 -3.465232e-02 -7.242224e-02 -3.309428e-02 -1.791978e-02 5.327519e-01 6.782258e-02 2.541777e-02 -1.139504e-02 8.060102e-03 7.736227e-02 1.195837e-01 5.737484e-02 3.256518e-02 4.460940e-02 1.678064e-02 3.458033e-02 -3.436325e-02 -5.703941e-02
<VARIANCE> 39
 1.700150e+01 2.464086e+01 1.407388e+01 1.432954e+01 1.775507e+01 2.183724e+01 2.077523e+01 2.127796e+01 1.829996e+01 1.711626e+01 1.541501e+01 1.401698e+01 2.827358e+01 1.020130e+00 1.277658e+00 1.131318e+00 1.259126e+00 1.565882e+00 1.960913e+00 1.850704e+00 1.786567e+00 1.821731e+00 1.691010e+00 1.696728e+00 1.389027e+00 1.097289e+00 1.831374e-01 2.512223e-01 2.139762e-01 2.490157e-01 3.070385e-01 3.918985e-01 3.767418e-01 3.528613e-01 3.698061e-01 3.383741e-01 3.418635e-01 2.836196e-01 2.203209e-01
<GCONST> 9.847848e+01
<STATE> 3
<NUMMIXES> 2
<MIXTURE> 1 7.467214e-01
<MEAN> 39
 1.488333e+00 -3.009995e+00 -1.151147e+00 -4.480803e-01 -5.394281e-01 -2.458592e+00 -2.521987e+00 -3.557428e+00 -1.951831e+00 -1.338238e+00 1.442846e-02 2.019598e-01 4.771851e+00 1.466222e-01 2.356206e-01 7.102409e-02 9.336195e-02 1.557667e-01 2.019918e-01 1.146656e-01 1.339253e-01 1.103182e-02 4.589258e-02 2.175721e-02 3.842152e-02 -7.167936e-01 -2.557186e-02 2.139351e-02 1.388016e-02 5.308050e-03 -1.712123e-02 -1.565691e-02 1.300030e-02 4.020667e-02 3.062095e-02 2.160668e-02 -1.975937e-02 -7.651749e-04 1.148832e-02
<VARIANCE> 39
 1.356015e+01 2.334973e+01 1.152242e+01 1.122142e+01 1.361554e+01 2.009185e+01 2.029391e+01 2.362555e+01 1.714616e+01 1.458970e+01 1.322354e+01 1.204024e+01 6.159208e+01 2.090978e-01 3.339541e-01 4.555585e-01 6.347105e-01 8.943887e-01 1.044053e+00 1.192160e+00 1.426585e+00 1.416921e+00 1.292820e+00 1.203094e+00 1.117154e+00 1.270771e-01 3.628559e-02 6.113413e-02 9.143803e-02 1.250815e-01 1.836617e-01 2.179548e-01 2.448295e-01 2.984890e-01 2.956012e-01 2.665650e-01 2.487267e-01 2.330826e-01 2.182876e-02
<GCONST> 7.856276e+01
<MIXTURE> 2 2.532803e-01
<MEAN> 39
 -7.429644e-01 -1.138445e+00 1.120574e-02 -6.386833e-01 -2.159141e+00 -3.023512e+00 -2.040028e+00 -1.206967e+00 -3.203545e-01 -3.069330e-01 -8.889778e-01 2.809321e-02 5.963404e+00 -3.540498e-01 -8.357875e-01 -2.391675e-01 -2.404725e-01 -4.548680e-01 -7.006524e-01 -5.061742e-01 -5.820221e-01 -1.548060e-01 -1.993803e-01 -4.323676e-02 -7.611866e-02 2.215850e+00 9.970859e-02 -2.274190e-02 -3.224366e-02 -7.138817e-03 9.432240e-02 1.042682e-01 1.135328e-02 -7.441144e-02 -6.690826e-02 -5.020329e-02 6.971879e-02 -1.247546e-02 -1.112141e-01
<VARIANCE> 39
 1.852126e+01 3.262521e+01 1.398207e+01 1.476176e+01 2.294017e+01 3.489102e+01 2.733709e+01 3.060282e+01 1.812265e+01 1.862079e+01 1.645045e+01 1.522688e+01 1.220674e+02 1.487743e+00 2.235438e+00 1.336900e+00 1.395895e+00 2.655008e+00 3.518249e+00 2.784459e+00 2.587724e+00 1.769877e+00 1.943499e+00 1.802083e+00 1.817955e+00 7.834016e+00 2.601235e-01 4.329205e-01 2.384356e-01 2.683214e-01 5.378347e-01 7.106422e-01 5.400404e-01 4.874389e-01 3.281004e-01 3.824446e-01 3.457730e-01 3.733898e-01 1.884181e+00
<GCONST> 1.127715e+02
<STATE> 4
<NUMMIXES> 2
<MIXTURE> 1 7.134243e-01
<MEAN> 39
 8.381836e-01 1.231277e+00 2.237750e-01 1.631874e-01 5.840656e-01 1.292540e+00 8.562058e-01 8.657544e-01 3.757242e-01 3.467995e-01 2.820933e-01 -6.003601e-02 -2.601213e+00 1.173413e-01 1.771629e-01 7.350695e-03 -4.664458e-03 4.037216e-02 1.153263e-01 9.326907e-02 9.455642e-02 4.068531e-02 4.367603e-02 4.878700e-03 -8.165360e-03 -2.524921e-01 -2.755688e-02 -1.893775e-02 -2.178973e-03 -7.920338e-03 -4.055431e-02 -5.510541e-02 -2.916143e-02 -9.010679e-03 -7.635553e-03 -7.731312e-03 -1.876515e-02 1.003813e-02 3.348332e-02
<VARIANCE> 39
 1.175490e+01 1.430288e+01 8.820847e+00 9.434999e+00 1.144355e+01 1.441832e+01 1.459649e+01 1.735602e+01 1.570881e+01 1.441977e+01 1.327656e+01 1.222820e+01 1.519821e+01 2.976972e-01 4.015166e-01 5.141988e-01 7.183459e-01 9.647985e-01 1.180688e+00 1.279867e+00 1.403904e+00 1.439122e+00 1.402868e+00 1.309307e+00 1.209745e+00 1.795952e-01 4.756265e-02 7.311363e-02 9.882737e-02 1.409773e-01 1.882843e-01 2.347491e-01 2.550209e-01 2.818490e-01 2.897936e-01 2.898046e-01 2.650878e-01 2.456824e-01 2.444475e-02
<GCONST> 7.753272e+01
<MIXTURE> 2 2.865883e-01
<MEAN> 39
 -1.453891e+00 -1.958160e+00 -1.456688e-01 -2.674478e-01 -1.186745e+00 -2.034739e+00 -1.058545e+00 -7.780758e-01 -1.287961e-01 -2.338659e-01 -4.099505e-01 1.625523e-01 3.159148e+00 -2.712571e-01 -4.246248e-01 -1.374906e-02 5.347163e-05 -9.526891e-02 -2.505655e-01 -1.975409e-01 -1.961874e-01 -7.252306e-02 -9.507504e-02 -7.310904e-03 4.694432e-03 5.757484e-01 7.087245e-02 4.279269e-02 4.502865e-03 1.687128e-02 9.725441e-02 1.338505e-01 6.701778e-02 1.473102e-02 1.349572e-02 1.688572e-02 4.767991e-02 -2.395994e-02 -8.012311e-02
<VARIANCE> 39
 1.861779e+01 2.518825e+01 1.520321e+01 1.429001e+01 1.719885e+01 2.365150e+01 2.259860e+01 2.719666e+01 2.065288e+01 1.850166e+01 1.606086e+01 1.501885e+01 4.487088e+01 1.041524e+00 1.438520e+00 1.027872e+00 1.180459e+00 1.577055e+00 2.085464e+00 1.852289e+00 1.920713e+00 1.749760e+00 1.756759e+00 1.664147e+00 1.476434e+00 2.174424e+00 1.835741e-01 2.637289e-01 1.869984e-01 2.296736e-01 3.077211e-01 4.183760e-01 3.753267e-01 3.910408e-01 3.608043e-01 3.591680e-01 3.388837e-01 3.099536e-01 3.796428e-01
<GCONST> 1.013193e+02
<TRANSP> 5
 0.000000e+00 1.000000e+00 0.000000e+00 0.000000e+00 0.000000e+00
 0.000000e+00 9.941238e-01 5.876300e-03 0.000000e+00 0.000000e+00
 0.000000e+00 0.000000e+00 9.890190e-01 1.098097e-02 0.000000e+00
 0.000000e+00 0.000000e+00 0.000000e+00 9.971166e-01 2.883323e-03
 0.000000e+00 0.000000e+00 0.000000e+00 0.000000e+00 0.000000e+00
<ENDHMM>
~h "si"
<BEGINHMM>
<NUMSTATES> 5
<STATE> 2
<NUMMIXES> 2
<MIXTURE> 1 7.716615e-01
<MEAN> 39
 6.427822e-01 7.884912e-01 2.784400e-01 4.542405e-01 5.082551e-01 6.487200e-01 3.504033e-01 2.914183e-01 -1.328935e-02 -1.185031e-01 -1.446760e-01 -1.481074e-01 -9.918709e-01 2.398536e-02 3.802191e-02 -8.798872e-03 -8.537660e-03 9.964914e-03 4.119968e-02 2.701466e-02 5.462896e-02 1.230619e-02 1.532369e-02 1.065360e-02 -1.049527e-02 -8.478191e-02 -1.259347e-02 -1.345712e-02 -1.092204e-02 -1.604717e-02 -2.579088e-02 -3.164736e-02 -2.803377e-02 -2.357425e-02 -8.441940e-03 -2.095646e-03 -3.288787e-03 2.072211e-03 1.173361e-02
<VARIANCE> 39
 9.487870e+00 6.615361e+00 7.672467e+00 9.639165e+00 1.228414e+01 1.318903e+01 1.423328e+01 1.617043e+01 1.529756e+01 1.469739e+01 1.390214e+01 1.290067e+01 9.221672e+00 1.669366e-01 2.852337e-01 4.513787e-01 6.683617e-01 8.923863e-01 1.075090e+00 1.232643e+00 1.328319e+00 1.362536e+00 1.369121e+00 1.304380e+00 1.154199e+00 7.673575e-02 2.657577e-02 5.089409e-02 8.579235e-02 1.285511e-01 1.739446e-01 2.089889e-01 2.424544e-01 2.611243e-01 2.716425e-01 2.755715e-01 2.625915e-01 2.324208e-01 9.612052e-03
<GCONST> 7.092623e+01
<MIXTURE> 2 2.283706e-01
<MEAN> 39
 -1.582838e+00 -1.574386e+00 1.513152e-02 -3.024307e-01 -1.451270e+00 -2.164719e+00 -1.483318e+00 -2.328585e+00 -3.155983e-01 -3.634883e-01 -5.195521e-01 3.873802e-01 3.630912e+00 -8.315030e-02 -1.387421e-01 -1.831977e-02 -3.373459e-02 -7.887088e-02 -1.285405e-01 -6.033008e-02 -1.132535e-01 -1.161048e-02 9.572732e-04 -3.619323e-03 2.569220e-02 1.838731e-01 4.353594e-02 4.434230e-02 3.286844e-02 5.036681e-02 8.500416e-02 1.069302e-01 9.164191e-02 7.823203e-02 2.938849e-02 1.124910e-02 1.564611e-02 -6.285619e-03 -4.124163e-02
<VARIANCE> 39
 2.114693e+01 2.184175e+01 1.825768e+01 1.888186e+01 2.558560e+01 2.429653e+01 2.388646e+01 2.557976e+01 2.182797e+01 2.157681e+01 1.999365e+01 1.708631e+01 2.337889e+01 7.325339e-01 1.005731e+00 8.835010e-01 1.122882e+00 1.434205e+00 1.739407e+00 1.730769e+00 1.800772e+00 1.700477e+00 1.696764e+00 1.593217e+00 1.372803e+00 7.958165e-01 1.176451e-01 1.765877e-01 1.665775e-01 2.213077e-01 2.780644e-01 3.470210e-01 3.476428e-01 3.610269e-01 3.459722e-01 3.465815e-01 3.231222e-01 2.759713e-01 1.262811e-01
<GCONST> 9.679877e+01
<STATE> 3
<NUMMIXES> 2
<MIXTURE> 1 4.746971e-01
<MEAN> 39
 5.672916e-01 -3.891685e-01 -7.265230e-01 -1.140224e+00 -9.970905e-01 -7.027187e-01 -1.068964e+00 -4.801600e-01 -7.893827e-01 -4.050544e-01 -1.515233e-01 -3.874330e-01 -9.492341e-01 5.433277e-02 1.141670e-01 1.670300e-01 2.254746e-01 2.742029e-01 2.864016e-01 2.706355e-01 2.460407e-01 2.017865e-01 1.485444e-01 8.901282e-02 4.049869e-02 7.155723e-03 2.535206e-02 5.864941e-02 9.169078e-02 1.215805e-01 1.444795e-01 1.523065e-01 1.506962e-01 1.418904e-01 1.182010e-01 8.464534e-02 5.114974e-02 2.337449e-02 1.055932e-02
<VARIANCE> 39
 3.108773e+00 4.011838e+00 6.216422e+00 7.559245e+00 1.065804e+01 1.167624e+01 1.245059e+01 1.416556e+01 1.404831e+01 1.449214e+01 1.405045e+01 1.249248e+01 1.845098e+00 1.263882e-01 2.570572e-01 4.428851e-01 6.302309e-01 8.646288e-01 1.023296e+00 1.175947e+00 1.326887e+00 1.351699e+00 1.409061e+00 1.318855e+00 1.146585e+00 4.087524e-02 2.439362e-02 5.120652e-02 8.954789e-02 1.274487e-01 1.720559e-01 2.042831e-01 2.336781e-01 2.671269e-01 2.723772e-01 2.919344e-01 2.765346e-01 2.383473e-01 7.362979e-03
<GCONST> 6.518076e+01
<MIXTURE> 2 5.252813e-01
<MEAN> 39
 8.484342e-01 4.485378e-01 4.621699e-01 5.300658e-01 1.080968e+00 1.416853e+00 9.990354e-01 1.455551e+00 6.558955e-01 5.861108e-01 5.005286e-01 -1.056950e-01 -9.901310e-01 -5.365033e-02 -9.800094e-02 -1.642331e-01 -2.094720e-01 -2.488611e-01 -2.532553e-01 -2.410158e-01 -2.091834e-01 -1.807200e-01 -1.303850e-01 -7.522641e-02 -3.357655e-02 -2.214930e-02 -2.689287e-02 -5.233869e-02 -8.099318e-02 -1.071205e-01 -1.300569e-01 -1.398089e-01 -1.368779e-01 -1.311263e-01 -1.072207e-01 -7.844596e-02 -4.848546e-02 -1.975441e-02 -4.757449e-03
<VARIANCE> 39
 2.868688e+00 3.460837e+00 5.101089e+00 6.514236e+00 9.375984e+00 1.055332e+01 1.151151e+01 1.300222e+01 1.329504e+01 1.347587e+01 1.267806e+01 1.117662e+01 1.719938e+00 1.273593e-01 2.516963e-01 4.249853e-01 6.115845e-01 8.423728e-01 1.014584e+00 1.170759e+00 1.293254e+00 1.345026e+00 1.390821e+00 1.307133e+00 1.119695e+00 4.242317e-02 2.273143e-02 4.665683e-02 7.970725e-02 1.155166e-01 1.631013e-01 1.966387e-01 2.283977e-01 2.548223e-01 2.697731e-01 2.801037e-01 2.625175e-01 2.238353e-01 7.121787e-03
<GCONST> 6.289864e+01
<STATE> 4
<NUMMIXES> 2
<MIXTURE> 1 7.626072e-01
<MEAN> 39
 -8.649920e-01 1.706425e-01 -2.952668e-02 1.692167e-01 -1.066702e-02 -1.558947e-01 3.022050e-01 -5.854595e-02 2.629133e-01 1.193552e-01 -8.673557e-03 2.311352e-01 3.347349e-01 5.642211e-02 8.023414e-02 1.756747e-03 7.149090e-03 1.776200e-02 4.951129e-02 1.083902e-02 3.782690e-02 2.465070e-03 1.120488e-02 5.837695e-03 -1.769593e-02 -1.106506e-01 -1.495402e-02 -1.343665e-02 -6.437954e-03 -1.112235e-02 -1.968818e-02 -2.437299e-02 -1.897817e-02 -1.652223e-02 -6.951317e-03 4.491627e-04 -1.781500e-03 3.316388e-03 1.962121e-02
<VARIANCE> 39
 9.689725e+00 9.542605e+00 8.191060e+00 1.054830e+01 1.284229e+01 1.432070e+01 1.571736e+01 1.742990e+01 1.615889e+01 1.521370e+01 1.417721e+01 1.308504e+01 1.146646e+01 2.302511e-01 3.401534e-01 5.009047e-01 7.191308e-01 9.337435e-01 1.145107e+00 1.311306e+00 1.401488e+00 1.436857e+00 1.422701e+00 1.325127e+00 1.191836e+00 1.423443e-01 3.353039e-02 6.018054e-02 9.370939e-02 1.371671e-01 1.803355e-01 2.236707e-01 2.585213e-01 2.769869e-01 2.860689e-01 2.849580e-01 2.651428e-01 2.388867e-01 1.587007e-02
<GCONST> 7.517126e+01
<MIXTURE> 2 2.374361e-01
<MEAN> 39
 -3.385558e+00 -2.491214e+00 -5.186409e-01 -3.584363e-01 -1.050300e+00 -2.592407e+00 -6.691631e-01 -1.872728e+00 -1.019572e-01 -1.458811e-01 5.569231e-02 1.200900e+00 5.742632e+00 -2.590037e-01 -2.619824e-01 2.112455e-02 -9.693703e-03 -7.433888e-02 -2.166064e-01 -6.303252e-02 -1.879170e-01 3.696973e-03 -3.573669e-02 -4.261191e-03 9.531156e-02 5.315041e-01 5.835704e-02 4.129116e-02 2.299558e-02 3.379005e-02 6.363212e-02 8.242351e-02 6.170039e-02 5.509069e-02 2.161400e-02 -2.168527e-03 6.108523e-03 -1.625648e-02 -6.300747e-02
<VARIANCE> 39
 2.587870e+01 2.960707e+01 1.876647e+01 1.988142e+01 2.440719e+01 2.500857e+01 2.582716e+01 3.079722e+01 2.488596e+01 2.164209e+01 2.110761e+01 1.988785e+01 4.694204e+01 1.283053e+00 1.358573e+00 1.071643e+00 1.328557e+00 1.653671e+00 1.958073e+00 1.972096e+00 2.162158e+00 1.966969e+00 1.831512e+00 1.725796e+00 1.514808e+00 2.064453e+00 2.135808e-01 2.367774e-01 1.940794e-01 2.551767e-01 3.143199e-01 3.830238e-01 3.871720e-01 4.293985e-01 3.939798e-01 3.676747e-01 3.457493e-01 3.058085e-01 3.497511e-01
<GCONST> 1.048824e+02
<TRANSP> 5
 0.000000e+00 1.000000e+00 0.000000e+00 0.000000e+00 0.000000e+00
 0.000000e+00 9.896764e-01 1.032361e-02 0.000000e+00 0.000000e+00
 0.000000e+00 0.000000e+00 9.912702e-01 8.729687e-03 0.000000e+00
 0.000000e+00 0.000000e+00 0.000000e+00 9.845819e-01 1.541814e-02
 0.000000e+00 0.000000e+00 0.000000e+00 0.000000e+00 0.000000e+00
<ENDHMM>
~h "st"
<BEGINHMM>
<NUMSTATES> 5
<STATE> 2
<NUMMIXES> 2
<MIXTURE> 1 7.000098e-01
<MEAN> 39
 -5.291970e-01 -3.231564e+00 1.484944e+00 -3.087986e+00 -1.468903e+00 -4.779441e+00 -2.585192e+00 -5.495388e-01 7.935153e-03 -7.961100e-01 9.439760e-02 2.345352e-01 7.504047e+00 2.202974e-01 1.457425e-01 1.336089e-01 2.447342e-01 2.354998e-01 3.192263e-01 2.604309e-01 -8.693630e-03 4.504600e-02 -2.680590e-02 -4.946941e-02 6.898100e-02 -7.291852e-01 -1.026102e-02 6.151693e-02 -4.815690e-02 6.580154e-02 4.371499e-02 5.734609e-02 -8.363001e-03 -2.598446e-02 -4.266933e-02 -2.007468e-02 -2.036489e-02 -1.776770e-02 -7.870854e-02
<VARIANCE> 39
 1.396343e+01 1.406259e+01 1.206373e+01 1.588795e+01 1.835549e+01 2.135001e+01 1.820811e+01 2.230206e+01 1.788021e+01 1.844557e+01 1.592399e+01 1.281665e+01 4.115794e+01 2.507155e-01 3.880680e-01 5.875644e-01 7.954709e-01 1.051170e+00 1.393957e+00 1.428248e+00 1.728212e+00 1.354917e+00 1.644329e+00 1.452697e+00 1.217191e+00 2.306009e-01 3.872038e-02 9.147021e-02 1.004528e-01 1.557823e-01 1.984482e-01 2.770066e-01 2.672297e-01 3.439233e-01 2.654990e-01 3.169647e-01 2.837385e-01 2.201568e-01 9.818371e-02
<GCONST> 8.446638e+01
<MIXTURE> 2 2.999900e-01
<MEAN> 39
 -1.355000e+00 -1.423162e+00 -4.204816e-01 -1.867438e+00 -1.146359e+00 -2.778072e+00 -2.016370e+00 4.048772e-01 5.418844e-01 -2.373416e-01 2.463056e-01 -2.615635e-01 5.058959e+00 -5.967427e-01 -1.080223e+00 2.417448e-01 -9.978436e-01 -7.309533e-01 -1.375387e+00 -7.467215e-01 -1.863845e-01 -1.154226e-01 -1.249295e-01 2.385563e-02 3.298497e-03 2.748189e+00 1.694179e-01 9.991755e-02 5.628238e-02 1.299417e-01 1.216822e-01 2.502011e-01 2.309705e-01 7.168267e-02 6.162616e-02 1.083126e-01 1.661918e-02 5.735942e-02 -3.902873e-01
<VARIANCE> 39
 1.989830e+01 2.193708e+01 1.351902e+01 2.594874e+01 2.417060e+01 3.691301e+01 3.148536e+01 2.611688e+01 1.725392e+01 1.801672e+01 2.101476e+01 1.646882e+01 8.837090e+01 1.826996e+00 1.799212e+00 1.562287e+00 2.129774e+00 2.643188e+00 3.395838e+00 3.252166e+00 2.916906e+00 1.850783e+00 2.339074e+00 2.600037e+00 1.749190e+00 4.768381e+00 2.592630e-01 3.495746e-01 2.685155e-01 4.015458e-01 4.405697e-01 6.298516e-01 5.873635e-01 5.225337e-01 2.979063e-01 3.759313e-01 4.369124e-01 2.983878e-01 1.294074e+00
<GCONST> 1.135080e+02
<STATE> 3
<NUMMIXES> 2
<MIXTURE> 1 7.434124e-01
<MEAN> 39
 5.841536e-01 2.755612e-02 2.481881e-01 4.611754e-01 3.904153e-01 3.132927e-01 2.256962e-01 -1.016604e-01 -1.786481e-01 -7.698130e-02 -1.111621e-01 2.642657e-02 -8.552593e-01 1.205786e-01 1.228688e-01 -2.631311e-02 1.812587e-01 1.313185e-01 1.723016e-01 8.165321e-02 2.418367e-02 -2.056408e-02 1.695913e-02 -8.142175e-03 1.174034e-03 -4.829603e-01 -9.579148e-03 -1.275575e-02 -1.358467e-02 -2.029669e-02 -2.552859e-02 -2.655067e-02 -2.249154e-02 -1.130926e-03 -5.123084e-04 2.747336e-03 6.792762e-03 -3.798263e-03 2.881145e-02
<VARIANCE> 39
 1.288673e+01 1.297096e+01 1.101260e+01 1.606562e+01 1.499511e+01 1.910316e+01 1.611574e+01 1.740401e+01 1.756981e+01 1.698538e+01 1.472080e+01 1.362487e+01 3.156157e+01 2.217969e-01 3.304575e-01 5.022764e-01 6.989605e-01 8.938524e-01 1.099077e+00 1.237440e+00 1.372468e+00 1.386884e+00 1.446622e+00 1.404705e+00 1.244279e+00 1.840818e-01 3.440799e-02 5.940024e-02 9.792548e-02 1.385325e-01 1.777476e-01 2.223299e-01 2.552964e-01 2.825383e-01 2.857139e-01 2.979819e-01 2.934487e-01 2.558130e-01 1.658902e-02
<GCONST> 7.862647e+01
<MIXTURE> 2 2.565875e-01
<MEAN> 39
 -1.326912e+00 5.574659e-02 -4.979764e-01 -1.293403e+00 -1.149517e+00 -8.172979e-01 -6.753722e-01 2.277741e-01 4.413466e-01 2.742558e-01 2.491494e-01 -8.780076e-02 2.194546e+00 -3.570334e-01 -3.144488e-01 7.100705e-02 -5.069535e-01 -3.834462e-01 -4.550942e-01 -2.147811e-01 -6.060164e-02 5.517395e-02 -4.364990e-02 2.260089e-02 9.117603e-04 1.326821e+00 2.906631e-02 3.493598e-02 3.420305e-02 5.551962e-02 7.004704e-02 6.967498e-02 5.930844e-02 4.010299e-03 9.840701e-05 -4.822361e-03 -1.350931e-02 1.019867e-02 -8.143010e-02
<VARIANCE> 39
 1.760132e+01 1.951579e+01 1.495301e+01 2.618190e+01 2.586316e+01 2.691245e+01 2.243532e+01 2.158172e+01 2.044412e+01 1.966419e+01 1.705265e+01 1.530646e+01 6.678606e+01 1.572679e+00 1.557239e+00 1.361115e+00 2.296474e+00 2.420603e+00 2.573827e+00 2.317463e+00 2.196542e+00 2.166588e+00 2.042554e+00 1.886523e+00 1.614041e+00 3.984286e+00 2.692423e-01 2.632348e-01 2.458512e-01 4.536357e-01 4.844702e-01 5.235443e-01 4.602992e-01 4.433329e-01 4.260685e-01 4.142402e-01 3.861150e-01 3.263639e-01 9.075398e-01
<GCONST> 1.097478e+02
<STATE> 4
<NUMMIXES> 2
<MIXTURE> 1 7.260771e-01
<MEAN> 39
 -1.998052e-03 5.281892e-01 -3.920970e-02 1.111219e+00 9.284950e-01 1.247324e+00 8.253489e-01 1.948602e-01 8.313951e-03 1.284765e-01 1.069969e-01 9.699278e-02 -1.523620e+00 2.440768e-02 7.131492e-02 -8.104472e-03 8.504871e-02 8.099675e-02 1.461350e-01 8.195817e-02 3.300509e-02 2.790364e-04 1.626371e-02 6.349603e-03 -7.462429e-03 -1.775974e-01 -7.524572e-03 -1.773925e-02 -1.475889e-02 -4.370237e-02 -4.877526e-02 -5.220166e-02 -3.877961e-02 -1.055515e-02 -4.919847e-03 -7.161225e-03 -9.454082e-03 -2.953199e-03 2.575686e-02
<VARIANCE> 39
 5.170577e+00 5.135741e+00 6.859084e+00 9.147837e+00 1.159396e+01 1.329234e+01 1.370078e+01 1.478926e+01 1.444829e+01 1.437438e+01 1.319206e+01 1.177038e+01 6.528617e+00 1.929129e-01 3.020804e-01 4.797460e-01 6.931158e-01 9.334869e-01 1.118479e+00 1.240690e+00 1.374924e+00 1.432959e+00 1.453674e+00 1.350476e+00 1.164001e+00 1.047334e-01 3.071387e-02 5.305890e-02 9.110802e-02 1.288751e-01 1.804091e-01 2.208525e-01 2.483612e-01 2.746021e-01 2.892562e-01 2.996345e-01 2.716681e-01 2.375150e-01 1.254117e-02
<GCONST> 7.092817e+01
<MIXTURE> 2 2.739350e-01
<MEAN> 39
 -1.442963e-01 -7.634183e-01 -3.852624e-01 -2.204406e+00 -2.046681e+00 -2.193827e+00 -1.469666e+00 -3.723965e-01 7.415091e-03 -2.117204e-01 -2.494282e-01 -2.703061e-01 2.376330e+00 -6.698599e-02 -1.648312e-01 -1.100062e-02 -2.064889e-01 -1.828804e-01 -3.154293e-01 -1.838901e-01 -8.943123e-02 1.609643e-03 -3.783307e-02 -1.622253e-02 2.322884e-02 4.042365e-01 2.048589e-02 4.307128e-02 4.084637e-02 1.077297e-01 1.231590e-01 1.382380e-01 1.032196e-01 3.215635e-02 2.047152e-02 2.156649e-02 2.391803e-02 1.167909e-02 -6.242208e-02
<VARIANCE> 39
 1.250058e+01 1.385178e+01 1.333265e+01 1.860620e+01 1.941182e+01 2.277658e+01 2.086136e+01 2.142330e+01 1.860717e+01 1.656779e+01 1.552637e+01 1.434811e+01 2.029786e+01 8.070543e-01 1.027398e+00 1.029827e+00 1.691316e+00 1.785020e+00 2.096104e+00 1.969278e+00 1.902078e+00 1.805242e+00 1.615822e+00 1.532479e+00 1.507414e+00 1.299989e+00 1.396763e-01 1.876697e-01 1.980122e-01 3.087128e-01 3.387341e-01 4.066955e-01 3.806791e-01 3.877026e-01 3.754147e-01 3.256725e-01 3.186900e-01 3.111517e-01 2.278582e-01
<GCONST> 9.764116e+01
<TRANSP> 5
 0.000000e+00 1.000000e+00 0.000000e+00 0.000000e+00 0.000000e+00
 0.000000e+00 8.855361e-01 1.144639e-01 0.000000e+00 0.000000e+00
 0.000000e+00 0.000000e+00 9.917160e-01 8.284084e-03 0.000000e+00
 0.000000e+00 0.000000e+00 0.000000e+00 9.909617e-01 9.038240e-03
 0.000000e+00 0.000000e+00 0.000000e+00 0.000000e+00 0.000000e+00
<ENDHMM>
~h "spe"
<BEGINHMM>
<NUMSTATES> 5
<STATE> 2
<NUMMIXES> 2
<MIXTURE> 1 4.805822e-01
<MEAN> 39
 -1.128310e+00 2.296178e+00 6.225588e-02 1.856619e+00 8.830577e-01 2.082652e+00 1.792517e+00 2.594267e-01 -2.838525e-01 6.743601e-01 1.501532e+00 6.927627e-01 -3.900551e-01 -6.243249e-02 1.592761e-01 5.931769e-02 1.251570e-01 7.690262e-02 2.034418e-01 1.271347e-02 -6.947104e-02 -1.601428e-02 1.054382e-01 1.652433e-01 6.677404e-02 -2.299031e-01 6.844930e-04 -4.142502e-02 -2.672905e-02 -3.518962e-02 -4.430373e-02 -6.408980e-02 -2.629433e-02 1.473569e-02 -6.686262e-03 -2.174222e-02 -3.568662e-02 -3.552841e-02 4.950467e-03
<VARIANCE> 39
 3.595382e+01 2.027438e+01 6.342099e+01 7.446969e+01 3.946590e+01 4.755140e+01 3.946074e+01 3.879198e+01 2.961703e+01 2.954345e+01 3.027681e+01 2.269312e+01 4.398254e+01 3.540348e-01 4.560371e-01 7.598192e-01 1.044293e+00 1.230065e+00 1.347916e+00 1.376045e+00 1.478585e+00 1.551065e+00 1.428368e+00 1.589636e+00 1.288738e+00 2.180341e-01 5.253804e-02 7.786343e-02 1.431210e-01 1.792967e-01 2.387578e-01 2.757260e-01 2.795122e-01 2.821195e-01 2.883673e-01 2.793065e-01 3.034305e-01 2.541610e-01 2.667961e-02
<GCONST> 9.471302e+01
<MIXTURE> 2 5.194175e-01
<MEAN> 39
 7.306862e-01 -1.912664e+00 6.194932e-01 -3.738176e+00 -1.568242e+00 -1.816355e+00 -1.552820e+00 1.634265e-01 3.227719e-01 -9.137030e-02 -1.139997e+00 -5.400825e-01 1.840068e+00 1.301726e-01 -4.154257e-01 6.946105e-02 -3.083912e-01 -1.584951e-01 -2.817375e-01 -1.744440e-01 1.294665e-01 7.664520e-02 3.862309e-02 -1.944040e-01 -1.293855e-01 5.685114e-01 -6.899071e-03 3.457509e-02 1.642123e-02 6.639545e-02 5.144279e-02 5.444065e-02 3.179978e-02 -3.582223e-02 -1.250925e-02 1.050526e-02 1.098795e-02 4.170786e-02 -2.257847e-02
<VARIANCE> 39
 2.300553e+01 3.614633e+01 7.056426e+01 4.704012e+01 5.023193e+01 5.141592e+01 4.717445e+01 6.743678e+01 4.236934e+01 3.771531e+01 3.374938e+01 3.349462e+01 1.772683e+01 1.177334e+00 1.878233e+00 2.271258e+00 2.712057e+00 3.060056e+00 2.959222e+00 3.129261e+00 3.884161e+00 3.638895e+00 2.922704e+00 2.649842e+00 2.424314e+00 7.249233e-01 1.523244e-01 2.684372e-01 2.904860e-01 4.174942e-01 4.519078e-01 5.196087e-01 4.964372e-01 6.473868e-01 6.135849e-01 5.135177e-01 4.756541e-01 4.539655e-01 1.067323e-01
<GCONST> 1.181111e+02
<STATE> 3
<NUMMIXES> 2
<MIXTURE> 1 4.290985e-01
<MEAN> 39
 -2.529925e+00 2.924912e+00 1.089597e+00 1.232342e+00 -1.510897e-01 -2.535536e+00 2.787440e-01 -9.949475e-01 -9.799703e-01 -7.590181e-01 5.624200e-01 1.700102e+00 6.025578e-01 -9.924935e-02 -3.859521e-02 9.736611e-03 -1.250242e-01 -2.387135e-01 -1.249465e-01 5.126329e-02 5.892691e-02 1.232730e-01 9.472042e-02 5.365825e-02 -3.842684e-02 1.340161e-01 5.367874e-02 -7.823300e-02 -2.882835e-03 -4.531191e-02 -3.584868e-03 5.490537e-02 -1.791474e-02 3.768083e-02 1.498435e-02 2.654126e-02 -2.427486e-02 -8.581011e-02 2.496593e-02
<VARIANCE> 39
 2.236819e+01 2.344103e+01 3.756343e+01 2.300968e+01 4.424240e+01 3.417473e+01 2.631678e+01 3.145672e+01 2.688728e+01 2.602465e+01 2.348548e+01 2.316549e+01 8.503922e+00 1.058499e+00 1.314955e+00 1.494529e+00 1.379079e+00 2.316751e+00 2.003866e+00 1.863095e+00 2.191042e+00 2.061796e+00 2.154506e+00 1.867366e+00 1.977025e+00 2.780845e-01 1.214421e-01 1.625209e-01 2.045362e-01 2.159048e-01 3.609864e-01 3.449204e-01 3.492700e-01 3.946687e-01 3.853607e-01 4.179798e-01 3.441218e-01 3.386622e-01 3.882591e-02
<GCONST> 1.009105e+02
<MIXTURE> 2 5.708995e-01
<MEAN> 39
 2.344405e+00 -2.941849e+00 5.308112e-01 -1.676842e+00 -1.230535e+00 7.095758e-01 -1.759372e+00 7.079434e-02 -5.131699e-01 -5.283167e-02 -1.133547e+00 -2.421945e+00 2.332603e+00 2.957215e-02 1.073861e-01 -4.681361e-02 1.728569e-01 2.129775e-01 9.069768e-02 7.739398e-03 -8.384161e-02 -1.084312e-01 -1.039136e-01 -5.181686e-02 2.709074e-02 -1.680333e-01 -4.126784e-02 6.230438e-02 -1.117322e-03 3.700138e-02 4.662648e-03 -3.758205e-02 2.511376e-02 -2.103367e-02 -6.540652e-03 -1.696708e-02 2.075403e-02 6.759634e-02 -2.720334e-02
<VARIANCE> 39
 5.337733e+00 1.976205e+01 4.187091e+01 2.439538e+01 4.540676e+01 3.442921e+01 2.664598e+01 3.741199e+01 3.043215e+01 2.820625e+01 3.433452e+01 2.671606e+01 1.239323e+01 1.849250e-01 4.755563e-01 6.711483e-01 8.455999e-01 1.278062e+00 1.371725e+00 1.397485e+00 1.717278e+00 1.565260e+00 1.575165e+00 1.567190e+00 1.525786e+00 1.285231e-01 3.128345e-02 7.272290e-02 1.111156e-01 1.521269e-01 2.451259e-01 2.461650e-01 2.711435e-01 3.255143e-01 3.172940e-01 3.117563e-01 3.066098e-01 2.878929e-01 1.476871e-02
<GCONST> 8.742216e+01
<STATE> 4
<NUMMIXES> 2
<MIXTURE> 1 5.410502e-01
<MEAN> 39
 -1.164417e+00 1.272511e+00 -2.261445e+00 2.101953e+00 2.982093e+00 2.273247e+00 3.354740e+00 7.279198e-01 7.783701e-01 5.920730e-01 9.937440e-01 1.737249e+00 -3.847864e+00 -1.651425e-02 2.201478e-02 -3.897804e-02 6.884396e-02 6.573952e-02 1.211130e-01 1.226162e-01 5.407484e-02 3.547733e-02 3.815946e-02 6.274673e-02 7.492390e-02 -1.030715e-01 9.490415e-03 -4.776805e-03 1.539817e-02 -2.705801e-02 -3.921607e-02 -3.814847e-02 -4.965488e-02 -1.964487e-02 -1.653400e-02 -1.327202e-02 -1.182809e-02 -2.616791e-02 2.251276e-02
<VARIANCE> 39
 7.736831e+00 8.004136e+00 1.255810e+01 1.124627e+01 1.599682e+01 1.961389e+01 1.796777e+01 1.893766e+01 1.826272e+01 1.841409e+01 1.646361e+01 1.507708e+01 3.951508e+00 1.716806e-01 3.041687e-01 5.201708e-01 6.897408e-01 9.178880e-01 1.194695e+00 1.249634e+00 1.448285e+00 1.429539e+00 1.398124e+00 1.427782e+00 1.275514e+00 6.595553e-02 2.831219e-02 5.443455e-02 9.776454e-02 1.329178e-01 1.786264e-01 2.339616e-01 2.387860e-01 2.832609e-01 2.768849e-01 2.702075e-01 2.799630e-01 2.462589e-01 8.887115e-03
<GCONST> 7.364221e+01
<MIXTURE> 2 4.589514e-01
<MEAN> 39
 1.092972e+00 -9.686389e-01 1.491719e+00 -1.500939e+00 -2.331059e+00 -1.779334e+00 -2.780600e+00 -4.156176e-01 3.419577e-02 -3.223231e-01 -6.725339e-01 -1.185674e+00 2.096739e+00 3.004022e-02 -4.067801e-02 3.268351e-02 -6.571688e-02 -5.294073e-02 -1.068987e-01 -1.292528e-01 -3.644244e-02 -3.002489e-02 -2.723508e-02 -5.358663e-02 -6.804959e-02 8.351871e-02 -1.264596e-02 6.202352e-03 -1.730663e-02 3.119865e-02 4.716330e-02 4.864549e-02 5.600724e-02 2.107733e-02 1.858601e-02 1.654287e-02 1.402798e-02 3.011433e-02 -2.519558e-02
<VARIANCE> 39
 1.135362e+01 2.792538e+01 4.438535e+01 2.676695e+01 5.434201e+01 3.495426e+01 3.326232e+01 3.629959e+01 3.379863e+01 3.116158e+01 3.555966e+01 2.553949e+01 1.100082e+01 3.790548e-01 9.114525e-01 1.103702e+00 1.321388e+00 1.834571e+00 1.704298e+00 1.806838e+00 1.858260e+00 2.020565e+00 1.818177e+00 1.856233e+00 1.536050e+00 3.777564e-01 5.026741e-02 1.203144e-01 1.483987e-01 2.028961e-01 2.612485e-01 2.875658e-01 3.103684e-01 3.436256e-01 3.784377e-01 3.455878e-01 3.355977e-01 2.888484e-01 3.501232e-02
<GCONST> 9.721445e+01
<TRANSP> 5
 0.000000e+00 1.000000e+00 0.000000e+00 0.000000e+00 0.000000e+00
 0.000000e+00 9.734365e-01 2.656350e-02 0.000000e+00 0.000000e+00
 0.000000e+00 0.000000e+00 9.925365e-01 7.463489e-03 0.000000e+00
 0.000000e+00 0.000000e+00 0.000000e+00 9.953734e-01 4.626551e-03
 0.000000e+00 0.000000e+00 0.000000e+00 0.000000e+00 0.000000e+00
<ENDHMM>
