~o
<STREAMINFO> 1 13
<VECSIZE> 13<NULLD><MFCC_0><DIAGC>
~h "ap"
<BEGINHMM>
<NUMSTATES> 5
<STATE> 2
<NUMMIXES> 4
<MIXTURE> 1 2.683654e-01
<MEAN> 13
 -6.668385e+00 -2.146840e+00 -1.241706e+00 -5.496762e-01 2.451653e+00 1.389528e+00 4.465916e+00 1.214191e+00 -4.930072e-01 1.026378e+00 1.198656e+00 -1.909753e+00 4.853520e+01
<VARIANCE> 13
 7.355803e+00 1.179181e+01 1.117894e+01 1.181565e+01 1.745118e+01 1.952559e+01 1.585155e+01 1.555820e+01 1.386514e+01 1.493455e+01 1.321247e+01 1.208779e+01 1.109564e+01
<GCONST> 5.739071e+01
<MIXTURE> 2 1.895891e-01
<MEAN> 13
 -1.208072e+01 -9.016453e+00 -3.325307e+00 9.038260e-01 2.877869e+00 -3.862606e+00 2.280411e+00 -3.320982e+00 -2.887476e+00 -1.313467e+00 1.207752e+00 -4.656841e-01 5.831502e+01
<VARIANCE> 13
 1.199727e+01 2.262842e+01 2.187538e+01 1.988356e+01 2.584773e+01 3.151258e+01 2.407599e+01 2.287667e+01 2.266899e+01 2.057502e+01 1.786926e+01 1.505014e+01 2.292178e+01
<GCONST> 6.345712e+01
<MIXTURE> 3 1.895912e-01
<MEAN> 13
 -1.208072e+01 -9.016452e+00 -3.325311e+00 9.038166e-01 2.877872e+00 -3.862606e+00 2.280405e+00 -3.320987e+00 -2.887480e+00 -1.313473e+00 1.207751e+00 -4.656827e-01 5.831502e+01
<VARIANCE> 13
 1.199725e+01 2.262842e+01 2.187543e+01 1.988362e+01 2.584766e+01 3.151253e+01 2.407597e+01 2.287663e+01 2.266903e+01 2.057501e+01 1.786922e+01 1.505011e+01 2.292173e+01
<GCONST> 6.345711e+01
<MIXTURE> 4 3.524516e-01
<MEAN> 13
 -1.724686e+01 -1.253973e+01 -8.195831e+00 -2.370928e+00 -2.405419e+00 -6.958956e+00 -5.229515e-01 -4.897314e+00 -3.765514e+00 -1.872885e+00 -5.267040e-01 -1.143949e+00 7.308057e+01
<VARIANCE> 13
 1.289420e+01 2.646929e+01 2.398799e+01 2.423930e+01 3.139348e+01 3.301920e+01 2.402798e+01 2.227508e+01 2.347003e+01 1.948178e+01 2.039333e+01 1.602117e+01 3.276208e+01
<GCONST> 6.472067e+01
<STATE> 3
<NUMMIXES> 4
<MIXTURE> 1 2.978821e-01
<MEAN> 13
 -7.132204e+00 -1.172201e+01 -6.534319e+00 3.707451e+00 6.008321e+00 -4.935695e+00 1.389391e+00 8.602725e-02 -4.299966e+00 -2.709571e+00 1.350191e+00 -8.512544e-01 5.704745e+01
<VARIANCE> 13
 7.207804e+00 1.769778e+01 9.527227e+00 1.923775e+01 2.497481e+01 1.779096e+01 2.131188e+01 1.874487e+01 2.220513e+01 1.850017e+01 1.519944e+01 1.258495e+01 2.227905e+01
<GCONST> 6.041428e+01
<MIXTURE> 2 2.024493e-01
<MEAN> 13
 -9.984270e+00 -1.644841e+01 -1.126266e+01 1.795683e+00 1.943040e+00 -9.746874e+00 -7.121931e-01 -1.745445e+00 -5.573488e+00 -4.613322e+00 1.029883e+00 -4.880241e-01 6.791356e+01
<VARIANCE> 13
 7.038567e+00 1.084777e+01 1.116753e+01 1.656758e+01 2.163590e+01 1.525996e+01 2.182179e+01 1.698378e+01 2.488165e+01 2.077549e+01 1.454339e+01 1.599972e+01 1.838315e+01
<GCONST> 5.977203e+01
<MIXTURE> 3 2.024493e-01
<MEAN> 13
 -9.984270e+00 -1.644841e+01 -1.126266e+01 1.795683e+00 1.943040e+00 -9.746874e+00 -7.121931e-01 -1.745445e+00 -5.573488e+00 -4.613322e+00 1.029883e+00 -4.880241e-01 6.791356e+01
<VARIANCE> 13
 7.038567e+00 1.084777e+01 1.116753e+01 1.656758e+01 2.163590e+01 1.525996e+01 2.182179e+01 1.698378e+01 2.488165e+01 2.077549e+01 1.454339e+01 1.599972e+01 1.838315e+01
<GCONST> 5.977203e+01
<MIXTURE> 4 2.972170e-01
<MEAN> 13
 -1.350070e+01 -1.796424e+01 -1.354717e+01 -3.104033e-02 -2.351044e+00 -1.256687e+01 -2.537173e+00 -2.019860e+00 -7.053959e+00 -5.601211e+00 -6.962937e-01 -1.986799e+00 7.968328e+01
<VARIANCE> 13
 7.626449e+00 8.905677e+00 1.142791e+01 1.629639e+01 2.256601e+01 1.735608e+01 2.574657e+01 1.671362e+01 2.717479e+01 1.801564e+01 1.696389e+01 1.551013e+01 1.507449e+01
<GCONST> 5.985174e+01
<STATE> 4
<NUMMIXES> 4
<MIXTURE> 1 2.560531e-01
<MEAN> 13
 -5.288458e+00 -4.064422e+00 -5.038735e-01 2.086109e+00 1.848782e+00 7.439272e-01 4.572443e+00 2.093840e+00 -1.447555e+00 1.099457e+00 1.837847e+00 -2.380357e+00 4.722290e+01
<VARIANCE> 13
 4.688839e+00 2.261654e+01 8.393365e+00 2.075796e+01 1.503434e+01 1.697265e+01 1.612850e+01 1.769804e+01 1.649014e+01 1.564265e+01 1.252764e+01 1.189288e+01 1.183899e+01
<GCONST> 5.794066e+01
<MIXTURE> 2 1.871210e-01
<MEAN> 13
 -8.518524e+00 -1.522921e+01 -3.509823e+00 5.735719e+00 -5.678207e-01 -4.788799e+00 5.350888e+00 -4.173753e+00 -5.206095e+00 2.264658e-01 1.244728e+00 -1.617513e+00 5.862368e+01
<VARIANCE> 13
 1.193897e+01 2.594835e+01 1.293704e+01 1.753053e+01 1.810148e+01 1.830573e+01 1.805016e+01 2.066863e+01 2.118056e+01 1.919288e+01 1.643192e+01 1.421559e+01 2.177137e+01
<GCONST> 6.131912e+01
<MIXTURE> 3 1.871210e-01
<MEAN> 13
 -8.518524e+00 -1.522921e+01 -3.509823e+00 5.735719e+00 -5.678207e-01 -4.788799e+00 5.350888e+00 -4.173753e+00 -5.206095e+00 2.264658e-01 1.244728e+00 -1.617513e+00 5.862368e+01
<VARIANCE> 13
 1.193897e+01 2.594835e+01 1.293704e+01 1.753053e+01 1.810148e+01 1.830573e+01 1.805016e+01 2.066863e+01 2.118056e+01 1.919288e+01 1.643192e+01 1.421559e+01 2.177137e+01
<GCONST> 6.131912e+01
<MIXTURE> 4 3.697019e-01
<MEAN> 13
 -1.307193e+01 -1.974369e+01 -8.064976e+00 2.184802e+00 -6.664153e+00 -8.905739e+00 3.140907e+00 -5.668993e+00 -6.069875e+00 -6.387600e-01 -3.914358e-01 -2.487072e+00 7.393908e+01
<VARIANCE> 13
 1.191547e+01 2.169250e+01 1.388879e+01 1.780965e+01 2.331868e+01 1.917592e+01 1.859634e+01 2.000895e+01 2.123982e+01 1.917941e+01 1.918580e+01 1.525476e+01 3.593797e+01
<GCONST> 6.225066e+01
<TRANSP> 5
 0.000000e+00 1.000000e+00 0.000000e+00 0.000000e+00 0.000000e+00
 0.000000e+00 9.929738e-01 7.026220e-03 0.000000e+00 0.000000e+00
 0.000000e+00 0.000000e+00 9.834794e-01 1.652058e-02 0.000000e+00
 0.000000e+00 0.000000e+00 0.000000e+00 9.879897e-01 1.201035e-02
 0.000000e+00 0.000000e+00 0.000000e+00 0.000000e+00 0.000000e+00
<ENDHMM>
~h "cl"
<BEGINHMM>
<NUMSTATES> 5
<STATE> 2
<NUMMIXES> 4
<MIXTURE> 1 2.782492e-01
<MEAN> 13
 -7.497524e+00 -9.745497e-01 -1.004970e+00 -2.254156e+00 9.976863e-01 5.222602e+00 4.596618e+00 1.670266e+00 1.277941e+00 1.507100e+00 -3.858730e-01 -8.005316e-01 4.895490e+01
<VARIANCE> 13
 1.856270e+01 1.323073e+01 2.144383e+01 1.112661e+01 1.443629e+01 1.914564e+01 1.575088e+01 1.639207e+01 1.968786e+01 1.742240e+01 1.885595e+01 1.654869e+01 1.329760e+01
<GCONST> 6.021487e+01
<MIXTURE> 2 3.163697e-01
<MEAN> 13
 -2.135848e+01 1.394117e+00 4.670436e+00 -4.045298e+00 -3.318672e+00 9.340714e+00 3.880405e+00 -2.809357e+00 4.115991e+00 2.154424e+00 -8.891341e+00 4.177132e+00 5.586018e+01
<VARIANCE> 13
 4.060239e+01 8.698997e+00 2.376479e+01 1.308588e+01 1.465832e+01 2.299883e+01 2.318025e+01 3.071212e+01 3.148608e+01 2.490224e+01 2.205510e+01 1.937968e+01 2.634910e+01
<GCONST> 6.388129e+01
<MIXTURE> 3 3.163697e-01
<MEAN> 13
 -2.135848e+01 1.394117e+00 4.670436e+00 -4.045298e+00 -3.318672e+00 9.340714e+00 3.880405e+00 -2.809357e+00 4.115991e+00 2.154424e+00 -8.891341e+00 4.177132e+00 5.586018e+01
<VARIANCE> 13
 4.060239e+01 8.698997e+00 2.376479e+01 1.308588e+01 1.465832e+01 2.299883e+01 2.318025e+01 3.071212e+01 3.148608e+01 2.490224e+01 2.205510e+01 1.937968e+01 2.634910e+01
<GCONST> 6.388129e+01
<MIXTURE> 4 8.900715e-02
<MEAN> 13
 -1.311677e+01 -8.594687e+00 -3.045664e+00 -1.156531e+00 -2.109335e+00 -3.869678e+00 1.829105e-01 -1.652726e+00 -1.451093e+00 -2.119101e+00 -3.141835e-01 -1.330100e+00 6.463844e+01
<VARIANCE> 13
 3.202082e+01 2.956450e+01 1.197988e+01 1.834396e+01 2.408750e+01 2.036671e+01 3.211676e+01 2.166284e+01 3.316255e+01 2.362555e+01 1.882914e+01 1.578749e+01 8.143684e+01
<GCONST> 6.563667e+01
<STATE> 3
<NUMMIXES> 4
<MIXTURE> 1 2.692392e-01
<MEAN> 13
 -2.453406e+01 3.876549e+00 3.235964e-01 -4.301846e+00 -2.944723e+00 1.342271e+01 3.916728e+00 -2.501722e+00 7.846352e+00 -3.526005e+00 -3.565813e+00 5.168440e+00 6.139134e+01
<VARIANCE> 13
 1.480048e+01 5.250956e+00 1.255330e+01 8.554543e+00 1.108744e+01 2.745368e+01 1.667787e+01 1.812005e+01 1.940382e+01 1.955410e+01 1.962678e+01 2.030613e+01 9.343188e+00
<GCONST> 5.851245e+01
<MIXTURE> 2 2.555371e-01
<MEAN> 13
 -2.031325e+01 2.931534e+00 9.055457e-01 -6.342902e+00 -5.296509e+00 1.343515e+01 -9.520945e-01 -4.173603e+00 8.988802e+00 -4.254520e+00 -4.074688e+00 6.460954e+00 5.864528e+01
<VARIANCE> 13
 3.159731e+01 7.446428e+00 1.695395e+01 1.168897e+01 1.703428e+01 2.489841e+01 2.023282e+01 2.121090e+01 2.213816e+01 1.914711e+01 1.785385e+01 1.659378e+01 1.610987e+01
<GCONST> 6.127434e+01
<MIXTURE> 3 2.555347e-01
<MEAN> 13
 -2.031325e+01 2.931535e+00 9.055378e-01 -6.342893e+00 -5.296496e+00 1.343513e+01 -9.520807e-01 -4.173600e+00 8.988784e+00 -4.254526e+00 -4.074689e+00 6.460945e+00 5.864528e+01
<VARIANCE> 13
 3.159742e+01 7.446463e+00 1.695391e+01 1.168899e+01 1.703419e+01 2.489847e+01 2.023285e+01 2.121100e+01 2.213822e+01 1.914708e+01 1.785388e+01 1.659384e+01 1.610995e+01
<GCONST> 6.127437e+01
<MIXTURE> 4 2.196847e-01
<MEAN> 13
 -1.035646e+01 9.130987e-01 -4.037481e+00 -4.353111e+00 -2.871127e+00 6.610583e+00 2.485418e-01 -3.737365e+00 3.228466e+00 -1.776477e+00 -1.571690e+00 2.722236e+00 5.526625e+01
<VARIANCE> 13
 3.610840e+01 1.820358e+01 1.816415e+01 1.488063e+01 2.153420e+01 3.332129e+01 3.003330e+01 3.024566e+01 2.588620e+01 1.918810e+01 1.706749e+01 1.899643e+01 2.728786e+01
<GCONST> 6.466342e+01
<STATE> 4
<NUMMIXES> 4
<MIXTURE> 1 3.185084e-01
<MEAN> 13
 -1.651608e+01 2.095730e+00 7.552623e+00 -2.569012e+00 -6.099435e+00 1.026206e+01 3.335344e+00 -6.407724e+00 4.000237e+00 4.867949e+00 -9.961446e+00 3.714528e+00 5.184578e+01
<VARIANCE> 13
 2.545037e+01 8.448074e+00 1.353710e+01 1.909109e+01 2.323057e+01 2.632895e+01 2.357140e+01 3.255604e+01 3.246399e+01 3.521719e+01 2.307160e+01 2.071532e+01 1.206436e+01
<GCONST> 6.357826e+01
<MIXTURE> 2 2.258820e-01
<MEAN> 13
 -2.627354e+01 8.060323e-01 5.282373e+00 -2.224270e+00 -5.835919e+00 1.053767e+01 2.178318e+00 -4.777173e+00 1.711166e+00 5.314049e+00 -1.118563e+01 3.645806e+00 6.054374e+01
<VARIANCE> 13
 1.042835e+01 7.751550e+00 1.149397e+01 1.622601e+01 2.096770e+01 2.931903e+01 2.304881e+01 3.370714e+01 2.940816e+01 2.676928e+01 1.887705e+01 2.027941e+01 1.335328e+01
<GCONST> 6.179765e+01
<MIXTURE> 3 2.258820e-01
<MEAN> 13
 -2.627354e+01 8.060323e-01 5.282373e+00 -2.224270e+00 -5.835919e+00 1.053767e+01 2.178318e+00 -4.777173e+00 1.711166e+00 5.314049e+00 -1.118563e+01 3.645806e+00 6.054374e+01
<VARIANCE> 13
 1.042835e+01 7.751550e+00 1.149397e+01 1.622601e+01 2.096770e+01 2.931903e+01 2.304881e+01 3.370714e+01 2.940816e+01 2.676928e+01 1.887705e+01 2.027941e+01 1.335328e+01
<GCONST> 6.179765e+01
<MIXTURE> 4 2.297235e-01
<MEAN> 13
 -2.336022e+01 8.574608e-02 8.325311e+00 -4.141840e+00 -1.118539e+01 1.225785e+01 -3.267599e+00 -1.396532e+01 3.225890e+00 3.743290e+00 -1.682761e+01 9.395966e+00 6.156745e+01
<VARIANCE> 13
 1.723499e+01 8.849316e+00 1.049002e+01 1.356589e+01 1.928394e+01 3.454374e+01 2.020042e+01 2.932554e+01 4.446044e+01 2.405117e+01 2.143407e+01 4.219227e+01 2.429551e+01
<GCONST> 6.373562e+01
<TRANSP> 5
 0.000000e+00 1.000000e+00 0.000000e+00 0.000000e+00 0.000000e+00
 0.000000e+00 9.736439e-01 2.635611e-02 0.000000e+00 0.000000e+00
 0.000000e+00 0.000000e+00 9.922857e-01 7.714342e-03 0.000000e+00
 0.000000e+00 0.000000e+00 0.000000e+00 9.925741e-01 7.425881e-03
 0.000000e+00 0.000000e+00 0.000000e+00 0.000000e+00 0.000000e+00
<ENDHMM>
~h "cm"
<BEGINHMM>
<NUMSTATES> 5
<STATE> 2
<NUMMIXES> 4
<MIXTURE> 1 2.440119e-01
<MEAN> 13
 -1.079409e+01 1.608414e+00 -3.495722e-01 -2.780882e+00 7.587792e-01 1.758222e+00 1.453760e+00 2.061368e+00 1.045080e-01 8.148543e-01 1.314959e+00 -1.980203e+00 5.289153e+01
<VARIANCE> 13
 1.419103e+01 1.291048e+01 1.061634e+01 1.171087e+01 1.231431e+01 1.527625e+01 1.260898e+01 1.573533e+01 1.646961e+01 1.680166e+01 1.501348e+01 1.370404e+01 1.555735e+01
<GCONST> 5.814751e+01
<MIXTURE> 2 2.424126e-01
<MEAN> 13
 -1.355896e+01 -1.621131e+00 -4.343571e+00 -6.070152e+00 -4.027942e-01 1.654906e+00 -2.877374e-01 1.151371e+00 -1.585479e+00 1.260850e+00 3.258052e+00 -5.231487e-01 5.877597e+01
<VARIANCE> 13
 1.322338e+01 1.169037e+01 8.001379e+00 1.114530e+01 1.555152e+01 1.344352e+01 1.214635e+01 1.313227e+01 1.409575e+01 1.392170e+01 1.426415e+01 1.277173e+01 1.002257e+01
<GCONST> 5.662769e+01
<MIXTURE> 3 2.424150e-01
<MEAN> 13
 -1.355911e+01 -1.621079e+00 -4.343566e+00 -6.070147e+00 -4.027016e-01 1.654956e+00 -2.877916e-01 1.151391e+00 -1.585515e+00 1.260833e+00 3.258104e+00 -5.230783e-01 5.877602e+01
<VARIANCE> 13
 1.322203e+01 1.169004e+01 8.001254e+00 1.114519e+01 1.555109e+01 1.344333e+01 1.214620e+01 1.313205e+01 1.409559e+01 1.392158e+01 1.426403e+01 1.277153e+01 1.002232e+01
<GCONST> 5.662739e+01
<MIXTURE> 4 2.711566e-01
<MEAN> 13
 -1.297847e+01 2.226286e-01 -2.214586e+00 -5.518501e+00 -1.602913e+00 -2.273112e+00 -5.507311e+00 -3.813173e+00 -4.898806e+00 8.446920e-01 4.235142e+00 1.228081e+00 5.940926e+01
<VARIANCE> 13
 1.064132e+01 1.393568e+01 9.816946e+00 1.164121e+01 1.073565e+01 1.211320e+01 1.093241e+01 1.186563e+01 1.460842e+01 2.072789e+01 2.392726e+01 2.042852e+01 1.872532e+01
<GCONST> 5.819841e+01
<STATE> 3
<NUMMIXES> 4
<MIXTURE> 1 2.380521e-01
<MEAN> 13
 -1.153791e+01 -1.338181e+00 -2.225824e+00 -2.583116e+00 2.052473e+00 2.528121e+00 2.449435e-01 7.088271e-01 -2.312615e+00 -8.414427e-01 7.549384e-01 -2.071613e+00 6.235925e+01
<VARIANCE> 13
 9.731536e+00 1.294889e+01 1.179926e+01 1.135969e+01 1.340780e+01 1.092160e+01 1.354837e+01 1.701341e+01 1.517763e+01 1.289089e+01 1.396035e+01 1.419653e+01 1.968330e+01
<GCONST> 5.759908e+01
<MIXTURE> 2 2.398890e-01
<MEAN> 13
 -8.202423e+00 -1.974476e-01 -3.130224e+00 -3.222504e+00 -4.343926e-01 -6.553854e-01 -2.677490e+00 -2.320618e+00 -4.812354e+00 -2.382781e+00 -1.539318e+00 -2.475294e+00 6.688835e+01
<VARIANCE> 13
 9.308814e+00 1.102557e+01 1.231360e+01 1.247235e+01 1.135475e+01 9.868852e+00 1.210380e+01 1.447652e+01 1.576131e+01 1.603314e+01 1.454701e+01 1.317261e+01 4.094897e+01
<GCONST> 5.794294e+01
<MIXTURE> 3 2.398886e-01
<MEAN> 13
 -8.202424e+00 -1.974618e-01 -3.130234e+00 -3.222511e+00 -4.343962e-01 -6.553862e-01 -2.677477e+00 -2.320605e+00 -4.812340e+00 -2.382767e+00 -1.539317e+00 -2.475288e+00 6.688838e+01
<VARIANCE> 13
 9.308812e+00 1.102560e+01 1.231361e+01 1.247243e+01 1.135478e+01 9.868866e+00 1.210386e+01 1.447658e+01 1.576133e+01 1.603314e+01 1.454701e+01 1.317261e+01 4.094915e+01
<GCONST> 5.794297e+01
<MIXTURE> 4 2.821710e-01
<MEAN> 13
 -8.684087e+00 -1.782372e+00 -5.200269e+00 -5.236938e+00 -3.748340e+00 -3.744497e+00 -5.716297e+00 -4.540941e+00 -6.248878e+00 -2.809775e+00 -2.574446e+00 -2.170455e+00 7.248897e+01
<VARIANCE> 13
 7.824318e+00 1.456635e+01 1.752521e+01 1.640297e+01 1.322983e+01 1.439926e+01 1.288108e+01 1.931327e+01 1.965981e+01 1.747237e+01 1.860595e+01 1.635501e+01 4.551381e+01
<GCONST> 6.043089e+01
<STATE> 4
<NUMMIXES> 4
<MIXTURE> 1 3.118488e-01
<MEAN> 13
 -5.436898e+00 2.978035e+00 1.994039e-01 -9.661789e-01 2.156982e+00 5.772406e-01 -1.976765e+00 -2.242560e+00 -4.035048e+00 -2.499618e+00 -7.390705e-01 -2.854690e+00 5.822874e+01
<VARIANCE> 13
 1.503890e+01 8.557332e+00 8.704972e+00 8.372915e+00 9.644009e+00 1.223778e+01 1.572054e+01 1.788259e+01 1.718353e+01 1.625477e+01 1.437570e+01 1.355189e+01 3.681566e+01
<GCONST> 5.795871e+01
<MIXTURE> 2 2.190800e-01
<MEAN> 13
 -4.196448e+00 5.976788e-01 -2.989138e+00 -4.294708e+00 -1.327481e+00 -1.730766e+00 -2.884243e+00 -1.830429e+00 -3.223628e+00 -2.169124e+00 -1.551394e+00 -3.089483e+00 6.887092e+01
<VARIANCE> 13
 4.012185e+00 6.100967e+00 6.385983e+00 7.221596e+00 9.602081e+00 9.743179e+00 1.338744e+01 1.736001e+01 1.563907e+01 1.461093e+01 1.421265e+01 1.157843e+01 3.050169e+01
<GCONST> 5.486100e+01
<MIXTURE> 3 2.190802e-01
<MEAN> 13
 -4.196447e+00 5.976897e-01 -2.989116e+00 -4.294689e+00 -1.327474e+00 -1.730790e+00 -2.884288e+00 -1.830487e+00 -3.223679e+00 -2.169163e+00 -1.551414e+00 -3.089495e+00 6.887090e+01
<VARIANCE> 13
 4.012173e+00 6.100980e+00 6.385971e+00 7.221586e+00 9.602102e+00 9.743158e+00 1.338746e+01 1.735995e+01 1.563902e+01 1.461090e+01 1.421264e+01 1.157845e+01 3.050165e+01
<GCONST> 5.486098e+01
<MIXTURE> 4 2.499841e-01
<MEAN> 13
 -5.308848e+00 -1.930349e+00 -4.343534e+00 -7.578835e+00 -3.397847e+00 -3.980870e+00 -4.854374e+00 -3.064066e+00 -4.185939e+00 -2.990214e+00 -2.227490e+00 -2.899238e+00 7.463422e+01
<VARIANCE> 13
 2.942018e+00 5.832715e+00 6.569553e+00 8.360792e+00 9.835137e+00 9.561574e+00 1.295569e+01 1.479657e+01 1.471119e+01 1.386506e+01 1.270308e+01 1.169466e+01 1.544683e+01
<GCONST> 5.359698e+01
<TRANSP> 5
 0.000000e+00 1.000000e+00 0.000000e+00 0.000000e+00 0.000000e+00
 0.000000e+00 9.664909e-01 3.350908e-02 0.000000e+00 0.000000e+00
 0.000000e+00 0.000000e+00 9.674720e-01 3.252798e-02 0.000000e+00
 0.000000e+00 0.000000e+00 0.000000e+00 9.830548e-01 1.694524e-02
 0.000000e+00 0.000000e+00 0.000000e+00 0.000000e+00 0.000000e+00
<ENDHMM>
~h "co"
<BEGINHMM>
<NUMSTATES> 5
<STATE> 2
<NUMMIXES> 4
<MIXTURE> 1 2.777018e-01
<MEAN> 13
 -5.097327e+00 -3.286532e+00 -1.866904e-02 -6.355467e-01 7.593873e-01 2.411983e+00 3.810016e+00 2.083111e+00 8.280224e-01 -5.436034e-01 -6.016551e-01 -3.583557e+00 4.948273e+01
<VARIANCE> 13
 6.076070e+00 1.330346e+01 1.803060e+01 1.963310e+01 1.143773e+01 1.287780e+01 1.653506e+01 1.573773e+01 1.878221e+01 1.764465e+01 1.588109e+01 1.397897e+01 1.183735e+01
<GCONST> 5.838532e+01
<MIXTURE> 2 2.450146e-01
<MEAN> 13
 -7.383516e+00 -5.652505e+00 3.166618e+00 5.567737e-01 -7.475675e+00 -2.533198e+00 -2.903632e+00 -3.223304e+00 -1.881173e+00 -4.857823e+00 -7.565594e+00 -8.269145e+00 6.599625e+01
<VARIANCE> 13
 1.531495e+01 1.019001e+01 1.379030e+01 2.466589e+01 3.332634e+01 2.420426e+01 2.845897e+01 3.017446e+01 2.446792e+01 2.461512e+01 3.870297e+01 1.688950e+01 4.443761e+01
<GCONST> 6.489777e+01
<MIXTURE> 3 2.450165e-01
<MEAN> 13
 -7.383575e+00 -5.652498e+00 3.166623e+00 5.567105e-01 -7.475722e+00 -2.533227e+00 -2.903585e+00 -3.223291e+00 -1.881194e+00 -4.857831e+00 -7.565533e+00 -8.269136e+00 6.599632e+01
<VARIANCE> 13
 1.531484e+01 1.019002e+01 1.379027e+01 2.466587e+01 3.332642e+01 2.420428e+01 2.845915e+01 3.017457e+01 2.446798e+01 2.461495e+01 3.870282e+01 1.688951e+01 4.443742e+01
<GCONST> 6.489777e+01
<MIXTURE> 4 2.322654e-01
<MEAN> 13
 -5.008421e+00 -9.046120e+00 -9.283442e-01 3.066015e+00 -1.546851e+01 -6.426437e+00 -8.768281e+00 -3.181340e+00 4.134950e+00 -6.887452e-01 -5.813972e+00 -9.154209e+00 6.398467e+01
<VARIANCE> 13
 1.070163e+01 3.306965e+01 4.634925e+01 2.899002e+01 8.414953e+01 5.180351e+01 6.377210e+01 7.305543e+01 6.076530e+01 5.796968e+01 7.341396e+01 4.591413e+01 3.323034e+01
<GCONST> 7.358444e+01
<STATE> 3
<NUMMIXES> 4
<MIXTURE> 1 2.232407e-01
<MEAN> 13
 -1.035444e+01 -5.849685e+00 2.591218e+00 -1.349971e-01 -4.494579e+00 -6.830945e+00 4.467058e-01 -8.903520e+00 -6.403300e+00 -2.297275e+00 -5.394975e-01 -4.698105e+00 6.700442e+01
<VARIANCE> 13
 2.231588e+01 1.112799e+01 1.160586e+01 1.565596e+01 2.151965e+01 2.395439e+01 3.308253e+01 4.412325e+01 2.455444e+01 2.740919e+01 2.136934e+01 2.437272e+01 4.542541e+01
<GCONST> 6.472391e+01
<MIXTURE> 2 2.183665e-01
<MEAN> 13
 -3.231612e+00 -7.270406e+00 -1.088746e+00 -2.671210e+00 -5.524922e+00 -6.117495e+00 -1.115042e+01 -6.147378e+00 -4.122766e+00 -5.349393e+00 -5.006378e+00 -1.230199e+01 6.485255e+01
<VARIANCE> 13
 5.526041e+00 1.209388e+01 1.684705e+01 1.596558e+01 2.428708e+01 4.379012e+01 4.379390e+01 4.944284e+01 4.384200e+01 5.368847e+01 3.026273e+01 3.717635e+01 2.935798e+01
<GCONST> 6.650780e+01
<MIXTURE> 3 2.183650e-01
<MEAN> 13
 -3.231622e+00 -7.270373e+00 -1.088759e+00 -2.671206e+00 -5.524931e+00 -6.117561e+00 -1.115038e+01 -6.147418e+00 -4.122802e+00 -5.349396e+00 -5.006384e+00 -1.230195e+01 6.485255e+01
<VARIANCE> 13
 5.526044e+00 1.209376e+01 1.684700e+01 1.596558e+01 2.428700e+01 4.378983e+01 4.379351e+01 4.944263e+01 4.384205e+01 5.368820e+01 3.026281e+01 3.717646e+01 2.935798e+01
<GCONST> 6.650776e+01
<MIXTURE> 4 3.400233e-01
<MEAN> 13
 -8.002449e+00 -6.593222e+00 -3.011732e+00 -4.129486e+00 -1.178461e+01 -1.063938e+01 -6.789212e+00 -5.527067e+00 -4.883317e+00 -6.646700e+00 -5.835611e+00 -9.776722e+00 7.338649e+01
<VARIANCE> 13
 5.666909e+00 1.198666e+01 2.389229e+01 2.011297e+01 2.901547e+01 2.535501e+01 3.885422e+01 6.473846e+01 4.839730e+01 3.508635e+01 3.737408e+01 3.847456e+01 1.155408e+01
<GCONST> 6.587201e+01
<STATE> 4
<NUMMIXES> 4
<MIXTURE> 1 2.447641e-01
<MEAN> 13
 -3.064013e+00 1.663396e+00 5.040744e+00 2.629562e+00 3.374588e+00 4.110633e-01 -8.633978e-01 -2.033007e+00 -4.145079e+00 -3.383946e+00 -3.318419e+00 -7.355423e+00 4.785239e+01
<VARIANCE> 13
 8.186681e+00 9.906618e+00 1.524680e+01 2.000551e+01 1.612997e+01 1.329046e+01 2.004327e+01 2.796657e+01 2.220066e+01 1.847284e+01 1.825218e+01 1.521681e+01 1.165896e+01
<GCONST> 5.980430e+01
<MIXTURE> 2 2.435772e-01
<MEAN> 13
 -3.201212e+00 -2.674443e+00 4.666381e+00 2.773458e+00 -3.326460e-01 -4.620368e+00 -5.174383e+00 -8.016884e+00 -5.224414e+00 -4.343629e+00 -3.181158e+00 -7.445786e+00 5.748716e+01
<VARIANCE> 13
 1.357030e+01 7.563115e+00 1.283061e+01 2.173233e+01 2.214628e+01 1.984475e+01 2.542011e+01 3.541475e+01 2.872729e+01 2.706523e+01 2.721190e+01 2.276528e+01 2.923575e+01
<GCONST> 6.350286e+01
<MIXTURE> 3 2.435772e-01
<MEAN> 13
 -3.201212e+00 -2.674443e+00 4.666381e+00 2.773458e+00 -3.326460e-01 -4.620368e+00 -5.174383e+00 -8.016884e+00 -5.224414e+00 -4.343629e+00 -3.181158e+00 -7.445786e+00 5.748716e+01
<VARIANCE> 13
 1.357030e+01 7.563115e+00 1.283061e+01 2.173233e+01 2.214628e+01 1.984475e+01 2.542011e+01 3.541475e+01 2.872729e+01 2.706523e+01 2.721190e+01 2.276528e+01 2.923575e+01
<GCONST> 6.350286e+01
<MIXTURE> 4 2.680797e-01
<MEAN> 13
 -4.585883e+00 -6.553016e+00 4.860113e+00 2.326483e+00 -7.622458e+00 -6.289142e+00 -8.668221e+00 -8.604040e+00 -5.243482e+00 -3.947653e+00 -3.748880e+00 -8.740534e+00 6.438302e+01
<VARIANCE> 13
 1.635770e+01 2.055202e+01 2.581482e+01 3.529827e+01 3.947792e+01 4.254068e+01 4.648141e+01 6.592971e+01 4.398793e+01 4.368307e+01 4.646185e+01 2.666910e+01 2.593491e+01
<GCONST> 6.991730e+01
<TRANSP> 5
 0.000000e+00 1.000000e+00 0.000000e+00 0.000000e+00 0.000000e+00
 0.000000e+00 9.443347e-01 5.566536e-02 0.000000e+00 0.000000e+00
 0.000000e+00 0.000000e+00 9.835358e-01 1.646424e-02 0.000000e+00
 0.000000e+00 0.000000e+00 0.000000e+00 9.777539e-01 2.224610e-02
 0.000000e+00 0.000000e+00 0.000000e+00 0.000000e+00 0.000000e+00
<ENDHMM>
~h "ds"
<BEGINHMM>
<NUMSTATES> 5
<STATE> 2
<NUMMIXES> 4
<MIXTURE> 1 3.419731e-01
<MEAN> 13
 -1.091409e+01 1.574448e+00 2.496758e+00 1.658832e+00 2.578933e+00 -1.014967e-01 5.433110e+00 -1.702057e+00 1.977600e+00 1.129982e+00 3.961886e+00 2.423347e-01 6.237119e+01
<VARIANCE> 13
 1.730476e+01 1.507937e+01 9.312184e+00 1.207498e+01 1.438722e+01 1.793384e+01 2.452077e+01 2.915090e+01 2.842962e+01 2.263841e+01 2.228253e+01 1.881391e+01 1.021635e+02
<GCONST> 6.343626e+01
<MIXTURE> 2 2.314130e-01
<MEAN> 13
 -1.537588e+01 4.823626e-01 -9.111567e-01 -3.202645e-04 -2.253407e+00 -2.484356e+00 1.552872e+00 -3.567848e+00 1.577101e+00 2.950275e+00 4.623429e+00 2.271904e-01 6.996654e+01
<VARIANCE> 13
 5.971125e+00 3.714895e+00 5.038081e+00 8.820121e+00 1.070363e+01 9.957674e+00 1.340923e+01 1.357180e+01 1.476649e+01 1.373761e+01 1.312546e+01 1.244869e+01 2.052141e+01
<GCONST> 5.408875e+01
<MIXTURE> 3 2.314124e-01
<MEAN> 13
 -1.537588e+01 4.823634e-01 -9.111559e-01 -3.163408e-04 -2.253405e+00 -2.484354e+00 1.552865e+00 -3.567854e+00 1.577092e+00 2.950255e+00 4.623411e+00 2.271794e-01 6.996653e+01
<VARIANCE> 13
 5.971161e+00 3.714907e+00 5.038090e+00 8.820134e+00 1.070364e+01 9.957707e+00 1.340923e+01 1.357180e+01 1.476651e+01 1.373764e+01 1.312548e+01 1.244874e+01 2.052151e+01
<GCONST> 5.408878e+01
<MIXTURE> 4 1.951996e-01
<MEAN> 13
 -1.848514e+01 -1.395854e+00 -3.372199e+00 -4.691019e+00 -5.228330e+00 -4.956771e+00 3.252240e+00 -7.252398e-01 3.242750e-01 2.600940e+00 3.867188e+00 3.111054e-01 6.596973e+01
<VARIANCE> 13
 9.051651e+00 1.421305e+01 9.632565e+00 1.147505e+01 2.407432e+01 2.389387e+01 3.515048e+01 4.471641e+01 2.495381e+01 2.559743e+01 1.790477e+01 1.523052e+01 2.648309e+02
<GCONST> 6.481656e+01
<STATE> 3
<NUMMIXES> 4
<MIXTURE> 1 2.085921e-01
<MEAN> 13
 -1.240890e+01 3.272561e+00 3.819513e+00 6.272813e+00 6.544286e+00 3.743459e+00 7.859920e+00 -2.170752e-01 4.653875e+00 2.866905e+00 4.830216e+00 1.870254e+00 6.901180e+01
<VARIANCE> 13
 6.466093e+00 2.798908e+00 4.577759e+00 5.521321e+00 8.174581e+00 9.678708e+00 1.115875e+01 1.343538e+01 1.312249e+01 1.249426e+01 1.294549e+01 1.176901e+01 3.582841e+01
<GCONST> 5.310366e+01
<MIXTURE> 2 1.486352e-01
<MEAN> 13
 -6.492287e+00 6.788590e+00 6.442093e+00 6.148922e+00 6.390125e+00 2.839523e+00 5.773008e+00 -1.800741e+00 1.313322e+00 3.781095e-02 2.095905e+00 -7.410361e-01 6.702810e+01
<VARIANCE> 13
 6.525742e+00 4.217141e+00 4.119996e+00 6.531518e+00 1.095477e+01 1.405765e+01 1.137109e+01 1.110775e+01 1.240696e+01 1.325888e+01 1.216510e+01 1.113795e+01 6.016279e+01
<GCONST> 5.448437e+01
<MIXTURE> 3 1.486338e-01
<MEAN> 13
 -6.492292e+00 6.788630e+00 6.442106e+00 6.148913e+00 6.390094e+00 2.839526e+00 5.773018e+00 -1.800771e+00 1.313300e+00 3.774149e-02 2.095835e+00 -7.410908e-01 6.702823e+01
<VARIANCE> 13
 6.525794e+00 4.217249e+00 4.120047e+00 6.531603e+00 1.095510e+01 1.405787e+01 1.137125e+01 1.110794e+01 1.240713e+01 1.325900e+01 1.216520e+01 1.113810e+01 6.016421e+01
<GCONST> 5.448457e+01
<MIXTURE> 4 4.941361e-01
<MEAN> 13
 -1.115368e+01 -1.568651e-01 3.871300e-01 5.651323e-01 3.283822e+00 1.668971e-01 2.373274e+00 -3.819178e+00 -1.406360e+00 1.078919e+00 2.907204e+00 -2.940194e+00 6.127612e+01
<VARIANCE> 13
 4.283335e+00 4.163805e+00 5.400152e+00 8.835371e+00 1.292481e+01 9.984199e+00 1.289962e+01 1.699790e+01 1.499509e+01 1.559218e+01 1.678231e+01 1.369586e+01 7.957494e+00
<GCONST> 5.385521e+01
<STATE> 4
<NUMMIXES> 4
<MIXTURE> 1 1.278354e-01
<MEAN> 13
 -8.485732e+00 4.965897e+00 7.100903e+00 6.124402e+00 7.470653e+00 3.117859e+00 7.510586e+00 -4.887967e-01 2.397195e+00 -5.220166e-01 2.344027e+00 -1.535085e-01 6.326456e+01
<VARIANCE> 13
 1.411868e+01 1.009018e+01 1.055809e+01 8.553931e+00 1.190480e+01 1.391762e+01 1.406407e+01 1.593106e+01 1.684727e+01 1.488793e+01 1.544148e+01 1.346158e+01 9.534566e+01
<GCONST> 5.929588e+01
<MIXTURE> 2 2.993287e-01
<MEAN> 13
 -9.196893e+00 1.596275e+00 2.135559e+00 4.716996e-01 3.058245e+00 9.548795e-01 2.639538e+00 -3.914067e-01 -6.996816e-02 -3.394371e-01 1.644778e+00 -1.992652e+00 5.109654e+01
<VARIANCE> 13
 1.093560e+01 6.911106e+00 8.672590e+00 8.912955e+00 1.201546e+01 1.748827e+01 1.770717e+01 1.696491e+01 2.061621e+01 1.887012e+01 1.524530e+01 1.427365e+01 1.244280e+01
<GCONST> 5.748556e+01
<MIXTURE> 3 2.993287e-01
<MEAN> 13
 -9.196893e+00 1.596275e+00 2.135559e+00 4.716996e-01 3.058245e+00 9.548795e-01 2.639538e+00 -3.914067e-01 -6.996816e-02 -3.394371e-01 1.644778e+00 -1.992652e+00 5.109654e+01
<VARIANCE> 13
 1.093560e+01 6.911106e+00 8.672590e+00 8.912955e+00 1.201546e+01 1.748827e+01 1.770717e+01 1.696491e+01 2.061621e+01 1.887012e+01 1.524530e+01 1.427365e+01 1.244280e+01
<GCONST> 5.748556e+01
<MIXTURE> 4 2.734987e-01
<MEAN> 13
 -1.165077e+01 -7.540608e-01 -3.770764e-01 -2.063208e+00 3.893557e-01 -1.042812e+00 1.088961e+00 -2.368245e+00 1.990561e-03 -1.258467e+00 2.662916e+00 -1.342039e+00 5.759205e+01
<VARIANCE> 13
 2.302556e+01 1.271748e+01 1.926338e+01 1.728232e+01 2.356923e+01 3.229108e+01 3.235396e+01 2.299521e+01 3.677963e+01 3.717525e+01 2.552629e+01 2.524837e+01 3.748039e+01
<GCONST> 6.593951e+01
<TRANSP> 5
 0.000000e+00 1.000000e+00 0.000000e+00 0.000000e+00 0.000000e+00
 0.000000e+00 9.629102e-01 3.708978e-02 0.000000e+00 0.000000e+00
 0.000000e+00 0.000000e+00 9.439347e-01 5.606532e-02 0.000000e+00
 0.000000e+00 0.000000e+00 0.000000e+00 9.925562e-01 7.443795e-03
 0.000000e+00 0.000000e+00 0.000000e+00 0.000000e+00 0.000000e+00
<ENDHMM>
~h "kj"
<BEGINHMM>
<NUMSTATES> 5
<STATE> 2
<NUMMIXES> 4
<MIXTURE> 1 3.286521e-01
<MEAN> 13
 -1.761592e+01 7.102579e+00 7.450880e-01 -2.752659e+00 -4.501464e-01 4.960310e+00 -6.527700e-01 5.564816e+00 1.329194e+00 -1.296053e+00 2.394701e+00 -5.652676e-01 5.247395e+01
<VARIANCE> 13
 2.235927e+01 7.167472e+00 8.261398e+00 1.013240e+01 1.386610e+01 2.000262e+01 2.259999e+01 1.484349e+01 1.524629e+01 2.098449e+01 1.594627e+01 1.550137e+01 1.022627e+01
<GCONST> 5.844059e+01
<MIXTURE> 2 2.225059e-01
<MEAN> 13
 -2.253474e+01 1.033243e+00 1.559852e+00 -4.304755e+00 -1.304258e+00 7.463785e+00 3.029330e+00 2.194817e+00 -7.506907e-02 -7.473013e-03 2.064705e+00 -1.169214e+00 5.971342e+01
<VARIANCE> 13
 1.606597e+01 8.544679e+00 1.235451e+01 1.377012e+01 1.654642e+01 2.624401e+01 1.793867e+01 1.821464e+01 1.478782e+01 1.813152e+01 1.566440e+01 1.303856e+01 9.635784e+00
<GCONST> 5.898996e+01
<MIXTURE> 3 2.225115e-01
<MEAN> 13
 -2.253488e+01 1.033144e+00 1.559977e+00 -4.304789e+00 -1.304381e+00 7.463852e+00 3.029333e+00 2.194774e+00 -7.504231e-02 -7.523633e-03 2.064718e+00 -1.169197e+00 5.971357e+01
<VARIANCE> 13
 1.606575e+01 8.544631e+00 1.235450e+01 1.377002e+01 1.654652e+01 2.624348e+01 1.793867e+01 1.821486e+01 1.478793e+01 1.813157e+01 1.566446e+01 1.303861e+01 9.635788e+00
<GCONST> 5.898996e+01
<MIXTURE> 4 2.263270e-01
<MEAN> 13
 -1.404398e+01 4.927462e-01 -2.363038e+00 -2.479211e+00 -7.235024e-01 5.462573e-01 9.179301e-01 -3.116370e-01 -1.969666e+00 9.456495e-01 1.777532e-01 -1.650502e+00 5.466595e+01
<VARIANCE> 13
 2.492227e+01 2.385292e+01 1.580979e+01 1.585025e+01 2.167936e+01 2.625962e+01 2.665102e+01 1.818401e+01 1.867949e+01 2.325051e+01 1.623456e+01 1.643038e+01 3.323228e+01
<GCONST> 6.349519e+01
<STATE> 3
<NUMMIXES> 4
<MIXTURE> 1 2.928068e-01
<MEAN> 13
 -1.333876e+01 -1.234327e+00 -3.537825e+00 1.436339e+00 7.573320e-01 -1.563950e+00 1.835384e+00 -3.734784e-01 -7.516547e-01 1.957104e+00 5.709139e-01 -1.172118e+00 5.486513e+01
<VARIANCE> 13
 1.153501e+01 1.867677e+01 1.565001e+01 1.885205e+01 1.040155e+01 1.504647e+01 1.462353e+01 1.367266e+01 1.723252e+01 1.646918e+01 1.790318e+01 1.390529e+01 1.257954e+01
<GCONST> 5.900090e+01
<MIXTURE> 2 2.365561e-01
<MEAN> 13
 -1.516326e+01 -5.294926e+00 -4.730196e+00 -1.701200e-01 -1.936088e+00 -4.182132e+00 -1.832377e+00 -3.924330e+00 -2.862554e+00 1.703174e+00 8.801299e-01 -7.366588e-01 6.102572e+01
<VARIANCE> 13
 1.117119e+01 2.080951e+01 1.243556e+01 1.106392e+01 1.558737e+01 1.450053e+01 1.624327e+01 1.742582e+01 1.754864e+01 1.712937e+01 1.546879e+01 1.363741e+01 1.329040e+01
<GCONST> 5.897613e+01
<MIXTURE> 3 2.365558e-01
<MEAN> 13
 -1.516327e+01 -5.294937e+00 -4.730196e+00 -1.701192e-01 -1.936087e+00 -4.182130e+00 -1.832378e+00 -3.924324e+00 -2.862550e+00 1.703169e+00 8.801306e-01 -7.366576e-01 6.102573e+01
<VARIANCE> 13
 1.117118e+01 2.080950e+01 1.243557e+01 1.106392e+01 1.558735e+01 1.450051e+01 1.624325e+01 1.742582e+01 1.754865e+01 1.712935e+01 1.546879e+01 1.363740e+01 1.329040e+01
<GCONST> 5.897612e+01
<MIXTURE> 4 2.340802e-01
<MEAN> 13
 -1.807140e+01 -1.108158e+01 -3.872969e+00 -3.572287e+00 -2.445965e+00 -6.096910e+00 -4.829487e+00 -5.443328e+00 -3.924656e+00 -8.068110e-01 2.087785e-01 -1.786932e-01 7.312952e+01
<VARIANCE> 13
 1.155427e+01 1.469948e+01 7.782495e+00 1.258099e+01 1.573866e+01 1.443309e+01 1.775505e+01 1.447901e+01 1.749607e+01 1.447648e+01 1.474395e+01 1.412383e+01 2.881562e+01
<GCONST> 5.882047e+01
<STATE> 4
<NUMMIXES> 4
<MIXTURE> 1 2.866869e-01
<MEAN> 13
 -1.998046e+01 7.102827e+00 -7.694861e-01 2.942709e+00 -9.117976e-01 -1.625710e-03 6.285553e+00 2.342981e+00 -8.630837e-01 1.273705e+00 1.317351e-01 -8.299838e-01 5.226261e+01
<VARIANCE> 13
 3.510242e+01 1.118211e+01 1.430606e+01 2.543821e+01 1.612687e+01 1.767646e+01 1.705492e+01 1.650313e+01 1.814277e+01 2.307491e+01 1.610762e+01 2.079958e+01 1.326541e+01
<GCONST> 6.149103e+01
<MIXTURE> 2 2.630662e-01
<MEAN> 13
 -2.445125e+01 1.666793e+00 3.988171e+00 3.460380e+00 -3.427156e+00 -3.183063e-01 8.499967e+00 -5.890392e-01 -4.693844e+00 5.785730e+00 9.074236e-01 -4.321101e+00 5.674223e+01
<VARIANCE> 13
 1.027497e+01 1.055116e+01 9.067569e+00 1.489688e+01 1.440805e+01 1.750750e+01 2.140487e+01 1.771143e+01 1.791622e+01 1.883977e+01 1.866304e+01 1.355864e+01 1.063553e+01
<GCONST> 5.867189e+01
<MIXTURE> 3 2.630662e-01
<MEAN> 13
 -2.445125e+01 1.666793e+00 3.988171e+00 3.460380e+00 -3.427156e+00 -3.183063e-01 8.499967e+00 -5.890392e-01 -4.693844e+00 5.785730e+00 9.074236e-01 -4.321101e+00 5.674223e+01
<VARIANCE> 13
 1.027497e+01 1.055116e+01 9.067569e+00 1.489688e+01 1.440805e+01 1.750750e+01 2.140487e+01 1.771143e+01 1.791622e+01 1.883977e+01 1.866304e+01 1.355864e+01 1.063553e+01
<GCONST> 5.867189e+01
<MIXTURE> 4 1.871796e-01
<MEAN> 13
 -1.339516e+01 -7.341142e+00 -4.289499e+00 -6.427390e-01 -2.409384e+00 -4.566053e+00 -1.835703e+00 -3.617621e+00 -2.976925e+00 6.301593e-01 4.800522e-01 -7.421839e-01 6.218048e+01
<VARIANCE> 13
 2.384022e+01 4.183006e+01 1.669976e+01 1.448436e+01 2.179526e+01 1.975007e+01 1.637375e+01 1.825658e+01 1.667475e+01 1.905905e+01 1.698231e+01 1.341726e+01 7.690601e+01
<GCONST> 6.358364e+01
<TRANSP> 5
 0.000000e+00 1.000000e+00 0.000000e+00 0.000000e+00 0.000000e+00
 0.000000e+00 9.917376e-01 8.262374e-03 0.000000e+00 0.000000e+00
 0.000000e+00 0.000000e+00 9.729837e-01 2.701628e-02 0.000000e+00
 0.000000e+00 0.000000e+00 0.000000e+00 9.936256e-01 6.374440e-03
 0.000000e+00 0.000000e+00 0.000000e+00 0.000000e+00 0.000000e+00
<ENDHMM>
~h "kn"
<BEGINHMM>
<NUMSTATES> 5
<STATE> 2
<NUMMIXES> 4
<MIXTURE> 1 3.608486e-01
<MEAN> 13
 5.726567e+00 5.618376e-01 -6.125536e+00 -1.624418e+00 1.847456e+00 -1.950345e+00 6.597189e-01 -1.952977e+00 4.070322e+00 3.074239e+00 3.993500e+00 4.318287e-01 5.877847e+01
<VARIANCE> 13
 1.014036e+01 1.737111e+01 7.937246e+00 1.216306e+01 1.219497e+01 2.032527e+01 1.608870e+01 1.661916e+01 1.578200e+01 1.505252e+01 1.381946e+01 1.580850e+01 2.476325e+01
<GCONST> 5.880167e+01
<MIXTURE> 2 1.831729e-01
<MEAN> 13
 -2.025231e-01 3.744581e+00 7.828744e-01 -2.522760e+00 1.863707e+00 1.300282e+00 2.045087e+00 -2.365710e+00 5.203830e-03 5.399631e-01 3.015267e-01 -2.818360e+00 5.193164e+01
<VARIANCE> 13
 2.118565e+01 9.525447e+00 1.245283e+01 7.543272e+00 1.635075e+01 1.702819e+01 2.045893e+01 3.484342e+01 1.829538e+01 2.013969e+01 1.913795e+01 1.362441e+01 5.763975e+01
<GCONST> 6.146781e+01
<MIXTURE> 3 1.831680e-01
<MEAN> 13
 -2.017829e-01 3.744893e+00 7.823191e-01 -2.522757e+00 1.863975e+00 1.299888e+00 2.044986e+00 -2.365969e+00 5.606661e-03 5.395601e-01 3.020301e-01 -2.818232e+00 5.193294e+01
<VARIANCE> 13
 2.118342e+01 9.525634e+00 1.245133e+01 7.543079e+00 1.634685e+01 1.702843e+01 2.045929e+01 3.483897e+01 1.829531e+01 2.013231e+01 1.913299e+01 1.362409e+01 5.763955e+01
<GCONST> 6.146659e+01
<MIXTURE> 4 2.728087e-01
<MEAN> 13
 5.096967e+00 1.613152e+00 -5.648381e+00 -2.693914e+00 2.186968e+00 -2.203982e+00 -2.068058e+00 -7.592279e+00 -2.209429e+00 -2.769036e+00 -4.035005e-01 -3.822533e+00 5.893324e+01
<VARIANCE> 13
 1.137511e+01 2.428760e+01 1.599111e+01 1.011065e+01 1.951863e+01 1.899638e+01 2.064864e+01 1.799785e+01 1.644447e+01 1.477601e+01 1.358069e+01 1.385954e+01 2.486204e+01
<GCONST> 6.037690e+01
<STATE> 3
<NUMMIXES> 4
<MIXTURE> 1 2.516044e-01
<MEAN> 13
 2.607993e+00 -2.435867e-01 -1.348198e+00 3.014189e+00 7.732296e+00 2.096846e+00 5.803290e+00 -1.779127e+00 1.872090e+00 -3.759363e-02 2.253857e+00 -4.326850e-01 6.453505e+01
<VARIANCE> 13
 5.580048e+00 1.261842e+01 8.973583e+00 1.244828e+01 1.419850e+01 1.871187e+01 1.775308e+01 1.478853e+01 1.736412e+01 2.083775e+01 1.831141e+01 1.757801e+01 1.921327e+01
<GCONST> 5.863628e+01
<MIXTURE> 2 2.541675e-01
<MEAN> 13
 7.046586e+00 -1.521630e+00 -2.454007e+00 1.999331e+00 5.030188e+00 -7.714063e-01 1.439783e+00 -3.514403e+00 -1.165395e+00 -6.706338e-01 8.395129e-01 -1.565960e+00 5.902824e+01
<VARIANCE> 13
 5.089986e+00 1.439327e+01 1.217685e+01 1.026630e+01 1.244183e+01 1.812072e+01 1.445881e+01 1.425054e+01 1.524382e+01 1.492414e+01 1.418563e+01 1.302524e+01 1.527213e+01
<GCONST> 5.713337e+01
<MIXTURE> 3 2.541675e-01
<MEAN> 13
 7.046586e+00 -1.521630e+00 -2.454007e+00 1.999331e+00 5.030188e+00 -7.714063e-01 1.439783e+00 -3.514403e+00 -1.165395e+00 -6.706338e-01 8.395129e-01 -1.565960e+00 5.902824e+01
<VARIANCE> 13
 5.089986e+00 1.439327e+01 1.217685e+01 1.026630e+01 1.244183e+01 1.812072e+01 1.445881e+01 1.425054e+01 1.524382e+01 1.492414e+01 1.418563e+01 1.302524e+01 1.527213e+01
<GCONST> 5.713337e+01
<MIXTURE> 4 2.400581e-01
<MEAN> 13
 4.712877e+00 -3.839930e+00 -3.219965e+00 1.121015e+00 2.353632e+00 -4.174093e+00 1.378567e+00 -7.697592e+00 -2.828324e+00 -4.002378e+00 -2.055214e-01 -3.676638e+00 6.483086e+01
<VARIANCE> 13
 9.908014e+00 2.941525e+01 1.393466e+01 1.455479e+01 1.916307e+01 1.997868e+01 2.003818e+01 2.701486e+01 2.372125e+01 1.977231e+01 1.856056e+01 1.971107e+01 2.493642e+01
<GCONST> 6.239044e+01
<STATE> 4
<NUMMIXES> 4
<MIXTURE> 1 2.833832e-01
<MEAN> 13
 7.472970e+00 1.508310e+00 -2.276656e+00 2.389642e+00 7.823198e+00 2.115214e+00 2.424844e+00 -6.580774e-01 -1.754130e+00 -1.113704e+00 8.580840e-01 -2.520851e+00 5.370697e+01
<VARIANCE> 13
 1.763194e+01 7.202337e+00 1.040649e+01 6.926851e+00 1.205971e+01 1.713928e+01 1.578726e+01 1.857912e+01 1.518418e+01 1.239955e+01 9.723139e+00 1.249540e+01 1.362631e+01
<GCONST> 5.667663e+01
<MIXTURE> 2 2.388019e-01
<MEAN> 13
 4.933056e+00 4.577374e+00 1.261464e+00 1.871299e+00 7.071198e+00 2.688644e+00 9.705942e-01 -1.015071e+00 -4.527389e+00 -3.451752e+00 -1.094381e+00 -4.141796e+00 5.029050e+01
<VARIANCE> 13
 1.417497e+01 1.400114e+01 1.261439e+01 9.417055e+00 1.311208e+01 1.628379e+01 1.578549e+01 1.894294e+01 1.521798e+01 1.195502e+01 1.056982e+01 1.044011e+01 2.162369e+01
<GCONST> 5.800568e+01
<MIXTURE> 3 2.388019e-01
<MEAN> 13
 4.933056e+00 4.577374e+00 1.261464e+00 1.871299e+00 7.071198e+00 2.688644e+00 9.705942e-01 -1.015071e+00 -4.527389e+00 -3.451752e+00 -1.094381e+00 -4.141796e+00 5.029050e+01
<VARIANCE> 13
 1.417497e+01 1.400114e+01 1.261439e+01 9.417055e+00 1.311208e+01 1.628379e+01 1.578549e+01 1.894294e+01 1.521798e+01 1.195502e+01 1.056982e+01 1.044011e+01 2.162369e+01
<GCONST> 5.800568e+01
<MIXTURE> 4 2.390120e-01
<MEAN> 13
 3.522476e+00 3.802342e+00 1.754834e+00 -1.361852e+00 1.234808e+00 1.603672e+00 8.771745e-01 -2.563485e+00 -3.016892e+00 -1.321133e+00 -2.742394e-01 -3.342331e+00 5.085352e+01
<VARIANCE> 13
 1.216958e+01 2.983331e+01 1.493147e+01 9.936710e+00 1.323280e+01 1.455102e+01 2.133301e+01 3.319852e+01 2.449523e+01 2.790865e+01 1.931428e+01 1.984642e+01 4.190322e+01
<GCONST> 6.282145e+01
<TRANSP> 5
 0.000000e+00 1.000000e+00 0.000000e+00 0.000000e+00 0.000000e+00
 0.000000e+00 9.627308e-01 3.726923e-02 0.000000e+00 0.000000e+00
 0.000000e+00 0.000000e+00 9.795381e-01 2.046187e-02 0.000000e+00
 0.000000e+00 0.000000e+00 0.000000e+00 9.541857e-01 4.581431e-02
 0.000000e+00 0.000000e+00 0.000000e+00 0.000000e+00 0.000000e+00
<ENDHMM>
~h "kt"
<BEGINHMM>
<NUMSTATES> 5
<STATE> 2
<NUMMIXES> 4
<MIXTURE> 1 2.582756e-01
<MEAN> 13
 -1.221006e+01 1.083724e+00 -6.125053e+00 -4.237264e-01 1.776254e+00 1.306718e+00 5.896839e+00 2.487601e+00 3.298858e+00 2.815033e+00 2.936783e+00 -2.201715e-01 5.712736e+01
<VARIANCE> 13
 4.609479e+00 3.355402e+00 5.373960e+00 8.743799e+00 1.084418e+01 1.061568e+01 1.384594e+01 1.366735e+01 1.149705e+01 1.233619e+01 1.300192e+01 1.286745e+01 6.512902e+00
<GCONST> 5.241817e+01
<MIXTURE> 2 2.456185e-01
<MEAN> 13
 -8.297670e+00 -5.481769e-01 -6.868622e+00 -1.373638e+00 1.819726e+00 3.176158e+00 5.207634e+00 7.169984e-02 -3.533672e-01 2.851738e-01 1.605578e+00 -1.923559e+00 5.263307e+01
<VARIANCE> 13
 6.398736e+00 6.265281e+00 6.671695e+00 7.583119e+00 9.727866e+00 1.110267e+01 1.258624e+01 1.257859e+01 1.174485e+01 1.266764e+01 1.250078e+01 1.166752e+01 4.341231e+00
<GCONST> 5.270733e+01
<MIXTURE> 3 2.456182e-01
<MEAN> 13
 -8.297558e+00 -5.482741e-01 -6.868595e+00 -1.373681e+00 1.819733e+00 3.176215e+00 5.207644e+00 7.172424e-02 -3.533752e-01 2.852135e-01 1.605600e+00 -1.923581e+00 5.263297e+01
<VARIANCE> 13
 6.398991e+00 6.265595e+00 6.671825e+00 7.583203e+00 9.727920e+00 1.110278e+01 1.258637e+01 1.257883e+01 1.174505e+01 1.266778e+01 1.250092e+01 1.166764e+01 4.341369e+00
<GCONST> 5.270758e+01
<MIXTURE> 4 2.504841e-01
<MEAN> 13
 -1.517612e+01 5.069618e-01 -6.087551e+00 -1.250046e+00 3.771507e-01 -2.361184e+00 2.396091e+00 -1.164269e-01 1.891047e+00 -3.109653e-02 1.639529e-01 -1.157936e+00 6.048447e+01
<VARIANCE> 13
 8.990883e+00 7.309573e+00 1.099898e+01 1.896489e+01 1.635179e+01 1.644115e+01 1.923384e+01 2.076769e+01 2.229000e+01 1.856687e+01 1.559465e+01 1.427165e+01 1.378061e+01
<GCONST> 5.905637e+01
<STATE> 3
<NUMMIXES> 4
<MIXTURE> 1 3.322388e-01
<MEAN> 13
 -9.971536e+00 3.429440e+00 -2.333767e+00 1.049495e+00 1.712486e+00 -1.647254e-01 4.246948e+00 3.326904e+00 2.084279e+00 9.136276e-01 1.457693e+00 -1.303384e+00 4.921045e+01
<VARIANCE> 13
 4.612844e+00 4.567587e+00 8.232055e+00 9.105735e+00 1.020514e+01 1.148823e+01 1.285652e+01 1.274656e+01 1.281524e+01 1.332392e+01 1.180023e+01 1.148101e+01 6.698112e+00
<GCONST> 5.307134e+01
<MIXTURE> 2 2.328766e-01
<MEAN> 13
 -1.218676e+01 3.454679e+00 -2.527052e+00 1.748037e+00 1.696361e+00 -1.852717e+00 2.188506e+00 -1.883297e-01 -1.512997e+00 -2.191386e+00 -1.033202e+00 -2.242149e+00 5.279065e+01
<VARIANCE> 13
 4.731311e+00 6.008879e+00 7.591972e+00 1.012760e+01 1.122629e+01 1.172930e+01 1.416683e+01 1.408254e+01 1.378230e+01 1.553625e+01 1.490870e+01 1.314210e+01 1.201067e+01
<GCONST> 5.488851e+01
<MIXTURE> 3 2.328796e-01
<MEAN> 13
 -1.218676e+01 3.454678e+00 -2.527052e+00 1.748032e+00 1.696362e+00 -1.852711e+00 2.188517e+00 -1.883250e-01 -1.513003e+00 -2.191398e+00 -1.033210e+00 -2.242155e+00 5.279066e+01
<VARIANCE> 13
 4.731315e+00 6.008876e+00 7.591952e+00 1.012762e+01 1.122628e+01 1.172930e+01 1.416686e+01 1.408252e+01 1.378229e+01 1.553623e+01 1.490870e+01 1.314207e+01 1.201070e+01
<GCONST> 5.488851e+01
<MIXTURE> 4 2.020014e-01
<MEAN> 13
 -1.445424e+01 2.908095e+00 -4.488747e+00 -9.059381e-01 -1.747239e+00 -5.298452e+00 1.174962e+00 1.230440e+00 7.209561e-01 3.303396e-01 -1.191483e+00 -9.130518e-01 5.691443e+01
<VARIANCE> 13
 6.968032e+00 8.074100e+00 9.541566e+00 1.324905e+01 1.532037e+01 1.849747e+01 2.423799e+01 1.900977e+01 2.193836e+01 2.455006e+01 2.325296e+01 1.722658e+01 1.496060e+01
<GCONST> 5.952893e+01
<STATE> 4
<NUMMIXES> 4
<MIXTURE> 1 2.656827e-01
<MEAN> 13
 -8.183356e+00 3.147420e+00 -1.153593e+00 5.226271e-01 2.929149e+00 2.905282e+00 5.172410e+00 4.687680e+00 1.683638e+00 2.279195e-01 9.942893e-01 -2.418810e+00 4.631159e+01
<VARIANCE> 13
 5.197338e+00 5.454349e+00 9.537160e+00 9.663862e+00 9.972477e+00 9.332174e+00 1.231914e+01 1.184606e+01 1.463792e+01 1.466495e+01 1.335324e+01 1.135916e+01 3.768269e+00
<GCONST> 5.299447e+01
<MIXTURE> 2 2.373046e-01
<MEAN> 13
 -9.239953e+00 3.640364e+00 -2.708210e+00 -3.247666e-01 -6.051876e-03 -7.056578e-01 2.152234e+00 1.446745e+00 1.005445e-01 -3.118032e-01 6.008172e-01 -2.112164e+00 4.782721e+01
<VARIANCE> 13
 5.669483e+00 5.698117e+00 7.923593e+00 8.354836e+00 1.159724e+01 9.377865e+00 1.261623e+01 1.267675e+01 1.460489e+01 1.542460e+01 1.406448e+01 1.255689e+01 5.332884e+00
<GCONST> 5.358933e+01
<MIXTURE> 3 2.373049e-01
<MEAN> 13
 -9.239956e+00 3.640365e+00 -2.708214e+00 -3.247648e-01 -6.048223e-03 -7.056546e-01 2.152240e+00 1.446746e+00 1.005431e-01 -3.118085e-01 6.008110e-01 -2.112167e+00 4.782721e+01
<VARIANCE> 13
 5.669475e+00 5.698117e+00 7.923584e+00 8.354829e+00 1.159723e+01 9.377859e+00 1.261619e+01 1.267675e+01 1.460485e+01 1.542456e+01 1.406449e+01 1.255686e+01 5.332880e+00
<GCONST> 5.358931e+01
<MIXTURE> 4 2.597083e-01
<MEAN> 13
 -1.148965e+01 1.941118e+00 -3.477091e+00 -7.182367e-01 -1.853294e+00 -1.842495e+00 2.715898e+00 1.130100e+00 7.881622e-01 6.295789e-01 2.597359e-01 -1.917965e+00 5.246197e+01
<VARIANCE> 13
 1.584244e+01 1.832596e+01 1.665206e+01 1.827779e+01 2.340275e+01 2.294601e+01 2.381609e+01 2.368070e+01 2.376417e+01 2.363688e+01 1.889372e+01 1.579402e+01 1.139216e+01
<GCONST> 6.236503e+01
<TRANSP> 5
 0.000000e+00 1.000000e+00 0.000000e+00 0.000000e+00 0.000000e+00
 0.000000e+00 9.916498e-01 8.350222e-03 0.000000e+00 0.000000e+00
 0.000000e+00 0.000000e+00 9.878708e-01 1.212917e-02 0.000000e+00
 0.000000e+00 0.000000e+00 0.000000e+00 9.921649e-01 7.835130e-03
 0.000000e+00 0.000000e+00 0.000000e+00 0.000000e+00 0.000000e+00
<ENDHMM>
~h "pr"
<BEGINHMM>
<NUMSTATES> 5
<STATE> 2
<NUMMIXES> 4
<MIXTURE> 1 2.967933e-01
<MEAN> 13
 -2.018137e+01 -1.084534e+01 4.326321e+00 -3.960107e+00 1.112721e+01 -3.202434e+00 3.634359e+00 5.357509e+00 -1.717112e+00 -5.712482e+00 6.320365e-02 7.640508e+00 6.089314e+01
<VARIANCE> 13
 1.945936e+01 1.071472e+01 2.025496e+01 3.917844e+01 3.387382e+01 7.696434e+01 4.750622e+01 5.853558e+01 7.364332e+01 3.140347e+01 8.080806e+01 3.706736e+01 5.570000e+00
<GCONST> 6.917371e+01
<MIXTURE> 2 1.747940e-01
<MEAN> 13
 -1.534250e+01 -1.011759e+01 2.640675e+00 -6.760906e+00 3.509946e+00 3.551585e+00 3.477214e+00 2.428439e+00 1.424229e+00 -2.055437e+00 5.661825e-01 -9.762059e-01 5.856257e+01
<VARIANCE> 13
 2.982254e+01 4.319413e+01 4.012152e+01 5.231870e+01 4.248575e+01 5.352177e+01 4.367310e+01 6.031593e+01 5.475103e+01 4.202058e+01 3.803376e+01 5.828253e+01 1.482793e+01
<GCONST> 7.244947e+01
<MIXTURE> 3 1.747931e-01
<MEAN> 13
 -1.534247e+01 -1.011762e+01 2.640573e+00 -6.760884e+00 3.509900e+00 3.551567e+00 3.477257e+00 2.428338e+00 1.424232e+00 -2.055423e+00 5.662010e-01 -9.761887e-01 5.856262e+01
<VARIANCE> 13
 2.982230e+01 4.319402e+01 4.012149e+01 5.231804e+01 4.248610e+01 5.352154e+01 4.367367e+01 6.031621e+01 5.475117e+01 4.202040e+01 3.803378e+01 5.828206e+01 1.482781e+01
<GCONST> 7.244945e+01
<MIXTURE> 4 3.536162e-01
<MEAN> 13
 -1.261401e+01 -7.279058e+00 -4.067501e+00 -4.724676e+00 -6.802078e+00 -1.814088e+00 1.280497e+01 1.155496e+00 6.495346e-01 8.624362e-01 2.243158e+00 -4.548529e+00 6.027174e+01
<VARIANCE> 13
 1.810644e+01 3.342186e+01 1.931811e+01 2.100917e+01 3.890454e+01 3.984074e+01 5.220351e+01 6.755402e+01 3.470930e+01 2.209679e+01 2.443311e+01 2.380266e+01 1.296393e+01
<GCONST> 6.738831e+01
<STATE> 3
<NUMMIXES> 4
<MIXTURE> 1 3.785206e-01
<MEAN> 13
 -2.215156e+01 3.905165e+00 1.680748e+01 -1.597309e+01 1.579686e+00 1.501452e+01 -4.342484e+00 -4.887459e+00 1.467518e+01 -6.302193e+00 -6.061888e+00 9.782823e+00 5.318813e+01
<VARIANCE> 13
 6.671189e+00 4.882001e+00 7.893593e+00 1.284530e+01 1.931842e+01 1.553475e+01 1.290902e+01 1.337286e+01 1.567664e+01 1.807121e+01 2.327011e+01 1.151974e+01 3.066149e+00
<GCONST> 5.520823e+01
<MIXTURE> 2 2.471997e-01
<MEAN> 13
 -2.144412e+01 7.058919e+00 1.784431e+01 -1.317530e+01 1.014898e+00 1.231103e+01 -6.455186e+00 -8.855949e+00 1.135604e+01 -1.023336e+01 -7.096184e+00 6.488619e+00 5.549173e+01
<VARIANCE> 13
 8.263288e+00 6.419681e+00 8.405225e+00 1.145280e+01 1.528798e+01 1.802985e+01 1.819731e+01 1.844926e+01 1.808500e+01 1.995107e+01 2.324068e+01 1.195419e+01 2.609083e+00
<GCONST> 5.634043e+01
<MIXTURE> 3 2.471997e-01
<MEAN> 13
 -2.144412e+01 7.058919e+00 1.784431e+01 -1.317530e+01 1.014898e+00 1.231103e+01 -6.455186e+00 -8.855949e+00 1.135604e+01 -1.023336e+01 -7.096184e+00 6.488619e+00 5.549173e+01
<VARIANCE> 13
 8.263288e+00 6.419681e+00 8.405225e+00 1.145280e+01 1.528798e+01 1.802985e+01 1.819731e+01 1.844926e+01 1.808500e+01 1.995107e+01 2.324068e+01 1.195419e+01 2.609083e+00
<GCONST> 5.634043e+01
<MIXTURE> 4 1.270773e-01
<MEAN> 13
 -1.789739e+01 -2.167416e+00 1.556776e+01 -1.545855e+01 3.377986e+00 7.934802e+00 -5.813509e+00 -2.550921e+00 8.425224e+00 -3.690264e+00 -8.356715e+00 8.001470e+00 5.404482e+01
<VARIANCE> 13
 1.421520e+01 1.661590e+01 5.555213e+01 8.958648e+01 2.689374e+01 4.902350e+01 3.285983e+01 2.911176e+01 3.635856e+01 2.702715e+01 3.742146e+01 4.102677e+01 1.786985e+01
<GCONST> 6.902705e+01
<STATE> 4
<NUMMIXES> 4
<MIXTURE> 1 1.586277e-01
<MEAN> 13
 -1.311030e+01 -2.025604e+00 4.864761e+00 -3.610515e+00 1.226699e+01 -1.459915e+01 3.693891e-01 1.541506e+01 -8.616077e-01 -1.691127e+00 -1.115140e+01 1.342309e+01 5.029764e+01
<VARIANCE> 13
 8.950401e+00 1.010402e+01 1.067846e+01 2.936434e+01 2.565340e+01 3.508275e+01 2.370751e+01 3.087437e+01 1.873861e+01 4.217566e+01 2.337508e+01 3.450591e+01 9.756167e+00
<GCONST> 6.318628e+01
<MIXTURE> 2 2.995088e-01
<MEAN> 13
 -1.178551e+01 1.634158e+00 1.043984e+01 -1.119898e+01 4.735242e+00 6.667349e+00 -2.338967e+00 1.687764e+00 4.182960e+00 -4.917206e-01 -5.786750e+00 4.810001e+00 4.724198e+01
<VARIANCE> 13
 3.672052e+01 8.768028e+00 6.070553e+01 7.048962e+01 2.182405e+01 4.393342e+01 2.789800e+01 3.288231e+01 5.010172e+01 2.801481e+01 4.944865e+01 4.799151e+01 1.455958e+01
<GCONST> 6.941252e+01
<MIXTURE> 3 2.994927e-01
<MEAN> 13
 -1.177461e+01 1.634443e+00 1.042628e+01 -1.118543e+01 4.734904e+00 6.656996e+00 -2.332298e+00 1.694608e+00 4.172433e+00 -4.893175e-01 -5.777675e+00 4.798754e+00 4.723546e+01
<VARIANCE> 13
 3.669054e+01 8.764550e+00 6.071533e+01 7.049292e+01 2.180905e+01 4.392201e+01 2.790187e+01 3.286125e+01 5.006003e+01 2.798933e+01 4.945024e+01 4.799675e+01 1.455143e+01
<GCONST> 6.940791e+01
<MIXTURE> 4 2.423677e-01
<MEAN> 13
 -1.307600e+01 -8.513232e+00 4.604984e+00 -6.694291e+00 2.147847e+00 6.609489e+00 1.944183e+00 6.410756e-01 1.746404e+00 -3.085748e+00 4.792202e+00 -9.722079e-01 5.410169e+01
<VARIANCE> 13
 3.918001e+01 6.061327e+01 8.636035e+01 8.533685e+01 6.975058e+01 1.311931e+02 4.327204e+01 5.237083e+01 9.437282e+01 1.074294e+02 1.042636e+02 4.958079e+01 1.897561e+01
<GCONST> 7.813543e+01
<TRANSP> 5
 0.000000e+00 1.000000e+00 0.000000e+00 0.000000e+00 0.000000e+00
 0.000000e+00 9.942225e-01 5.777483e-03 0.000000e+00 0.000000e+00
 0.000000e+00 0.000000e+00 9.793406e-01 2.065943e-02 0.000000e+00
 0.000000e+00 0.000000e+00 0.000000e+00 9.932670e-01 6.733014e-03
 0.000000e+00 0.000000e+00 0.000000e+00 0.000000e+00 0.000000e+00
<ENDHMM>
~h "pw"
<BEGINHMM>
<NUMSTATES> 5
<STATE> 2
<NUMMIXES> 4
<MIXTURE> 1 2.987837e-01
<MEAN> 13
 -1.027561e+01 1.241965e+00 2.275361e-01 -4.906331e-01 1.613813e+00 4.674982e-01 4.347368e+00 2.355628e+00 4.235400e-01 1.605095e+00 6.540798e-01 -9.006438e-01 4.841330e+01
<VARIANCE> 13
 9.314022e+00 7.004813e+00 7.379432e+00 1.020617e+01 1.198202e+01 1.213136e+01 1.267752e+01 1.392071e+01 1.482235e+01 1.459379e+01 1.344536e+01 1.241242e+01 6.630893e+00
<GCONST> 5.493042e+01
<MIXTURE> 2 2.376383e-01
<MEAN> 13
 -1.402767e+01 -2.663911e+00 -4.618159e-01 2.400519e-01 1.355202e+00 -1.797585e+00 2.516316e+00 -2.105796e-01 -7.418487e-01 1.082604e+00 2.070459e-01 -6.408920e-01 5.407777e+01
<VARIANCE> 13
 1.183772e+01 1.950870e+01 1.136322e+01 1.240542e+01 1.486578e+01 1.419410e+01 1.472989e+01 1.556942e+01 1.659825e+01 1.526224e+01 1.464794e+01 1.325448e+01 1.064864e+01
<GCONST> 5.823889e+01
<MIXTURE> 3 2.376404e-01
<MEAN> 13
 -1.402769e+01 -2.663968e+00 -4.618074e-01 2.400718e-01 1.355232e+00 -1.797556e+00 2.516356e+00 -2.105458e-01 -7.418138e-01 1.082626e+00 2.070585e-01 -6.408888e-01 5.407781e+01
<VARIANCE> 13
 1.183778e+01 1.950883e+01 1.136336e+01 1.240552e+01 1.486584e+01 1.419422e+01 1.473007e+01 1.556953e+01 1.659838e+01 1.526239e+01 1.464806e+01 1.325451e+01 1.064864e+01
<GCONST> 5.823899e+01
<MIXTURE> 4 2.259247e-01
<MEAN> 13
 -1.370187e+01 -7.547668e+00 -2.822790e+00 -1.826488e+00 -7.143577e-01 -5.399660e+00 -6.826345e-01 -4.172070e+00 -2.684510e+00 -5.329817e-01 -2.960716e-01 -8.173167e-01 6.161655e+01
<VARIANCE> 13
 2.689863e+01 2.045211e+01 1.375877e+01 1.308463e+01 1.836521e+01 2.175896e+01 1.828907e+01 2.120147e+01 1.820100e+01 1.701944e+01 1.621567e+01 1.514784e+01 3.746226e+01
<GCONST> 6.220953e+01
<STATE> 3
<NUMMIXES> 4
<MIXTURE> 1 3.521609e-01
<MEAN> 13
 -9.484816e+00 -5.130960e-01 5.828561e-01 1.520448e-01 2.877264e+00 -1.911356e-01 2.236953e+00 -7.238077e-01 -1.907549e+00 4.535197e-01 1.943204e-02 -8.667032e-01 4.925211e+01
<VARIANCE> 13
 1.324099e+01 1.574528e+01 9.044697e+00 1.048885e+01 1.227614e+01 1.250686e+01 1.658749e+01 1.832515e+01 1.671522e+01 1.414706e+01 1.268925e+01 1.227611e+01 1.462374e+01
<GCONST> 5.773249e+01
<MIXTURE> 2 2.019988e-01
<MEAN> 13
 -9.361482e+00 -6.946208e+00 -2.757466e+00 -5.676733e-01 1.182505e+00 -4.703857e+00 -1.209876e+00 -6.261512e+00 -4.982098e+00 -1.234213e+00 -1.255071e-01 -1.159713e-01 6.040272e+01
<VARIANCE> 13
 1.713707e+01 1.814030e+01 1.256491e+01 8.617907e+00 1.106736e+01 1.157237e+01 1.527301e+01 1.572969e+01 1.625016e+01 1.612735e+01 1.371517e+01 1.212864e+01 3.602200e+01
<GCONST> 5.891761e+01
<MIXTURE> 3 2.019988e-01
<MEAN> 13
 -9.361482e+00 -6.946208e+00 -2.757466e+00 -5.676733e-01 1.182505e+00 -4.703857e+00 -1.209876e+00 -6.261512e+00 -4.982098e+00 -1.234213e+00 -1.255071e-01 -1.159713e-01 6.040272e+01
<VARIANCE> 13
 1.713707e+01 1.814030e+01 1.256491e+01 8.617907e+00 1.106736e+01 1.157237e+01 1.527301e+01 1.572969e+01 1.625016e+01 1.612735e+01 1.371517e+01 1.212864e+01 3.602200e+01
<GCONST> 5.891761e+01
<MIXTURE> 4 2.438393e-01
<MEAN> 13
 -1.120067e+01 -9.523526e+00 -4.091554e+00 -3.618694e+00 -2.878981e+00 -8.628271e+00 -3.701763e+00 -7.852187e+00 -4.151999e+00 -1.871161e+00 -5.983990e-01 -1.161993e+00 7.138049e+01
<VARIANCE> 13
 1.740610e+01 1.990044e+01 1.481003e+01 1.254865e+01 1.512369e+01 1.515153e+01 1.786263e+01 1.983830e+01 1.827261e+01 1.733150e+01 1.518157e+01 1.424480e+01 3.700819e+01
<GCONST> 6.101511e+01
<STATE> 4
<NUMMIXES> 4
<MIXTURE> 1 3.060998e-01
<MEAN> 13
 -8.268563e+00 -2.419224e+00 -4.631999e+00 -2.592832e+00 2.345525e+00 4.141331e+00 6.414589e+00 1.019164e+00 -1.062337e-01 1.489887e+00 9.013991e-01 -1.514987e+00 5.253529e+01
<VARIANCE> 13
 8.262180e+00 5.202145e+00 5.429881e+00 6.792839e+00 8.120782e+00 8.758020e+00 1.077274e+01 1.319612e+01 1.308511e+01 1.284262e+01 1.257851e+01 1.163123e+01 3.006301e+00
<GCONST> 5.169292e+01
<MIXTURE> 2 2.316373e-01
<MEAN> 13
 -1.224698e+01 -3.394355e+00 -3.181883e+00 -1.642784e+00 6.411648e-01 4.491962e-01 3.865889e+00 -3.599437e-01 -9.113943e-01 3.915906e-01 4.010409e-01 -8.601530e-01 5.637480e+01
<VARIANCE> 13
 1.172111e+01 1.162602e+01 8.427176e+00 9.620444e+00 1.157199e+01 1.027780e+01 1.275126e+01 1.566291e+01 1.521583e+01 1.460794e+01 1.387152e+01 1.279656e+01 7.850604e+00
<GCONST> 5.592139e+01
<MIXTURE> 3 2.316363e-01
<MEAN> 13
 -1.224698e+01 -3.394366e+00 -3.181873e+00 -1.642778e+00 6.411616e-01 4.492031e-01 3.865908e+00 -3.599203e-01 -9.113753e-01 3.915976e-01 4.010295e-01 -8.601624e-01 5.637480e+01
<VARIANCE> 13
 1.172121e+01 1.162612e+01 8.427223e+00 9.620497e+00 1.157206e+01 1.027784e+01 1.275137e+01 1.566301e+01 1.521591e+01 1.460803e+01 1.387162e+01 1.279663e+01 7.850648e+00
<GCONST> 5.592149e+01
<MIXTURE> 4 2.306296e-01
<MEAN> 13
 -1.447054e+01 -6.992093e+00 -2.162893e+00 -1.994412e+00 -1.559531e+00 -4.583003e+00 -1.279845e-01 -3.876607e+00 -2.576687e+00 -1.880739e+00 -3.311568e-01 -6.786352e-01 6.372816e+01
<VARIANCE> 13
 1.736684e+01 1.277061e+01 1.249064e+01 1.340239e+01 1.680086e+01 1.707533e+01 1.983352e+01 2.413817e+01 2.157401e+01 1.743574e+01 1.587060e+01 1.438594e+01 2.680176e+01
<GCONST> 6.089396e+01
<TRANSP> 5
 0.000000e+00 1.000000e+00 0.000000e+00 0.000000e+00 0.000000e+00
 0.000000e+00 9.974469e-01 2.553106e-03 0.000000e+00 0.000000e+00
 0.000000e+00 0.000000e+00 9.831805e-01 1.681959e-02 0.000000e+00
 0.000000e+00 0.000000e+00 0.000000e+00 9.936278e-01 6.372267e-03
 0.000000e+00 0.000000e+00 0.000000e+00 0.000000e+00 0.000000e+00
<ENDHMM>
~h "si"
<BEGINHMM>
<NUMSTATES> 5
<STATE> 2
<NUMMIXES> 4
<MIXTURE> 1 3.187865e-01
<MEAN> 13
 -7.927275e+00 2.488809e+00 1.576513e+00 3.355468e-01 3.295186e+00 3.367263e+00 4.950263e+00 3.344904e+00 6.793362e-01 5.605673e-01 7.995257e-01 -1.991079e+00 4.652626e+01
<VARIANCE> 13
 1.127453e+01 5.674592e+00 9.016077e+00 9.554238e+00 1.091772e+01 9.658314e+00 1.215019e+01 1.369125e+01 1.471996e+01 1.415220e+01 1.303687e+01 1.208109e+01 8.700668e+00
<GCONST> 5.484115e+01
<MIXTURE> 2 2.523240e-01
<MEAN> 13
 -9.120719e+00 8.997934e-01 -2.808336e-01 -1.907182e+00 -4.906577e-01 -5.112894e-01 1.985912e+00 5.818458e-01 2.883992e-01 9.108205e-01 9.037279e-01 -1.841395e+00 4.944058e+01
<VARIANCE> 13
 1.634575e+01 8.323174e+00 8.977738e+00 1.046482e+01 1.335204e+01 1.206346e+01 1.421348e+01 1.631588e+01 1.750302e+01 1.613970e+01 1.486629e+01 1.365634e+01 1.476211e+01
<GCONST> 5.752538e+01
<MIXTURE> 3 2.523263e-01
<MEAN> 13
 -9.120685e+00 8.997954e-01 -2.808514e-01 -1.907208e+00 -4.906904e-01 -5.112889e-01 1.985919e+00 5.818647e-01 2.884265e-01 9.108413e-01 9.037208e-01 -1.841416e+00 4.944057e+01
<VARIANCE> 13
 1.634577e+01 8.323122e+00 8.977769e+00 1.046488e+01 1.335216e+01 1.206351e+01 1.421350e+01 1.631598e+01 1.750315e+01 1.613977e+01 1.486635e+01 1.365641e+01 1.476210e+01
<GCONST> 5.752543e+01
<MIXTURE> 4 1.765190e-01
<MEAN> 13
 -1.096198e+01 -3.052804e+00 6.021164e-01 -2.038081e+00 -4.173681e-01 -1.631314e+00 1.148009e+00 -1.508329e+00 -1.453551e+00 -6.838845e-01 1.672148e-01 -1.156678e+00 5.642414e+01
<VARIANCE> 13
 4.143003e+01 3.799031e+01 3.141179e+01 3.080242e+01 4.099404e+01 3.217501e+01 3.679196e+01 3.887794e+01 3.148975e+01 2.720588e+01 2.773483e+01 2.753337e+01 4.615071e+01
<GCONST> 6.980193e+01
<STATE> 3
<NUMMIXES> 4
<MIXTURE> 1 2.243856e-01
<MEAN> 13
 -4.178576e+00 -3.095684e+00 -3.408365e+00 -1.678101e+00 3.932828e+00 6.527108e+00 7.256401e+00 2.803128e+00 7.312845e-01 2.158881e+00 1.857276e+00 -2.166888e+00 5.050740e+01
<VARIANCE> 13
 6.486478e+00 5.547195e+00 5.899213e+00 5.709459e+00 7.574451e+00 8.892705e+00 9.265844e+00 1.115816e+01 1.207545e+01 1.272033e+01 1.250947e+01 1.155843e+01 2.368185e+00
<GCONST> 5.071127e+01
<MIXTURE> 2 2.049388e-01
<MEAN> 13
 -3.058481e+00 -4.776138e+00 -4.116606e+00 -3.763416e+00 1.543242e+00 3.974997e+00 4.278812e+00 3.696621e-01 -1.433110e+00 9.351461e-01 1.141817e+00 -2.736250e+00 4.969354e+01
<VARIANCE> 13
 2.692913e+00 3.625572e+00 4.885964e+00 5.681299e+00 7.680599e+00 8.363056e+00 9.666126e+00 1.194954e+01 1.213168e+01 1.264654e+01 1.230994e+01 1.114435e+01 1.117756e+00
<GCONST> 4.847230e+01
<MIXTURE> 3 2.049388e-01
<MEAN> 13
 -3.058481e+00 -4.776138e+00 -4.116606e+00 -3.763416e+00 1.543242e+00 3.974997e+00 4.278812e+00 3.696621e-01 -1.433110e+00 9.351461e-01 1.141817e+00 -2.736250e+00 4.969354e+01
<VARIANCE> 13
 2.692913e+00 3.625572e+00 4.885964e+00 5.681299e+00 7.680599e+00 8.363056e+00 9.666126e+00 1.194954e+01 1.213168e+01 1.264654e+01 1.230994e+01 1.114435e+01 1.117756e+00
<GCONST> 4.847230e+01
<MIXTURE> 4 3.657099e-01
<MEAN> 13
 -5.909136e+00 -3.033165e+00 -3.395236e+00 -3.935194e+00 -1.446437e+00 7.451824e-01 2.041223e+00 -6.785904e-01 -3.628477e-01 9.496366e-01 7.706763e-01 -2.644857e+00 5.319733e+01
<VARIANCE> 13
 1.694288e+01 1.441381e+01 1.267428e+01 1.402286e+01 1.887352e+01 1.845709e+01 1.954448e+01 2.147839e+01 2.191325e+01 2.059548e+01 1.968704e+01 1.832780e+01 1.065343e+01
<GCONST> 6.083007e+01
<STATE> 4
<NUMMIXES> 4
<MIXTURE> 1 2.658546e-01
<MEAN> 13
 -5.413108e+00 2.414945e+00 1.592721e+00 -1.263927e+00 4.108074e+00 4.519960e+00 4.547029e+00 6.093482e+00 8.066760e-01 1.237028e+00 1.615685e+00 -2.316804e+00 4.295422e+01
<VARIANCE> 13
 3.439846e+00 3.620636e+00 6.497138e+00 7.534171e+00 1.152762e+01 8.330091e+00 9.787436e+00 1.156789e+01 1.253921e+01 1.411178e+01 1.183893e+01 1.109207e+01 1.988744e+00
<GCONST> 5.034024e+01
<MIXTURE> 2 2.558826e-01
<MEAN> 13
 -5.264457e+00 2.119010e+00 1.054153e+00 -2.667637e+00 1.648552e+00 1.118410e+00 9.366694e-01 2.948343e+00 -1.450891e+00 -2.403640e-01 6.361319e-01 -2.919785e+00 4.333384e+01
<VARIANCE> 13
 3.862334e+00 4.147000e+00 7.690806e+00 8.997139e+00 1.296336e+01 1.079109e+01 1.184714e+01 1.336048e+01 1.392304e+01 1.511018e+01 1.360745e+01 1.253751e+01 2.217251e+00
<GCONST> 5.219275e+01
<MIXTURE> 3 2.558826e-01
<MEAN> 13
 -5.264457e+00 2.119010e+00 1.054153e+00 -2.667637e+00 1.648552e+00 1.118410e+00 9.366694e-01 2.948343e+00 -1.450891e+00 -2.403640e-01 6.361319e-01 -2.919785e+00 4.333384e+01
<VARIANCE> 13
 3.862334e+00 4.147000e+00 7.690806e+00 8.997139e+00 1.296336e+01 1.079109e+01 1.184714e+01 1.336048e+01 1.392304e+01 1.511018e+01 1.360745e+01 1.253751e+01 2.217251e+00
<GCONST> 5.219275e+01
<MIXTURE> 4 2.223171e-01
<MEAN> 13
 -8.491728e+00 -7.362695e-02 9.879271e-01 -1.538106e+00 -2.544793e-01 -5.222635e-01 2.303405e+00 4.484890e-01 3.779428e-01 1.338125e+00 5.447823e-01 -1.378549e+00 4.870553e+01
<VARIANCE> 13
 2.159729e+01 1.952610e+01 1.685895e+01 1.638366e+01 2.268775e+01 2.303311e+01 2.402017e+01 2.573503e+01 2.204932e+01 2.297218e+01 2.147057e+01 1.710994e+01 1.857415e+01
<GCONST> 6.329908e+01
<TRANSP> 5
 0.000000e+00 1.000000e+00 0.000000e+00 0.000000e+00 0.000000e+00
 0.000000e+00 9.891480e-01 1.085204e-02 0.000000e+00 0.000000e+00
 0.000000e+00 0.000000e+00 9.827995e-01 1.720056e-02 0.000000e+00
 0.000000e+00 0.000000e+00 0.000000e+00 9.920627e-01 7.937259e-03
 0.000000e+00 0.000000e+00 0.000000e+00 0.000000e+00 0.000000e+00
<ENDHMM>
~h "st"
<BEGINHMM>
<NUMSTATES> 5
<STATE> 2
<NUMMIXES> 4
<MIXTURE> 1 3.527801e-01
<MEAN> 13
 -1.037048e+01 1.441974e-01 2.927893e-01 -6.963928e-01 1.458592e+00 1.198970e+00 4.437486e+00 5.973355e-01 -3.318664e-01 -6.094973e-01 1.194122e+00 -2.028569e+00 5.317371e+01
<VARIANCE> 13
 1.610547e+01 6.972873e+00 1.069095e+01 1.057936e+01 1.133462e+01 1.332194e+01 1.275485e+01 1.463381e+01 1.660888e+01 1.634835e+01 1.481370e+01 1.283570e+01 8.705795e+00
<GCONST> 5.660425e+01
<MIXTURE> 2 2.081107e-01
<MEAN> 13
 -9.614357e+00 -9.611328e-01 -3.667997e-01 -4.351002e+00 -2.449855e+00 -1.706487e+00 1.385778e+00 -2.114375e+00 -2.424541e+00 -1.958971e+00 5.125258e-01 -2.211738e+00 5.678760e+01
<VARIANCE> 13
 1.931476e+01 1.450028e+01 1.139350e+01 1.522722e+01 1.482845e+01 1.740301e+01 1.730042e+01 1.599445e+01 1.808261e+01 1.840536e+01 1.517008e+01 1.378625e+01 1.228165e+01
<GCONST> 5.951843e+01
<MIXTURE> 3 2.081107e-01
<MEAN> 13
 -9.614357e+00 -9.611328e-01 -3.667997e-01 -4.351002e+00 -2.449855e+00 -1.706487e+00 1.385778e+00 -2.114375e+00 -2.424541e+00 -1.958971e+00 5.125258e-01 -2.211738e+00 5.678760e+01
<VARIANCE> 13
 1.931476e+01 1.450028e+01 1.139350e+01 1.522722e+01 1.482845e+01 1.740301e+01 1.730042e+01 1.599445e+01 1.808261e+01 1.840536e+01 1.517008e+01 1.378625e+01 1.228165e+01
<GCONST> 5.951843e+01
<MIXTURE> 4 2.309898e-01
<MEAN> 13
 -7.566850e+00 -7.681670e+00 3.331510e-01 -7.416320e+00 -3.112339e+00 -4.511860e+00 1.030487e+00 -1.350906e+00 -2.150563e+00 -2.119058e+00 1.590678e-01 -3.034472e+00 6.592116e+01
<VARIANCE> 13
 1.533343e+01 1.339201e+01 1.589761e+01 1.793178e+01 2.121213e+01 2.587381e+01 2.674184e+01 2.458089e+01 2.238472e+01 2.136523e+01 1.893945e+01 1.614896e+01 2.672496e+01
<GCONST> 6.284468e+01
<STATE> 3
<NUMMIXES> 4
<MIXTURE> 1 2.954136e-01
<MEAN> 13
 -4.800689e+00 -2.698475e+00 -4.241262e+00 -2.876710e+00 2.070338e+00 3.967234e+00 5.203104e+00 9.289120e-01 -6.098107e-01 1.050712e+00 1.167246e+00 -2.643527e+00 5.126122e+01
<VARIANCE> 13
 2.365961e+00 3.523271e+00 5.244853e+00 5.989316e+00 8.076506e+00 8.975843e+00 1.035334e+01 1.253705e+01 1.312323e+01 1.272468e+01 1.271354e+01 1.137211e+01 1.342941e+00
<GCONST> 4.899632e+01
<MIXTURE> 2 2.065969e-01
<MEAN> 13
 -5.336845e+00 -3.471891e+00 -3.191084e+00 -5.171217e+00 -1.070218e+00 -3.619463e-01 1.997930e+00 -1.094484e-01 -5.740288e-01 7.602483e-01 1.257010e+00 -2.692699e+00 5.397708e+01
<VARIANCE> 13
 6.605752e+00 9.746238e+00 1.118195e+01 1.317994e+01 1.525235e+01 1.252359e+01 1.575765e+01 1.894084e+01 1.805603e+01 1.760211e+01 1.646838e+01 1.464293e+01 4.013954e+00
<GCONST> 5.663789e+01
<MIXTURE> 3 2.065971e-01
<MEAN> 13
 -5.336844e+00 -3.471900e+00 -3.191085e+00 -5.171216e+00 -1.070216e+00 -3.619394e-01 1.997940e+00 -1.094382e-01 -5.740265e-01 7.602407e-01 1.256995e+00 -2.692713e+00 5.397709e+01
<VARIANCE> 13
 6.605741e+00 9.746253e+00 1.118196e+01 1.317995e+01 1.525240e+01 1.252362e+01 1.575765e+01 1.894088e+01 1.805609e+01 1.760212e+01 1.646840e+01 1.464296e+01 4.013958e+00
<GCONST> 5.663791e+01
<MIXTURE> 4 2.913880e-01
<MEAN> 13
 -9.598352e+00 -5.420313e+00 -5.120128e-01 -8.864957e+00 -2.844368e+00 -4.729272e+00 2.246060e-01 -7.978088e-03 -5.890785e-01 -8.366099e-01 1.150366e+00 -2.112774e+00 6.199839e+01
<VARIANCE> 13
 1.538239e+01 2.231745e+01 1.730717e+01 2.326394e+01 2.507980e+01 2.144481e+01 2.084869e+01 2.190339e+01 2.160711e+01 2.100965e+01 1.707808e+01 1.627796e+01 2.713120e+01
<GCONST> 6.318679e+01
<STATE> 4
<NUMMIXES> 4
<MIXTURE> 1 3.053450e-01
<MEAN> 13
 -8.679544e+00 2.406961e+00 7.620270e-01 -8.215076e-01 2.443570e+00 1.966917e+00 3.811178e+00 2.625443e+00 6.166131e-01 3.199457e-01 9.672034e-01 -2.178970e+00 4.702224e+01
<VARIANCE> 13
 5.446876e+00 3.665730e+00 6.178330e+00 8.412060e+00 9.552114e+00 9.801849e+00 1.133725e+01 1.248282e+01 1.415335e+01 1.430702e+01 1.256344e+01 1.144667e+01 5.564715e+00
<GCONST> 5.232461e+01
<MIXTURE> 2 2.220936e-01
<MEAN> 13
 -1.105548e+01 5.185004e-01 1.017972e+00 -1.621095e+00 7.130487e-01 -7.836748e-01 1.837410e+00 -5.170476e-01 -1.391522e-01 -4.920036e-01 5.102276e-01 -2.199590e+00 5.176702e+01
<VARIANCE> 13
 1.507922e+01 7.936961e+00 1.090539e+01 1.228334e+01 1.183349e+01 1.248924e+01 1.468327e+01 1.642821e+01 1.736790e+01 1.567056e+01 1.465853e+01 1.334156e+01 1.187059e+01
<GCONST> 5.741264e+01
<MIXTURE> 3 2.220962e-01
<MEAN> 13
 -1.105557e+01 5.184606e-01 1.017993e+00 -1.621060e+00 7.130996e-01 -7.836288e-01 1.837465e+00 -5.170323e-01 -1.391008e-01 -4.919721e-01 5.102540e-01 -2.199571e+00 5.176709e+01
<VARIANCE> 13
 1.507931e+01 7.937000e+00 1.090537e+01 1.228333e+01 1.183347e+01 1.248937e+01 1.468343e+01 1.642824e+01 1.736797e+01 1.567056e+01 1.465851e+01 1.334151e+01 1.187056e+01
<GCONST> 5.741267e+01
<MIXTURE> 4 2.504604e-01
<MEAN> 13
 -1.056383e+01 -1.712260e-01 7.900052e-01 -6.752742e+00 -3.434967e+00 -4.461025e+00 -2.498880e-01 -9.274544e-01 4.806162e-01 9.283470e-02 7.975783e-01 -2.543098e+00 5.895140e+01
<VARIANCE> 13
 2.004188e+01 1.377072e+01 1.812927e+01 1.569410e+01 1.505089e+01 2.210573e+01 2.431791e+01 2.790215e+01 2.218369e+01 1.929823e+01 1.734227e+01 1.605830e+01 5.213778e+01
<GCONST> 6.313341e+01
<TRANSP> 5
 0.000000e+00 1.000000e+00 0.000000e+00 0.000000e+00 0.000000e+00
 0.000000e+00 9.799154e-01 2.008458e-02 0.000000e+00 0.000000e+00
 0.000000e+00 0.000000e+00 9.875317e-01 1.246829e-02 0.000000e+00
 0.000000e+00 0.000000e+00 0.000000e+00 9.909172e-01 9.082804e-03
 0.000000e+00 0.000000e+00 0.000000e+00 0.000000e+00 0.000000e+00
<ENDHMM>
~h "spe"
<BEGINHMM>
<NUMSTATES> 5
<STATE> 2
<NUMMIXES> 4
<MIXTURE> 1 3.126359e-01
<MEAN> 13
 -1.958312e+00 -4.685028e+00 -2.943300e+00 -3.563432e+00 2.034703e+00 4.011076e+00 3.939885e+00 1.799641e-01 -1.836278e+00 5.660459e-01 8.316073e-01 -3.444430e+00 4.991335e+01
<VARIANCE> 13
 2.584764e+00 3.663322e+00 5.695148e+00 6.916486e+00 9.444567e+00 1.101806e+01 1.345703e+01 1.392507e+01 1.466807e+01 1.471980e+01 1.456886e+01 1.283915e+01 1.286185e+00
<GCONST> 5.055003e+01
<MIXTURE> 2 1.726314e-01
<MEAN> 13
 -2.091612e+00 -1.393599e+00 1.459364e+00 -4.998741e+00 -3.462191e+00 -1.800864e+00 -9.642274e-01 -4.274457e+00 -4.637526e+00 -5.119497e-01 2.591847e-01 -4.743285e+00 5.516452e+01
<VARIANCE> 13
 2.152332e+01 1.674944e+01 4.455673e+01 2.419353e+01 3.201889e+01 2.558588e+01 3.299573e+01 2.839980e+01 2.842727e+01 2.714463e+01 2.251573e+01 1.812570e+01 7.151153e+00
<GCONST> 6.494123e+01
<MIXTURE> 3 1.726303e-01
<MEAN> 13
 -2.092206e+00 -1.393201e+00 1.458742e+00 -4.998424e+00 -3.461837e+00 -1.800754e+00 -9.636924e-01 -4.274298e+00 -4.637115e+00 -5.119842e-01 2.591429e-01 -4.743182e+00 5.516457e+01
<VARIANCE> 13
 2.152693e+01 1.675204e+01 4.455997e+01 2.419478e+01 3.202011e+01 2.558635e+01 3.299832e+01 2.840037e+01 2.842842e+01 2.714437e+01 2.251587e+01 1.812576e+01 7.151296e+00
<GCONST> 6.494189e+01
<MIXTURE> 4 3.420995e-01
<MEAN> 13
 5.404921e-01 -8.773581e+00 2.722885e+00 -1.019863e+01 -5.132714e+00 -1.788350e+00 -3.678596e+00 3.828161e-01 -1.851488e+00 2.688172e-01 -1.531826e+00 -8.129906e+00 5.959938e+01
<VARIANCE> 13
 8.565993e+00 1.884503e+01 5.654647e+01 3.094944e+01 7.442479e+01 5.352875e+01 3.272652e+01 4.676353e+01 3.532491e+01 3.640534e+01 4.686316e+01 2.466640e+01 9.635404e+00
<GCONST> 6.854458e+01
<STATE> 3
<NUMMIXES> 4
<MIXTURE> 1 3.434200e-01
<MEAN> 13
 -7.775184e+00 1.881400e+00 -3.486859e+00 -3.519889e+00 1.709302e-01 -1.489559e+00 7.418346e-01 -9.405770e-02 -4.345527e-02 -1.502761e+00 -2.592004e+00 -2.916499e+00 5.839212e+01
<VARIANCE> 13
 2.146093e+01 2.889652e+01 3.233601e+01 2.105366e+01 2.595213e+01 1.959892e+01 3.722041e+01 1.687727e+01 2.410579e+01 1.859472e+01 2.285826e+01 1.444112e+01 6.797818e+01
<GCONST> 6.564407e+01
<MIXTURE> 2 1.437036e-01
<MEAN> 13
 -3.662308e+00 -4.090247e-02 8.150134e+00 -1.853827e+01 6.783220e-01 -1.201651e+01 -3.075456e+00 -7.872294e+00 -3.528896e+00 -5.383108e+00 -9.011725e+00 1.908354e+00 6.250013e+01
<VARIANCE> 13
 3.461719e+01 1.711308e+01 7.194887e+01 6.461153e+01 6.411990e+01 5.135126e+01 4.077586e+01 4.825024e+01 3.823864e+01 4.378865e+01 2.757643e+01 2.680155e+01 1.418949e+01
<GCONST> 7.108603e+01
<MIXTURE> 3 1.437036e-01
<MEAN> 13
 -3.662308e+00 -4.090247e-02 8.150134e+00 -1.853827e+01 6.783220e-01 -1.201651e+01 -3.075456e+00 -7.872294e+00 -3.528896e+00 -5.383108e+00 -9.011725e+00 1.908354e+00 6.250013e+01
<VARIANCE> 13
 3.461719e+01 1.711308e+01 7.194887e+01 6.461153e+01 6.411990e+01 5.135126e+01 4.077586e+01 4.825024e+01 3.823864e+01 4.378865e+01 2.757643e+01 2.680155e+01 1.418949e+01
<GCONST> 7.108603e+01
<MIXTURE> 4 3.691726e-01
<MEAN> 13
 1.206684e+00 -6.282216e+00 -2.596326e+00 -1.771872e+01 -4.596153e+00 -7.724689e+00 -9.378507e+00 -1.427561e+00 1.251246e+00 -4.367396e+00 -1.126740e+01 -4.068511e+00 6.397728e+01
<VARIANCE> 13
 9.938463e+00 2.995094e+01 3.370100e+01 2.764961e+01 3.477890e+01 3.678612e+01 4.629589e+01 5.645170e+01 3.694319e+01 3.293688e+01 2.737424e+01 2.695872e+01 6.139516e+00
<GCONST> 6.697071e+01
<STATE> 4
<NUMMIXES> 4
<MIXTURE> 1 1.931541e-01
<MEAN> 13
 -2.627240e+00 1.124907e+00 -3.214854e-01 -2.090617e+00 -2.765216e+00 -3.401312e-01 1.807249e+00 1.688449e+00 1.321651e+00 1.896303e+00 1.654213e-01 -3.490039e+00 4.907635e+01
<VARIANCE> 13
 1.270689e+01 8.912085e+00 1.051370e+01 1.559337e+01 2.029864e+01 2.282539e+01 1.451559e+01 2.218113e+01 1.966024e+01 1.925887e+01 1.616910e+01 1.543108e+01 4.851804e+00
<GCONST> 5.866978e+01
<MIXTURE> 2 2.810256e-01
<MEAN> 13
 -1.726031e+00 1.133262e+00 2.043551e+00 -1.584613e+00 -4.476928e+00 -1.936521e+00 -8.429203e-01 -1.344858e+00 -1.956930e+00 -8.233525e-01 -2.201526e+00 -5.437190e+00 5.171919e+01
<VARIANCE> 13
 1.968419e+01 1.863819e+01 3.182637e+01 1.989803e+01 4.616507e+01 3.786016e+01 2.342401e+01 3.068959e+01 2.836045e+01 2.602711e+01 2.744928e+01 2.672758e+01 6.365188e+00
<GCONST> 6.534518e+01
<MIXTURE> 3 2.810256e-01
<MEAN> 13
 -1.726031e+00 1.133262e+00 2.043551e+00 -1.584613e+00 -4.476928e+00 -1.936521e+00 -8.429203e-01 -1.344858e+00 -1.956930e+00 -8.233525e-01 -2.201526e+00 -5.437190e+00 5.171919e+01
<VARIANCE> 13
 1.968419e+01 1.863819e+01 3.182637e+01 1.989803e+01 4.616507e+01 3.786016e+01 2.342401e+01 3.068959e+01 2.836045e+01 2.602711e+01 2.744928e+01 2.672758e+01 6.365188e+00
<GCONST> 6.534518e+01
<MIXTURE> 4 2.447927e-01
<MEAN> 13
 2.327718e+00 -7.274680e+00 -2.183566e+00 -5.336886e+00 -2.803060e+00 1.660149e+00 -4.427868e+00 5.361813e-01 -8.648263e-01 -5.501412e-01 -4.775116e+00 -1.074378e+01 5.606442e+01
<VARIANCE> 13
 2.941963e+00 1.355541e+01 2.248934e+01 1.861614e+01 5.994811e+01 3.169780e+01 3.585113e+01 3.377946e+01 3.663632e+01 5.071336e+01 3.375814e+01 2.927827e+01 8.168690e+00
<GCONST> 6.478790e+01
<TRANSP> 5
 0.000000e+00 1.000000e+00 0.000000e+00 0.000000e+00 0.000000e+00
 0.000000e+00 9.954002e-01 4.599741e-03 0.000000e+00 0.000000e+00
 0.000000e+00 0.000000e+00 9.701368e-01 2.986322e-02 0.000000e+00
 0.000000e+00 0.000000e+00 0.000000e+00 9.926946e-01 7.305391e-03
 0.000000e+00 0.000000e+00 0.000000e+00 0.000000e+00 0.000000e+00
<ENDHMM>
