~o
<STREAMINFO> 1 39
<VECSIZE> 39<NULLD><MFCC_D_A_0><DIAGC>
~h "ap"
<BEGINHMM>
<NUMSTATES> 5
<STATE> 2
<NUMMIXES> 8
<MIXTURE> 1 1.776425e-01
<MEAN> 39
 -8.808586e+00 -5.391417e+00 -9.923781e-01 1.331784e+00 2.788750e+00 -4.411066e-01 5.195971e+00 -4.731215e-03 -6.252257e-01 4.927573e-01 1.535171e+00 -1.295876e+00 5.257699e+01 3.906249e-01 4.186238e-01 1.683238e-01 -2.537209e-02 1.943117e-01 4.750123e-01 3.589211e-01 5.498625e-01 4.603038e-01 3.365695e-01 1.142988e-01 -4.328245e-02 -5.030146e-01 -2.808279e-02 -1.222410e-02 -4.570185e-02 -6.061615e-02 -5.655603e-02 -3.589960e-02 -7.965919e-02 -7.727396e-02 -7.680066e-02 -2.583966e-02 -1.956028e-02 -1.986059e-02 2.087037e-02
<VARIANCE> 39
 1.110620e+01 1.553124e+01 1.519586e+01 1.634166e+01 1.572119e+01 3.000198e+01 1.617816e+01 1.763671e+01 1.519068e+01 1.618977e+01 1.241700e+01 1.299238e+01 1.432092e+01 1.505785e-01 2.503832e-01 4.342740e-01 7.160964e-01 8.598248e-01 1.111129e+00 1.070882e+00 1.144759e+00 1.008974e+00 1.256160e+00 1.125260e+00 1.046855e+00 7.279871e-02 1.873047e-02 4.044517e-02 6.614209e-02 1.090431e-01 1.467603e-01 2.204091e-01 2.034827e-01 2.249455e-01 2.221904e-01 2.714155e-01 2.205611e-01 2.099115e-01 5.507013e-03
<GCONST> 7.117975e+01
<MIXTURE> 2 2.017321e-01
<MEAN> 39
 -1.404866e+01 -1.057510e+01 -4.498497e+00 -5.613883e-01 -4.411549e-01 -3.789030e+00 2.110305e+00 -4.515261e+00 -3.179836e+00 -8.250006e-01 4.350958e-01 -9.476166e-01 6.388998e+01 3.282555e-01 1.572311e-01 1.798799e-01 1.223356e-01 2.575496e-01 1.608144e-01 9.110519e-02 -1.428982e-02 -9.624971e-02 -3.676648e-02 8.226915e-02 3.975838e-02 -8.513371e-01 -9.904042e-03 2.083364e-02 1.183371e-02 2.310771e-02 -2.275750e-02 -2.293779e-02 3.695073e-03 4.537031e-02 3.524253e-02 4.620656e-03 -4.275661e-05 1.429705e-02 1.671528e-02
<VARIANCE> 39
 1.879935e+01 3.378807e+01 2.144086e+01 2.272395e+01 2.838304e+01 2.971689e+01 2.191376e+01 2.185435e+01 2.115494e+01 1.818814e+01 1.866504e+01 1.573991e+01 6.736684e+01 1.019721e-01 2.227620e-01 3.615159e-01 6.041451e-01 9.090670e-01 1.049058e+00 1.032421e+00 1.147790e+00 1.338433e+00 1.335838e+00 1.346357e+00 1.280043e+00 5.825372e-02 2.250700e-02 4.760585e-02 7.512421e-02 1.260853e-01 1.838163e-01 2.255624e-01 2.048662e-01 2.436241e-01 2.720260e-01 2.946880e-01 2.851353e-01 2.769100e-01 1.247743e-02
<GCONST> 7.904810e+01
<MIXTURE> 3 2.017318e-01
<MEAN> 39
 -1.404863e+01 -1.057508e+01 -4.498481e+00 -5.613775e-01 -4.411363e-01 -3.789015e+00 2.110316e+00 -4.515252e+00 -3.179828e+00 -8.249995e-01 4.350979e-01 -9.476144e-01 6.388992e+01 3.282554e-01 1.572316e-01 1.798796e-01 1.223344e-01 2.575476e-01 1.608127e-01 9.110422e-02 -1.428829e-02 -9.624778e-02 -3.676621e-02 8.226775e-02 3.975682e-02 -8.513361e-01 -9.904142e-03 2.083347e-02 1.183345e-02 2.310737e-02 -2.275765e-02 -2.293800e-02 3.694829e-03 4.537016e-02 3.524245e-02 4.620982e-03 -4.255824e-05 1.429699e-02 1.671553e-02
<VARIANCE> 39
 1.879936e+01 3.378802e+01 2.144080e+01 2.272392e+01 2.838296e+01 2.971685e+01 2.191370e+01 2.185430e+01 2.115489e+01 1.818809e+01 1.866499e+01 1.573985e+01 6.736671e+01 1.019722e-01 2.227622e-01 3.615155e-01 6.041439e-01 9.090655e-01 1.049054e+00 1.032419e+00 1.147787e+00 1.338431e+00 1.335837e+00 1.346356e+00 1.280040e+00 5.825390e-02 2.250705e-02 4.760586e-02 7.512412e-02 1.260851e-01 1.838162e-01 2.255621e-01 2.048656e-01 2.436234e-01 2.720251e-01 2.946871e-01 2.851342e-01 2.769087e-01 1.247749e-02
<GCONST> 7.904804e+01
<MIXTURE> 4 3.891983e-02
<MEAN> 39
 -1.390393e+01 -8.369947e+00 -4.356559e+00 -1.449373e+00 -2.475386e+00 -4.519617e+00 1.404474e+00 -1.975577e+00 -1.705684e+00 -3.216596e-01 6.238279e-01 -9.581705e-01 6.441463e+01 1.620419e-01 -2.113710e-01 -2.288741e-01 -4.838817e-01 1.490167e-01 4.487806e-01 1.046461e-01 -1.158299e-01 3.057062e-02 1.480198e-01 -5.107511e-02 -3.969047e-01 1.470346e-01 1.224252e-02 1.424410e-01 1.308719e-01 2.595403e-01 2.084300e-01 6.750242e-02 1.005373e-01 4.255982e-02 -4.307345e-02 -4.462140e-02 -1.104249e-01 2.005664e-02 -2.906713e-01
<VARIANCE> 39
 4.519445e+01 4.759159e+01 2.873264e+01 2.340762e+01 4.285033e+01 5.295386e+01 2.754152e+01 2.448829e+01 2.285023e+01 1.965697e+01 1.954445e+01 1.268439e+01 2.128254e+02 6.592192e-01 1.155337e+00 8.806040e-01 1.343624e+00 1.741285e+00 1.803101e+00 1.668198e+00 1.709806e+00 1.580692e+00 1.940036e+00 1.513466e+00 1.366260e+00 2.066373e+00 8.126981e-01 5.742847e-01 3.334212e-01 2.664750e-01 7.558643e-01 1.076546e+00 5.183232e-01 3.650593e-01 3.920124e-01 3.901189e-01 3.505029e-01 2.553224e-01 3.794898e+00
<GCONST> 1.137334e+02
<MIXTURE> 5 2.017333e-01
<MEAN> 39
 -1.404871e+01 -1.057515e+01 -4.498545e+00 -5.614174e-01 -4.412083e-01 -3.789071e+00 2.110275e+00 -4.515296e+00 -3.179859e+00 -8.250137e-01 4.350761e-01 -9.476224e-01 6.389011e+01 3.282556e-01 1.572298e-01 1.798814e-01 1.223389e-01 2.575564e-01 1.608210e-01 9.110990e-02 -1.428970e-02 -9.624897e-02 -3.676377e-02 8.227075e-02 3.975927e-02 -8.513398e-01 -9.903914e-03 2.083520e-02 1.183552e-02 2.311022e-02 -2.275585e-02 -2.293741e-02 3.696405e-03 4.537241e-02 3.524358e-02 4.621177e-03 -4.155375e-05 1.429816e-02 1.671504e-02
<VARIANCE> 39
 1.879937e+01 3.378812e+01 2.144091e+01 2.272396e+01 2.838320e+01 2.971695e+01 2.191383e+01 2.185440e+01 2.115494e+01 1.818820e+01 1.866516e+01 1.573993e+01 6.736733e+01 1.019725e-01 2.227629e-01 3.615165e-01 6.041447e-01 9.090701e-01 1.049062e+00 1.032424e+00 1.147792e+00 1.338436e+00 1.335838e+00 1.346362e+00 1.280046e+00 5.825359e-02 2.250723e-02 4.760619e-02 7.512448e-02 1.260857e-01 1.838173e-01 2.255637e-01 2.048665e-01 2.436239e-01 2.720270e-01 2.946888e-01 2.851360e-01 2.769110e-01 1.247802e-02
<GCONST> 7.904828e+01
<MIXTURE> 6 3.891984e-02
<MEAN> 39
 -1.390448e+01 -8.370399e+00 -4.356886e+00 -1.449497e+00 -2.475861e+00 -4.520109e+00 1.404172e+00 -1.975835e+00 -1.705830e+00 -3.218117e-01 6.237376e-01 -9.581076e-01 6.441595e+01 1.620673e-01 -2.114348e-01 -2.289086e-01 -4.839422e-01 1.490229e-01 4.488023e-01 1.046468e-01 -1.158583e-01 3.057061e-02 1.480329e-01 -5.106667e-02 -3.969384e-01 1.470743e-01 1.232121e-02 1.424979e-01 1.309118e-01 2.595454e-01 2.084979e-01 6.758592e-02 1.005839e-01 4.258582e-02 -4.305785e-02 -4.459710e-02 -1.104092e-01 2.004433e-02 -2.908525e-01
<VARIANCE> 39
 4.519395e+01 4.759235e+01 2.873273e+01 2.340795e+01 4.285088e+01 5.295345e+01 2.754154e+01 2.448835e+01 2.285082e+01 1.965702e+01 1.954493e+01 1.268440e+01 2.128247e+02 6.592187e-01 1.155403e+00 8.806323e-01 1.343662e+00 1.741329e+00 1.803133e+00 1.668236e+00 1.709815e+00 1.580710e+00 1.940073e+00 1.513478e+00 1.366251e+00 2.066541e+00 8.127011e-01 5.742870e-01 3.334188e-01 2.664749e-01 7.558654e-01 1.076550e+00 5.183185e-01 3.650577e-01 3.920170e-01 3.901168e-01 3.505044e-01 2.553259e-01 3.794904e+00
<GCONST> 1.137338e+02
<MIXTURE> 7 3.891971e-02
<MEAN> 39
 -1.390436e+01 -8.370291e+00 -4.356810e+00 -1.449470e+00 -2.475760e+00 -4.520004e+00 1.404236e+00 -1.975768e+00 -1.705789e+00 -3.217784e-01 6.237546e-01 -9.581240e-01 6.441564e+01 1.620629e-01 -2.114205e-01 -2.289006e-01 -4.839283e-01 1.490230e-01 4.487992e-01 1.046475e-01 -1.158514e-01 3.057136e-02 1.480316e-01 -5.106809e-02 -3.969303e-01 1.470638e-01 1.230338e-02 1.424847e-01 1.309029e-01 2.595450e-01 2.084832e-01 6.756744e-02 1.005739e-01 4.257913e-02 -4.306218e-02 -4.460229e-02 -1.104126e-01 2.004768e-02 -2.908121e-01
<VARIANCE> 39
 4.519411e+01 4.759219e+01 2.873275e+01 2.340782e+01 4.285075e+01 5.295356e+01 2.754153e+01 2.448833e+01 2.285073e+01 1.965703e+01 1.954485e+01 1.268441e+01 2.128249e+02 6.592177e-01 1.155386e+00 8.806282e-01 1.343654e+00 1.741320e+00 1.803128e+00 1.668231e+00 1.709814e+00 1.580708e+00 1.940066e+00 1.513476e+00 1.366254e+00 2.066500e+00 8.126997e-01 5.742863e-01 3.334194e-01 2.664743e-01 7.558642e-01 1.076548e+00 5.183189e-01 3.650584e-01 3.920165e-01 3.901175e-01 3.505045e-01 2.553252e-01 3.794896e+00
<GCONST> 1.137336e+02
<MIXTURE> 8 1.003987e-01
<MEAN> 39
 -1.386197e+01 -6.455966e+00 -3.117803e+00 1.299614e+00 -1.791934e+00 -4.560817e+00 1.882582e+00 -5.517765e-01 -1.439765e+00 -1.057397e+00 -9.521014e-01 -1.122902e+00 6.208105e+01 -3.134256e+00 -2.286040e+00 -1.601691e+00 -7.075336e-02 -2.345355e+00 -3.008345e+00 -1.574760e+00 -9.908885e-01 -6.421629e-01 -8.096914e-01 -7.075125e-01 2.547537e-01 7.265935e+00 1.490936e-01 -3.119108e-01 -2.138335e-01 -3.787246e-01 3.721417e-02 9.996379e-02 6.888335e-04 -1.583455e-01 -4.460508e-02 8.455073e-02 1.815609e-01 -1.000970e-01 2.489044e-01
<VARIANCE> 39
 4.904073e+01 4.715854e+01 2.374647e+01 2.398230e+01 4.499499e+01 6.619087e+01 3.158265e+01 2.396949e+01 2.328436e+01 2.482730e+01 2.380005e+01 1.602493e+01 1.933113e+02 2.029689e+00 4.728709e+00 2.195134e+00 3.069280e+00 3.210903e+00 3.826747e+00 2.784016e+00 2.699205e+00 2.828820e+00 2.645396e+00 2.532208e+00 1.505479e+00 5.414805e+00 1.061565e+00 7.567835e-01 4.013351e-01 3.642655e-01 9.276051e-01 1.338083e+00 6.303974e-01 4.580300e-01 4.600849e-01 5.763040e-01 3.877958e-01 3.126593e-01 4.450459e+00
<GCONST> 1.265869e+02
<STATE> 3
<NUMMIXES> 8
<MIXTURE> 1 1.757011e-01
<MEAN> 39
 -7.501428e+00 -1.182445e+01 -5.721201e+00 4.333879e+00 5.710534e+00 -4.433474e+00 2.728760e+00 -6.230030e-01 -4.029223e+00 -1.610451e+00 1.750195e+00 -1.032267e+00 5.636194e+01 2.815679e-01 4.750740e-01 3.660148e-01 2.380754e-01 2.582766e-01 3.633744e-01 1.855294e-01 3.952596e-01 3.863749e-01 3.652529e-01 9.049315e-02 -2.330676e-02 -6.690288e-01 -3.549698e-02 -1.136697e-02 -6.636729e-02 -8.156640e-02 -7.722671e-02 -4.049315e-02 -4.369144e-02 -2.428170e-02 -3.980836e-02 -2.435293e-02 -3.937535e-02 -1.586045e-02 2.388185e-02
<VARIANCE> 39
 6.746521e+00 2.135011e+01 1.080031e+01 1.898346e+01 2.522987e+01 1.967537e+01 2.516824e+01 2.130550e+01 2.150626e+01 2.097248e+01 1.521632e+01 1.202469e+01 1.945541e+01 1.250941e-01 2.277390e-01 4.102311e-01 6.384917e-01 8.328792e-01 9.786222e-01 1.173004e+00 1.139708e+00 1.431248e+00 1.388897e+00 1.177849e+00 1.021285e+00 4.056557e-02 1.864790e-02 4.855911e-02 7.536613e-02 1.140326e-01 1.561722e-01 1.959130e-01 2.302560e-01 2.084857e-01 2.971040e-01 2.961951e-01 2.395436e-01 2.001888e-01 5.556824e-03
<GCONST> 7.265866e+01
<MIXTURE> 2 2.055884e-01
<MEAN> 39
 -1.142549e+01 -1.674055e+01 -1.093459e+01 9.706515e-01 4.136362e-01 -9.087186e+00 3.412013e-01 -3.342381e+00 -6.429084e+00 -3.600881e+00 4.121809e-01 -1.538733e+00 6.994509e+01 2.802947e-01 1.241087e-01 2.244831e-01 2.103911e-01 3.395066e-01 1.924675e-01 1.262301e-01 -2.460157e-02 -4.777886e-02 -2.371014e-02 7.286125e-02 8.427051e-02 -9.364476e-01 -1.725049e-03 2.788883e-02 2.672862e-02 3.213200e-02 -1.090114e-02 -8.223829e-03 3.522684e-05 3.761451e-02 3.573807e-02 1.844006e-02 1.280803e-02 2.093775e-02 1.040388e-02
<VARIANCE> 39
 1.096226e+01 1.787589e+01 1.500433e+01 2.208208e+01 2.804426e+01 1.873163e+01 2.579417e+01 2.099146e+01 2.259745e+01 2.185602e+01 1.494477e+01 1.643903e+01 4.464894e+01 8.393541e-02 1.788902e-01 2.798214e-01 5.669084e-01 9.469081e-01 9.946263e-01 8.995128e-01 1.029688e+00 1.431304e+00 1.361597e+00 1.138729e+00 1.618351e+00 2.936143e-02 1.730891e-02 3.660274e-02 5.710124e-02 1.203850e-01 1.968116e-01 2.195318e-01 1.822926e-01 1.958521e-01 2.977607e-01 2.954748e-01 2.309126e-01 3.786004e-01 6.823963e-03
<GCONST> 7.372229e+01
<MIXTURE> 3 2.055884e-01
<MEAN> 39
 -1.142549e+01 -1.674055e+01 -1.093459e+01 9.706498e-01 4.136346e-01 -9.087183e+00 3.412063e-01 -3.342381e+00 -6.429081e+00 -3.600875e+00 4.121825e-01 -1.538732e+00 6.994508e+01 2.802949e-01 1.241089e-01 2.244831e-01 2.103910e-01 3.395066e-01 1.924676e-01 1.262303e-01 -2.460157e-02 -4.777895e-02 -2.371018e-02 7.286110e-02 8.427041e-02 -9.364474e-01 -1.725078e-03 2.788880e-02 2.672865e-02 3.213212e-02 -1.090097e-02 -8.223768e-03 3.502268e-05 3.761417e-02 3.573766e-02 1.843956e-02 1.280780e-02 2.093776e-02 1.040387e-02
<VARIANCE> 39
 1.096228e+01 1.787595e+01 1.500435e+01 2.208217e+01 2.804429e+01 1.873164e+01 2.579419e+01 2.099148e+01 2.259746e+01 2.185606e+01 1.494477e+01 1.643906e+01 4.464901e+01 8.393559e-02 1.788904e-01 2.798218e-01 5.669093e-01 9.469095e-01 9.946275e-01 8.995133e-01 1.029688e+00 1.431307e+00 1.361599e+00 1.138731e+00 1.618353e+00 2.936145e-02 1.730894e-02 3.660277e-02 5.710124e-02 1.203852e-01 1.968116e-01 2.195325e-01 1.822929e-01 1.958523e-01 2.977609e-01 2.954754e-01 2.309127e-01 3.786011e-01 6.824000e-03
<GCONST> 7.372234e+01
<MIXTURE> 4 3.304989e-02
<MEAN> 39
 -1.244510e+01 -1.607573e+01 -1.130105e+01 1.376908e-01 -2.347182e+00 -1.052096e+01 -8.570084e-01 -2.005602e+00 -4.841738e+00 -2.750978e+00 7.751052e-01 -1.247823e+00 7.415039e+01 3.577221e-01 -1.008101e-01 -1.440143e-01 -4.514405e-01 3.180994e-01 7.384134e-01 4.497170e-01 -1.178302e-01 6.053305e-02 1.866465e-01 1.043668e-02 -6.745945e-01 -6.194029e-01 7.382523e-02 3.490327e-01 2.634869e-01 2.736354e-01 3.670359e-01 3.050140e-01 7.443532e-02 9.686776e-03 -1.308590e-03 -3.970150e-02 -1.751070e-01 -1.748178e-02 -7.454071e-01
<VARIANCE> 39
 2.228640e+01 2.195393e+01 2.082294e+01 2.637495e+01 4.269913e+01 2.678591e+01 2.995025e+01 1.905876e+01 2.408797e+01 1.909093e+01 1.844730e+01 1.602797e+01 1.313377e+02 2.371683e-01 5.281758e-01 4.686546e-01 9.356585e-01 1.145049e+00 1.173068e+00 1.358282e+00 1.214375e+00 1.413120e+00 1.353806e+00 1.387666e+00 1.258185e+00 7.194121e-01 2.943597e-01 2.395584e-01 2.480881e-01 2.372822e-01 5.907647e-01 5.503801e-01 3.630071e-01 2.791410e-01 3.570904e-01 2.832988e-01 2.539015e-01 3.087789e-01 2.326866e+00
<GCONST> 1.001465e+02
<MIXTURE> 5 2.055870e-01
<MEAN> 39
 -1.142549e+01 -1.674054e+01 -1.093460e+01 9.706428e-01 4.136485e-01 -9.087188e+00 3.411831e-01 -3.342376e+00 -6.429077e+00 -3.600891e+00 4.121809e-01 -1.538726e+00 6.994509e+01 2.802951e-01 1.241090e-01 2.244834e-01 2.103915e-01 3.395081e-01 1.924690e-01 1.262302e-01 -2.460271e-02 -4.778028e-02 -2.371129e-02 7.286008e-02 8.426961e-02 -9.364474e-01 -1.725009e-03 2.788891e-02 2.672896e-02 3.213257e-02 -1.090098e-02 -8.223886e-03 3.541443e-05 3.761455e-02 3.573826e-02 1.844030e-02 1.280774e-02 2.093724e-02 1.040389e-02
<VARIANCE> 39
 1.096227e+01 1.787584e+01 1.500434e+01 2.208210e+01 2.804416e+01 1.873164e+01 2.579414e+01 2.099147e+01 2.259742e+01 2.185599e+01 1.494477e+01 1.643906e+01 4.464901e+01 8.393543e-02 1.788900e-01 2.798215e-01 5.669079e-01 9.469063e-01 9.946247e-01 8.995111e-01 1.029688e+00 1.431304e+00 1.361593e+00 1.138728e+00 1.618350e+00 2.936143e-02 1.730893e-02 3.660267e-02 5.710119e-02 1.203850e-01 1.968111e-01 2.195317e-01 1.822925e-01 1.958521e-01 2.977604e-01 2.954744e-01 2.309125e-01 3.786013e-01 6.824011e-03
<GCONST> 7.372231e+01
<MIXTURE> 6 3.304921e-02
<MEAN> 39
 -1.244492e+01 -1.607561e+01 -1.130088e+01 1.378351e-01 -2.346927e+00 -1.052075e+01 -8.569171e-01 -2.005560e+00 -4.841668e+00 -2.750953e+00 7.750440e-01 -1.247899e+00 7.414983e+01 3.577126e-01 -1.007814e-01 -1.439985e-01 -4.514054e-01 3.181116e-01 7.384126e-01 4.497080e-01 -1.178242e-01 6.052999e-02 1.866371e-01 1.042160e-02 -6.745855e-01 -6.194304e-01 7.379691e-02 3.490154e-01 2.634646e-01 2.736228e-01 3.669994e-01 3.049763e-01 7.441477e-02 9.683397e-03 -1.316198e-03 -3.971010e-02 -1.751067e-01 -1.746979e-02 -7.453201e-01
<VARIANCE> 39
 2.228684e+01 2.195423e+01 2.082327e+01 2.637519e+01 4.269962e+01 2.678609e+01 2.995043e+01 1.905883e+01 2.408781e+01 1.909091e+01 1.844719e+01 1.602795e+01 1.313426e+02 2.371613e-01 5.281634e-01 4.686495e-01 9.356483e-01 1.145033e+00 1.173049e+00 1.358261e+00 1.214359e+00 1.413097e+00 1.353792e+00 1.387650e+00 1.258172e+00 7.193497e-01 2.943603e-01 2.395562e-01 2.480905e-01 2.372835e-01 5.907677e-01 5.503740e-01 3.630055e-01 2.791405e-01 3.570898e-01 2.832952e-01 2.539010e-01 3.087769e-01 2.326879e+00
<GCONST> 1.001463e+02
<MIXTURE> 7 3.305038e-02
<MEAN> 39
 -1.244482e+01 -1.607552e+01 -1.130080e+01 1.378809e-01 -2.346815e+00 -1.052067e+01 -8.568674e-01 -2.005542e+00 -4.841673e+00 -2.750932e+00 7.750978e-01 -1.247843e+00 7.414951e+01 3.577099e-01 -1.007785e-01 -1.439968e-01 -4.514030e-01 3.180967e-01 7.384024e-01 4.497029e-01 -1.178159e-01 6.052803e-02 1.866383e-01 1.044061e-02 -6.745783e-01 -6.194098e-01 7.379024e-02 3.490095e-01 2.634585e-01 2.736151e-01 3.669883e-01 3.049721e-01 7.441252e-02 9.684205e-03 -1.311862e-03 -3.971018e-02 -1.751121e-01 -1.747559e-02 -7.452975e-01
<VARIANCE> 39
 2.228726e+01 2.195462e+01 2.082363e+01 2.637572e+01 4.270068e+01 2.678662e+01 2.995058e+01 1.905892e+01 2.408798e+01 1.909101e+01 1.844707e+01 1.602779e+01 1.313467e+02 2.371653e-01 5.281790e-01 4.686570e-01 9.356645e-01 1.145043e+00 1.173054e+00 1.358266e+00 1.214364e+00 1.413106e+00 1.353801e+00 1.387656e+00 1.258170e+00 7.193690e-01 2.943696e-01 2.395629e-01 2.480983e-01 2.372887e-01 5.907877e-01 5.503896e-01 3.630117e-01 2.791423e-01 3.570939e-01 2.832974e-01 2.539014e-01 3.087766e-01 2.326965e+00
<GCONST> 1.001469e+02
<MIXTURE> 8 1.083805e-01
<MEAN> 39
 -1.123115e+01 -1.212628e+01 -8.180760e+00 3.298152e+00 1.115055e+00 -8.050940e+00 -5.699669e-01 -5.680970e-01 -4.256469e+00 -3.207662e+00 -1.033973e+00 -1.275639e+00 6.636469e+01 -1.741401e+00 -1.138400e+00 -1.398989e+00 -8.747572e-01 -1.985159e+00 -1.897067e+00 -1.109505e+00 -2.563572e-01 -3.298836e-01 -5.265942e-01 -3.856079e-01 1.238067e-01 5.300707e+00 5.125432e-02 -2.845814e-01 -1.395828e-01 -2.553903e-01 -9.385066e-02 -2.775895e-02 6.448462e-02 -1.219234e-01 -5.585070e-02 3.373299e-02 1.394048e-01 -5.451750e-02 2.528219e-01
<VARIANCE> 39
 2.723886e+01 3.928966e+01 2.424603e+01 2.266076e+01 4.550708e+01 5.064258e+01 4.052926e+01 2.047934e+01 2.919654e+01 2.800031e+01 1.996230e+01 1.354219e+01 1.897523e+02 1.461250e+00 3.703377e+00 1.881334e+00 2.184919e+00 3.094574e+00 3.458542e+00 2.625439e+00 2.271092e+00 2.917465e+00 2.224159e+00 1.997874e+00 1.570421e+00 9.901482e+00 5.911976e-01 5.313959e-01 3.885874e-01 2.983544e-01 8.777705e-01 1.157623e+00 6.245350e-01 4.012613e-01 4.985539e-01 4.403405e-01 3.452598e-01 3.186349e-01 4.481060e+00
<GCONST> 1.226377e+02
<STATE> 4
<NUMMIXES> 8
<MIXTURE> 1 2.398618e-01
<MEAN> 39
 -5.122856e+00 -2.039376e+00 -6.647515e-01 3.436014e-01 1.567586e+00 1.709474e+00 4.426072e+00 2.107976e+00 -1.017065e+00 1.517694e+00 1.620570e+00 -2.359833e+00 4.633602e+01 9.130976e-02 3.394486e-01 1.057745e-01 -3.810805e-02 1.088132e-01 3.655345e-01 2.283333e-01 4.216248e-01 3.257412e-01 2.054712e-01 9.318970e-02 8.419206e-03 -1.695104e-01 -2.072206e-02 -1.881221e-02 -1.171661e-02 -5.425807e-03 -1.020526e-02 -1.159929e-02 1.126895e-02 1.349451e-02 1.346517e-03 -1.644277e-02 -2.017899e-02 7.027962e-03 1.841050e-02
<VARIANCE> 39
 3.860320e+00 1.868338e+01 7.245933e+00 1.697873e+01 1.411413e+01 1.587437e+01 1.451779e+01 1.584089e+01 1.485715e+01 1.444145e+01 1.234390e+01 1.082190e+01 9.979076e+00 1.373554e-01 3.298091e-01 4.431381e-01 6.370775e-01 7.256670e-01 1.008108e+00 1.053045e+00 1.257941e+00 1.196000e+00 1.264146e+00 1.253765e+00 1.055818e+00 7.671400e-02 2.063631e-02 4.579745e-02 8.203579e-02 1.220049e-01 1.471914e-01 1.931138e-01 2.095046e-01 2.576245e-01 2.434421e-01 2.550141e-01 2.572339e-01 2.044043e-01 5.369507e-03
<GCONST> 6.891720e+01
<MIXTURE> 2 2.012679e-01
<MEAN> 39
 -1.007586e+01 -1.294887e+01 -3.857692e+00 2.250252e+00 -5.181445e-01 -4.627167e+00 3.317326e+00 -3.788282e+00 -4.059999e+00 -4.925602e-01 1.041872e+00 -1.606040e+00 6.030439e+01 2.545024e-01 2.291028e-01 1.605667e-01 8.663993e-02 1.471604e-01 1.070613e-01 1.115492e-02 1.353643e-02 -5.790243e-02 -1.309631e-03 1.749916e-02 1.521452e-03 -7.693311e-01 -8.642457e-03 1.481733e-02 -3.844453e-03 -6.522811e-03 -3.103855e-02 -2.141682e-02 -2.049667e-02 2.757621e-03 1.527681e-03 7.593649e-03 6.437337e-03 1.114134e-02 2.064957e-02
<VARIANCE> 39
 1.902564e+01 5.012275e+01 1.942518e+01 2.414466e+01 3.457364e+01 2.732344e+01 2.263804e+01 2.742907e+01 2.363595e+01 2.026336e+01 1.804968e+01 1.551089e+01 8.764226e+01 1.179234e-01 2.580450e-01 3.744718e-01 6.524850e-01 1.025844e+00 1.043508e+00 1.115248e+00 1.192179e+00 1.326308e+00 1.428634e+00 1.255651e+00 1.180220e+00 8.270996e-02 2.145112e-02 4.922491e-02 7.360385e-02 1.242816e-01 1.984924e-01 2.211904e-01 2.172831e-01 2.389386e-01 2.850488e-01 3.061345e-01 2.483719e-01 2.442998e-01 6.341775e-03
<GCONST> 8.030812e+01
<MIXTURE> 3 2.012691e-01
<MEAN> 39
 -1.007586e+01 -1.294887e+01 -3.857698e+00 2.250249e+00 -5.181416e-01 -4.627168e+00 3.317322e+00 -3.788283e+00 -4.060001e+00 -4.925629e-01 1.041872e+00 -1.606041e+00 6.030439e+01 2.545023e-01 2.291027e-01 1.605666e-01 8.663984e-02 1.471605e-01 1.070612e-01 1.115474e-02 1.353610e-02 -5.790278e-02 -1.309963e-03 1.749919e-02 1.521521e-03 -7.693310e-01 -8.642457e-03 1.481736e-02 -3.844339e-03 -6.522710e-03 -3.103854e-02 -2.141681e-02 -2.049652e-02 2.757778e-03 1.527844e-03 7.593873e-03 6.437358e-03 1.114124e-02 2.064957e-02
<VARIANCE> 39
 1.902566e+01 5.012278e+01 1.942524e+01 2.414470e+01 3.457362e+01 2.732343e+01 2.263805e+01 2.742910e+01 2.363596e+01 2.026336e+01 1.804970e+01 1.551090e+01 8.764230e+01 1.179235e-01 2.580451e-01 3.744718e-01 6.524849e-01 1.025844e+00 1.043508e+00 1.115248e+00 1.192180e+00 1.326310e+00 1.428635e+00 1.255652e+00 1.180220e+00 8.271007e-02 2.145114e-02 4.922497e-02 7.360397e-02 1.242817e-01 1.984926e-01 2.211902e-01 2.172834e-01 2.389386e-01 2.850488e-01 3.061345e-01 2.483718e-01 2.442999e-01 6.341777e-03
<GCONST> 8.030814e+01
<MIXTURE> 4 2.937871e-02
<MEAN> 39
 -1.174596e+01 -1.075952e+01 -4.737652e+00 -8.732897e-02 -3.467918e+00 -5.446785e+00 1.550912e+00 -2.215401e+00 -2.803314e+00 -1.258624e-01 4.957412e-01 -1.679873e+00 6.408337e+01 2.135807e-01 1.197231e-01 -1.809120e-01 -5.492072e-01 3.115299e-01 4.965790e-01 5.888366e-03 -8.855855e-02 1.473355e-01 -3.624710e-03 5.005180e-02 -2.773508e-01 -4.084855e-01 8.796485e-03 1.509765e-01 1.263153e-01 3.269966e-01 2.077878e-01 4.292112e-02 1.088763e-01 6.292278e-02 -8.173824e-02 -4.874629e-02 -1.337068e-01 9.249916e-03 -2.647424e-01
<VARIANCE> 39
 3.417008e+01 7.725867e+01 2.560571e+01 2.152302e+01 4.301588e+01 4.546369e+01 2.673717e+01 2.953959e+01 2.152720e+01 1.755369e+01 1.877627e+01 1.449779e+01 2.433588e+02 4.034863e-01 6.048839e-01 5.411536e-01 1.346617e+00 1.184850e+00 1.495771e+00 1.206055e+00 1.408983e+00 1.615799e+00 1.448393e+00 1.414461e+00 1.261618e+00 6.362044e-01 4.855887e-01 7.559789e-01 2.444331e-01 2.678722e-01 5.402693e-01 7.123941e-01 3.371479e-01 4.121244e-01 3.705020e-01 3.223998e-01 3.206026e-01 2.436209e-01 3.004187e+00
<GCONST> 1.072753e+02
<MIXTURE> 5 2.012710e-01
<MEAN> 39
 -1.007586e+01 -1.294888e+01 -3.857692e+00 2.250257e+00 -5.181391e-01 -4.627172e+00 3.317329e+00 -3.788287e+00 -4.060001e+00 -4.925585e-01 1.041880e+00 -1.606040e+00 6.030439e+01 2.545030e-01 2.291033e-01 1.605673e-01 8.664048e-02 1.471608e-01 1.070620e-01 1.115540e-02 1.353707e-02 -5.790245e-02 -1.309949e-03 1.749920e-02 1.521301e-03 -7.693313e-01 -8.642387e-03 1.481744e-02 -3.844490e-03 -6.522925e-03 -3.103851e-02 -2.141663e-02 -2.049666e-02 2.757536e-03 1.527461e-03 7.593307e-03 6.436894e-03 1.114103e-02 2.064956e-02
<VARIANCE> 39
 1.902565e+01 5.012276e+01 1.942523e+01 2.414466e+01 3.457363e+01 2.732343e+01 2.263805e+01 2.742908e+01 2.363592e+01 2.026331e+01 1.804970e+01 1.551085e+01 8.764200e+01 1.179234e-01 2.580450e-01 3.744716e-01 6.524838e-01 1.025843e+00 1.043507e+00 1.115245e+00 1.192179e+00 1.326311e+00 1.428635e+00 1.255650e+00 1.180221e+00 8.270971e-02 2.145107e-02 4.922495e-02 7.360377e-02 1.242815e-01 1.984924e-01 2.211899e-01 2.172835e-01 2.389384e-01 2.850480e-01 3.061341e-01 2.483717e-01 2.442992e-01 6.341740e-03
<GCONST> 8.030810e+01
<MIXTURE> 6 2.937965e-02
<MEAN> 39
 -1.174588e+01 -1.075939e+01 -4.737582e+00 -8.730694e-02 -3.467832e+00 -5.446699e+00 1.550941e+00 -2.215346e+00 -2.803296e+00 -1.258576e-01 4.957540e-01 -1.679876e+00 6.408311e+01 2.135745e-01 1.197280e-01 -1.809099e-01 -5.492034e-01 3.115219e-01 4.965736e-01 5.886985e-03 -8.855564e-02 1.473372e-01 -3.623734e-03 5.005294e-02 -2.773432e-01 -4.084767e-01 8.788123e-03 1.509657e-01 1.263094e-01 3.269941e-01 2.077792e-01 4.291278e-02 1.088727e-01 6.291781e-02 -8.173908e-02 -4.874628e-02 -1.337091e-01 9.250192e-03 -2.647181e-01
<VARIANCE> 39
 3.417017e+01 7.725870e+01 2.560561e+01 2.152294e+01 4.301586e+01 4.546394e+01 2.673719e+01 2.953969e+01 2.152716e+01 1.755370e+01 1.877614e+01 1.449774e+01 2.433590e+02 4.034882e-01 6.048876e-01 5.411558e-01 1.346609e+00 1.184852e+00 1.495769e+00 1.206058e+00 1.408984e+00 1.615797e+00 1.448394e+00 1.414464e+00 1.261618e+00 6.362019e-01 4.855922e-01 7.559847e-01 2.444347e-01 2.678719e-01 5.402727e-01 7.123994e-01 3.371495e-01 4.121263e-01 3.705029e-01 3.224011e-01 3.206034e-01 2.436205e-01 3.004208e+00
<GCONST> 1.072754e+02
<MIXTURE> 7 2.937889e-02
<MEAN> 39
 -1.174586e+01 -1.075939e+01 -4.737581e+00 -8.730534e-02 -3.467824e+00 -5.446689e+00 1.550944e+00 -2.215338e+00 -2.803288e+00 -1.258586e-01 4.957451e-01 -1.679886e+00 6.408309e+01 2.135745e-01 1.197308e-01 -1.809076e-01 -5.491979e-01 3.115239e-01 4.965734e-01 5.887819e-03 -8.855561e-02 1.473349e-01 -3.625812e-03 5.004959e-02 -2.773445e-01 -4.084821e-01 8.785446e-03 1.509633e-01 1.263092e-01 3.269957e-01 2.077772e-01 4.290952e-02 1.088724e-01 6.291641e-02 -8.174057e-02 -4.874663e-02 -1.337085e-01 9.251538e-03 -2.647113e-01
<VARIANCE> 39
 3.417020e+01 7.725876e+01 2.560565e+01 2.152296e+01 4.301588e+01 4.546391e+01 2.673721e+01 2.953968e+01 2.152711e+01 1.755366e+01 1.877621e+01 1.449774e+01 2.433589e+02 4.034875e-01 6.048832e-01 5.411522e-01 1.346605e+00 1.184850e+00 1.495769e+00 1.206054e+00 1.408978e+00 1.615793e+00 1.448390e+00 1.414461e+00 1.261618e+00 6.361964e-01 4.855900e-01 7.559790e-01 2.444343e-01 2.678710e-01 5.402704e-01 7.123956e-01 3.371495e-01 4.121251e-01 3.705020e-01 3.224002e-01 3.206038e-01 2.436203e-01 3.004189e+00
<GCONST> 1.072753e+02
<MIXTURE> 8 6.818598e-02
<MEAN> 39
 -1.192851e+01 -8.382250e+00 -3.197492e+00 3.200045e+00 -2.969963e+00 -5.342515e+00 2.383556e+00 -5.608100e-01 -2.921994e+00 -4.633963e-01 -1.351018e+00 -1.277599e+00 6.176545e+01 -2.694458e+00 -2.900437e+00 -1.241297e+00 1.283792e-02 -2.292023e+00 -2.506950e+00 -8.105274e-01 -1.427323e+00 -5.746092e-01 -5.082726e-01 -5.948045e-01 2.816315e-01 7.126021e+00 1.173496e-01 -2.768061e-01 -1.272216e-01 -3.412933e-01 2.643539e-02 1.222254e-01 -2.154281e-02 -1.528565e-01 2.261690e-02 1.935044e-02 1.828448e-01 -1.288302e-01 1.515489e-01
<VARIANCE> 39
 4.318388e+01 7.589405e+01 2.048605e+01 2.674179e+01 4.989849e+01 6.146009e+01 2.582740e+01 2.996377e+01 2.506466e+01 2.423106e+01 2.269775e+01 1.470282e+01 2.485869e+02 2.020287e+00 7.882279e+00 2.239880e+00 3.453212e+00 2.464503e+00 3.488839e+00 2.179417e+00 3.302190e+00 2.930402e+00 2.506932e+00 2.366989e+00 1.503898e+00 1.069231e+01 9.782521e-01 1.500858e+00 3.546014e-01 4.967669e-01 9.230939e-01 1.301126e+00 3.960943e-01 6.949553e-01 5.398521e-01 4.733992e-01 4.286353e-01 2.825285e-01 6.057678e+00
<GCONST> 1.289319e+02
<TRANSP> 5
 0.000000e+00 1.000000e+00 0.000000e+00 0.000000e+00 0.000000e+00
 0.000000e+00 9.895282e-01 1.047176e-02 0.000000e+00 0.000000e+00
 0.000000e+00 0.000000e+00 9.904312e-01 9.568861e-03 0.000000e+00
 0.000000e+00 0.000000e+00 0.000000e+00 9.883877e-01 1.161232e-02
 0.000000e+00 0.000000e+00 0.000000e+00 0.000000e+00 0.000000e+00
<ENDHMM>
~h "cl"
<BEGINHMM>
<NUMSTATES> 5
<STATE> 2
<NUMMIXES> 8
<MIXTURE> 1 7.136085e-02
<MEAN> 39
 -7.880573e+00 -2.997449e+00 -3.620985e+00 -2.172326e+00 1.303910e+00 4.903947e+00 5.855863e+00 2.000682e+00 1.468689e+00 1.161662e+00 -4.995978e-01 -2.465208e+00 5.122094e+01 4.219721e-01 3.295527e-01 5.277481e-01 4.936442e-01 5.710516e-01 5.844052e-01 7.649429e-01 6.669632e-01 4.051751e-01 3.780218e-01 2.274235e-01 -3.211060e-02 -1.871336e-01 -4.787787e-03 4.010903e-02 7.896250e-02 1.630956e-02 1.118645e-02 4.820992e-02 -7.096164e-02 -1.704367e-02 -5.627402e-02 1.211338e-02 1.246385e-01 2.251672e-01 2.991291e-02
<VARIANCE> 39
 2.620573e+01 1.309230e+01 1.174086e+01 1.219875e+01 1.208243e+01 1.168415e+01 1.044340e+01 1.705686e+01 1.763066e+01 1.244772e+01 1.065278e+01 1.064818e+01 3.583594e+00 1.762289e-01 2.650239e-01 3.446363e-01 6.244804e-01 7.054980e-01 5.557518e-01 8.952444e-01 1.782211e+00 1.521079e+00 1.674952e+00 1.137409e+00 1.419759e+00 7.639790e-02 2.222560e-02 4.441931e-02 8.684831e-02 1.400224e-01 1.399931e-01 1.563334e-01 2.181655e-01 2.986884e-01 2.525766e-01 2.584616e-01 1.597787e-01 2.107144e-01 6.721287e-03
<GCONST> 6.877878e+01
<MIXTURE> 2 2.113977e-01
<MEAN> 39
 -1.135758e+01 -1.067701e+00 -1.683732e+00 -2.926528e+00 -6.002741e-01 6.405415e+00 3.449233e+00 -6.589962e-01 2.847056e+00 -3.864762e-01 -2.198544e+00 1.277681e+00 5.347933e+01 3.077701e-01 -8.971181e-02 -5.648294e-02 -6.006741e-03 4.954228e-02 -4.045524e-02 -3.316952e-03 -2.686293e-02 -1.125281e-01 1.827830e-02 8.495387e-02 -1.299233e-01 -2.912177e-01 -1.710418e-02 5.888107e-03 -8.228670e-03 1.385993e-03 4.565332e-03 -1.171428e-02 6.775657e-03 8.696373e-03 -1.103737e-02 7.121970e-04 -1.173671e-02 -1.750786e-02 1.364561e-02
<VARIANCE> 39
 3.040543e+01 2.257410e+01 2.470528e+01 1.402937e+01 1.763416e+01 4.263094e+01 1.845045e+01 2.360169e+01 3.183395e+01 1.990687e+01 2.620241e+01 2.502728e+01 2.679411e+01 3.145614e-01 3.850802e-01 4.993711e-01 6.701953e-01 9.615462e-01 1.249391e+00 1.287027e+00 1.462450e+00 1.586358e+00 1.276885e+00 1.396748e+00 1.270578e+00 1.426572e-01 5.058641e-02 6.598086e-02 8.888176e-02 1.319008e-01 1.928971e-01 2.348155e-01 2.563412e-01 2.914994e-01 3.174608e-01 2.622667e-01 2.809981e-01 2.498068e-01 1.840170e-02
<GCONST> 8.494909e+01
<MIXTURE> 3 2.113991e-01
<MEAN> 39
 -1.135758e+01 -1.067695e+00 -1.683722e+00 -2.926532e+00 -6.002797e-01 6.405425e+00 3.449230e+00 -6.590034e-01 2.847062e+00 -3.864788e-01 -2.198554e+00 1.277688e+00 5.347933e+01 3.077706e-01 -8.971209e-02 -5.648321e-02 -6.006822e-03 4.954195e-02 -4.045525e-02 -3.316931e-03 -2.686297e-02 -1.125279e-01 1.827844e-02 8.495399e-02 -1.299232e-01 -2.912179e-01 -1.710406e-02 5.888140e-03 -8.228651e-03 1.386036e-03 4.565257e-03 -1.171455e-02 6.775824e-03 8.696827e-03 -1.103735e-02 7.124043e-04 -1.173661e-02 -1.750807e-02 1.364558e-02
<VARIANCE> 39
 3.040543e+01 2.257406e+01 2.470537e+01 1.402936e+01 1.763415e+01 4.263093e+01 1.845043e+01 2.360172e+01 3.183394e+01 1.990687e+01 2.620245e+01 2.502729e+01 2.679408e+01 3.145612e-01 3.850799e-01 4.993707e-01 6.701940e-01 9.615459e-01 1.249391e+00 1.287027e+00 1.462449e+00 1.586357e+00 1.276885e+00 1.396749e+00 1.270576e+00 1.426570e-01 5.058638e-02 6.598081e-02 8.888175e-02 1.319006e-01 1.928971e-01 2.348154e-01 2.563408e-01 2.914994e-01 3.174610e-01 2.622665e-01 2.809983e-01 2.498070e-01 1.840168e-02
<GCONST> 8.494908e+01
<MIXTURE> 4 7.764421e-02
<MEAN> 39
 -1.328325e+01 -8.448800e-01 -8.547432e-01 -2.872864e+00 -1.108069e+00 5.723763e+00 3.015298e+00 -7.670088e-01 1.695083e+00 -1.314229e-01 -2.267965e+00 1.841406e+00 5.601463e+01 -9.383294e-01 3.439662e-01 2.402965e-02 -1.223493e-01 -2.813264e-01 3.483005e-01 -9.688886e-02 -1.794566e-01 2.340690e-01 1.493842e-02 -2.698731e-01 4.405995e-01 4.683481e-01 -1.739486e-01 7.415540e-03 4.794089e-02 -3.443938e-03 -1.190409e-01 4.555341e-02 -7.228608e-02 -6.033967e-02 1.559258e-01 -3.672464e-02 -1.325313e-01 5.232331e-02 1.060490e-01
<VARIANCE> 39
 3.879208e+01 4.468513e+01 3.357232e+01 1.206912e+01 1.513086e+01 5.673271e+01 2.259186e+01 2.721647e+01 3.225106e+01 2.377143e+01 3.195253e+01 2.413342e+01 8.297103e+01 2.232046e+00 1.256240e+00 1.004349e+00 1.018475e+00 1.489249e+00 2.489374e+00 1.933616e+00 2.118914e+00 2.895940e+00 2.032928e+00 2.517074e+00 2.153951e+00 1.191734e+00 6.373966e-01 2.087084e-01 1.669607e-01 1.632656e-01 2.515351e-01 4.830538e-01 3.472643e-01 4.382598e-01 5.387254e-01 4.196833e-01 4.859435e-01 4.072273e-01 3.835941e-01
<GCONST> 1.097622e+02
<MIXTURE> 5 2.113979e-01
<MEAN> 39
 -1.135752e+01 -1.067642e+00 -1.683720e+00 -2.926551e+00 -6.002501e-01 6.405499e+00 3.449258e+00 -6.589616e-01 2.847097e+00 -3.864500e-01 -2.198553e+00 1.277691e+00 5.347921e+01 3.077681e-01 -8.971476e-02 -5.648626e-02 -6.009897e-03 4.953965e-02 -4.045957e-02 -3.321004e-03 -2.686555e-02 -1.125330e-01 1.827776e-02 8.495511e-02 -1.299230e-01 -2.912122e-01 -1.710512e-02 5.887780e-03 -8.229208e-03 1.385506e-03 4.564137e-03 -1.171544e-02 6.775483e-03 8.695429e-03 -1.103867e-02 7.106529e-04 -1.173790e-02 -1.750858e-02 1.364595e-02
<VARIANCE> 39
 3.040532e+01 2.257338e+01 2.470543e+01 1.402916e+01 1.763403e+01 4.263033e+01 1.845025e+01 2.360157e+01 3.183364e+01 1.990683e+01 2.620241e+01 2.502725e+01 2.679301e+01 3.145635e-01 3.850799e-01 4.993697e-01 6.701934e-01 9.615456e-01 1.249395e+00 1.287025e+00 1.462454e+00 1.586364e+00 1.276888e+00 1.396752e+00 1.270576e+00 1.426560e-01 5.058678e-02 6.598085e-02 8.888145e-02 1.319003e-01 1.928968e-01 2.348159e-01 2.563401e-01 2.914996e-01 3.174605e-01 2.622672e-01 2.809989e-01 2.498069e-01 1.840180e-02
<GCONST> 8.494896e+01
<MIXTURE> 6 7.764282e-02
<MEAN> 39
 -1.328324e+01 -8.446898e-01 -8.546713e-01 -2.872879e+00 -1.108049e+00 5.723899e+00 3.015348e+00 -7.669767e-01 1.695139e+00 -1.313809e-01 -2.268008e+00 1.841470e+00 5.601436e+01 -9.383644e-01 3.439733e-01 2.403060e-02 -1.223533e-01 -2.813379e-01 3.483030e-01 -9.689006e-02 -1.794547e-01 2.340793e-01 1.493684e-02 -2.698855e-01 4.406052e-01 4.683799e-01 -1.739515e-01 7.411434e-03 4.793848e-02 -3.445280e-03 -1.190417e-01 4.555481e-02 -7.228783e-02 -6.034285e-02 1.559251e-01 -3.672370e-02 -1.325317e-01 5.232035e-02 1.060542e-01
<VARIANCE> 39
 3.879235e+01 4.468307e+01 3.357278e+01 1.206918e+01 1.513081e+01 5.673191e+01 2.259169e+01 2.721657e+01 3.225108e+01 2.377143e+01 3.195273e+01 2.413335e+01 8.296700e+01 2.232079e+00 1.256266e+00 1.004366e+00 1.018488e+00 1.489250e+00 2.489398e+00 1.933625e+00 2.118935e+00 2.895964e+00 2.032954e+00 2.517113e+00 2.153959e+00 1.191735e+00 6.374078e-01 2.087099e-01 1.669616e-01 1.632652e-01 2.515351e-01 4.830542e-01 3.472643e-01 4.382628e-01 5.387299e-01 4.196846e-01 4.859497e-01 4.072264e-01 3.835951e-01
<GCONST> 1.097623e+02
<MIXTURE> 7 7.764392e-02
<MEAN> 39
 -1.328325e+01 -8.446624e-01 -8.546541e-01 -2.872882e+00 -1.108046e+00 5.723918e+00 3.015357e+00 -7.669672e-01 1.695142e+00 -1.313752e-01 -2.268021e+00 1.841475e+00 5.601432e+01 -9.383700e-01 3.439730e-01 2.403009e-02 -1.223546e-01 -2.813399e-01 3.483037e-01 -9.688805e-02 -1.794535e-01 2.340806e-01 1.493668e-02 -2.698849e-01 4.406061e-01 4.683858e-01 -1.739508e-01 7.410597e-03 4.793812e-02 -3.445023e-03 -1.190416e-01 4.555467e-02 -7.228816e-02 -6.034398e-02 1.559254e-01 -3.672363e-02 -1.325307e-01 5.232033e-02 1.060542e-01
<VARIANCE> 39
 3.879244e+01 4.468285e+01 3.357293e+01 1.206920e+01 1.513078e+01 5.673180e+01 2.259169e+01 2.721665e+01 3.225103e+01 2.377147e+01 3.195281e+01 2.413338e+01 8.296661e+01 2.232088e+00 1.256268e+00 1.004373e+00 1.018491e+00 1.489250e+00 2.489407e+00 1.933628e+00 2.118942e+00 2.895967e+00 2.032958e+00 2.517119e+00 2.153962e+00 1.191738e+00 6.374108e-01 2.087105e-01 1.669620e-01 1.632656e-01 2.515351e-01 4.830548e-01 3.472648e-01 4.382648e-01 5.387310e-01 4.196850e-01 4.859512e-01 4.072270e-01 3.835967e-01
<GCONST> 1.097624e+02
<MIXTURE> 8 6.151190e-02
<MEAN> 39
 -1.429303e+01 -2.152183e+00 -4.619763e-01 -1.759800e+00 -2.796047e+00 2.621436e+00 1.234276e+00 -1.531988e-03 3.495334e+00 -2.637852e-01 -6.857442e-01 1.887497e-01 5.787762e+01 -3.774964e+00 -1.399592e-01 1.907630e-01 -2.171871e-01 -1.601478e+00 1.292136e-01 -1.567430e+00 -1.690750e+00 1.041108e+00 -9.099528e-01 -1.572276e+00 6.226048e-01 4.154336e+00 2.779062e-01 -7.881814e-02 -2.957992e-02 -1.322520e-01 1.090064e-01 2.500887e-01 1.723955e-01 -2.146506e-01 -2.682935e-01 8.091796e-02 -6.686342e-02 -1.329815e-02 -1.813998e-01
<VARIANCE> 39
 7.427074e+01 3.746432e+01 1.162781e+01 2.028793e+01 3.387513e+01 9.078927e+01 3.979307e+01 3.073180e+01 4.942632e+01 5.113247e+01 2.652445e+01 2.298825e+01 1.334608e+02 5.704457e+00 3.777651e+00 1.650291e+00 1.601782e+00 2.611800e+00 1.095651e+01 3.821015e+00 3.847993e+00 4.797937e+00 5.682918e+00 2.443747e+00 3.343098e+00 5.134516e+00 1.512376e+00 4.881842e-01 1.743291e-01 2.208304e-01 6.032627e-01 1.481924e+00 7.430562e-01 6.501028e-01 5.469489e-01 1.078389e+00 5.002819e-01 3.352439e-01 2.252659e+00
<GCONST> 1.305788e+02
<STATE> 3
<NUMMIXES> 8
<MIXTURE> 1 6.638063e-02
<MEAN> 39
 -1.941933e+01 3.027617e+00 9.798401e-01 -5.908202e+00 -4.554817e+00 1.309608e+01 -4.179384e-01 -3.493706e+00 9.365685e+00 -3.948500e+00 -3.289700e+00 6.365273e+00 5.791764e+01 -2.623993e+00 4.440006e-01 3.899195e-01 5.868033e-01 5.134896e-03 -5.799496e-01 9.183149e-01 4.768232e-01 -2.752345e-01 4.485160e-02 -4.727699e-02 1.532835e-01 1.833558e+00 -3.267653e-01 -7.340594e-02 -3.684752e-02 6.416775e-02 8.454905e-02 -1.196852e-02 1.649637e-01 1.682425e-02 -9.498355e-02 -2.102146e-02 -7.533797e-02 -1.478813e-01 2.722222e-01
<VARIANCE> 39
 3.519038e+01 5.836060e+00 1.497121e+01 1.052387e+01 1.532025e+01 2.715674e+01 2.408454e+01 1.564398e+01 1.852572e+01 1.907426e+01 1.859507e+01 1.842203e+01 1.807329e+01 1.618187e+00 8.176302e-01 1.234697e+00 1.158923e+00 1.911596e+00 4.411325e+00 2.723885e+00 2.845989e+00 3.327465e+00 2.145428e+00 2.206303e+00 2.740205e+00 6.981116e-01 8.472634e-01 9.976988e-02 1.622538e-01 1.719452e-01 2.544956e-01 4.488547e-01 3.949899e-01 3.828569e-01 3.974267e-01 4.133616e-01 3.690346e-01 3.565544e-01 3.974175e-01
<GCONST> 1.019811e+02
<MIXTURE> 2 1.714415e-01
<MEAN> 39
 -2.097614e+01 3.267615e+00 4.852371e-01 -5.872878e+00 -4.222530e+00 1.402430e+01 6.884140e-01 -3.910920e+00 8.614866e+00 -3.831969e+00 -3.948405e+00 5.966548e+00 5.902206e+01 5.634815e-01 2.456427e-02 3.637175e-02 5.313307e-02 1.314632e-01 1.078869e-01 4.905612e-02 1.873902e-01 2.035182e-01 2.090777e-01 2.069253e-01 2.939775e-02 -4.162888e-01 -2.157950e-02 -9.078003e-03 -2.931265e-02 6.397755e-02 -1.059829e-02 -1.209894e-01 3.654752e-02 4.448489e-02 -5.328335e-02 3.148588e-02 4.130677e-02 -6.706232e-03 1.940880e-02
<VARIANCE> 39
 2.859626e+01 6.290906e+00 1.614300e+01 9.811453e+00 1.448788e+01 2.266782e+01 2.124823e+01 1.795805e+01 1.990240e+01 1.848513e+01 1.812718e+01 1.747532e+01 1.341222e+01 3.500792e-01 3.138966e-01 5.687681e-01 7.697857e-01 1.004106e+00 1.454659e+00 1.456844e+00 1.413874e+00 1.410766e+00 1.414309e+00 1.423263e+00 1.358245e+00 1.814016e-01 1.148708e-01 6.113848e-02 1.186449e-01 1.478669e-01 2.039021e-01 2.995856e-01 3.117227e-01 2.955510e-01 2.947691e-01 2.937389e-01 2.976474e-01 2.824360e-01 6.423125e-02
<GCONST> 8.379581e+01
<MIXTURE> 3 1.714415e-01
<MEAN> 39
 -2.097614e+01 3.267615e+00 4.852371e-01 -5.872878e+00 -4.222530e+00 1.402430e+01 6.884140e-01 -3.910920e+00 8.614866e+00 -3.831969e+00 -3.948405e+00 5.966548e+00 5.902206e+01 5.634815e-01 2.456427e-02 3.637175e-02 5.313307e-02 1.314632e-01 1.078869e-01 4.905612e-02 1.873902e-01 2.035182e-01 2.090777e-01 2.069253e-01 2.939775e-02 -4.162888e-01 -2.157950e-02 -9.078003e-03 -2.931265e-02 6.397755e-02 -1.059829e-02 -1.209894e-01 3.654752e-02 4.448489e-02 -5.328335e-02 3.148588e-02 4.130677e-02 -6.706232e-03 1.940880e-02
<VARIANCE> 39
 2.859626e+01 6.290906e+00 1.614300e+01 9.811453e+00 1.448788e+01 2.266782e+01 2.124823e+01 1.795805e+01 1.990240e+01 1.848513e+01 1.812718e+01 1.747532e+01 1.341222e+01 3.500792e-01 3.138966e-01 5.687681e-01 7.697857e-01 1.004106e+00 1.454659e+00 1.456844e+00 1.413874e+00 1.410766e+00 1.414309e+00 1.423263e+00 1.358245e+00 1.814016e-01 1.148708e-01 6.113848e-02 1.186449e-01 1.478669e-01 2.039021e-01 2.995856e-01 3.117227e-01 2.955510e-01 2.947691e-01 2.937389e-01 2.976474e-01 2.824360e-01 6.423125e-02
<GCONST> 8.379581e+01
<MIXTURE> 4 1.142569e-01
<MEAN> 39
 -1.764048e+01 2.291331e+00 -1.227210e+00 -4.806729e+00 -4.029542e+00 1.019029e+01 3.633072e-01 -3.597392e+00 6.411954e+00 -3.249135e+00 -2.771518e+00 4.524425e+00 5.823538e+01 1.830126e-01 -1.745968e-01 -1.392448e-01 -1.910444e-01 -1.172378e-01 -6.126799e-02 -2.068764e-01 -3.041950e-01 -2.317668e-01 -1.887093e-01 -1.829603e-01 -1.342635e-01 -1.793238e-01 5.566404e-02 1.893938e-02 3.949456e-02 -5.946780e-02 -4.327633e-03 5.845437e-02 -2.374352e-02 -1.008132e-02 2.756194e-02 -8.959938e-03 -2.587681e-02 1.930429e-02 -4.256379e-02
<VARIANCE> 39
 6.951066e+01 1.356804e+01 2.176648e+01 1.417599e+01 2.024150e+01 3.519423e+01 2.889754e+01 2.769068e+01 3.037673e+01 2.179198e+01 1.926784e+01 2.139170e+01 2.729532e+01 6.188360e-01 4.017648e-01 6.869348e-01 8.235553e-01 1.122098e+00 1.814895e+00 1.673169e+00 1.626782e+00 1.643356e+00 1.539410e+00 1.409250e+00 1.518212e+00 3.323391e-01 3.227204e-01 9.381948e-02 1.463321e-01 1.830992e-01 2.511576e-01 3.740473e-01 3.623779e-01 3.716906e-01 3.699413e-01 3.456201e-01 3.000020e-01 3.186564e-01 1.713621e-01
<GCONST> 9.601823e+01
<MIXTURE> 5 1.714390e-01
<MEAN> 39
 -2.097614e+01 3.267617e+00 4.852308e-01 -5.872877e+00 -4.222531e+00 1.402428e+01 6.884159e-01 -3.910923e+00 8.614855e+00 -3.831967e+00 -3.948405e+00 5.966544e+00 5.902206e+01 5.634815e-01 2.456423e-02 3.637225e-02 5.313329e-02 1.314633e-01 1.078873e-01 4.905695e-02 1.873909e-01 2.035189e-01 2.090779e-01 2.069252e-01 2.939755e-02 -4.162888e-01 -2.157908e-02 -9.078013e-03 -2.931230e-02 6.397738e-02 -1.059791e-02 -1.209883e-01 3.654729e-02 4.448496e-02 -5.328244e-02 3.148611e-02 4.130702e-02 -6.705861e-03 1.940848e-02
<VARIANCE> 39
 2.859630e+01 6.290914e+00 1.614301e+01 9.811459e+00 1.448786e+01 2.266780e+01 2.124826e+01 1.795807e+01 1.990240e+01 1.848513e+01 1.812718e+01 1.747533e+01 1.341223e+01 3.500797e-01 3.138964e-01 5.687681e-01 7.697849e-01 1.004106e+00 1.454658e+00 1.456843e+00 1.413873e+00 1.410765e+00 1.414310e+00 1.423263e+00 1.358244e+00 1.814016e-01 1.148703e-01 6.113851e-02 1.186448e-01 1.478670e-01 2.039021e-01 2.995853e-01 3.117231e-01 2.955509e-01 2.947687e-01 2.937386e-01 2.976472e-01 2.824360e-01 6.423099e-02
<GCONST> 8.379581e+01
<MIXTURE> 6 1.142571e-01
<MEAN> 39
 -1.764049e+01 2.291333e+00 -1.227209e+00 -4.806736e+00 -4.029560e+00 1.019028e+01 3.632879e-01 -3.597409e+00 6.411950e+00 -3.249149e+00 -2.771525e+00 4.524430e+00 5.823540e+01 1.830125e-01 -1.745965e-01 -1.392440e-01 -1.910437e-01 -1.172369e-01 -6.126615e-02 -2.068751e-01 -3.041939e-01 -2.317651e-01 -1.887081e-01 -1.829596e-01 -1.342633e-01 -1.793243e-01 5.566478e-02 1.893950e-02 3.949479e-02 -5.946745e-02 -4.326596e-03 5.845430e-02 -2.374276e-02 -1.008015e-02 2.756204e-02 -8.959082e-03 -2.587637e-02 1.930388e-02 -4.256440e-02
<VARIANCE> 39
 6.951078e+01 1.356805e+01 2.176658e+01 1.417606e+01 2.024155e+01 3.519440e+01 2.889770e+01 2.769085e+01 3.037683e+01 2.179203e+01 1.926790e+01 2.139171e+01 2.729534e+01 6.188352e-01 4.017646e-01 6.869345e-01 8.235568e-01 1.122100e+00 1.814895e+00 1.673171e+00 1.626784e+00 1.643357e+00 1.539412e+00 1.409250e+00 1.518211e+00 3.323395e-01 3.227216e-01 9.381959e-02 1.463327e-01 1.830999e-01 2.511586e-01 3.740484e-01 3.623798e-01 3.716918e-01 3.699426e-01 3.456207e-01 3.000030e-01 3.186567e-01 1.713628e-01
<GCONST> 9.601833e+01
<MIXTURE> 7 1.142546e-01
<MEAN> 39
 -1.764049e+01 2.291336e+00 -1.227208e+00 -4.806741e+00 -4.029569e+00 1.019028e+01 3.632811e-01 -3.597414e+00 6.411951e+00 -3.249150e+00 -2.771531e+00 4.524431e+00 5.823540e+01 1.830132e-01 -1.745967e-01 -1.392442e-01 -1.910439e-01 -1.172372e-01 -6.126690e-02 -2.068756e-01 -3.041945e-01 -2.317652e-01 -1.887082e-01 -1.829593e-01 -1.342632e-01 -1.793248e-01 5.566453e-02 1.893946e-02 3.949460e-02 -5.946674e-02 -4.325747e-03 5.845433e-02 -2.374172e-02 -1.007981e-02 2.756169e-02 -8.958891e-03 -2.587581e-02 1.930378e-02 -4.256422e-02
<VARIANCE> 39
 6.951074e+01 1.356810e+01 2.176660e+01 1.417606e+01 2.024159e+01 3.519443e+01 2.889770e+01 2.769085e+01 3.037685e+01 2.179203e+01 1.926794e+01 2.139170e+01 2.729536e+01 6.188355e-01 4.017645e-01 6.869357e-01 8.235565e-01 1.122099e+00 1.814898e+00 1.673169e+00 1.626781e+00 1.643359e+00 1.539409e+00 1.409251e+00 1.518212e+00 3.323396e-01 3.227204e-01 9.381951e-02 1.463325e-01 1.830997e-01 2.511588e-01 3.740481e-01 3.623789e-01 3.716909e-01 3.699427e-01 3.456203e-01 3.000030e-01 3.186569e-01 1.713623e-01
<GCONST> 9.601831e+01
<MIXTURE> 8 7.652068e-02
<MEAN> 39
 -2.013499e+01 2.236436e+00 -6.457703e-01 -4.050607e+00 -5.026327e+00 6.612401e+00 1.717561e+00 -2.343168e+00 4.672104e+00 -2.954810e+00 -2.964132e+00 4.187963e+00 6.092335e+01 -2.080856e+00 1.768113e-01 -6.037401e-02 5.587126e-02 -3.146302e-01 -1.967939e-02 -1.762047e-01 -3.977833e-01 -2.103137e-01 -6.325077e-01 -5.352407e-01 2.405303e-01 1.907466e+00 3.080172e-01 4.005238e-03 4.756568e-02 -2.172409e-01 7.017895e-02 4.965631e-01 -2.681468e-01 -2.161317e-01 2.592595e-01 -1.169543e-01 -5.018535e-02 4.859837e-02 -2.677590e-01
<VARIANCE> 39
 1.024867e+02 1.733171e+01 3.073229e+01 2.032524e+01 2.595396e+01 4.638493e+01 3.923519e+01 3.043243e+01 3.439651e+01 2.502557e+01 2.395014e+01 2.432789e+01 3.684472e+01 4.865709e+00 1.504373e+00 1.870359e+00 1.687287e+00 2.581076e+00 4.476934e+00 3.646242e+00 2.746148e+00 3.055705e+00 2.319050e+00 2.201436e+00 2.738360e+00 1.744526e+00 1.137773e+00 2.242663e-01 2.741975e-01 3.079488e-01 4.016577e-01 6.107237e-01 5.798575e-01 4.839017e-01 5.086092e-01 4.136316e-01 4.061143e-01 4.272898e-01 6.319780e-01
<GCONST> 1.184263e+02
<STATE> 4
<NUMMIXES> 8
<MIXTURE> 1 3.640951e-02
<MEAN> 39
 -1.413367e+01 5.631144e-01 4.703081e+00 -4.277795e+00 -4.383086e+00 7.203142e+00 1.976467e+00 -4.243645e+00 9.675704e-01 1.327390e+00 -7.879042e+00 1.753078e+00 5.121989e+01 5.582457e-01 3.467818e-01 3.396507e-01 6.241439e-01 9.218277e-01 5.481202e-01 5.103625e-01 6.852378e-01 4.171149e-01 4.747645e-01 6.569653e-01 1.003858e-01 -4.518912e-01 -9.315486e-03 7.677960e-02 9.045423e-02 1.069053e-01 9.679418e-02 1.329513e-01 1.048728e-01 8.115906e-02 2.304071e-01 2.188504e-01 5.198758e-02 1.196972e-01 3.782553e-02
<VARIANCE> 39
 6.408663e+01 7.750184e+00 2.347583e+01 1.532198e+01 2.235878e+01 2.758298e+01 2.144473e+01 3.035236e+01 2.473882e+01 2.843087e+01 2.952020e+01 1.554688e+01 2.935631e+01 2.362337e-01 2.535547e-01 4.584308e-01 5.516438e-01 9.278755e-01 1.062262e+00 1.272800e+00 1.391434e+00 1.417947e+00 1.526380e+00 1.244585e+00 1.285519e+00 1.323128e-01 2.879757e-02 5.430080e-02 1.103618e-01 1.380459e-01 1.863769e-01 2.253475e-01 2.454390e-01 2.400828e-01 2.607568e-01 2.775131e-01 3.251715e-01 2.561070e-01 1.450901e-02
<GCONST> 8.233311e+01
<MIXTURE> 2 2.022570e-01
<MEAN> 39
 -2.147537e+01 9.553044e-01 7.124158e+00 -3.260204e+00 -6.824109e+00 1.122468e+01 1.524211e+00 -7.430345e+00 3.090203e+00 4.631349e+00 -1.180006e+01 5.124588e+00 5.700186e+01 5.446740e-01 6.107967e-02 2.068093e-01 -1.482274e-01 -3.128239e-02 1.289943e-01 1.339304e-02 -1.495644e-01 3.883094e-01 5.225266e-02 -2.397325e-02 1.067272e-01 -6.243482e-01 -4.780800e-02 1.440509e-02 -6.744984e-02 3.895647e-02 1.354400e-02 -1.162855e-01 1.484159e-02 9.422576e-02 -1.906177e-02 6.554289e-03 2.757710e-02 -4.604789e-02 2.940463e-02
<VARIANCE> 39
 3.768527e+01 7.521111e+00 1.315533e+01 1.639997e+01 2.772511e+01 2.701225e+01 2.793422e+01 4.557392e+01 3.333802e+01 2.858273e+01 2.991527e+01 3.188967e+01 3.158859e+01 2.068430e-01 3.361900e-01 6.557919e-01 7.240724e-01 9.526307e-01 1.271599e+00 1.326358e+00 1.501661e+00 1.784230e+00 1.450184e+00 1.373552e+00 1.410617e+00 1.312856e-01 8.073407e-02 7.589349e-02 1.369930e-01 1.606929e-01 2.143436e-01 2.818734e-01 2.870040e-01 3.508369e-01 3.986420e-01 3.347788e-01 3.012698e-01 3.055420e-01 7.017406e-02
<GCONST> 8.962145e+01
<MIXTURE> 3 2.022559e-01
<MEAN> 39
 -2.147536e+01 9.553058e-01 7.124158e+00 -3.260203e+00 -6.824111e+00 1.122468e+01 1.524213e+00 -7.430346e+00 3.090203e+00 4.631347e+00 -1.180006e+01 5.124589e+00 5.700185e+01 5.446736e-01 6.107968e-02 2.068092e-01 -1.482271e-01 -3.128247e-02 1.289942e-01 1.339305e-02 -1.495644e-01 3.883098e-01 5.225270e-02 -2.397321e-02 1.067274e-01 -6.243479e-01 -4.780818e-02 1.440494e-02 -6.744985e-02 3.895649e-02 1.354415e-02 -1.162857e-01 1.484134e-02 9.422591e-02 -1.906197e-02 6.554545e-03 2.757725e-02 -4.604832e-02 2.940478e-02
<VARIANCE> 39
 3.768520e+01 7.521100e+00 1.315533e+01 1.639997e+01 2.772513e+01 2.701226e+01 2.793425e+01 4.557397e+01 3.333800e+01 2.858268e+01 2.991526e+01 3.188972e+01 3.158856e+01 2.068434e-01 3.361906e-01 6.557922e-01 7.240726e-01 9.526311e-01 1.271598e+00 1.326358e+00 1.501661e+00 1.784230e+00 1.450184e+00 1.373551e+00 1.410616e+00 1.312856e-01 8.073410e-02 7.589348e-02 1.369931e-01 1.606932e-01 2.143435e-01 2.818733e-01 2.870041e-01 3.508373e-01 3.986422e-01 3.347785e-01 3.012701e-01 3.055423e-01 7.017411e-02
<GCONST> 8.962145e+01
<MIXTURE> 4 9.788755e-02
<MEAN> 39
 -2.388296e+01 1.067774e+00 5.354074e+00 -2.558635e+00 -6.302176e+00 1.043767e+01 1.854801e+00 -6.579152e+00 3.164797e+00 4.100522e+00 -1.188395e+01 4.930006e+00 5.911946e+01 -5.062994e-01 -1.155851e-01 -2.695286e-01 1.329456e-01 -7.243969e-02 -1.824864e-01 3.148807e-02 4.930255e-02 -4.713516e-01 -2.451504e-01 -1.089987e-02 -1.732971e-01 6.166438e-01 4.324825e-02 -9.335988e-03 9.316046e-02 -5.313011e-02 -2.176771e-02 5.792490e-02 -5.315393e-02 -4.899310e-02 -4.471141e-02 1.123965e-02 6.929528e-03 3.904807e-02 -3.000099e-02
<VARIANCE> 39
 2.773005e+01 1.036027e+01 1.646644e+01 1.678148e+01 2.508972e+01 2.775139e+01 3.187567e+01 4.536902e+01 3.502829e+01 2.952711e+01 2.539747e+01 2.822429e+01 3.110769e+01 1.240324e+00 7.583590e-01 1.315544e+00 1.256027e+00 1.633592e+00 3.046606e+00 1.945650e+00 3.914272e+00 2.971077e+00 2.513628e+00 2.115268e+00 2.518976e+00 9.193024e-01 4.898011e-01 1.370088e-01 2.934082e-01 2.514156e-01 3.028669e-01 4.970039e-01 3.536454e-01 5.709413e-01 7.458660e-01 4.580844e-01 3.801253e-01 4.785188e-01 5.254168e-01
<GCONST> 1.091874e+02
<MIXTURE> 5 2.022617e-01
<MEAN> 39
 -2.147531e+01 9.553129e-01 7.124154e+00 -3.260201e+00 -6.824049e+00 1.122464e+01 1.524250e+00 -7.430260e+00 3.090214e+00 4.631364e+00 -1.179998e+01 5.124539e+00 5.700178e+01 5.446737e-01 6.108105e-02 2.068039e-01 -1.482257e-01 -3.128010e-02 1.289895e-01 1.339203e-02 -1.495628e-01 3.883007e-01 5.224990e-02 -2.397101e-02 1.067212e-01 -6.243461e-01 -4.780772e-02 1.440499e-02 -6.745012e-02 3.895516e-02 1.354190e-02 -1.162838e-01 1.484080e-02 9.422147e-02 -1.906321e-02 6.550969e-03 2.757305e-02 -4.604591e-02 2.940493e-02
<VARIANCE> 39
 3.768579e+01 7.521111e+00 1.315530e+01 1.639995e+01 2.772507e+01 2.701223e+01 2.793404e+01 4.557372e+01 3.333789e+01 2.858266e+01 2.991518e+01 3.188941e+01 3.158868e+01 2.068440e-01 3.361892e-01 6.557932e-01 7.240718e-01 9.526340e-01 1.271600e+00 1.326359e+00 1.501664e+00 1.784228e+00 1.450184e+00 1.373556e+00 1.410614e+00 1.312862e-01 8.073346e-02 7.589310e-02 1.369923e-01 1.606930e-01 2.143440e-01 2.818731e-01 2.870037e-01 3.508364e-01 3.986387e-01 3.347766e-01 3.012701e-01 3.055405e-01 7.017308e-02
<GCONST> 8.962138e+01
<MIXTURE> 6 9.788845e-02
<MEAN> 39
 -2.388290e+01 1.067776e+00 5.354083e+00 -2.558669e+00 -6.302195e+00 1.043763e+01 1.854767e+00 -6.579185e+00 3.164805e+00 4.100498e+00 -1.188395e+01 4.930013e+00 5.911943e+01 -5.062981e-01 -1.155814e-01 -2.695274e-01 1.329456e-01 -7.243938e-02 -1.824902e-01 3.148823e-02 4.930595e-02 -4.713506e-01 -2.451492e-01 -1.089813e-02 -1.732986e-01 6.166398e-01 4.324167e-02 -9.336305e-03 9.315881e-02 -5.312664e-02 -2.176540e-02 5.792630e-02 -5.315139e-02 -4.898937e-02 -4.471349e-02 1.124164e-02 6.930391e-03 3.904748e-02 -2.999572e-02
<VARIANCE> 39
 2.773042e+01 1.036032e+01 1.646651e+01 1.678143e+01 2.508974e+01 2.775155e+01 3.187571e+01 4.536919e+01 3.502842e+01 2.952707e+01 2.539764e+01 2.822448e+01 3.110784e+01 1.240323e+00 7.583578e-01 1.315538e+00 1.256025e+00 1.633586e+00 3.046588e+00 1.945643e+00 3.914263e+00 2.971074e+00 2.513617e+00 2.115265e+00 2.518971e+00 9.192992e-01 4.898021e-01 1.370088e-01 2.934077e-01 2.514152e-01 3.028662e-01 4.970036e-01 3.536437e-01 5.709429e-01 7.458678e-01 4.580845e-01 3.801261e-01 4.785204e-01 5.254166e-01
<GCONST> 1.091874e+02
<MIXTURE> 7 9.788887e-02
<MEAN> 39
 -2.388290e+01 1.067777e+00 5.354080e+00 -2.558666e+00 -6.302191e+00 1.043763e+01 1.854771e+00 -6.579181e+00 3.164800e+00 4.100500e+00 -1.188394e+01 4.930008e+00 5.911943e+01 -5.062983e-01 -1.155817e-01 -2.695270e-01 1.329457e-01 -7.243974e-02 -1.824890e-01 3.148817e-02 4.930523e-02 -4.713504e-01 -2.451490e-01 -1.089881e-02 -1.732976e-01 6.166403e-01 4.324239e-02 -9.336196e-03 9.315906e-02 -5.312689e-02 -2.176563e-02 5.792690e-02 -5.315128e-02 -4.898946e-02 -4.471290e-02 1.124115e-02 6.929487e-03 3.904794e-02 -2.999651e-02
<VARIANCE> 39
 2.773045e+01 1.036032e+01 1.646651e+01 1.678147e+01 2.508977e+01 2.775155e+01 3.187576e+01 4.536918e+01 3.502846e+01 2.952712e+01 2.539760e+01 2.822447e+01 3.110784e+01 1.240325e+00 7.583585e-01 1.315539e+00 1.256027e+00 1.633591e+00 3.046589e+00 1.945643e+00 3.914260e+00 2.971080e+00 2.513621e+00 2.115267e+00 2.518971e+00 9.192990e-01 4.898024e-01 1.370090e-01 2.934080e-01 2.514156e-01 3.028669e-01 4.970040e-01 3.536449e-01 5.709432e-01 7.458682e-01 4.580851e-01 3.801263e-01 4.785205e-01 5.254165e-01
<GCONST> 1.091874e+02
<MIXTURE> 8 6.313957e-02
<MEAN> 39
 -2.456133e+01 2.162781e+00 4.694678e+00 -1.519263e+00 -6.599459e+00 5.773753e+00 1.185832e+00 -2.240130e+00 2.310099e-01 5.997282e+00 -9.802905e+00 3.101774e+00 6.004702e+01 -2.410541e+00 -3.352389e-01 -8.140630e-01 2.546262e-01 1.795599e-01 -8.733346e-01 -7.113194e-01 8.297207e-01 -1.781530e+00 2.707113e-01 8.360695e-02 -2.940725e-01 2.782842e+00 3.120586e-01 -1.236723e-01 1.250997e-01 -1.846345e-01 -6.416936e-02 6.934422e-01 2.022346e-02 -6.718814e-01 2.423390e-01 -2.439069e-01 -2.655415e-01 1.560218e-01 -2.118369e-01
<VARIANCE> 39
 5.784232e+01 1.357762e+01 1.799286e+01 1.770920e+01 2.587838e+01 3.964471e+01 3.512378e+01 4.241069e+01 3.590260e+01 2.709691e+01 2.498125e+01 1.736437e+01 4.375742e+01 3.278182e+00 1.064969e+00 1.753129e+00 1.805013e+00 3.036978e+00 4.435839e+00 3.042088e+00 5.360574e+00 3.787897e+00 3.369555e+00 2.745789e+00 2.779635e+00 1.593360e+00 7.144451e-01 1.636543e-01 2.636048e-01 2.645625e-01 3.547275e-01 5.396975e-01 5.028919e-01 6.536683e-01 6.108155e-01 4.113876e-01 3.909376e-01 4.198453e-01 6.795761e-01
<GCONST> 1.167682e+02
<TRANSP> 5
 0.000000e+00 1.000000e+00 0.000000e+00 0.000000e+00 0.000000e+00
 0.000000e+00 9.522249e-01 4.777514e-02 0.000000e+00 0.000000e+00
 0.000000e+00 0.000000e+00 9.919224e-01 8.077540e-03 0.000000e+00
 0.000000e+00 0.000000e+00 0.000000e+00 9.936509e-01 6.349077e-03
 0.000000e+00 0.000000e+00 0.000000e+00 0.000000e+00 0.000000e+00
<ENDHMM>
~h "cm"
<BEGINHMM>
<NUMSTATES> 5
<STATE> 2
<NUMMIXES> 8
<MIXTURE> 1 5.408504e-02
<MEAN> 39
 -8.572873e+00 -3.663295e+00 -4.237552e+00 -7.950621e+00 -4.204093e+00 -4.848196e+00 -4.878098e+00 -3.609133e+00 -4.838558e+00 -3.084178e+00 -2.026157e+00 -2.540894e+00 6.852562e+01 2.462073e-01 2.874513e-01 4.519289e-01 5.570589e-01 7.900674e-01 8.396637e-01 6.243975e-01 2.804695e-01 2.928922e-01 4.763211e-01 6.061789e-01 5.293866e-01 -1.736063e-01 3.569614e-02 1.922451e-01 1.761210e-01 3.796085e-01 3.391357e-01 4.331543e-01 3.861641e-01 2.877612e-01 2.873487e-01 2.660694e-01 1.780557e-01 4.686598e-02 -3.679670e-01
<VARIANCE> 39
 1.411445e+01 1.895012e+01 1.495123e+01 1.448377e+01 1.454952e+01 1.350387e+01 1.579807e+01 1.765491e+01 2.073128e+01 1.553508e+01 1.518799e+01 1.418203e+01 6.494860e+01 3.281085e-01 4.141355e-01 7.739010e-01 8.101725e-01 1.014706e+00 9.232511e-01 1.149901e+00 1.468473e+00 1.864912e+00 1.411080e+00 1.512618e+00 1.235594e+00 4.821520e-01 1.199054e-01 1.620067e-01 1.647361e-01 1.863779e-01 2.722815e-01 2.563494e-01 2.616544e-01 3.297333e-01 3.357622e-01 2.761534e-01 2.820641e-01 2.935019e-01 2.267646e-01
<GCONST> 8.884527e+01
<MIXTURE> 2 2.057957e-01
<MEAN> 39
 -9.175207e+00 -3.921800e-01 -2.001581e+00 -3.300317e+00 6.962609e-02 4.584239e-01 -6.534871e-01 -3.109721e-01 -2.200212e+00 -3.728535e-01 4.577957e-01 -2.283664e+00 5.933819e+01 -4.311117e-02 7.064550e-02 4.187319e-02 9.141211e-02 1.225377e-01 2.088485e-01 1.590594e-01 1.191340e-01 6.994023e-02 9.227284e-02 8.951479e-02 3.600644e-02 -1.060777e-01 -1.412448e-02 -5.929116e-03 -1.850440e-02 -3.960771e-02 -5.017919e-02 -6.789503e-02 -5.997976e-02 -3.782763e-02 -3.872199e-02 -3.539472e-02 -3.200064e-02 -2.505066e-02 2.511952e-02
<VARIANCE> 39
 2.040518e+01 1.787062e+01 1.407858e+01 1.479475e+01 1.478754e+01 1.444493e+01 1.762610e+01 1.877983e+01 2.034815e+01 1.751011e+01 1.627546e+01 1.384959e+01 5.822261e+01 2.319724e-01 3.666760e-01 5.068494e-01 7.413110e-01 8.377070e-01 1.079146e+00 1.174419e+00 1.302086e+00 1.402397e+00 1.337027e+00 1.323727e+00 1.194679e+00 2.566314e-01 3.289827e-02 6.157223e-02 9.032571e-02 1.276610e-01 1.647560e-01 2.135882e-01 2.254942e-01 2.522577e-01 2.704627e-01 2.625023e-01 2.664923e-01 2.254407e-01 1.920369e-02
<GCONST> 7.975848e+01
<MIXTURE> 3 2.057974e-01
<MEAN> 39
 -9.175210e+00 -3.921668e-01 -2.001575e+00 -3.300312e+00 6.963124e-02 4.584328e-01 -6.534814e-01 -3.109642e-01 -2.200204e+00 -3.728488e-01 4.577995e-01 -2.283665e+00 5.933817e+01 -4.311154e-02 7.064510e-02 4.187269e-02 9.141086e-02 1.225371e-01 2.088472e-01 1.590580e-01 1.191328e-01 6.993881e-02 9.227201e-02 8.951461e-02 3.600670e-02 -1.060766e-01 -1.412456e-02 -5.929308e-03 -1.850450e-02 -3.960780e-02 -5.017902e-02 -6.789487e-02 -5.997956e-02 -3.782759e-02 -3.872204e-02 -3.539481e-02 -3.200066e-02 -2.505050e-02 2.511962e-02
<VARIANCE> 39
 2.040516e+01 1.787061e+01 1.407860e+01 1.479473e+01 1.478754e+01 1.444492e+01 1.762607e+01 1.877977e+01 2.034807e+01 1.751007e+01 1.627537e+01 1.384953e+01 5.822256e+01 2.319723e-01 3.666756e-01 5.068491e-01 7.413096e-01 8.377066e-01 1.079145e+00 1.174418e+00 1.302085e+00 1.402395e+00 1.337028e+00 1.323728e+00 1.194676e+00 2.566308e-01 3.289824e-02 6.157215e-02 9.032563e-02 1.276609e-01 1.647560e-01 2.135878e-01 2.254936e-01 2.522572e-01 2.704623e-01 2.625016e-01 2.664915e-01 2.254395e-01 1.920368e-02
<GCONST> 7.975840e+01
<MIXTURE> 4 9.069729e-02
<MEAN> 39
 -9.410459e+00 -8.250300e-01 -2.701881e+00 -4.420458e+00 -1.410128e+00 -1.672611e+00 -2.388820e+00 -1.599570e+00 -3.283830e+00 -1.481288e+00 -6.040804e-01 -2.433321e+00 6.258786e+01 1.474250e-01 -1.896119e-02 -1.627446e-01 -2.538061e-01 -3.711430e-01 -4.260000e-01 -4.712681e-01 -3.700872e-01 -2.993603e-01 -2.699877e-01 -3.144580e-01 -2.039286e-01 5.311593e-01 -3.030114e-03 -4.391839e-02 -2.816477e-02 -6.369165e-03 2.381499e-02 4.278993e-02 6.247701e-02 7.281639e-02 6.276009e-02 5.317111e-02 7.417952e-02 5.968376e-02 4.293465e-02
<VARIANCE> 39
 1.857385e+01 1.689787e+01 1.550095e+01 1.454120e+01 1.474000e+01 1.476842e+01 1.992009e+01 2.150932e+01 2.156717e+01 1.831670e+01 1.794135e+01 1.502569e+01 5.619907e+01 6.775120e-01 8.411037e-01 8.301435e-01 9.860138e-01 1.165264e+00 1.340649e+00 1.520093e+00 1.736749e+00 1.679968e+00 1.477118e+00 1.459189e+00 1.313968e+00 8.815310e-01 8.226483e-02 1.268494e-01 1.530905e-01 1.860148e-01 2.300627e-01 2.766370e-01 3.208821e-01 3.290583e-01 3.288496e-01 2.930488e-01 2.883286e-01 2.582609e-01 1.121516e-01
<GCONST> 9.173125e+01
<MIXTURE> 5 2.057999e-01
<MEAN> 39
 -9.175213e+00 -3.921825e-01 -2.001577e+00 -3.300313e+00 6.963243e-02 4.584350e-01 -6.534750e-01 -3.109644e-01 -2.200201e+00 -3.728487e-01 4.577952e-01 -2.283666e+00 5.933818e+01 -4.311088e-02 7.064526e-02 4.187302e-02 9.141207e-02 1.225377e-01 2.088489e-01 1.590596e-01 1.191338e-01 6.994007e-02 9.227254e-02 8.951477e-02 3.600637e-02 -1.060775e-01 -1.412442e-02 -5.929038e-03 -1.850448e-02 -3.960802e-02 -5.017987e-02 -6.789604e-02 -5.998059e-02 -3.782819e-02 -3.872254e-02 -3.539484e-02 -3.200048e-02 -2.505040e-02 2.511958e-02
<VARIANCE> 39
 2.040517e+01 1.787068e+01 1.407866e+01 1.479478e+01 1.478760e+01 1.444499e+01 1.762614e+01 1.877985e+01 2.034813e+01 1.751013e+01 1.627546e+01 1.384959e+01 5.822267e+01 2.319730e-01 3.666756e-01 5.068495e-01 7.413113e-01 8.377079e-01 1.079149e+00 1.174420e+00 1.302086e+00 1.402399e+00 1.337029e+00 1.323729e+00 1.194679e+00 2.566314e-01 3.289832e-02 6.157235e-02 9.032602e-02 1.276613e-01 1.647568e-01 2.135892e-01 2.254949e-01 2.522582e-01 2.704628e-01 2.625020e-01 2.664923e-01 2.254406e-01 1.920374e-02
<GCONST> 7.975856e+01
<MIXTURE> 6 9.069674e-02
<MEAN> 39
 -9.410457e+00 -8.250400e-01 -2.701880e+00 -4.420449e+00 -1.410128e+00 -1.672627e+00 -2.388849e+00 -1.599607e+00 -3.283864e+00 -1.481311e+00 -6.040967e-01 -2.433322e+00 6.258790e+01 1.474255e-01 -1.896016e-02 -1.627434e-01 -2.538044e-01 -3.711407e-01 -4.259969e-01 -4.712651e-01 -3.700859e-01 -2.993593e-01 -2.699865e-01 -3.144566e-01 -2.039275e-01 5.311565e-01 -3.030255e-03 -4.391826e-02 -2.816505e-02 -6.369828e-03 2.381492e-02 4.279103e-02 6.248028e-02 7.282010e-02 6.276341e-02 5.317280e-02 7.418034e-02 5.968404e-02 4.293387e-02
<VARIANCE> 39
 1.857385e+01 1.689791e+01 1.550104e+01 1.454121e+01 1.474004e+01 1.476841e+01 1.992016e+01 2.150941e+01 2.156731e+01 1.831670e+01 1.794135e+01 1.502569e+01 5.619915e+01 6.775113e-01 8.411047e-01 8.301432e-01 9.860117e-01 1.165264e+00 1.340649e+00 1.520095e+00 1.736748e+00 1.679970e+00 1.477116e+00 1.459189e+00 1.313967e+00 8.815318e-01 8.226484e-02 1.268499e-01 1.530910e-01 1.860150e-01 2.300627e-01 2.766373e-01 3.208829e-01 3.290597e-01 3.288511e-01 2.930484e-01 2.883282e-01 2.582614e-01 1.121522e-01
<GCONST> 9.173129e+01
<MIXTURE> 7 9.069727e-02
<MEAN> 39
 -9.410458e+00 -8.250393e-01 -2.701878e+00 -4.420444e+00 -1.410123e+00 -1.672625e+00 -2.388851e+00 -1.599610e+00 -3.283866e+00 -1.481314e+00 -6.040976e-01 -2.433323e+00 6.258791e+01 1.474259e-01 -1.895973e-02 -1.627431e-01 -2.538042e-01 -3.711402e-01 -4.259973e-01 -4.712662e-01 -3.700863e-01 -2.993595e-01 -2.699867e-01 -3.144569e-01 -2.039275e-01 5.311556e-01 -3.030177e-03 -4.391818e-02 -2.816530e-02 -6.370283e-03 2.381443e-02 4.279087e-02 6.248046e-02 7.282051e-02 6.276398e-02 5.317308e-02 7.418031e-02 5.968395e-02 4.293388e-02
<VARIANCE> 39
 1.857385e+01 1.689790e+01 1.550102e+01 1.454121e+01 1.474002e+01 1.476843e+01 1.992015e+01 2.150939e+01 2.156728e+01 1.831666e+01 1.794136e+01 1.502571e+01 5.619915e+01 6.775111e-01 8.411049e-01 8.301426e-01 9.860115e-01 1.165264e+00 1.340649e+00 1.520093e+00 1.736749e+00 1.679967e+00 1.477113e+00 1.459189e+00 1.313968e+00 8.815314e-01 8.226492e-02 1.268501e-01 1.530913e-01 1.860152e-01 2.300629e-01 2.766377e-01 3.208826e-01 3.290601e-01 3.288516e-01 2.930487e-01 2.883282e-01 2.582614e-01 1.121524e-01
<GCONST> 9.173129e+01
<MIXTURE> 8 5.642624e-02
<MEAN> 39
 -1.026052e+01 -3.633493e+00 -3.464691e+00 -5.776046e+00 -2.220000e+00 -3.257735e+00 -3.164706e+00 -4.541787e-01 -2.342152e+00 -2.066439e+00 -1.084511e+00 -2.675408e+00 6.532723e+01 -1.888802e-01 -9.933810e-01 -3.617665e-01 -8.475352e-01 -7.882187e-01 -1.150721e+00 -6.856258e-01 -4.414247e-01 -2.704339e-01 -2.624766e-01 -3.683008e-01 2.772463e-01 2.467927e+00 1.536420e-01 1.419454e-01 1.298875e-01 1.382641e-01 2.103633e-01 2.975743e-01 1.325236e-01 -1.418976e-01 -1.414329e-01 1.054755e-01 1.549922e-01 8.804189e-02 -2.146643e-01
<VARIANCE> 39
 2.370194e+01 2.712146e+01 2.307622e+01 3.232492e+01 3.079250e+01 2.822502e+01 2.804989e+01 2.710704e+01 2.878630e+01 2.002987e+01 2.095801e+01 1.910640e+01 8.454929e+01 2.171380e+00 2.276036e+00 2.248487e+00 2.253517e+00 2.600720e+00 2.700838e+00 2.325883e+00 2.961033e+00 2.740016e+00 2.233929e+00 2.312930e+00 2.404670e+00 2.538270e+00 2.645516e-01 3.682461e-01 3.702168e-01 4.417513e-01 5.475712e-01 5.219167e-01 4.189876e-01 4.589697e-01 5.269301e-01 3.880063e-01 4.048163e-01 3.884014e-01 8.308599e-01
<GCONST> 1.158413e+02
<STATE> 3
<NUMMIXES> 8
<MIXTURE> 1 6.134750e-02
<MEAN> 39
 -1.137140e+01 -1.364255e-01 -3.579790e+00 -6.598961e+00 -2.741037e+00 -2.856089e+00 -4.436129e+00 -2.239942e+00 -3.578514e+00 1.373601e-02 2.330712e+00 -7.061899e-01 6.156648e+01 3.159443e-01 1.108293e-01 2.192761e-01 3.946470e-01 2.856779e-01 4.819678e-02 1.021645e-01 1.042167e-01 1.997914e-01 1.290666e-01 -2.594792e-03 5.924552e-02 7.094187e-01 5.762658e-03 2.449118e-02 9.298429e-02 1.797421e-01 2.599726e-01 2.764670e-01 2.730466e-01 2.516092e-01 1.394022e-01 7.691585e-02 -1.039051e-02 -1.475802e-03 -7.603516e-02
<VARIANCE> 39
 1.188983e+01 9.177114e+00 9.966728e+00 1.445222e+01 1.545124e+01 1.277472e+01 1.684880e+01 2.290462e+01 1.765381e+01 1.529562e+01 2.128946e+01 2.022117e+01 3.692300e+01 7.543004e-01 6.558622e-01 7.928262e-01 1.101549e+00 1.521157e+00 1.541796e+00 1.699003e+00 1.682559e+00 1.308781e+00 1.394473e+00 1.401437e+00 1.572806e+00 8.060499e-01 1.291865e-01 1.121609e-01 1.635070e-01 2.170446e-01 2.808893e-01 2.824623e-01 2.874030e-01 3.490647e-01 2.729451e-01 2.385622e-01 2.444476e-01 3.550228e-01 1.738045e-01
<GCONST> 9.076070e+01
<MIXTURE> 2 1.409050e-01
<MEAN> 39
 -1.351475e+01 -4.656177e-01 -3.249158e+00 -5.140761e+00 1.676568e-01 1.675819e+00 -9.726647e-01 5.607039e-01 -2.512566e+00 3.108321e-01 2.545221e+00 -8.583599e-01 5.902813e+01 6.048964e-02 8.653732e-02 1.985722e-01 3.394076e-01 4.000317e-01 3.846231e-01 3.525704e-01 3.305641e-01 2.868846e-01 2.011051e-01 7.893683e-02 1.347854e-02 5.659704e-02 3.119885e-02 3.143686e-02 2.353799e-02 1.614870e-02 -4.861341e-03 -5.421501e-02 -7.800426e-02 -5.958256e-02 -3.173568e-03 2.770059e-02 4.341131e-02 5.264490e-02 8.119012e-03
<VARIANCE> 39
 6.389943e+00 1.122117e+01 9.979350e+00 1.112132e+01 1.423009e+01 1.442543e+01 1.654349e+01 1.783478e+01 1.693892e+01 1.631407e+01 1.563214e+01 1.369152e+01 1.464423e+01 1.775998e-01 3.306642e-01 4.359604e-01 6.100500e-01 7.653062e-01 1.021038e+00 1.176911e+00 1.335657e+00 1.370132e+00 1.369226e+00 1.297187e+00 1.154399e+00 1.337631e-01 2.899570e-02 5.988561e-02 9.185246e-02 1.364180e-01 1.784756e-01 2.333671e-01 2.562295e-01 2.750784e-01 2.856278e-01 2.909595e-01 2.428925e-01 2.227689e-01 1.337963e-02
<GCONST> 7.412523e+01
<MIXTURE> 3 1.409047e-01
<MEAN> 39
 -1.351475e+01 -4.656183e-01 -3.249158e+00 -5.140760e+00 1.676587e-01 1.675821e+00 -9.726598e-01 5.607084e-01 -2.512563e+00 3.108344e-01 2.545221e+00 -8.583599e-01 5.902812e+01 6.048965e-02 8.653734e-02 1.985722e-01 3.394075e-01 4.000320e-01 3.846235e-01 3.525708e-01 3.305640e-01 2.868846e-01 2.011051e-01 7.893676e-02 1.347849e-02 5.659711e-02 3.119896e-02 3.143693e-02 2.353798e-02 1.614853e-02 -4.861631e-03 -5.421532e-02 -7.800502e-02 -5.958319e-02 -3.173915e-03 2.770036e-02 4.341116e-02 5.264488e-02 8.119076e-03
<VARIANCE> 39
 6.389948e+00 1.122118e+01 9.979350e+00 1.112133e+01 1.423011e+01 1.442546e+01 1.654354e+01 1.783482e+01 1.693893e+01 1.631410e+01 1.563219e+01 1.369153e+01 1.464424e+01 1.776000e-01 3.306644e-01 4.359603e-01 6.100511e-01 7.653068e-01 1.021038e+00 1.176912e+00 1.335660e+00 1.370134e+00 1.369228e+00 1.297188e+00 1.154399e+00 1.337631e-01 2.899576e-02 5.988561e-02 9.185255e-02 1.364182e-01 1.784760e-01 2.333674e-01 2.562302e-01 2.750789e-01 2.856281e-01 2.909596e-01 2.428930e-01 2.227690e-01 1.337965e-02
<GCONST> 7.412530e+01
<MIXTURE> 4 1.529231e-01
<MEAN> 39
 -1.370106e+01 -5.823101e-02 -2.821027e+00 -4.931595e+00 2.107092e-01 9.631320e-01 -2.334740e+00 -6.240806e-01 -2.834724e+00 1.208310e+00 3.895627e+00 5.259765e-01 5.903687e+01 -4.553149e-02 -1.234227e-01 -2.095177e-01 -2.782215e-01 -2.585670e-01 -2.455388e-01 -2.600016e-01 -2.535417e-01 -2.386626e-01 -1.755810e-01 -8.427455e-02 -3.340059e-03 4.794032e-02 6.470207e-03 -2.569961e-02 -3.064251e-02 -2.740101e-02 -2.720366e-02 4.640875e-03 5.253653e-02 4.040885e-02 -1.316328e-02 -6.200335e-02 -7.520173e-02 -7.105826e-02 3.091847e-04
<VARIANCE> 39
 5.893201e+00 1.142424e+01 8.410998e+00 1.099010e+01 1.312599e+01 1.431809e+01 1.612636e+01 1.805476e+01 1.557102e+01 1.617049e+01 1.858316e+01 1.621661e+01 1.280605e+01 1.756086e-01 2.944478e-01 4.028104e-01 6.070904e-01 7.713060e-01 9.901194e-01 1.110769e+00 1.158384e+00 1.185863e+00 1.168947e+00 1.176381e+00 1.151793e+00 1.285563e-01 2.267155e-02 5.316542e-02 8.260932e-02 1.306315e-01 1.758292e-01 2.374612e-01 2.533631e-01 2.629712e-01 2.622073e-01 2.519764e-01 2.506588e-01 2.385908e-01 8.899288e-03
<GCONST> 7.191085e+01
<MIXTURE> 5 1.409030e-01
<MEAN> 39
 -1.351475e+01 -4.656177e-01 -3.249156e+00 -5.140759e+00 1.676562e-01 1.675817e+00 -9.726586e-01 5.607104e-01 -2.512560e+00 3.108357e-01 2.545220e+00 -8.583600e-01 5.902812e+01 6.049002e-02 8.653777e-02 1.985724e-01 3.394073e-01 4.000314e-01 3.846224e-01 3.525696e-01 3.305627e-01 2.868836e-01 2.011046e-01 7.893665e-02 1.347848e-02 5.659745e-02 3.119912e-02 3.143703e-02 2.353801e-02 1.614862e-02 -4.861449e-03 -5.421524e-02 -7.800534e-02 -5.958370e-02 -3.174363e-03 2.770018e-02 4.341112e-02 5.264481e-02 8.119192e-03
<VARIANCE> 39
 6.389949e+00 1.122117e+01 9.979354e+00 1.112133e+01 1.423010e+01 1.442547e+01 1.654354e+01 1.783479e+01 1.693893e+01 1.631409e+01 1.563217e+01 1.369152e+01 1.464426e+01 1.776001e-01 3.306647e-01 4.359601e-01 6.100510e-01 7.653072e-01 1.021039e+00 1.176912e+00 1.335660e+00 1.370132e+00 1.369227e+00 1.297189e+00 1.154397e+00 1.337635e-01 2.899583e-02 5.988584e-02 9.185268e-02 1.364182e-01 1.784762e-01 2.333676e-01 2.562303e-01 2.750785e-01 2.856288e-01 2.909600e-01 2.428929e-01 2.227691e-01 1.337970e-02
<GCONST> 7.412532e+01
<MIXTURE> 6 1.529215e-01
<MEAN> 39
 -1.370105e+01 -5.821601e-02 -2.821013e+00 -4.931584e+00 2.107122e-01 9.631311e-01 -2.334740e+00 -6.240808e-01 -2.834728e+00 1.208298e+00 3.895612e+00 5.259628e-01 5.903686e+01 -4.553072e-02 -1.234215e-01 -2.095169e-01 -2.782216e-01 -2.585676e-01 -2.455403e-01 -2.600039e-01 -2.535434e-01 -2.386633e-01 -1.755818e-01 -8.427518e-02 -3.340574e-03 4.794047e-02 6.469886e-03 -2.570025e-02 -3.064334e-02 -2.740181e-02 -2.720399e-02 4.640843e-03 5.253661e-02 4.040898e-02 -1.316282e-02 -6.200256e-02 -7.520068e-02 -7.105746e-02 3.091856e-04
<VARIANCE> 39
 5.893216e+00 1.142423e+01 8.410991e+00 1.099010e+01 1.312600e+01 1.431810e+01 1.612635e+01 1.805478e+01 1.557104e+01 1.617050e+01 1.858318e+01 1.621664e+01 1.280613e+01 1.756097e-01 2.944486e-01 4.028111e-01 6.070917e-01 7.713075e-01 9.901174e-01 1.110770e+00 1.158386e+00 1.185866e+00 1.168950e+00 1.176383e+00 1.151795e+00 1.285573e-01 2.267157e-02 5.316544e-02 8.260928e-02 1.306316e-01 1.758292e-01 2.374614e-01 2.533631e-01 2.629718e-01 2.622078e-01 2.519764e-01 2.506590e-01 2.385909e-01 8.899312e-03
<GCONST> 7.191090e+01
<MIXTURE> 7 1.529192e-01
<MEAN> 39
 -1.370105e+01 -5.820376e-02 -2.821013e+00 -4.931596e+00 2.107007e-01 9.631263e-01 -2.334736e+00 -6.240700e-01 -2.834711e+00 1.208317e+00 3.895628e+00 5.259724e-01 5.903684e+01 -4.553111e-02 -1.234224e-01 -2.095181e-01 -2.782232e-01 -2.585690e-01 -2.455407e-01 -2.600032e-01 -2.535428e-01 -2.386631e-01 -1.755821e-01 -8.427577e-02 -3.340724e-03 4.794119e-02 6.470074e-03 -2.570029e-02 -3.064304e-02 -2.740106e-02 -2.720330e-02 4.641288e-03 5.253639e-02 4.040786e-02 -1.316447e-02 -6.200412e-02 -7.520179e-02 -7.105796e-02 3.092887e-04
<VARIANCE> 39
 5.893211e+00 1.142419e+01 8.410986e+00 1.099012e+01 1.312598e+01 1.431809e+01 1.612640e+01 1.805481e+01 1.557106e+01 1.617051e+01 1.858323e+01 1.621665e+01 1.280613e+01 1.756096e-01 2.944478e-01 4.028111e-01 6.070928e-01 7.713068e-01 9.901202e-01 1.110772e+00 1.158386e+00 1.185867e+00 1.168949e+00 1.176383e+00 1.151793e+00 1.285579e-01 2.267161e-02 5.316544e-02 8.260921e-02 1.306317e-01 1.758289e-01 2.374609e-01 2.533636e-01 2.629716e-01 2.622083e-01 2.519767e-01 2.506599e-01 2.385909e-01 8.899324e-03
<GCONST> 7.191091e+01
<MIXTURE> 8 5.717038e-02
<MEAN> 39
 -1.264470e+01 -9.837910e-02 -3.495233e+00 -5.326308e+00 1.544580e-01 1.661874e+00 -5.249345e-01 1.918327e+00 -1.064639e+00 1.867547e+00 3.754461e+00 5.666412e-01 5.902904e+01 4.922651e-01 8.685034e-02 -9.908276e-02 -4.487210e-01 -9.333966e-01 -1.241203e+00 -1.074762e+00 -8.918346e-01 -7.961291e-01 -6.655591e-01 -5.285998e-01 -2.539169e-01 7.415010e-01 1.861786e-01 4.226533e-02 3.697149e-02 4.382454e-03 -1.900006e-01 -2.686080e-01 -2.858568e-01 -3.292743e-01 -2.512594e-01 -2.715380e-01 -2.659475e-01 -2.260318e-01 1.796916e-01
<VARIANCE> 39
 7.585731e+00 8.019535e+00 9.496525e+00 1.095669e+01 1.343606e+01 1.382384e+01 1.490116e+01 1.353736e+01 1.607693e+01 1.171258e+01 1.312408e+01 1.281288e+01 2.053264e+01 5.030656e-01 6.362271e-01 9.720902e-01 1.298065e+00 1.169317e+00 1.163463e+00 1.407212e+00 1.530754e+00 1.591289e+00 1.308287e+00 1.536332e+00 1.545677e+00 5.299231e-01 4.857869e-02 9.877690e-02 1.428584e-01 1.982349e-01 2.355000e-01 2.603732e-01 3.087744e-01 2.658196e-01 3.153289e-01 2.700527e-01 2.594737e-01 2.386118e-01 6.347075e-02
<GCONST> 8.328014e+01
<STATE> 4
<NUMMIXES> 8
<MIXTURE> 1 4.645406e-02
<MEAN> 39
 -5.941617e+00 2.866483e+00 1.021828e+00 -1.810609e-01 2.874279e+00 1.767599e+00 4.489859e-01 -1.211486e-01 -1.786784e+00 -5.823128e-02 1.724962e+00 -1.332621e+00 5.566424e+01 2.363291e-02 1.907835e-01 3.328276e-01 4.064178e-01 4.199259e-01 4.312881e-01 4.394655e-01 3.739080e-01 3.034827e-01 1.047721e-01 4.052508e-02 2.825966e-02 -4.398081e-01 2.142317e-03 8.304050e-04 -3.789453e-02 -5.848766e-02 -6.548134e-02 -7.850151e-02 -1.118242e-01 -9.080894e-02 -1.193901e-01 -2.033026e-01 -2.204534e-01 -1.374205e-01 3.751107e-02
<VARIANCE> 39
 1.894105e+01 8.014508e+00 9.792735e+00 7.854505e+00 9.367047e+00 1.173839e+01 1.190093e+01 1.536344e+01 1.430643e+01 1.459850e+01 1.178653e+01 1.118556e+01 3.669431e+01 1.538437e-01 2.901247e-01 4.227249e-01 5.774500e-01 8.035901e-01 9.519410e-01 1.197335e+00 1.417490e+00 1.373385e+00 1.423319e+00 1.213815e+00 1.036548e+00 9.964348e-02 2.121937e-02 4.821695e-02 6.980898e-02 1.036335e-01 1.407319e-01 1.930647e-01 2.002542e-01 2.716430e-01 2.462143e-01 2.783418e-01 1.893774e-01 1.810095e-01 8.041215e-03
<GCONST> 6.990473e+01
<MIXTURE> 2 1.462274e-01
<MEAN> 39
 -5.095788e+00 1.338402e+00 -1.701159e+00 -2.553339e+00 4.213161e-01 -3.692891e-01 -2.288454e+00 -2.266551e+00 -3.836148e+00 -2.267558e+00 -1.155091e+00 -2.721772e+00 6.462634e+01 5.238759e-02 9.561142e-02 1.136417e-01 1.713738e-01 1.952147e-01 1.669273e-01 1.776804e-01 9.255358e-02 8.810147e-02 8.750742e-02 1.032473e-01 3.389486e-02 -3.839325e-01 -8.938163e-03 -1.961714e-02 -3.312206e-02 -5.544373e-02 -6.642356e-02 -6.881384e-02 -6.225413e-02 -3.121178e-02 -4.025799e-02 -3.992341e-02 -3.811744e-02 -1.742693e-02 1.079148e-02
<VARIANCE> 39
 9.880382e+00 9.887109e+00 1.062242e+01 1.050401e+01 1.168565e+01 1.189353e+01 1.399470e+01 1.713318e+01 1.696078e+01 1.485048e+01 1.350148e+01 1.283263e+01 5.900369e+01 1.749311e-01 2.631621e-01 4.037264e-01 6.127813e-01 8.112674e-01 9.817029e-01 1.087487e+00 1.174620e+00 1.310196e+00 1.315305e+00 1.231293e+00 1.137502e+00 1.832531e-01 2.537827e-02 4.662490e-02 7.753693e-02 1.198869e-01 1.600603e-01 1.959740e-01 2.189519e-01 2.363187e-01 2.649251e-01 2.574982e-01 2.476826e-01 2.293295e-01 1.373392e-02
<GCONST> 7.319315e+01
<MIXTURE> 3 1.462274e-01
<MEAN> 39
 -5.095788e+00 1.338402e+00 -1.701159e+00 -2.553339e+00 4.213161e-01 -3.692891e-01 -2.288454e+00 -2.266551e+00 -3.836148e+00 -2.267558e+00 -1.155091e+00 -2.721772e+00 6.462634e+01 5.238759e-02 9.561142e-02 1.136417e-01 1.713738e-01 1.952147e-01 1.669273e-01 1.776804e-01 9.255358e-02 8.810147e-02 8.750742e-02 1.032473e-01 3.389486e-02 -3.839325e-01 -8.938163e-03 -1.961714e-02 -3.312206e-02 -5.544373e-02 -6.642356e-02 -6.881384e-02 -6.225413e-02 -3.121178e-02 -4.025799e-02 -3.992341e-02 -3.811744e-02 -1.742693e-02 1.079148e-02
<VARIANCE> 39
 9.880382e+00 9.887109e+00 1.062242e+01 1.050401e+01 1.168565e+01 1.189353e+01 1.399470e+01 1.713318e+01 1.696078e+01 1.485048e+01 1.350148e+01 1.283263e+01 5.900369e+01 1.749311e-01 2.631621e-01 4.037264e-01 6.127813e-01 8.112674e-01 9.817029e-01 1.087487e+00 1.174620e+00 1.310196e+00 1.315305e+00 1.231293e+00 1.137502e+00 1.832531e-01 2.537827e-02 4.662490e-02 7.753693e-02 1.198869e-01 1.600603e-01 1.959740e-01 2.189519e-01 2.363187e-01 2.649251e-01 2.574982e-01 2.476826e-01 2.293295e-01 1.373392e-02
<GCONST> 7.319315e+01
<MIXTURE> 4 1.520714e-01
<MEAN> 39
 -5.568860e+00 -6.215560e-01 -3.983973e+00 -5.521872e+00 -2.451302e+00 -2.902215e+00 -4.420053e+00 -3.165901e+00 -4.749423e+00 -3.162478e+00 -2.523597e+00 -3.202865e+00 7.205846e+01 6.571178e-02 -2.662100e-02 -4.223292e-02 -5.110543e-02 -8.438881e-02 -1.140943e-01 -1.265020e-01 -1.460105e-01 -1.048796e-01 -9.327211e-02 -7.024944e-02 -2.759749e-02 -1.606917e-02 -1.191370e-02 1.393878e-02 3.200386e-02 4.949183e-02 6.350713e-02 7.000069e-02 7.941793e-02 5.692706e-02 6.676917e-02 7.317629e-02 7.343239e-02 4.821565e-02 -3.362673e-02
<VARIANCE> 39
 5.486114e+00 8.310608e+00 8.845855e+00 1.100691e+01 1.120611e+01 1.038396e+01 1.317823e+01 1.549392e+01 1.548695e+01 1.402551e+01 1.377572e+01 1.204510e+01 3.093342e+01 1.899469e-01 2.892576e-01 4.478291e-01 6.544715e-01 8.392345e-01 9.912889e-01 1.159567e+00 1.194048e+00 1.288465e+00 1.274041e+00 1.285579e+00 1.146940e+00 3.376194e-01 3.176963e-02 5.408660e-02 8.737694e-02 1.295572e-01 1.685308e-01 1.983436e-01 2.289154e-01 2.370201e-01 2.574674e-01 2.677367e-01 2.568077e-01 2.313203e-01 2.920155e-02
<GCONST> 7.369471e+01
<MIXTURE> 5 1.462276e-01
<MEAN> 39
 -5.095792e+00 1.338402e+00 -1.701159e+00 -2.553340e+00 4.213163e-01 -3.692848e-01 -2.288446e+00 -2.266542e+00 -3.836140e+00 -2.267554e+00 -1.155090e+00 -2.721773e+00 6.462634e+01 5.238747e-02 9.561101e-02 1.136413e-01 1.713735e-01 1.952142e-01 1.669268e-01 1.776800e-01 9.255333e-02 8.810135e-02 8.750737e-02 1.032468e-01 3.389478e-02 -3.839323e-01 -8.938016e-03 -1.961700e-02 -3.312182e-02 -5.544354e-02 -6.642351e-02 -6.881423e-02 -6.225508e-02 -3.121283e-02 -4.025891e-02 -3.992382e-02 -3.811746e-02 -1.742683e-02 1.079149e-02
<VARIANCE> 39
 9.880384e+00 9.887128e+00 1.062244e+01 1.050401e+01 1.168566e+01 1.189356e+01 1.399471e+01 1.713322e+01 1.696078e+01 1.485048e+01 1.350147e+01 1.283262e+01 5.900372e+01 1.749312e-01 2.631623e-01 4.037267e-01 6.127824e-01 8.112691e-01 9.817035e-01 1.087485e+00 1.174621e+00 1.310197e+00 1.315306e+00 1.231294e+00 1.137501e+00 1.832531e-01 2.537828e-02 4.662497e-02 7.753707e-02 1.198870e-01 1.600604e-01 1.959744e-01 2.189524e-01 2.363189e-01 2.649255e-01 2.574984e-01 2.476828e-01 2.293293e-01 1.373390e-02
<GCONST> 7.319318e+01
<MIXTURE> 6 1.520743e-01
<MEAN> 39
 -5.568867e+00 -6.215596e-01 -3.983980e+00 -5.521878e+00 -2.451316e+00 -2.902228e+00 -4.420069e+00 -3.165915e+00 -4.749439e+00 -3.162483e+00 -2.523602e+00 -3.202864e+00 7.205846e+01 6.571167e-02 -2.662088e-02 -4.223257e-02 -5.110456e-02 -8.438735e-02 -1.140927e-01 -1.265004e-01 -1.460096e-01 -1.048782e-01 -9.327058e-02 -7.024821e-02 -2.759709e-02 -1.606933e-02 -1.191352e-02 1.393911e-02 3.200449e-02 4.949334e-02 6.350888e-02 7.000252e-02 7.942014e-02 5.692900e-02 6.677093e-02 7.317711e-02 7.343267e-02 4.821572e-02 -3.362699e-02
<VARIANCE> 39
 5.486129e+00 8.310609e+00 8.845884e+00 1.100693e+01 1.120612e+01 1.038397e+01 1.317823e+01 1.549393e+01 1.548698e+01 1.402554e+01 1.377573e+01 1.204510e+01 3.093355e+01 1.899470e-01 2.892576e-01 4.478284e-01 6.544722e-01 8.392359e-01 9.912891e-01 1.159565e+00 1.194046e+00 1.288463e+00 1.274042e+00 1.285579e+00 1.146940e+00 3.376189e-01 3.176973e-02 5.408658e-02 8.737694e-02 1.295574e-01 1.685310e-01 1.983432e-01 2.289154e-01 2.370208e-01 2.574690e-01 2.677377e-01 2.568080e-01 2.313201e-01 2.920167e-02
<GCONST> 7.369474e+01
<MIXTURE> 7 1.520724e-01
<MEAN> 39
 -5.568865e+00 -6.215598e-01 -3.983980e+00 -5.521881e+00 -2.451316e+00 -2.902227e+00 -4.420067e+00 -3.165911e+00 -4.749432e+00 -3.162478e+00 -2.523598e+00 -3.202863e+00 7.205846e+01 6.571174e-02 -2.662080e-02 -4.223255e-02 -5.110456e-02 -8.438762e-02 -1.140930e-01 -1.265008e-01 -1.460094e-01 -1.048784e-01 -9.327099e-02 -7.024857e-02 -2.759736e-02 -1.606916e-02 -1.191358e-02 1.393913e-02 3.200455e-02 4.949321e-02 6.350882e-02 7.000239e-02 7.941983e-02 5.692849e-02 6.677005e-02 7.317632e-02 7.343225e-02 4.821552e-02 -3.362696e-02
<VARIANCE> 39
 5.486130e+00 8.310609e+00 8.845881e+00 1.100694e+01 1.120612e+01 1.038395e+01 1.317821e+01 1.549393e+01 1.548696e+01 1.402551e+01 1.377574e+01 1.204509e+01 3.093349e+01 1.899469e-01 2.892578e-01 4.478291e-01 6.544720e-01 8.392348e-01 9.912886e-01 1.159567e+00 1.194047e+00 1.288465e+00 1.274042e+00 1.285578e+00 1.146938e+00 3.376192e-01 3.176970e-02 5.408659e-02 8.737704e-02 1.295573e-01 1.685310e-01 1.983433e-01 2.289153e-01 2.370204e-01 2.574679e-01 2.677370e-01 2.568081e-01 2.313204e-01 2.920165e-02
<GCONST> 7.369475e+01
<MIXTURE> 8 5.863689e-02
<MEAN> 39
 -7.711759e+00 -5.535114e-01 -3.661817e+00 -5.299022e+00 -2.309583e+00 -2.873890e+00 -3.320644e+00 -1.400991e+00 -3.534265e+00 -1.629461e+00 -1.218417e+00 -1.926396e+00 6.930716e+01 1.602807e-01 -2.576407e-01 -1.900059e-01 -3.684694e-01 -4.941662e-01 -4.458758e-01 -3.438094e-01 -2.573494e-01 -1.686860e-01 -2.112851e-01 -3.913467e-01 -2.341269e-01 9.632300e-01 8.361547e-03 6.728567e-03 2.186549e-02 7.986299e-02 1.177089e-01 1.696308e-01 1.656809e-02 -7.652836e-02 -5.417276e-02 -3.035092e-02 1.086432e-02 -3.209353e-02 -8.814991e-02
<VARIANCE> 39
 1.001869e+01 1.291834e+01 1.793227e+01 2.020440e+01 1.602121e+01 1.584477e+01 1.811069e+01 2.319235e+01 1.929841e+01 1.969280e+01 1.599352e+01 1.609394e+01 5.976412e+01 8.585725e-01 7.909006e-01 1.129912e+00 1.440835e+00 1.287326e+00 1.616966e+00 1.692976e+00 1.929343e+00 1.862368e+00 2.078727e+00 1.648317e+00 1.540802e+00 1.051034e+00 1.181092e-01 1.437848e-01 2.093280e-01 2.828721e-01 2.604903e-01 2.980033e-01 3.551473e-01 3.748119e-01 3.724838e-01 4.054042e-01 3.136303e-01 3.073504e-01 2.147463e-01
<GCONST> 9.670110e+01
<TRANSP> 5
 0.000000e+00 1.000000e+00 0.000000e+00 0.000000e+00 0.000000e+00
 0.000000e+00 9.543636e-01 4.563643e-02 0.000000e+00 0.000000e+00
 0.000000e+00 0.000000e+00 9.617035e-01 3.829654e-02 0.000000e+00
 0.000000e+00 0.000000e+00 0.000000e+00 9.860286e-01 1.397143e-02
 0.000000e+00 0.000000e+00 0.000000e+00 0.000000e+00 0.000000e+00
<ENDHMM>
~h "co"
<BEGINHMM>
<NUMSTATES> 5
<STATE> 2
<NUMMIXES> 8
<MIXTURE> 1 1.810454e-01
<MEAN> 39
 -1.139189e+01 -5.052236e+00 5.279074e+00 -4.350669e+00 -1.192425e+01 -7.212871e+00 -8.058646e-01 -2.844891e+00 -5.702021e+00 -6.911469e+00 -3.986480e+00 -6.658847e+00 7.166380e+01 -1.064291e+00 -5.142605e-01 1.358063e-01 6.166261e-01 1.059621e+00 9.714957e-01 6.852025e-01 -4.749292e-01 -8.828603e-01 3.244919e-01 8.407109e-01 5.741377e-01 1.594375e+00 3.535528e-01 -5.037593e-02 -4.163249e-01 1.296397e-01 2.477292e-01 2.385428e-01 4.166181e-02 1.356485e-01 4.870236e-01 4.935000e-01 1.374011e-01 -1.437668e-01 -7.340611e-01
<VARIANCE> 39
 7.068421e+00 1.075572e+01 1.079445e+01 1.259266e+01 2.556602e+01 3.155620e+01 2.692046e+01 3.345447e+01 1.859957e+01 1.963234e+01 1.688097e+01 1.854854e+01 1.882754e+01 6.165740e-01 5.122175e-01 9.174882e-01 1.069967e+00 1.637943e+00 1.426996e+00 1.784440e+00 1.772374e+00 2.681781e+00 2.116758e+00 1.154478e+00 1.391214e+00 1.255170e+00 6.112096e-02 1.364273e-01 2.188422e-01 1.959481e-01 3.421575e-01 4.925082e-01 4.359517e-01 2.799011e-01 2.667883e-01 3.676157e-01 3.492613e-01 3.420804e-01 1.073232e-01
<GCONST> 9.376656e+01
<MIXTURE> 2 1.488066e-01
<MEAN> 39
 -6.661740e+00 -5.040882e+00 1.241333e+00 -7.923843e-01 -1.073046e+01 -6.239414e+00 -5.076011e+00 -1.228562e+00 -1.632486e+00 -4.548615e+00 -6.657956e+00 -7.972582e+00 6.506203e+01 -6.723330e-01 1.594609e-01 2.693462e-01 -3.025741e-01 5.638680e-01 -1.230094e-01 4.194804e-01 -5.099697e-01 -9.103292e-01 -5.534182e-01 2.962916e-01 8.832618e-02 1.349261e+00 4.905362e-02 -1.916854e-01 -5.600306e-02 8.153896e-02 -4.722899e-02 3.018040e-03 2.340700e-02 1.655142e-01 2.753244e-01 3.022530e-01 1.146992e-01 1.691082e-01 -2.728443e-01
<VARIANCE> 39
 2.040394e+01 3.337537e+01 1.788102e+01 3.892210e+01 7.426135e+01 6.898518e+01 6.657513e+01 6.079287e+01 2.748074e+01 4.384632e+01 4.094142e+01 2.711708e+01 1.183325e+02 7.709686e-01 1.399714e+00 1.064026e+00 1.277295e+00 2.708314e+00 2.452221e+00 3.238063e+00 2.820550e+00 2.513791e+00 2.512187e+00 1.486006e+00 2.259208e+00 1.492874e+00 1.153944e-01 2.224720e-01 1.722070e-01 1.807944e-01 3.983380e-01 4.718259e-01 4.749219e-01 5.020829e-01 3.888321e-01 3.544863e-01 3.521630e-01 3.772626e-01 2.932174e-01
<GCONST> 1.129522e+02
<MIXTURE> 3 1.488069e-01
<MEAN> 39
 -6.661725e+00 -5.040819e+00 1.241316e+00 -7.924150e-01 -1.073053e+01 -6.239470e+00 -5.076042e+00 -1.228612e+00 -1.632496e+00 -4.548674e+00 -6.657975e+00 -7.972629e+00 6.506209e+01 -6.723359e-01 1.594666e-01 2.693502e-01 -3.025786e-01 5.638769e-01 -1.230115e-01 4.194891e-01 -5.099661e-01 -9.103369e-01 -5.534272e-01 2.962907e-01 8.832635e-02 1.349268e+00 4.905022e-02 -1.916901e-01 -5.600253e-02 8.154150e-02 -4.722541e-02 3.022991e-03 2.341106e-02 1.655166e-01 2.753246e-01 3.022584e-01 1.147036e-01 1.691111e-01 -2.728458e-01
<VARIANCE> 39
 2.040340e+01 3.337489e+01 1.788101e+01 3.892194e+01 7.426141e+01 6.898556e+01 6.657504e+01 6.079362e+01 2.748075e+01 4.384618e+01 4.094107e+01 2.711703e+01 1.183327e+02 7.709553e-01 1.399717e+00 1.064029e+00 1.277298e+00 2.708335e+00 2.452236e+00 3.238094e+00 2.820557e+00 2.513798e+00 2.512181e+00 1.486008e+00 2.259217e+00 1.492860e+00 1.153909e-01 2.224693e-01 1.722070e-01 1.807947e-01 3.983383e-01 4.718255e-01 4.749240e-01 5.020850e-01 3.888332e-01 3.544854e-01 3.521643e-01 3.772644e-01 2.932163e-01
<GCONST> 1.129522e+02
<MIXTURE> 4 9.859540e-02
<MEAN> 39
 -6.446157e+00 -5.754993e+00 -2.348516e+00 -8.827049e-01 -1.396499e+01 -5.592311e+00 -4.545463e+00 -1.775496e+00 5.213022e+00 -1.938401e-01 -5.245675e-01 -7.018095e+00 5.952255e+01 -4.154053e-01 -2.882823e-01 4.447847e-01 -6.861511e-01 -1.573961e+00 -1.719818e+00 -7.013389e-01 -7.527109e-01 -7.364900e-01 -1.261257e+00 -1.188651e+00 -6.252585e-01 3.049612e+00 -1.422301e-01 1.081814e-01 8.408071e-02 7.413223e-02 4.100890e-01 1.832345e-01 2.048095e-01 1.457458e-02 -3.474112e-01 -1.073686e-01 1.059519e-01 -1.257517e-02 1.925695e-01
<VARIANCE> 39
 1.547544e+01 2.809001e+01 4.795760e+01 3.961275e+01 1.157801e+02 6.227988e+01 7.840434e+01 8.271866e+01 6.947437e+01 3.532516e+01 5.184005e+01 4.805100e+01 9.122841e+01 1.338437e+00 2.481466e+00 2.803387e+00 2.308311e+00 8.385550e+00 3.303876e+00 3.755503e+00 4.092730e+00 5.866001e+00 3.656357e+00 2.515383e+00 2.588228e+00 2.893716e+00 1.080408e-01 1.827242e-01 2.394526e-01 2.442959e-01 6.959867e-01 5.471650e-01 6.460721e-01 5.893001e-01 5.718371e-01 4.508924e-01 4.625704e-01 5.477843e-01 5.755741e-01
<GCONST> 1.262491e+02
<MIXTURE> 5 1.488006e-01
<MEAN> 39
 -6.661742e+00 -5.040818e+00 1.241300e+00 -7.924317e-01 -1.073059e+01 -6.239524e+00 -5.076063e+00 -1.228644e+00 -1.632522e+00 -4.548712e+00 -6.657996e+00 -7.972653e+00 6.506219e+01 -6.723406e-01 1.594713e-01 2.693513e-01 -3.025821e-01 5.638861e-01 -1.230100e-01 4.194947e-01 -5.099676e-01 -9.103453e-01 -5.534320e-01 2.962911e-01 8.832336e-02 1.349275e+00 4.905022e-02 -1.916921e-01 -5.600298e-02 8.154295e-02 -4.722265e-02 3.025884e-03 2.341358e-02 1.655194e-01 2.753279e-01 3.022615e-01 1.147068e-01 1.691141e-01 -2.728500e-01
<VARIANCE> 39
 2.040340e+01 3.337473e+01 1.788108e+01 3.892199e+01 7.426122e+01 6.898556e+01 6.657518e+01 6.079396e+01 2.748081e+01 4.384616e+01 4.094095e+01 2.711710e+01 1.183321e+02 7.709576e-01 1.399727e+00 1.064032e+00 1.277303e+00 2.708340e+00 2.452237e+00 3.238109e+00 2.820557e+00 2.513806e+00 2.512189e+00 1.486009e+00 2.259224e+00 1.492863e+00 1.153912e-01 2.224702e-01 1.722080e-01 1.807954e-01 3.983383e-01 4.718265e-01 4.749252e-01 5.020858e-01 3.888352e-01 3.544879e-01 3.521667e-01 3.772655e-01 2.932163e-01
<GCONST> 1.129523e+02
<MIXTURE> 6 9.859314e-02
<MEAN> 39
 -6.446229e+00 -5.755119e+00 -2.348680e+00 -8.826271e-01 -1.396562e+01 -5.592660e+00 -4.545841e+00 -1.775856e+00 5.213153e+00 -1.940202e-01 -5.246521e-01 -7.018322e+00 5.952320e+01 -4.154176e-01 -2.882138e-01 4.447854e-01 -6.861843e-01 -1.573790e+00 -1.719761e+00 -7.012742e-01 -7.527615e-01 -7.365952e-01 -1.261325e+00 -1.188630e+00 -6.252484e-01 3.049596e+00 -1.422353e-01 1.081912e-01 8.408374e-02 7.413720e-02 4.101237e-01 1.832556e-01 2.048390e-01 1.460085e-02 -3.474014e-01 -1.073480e-01 1.059729e-01 -1.254514e-02 1.925198e-01
<VARIANCE> 39
 1.547538e+01 2.808955e+01 4.795842e+01 3.961357e+01 1.157781e+02 6.227996e+01 7.840519e+01 8.272083e+01 6.947641e+01 3.532590e+01 5.184171e+01 4.805146e+01 9.122665e+01 1.338399e+00 2.481505e+00 2.803398e+00 2.308260e+00 8.385469e+00 3.303793e+00 3.755339e+00 4.092695e+00 5.866003e+00 3.656276e+00 2.515408e+00 2.588205e+00 2.893726e+00 1.080403e-01 1.827208e-01 2.394525e-01 2.443012e-01 6.959768e-01 5.471635e-01 6.460732e-01 5.892991e-01 5.718371e-01 4.508929e-01 4.625707e-01 5.477774e-01 5.755686e-01
<GCONST> 1.262491e+02
<MIXTURE> 7 9.859453e-02
<MEAN> 39
 -6.446187e+00 -5.755070e+00 -2.348583e+00 -8.826988e-01 -1.396548e+01 -5.592597e+00 -4.545710e+00 -1.775715e+00 5.213050e+00 -1.940264e-01 -5.247109e-01 -7.018282e+00 5.952308e+01 -4.154215e-01 -2.882266e-01 4.447872e-01 -6.861745e-01 -1.573822e+00 -1.719774e+00 -7.012929e-01 -7.527540e-01 -7.365885e-01 -1.261315e+00 -1.188632e+00 -6.252573e-01 3.049619e+00 -1.422373e-01 1.081897e-01 8.408278e-02 7.413977e-02 4.101225e-01 1.832583e-01 2.048343e-01 1.459358e-02 -3.474034e-01 -1.073502e-01 1.059729e-01 -1.254751e-02 1.925259e-01
<VARIANCE> 39
 1.547513e+01 2.808961e+01 4.795776e+01 3.961355e+01 1.157782e+02 6.227990e+01 7.840513e+01 8.272030e+01 6.947539e+01 3.532585e+01 5.184113e+01 4.805118e+01 9.122723e+01 1.338401e+00 2.481517e+00 2.803400e+00 2.308266e+00 8.385492e+00 3.303816e+00 3.755385e+00 4.092692e+00 5.866017e+00 3.656290e+00 2.515395e+00 2.588210e+00 2.893714e+00 1.080397e-01 1.827224e-01 2.394512e-01 2.443033e-01 6.959824e-01 5.471687e-01 6.460781e-01 5.893024e-01 5.718379e-01 4.508952e-01 4.625724e-01 5.477833e-01 5.755759e-01
<GCONST> 1.262491e+02
<MIXTURE> 8 7.675596e-02
<MEAN> 39
 -4.934453e+00 -1.041080e+01 -2.093273e+00 7.073832e-01 -2.133273e+01 -1.040916e+01 -5.353160e+00 3.815016e+00 5.749961e+00 2.418233e+00 -5.820300e+00 -7.643379e+00 6.380649e+01 -3.330663e-01 -1.005920e-01 -1.662768e-01 -7.762997e-01 -2.747910e+00 -2.016540e+00 -1.898763e+00 -1.463111e+00 -1.717565e+00 -2.032032e+00 -1.808591e+00 -2.076651e+00 5.372092e+00 -3.173087e-01 8.775689e-01 2.157535e-01 -3.505476e-01 1.624006e+00 7.105791e-01 4.861419e-01 -5.478636e-01 -1.145184e+00 -8.204924e-01 3.984304e-01 2.874202e-02 -1.695619e-01
<VARIANCE> 39
 9.629352e+00 4.290069e+01 2.158751e+01 3.097567e+01 3.511588e+01 5.546045e+01 1.341045e+02 6.118720e+01 4.575360e+01 3.861882e+01 4.030320e+01 3.792878e+01 3.839506e+01 7.444513e-01 4.015409e+00 1.570708e+00 2.445887e+00 7.042530e+00 3.221076e+00 4.212043e+00 4.811066e+00 5.016553e+00 3.951687e+00 2.519819e+00 2.279909e+00 1.157291e+00 2.031687e-01 5.494226e-01 5.044094e-01 4.089311e-01 4.856385e-01 5.280437e-01 1.229318e+00 7.618353e-01 7.089915e-01 8.067245e-01 5.036836e-01 7.037588e-01 4.013925e-01
<GCONST> 1.249968e+02
<STATE> 3
<NUMMIXES> 8
<MIXTURE> 1 6.344342e-02
<MEAN> 39
 -9.120331e+00 -4.958299e+00 2.831383e+00 7.014770e-01 -3.981128e+00 -7.286431e+00 -1.360683e+00 -1.066951e+01 -7.243299e+00 -3.586905e+00 -1.250748e+00 -6.426780e+00 6.709603e+01 3.806248e-01 4.860901e-01 5.570991e-01 9.452871e-01 1.146575e+00 5.926007e-01 4.992537e-01 -2.970671e-02 -4.202367e-02 2.027532e-01 -3.553053e-01 -2.720092e-01 -4.420239e-01 -1.439985e-02 -7.010350e-02 -7.060958e-02 -1.269592e-01 -1.183226e-01 7.203420e-02 5.482679e-02 2.306294e-01 2.055528e-01 1.960145e-01 9.212381e-02 6.677862e-02 -2.828800e-02
<VARIANCE> 39
 2.637220e+01 7.024704e+00 1.295237e+01 1.426910e+01 1.529781e+01 2.287543e+01 4.230297e+01 3.650881e+01 2.385222e+01 2.069506e+01 2.376371e+01 2.525179e+01 3.982191e+01 1.776336e-01 2.111606e-01 3.019462e-01 5.644822e-01 7.656122e-01 1.061029e+00 1.163058e+00 1.150876e+00 1.501999e+00 1.228040e+00 1.097225e+00 1.061598e+00 8.842921e-02 3.232831e-02 5.911591e-02 9.736232e-02 1.539442e-01 1.677981e-01 2.044681e-01 2.019828e-01 2.402924e-01 2.428844e-01 2.661442e-01 2.556383e-01 2.297296e-01 8.042161e-03
<GCONST> 7.771706e+01
<MIXTURE> 2 1.619858e-01
<MEAN> 39
 -6.592083e+00 -6.004883e+00 -3.270581e-01 -2.215475e+00 -6.416526e+00 -8.561749e+00 -5.817147e+00 -8.534861e+00 -6.468710e+00 -3.965616e+00 -3.022420e+00 -8.351892e+00 6.731625e+01 7.005879e-02 -6.880374e-02 -2.773854e-02 1.000074e-01 4.292494e-01 2.164026e-01 2.794573e-01 1.033372e-01 1.557221e-01 3.506405e-01 3.938411e-01 3.178829e-01 -5.819316e-01 2.231408e-02 -7.986396e-03 -3.121159e-02 -2.040504e-02 -1.038418e-01 -2.612913e-02 -1.250700e-02 6.288337e-02 9.005227e-02 -2.559868e-02 -6.890025e-02 -4.140250e-02 -2.948484e-02
<VARIANCE> 39
 2.134904e+01 8.475846e+00 1.974313e+01 1.922255e+01 2.302181e+01 2.664466e+01 5.098159e+01 5.302791e+01 3.399600e+01 3.392392e+01 3.281658e+01 3.972839e+01 4.520668e+01 2.005780e-01 3.065485e-01 6.015183e-01 7.751175e-01 1.087848e+00 1.139374e+00 1.380752e+00 1.649583e+00 1.786076e+00 1.659287e+00 1.465092e+00 1.318102e+00 1.765099e-01 4.777468e-02 6.810056e-02 1.117314e-01 1.764650e-01 2.520557e-01 2.591284e-01 3.334424e-01 3.348348e-01 3.755972e-01 3.473412e-01 3.137629e-01 2.986035e-01 5.118123e-02
<GCONST> 9.071418e+01
<MIXTURE> 3 1.619861e-01
<MEAN> 39
 -6.592083e+00 -6.004882e+00 -3.270568e-01 -2.215474e+00 -6.416524e+00 -8.561749e+00 -5.817144e+00 -8.534867e+00 -6.468709e+00 -3.965607e+00 -3.022410e+00 -8.351888e+00 6.731625e+01 7.005837e-02 -6.880362e-02 -2.773889e-02 1.000065e-01 4.292489e-01 2.164027e-01 2.794582e-01 1.033384e-01 1.557231e-01 3.506411e-01 3.938418e-01 3.178832e-01 -5.819308e-01 2.231421e-02 -7.986339e-03 -3.121139e-02 -2.040475e-02 -1.038424e-01 -2.612906e-02 -1.250710e-02 6.288339e-02 9.005258e-02 -2.559936e-02 -6.890135e-02 -4.140289e-02 -2.948452e-02
<VARIANCE> 39
 2.134908e+01 8.475867e+00 1.974314e+01 1.922256e+01 2.302185e+01 2.664473e+01 5.098159e+01 5.302806e+01 3.399602e+01 3.392397e+01 3.281664e+01 3.972840e+01 4.520682e+01 2.005786e-01 3.065489e-01 6.015194e-01 7.751189e-01 1.087850e+00 1.139377e+00 1.380756e+00 1.649587e+00 1.786080e+00 1.659290e+00 1.465096e+00 1.318104e+00 1.765104e-01 4.777482e-02 6.810090e-02 1.117316e-01 1.764657e-01 2.520569e-01 2.591289e-01 3.334429e-01 3.348354e-01 3.755982e-01 3.473423e-01 3.137641e-01 2.986038e-01 5.118174e-02
<GCONST> 9.071426e+01
<MIXTURE> 4 1.220807e-01
<MEAN> 39
 -7.078414e+00 -7.150878e+00 -2.610923e+00 -3.451099e+00 -8.775738e+00 -9.250325e+00 -6.902524e+00 -6.951783e+00 -4.466317e+00 -4.317811e+00 -4.848020e+00 -1.048142e+01 7.060909e+01 4.006006e-01 4.237711e-02 -1.038604e-01 -1.076728e-01 -5.323247e-02 -2.995861e-01 -7.579326e-01 -5.778954e-01 -2.241170e-01 -1.780443e-01 -2.424442e-01 -4.469729e-01 -2.137708e-01 2.798845e-02 4.593347e-02 8.151150e-02 7.948345e-02 4.332993e-02 1.646621e-02 -2.977184e-02 -7.290207e-02 -6.892657e-02 -2.393265e-02 -8.917960e-03 2.557785e-02 -3.544389e-02
<VARIANCE> 39
 1.129063e+01 9.791696e+00 2.387132e+01 2.175230e+01 2.360146e+01 2.524367e+01 4.231431e+01 5.973974e+01 4.283329e+01 4.408691e+01 3.584539e+01 3.890744e+01 1.685120e+01 3.449314e-01 7.220919e-01 9.882457e-01 1.191206e+00 1.769989e+00 1.605344e+00 1.997353e+00 2.216571e+00 2.930711e+00 2.708905e+00 2.149929e+00 1.769654e+00 3.244126e-01 5.997452e-02 1.356417e-01 1.732874e-01 2.167647e-01 3.098589e-01 3.088920e-01 3.981996e-01 4.546589e-01 6.236014e-01 6.059264e-01 4.633980e-01 3.377138e-01 5.157322e-02
<GCONST> 1.001144e+02
<MIXTURE> 5 1.619886e-01
<MEAN> 39
 -6.592083e+00 -6.004884e+00 -3.270570e-01 -2.215475e+00 -6.416532e+00 -8.561751e+00 -5.817154e+00 -8.534856e+00 -6.468705e+00 -3.965620e+00 -3.022429e+00 -8.351903e+00 6.731626e+01 7.005838e-02 -6.880391e-02 -2.773838e-02 1.000072e-01 4.292500e-01 2.164033e-01 2.794583e-01 1.033378e-01 1.557224e-01 3.506410e-01 3.938419e-01 3.178832e-01 -5.819307e-01 2.231410e-02 -7.986625e-03 -3.121177e-02 -2.040488e-02 -1.038417e-01 -2.612893e-02 -1.250674e-02 6.288335e-02 9.005265e-02 -2.559820e-02 -6.889987e-02 -4.140185e-02 -2.948505e-02
<VARIANCE> 39
 2.134904e+01 8.475865e+00 1.974312e+01 1.922258e+01 2.302188e+01 2.664470e+01 5.098161e+01 5.302801e+01 3.399607e+01 3.392395e+01 3.281664e+01 3.972840e+01 4.520668e+01 2.005790e-01 3.065492e-01 6.015202e-01 7.751201e-01 1.087850e+00 1.139375e+00 1.380756e+00 1.649585e+00 1.786076e+00 1.659289e+00 1.465095e+00 1.318103e+00 1.765109e-01 4.777480e-02 6.810088e-02 1.117317e-01 1.764653e-01 2.520564e-01 2.591287e-01 3.334427e-01 3.348351e-01 3.755976e-01 3.473418e-01 3.137638e-01 2.986036e-01 5.118152e-02
<GCONST> 9.071421e+01
<MIXTURE> 6 1.220826e-01
<MEAN> 39
 -7.078410e+00 -7.150893e+00 -2.610956e+00 -3.451114e+00 -8.775732e+00 -9.250329e+00 -6.902521e+00 -6.951737e+00 -4.466305e+00 -4.317802e+00 -4.848002e+00 -1.048140e+01 7.060909e+01 4.006001e-01 4.237911e-02 -1.038552e-01 -1.076636e-01 -5.322297e-02 -2.995848e-01 -7.579302e-01 -5.779019e-01 -2.241245e-01 -1.780499e-01 -2.424477e-01 -4.469709e-01 -2.137783e-01 2.798956e-02 4.593682e-02 8.151410e-02 7.948490e-02 4.332925e-02 1.646484e-02 -2.977377e-02 -7.290608e-02 -6.893266e-02 -2.393881e-02 -8.922526e-03 2.557542e-02 -3.544306e-02
<VARIANCE> 39
 1.129060e+01 9.791638e+00 2.387125e+01 2.175217e+01 2.360137e+01 2.524361e+01 4.231419e+01 5.973956e+01 4.283324e+01 4.408701e+01 3.584528e+01 3.890749e+01 1.685121e+01 3.449249e-01 7.220821e-01 9.882347e-01 1.191191e+00 1.769973e+00 1.605332e+00 1.997331e+00 2.216557e+00 2.930680e+00 2.708888e+00 2.149913e+00 1.769644e+00 3.244084e-01 5.997393e-02 1.356401e-01 1.732858e-01 2.167625e-01 3.098565e-01 3.088906e-01 3.981976e-01 4.546562e-01 6.235958e-01 6.059225e-01 4.633949e-01 3.377133e-01 5.157228e-02
<GCONST> 1.001142e+02
<MIXTURE> 7 1.220826e-01
<MEAN> 39
 -7.078410e+00 -7.150893e+00 -2.610956e+00 -3.451114e+00 -8.775732e+00 -9.250329e+00 -6.902521e+00 -6.951737e+00 -4.466305e+00 -4.317802e+00 -4.848002e+00 -1.048140e+01 7.060909e+01 4.006001e-01 4.237911e-02 -1.038552e-01 -1.076636e-01 -5.322297e-02 -2.995848e-01 -7.579302e-01 -5.779019e-01 -2.241245e-01 -1.780499e-01 -2.424477e-01 -4.469709e-01 -2.137783e-01 2.798956e-02 4.593682e-02 8.151410e-02 7.948490e-02 4.332925e-02 1.646484e-02 -2.977377e-02 -7.290608e-02 -6.893266e-02 -2.393881e-02 -8.922526e-03 2.557542e-02 -3.544306e-02
<VARIANCE> 39
 1.129060e+01 9.791638e+00 2.387125e+01 2.175217e+01 2.360137e+01 2.524361e+01 4.231419e+01 5.973956e+01 4.283324e+01 4.408701e+01 3.584528e+01 3.890749e+01 1.685121e+01 3.449249e-01 7.220821e-01 9.882347e-01 1.191191e+00 1.769973e+00 1.605332e+00 1.997331e+00 2.216557e+00 2.930680e+00 2.708888e+00 2.149913e+00 1.769644e+00 3.244084e-01 5.997393e-02 1.356401e-01 1.732858e-01 2.167625e-01 3.098565e-01 3.088906e-01 3.981976e-01 4.546562e-01 6.235958e-01 6.059225e-01 4.633949e-01 3.377133e-01 5.157228e-02
<GCONST> 1.001142e+02
<MIXTURE> 8 8.434620e-02
<MEAN> 39
 -5.345015e+00 -6.486955e+00 1.284829e-02 -1.738483e+00 -1.212739e+01 -8.846555e+00 -5.583456e+00 -5.364858e+00 -9.258920e-01 -3.593770e+00 -7.092797e+00 -8.164462e+00 6.457858e+01 -8.699404e-01 -2.404406e-01 1.228002e-01 -1.902989e-01 -1.593365e+00 -5.518832e-02 1.694925e-01 9.548986e-01 1.854670e-01 -7.638440e-01 -8.212829e-01 -1.086467e-01 2.407417e+00 -1.221820e-01 -1.895999e-02 -2.237305e-03 -7.716945e-02 3.422098e-01 6.092938e-02 9.350548e-02 -9.943061e-02 -2.560786e-01 4.040065e-02 2.257520e-01 7.374084e-02 1.277641e-01
<VARIANCE> 39
 9.939025e+00 2.012796e+01 2.112481e+01 2.766878e+01 7.062261e+01 3.725729e+01 5.558656e+01 5.227026e+01 8.191463e+01 3.244326e+01 5.726142e+01 4.209552e+01 6.821783e+01 7.237367e-01 3.165215e+00 2.427922e+00 2.907060e+00 8.253875e+00 3.921478e+00 4.639987e+00 4.211051e+00 1.257460e+01 3.742298e+00 5.466822e+00 3.079796e+00 2.639997e+00 1.157127e-01 6.815892e-01 3.515775e-01 4.237143e-01 1.802108e+00 7.059798e-01 7.588524e-01 8.206991e-01 2.423217e+00 7.184914e-01 1.020302e+00 5.499364e-01 8.722716e-01
<GCONST> 1.311332e+02
<STATE> 4
<NUMMIXES> 8
<MIXTURE> 1 3.950539e-02
<MEAN> 39
 -4.596187e+00 -4.274785e+00 3.017927e+00 1.349907e+00 -1.749281e+00 -3.567975e+00 -3.470984e+00 -5.408451e+00 -3.832187e+00 -3.280096e+00 -3.055572e+00 -6.857168e+00 5.712021e+01 3.914138e-01 6.466402e-01 6.755949e-01 8.968122e-01 1.094258e+00 9.206291e-01 8.735160e-01 4.563261e-01 2.235074e-01 -1.127492e-02 -1.313655e-01 -1.173777e-01 -4.821111e-01 1.244190e-01 2.065804e-01 2.333359e-01 3.467587e-01 2.875300e-01 2.189569e-01 1.326488e-01 2.644821e-02 3.168786e-02 2.698105e-02 -8.330620e-02 -1.623973e-01 5.527722e-02
<VARIANCE> 39
