~o
<STREAMINFO> 1 39
<VECSIZE> 39<NULLD><MFCC_D_A_0><DIAGC>
~h "ap"
<BEGINHMM>
<NUMSTATES> 5
<STATE> 2
<MEAN> 39
 -1.354584e+01 -9.069352e+00 -2.887818e+00 5.809784e-01 -9.299677e-01 -3.568952e+00 2.824035e+00 -2.382598e+00 -1.839243e+00 -7.738310e-01 6.220978e-01 -1.150827e+00 6.202206e+01 -6.557509e-02 -1.938314e-01 -1.212262e-01 -2.357904e-02 -7.572248e-02 -1.404388e-01 -5.824046e-02 -5.871385e-02 -7.879730e-02 -5.188031e-02 -1.711970e-02 -2.374893e-02 3.514023e-01 2.238380e-02 1.327957e-02 8.861371e-04 -1.080186e-02 1.773136e-02 2.491613e-02 1.449248e-02 4.607803e-03 5.276659e-03 1.059272e-02 -2.345429e-04 -9.201899e-03 -4.779702e-02
<VARIANCE> 39
 3.167146e+01 4.194964e+01 2.332998e+01 2.319775e+01 3.015370e+01 4.525386e+01 2.461674e+01 2.522001e+01 2.197764e+01 2.025057e+01 1.947047e+01 1.590594e+01 1.142496e+02 1.730090e+00 1.789287e+00 9.830948e-01 1.118128e+00 2.024422e+00 2.797573e+00 1.680123e+00 1.556021e+00 1.672075e+00 1.728005e+00 1.575302e+00 1.387149e+00 7.835314e+00 2.656569e-01 2.513880e-01 1.469100e-01 2.055217e-01 3.593689e-01 5.162381e-01 3.039616e-01 2.846996e-01 3.185778e-01 3.486944e-01 3.094979e-01 2.833883e-01 1.151421e+00
<GCONST> 1.083773e+02
<STATE> 3
<MEAN> 39
 -1.080729e+01 -1.659152e+01 -1.011451e+01 2.016902e+00 2.419816e-01 -9.053077e+00 4.224612e-01 -2.301795e+00 -6.061869e+00 -3.800390e+00 5.843706e-01 -1.542684e+00 6.944223e+01 1.123666e-01 5.241352e-02 7.061861e-02 6.455002e-02 1.263412e-01 8.689158e-02 5.830680e-02 1.064629e-02 1.750050e-03 1.394079e-02 3.381990e-02 7.370560e-03 -3.352097e-01 -6.550105e-04 1.399678e-02 1.431934e-02 1.480579e-02 5.830739e-03 2.330782e-03 1.138010e-03 1.155307e-02 8.307111e-03 5.188266e-03 3.671839e-03 9.773570e-03 -1.177535e-02
<VARIANCE> 39
 1.287407e+01 1.777138e+01 1.769719e+01 2.247383e+01 3.097370e+01 2.335310e+01 2.753767e+01 2.143352e+01 2.386629e+01 2.218373e+01 1.709138e+01 1.548292e+01 7.169987e+01 5.233106e-01 4.939090e-01 6.099780e-01 8.865712e-01 1.581416e+00 1.619367e+00 1.244260e+00 1.169534e+00 1.586206e+00 1.508486e+00 1.284601e+00 1.652277e+00 3.664034e+00 8.849845e-02 8.259102e-02 1.053760e-01 1.635722e-01 2.996647e-01 3.284415e-01 2.397261e-01 2.195692e-01 3.198500e-01 3.115998e-01 2.513156e-01 3.725774e-01 5.711535e-01
<GCONST> 9.497761e+01
<STATE> 4
<MEAN> 39
 -1.038983e+01 -1.027609e+01 -4.871536e+00 8.595508e-01 5.537819e-01 -4.010727e+00 2.491591e+00 -2.623293e+00 -3.485450e+00 -4.766726e-01 6.952307e-01 -1.395228e+00 5.993016e+01 8.213977e-03 2.564858e-02 1.643701e-02 2.501841e-03 -5.724943e-03 1.505233e-02 4.719874e-03 1.218079e-02 1.732472e-02 9.645922e-03 -1.345597e-03 -2.667836e-03 -3.722596e-02 -1.002729e-03 -1.057281e-03 -1.675153e-03 -1.921519e-03 -2.440641e-03 -2.671789e-03 -1.742945e-03 -3.621073e-04 -2.851699e-03 -1.581603e-03 -1.316064e-03 -7.433010e-04 2.327471e-03
<VARIANCE> 39
 2.454414e+01 5.288098e+01 2.620974e+01 2.470316e+01 3.681836e+01 3.534957e+01 2.539919e+01 2.830616e+01 2.309235e+01 1.989311e+01 1.707603e+01 1.448648e+01 1.283975e+02 9.044451e-01 1.260940e+00 7.778334e-01 9.253746e-01 1.579801e+00 1.842179e+00 1.351932e+00 1.491539e+00 1.504640e+00 1.493840e+00 1.361743e+00 1.210987e+00 5.246312e+00 1.412604e-01 1.936459e-01 1.302801e-01 1.732295e-01 2.910911e-01 3.530363e-01 2.573066e-01 2.790887e-01 3.020428e-01 3.079236e-01 2.708701e-01 2.463754e-01 7.794278e-01
<GCONST> 1.024732e+02
<TRANSP> 5
 0.000000e+00 1.000000e+00 0.000000e+00 0.000000e+00 0.000000e+00
 0.000000e+00 9.811646e-01 1.883540e-02 0.000000e+00 0.000000e+00
 0.000000e+00 0.000000e+00 9.852494e-01 1.475055e-02 0.000000e+00
 0.000000e+00 0.000000e+00 0.000000e+00 9.939479e-01 6.052135e-03
 0.000000e+00 0.000000e+00 0.000000e+00 0.000000e+00 0.000000e+00
<ENDHMM>
~h "cl"
<BEGINHMM>
<NUMSTATES> 5
<STATE> 2
<MEAN> 39
 -1.146995e+01 -1.595962e+00 -1.232970e+00 -2.637253e+00 -7.553136e-01 5.062325e+00 3.408443e+00 -1.515688e-01 2.098591e+00 9.701324e-02 -1.925792e+00 5.439819e-01 5.408997e+01 -2.858301e-01 4.432436e-02 3.155235e-02 -2.057437e-03 -9.942207e-02 1.029358e-01 -6.087946e-02 -1.360121e-01 9.718235e-02 -4.941740e-03 -1.126781e-01 6.879215e-02 2.181949e-01 -4.045767e-02 2.037886e-03 1.496453e-02 -1.017803e-02 -1.599376e-02 3.967218e-02 -1.328516e-02 -3.121189e-02 1.580944e-02 -1.260942e-02 -4.043336e-02 2.425805e-02 2.527245e-02
<VARIANCE> 39
 3.864474e+01 2.877112e+01 2.663559e+01 1.452134e+01 1.853262e+01 4.555507e+01 2.131871e+01 2.513086e+01 3.240172e+01 2.266332e+01 2.794609e+01 2.352841e+01 5.183504e+01 2.382441e+00 8.615866e-01 7.198274e-01 8.414560e-01 1.375636e+00 2.114809e+00 1.774292e+00 2.029469e+00 2.192768e+00 1.824021e+00 1.927663e+00 1.753870e+00 2.077466e+00 2.906569e-01 1.261109e-01 1.148853e-01 1.462423e-01 2.360015e-01 3.552657e-01 3.167526e-01 3.545399e-01 3.763387e-01 3.515086e-01 3.422765e-01 2.947239e-01 2.691237e-01
<GCONST> 1.029217e+02
<STATE> 3
<MEAN> 39
 -1.957642e+01 2.827960e+00 -2.257155e-01 -5.341085e+00 -4.173839e+00 1.209287e+01 6.282582e-01 -3.645513e+00 7.571062e+00 -3.552690e+00 -3.419538e+00 5.364658e+00 5.875661e+01 2.362596e-02 -4.934821e-03 -8.527155e-03 3.717799e-03 3.759356e-03 -2.507554e-03 -1.138579e-04 -6.161407e-03 -9.962712e-03 -4.020655e-03 1.844147e-03 -2.424746e-03 -1.214863e-02 1.149516e-02 -2.399082e-03 -8.996101e-04 8.461528e-05 3.167233e-03 -7.369649e-03 1.168195e-03 4.483478e-03 -4.528445e-03 4.139072e-03 4.845620e-03 -3.908266e-03 -7.793716e-03
<VARIANCE> 39
 5.093686e+01 9.855668e+00 1.985500e+01 1.252108e+01 1.766971e+01 3.413448e+01 2.556331e+01 2.215057e+01 2.634228e+01 2.022369e+01 1.925806e+01 1.986529e+01 2.078070e+01 1.813946e+00 4.944356e-01 7.655660e-01 9.187698e-01 1.247770e+00 2.038644e+00 1.850731e+00 1.757496e+00 1.793634e+00 1.640084e+00 1.581827e+00 1.615678e+00 9.666877e-01 3.282014e-01 8.816148e-02 1.431351e-01 1.806602e-01 2.385487e-01 3.876935e-01 3.607392e-01 3.464189e-01 3.541944e-01 3.301938e-01 3.126129e-01 3.119590e-01 1.759340e-01
<GCONST> 9.717815e+01
<STATE> 4
<MEAN> 39
 -2.211275e+01 1.046992e+00 6.373175e+00 -2.984843e+00 -6.573737e+00 1.051086e+01 1.615236e+00 -6.744066e+00 2.859340e+00 4.446376e+00 -1.156473e+01 4.821505e+00 5.760735e+01 5.039972e-02 -5.024651e-03 6.816209e-03 -1.225091e-02 4.242012e-03 -1.120338e-02 -9.017102e-03 1.722142e-03 -8.187898e-04 -5.978202e-03 1.129500e-02 -1.691937e-03 -3.903278e-02 1.845785e-03 9.703286e-04 -2.426438e-03 6.302155e-04 1.559126e-03 -4.776486e-03 -9.280159e-04 3.567112e-03 -1.583237e-03 -7.644234e-05 3.181420e-03 -2.174686e-03 -2.041789e-03
<VARIANCE> 39
 4.081063e+01 8.827425e+00 1.569654e+01 1.684712e+01 2.687297e+01 3.014733e+01 2.937938e+01 4.656348e+01 3.432291e+01 2.928168e+01 2.898870e+01 2.989932e+01 3.493150e+01 1.330109e+00 5.214812e-01 1.006136e+00 9.783493e-01 1.317200e+00 2.064427e+00 1.657610e+00 2.526050e+00 2.612098e+00 1.920314e+00 1.689655e+00 1.839039e+00 1.295735e+00 2.460296e-01 9.998963e-02 1.968309e-01 1.972262e-01 2.492113e-01 3.995274e-01 3.202996e-01 4.652875e-01 5.152420e-01 3.794251e-01 3.362106e-01 3.656848e-01 2.433952e-01
<GCONST> 1.030415e+02
<TRANSP> 5
 0.000000e+00 1.000000e+00 0.000000e+00 0.000000e+00 0.000000e+00
 0.000000e+00 9.469695e-01 5.303043e-02 0.000000e+00 0.000000e+00
 0.000000e+00 0.000000e+00 9.920722e-01 7.927840e-03 0.000000e+00
 0.000000e+00 0.000000e+00 0.000000e+00 9.936403e-01 6.359715e-03
 0.000000e+00 0.000000e+00 0.000000e+00 0.000000e+00 0.000000e+00
<ENDHMM>
~h "cm"
<BEGINHMM>
<NUMSTATES> 5
<STATE> 2
<MEAN> 39
 -9.116574e+00 -1.096070e+00 -2.712138e+00 -4.429821e+00 -8.698875e-01 -9.893332e-01 -1.682465e+00 -9.595390e-01 -2.708163e+00 -9.443493e-01 1.227517e-01 -2.197823e+00 6.178278e+01 5.898662e-02 -2.434075e-02 -1.686363e-02 -3.360327e-02 -3.543581e-02 -4.940911e-02 -6.341731e-02 -7.088359e-02 -5.241801e-02 -3.290059e-02 -5.761893e-02 -3.628332e-03 3.518190e-01 2.965247e-03 5.834208e-03 1.124294e-03 1.015738e-02 9.527673e-03 1.635871e-02 1.228198e-02 4.739525e-03 1.270081e-03 1.207636e-02 1.351121e-02 1.300003e-03 -1.122445e-02
<VARIANCE> 39
 2.000048e+01 1.835999e+01 1.457267e+01 1.758539e+01 1.686049e+01 1.766764e+01 2.044415e+01 2.061459e+01 2.135252e+01 1.857427e+01 1.859770e+01 1.477372e+01 6.911546e+01 5.366036e-01 7.199532e-01 7.789176e-01 1.055243e+00 1.219619e+00 1.511856e+00 1.533279e+00 1.619312e+00 1.670861e+00 1.544811e+00 1.519553e+00 1.374423e+00 1.117165e+00 7.511551e-02 1.150992e-01 1.391242e-01 1.874296e-01 2.331945e-01 2.845506e-01 2.917419e-01 3.063371e-01 3.256893e-01 3.006202e-01 2.849932e-01 2.597387e-01 1.331382e-01
<GCONST> 9.240543e+01
<STATE> 3
<MEAN> 39
 -1.300672e+01 -3.223417e-02 -2.777355e+00 -4.882017e+00 5.669201e-02 1.052423e+00 -1.748503e+00 -1.453107e-01 -2.663928e+00 5.512150e-01 2.769530e+00 -4.570785e-01 5.915636e+01 3.589494e-02 7.893550e-04 -6.544157e-03 9.173275e-03 1.197213e-02 -4.208147e-03 -1.204726e-02 -1.180020e-02 -2.126729e-02 -1.717084e-02 -2.621410e-02 -7.021134e-03 7.533460e-02 1.711863e-02 1.557229e-03 -1.460521e-03 -6.759827e-04 -7.678323e-03 -1.476330e-02 -7.646196e-03 -6.094287e-03 -9.513452e-03 -1.911629e-02 -1.920175e-02 -1.196626e-02 4.800849e-03
<VARIANCE> 39
 8.870522e+00 1.147747e+01 1.022246e+01 1.154407e+01 1.434534e+01 1.542531e+01 1.723470e+01 1.874117e+01 1.683413e+01 1.646715e+01 1.851597e+01 1.613381e+01 2.133405e+01 2.401225e-01 3.565801e-01 5.046226e-01 7.580007e-01 9.700691e-01 1.193299e+00 1.326979e+00 1.401625e+00 1.388245e+00 1.334473e+00 1.285453e+00 1.187016e+00 2.161295e-01 3.227329e-02 6.096152e-02 9.453178e-02 1.413410e-01 1.887432e-01 2.404291e-01 2.671315e-01 2.802046e-01 2.794635e-01 2.749153e-01 2.573900e-01 2.400679e-01 2.291379e-02
<GCONST> 7.813053e+01
<STATE> 4
<MEAN> 39
 -5.462436e+00 4.086644e-01 -2.746059e+00 -3.890441e+00 -9.315867e-01 -1.536417e+00 -3.193488e+00 -2.541905e+00 -4.158196e+00 -2.536335e+00 -1.680212e+00 -2.838310e+00 6.793643e+01 5.700136e-02 2.780621e-02 3.774379e-02 5.324120e-02 4.195774e-02 2.385849e-02 2.529218e-02 -1.708205e-02 -1.753340e-05 -6.128962e-03 1.504296e-03 -5.485437e-03 -1.693575e-01 -6.441374e-03 -1.411294e-03 5.180224e-04 9.158089e-05 2.230829e-03 5.165095e-03 3.590383e-03 2.195982e-03 2.979560e-03 2.590718e-03 4.955825e-03 4.604626e-03 -1.099923e-02
<VARIANCE> 39
 8.774146e+00 1.042880e+01 1.215281e+01 1.391393e+01 1.420288e+01 1.338412e+01 1.537661e+01 1.728204e+01 1.680263e+01 1.538968e+01 1.461679e+01 1.281103e+01 6.360635e+01 2.083070e-01 3.025323e-01 4.689400e-01 6.894622e-01 8.765086e-01 1.039813e+00 1.173923e+00 1.248900e+00 1.333056e+00 1.333724e+00 1.284166e+00 1.157301e+00 3.470364e-01 3.197986e-02 5.391679e-02 8.828491e-02 1.331592e-01 1.710094e-01 2.067835e-01 2.322280e-01 2.472883e-01 2.664863e-01 2.719791e-01 2.577346e-01 2.332013e-01 2.859439e-02
<GCONST> 7.740781e+01
<TRANSP> 5
 0.000000e+00 1.000000e+00 0.000000e+00 0.000000e+00 0.000000e+00
 0.000000e+00 9.539038e-01 4.609615e-02 0.000000e+00 0.000000e+00
 0.000000e+00 0.000000e+00 9.648894e-01 3.511063e-02 0.000000e+00
 0.000000e+00 0.000000e+00 0.000000e+00 9.855958e-01 1.440425e-02
 0.000000e+00 0.000000e+00 0.000000e+00 0.000000e+00 0.000000e+00
<ENDHMM>
~h "co"
<BEGINHMM>
<NUMSTATES> 5
<STATE> 2
<MEAN> 39
 -6.547575e+00 -6.000418e+00 7.233604e-02 -1.062733e+00 -1.311820e+01 -6.214672e+00 -4.618952e+00 -6.630303e-01 1.776768e+00 -2.092853e+00 -3.862642e+00 -7.254302e+00 6.241188e+01 -6.315398e-01 -9.575293e-02 2.999196e-01 -4.108633e-01 -6.016234e-01 -8.718852e-01 -2.292345e-01 -7.611662e-01 -1.023120e+00 -9.939240e-01 -3.960488e-01 -3.415918e-01 2.529166e+00 -5.655716e-02 5.743372e-02 -1.430671e-02 4.807193e-02 3.596580e-01 2.006013e-01 1.803441e-01 3.945119e-02 -9.151373e-02 7.917580e-02 1.626537e-01 5.919194e-02 -1.184039e-01
<VARIANCE> 39
 1.890049e+01 3.548853e+01 3.534123e+01 3.908276e+01 9.683501e+01 6.551620e+01 7.883620e+01 6.760169e+01 5.514651e+01 4.376504e+01 5.195420e+01 3.633465e+01 1.009914e+02 1.141615e+00 2.132110e+00 1.849899e+00 1.912637e+00 6.670535e+00 3.735304e+00 4.131667e+00 3.584720e+00 4.195632e+00 3.324368e+00 2.660945e+00 2.843352e+00 3.471051e+00 1.415666e-01 3.191343e-01 2.764723e-01 2.484265e-01 7.629576e-01 5.976438e-01 6.300316e-01 5.822617e-01 6.820628e-01 6.025663e-01 4.138040e-01 4.705065e-01 5.126325e-01
<GCONST> 1.259100e+02
<STATE> 3
<MEAN> 39
 -6.612721e+00 -6.305567e+00 -4.400347e-01 -2.217288e+00 -7.699683e+00 -8.112360e+00 -6.184736e+00 -7.351931e+00 -5.060106e+00 -4.479635e+00 -4.261701e+00 -8.961730e+00 6.778269e+01 7.052014e-02 -2.485606e-02 1.641934e-03 5.043051e-02 1.236369e-01 3.894279e-02 -6.191724e-02 -5.813343e-02 -1.060469e-02 3.759710e-02 1.729439e-02 -2.849708e-02 -9.603794e-02 1.782760e-02 2.510904e-03 2.950513e-03 7.334012e-03 -6.027531e-03 8.964945e-04 -6.444067e-03 7.854568e-03 1.456363e-02 5.184374e-03 -5.890815e-03 -1.052227e-03 -3.104523e-02
<VARIANCE> 39
 1.762551e+01 1.199043e+01 2.471314e+01 2.133101e+01 3.322096e+01 3.145862e+01 5.095933e+01 5.720395e+01 4.251768e+01 3.858821e+01 3.630318e+01 3.960869e+01 4.693283e+01 4.520936e-01 7.518263e-01 9.270089e-01 1.222670e+00 2.499878e+00 1.725718e+00 2.171419e+00 2.270373e+00 3.049916e+00 2.306672e+00 2.198887e+00 1.777813e+00 1.270027e+00 6.326949e-02 1.516444e-01 1.637706e-01 2.269536e-01 4.461476e-01 3.296337e-01 3.913912e-01 4.294090e-01 6.255416e-01 4.666183e-01 4.327330e-01 3.420100e-01 1.467525e-01
<GCONST> 1.057068e+02
<STATE> 4
<MEAN> 39
 -3.790167e+00 -3.650199e+00 3.831402e+00 2.157526e+00 -1.389063e+00 -2.543942e+00 -5.198575e+00 -4.898868e+00 -3.858906e+00 -4.480890e+00 -3.924850e+00 -8.471245e+00 5.786204e+01 6.194092e-02 1.171250e-01 2.767118e-02 3.200072e-02 1.372485e-01 8.992395e-02 7.210281e-02 7.699400e-02 -2.350271e-03 7.799292e-03 2.052934e-02 4.117535e-02 -2.898102e-01 -4.011452e-03 -1.061793e-05 -8.413007e-03 -4.517683e-03 -1.019276e-02 -7.657632e-03 -9.513642e-04 -3.883218e-04 -1.182834e-04 -1.259572e-03 -1.822005e-03 -3.219295e-03 4.674264e-03
<VARIANCE> 39
 1.285310e+01 2.306906e+01 2.035331e+01 2.464783e+01 3.739651e+01 3.074157e+01 5.251369e+01 4.193997e+01 3.189212e+01 3.649618e+01 3.294768e+01 2.842532e+01 6.541155e+01 2.884037e-01 5.732793e-01 6.707290e-01 8.455507e-01 1.498405e+00 1.215193e+00 1.726553e+00 1.582515e+00 1.609934e+00 1.757038e+00 1.554831e+00 1.432158e+00 7.527747e-01 4.306694e-02 9.757743e-02 1.232172e-01 1.613237e-01 2.676915e-01 2.324683e-01 3.191696e-01 2.957277e-01 3.149457e-01 3.511666e-01 3.103546e-01 2.830013e-01 6.453724e-02
<GCONST> 9.530586e+01
<TRANSP> 5
 0.000000e+00 1.000000e+00 0.000000e+00 0.000000e+00 0.000000e+00
 0.000000e+00 8.450448e-01 1.549552e-01 0.000000e+00 0.000000e+00
 0.000000e+00 0.000000e+00 9.839013e-01 1.609867e-02 0.000000e+00
 0.000000e+00 0.000000e+00 0.000000e+00 9.818457e-01 1.815426e-02
 0.000000e+00 0.000000e+00 0.000000e+00 0.000000e+00 0.000000e+00
<ENDHMM>
~h "ds"
<BEGINHMM>
<NUMSTATES> 5
<STATE> 2
<MEAN> 39
 -1.350469e+01 8.302802e-01 9.223924e-01 -3.314971e-01 8.127781e-02 -2.101769e+00 4.814871e+00 -2.101178e+00 1.854322e+00 1.869337e+00 4.282465e+00 3.264414e-01 6.540370e+01 -1.951219e-01 9.345136e-02 -8.221539e-02 -5.658646e-02 -1.547358e-01 -9.108490e-02 -1.456569e-02 -2.259492e-02 3.952818e-02 7.793382e-02 1.533835e-02 3.744564e-02 9.835589e-01 3.695606e-02 -2.617784e-02 1.368103e-02 3.519279e-02 4.945146e-02 9.058597e-02 8.914570e-03 5.855081e-02 -1.826717e-02 -3.931672e-02 4.087214e-03 2.567397e-02 -1.290705e-01
<VARIANCE> 39
 2.258567e+01 1.726854e+01 1.551292e+01 2.021600e+01 2.871490e+01 2.376655e+01 2.844163e+01 3.707668e+01 2.793566e+01 2.470216e+01 2.004056e+01 1.714815e+01 9.377643e+01 2.141214e+00 1.105438e+00 1.433099e+00 1.715504e+00 2.589627e+00 2.355474e+00 2.461632e+00 2.477914e+00 2.175145e+00 2.297387e+00 2.011377e+00 1.785997e+00 3.951898e+00 3.360238e-01 1.977614e-01 2.404673e-01 3.151750e-01 4.732932e-01 4.585792e-01 4.385114e-01 4.647453e-01 3.982141e-01 4.376750e-01 3.724791e-01 3.380921e-01 6.095286e-01
<GCONST> 1.107115e+02
<STATE> 3
<MEAN> 39
 -1.645226e+01 3.245390e-01 -1.795416e+00 -7.889923e-01 -3.522105e+00 -2.285646e+00 1.765143e+00 -2.097611e+00 1.578205e+00 3.299309e+00 4.628518e+00 1.177685e+00 7.051505e+01 2.789429e-01 -9.077496e-02 3.103052e-01 5.358361e-01 6.318815e-01 3.570086e-01 7.687295e-02 1.049309e-01 -5.329835e-03 -1.494116e-01 -3.813286e-02 -7.938083e-02 -6.657194e-01 9.566386e-02 9.911207e-02 4.117736e-02 1.371910e-02 9.604845e-03 -9.855974e-02 -1.715516e-02 -1.189043e-01 -3.001072e-02 1.744933e-02 -6.363539e-02 -6.077366e-02 -1.196078e-01
<VARIANCE> 39
 1.506816e+01 7.605923e+00 8.364652e+00 1.221108e+01 1.534095e+01 1.179211e+01 1.277107e+01 1.202748e+01 1.403539e+01 1.464598e+01 1.478828e+01 1.220084e+01 1.850761e+02 1.638853e+00 9.617859e-01 9.570397e-01 8.262473e-01 1.048774e+00 1.505853e+00 1.392337e+00 1.429789e+00 1.294606e+00 1.378398e+00 1.147337e+00 1.217488e+00 2.084167e+01 3.474065e-01 1.496564e-01 1.773920e-01 1.793118e-01 1.993296e-01 3.068967e-01 2.749074e-01 2.495595e-01 2.545236e-01 2.732682e-01 2.384741e-01 2.602052e-01 3.909633e+00
<GCONST> 9.637522e+01
<STATE> 4
<MEAN> 39
 -9.959062e+00 1.470714e+00 2.063993e+00 8.214411e-01 2.972129e+00 7.079598e-01 2.959094e+00 -1.202623e+00 3.099973e-01 -3.305683e-01 2.186236e+00 -1.534559e+00 5.591706e+01 4.155948e-02 2.346488e-03 2.120393e-02 6.642073e-03 3.216250e-02 2.419157e-02 1.751356e-02 1.086987e-02 -4.359024e-03 -1.531943e-02 -1.436058e-02 -1.486791e-02 -1.066036e-01 -1.573014e-03 -6.431833e-04 -1.842776e-03 -2.580739e-03 -3.487736e-03 -1.189681e-03 -7.048110e-04 2.522974e-04 1.642315e-03 1.766371e-03 2.171723e-03 1.548174e-03 2.703684e-03
<VARIANCE> 39
 1.568818e+01 1.167825e+01 1.602010e+01 1.733375e+01 1.956791e+01 2.170185e+01 2.407840e+01 1.919528e+01 2.418083e+01 2.265697e+01 1.797614e+01 1.715046e+01 5.990218e+01 5.829833e-01 4.815973e-01 6.726471e-01 9.088005e-01 1.294740e+00 1.423524e+00 1.585471e+00 1.543638e+00 1.749535e+00 1.756676e+00 1.593720e+00 1.359473e+00 8.355386e-01 9.789658e-02 8.472661e-02 1.249334e-01 1.751959e-01 2.555049e-01 2.767102e-01 3.109713e-01 3.071727e-01 3.465534e-01 3.530295e-01 3.234409e-01 2.732245e-01 1.036463e-01
<GCONST> 9.188617e+01
<TRANSP> 5
 0.000000e+00 1.000000e+00 0.000000e+00 0.000000e+00 0.000000e+00
 0.000000e+00 9.314566e-01 6.854345e-02 0.000000e+00 0.000000e+00
 0.000000e+00 0.000000e+00 8.599455e-01 1.400546e-01 0.000000e+00
 0.000000e+00 0.000000e+00 0.000000e+00 9.936471e-01 6.352893e-03
 0.000000e+00 0.000000e+00 0.000000e+00 0.000000e+00 0.000000e+00
<ENDHMM>
~h "kj"
<BEGINHMM>
<NUMSTATES> 5
<STATE> 2
<MEAN> 39
 -1.950685e+01 3.656009e+00 -1.852497e-01 -1.478435e+00 -9.730918e-01 3.533156e+00 2.181222e+00 2.418674e+00 -3.021643e-01 2.909012e-02 1.497148e+00 -8.413615e-01 5.584147e+01 -2.118911e-02 1.718795e-02 3.416896e-03 -4.444377e-03 -1.996796e-03 1.186136e-02 4.588204e-03 1.182900e-03 1.013630e-02 -1.407747e-03 6.178133e-03 -1.274778e-03 4.157722e-03 1.312708e-03 -1.031200e-03 -4.777570e-04 3.526308e-04 -2.085773e-03 -2.134447e-03 8.846942e-04 1.596301e-03 -1.910168e-04 1.087114e-03 -2.076576e-03 -1.340839e-04 -1.580013e-04
<VARIANCE> 39
 3.125057e+01 2.341944e+01 1.722191e+01 2.635933e+01 1.708715e+01 3.537753e+01 2.629284e+01 2.181044e+01 1.788433e+01 2.106250e+01 1.699304e+01 1.572424e+01 2.312097e+01 6.487721e-01 5.451477e-01 7.259762e-01 9.279729e-01 1.157625e+00 1.467251e+00 1.607923e+00 1.633410e+00 1.611169e+00 1.681573e+00 1.509192e+00 1.339649e+00 3.882581e-01 1.068991e-01 9.875146e-02 1.355905e-01 1.818254e-01 2.221955e-01 2.906308e-01 3.196971e-01 3.272660e-01 3.270995e-01 3.369140e-01 3.040658e-01 2.692496e-01 6.027322e-02
<GCONST> 9.185465e+01
<STATE> 3
<MEAN> 39
 -1.495090e+01 -7.261526e+00 -4.192522e+00 -9.146276e-01 -1.805388e+00 -3.934346e+00 -2.091606e+00 -3.454526e+00 -2.550498e+00 6.456037e-01 4.149651e-01 -7.123048e-01 6.375019e+01 5.916783e-02 -1.388719e-01 -4.004145e-02 1.977600e-02 1.348953e-02 -7.883533e-02 -3.881241e-02 -5.759129e-02 -3.615424e-02 3.424129e-03 3.477826e-03 1.055649e-02 4.638951e-02 -2.028311e-04 1.410911e-02 1.725842e-02 -6.329359e-04 7.758499e-03 1.749437e-02 2.229167e-02 1.160811e-02 6.315901e-03 6.274156e-03 2.691962e-03 -5.443865e-03 -1.840874e-02
<VARIANCE> 39
 1.857540e+01 3.122202e+01 1.255489e+01 1.490394e+01 1.707376e+01 1.962112e+01 2.076969e+01 2.024266e+01 1.787892e+01 1.744840e+01 1.575367e+01 1.341482e+01 6.921229e+01 6.728073e-01 1.732389e+00 8.391637e-01 9.472818e-01 1.271200e+00 1.721016e+00 1.835386e+00 1.764894e+00 1.670447e+00 1.524232e+00 1.413061e+00 1.249121e+00 2.087433e+00 1.035921e-01 2.653175e-01 1.500515e-01 1.817960e-01 2.421112e-01 3.092454e-01 3.478140e-01 3.412322e-01 3.361420e-01 3.063636e-01 2.857218e-01 2.567183e-01 2.682901e-01
<GCONST> 9.646101e+01
<STATE> 4
<MEAN> 39
 -2.132270e+01 8.282440e-01 2.201524e+00 2.071398e+00 -2.772376e+00 -8.119249e-01 6.630709e+00 -7.371688e-01 -3.959116e+00 4.631729e+00 6.481790e-01 -3.525808e+00 5.635925e+01 3.018617e-02 1.548066e-03 6.081637e-03 -8.002197e-03 5.023135e-03 8.304439e-03 9.667711e-03 6.934013e-03 1.025476e-02 -7.149020e-03 8.327545e-04 5.227936e-03 -2.798158e-02 2.252312e-03 -8.651708e-04 -2.061320e-03 -1.771979e-03 1.307983e-03 1.913437e-04 -2.169215e-03 3.814218e-04 1.346332e-03 -2.694964e-03 9.829679e-04 2.345791e-03 -1.180839e-03
<VARIANCE> 39
 3.791487e+01 2.733909e+01 1.810891e+01 1.904205e+01 1.683736e+01 2.138923e+01 3.270473e+01 2.011355e+01 1.944549e+01 2.300473e+01 1.798767e+01 1.621427e+01 2.985658e+01 4.803934e-01 7.568446e-01 6.690274e-01 9.532314e-01 1.218101e+00 1.358181e+00 1.659548e+00 1.559168e+00 1.633088e+00 1.729784e+00 1.448520e+00 1.317000e+00 5.475973e-01 7.823637e-02 1.292075e-01 1.234155e-01 1.830109e-01 2.396905e-01 2.686910e-01 3.173955e-01 3.119898e-01 3.301362e-01 3.437223e-01 2.908474e-01 2.668037e-01 7.806098e-02
<GCONST> 9.236694e+01
<TRANSP> 5
 0.000000e+00 1.000000e+00 0.000000e+00 0.000000e+00 0.000000e+00
 0.000000e+00 9.936980e-01 6.301944e-03 0.000000e+00 0.000000e+00
 0.000000e+00 0.000000e+00 9.746039e-01 2.539614e-02 0.000000e+00
 0.000000e+00 0.000000e+00 0.000000e+00 9.914431e-01 8.556904e-03
 0.000000e+00 0.000000e+00 0.000000e+00 0.000000e+00 0.000000e+00
<ENDHMM>
~h "kn"
<BEGINHMM>
<NUMSTATES> 5
<STATE> 2
<MEAN> 39
 -5.131328e-01 7.638541e-01 -2.411073e+00 -2.467317e+00 1.213952e+00 -6.260434e-01 1.979901e+00 -3.575078e+00 -2.585817e-01 -4.091621e-01 7.073621e-01 -3.928731e+00 5.694885e+01 1.725597e-01 1.880690e-01 -8.970249e-02 1.575909e-01 2.622083e-01 -3.795686e-01 4.388100e-01 -6.197828e-02 9.532843e-01 2.146557e-01 2.017912e-01 2.911241e-01 1.931872e+00 -4.521476e-02 8.468968e-02 9.741244e-02 8.525278e-02 1.850205e-01 2.027561e-01 -3.413955e-02 5.760670e-02 -1.707394e-01 -3.974992e-02 4.944480e-03 9.832460e-02 -4.013574e-01
<VARIANCE> 39
 2.550073e+01 2.445109e+01 2.946330e+01 1.183773e+01 2.070257e+01 2.614173e+01 2.605753e+01 5.478627e+01 2.935211e+01 3.203852e+01 2.449705e+01 1.810859e+01 1.266043e+02 2.318425e+00 1.382158e+00 1.893396e+00 9.737147e-01 1.490001e+00 2.062779e+00 2.974378e+00 5.301858e+00 3.340624e+00 2.294436e+00 2.059582e+00 2.161840e+00 6.794613e+00 3.346551e-01 1.742618e-01 2.916693e-01 1.492497e-01 2.166112e-01 3.366645e-01 4.955611e-01 7.487088e-01 6.200733e-01 3.954374e-01 3.336330e-01 3.306539e-01 1.070032e+00
<GCONST> 1.132820e+02
<STATE> 3
<MEAN> 39
 5.564093e+00 -3.464025e-01 -2.887984e+00 9.437953e-01 4.419026e+00 -9.872059e-01 1.784584e+00 -4.065749e+00 -2.853988e-01 -9.428927e-01 1.030485e+00 -1.821376e+00 6.043593e+01 6.775011e-02 -1.698770e-02 2.593247e-02 4.745467e-02 2.013262e-02 1.729955e-02 -9.380079e-03 1.846293e-02 -4.668838e-02 1.246694e-02 -1.492565e-02 2.143503e-02 -1.168411e-01 2.916061e-05 -3.728461e-03 -4.022805e-03 -5.629817e-03 -9.080274e-03 7.558793e-04 -6.841089e-03 -3.478473e-03 -1.065686e-02 -4.720048e-03 -5.072381e-03 -1.736299e-02 -1.062119e-02
<VARIANCE> 39
 1.124023e+01 2.307123e+01 1.435398e+01 1.441681e+01 1.884874e+01 2.184725e+01 2.106831e+01 2.257629e+01 2.193944e+01 2.075749e+01 1.700047e+01 1.709100e+01 2.933432e+01 3.808491e-01 8.177196e-01 7.641815e-01 9.686011e-01 1.362695e+00 1.366645e+00 1.450915e+00 1.903211e+00 1.769940e+00 1.516205e+00 1.354545e+00 1.423945e+00 1.943128e+00 6.750400e-02 1.585744e-01 1.407025e-01 2.041923e-01 2.896014e-01 2.758873e-01 2.978850e-01 4.019502e-01 3.725534e-01 3.196106e-01 2.716638e-01 2.882673e-01 3.265273e-01
<GCONST> 9.387241e+01
<STATE> 4
<MEAN> 39
 4.026104e+00 2.722100e+00 4.623897e-01 7.620551e-01 5.148213e+00 2.374926e+00 1.320181e+00 -1.158963e+00 -2.923040e+00 -1.384079e+00 1.271843e-01 -2.863859e+00 5.108478e+01 -1.995588e-01 1.022683e-01 1.711175e-01 -4.869564e-02 2.502938e-02 1.990860e-01 1.186352e-03 1.536127e-01 -1.042331e-01 -4.280759e-02 -4.272997e-02 -7.801156e-02 -3.775451e-01 -1.054863e-02 -1.197631e-02 -5.906505e-03 -1.508137e-02 -2.065342e-02 -2.208629e-02 1.906634e-02 2.904064e-03 1.597575e-02 5.028995e-03 7.717384e-03 1.297481e-02 2.390454e-02
<VARIANCE> 39
 1.561137e+01 1.874183e+01 1.553438e+01 1.375208e+01 2.063972e+01 1.716643e+01 1.860466e+01 2.018059e+01 2.019433e+01 1.854917e+01 1.540150e+01 1.488989e+01 2.535694e+01 2.407261e-01 3.939272e-01 5.353341e-01 6.128986e-01 9.306064e-01 1.070887e+00 1.273446e+00 1.520370e+00 1.547158e+00 1.359842e+00 1.261316e+00 1.195448e+00 2.456803e-01 3.399094e-02 6.301574e-02 9.694103e-02 1.176953e-01 1.799885e-01 1.995896e-01 2.627894e-01 3.011848e-01 3.158459e-01 2.717882e-01 2.542908e-01 2.345984e-01 2.582290e-02
<GCONST> 8.063741e+01
<TRANSP> 5
 0.000000e+00 1.000000e+00 0.000000e+00 0.000000e+00 0.000000e+00
 0.000000e+00 8.372340e-01 1.627661e-01 0.000000e+00 0.000000e+00
 0.000000e+00 0.000000e+00 9.852732e-01 1.472677e-02 0.000000e+00
 0.000000e+00 0.000000e+00 0.000000e+00 9.574161e-01 4.258387e-02
 0.000000e+00 0.000000e+00 0.000000e+00 0.000000e+00 0.000000e+00
<ENDHMM>
~h "kt"
<BEGINHMM>
<NUMSTATES> 5
<STATE> 2
<MEAN> 39
 -1.099930e+01 1.482693e-01 -6.478490e+00 -1.096808e+00 1.455145e+00 1.311911e+00 4.691432e+00 7.024941e-01 1.188296e+00 8.376992e-01 1.571881e+00 -1.316891e+00 5.564819e+01 2.054513e-03 8.033528e-04 -5.804367e-03 3.204694e-04 -2.673684e-04 -8.431328e-04 3.278397e-03 -8.277732e-04 -3.169562e-03 -2.569128e-06 4.248956e-04 -2.976030e-03 9.438156e-04 9.452854e-04 -5.990256e-04 1.139511e-03 3.385284e-04 6.281776e-04 -3.023992e-04 -5.304694e-04 5.204811e-04 -1.171938e-03 -6.698150e-05 -4.489483e-04 -5.303266e-04 -1.712083e-03
<VARIANCE> 39
 1.483530e+01 6.257368e+00 7.547576e+00 1.084958e+01 1.198482e+01 1.716938e+01 1.624033e+01 1.631917e+01 1.678343e+01 1.539943e+01 1.441501e+01 1.325676e+01 1.843669e+01 8.997689e-01 4.422746e-01 6.194005e-01 8.526357e-01 1.106034e+00 1.466503e+00 1.692353e+00 1.679260e+00 1.624200e+00 1.650798e+00 1.485451e+00 1.302601e+00 1.009505e+00 1.656369e-01 8.636907e-02 1.243830e-01 1.658693e-01 2.243966e-01 2.991591e-01 3.554276e-01 3.471310e-01 3.267710e-01 3.413147e-01 2.979355e-01 2.632457e-01 1.750634e-01
<GCONST> 8.746264e+01
<STATE> 3
<MEAN> 39
 -1.217193e+01 3.194935e+00 -2.800809e+00 9.047882e-01 8.346248e-01 -2.377028e+00 2.432704e+00 1.121643e+00 2.353174e-02 -5.723737e-01 -3.795368e-01 -1.610571e+00 5.315085e+01 -6.508061e-03 5.766624e-04 -3.813893e-03 5.635055e-03 3.982218e-03 -1.008039e-02 1.301692e-02 -1.586887e-02 3.379476e-03 -9.212681e-03 6.782531e-03 -9.813116e-03 1.040713e-02 8.500853e-03 -2.028686e-03 3.520589e-03 -1.379927e-03 5.091619e-03 1.008144e-02 3.456481e-03 4.549264e-03 4.750997e-03 2.954617e-03 3.225607e-03 1.896628e-03 -1.589362e-02
<VARIANCE> 39
 7.948168e+00 6.175573e+00 9.150519e+00 1.175702e+01 1.458593e+01 1.685491e+01 1.745989e+01 1.701239e+01 1.775427e+01 1.971318e+01 1.761017e+01 1.396473e+01 2.036050e+01 7.485544e-01 4.789277e-01 7.587873e-01 9.303406e-01 1.337640e+00 1.805064e+00 1.675060e+00 1.598768e+00 1.727008e+00 2.136795e+00 1.704151e+00 1.381363e+00 1.659716e+00 1.438202e-01 8.994327e-02 1.515859e-01 1.899364e-01 2.736597e-01 3.831101e-01 3.421070e-01 3.257820e-01 3.506057e-01 4.502121e-01 3.379079e-01 2.821029e-01 3.150863e-01
<GCONST> 9.128868e+01
<STATE> 4
<MEAN> 39
 -9.716705e+00 3.166657e+00 -2.549419e+00 -2.767334e-02 4.435176e-01 -9.825484e-02 3.143807e+00 2.142224e+00 6.525036e-01 -2.867127e-02 5.929099e-01 -2.093540e+00 4.880437e+01 1.686804e-02 -1.771236e-03 6.641535e-03 -9.089534e-03 6.601560e-03 1.119907e-02 3.166611e-03 6.434344e-03 -8.119194e-05 1.840449e-03 3.455797e-03 1.307507e-03 -2.191457e-02 -6.740061e-04 5.502873e-05 -8.041760e-05 9.467801e-04 5.822420e-05 -1.434181e-03 -2.262748e-03 -3.677668e-04 -8.862813e-04 -8.050807e-04 -1.131095e-03 4.154473e-04 2.274942e-03
<VARIANCE> 39
 9.512200e+00 8.989242e+00 1.096885e+01 1.157599e+01 1.665113e+01 1.586453e+01 1.692478e+01 1.738572e+01 1.736057e+01 1.734616e+01 1.508879e+01 1.299971e+01 1.163884e+01 6.898907e-01 5.162247e-01 6.995615e-01 8.597670e-01 1.156718e+00 1.312441e+00 1.433158e+00 1.484592e+00 1.609298e+00 1.615746e+00 1.437607e+00 1.231074e+00 7.792090e-01 1.310184e-01 9.951484e-02 1.365830e-01 1.717539e-01 2.311881e-01 2.655349e-01 2.929960e-01 2.996208e-01 3.303871e-01 3.350482e-01 2.915878e-01 2.464223e-01 1.426534e-01
<GCONST> 8.648307e+01
<TRANSP> 5
 0.000000e+00 1.000000e+00 0.000000e+00 0.000000e+00 0.000000e+00
 0.000000e+00 9.916905e-01 8.309489e-03 0.000000e+00 0.000000e+00
 0.000000e+00 0.000000e+00 9.848137e-01 1.518622e-02 0.000000e+00
 0.000000e+00 0.000000e+00 0.000000e+00 9.930381e-01 6.961843e-03
 0.000000e+00 0.000000e+00 0.000000e+00 0.000000e+00 0.000000e+00
<ENDHMM>
~h "pr"
<BEGINHMM>
<NUMSTATES> 5
<STATE> 2
<MEAN> 39
 -1.461085e+01 -7.829092e+00 -1.249724e-01 -6.816157e+00 2.943945e+00 5.540848e+00 4.938657e+00 2.573529e-01 -2.172185e+00 -2.085479e+00 4.872958e+00 -4.700494e-01 5.820672e+01 -3.888367e-02 -1.235251e-02 1.342718e-02 -1.720036e-02 1.293731e-02 1.681757e-02 7.043100e-03 -1.834723e-02 6.344280e-03 -1.541708e-02 -8.511376e-03 4.458774e-02 3.470645e-02 1.342762e-02 2.537122e-03 -6.206451e-04 2.833896e-03 -3.610191e-03 1.649956e-03 -4.903363e-03 1.154370e-03 1.973452e-03 5.734199e-03 -6.264454e-03 -4.684967e-03 -1.102910e-02
<VARIANCE> 39
 3.261814e+01 4.265133e+01 4.417350e+01 3.526626e+01 4.658945e+01 7.049661e+01 5.153955e+01 6.326331e+01 5.880807e+01 3.392733e+01 5.452546e+01 5.625181e+01 2.611451e+01 8.157132e-01 7.950888e-01 9.789219e-01 1.376318e+00 1.505697e+00 1.830534e+00 2.105598e+00 2.316121e+00 2.260694e+00 1.997186e+00 2.379948e+00 2.097352e+00 5.972492e-01 1.193347e-01 1.274089e-01 1.671033e-01 2.395026e-01 2.699914e-01 3.256575e-01 3.887723e-01 4.111150e-01 4.194849e-01 3.621640e-01 4.395088e-01 3.783061e-01 8.255365e-02
<GCONST> 1.085632e+02
<STATE> 3
<MEAN> 39
 -1.946999e+01 3.421956e+00 1.786374e+01 -1.632139e+01 3.282283e+00 1.229142e+01 -5.979257e+00 -4.366896e+00 1.057310e+01 -5.346707e+00 -8.491150e+00 8.923049e+00 5.286343e+01 6.995043e-02 -3.530498e-02 -8.208343e-03 -1.348472e-02 2.636923e-02 -1.883307e-02 -3.067861e-02 4.176624e-02 -2.822207e-02 4.486718e-02 -2.757461e-02 6.463235e-03 -5.537114e-02 1.552018e-03 1.747407e-03 -7.339629e-03 7.067726e-03 7.921251e-03 -1.312064e-02 5.004133e-03 1.415509e-02 -9.710642e-03 3.888253e-04 1.366182e-02 -1.148427e-02 -1.831698e-03
<VARIANCE> 39
 1.903988e+01 1.826885e+01 1.451977e+01 3.226742e+01 2.834292e+01 2.307316e+01 1.754063e+01 3.668767e+01 3.178584e+01 4.387304e+01 3.170698e+01 2.081552e+01 1.348254e+01 5.464038e-01 4.630798e-01 5.203201e-01 8.866413e-01 1.265869e+00 1.604477e+00 1.379743e+00 1.524799e+00 1.620997e+00 1.680555e+00 1.887306e+00 1.128770e+00 2.413065e-01 1.334595e-01 8.789580e-02 1.032588e-01 1.772889e-01 2.626265e-01 3.453622e-01 2.806321e-01 3.108532e-01 3.402900e-01 3.227951e-01 3.711197e-01 2.301762e-01 5.758380e-02
<GCONST> 9.179493e+01
<STATE> 4
<MEAN> 39
 -1.402510e+01 -5.088373e+00 4.917246e+00 -5.846971e+00 3.503610e+00 -1.265240e+00 3.303266e+00 4.580441e+00 2.707452e+00 -1.905539e+00 -3.211861e+00 2.933580e+00 5.411844e+01 3.373158e-02 2.261055e-02 -1.975428e-02 2.051597e-02 -2.077094e-02 -7.504809e-03 6.746812e-03 -3.713269e-03 -5.161976e-04 -2.388581e-03 1.218956e-02 -2.151059e-02 -3.151975e-02 -6.224017e-04 6.169989e-04 1.277174e-03 -8.646815e-04 -8.133355e-04 9.588798e-04 -1.865966e-04 -1.245297e-03 2.862368e-04 4.649417e-04 -5.416553e-04 -1.499341e-03 2.931191e-04
<VARIANCE> 39
 3.909535e+01 5.419584e+01 5.258314e+01 5.566114e+01 8.560088e+01 9.090848e+01 6.846289e+01 6.308381e+01 5.274361e+01 4.982468e+01 5.201921e+01 6.963998e+01 4.676660e+01 3.166694e-01 4.112165e-01 6.508614e-01 9.354323e-01 1.130995e+00 1.514916e+00 1.529787e+00 1.580737e+00 1.684783e+00 1.739581e+00 1.548878e+00 1.362066e+00 1.621214e-01 5.670727e-02 7.396186e-02 1.211795e-01 1.703610e-01 2.207766e-01 2.938629e-01 3.002011e-01 2.992302e-01 3.236423e-01 3.416630e-01 3.070014e-01 2.634090e-01 2.644271e-02
<GCONST> 1.006018e+02
<TRANSP> 5
 0.000000e+00 1.000000e+00 0.000000e+00 0.000000e+00 0.000000e+00
 0.000000e+00 9.894273e-01 1.057261e-02 0.000000e+00 0.000000e+00
 0.000000e+00 0.000000e+00 9.843987e-01 1.560121e-02 0.000000e+00
 0.000000e+00 0.000000e+00 0.000000e+00 9.952680e-01 4.731935e-03
 0.000000e+00 0.000000e+00 0.000000e+00 0.000000e+00 0.000000e+00
<ENDHMM>
~h "pw"
<BEGINHMM>
<NUMSTATES> 5
<STATE> 2
<MEAN> 39
 -1.328878e+01 -2.086209e+00 -9.466406e-01 -6.326896e-01 1.173404e+00 -1.080965e+00 3.034589e+00 2.018218e-01 -6.522387e-01 9.731805e-01 1.386347e-01 -9.515270e-01 5.385380e+01 -2.488537e-03 -4.172832e-03 3.197132e-03 -6.481192e-04 -1.977473e-03 -7.464882e-03 1.089332e-03 -3.929699e-03 -2.198790e-03 -1.622979e-04 7.876572e-04 1.216823e-03 5.148242e-03 4.064379e-05 -1.436080e-03 -2.586569e-03 -7.835057e-05 -1.737739e-03 -2.453790e-03 -2.254632e-03 -9.116573e-04 -1.904871e-03 1.359998e-03 -6.167919e-04 5.014597e-04 2.662151e-03
<VARIANCE> 39
 1.584707e+01 2.114895e+01 1.178837e+01 1.205794e+01 1.515226e+01 1.773551e+01 1.728346e+01 1.859828e+01 1.661973e+01 1.558959e+01 1.445086e+01 1.295810e+01 2.288198e+01 5.543559e-01 7.658075e-01 6.967586e-01 8.968216e-01 1.153815e+00 1.402661e+00 1.449308e+00 1.559664e+00 1.592408e+00 1.462565e+00 1.455277e+00 1.251816e+00 5.739179e-01 9.117415e-02 1.299895e-01 1.333883e-01 1.773817e-01 2.291053e-01 2.856842e-01 2.942216e-01 3.128825e-01 3.267613e-01 2.937843e-01 3.002015e-01 2.549566e-01 8.444038e-02
<GCONST> 8.791904e+01
<STATE> 3
<MEAN> 39
 -1.091621e+01 -6.183275e+00 -2.525283e+00 -1.428574e+00 1.902713e-01 -4.489331e+00 -6.581364e-01 -4.487919e+00 -3.276224e+00 -8.083152e-01 -1.934953e-01 -4.829634e-01 6.121606e+01 -8.017204e-03 -6.375173e-02 -1.731794e-02 4.746344e-03 -1.095265e-02 -4.651007e-02 -5.179512e-02 -6.559334e-02 -3.815091e-02 -2.424875e-02 4.287093e-03 8.539372e-03 9.457602e-02 6.643191e-03 8.789749e-03 3.220808e-03 7.119580e-04 1.067141e-02 1.532984e-02 1.228660e-02 1.106671e-02 8.563410e-03 3.718867e-03 4.361705e-03 -3.868486e-03 -2.119791e-02
<VARIANCE> 39
 2.177141e+01 2.822754e+01 1.385687e+01 1.265041e+01 1.880158e+01 2.563129e+01 2.219648e+01 2.687549e+01 1.946120e+01 1.712012e+01 1.505186e+01 1.333060e+01 8.572706e+01 6.536325e-01 1.081915e+00 7.345476e-01 8.643906e-01 1.465833e+00 1.911517e+00 1.696969e+00 1.781384e+00 1.539461e+00 1.466921e+00 1.376162e+00 1.303879e+00 3.914239e+00 1.088227e-01 1.645553e-01 1.358667e-01 1.654580e-01 2.870219e-01 3.624290e-01 3.275380e-01 3.413119e-01 3.110236e-01 2.943137e-01 2.797459e-01 2.716458e-01 5.343524e-01
<GCONST> 9.762790e+01
<STATE> 4
<MEAN> 39
 -1.202464e+01 -3.004742e+00 -1.625489e+00 -9.125380e-01 8.908246e-01 -1.034451e+00 2.861931e+00 -4.923919e-01 -8.979719e-01 6.618686e-01 3.687036e-01 -8.298582e-01 5.455324e+01 1.049144e-02 8.790691e-03 3.740159e-03 -1.750679e-03 3.981703e-03 1.397015e-02 1.069631e-02 1.393496e-02 9.620478e-03 5.387483e-03 6.905139e-04 -3.838067e-03 -2.635208e-02 4.207295e-04 -7.524528e-04 -3.418975e-04 -6.288601e-04 -1.196403e-03 -8.661808e-04 -1.404503e-03 -2.222243e-03 -1.855093e-03 -8.181342e-04 -3.462802e-04 1.351575e-04 1.248958e-03
<VARIANCE> 39
 1.737162e+01 2.135994e+01 1.279140e+01 1.220823e+01 1.441721e+01 2.102080e+01 1.840561e+01 2.110492e+01 1.747878e+01 1.615569e+01 1.436662e+01 1.336422e+01 3.435286e+01 5.330060e-01 7.634521e-01 6.626993e-01 8.542979e-01 1.132731e+00 1.457956e+00 1.463797e+00 1.571133e+00 1.516677e+00 1.506727e+00 1.415897e+00 1.288128e+00 8.853551e-01 8.683654e-02 1.268753e-01 1.247776e-01 1.670602e-01 2.235828e-01 2.925445e-01 2.914072e-01 3.134197e-01 3.070486e-01 3.096921e-01 2.884675e-01 2.650276e-01 1.263026e-01
<GCONST> 8.943774e+01
<TRANSP> 5
 0.000000e+00 1.000000e+00 0.000000e+00 0.000000e+00 0.000000e+00
 0.000000e+00 9.938995e-01 6.100542e-03 0.000000e+00 0.000000e+00
 0.000000e+00 0.000000e+00 9.883854e-01 1.161466e-02 0.000000e+00
 0.000000e+00 0.000000e+00 0.000000e+00 9.972070e-01 2.792928e-03
 0.000000e+00 0.000000e+00 0.000000e+00 0.000000e+00 0.000000e+00
<ENDHMM>
~h "si"
<BEGINHMM>
<NUMSTATES> 5
<STATE> 2
<MEAN> 39
 -5.806301e+00 2.088676e+00 1.191603e+00 -1.918203e+00 1.982623e+00 1.940726e+00 2.249295e+00 3.303911e+00 -4.356835e-01 3.475578e-01 7.634730e-01 -2.637402e+00 4.428975e+01 -2.951489e-03 3.930423e-03 -9.162052e-03 -8.971830e-03 -5.924612e-03 2.231841e-03 5.127273e-03 1.364066e-02 3.888975e-03 6.300402e-03 6.149021e-03 -1.499233e-03 -1.584017e-02 -8.683163e-04 -7.997470e-04 -6.624795e-04 1.650910e-04 -3.409338e-04 -2.851236e-04 -8.410146e-05 -1.165251e-03 1.042026e-04 3.590112e-04 2.671674e-04 6.315113e-04 1.260238e-03
<VARIANCE> 39
 7.289827e+00 6.113302e+00 9.994235e+00 1.101580e+01 1.785932e+01 1.494651e+01 1.609809e+01 1.896459e+01 1.649739e+01 1.698660e+01 1.490981e+01 1.323034e+01 6.599378e+00 1.711987e-01 3.074886e-01 4.736724e-01 6.923828e-01 9.364787e-01 1.115406e+00 1.269997e+00 1.367317e+00 1.394975e+00 1.412801e+00 1.321502e+00 1.131766e+00 8.199091e-02 3.004773e-02 5.775064e-02 9.222313e-02 1.376073e-01 1.861858e-01 2.232575e-01 2.555414e-01 2.750763e-01 2.828151e-01 2.875671e-01 2.687191e-01 2.289316e-01 1.243255e-02
<GCONST> 7.316300e+01
<STATE> 3
<MEAN> 39
 -3.889785e+00 -3.888591e+00 -3.632004e+00 -3.230997e+00 1.298669e+00 3.746017e+00 4.365936e+00 6.946231e-01 -6.395200e-01 1.174502e+00 1.236601e+00 -2.599087e+00 5.072477e+01 -2.401215e-03 -5.132258e-03 -1.063301e-02 -8.307997e-03 -6.833867e-03 2.346872e-03 3.437125e-03 5.480953e-03 5.183980e-03 9.365926e-03 3.319489e-03 4.602718e-03 -1.324860e-02 -2.289197e-03 1.849438e-03 2.759351e-03 1.758379e-03 -3.375192e-04 -3.460301e-03 -2.607568e-03 -1.568344e-03 -3.873489e-04 -8.773998e-04 -1.257028e-03 2.793948e-05 2.632569e-03
<VARIANCE> 39
 7.845582e+00 8.388948e+00 7.867007e+00 9.132032e+00 1.472491e+01 1.531034e+01 1.596364e+01 1.608101e+01 1.547090e+01 1.539592e+01 1.470587e+01 1.328058e+01 5.145063e+00 1.646525e-01 3.023903e-01 4.914119e-01 6.788585e-01 9.544859e-01 1.148623e+00 1.277272e+00 1.428084e+00 1.407028e+00 1.430666e+00 1.357780e+00 1.207844e+00 7.476642e-02 2.842703e-02 5.733815e-02 9.710423e-02 1.344415e-01 1.926342e-01 2.311633e-01 2.564760e-01 2.905186e-01 2.865678e-01 2.935378e-01 2.777288e-01 2.454279e-01 1.175405e-02
<GCONST> 7.261524e+01
<STATE> 4
<MEAN> 39
 -8.717902e+00 2.327967e-01 2.411191e-01 -1.652071e+00 6.742799e-01 4.515093e-01 2.648029e+00 1.209213e+00 1.140423e-02 7.288803e-01 8.653945e-01 -1.695510e+00 4.942313e+01 -9.235775e-03 -1.360083e-03 7.602292e-04 -1.050591e-03 -2.901989e-03 -5.840252e-03 -2.334923e-03 -3.670094e-03 2.177816e-03 2.073643e-03 3.534260e-03 4.236883e-03 1.636680e-02 1.301493e-03 -1.558810e-04 -5.347424e-05 -4.749585e-04 3.804945e-04 1.187917e-03 3.592123e-04 2.764145e-04 -6.857575e-05 -2.745957e-04 3.243993e-05 -5.065447e-04 -1.517808e-04
<VARIANCE> 39
 2.059325e+01 1.684072e+01 1.370335e+01 1.442559e+01 1.941532e+01 1.936389e+01 1.967208e+01 2.298796e+01 1.934090e+01 1.791899e+01 1.668987e+01 1.559952e+01 3.364007e+01 4.213575e-01 5.561912e-01 6.078981e-01 8.360764e-01 1.075899e+00 1.305931e+00 1.411824e+00 1.521618e+00 1.510690e+00 1.497165e+00 1.399793e+00 1.239205e+00 5.191388e-01 6.619613e-02 9.587163e-02 1.142204e-01 1.619752e-01 2.099769e-01 2.578484e-01 2.817726e-01 3.032342e-01 3.033092e-01 3.027819e-01 2.829079e-01 2.497343e-01 7.470753e-02
<GCONST> 8.741270e+01
<TRANSP> 5
 0.000000e+00 1.000000e+00 0.000000e+00 0.000000e+00 0.000000e+00
 0.000000e+00 9.908999e-01 9.100137e-03 0.000000e+00 0.000000e+00
 0.000000e+00 0.000000e+00 9.800115e-01 1.998848e-02 0.000000e+00
 0.000000e+00 0.000000e+00 0.000000e+00 9.914057e-01 8.594267e-03
 0.000000e+00 0.000000e+00 0.000000e+00 0.000000e+00 0.000000e+00
<ENDHMM>
~h "st"
<BEGINHMM>
<NUMSTATES> 5
<STATE> 2
<MEAN> 39
 -9.677019e+00 -2.925146e+00 -1.219055e-01 -5.748971e+00 -1.414378e+00 -3.480320e+00 6.110662e-01 2.921976e-02 -3.835057e-01 -5.605804e-01 9.586450e-01 -2.525035e+00 6.005762e+01 -1.894625e-01 -5.248278e-01 2.011630e-01 -4.843417e-01 -3.244554e-01 -5.727733e-01 -1.823549e-01 -1.957381e-02 5.832554e-02 -4.553203e-02 -9.791333e-04 2.540409e-02 1.231799e+00 8.010106e-02 7.854748e-02 4.898797e-03 8.254333e-02 9.017184e-02 1.395677e-01 1.145480e-01 2.693333e-02 1.464806e-02 3.297171e-02 -3.753844e-03 1.501188e-02 -2.339120e-01
<VARIANCE> 39
 2.201060e+01 2.892996e+01 1.868377e+01 2.840591e+01 2.595281e+01 3.608589e+01 2.721486e+01 2.479902e+01 2.114024e+01 2.161835e+01 2.036871e+01 1.536715e+01 9.676756e+01 1.368494e+00 1.514663e+00 1.211946e+00 1.908612e+00 2.275719e+00 3.112341e+00 2.465309e+00 2.347707e+00 1.831838e+00 2.180673e+00 2.135751e+00 1.760517e+00 5.092072e+00 1.863967e-01 2.509570e-01 1.995880e-01 3.166083e-01 3.758469e-01 4.904093e-01 4.082933e-01 4.358266e-01 3.198111e-01 3.801209e-01 3.770019e-01 3.096541e-01 8.122430e-01
<GCONST> 1.101215e+02
<STATE> 3
<MEAN> 39
 -7.263462e+00 -3.250662e+00 -1.787329e+00 -5.025961e+00 -9.767314e-01 -6.845437e-01 2.414457e+00 -2.794304e-01 -1.097841e+00 -3.229313e-01 1.000928e+00 -2.462411e+00 5.620752e+01 7.374771e-04 2.062035e-02 -5.725994e-03 1.900361e-02 7.631085e-03 2.545106e-02 1.048977e-02 -3.513845e-03 -5.736364e-03 2.871736e-03 2.744111e-03 1.194538e-03 -4.873034e-02 -1.731138e-03 1.591434e-03 -1.046264e-03 1.995859e-03 3.789278e-04 -2.916153e-04 -3.217618e-03 -1.181730e-03 -5.902489e-04 -3.722785e-04 3.879310e-04 7.226634e-05 3.907200e-04
<VARIANCE> 39
 1.522444e+01 1.663508e+01 1.461160e+01 2.016659e+01 1.942169e+01 2.392801e+01 1.955489e+01 1.884568e+01 1.850978e+01 1.892970e+01 1.569134e+01 1.429448e+01 3.214370e+01 5.271275e-01 6.853313e-01 7.186316e-01 1.168646e+00 1.336369e+00 1.575646e+00 1.547879e+00 1.565053e+00 1.573825e+00 1.588133e+00 1.506627e+00 1.310554e+00 1.302266e+00 8.274949e-02 1.134435e-01 1.356893e-01 2.167480e-01 2.594400e-01 3.069867e-01 3.116595e-01 3.192271e-01 3.224951e-01 3.267365e-01 3.108015e-01 2.666182e-01 1.952054e-01
<GCONST> 9.258065e+01
<STATE> 4
<MEAN> 39
 -1.027467e+01 8.007781e-01 7.992641e-01 -2.573501e+00 2.828333e-01 -7.561065e-01 2.032454e+00 3.423502e-01 2.707639e-01 -1.230068e-01 7.331885e-01 -2.263302e+00 5.223519e+01 4.849335e-03 7.690603e-03 -2.279397e-03 6.650798e-03 1.298186e-02 2.099418e-02 1.045451e-02 1.979885e-03 1.946084e-03 -1.896734e-03 -4.933806e-03 3.200644e-03 -2.919146e-02 1.273924e-03 -1.888265e-03 -1.391206e-03 -3.036608e-03 -2.795958e-03 -4.415913e-04 4.973109e-04 1.309083e-03 5.362476e-04 1.526979e-03 4.578688e-04 2.767407e-04 1.190193e-03
<VARIANCE> 39
 1.466635e+01 8.983995e+00 1.136725e+01 1.720145e+01 1.650839e+01 1.945689e+01 1.809243e+01 1.992889e+01 1.753961e+01 1.639639e+01 1.466612e+01 1.333406e+01 3.625193e+01 4.369744e-01 4.932684e-01 6.262829e-01 9.986921e-01 1.160685e+00 1.390502e+00 1.438685e+00 1.543468e+00 1.532591e+00 1.503785e+00 1.416295e+00 1.271550e+00 9.716066e-01 7.084258e-02 8.721686e-02 1.202232e-01 1.839383e-01 2.243024e-01 2.708197e-01 2.862609e-01 3.110895e-01 3.093528e-01 3.069046e-01 2.906103e-01 2.618162e-01 1.205760e-01
<GCONST> 8.752489e+01
<TRANSP> 5
 0.000000e+00 1.000000e+00 0.000000e+00 0.000000e+00 0.000000e+00
 0.000000e+00 8.384134e-01 1.615866e-01 0.000000e+00 0.000000e+00
 0.000000e+00 0.000000e+00 9.915427e-01 8.457282e-03 0.000000e+00
 0.000000e+00 0.000000e+00 0.000000e+00 9.913540e-01 8.646012e-03
 0.000000e+00 0.000000e+00 0.000000e+00 0.000000e+00 0.000000e+00
<ENDHMM>
~h "spe"
<BEGINHMM>
<NUMSTATES> 5
<STATE> 2
<MEAN> 39
 -1.110246e+00 -4.742340e-02 4.883476e+00 -5.510095e+00 -6.246525e+00 7.863824e-01 -1.262477e+00 -4.789615e+00 -4.053094e+00 -3.161160e-01 1.549532e-02 -5.089900e+00 5.541212e+01 1.171256e-01 -2.783013e-01 2.500078e-01 -2.107136e-01 -3.236657e-01 -1.351401e-01 -2.809615e-01 8.714673e-02 9.352561e-02 2.129901e-01 3.704797e-02 -1.886860e-01 3.676018e-01 -1.232202e-02 -5.859317e-02 -2.701504e-02 -7.727864e-03 1.156912e-03 -2.456411e-02 -9.161334e-03 3.590195e-02 3.164492e-02 1.079499e-02 -3.654482e-02 -1.702880e-02 1.658292e-02
<VARIANCE> 39
 2.564956e+01 2.685512e+01 7.598534e+01 4.211703e+01 6.294874e+01 3.627036e+01 2.288480e+01 3.996107e+01 2.987477e+01 2.760898e+01 2.404578e+01 2.630382e+01 1.389359e+01 7.410473e-01 9.962285e-01 1.207078e+00 1.689441e+00 2.813632e+00 2.319800e+00 1.609590e+00 2.573251e+00 2.093821e+00 1.856328e+00 1.670610e+00 1.631782e+00 4.605308e-01 8.497301e-02 1.207552e-01 1.542079e-01 2.311597e-01 4.366806e-01 4.308590e-01 2.766902e-01 3.908538e-01 3.215326e-01 3.101169e-01 2.915768e-01 2.526847e-01 3.975235e-02
<GCONST> 1.019755e+02
<STATE> 3
<MEAN> 39
 -1.521116e+00 -5.008895e+00 1.141509e+00 -1.195308e+01 -2.703955e+00 -4.733736e+00 -4.537544e+00 -1.109952e+00 -1.592330e+00 -2.017323e+00 -5.240878e+00 -4.953439e+00 6.156828e+01 -3.179710e-02 3.817828e-02 -7.339543e-02 7.212623e-02 9.341936e-02 -2.442941e-04 -7.074385e-04 -5.382401e-02 -3.823322e-02 -7.016732e-02 -6.766354e-02 -6.566425e-03 -1.466283e-02 -1.245128e-03 2.414048e-02 3.604680e-04 2.105320e-02 6.877410e-03 1.023226e-02 1.571931e-02 -1.583666e-02 -1.541236e-02 -3.543586e-03 9.657308e-03 1.219139e-02 -2.190496e-02
<VARIANCE> 39
 2.501644e+01 3.973476e+01 6.193683e+01 6.695465e+01 5.349086e+01 6.155857e+01 4.057772e+01 5.644856e+01 3.894336e+01 3.969896e+01 5.425493e+01 4.070737e+01 2.313288e+01 6.567098e-01 1.125558e+00 1.353869e+00 1.562138e+00 1.810945e+00 1.890114e+00 1.920292e+00 2.363408e+00 2.386362e+00 2.077683e+00 2.074198e+00 1.761668e+00 4.486583e-01 8.943883e-02 1.494090e-01 1.996094e-01 2.525000e-01 3.002242e-01 3.464458e-01 3.518769e-01 4.305396e-01 4.519467e-01 4.047659e-01 3.840929e-01 3.367777e-01 5.089561e-02
<GCONST> 1.080399e+02
<STATE> 4
<MEAN> 39
 -1.204705e+00 -3.086785e+00 1.540864e-01 -4.427132e+00 -2.566837e+00 -2.072757e-01 -3.108189e-01 -8.716545e-01 -1.964444e+00 -4.081158e-02 -1.006691e+00 -5.616073e+00 5.331238e+01 -3.326684e-03 5.125714e-03 -5.491964e-03 9.729405e-03 1.004459e-02 1.178380e-02 2.067314e-02 8.468624e-03 5.945413e-03 8.031510e-03 1.162225e-02 1.275267e-02 -2.259545e-02 -2.081952e-04 -6.162992e-04 2.822854e-04 -8.778130e-04 9.738229e-05 1.142772e-03 8.088610e-05 7.968355e-04 9.031211e-04 5.059527e-04 -6.227835e-04 -2.923078e-04 4.273239e-04
<VARIANCE> 39
 1.483462e+01 2.716187e+01 3.269442e+01 2.538075e+01 4.525595e+01 3.520704e+01 3.427869e+01 3.068271e+01 2.878792e+01 2.792937e+01 2.887741e+01 2.539849e+01 1.615582e+01 3.600487e-01 6.544899e-01 8.514152e-01 1.004399e+00 1.459372e+00 1.499792e+00 1.565230e+00 1.710342e+00 1.705273e+00 1.662930e+00 1.637978e+00 1.515059e+00 2.094961e-01 4.898811e-02 9.525295e-02 1.297265e-01 1.697602e-01 2.406527e-01 2.660472e-01 2.873278e-01 3.235960e-01 3.259628e-01 3.204440e-01 3.098799e-01 2.863370e-01 2.246267e-02
<GCONST> 9.256895e+01
<TRANSP> 5
 0.000000e+00 1.000000e+00 0.000000e+00 0.000000e+00 0.000000e+00
 0.000000e+00 9.384849e-01 6.151509e-02 0.000000e+00 0.000000e+00
 0.000000e+00 0.000000e+00 9.827201e-01 1.727989e-02 0.000000e+00
 0.000000e+00 0.000000e+00 0.000000e+00 9.968117e-01 3.188285e-03
 0.000000e+00 0.000000e+00 0.000000e+00 0.000000e+00 0.000000e+00
<ENDHMM>
