~o
<STREAMINFO> 1 39
<VECSIZE> 39<NULLD><MFCC_D_A_0><DIAGC>
~h "ap"
<BEGINHMM>
<NUMSTATES> 5
<STATE> 2
<MEAN> 39
 -1.521641e+01 -1.120781e+01 -6.768955e+00 8.329728e-02 -2.338561e+00 -5.880467e+00 9.932156e-01 -2.228130e+00 -2.773489e+00 -1.527105e+00 -3.602546e-01 -1.415615e+00 6.974847e+01 -3.958026e-01 -7.169473e-01 -3.613327e-01 -8.710486e-02 -2.555762e-01 -3.365830e-01 -1.717498e-01 -3.952188e-01 -2.330855e-01 -1.925451e-01 -7.349352e-02 -1.216350e-01 1.104806e+00 7.742419e-02 7.608825e-02 5.312785e-02 1.173976e-02 1.210292e-01 9.657445e-02 5.722005e-02 3.532096e-02 2.225251e-02 7.338173e-02 1.205981e-02 -3.874541e-03 -2.397757e-01
<VARIANCE> 39
 3.475650e+01 6.182729e+01 3.876893e+01 2.597268e+01 3.277400e+01 4.786527e+01 2.640386e+01 2.936667e+01 2.643851e+01 2.528965e+01 2.162303e+01 1.692313e+01 1.728344e+02 2.962523e+00 2.959703e+00 1.200415e+00 1.441263e+00 2.818066e+00 3.822978e+00 1.968645e+00 1.853670e+00 1.756484e+00 1.883336e+00 1.924513e+00 1.626319e+00 1.228649e+01 3.854288e-01 3.604924e-01 1.503409e-01 2.382526e-01 3.985827e-01 5.420220e-01 2.890382e-01 2.815938e-01 2.853106e-01 3.027692e-01 2.951733e-01 2.796820e-01 1.490831e+00
<GCONST> 1.151851e+02
<STATE> 3
<MEAN> 39
 -1.492504e+01 -1.269152e+01 -7.033532e+00 2.625064e-01 -1.470990e+00 -5.669447e+00 1.384122e+00 -3.383833e+00 -3.399123e+00 -1.686409e+00 -1.901529e-01 -1.651884e+00 6.917384e+01 8.474737e-02 -1.584829e-01 -4.188327e-03 3.763792e-02 1.594004e-01 6.534865e-02 7.765601e-02 -1.401024e-01 -7.322194e-02 -7.196215e-03 3.362839e-02 -2.426912e-02 -1.991935e-01 6.601828e-02 7.828321e-02 4.927642e-02 1.776560e-02 5.094556e-02 5.155061e-02 3.265993e-02 3.591418e-02 2.237516e-02 2.114413e-02 1.536425e-02 1.538552e-02 -1.759306e-01
<VARIANCE> 39
 2.485550e+01 4.707325e+01 3.459380e+01 2.476539e+01 3.225677e+01 3.490485e+01 2.356807e+01 2.625317e+01 2.445006e+01 2.451125e+01 1.862823e+01 1.597884e+01 1.032555e+02 1.232499e+00 1.311964e+00 7.522095e-01 8.984278e-01 1.565053e+00 2.006519e+00 1.409908e+00 1.447564e+00 1.384402e+00 1.456783e+00 1.370254e+00 1.450024e+00 5.509994e+00 1.865523e-01 1.935431e-01 1.195291e-01 1.739678e-01 3.057888e-01 3.917529e-01 2.641793e-01 2.711385e-01 2.709063e-01 2.977254e-01 2.738480e-01 2.985690e-01 7.913575e-01
<GCONST> 1.035110e+02
<STATE> 4
<MEAN> 39
 -1.086875e+01 -1.152777e+01 -5.686217e+00 1.128814e+00 3.131061e-01 -5.089909e+00 2.107988e+00 -2.486792e+00 -3.826630e+00 -1.304547e+00 7.032600e-01 -1.377157e+00 6.221766e+01 2.818901e-02 1.333311e-02 1.332454e-02 1.427268e-02 1.569978e-02 1.036413e-02 8.449500e-03 1.236313e-02 3.461009e-03 4.345908e-03 5.293847e-03 -6.642357e-04 -6.085062e-02 -9.460121e-05 1.465116e-03 8.905253e-05 -3.445416e-04 -9.934729e-04 9.435705e-06 -2.592129e-04 1.725027e-03 2.195908e-04 -3.253352e-05 -6.354876e-04 -1.078146e-04 -1.526887e-04
<VARIANCE> 39
 2.338527e+01 5.040369e+01 2.972789e+01 2.407121e+01 3.435806e+01 3.902978e+01 2.665202e+01 2.601670e+01 2.499931e+01 2.229368e+01 1.734509e+01 1.492544e+01 1.244994e+02 9.082016e-01 1.122273e+00 7.665816e-01 9.414417e-01 1.637995e+00 1.920598e+00 1.372304e+00 1.411815e+00 1.554070e+00 1.533746e+00 1.369623e+00 1.338180e+00 5.186113e+00 1.447701e-01 1.727272e-01 1.269969e-01 1.754976e-01 3.030304e-01 3.727063e-01 2.609629e-01 2.654602e-01 3.109342e-01 3.170652e-01 2.728229e-01 2.828691e-01 7.796995e-01
<GCONST> 1.029196e+02
<TRANSP> 5
 0.000000e+00 1.000000e+00 0.000000e+00 0.000000e+00 0.000000e+00
 0.000000e+00 8.571413e-01 1.428587e-01 0.000000e+00 0.000000e+00
 0.000000e+00 0.000000e+00 8.571427e-01 1.428573e-01 0.000000e+00
 0.000000e+00 0.000000e+00 0.000000e+00 9.963251e-01 3.674849e-03
 0.000000e+00 0.000000e+00 0.000000e+00 0.000000e+00 0.000000e+00
<ENDHMM>
~h "cl"
<BEGINHMM>
<NUMSTATES> 5
<STATE> 2
<MEAN> 39
 -1.710098e+01 1.436799e+00 2.433578e+00 -2.961045e+00 -4.545283e+00 8.592854e+00 1.705524e+00 -3.534024e+00 4.993166e+00 9.489034e-01 -5.720019e+00 3.739494e+00 5.529141e+01 -5.125751e-01 7.887215e-02 1.879519e-01 -9.758379e-02 -2.790293e-01 3.478255e-01 -1.295898e-01 -4.004373e-01 2.429361e-01 -1.255938e-01 -3.281472e-01 2.278431e-01 4.086446e-01 4.680502e-02 -8.458252e-03 3.035079e-04 -2.449163e-02 2.332492e-02 -3.080980e-02 -1.890370e-02 1.786123e-02 -3.018342e-02 2.424266e-02 -1.763527e-02 -2.268367e-02 -4.012936e-02
<VARIANCE> 39
 5.609623e+01 1.337447e+01 3.194163e+01 1.768531e+01 2.638300e+01 4.296705e+01 2.459103e+01 3.931291e+01 4.117396e+01 3.287682e+01 3.924543e+01 2.638495e+01 3.585838e+01 3.485819e+00 9.205925e-01 9.264309e-01 1.079919e+00 1.612007e+00 2.626719e+00 2.100795e+00 2.672159e+00 2.705193e+00 2.139418e+00 2.383789e+00 2.032855e+00 2.201625e+00 5.061552e-01 1.310896e-01 1.344533e-01 1.689833e-01 2.469372e-01 4.096566e-01 3.392438e-01 4.127391e-01 4.307457e-01 3.752471e-01 4.010096e-01 3.257671e-01 3.244668e-01
<GCONST> 1.089944e+02
<STATE> 3
<MEAN> 39
 -1.853752e+01 1.471069e+00 3.215852e+00 -3.461380e+00 -5.378329e+00 9.864871e+00 1.168451e+00 -4.883390e+00 5.595255e+00 8.085531e-01 -7.012987e+00 4.506980e+00 5.637733e+01 -1.710337e-01 -3.231145e-03 1.038761e-01 -6.628219e-02 -1.019669e-01 1.636948e-01 -6.878380e-02 -1.684915e-01 7.016470e-02 -9.799308e-03 -1.659649e-01 9.623455e-02 1.266772e-01 4.852162e-02 -1.246187e-02 -1.249176e-02 7.887063e-03 2.549702e-02 -2.556901e-02 1.192382e-02 3.467441e-02 -2.373288e-02 1.596498e-02 2.739019e-02 -1.815571e-02 -4.014509e-02
<VARIANCE> 39
 4.690146e+01 1.190815e+01 3.312188e+01 1.873342e+01 2.563173e+01 3.642686e+01 2.493908e+01 3.964989e+01 4.036918e+01 3.718457e+01 3.882904e+01 2.721251e+01 3.016922e+01 2.523221e+00 6.555697e-01 8.896319e-01 1.035149e+00 1.399752e+00 2.278646e+00 1.633093e+00 2.482240e+00 2.484068e+00 2.017445e+00 2.152080e+00 1.941531e+00 1.745535e+00 4.266807e-01 1.113369e-01 1.537218e-01 1.893907e-01 2.521799e-01 4.280450e-01 3.214118e-01 4.310604e-01 4.757681e-01 4.004225e-01 4.015107e-01 3.617779e-01 2.974233e-01
<GCONST> 1.068453e+02
<STATE> 4
<MEAN> 39
 -2.051392e+01 1.633610e+00 3.159931e+00 -3.981941e+00 -5.220928e+00 1.090825e+01 1.309349e+00 -5.079559e+00 4.753373e+00 8.345552e-01 -7.621558e+00 4.812943e+00 5.796540e+01 3.559455e-02 -3.822293e-03 -4.979904e-03 -1.241266e-03 6.633872e-03 -1.279694e-02 -4.169771e-03 3.054318e-03 -5.991785e-03 -2.080457e-03 1.150027e-02 -5.291523e-03 -2.522630e-02 1.092893e-03 1.168984e-04 -4.444505e-04 1.150711e-04 1.367099e-05 -1.875965e-03 -6.957388e-04 5.997269e-04 -5.116171e-04 -2.427421e-05 9.753725e-04 -3.253255e-04 -9.362544e-04
<VARIANCE> 39
 5.133667e+01 1.188988e+01 2.931381e+01 1.617361e+01 2.511342e+01 3.521919e+01 2.794261e+01 3.876303e+01 3.626728e+01 4.017812e+01 4.240773e+01 2.653749e+01 3.103216e+01 1.528562e+00 5.190272e-01 8.858779e-01 9.392506e-01 1.280037e+00 2.034750e+00 1.739375e+00 2.151540e+00 2.226525e+00 1.783425e+00 1.627670e+00 1.727401e+00 1.169196e+00 2.743267e-01 9.549753e-02 1.705343e-01 1.875029e-01 2.436565e-01 3.906163e-01 3.372714e-01 4.081714e-01 4.386769e-01 3.556505e-01 3.232423e-01 3.386191e-01 2.123001e-01
<GCONST> 1.031616e+02
<TRANSP> 5
 0.000000e+00 1.000000e+00 0.000000e+00 0.000000e+00 0.000000e+00
 0.000000e+00 8.560418e-01 1.439581e-01 0.000000e+00 0.000000e+00
 0.000000e+00 0.000000e+00 8.560431e-01 1.439569e-01 0.000000e+00
 0.000000e+00 0.000000e+00 0.000000e+00 9.965320e-01 3.468066e-03
 0.000000e+00 0.000000e+00 0.000000e+00 0.000000e+00 0.000000e+00
<ENDHMM>
~h "cm"
<BEGINHMM>
<NUMSTATES> 5
<STATE> 2
<MEAN> 39
 -1.026972e+01 3.551100e-01 -2.813750e+00 -4.879740e+00 -1.259825e+00 -4.862205e-01 -1.787467e+00 -5.676180e-02 -2.244999e+00 -3.451935e-01 8.550975e-01 -1.480803e+00 5.999390e+01 3.899819e-02 -3.817530e-02 -5.769727e-02 -1.318421e-01 -5.889328e-02 -6.188672e-02 -1.040925e-01 -8.309449e-02 -3.536417e-02 -2.468255e-02 -1.038054e-01 1.359260e-02 6.172602e-01 1.184949e-02 -2.685894e-03 -8.375099e-03 1.263605e-02 6.175666e-03 1.183145e-02 1.910317e-02 4.697149e-03 -1.400507e-02 1.768262e-03 1.165085e-02 -8.186671e-03 8.448504e-03
<VARIANCE> 39
 1.439958e+01 1.311416e+01 1.403014e+01 1.537131e+01 1.587119e+01 1.729103e+01 1.816366e+01 2.011005e+01 1.904920e+01 1.872906e+01 2.071304e+01 1.482161e+01 6.044280e+01 5.152512e-01 6.292700e-01 7.334561e-01 9.834142e-01 1.186563e+00 1.394486e+00 1.427351e+00 1.672257e+00 1.631161e+00 1.565594e+00 1.564382e+00 1.383071e+00 9.350150e-01 6.141044e-02 8.525169e-02 1.175078e-01 1.493781e-01 2.074914e-01 2.327089e-01 2.522756e-01 2.867891e-01 2.805085e-01 2.732618e-01 2.627954e-01 2.343232e-01 1.033358e-01
<GCONST> 8.849811e+01
<STATE> 3
<MEAN> 39
 -9.865755e+00 7.801438e-02 -3.183835e+00 -5.327108e+00 -1.447019e+00 -7.873355e-01 -2.263993e+00 -5.737230e-01 -2.709204e+00 -5.397952e-01 4.799438e-01 -1.568178e+00 6.336142e+01 5.896850e-02 -3.919721e-02 -5.139861e-02 -5.641694e-02 -2.281723e-02 -4.132791e-02 -6.480525e-02 -7.291960e-02 -6.867861e-02 -2.814498e-02 -4.829361e-02 -1.483214e-02 4.595224e-01 1.911113e-03 1.197056e-04 1.862418e-03 1.027978e-02 4.789381e-03 1.902710e-03 4.056958e-03 1.094850e-03 -3.656768e-03 -7.227047e-04 7.401289e-03 -3.442563e-03 -2.511497e-02
<VARIANCE> 39
 1.732627e+01 1.132273e+01 1.295160e+01 1.352934e+01 1.514011e+01 1.696152e+01 1.842991e+01 1.974812e+01 1.863471e+01 1.845318e+01 2.247734e+01 1.529692e+01 6.799287e+01 3.985146e-01 5.044058e-01 6.298910e-01 8.795822e-01 1.101778e+00 1.297758e+00 1.381430e+00 1.517466e+00 1.545828e+00 1.419983e+00 1.442659e+00 1.265765e+00 6.209583e-01 5.519266e-02 8.613396e-02 1.178029e-01 1.626716e-01 2.145116e-01 2.572772e-01 2.711632e-01 3.002576e-01 3.104047e-01 2.861794e-01 2.791567e-01 2.517503e-01 7.099793e-02
<GCONST> 8.685207e+01
<STATE> 4
<MEAN> 39
 -7.637775e+00 6.099764e-03 -2.713973e+00 -4.107951e+00 -5.964991e-01 -8.449594e-01 -2.647891e+00 -1.865335e+00 -3.679849e+00 -1.653885e+00 -4.207343e-01 -2.238535e+00 6.513295e+01 5.277714e-02 1.861258e-02 2.680295e-02 4.303043e-02 2.893837e-02 1.123205e-02 1.153148e-02 -1.864120e-02 -9.625316e-03 -1.191952e-02 -7.845758e-03 -6.162166e-03 -9.002627e-02 8.036420e-05 8.604571e-04 6.087137e-04 4.471208e-04 6.268601e-04 1.864776e-03 1.287567e-03 3.900741e-04 8.232126e-04 -1.040803e-03 -4.066425e-04 8.366543e-04 -7.137377e-03
<VARIANCE> 39
 2.071278e+01 1.245139e+01 1.193844e+01 1.403376e+01 1.474139e+01 1.559918e+01 1.707864e+01 1.894931e+01 1.789946e+01 1.764095e+01 1.924794e+01 1.483690e+01 6.840920e+01 2.514774e-01 3.679225e-01 5.139404e-01 7.499111e-01 9.370975e-01 1.137950e+00 1.258608e+00 1.320420e+00 1.383652e+00 1.356261e+00 1.303707e+00 1.187714e+00 4.113445e-01 3.753141e-02 6.418213e-02 9.651557e-02 1.434835e-01 1.832955e-01 2.268820e-01 2.499795e-01 2.621796e-01 2.783153e-01 2.777504e-01 2.616191e-01 2.392400e-01 4.079353e-02
<GCONST> 8.187669e+01
<TRANSP> 5
 0.000000e+00 1.000000e+00 0.000000e+00 0.000000e+00 0.000000e+00
 0.000000e+00 8.569861e-01 1.430138e-01 0.000000e+00 0.000000e+00
 0.000000e+00 0.000000e+00 8.569871e-01 1.430129e-01 0.000000e+00
 0.000000e+00 0.000000e+00 0.000000e+00 9.905319e-01 9.468077e-03
 0.000000e+00 0.000000e+00 0.000000e+00 0.000000e+00 0.000000e+00
<ENDHMM>
~h "co"
<BEGINHMM>
<NUMSTATES> 5
<STATE> 2
<MEAN> 39
 -7.817182e+00 -5.290633e+00 7.591048e-01 -1.706263e+00 -1.041657e+01 -6.004844e+00 -3.090269e+00 -2.267177e+00 -1.596936e+00 -3.600179e+00 -3.968460e+00 -7.414546e+00 6.543575e+01 -3.911522e-01 -1.745940e-01 1.438427e-01 -1.910200e-01 -1.910350e-01 -4.674327e-01 -1.549850e-01 -5.446169e-01 -5.919410e-01 -4.569412e-01 -1.806639e-01 -1.665482e-01 1.571019e+00 1.755038e-02 2.364458e-02 -2.407692e-02 2.860891e-02 1.542807e-01 7.684449e-02 5.665217e-02 2.770197e-02 -2.301845e-02 3.604155e-02 6.027687e-02 5.428393e-03 -1.064865e-01
<VARIANCE> 39
 1.816230e+01 2.182669e+01 2.553289e+01 3.159515e+01 7.657283e+01 5.468942e+01 5.827632e+01 6.344600e+01 4.964623e+01 4.282961e+01 3.761059e+01 3.230945e+01 1.020678e+02 9.186261e-01 1.450048e+00 1.517482e+00 1.683312e+00 5.050611e+00 3.117500e+00 3.101703e+00 2.984505e+00 3.387850e+00 3.018638e+00 2.332838e+00 2.244170e+00 3.770481e+00 1.116421e-01 2.253849e-01 2.153536e-01 2.106117e-01 5.405039e-01 4.358965e-01 4.737776e-01 4.679471e-01 5.647329e-01 4.563916e-01 3.673416e-01 3.737409e-01 3.153197e-01
<GCONST> 1.175892e+02
<STATE> 3
<MEAN> 39
 -8.578190e+00 -6.096398e+00 4.812087e-01 -1.843412e+00 -9.049306e+00 -7.145938e+00 -3.870689e+00 -4.819750e+00 -3.894650e+00 -4.509261e+00 -3.961287e+00 -8.055241e+00 6.953387e+01 -7.773972e-02 -1.068496e-01 -5.796470e-02 -1.539215e-03 2.306682e-01 -1.299117e-01 -1.064015e-01 -3.408324e-01 -2.931066e-01 -9.586208e-02 1.783558e-02 -8.250581e-02 4.740240e-01 4.646179e-02 8.001748e-03 -2.857000e-02 2.594472e-02 4.902542e-02 4.394137e-02 1.324777e-03 2.856515e-02 4.862341e-02 5.171540e-02 2.400365e-02 1.216198e-02 -1.579202e-01
<VARIANCE> 39
 1.683588e+01 1.507118e+01 2.536080e+01 2.661185e+01 4.991687e+01 4.005753e+01 5.291325e+01 6.014223e+01 4.255939e+01 4.064722e+01 3.629889e+01 3.388808e+01 5.378173e+01 6.507190e-01 9.433051e-01 1.019638e+00 1.196460e+00 2.771121e+00 2.135515e+00 2.372906e+00 2.352483e+00 2.822450e+00 2.520483e+00 1.995087e+00 1.868704e+00 2.425740e+00 8.853579e-02 1.720741e-01 1.850013e-01 2.074555e-01 4.318927e-01 3.810844e-01 4.397808e-01 4.495854e-01 5.234714e-01 4.693283e-01 3.905109e-01 3.535077e-01 1.881726e-01
<GCONST> 1.093983e+02
<STATE> 4
<MEAN> 39
 -4.990124e+00 -5.032118e+00 1.600015e+00 -8.998446e-03 -4.591175e+00 -5.400143e+00 -5.941288e+00 -6.210989e+00 -4.349052e+00 -4.393858e+00 -4.106799e+00 -8.770971e+00 6.252324e+01 6.369445e-02 5.699819e-02 2.700601e-02 3.269701e-02 1.010088e-01 5.389431e-02 4.279953e-03 1.726729e-02 -1.109552e-02 1.885572e-03 7.155732e-03 2.801976e-04 -1.811479e-01 6.829536e-04 2.782829e-03 -4.767857e-05 1.243372e-03 -3.006243e-04 7.831068e-04 2.795947e-03 2.995622e-03 1.175245e-03 1.380720e-03 -4.092429e-05 1.513210e-04 -5.384558e-03
<VARIANCE> 39
 1.634996e+01 1.997002e+01 2.792502e+01 2.783844e+01 4.671688e+01 3.916167e+01 5.241486e+01 5.186769e+01 3.958886e+01 3.772007e+01 3.548713e+01 3.468019e+01 7.835883e+01 3.822021e-01 6.886609e-01 8.125955e-01 1.054765e+00 2.086421e+00 1.504793e+00 1.996988e+00 1.964094e+00 2.421010e+00 2.076754e+00 1.914565e+00 1.637469e+00 1.126951e+00 5.326761e-02 1.285108e-01 1.453712e-01 1.976203e-01 3.760982e-01 2.884788e-01 3.625735e-01 3.675568e-01 4.836909e-01 4.172501e-01 3.783205e-01 3.173895e-01 1.126870e-01
<GCONST> 1.035519e+02
<TRANSP> 5
 0.000000e+00 1.000000e+00 0.000000e+00 0.000000e+00 0.000000e+00
 0.000000e+00 8.566454e-01 1.433546e-01 0.000000e+00 0.000000e+00
 0.000000e+00 0.000000e+00 8.566462e-01 1.433537e-01 0.000000e+00
 0.000000e+00 0.000000e+00 0.000000e+00 9.908845e-01 9.115506e-03
 0.000000e+00 0.000000e+00 0.000000e+00 0.000000e+00 0.000000e+00
<ENDHMM>
~h "ds"
<BEGINHMM>
<NUMSTATES> 5
<STATE> 2
<MEAN> 39
 -1.430021e+01 1.305078e+00 4.308271e-02 -6.722315e-02 -1.033388e+00 -1.867699e+00 3.237152e+00 -2.692361e+00 1.958519e+00 2.302462e+00 4.437126e+00 3.895624e-01 6.817236e+01 -2.198384e-01 3.309508e-03 5.698508e-02 1.128281e-01 1.711334e-01 5.884419e-02 1.007383e-01 6.350336e-02 1.036419e-01 -1.144107e-02 3.317788e-02 -1.710592e-02 9.167985e-01 1.068872e-01 3.806730e-02 3.956215e-02 5.342124e-02 6.368612e-02 7.080200e-02 1.374625e-02 1.320802e-02 -2.389244e-02 -3.144147e-02 -2.677630e-02 1.952065e-02 -1.860394e-01
<VARIANCE> 39
 2.623507e+01 1.615315e+01 1.613996e+01 1.934480e+01 2.946862e+01 2.281936e+01 2.430131e+01 2.804487e+01 2.509837e+01 2.474774e+01 1.945481e+01 1.656803e+01 1.043788e+02 2.463412e+00 1.316782e+00 1.361156e+00 1.607453e+00 2.357386e+00 2.351054e+00 2.420223e+00 2.351854e+00 2.225454e+00 2.439080e+00 1.829834e+00 1.654085e+00 7.377182e+00 3.547520e-01 2.052408e-01 2.060336e-01 2.611319e-01 3.624539e-01 4.065232e-01 3.954558e-01 3.942073e-01 3.716247e-01 4.037599e-01 3.062097e-01 2.886597e-01 9.621419e-01
<GCONST> 1.098919e+02
<STATE> 3
<MEAN> 39
 -1.392353e+01 1.395283e+00 6.168438e-01 9.322283e-01 2.511482e-01 -1.002936e+00 3.662120e+00 -2.229989e+00 1.848761e+00 2.105398e+00 4.156937e+00 2.970429e-01 6.860518e+01 9.544380e-02 1.200908e-02 9.088073e-02 1.507659e-01 1.960265e-01 1.344491e-01 5.675453e-02 6.478430e-02 -3.325477e-02 -3.757909e-02 -5.537182e-02 -2.085835e-02 -6.414494e-02 3.861360e-02 -2.175392e-03 1.155477e-03 -7.165300e-04 -3.909188e-03 3.711055e-03 -8.121233e-03 -1.567334e-03 -1.849983e-02 -4.904763e-04 -1.131111e-02 -2.922510e-03 -1.350415e-01
<VARIANCE> 39
 2.122525e+01 1.561026e+01 1.534215e+01 1.987188e+01 2.698735e+01 2.022554e+01 2.278899e+01 2.382997e+01 2.173380e+01 1.987715e+01 1.769623e+01 1.543842e+01 1.091969e+02 1.548357e+00 9.315108e-01 1.106253e+00 1.262752e+00 1.771715e+00 1.807152e+00 1.760845e+00 1.896004e+00 1.759425e+00 1.858208e+00 1.585144e+00 1.458403e+00 8.128865e+00 2.879545e-01 1.712634e-01 1.978963e-01 2.373400e-01 3.298873e-01 3.719004e-01 3.449356e-01 3.787649e-01 3.484451e-01 3.777765e-01 3.161325e-01 2.970432e-01 1.358358e+00
<GCONST> 1.050713e+02
<STATE> 4
<MEAN> 39
 -1.021361e+01 1.374696e+00 1.938035e+00 6.820912e-01 2.710997e+00 5.057184e-01 3.031183e+00 -1.218010e+00 3.711174e-01 -1.863908e-01 2.304502e+00 -1.406411e+00 5.636791e+01 3.938020e-02 5.923986e-03 2.027054e-02 1.370907e-02 2.924367e-02 2.249489e-02 1.227007e-02 7.646770e-03 -3.750686e-03 -1.213938e-02 -1.303489e-02 -1.270707e-02 -7.801249e-02 -3.007699e-05 -1.034253e-04 -4.261070e-04 -9.034284e-04 -9.742503e-04 -4.290018e-04 -8.525775e-04 -2.018115e-04 3.810846e-04 2.656860e-04 1.228576e-03 4.381088e-04 -9.041608e-04
<VARIANCE> 39
 1.706976e+01 1.173547e+01 1.615779e+01 1.735850e+01 2.101978e+01 2.212279e+01 2.435468e+01 1.988513e+01 2.420509e+01 2.296988e+01 1.823790e+01 1.734881e+01 6.872895e+01 6.545160e-01 5.060865e-01 7.105520e-01 9.445658e-01 1.352276e+00 1.461255e+00 1.613112e+00 1.574065e+00 1.747298e+00 1.757614e+00 1.601938e+00 1.375310e+00 1.484619e+00 1.114486e-01 8.948874e-02 1.311350e-01 1.816869e-01 2.649544e-01 2.858176e-01 3.158392e-01 3.130198e-01 3.460707e-01 3.540860e-01 3.252363e-01 2.769807e-01 2.262864e-01
<GCONST> 9.443094e+01
<TRANSP> 5
 0.000000e+00 1.000000e+00 0.000000e+00 0.000000e+00 0.000000e+00
 0.000000e+00 8.514693e-01 1.485306e-01 0.000000e+00 0.000000e+00
 0.000000e+00 0.000000e+00 8.514702e-01 1.485298e-01 0.000000e+00
 0.000000e+00 0.000000e+00 0.000000e+00 9.939641e-01 6.035935e-03
 0.000000e+00 0.000000e+00 0.000000e+00 0.000000e+00 0.000000e+00
<ENDHMM>
~h "kj"
<BEGINHMM>
<NUMSTATES> 5
<STATE> 2
<MEAN> 39
 -1.363259e+01 7.942885e-02 -2.321455e+00 -1.589363e-01 -8.870096e-01 -8.017877e-01 9.888918e-01 -4.873242e-01 -2.413343e+00 1.929628e+00 3.249159e-01 -1.812992e+00 5.461544e+01 -2.974356e-01 -1.664801e-01 -1.806742e-01 -5.703737e-03 -1.361069e-01 -1.244553e-01 -1.399181e-01 -2.451909e-01 3.182938e-04 -3.050243e-02 6.037682e-02 3.832107e-03 4.601813e-01 4.711289e-03 1.185052e-02 2.815794e-02 -1.185178e-02 -5.996264e-03 1.865936e-02 3.645115e-02 3.943506e-02 1.567763e-02 -8.210591e-03 -2.150837e-02 1.113287e-03 -2.831563e-02
<VARIANCE> 39
 1.824135e+01 2.613730e+01 1.687735e+01 1.570176e+01 1.888938e+01 2.754146e+01 2.357596e+01 2.499264e+01 1.847717e+01 2.107166e+01 1.470135e+01 1.767467e+01 3.393788e+01 8.474081e-01 1.040566e+00 9.755136e-01 9.871091e-01 1.593308e+00 1.647463e+00 2.059021e+00 1.933680e+00 1.676742e+00 1.956255e+00 1.475610e+00 1.346582e+00 1.001180e+00 1.141815e-01 1.472976e-01 1.455279e-01 1.639695e-01 2.586041e-01 2.747798e-01 3.284470e-01 3.292391e-01 2.921971e-01 3.421883e-01 2.690805e-01 2.238489e-01 1.166078e-01
<GCONST> 9.521449e+01
<STATE> 3
<MEAN> 39
 -1.509143e+01 -1.785257e-01 -2.657879e+00 -3.015161e-01 -1.165155e+00 -7.806360e-01 7.478480e-01 -9.147194e-01 -2.203177e+00 1.738253e+00 5.210388e-01 -1.729255e+00 5.622798e+01 -1.963941e-01 -2.272241e-02 -3.430971e-02 -2.110437e-02 -2.840092e-02 1.613387e-02 -2.412451e-02 -4.032226e-02 3.277980e-02 -2.685304e-02 2.490875e-02 1.269215e-02 2.037018e-01 1.501726e-02 2.097266e-02 1.960972e-02 -1.175049e-03 1.715864e-02 1.955822e-02 1.390388e-02 2.726545e-02 3.259568e-03 1.605595e-03 -3.143925e-03 1.359115e-03 -3.654168e-02
<VARIANCE> 39
 2.062337e+01 2.799529e+01 1.857394e+01 1.634348e+01 1.879505e+01 2.628990e+01 2.551241e+01 2.561138e+01 2.013329e+01 2.129030e+01 1.548833e+01 1.735848e+01 3.215873e+01 6.710132e-01 8.701913e-01 7.981950e-01 9.957628e-01 1.371811e+00 1.481498e+00 1.748930e+00 1.868345e+00 1.592588e+00 1.757204e+00 1.404533e+00 1.306979e+00 7.623446e-01 1.115686e-01 1.503834e-01 1.476242e-01 1.985545e-01 2.691709e-01 2.929350e-01 3.576397e-01 3.703987e-01 3.150162e-01 3.593690e-01 2.886800e-01 2.553534e-01 1.070642e-01
<GCONST> 9.485297e+01
<STATE> 4
<MEAN> 39
 -1.985510e+01 1.301612e+00 3.244928e-01 -8.416453e-02 -1.778249e+00 1.069759e+00 3.411154e+00 5.696962e-01 -1.923219e+00 1.813233e+00 1.075799e+00 -1.823738e+00 5.709687e+01 1.977720e-02 -4.106217e-03 3.924198e-03 -2.239967e-03 6.488935e-03 1.683395e-03 4.910544e-03 2.421384e-03 3.826874e-03 -1.736507e-03 2.052667e-03 2.355068e-03 -1.804491e-02 1.081486e-03 2.029975e-04 9.481099e-05 -2.820361e-04 1.636715e-04 3.490081e-04 1.369782e-03 9.574070e-04 8.080504e-04 5.012229e-04 2.123344e-04 7.045903e-05 -1.442190e-03
<VARIANCE> 39
 3.534890e+01 3.831162e+01 2.073732e+01 2.541785e+01 1.760517e+01 3.596706e+01 3.662489e+01 2.529134e+01 2.146293e+01 2.627946e+01 1.750666e+01 1.732414e+01 3.797955e+01 5.790833e-01 7.656255e-01 7.106051e-01 9.374130e-01 1.180385e+00 1.454103e+00 1.643691e+00 1.608318e+00 1.626549e+00 1.671517e+00 1.476169e+00 1.319605e+00 6.438887e-01 9.505197e-02 1.300560e-01 1.322544e-01 1.823030e-01 2.296555e-01 2.848835e-01 3.214216e-01 3.220716e-01 3.305486e-01 3.349181e-01 2.976910e-01 2.680398e-01 9.199340e-02
<GCONST> 9.541563e+01
<TRANSP> 5
 0.000000e+00 1.000000e+00 0.000000e+00 0.000000e+00 0.000000e+00
 0.000000e+00 8.571286e-01 1.428715e-01 0.000000e+00 0.000000e+00
 0.000000e+00 0.000000e+00 8.571299e-01 1.428701e-01 0.000000e+00
 0.000000e+00 0.000000e+00 0.000000e+00 9.966769e-01 3.323061e-03
 0.000000e+00 0.000000e+00 0.000000e+00 0.000000e+00 0.000000e+00
<ENDHMM>
~h "kn"
<BEGINHMM>
<NUMSTATES> 5
<STATE> 2
<MEAN> 39
 2.160489e+00 8.434963e-01 -3.127847e+00 -7.976922e-01 3.118598e+00 -6.206893e-01 2.245251e+00 -4.643700e+00 1.378404e-01 -1.261713e+00 1.117923e+00 -2.692938e+00 6.028873e+01 2.145806e-01 1.387838e-01 9.496068e-02 2.239649e-01 2.221585e-01 -1.283818e-01 3.016335e-01 1.430118e-02 5.287662e-01 2.202610e-01 5.323462e-02 2.760951e-01 9.142634e-01 -1.705336e-02 2.023751e-02 2.662591e-02 2.447896e-02 5.934517e-02 9.318823e-02 -4.340310e-02 -9.149840e-03 -1.446181e-01 -4.195449e-02 -1.412610e-02 -5.234210e-03 -2.445348e-01
<VARIANCE> 39
 1.842108e+01 2.744689e+01 1.991723e+01 1.435893e+01 2.161070e+01 2.300449e+01 2.283620e+01 3.859274e+01 2.469958e+01 2.422290e+01 1.902859e+01 1.961259e+01 7.392386e+01 1.525179e+00 1.150376e+00 1.316682e+00 9.390394e-01 1.355730e+00 1.907988e+00 2.352566e+00 4.238399e+00 3.009078e+00 1.974949e+00 1.656057e+00 1.901963e+00 6.024478e+00 2.148087e-01 1.573526e-01 1.957705e-01 1.527920e-01 2.431676e-01 2.852922e-01 3.811302e-01 6.165554e-01 4.781136e-01 3.384337e-01 2.683617e-01 2.961011e-01 6.361998e-01
<GCONST> 1.060990e+02
<STATE> 3
<MEAN> 39
 3.487685e+00 1.063378e+00 -2.500100e+00 3.043706e-01 4.178994e+00 -5.323728e-01 2.587259e+00 -4.563651e+00 5.231529e-01 -8.104532e-01 1.091601e+00 -1.855966e+00 6.061929e+01 1.868165e-01 1.817660e-02 8.648412e-02 1.493913e-01 1.408119e-01 2.476856e-02 2.009470e-02 9.254921e-03 5.457995e-03 4.796509e-02 -1.022764e-02 1.008312e-01 -4.013249e-02 -2.742339e-03 -2.054594e-02 -4.084968e-03 -1.449587e-02 -1.881095e-02 1.416149e-02 -3.834651e-02 8.396801e-04 -6.514995e-02 -2.226380e-02 -8.365755e-03 -2.685334e-02 -1.215493e-01
<VARIANCE> 39
 1.491457e+01 2.500967e+01 1.690168e+01 1.473106e+01 2.215713e+01 2.132485e+01 2.095278e+01 2.557378e+01 2.031044e+01 2.335722e+01 1.869808e+01 1.768442e+01 4.447539e+01 6.748217e-01 7.719088e-01 8.808413e-01 8.512153e-01 1.305281e+00 1.408962e+00 1.553359e+00 2.102636e+00 1.866330e+00 1.570776e+00 1.279608e+00 1.515149e+00 3.053628e+00 1.271543e-01 1.450303e-01 1.552013e-01 1.703121e-01 2.698831e-01 2.874887e-01 3.198957e-01 4.419926e-01 3.960485e-01 3.342012e-01 2.523059e-01 3.021770e-01 4.614220e-01
<GCONST> 9.751439e+01
<STATE> 4
<MEAN> 39
 5.143017e+00 3.802630e-01 -1.923736e+00 8.409167e-01 4.517041e+00 -8.444454e-02 1.562839e+00 -3.122840e+00 -1.127634e+00 -1.012053e+00 7.404543e-01 -2.193540e+00 5.754856e+01 -2.188996e-02 1.564362e-02 4.740015e-02 5.257240e-03 1.233381e-02 5.075943e-02 -1.917191e-03 5.164658e-02 -4.179600e-02 -8.536585e-03 -1.289528e-02 -1.460531e-02 -1.320722e-01 -4.610442e-03 -1.429888e-04 3.492316e-04 -3.379456e-03 -2.967613e-03 3.419425e-04 4.121980e-03 2.919580e-03 8.098640e-04 2.288004e-05 2.905085e-04 -5.519819e-04 -8.232975e-04
<VARIANCE> 39
 1.448547e+01 2.335233e+01 1.734266e+01 1.458545e+01 1.972993e+01 2.313716e+01 2.054726e+01 2.413649e+01 2.307562e+01 2.052014e+01 1.694270e+01 1.671663e+01 4.750251e+01 3.735733e-01 7.200351e-01 7.326985e-01 8.795295e-01 1.255631e+00 1.303893e+00 1.435707e+00 1.838139e+00 1.757696e+00 1.486277e+00 1.364513e+00 1.367282e+00 1.626935e+00 6.056467e-02 1.346162e-01 1.343488e-01 1.835168e-01 2.613302e-01 2.595746e-01 2.936853e-01 3.780815e-01 3.642302e-01 3.089050e-01 2.732473e-01 2.754234e-01 2.653877e-01
<GCONST> 9.331424e+01
<TRANSP> 5
 0.000000e+00 1.000000e+00 0.000000e+00 0.000000e+00 0.000000e+00
 0.000000e+00 8.568303e-01 1.431697e-01 0.000000e+00 0.000000e+00
 0.000000e+00 0.000000e+00 8.568309e-01 1.431691e-01 0.000000e+00
 0.000000e+00 0.000000e+00 0.000000e+00 9.880327e-01 1.196727e-02
 0.000000e+00 0.000000e+00 0.000000e+00 0.000000e+00 0.000000e+00
<ENDHMM>
~h "kt"
<BEGINHMM>
<NUMSTATES> 5
<STATE> 2
<MEAN> 39
 -1.117993e+01 1.144645e+00 -3.138389e+00 -4.931673e-01 3.939878e-01 -4.501825e-01 2.867049e+00 1.429292e+00 2.526823e-01 2.555599e-01 4.739462e-01 -1.223998e+00 5.299911e+01 -1.831379e-01 5.769766e-02 -1.329276e-01 3.309815e-02 -7.143966e-02 -1.474394e-01 7.687005e-02 -3.708113e-02 2.173036e-02 -2.253197e-02 4.889658e-02 -2.502662e-02 3.331339e-01 3.111332e-02 -5.913806e-03 2.685280e-02 1.708781e-02 2.454825e-02 2.408385e-02 -9.539314e-03 2.492924e-02 2.128327e-02 8.904728e-03 9.618145e-03 -8.372230e-03 -6.711637e-02
<VARIANCE> 39
 1.285790e+01 1.251266e+01 1.398983e+01 1.429597e+01 1.767446e+01 2.426491e+01 1.823346e+01 2.233344e+01 1.611672e+01 1.833604e+01 1.724994e+01 1.439353e+01 3.262858e+01 1.212516e+00 6.897517e-01 9.070448e-01 1.045405e+00 1.511124e+00 2.303266e+00 1.728036e+00 1.791566e+00 1.662277e+00 2.116867e+00 1.642354e+00 1.405067e+00 2.029279e+00 1.702827e-01 1.087027e-01 1.575114e-01 1.799379e-01 2.671425e-01 3.906330e-01 3.174279e-01 3.134035e-01 3.134273e-01 3.735704e-01 2.892269e-01 2.578450e-01 2.794617e-01
<GCONST> 9.562639e+01
<STATE> 3
<MEAN> 39
 -1.137070e+01 1.400851e+00 -3.462572e+00 -1.749917e-01 3.512075e-01 -7.092552e-01 3.033695e+00 1.343962e+00 4.930326e-01 2.101964e-01 8.448969e-01 -1.281122e+00 5.325207e+01 -1.116724e-02 3.358092e-02 -3.752864e-02 4.607749e-02 1.577669e-04 -2.582413e-02 1.733053e-02 -1.160514e-02 3.443108e-02 -5.325635e-03 5.260778e-02 -5.561386e-03 5.627513e-03 2.319279e-02 -2.928421e-03 1.190315e-02 2.376584e-04 8.459657e-03 1.612761e-02 -8.034976e-03 1.406781e-03 -4.803575e-04 1.466966e-03 -6.558975e-04 3.869539e-03 -4.329221e-02
<VARIANCE> 39
 9.386476e+00 1.065293e+01 1.239103e+01 1.254221e+01 1.690804e+01 1.973407e+01 1.821802e+01 1.936167e+01 1.692345e+01 1.706788e+01 1.660908e+01 1.407024e+01 2.607114e+01 8.420449e-01 5.805277e-01 8.605721e-01 9.382740e-01 1.342846e+00 1.685992e+00 1.635428e+00 1.548978e+00 1.689589e+00 1.807397e+00 1.544368e+00 1.404501e+00 1.307952e+00 1.547113e-01 1.108616e-01 1.730407e-01 1.881049e-01 2.716814e-01 3.539232e-01 3.436277e-01 3.068410e-01 3.461988e-01 3.858632e-01 3.147523e-01 2.892828e-01 2.319833e-01
<GCONST> 9.240865e+01
<STATE> 4
<MEAN> 39
 -1.064821e+01 2.106352e+00 -4.065606e+00 -2.270845e-01 9.136680e-01 -1.468059e-02 3.593806e+00 1.414329e+00 7.379040e-01 1.764958e-01 7.602302e-01 -1.734188e+00 5.212678e+01 1.140367e-02 -2.402131e-03 3.791376e-03 -4.591630e-03 5.310411e-03 6.510181e-03 3.315463e-03 3.813273e-04 -1.784683e-03 -4.673782e-04 8.980951e-04 -1.907383e-03 -1.494485e-02 6.224181e-04 -4.302067e-04 2.727134e-04 -1.120984e-04 5.958474e-04 4.432200e-04 -1.211120e-04 3.958306e-04 -3.201277e-04 -5.521791e-06 -2.115833e-04 4.820803e-04 -4.844745e-04
<VARIANCE> 39
 1.205075e+01 9.434302e+00 1.275804e+01 1.182691e+01 1.461456e+01 1.811839e+01 1.753131e+01 1.719956e+01 1.744022e+01 1.738433e+01 1.580857e+01 1.336197e+01 2.518093e+01 7.663938e-01 4.748879e-01 6.727911e-01 8.658494e-01 1.163014e+00 1.443128e+00 1.571207e+00 1.574351e+00 1.636505e+00 1.722361e+00 1.504387e+00 1.281953e+00 1.008660e+00 1.454629e-01 9.205337e-02 1.337718e-01 1.727511e-01 2.357476e-01 2.981282e-01 3.253563e-01 3.226979e-01 3.332399e-01 3.594639e-01 3.031994e-01 2.590640e-01 1.858530e-01
<GCONST> 8.924380e+01
<TRANSP> 5
 0.000000e+00 1.000000e+00 0.000000e+00 0.000000e+00 0.000000e+00
 0.000000e+00 8.571410e-01 1.428590e-01 0.000000e+00 0.000000e+00
 0.000000e+00 0.000000e+00 8.571425e-01 1.428575e-01 0.000000e+00
 0.000000e+00 0.000000e+00 0.000000e+00 9.968338e-01 3.166183e-03
 0.000000e+00 0.000000e+00 0.000000e+00 0.000000e+00 0.000000e+00
<ENDHMM>
~h "pr"
<BEGINHMM>
<NUMSTATES> 5
<STATE> 2
<MEAN> 39
 -1.824088e+01 -3.001667e+00 6.419646e+00 -7.479760e+00 4.505926e+00 5.530778e+00 5.113163e-01 -1.532424e+00 2.808758e+00 -3.361101e+00 -9.676287e-01 3.445699e+00 5.755058e+01 -4.141556e-01 -1.862166e-01 5.566123e-02 -1.554055e-01 5.070897e-02 2.856673e-01 -6.699713e-02 -5.407930e-01 1.735091e-01 -3.517679e-01 -3.718539e-02 5.445656e-01 4.095741e-01 1.126432e-01 4.424234e-02 -3.489351e-02 3.613139e-02 2.437342e-02 -2.546852e-02 -3.205259e-02 5.267892e-02 -2.312135e-02 3.549519e-02 1.531637e-02 -9.826209e-02 -9.694288e-02
<VARIANCE> 39
 4.558315e+01 7.031007e+01 7.783957e+01 4.961736e+01 5.915408e+01 7.761745e+01 4.456972e+01 7.589994e+01 6.547259e+01 4.895234e+01 5.070148e+01 7.156367e+01 2.835213e+01 2.754823e+00 9.814988e-01 1.645619e+00 1.724975e+00 2.215009e+00 2.543445e+00 2.465920e+00 2.922498e+00 2.558548e+00 2.202121e+00 3.198393e+00 3.007741e+00 1.563149e+00 3.143485e-01 1.394949e-01 2.269627e-01 2.453230e-01 3.288356e-01 4.140381e-01 3.656141e-01 4.058058e-01 4.009039e-01 3.453606e-01 4.628929e-01 4.254770e-01 1.514495e-01
<GCONST> 1.189553e+02
<STATE> 3
<MEAN> 39
 -1.878435e+01 -3.350943e+00 6.569242e+00 -7.758086e+00 4.979236e+00 6.026845e+00 -4.006860e-02 -2.671757e+00 3.493840e+00 -4.584045e+00 -1.143484e+00 4.426338e+00 5.813365e+01 -4.304387e-02 -3.592417e-02 1.877490e-02 -2.757451e-02 6.798735e-02 4.816710e-02 -7.773894e-02 -1.217360e-01 9.049605e-02 -1.548493e-01 -2.522636e-02 9.595035e-02 4.982751e-02 4.526492e-02 1.832334e-02 -2.014771e-03 1.607291e-02 -4.261326e-05 -3.378425e-02 1.710879e-03 5.899651e-02 -1.054339e-02 2.684338e-02 6.740827e-04 -5.846821e-02 -4.523132e-02
<VARIANCE> 39
 3.250815e+01 7.680781e+01 8.536909e+01 5.294798e+01 6.621705e+01 9.003050e+01 4.968830e+01 8.262824e+01 8.431277e+01 5.548639e+01 6.015301e+01 7.037801e+01 2.203676e+01 1.164263e+00 7.194269e-01 1.047931e+00 1.394020e+00 1.717331e+00 2.181175e+00 2.049410e+00 2.441945e+00 2.228489e+00 1.908679e+00 2.584957e+00 2.130951e+00 6.578608e-01 2.256721e-01 1.313486e-01 1.876856e-01 2.577753e-01 3.283817e-01 4.250033e-01 3.842691e-01 4.380526e-01 4.301680e-01 3.636174e-01 4.993342e-01 4.025143e-01 1.152762e-01
<GCONST> 1.147732e+02
<STATE> 4
<MEAN> 39
 -1.498461e+01 -4.359370e+00 5.846538e+00 -7.920533e+00 3.266367e+00 2.706854e+00 2.187044e+00 2.083582e+00 2.809719e+00 -2.491652e+00 -2.099177e+00 3.068228e+00 5.483231e+01 3.126500e-02 8.146081e-03 -1.109822e-02 8.774308e-03 -6.476000e-03 -9.933807e-03 3.195177e-03 1.345295e-02 -8.886825e-03 1.251382e-02 1.235461e-03 -1.233878e-02 -2.848023e-02 3.759414e-04 1.260317e-04 -3.252707e-06 4.867764e-04 -4.936500e-04 -1.908993e-04 8.340246e-05 -7.740609e-05 -3.928772e-04 6.450675e-04 1.597341e-04 -1.123967e-03 -2.935453e-04
<VARIANCE> 39
 3.747919e+01 5.825828e+01 7.832357e+01 6.178026e+01 6.580100e+01 1.012142e+02 7.024078e+01 6.911997e+01 6.715182e+01 4.604958e+01 6.985448e+01 6.670894e+01 3.980067e+01 4.236422e-01 5.050689e-01 6.872688e-01 1.019037e+00 1.222238e+00 1.580001e+00 1.627118e+00 1.716935e+00 1.797757e+00 1.782324e+00 1.778017e+00 1.462611e+00 2.520246e-01 7.854201e-02 8.821105e-02 1.267541e-01 1.867657e-01 2.371489e-01 3.066367e-01 3.172593e-01 3.261377e-01 3.484921e-01 3.431726e-01 3.469411e-01 2.818034e-01 4.256335e-02
<GCONST> 1.046279e+02
<TRANSP> 5
 0.000000e+00 1.000000e+00 0.000000e+00 0.000000e+00 0.000000e+00
 0.000000e+00 8.569923e-01 1.430077e-01 0.000000e+00 0.000000e+00
 0.000000e+00 0.000000e+00 8.569936e-01 1.430064e-01 0.000000e+00
 0.000000e+00 0.000000e+00 0.000000e+00 9.971913e-01 2.808742e-03
 0.000000e+00 0.000000e+00 0.000000e+00 0.000000e+00 0.000000e+00
<ENDHMM>
~h "pw"
<BEGINHMM>
<NUMSTATES> 5
<STATE> 2
<MEAN> 39
 -1.280216e+01 -9.491429e-01 -1.295216e+00 -9.985610e-01 9.187983e-01 -7.703097e-01 2.349222e+00 -1.935416e-01 -5.495279e-01 6.031236e-01 9.549063e-02 -7.968543e-01 5.470065e+01 -3.298510e-01 -2.345234e-01 9.190612e-02 4.586646e-02 -9.474826e-02 -2.804547e-01 -2.088524e-01 -2.129904e-01 -3.722951e-02 -1.155768e-01 -1.658856e-02 4.933743e-02 6.471092e-01 3.047824e-02 -4.232258e-03 -3.753408e-02 -3.456703e-03 3.389265e-02 1.982045e-02 -7.962222e-03 -1.300752e-03 -2.333812e-02 9.752148e-03 1.341337e-02 -3.002019e-02 -2.124770e-02
<VARIANCE> 39
 1.708815e+01 2.413629e+01 1.406117e+01 1.276603e+01 1.759320e+01 2.295361e+01 2.254527e+01 2.464266e+01 1.622793e+01 1.560260e+01 1.495881e+01 1.396196e+01 6.314895e+01 9.349933e-01 9.486709e-01 8.281030e-01 1.036235e+00 1.571178e+00 1.851258e+00 1.793536e+00 1.788881e+00 1.581848e+00 1.733450e+00 1.479173e+00 1.533373e+00 2.752275e+00 1.378343e-01 1.322339e-01 1.415102e-01 1.708872e-01 2.484464e-01 2.949812e-01 3.172632e-01 2.851448e-01 3.001548e-01 2.938799e-01 2.650688e-01 2.820458e-01 3.204244e-01
<GCONST> 9.612965e+01
<STATE> 3
<MEAN> 39
 -1.354053e+01 -2.172110e+00 -1.296199e+00 -6.469719e-01 1.122581e+00 -1.456676e+00 1.728610e+00 -1.071464e+00 -1.031563e+00 2.317972e-01 1.078364e-01 -9.480945e-01 5.677116e+01 -8.112096e-02 -1.655498e-01 -9.201007e-03 5.007173e-02 4.124746e-02 -7.712457e-02 -7.411853e-02 -1.147176e-01 -6.956573e-02 -4.514064e-02 3.247512e-03 -2.820317e-02 2.541451e-01 3.520378e-02 1.107649e-02 -1.173960e-02 9.370801e-04 1.727655e-02 2.910343e-02 2.157293e-02 1.538266e-02 -2.695864e-03 9.709254e-03 1.746623e-03 -8.592933e-03 -5.829692e-02
<VARIANCE> 39
 1.467346e+01 2.688169e+01 1.314605e+01 1.179988e+01 1.746993e+01 2.133539e+01 2.314216e+01 2.669051e+01 1.846503e+01 1.586202e+01 1.460257e+01 1.349264e+01 6.451240e+01 7.188943e-01 8.980139e-01 7.655442e-01 9.133719e-01 1.300782e+00 1.603568e+00 1.723228e+00 1.697036e+00 1.657064e+00 1.506571e+00 1.477283e+00 1.368777e+00 2.076227e+00 1.161095e-01 1.484923e-01 1.520769e-01 1.793505e-01 2.560643e-01 3.146636e-01 3.416637e-01 3.182751e-01 3.415575e-01 2.930609e-01 3.068639e-01 2.892541e-01 2.791321e-01
<GCONST> 9.513911e+01
<STATE> 4
<MEAN> 39
 -1.218575e+01 -3.245958e+00 -1.576342e+00 -9.122376e-01 8.642050e-01 -1.546121e+00 2.418799e+00 -8.765984e-01 -1.177375e+00 5.404479e-01 2.300342e-01 -8.121564e-01 5.529800e+01 9.316906e-03 -3.788526e-04 -3.479939e-04 -1.676488e-03 8.971476e-04 3.832625e-03 2.574741e-03 1.669127e-03 9.207395e-04 1.581564e-03 1.412063e-03 -9.888628e-04 -1.137417e-02 4.536808e-04 3.435071e-04 1.275987e-04 -2.677728e-04 -2.568684e-04 4.461936e-04 1.517203e-04 -1.529342e-04 -9.584260e-05 1.918386e-04 7.464224e-05 1.141373e-04 -6.476596e-04
<VARIANCE> 39
 1.818260e+01 2.377988e+01 1.288927e+01 1.228824e+01 1.527378e+01 2.222139e+01 2.013015e+01 2.343600e+01 1.828869e+01 1.647210e+01 1.451876e+01 1.325966e+01 4.389413e+01 5.480783e-01 8.061520e-01 6.792935e-01 8.645926e-01 1.179570e+00 1.501507e+00 1.486512e+00 1.594427e+00 1.538635e+00 1.486019e+00 1.419519e+00 1.276529e+00 1.198245e+00 9.025411e-02 1.328867e-01 1.282258e-01 1.694845e-01 2.336244e-01 3.005096e-01 2.965386e-01 3.176052e-01 3.127425e-01 3.034547e-01 2.904988e-01 2.627113e-01 1.698236e-01
<GCONST> 9.126107e+01
<TRANSP> 5
 0.000000e+00 1.000000e+00 0.000000e+00 0.000000e+00 0.000000e+00
 0.000000e+00 8.571408e-01 1.428592e-01 0.000000e+00 0.000000e+00
 0.000000e+00 0.000000e+00 8.571423e-01 1.428577e-01 0.000000e+00
 0.000000e+00 0.000000e+00 0.000000e+00 9.983167e-01 1.683307e-03
 0.000000e+00 0.000000e+00 0.000000e+00 0.000000e+00 0.000000e+00
<ENDHMM>
~h "si"
<BEGINHMM>
<NUMSTATES> 5
<STATE> 2
<MEAN> 39
 -5.735825e+00 4.163308e-01 5.504095e-01 -7.187104e-01 2.124569e+00 1.905185e+00 2.678775e+00 3.427778e-01 -7.692372e-01 -2.379894e-01 8.321348e-02 -2.455893e+00 4.972462e+01 1.121638e-02 2.687196e-02 -2.831719e-02 -4.147895e-02 -2.848392e-02 4.172222e-02 4.918511e-02 1.041462e-01 2.114112e-02 4.534875e-02 3.049382e-02 -1.851826e-02 -1.344503e-01 -5.800458e-03 -3.564647e-04 -1.607890e-03 9.343819e-04 -1.061797e-03 2.430512e-03 -1.708690e-03 -2.069612e-03 1.255793e-03 4.954835e-03 7.028699e-03 2.223922e-03 -8.770379e-05
<VARIANCE> 39
 1.444373e+01 1.698410e+01 2.034041e+01 1.742506e+01 1.915863e+01 2.039974e+01 2.163979e+01 2.243058e+01 2.145807e+01 1.850422e+01 1.815871e+01 1.735870e+01 2.137356e+01 2.354562e-01 3.827455e-01 5.267705e-01 7.461809e-01 9.919068e-01 1.191419e+00 1.331996e+00 1.449445e+00 1.479057e+00 1.404698e+00 1.401675e+00 1.281635e+00 1.909692e-01 3.332883e-02 5.866635e-02 8.858302e-02 1.265467e-01 1.743923e-01 2.066305e-01 2.293936e-01 2.483066e-01 2.571252e-01 2.514519e-01 2.488932e-01 2.240446e-01 2.232496e-02
<GCONST> 8.080464e+01
<STATE> 3
<MEAN> 39
 -5.849448e+00 5.050344e-01 3.220884e-01 -1.028909e+00 1.905176e+00 2.073493e+00 2.968882e+00 8.944837e-01 -6.107816e-01 5.365701e-02 2.817414e-01 -2.540350e+00 4.912276e+01 -2.070134e-02 1.127682e-02 -3.365752e-02 -4.472061e-02 -3.049489e-02 2.201459e-02 4.091993e-02 7.598671e-02 2.402122e-02 4.175996e-02 2.852282e-02 -1.092490e-02 -7.894802e-02 -4.394867e-03 -2.358203e-03 -6.484213e-04 -4.209352e-04 -2.153345e-04 -3.627366e-03 -1.216227e-03 -4.220557e-03 1.929238e-04 -1.015185e-03 -6.154795e-04 1.048231e-03 8.613870e-03
<VARIANCE> 39
 1.392889e+01 1.565389e+01 1.876576e+01 1.564506e+01 1.877190e+01 1.931030e+01 1.965958e+01 2.121240e+01 1.981573e+01 1.782576e+01 1.719461e+01 1.604330e+01 2.136860e+01 2.592440e-01 3.838866e-01 5.249479e-01 7.518280e-01 1.001631e+00 1.181091e+00 1.287720e+00 1.398493e+00 1.419377e+00 1.402112e+00 1.374534e+00 1.210668e+00 2.076279e-01 4.136031e-02 6.755599e-02 1.002203e-01 1.460178e-01 1.991985e-01 2.338083e-01 2.576518e-01 2.796673e-01 2.868585e-01 2.846133e-01 2.780294e-01 2.461721e-01 2.856239e-02
<GCONST> 8.181942e+01
<STATE> 4
<MEAN> 39
 -6.732525e+00 2.121941e-01 -1.093561e-01 -2.105169e+00 1.270630e+00 1.622085e+00 2.799236e+00 2.018797e+00 -2.630428e-01 6.971548e-01 9.292013e-01 -2.219854e+00 4.752281e+01 -5.537625e-03 -9.352271e-04 -3.900295e-03 -3.545446e-03 -3.522784e-03 -2.876973e-03 -5.946811e-04 4.075686e-04 2.397436e-03 3.058521e-03 3.226347e-03 2.898783e-03 3.690339e-03 4.427986e-05 1.972621e-05 2.839535e-04 1.802256e-04 -4.915311e-06 -2.208932e-04 -2.962434e-04 -4.992576e-04 -9.854479e-05 -2.418473e-04 -2.813695e-04 -4.057839e-05 7.384593e-04
<VARIANCE> 39
 1.652899e+01 1.544003e+01 1.384113e+01 1.214319e+01 1.823081e+01 1.821562e+01 1.801847e+01 2.125354e+01 1.740525e+01 1.709331e+01 1.551375e+01 1.432389e+01 2.526465e+01 2.767827e-01 4.126957e-01 5.337096e-01 7.503347e-01 9.983410e-01 1.202211e+00 1.331846e+00 1.443722e+00 1.445469e+00 1.453761e+00 1.359380e+00 1.187685e+00 2.677677e-01 4.537081e-02 7.427513e-02 1.027755e-01 1.478490e-01 1.978919e-01 2.402233e-01 2.679275e-01 2.910299e-01 2.931358e-01 2.964214e-01 2.769524e-01 2.409293e-01 3.921372e-02
<GCONST> 8.221489e+01
<TRANSP> 5
 0.000000e+00 1.000000e+00 0.000000e+00 0.000000e+00 0.000000e+00
 0.000000e+00 8.546360e-01 1.453641e-01 0.000000e+00 0.000000e+00
 0.000000e+00 0.000000e+00 8.546492e-01 1.453508e-01 0.000000e+00
 0.000000e+00 0.000000e+00 0.000000e+00 9.961911e-01 3.808949e-03
 0.000000e+00 0.000000e+00 0.000000e+00 0.000000e+00 0.000000e+00
<ENDHMM>
~h "st"
<BEGINHMM>
<NUMSTATES> 5
<STATE> 2
<MEAN> 39
 -8.032582e+00 -2.653899e+00 -7.324609e-01 -4.943762e+00 -1.018554e+00 -2.670343e+00 8.798161e-01 3.048616e-01 4.340653e-02 -2.543060e-02 1.138200e+00 -2.320732e+00 5.746636e+01 -1.406710e-01 -2.617497e-01 1.040394e-01 -2.150941e-01 -1.188583e-01 -2.646552e-01 -8.754062e-02 -3.341440e-02 1.727305e-02 -6.704680e-02 -1.945379e-02 3.584698e-02 5.590735e-01 3.158414e-02 2.000777e-02 -1.132339e-02 3.139453e-02 2.584204e-02 4.333989e-02 3.007432e-02 -1.406572e-03 -8.915447e-03 2.306461e-02 5.046653e-03 1.001477e-02 -9.266450e-02
<VARIANCE> 39
 1.952164e+01 2.341627e+01 1.697687e+01 2.589561e+01 2.234838e+01 3.222849e+01 2.389257e+01 2.250136e+01 1.869596e+01 1.959426e+01 1.721541e+01 1.397415e+01 6.662039e+01 8.612238e-01 1.121540e+00 9.266544e-01 1.594934e+00 1.797403e+00 2.628461e+00 2.074992e+00 1.910998e+00 1.609131e+00 1.908543e+00 1.782611e+00 1.460303e+00 3.351120e+00 1.065025e-01 1.581883e-01 1.528288e-01 2.378055e-01 2.807181e-01 3.817534e-01 3.361263e-01 3.425264e-01 2.834053e-01 3.288848e-01 3.028190e-01 2.452839e-01 3.983716e-01
<GCONST> 1.012281e+02
<STATE> 3
<MEAN> 39
 -8.046337e+00 -3.087589e+00 -4.261502e-01 -4.972484e+00 -1.015777e+00 -2.803949e+00 1.089461e+00 4.122692e-02 -1.054290e-01 -3.890896e-02 1.070372e+00 -2.173632e+00 5.778329e+01 1.369433e-02 -3.907299e-02 3.759511e-02 2.077727e-02 1.414728e-02 8.415267e-03 4.427408e-02 -3.796363e-02 -2.776549e-02 2.230949e-03 -1.110807e-02 1.830218e-02 -1.312679e-02 2.100889e-02 3.309815e-02 -9.510115e-03 3.450069e-02 1.811979e-02 3.875166e-02 1.751200e-02 -7.446018e-04 -6.031614e-03 8.051232e-03 1.092004e-03 -3.712578e-03 -8.146939e-02
<VARIANCE> 39
 1.931449e+01 2.014352e+01 1.561806e+01 2.341850e+01 2.005386e+01 2.723669e+01 2.181487e+01 2.166114e+01 1.929208e+01 1.864486e+01 1.567228e+01 1.379110e+01 5.217558e+01 5.400386e-01 7.127846e-01 7.034096e-01 1.224290e+00 1.380252e+00 1.825422e+00 1.689740e+00 1.689137e+00 1.547037e+00 1.606662e+00 1.517536e+00 1.324500e+00 2.021129e+00 8.548106e-02 1.215111e-01 1.346142e-01 2.140360e-01 2.618280e-01 3.458725e-01 3.406809e-01 3.474119e-01 3.124821e-01 3.365445e-01 3.169706e-01 2.689342e-01 2.703207e-01
<GCONST> 9.572823e+01
<STATE> 4
<MEAN> 39
 -8.820421e+00 -1.195876e+00 -4.934900e-01 -3.797541e+00 -3.431236e-01 -6.744798e-01 2.255789e+00 1.938361e-02 -4.434263e-01 -2.447532e-01 8.568668e-01 -2.375341e+00 5.419952e+01 1.487824e-03 9.361810e-03 -2.899043e-03 5.903095e-03 4.883741e-03 1.603081e-02 7.127407e-03 7.797589e-04 -9.292311e-05 1.227852e-03 -1.981569e-04 1.329924e-03 -2.304007e-02 3.599751e-04 4.219387e-04 -4.986384e-04 -2.271718e-04 -8.299396e-05 9.765578e-04 2.785820e-04 8.517915e-04 8.135437e-04 5.541825e-04 1.498790e-04 4.004067e-04 -3.633979e-04
<VARIANCE> 39
 1.720197e+01 1.690613e+01 1.469417e+01 2.018436e+01 1.841943e+01 2.159253e+01 1.883455e+01 1.946455e+01 1.853042e+01 1.770876e+01 1.526542e+01 1.386749e+01 3.868183e+01 4.940685e-01 6.016156e-01 6.799163e-01 1.092805e+00 1.259716e+00 1.491217e+00 1.497808e+00 1.561242e+00 1.559609e+00 1.550995e+00 1.469073e+00 1.297978e+00 1.187281e+00 7.884087e-02 1.023522e-01 1.290494e-01 2.022978e-01 2.441626e-01 2.905513e-01 3.000530e-01 3.167300e-01 3.171774e-01 3.177168e-01 3.023483e-01 2.659112e-01 1.666566e-01
<GCONST> 9.133434e+01
<TRANSP> 5
 0.000000e+00 1.000000e+00 0.000000e+00 0.000000e+00 0.000000e+00
 0.000000e+00 8.526109e-01 1.473891e-01 0.000000e+00 0.000000e+00
 0.000000e+00 0.000000e+00 8.526112e-01 1.473888e-01 0.000000e+00
 0.000000e+00 0.000000e+00 0.000000e+00 9.955854e-01 4.414530e-03
 0.000000e+00 0.000000e+00 0.000000e+00 0.000000e+00 0.000000e+00
<ENDHMM>
~h "spe"
<BEGINHMM>
<NUMSTATES> 5
<STATE> 2
<MEAN> 39
 -1.129269e+00 -3.152108e+00 1.470287e+00 -9.418572e+00 -2.919400e+00 4.145223e-01 -1.136391e+00 -4.551358e-01 -2.315541e+00 2.234355e-02 -4.709196e-01 -5.676036e+00 5.657135e+01 1.175170e-01 -3.401460e-01 2.804867e-01 -3.935591e-01 -2.177158e-01 -1.412742e-01 -3.464622e-01 8.172404e-02 4.635575e-02 2.386902e-01 1.712723e-02 -1.840799e-01 6.236093e-01 -2.669887e-02 -2.861805e-02 -9.752057e-03 3.674593e-02 -1.232769e-02 -3.167001e-02 2.087886e-02 -2.059072e-02 -5.553152e-03 1.072945e-02 -4.687943e-02 5.329230e-03 -7.940961e-03
<VARIANCE> 39
 2.444508e+01 4.277325e+01 5.282685e+01 5.631540e+01 4.679338e+01 4.277710e+01 3.974989e+01 5.070064e+01 3.348661e+01 2.901797e+01 3.308488e+01 2.495686e+01 2.324553e+01 6.015220e-01 1.026656e+00 1.076986e+00 1.817278e+00 2.245942e+00 2.015045e+00 1.885424e+00 2.827855e+00 2.635674e+00 1.876745e+00 2.120748e+00 1.803287e+00 5.006065e-01 6.418903e-02 1.194576e-01 1.422341e-01 2.451889e-01 3.244415e-01 3.278424e-01 3.062051e-01 4.164228e-01 3.689621e-01 3.099966e-01 3.441015e-01 2.907695e-01 4.973451e-02
<GCONST> 1.042018e+02
<STATE> 3
<MEAN> 39
 -1.013841e+00 -4.871384e+00 2.517463e+00 -1.008528e+01 -3.635781e+00 -5.295179e-01 -2.188039e+00 -3.017855e-01 -2.148457e+00 7.444723e-01 -1.369467e+00 -6.272666e+00 5.907736e+01 5.632011e-03 -2.304879e-01 1.349858e-01 -6.162910e-02 -8.802927e-02 -1.315058e-01 -1.262906e-01 1.589051e-02 2.088328e-02 8.667724e-02 -1.404555e-01 -7.309643e-02 3.250671e-01 -1.434438e-02 1.990002e-02 -2.182109e-02 4.692642e-02 2.106052e-02 4.967572e-03 3.166948e-02 -8.549877e-03 -3.459211e-03 -2.458885e-02 -1.948863e-02 1.618936e-02 -4.525534e-02
<VARIANCE> 39
 2.173115e+01 4.181646e+01 6.281910e+01 5.282302e+01 5.831942e+01 5.340636e+01 3.548680e+01 5.590854e+01 3.084911e+01 3.280753e+01 4.070150e+01 2.897541e+01 1.992804e+01 4.684614e-01 1.012790e+00 1.173068e+00 1.475559e+00 2.383944e+00 2.019829e+00 1.771360e+00 2.517951e+00 2.007834e+00 1.924162e+00 1.964561e+00 1.662736e+00 4.445055e-01 6.282090e-02 1.242579e-01 1.647364e-01 2.398302e-01 3.653367e-01 3.789183e-01 3.313390e-01 4.357909e-01 3.707157e-01 3.524970e-01 3.612231e-01 3.028107e-01 3.820966e-02
<GCONST> 1.043031e+02
<STATE> 4
<MEAN> 39
 -1.254630e+00 -3.217583e+00 4.438462e-01 -5.440285e+00 -2.721500e+00 -8.704179e-01 -9.560319e-01 -1.097363e+00 -1.987649e+00 -3.746332e-01 -1.620981e+00 -5.477179e+00 5.451315e+01 -4.922264e-03 8.775131e-03 -1.286479e-02 1.867506e-02 1.453042e-02 9.071601e-03 1.385514e-02 7.382927e-04 1.879921e-03 -9.434207e-04 3.192985e-03 6.285377e-03 -2.297615e-02 -1.361001e-04 8.350578e-04 -2.919842e-04 6.226957e-04 1.033540e-03 1.973902e-03 1.120810e-03 3.228435e-04 -8.366725e-05 6.044095e-04 6.238282e-04 4.993880e-04 -1.317158e-03
<VARIANCE> 39
 1.658583e+01 2.942613e+01 3.906742e+01 3.818259e+01 4.757109e+01 4.161686e+01 3.694334e+01 3.484527e+01 3.048850e+01 3.011093e+01 3.473222e+01 2.780190e+01 2.541690e+01 4.164807e-01 7.290059e-01 9.360361e-01 1.096034e+00 1.545442e+00 1.576653e+00 1.613340e+00 1.813692e+00 1.805139e+00 1.728246e+00 1.692289e+00 1.551070e+00 2.441692e-01 5.626194e-02 1.039675e-01 1.407422e-01 1.825237e-01 2.544965e-01 2.824146e-01 2.956943e-01 3.393283e-01 3.437105e-01 3.326366e-01 3.189964e-01 2.923196e-01 2.685729e-02
<GCONST> 9.645399e+01
<TRANSP> 5
 0.000000e+00 1.000000e+00 0.000000e+00 0.000000e+00 0.000000e+00
 0.000000e+00 8.568910e-01 1.431090e-01 0.000000e+00 0.000000e+00
 0.000000e+00 0.000000e+00 8.568913e-01 1.431087e-01 0.000000e+00
 0.000000e+00 0.000000e+00 0.000000e+00 9.973248e-01 2.675210e-03
 0.000000e+00 0.000000e+00 0.000000e+00 0.000000e+00 0.000000e+00
<ENDHMM>
