~h "ap"
	<BEGINHMM>
	<NUMSTATES> 5
	<STATE> 2
	<MEAN> 13
	 -9.841805e+00 -4.659773e-01 4.808793e-01 -2.125887e+00 8.387311e-01 6.086244e-01 1.818414e+00 4.759111e-01 -4.106288e-01 -1.828592e-01 7.226755e-02 -1.456033e+00 5.268499e+01
	<VARIANCE> 13
	 4.101591e+01 2.984587e+01 2.606503e+01 2.392516e+01 2.791177e+01 3.630894e+01 2.741863e+01 3.251714e+01 2.728270e+01 2.315946e+01 2.629480e+01 2.465007e+01 7.775932e+01
	<GCONST> 6.842845e+01
	<STATE> 3
	<MEAN> 13
	 -9.841805e+00 -4.659773e-01 4.808793e-01 -2.125887e+00 8.387311e-01 6.086244e-01 1.818414e+00 4.759111e-01 -4.106288e-01 -1.828592e-01 7.226755e-02 -1.456033e+00 5.268499e+01
	<VARIANCE> 13
	 4.101591e+01 2.984587e+01 2.606503e+01 2.392516e+01 2.791177e+01 3.630894e+01 2.741863e+01 3.251714e+01 2.728270e+01 2.315946e+01 2.629480e+01 2.465007e+01 7.775932e+01
	<GCONST> 6.842845e+01
	<STATE> 4
	<MEAN> 13
	 -9.841805e+00 -4.659773e-01 4.808793e-01 -2.125887e+00 8.387311e-01 6.086244e-01 1.818414e+00 4.759111e-01 -4.106288e-01 -1.828592e-01 7.226755e-02 -1.456033e+00 5.268499e+01
	<VARIANCE> 13
	 4.101591e+01 2.984587e+01 2.606503e+01 2.392516e+01 2.791177e+01 3.630894e+01 2.741863e+01 3.251714e+01 2.728270e+01 2.315946e+01 2.629480e+01 2.465007e+01 7.775932e+01
	<GCONST> 6.842845e+01
	<TRANSP> 5
	 0.000000e+00 1.000000e+00 0.000000e+00 0.000000e+00 0.000000e+00
	 0.000000e+00 6.000000e-01 4.000000e-01 0.000000e+00 0.000000e+00
	 0.000000e+00 0.000000e+00 6.000000e-01 4.000000e-01 0.000000e+00
	 0.000000e+00 0.000000e+00 0.000000e+00 7.000000e-01 3.000000e-01
	 0.000000e+00 0.000000e+00 0.000000e+00 0.000000e+00 0.000000e+00
	<ENDHMM>
~h "cm"
	<BEGINHMM>
	<NUMSTATES> 5
	<STATE> 2
	<MEAN> 13
	 -9.841805e+00 -4.659773e-01 4.808793e-01 -2.125887e+00 8.387311e-01 6.086244e-01 1.818414e+00 4.759111e-01 -4.106288e-01 -1.828592e-01 7.226755e-02 -1.456033e+00 5.268499e+01
	<VARIANCE> 13
	 4.101591e+01 2.984587e+01 2.606503e+01 2.392516e+01 2.791177e+01 3.630894e+01 2.741863e+01 3.251714e+01 2.728270e+01 2.315946e+01 2.629480e+01 2.465007e+01 7.775932e+01
	<GCONST> 6.842845e+01
	<STATE> 3
	<MEAN> 13
	 -9.841805e+00 -4.659773e-01 4.808793e-01 -2.125887e+00 8.387311e-01 6.086244e-01 1.818414e+00 4.759111e-01 -4.106288e-01 -1.828592e-01 7.226755e-02 -1.456033e+00 5.268499e+01
	<VARIANCE> 13
	 4.101591e+01 2.984587e+01 2.606503e+01 2.392516e+01 2.791177e+01 3.630894e+01 2.741863e+01 3.251714e+01 2.728270e+01 2.315946e+01 2.629480e+01 2.465007e+01 7.775932e+01
	<GCONST> 6.842845e+01
	<STATE> 4
	<MEAN> 13
	 -9.841805e+00 -4.659773e-01 4.808793e-01 -2.125887e+00 8.387311e-01 6.086244e-01 1.818414e+00 4.759111e-01 -4.106288e-01 -1.828592e-01 7.226755e-02 -1.456033e+00 5.268499e+01
	<VARIANCE> 13
	 4.101591e+01 2.984587e+01 2.606503e+01 2.392516e+01 2.791177e+01 3.630894e+01 2.741863e+01 3.251714e+01 2.728270e+01 2.315946e+01 2.629480e+01 2.465007e+01 7.775932e+01
	<GCONST> 6.842845e+01
	<TRANSP> 5
	 0.000000e+00 1.000000e+00 0.000000e+00 0.000000e+00 0.000000e+00
	 0.000000e+00 6.000000e-01 4.000000e-01 0.000000e+00 0.000000e+00
	 0.000000e+00 0.000000e+00 6.000000e-01 4.000000e-01 0.000000e+00
	 0.000000e+00 0.000000e+00 0.000000e+00 7.000000e-01 3.000000e-01
	 0.000000e+00 0.000000e+00 0.000000e+00 0.000000e+00 0.000000e+00
	<ENDHMM>
~h "co"
	<BEGINHMM>
	<NUMSTATES> 5
	<STATE> 2
	<MEAN> 13
	 -9.841805e+00 -4.659773e-01 4.808793e-01 -2.125887e+00 8.387311e-01 6.086244e-01 1.818414e+00 4.759111e-01 -4.106288e-01 -1.828592e-01 7.226755e-02 -1.456033e+00 5.268499e+01
	<VARIANCE> 13
	 4.101591e+01 2.984587e+01 2.606503e+01 2.392516e+01 2.791177e+01 3.630894e+01 2.741863e+01 3.251714e+01 2.728270e+01 2.315946e+01 2.629480e+01 2.465007e+01 7.775932e+01
	<GCONST> 6.842845e+01
	<STATE> 3
	<MEAN> 13
	 -9.841805e+00 -4.659773e-01 4.808793e-01 -2.125887e+00 8.387311e-01 6.086244e-01 1.818414e+00 4.759111e-01 -4.106288e-01 -1.828592e-01 7.226755e-02 -1.456033e+00 5.268499e+01
	<VARIANCE> 13
	 4.101591e+01 2.984587e+01 2.606503e+01 2.392516e+01 2.791177e+01 3.630894e+01 2.741863e+01 3.251714e+01 2.728270e+01 2.315946e+01 2.629480e+01 2.465007e+01 7.775932e+01
	<GCONST> 6.842845e+01
	<STATE> 4
	<MEAN> 13
	 -9.841805e+00 -4.659773e-01 4.808793e-01 -2.125887e+00 8.387311e-01 6.086244e-01 1.818414e+00 4.759111e-01 -4.106288e-01 -1.828592e-01 7.226755e-02 -1.456033e+00 5.268499e+01
	<VARIANCE> 13
	 4.101591e+01 2.984587e+01 2.606503e+01 2.392516e+01 2.791177e+01 3.630894e+01 2.741863e+01 3.251714e+01 2.728270e+01 2.315946e+01 2.629480e+01 2.465007e+01 7.775932e+01
	<GCONST> 6.842845e+01
	<TRANSP> 5
	 0.000000e+00 1.000000e+00 0.000000e+00 0.000000e+00 0.000000e+00
	 0.000000e+00 6.000000e-01 4.000000e-01 0.000000e+00 0.000000e+00
	 0.000000e+00 0.000000e+00 6.000000e-01 4.000000e-01 0.000000e+00
	 0.000000e+00 0.000000e+00 0.000000e+00 7.000000e-01 3.000000e-01
	 0.000000e+00 0.000000e+00 0.000000e+00 0.000000e+00 0.000000e+00
	<ENDHMM>
~h "ds"
	<BEGINHMM>
	<NUMSTATES> 5
	<STATE> 2
	<MEAN> 13
	 -9.841805e+00 -4.659773e-01 4.808793e-01 -2.125887e+00 8.387311e-01 6.086244e-01 1.818414e+00 4.759111e-01 -4.106288e-01 -1.828592e-01 7.226755e-02 -1.456033e+00 5.268499e+01
	<VARIANCE> 13
	 4.101591e+01 2.984587e+01 2.606503e+01 2.392516e+01 2.791177e+01 3.630894e+01 2.741863e+01 3.251714e+01 2.728270e+01 2.315946e+01 2.629480e+01 2.465007e+01 7.775932e+01
	<GCONST> 6.842845e+01
	<STATE> 3
	<MEAN> 13
	 -9.841805e+00 -4.659773e-01 4.808793e-01 -2.125887e+00 8.387311e-01 6.086244e-01 1.818414e+00 4.759111e-01 -4.106288e-01 -1.828592e-01 7.226755e-02 -1.456033e+00 5.268499e+01
	<VARIANCE> 13
	 4.101591e+01 2.984587e+01 2.606503e+01 2.392516e+01 2.791177e+01 3.630894e+01 2.741863e+01 3.251714e+01 2.728270e+01 2.315946e+01 2.629480e+01 2.465007e+01 7.775932e+01
	<GCONST> 6.842845e+01
	<STATE> 4
	<MEAN> 13
	 -9.841805e+00 -4.659773e-01 4.808793e-01 -2.125887e+00 8.387311e-01 6.086244e-01 1.818414e+00 4.759111e-01 -4.106288e-01 -1.828592e-01 7.226755e-02 -1.456033e+00 5.268499e+01
	<VARIANCE> 13
	 4.101591e+01 2.984587e+01 2.606503e+01 2.392516e+01 2.791177e+01 3.630894e+01 2.741863e+01 3.251714e+01 2.728270e+01 2.315946e+01 2.629480e+01 2.465007e+01 7.775932e+01
	<GCONST> 6.842845e+01
	<TRANSP> 5
	 0.000000e+00 1.000000e+00 0.000000e+00 0.000000e+00 0.000000e+00
	 0.000000e+00 6.000000e-01 4.000000e-01 0.000000e+00 0.000000e+00
	 0.000000e+00 0.000000e+00 6.000000e-01 4.000000e-01 0.000000e+00
	 0.000000e+00 0.000000e+00 0.000000e+00 7.000000e-01 3.000000e-01
	 0.000000e+00 0.000000e+00 0.000000e+00 0.000000e+00 0.000000e+00
	<ENDHMM>
~h "kt"
	<BEGINHMM>
	<NUMSTATES> 5
	<STATE> 2
	<MEAN> 13
	 -9.841805e+00 -4.659773e-01 4.808793e-01 -2.125887e+00 8.387311e-01 6.086244e-01 1.818414e+00 4.759111e-01 -4.106288e-01 -1.828592e-01 7.226755e-02 -1.456033e+00 5.268499e+01
	<VARIANCE> 13
	 4.101591e+01 2.984587e+01 2.606503e+01 2.392516e+01 2.791177e+01 3.630894e+01 2.741863e+01 3.251714e+01 2.728270e+01 2.315946e+01 2.629480e+01 2.465007e+01 7.775932e+01
	<GCONST> 6.842845e+01
	<STATE> 3
	<MEAN> 13
	 -9.841805e+00 -4.659773e-01 4.808793e-01 -2.125887e+00 8.387311e-01 6.086244e-01 1.818414e+00 4.759111e-01 -4.106288e-01 -1.828592e-01 7.226755e-02 -1.456033e+00 5.268499e+01
	<VARIANCE> 13
	 4.101591e+01 2.984587e+01 2.606503e+01 2.392516e+01 2.791177e+01 3.630894e+01 2.741863e+01 3.251714e+01 2.728270e+01 2.315946e+01 2.629480e+01 2.465007e+01 7.775932e+01
	<GCONST> 6.842845e+01
	<STATE> 4
	<MEAN> 13
	 -9.841805e+00 -4.659773e-01 4.808793e-01 -2.125887e+00 8.387311e-01 6.086244e-01 1.818414e+00 4.759111e-01 -4.106288e-01 -1.828592e-01 7.226755e-02 -1.456033e+00 5.268499e+01
	<VARIANCE> 13
	 4.101591e+01 2.984587e+01 2.606503e+01 2.392516e+01 2.791177e+01 3.630894e+01 2.741863e+01 3.251714e+01 2.728270e+01 2.315946e+01 2.629480e+01 2.465007e+01 7.775932e+01
	<GCONST> 6.842845e+01
	<TRANSP> 5
	 0.000000e+00 1.000000e+00 0.000000e+00 0.000000e+00 0.000000e+00
	 0.000000e+00 6.000000e-01 4.000000e-01 0.000000e+00 0.000000e+00
	 0.000000e+00 0.000000e+00 6.000000e-01 4.000000e-01 0.000000e+00
	 0.000000e+00 0.000000e+00 0.000000e+00 7.000000e-01 3.000000e-01
	 0.000000e+00 0.000000e+00 0.000000e+00 0.000000e+00 0.000000e+00
	<ENDHMM>
~h "kj"
	<BEGINHMM>
	<NUMSTATES> 5
	<STATE> 2
	<MEAN> 13
	 -9.841805e+00 -4.659773e-01 4.808793e-01 -2.125887e+00 8.387311e-01 6.086244e-01 1.818414e+00 4.759111e-01 -4.106288e-01 -1.828592e-01 7.226755e-02 -1.456033e+00 5.268499e+01
	<VARIANCE> 13
	 4.101591e+01 2.984587e+01 2.606503e+01 2.392516e+01 2.791177e+01 3.630894e+01 2.741863e+01 3.251714e+01 2.728270e+01 2.315946e+01 2.629480e+01 2.465007e+01 7.775932e+01
	<GCONST> 6.842845e+01
	<STATE> 3
	<MEAN> 13
	 -9.841805e+00 -4.659773e-01 4.808793e-01 -2.125887e+00 8.387311e-01 6.086244e-01 1.818414e+00 4.759111e-01 -4.106288e-01 -1.828592e-01 7.226755e-02 -1.456033e+00 5.268499e+01
	<VARIANCE> 13
	 4.101591e+01 2.984587e+01 2.606503e+01 2.392516e+01 2.791177e+01 3.630894e+01 2.741863e+01 3.251714e+01 2.728270e+01 2.315946e+01 2.629480e+01 2.465007e+01 7.775932e+01
	<GCONST> 6.842845e+01
	<STATE> 4
	<MEAN> 13
	 -9.841805e+00 -4.659773e-01 4.808793e-01 -2.125887e+00 8.387311e-01 6.086244e-01 1.818414e+00 4.759111e-01 -4.106288e-01 -1.828592e-01 7.226755e-02 -1.456033e+00 5.268499e+01
	<VARIANCE> 13
	 4.101591e+01 2.984587e+01 2.606503e+01 2.392516e+01 2.791177e+01 3.630894e+01 2.741863e+01 3.251714e+01 2.728270e+01 2.315946e+01 2.629480e+01 2.465007e+01 7.775932e+01
	<GCONST> 6.842845e+01
	<TRANSP> 5
	 0.000000e+00 1.000000e+00 0.000000e+00 0.000000e+00 0.000000e+00
	 0.000000e+00 6.000000e-01 4.000000e-01 0.000000e+00 0.000000e+00
	 0.000000e+00 0.000000e+00 6.000000e-01 4.000000e-01 0.000000e+00
	 0.000000e+00 0.000000e+00 0.000000e+00 7.000000e-01 3.000000e-01
	 0.000000e+00 0.000000e+00 0.000000e+00 0.000000e+00 0.000000e+00
	<ENDHMM>
~h "kn"
	<BEGINHMM>
	<NUMSTATES> 5
	<STATE> 2
	<MEAN> 13
	 -9.841805e+00 -4.659773e-01 4.808793e-01 -2.125887e+00 8.387311e-01 6.086244e-01 1.818414e+00 4.759111e-01 -4.106288e-01 -1.828592e-01 7.226755e-02 -1.456033e+00 5.268499e+01
	<VARIANCE> 13
	 4.101591e+01 2.984587e+01 2.606503e+01 2.392516e+01 2.791177e+01 3.630894e+01 2.741863e+01 3.251714e+01 2.728270e+01 2.315946e+01 2.629480e+01 2.465007e+01 7.775932e+01
	<GCONST> 6.842845e+01
	<STATE> 3
	<MEAN> 13
	 -9.841805e+00 -4.659773e-01 4.808793e-01 -2.125887e+00 8.387311e-01 6.086244e-01 1.818414e+00 4.759111e-01 -4.106288e-01 -1.828592e-01 7.226755e-02 -1.456033e+00 5.268499e+01
	<VARIANCE> 13
	 4.101591e+01 2.984587e+01 2.606503e+01 2.392516e+01 2.791177e+01 3.630894e+01 2.741863e+01 3.251714e+01 2.728270e+01 2.315946e+01 2.629480e+01 2.465007e+01 7.775932e+01
	<GCONST> 6.842845e+01
	<STATE> 4
	<MEAN> 13
	 -9.841805e+00 -4.659773e-01 4.808793e-01 -2.125887e+00 8.387311e-01 6.086244e-01 1.818414e+00 4.759111e-01 -4.106288e-01 -1.828592e-01 7.226755e-02 -1.456033e+00 5.268499e+01
	<VARIANCE> 13
	 4.101591e+01 2.984587e+01 2.606503e+01 2.392516e+01 2.791177e+01 3.630894e+01 2.741863e+01 3.251714e+01 2.728270e+01 2.315946e+01 2.629480e+01 2.465007e+01 7.775932e+01
	<GCONST> 6.842845e+01
	<TRANSP> 5
	 0.000000e+00 1.000000e+00 0.000000e+00 0.000000e+00 0.000000e+00
	 0.000000e+00 6.000000e-01 4.000000e-01 0.000000e+00 0.000000e+00
	 0.000000e+00 0.000000e+00 6.000000e-01 4.000000e-01 0.000000e+00
	 0.000000e+00 0.000000e+00 0.000000e+00 7.000000e-01 3.000000e-01
	 0.000000e+00 0.000000e+00 0.000000e+00 0.000000e+00 0.000000e+00
	<ENDHMM>
~h "pw"
	<BEGINHMM>
	<NUMSTATES> 5
	<STATE> 2
	<MEAN> 13
	 -9.841805e+00 -4.659773e-01 4.808793e-01 -2.125887e+00 8.387311e-01 6.086244e-01 1.818414e+00 4.759111e-01 -4.106288e-01 -1.828592e-01 7.226755e-02 -1.456033e+00 5.268499e+01
	<VARIANCE> 13
	 4.101591e+01 2.984587e+01 2.606503e+01 2.392516e+01 2.791177e+01 3.630894e+01 2.741863e+01 3.251714e+01 2.728270e+01 2.315946e+01 2.629480e+01 2.465007e+01 7.775932e+01
	<GCONST> 6.842845e+01
	<STATE> 3
	<MEAN> 13
	 -9.841805e+00 -4.659773e-01 4.808793e-01 -2.125887e+00 8.387311e-01 6.086244e-01 1.818414e+00 4.759111e-01 -4.106288e-01 -1.828592e-01 7.226755e-02 -1.456033e+00 5.268499e+01
	<VARIANCE> 13
	 4.101591e+01 2.984587e+01 2.606503e+01 2.392516e+01 2.791177e+01 3.630894e+01 2.741863e+01 3.251714e+01 2.728270e+01 2.315946e+01 2.629480e+01 2.465007e+01 7.775932e+01
	<GCONST> 6.842845e+01
	<STATE> 4
	<MEAN> 13
	 -9.841805e+00 -4.659773e-01 4.808793e-01 -2.125887e+00 8.387311e-01 6.086244e-01 1.818414e+00 4.759111e-01 -4.106288e-01 -1.828592e-01 7.226755e-02 -1.456033e+00 5.268499e+01
	<VARIANCE> 13
	 4.101591e+01 2.984587e+01 2.606503e+01 2.392516e+01 2.791177e+01 3.630894e+01 2.741863e+01 3.251714e+01 2.728270e+01 2.315946e+01 2.629480e+01 2.465007e+01 7.775932e+01
	<GCONST> 6.842845e+01
	<TRANSP> 5
	 0.000000e+00 1.000000e+00 0.000000e+00 0.000000e+00 0.000000e+00
	 0.000000e+00 6.000000e-01 4.000000e-01 0.000000e+00 0.000000e+00
	 0.000000e+00 0.000000e+00 6.000000e-01 4.000000e-01 0.000000e+00
	 0.000000e+00 0.000000e+00 0.000000e+00 7.000000e-01 3.000000e-01
	 0.000000e+00 0.000000e+00 0.000000e+00 0.000000e+00 0.000000e+00
	<ENDHMM>
~h "pr"
	<BEGINHMM>
	<NUMSTATES> 5
	<STATE> 2
	<MEAN> 13
	 -9.841805e+00 -4.659773e-01 4.808793e-01 -2.125887e+00 8.387311e-01 6.086244e-01 1.818414e+00 4.759111e-01 -4.106288e-01 -1.828592e-01 7.226755e-02 -1.456033e+00 5.268499e+01
	<VARIANCE> 13
	 4.101591e+01 2.984587e+01 2.606503e+01 2.392516e+01 2.791177e+01 3.630894e+01 2.741863e+01 3.251714e+01 2.728270e+01 2.315946e+01 2.629480e+01 2.465007e+01 7.775932e+01
	<GCONST> 6.842845e+01
	<STATE> 3
	<MEAN> 13
	 -9.841805e+00 -4.659773e-01 4.808793e-01 -2.125887e+00 8.387311e-01 6.086244e-01 1.818414e+00 4.759111e-01 -4.106288e-01 -1.828592e-01 7.226755e-02 -1.456033e+00 5.268499e+01
	<VARIANCE> 13
	 4.101591e+01 2.984587e+01 2.606503e+01 2.392516e+01 2.791177e+01 3.630894e+01 2.741863e+01 3.251714e+01 2.728270e+01 2.315946e+01 2.629480e+01 2.465007e+01 7.775932e+01
	<GCONST> 6.842845e+01
	<STATE> 4
	<MEAN> 13
	 -9.841805e+00 -4.659773e-01 4.808793e-01 -2.125887e+00 8.387311e-01 6.086244e-01 1.818414e+00 4.759111e-01 -4.106288e-01 -1.828592e-01 7.226755e-02 -1.456033e+00 5.268499e+01
	<VARIANCE> 13
	 4.101591e+01 2.984587e+01 2.606503e+01 2.392516e+01 2.791177e+01 3.630894e+01 2.741863e+01 3.251714e+01 2.728270e+01 2.315946e+01 2.629480e+01 2.465007e+01 7.775932e+01
	<GCONST> 6.842845e+01
	<TRANSP> 5
	 0.000000e+00 1.000000e+00 0.000000e+00 0.000000e+00 0.000000e+00
	 0.000000e+00 6.000000e-01 4.000000e-01 0.000000e+00 0.000000e+00
	 0.000000e+00 0.000000e+00 6.000000e-01 4.000000e-01 0.000000e+00
	 0.000000e+00 0.000000e+00 0.000000e+00 7.000000e-01 3.000000e-01
	 0.000000e+00 0.000000e+00 0.000000e+00 0.000000e+00 0.000000e+00
	<ENDHMM>
~h "spe"
	<BEGINHMM>
	<NUMSTATES> 5
	<STATE> 2
	<MEAN> 13
	 -9.841805e+00 -4.659773e-01 4.808793e-01 -2.125887e+00 8.387311e-01 6.086244e-01 1.818414e+00 4.759111e-01 -4.106288e-01 -1.828592e-01 7.226755e-02 -1.456033e+00 5.268499e+01
	<VARIANCE> 13
	 4.101591e+01 2.984587e+01 2.606503e+01 2.392516e+01 2.791177e+01 3.630894e+01 2.741863e+01 3.251714e+01 2.728270e+01 2.315946e+01 2.629480e+01 2.465007e+01 7.775932e+01
	<GCONST> 6.842845e+01
	<STATE> 3
	<MEAN> 13
	 -9.841805e+00 -4.659773e-01 4.808793e-01 -2.125887e+00 8.387311e-01 6.086244e-01 1.818414e+00 4.759111e-01 -4.106288e-01 -1.828592e-01 7.226755e-02 -1.456033e+00 5.268499e+01
	<VARIANCE> 13
	 4.101591e+01 2.984587e+01 2.606503e+01 2.392516e+01 2.791177e+01 3.630894e+01 2.741863e+01 3.251714e+01 2.728270e+01 2.315946e+01 2.629480e+01 2.465007e+01 7.775932e+01
	<GCONST> 6.842845e+01
	<STATE> 4
	<MEAN> 13
	 -9.841805e+00 -4.659773e-01 4.808793e-01 -2.125887e+00 8.387311e-01 6.086244e-01 1.818414e+00 4.759111e-01 -4.106288e-01 -1.828592e-01 7.226755e-02 -1.456033e+00 5.268499e+01
	<VARIANCE> 13
	 4.101591e+01 2.984587e+01 2.606503e+01 2.392516e+01 2.791177e+01 3.630894e+01 2.741863e+01 3.251714e+01 2.728270e+01 2.315946e+01 2.629480e+01 2.465007e+01 7.775932e+01
	<GCONST> 6.842845e+01
	<TRANSP> 5
	 0.000000e+00 1.000000e+00 0.000000e+00 0.000000e+00 0.000000e+00
	 0.000000e+00 6.000000e-01 4.000000e-01 0.000000e+00 0.000000e+00
	 0.000000e+00 0.000000e+00 6.000000e-01 4.000000e-01 0.000000e+00
	 0.000000e+00 0.000000e+00 0.000000e+00 7.000000e-01 3.000000e-01
	 0.000000e+00 0.000000e+00 0.000000e+00 0.000000e+00 0.000000e+00
	<ENDHMM>
~h "cl"
	<BEGINHMM>
	<NUMSTATES> 5
	<STATE> 2
	<MEAN> 13
	 -9.841805e+00 -4.659773e-01 4.808793e-01 -2.125887e+00 8.387311e-01 6.086244e-01 1.818414e+00 4.759111e-01 -4.106288e-01 -1.828592e-01 7.226755e-02 -1.456033e+00 5.268499e+01
	<VARIANCE> 13
	 4.101591e+01 2.984587e+01 2.606503e+01 2.392516e+01 2.791177e+01 3.630894e+01 2.741863e+01 3.251714e+01 2.728270e+01 2.315946e+01 2.629480e+01 2.465007e+01 7.775932e+01
	<GCONST> 6.842845e+01
	<STATE> 3
	<MEAN> 13
	 -9.841805e+00 -4.659773e-01 4.808793e-01 -2.125887e+00 8.387311e-01 6.086244e-01 1.818414e+00 4.759111e-01 -4.106288e-01 -1.828592e-01 7.226755e-02 -1.456033e+00 5.268499e+01
	<VARIANCE> 13
	 4.101591e+01 2.984587e+01 2.606503e+01 2.392516e+01 2.791177e+01 3.630894e+01 2.741863e+01 3.251714e+01 2.728270e+01 2.315946e+01 2.629480e+01 2.465007e+01 7.775932e+01
	<GCONST> 6.842845e+01
	<STATE> 4
	<MEAN> 13
	 -9.841805e+00 -4.659773e-01 4.808793e-01 -2.125887e+00 8.387311e-01 6.086244e-01 1.818414e+00 4.759111e-01 -4.106288e-01 -1.828592e-01 7.226755e-02 -1.456033e+00 5.268499e+01
	<VARIANCE> 13
	 4.101591e+01 2.984587e+01 2.606503e+01 2.392516e+01 2.791177e+01 3.630894e+01 2.741863e+01 3.251714e+01 2.728270e+01 2.315946e+01 2.629480e+01 2.465007e+01 7.775932e+01
	<GCONST> 6.842845e+01
	<TRANSP> 5
	 0.000000e+00 1.000000e+00 0.000000e+00 0.000000e+00 0.000000e+00
	 0.000000e+00 6.000000e-01 4.000000e-01 0.000000e+00 0.000000e+00
	 0.000000e+00 0.000000e+00 6.000000e-01 4.000000e-01 0.000000e+00
	 0.000000e+00 0.000000e+00 0.000000e+00 7.000000e-01 3.000000e-01
	 0.000000e+00 0.000000e+00 0.000000e+00 0.000000e+00 0.000000e+00
	<ENDHMM>
~h "st"
	<BEGINHMM>
	<NUMSTATES> 5
	<STATE> 2
	<MEAN> 13
	 -9.841805e+00 -4.659773e-01 4.808793e-01 -2.125887e+00 8.387311e-01 6.086244e-01 1.818414e+00 4.759111e-01 -4.106288e-01 -1.828592e-01 7.226755e-02 -1.456033e+00 5.268499e+01
	<VARIANCE> 13
	 4.101591e+01 2.984587e+01 2.606503e+01 2.392516e+01 2.791177e+01 3.630894e+01 2.741863e+01 3.251714e+01 2.728270e+01 2.315946e+01 2.629480e+01 2.465007e+01 7.775932e+01
	<GCONST> 6.842845e+01
	<STATE> 3
	<MEAN> 13
	 -9.841805e+00 -4.659773e-01 4.808793e-01 -2.125887e+00 8.387311e-01 6.086244e-01 1.818414e+00 4.759111e-01 -4.106288e-01 -1.828592e-01 7.226755e-02 -1.456033e+00 5.268499e+01
	<VARIANCE> 13
	 4.101591e+01 2.984587e+01 2.606503e+01 2.392516e+01 2.791177e+01 3.630894e+01 2.741863e+01 3.251714e+01 2.728270e+01 2.315946e+01 2.629480e+01 2.465007e+01 7.775932e+01
	<GCONST> 6.842845e+01
	<STATE> 4
	<MEAN> 13
	 -9.841805e+00 -4.659773e-01 4.808793e-01 -2.125887e+00 8.387311e-01 6.086244e-01 1.818414e+00 4.759111e-01 -4.106288e-01 -1.828592e-01 7.226755e-02 -1.456033e+00 5.268499e+01
	<VARIANCE> 13
	 4.101591e+01 2.984587e+01 2.606503e+01 2.392516e+01 2.791177e+01 3.630894e+01 2.741863e+01 3.251714e+01 2.728270e+01 2.315946e+01 2.629480e+01 2.465007e+01 7.775932e+01
	<GCONST> 6.842845e+01
	<TRANSP> 5
	 0.000000e+00 1.000000e+00 0.000000e+00 0.000000e+00 0.000000e+00
	 0.000000e+00 6.000000e-01 4.000000e-01 0.000000e+00 0.000000e+00
	 0.000000e+00 0.000000e+00 6.000000e-01 4.000000e-01 0.000000e+00
	 0.000000e+00 0.000000e+00 0.000000e+00 7.000000e-01 3.000000e-01
	 0.000000e+00 0.000000e+00 0.000000e+00 0.000000e+00 0.000000e+00
	<ENDHMM>
~h "si"
	<BEGINHMM>
	<NUMSTATES> 5
	<STATE> 2
	<MEAN> 13
	 -9.841805e+00 -4.659773e-01 4.808793e-01 -2.125887e+00 8.387311e-01 6.086244e-01 1.818414e+00 4.759111e-01 -4.106288e-01 -1.828592e-01 7.226755e-02 -1.456033e+00 5.268499e+01
	<VARIANCE> 13
	 4.101591e+01 2.984587e+01 2.606503e+01 2.392516e+01 2.791177e+01 3.630894e+01 2.741863e+01 3.251714e+01 2.728270e+01 2.315946e+01 2.629480e+01 2.465007e+01 7.775932e+01
	<GCONST> 6.842845e+01
	<STATE> 3
	<MEAN> 13
	 -9.841805e+00 -4.659773e-01 4.808793e-01 -2.125887e+00 8.387311e-01 6.086244e-01 1.818414e+00 4.759111e-01 -4.106288e-01 -1.828592e-01 7.226755e-02 -1.456033e+00 5.268499e+01
	<VARIANCE> 13
	 4.101591e+01 2.984587e+01 2.606503e+01 2.392516e+01 2.791177e+01 3.630894e+01 2.741863e+01 3.251714e+01 2.728270e+01 2.315946e+01 2.629480e+01 2.465007e+01 7.775932e+01
	<GCONST> 6.842845e+01
	<STATE> 4
	<MEAN> 13
	 -9.841805e+00 -4.659773e-01 4.808793e-01 -2.125887e+00 8.387311e-01 6.086244e-01 1.818414e+00 4.759111e-01 -4.106288e-01 -1.828592e-01 7.226755e-02 -1.456033e+00 5.268499e+01
	<VARIANCE> 13
	 4.101591e+01 2.984587e+01 2.606503e+01 2.392516e+01 2.791177e+01 3.630894e+01 2.741863e+01 3.251714e+01 2.728270e+01 2.315946e+01 2.629480e+01 2.465007e+01 7.775932e+01
	<GCONST> 6.842845e+01
	<TRANSP> 5
	 0.000000e+00 1.000000e+00 0.000000e+00 0.000000e+00 0.000000e+00
	 0.000000e+00 6.000000e-01 4.000000e-01 0.000000e+00 0.000000e+00
	 0.000000e+00 0.000000e+00 6.000000e-01 4.000000e-01 0.000000e+00
	 0.000000e+00 0.000000e+00 0.000000e+00 7.000000e-01 3.000000e-01
	 0.000000e+00 0.000000e+00 0.000000e+00 0.000000e+00 0.000000e+00
	<ENDHMM>
