~o
<STREAMINFO> 1 13
<VECSIZE> 13<NULLD><MFCC_0><DIAGC>
~h "ap"
<BEGINHMM>
<NUMSTATES> 5
<STATE> 2
<NUMMIXES> 16
<MIXTURE> 1 3.312103e-02
<MEAN> 13
 -4.565807e+00 -2.546080e+00 -2.854459e+00 -8.412113e-01 4.597853e+00 7.790812e+00 7.858052e+00 3.166917e+00 1.806610e+00 4.311147e+00 4.294727e+00 2.149774e-01 5.047202e+01
<VARIANCE> 13
 7.141503e+00 5.476838e+00 7.681401e+00 5.784966e+00 6.712724e+00 8.605216e+00 9.351253e+00 1.001865e+01 1.074641e+01 1.266140e+01 1.037436e+01 1.257786e+01 1.650960e+00
<GCONST> 5.023501e+01
<MIXTURE> 2 6.468712e-02
<MEAN> 13
 -4.099941e+00 -3.114146e+00 -3.359355e+00 -1.787475e+00 3.404515e+00 6.301415e+00 6.330156e+00 2.297631e+00 6.546906e-01 2.586646e+00 2.773393e+00 -1.066840e+00 5.031023e+01
<VARIANCE> 13
 6.008862e+00 5.253930e+00 5.055769e+00 5.737947e+00 7.561008e+00 9.958519e+00 9.986535e+00 1.093027e+01 1.042088e+01 1.121170e+01 1.039760e+01 1.096175e+01 1.819269e+00
<GCONST> 4.982164e+01
<MIXTURE> 3 6.468712e-02
<MEAN> 13
 -4.099941e+00 -3.114146e+00 -3.359355e+00 -1.787475e+00 3.404515e+00 6.301415e+00 6.330156e+00 2.297631e+00 6.546906e-01 2.586646e+00 2.773393e+00 -1.066840e+00 5.031023e+01
<VARIANCE> 13
 6.008862e+00 5.253930e+00 5.055769e+00 5.737947e+00 7.561008e+00 9.958519e+00 9.986535e+00 1.093027e+01 1.042088e+01 1.121170e+01 1.039760e+01 1.096175e+01 1.819269e+00
<GCONST> 4.982164e+01
<MIXTURE> 4 7.202647e-02
<MEAN> 13
 -3.659772e+00 -3.792139e+00 -3.722899e+00 -2.788390e+00 1.770321e+00 4.423624e+00 4.465133e+00 7.609169e-01 -6.988240e-01 1.076545e+00 1.385977e+00 -1.974064e+00 5.028206e+01
<VARIANCE> 13
 5.167839e+00 4.771422e+00 5.445488e+00 6.431425e+00 8.816181e+00 1.129572e+01 1.199268e+01 1.242105e+01 1.198625e+01 1.178031e+01 1.092831e+01 1.089418e+01 2.365834e+00
<GCONST> 5.084909e+01
<MIXTURE> 5 6.468712e-02
<MEAN> 13
 -4.099941e+00 -3.114146e+00 -3.359355e+00 -1.787475e+00 3.404515e+00 6.301415e+00 6.330156e+00 2.297631e+00 6.546906e-01 2.586646e+00 2.773393e+00 -1.066840e+00 5.031023e+01
<VARIANCE> 13
 6.008862e+00 5.253930e+00 5.055769e+00 5.737947e+00 7.561008e+00 9.958519e+00 9.986535e+00 1.093027e+01 1.042088e+01 1.121170e+01 1.039760e+01 1.096175e+01 1.819269e+00
<GCONST> 4.982164e+01
<MIXTURE> 6 7.202647e-02
<MEAN> 13
 -3.659772e+00 -3.792139e+00 -3.722899e+00 -2.788390e+00 1.770321e+00 4.423624e+00 4.465133e+00 7.609169e-01 -6.988240e-01 1.076545e+00 1.385977e+00 -1.974064e+00 5.028206e+01
<VARIANCE> 13
 5.167839e+00 4.771422e+00 5.445488e+00 6.431425e+00 8.816181e+00 1.129572e+01 1.199268e+01 1.242105e+01 1.198625e+01 1.178031e+01 1.092831e+01 1.089418e+01 2.365834e+00
<GCONST> 5.084909e+01
<MIXTURE> 7 7.202647e-02
<MEAN> 13
 -3.659772e+00 -3.792139e+00 -3.722899e+00 -2.788390e+00 1.770321e+00 4.423624e+00 4.465133e+00 7.609169e-01 -6.988240e-01 1.076545e+00 1.385977e+00 -1.974064e+00 5.028206e+01
<VARIANCE> 13
 5.167839e+00 4.771422e+00 5.445488e+00 6.431425e+00 8.816181e+00 1.129572e+01 1.199268e+01 1.242105e+01 1.198625e+01 1.178031e+01 1.092831e+01 1.089418e+01 2.365834e+00
<GCONST> 5.084909e+01
<MIXTURE> 8 5.853606e-02
<MEAN> 13
 -3.503451e+00 -4.478883e+00 -4.093968e+00 -4.047213e+00 -2.408272e-01 2.367638e+00 2.190344e+00 -9.631073e-01 -1.788943e+00 -2.969458e-01 1.781426e-01 -2.880391e+00 5.053280e+01
<VARIANCE> 13
 5.353597e+00 5.264748e+00 8.410779e+00 7.894723e+00 1.106501e+01 1.489770e+01 1.666916e+01 1.720871e+01 1.630592e+01 1.426037e+01 1.136506e+01 1.523477e+01 5.081541e+00
<GCONST> 5.441964e+01
<MIXTURE> 9 6.468712e-02
<MEAN> 13
 -4.099941e+00 -3.114146e+00 -3.359355e+00 -1.787475e+00 3.404515e+00 6.301415e+00 6.330156e+00 2.297631e+00 6.546906e-01 2.586646e+00 2.773393e+00 -1.066840e+00 5.031023e+01
<VARIANCE> 13
 6.008862e+00 5.253930e+00 5.055769e+00 5.737947e+00 7.561008e+00 9.958519e+00 9.986535e+00 1.093027e+01 1.042088e+01 1.121170e+01 1.039760e+01 1.096175e+01 1.819269e+00
<GCONST> 4.982164e+01
<MIXTURE> 10 7.202647e-02
<MEAN> 13
 -3.659772e+00 -3.792139e+00 -3.722899e+00 -2.788390e+00 1.770321e+00 4.423624e+00 4.465133e+00 7.609169e-01 -6.988240e-01 1.076545e+00 1.385977e+00 -1.974064e+00 5.028206e+01
<VARIANCE> 13
 5.167839e+00 4.771422e+00 5.445488e+00 6.431425e+00 8.816181e+00 1.129572e+01 1.199268e+01 1.242105e+01 1.198625e+01 1.178031e+01 1.092831e+01 1.089418e+01 2.365834e+00
<GCONST> 5.084909e+01
<MIXTURE> 11 7.202647e-02
<MEAN> 13
 -3.659772e+00 -3.792139e+00 -3.722899e+00 -2.788390e+00 1.770321e+00 4.423624e+00 4.465133e+00 7.609169e-01 -6.988240e-01 1.076545e+00 1.385977e+00 -1.974064e+00 5.028206e+01
<VARIANCE> 13
 5.167839e+00 4.771422e+00 5.445488e+00 6.431425e+00 8.816181e+00 1.129572e+01 1.199268e+01 1.242105e+01 1.198625e+01 1.178031e+01 1.092831e+01 1.089418e+01 2.365834e+00
<GCONST> 5.084909e+01
<MIXTURE> 12 5.853601e-02
<MEAN> 13
 -3.503450e+00 -4.478884e+00 -4.093968e+00 -4.047213e+00 -2.408268e-01 2.367639e+00 2.190344e+00 -9.631075e-01 -1.788944e+00 -2.969458e-01 1.781428e-01 -2.880391e+00 5.053280e+01
<VARIANCE> 13
 5.353595e+00 5.264746e+00 8.410773e+00 7.894725e+00 1.106501e+01 1.489769e+01 1.666917e+01 1.720869e+01 1.630593e+01 1.426037e+01 1.136506e+01 1.523477e+01 5.081536e+00
<GCONST> 5.441964e+01
<MIXTURE> 13 7.202647e-02
<MEAN> 13
 -3.659772e+00 -3.792139e+00 -3.722899e+00 -2.788390e+00 1.770321e+00 4.423624e+00 4.465133e+00 7.609169e-01 -6.988240e-01 1.076545e+00 1.385977e+00 -1.974064e+00 5.028206e+01
<VARIANCE> 13
 5.167839e+00 4.771422e+00 5.445488e+00 6.431425e+00 8.816181e+00 1.129572e+01 1.199268e+01 1.242105e+01 1.198625e+01 1.178031e+01 1.092831e+01 1.089418e+01 2.365834e+00
<GCONST> 5.084909e+01
<MIXTURE> 14 5.853601e-02
<MEAN> 13
 -3.503450e+00 -4.478884e+00 -4.093968e+00 -4.047213e+00 -2.408268e-01 2.367639e+00 2.190344e+00 -9.631075e-01 -1.788944e+00 -2.969458e-01 1.781428e-01 -2.880391e+00 5.053280e+01
<VARIANCE> 13
 5.353595e+00 5.264746e+00 8.410773e+00 7.894725e+00 1.106501e+01 1.489769e+01 1.666917e+01 1.720869e+01 1.630593e+01 1.426037e+01 1.136506e+01 1.523477e+01 5.081536e+00
<GCONST> 5.441964e+01
<MIXTURE> 15 5.853608e-02
<MEAN> 13
 -3.503451e+00 -4.478882e+00 -4.093968e+00 -4.047212e+00 -2.408279e-01 2.367638e+00 2.190344e+00 -9.631072e-01 -1.788944e+00 -2.969466e-01 1.781424e-01 -2.880391e+00 5.053280e+01
<VARIANCE> 13
 5.353600e+00 5.264747e+00 8.410778e+00 7.894725e+00 1.106502e+01 1.489770e+01 1.666917e+01 1.720871e+01 1.630592e+01 1.426037e+01 1.136506e+01 1.523477e+01 5.081542e+00
<GCONST> 5.441964e+01
<MIXTURE> 16 4.184397e-02
<MEAN> 13
 -3.409277e+00 -5.300089e+00 -5.090820e+00 -5.735442e+00 -2.853859e+00 1.575064e-01 -4.565065e-02 -1.869144e+00 -2.146377e+00 -1.363193e+00 -7.050129e-01 -4.272546e+00 5.080419e+01
<VARIANCE> 13
 5.140032e+00 6.141090e+00 1.110970e+01 1.053478e+01 1.701910e+01 2.141111e+01 1.800746e+01 2.224474e+01 2.460703e+01 2.075241e+01 1.195402e+01 2.239369e+01 1.067207e+01
<GCONST> 5.819128e+01
<STATE> 3
<NUMMIXES> 16
<MIXTURE> 1 3.185663e-02
<MEAN> 13
 -5.335988e+00 1.734149e+00 3.039664e-01 9.500195e-01 1.941837e+00 5.152129e+00 7.327263e+00 5.323469e+00 2.624569e+00 4.733474e+00 3.231422e+00 -7.210341e-01 4.437941e+01
<VARIANCE> 13
 3.350949e+00 3.010299e+00 5.234250e+00 5.204788e+00 7.112592e+00 8.562474e+00 9.212459e+00 9.262443e+00 9.785032e+00 1.069784e+01 1.019430e+01 8.527610e+00 2.046752e+00
<GCONST> 4.789656e+01
<MIXTURE> 2 6.345346e-02
<MEAN> 13
 -5.968000e+00 1.777888e+00 -5.437291e-01 2.204005e-01 1.168493e+00 3.914838e+00 5.828200e+00 3.609585e+00 1.320157e+00 3.026351e+00 1.834405e+00 -1.332408e+00 4.518467e+01
<VARIANCE> 13
 6.499785e+00 4.333865e+00 5.159261e+00 6.271078e+00 8.667335e+00 9.336198e+00 9.751924e+00 1.057293e+01 1.121209e+01 1.112000e+01 1.002677e+01 9.650817e+00 4.245302e+00
<GCONST> 5.058045e+01
<MIXTURE> 3 6.345351e-02
<MEAN> 13
 -5.968000e+00 1.777888e+00 -5.437287e-01 2.204009e-01 1.168494e+00 3.914838e+00 5.828200e+00 3.609585e+00 1.320156e+00 3.026351e+00 1.834405e+00 -1.332408e+00 4.518467e+01
<VARIANCE> 13
 6.499788e+00 4.333865e+00 5.159262e+00 6.271080e+00 8.667335e+00 9.336204e+00 9.751921e+00 1.057293e+01 1.121209e+01 1.112000e+01 1.002677e+01 9.650818e+00 4.245302e+00
<GCONST> 5.058045e+01
<MIXTURE> 4 7.426225e-02
<MEAN> 13
 -6.650537e+00 1.401563e+00 -1.320196e+00 -7.702281e-01 3.055719e-01 2.395475e+00 4.174814e+00 1.846325e+00 5.055918e-02 1.575582e+00 7.243554e-01 -1.776282e+00 4.605407e+01
<VARIANCE> 13
 9.067614e+00 6.177820e+00 5.394572e+00 6.965638e+00 9.708730e+00 1.038289e+01 1.059809e+01 1.186947e+01 1.146020e+01 1.162069e+01 1.081929e+01 1.099881e+01 7.228501e+00
<GCONST> 5.264110e+01
<MIXTURE> 5 6.345351e-02
<MEAN> 13
 -5.968000e+00 1.777888e+00 -5.437287e-01 2.204009e-01 1.168494e+00 3.914838e+00 5.828200e+00 3.609585e+00 1.320156e+00 3.026351e+00 1.834405e+00 -1.332408e+00 4.518467e+01
<VARIANCE> 13
 6.499788e+00 4.333865e+00 5.159262e+00 6.271080e+00 8.667335e+00 9.336204e+00 9.751921e+00 1.057293e+01 1.121209e+01 1.112000e+01 1.002677e+01 9.650818e+00 4.245302e+00
<GCONST> 5.058045e+01
<MIXTURE> 6 7.426225e-02
<MEAN> 13
 -6.650537e+00 1.401563e+00 -1.320196e+00 -7.702281e-01 3.055719e-01 2.395475e+00 4.174814e+00 1.846325e+00 5.055921e-02 1.575582e+00 7.243554e-01 -1.776282e+00 4.605407e+01
<VARIANCE> 13
 9.067614e+00 6.177820e+00 5.394572e+00 6.965638e+00 9.708730e+00 1.038289e+01 1.059809e+01 1.186947e+01 1.146020e+01 1.162069e+01 1.081929e+01 1.099881e+01 7.228501e+00
<GCONST> 5.264110e+01
<MIXTURE> 7 7.426225e-02
<MEAN> 13
 -6.650537e+00 1.401563e+00 -1.320196e+00 -7.702282e-01 3.055717e-01 2.395475e+00 4.174814e+00 1.846325e+00 5.055911e-02 1.575582e+00 7.243554e-01 -1.776282e+00 4.605407e+01
<VARIANCE> 13
 9.067614e+00 6.177819e+00 5.394571e+00 6.965637e+00 9.708729e+00 1.038289e+01 1.059809e+01 1.186947e+01 1.146020e+01 1.162069e+01 1.081929e+01 1.099881e+01 7.228500e+00
<GCONST> 5.264111e+01
<MIXTURE> 8 5.659899e-02
<MEAN> 13
 -7.838748e+00 5.058307e-01 -2.070507e+00 -1.827116e+00 -3.170037e-01 4.853941e-01 2.172383e+00 2.026504e-01 -1.218461e+00 2.003227e-02 -3.748346e-01 -2.090275e+00 4.764814e+01
<VARIANCE> 13
 1.239543e+01 9.756229e+00 6.469180e+00 7.700388e+00 1.200294e+01 1.279866e+01 1.213494e+01 1.298966e+01 1.245309e+01 1.336738e+01 1.268570e+01 1.235327e+01 1.381461e+01
<GCONST> 5.548560e+01
<MIXTURE> 9 6.345352e-02
<MEAN> 13
 -5.968000e+00 1.777888e+00 -5.437288e-01 2.204007e-01 1.168493e+00 3.914838e+00 5.828200e+00 3.609586e+00 1.320157e+00 3.026351e+00 1.834405e+00 -1.332408e+00 4.518467e+01
<VARIANCE> 13
 6.499786e+00 4.333864e+00 5.159261e+00 6.271079e+00 8.667336e+00 9.336204e+00 9.751920e+00 1.057293e+01 1.121209e+01 1.112000e+01 1.002677e+01 9.650816e+00 4.245303e+00
<GCONST> 5.058045e+01
<MIXTURE> 10 7.426225e-02
<MEAN> 13
 -6.650537e+00 1.401563e+00 -1.320196e+00 -7.702282e-01 3.055717e-01 2.395475e+00 4.174814e+00 1.846325e+00 5.055911e-02 1.575582e+00 7.243554e-01 -1.776282e+00 4.605407e+01
<VARIANCE> 13
 9.067614e+00 6.177819e+00 5.394571e+00 6.965637e+00 9.708729e+00 1.038289e+01 1.059809e+01 1.186947e+01 1.146020e+01 1.162069e+01 1.081929e+01 1.099881e+01 7.228500e+00
<GCONST> 5.264111e+01
<MIXTURE> 11 7.426221e-02
<MEAN> 13
 -6.650537e+00 1.401563e+00 -1.320196e+00 -7.702282e-01 3.055717e-01 2.395475e+00 4.174814e+00 1.846325e+00 5.055911e-02 1.575582e+00 7.243554e-01 -1.776282e+00 4.605407e+01
<VARIANCE> 13
 9.067612e+00 6.177820e+00 5.394571e+00 6.965634e+00 9.708727e+00 1.038288e+01 1.059809e+01 1.186947e+01 1.146020e+01 1.162069e+01 1.081929e+01 1.099881e+01 7.228499e+00
<GCONST> 5.264109e+01
<MIXTURE> 12 5.659899e-02
<MEAN> 13
 -7.838748e+00 5.058307e-01 -2.070507e+00 -1.827116e+00 -3.170037e-01 4.853941e-01 2.172383e+00 2.026504e-01 -1.218461e+00 2.003227e-02 -3.748346e-01 -2.090275e+00 4.764814e+01
<VARIANCE> 13
 1.239543e+01 9.756229e+00 6.469180e+00 7.700388e+00 1.200294e+01 1.279866e+01 1.213494e+01 1.298966e+01 1.245309e+01 1.336738e+01 1.268570e+01 1.235327e+01 1.381461e+01
<GCONST> 5.548560e+01
<MIXTURE> 13 7.426221e-02
<MEAN> 13
 -6.650537e+00 1.401563e+00 -1.320196e+00 -7.702283e-01 3.055716e-01 2.395475e+00 4.174814e+00 1.846325e+00 5.055907e-02 1.575582e+00 7.243553e-01 -1.776282e+00 4.605407e+01
<VARIANCE> 13
 9.067611e+00 6.177817e+00 5.394569e+00 6.965634e+00 9.708725e+00 1.038288e+01 1.059808e+01 1.186947e+01 1.146019e+01 1.162069e+01 1.081929e+01 1.099880e+01 7.228498e+00
<GCONST> 5.264109e+01
<MIXTURE> 14 5.659899e-02
<MEAN> 13
 -7.838748e+00 5.058307e-01 -2.070507e+00 -1.827116e+00 -3.170037e-01 4.853941e-01 2.172383e+00 2.026504e-01 -1.218461e+00 2.003227e-02 -3.748346e-01 -2.090275e+00 4.764814e+01
<VARIANCE> 13
 1.239543e+01 9.756229e+00 6.469180e+00 7.700388e+00 1.200294e+01 1.279866e+01 1.213494e+01 1.298966e+01 1.245309e+01 1.336738e+01 1.268570e+01 1.235327e+01 1.381461e+01
<GCONST> 5.548560e+01
<MIXTURE> 15 5.659899e-02
<MEAN> 13
 -7.838748e+00 5.058305e-01 -2.070507e+00 -1.827116e+00 -3.170040e-01 4.853939e-01 2.172383e+00 2.026504e-01 -1.218461e+00 2.003236e-02 -3.748345e-01 -2.090275e+00 4.764814e+01
<VARIANCE> 13
 1.239543e+01 9.756228e+00 6.469179e+00 7.700387e+00 1.200294e+01 1.279865e+01 1.213494e+01 1.298966e+01 1.245309e+01 1.336738e+01 1.268570e+01 1.235327e+01 1.381461e+01
<GCONST> 5.548560e+01
<MIXTURE> 16 4.236928e-02
<MEAN> 13
 -9.670212e+00 -1.039451e+00 -2.525172e+00 -3.482311e+00 -9.097962e-01 -2.278435e+00 -1.595974e-01 -1.265286e+00 -2.590512e+00 -1.792325e+00 -1.765202e+00 -2.546152e+00 5.075097e+01
<VARIANCE> 13
 2.113996e+01 1.356213e+01 1.079177e+01 1.238973e+01 2.029351e+01 1.488164e+01 1.400970e+01 1.745893e+01 1.318254e+01 2.038319e+01 1.261928e+01 1.529197e+01 3.254176e+01
<GCONST> 5.999521e+01
<STATE> 4
<NUMMIXES> 16
<MIXTURE> 1 7.421160e-02
<MEAN> 13
 -5.752007e+00 -1.914753e+00 1.282921e-01 1.774882e-01 2.741161e+00 2.162234e+00 5.014160e+00 4.115528e+00 5.958368e-01 2.306431e+00 2.865939e+00 -1.895367e+00 4.663670e+01
<VARIANCE> 13
 6.099147e+00 2.012247e+01 1.076361e+01 1.880176e+01 1.382006e+01 1.521100e+01 1.551264e+01 1.748186e+01 1.397220e+01 1.352257e+01 1.201660e+01 1.241835e+01 1.618830e+01
<GCONST> 5.799466e+01
<MIXTURE> 2 6.652530e-02
<MEAN> 13
 -7.316417e+00 -5.850369e+00 -1.225208e+00 1.839940e+00 2.670198e+00 -5.629515e-01 4.008809e+00 6.980951e-01 -1.781060e+00 3.419466e-01 1.636147e+00 -1.750328e+00 5.072727e+01
<VARIANCE> 13
 1.234832e+01 3.608775e+01 1.456422e+01 2.271019e+01 2.026482e+01 2.206761e+01 1.826291e+01 2.236869e+01 1.790943e+01 1.664351e+01 1.429479e+01 1.414183e+01 3.324291e+01
<GCONST> 6.241901e+01
<MIXTURE> 3 6.652531e-02
<MEAN> 13
 -7.316417e+00 -5.850368e+00 -1.225208e+00 1.839940e+00 2.670198e+00 -5.629523e-01 4.008808e+00 6.980952e-01 -1.781061e+00 3.419459e-01 1.636148e+00 -1.750327e+00 5.072727e+01
<VARIANCE> 13
 1.234832e+01 3.608776e+01 1.456422e+01 2.271019e+01 2.026482e+01 2.206761e+01 1.826292e+01 2.236869e+01 1.790943e+01 1.664352e+01 1.429479e+01 1.414183e+01 3.324294e+01
<GCONST> 6.241901e+01
<MIXTURE> 4 5.498796e-02
<MEAN> 13
 -1.106762e+01 -1.287122e+01 -5.260332e+00 2.129153e+00 9.023828e-01 -5.497083e+00 2.170352e+00 -3.372205e+00 -4.261157e+00 -1.440952e+00 1.022519e+00 -8.861322e-01 6.185461e+01
<VARIANCE> 13
 2.225779e+01 3.664723e+01 2.325487e+01 2.337512e+01 3.444080e+01 2.705411e+01 2.440738e+01 2.408547e+01 2.239259e+01 2.056169e+01 1.723595e+01 1.545075e+01 5.888863e+01
<GCONST> 6.590066e+01
<MIXTURE> 5 6.652531e-02
<MEAN> 13
 -7.316417e+00 -5.850368e+00 -1.225208e+00 1.839940e+00 2.670198e+00 -5.629523e-01 4.008808e+00 6.980952e-01 -1.781061e+00 3.419459e-01 1.636148e+00 -1.750327e+00 5.072727e+01
<VARIANCE> 13
 1.234832e+01 3.608776e+01 1.456422e+01 2.271019e+01 2.026482e+01 2.206761e+01 1.826292e+01 2.236869e+01 1.790943e+01 1.664352e+01 1.429479e+01 1.414183e+01 3.324294e+01
<GCONST> 6.241901e+01
<MIXTURE> 6 5.498796e-02
<MEAN> 13
 -1.106762e+01 -1.287122e+01 -5.260332e+00 2.129153e+00 9.023828e-01 -5.497083e+00 2.170352e+00 -3.372205e+00 -4.261157e+00 -1.440952e+00 1.022519e+00 -8.861322e-01 6.185461e+01
<VARIANCE> 13
 2.225779e+01 3.664723e+01 2.325487e+01 2.337512e+01 3.444080e+01 2.705411e+01 2.440738e+01 2.408547e+01 2.239259e+01 2.056169e+01 1.723595e+01 1.545075e+01 5.888863e+01
<GCONST> 6.590066e+01
<MIXTURE> 7 5.498794e-02
<MEAN> 13
 -1.106762e+01 -1.287122e+01 -5.260332e+00 2.129153e+00 9.023818e-01 -5.497083e+00 2.170351e+00 -3.372205e+00 -4.261158e+00 -1.440952e+00 1.022519e+00 -8.861327e-01 6.185461e+01
<VARIANCE> 13
 2.225778e+01 3.664721e+01 2.325487e+01 2.337511e+01 3.444078e+01 2.705410e+01 2.440737e+01 2.408546e+01 2.239258e+01 2.056169e+01 1.723594e+01 1.545074e+01 5.888861e+01
<GCONST> 6.590066e+01
<MIXTURE> 8 7.135858e-02
<MEAN> 13
 -1.359117e+01 -1.638437e+01 -9.584210e+00 2.270355e-01 -2.345809e+00 -8.840715e+00 -6.382731e-03 -4.449784e+00 -5.705285e+00 -2.953006e+00 -4.598391e-01 -1.705408e+00 7.256188e+01
<VARIANCE> 13
 1.807114e+01 2.822967e+01 2.155185e+01 2.351496e+01 3.727480e+01 2.518387e+01 2.645338e+01 2.245770e+01 2.338558e+01 2.155714e+01 1.797925e+01 1.548215e+01 5.465318e+01
<GCONST> 6.543947e+01
<MIXTURE> 9 6.652533e-02
<MEAN> 13
 -7.316417e+00 -5.850367e+00 -1.225209e+00 1.839939e+00 2.670198e+00 -5.629520e-01 4.008808e+00 6.980955e-01 -1.781061e+00 3.419462e-01 1.636147e+00 -1.750327e+00 5.072727e+01
<VARIANCE> 13
 1.234832e+01 3.608776e+01 1.456422e+01 2.271019e+01 2.026482e+01 2.206761e+01 1.826292e+01 2.236869e+01 1.790943e+01 1.664352e+01 1.429479e+01 1.414183e+01 3.324294e+01
<GCONST> 6.241901e+01
<MIXTURE> 10 5.498794e-02
<MEAN> 13
 -1.106762e+01 -1.287122e+01 -5.260332e+00 2.129153e+00 9.023818e-01 -5.497083e+00 2.170351e+00 -3.372205e+00 -4.261158e+00 -1.440952e+00 1.022519e+00 -8.861327e-01 6.185461e+01
<VARIANCE> 13
 2.225778e+01 3.664721e+01 2.325487e+01 2.337511e+01 3.444078e+01 2.705410e+01 2.440737e+01 2.408546e+01 2.239258e+01 2.056169e+01 1.723594e+01 1.545074e+01 5.888861e+01
<GCONST> 6.590066e+01
<MIXTURE> 11 5.498794e-02
<MEAN> 13
 -1.106762e+01 -1.287122e+01 -5.260332e+00 2.129153e+00 9.023818e-01 -5.497083e+00 2.170351e+00 -3.372205e+00 -4.261158e+00 -1.440952e+00 1.022519e+00 -8.861327e-01 6.185461e+01
<VARIANCE> 13
 2.225778e+01 3.664721e+01 2.325487e+01 2.337511e+01 3.444078e+01 2.705410e+01 2.440737e+01 2.408546e+01 2.239258e+01 2.056169e+01 1.723594e+01 1.545074e+01 5.888861e+01
<GCONST> 6.590066e+01
<MIXTURE> 12 7.135858e-02
<MEAN> 13
 -1.359117e+01 -1.638437e+01 -9.584210e+00 2.270355e-01 -2.345809e+00 -8.840715e+00 -6.382731e-03 -4.449784e+00 -5.705285e+00 -2.953006e+00 -4.598391e-01 -1.705408e+00 7.256188e+01
<VARIANCE> 13
 1.807114e+01 2.822967e+01 2.155185e+01 2.351496e+01 3.727480e+01 2.518387e+01 2.645338e+01 2.245770e+01 2.338558e+01 2.155714e+01 1.797925e+01 1.548215e+01 5.465318e+01
<GCONST> 6.543947e+01
<MIXTURE> 13 5.498794e-02
<MEAN> 13
 -1.106762e+01 -1.287122e+01 -5.260332e+00 2.129153e+00 9.023818e-01 -5.497083e+00 2.170351e+00 -3.372205e+00 -4.261158e+00 -1.440952e+00 1.022519e+00 -8.861327e-01 6.185461e+01
<VARIANCE> 13
 2.225778e+01 3.664721e+01 2.325487e+01 2.337511e+01 3.444078e+01 2.705410e+01 2.440737e+01 2.408546e+01 2.239258e+01 2.056169e+01 1.723594e+01 1.545074e+01 5.888861e+01
<GCONST> 6.590066e+01
<MIXTURE> 14 7.135858e-02
<MEAN> 13
 -1.359117e+01 -1.638437e+01 -9.584210e+00 2.270355e-01 -2.345809e+00 -8.840715e+00 -6.382731e-03 -4.449784e+00 -5.705285e+00 -2.953006e+00 -4.598391e-01 -1.705408e+00 7.256188e+01
<VARIANCE> 13
 1.807114e+01 2.822967e+01 2.155185e+01 2.351496e+01 3.727480e+01 2.518387e+01 2.645338e+01 2.245770e+01 2.338558e+01 2.155714e+01 1.797925e+01 1.548215e+01 5.465318e+01
<GCONST> 6.543947e+01
<MIXTURE> 15 7.135885e-02
<MEAN> 13
 -1.359117e+01 -1.638437e+01 -9.584214e+00 2.270358e-01 -2.345812e+00 -8.840717e+00 -6.383190e-03 -4.449783e+00 -5.705284e+00 -2.953006e+00 -4.598386e-01 -1.705409e+00 7.256189e+01
<VARIANCE> 13
 1.807114e+01 2.822969e+01 2.155183e+01 2.351495e+01 3.727480e+01 2.518386e+01 2.645341e+01 2.245769e+01 2.338557e+01 2.155715e+01 1.797925e+01 1.548214e+01 5.465318e+01
<GCONST> 6.543947e+01
<MIXTURE> 16 4.414597e-02
<MEAN> 13
 -1.443411e+01 -1.698423e+01 -1.180077e+01 -6.547883e-01 -3.089399e+00 -1.104906e+01 -2.445835e+00 -4.158935e+00 -6.634881e+00 -5.024148e+00 -2.384847e+00 -2.791541e+00 7.770370e+01
<VARIANCE> 13
 1.344917e+01 2.237008e+01 1.938814e+01 2.441465e+01 3.354007e+01 2.334483e+01 2.909797e+01 2.112966e+01 2.466512e+01 2.075745e+01 1.741096e+01 1.443501e+01 3.386584e+01
<GCONST> 6.413081e+01
<TRANSP> 5
 0.000000e+00 1.000000e+00 0.000000e+00 0.000000e+00 0.000000e+00
 0.000000e+00 9.781225e-01 2.187754e-02 0.000000e+00 0.000000e+00
 0.000000e+00 0.000000e+00 9.862230e-01 1.377705e-02 0.000000e+00
 0.000000e+00 0.000000e+00 0.000000e+00 9.966282e-01 3.371788e-03
 0.000000e+00 0.000000e+00 0.000000e+00 0.000000e+00 0.000000e+00
<ENDHMM>
~h "cl"
<BEGINHMM>
<NUMSTATES> 5
<STATE> 2
<NUMMIXES> 16
<MIXTURE> 1 8.219760e-03
<MEAN> 13
 -7.604799e+00 -1.072944e+00 1.667597e+00 -2.220138e+00 2.158382e+00 3.265906e+00 5.192557e+00 5.132503e+00 2.051864e+00 6.226420e-02 1.429323e+00 -6.212681e-01 4.736627e+01
<VARIANCE> 13
 2.304551e+01 1.909511e+01 2.809068e+01 3.299601e+01 2.709543e+01 3.885589e+01 1.460397e+01 3.745263e+01 2.566267e+01 5.420084e+01 5.088737e+01 3.131509e+01 1.739533e+01
<GCONST> 6.754237e+01
<MIXTURE> 2 5.761430e-02
<MEAN> 13
 -9.489800e+00 -2.483142e+00 2.591429e+00 -2.979273e+00 3.116904e+00 1.285012e+00 4.221467e+00 5.453885e+00 1.569785e+00 -1.707430e+00 9.941974e-01 1.350442e-01 4.897698e+01
<VARIANCE> 13
 3.676867e+01 2.803008e+01 3.744683e+01 5.290644e+01 4.769858e+01 5.386931e+01 1.914271e+01 4.730592e+01 3.469614e+01 7.504230e+01 7.251476e+01 5.394378e+01 2.537477e+01
<GCONST> 7.245197e+01
<MIXTURE> 3 5.761430e-02
<MEAN> 13
 -9.489800e+00 -2.483142e+00 2.591429e+00 -2.979273e+00 3.116904e+00 1.285012e+00 4.221467e+00 5.453885e+00 1.569785e+00 -1.707430e+00 9.941974e-01 1.350442e-01 4.897698e+01
<VARIANCE> 13
 3.676867e+01 2.803008e+01 3.744683e+01 5.290644e+01 4.769858e+01 5.386931e+01 1.914271e+01 4.730592e+01 3.469614e+01 7.504230e+01 7.251476e+01 5.394378e+01 2.537477e+01
<GCONST> 7.245197e+01
<MIXTURE> 4 9.630602e-02
<MEAN> 13
 -1.198719e+01 -4.778792e+00 3.826729e+00 -4.748965e+00 4.697233e+00 -3.347523e-01 2.777331e+00 5.370322e+00 4.624780e-01 -2.875512e+00 -3.054595e-01 1.354007e+00 5.150940e+01
<VARIANCE> 13
 5.288618e+01 3.788356e+01 4.312156e+01 5.264934e+01 6.711752e+01 5.948213e+01 2.662535e+01 5.529797e+01 3.788171e+01 7.331533e+01 7.064478e+01 7.575333e+01 3.507522e+01
<GCONST> 7.488134e+01
<MIXTURE> 5 5.761430e-02
<MEAN> 13
 -9.489800e+00 -2.483142e+00 2.591429e+00 -2.979273e+00 3.116904e+00 1.285012e+00 4.221467e+00 5.453885e+00 1.569785e+00 -1.707430e+00 9.941974e-01 1.350442e-01 4.897698e+01
<VARIANCE> 13
 3.676867e+01 2.803008e+01 3.744683e+01 5.290644e+01 4.769858e+01 5.386931e+01 1.914271e+01 4.730592e+01 3.469614e+01 7.504230e+01 7.251476e+01 5.394378e+01 2.537477e+01
<GCONST> 7.245197e+01
<MIXTURE> 6 9.630602e-02
<MEAN> 13
 -1.198719e+01 -4.778792e+00 3.826731e+00 -4.748966e+00 4.697234e+00 -3.347532e-01 2.777330e+00 5.370324e+00 4.624785e-01 -2.875513e+00 -3.054608e-01 1.354008e+00 5.150940e+01
<VARIANCE> 13
 5.288618e+01 3.788356e+01 4.312156e+01 5.264933e+01 6.711752e+01 5.948212e+01 2.662535e+01 5.529799e+01 3.788169e+01 7.331530e+01 7.064477e+01 7.575333e+01 3.507522e+01
<GCONST> 7.488134e+01
<MIXTURE> 7 9.630602e-02
<MEAN> 13
 -1.198719e+01 -4.778792e+00 3.826731e+00 -4.748966e+00 4.697234e+00 -3.347532e-01 2.777330e+00 5.370324e+00 4.624785e-01 -2.875513e+00 -3.054608e-01 1.354008e+00 5.150940e+01
<VARIANCE> 13
 5.288618e+01 3.788356e+01 4.312156e+01 5.264933e+01 6.711752e+01 5.948212e+01 2.662535e+01 5.529799e+01 3.788169e+01 7.331530e+01 7.064477e+01 7.575333e+01 3.507522e+01
<GCONST> 7.488134e+01
<MIXTURE> 8 4.156855e-02
<MEAN> 13
 -1.239841e+01 -7.445596e+00 2.971040e+00 -5.681807e+00 4.297852e+00 -9.731652e-01 -3.798650e-01 2.162892e+00 -1.648462e+00 -2.454426e+00 -1.486018e+00 -5.376983e-03 5.473346e+01
<VARIANCE> 13
 6.433781e+01 4.182430e+01 4.410048e+01 3.323769e+01 7.932644e+01 5.145820e+01 4.468635e+01 6.181124e+01 4.487674e+01 6.781730e+01 4.833127e+01 7.460384e+01 4.506416e+01
<GCONST> 7.533738e+01
<MIXTURE> 9 5.761426e-02
<MEAN> 13
 -9.489798e+00 -2.483140e+00 2.591430e+00 -2.979278e+00 3.116905e+00 1.285017e+00 4.221466e+00 5.453884e+00 1.569782e+00 -1.707423e+00 9.941900e-01 1.350450e-01 4.897697e+01
<VARIANCE> 13
 3.676868e+01 2.803009e+01 3.744682e+01 5.290636e+01 4.769857e+01 5.386926e+01 1.914272e+01 4.730593e+01 3.469611e+01 7.504218e+01 7.251464e+01 5.394375e+01 2.537479e+01
<GCONST> 7.245196e+01
<MIXTURE> 10 9.630602e-02
<MEAN> 13
 -1.198719e+01 -4.778792e+00 3.826731e+00 -4.748966e+00 4.697234e+00 -3.347532e-01 2.777330e+00 5.370324e+00 4.624785e-01 -2.875513e+00 -3.054608e-01 1.354008e+00 5.150940e+01
<VARIANCE> 13
 5.288618e+01 3.788356e+01 4.312156e+01 5.264933e+01 6.711752e+01 5.948212e+01 2.662535e+01 5.529799e+01 3.788169e+01 7.331530e+01 7.064477e+01 7.575333e+01 3.507522e+01
<GCONST> 7.488134e+01
<MIXTURE> 11 9.630602e-02
<MEAN> 13
 -1.198719e+01 -4.778792e+00 3.826731e+00 -4.748966e+00 4.697234e+00 -3.347532e-01 2.777330e+00 5.370324e+00 4.624785e-01 -2.875513e+00 -3.054608e-01 1.354008e+00 5.150940e+01
<VARIANCE> 13
 5.288618e+01 3.788356e+01 4.312156e+01 5.264933e+01 6.711752e+01 5.948212e+01 2.662535e+01 5.529799e+01 3.788169e+01 7.331530e+01 7.064477e+01 7.575333e+01 3.507522e+01
<GCONST> 7.488134e+01
<MIXTURE> 12 4.156852e-02
<MEAN> 13
 -1.239841e+01 -7.445595e+00 2.971038e+00 -5.681808e+00 4.297850e+00 -9.731645e-01 -3.798668e-01 2.162892e+00 -1.648462e+00 -2.454423e+00 -1.486019e+00 -5.378110e-03 5.473346e+01
<VARIANCE> 13
 6.433783e+01 4.182431e+01 4.410049e+01 3.323766e+01 7.932643e+01 5.145816e+01 4.468632e+01 6.181120e+01 4.487669e+01 6.781725e+01 4.833121e+01 7.460380e+01 4.506415e+01
<GCONST> 7.533737e+01
<MIXTURE> 13 9.630602e-02
<MEAN> 13
 -1.198719e+01 -4.778792e+00 3.826729e+00 -4.748965e+00 4.697233e+00 -3.347523e-01 2.777331e+00 5.370322e+00 4.624780e-01 -2.875512e+00 -3.054595e-01 1.354007e+00 5.150940e+01
<VARIANCE> 13
 5.288618e+01 3.788356e+01 4.312156e+01 5.264934e+01 6.711752e+01 5.948213e+01 2.662535e+01 5.529797e+01 3.788171e+01 7.331533e+01 7.064478e+01 7.575333e+01 3.507522e+01
<GCONST> 7.488134e+01
<MIXTURE> 14 4.156852e-02
<MEAN> 13
 -1.239841e+01 -7.445595e+00 2.971038e+00 -5.681808e+00 4.297850e+00 -9.731645e-01 -3.798668e-01 2.162892e+00 -1.648462e+00 -2.454423e+00 -1.486019e+00 -5.378110e-03 5.473346e+01
<VARIANCE> 13
 6.433783e+01 4.182431e+01 4.410049e+01 3.323766e+01 7.932643e+01 5.145816e+01 4.468632e+01 6.181120e+01 4.487669e+01 6.781725e+01 4.833121e+01 7.460380e+01 4.506415e+01
<GCONST> 7.533737e+01
<MIXTURE> 15 4.156852e-02
<MEAN> 13
 -1.239841e+01 -7.445595e+00 2.971038e+00 -5.681808e+00 4.297850e+00 -9.731644e-01 -3.798665e-01 2.162892e+00 -1.648462e+00 -2.454423e+00 -1.486019e+00 -5.378110e-03 5.473346e+01
<VARIANCE> 13
 6.433783e+01 4.182431e+01 4.410049e+01 3.323766e+01 7.932643e+01 5.145816e+01 4.468632e+01 6.181120e+01 4.487669e+01 6.781725e+01 4.833121e+01 7.460379e+01 4.506415e+01
<GCONST> 7.533737e+01
<MIXTURE> 16 1.720313e-02
<MEAN> 13
 -4.025136e+00 -1.147085e+01 -4.175958e+00 -6.131575e+00 3.500236e+00 -1.880799e+00 -8.011460e+00 -5.636556e+00 -5.809213e+00 -6.627768e+00 -3.847340e+00 -2.642586e+00 6.105302e+01
<VARIANCE> 13
 5.889011e+01 4.439950e+01 3.095143e+01 1.643454e+01 7.741731e+01 2.513779e+01 3.936744e+01 2.608737e+01 4.512040e+01 8.096978e+01 1.635544e+01 2.510733e+01 9.724097e+01
<GCONST> 7.129941e+01
<STATE> 3
<NUMMIXES> 16
<MIXTURE> 1 1.484505e-02
<MEAN> 13
 -2.164097e+01 3.740883e+00 6.203948e-01 -4.092774e+00 -1.956625e+00 1.531171e+01 3.502996e+00 -1.661772e+00 1.097808e+01 -1.512781e+00 -1.670545e+00 6.625245e+00 6.031414e+01
<VARIANCE> 13
 2.525800e+01 4.985280e+00 1.053074e+01 8.933903e+00 1.176350e+01 2.138868e+01 2.191044e+01 1.917300e+01 1.888879e+01 1.905248e+01 1.748604e+01 1.806353e+01 1.161159e+01
<GCONST> 5.893359e+01
<MIXTURE> 2 6.010395e-02
<MEAN> 13
 -1.982674e+01 3.141727e+00 -4.403507e-01 -4.541770e+00 -2.469388e+00 1.433730e+01 2.494773e+00 -2.502604e+00 9.408752e+00 -2.126315e+00 -2.347723e+00 6.031120e+00 5.921709e+01
<VARIANCE> 13
 3.505362e+01 6.287939e+00 1.118384e+01 9.085186e+00 1.285459e+01 2.116831e+01 2.126943e+01 1.795914e+01 1.859448e+01 1.862035e+01 1.783833e+01 1.735683e+01 1.471472e+01
<GCONST> 5.973190e+01
<MIXTURE> 3 6.010395e-02
<MEAN> 13
 -1.982674e+01 3.141727e+00 -4.403508e-01 -4.541770e+00 -2.469388e+00 1.433730e+01 2.494774e+00 -2.502603e+00 9.408751e+00 -2.126316e+00 -2.347723e+00 6.031119e+00 5.921709e+01
<VARIANCE> 13
 3.505360e+01 6.287941e+00 1.118384e+01 9.085190e+00 1.285459e+01 2.116832e+01 2.126943e+01 1.795913e+01 1.859447e+01 1.862035e+01 1.783832e+01 1.735684e+01 1.471472e+01
<GCONST> 5.973190e+01
<MIXTURE> 4 8.443670e-02
<MEAN> 13
 -1.814858e+01 2.466124e+00 -1.444579e+00 -5.154073e+00 -3.229071e+00 1.278018e+01 1.060893e+00 -3.572677e+00 7.590874e+00 -3.040537e+00 -2.980633e+00 5.145303e+00 5.828074e+01
<VARIANCE> 13
 4.131773e+01 8.179485e+00 1.094689e+01 1.023022e+01 1.450811e+01 2.333684e+01 2.136348e+01 1.858695e+01 2.019083e+01 1.784466e+01 1.748025e+01 1.731552e+01 1.614099e+01
<GCONST> 6.062358e+01
<MIXTURE> 5 6.010395e-02
<MEAN> 13
 -1.982674e+01 3.141727e+00 -4.403508e-01 -4.541770e+00 -2.469388e+00 1.433730e+01 2.494774e+00 -2.502603e+00 9.408751e+00 -2.126316e+00 -2.347723e+00 6.031119e+00 5.921709e+01
<VARIANCE> 13
 3.505360e+01 6.287941e+00 1.118384e+01 9.085190e+00 1.285459e+01 2.116832e+01 2.126943e+01 1.795913e+01 1.859447e+01 1.862035e+01 1.783832e+01 1.735684e+01 1.471472e+01
<GCONST> 5.973190e+01
<MIXTURE> 6 8.443670e-02
<MEAN> 13
 -1.814858e+01 2.466124e+00 -1.444579e+00 -5.154073e+00 -3.229071e+00 1.278018e+01 1.060893e+00 -3.572677e+00 7.590874e+00 -3.040537e+00 -2.980633e+00 5.145303e+00 5.828074e+01
<VARIANCE> 13
 4.131773e+01 8.179485e+00 1.094689e+01 1.023022e+01 1.450811e+01 2.333684e+01 2.136348e+01 1.858695e+01 2.019083e+01 1.784466e+01 1.748025e+01 1.731552e+01 1.614099e+01
<GCONST> 6.062358e+01
<MIXTURE> 7 8.443670e-02
<MEAN> 13
 -1.814858e+01 2.466124e+00 -1.444579e+00 -5.154073e+00 -3.229071e+00 1.278018e+01 1.060893e+00 -3.572677e+00 7.590874e+00 -3.040537e+00 -2.980633e+00 5.145303e+00 5.828074e+01
<VARIANCE> 13
 4.131773e+01 8.179485e+00 1.094689e+01 1.023022e+01 1.450811e+01 2.333684e+01 2.136348e+01 1.858695e+01 2.019083e+01 1.784466e+01 1.748025e+01 1.731552e+01 1.614099e+01
<GCONST> 6.062358e+01
<MIXTURE> 8 5.129724e-02
<MEAN> 13
 -1.708053e+01 2.145230e+00 -2.252133e+00 -6.089831e+00 -5.042192e+00 1.010807e+01 -1.427205e+00 -5.788977e+00 5.273374e+00 -4.205757e+00 -3.761173e+00 4.619761e+00 5.822518e+01
<VARIANCE> 13
 4.478055e+01 1.251100e+01 1.239406e+01 1.250096e+01 1.708195e+01 2.814257e+01 2.450830e+01 2.380524e+01 2.305924e+01 1.964245e+01 1.927519e+01 1.915109e+01 1.836954e+01
<GCONST> 6.274566e+01
<MIXTURE> 9 6.010395e-02
<MEAN> 13
 -1.982674e+01 3.141727e+00 -4.403508e-01 -4.541770e+00 -2.469388e+00 1.433730e+01 2.494774e+00 -2.502603e+00 9.408751e+00 -2.126316e+00 -2.347723e+00 6.031119e+00 5.921709e+01
<VARIANCE> 13
 3.505360e+01 6.287941e+00 1.118384e+01 9.085190e+00 1.285459e+01 2.116832e+01 2.126943e+01 1.795913e+01 1.859447e+01 1.862035e+01 1.783832e+01 1.735684e+01 1.471472e+01
<GCONST> 5.973190e+01
<MIXTURE> 10 8.443670e-02
<MEAN> 13
 -1.814858e+01 2.466124e+00 -1.444579e+00 -5.154073e+00 -3.229071e+00 1.278018e+01 1.060893e+00 -3.572677e+00 7.590874e+00 -3.040537e+00 -2.980633e+00 5.145303e+00 5.828074e+01
<VARIANCE> 13
 4.131773e+01 8.179485e+00 1.094689e+01 1.023022e+01 1.450811e+01 2.333684e+01 2.136348e+01 1.858695e+01 2.019083e+01 1.784466e+01 1.748025e+01 1.731552e+01 1.614099e+01
<GCONST> 6.062358e+01
<MIXTURE> 11 8.443670e-02
<MEAN> 13
 -1.814858e+01 2.466124e+00 -1.444579e+00 -5.154073e+00 -3.229071e+00 1.278018e+01 1.060893e+00 -3.572677e+00 7.590874e+00 -3.040537e+00 -2.980633e+00 5.145303e+00 5.828074e+01
<VARIANCE> 13
 4.131773e+01 8.179485e+00 1.094689e+01 1.023022e+01 1.450811e+01 2.333684e+01 2.136348e+01 1.858695e+01 2.019083e+01 1.784466e+01 1.748025e+01 1.731552e+01 1.614099e+01
<GCONST> 6.062358e+01
<MIXTURE> 12 5.129724e-02
<MEAN> 13
 -1.708053e+01 2.145230e+00 -2.252133e+00 -6.089831e+00 -5.042192e+00 1.010807e+01 -1.427205e+00 -5.788977e+00 5.273374e+00 -4.205757e+00 -3.761173e+00 4.619761e+00 5.822518e+01
<VARIANCE> 13
 4.478055e+01 1.251100e+01 1.239406e+01 1.250096e+01 1.708195e+01 2.814257e+01 2.450830e+01 2.380524e+01 2.305924e+01 1.964245e+01 1.927519e+01 1.915109e+01 1.836954e+01
<GCONST> 6.274566e+01
<MIXTURE> 13 8.443670e-02
<MEAN> 13
 -1.814858e+01 2.466124e+00 -1.444579e+00 -5.154073e+00 -3.229071e+00 1.278018e+01 1.060893e+00 -3.572677e+00 7.590874e+00 -3.040537e+00 -2.980633e+00 5.145303e+00 5.828074e+01
<VARIANCE> 13
 4.131773e+01 8.179485e+00 1.094689e+01 1.023022e+01 1.450811e+01 2.333684e+01 2.136348e+01 1.858695e+01 2.019083e+01 1.784466e+01 1.748025e+01 1.731552e+01 1.614099e+01
<GCONST> 6.062358e+01
<MIXTURE> 14 5.129724e-02
<MEAN> 13
 -1.708053e+01 2.145230e+00 -2.252133e+00 -6.089831e+00 -5.042192e+00 1.010807e+01 -1.427205e+00 -5.788977e+00 5.273374e+00 -4.205757e+00 -3.761173e+00 4.619761e+00 5.822518e+01
<VARIANCE> 13
 4.478055e+01 1.251100e+01 1.239406e+01 1.250096e+01 1.708195e+01 2.814257e+01 2.450830e+01 2.380524e+01 2.305924e+01 1.964245e+01 1.927519e+01 1.915109e+01 1.836954e+01
<GCONST> 6.274566e+01
<MIXTURE> 15 5.129724e-02
<MEAN> 13
 -1.708053e+01 2.145230e+00 -2.252133e+00 -6.089831e+00 -5.042192e+00 1.010807e+01 -1.427205e+00 -5.788977e+00 5.273374e+00 -4.205757e+00 -3.761173e+00 4.619761e+00 5.822518e+01
<VARIANCE> 13
 4.478055e+01 1.251100e+01 1.239406e+01 1.250096e+01 1.708195e+01 2.814257e+01 2.450830e+01 2.380524e+01 2.305924e+01 1.964245e+01 1.927519e+01 1.915109e+01 1.836954e+01
<GCONST> 6.274566e+01
<MIXTURE> 16 3.295349e-02
<MEAN> 13
 -1.329089e+01 3.685176e+00 -4.708029e+00 -8.114363e+00 -8.207117e+00 4.221986e+00 -6.645538e+00 -1.098449e+01 2.016948e+00 -5.837792e+00 -3.723888e+00 5.995519e+00 6.198331e+01
<VARIANCE> 13
 6.121890e+01 2.391757e+01 2.829870e+01 1.700475e+01 1.631489e+01 3.808594e+01 2.769041e+01 2.629024e+01 2.150534e+01 2.068557e+01 2.547382e+01 2.110119e+01 2.686763e+01
<GCONST> 6.605563e+01
<STATE> 4
<NUMMIXES> 16
<MIXTURE> 1 1.408135e-02
<MEAN> 13
 -1.960020e+01 3.043829e+00 7.115565e+00 1.627431e-01 -4.063815e+00 1.154455e+01 6.303751e+00 -3.593381e+00 3.927315e+00 7.704002e+00 -8.593966e+00 3.497617e+00 5.343324e+01
<VARIANCE> 13
 3.073154e+01 7.117619e+00 9.998114e+00 1.519272e+01 2.122719e+01 2.546588e+01 1.688122e+01 2.997533e+01 2.697896e+01 3.468323e+01 2.347287e+01 1.661324e+01 1.833697e+01
<GCONST> 6.253896e+01
<MIXTURE> 2 5.946174e-02
<MEAN> 13
 -1.999689e+01 2.010158e+00 6.606761e+00 -1.591384e+00 -4.399137e+00 1.074730e+01 4.365882e+00 -4.076046e+00 3.796597e+00 5.436913e+00 -9.220913e+00 3.758435e+00 5.436218e+01
<VARIANCE> 13
 4.604193e+01 7.303939e+00 1.253077e+01 1.641458e+01 2.321230e+01 2.749102e+01 1.908698e+01 3.452120e+01 2.953801e+01 3.141957e+01 2.812750e+01 2.067062e+01 3.032897e+01
<GCONST> 6.459651e+01
<MIXTURE> 3 5.946174e-02
<MEAN> 13
 -1.999689e+01 2.010158e+00 6.606761e+00 -1.591384e+00 -4.399137e+00 1.074730e+01 4.365882e+00 -4.076046e+00 3.796597e+00 5.436913e+00 -9.220913e+00 3.758435e+00 5.436218e+01
<VARIANCE> 13
 4.604193e+01 7.303939e+00 1.253077e+01 1.641458e+01 2.321230e+01 2.749102e+01 1.908698e+01 3.452120e+01 2.953801e+01 3.141957e+01 2.812750e+01 2.067062e+01 3.032897e+01
<GCONST> 6.459651e+01
<MIXTURE> 4 8.579560e-02
<MEAN> 13
 -2.135888e+01 9.397819e-01 6.199955e+00 -3.111574e+00 -6.015749e+00 1.021780e+01 1.802755e+00 -5.953771e+00 3.171741e+00 4.132436e+00 -1.086944e+01 4.563526e+00 5.662955e+01
<VARIANCE> 13
 5.259462e+01 7.904354e+00 1.524355e+01 1.547833e+01 2.570204e+01 3.127983e+01 2.335724e+01 4.424761e+01 3.241596e+01 2.739005e+01 3.173542e+01 2.938185e+01 4.111242e+01
<GCONST> 6.635923e+01
<MIXTURE> 5 5.946174e-02
<MEAN> 13
 -1.999689e+01 2.010158e+00 6.606761e+00 -1.591384e+00 -4.399137e+00 1.074730e+01 4.365882e+00 -4.076046e+00 3.796597e+00 5.436913e+00 -9.220913e+00 3.758435e+00 5.436218e+01
<VARIANCE> 13
 4.604193e+01 7.303939e+00 1.253077e+01 1.641458e+01 2.321230e+01 2.749102e+01 1.908698e+01 3.452120e+01 2.953801e+01 3.141957e+01 2.812750e+01 2.067062e+01 3.032897e+01
<GCONST> 6.459651e+01
<MIXTURE> 6 8.579560e-02
<MEAN> 13
 -2.135888e+01 9.397819e-01 6.199955e+00 -3.111574e+00 -6.015749e+00 1.021780e+01 1.802755e+00 -5.953771e+00 3.171741e+00 4.132436e+00 -1.086944e+01 4.563526e+00 5.662955e+01
<VARIANCE> 13
 5.259462e+01 7.904354e+00 1.524355e+01 1.547833e+01 2.570204e+01 3.127983e+01 2.335724e+01 4.424761e+01 3.241596e+01 2.739005e+01 3.173542e+01 2.938185e+01 4.111242e+01
<GCONST> 6.635923e+01
<MIXTURE> 7 8.579560e-02
<MEAN> 13
 -2.135888e+01 9.397819e-01 6.199955e+00 -3.111574e+00 -6.015749e+00 1.021780e+01 1.802755e+00 -5.953771e+00 3.171741e+00 4.132436e+00 -1.086944e+01 4.563526e+00 5.662955e+01
<VARIANCE> 13
 5.259462e+01 7.904354e+00 1.524355e+01 1.547833e+01 2.570204e+01 3.127983e+01 2.335724e+01 4.424761e+01 3.241596e+01 2.739005e+01 3.173542e+01 2.938185e+01 4.111242e+01
<GCONST> 6.635923e+01
<MIXTURE> 8 5.259692e-02
<MEAN> 13
 -2.140018e+01 3.846181e-01 6.279429e+00 -4.564690e+00 -8.546154e+00 8.817048e+00 -1.692879e+00 -9.525112e+00 1.511485e+00 2.883971e+00 -1.276328e+01 5.608741e+00 5.895103e+01
<VARIANCE> 13
 5.605025e+01 9.907819e+00 1.995288e+01 1.489114e+01 2.768509e+01 4.021245e+01 2.637408e+01 5.708187e+01 3.873629e+01 2.435748e+01 3.928746e+01 4.239380e+01 4.761800e+01
<GCONST> 6.836879e+01
<MIXTURE> 9 5.946167e-02
<MEAN> 13
 -1.999689e+01 2.010157e+00 6.606761e+00 -1.591384e+00 -4.399137e+00 1.074730e+01 4.365881e+00 -4.076046e+00 3.796597e+00 5.436913e+00 -9.220914e+00 3.758436e+00 5.436218e+01
<VARIANCE> 13
 4.604191e+01 7.303939e+00 1.253077e+01 1.641458e+01 2.321230e+01 2.749103e+01 1.908699e+01 3.452122e+01 2.953802e+01 3.141958e+01 2.812751e+01 2.067062e+01 3.032898e+01
<GCONST> 6.459652e+01
<MIXTURE> 10 8.579560e-02
<MEAN> 13
 -2.135888e+01 9.397819e-01 6.199955e+00 -3.111574e+00 -6.015749e+00 1.021780e+01 1.802755e+00 -5.953771e+00 3.171741e+00 4.132436e+00 -1.086944e+01 4.563526e+00 5.662955e+01
<VARIANCE> 13
 5.259462e+01 7.904354e+00 1.524355e+01 1.547833e+01 2.570204e+01 3.127983e+01 2.335724e+01 4.424761e+01 3.241596e+01 2.739005e+01 3.173542e+01 2.938185e+01 4.111242e+01
<GCONST> 6.635923e+01
<MIXTURE> 11 8.579560e-02
<MEAN> 13
 -2.135888e+01 9.397819e-01 6.199955e+00 -3.111574e+00 -6.015749e+00 1.021780e+01 1.802755e+00 -5.953771e+00 3.171741e+00 4.132436e+00 -1.086944e+01 4.563526e+00 5.662955e+01
<VARIANCE> 13
 5.259462e+01 7.904354e+00 1.524355e+01 1.547833e+01 2.570204e+01 3.127983e+01 2.335724e+01 4.424761e+01 3.241596e+01 2.739005e+01 3.173542e+01 2.938185e+01 4.111242e+01
<GCONST> 6.635923e+01
<MIXTURE> 12 5.259692e-02
<MEAN> 13
 -2.140018e+01 3.846181e-01 6.279429e+00 -4.564690e+00 -8.546154e+00 8.817048e+00 -1.692879e+00 -9.525112e+00 1.511485e+00 2.883971e+00 -1.276328e+01 5.608741e+00 5.895103e+01
<VARIANCE> 13
 5.605025e+01 9.907819e+00 1.995288e+01 1.489114e+01 2.768509e+01 4.021245e+01 2.637408e+01 5.708187e+01 3.873629e+01 2.435748e+01 3.928746e+01 4.239380e+01 4.761800e+01
<GCONST> 6.836879e+01
<MIXTURE> 13 8.579560e-02
<MEAN> 13
 -2.135888e+01 9.397819e-01 6.199955e+00 -3.111574e+00 -6.015749e+00 1.021780e+01 1.802755e+00 -5.953771e+00 3.171741e+00 4.132436e+00 -1.086944e+01 4.563526e+00 5.662955e+01
<VARIANCE> 13
 5.259462e+01 7.904354e+00 1.524355e+01 1.547833e+01 2.570204e+01 3.127983e+01 2.335724e+01 4.424761e+01 3.241596e+01 2.739005e+01 3.173542e+01 2.938185e+01 4.111242e+01
<GCONST> 6.635923e+01
<MIXTURE> 14 5.259692e-02
<MEAN> 13
 -2.140018e+01 3.846181e-01 6.279429e+00 -4.564690e+00 -8.546154e+00 8.817048e+00 -1.692879e+00 -9.525112e+00 1.511485e+00 2.883971e+00 -1.276328e+01 5.608741e+00 5.895103e+01
<VARIANCE> 13
 5.605025e+01 9.907819e+00 1.995288e+01 1.489114e+01 2.768509e+01 4.021245e+01 2.637408e+01 5.708187e+01 3.873629e+01 2.435748e+01 3.928746e+01 4.239380e+01 4.761800e+01
<GCONST> 6.836879e+01
<MIXTURE> 15 5.259692e-02
<MEAN> 13
 -2.140018e+01 3.846181e-01 6.279429e+00 -4.564690e+00 -8.546154e+00 8.817049e+00 -1.692879e+00 -9.525113e+00 1.511485e+00 2.883971e+00 -1.276328e+01 5.608741e+00 5.895103e+01
<VARIANCE> 13
 5.605025e+01 9.907820e+00 1.995288e+01 1.489114e+01 2.768509e+01 4.021245e+01 2.637408e+01 5.708187e+01 3.873629e+01 2.435748e+01 3.928746e+01 4.239380e+01 4.761800e+01
<GCONST> 6.836879e+01
<MIXTURE> 16 2.281132e-02
<MEAN> 13
 -1.276968e+01 3.088154e-01 2.321950e+00 -6.775735e+00 -1.002485e+01 1.206219e+00 -5.209852e+00 -1.138343e+01 -2.370752e+00 1.425958e+00 -9.313750e+00 3.049437e+00 5.852769e+01
<VARIANCE> 13
 1.050703e+02 3.645119e+01 5.993644e+01 1.604753e+01 3.805275e+01 5.105594e+01 2.010204e+01 4.813463e+01 3.295174e+01 2.144792e+01 6.961395e+01 3.266257e+01 4.160871e+01
<GCONST> 7.147674e+01
<TRANSP> 5
 0.000000e+00 1.000000e+00 0.000000e+00 0.000000e+00 0.000000e+00
 0.000000e+00 9.790338e-01 2.096625e-02 0.000000e+00 0.000000e+00
 0.000000e+00 0.000000e+00 9.869095e-01 1.309047e-02 0.000000e+00
 0.000000e+00 0.000000e+00 0.000000e+00 9.943153e-01 5.684677e-03
 0.000000e+00 0.000000e+00 0.000000e+00 0.000000e+00 0.000000e+00
<ENDHMM>
~h "cm"
<BEGINHMM>
<NUMSTATES> 5
<STATE> 2
<NUMMIXES> 16
<MIXTURE> 1 2.908125e-02
<MEAN> 13
 -1.161365e+01 6.600939e-01 -1.254386e+00 -2.644880e+00 2.375743e+00 3.144271e+00 1.784701e+00 2.419963e+00 3.256432e-01 1.925835e+00 3.248279e+00 -5.467460e-01 5.767086e+01
<VARIANCE> 13
 2.577743e+01 1.134981e+01 1.148686e+01 1.220568e+01 1.134839e+01 1.273799e+01 1.587499e+01 1.634834e+01 1.628879e+01 1.425098e+01 1.790239e+01 1.374743e+01 2.396616e+01
<GCONST> 5.917648e+01
<MIXTURE> 2 6.372987e-02
<MEAN> 13
 -1.054413e+01 4.039223e-01 -1.779474e+00 -3.210723e+00 1.163059e+00 1.352299e+00 -3.863603e-01 1.685698e-01 -1.780081e+00 3.461711e-01 2.009758e+00 -1.054408e+00 5.954298e+01
<VARIANCE> 13
 2.506614e+01 1.178807e+01 1.081489e+01 1.263034e+01 1.238139e+01 1.323114e+01 1.500493e+01 1.666219e+01 1.585797e+01 1.561497e+01 1.763624e+01 1.488356e+01 3.239306e+01
<GCONST> 5.967838e+01
<MIXTURE> 3 6.373025e-02
<MEAN> 13
 -1.054413e+01 4.039216e-01 -1.779474e+00 -3.210722e+00 1.163060e+00 1.352299e+00 -3.863602e-01 1.685694e-01 -1.780082e+00 3.461711e-01 2.009759e+00 -1.054409e+00 5.954298e+01
<VARIANCE> 13
 2.506613e+01 1.178806e+01 1.081489e+01 1.263033e+01 1.238138e+01 1.323113e+01 1.500493e+01 1.666218e+01 1.585797e+01 1.561497e+01 1.763624e+01 1.488355e+01 3.239306e+01
<GCONST> 5.967838e+01
<MIXTURE> 4 7.519527e-02
<MEAN> 13
 -8.702105e+00 3.598028e-02 -2.474563e+00 -3.897058e+00 -3.409356e-01 -6.863810e-01 -2.492137e+00 -2.069791e+00 -3.776187e+00 -1.506593e+00 2.202048e-01 -1.882637e+00 6.269091e+01
<VARIANCE> 13
 2.471276e+01 1.222285e+01 1.114363e+01 1.307634e+01 1.254401e+01 1.270009e+01 1.362169e+01 1.615181e+01 1.589968e+01 1.628185e+01 1.766996e+01 1.496419e+01 4.991423e+01
<GCONST> 6.009343e+01
<MIXTURE> 5 6.373025e-02
<MEAN> 13
 -1.054413e+01 4.039216e-01 -1.779474e+00 -3.210722e+00 1.163060e+00 1.352299e+00 -3.863602e-01 1.685694e-01 -1.780082e+00 3.461711e-01 2.009759e+00 -1.054409e+00 5.954298e+01
<VARIANCE> 13
 2.506613e+01 1.178806e+01 1.081489e+01 1.263033e+01 1.238138e+01 1.323113e+01 1.500493e+01 1.666218e+01 1.585797e+01 1.561497e+01 1.763624e+01 1.488355e+01 3.239306e+01
<GCONST> 5.967838e+01
<MIXTURE> 6 7.519526e-02
<MEAN> 13
 -8.702105e+00 3.598034e-02 -2.474563e+00 -3.897058e+00 -3.409357e-01 -6.863809e-01 -2.492137e+00 -2.069790e+00 -3.776186e+00 -1.506593e+00 2.202049e-01 -1.882637e+00 6.269091e+01
<VARIANCE> 13
 2.471276e+01 1.222285e+01 1.114363e+01 1.307634e+01 1.254401e+01 1.270009e+01 1.362169e+01 1.615181e+01 1.589969e+01 1.628185e+01 1.766996e+01 1.496419e+01 4.991424e+01
<GCONST> 6.009343e+01
<MIXTURE> 7 7.519526e-02
<MEAN> 13
 -8.702105e+00 3.598034e-02 -2.474563e+00 -3.897058e+00 -3.409357e-01 -6.863809e-01 -2.492137e+00 -2.069790e+00 -3.776186e+00 -1.506593e+00 2.202049e-01 -1.882637e+00 6.269091e+01
<VARIANCE> 13
 2.471276e+01 1.222285e+01 1.114363e+01 1.307634e+01 1.254401e+01 1.270009e+01 1.362169e+01 1.615181e+01 1.589969e+01 1.628185e+01 1.766996e+01 1.496419e+01 4.991424e+01
<GCONST> 6.009343e+01
<MIXTURE> 8 5.791014e-02
<MEAN> 13
 -7.229531e+00 -6.733105e-01 -3.581501e+00 -4.867301e+00 -2.137825e+00 -2.742794e+00 -4.465735e+00 -4.073018e+00 -5.550928e+00 -3.342133e+00 -1.895609e+00 -2.835917e+00 6.699460e+01
<VARIANCE> 13
 1.795709e+01 1.236682e+01 1.228583e+01 1.362368e+01 1.274363e+01 1.245156e+01 1.319910e+01 1.534777e+01 1.586244e+01 1.556710e+01 1.639479e+01 1.436868e+01 6.062704e+01
<GCONST> 5.986952e+01
<MIXTURE> 9 6.373025e-02
<MEAN> 13
 -1.054413e+01 4.039216e-01 -1.779474e+00 -3.210722e+00 1.163060e+00 1.352299e+00 -3.863602e-01 1.685694e-01 -1.780082e+00 3.461714e-01 2.009759e+00 -1.054409e+00 5.954298e+01
<VARIANCE> 13
 2.506613e+01 1.178806e+01 1.081489e+01 1.263033e+01 1.238138e+01 1.323113e+01 1.500493e+01 1.666218e+01 1.585797e+01 1.561497e+01 1.763624e+01 1.488355e+01 3.239306e+01
<GCONST> 5.967838e+01
<MIXTURE> 10 7.519526e-02
<MEAN> 13
 -8.702105e+00 3.598034e-02 -2.474563e+00 -3.897058e+00 -3.409357e-01 -6.863809e-01 -2.492137e+00 -2.069790e+00 -3.776186e+00 -1.506593e+00 2.202049e-01 -1.882637e+00 6.269091e+01
<VARIANCE> 13
 2.471276e+01 1.222285e+01 1.114363e+01 1.307634e+01 1.254401e+01 1.270009e+01 1.362169e+01 1.615181e+01 1.589969e+01 1.628185e+01 1.766996e+01 1.496419e+01 4.991424e+01
<GCONST> 6.009343e+01
<MIXTURE> 11 7.519525e-02
<MEAN> 13
 -8.702105e+00 3.598037e-02 -2.474563e+00 -3.897058e+00 -3.409356e-01 -6.863807e-01 -2.492137e+00 -2.069790e+00 -3.776187e+00 -1.506593e+00 2.202049e-01 -1.882637e+00 6.269091e+01
<VARIANCE> 13
 2.471276e+01 1.222285e+01 1.114363e+01 1.307634e+01 1.254401e+01 1.270009e+01 1.362169e+01 1.615181e+01 1.589969e+01 1.628185e+01 1.766996e+01 1.496419e+01 4.991423e+01
<GCONST> 6.009343e+01
<MIXTURE> 12 5.791014e-02
<MEAN> 13
 -7.229531e+00 -6.733105e-01 -3.581501e+00 -4.867301e+00 -2.137825e+00 -2.742794e+00 -4.465735e+00 -4.073018e+00 -5.550928e+00 -3.342134e+00 -1.895609e+00 -2.835917e+00 6.699460e+01
<VARIANCE> 13
 1.795708e+01 1.236682e+01 1.228583e+01 1.362367e+01 1.274363e+01 1.245156e+01 1.319910e+01 1.534777e+01 1.586242e+01 1.556710e+01 1.639479e+01 1.436868e+01 6.062706e+01
<GCONST> 5.986952e+01
<MIXTURE> 13 7.519527e-02
<MEAN> 13
 -8.702105e+00 3.598030e-02 -2.474563e+00 -3.897058e+00 -3.409356e-01 -6.863810e-01 -2.492137e+00 -2.069791e+00 -3.776187e+00 -1.506593e+00 2.202049e-01 -1.882637e+00 6.269091e+01
<VARIANCE> 13
 2.471276e+01 1.222285e+01 1.114363e+01 1.307634e+01 1.254401e+01 1.270009e+01 1.362169e+01 1.615181e+01 1.589968e+01 1.628185e+01 1.766996e+01 1.496419e+01 4.991425e+01
<GCONST> 6.009343e+01
<MIXTURE> 14 5.791014e-02
<MEAN> 13
 -7.229531e+00 -6.733105e-01 -3.581501e+00 -4.867301e+00 -2.137825e+00 -2.742794e+00 -4.465735e+00 -4.073018e+00 -5.550928e+00 -3.342134e+00 -1.895609e+00 -2.835917e+00 6.699460e+01
<VARIANCE> 13
 1.795708e+01 1.236682e+01 1.228583e+01 1.362367e+01 1.274363e+01 1.245156e+01 1.319910e+01 1.534777e+01 1.586242e+01 1.556710e+01 1.639479e+01 1.436868e+01 6.062706e+01
<GCONST> 5.986952e+01
<MIXTURE> 15 5.791014e-02
<MEAN> 13
 -7.229531e+00 -6.733105e-01 -3.581501e+00 -4.867301e+00 -2.137825e+00 -2.742794e+00 -4.465735e+00 -4.073018e+00 -5.550928e+00 -3.342134e+00 -1.895609e+00 -2.835917e+00 6.699460e+01
<VARIANCE> 13
 1.795708e+01 1.236682e+01 1.228583e+01 1.362367e+01 1.274363e+01 1.245156e+01 1.319910e+01 1.534777e+01 1.586242e+01 1.556710e+01 1.639479e+01 1.436868e+01 6.062706e+01
<GCONST> 5.986952e+01
<MIXTURE> 16 3.309883e-02
<MEAN> 13
 -7.349194e+00 -2.143087e+00 -5.070726e+00 -6.289784e+00 -4.194545e+00 -4.829164e+00 -6.655159e+00 -6.183236e+00 -7.398843e+00 -4.949191e+00 -3.663089e+00 -3.575142e+00 7.122081e+01
<VARIANCE> 13
 1.240561e+01 1.497025e+01 1.679496e+01 1.482948e+01 1.259228e+01 1.236305e+01 1.438245e+01 1.557387e+01 1.626562e+01 1.523488e+01 1.464803e+01 1.358665e+01 5.116041e+01
<GCONST> 5.983472e+01
<STATE> 3
<NUMMIXES> 16
<MIXTURE> 1 1.902339e-02
<MEAN> 13
 -9.625221e+00 2.454696e+00 9.666210e-01 2.251005e-03 2.325450e+00 3.414860e+00 5.643511e+00 4.548792e+00 3.472751e+00 3.307278e+00 3.031022e+00 -5.944364e-01 4.795978e+01
<VARIANCE> 13
 1.512540e+01 4.773255e+00 6.811620e+00 9.330934e+00 1.062537e+01 1.064218e+01 1.316089e+01 1.351948e+01 1.483491e+01 1.376202e+01 1.208274e+01 1.214499e+01 8.053153e+00
<GCONST> 5.462688e+01
<MIXTURE> 2 5.821801e-02
<MEAN> 13
 -9.251756e+00 2.403783e+00 6.414680e-01 -6.119394e-01 1.568929e+00 2.099745e+00 4.193668e+00 3.013192e+00 1.768465e+00 1.869919e+00 1.744962e+00 -1.351842e+00 4.819417e+01
<VARIANCE> 13
 1.359587e+01 5.386489e+00 7.309144e+00 9.201661e+00 1.103872e+01 1.148065e+01 1.285940e+01 1.328889e+01 1.409082e+01 1.376670e+01 1.262284e+01 1.207976e+01 7.760225e+00
<GCONST> 5.472147e+01
<MIXTURE> 3 5.821801e-02
<MEAN> 13
 -9.251756e+00 2.403783e+00 6.414680e-01 -6.119396e-01 1.568929e+00 2.099745e+00 4.193668e+00 3.013192e+00 1.768465e+00 1.869919e+00 1.744962e+00 -1.351842e+00 4.819417e+01
<VARIANCE> 13
 1.359587e+01 5.386487e+00 7.309143e+00 9.201660e+00 1.103872e+01 1.148065e+01 1.285940e+01 1.328889e+01 1.409081e+01 1.376670e+01 1.262284e+01 1.207976e+01 7.760223e+00
<GCONST> 5.472147e+01
<MIXTURE> 4 7.833738e-02
<MEAN> 13
 -8.887362e+00 2.047725e+00 8.358046e-02 -1.523171e+00 4.359258e-01 5.546932e-01 2.472935e+00 1.320660e+00 1.614713e-01 5.003076e-01 5.842373e-01 -2.116052e+00 4.872356e+01
<VARIANCE> 13
 1.300955e+01 6.779369e+00 8.309840e+00 1.037222e+01 1.224469e+01 1.225575e+01 1.344813e+01 1.470364e+01 1.492509e+01 1.443615e+01 1.330917e+01 1.265399e+01 8.916968e+00
<GCONST> 5.581372e+01
<MIXTURE> 5 5.821801e-02
<MEAN> 13
 -9.251756e+00 2.403783e+00 6.414680e-01 -6.119396e-01 1.568929e+00 2.099745e+00 4.193668e+00 3.013192e+00 1.768465e+00 1.869919e+00 1.744962e+00 -1.351842e+00 4.819417e+01
<VARIANCE> 13
 1.359587e+01 5.386487e+00 7.309143e+00 9.201660e+00 1.103872e+01 1.148065e+01 1.285940e+01 1.328889e+01 1.409081e+01 1.376670e+01 1.262284e+01 1.207976e+01 7.760223e+00
<GCONST> 5.472147e+01
<MIXTURE> 6 7.833738e-02
<MEAN> 13
 -8.887362e+00 2.047725e+00 8.358050e-02 -1.523171e+00 4.359256e-01 5.546931e-01 2.472935e+00 1.320660e+00 1.614713e-01 5.003076e-01 5.842373e-01 -2.116052e+00 4.872356e+01
<VARIANCE> 13
 1.300955e+01 6.779369e+00 8.309841e+00 1.037222e+01 1.224469e+01 1.225575e+01 1.344813e+01 1.470364e+01 1.492509e+01 1.443615e+01 1.330917e+01 1.265399e+01 8.916967e+00
<GCONST> 5.581372e+01
<MIXTURE> 7 7.833736e-02
<MEAN> 13
 -8.887362e+00 2.047725e+00 8.358049e-02 -1.523171e+00 4.359252e-01 5.546932e-01 2.472935e+00 1.320660e+00 1.614712e-01 5.003076e-01 5.842374e-01 -2.116052e+00 4.872356e+01
<VARIANCE> 13
 1.300955e+01 6.779371e+00 8.309841e+00 1.037222e+01 1.224470e+01 1.225575e+01 1.344813e+01 1.470363e+01 1.492510e+01 1.443615e+01 1.330917e+01 1.265399e+01 8.916969e+00
<GCONST> 5.581373e+01
<MIXTURE> 8 5.851227e-02
<MEAN> 13
 -8.588539e+00 1.188563e+00 -7.835618e-01 -2.836364e+00 -1.108105e+00 -1.391738e+00 3.773200e-01 -6.294569e-01 -1.420532e+00 -7.697794e-01 -3.847094e-01 -2.778152e+00 4.997804e+01
<VARIANCE> 13
 1.344639e+01 1.040038e+01 9.995102e+00 1.270544e+01 1.405784e+01 1.416494e+01 1.464946e+01 1.629876e+01 1.592517e+01 1.481474e+01 1.425682e+01 1.374338e+01 1.259979e+01
<GCONST> 5.772152e+01
<MIXTURE> 9 5.821801e-02
<MEAN> 13
 -9.251756e+00 2.403783e+00 6.414680e-01 -6.119396e-01 1.568929e+00 2.099745e+00 4.193668e+00 3.013192e+00 1.768465e+00 1.869919e+00 1.744962e+00 -1.351842e+00 4.819417e+01
<VARIANCE> 13
 1.359587e+01 5.386487e+00 7.309143e+00 9.201660e+00 1.103872e+01 1.148065e+01 1.285940e+01 1.328889e+01 1.409081e+01 1.376670e+01 1.262284e+01 1.207976e+01 7.760223e+00
<GCONST> 5.472147e+01
<MIXTURE> 10 7.833736e-02
<MEAN> 13
 -8.887362e+00 2.047725e+00 8.358049e-02 -1.523171e+00 4.359252e-01 5.546932e-01 2.472935e+00 1.320660e+00 1.614712e-01 5.003076e-01 5.842374e-01 -2.116052e+00 4.872356e+01
<VARIANCE> 13
 1.300955e+01 6.779371e+00 8.309841e+00 1.037222e+01 1.224470e+01 1.225575e+01 1.344813e+01 1.470363e+01 1.492510e+01 1.443615e+01 1.330917e+01 1.265399e+01 8.916969e+00
<GCONST> 5.581373e+01
<MIXTURE> 11 7.833736e-02
<MEAN> 13
 -8.887362e+00 2.047725e+00 8.358049e-02 -1.523171e+00 4.359252e-01 5.546932e-01 2.472935e+00 1.320660e+00 1.614712e-01 5.003076e-01 5.842374e-01 -2.116052e+00 4.872356e+01
<VARIANCE> 13
 1.300955e+01 6.779371e+00 8.309841e+00 1.037222e+01 1.224470e+01 1.225575e+01 1.344813e+01 1.470363e+01 1.492510e+01 1.443615e+01 1.330917e+01 1.265399e+01 8.916969e+00
<GCONST> 5.581373e+01
<MIXTURE> 12 5.851227e-02
<MEAN> 13
 -8.588539e+00 1.188563e+00 -7.835618e-01 -2.836364e+00 -1.108105e+00 -1.391737e+00 3.773208e-01 -6.294570e-01 -1.420533e+00 -7.697796e-01 -3.847096e-01 -2.778152e+00 4.997804e+01
<VARIANCE> 13
 1.344639e+01 1.040037e+01 9.995102e+00 1.270543e+01 1.405784e+01 1.416494e+01 1.464946e+01 1.629876e+01 1.592517e+01 1.481474e+01 1.425682e+01 1.374338e+01 1.259979e+01
<GCONST> 5.772151e+01
<MIXTURE> 13 7.833736e-02
<MEAN> 13
 -8.887362e+00 2.047725e+00 8.358049e-02 -1.523171e+00 4.359252e-01 5.546932e-01 2.472935e+00 1.320660e+00 1.614712e-01 5.003076e-01 5.842374e-01 -2.116052e+00 4.872356e+01
<VARIANCE> 13
 1.300955e+01 6.779371e+00 8.309841e+00 1.037222e+01 1.224470e+01 1.225575e+01 1.344813e+01 1.470363e+01 1.492510e+01 1.443615e+01 1.330917e+01 1.265399e+01 8.916969e+00
<GCONST> 5.581373e+01
<MIXTURE> 14 5.851227e-02
<MEAN> 13
 -8.588539e+00 1.188563e+00 -7.835618e-01 -2.836364e+00 -1.108105e+00 -1.391737e+00 3.773208e-01 -6.294570e-01 -1.420533e+00 -7.697796e-01 -3.847096e-01 -2.778152e+00 4.997804e+01
<VARIANCE> 13
 1.344639e+01 1.040037e+01 9.995102e+00 1.270543e+01 1.405784e+01 1.416494e+01 1.464946e+01 1.629876e+01 1.592517e+01 1.481474e+01 1.425682e+01 1.374338e+01 1.259979e+01
<GCONST> 5.772151e+01
<MIXTURE> 15 5.851227e-02
<MEAN> 13
 -8.588539e+00 1.188563e+00 -7.835619e-01 -2.836364e+00 -1.108105e+00 -1.391738e+00 3.773202e-01 -6.294569e-01 -1.420532e+00 -7.697794e-01 -3.847094e-01 -2.778152e+00 4.997804e+01
<VARIANCE> 13
 1.344639e+01 1.040038e+01 9.995101e+00 1.270544e+01 1.405784e+01 1.416494e+01 1.464946e+01 1.629876e+01 1.592517e+01 1.481474e+01 1.425682e+01 1.374338e+01 1.259979e+01
<GCONST> 5.772152e+01
<MIXTURE> 16 4.392573e-02
<MEAN> 13
 -8.427744e+00 -1.306138e+00 -1.775636e+00 -5.379553e+00 -3.140811e+00 -4.731820e+00 -2.452466e+00 -2.558689e+00 -2.502118e+00 -1.778333e+00 -1.202451e+00 -3.118983e+00 5.387763e+01
<VARIANCE> 13
 1.359011e+01 2.269633e+01 1.447913e+01 2.248995e+01 1.690394e+01 1.955560e+01 1.757410e+01 2.006161e+01 2.031179e+01 1.699852e+01 1.724660e+01 1.506811e+01 2.596646e+01
<GCONST> 6.173709e+01
<STATE> 4
<NUMMIXES> 16
<MIXTURE> 1 2.955804e-02
<MEAN> 13
 -5.169477e+00 -2.595676e+00 -3.303400e+00 -2.229872e+00 3.222004e+00 5.846971e+00 6.913532e+00 3.366846e+00 1.867389e+00 3.434362e+00 3.123954e+00 -1.109453e+00 5.118542e+01
<VARIANCE> 13
 1.049258e+01 5.896239e+00 5.769115e+00 6.820201e+00 8.670676e+00 1.058022e+01 1.143829e+01 1.163507e+01 1.163843e+01 1.196547e+01 1.187206e+01 1.164725e+01 5.704479e+00
<GCONST> 5.270657e+01
<MIXTURE> 2 7.400325e-02
<MEAN> 13
 -5.104163e+00 -2.698037e+00 -3.720004e+00 -3.045246e+00 1.829043e+00 4.230038e+00 5.344668e+00 2.049017e+00 5.686527e-01 2.090373e+00 1.933728e+00 -2.015740e+00 5.146415e+01
<VARIANCE> 13
 9.382440e+00 6.753970e+00 6.570765e+00 7.680212e+00 1.071003e+01 1.212788e+01 1.210117e+01 1.300327e+01 1.287971e+01 1.253302e+01 1.272880e+01 1.223071e+01 5.843081e+00
<GCONST> 5.378493e+01
<MIXTURE> 3 7.400325e-02
<MEAN> 13
 -5.104163e+00 -2.698037e+00 -3.720004e+00 -3.045246e+00 1.829043e+00 4.230038e+00 5.344668e+00 2.049017e+00 5.686527e-01 2.090373e+00 1.933728e+00 -2.015740e+00 5.146415e+01
<VARIANCE> 13
 9.382440e+00 6.753970e+00 6.570765e+00 7.680212e+00 1.071003e+01 1.212788e+01 1.210117e+01 1.300327e+01 1.287971e+01 1.253302e+01 1.272880e+01 1.223071e+01 5.843081e+00
<GCONST> 5.378493e+01
<MIXTURE> 4 7.337027e-02
<MEAN> 13
 -5.422136e+00 -3.055005e+00 -3.891201e+00 -4.332675e+00 -9.026138e-02 1.903598e+00 3.085842e+00 4.377702e-01 -7.490512e-01 7.649746e-01 8.619896e-01 -2.838625e+00 5.252634e+01
<VARIANCE> 13
 1.139275e+01 9.164614e+00 9.234170e+00 1.042451e+01 1.375246e+01 1.480220e+01 1.394712e+01 1.518108e+01 1.525435e+01 1.440856e+01 1.458401e+01 1.389610e+01 1.003196e+01
<GCONST> 5.678911e+01
<MIXTURE> 5 7.400325e-02
<MEAN> 13
 -5.104163e+00 -2.698037e+00 -3.720004e+00 -3.045246e+00 1.829043e+00 4.230038e+00 5.344668e+00 2.049017e+00 5.686527e-01 2.090373e+00 1.933728e+00 -2.015740e+00 5.146415e+01
<VARIANCE> 13
 9.382440e+00 6.753970e+00 6.570765e+00 7.680212e+00 1.071003e+01 1.212788e+01 1.210117e+01 1.300327e+01 1.287971e+01 1.253302e+01 1.272880e+01 1.223071e+01 5.843081e+00
<GCONST> 5.378493e+01
<MIXTURE> 6 7.337026e-02
<MEAN> 13
 -5.422136e+00 -3.055004e+00 -3.891200e+00 -4.332675e+00 -9.026176e-02 1.903598e+00 3.085842e+00 4.377700e-01 -7.490514e-01 7.649746e-01 8.619896e-01 -2.838625e+00 5.252634e+01
<VARIANCE> 13
 1.139275e+01 9.164607e+00 9.234165e+00 1.042450e+01 1.375246e+01 1.480219e+01 1.394712e+01 1.518108e+01 1.525435e+01 1.440856e+01 1.458401e+01 1.389610e+01 1.003196e+01
<GCONST> 5.678911e+01
<MIXTURE> 7 7.337026e-02
<MEAN> 13
 -5.422136e+00 -3.055004e+00 -3.891200e+00 -4.332675e+00 -9.026176e-02 1.903598e+00 3.085842e+00 4.377700e-01 -7.490514e-01 7.649746e-01 8.619896e-01 -2.838625e+00 5.252634e+01
<VARIANCE> 13
 1.139275e+01 9.164607e+00 9.234165e+00 1.042450e+01 1.375246e+01 1.480219e+01 1.394712e+01 1.518108e+01 1.525435e+01 1.440856e+01 1.458401e+01 1.389610e+01 1.003196e+01
<GCONST> 5.678911e+01
<MIXTURE> 8 4.813743e-02
<MEAN> 13
 -6.417015e+00 -3.972541e+00 -3.311126e+00 -6.464851e+00 -2.431241e+00 -1.384056e+00 4.003391e-01 -1.100327e+00 -1.830360e+00 -7.222446e-01 -1.007535e-01 -3.333288e+00 5.554987e+01
<VARIANCE> 13
 1.690750e+01 1.459299e+01 1.555748e+01 1.585567e+01 1.780211e+01 1.883279e+01 1.617806e+01 1.814875e+01 1.861551e+01 1.666000e+01 1.681307e+01 1.689098e+01 2.457746e+01
<GCONST> 6.099371e+01
<MIXTURE> 9 7.400325e-02
<MEAN> 13
 -5.104163e+00 -2.698037e+00 -3.720004e+00 -3.045246e+00 1.829043e+00 4.230038e+00 5.344668e+00 2.049017e+00 5.686527e-01 2.090373e+00 1.933728e+00 -2.015740e+00 5.146415e+01
<VARIANCE> 13
 9.382440e+00 6.753970e+00 6.570765e+00 7.680212e+00 1.071003e+01 1.212788e+01 1.210117e+01 1.300327e+01 1.287971e+01 1.253302e+01 1.272880e+01 1.223071e+01 5.843081e+00
<GCONST> 5.378493e+01
<MIXTURE> 10 7.337026e-02
<MEAN> 13
 -5.422136e+00 -3.055004e+00 -3.891200e+00 -4.332675e+00 -9.026176e-02 1.903598e+00 3.085842e+00 4.377700e-01 -7.490514e-01 7.649746e-01 8.619896e-01 -2.838625e+00 5.252634e+01
<VARIANCE> 13
 1.139275e+01 9.164607e+00 9.234165e+00 1.042450e+01 1.375246e+01 1.480219e+01 1.394712e+01 1.518108e+01 1.525435e+01 1.440856e+01 1.458401e+01 1.389610e+01 1.003196e+01
<GCONST> 5.678911e+01
<MIXTURE> 11 7.337026e-02
<MEAN> 13
 -5.422136e+00 -3.055004e+00 -3.891200e+00 -4.332675e+00 -9.026176e-02 1.903598e+00 3.085842e+00 4.377700e-01 -7.490514e-01 7.649746e-01 8.619896e-01 -2.838625e+00 5.252634e+01
<VARIANCE> 13
 1.139275e+01 9.164607e+00 9.234165e+00 1.042450e+01 1.375246e+01 1.480219e+01 1.394712e+01 1.518108e+01 1.525435e+01 1.440856e+01 1.458401e+01 1.389610e+01 1.003196e+01
<GCONST> 5.678911e+01
<MIXTURE> 12 4.813743e-02
<MEAN> 13
 -6.417015e+00 -3.972541e+00 -3.311126e+00 -6.464851e+00 -2.431241e+00 -1.384056e+00 4.003391e-01 -1.100327e+00 -1.830360e+00 -7.222446e-01 -1.007535e-01 -3.333288e+00 5.554987e+01
<VARIANCE> 13
 1.690750e+01 1.459299e+01 1.555748e+01 1.585567e+01 1.780211e+01 1.883279e+01 1.617806e+01 1.814875e+01 1.861551e+01 1.666000e+01 1.681307e+01 1.689098e+01 2.457746e+01
<GCONST> 6.099371e+01
<MIXTURE> 13 7.337026e-02
<MEAN> 13
 -5.422136e+00 -3.055005e+00 -3.891200e+00 -4.332675e+00 -9.026150e-02 1.903598e+00 3.085842e+00 4.377699e-01 -7.490515e-01 7.649746e-01 8.619896e-01 -2.838625e+00 5.252634e+01
<VARIANCE> 13
 1.139275e+01 9.164607e+00 9.234164e+00 1.042450e+01 1.375246e+01 1.480219e+01 1.394712e+01 1.518108e+01 1.525434e+01 1.440856e+01 1.458401e+01 1.389610e+01 1.003196e+01
<GCONST> 5.678911e+01
<MIXTURE> 14 4.813743e-02
<MEAN> 13
 -6.417015e+00 -3.972541e+00 -3.311126e+00 -6.464851e+00 -2.431241e+00 -1.384056e+00 4.003391e-01 -1.100327e+00 -1.830360e+00 -7.222446e-01 -1.007535e-01 -3.333288e+00 5.554987e+01
<VARIANCE> 13
 1.690750e+01 1.459299e+01 1.555748e+01 1.585567e+01 1.780211e+01 1.883279e+01 1.617806e+01 1.814875e+01 1.861551e+01 1.666000e+01 1.681307e+01 1.689098e+01 2.457746e+01
<GCONST> 6.099371e+01
<MIXTURE> 15 4.813760e-02
<MEAN> 13
 -6.417014e+00 -3.972541e+00 -3.311128e+00 -6.464852e+00 -2.431241e+00 -1.384056e+00 4.003395e-01 -1.100327e+00 -1.830360e+00 -7.222448e-01 -1.007539e-01 -3.333288e+00 5.554987e+01
<VARIANCE> 13
 1.690748e+01 1.459297e+01 1.555748e+01 1.585566e+01 1.780211e+01 1.883278e+01 1.617805e+01 1.814876e+01 1.861550e+01 1.665999e+01 1.681307e+01 1.689098e+01 2.457745e+01
<GCONST> 6.099371e+01
<MIXTURE> 16 4.169570e-02
<MEAN> 13
 -8.961984e+00 -6.036892e+00 -1.925326e+00 -9.713034e+00 -4.851599e+00 -6.057287e+00 -2.231937e+00 -2.224591e+00 -2.572339e+00 -2.622451e+00 -7.830376e-01 -3.271976e+00 6.290258e+01
<VARIANCE> 13
 2.267766e+01 1.983306e+01 2.176812e+01 2.056186e+01 2.322521e+01 2.278085e+01 2.049929e+01 2.135048e+01 2.385314e+01 2.028719e+01 1.799538e+01 1.908541e+01 4.886871e+01
<GCONST> 6.436772e+01
<TRANSP> 5
 0.000000e+00 1.000000e+00 0.000000e+00 0.000000e+00 0.000000e+00
 0.000000e+00 9.895661e-01 1.043392e-02 0.000000e+00 0.000000e+00
 0.000000e+00 0.000000e+00 9.892219e-01 1.077808e-02 0.000000e+00
 0.000000e+00 0.000000e+00 0.000000e+00 9.930027e-01 6.997304e-03
 0.000000e+00 0.000000e+00 0.000000e+00 0.000000e+00 0.000000e+00
<ENDHMM>
~h "co"
<BEGINHMM>
<NUMSTATES> 5
<STATE> 2
<NUMMIXES> 16
<MIXTURE> 1 8.098224e-02
<MEAN> 13
 -3.470641e+00 -4.149508e+00 -1.772376e+00 -1.559847e+00 1.996417e+00 3.974030e+00 4.158280e+00 2.231919e+00 1.233435e+00 9.129014e-01 9.206303e-01 -3.139581e+00 5.000496e+01
<VARIANCE> 13
 5.784500e+00 8.811809e+00 1.487443e+01 1.497655e+01 1.289542e+01 1.654108e+01 1.784650e+01 1.702470e+01 1.492406e+01 1.809221e+01 1.741177e+01 1.259669e+01 1.023326e+01
<GCONST> 5.762369e+01
<MIXTURE> 2 5.452297e-02
<MEAN> 13
 -5.550592e+00 -4.478890e+00 2.380058e+00 1.151787e+00 -1.826780e+00 -2.251478e+00 -1.334758e+00 -3.666110e+00 -2.061466e+00 -2.153894e+00 -2.217448e+00 -5.671170e+00 5.745176e+01
<VARIANCE> 13
 1.994679e+01 1.494736e+01 2.150928e+01 2.630961e+01 2.716776e+01 2.927824e+01 4.191165e+01 4.569335e+01 2.766518e+01 2.985031e+01 2.941611e+01 2.325292e+01 6.211458e+01
<GCONST> 6.753815e+01
<MIXTURE> 3 5.452298e-02
<MEAN> 13
 -5.550592e+00 -4.478890e+00 2.380058e+00 1.151787e+00 -1.826780e+00 -2.251479e+00 -1.334757e+00 -3.666110e+00 -2.061466e+00 -2.153894e+00 -2.217448e+00 -5.671170e+00 5.745177e+01
<VARIANCE> 13
 1.994679e+01 1.494736e+01 2.150928e+01 2.630961e+01 2.716776e+01 2.927824e+01 4.191164e+01 4.569336e+01 2.766519e+01 2.985031e+01 2.941611e+01 2.325292e+01 6.211456e+01
<GCONST> 6.753815e+01
<MIXTURE> 4 7.070465e-02
<MEAN> 13
 -5.888445e+00 -6.075179e+00 1.740365e+00 -3.506691e-01 -6.528071e+00 -6.143185e+00 -6.243136e+00 -6.505542e+00 -4.192926e+00 -4.182737e+00 -4.042437e+00 -8.624080e+00 6.520171e+01
<VARIANCE> 13
 2.009860e+01 1.596679e+01 2.479008e+01 2.652885e+01 4.276481e+01 3.575978e+01 5.011969e+01 5.761241e+01 4.265950e+01 3.993478e+01 3.824546e+01 3.326181e+01 4.489938e+01
<GCONST> 6.984628e+01
<MIXTURE> 5 5.452298e-02
<MEAN> 13
 -5.550592e+00 -4.478890e+00 2.380058e+00 1.151787e+00 -1.826780e+00 -2.251479e+00 -1.334757e+00 -3.666110e+00 -2.061466e+00 -2.153894e+00 -2.217448e+00 -5.671170e+00 5.745177e+01
<VARIANCE> 13
 1.994679e+01 1.494736e+01 2.150928e+01 2.630961e+01 2.716776e+01 2.927824e+01 4.191164e+01 4.569336e+01 2.766519e+01 2.985031e+01 2.941611e+01 2.325292e+01 6.211456e+01
<GCONST> 6.753815e+01
<MIXTURE> 6 7.070468e-02
<MEAN> 13
 -5.888445e+00 -6.075179e+00 1.740365e+00 -3.506686e-01 -6.528072e+00 -6.143185e+00 -6.243136e+00 -6.505543e+00 -4.192926e+00 -4.182737e+00 -4.042437e+00 -8.624080e+00 6.520171e+01
<VARIANCE> 13
 2.009860e+01 1.596680e+01 2.479008e+01 2.652885e+01 4.276483e+01 3.575979e+01 5.011969e+01 5.761242e+01 4.265952e+01 3.993478e+01 3.824546e+01 3.326181e+01 4.489938e+01
<GCONST> 6.984628e+01
<MIXTURE> 7 7.070453e-02
<MEAN> 13
 -5.888444e+00 -6.075178e+00 1.740365e+00 -3.506692e-01 -6.528069e+00 -6.143183e+00 -6.243136e+00 -6.505543e+00 -4.192927e+00 -4.182738e+00 -4.042437e+00 -8.624079e+00 6.520171e+01
<VARIANCE> 13
 2.009859e+01 1.596678e+01 2.479006e+01 2.652882e+01 4.276478e+01 3.575975e+01 5.011965e+01 5.761241e+01 4.265948e+01 3.993480e+01 3.824546e+01 3.326181e+01 4.489936e+01
<GCONST> 6.984628e+01
<MIXTURE> 8 6.304804e-02
<MEAN> 13
 -5.924878e+00 -6.901743e+00 -1.640678e+00 -2.747199e+00 -9.567293e+00 -8.869359e+00 -9.373445e+00 -7.042628e+00 -4.705195e+00 -6.254440e+00 -5.856737e+00 -1.127682e+01 6.969991e+01
<VARIANCE> 13
 1.085341e+01 1.315444e+01 2.485358e+01 2.158715e+01 3.608855e+01 3.775182e+01 4.608786e+01 5.814960e+01 5.104183e+01 4.495193e+01 3.957596e+01 3.959068e+01 2.655665e+01
<GCONST> 6.862366e+01
<MIXTURE> 9 5.452298e-02
<MEAN> 13
 -5.550592e+00 -4.478890e+00 2.380058e+00 1.151787e+00 -1.826780e+00 -2.251479e+00 -1.334757e+00 -3.666110e+00 -2.061466e+00 -2.153894e+00 -2.217448e+00 -5.671170e+00 5.745177e+01
<VARIANCE> 13
 1.994679e+01 1.494736e+01 2.150928e+01 2.630961e+01 2.716776e+01 2.927824e+01 4.191164e+01 4.569336e+01 2.766519e+01 2.985031e+01 2.941611e+01 2.325292e+01 6.211456e+01
<GCONST> 6.753815e+01
<MIXTURE> 10 7.070468e-02
<MEAN> 13
 -5.888445e+00 -6.075179e+00 1.740365e+00 -3.506686e-01 -6.528072e+00 -6.143185e+00 -6.243136e+00 -6.505543e+00 -4.192926e+00 -4.182737e+00 -4.042437e+00 -8.624080e+00 6.520171e+01
<VARIANCE> 13
 2.009860e+01 1.596680e+01 2.479008e+01 2.652885e+01 4.276483e+01 3.575979e+01 5.011969e+01 5.761242e+01 4.265952e+01 3.993478e+01 3.824546e+01 3.326181e+01 4.489938e+01
<GCONST> 6.984628e+01
<MIXTURE> 11 7.070453e-02
<MEAN> 13
 -5.888444e+00 -6.075178e+00 1.740365e+00 -3.506692e-01 -6.528069e+00 -6.143183e+00 -6.243136e+00 -6.505543e+00 -4.192927e+00 -4.182738e+00 -4.042437e+00 -8.624079e+00 6.520171e+01
<VARIANCE> 13
 2.009859e+01 1.596678e+01 2.479006e+01 2.652882e+01 4.276478e+01 3.575975e+01 5.011965e+01 5.761241e+01 4.265948e+01 3.993480e+01 3.824546e+01 3.326181e+01 4.489936e+01
<GCONST> 6.984628e+01
<MIXTURE> 12 6.304840e-02
<MEAN> 13
 -5.924879e+00 -6.901742e+00 -1.640678e+00 -2.747200e+00 -9.567292e+00 -8.869358e+00 -9.373443e+00 -7.042628e+00 -4.705195e+00 -6.254440e+00 -5.856738e+00 -1.127682e+01 6.969991e+01
<VARIANCE> 13
 1.085340e+01 1.315444e+01 2.485356e+01 2.158715e+01 3.608856e+01 3.775177e+01 4.608781e+01 5.814952e+01 5.104180e+01 4.495191e+01 3.957596e+01 3.959064e+01 2.655667e+01
<GCONST> 6.862364e+01
<MIXTURE> 13 7.070454e-02
<MEAN> 13
 -5.888444e+00 -6.075178e+00 1.740365e+00 -3.506692e-01 -6.528069e+00 -6.143184e+00 -6.243136e+00 -6.505543e+00 -4.192927e+00 -4.182738e+00 -4.042437e+00 -8.624079e+00 6.520171e+01
<VARIANCE> 13
 2.009859e+01 1.596678e+01 2.479006e+01 2.652883e+01 4.276478e+01 3.575976e+01 5.011965e+01 5.761241e+01 4.265947e+01 3.993480e+01 3.824546e+01 3.326181e+01 4.489937e+01
<GCONST> 6.984628e+01
<MIXTURE> 14 6.304840e-02
<MEAN> 13
 -5.924879e+00 -6.901742e+00 -1.640678e+00 -2.747200e+00 -9.567292e+00 -8.869358e+00 -9.373443e+00 -7.042628e+00 -4.705195e+00 -6.254440e+00 -5.856738e+00 -1.127682e+01 6.969991e+01
<VARIANCE> 13
 1.085340e+01 1.315444e+01 2.485356e+01 2.158715e+01 3.608856e+01 3.775177e+01 4.608781e+01 5.814952e+01 5.104180e+01 4.495191e+01 3.957596e+01 3.959064e+01 2.655667e+01
<GCONST> 6.862364e+01
<MIXTURE> 15 6.304843e-02
<MEAN> 13
 -5.924879e+00 -6.901743e+00 -1.640678e+00 -2.747200e+00 -9.567292e+00 -8.869358e+00 -9.373443e+00 -7.042627e+00 -4.705194e+00 -6.254442e+00 -5.856738e+00 -1.127682e+01 6.969991e+01
<VARIANCE> 13
 1.085340e+01 1.315443e+01 2.485355e+01 2.158714e+01 3.608855e+01 3.775177e+01 4.608783e+01 5.814951e+01 5.104177e+01 4.495193e+01 3.957593e+01 3.959063e+01 2.655666e+01
<GCONST> 6.862364e+01
<MIXTURE> 16 2.451176e-02
<MEAN> 13
 -6.315809e+00 -7.427410e+00 -3.275811e+00 -3.429095e+00 -1.103659e+01 -1.112563e+01 -1.158174e+01 -8.434776e+00 -5.821913e+00 -8.005196e+00 -7.034963e+00 -1.283764e+01 7.202235e+01
<VARIANCE> 13
 6.431913e+00 1.154788e+01 1.862826e+01 1.794416e+01 2.584032e+01 3.074961e+01 5.152094e+01 4.963945e+01 4.542348e+01 4.124577e+01 4.193348e+01 4.177245e+01 1.556026e+01
<GCONST> 6.628533e+01
<STATE> 3
<NUMMIXES> 16
<MIXTURE> 1 1.239100e-02
<MEAN> 13
 -2.181653e+00 1.428620e+00 7.239367e+00 6.233138e+00 4.686174e+00 2.197510e+00 8.661433e-01 -1.557735e+00 -1.875713e+00 -1.075881e+00 -3.063135e+00 -6.503333e+00 4.958218e+01
<VARIANCE> 13
 4.490107e+00 1.085974e+01 2.355683e+01 2.176925e+01 1.693051e+01 1.279414e+01 1.630024e+01 2.047066e+01 1.595705e+01 1.793170e+01 2.062318e+01 1.335816e+01 2.542465e+01
<GCONST> 5.971827e+01
<MIXTURE> 2 5.165048e-02
<MEAN> 13
 -2.376738e+00 1.830805e+00 5.438789e+00 3.892128e+00 3.873935e+00 1.364167e+00 1.464725e-01 -1.683091e+00 -3.544583e+00 -2.536758e+00 -2.914327e+00 -6.851426e+00 4.832704e+01
<VARIANCE> 13
 5.775838e+00 1.253338e+01 1.718718e+01 1.856364e+01 1.528624e+01 1.521531e+01 1.776540e+01 2.028036e+01 1.849729e+01 1.783224e+01 1.672643e+01 1.578863e+01 2.034468e+01
<GCONST> 5.966374e+01
<MIXTURE> 3 5.165046e-02
<MEAN> 13
 -2.376738e+00 1.830806e+00 5.438789e+00 3.892128e+00 3.873935e+00 1.364167e+00 1.464731e-01 -1.683091e+00 -3.544584e+00 -2.536758e+00 -2.914327e+00 -6.851427e+00 4.832704e+01
<VARIANCE> 13
 5.775838e+00 1.253338e+01 1.718718e+01 1.856363e+01 1.528624e+01 1.521531e+01 1.776540e+01 2.028035e+01 1.849729e+01 1.783223e+01 1.672643e+01 1.578862e+01 2.034468e+01
<GCONST> 5.966374e+01
<MIXTURE> 4 8.414546e-02
<MEAN> 13
 -2.018239e+00 1.149563e+00 4.438722e+00 2.409477e+00 2.761480e+00 -2.885010e-01 -1.773163e+00 -3.657436e+00 -5.419563e+00 -3.977670e+00 -3.333245e+00 -7.551421e+00 4.907672e+01
<VARIANCE> 13
 6.390071e+00 1.397394e+01 1.418140e+01 1.553134e+01 1.532771e+01 1.829061e+01 1.937530e+01 2.282845e+01 1.892797e+01 1.911327e+01 1.564180e+01 1.713050e+01 2.037537e+01
<GCONST> 6.000335e+01
<MIXTURE> 5 5.165046e-02
<MEAN> 13
 -2.376738e+00 1.830806e+00 5.438789e+00 3.892128e+00 3.873935e+00 1.364167e+00 1.464731e-01 -1.683091e+00 -3.544584e+00 -2.536758e+00 -2.914327e+00 -6.851427e+00 4.832704e+01
<VARIANCE> 13
 5.775838e+00 1.253338e+01 1.718718e+01 1.856363e+01 1.528624e+01 1.521531e+01 1.776540e+01 2.028035e+01 1.849729e+01 1.783223e+01 1.672643e+01 1.578862e+01 2.034468e+01
<GCONST> 5.966374e+01
<MIXTURE> 6 8.414546e-02
<MEAN> 13
 -2.018239e+00 1.149563e+00 4.438722e+00 2.409477e+00 2.761480e+00 -2.885010e-01 -1.773163e+00 -3.657436e+00 -5.419563e+00 -3.977670e+00 -3.333245e+00 -7.551421e+00 4.907672e+01
<VARIANCE> 13
 6.390071e+00 1.397394e+01 1.418140e+01 1.553134e+01 1.532771e+01 1.829061e+01 1.937530e+01 2.282845e+01 1.892797e+01 1.911327e+01 1.564180e+01 1.713050e+01 2.037537e+01
<GCONST> 6.000335e+01
<MIXTURE> 7 8.414546e-02
<MEAN> 13
 -2.018239e+00 1.149563e+00 4.438722e+00 2.409477e+00 2.761480e+00 -2.885010e-01 -1.773163e+00 -3.657436e+00 -5.419564e+00 -3.977671e+00 -3.333245e+00 -7.551421e+00 4.907672e+01
<VARIANCE> 13
 6.390072e+00 1.397394e+01 1.418140e+01 1.553134e+01 1.532771e+01 1.829061e+01 1.937530e+01 2.282846e+01 1.892797e+01 1.911327e+01 1.564180e+01 1.713050e+01 2.037537e+01
<GCONST> 6.000335e+01
<MIXTURE> 8 6.238595e-02
<MEAN> 13
 -1.301130e+00 -4.411147e-01 3.811121e+00 1.393530e+00 1.259559e+00 -2.476323e+00 -4.253007e+00 -6.460183e+00 -7.352851e+00 -5.437270e+00 -3.718951e+00 -8.164895e+00 5.124252e+01
<VARIANCE> 13
 5.788608e+00 1.215278e+01 1.543839e+01 1.695485e+01 1.612412e+01 2.045878e+01 2.143701e+01 2.597644e+01 2.105932e+01 2.388375e+01 1.816995e+01 1.873064e+01 1.879424e+01
<GCONST> 6.081833e+01
<MIXTURE> 9 5.165019e-02
<MEAN> 13
 -2.376739e+00 1.830806e+00 5.438787e+00 3.892127e+00 3.873933e+00 1.364168e+00 1.464734e-01 -1.683090e+00 -3.544582e+00 -2.536757e+00 -2.914327e+00 -6.851427e+00 4.832704e+01
<VARIANCE> 13
 5.775843e+00 1.253338e+01 1.718718e+01 1.856363e+01 1.528626e+01 1.521532e+01 1.776542e+01 2.028036e+01 1.849729e+01 1.783224e+01 1.672645e+01 1.578864e+01 2.034468e+01
<GCONST> 5.966374e+01
<MIXTURE> 10 8.414546e-02
<MEAN> 13
 -2.018239e+00 1.149563e+00 4.438722e+00 2.409477e+00 2.761480e+00 -2.885010e-01 -1.773163e+00 -3.657436e+00 -5.419564e+00 -3.977671e+00 -3.333245e+00 -7.551421e+00 4.907672e+01
<VARIANCE> 13
 6.390072e+00 1.397394e+01 1.418140e+01 1.553134e+01 1.532771e+01 1.829061e+01 1.937530e+01 2.282846e+01 1.892797e+01 1.911327e+01 1.564180e+01 1.713050e+01 2.037537e+01
<GCONST> 6.000335e+01
<MIXTURE> 11 8.414546e-02
<MEAN> 13
 -2.018239e+00 1.149563e+00 4.438722e+00 2.409477e+00 2.761480e+00 -2.885010e-01 -1.773163e+00 -3.657436e+00 -5.419564e+00 -3.977671e+00 -3.333245e+00 -7.551421e+00 4.907672e+01
<VARIANCE> 13
 6.390072e+00 1.397394e+01 1.418140e+01 1.553134e+01 1.532771e+01 1.829061e+01 1.937530e+01 2.282846e+01 1.892797e+01 1.911327e+01 1.564180e+01 1.713050e+01 2.037537e+01
<GCONST> 6.000335e+01
<MIXTURE> 12 6.238595e-02
<MEAN> 13
 -1.301130e+00 -4.411145e-01 3.811121e+00 1.393531e+00 1.259559e+00 -2.476323e+00 -4.253008e+00 -6.460183e+00 -7.352851e+00 -5.437270e+00 -3.718951e+00 -8.164895e+00 5.124252e+01
<VARIANCE> 13
 5.788607e+00 1.215278e+01 1.543839e+01 1.695486e+01 1.612412e+01 2.045878e+01 2.143701e+01 2.597644e+01 2.105932e+01 2.388375e+01 1.816996e+01 1.873065e+01 1.879424e+01
<GCONST> 6.081833e+01
<MIXTURE> 13 8.414546e-02
<MEAN> 13
 -2.018239e+00 1.149562e+00 4.438722e+00 2.409477e+00 2.761480e+00 -2.885014e-01 -1.773163e+00 -3.657436e+00 -5.419564e+00 -3.977671e+00 -3.333245e+00 -7.551421e+00 4.907672e+01
<VARIANCE> 13
 6.390070e+00 1.397394e+01 1.418140e+01 1.553133e+01 1.532771e+01 1.829061e+01 1.937530e+01 2.282846e+01 1.892797e+01 1.911327e+01 1.564180e+01 1.713050e+01 2.037537e+01
<GCONST> 6.000335e+01
<MIXTURE> 14 6.238595e-02
<MEAN> 13
 -1.301130e+00 -4.411145e-01 3.811121e+00 1.393531e+00 1.259559e+00 -2.476323e+00 -4.253008e+00 -6.460183e+00 -7.352851e+00 -5.437270e+00 -3.718951e+00 -8.164895e+00 5.124252e+01
<VARIANCE> 13
 5.788607e+00 1.215278e+01 1.543839e+01 1.695486e+01 1.612412e+01 2.045878e+01 2.143701e+01 2.597644e+01 2.105932e+01 2.388375e+01 1.816996e+01 1.873065e+01 1.879424e+01
<GCONST> 6.081833e+01
<MIXTURE> 15 6.238593e-02
<MEAN> 13
 -1.301130e+00 -4.411148e-01 3.811120e+00 1.393530e+00 1.259558e+00 -2.476324e+00 -4.253008e+00 -6.460183e+00 -7.352851e+00 -5.437270e+00 -3.718951e+00 -8.164894e+00 5.124252e+01
<VARIANCE> 13
 5.788605e+00 1.215277e+01 1.543839e+01 1.695485e+01 1.612411e+01 2.045877e+01 2.143700e+01 2.597643e+01 2.105932e+01 2.388375e+01 1.816995e+01 1.873064e+01 1.879425e+01
<GCONST> 6.081832e+01
<MIXTURE> 16 2.658500e-02
<MEAN> 13
 -9.042940e-01 -1.725950e+00 2.558237e+00 1.243262e-01 -2.412813e-01 -5.240681e+00 -6.858981e+00 -8.375100e+00 -1.007820e+01 -7.186844e+00 -3.910789e+00 -7.830337e+00 5.259623e+01
<VARIANCE> 13
 4.584420e+00 7.627959e+00 1.584610e+01 1.613470e+01 1.625781e+01 2.330453e+01 2.097574e+01 2.348528e+01 2.454070e+01 2.383091e+01 2.333617e+01 1.829251e+01 1.228459e+01
<GCONST> 6.006390e+01
<STATE> 4
<NUMMIXES> 16
<MIXTURE> 1 2.016750e-02
<MEAN> 13
 -4.247934e+00 -1.600103e+00 -1.943335e+00 -8.137136e-01 2.232676e+00 5.691610e+00 6.994085e+00 4.641418e+00 3.018474e+00 4.289091e+00 3.227077e+00 -1.009919e+00 4.745844e+01
<VARIANCE> 13
 6.156742e+00 1.406372e+01 8.820179e+00 1.084982e+01 9.737770e+00 1.291739e+01 1.135936e+01 1.389037e+01 1.436314e+01 1.416360e+01 1.150985e+01 1.164273e+01 9.225627e+00
<GCONST> 5.524577e+01
<MIXTURE> 2 6.072104e-02
<MEAN> 13
 -4.260829e+00 -1.480183e+00 -1.889775e+00 -9.834391e-01 1.679808e+00 4.504564e+00 5.756588e+00 3.100412e+00 1.351679e+00 2.755435e+00 2.063988e+00 -1.571648e+00 4.748766e+01
<VARIANCE> 13
 5.856410e+00 1.408520e+01 9.401127e+00 1.020393e+01 9.991061e+00 1.279135e+01 1.109478e+01 1.298088e+01 1.348997e+01 1.306270e+01 1.152444e+01 1.242757e+01 9.055256e+00
<GCONST> 5.502851e+01
<MIXTURE> 3 6.072102e-02
<MEAN> 13
 -4.260829e+00 -1.480182e+00 -1.889774e+00 -9.834383e-01 1.679809e+00 4.504564e+00 5.756588e+00 3.100411e+00 1.351678e+00 2.755435e+00 2.063988e+00 -1.571648e+00 4.748766e+01
<VARIANCE> 13
 5.856411e+00 1.408520e+01 9.401124e+00 1.020393e+01 9.991063e+00 1.279134e+01 1.109478e+01 1.298088e+01 1.348996e+01 1.306270e+01 1.152444e+01 1.242757e+01 9.055254e+00
<GCONST> 5.502851e+01
<MIXTURE> 4 7.881276e-02
<MEAN> 13
 -4.294792e+00 -1.951410e+00 -2.231310e+00 -1.802941e+00 9.402640e-01 3.270290e+00 4.292830e+00 1.409406e+00 -3.674291e-01 1.160957e+00 7.737629e-01 -2.367017e+00 4.795118e+01
<VARIANCE> 13
 6.873118e+00 1.510635e+01 9.962585e+00 1.013141e+01 1.137200e+01 1.399090e+01 1.134029e+01 1.327345e+01 1.327745e+01 1.307700e+01 1.244178e+01 1.268268e+01 9.191467e+00
<GCONST> 5.566980e+01
<MIXTURE> 5 6.072102e-02
<MEAN> 13
 -4.260829e+00 -1.480182e+00 -1.889774e+00 -9.834383e-01 1.679809e+00 4.504564e+00 5.756588e+00 3.100411e+00 1.351678e+00 2.755435e+00 2.063988e+00 -1.571648e+00 4.748766e+01
<VARIANCE> 13
 5.856411e+00 1.408520e+01 9.401124e+00 1.020393e+01 9.991063e+00 1.279134e+01 1.109478e+01 1.298088e+01 1.348996e+01 1.306270e+01 1.152444e+01 1.242757e+01 9.055254e+00
<GCONST> 5.502851e+01
<MIXTURE> 6 7.881276e-02
<MEAN> 13
 -4.294792e+00 -1.951410e+00 -2.231310e+00 -1.802941e+00 9.402640e-01 3.270290e+00 4.292830e+00 1.409406e+00 -3.674291e-01 1.160957e+00 7.737629e-01 -2.367017e+00 4.795118e+01
<VARIANCE> 13
 6.873118e+00 1.510635e+01 9.962585e+00 1.013141e+01 1.137200e+01 1.399090e+01 1.134029e+01 1.327345e+01 1.327745e+01 1.307700e+01 1.244178e+01 1.268268e+01 9.191467e+00
<GCONST> 5.566980e+01
<MIXTURE> 7 7.881276e-02
<MEAN> 13
 -4.294792e+00 -1.951410e+00 -2.231310e+00 -1.802941e+00 9.402640e-01 3.270290e+00 4.292830e+00 1.409406e+00 -3.674291e-01 1.160957e+00 7.737629e-01 -2.367017e+00 4.795118e+01
<VARIANCE> 13
 6.873118e+00 1.510635e+01 9.962585e+00 1.013141e+01 1.137200e+01 1.399090e+01 1.134029e+01 1.327345e+01 1.327745e+01 1.307700e+01 1.244178e+01 1.268268e+01 9.191467e+00
<GCONST> 5.566980e+01
<MIXTURE> 8 5.837553e-02
<MEAN> 13
 -4.370173e+00 -2.804528e+00 -2.940315e+00 -3.026546e+00 -1.954253e-01 1.724565e+00 2.434939e+00 -5.033581e-01 -2.112805e+00 -4.550414e-01 -5.021956e-01 -3.183262e+00 4.860289e+01
<VARIANCE> 13
 8.727169e+00 1.589734e+01 1.058352e+01 9.770530e+00 1.268557e+01 1.582501e+01 1.243831e+01 1.445138e+01 1.372416e+01 1.297523e+01 1.334137e+01 1.377141e+01 8.951943e+00
<GCONST> 5.654483e+01
<MIXTURE> 9 6.072105e-02
<MEAN> 13
 -4.260829e+00 -1.480183e+00 -1.889774e+00 -9.834387e-01 1.679808e+00 4.504564e+00 5.756587e+00 3.100411e+00 1.351678e+00 2.755435e+00 2.063989e+00 -1.571648e+00 4.748766e+01
<VARIANCE> 13
 5.856410e+00 1.408519e+01 9.401124e+00 1.020393e+01 9.991063e+00 1.279135e+01 1.109478e+01 1.298087e+01 1.348996e+01 1.306270e+01 1.152444e+01 1.242757e+01 9.055253e+00
<GCONST> 5.502851e+01
<MIXTURE> 10 7.881276e-02
<MEAN> 13
 -4.294792e+00 -1.951410e+00 -2.231310e+00 -1.802941e+00 9.402640e-01 3.270290e+00 4.292830e+00 1.409406e+00 -3.674291e-01 1.160957e+00 7.737629e-01 -2.367017e+00 4.795118e+01
<VARIANCE> 13
 6.873118e+00 1.510635e+01 9.962585e+00 1.013141e+01 1.137200e+01 1.399090e+01 1.134029e+01 1.327345e+01 1.327745e+01 1.307700e+01 1.244178e+01 1.268268e+01 9.191467e+00
<GCONST> 5.566980e+01
<MIXTURE> 11 7.881276e-02
<MEAN> 13
 -4.294792e+00 -1.951410e+00 -2.231310e+00 -1.802941e+00 9.402640e-01 3.270290e+00 4.292830e+00 1.409406e+00 -3.674291e-01 1.160957e+00 7.737629e-01 -2.367017e+00 4.795118e+01
<VARIANCE> 13
 6.873118e+00 1.510635e+01 9.962585e+00 1.013141e+01 1.137200e+01 1.399090e+01 1.134029e+01 1.327345e+01 1.327745e+01 1.307700e+01 1.244178e+01 1.268268e+01 9.191467e+00
<GCONST> 5.566980e+01
<MIXTURE> 12 5.837550e-02
<MEAN> 13
 -4.370174e+00 -2.804528e+00 -2.940315e+00 -3.026546e+00 -1.954250e-01 1.724564e+00 2.434939e+00 -5.033578e-01 -2.112806e+00 -4.550420e-01 -5.021957e-01 -3.183262e+00 4.860289e+01
<VARIANCE> 13
 8.727174e+00 1.589733e+01 1.058352e+01 9.770528e+00 1.268556e+01 1.582501e+01 1.243831e+01 1.445138e+01 1.372416e+01 1.297523e+01 1.334137e+01 1.377141e+01 8.951947e+00
<GCONST> 5.654483e+01
<MIXTURE> 13 7.881276e-02
<MEAN> 13
 -4.294792e+00 -1.951410e+00 -2.231310e+00 -1.802941e+00 9.402640e-01 3.270290e+00 4.292830e+00 1.409406e+00 -3.674291e-01 1.160957e+00 7.737629e-01 -2.367017e+00 4.795118e+01
<VARIANCE> 13
 6.873118e+00 1.510635e+01 9.962585e+00 1.013141e+01 1.137200e+01 1.399090e+01 1.134029e+01 1.327345e+01 1.327745e+01 1.307700e+01 1.244178e+01 1.268268e+01 9.191467e+00
<GCONST> 5.566980e+01
<MIXTURE> 14 5.837550e-02
<MEAN> 13
 -4.370174e+00 -2.804528e+00 -2.940315e+00 -3.026546e+00 -1.954250e-01 1.724564e+00 2.434939e+00 -5.033578e-01 -2.112806e+00 -4.550420e-01 -5.021957e-01 -3.183262e+00 4.860289e+01
<VARIANCE> 13
 8.727174e+00 1.589733e+01 1.058352e+01 9.770528e+00 1.268556e+01 1.582501e+01 1.243831e+01 1.445138e+01 1.372416e+01 1.297523e+01 1.334137e+01 1.377141e+01 8.951947e+00
<GCONST> 5.654483e+01
<MIXTURE> 15 5.837555e-02
<MEAN> 13
 -4.370173e+00 -2.804528e+00 -2.940314e+00 -3.026546e+00 -1.954256e-01 1.724565e+00 2.434938e+00 -5.033582e-01 -2.112806e+00 -4.550415e-01 -5.021957e-01 -3.183262e+00 4.860289e+01
<VARIANCE> 13
 8.727174e+00 1.589734e+01 1.058352e+01 9.770530e+00 1.268558e+01 1.582503e+01 1.243831e+01 1.445139e+01 1.372417e+01 1.297523e+01 1.334137e+01 1.377141e+01 8.951947e+00
<GCONST> 5.654483e+01
<MIXTURE> 16 3.061573e-02
<MEAN> 13
 -4.513081e+00 -3.641052e+00 -3.625407e+00 -4.387641e+00 -1.779287e+00 -1.662579e-01 3.394854e-02 -2.800787e+00 -3.800951e+00 -1.921927e+00 -1.539856e+00 -3.867714e+00 4.943574e+01
<VARIANCE> 13
 1.290289e+01 1.629917e+01 1.053693e+01 1.010579e+01 1.376335e+01 1.631747e+01 1.311443e+01 1.516753e+01 1.717989e+01 1.276592e+01 1.458205e+01 1.514881e+01 1.025175e+01
<GCONST> 5.773176e+01
<TRANSP> 5
 0.000000e+00 1.000000e+00 0.000000e+00 0.000000e+00 0.000000e+00
 0.000000e+00 9.914704e-01 8.529610e-03 0.000000e+00 0.000000e+00
 0.000000e+00 0.000000e+00 9.648605e-01 3.513954e-02 0.000000e+00
 0.000000e+00 0.000000e+00 0.000000e+00 9.918806e-01 8.119452e-03
 0.000000e+00 0.000000e+00 0.000000e+00 0.000000e+00 0.000000e+00
<ENDHMM>
~h "ds"
<BEGINHMM>
<NUMSTATES> 5
<STATE> 2
<NUMMIXES> 16
<MIXTURE> 1 5.153722e-02
<MEAN> 13
 -7.396382e+00 5.803569e+00 8.256087e+00 7.575807e+00 8.715569e+00 5.044146e+00 8.264223e+00 8.957694e-01 2.881812e+00 1.016055e+00 2.979146e+00 4.421417e-01 6.179753e+01
<VARIANCE> 13
 1.144994e+01 4.909234e+00 9.134583e+00 6.497586e+00 7.969403e+00 9.945252e+00 1.057819e+01 1.219726e+01 1.272139e+01 1.228358e+01 1.326596e+01 1.199673e+01 7.104124e+01
<GCONST> 5.562236e+01
<MIXTURE> 2 4.644742e-02
<MEAN> 13
 -8.391393e+00 4.626909e+00 5.878364e+00 5.168804e+00 6.474362e+00 3.419292e+00 6.352250e+00 -1.680999e-01 2.188286e+00 3.258388e-01 2.423414e+00 -4.494484e-01 6.065272e+01
<VARIANCE> 13
 1.504366e+01 1.017106e+01 1.120587e+01 9.755615e+00 1.211225e+01 1.506393e+01 1.450529e+01 1.624641e+01 1.697592e+01 1.694114e+01 1.653134e+01 1.440164e+01 1.020912e+02
<GCONST> 6.004610e+01
<MIXTURE> 3 4.644743e-02
<MEAN> 13
 -8.391393e+00 4.626908e+00 5.878364e+00 5.168804e+00 6.474362e+00 3.419292e+00 6.352250e+00 -1.681000e-01 2.188286e+00 3.258394e-01 2.423415e+00 -4.494476e-01 6.065272e+01
<VARIANCE> 13
 1.504366e+01 1.017105e+01 1.120586e+01 9.755613e+00 1.211225e+01 1.506392e+01 1.450529e+01 1.624641e+01 1.697592e+01 1.694114e+01 1.653134e+01 1.440164e+01 1.020912e+02
<GCONST> 6.004610e+01
<MIXTURE> 4 6.263171e-02
<MEAN> 13
 -1.088768e+01 1.358610e+00 2.217415e+00 1.112777e+00 2.620503e+00 7.840322e-01 3.529457e+00 -1.260510e+00 1.578985e+00 2.720355e-01 3.229842e+00 -4.896123e-01 5.704370e+01
<VARIANCE> 13
 1.618822e+01 1.054954e+01 1.107666e+01 1.159332e+01 1.607259e+01 2.183587e+01 2.369159e+01 2.163539e+01 2.595165e+01 2.838311e+01 1.918354e+01 1.677013e+01 6.831170e+01
<GCONST> 6.258792e+01
<MIXTURE> 5 4.644743e-02
<MEAN> 13
 -8.391393e+00 4.626908e+00 5.878364e+00 5.168804e+00 6.474362e+00 3.419292e+00 6.352250e+00 -1.681000e-01 2.188286e+00 3.258394e-01 2.423415e+00 -4.494476e-01 6.065272e+01
<VARIANCE> 13
 1.504366e+01 1.017105e+01 1.120586e+01 9.755613e+00 1.211225e+01 1.506392e+01 1.450529e+01 1.624641e+01 1.697592e+01 1.694114e+01 1.653134e+01 1.440164e+01 1.020912e+02
<GCONST> 6.004610e+01
<MIXTURE> 6 6.263170e-02
<MEAN> 13
 -1.088768e+01 1.358610e+00 2.217415e+00 1.112777e+00 2.620503e+00 7.840325e-01 3.529457e+00 -1.260510e+00 1.578985e+00 2.720351e-01 3.229842e+00 -4.896123e-01 5.704370e+01
<VARIANCE> 13
 1.618822e+01 1.054954e+01 1.107666e+01 1.159332e+01 1.607259e+01 2.183588e+01 2.369159e+01 2.163539e+01 2.595165e+01 2.838312e+01 1.918354e+01 1.677013e+01 6.831171e+01
<GCONST> 6.258792e+01
<MIXTURE> 7 6.263170e-02
<MEAN> 13
 -1.088768e+01 1.358610e+00 2.217415e+00 1.112777e+00 2.620503e+00 7.840325e-01 3.529457e+00 -1.260510e+00 1.578985e+00 2.720351e-01 3.229842e+00 -4.896123e-01 5.704370e+01
<VARIANCE> 13
 1.618822e+01 1.054954e+01 1.107666e+01 1.159332e+01 1.607259e+01 2.183588e+01 2.369159e+01 2.163539e+01 2.595165e+01 2.838312e+01 1.918354e+01 1.677013e+01 6.831171e+01
<GCONST> 6.258792e+01
<MIXTURE> 8 8.138926e-02
<MEAN> 13
 -1.182878e+01 -8.999392e-02 2.385810e-01 -9.470589e-01 1.233587e-01 -1.774365e+00 2.065144e+00 -2.504748e+00 -2.651528e-01 2.493659e-01 2.596247e+00 -1.418670e+00 5.849430e+01
<VARIANCE> 13
 2.020649e+01 9.320257e+00 1.105649e+01 1.250272e+01 1.916665e+01 1.780763e+01 2.543105e+01 2.454843e+01 2.342942e+01 2.436812e+01 1.883614e+01 1.684265e+01 6.626503e+01
<GCONST> 6.262960e+01
<MIXTURE> 9 4.644747e-02
<MEAN> 13
 -8.391394e+00 4.626910e+00 5.878364e+00 5.168806e+00 6.474361e+00 3.419290e+00 6.352249e+00 -1.681017e-01 2.188286e+00 3.258387e-01 2.423414e+00 -4.494469e-01 6.065273e+01
<VARIANCE> 13
 1.504366e+01 1.017106e+01 1.120586e+01 9.755606e+00 1.211225e+01 1.506393e+01 1.450529e+01 1.624641e+01 1.697592e+01 1.694114e+01 1.653133e+01 1.440164e+01 1.020913e+02
<GCONST> 6.004610e+01
<MIXTURE> 10 6.263170e-02
<MEAN> 13
 -1.088768e+01 1.358610e+00 2.217415e+00 1.112777e+00 2.620503e+00 7.840325e-01 3.529457e+00 -1.260510e+00 1.578985e+00 2.720351e-01 3.229842e+00 -4.896123e-01 5.704370e+01
<VARIANCE> 13
 1.618822e+01 1.054954e+01 1.107666e+01 1.159332e+01 1.607259e+01 2.183588e+01 2.369159e+01 2.163539e+01 2.595165e+01 2.838312e+01 1.918354e+01 1.677013e+01 6.831171e+01
<GCONST> 6.258792e+01
<MIXTURE> 11 6.263170e-02
<MEAN> 13
 -1.088768e+01 1.358610e+00 2.217415e+00 1.112777e+00 2.620503e+00 7.840323e-01 3.529457e+00 -1.260510e+00 1.578986e+00 2.720352e-01 3.229842e+00 -4.896123e-01 5.704370e+01
<VARIANCE> 13
 1.618822e+01 1.054954e+01 1.107666e+01 1.159332e+01 1.607259e+01 2.183588e+01 2.369159e+01 2.163539e+01 2.595165e+01 2.838312e+01 1.918354e+01 1.677013e+01 6.831171e+01
<GCONST> 6.258792e+01
<MIXTURE> 12 8.138926e-02
<MEAN> 13
 -1.182878e+01 -8.999430e-02 2.385809e-01 -9.470590e-01 1.233589e-01 -1.774365e+00 2.065144e+00 -2.504747e+00 -2.651525e-01 2.493656e-01 2.596246e+00 -1.418670e+00 5.849430e+01
<VARIANCE> 13
 2.020649e+01 9.320258e+00 1.105649e+01 1.250272e+01 1.916666e+01 1.780764e+01 2.543106e+01 2.454844e+01 2.342943e+01 2.436812e+01 1.883615e+01 1.684265e+01 6.626505e+01
<GCONST> 6.262960e+01
<MIXTURE> 13 6.263169e-02
<MEAN> 13
 -1.088768e+01 1.358610e+00 2.217415e+00 1.112777e+00 2.620503e+00 7.840317e-01 3.529457e+00 -1.260510e+00 1.578985e+00 2.720355e-01 3.229842e+00 -4.896123e-01 5.704370e+01
<VARIANCE> 13
 1.618822e+01 1.054954e+01 1.107666e+01 1.159332e+01 1.607259e+01 2.183587e+01 2.369158e+01 2.163538e+01 2.595164e+01 2.838312e+01 1.918354e+01 1.677013e+01 6.831172e+01
<GCONST> 6.258792e+01
<MIXTURE> 14 8.138926e-02
<MEAN> 13
 -1.182878e+01 -8.999430e-02 2.385809e-01 -9.470590e-01 1.233589e-01 -1.774365e+00 2.065144e+00 -2.504747e+00 -2.651525e-01 2.493656e-01 2.596246e+00 -1.418670e+00 5.849430e+01
<VARIANCE> 13
 2.020649e+01 9.320258e+00 1.105649e+01 1.250272e+01 1.916666e+01 1.780764e+01 2.543106e+01 2.454844e+01 2.342943e+01 2.436812e+01 1.883615e+01 1.684265e+01 6.626505e+01
<GCONST> 6.262960e+01
<MIXTURE> 15 8.138926e-02
<MEAN> 13
 -1.182878e+01 -8.999431e-02 2.385810e-01 -9.470587e-01 1.233597e-01 -1.774364e+00 2.065144e+00 -2.504747e+00 -2.651521e-01 2.493657e-01 2.596246e+00 -1.418671e+00 5.849430e+01
<VARIANCE> 13
 2.020649e+01 9.320254e+00 1.105649e+01 1.250273e+01 1.916666e+01 1.780763e+01 2.543105e+01 2.454844e+01 2.342943e+01 2.436812e+01 1.883615e+01 1.684264e+01 6.626504e+01
<GCONST> 6.262960e+01
<MIXTURE> 16 6.132080e-02
<MEAN> 13
 -1.364592e+01 -1.527643e+00 -2.272752e+00 -3.213677e+00 -2.950151e+00 -4.145925e+00 6.883065e-01 -3.539752e+00 -1.754896e+00 1.908032e-01 1.797828e+00 -1.848896e+00 5.972836e+01
<VARIANCE> 13
 3.578046e+01 1.335144e+01 1.747594e+01 1.650886e+01 2.680752e+01 2.153181e+01 3.490099e+01 3.253744e+01 2.600584e+01 2.862494e+01 2.365005e+01 2.202075e+01 1.847030e+02
<GCONST> 6.720596e+01
<STATE> 3
<NUMMIXES> 16
<MIXTURE> 1 5.182160e-02
<MEAN> 13
 -4.867306e+00 3.597330e+00 4.152986e+00 3.495902e+00 6.306143e+00 6.484019e+00 8.366487e+00 4.506947e+00 3.492838e+00 2.481323e+00 2.358868e+00 -1.771389e+00 4.994138e+01
<VARIANCE> 13
 8.398499e+00 7.710562e+00 1.121977e+01 7.796322e+00 1.307789e+01 1.262591e+01 1.304527e+01 1.347591e+01 1.485417e+01 1.318717e+01 1.590489e+01 1.203804e+01 1.180250e+01
<GCONST> 5.581091e+01
<MIXTURE> 2 5.628239e-02
<MEAN> 13
 -6.187511e+00 2.626886e+00 1.901883e+00 1.053402e+00 3.086699e+00 3.776643e+00 5.783723e+00 3.123506e+00 2.500046e+00 2.578222e+00 2.519589e+00 -1.533947e+00 4.825297e+01
<VARIANCE> 13
 9.180087e+00 5.682247e+00 9.447395e+00 8.735848e+00 1.626551e+01 1.403708e+01 1.436204e+01 1.588090e+01 1.587576e+01 1.468577e+01 1.433870e+01 1.160604e+01 9.900348e+00
<GCONST> 5.597915e+01
<MIXTURE> 3 5.628239e-02
<MEAN> 13
 -6.187511e+00 2.626886e+00 1.901883e+00 1.053402e+00 3.086699e+00 3.776643e+00 5.783723e+00 3.123506e+00 2.500046e+00 2.578222e+00 2.519589e+00 -1.533947e+00 4.825297e+01
<VARIANCE> 13
 9.180087e+00 5.682247e+00 9.447395e+00 8.735848e+00 1.626551e+01 1.403708e+01 1.436204e+01 1.588090e+01 1.587576e+01 1.468577e+01 1.433870e+01 1.160604e+01 9.900348e+00
<GCONST> 5.597915e+01
<MIXTURE> 4 7.344358e-02
<MEAN> 13
 -6.396737e+00 2.097744e+00 5.131435e-01 -7.648988e-01 6.030721e-01 1.769055e+00 3.593617e+00 1.733072e+00 1.137932e+00 1.785355e+00 1.492355e+00 -2.252539e+00 4.733240e+01
<VARIANCE> 13
 8.661138e+00 4.775037e+00 8.404336e+00 9.552327e+00 1.688111e+01 1.347411e+01 1.441883e+01 1.708437e+01 1.607773e+01 1.719070e+01 1.449802e+01 1.234876e+01 7.824184e+00
<GCONST> 5.580044e+01
<MIXTURE> 5 5.628239e-02
<MEAN> 13
 -6.187511e+00 2.626886e+00 1.901883e+00 1.053402e+00 3.086699e+00 3.776643e+00 5.783723e+00 3.123506e+00 2.500046e+00 2.578222e+00 2.519589e+00 -1.533947e+00 4.825297e+01
<VARIANCE> 13
 9.180087e+00 5.682247e+00 9.447395e+00 8.735848e+00 1.626551e+01 1.403708e+01 1.436204e+01 1.588090e+01 1.587576e+01 1.468577e+01 1.433870e+01 1.160604e+01 9.900348e+00
<GCONST> 5.597915e+01
<MIXTURE> 6 7.344358e-02
<MEAN> 13
 -6.396737e+00 2.097744e+00 5.131435e-01 -7.648988e-01 6.030721e-01 1.769055e+00 3.593617e+00 1.733072e+00 1.137932e+00 1.785355e+00 1.492355e+00 -2.252539e+00 4.733240e+01
<VARIANCE> 13
 8.661138e+00 4.775037e+00 8.404336e+00 9.552327e+00 1.688111e+01 1.347411e+01 1.441883e+01 1.708437e+01 1.607773e+01 1.719070e+01 1.449802e+01 1.234876e+01 7.824184e+00
<GCONST> 5.580044e+01
<MIXTURE> 7 7.344358e-02
<MEAN> 13
 -6.396737e+00 2.097744e+00 5.131435e-01 -7.648988e-01 6.030721e-01 1.769055e+00 3.593617e+00 1.733072e+00 1.137932e+00 1.785355e+00 1.492355e+00 -2.252539e+00 4.733240e+01
<VARIANCE> 13
 8.661138e+00 4.775037e+00 8.404336e+00 9.552327e+00 1.688111e+01 1.347411e+01 1.441883e+01 1.708437e+01 1.607773e+01 1.719070e+01 1.449802e+01 1.234876e+01 7.824184e+00
<GCONST> 5.580044e+01
<MIXTURE> 8 6.164218e-02
<MEAN> 13
 -6.155758e+00 1.413960e+00 -5.629894e-01 -2.354153e+00 -1.619142e+00 1.779282e-01 1.959561e+00 3.518330e-01 -4.852074e-02 9.979454e-01 1.244707e-01 -3.430895e+00 4.742042e+01
<VARIANCE> 13
 8.967751e+00 5.648619e+00 9.268626e+00 1.162698e+01 1.887996e+01 1.490583e+01 1.643273e+01 1.955615e+01 1.735718e+01 1.937849e+01 1.692046e+01 1.423774e+01 8.385061e+00
<GCONST> 5.733887e+01
<MIXTURE> 9 5.628239e-02
<MEAN> 13
 -6.187511e+00 2.626886e+00 1.901883e+00 1.053402e+00 3.086699e+00 3.776643e+00 5.783723e+00 3.123506e+00 2.500046e+00 2.578222e+00 2.519589e+00 -1.533947e+00 4.825297e+01
<VARIANCE> 13
 9.180087e+00 5.682247e+00 9.447395e+00 8.735848e+00 1.626551e+01 1.403708e+01 1.436204e+01 1.588090e+01 1.587576e+01 1.468577e+01 1.433870e+01 1.160604e+01 9.900348e+00
<GCONST> 5.597915e+01
<MIXTURE> 10 7.344358e-02
<MEAN> 13
 -6.396737e+00 2.097744e+00 5.131435e-01 -7.648988e-01 6.030721e-01 1.769055e+00 3.593617e+00 1.733072e+00 1.137932e+00 1.785355e+00 1.492355e+00 -2.252539e+00 4.733240e+01
<VARIANCE> 13
 8.661138e+00 4.775037e+00 8.404336e+00 9.552327e+00 1.688111e+01 1.347411e+01 1.441883e+01 1.708437e+01 1.607773e+01 1.719070e+01 1.449802e+01 1.234876e+01 7.824184e+00
<GCONST> 5.580044e+01
<MIXTURE> 11 7.344387e-02
<MEAN> 13
 -6.396737e+00 2.097745e+00 5.131438e-01 -7.648990e-01 6.030725e-01 1.769055e+00 3.593617e+00 1.733072e+00 1.137932e+00 1.785355e+00 1.492355e+00 -2.252539e+00 4.733240e+01
<VARIANCE> 13
 8.661135e+00 4.775030e+00 8.404331e+00 9.552318e+00 1.688110e+01 1.347411e+01 1.441881e+01 1.708437e+01 1.607771e+01 1.719068e+01 1.449800e+01 1.234876e+01 7.824174e+00
<GCONST> 5.580043e+01
<MIXTURE> 12 6.164218e-02
<MEAN> 13
 -6.155758e+00 1.413960e+00 -5.629894e-01 -2.354153e+00 -1.619142e+00 1.779282e-01 1.959561e+00 3.518330e-01 -4.852074e-02 9.979454e-01 1.244707e-01 -3.430895e+00 4.742042e+01
<VARIANCE> 13
 8.967751e+00 5.648619e+00 9.268626e+00 1.162698e+01 1.887996e+01 1.490583e+01 1.643273e+01 1.955615e+01 1.735718e+01 1.937849e+01 1.692046e+01 1.423774e+01 8.385061e+00
<GCONST> 5.733887e+01
<MIXTURE> 13 7.344386e-02
<MEAN> 13
 -6.396739e+00 2.097744e+00 5.131440e-01 -7.648990e-01 6.030730e-01 1.769055e+00 3.593617e+00 1.733072e+00 1.137932e+00 1.785354e+00 1.492355e+00 -2.252539e+00 4.733240e+01
<VARIANCE> 13
 8.661139e+00 4.775031e+00 8.404329e+00 9.552320e+00 1.688110e+01 1.347411e+01 1.441881e+01 1.708438e+01 1.607772e+01 1.719069e+01 1.449800e+01 1.234876e+01 7.824176e+00
<GCONST> 5.580043e+01
<MIXTURE> 14 6.164218e-02
<MEAN> 13
 -6.155758e+00 1.413960e+00 -5.629894e-01 -2.354153e+00 -1.619142e+00 1.779282e-01 1.959561e+00 3.518330e-01 -4.852074e-02 9.979454e-01 1.244707e-01 -3.430895e+00 4.742042e+01
<VARIANCE> 13
 8.967751e+00 5.648619e+00 9.268626e+00 1.162698e+01 1.887996e+01 1.490583e+01 1.643273e+01 1.955615e+01 1.735718e+01 1.937849e+01 1.692046e+01 1.423774e+01 8.385061e+00
<GCONST> 5.733887e+01
<MIXTURE> 15 6.164215e-02
<MEAN> 13
 -6.155758e+00 1.413960e+00 -5.629897e-01 -2.354153e+00 -1.619142e+00 1.779278e-01 1.959561e+00 3.518333e-01 -4.852023e-02 9.979458e-01 1.244708e-01 -3.430895e+00 4.742042e+01
<VARIANCE> 13
 8.967757e+00 5.648622e+00 9.268632e+00 1.162699e+01 1.887996e+01 1.490583e+01 1.643274e+01 1.955616e+01 1.735719e+01 1.937850e+01 1.692046e+01 1.423775e+01 8.385067e+00
<GCONST> 5.733887e+01
<MIXTURE> 16 3.580550e-02
<MEAN> 13
 -6.063469e+00 2.188850e-02 -1.942438e+00 -4.202307e+00 -4.044970e+00 -1.636083e+00 2.155526e-01 -1.011570e+00 -8.272529e-01 4.978898e-01 -1.297662e+00 -4.959458e+00 4.847321e+01
<VARIANCE> 13
 9.540025e+00 1.025107e+01 1.143874e+01 1.542749e+01 1.992027e+01 1.813223e+01 1.951882e+01 1.945307e+01 1.785580e+01 2.129737e+01 2.076947e+01 1.655453e+01 1.431693e+01
<GCONST> 5.991975e+01
<STATE> 4
<NUMMIXES> 16
<MIXTURE> 1 2.254878e-02
<MEAN> 13
 -1.125841e+01 -1.281338e+00 -2.166141e-01 -1.243568e+00 2.003315e+00 5.566005e+00 6.663615e+00 3.156244e+00 2.725950e+00 3.809999e+00 4.851022e+00 4.476772e-02 5.613474e+01
<VARIANCE> 13
 7.319076e+01 9.579736e+00 1.550910e+01 1.506999e+01 1.725618e+01 2.578577e+01 2.125776e+01 2.118319e+01 1.701821e+01 1.667135e+01 1.349750e+01 1.343738e+01 2.949843e+01
<GCONST> 6.234003e+01
<MIXTURE> 2 6.376210e-02
<MEAN> 13
 -9.724510e+00 -1.765741e+00 -1.518896e+00 -2.474791e+00 1.498429e+00 4.584301e+00 5.386979e+00 2.001634e+00 1.022022e+00 2.205934e+00 3.207860e+00 -1.175738e+00 5.472610e+01
<VARIANCE> 13
 6.127819e+01 9.265689e+00 1.313824e+01 1.101630e+01 1.490447e+01 2.334014e+01 1.614829e+01 1.726902e+01 1.556131e+01 1.527891e+01 1.318171e+01 1.231666e+01 2.107000e+01
<GCONST> 6.030051e+01
<MIXTURE> 3 6.376210e-02
<MEAN> 13
 -9.724510e+00 -1.765741e+00 -1.518896e+00 -2.474791e+00 1.498429e+00 4.584301e+00 5.386979e+00 2.001634e+00 1.022022e+00 2.205934e+00 3.207860e+00 -1.175738e+00 5.472610e+01
<VARIANCE> 13
 6.127819e+01 9.265689e+00 1.313824e+01 1.101630e+01 1.490447e+01 2.334014e+01 1.614829e+01 1.726902e+01 1.556131e+01 1.527891e+01 1.318171e+01 1.231666e+01 2.107000e+01
<GCONST> 6.030051e+01
<MIXTURE> 4 7.941411e-02
<MEAN> 13
 -8.231805e+00 -2.741293e+00 -2.563705e+00 -3.428103e+00 3.873400e-01 2.418994e+00 3.901448e+00 5.473425e-01 -4.952874e-01 8.379172e-01 1.662952e+00 -2.209122e+00 5.440512e+01
<VARIANCE> 13
 4.506008e+01 1.051941e+01 1.143233e+01 1.120462e+01 1.451422e+01 2.194905e+01 1.802607e+01 1.797848e+01 1.640761e+01 1.585154e+01 1.430048e+01 1.328002e+01 1.897731e+01
<GCONST> 6.020205e+01
<MIXTURE> 5 6.376210e-02
<MEAN> 13
 -9.724510e+00 -1.765741e+00 -1.518896e+00 -2.474791e+00 1.498429e+00 4.584301e+00 5.386979e+00 2.001634e+00 1.022022e+00 2.205934e+00 3.207860e+00 -1.175738e+00 5.472610e+01
<VARIANCE> 13
 6.127819e+01 9.265689e+00 1.313824e+01 1.101630e+01 1.490447e+01 2.334014e+01 1.614829e+01 1.726902e+01 1.556131e+01 1.527891e+01 1.318171e+01 1.231666e+01 2.107000e+01
<GCONST> 6.030051e+01
<MIXTURE> 6 7.941411e-02
<MEAN> 13
 -8.231805e+00 -2.741293e+00 -2.563705e+00 -3.428103e+00 3.873400e-01 2.418994e+00 3.901448e+00 5.473425e-01 -4.952874e-01 8.379172e-01 1.662952e+00 -2.209122e+00 5.440512e+01
<VARIANCE> 13
 4.506008e+01 1.051941e+01 1.143233e+01 1.120462e+01 1.451422e+01 2.194905e+01 1.802607e+01 1.797848e+01 1.640761e+01 1.585154e+01 1.430048e+01 1.328002e+01 1.897731e+01
<GCONST> 6.020205e+01
<MIXTURE> 7 7.941411e-02
<MEAN> 13
 -8.231805e+00 -2.741293e+00 -2.563705e+00 -3.428103e+00 3.873400e-01 2.418994e+00 3.901448e+00 5.473425e-01 -4.952874e-01 8.379172e-01 1.662952e+00 -2.209122e+00 5.440512e+01
<VARIANCE> 13
 4.506008e+01 1.051941e+01 1.143233e+01 1.120462e+01 1.451422e+01 2.194905e+01 1.802607e+01 1.797848e+01 1.640761e+01 1.585154e+01 1.430048e+01 1.328002e+01 1.897731e+01
<GCONST> 6.020205e+01
<MIXTURE> 8 5.161300e-02
<MEAN> 13
 -7.927633e+00 -4.322684e+00 -2.992158e+00 -4.932071e+00 -1.595086e+00 -3.366430e-01 1.237998e+00 -1.208107e+00 -1.693339e+00 -6.349165e-01 2.489482e-01 -3.022542e+00 5.645710e+01
<VARIANCE> 13
 4.150158e+01 1.603078e+01 1.257945e+01 1.555134e+01 1.662024e+01 2.507421e+01 2.251396e+01 2.058836e+01 1.968113e+01 1.785822e+01 1.660753e+01 1.637471e+01 3.426875e+01
<GCONST> 6.284213e+01
<MIXTURE> 9 6.376210e-02
<MEAN> 13
 -9.724510e+00 -1.765741e+00 -1.518896e+00 -2.474791e+00 1.498429e+00 4.584301e+00 5.386979e+00 2.001634e+00 1.022022e+00 2.205934e+00 3.207860e+00 -1.175738e+00 5.472610e+01
<VARIANCE> 13
 6.127819e+01 9.265689e+00 1.313824e+01 1.101630e+01 1.490447e+01 2.334014e+01 1.614829e+01 1.726902e+01 1.556131e+01 1.527891e+01 1.318171e+01 1.231666e+01 2.107000e+01
<GCONST> 6.030051e+01
<MIXTURE> 10 7.941411e-02
<MEAN> 13
 -8.231805e+00 -2.741293e+00 -2.563705e+00 -3.428103e+00 3.873400e-01 2.418994e+00 3.901448e+00 5.473425e-01 -4.952874e-01 8.379172e-01 1.662952e+00 -2.209122e+00 5.440512e+01
<VARIANCE> 13
 4.506008e+01 1.051941e+01 1.143233e+01 1.120462e+01 1.451422e+01 2.194905e+01 1.802607e+01 1.797848e+01 1.640761e+01 1.585154e+01 1.430048e+01 1.328002e+01 1.897731e+01
<GCONST> 6.020205e+01
<MIXTURE> 11 7.941411e-02
<MEAN> 13
