~o
<STREAMINFO> 1 13
<VECSIZE> 13<NULLD><MFCC_0><DIAGC>
~h "ap"
<BEGINHMM>
<NUMSTATES> 5
<STATE> 2
<NUMMIXES> 4
<MIXTURE> 1 2.443719e-01
<MEAN> 13
 -8.886291e+00 -4.592014e+00 -1.416205e+00 6.941323e-01 2.867922e+00 4.313794e-01 4.463830e+00 6.480859e-01 -1.387305e-01 1.363336e+00 2.187244e+00 -5.940474e-01 5.255471e+01
<VARIANCE> 13
 2.063324e+01 2.955030e+01 1.683989e+01 1.620303e+01 2.146544e+01 2.882548e+01 1.923660e+01 2.157646e+01 1.628184e+01 1.644320e+01 1.398930e+01 1.341166e+01 5.445941e+01
<GCONST> 6.319231e+01
<MIXTURE> 2 2.533545e-01
<MEAN> 13
 -1.207934e+01 -8.180090e+00 -4.200194e+00 -6.569040e-01 1.414285e+00 -3.101833e+00 1.847497e+00 -2.672947e+00 -2.488299e+00 -8.764352e-01 7.636236e-01 -1.040033e+00 5.974923e+01
<VARIANCE> 13
 2.801945e+01 3.691322e+01 2.543037e+01 1.916032e+01 2.989712e+01 3.360122e+01 2.213089e+01 2.408567e+01 1.976952e+01 1.771997e+01 1.579238e+01 1.456482e+01 1.071358e+02
<GCONST> 6.618464e+01
<MIXTURE> 3 2.533545e-01
<MEAN> 13
 -1.207934e+01 -8.180090e+00 -4.200194e+00 -6.569040e-01 1.414285e+00 -3.101833e+00 1.847497e+00 -2.672947e+00 -2.488299e+00 -8.764352e-01 7.636235e-01 -1.040033e+00 5.974923e+01
<VARIANCE> 13
 2.801945e+01 3.691322e+01 2.543037e+01 1.916032e+01 2.989712e+01 3.360122e+01 2.213089e+01 2.408567e+01 1.976952e+01 1.771997e+01 1.579238e+01 1.456482e+01 1.071358e+02
<GCONST> 6.618464e+01
<MIXTURE> 4 2.489197e-01
<MEAN> 13
 -1.509201e+01 -1.150801e+01 -7.856883e+00 -2.742678e+00 -9.917297e-01 -6.168260e+00 -7.411369e-01 -5.498266e+00 -4.672933e+00 -2.706115e+00 -9.974343e-01 -2.009652e+00 6.864314e+01
<VARIANCE> 13
 2.265095e+01 3.046855e+01 2.852214e+01 2.326804e+01 3.710647e+01 3.121496e+01 2.288582e+01 2.281961e+01 2.090787e+01 1.772119e+01 1.806127e+01 1.486430e+01 9.485085e+01
<GCONST> 6.629981e+01
<STATE> 3
<NUMMIXES> 4
<MIXTURE> 1 2.343086e-01
<MEAN> 13
 -8.848665e+00 -1.361454e+01 -7.924095e+00 3.594875e+00 3.724835e+00 -6.542442e+00 1.901122e+00 1.636472e-01 -3.848572e+00 -2.054681e+00 2.220254e+00 3.211509e-02 6.260998e+01
<VARIANCE> 13
 1.164938e+01 2.254308e+01 1.511481e+01 1.981828e+01 2.952958e+01 2.193546e+01 2.222916e+01 1.818029e+01 2.271426e+01 1.888481e+01 1.383638e+01 1.430203e+01 6.166702e+01
<GCONST> 6.311141e+01
<MIXTURE> 2 2.672433e-01
<MEAN> 13
 -1.102146e+01 -1.652991e+01 -1.069249e+01 1.692806e+00 6.239395e-01 -9.739401e+00 -1.936208e-01 -1.998633e+00 -5.963530e+00 -4.055717e+00 5.948510e-01 -1.322832e+00 7.008868e+01
<VARIANCE> 13
 1.204849e+01 1.702244e+01 1.491220e+01 2.012690e+01 3.116332e+01 1.933988e+01 2.394804e+01 1.731831e+01 2.298657e+01 1.966638e+01 1.518720e+01 1.506752e+01 7.073291e+01
<GCONST> 6.315490e+01
<MIXTURE> 3 2.672433e-01
<MEAN> 13
 -1.102146e+01 -1.652991e+01 -1.069249e+01 1.692806e+00 6.239395e-01 -9.739401e+00 -1.936208e-01 -1.998633e+00 -5.963530e+00 -4.055717e+00 5.948510e-01 -1.322832e+00 7.008868e+01
<VARIANCE> 13
 1.204849e+01 1.702244e+01 1.491220e+01 2.012690e+01 3.116332e+01 1.933988e+01 2.394804e+01 1.731831e+01 2.298657e+01 1.966638e+01 1.518720e+01 1.506752e+01 7.073291e+01
<GCONST> 6.315490e+01
<MIXTURE> 4 2.312058e-01
<MEAN> 13
 -1.247336e+01 -1.781854e+01 -1.247972e+01 1.863183e-01 -1.659423e+00 -1.172666e+01 -2.198844e+00 -3.307571e+00 -7.527350e+00 -5.709283e+00 -1.136761e+00 -2.645679e+00 7.542171e+01
<VARIANCE> 13
 1.056451e+01 1.411386e+01 1.351280e+01 2.011533e+01 3.006473e+01 1.749040e+01 2.663366e+01 1.706979e+01 2.360022e+01 1.895904e+01 1.560910e+01 1.456579e+01 5.380952e+01
<GCONST> 6.240219e+01
<STATE> 4
<NUMMIXES> 4
<MIXTURE> 1 2.431357e-01
<MEAN> 13
 -6.948765e+00 -8.555696e+00 -1.419828e+00 4.313725e+00 1.317658e+00 -9.162850e-01 5.859450e+00 2.202133e-01 -1.715270e+00 1.790991e+00 2.498561e+00 -1.059544e+00 5.242498e+01
<VARIANCE> 13
 1.278654e+01 4.458873e+01 1.167205e+01 2.053565e+01 2.067797e+01 2.494534e+01 1.576139e+01 2.527330e+01 1.981715e+01 1.706709e+01 1.481177e+01 1.414442e+01 4.930915e+01
<GCONST> 6.301725e+01
<MIXTURE> 2 2.546861e-01
<MEAN> 13
 -9.683709e+00 -1.320538e+01 -3.749952e+00 3.706178e+00 -1.616509e+00 -4.850391e+00 4.398943e+00 -3.244430e+00 -4.300759e+00 6.043216e-02 8.012450e-01 -1.689598e+00 5.999982e+01
<VARIANCE> 13
 2.103262e+01 5.047903e+01 1.511811e+01 1.875447e+01 3.003514e+01 2.725195e+01 1.899009e+01 2.558827e+01 2.183920e+01 1.881683e+01 1.741594e+01 1.460075e+01 9.597852e+01
<GCONST> 6.552194e+01
<MIXTURE> 3 2.546861e-01
<MEAN> 13
 -9.683709e+00 -1.320538e+01 -3.749952e+00 3.706178e+00 -1.616509e+00 -4.850391e+00 4.398943e+00 -3.244430e+00 -4.300759e+00 6.043216e-02 8.012450e-01 -1.689598e+00 5.999982e+01
<VARIANCE> 13
 2.103262e+01 5.047903e+01 1.511811e+01 1.875447e+01 3.003514e+01 2.725195e+01 1.899009e+01 2.558827e+01 2.183920e+01 1.881683e+01 1.741594e+01 1.460075e+01 9.597852e+01
<GCONST> 6.552194e+01
<MIXTURE> 4 2.474919e-01
<MEAN> 13
 -1.256057e+01 -1.708577e+01 -6.338693e+00 2.354775e+00 -5.407809e+00 -8.505449e+00 2.567064e+00 -5.678979e+00 -6.276273e+00 -1.541681e+00 -1.294356e+00 -2.681498e+00 6.893385e+01
<VARIANCE> 13
 2.047365e+01 4.194177e+01 1.533364e+01 1.747826e+01 3.137859e+01 2.455201e+01 2.221930e+01 2.169708e+01 2.275575e+01 1.994817e+01 1.971564e+01 1.473266e+01 8.720586e+01
<GCONST> 6.532159e+01
<TRANSP> 5
 0.000000e+00 1.000000e+00 0.000000e+00 0.000000e+00 0.000000e+00
 0.000000e+00 9.924058e-01 7.594250e-03 0.000000e+00 0.000000e+00
 0.000000e+00 0.000000e+00 9.858878e-01 1.411215e-02 0.000000e+00
 0.000000e+00 0.000000e+00 0.000000e+00 9.880349e-01 1.196509e-02
 0.000000e+00 0.000000e+00 0.000000e+00 0.000000e+00 0.000000e+00
<ENDHMM>
~h "cl"
<BEGINHMM>
<NUMSTATES> 5
<STATE> 2
<NUMMIXES> 4
<MIXTURE> 1 2.039124e-01
<MEAN> 13
 -1.450023e+01 4.244176e-01 2.370934e+00 -1.814840e+00 -3.654775e-01 8.190084e+00 5.333587e+00 5.015935e-01 3.959452e+00 2.979372e+00 -3.135927e+00 2.537116e+00 5.283948e+01
<VARIANCE> 13
 6.430807e+01 1.404501e+01 3.317113e+01 1.385901e+01 1.743781e+01 2.944965e+01 1.953801e+01 2.845068e+01 2.978021e+01 2.138850e+01 3.465516e+01 2.171310e+01 3.080809e+01
<GCONST> 6.589867e+01
<MIXTURE> 2 2.978594e-01
<MEAN> 13
 -1.467861e+01 -5.949122e-01 1.524729e+00 -2.973776e+00 -1.544761e+00 6.459801e+00 3.651359e+00 -1.002318e+00 2.463860e+00 1.485034e+00 -4.446359e+00 1.518027e+00 5.384023e+01
<VARIANCE> 13
 6.758062e+01 1.949084e+01 3.413535e+01 1.400496e+01 1.859108e+01 3.563961e+01 2.081391e+01 2.782620e+01 2.981449e+01 2.270968e+01 3.421304e+01 2.245249e+01 4.352401e+01
<GCONST> 6.703826e+01
<MIXTURE> 3 2.978594e-01
<MEAN> 13
 -1.467861e+01 -5.949122e-01 1.524729e+00 -2.973776e+00 -1.544761e+00 6.459801e+00 3.651359e+00 -1.002318e+00 2.463860e+00 1.485034e+00 -4.446359e+00 1.518027e+00 5.384023e+01
<VARIANCE> 13
 6.758062e+01 1.949084e+01 3.413535e+01 1.400496e+01 1.859108e+01 3.563961e+01 2.081391e+01 2.782620e+01 2.981449e+01 2.270968e+01 3.421304e+01 2.245249e+01 4.352401e+01
<GCONST> 6.703826e+01
<MIXTURE> 4 2.003685e-01
<MEAN> 13
 -1.286705e+01 -2.706026e+00 -6.521061e-01 -4.481820e+00 -3.137147e+00 2.763740e+00 9.916395e-01 -2.952149e+00 1.199696e-01 -9.239180e-01 -4.944098e+00 -1.324988e-01 5.595455e+01
<VARIANCE> 13
 6.990716e+01 3.275983e+01 3.245281e+01 1.594334e+01 1.922993e+01 4.425337e+01 2.518820e+01 2.611710e+01 2.920785e+01 2.560564e+01 3.256342e+01 2.245400e+01 7.399874e+01
<GCONST> 6.862892e+01
<STATE> 3
<NUMMIXES> 4
<MIXTURE> 1 2.109636e-01
<MEAN> 13
 -2.047325e+01 3.487439e+00 7.893867e-01 -4.219104e+00 -2.727794e+00 1.412546e+01 2.524822e+00 -1.961695e+00 9.454438e+00 -2.119978e+00 -2.257367e+00 6.534932e+00 5.884683e+01
<VARIANCE> 13
 4.191907e+01 7.825863e+00 1.714257e+01 1.060161e+01 1.511491e+01 2.658643e+01 2.224083e+01 1.927288e+01 2.167176e+01 1.948606e+01 1.851875e+01 1.811492e+01 1.890606e+01
<GCONST> 6.174557e+01
<MIXTURE> 2 2.911546e-01
<MEAN> 13
 -1.977170e+01 2.840575e+00 -7.136004e-02 -5.255144e+00 -4.042954e+00 1.237675e+01 8.472324e-01 -3.468373e+00 7.710448e+00 -3.545938e+00 -3.458355e+00 5.387639e+00 5.864823e+01
<VARIANCE> 13
 4.874507e+01 9.103917e+00 1.828718e+01 1.166197e+01 1.657322e+01 3.009416e+01 2.343771e+01 2.021368e+01 2.391432e+01 1.912172e+01 1.874176e+01 1.916256e+01 2.042734e+01
<GCONST> 6.274896e+01
<MIXTURE> 3 2.911546e-01
<MEAN> 13
 -1.977170e+01 2.840575e+00 -7.136016e-02 -5.255144e+00 -4.042954e+00 1.237675e+01 8.472326e-01 -3.468373e+00 7.710447e+00 -3.545938e+00 -3.458355e+00 5.387639e+00 5.864823e+01
<VARIANCE> 13
 4.874506e+01 9.103918e+00 1.828718e+01 1.166196e+01 1.657321e+01 3.009416e+01 2.343771e+01 2.021367e+01 2.391432e+01 1.912172e+01 1.874176e+01 1.916256e+01 2.042734e+01
<GCONST> 6.274896e+01
<MIXTURE> 4 2.067265e-01
<MEAN> 13
 -1.793027e+01 2.039662e+00 -1.780054e+00 -6.685802e+00 -5.901984e+00 9.309908e+00 -1.667808e+00 -5.693247e+00 5.209230e+00 -4.992542e+00 -4.572023e+00 4.059965e+00 5.876199e+01
<VARIANCE> 13
 6.320552e+01 1.294737e+01 2.322346e+01 1.367826e+01 1.854421e+01 4.016125e+01 2.678140e+01 2.382244e+01 2.862538e+01 1.949554e+01 1.932777e+01 2.053155e+01 2.378056e+01
<GCONST> 6.490891e+01
<STATE> 4
<NUMMIXES> 4
<MIXTURE> 1 2.006711e-01
<MEAN> 13
 -2.165930e+01 1.971106e+00 7.317261e+00 -1.393677e+00 -5.188148e+00 1.214363e+01 3.908803e+00 -5.013686e+00 4.538031e+00 6.371824e+00 -1.029217e+01 5.376725e+00 5.615862e+01
<VARIANCE> 13
 3.438893e+01 7.932162e+00 1.218883e+01 1.665327e+01 2.297598e+01 2.531879e+01 2.385077e+01 3.696058e+01 2.997219e+01 2.984326e+01 2.493021e+01 2.529689e+01 2.831036e+01
<GCONST> 6.454807e+01
<MIXTURE> 2 3.002530e-01
<MEAN> 13
 -2.259110e+01 1.025726e+00 6.556154e+00 -2.931566e+00 -6.836082e+00 1.086705e+01 1.445361e+00 -7.017732e+00 3.006716e+00 4.626864e+00 -1.193058e+01 5.101655e+00 5.796918e+01
<VARIANCE> 13
 3.599596e+01 8.430250e+00 1.401532e+01 1.605998e+01 2.501253e+01 2.840519e+01 2.691303e+01 4.389699e+01 3.291739e+01 2.783546e+01 2.714763e+01 3.085523e+01 3.318596e+01
<GCONST> 6.571755e+01
<MIXTURE> 3 3.002530e-01
<MEAN> 13
 -2.259110e+01 1.025726e+00 6.556154e+00 -2.931566e+00 -6.836082e+00 1.086705e+01 1.445361e+00 -7.017732e+00 3.006716e+00 4.626864e+00 -1.193058e+01 5.101655e+00 5.796918e+01
<VARIANCE> 13
 3.599596e+01 8.430250e+00 1.401532e+01 1.605998e+01 2.501253e+01 2.840519e+01 2.691303e+01 4.389699e+01 3.291739e+01 2.783546e+01 2.714763e+01 3.085523e+01 3.318596e+01
<GCONST> 6.571755e+01
<MIXTURE> 4 1.988239e-01
<MEAN> 13
 -2.275878e+01 3.958825e-01 5.725944e+00 -4.380139e+00 -8.852587e+00 8.759305e+00 -1.155771e+00 -9.665956e+00 6.120532e-01 2.818175e+00 -1.351258e+01 4.260504e+00 5.956906e+01
<VARIANCE> 13
 3.730384e+01 9.641382e+00 1.694540e+01 1.554543e+01 2.723366e+01 3.329913e+01 2.866214e+01 5.121807e+01 3.681754e+01 2.728448e+01 2.871527e+01 3.399776e+01 3.338021e+01
<GCONST> 6.675696e+01
<TRANSP> 5
 0.000000e+00 1.000000e+00 0.000000e+00 0.000000e+00 0.000000e+00
 0.000000e+00 9.672103e-01 3.278973e-02 0.000000e+00 0.000000e+00
 0.000000e+00 0.000000e+00 9.921654e-01 7.834582e-03 0.000000e+00
 0.000000e+00 0.000000e+00 0.000000e+00 9.930603e-01 6.939724e-03
 0.000000e+00 0.000000e+00 0.000000e+00 0.000000e+00 0.000000e+00
<ENDHMM>
~h "cm"
<BEGINHMM>
<NUMSTATES> 5
<STATE> 2
<NUMMIXES> 4
<MIXTURE> 1 2.130325e-01
<MEAN> 13
 -1.221219e+01 9.218671e-01 -1.549658e+00 -3.585197e+00 1.321383e+00 2.547555e+00 6.440350e-01 2.144300e+00 -2.110244e-01 2.501720e+00 4.126468e+00 2.611055e-01 5.669360e+01
<VARIANCE> 13
 1.244655e+01 1.281327e+01 1.157660e+01 1.248883e+01 1.298702e+01 1.504495e+01 1.664326e+01 1.736928e+01 1.670602e+01 1.504113e+01 1.746816e+01 1.578603e+01 2.310951e+01
<GCONST> 5.916615e+01
<MIXTURE> 2 2.818716e-01
<MEAN> 13
 -1.269551e+01 -2.792900e-01 -2.733413e+00 -4.969341e+00 -2.609535e-01 8.262099e-01 -1.137922e+00 1.877672e-01 -1.954459e+00 1.029645e+00 3.022108e+00 -4.481607e-01 5.746391e+01
<VARIANCE> 13
 1.391972e+01 1.384949e+01 1.112910e+01 1.244528e+01 1.362962e+01 1.484551e+01 1.684299e+01 1.678817e+01 1.642841e+01 1.548231e+01 1.743604e+01 1.606396e+01 1.937488e+01
<GCONST> 5.917721e+01
<MIXTURE> 3 2.818716e-01
<MEAN> 13
 -1.269551e+01 -2.792901e-01 -2.733413e+00 -4.969341e+00 -2.609535e-01 8.262098e-01 -1.137922e+00 1.877672e-01 -1.954459e+00 1.029645e+00 3.022108e+00 -4.481607e-01 5.746391e+01
<VARIANCE> 13
 1.391972e+01 1.384949e+01 1.112910e+01 1.244528e+01 1.362962e+01 1.484551e+01 1.684299e+01 1.678817e+01 1.642841e+01 1.548231e+01 1.743604e+01 1.606396e+01 1.937488e+01
<GCONST> 5.917721e+01
<MIXTURE> 4 2.232229e-01
<MEAN> 13
 -1.306904e+01 -1.343007e+00 -3.899304e+00 -6.339405e+00 -1.813982e+00 -9.445626e-01 -2.935588e+00 -1.722759e+00 -3.865468e+00 -6.258805e-01 1.678577e+00 -1.306325e+00 5.812808e+01
<VARIANCE> 13
 1.455710e+01 1.430739e+01 1.064580e+01 1.274573e+01 1.326572e+01 1.553610e+01 1.803665e+01 1.710526e+01 1.645403e+01 1.603559e+01 1.821792e+01 1.680184e+01 1.738386e+01
<GCONST> 5.935658e+01
<STATE> 3
<NUMMIXES> 4
<MIXTURE> 1 2.367327e-01
<MEAN> 13
 -9.157186e+00 5.607656e-02 -1.779722e+00 -2.312317e+00 1.194326e+00 1.152706e+00 -6.830896e-01 -1.336514e-01 -2.537931e+00 -2.699452e-01 6.520265e-01 -1.205582e+00 6.478781e+01
<VARIANCE> 13
 1.202427e+01 1.291438e+01 1.518990e+01 1.305403e+01 1.542732e+01 1.309960e+01 1.568385e+01 1.733893e+01 1.666903e+01 1.521961e+01 1.535332e+01 1.304580e+01 5.285722e+01
<GCONST> 5.994524e+01
<MIXTURE> 2 2.768759e-01
<MEAN> 13
 -9.419023e+00 -7.030978e-01 -2.833094e+00 -3.463170e+00 -4.885318e-01 -6.205668e-01 -2.565393e+00 -2.110226e+00 -4.427516e+00 -1.973099e+00 -9.208195e-01 -2.052624e+00 6.597946e+01
<VARIANCE> 13
 1.223442e+01 1.357377e+01 1.562921e+01 1.374075e+01 1.530550e+01 1.421193e+01 1.524740e+01 1.731692e+01 1.717755e+01 1.532460e+01 1.597634e+01 1.394943e+01 5.015757e+01
<GCONST> 6.022746e+01
<MIXTURE> 3 2.768759e-01
<MEAN> 13
 -9.419023e+00 -7.030976e-01 -2.833094e+00 -3.463170e+00 -4.885318e-01 -6.205668e-01 -2.565393e+00 -2.110226e+00 -4.427516e+00 -1.973099e+00 -9.208195e-01 -2.052624e+00 6.597946e+01
<VARIANCE> 13
 1.223442e+01 1.357377e+01 1.562921e+01 1.374075e+01 1.530550e+01 1.421193e+01 1.524740e+01 1.731692e+01 1.717755e+01 1.532460e+01 1.597634e+01 1.394943e+01 5.015757e+01
<GCONST> 6.022747e+01
<MIXTURE> 4 2.095138e-01
<MEAN> 13
 -9.826308e+00 -1.830351e+00 -4.154703e+00 -4.984618e+00 -2.502992e+00 -2.788732e+00 -4.722929e+00 -4.441854e+00 -6.413928e+00 -3.651242e+00 -2.630668e+00 -2.938173e+00 6.743948e+01
<VARIANCE> 13
 1.229112e+01 1.569915e+01 1.809866e+01 1.577866e+01 1.635804e+01 1.616403e+01 1.595262e+01 1.832970e+01 1.821779e+01 1.468062e+01 1.726860e+01 1.445261e+01 4.915398e+01
<GCONST> 6.106868e+01
<STATE> 4
<NUMMIXES> 4
<MIXTURE> 1 2.358174e-01
<MEAN> 13
 -4.465497e+00 1.565991e+00 -1.456849e+00 -2.468418e+00 9.068902e-01 2.036597e-01 -1.138560e+00 -5.066569e-01 -2.014238e+00 -7.588426e-01 1.118087e-01 -1.969747e+00 6.496647e+01
<VARIANCE> 13
 8.286616e+00 9.407084e+00 1.029038e+01 1.181659e+01 1.250989e+01 1.214997e+01 1.331204e+01 1.669740e+01 1.498911e+01 1.412207e+01 1.268637e+01 1.199406e+01 7.196063e+01
<GCONST> 5.813311e+01
<MIXTURE> 2 2.644032e-01
<MEAN> 13
 -4.956095e+00 5.404774e-01 -2.672965e+00 -4.172922e+00 -9.492355e-01 -1.702078e+00 -3.263608e+00 -2.414455e+00 -3.909045e+00 -2.580614e+00 -1.590968e+00 -3.020403e+00 6.779757e+01
<VARIANCE> 13
 6.693082e+00 9.636259e+00 9.536479e+00 1.253090e+01 1.229655e+01 1.172554e+01 1.293086e+01 1.548160e+01 1.448101e+01 1.338459e+01 1.277308e+01 1.183187e+01 6.287656e+01
<GCONST> 5.753894e+01
<MIXTURE> 3 2.644032e-01
<MEAN> 13
 -4.956095e+00 5.404775e-01 -2.672965e+00 -4.172922e+00 -9.492355e-01 -1.702078e+00 -3.263608e+00 -2.414456e+00 -3.909045e+00 -2.580614e+00 -1.590968e+00 -3.020403e+00 6.779757e+01
<VARIANCE> 13
 6.693082e+00 9.636260e+00 9.536480e+00 1.253090e+01 1.229655e+01 1.172554e+01 1.293086e+01 1.548160e+01 1.448101e+01 1.338459e+01 1.277308e+01 1.183187e+01 6.287657e+01
<GCONST> 5.753895e+01
<MIXTURE> 4 2.353716e-01
<MEAN> 13
 -5.476447e+00 -6.235271e-01 -4.015140e+00 -5.827347e+00 -2.855234e+00 -3.510829e+00 -5.400959e+00 -4.266320e+00 -5.851740e+00 -4.267087e+00 -3.397772e+00 -4.053169e+00 7.034990e+01
<VARIANCE> 13
 5.959396e+00 9.916224e+00 9.164253e+00 1.316998e+01 1.219499e+01 1.129555e+01 1.315905e+01 1.475017e+01 1.450939e+01 1.343479e+01 1.305040e+01 1.187871e+01 5.158930e+01
<GCONST> 5.721812e+01
<TRANSP> 5
 0.000000e+00 1.000000e+00 0.000000e+00 0.000000e+00 0.000000e+00
 0.000000e+00 9.671521e-01 3.284794e-02 0.000000e+00 0.000000e+00
 0.000000e+00 0.000000e+00 9.623827e-01 3.761728e-02 0.000000e+00
 0.000000e+00 0.000000e+00 0.000000e+00 9.840185e-01 1.598150e-02
 0.000000e+00 0.000000e+00 0.000000e+00 0.000000e+00 0.000000e+00
<ENDHMM>
~h "co"
<BEGINHMM>
<NUMSTATES> 5
<STATE> 2
<NUMMIXES> 4
<MIXTURE> 1 2.030977e-01
<MEAN> 13
 -6.192812e+00 -4.073614e+00 1.525013e+00 9.771554e-01 -1.673363e+00 1.536606e+00 2.806049e+00 1.457249e+00 1.695971e+00 -1.094078e-01 -7.800131e-01 -3.975346e+00 5.347793e+01
<VARIANCE> 13
 1.236306e+01 1.863566e+01 1.941589e+01 2.445775e+01 4.781555e+01 2.253377e+01 3.169965e+01 3.281541e+01 2.642643e+01 2.491375e+01 2.512307e+01 1.993969e+01 6.027556e+01
<GCONST> 6.623001e+01
<MIXTURE> 2 2.901346e-01
<MEAN> 13
 -6.942130e+00 -5.838696e+00 7.531037e-01 5.165890e-01 -6.005302e+00 -1.227670e+00 -6.065235e-01 -1.204404e+00 -7.123504e-02 -1.875174e+00 -2.990584e+00 -6.314780e+00 5.968008e+01
<VARIANCE> 13
 1.851711e+01 2.204723e+01 2.323126e+01 2.700958e+01 6.993231e+01 3.121926e+01 5.179679e+01 4.308706e+01 3.724301e+01 3.436030e+01 3.994687e+01 2.607300e+01 7.558567e+01
<GCONST> 7.017317e+01
<MIXTURE> 3 2.901346e-01
<MEAN> 13
 -6.942130e+00 -5.838696e+00 7.531034e-01 5.165891e-01 -6.005302e+00 -1.227670e+00 -6.065236e-01 -1.204404e+00 -7.123490e-02 -1.875174e+00 -2.990583e+00 -6.314780e+00 5.968008e+01
<VARIANCE> 13
 1.851711e+01 2.204723e+01 2.323126e+01 2.700958e+01 6.993231e+01 3.121926e+01 5.179679e+01 4.308706e+01 3.724301e+01 3.436030e+01 3.994687e+01 2.607300e+01 7.558567e+01
<GCONST> 7.017317e+01
<MIXTURE> 4 2.166333e-01
<MEAN> 13
 -7.099386e+00 -7.181371e+00 -7.423504e-01 -2.361577e-01 -1.085106e+01 -4.056333e+00 -4.629769e+00 -3.551045e+00 -1.158143e+00 -4.390511e+00 -5.238870e+00 -9.402053e+00 6.500163e+01
<VARIANCE> 13
 1.805243e+01 2.381634e+01 2.787564e+01 2.960533e+01 7.601985e+01 3.600013e+01 5.918388e+01 4.462248e+01 5.249145e+01 4.807503e+01 5.169908e+01 3.189281e+01 5.178486e+01
<GCONST> 7.165350e+01
<STATE> 3
<NUMMIXES> 4
<MIXTURE> 1 2.009116e-01
<MEAN> 13
 -6.942431e+00 -5.861262e+00 1.127530e+00 -9.920590e-01 -5.628173e+00 -5.594278e+00 -4.214472e+00 -5.278795e+00 -3.650746e+00 -3.599180e+00 -2.665962e+00 -7.701504e+00 6.720998e+01
<VARIANCE> 13
 2.247002e+01 1.104750e+01 1.972910e+01 1.877226e+01 3.340202e+01 3.445620e+01 5.371825e+01 4.868813e+01 3.791675e+01 3.761203e+01 3.503461e+01 3.863770e+01 4.511195e+01
<GCONST> 6.852119e+01
<MIXTURE> 2 3.032457e-01
<MEAN> 13
 -6.229315e+00 -6.644481e+00 -6.362559e-01 -2.517508e+00 -8.038297e+00 -7.729096e+00 -7.526961e+00 -6.614686e+00 -4.649210e+00 -5.344243e+00 -4.730141e+00 -9.876152e+00 6.842388e+01
<VARIANCE> 13
 1.656608e+01 1.213645e+01 2.353867e+01 1.973835e+01 3.500574e+01 3.657188e+01 5.156962e+01 5.455834e+01 4.453379e+01 4.119511e+01 3.646910e+01 4.132894e+01 3.728417e+01
<GCONST> 6.888535e+01
<MIXTURE> 3 3.032457e-01
<MEAN> 13
 -6.229315e+00 -6.644481e+00 -6.362557e-01 -2.517508e+00 -8.038297e+00 -7.729096e+00 -7.526961e+00 -6.614686e+00 -4.649210e+00 -5.344243e+00 -4.730141e+00 -9.876152e+00 6.842388e+01
<VARIANCE> 13
 1.656608e+01 1.213645e+01 2.353867e+01 1.973835e+01 3.500574e+01 3.657188e+01 5.156962e+01 5.455834e+01 4.453379e+01 4.119511e+01 3.646910e+01 4.132894e+01 3.728416e+01
<GCONST> 6.888535e+01
<MIXTURE> 4 1.925976e-01
<MEAN> 13
 -6.118289e+00 -7.417159e+00 -2.549106e+00 -3.723731e+00 -1.001286e+01 -1.006488e+01 -1.024180e+01 -8.586567e+00 -6.011462e+00 -6.911938e+00 -6.238105e+00 -1.165837e+01 6.975158e+01
<VARIANCE> 13
 1.135371e+01 1.222573e+01 2.296357e+01 1.993454e+01 3.328308e+01 3.443317e+01 4.923699e+01 5.513980e+01 4.824177e+01 4.338259e+01 3.887226e+01 4.188576e+01 3.020862e+01
<GCONST> 6.835207e+01
<STATE> 4
<NUMMIXES> 4
<MIXTURE> 1 2.082082e-01
<MEAN> 13
 -3.131455e+00 -1.244779e+00 6.112270e+00 4.461488e+00 1.742660e+00 -1.144825e+00 -1.991757e+00 -3.679508e+00 -2.851092e+00 -2.245411e+00 -2.723501e+00 -6.590232e+00 5.392492e+01
<VARIANCE> 13
 1.266025e+01 2.034737e+01 1.637436e+01 2.403564e+01 2.721529e+01 2.287470e+01 3.151060e+01 3.906270e+01 2.503583e+01 2.492955e+01 2.564152e+01 1.886176e+01 5.068734e+01
<GCONST> 6.551176e+01
<MIXTURE> 2 2.922159e-01
<MEAN> 13
 -3.575078e+00 -2.797605e+00 4.719609e+00 2.637273e+00 -9.968426e-01 -3.769543e+00 -4.670465e+00 -6.287708e+00 -4.646565e+00 -3.686476e+00 -3.522041e+00 -7.698896e+00 5.660587e+01
<VARIANCE> 13
 1.366187e+01 2.030187e+01 1.565965e+01 2.264845e+01 3.349510e+01 2.744617e+01 3.518653e+01 4.523389e+01 2.838966e+01 2.916794e+01 2.879323e+01 2.115785e+01 5.502724e+01
<GCONST> 6.672411e+01
<MIXTURE> 3 2.922159e-01
<MEAN> 13
 -3.575078e+00 -2.797605e+00 4.719609e+00 2.637273e+00 -9.968426e-01 -3.769543e+00 -4.670465e+00 -6.287708e+00 -4.646565e+00 -3.686476e+00 -3.522041e+00 -7.698896e+00 5.660587e+01
<VARIANCE> 13
 1.366187e+01 2.030187e+01 1.565965e+01 2.264845e+01 3.349510e+01 2.744617e+01 3.518653e+01 4.523389e+01 2.838966e+01 2.916794e+01 2.879323e+01 2.115785e+01 5.502724e+01
<GCONST> 6.672411e+01
<MIXTURE> 4 2.073583e-01
<MEAN> 13
 -3.771983e+00 -4.291419e+00 3.380451e+00 1.108538e+00 -3.922807e+00 -6.196567e+00 -7.667216e+00 -8.458439e+00 -6.598495e+00 -5.375983e+00 -5.150134e+00 -8.957853e+00 5.974800e+01
<VARIANCE> 13
 1.211198e+01 1.847242e+01 1.740806e+01 2.288855e+01 3.978458e+01 3.279177e+01 3.785476e+01 5.400627e+01 3.240203e+01 3.266689e+01 3.400912e+01 2.162691e+01 5.135817e+01
<GCONST> 6.759094e+01
<TRANSP> 5
 0.000000e+00 1.000000e+00 0.000000e+00 0.000000e+00 0.000000e+00
 0.000000e+00 9.273639e-01 7.263600e-02 0.000000e+00 0.000000e+00
 0.000000e+00 0.000000e+00 9.843476e-01 1.565238e-02 0.000000e+00
 0.000000e+00 0.000000e+00 0.000000e+00 9.782602e-01 2.173978e-02
 0.000000e+00 0.000000e+00 0.000000e+00 0.000000e+00 0.000000e+00
<ENDHMM>
~h "ds"
<BEGINHMM>
<NUMSTATES> 5
<STATE> 2
<NUMMIXES> 4
<MIXTURE> 1 2.442513e-01
<MEAN> 13
 -1.259891e+01 1.506532e+00 1.689237e+00 1.858443e+00 1.701870e+00 2.943249e-02 4.996022e+00 -1.704617e+00 3.350850e+00 3.209165e+00 5.761351e+00 1.461550e+00 6.601618e+01
<VARIANCE> 13
 1.689378e+01 1.040659e+01 1.055608e+01 1.158409e+01 1.883286e+01 1.588735e+01 2.112403e+01 2.205860e+01 2.159246e+01 1.953780e+01 1.822287e+01 1.650358e+01 7.044704e+01
<GCONST> 6.171917e+01
<MIXTURE> 2 2.626213e-01
<MEAN> 13
 -1.432579e+01 2.859643e-01 -3.356969e-01 -3.816110e-01 -9.717186e-01 -2.075023e+00 2.879319e+00 -2.646275e+00 1.134028e+00 2.330203e+00 4.333921e+00 -1.380326e-01 6.707556e+01
<VARIANCE> 13
 1.476383e+01 8.247665e+00 8.976415e+00 1.226188e+01 2.003409e+01 1.483403e+01 2.084238e+01 2.440483e+01 1.930174e+01 1.791423e+01 1.535516e+01 1.515594e+01 6.646465e+01
<GCONST> 6.081404e+01
<MIXTURE> 3 2.626213e-01
<MEAN> 13
 -1.432579e+01 2.859645e-01 -3.356969e-01 -3.816106e-01 -9.717185e-01 -2.075023e+00 2.879319e+00 -2.646275e+00 1.134028e+00 2.330203e+00 4.333920e+00 -1.380329e-01 6.707556e+01
<VARIANCE> 13
 1.476384e+01 8.247667e+00 8.976416e+00 1.226188e+01 2.003409e+01 1.483403e+01 2.084238e+01 2.440483e+01 1.930174e+01 1.791423e+01 1.535516e+01 1.515594e+01 6.646465e+01
<GCONST> 6.081404e+01
<MIXTURE> 4 2.305058e-01
<MEAN> 13
 -1.620836e+01 -9.357840e-01 -2.139222e+00 -2.604139e+00 -3.331036e+00 -3.963838e+00 1.449116e+00 -3.183584e+00 -5.917493e-01 1.247203e+00 2.727544e+00 -1.144462e+00 6.513641e+01
<VARIANCE> 13
 1.554574e+01 9.070387e+00 1.012866e+01 1.500441e+01 2.197743e+01 1.839894e+01 2.501900e+01 3.119444e+01 2.024896e+01 1.907220e+01 1.445876e+01 1.432125e+01 1.865160e+02
<GCONST> 6.304499e+01
<STATE> 3
<NUMMIXES> 4
<MIXTURE> 1 2.316893e-01
<MEAN> 13
 -8.783025e+00 5.632425e+00 6.021513e+00 7.192919e+00 7.700593e+00 4.356592e+00 7.713014e+00 1.692467e-02 3.743181e+00 2.403694e+00 4.326625e+00 1.280192e+00 6.792982e+01
<VARIANCE> 13
 1.464363e+01 6.237216e+00 5.720820e+00 6.418586e+00 9.236177e+00 1.197679e+01 1.204634e+01 1.210769e+01 1.392179e+01 1.348066e+01 1.364200e+01 1.233406e+01 4.691935e+01
<GCONST> 5.590762e+01
<MIXTURE> 2 2.548865e-01
<MEAN> 13
 -8.657398e+00 5.262452e+00 5.249143e+00 5.965482e+00 6.243434e+00 3.065327e+00 6.403830e+00 -1.400177e+00 2.260227e+00 8.038007e-01 2.814375e+00 -2.208408e-02 6.724957e+01
<VARIANCE> 13
 1.380048e+01 7.242015e+00 5.615233e+00 6.126834e+00 9.617355e+00 1.214698e+01 1.199830e+01 1.229668e+01 1.421748e+01 1.395501e+01 1.338063e+01 1.200695e+01 5.816703e+01
<GCONST> 5.622284e+01
<MIXTURE> 3 2.548865e-01
<MEAN> 13
 -8.657398e+00 5.262452e+00 5.249144e+00 5.965482e+00 6.243434e+00 3.065327e+00 6.403830e+00 -1.400177e+00 2.260226e+00 8.038005e-01 2.814375e+00 -2.208403e-02 6.724957e+01
<VARIANCE> 13
 1.380048e+01 7.242016e+00 5.615233e+00 6.126833e+00 9.617356e+00 1.214698e+01 1.199830e+01 1.229668e+01 1.421748e+01 1.395500e+01 1.338063e+01 1.200695e+01 5.816703e+01
<GCONST> 5.622284e+01
<MIXTURE> 4 2.585379e-01
<MEAN> 13
 -9.675741e+00 3.496187e+00 3.344970e+00 4.025347e+00 4.492429e+00 1.369211e+00 4.357475e+00 -3.302787e+00 2.014971e-01 -4.650307e-01 1.472063e+00 -1.666849e+00 6.462276e+01
<VARIANCE> 13
 1.292590e+01 1.018296e+01 6.883717e+00 6.935544e+00 1.010156e+01 1.228431e+01 1.244892e+01 1.252121e+01 1.383674e+01 1.342206e+01 1.336902e+01 1.234956e+01 5.163308e+01
<GCONST> 5.678320e+01
<STATE> 4
<NUMMIXES> 4
<MIXTURE> 1 2.307625e-01
<MEAN> 13
 -9.016938e+00 3.153646e+00 4.658556e+00 3.179308e+00 5.456967e+00 2.799762e+00 5.493742e+00 4.074015e-01 2.384899e+00 4.314644e-01 3.323880e+00 -1.320685e-01 5.719279e+01
<VARIANCE> 13
 1.381308e+01 1.177250e+01 1.616149e+01 1.638453e+01 1.618322e+01 1.920491e+01 2.280481e+01 1.709784e+01 2.246156e+01 2.165969e+01 1.678736e+01 1.496674e+01 8.749190e+01
<GCONST> 6.245308e+01
<MIXTURE> 2 2.626368e-01
<MEAN> 13
 -9.918921e+00 1.144274e+00 1.729681e+00 1.573326e-01 2.779879e+00 7.027898e-01 2.644698e+00 -8.639861e-01 1.741287e-01 -4.289753e-01 2.112520e+00 -1.635701e+00 5.354427e+01
<VARIANCE> 13
 1.514005e+01 9.739583e+00 1.255776e+01 1.294810e+01 1.612781e+01 2.028157e+01 2.137987e+01 1.851256e+01 2.347977e+01 2.341473e+01 1.735703e+01 1.616203e+01 3.642540e+01
<GCONST> 6.128982e+01
<MIXTURE> 3 2.626368e-01
<MEAN> 13
 -9.918921e+00 1.144274e+00 1.729681e+00 1.573326e-01 2.779879e+00 7.027898e-01 2.644698e+00 -8.639861e-01 1.741287e-01 -4.289753e-01 2.112520e+00 -1.635701e+00 5.354427e+01
<VARIANCE> 13
 1.514005e+01 9.739583e+00 1.255776e+01 1.294810e+01 1.612781e+01 2.028157e+01 2.137987e+01 1.851256e+01 2.347977e+01 2.341473e+01 1.735703e+01 1.616203e+01 3.642540e+01
<GCONST> 6.128982e+01
<MIXTURE> 4 2.439577e-01
<MEAN> 13
 -1.035765e+01 -1.027759e-02 1.233276e-01 -1.367711e+00 7.426693e-01 -1.461347e+00 6.696302e-01 -2.756632e+00 -1.826404e+00 -1.776768e+00 6.430706e-01 -3.059854e+00 5.448710e+01
<VARIANCE> 13
 1.723972e+01 1.051904e+01 1.445707e+01 1.406852e+01 1.850321e+01 2.051898e+01 2.146545e+01 1.878928e+01 2.234316e+01 2.260487e+01 1.816069e+01 1.855095e+01 3.176195e+01
<GCONST> 6.184969e+01
<TRANSP> 5
 0.000000e+00 1.000000e+00 0.000000e+00 0.000000e+00 0.000000e+00
 0.000000e+00 9.659489e-01 3.405109e-02 0.000000e+00 0.000000e+00
 0.000000e+00 0.000000e+00 9.071817e-01 9.281822e-02 0.000000e+00
 0.000000e+00 0.000000e+00 0.000000e+00 9.928056e-01 7.194416e-03
 0.000000e+00 0.000000e+00 0.000000e+00 0.000000e+00 0.000000e+00
<ENDHMM>
~h "kj"
<BEGINHMM>
<NUMSTATES> 5
<STATE> 2
<NUMMIXES> 4
<MIXTURE> 1 2.097827e-01
<MEAN> 13
 -1.909296e+01 4.132524e+00 1.445727e+00 -2.096582e+00 3.701800e-01 6.543500e+00 2.916605e+00 4.450236e+00 1.551695e+00 1.242872e+00 3.209299e+00 1.383345e-02 5.555950e+01
<VARIANCE> 13
 3.078747e+01 1.845366e+01 1.307023e+01 1.559954e+01 1.502112e+01 2.805622e+01 2.266195e+01 1.888459e+01 1.550991e+01 1.969697e+01 1.550256e+01 1.389324e+01 2.483916e+01
<GCONST> 6.196182e+01
<MIXTURE> 2 2.914388e-01
<MEAN> 13
 -1.919809e+01 3.191777e+00 4.568277e-01 -2.946289e+00 -8.191345e-01 4.712574e+00 1.655448e+00 2.664954e+00 -1.692632e-01 -3.051809e-02 1.598471e+00 -1.111670e+00 5.604520e+01
<VARIANCE> 13
 3.030098e+01 1.913663e+01 1.387498e+01 1.597402e+01 1.593548e+01 3.126761e+01 2.338505e+01 1.985987e+01 1.641890e+01 2.067698e+01 1.577638e+01 1.420853e+01 2.460270e+01
<GCONST> 6.245083e+01
<MIXTURE> 3 2.914388e-01
<MEAN> 13
 -1.919809e+01 3.191777e+00 4.568277e-01 -2.946289e+00 -8.191346e-01 4.712574e+00 1.655448e+00 2.664954e+00 -1.692629e-01 -3.051820e-02 1.598471e+00 -1.111670e+00 5.604520e+01
<VARIANCE> 13
 3.030098e+01 1.913664e+01 1.387499e+01 1.597402e+01 1.593548e+01 3.126761e+01 2.338505e+01 1.985987e+01 1.641890e+01 2.067699e+01 1.577639e+01 1.420853e+01 2.460270e+01
<GCONST> 6.245083e+01
<MIXTURE> 4 2.073388e-01
<MEAN> 13
 -1.872151e+01 1.789141e+00 -1.058610e+00 -3.945038e+00 -2.341514e+00 2.078516e+00 -9.027353e-03 2.688298e-01 -2.072173e+00 -1.288830e+00 -2.215962e-01 -2.341295e+00 5.647258e+01
<VARIANCE> 13
 3.088509e+01 2.265162e+01 1.525534e+01 1.620302e+01 1.777275e+01 3.404003e+01 2.369348e+01 2.184696e+01 1.747284e+01 2.176772e+01 1.600175e+01 1.565198e+01 2.478560e+01
<GCONST> 6.328214e+01
<STATE> 3
<NUMMIXES> 4
<MIXTURE> 1 2.305361e-01
<MEAN> 13
 -1.340309e+01 -3.949034e+00 -3.011342e+00 7.447323e-01 5.338793e-01 -1.980649e+00 4.381151e-01 -9.729432e-01 -6.924332e-01 2.391659e+00 1.952997e+00 1.050364e-01 5.845202e+01
<VARIANCE> 13
 1.814137e+01 2.693943e+01 1.216792e+01 1.426764e+01 1.461153e+01 1.545486e+01 1.828509e+01 1.707167e+01 1.659687e+01 1.558988e+01 1.462237e+01 1.228197e+01 4.733586e+01
<GCONST> 6.100802e+01
<MIXTURE> 2 2.725597e-01
<MEAN> 13
 -1.486754e+01 -6.296456e+00 -4.074839e+00 -6.751940e-01 -1.355161e+00 -3.982142e+00 -1.876726e+00 -3.374800e+00 -2.596489e+00 9.542671e-01 5.153881e-01 -7.126825e-01 6.247415e+01
<VARIANCE> 13
 1.728514e+01 2.807642e+01 1.175059e+01 1.379613e+01 1.514162e+01 1.514911e+01 1.849512e+01 1.715156e+01 1.635819e+01 1.610054e+01 1.446538e+01 1.349936e+01 6.045491e+01
<GCONST> 6.131034e+01
<MIXTURE> 3 2.725597e-01
<MEAN> 13
 -1.486754e+01 -6.296456e+00 -4.074839e+00 -6.751940e-01 -1.355161e+00 -3.982142e+00 -1.876726e+00 -3.374800e+00 -2.596489e+00 9.542671e-01 5.153880e-01 -7.126826e-01 6.247415e+01
<VARIANCE> 13
 1.728514e+01 2.807642e+01 1.175059e+01 1.379613e+01 1.514162e+01 1.514911e+01 1.849512e+01 1.715156e+01 1.635819e+01 1.610054e+01 1.446538e+01 1.349936e+01 6.045491e+01
<GCONST> 6.131034e+01
<MIXTURE> 4 2.243453e-01
<MEAN> 13
 -1.594424e+01 -8.446013e+00 -5.191323e+00 -2.451116e+00 -3.144689e+00 -6.195928e+00 -4.059379e+00 -5.597207e+00 -4.362921e+00 -7.544878e-01 -8.627123e-01 -1.604535e+00 6.635583e+01
<VARIANCE> 13
 1.710695e+01 2.699528e+01 1.181185e+01 1.381387e+01 1.455894e+01 1.616207e+01 1.761206e+01 1.593969e+01 1.602312e+01 1.526355e+01 1.485952e+01 1.386430e+01 6.892604e+01
<GCONST> 6.128109e+01
<STATE> 4
<NUMMIXES> 4
<MIXTURE> 1 2.125398e-01
<MEAN> 13
 -2.211175e+01 3.592734e+00 2.452727e+00 4.422676e+00 -1.165918e+00 1.184863e+00 8.608197e+00 1.906111e+00 -1.609397e+00 5.076254e+00 2.143292e+00 -1.822075e+00 5.502503e+01
<VARIANCE> 13
 3.050778e+01 2.375992e+01 1.906930e+01 1.744303e+01 1.598479e+01 1.783540e+01 2.319299e+01 1.830717e+01 1.936479e+01 2.487267e+01 1.722680e+01 1.890569e+01 2.030756e+01
<GCONST> 6.296351e+01
<MIXTURE> 2 2.885148e-01
<MEAN> 13
 -2.164356e+01 1.914854e+00 1.459965e+00 2.818548e+00 -2.628767e+00 -7.854968e-01 6.555044e+00 -1.969428e-01 -3.401962e+00 3.887801e+00 6.915894e-01 -2.830351e+00 5.615633e+01
<VARIANCE> 13
 3.511646e+01 3.210478e+01 2.136266e+01 1.863071e+01 1.600001e+01 1.830790e+01 2.891127e+01 1.931235e+01 1.962550e+01 2.471091e+01 1.699162e+01 1.847597e+01 2.891059e+01
<GCONST> 6.420891e+01
<MIXTURE> 3 2.885148e-01
<MEAN> 13
 -2.164356e+01 1.914854e+00 1.459965e+00 2.818548e+00 -2.628767e+00 -7.854968e-01 6.555044e+00 -1.969428e-01 -3.401962e+00 3.887801e+00 6.915894e-01 -2.830351e+00 5.615633e+01
<VARIANCE> 13
 3.511646e+01 3.210478e+01 2.136266e+01 1.863071e+01 1.600001e+01 1.830790e+01 2.891127e+01 1.931235e+01 1.962550e+01 2.471091e+01 1.699162e+01 1.847597e+01 2.891059e+01
<GCONST> 6.420891e+01
<MIXTURE> 4 2.104310e-01
<MEAN> 13
 -1.996437e+01 -1.497337e+00 -7.477505e-01 6.625587e-01 -4.155948e+00 -3.384039e+00 2.962823e+00 -2.841619e+00 -4.990851e+00 1.930656e+00 -6.519416e-01 -3.431174e+00 5.883949e+01
<VARIANCE> 13
 4.079234e+01 5.387558e+01 2.589653e+01 1.946396e+01 1.730810e+01 2.074183e+01 3.877876e+01 2.064667e+01 1.921477e+01 2.456452e+01 1.714658e+01 1.832437e+01 5.022958e+01
<GCONST> 6.620262e+01
<TRANSP> 5
 0.000000e+00 1.000000e+00 0.000000e+00 0.000000e+00 0.000000e+00
 0.000000e+00 9.923962e-01 7.603761e-03 0.000000e+00 0.000000e+00
 0.000000e+00 0.000000e+00 9.741492e-01 2.585080e-02 0.000000e+00
 0.000000e+00 0.000000e+00 0.000000e+00 9.930903e-01 6.909680e-03
 0.000000e+00 0.000000e+00 0.000000e+00 0.000000e+00 0.000000e+00
<ENDHMM>
~h "kn"
<BEGINHMM>
<NUMSTATES> 5
<STATE> 2
<NUMMIXES> 4
<MIXTURE> 1 2.329169e-01
<MEAN> 13
 3.838139e+00 3.016285e+00 -3.134228e+00 -1.323333e+00 2.839110e+00 5.328904e-01 2.148355e+00 -1.920410e+00 3.230215e+00 2.596178e+00 3.297640e+00 -3.044086e-01 5.687946e+01
<VARIANCE> 13
 1.827883e+01 1.614889e+01 1.972470e+01 9.639884e+00 1.245055e+01 2.060279e+01 2.002419e+01 2.416394e+01 2.106960e+01 1.859727e+01 1.785177e+01 1.788883e+01 4.040583e+01
<GCONST> 6.199287e+01
<MIXTURE> 2 2.778106e-01
<MEAN> 13
 3.026868e+00 2.374038e+00 -3.008578e+00 -2.332375e+00 1.811633e+00 -5.680148e-01 4.240334e-01 -3.353660e+00 8.772190e-01 5.458918e-01 1.409693e+00 -1.979627e+00 5.592393e+01
<VARIANCE> 13
 2.260367e+01 1.724636e+01 2.192620e+01 9.526567e+00 1.428376e+01 2.116435e+01 2.048943e+01 2.832625e+01 2.082184e+01 1.917561e+01 1.706919e+01 1.574266e+01 5.051474e+01
<GCONST> 6.278058e+01
<MIXTURE> 3 2.778106e-01
<MEAN> 13
 3.026868e+00 2.374038e+00 -3.008578e+00 -2.332375e+00 1.811633e+00 -5.680149e-01 4.240334e-01 -3.353661e+00 8.772188e-01 5.458918e-01 1.409693e+00 -1.979627e+00 5.592393e+01
<VARIANCE> 13
 2.260367e+01 1.724636e+01 2.192620e+01 9.526567e+00 1.428376e+01 2.116435e+01 2.048943e+01 2.832625e+01 2.082184e+01 1.917561e+01 1.706919e+01 1.574266e+01 5.051473e+01
<GCONST> 6.278058e+01
<MIXTURE> 4 2.114613e-01
<MEAN> 13
 2.849056e+00 7.848662e-01 -4.110095e+00 -3.420734e+00 4.270642e-01 -1.830306e+00 -1.529780e+00 -5.968473e+00 -2.059174e+00 -1.674749e+00 -7.028457e-01 -3.954943e+00 5.600668e+01
<VARIANCE> 13
 2.528497e+01 1.847064e+01 2.768681e+01 9.558156e+00 1.701624e+01 2.039655e+01 2.121565e+01 3.055126e+01 1.863125e+01 2.222639e+01 1.861261e+01 1.561960e+01 5.565383e+01
<GCONST> 6.365846e+01
<STATE> 3
<NUMMIXES> 4
<MIXTURE> 1 2.255814e-01
<MEAN> 13
 4.514544e+00 -7.625856e-01 -1.220018e+00 3.262474e+00 7.229792e+00 1.281693e+00 4.726365e+00 -1.942716e+00 1.715635e+00 1.036336e+00 2.877660e+00 1.526514e-01 6.289358e+01
<VARIANCE> 13
 9.505700e+00 1.434873e+01 9.677510e+00 1.202131e+01 1.574244e+01 2.055765e+01 1.939380e+01 1.617345e+01 1.707475e+01 1.723041e+01 1.558241e+01 1.468577e+01 2.119797e+01
<GCONST> 5.926356e+01
<MIXTURE> 2 2.623686e-01
<MEAN> 13
 5.353394e+00 -1.677307e+00 -2.420327e+00 2.028720e+00 5.161137e+00 -1.090153e+00 2.638180e+00 -3.936114e+00 -5.102677e-01 -1.080402e+00 1.159769e+00 -1.575411e+00 6.202047e+01
<VARIANCE> 13
 8.812178e+00 1.818294e+01 1.145063e+01 1.146259e+01 1.658174e+01 2.131213e+01 1.863592e+01 1.896968e+01 1.798802e+01 1.867273e+01 1.631325e+01 1.577058e+01 2.447516e+01
<GCONST> 6.014621e+01
<MIXTURE> 3 2.623686e-01
<MEAN> 13
 5.353394e+00 -1.677307e+00 -2.420327e+00 2.028720e+00 5.161137e+00 -1.090153e+00 2.638180e+00 -3.936114e+00 -5.102677e-01 -1.080402e+00 1.159769e+00 -1.575411e+00 6.202047e+01
<VARIANCE> 13
 8.812178e+00 1.818294e+01 1.145063e+01 1.146259e+01 1.658174e+01 2.131213e+01 1.863592e+01 1.896968e+01 1.798802e+01 1.867273e+01 1.631325e+01 1.577058e+01 2.447516e+01
<GCONST> 6.014621e+01
<MIXTURE> 4 2.496824e-01
<MEAN> 13
 5.446305e+00 -3.391541e+00 -3.673264e+00 6.922082e-01 2.859679e+00 -3.278748e+00 6.474096e-01 -6.800088e+00 -3.193697e+00 -3.585990e+00 -6.947451e-01 -3.488258e+00 6.191124e+01
<VARIANCE> 13
 9.224040e+00 2.409794e+01 1.262998e+01 1.179612e+01 1.770480e+01 2.192904e+01 1.808987e+01 2.410739e+01 1.931264e+01 2.006287e+01 1.648857e+01 1.758348e+01 2.962179e+01
<GCONST> 6.135747e+01
<STATE> 4
<NUMMIXES> 4
<MIXTURE> 1 2.382189e-01
<MEAN> 13
 6.377826e+00 3.177588e+00 1.333429e-01 2.651257e+00 7.445548e+00 3.188678e+00 2.847416e+00 -2.263732e-01 -1.367292e+00 -8.348773e-01 8.741126e-01 -2.273030e+00 5.288518e+01
<VARIANCE> 13
 1.521915e+01 1.627217e+01 1.475515e+01 9.316270e+00 1.582261e+01 1.655528e+01 1.519911e+01 1.863388e+01 1.671751e+01 1.468698e+01 1.090756e+01 1.192805e+01 2.677518e+01
<GCONST> 5.920137e+01
<MIXTURE> 2 2.815047e-01
<MEAN> 13
 5.858091e+00 3.050855e+00 -2.699387e-02 1.428024e+00 5.887012e+00 1.942579e+00 1.303754e+00 -1.429757e+00 -3.086369e+00 -2.279885e+00 -3.649900e-01 -3.389687e+00 5.219429e+01
<VARIANCE> 13
 1.621571e+01 1.821405e+01 1.683219e+01 1.003451e+01 1.607161e+01 1.641417e+01 1.558655e+01 2.085377e+01 1.788741e+01 1.474579e+01 1.154014e+01 1.272042e+01 2.726521e+01
<GCONST> 5.993874e+01
<MIXTURE> 3 2.815047e-01
<MEAN> 13
 5.858091e+00 3.050855e+00 -2.699387e-02 1.428024e+00 5.887012e+00 1.942579e+00 1.303754e+00 -1.429757e+00 -3.086369e+00 -2.279885e+00 -3.649900e-01 -3.389687e+00 5.219429e+01
<VARIANCE> 13
 1.621571e+01 1.821405e+01 1.683219e+01 1.003451e+01 1.607161e+01 1.641417e+01 1.558655e+01 2.085377e+01 1.788741e+01 1.474579e+01 1.154014e+01 1.272042e+01 2.726521e+01
<GCONST> 5.993874e+01
<MIXTURE> 4 1.987707e-01
<MEAN> 13
 4.857098e+00 2.420760e+00 -5.062262e-01 -1.068975e-01 3.912858e+00 5.846308e-01 -5.326507e-01 -3.433791e+00 -5.156028e+00 -3.692818e+00 -1.752136e+00 -4.661331e+00 5.142216e+01
<VARIANCE> 13
 1.560723e+01 1.920588e+01 1.799489e+01 1.165834e+01 1.695865e+01 1.531093e+01 1.515990e+01 2.456719e+01 1.827497e+01 1.570752e+01 1.296403e+01 1.415079e+01 2.786937e+01
<GCONST> 6.062003e+01
<TRANSP> 5
 0.000000e+00 1.000000e+00 0.000000e+00 0.000000e+00 0.000000e+00
 0.000000e+00 9.613562e-01 3.864386e-02 0.000000e+00 0.000000e+00
 0.000000e+00 0.000000e+00 9.782596e-01 2.174043e-02 0.000000e+00
 0.000000e+00 0.000000e+00 0.000000e+00 9.610224e-01 3.897763e-02
 0.000000e+00 0.000000e+00 0.000000e+00 0.000000e+00 0.000000e+00
<ENDHMM>
~h "kt"
<BEGINHMM>
<NUMSTATES> 5
<STATE> 2
<NUMMIXES> 4
<MIXTURE> 1 2.305527e-01
<MEAN> 13
 -1.095800e+01 7.754613e-01 -5.628863e+00 1.709179e-02 2.693471e+00 2.613548e+00 6.401042e+00 2.408417e+00 2.768982e+00 2.635324e+00 3.125931e+00 -2.383552e-01 5.596436e+01
<VARIANCE> 13
 1.252672e+01 5.195406e+00 6.464239e+00 9.444146e+00 1.067106e+01 1.438552e+01 1.393593e+01 1.474215e+01 1.531872e+01 1.387421e+01 1.317719e+01 1.232697e+01 1.677225e+01
<GCONST> 5.580777e+01
<MIXTURE> 2 2.721830e-01
<MEAN> 13
 -1.092539e+01 1.842804e-01 -6.419483e+00 -1.007060e+00 1.524069e+00 1.403258e+00 4.767566e+00 7.526566e-01 1.207368e+00 8.576739e-01 1.618318e+00 -1.266504e+00 5.560768e+01
<VARIANCE> 13
 1.494945e+01 6.072086e+00 7.197113e+00 1.014411e+01 1.103158e+01 1.630126e+01 1.457862e+01 1.471959e+01 1.534132e+01 1.389855e+01 1.313987e+01 1.261541e+01 1.847614e+01
<GCONST> 5.664149e+01
<MIXTURE> 3 2.721830e-01
<MEAN> 13
 -1.092539e+01 1.842804e-01 -6.419483e+00 -1.007060e+00 1.524069e+00 1.403258e+00 4.767566e+00 7.526567e-01 1.207368e+00 8.576740e-01 1.618318e+00 -1.266504e+00 5.560768e+01
<VARIANCE> 13
 1.494945e+01 6.072086e+00 7.197113e+00 1.014411e+01 1.103158e+01 1.630126e+01 1.457862e+01 1.471959e+01 1.534132e+01 1.389855e+01 1.313987e+01 1.261541e+01 1.847614e+01
<GCONST> 5.664149e+01
<MIXTURE> 4 2.250818e-01
<MEAN> 13
 -1.121943e+01 -5.529777e-01 -7.474918e+00 -2.487078e+00 -4.957623e-02 -2.600022e-01 2.718397e+00 -1.135111e+00 -4.962753e-01 -1.038314e+00 -1.482810e-01 -2.540659e+00 5.541744e+01
<VARIANCE> 13
 1.678115e+01 7.213050e+00 7.968499e+00 1.075265e+01 1.202215e+01 1.798727e+01 1.600270e+01 1.545159e+01 1.625787e+01 1.370055e+01 1.345850e+01 1.297820e+01 2.009195e+01
<GCONST> 5.759530e+01
<STATE> 3
<NUMMIXES> 4
<MIXTURE> 1 2.276907e-01
<MEAN> 13
 -1.146283e+01 3.751730e+00 -1.959063e+00 1.873863e+00 1.900061e+00 -9.316093e-01 4.191000e+00 2.663684e+00 1.533341e+00 7.540622e-01 1.133767e+00 -5.668537e-01 5.238028e+01
<VARIANCE> 13
 6.718164e+00 5.463311e+00 7.214226e+00 1.094775e+01 1.223549e+01 1.317534e+01 1.429537e+01 1.547894e+01 1.614475e+01 1.789262e+01 1.500150e+01 1.240656e+01 1.686663e+01
<GCONST> 5.606425e+01
<MIXTURE> 2 2.803830e-01
<MEAN> 13
 -1.232487e+01 3.237001e+00 -2.929763e+00 9.142251e-01 7.909046e-01 -2.574850e+00 2.494710e+00 9.063368e-01 -7.608054e-02 -7.404611e-01 -4.910335e-01 -1.579573e+00 5.352845e+01
<VARIANCE> 13
 7.322991e+00 5.934081e+00 7.767585e+00 1.159092e+01 1.359573e+01 1.479554e+01 1.592668e+01 1.571067e+01 1.669632e+01 1.890878e+01 1.629843e+01 1.354302e+01 1.855986e+01
<GCONST> 5.706348e+01
<MIXTURE> 3 2.803830e-01
<MEAN> 13
 -1.232487e+01 3.237001e+00 -2.929763e+00 9.142251e-01 7.909046e-01 -2.574850e+00 2.494710e+00 9.063368e-01 -7.608058e-02 -7.404611e-01 -4.910335e-01 -1.579573e+00 5.352845e+01
<VARIANCE> 13
 7.322991e+00 5.934081e+00 7.767585e+00 1.159092e+01 1.359573e+01 1.479554e+01 1.592668e+01 1.571067e+01 1.669632e+01 1.890878e+01 1.629843e+01 1.354302e+01 1.855986e+01
<GCONST> 5.706348e+01
<MIXTURE> 4 2.115386e-01
<MEAN> 13
 -1.324926e+01 2.671487e+00 -4.202712e+00 -2.268197e-01 -7.191388e-01 -4.434957e+00 5.600800e-01 -7.413895e-01 -1.657782e+00 -2.068880e+00 -2.283577e+00 -2.718065e+00 5.440487e+01
<VARIANCE> 13
 7.710598e+00 6.568749e+00 8.197553e+00 1.205781e+01 1.540587e+01 1.654110e+01 1.721743e+01 1.623317e+01 1.760878e+01 2.001345e+01 1.812601e+01 1.454119e+01 1.986923e+01
<GCONST> 5.801275e+01
<STATE> 4
<NUMMIXES> 4
<MIXTURE> 1 2.215618e-01
<MEAN> 13
 -9.255121e+00 3.813632e+00 -1.416698e+00 1.224841e+00 2.048700e+00 1.544250e+00 4.843204e+00 3.888402e+00 2.345936e+00 1.519825e+00 2.128740e+00 -1.026259e+00 4.845117e+01
<VARIANCE> 13
 8.675733e+00 7.637725e+00 1.076097e+01 1.069148e+01 1.441059e+01 1.413508e+01 1.532834e+01 1.509372e+01 1.538759e+01 1.570628e+01 1.347330e+01 1.222938e+01 9.729200e+00
<GCONST> 5.645932e+01
<MIXTURE> 2 2.779973e-01
<MEAN> 13
 -9.725733e+00 3.184990e+00 -2.441670e+00 4.103437e-02 5.663677e-01 -5.784175e-02 3.135680e+00 2.205516e+00 6.950761e-01 2.405101e-02 6.379699e-01 -2.049694e+00 4.879818e+01
<VARIANCE> 13
 9.253520e+00 8.481277e+00 1.033284e+01 1.072016e+01 1.547192e+01 1.430653e+01 1.536826e+01 1.570752e+01 1.579596e+01 1.609575e+01 1.396536e+01 1.252574e+01 1.186343e+01
<GCONST> 5.702505e+01
<MIXTURE> 3 2.779973e-01
<MEAN> 13
 -9.725733e+00 3.184990e+00 -2.441670e+00 4.103437e-02 5.663677e-01 -5.784173e-02 3.135680e+00 2.205516e+00 6.950761e-01 2.405101e-02 6.379696e-01 -2.049694e+00 4.879818e+01
<VARIANCE> 13
 9.253520e+00 8.481278e+00 1.033284e+01 1.072016e+01 1.547192e+01 1.430653e+01 1.536826e+01 1.570752e+01 1.579596e+01 1.609575e+01 1.396536e+01 1.252574e+01 1.186343e+01
<GCONST> 5.702505e+01
<MIXTURE> 4 2.224455e-01
<MEAN> 13
 -1.035774e+01 2.455886e+00 -3.610268e+00 -1.182501e+00 -1.151864e+00 -1.932488e+00 1.253583e+00 3.332199e-01 -1.145012e+00 -1.651303e+00 -1.042621e+00 -3.223915e+00 4.937650e+01
<VARIANCE> 13
 1.041277e+01 9.991917e+00 1.096352e+01 1.141675e+01 1.670987e+01 1.600532e+01 1.641777e+01 1.702625e+01 1.703852e+01 1.731149e+01 1.454889e+01 1.272358e+01 1.462781e+01
<GCONST> 5.817965e+01
<TRANSP> 5
 0.000000e+00 1.000000e+00 0.000000e+00 0.000000e+00 0.000000e+00
 0.000000e+00 9.917413e-01 8.258690e-03 0.000000e+00 0.000000e+00
 0.000000e+00 0.000000e+00 9.830645e-01 1.693541e-02 0.000000e+00
 0.000000e+00 0.000000e+00 0.000000e+00 9.933200e-01 6.679983e-03
 0.000000e+00 0.000000e+00 0.000000e+00 0.000000e+00 0.000000e+00
<ENDHMM>
~h "pr"
<BEGINHMM>
<NUMSTATES> 5
<STATE> 2
<NUMMIXES> 4
<MIXTURE> 1 1.652758e-01
<MEAN> 13
 -1.624324e+01 -8.754902e+00 1.270489e+00 -3.831559e+00 3.447713e+00 5.907028e-01 8.047230e+00 4.030476e+00 8.696955e-01 -8.755174e-01 2.676673e+00 1.688563e+00 6.023561e+01
<VARIANCE> 13
 3.368058e+01 3.290921e+01 3.552972e+01 3.879100e+01 8.974504e+01 6.895988e+01 6.547814e+01 6.294746e+01 6.229662e+01 3.884576e+01 5.276483e+01 6.598912e+01 1.130526e+01
<GCONST> 7.355826e+01
<MIXTURE> 2 3.324969e-01
<MEAN> 13
 -1.588545e+01 -9.453151e+00 5.749509e-01 -5.047218e+00 2.255693e+00 -4.017349e-01 6.795571e+00 2.738953e+00 2.448031e-01 -2.124608e+00 1.172284e+00 2.522825e-01 6.003725e+01
<VARIANCE> 13
 3.134367e+01 3.259605e+01 3.897539e+01 3.657357e+01 9.378122e+01 6.589973e+01 6.875255e+01 6.503053e+01 5.652496e+01 3.874263e+01 4.786781e+01 6.520500e+01 1.138625e+01
<GCONST> 7.338834e+01
<MIXTURE> 3 3.324969e-01
<MEAN> 13
 -1.588545e+01 -9.453151e+00 5.749509e-01 -5.047218e+00 2.255693e+00 -4.017349e-01 6.795572e+00 2.738953e+00 2.448027e-01 -2.124607e+00 1.172284e+00 2.522820e-01 6.003725e+01
<VARIANCE> 13
 3.134367e+01 3.259605e+01 3.897539e+01 3.657356e+01 9.378122e+01 6.589973e+01 6.875258e+01 6.503054e+01 5.652495e+01 3.874262e+01 4.786780e+01 6.520499e+01 1.138625e+01
<GCONST> 7.338834e+01
<MIXTURE> 4 1.697287e-01
<MEAN> 13
 -1.548041e+01 -1.014078e+01 -3.200341e-01 -6.250616e+00 9.775758e-01 -1.265373e+00 5.123021e+00 1.139784e+00 -7.682120e-01 -3.465441e+00 -3.111899e-01 -1.165598e+00 5.969152e+01
<VARIANCE> 13
 2.980701e+01 3.242891e+01 4.211612e+01 3.577004e+01 9.079206e+01 6.281969e+01 7.072551e+01 6.661013e+01 5.345183e+01 3.942588e+01 4.518661e+01 6.393003e+01 1.186267e+01
<GCONST> 7.328543e+01
<STATE> 3
<NUMMIXES> 4
<MIXTURE> 1 1.985332e-01
<MEAN> 13
 -2.126133e+01 5.323591e+00 1.830200e+01 -1.421703e+01 3.133464e+00 1.448197e+01 -3.912137e+00 -4.878926e+00 1.392992e+01 -6.463011e+00 -5.741759e+00 9.242481e+00 5.423531e+01
<VARIANCE> 13
 9.466861e+00 1.240221e+01 1.198729e+01 2.069503e+01 2.008337e+01 2.065585e+01 1.589465e+01 2.224322e+01 1.979123e+01 2.536119e+01 2.412320e+01 1.589545e+01 5.680002e+00
<GCONST> 5.997234e+01
<MIXTURE> 2 3.014968e-01
<MEAN> 13
 -2.114924e+01 4.704725e+00 1.734119e+01 -1.470148e+01 1.715667e+00 1.294624e+01 -5.568613e+00 -6.368204e+00 1.231896e+01 -7.704628e+00 -6.991058e+00 8.062411e+00 5.432399e+01
<VARIANCE> 13
 1.023660e+01 1.521379e+01 1.409035e+01 2.421915e+01 1.872129e+01 2.370121e+01 1.723407e+01 2.319168e+01 2.194450e+01 2.639882e+01 2.539274e+01 1.678737e+01 6.142465e+00
<GCONST> 6.109123e+01
<MIXTURE> 3 3.014968e-01
<MEAN> 13
 -2.114924e+01 4.704725e+00 1.734119e+01 -1.470148e+01 1.715667e+00 1.294624e+01 -5.568613e+00 -6.368204e+00 1.231896e+01 -7.704628e+00 -6.991058e+00 8.062411e+00 5.432399e+01
<VARIANCE> 13
 1.023660e+01 1.521379e+01 1.409035e+01 2.421915e+01 1.872129e+01 2.370121e+01 1.723407e+01 2.319168e+01 2.194450e+01 2.639882e+01 2.539274e+01 1.678737e+01 6.142465e+00
<GCONST> 6.109123e+01
<MIXTURE> 4 1.984755e-01
<MEAN> 13
 -2.111744e+01 3.910370e+00 1.620361e+01 -1.549413e+01 1.469166e-01 1.086823e+01 -7.464437e+00 -8.043227e+00 1.023558e+01 -9.110380e+00 -8.367935e+00 6.694725e+00 5.440952e+01
<VARIANCE> 13
 1.131233e+01 1.846110e+01 1.589188e+01 2.823106e+01 1.946360e+01 2.586254e+01 1.808083e+01 2.542072e+01 2.427316e+01 2.879765e+01 2.729591e+01 1.814113e+01 7.063448e+00
<GCONST> 6.240147e+01
<STATE> 4
<NUMMIXES> 4
<MIXTURE> 1 1.652175e-01
<MEAN> 13
 -1.202222e+01 -8.621843e-01 8.590432e+00 -8.265611e+00 6.769363e+00 3.190356e+00 5.959423e-01 5.882624e+00 3.868645e+00 4.069528e-03 -4.050130e+00 6.296411e+00 4.935793e+01
<VARIANCE> 13
 3.189976e+01 3.517902e+01 6.238442e+01 7.254555e+01 4.247411e+01 1.362954e+02 3.486878e+01 6.853367e+01 5.285692e+01 4.354995e+01 7.957327e+01 6.454340e+01 2.112744e+01
<GCONST> 7.511171e+01
<MIXTURE> 2 3.372189e-01
<MEAN> 13
 -1.226226e+01 -1.486958e+00 8.123909e+00 -8.856575e+00 5.101299e+00 3.219676e+00 -5.037978e-01 3.810387e+00 2.733694e+00 -1.268791e+00 -4.040853e+00 4.673111e+00 4.945381e+01
<VARIANCE> 13
 3.360605e+01 3.825131e+01 6.391201e+01 7.496581e+01 4.387883e+01 1.199940e+02 3.561044e+01 6.150500e+01 5.618708e+01 4.928817e+01 8.267030e+01 6.394862e+01 2.300262e+01
<GCONST> 7.542138e+01
<MIXTURE> 3 3.372189e-01
<MEAN> 13
 -1.226226e+01 -1.486959e+00 8.123909e+00 -8.856575e+00 5.101299e+00 3.219676e+00 -5.037977e-01 3.810387e+00 2.733693e+00 -1.268791e+00 -4.040852e+00 4.673111e+00 4.945381e+01
<VARIANCE> 13
 3.360605e+01 3.825130e+01 6.391202e+01 7.496582e+01 4.387882e+01 1.199940e+02 3.561044e+01 6.150501e+01 5.618707e+01 4.928817e+01 8.267028e+01 6.394862e+01 2.300262e+01
<GCONST> 7.542138e+01
<MIXTURE> 4 1.603435e-01
<MEAN> 13
 -1.267484e+01 -2.140850e+00 7.569669e+00 -9.571446e+00 3.229163e+00 2.775087e+00 -1.763009e+00 1.635388e+00 1.445877e+00 -2.776099e+00 -4.151958e+00 3.102424e+00 4.963407e+01
<VARIANCE> 13
 3.577068e+01 4.112409e+01 6.417089e+01 7.698409e+01 4.449827e+01 1.048926e+02 3.722859e+01 5.613264e+01 5.920884e+01 5.466554e+01 8.540471e+01 6.300684e+01 2.543781e+01
<GCONST> 7.569364e+01
<TRANSP> 5
 0.000000e+00 1.000000e+00 0.000000e+00 0.000000e+00 0.000000e+00
 0.000000e+00 9.941002e-01 5.899792e-03 0.000000e+00 0.000000e+00
 0.000000e+00 0.000000e+00 9.797746e-01 2.022542e-02 0.000000e+00
 0.000000e+00 0.000000e+00 0.000000e+00 9.933806e-01 6.619364e-03
 0.000000e+00 0.000000e+00 0.000000e+00 0.000000e+00 0.000000e+00
<ENDHMM>
~h "pw"
<BEGINHMM>
<NUMSTATES> 5
<STATE> 2
<NUMMIXES> 4
<MIXTURE> 1 2.387639e-01
<MEAN> 13
 -1.208521e+01 -9.559906e-01 6.253318e-01 9.809401e-01 2.774335e+00 5.440122e-01 4.641596e+00 2.170238e+00 1.119894e+00 2.581075e+00 1.817088e+00 3.417250e-01 5.157140e+01
<VARIANCE> 13
 1.608392e+01 2.001996e+01 9.532051e+00 1.097744e+01 1.272623e+01 1.470818e+01 1.486310e+01 1.705357e+01 1.554098e+01 1.478642e+01 1.329852e+01 1.212780e+01 2.237431e+01
<GCONST> 5.871303e+01
<MIXTURE> 2 2.704378e-01
<MEAN> 13
 -1.289103e+01 -2.233462e+00 -4.566211e-01 -1.685288e-01 1.372143e+00 -1.355071e+00 2.780554e+00 4.174149e-02 -7.062075e-01 8.843517e-01 2.783021e-01 -6.287867e-01 5.341128e+01
<VARIANCE> 13
 1.645003e+01 2.344456e+01 1.048888e+01 1.137662e+01 1.384248e+01 1.643611e+01 1.593481e+01 1.843509e+01 1.583535e+01 1.445730e+01 1.347271e+01 1.260738e+01 3.016869e+01
<GCONST> 5.971443e+01
<MIXTURE> 3 2.704378e-01
<MEAN> 13
 -1.289103e+01 -2.233462e+00 -4.566211e-01 -1.685288e-01 1.372143e+00 -1.355071e+00 2.780554e+00 4.174154e-02 -7.062075e-01 8.843518e-01 2.783021e-01 -6.287869e-01 5.341128e+01
<VARIANCE> 13
 1.645003e+01 2.344457e+01 1.048888e+01 1.137662e+01 1.384248e+01 1.643611e+01 1.593481e+01 1.843509e+01 1.583535e+01 1.445730e+01 1.347271e+01 1.260738e+01 3.016870e+01
<GCONST> 5.971443e+01
<MIXTURE> 4 2.203562e-01
<MEAN> 13
 -1.356136e+01 -4.188305e+00 -1.920010e+00 -1.666844e+00 -4.756173e-01 -3.870528e+00 5.481927e-01 -2.558045e+00 -2.820393e+00 -9.252003e-01 -1.355094e+00 -1.709696e+00 5.615670e+01
<VARIANCE> 13
 1.750275e+01 2.716412e+01 1.140321e+01 1.178326e+01 1.484978e+01 1.937292e+01 1.704226e+01 2.064087e+01 1.620936e+01 1.475946e+01 1.414774e+01 1.359248e+01 4.187212e+01
<GCONST> 6.095322e+01
<STATE> 3
<NUMMIXES> 4
<MIXTURE> 1 2.171759e-01
<MEAN> 13
 -1.157919e+01 -4.819527e+00 -1.613421e+00 -1.489510e-01 1.826994e+00 -2.109447e+00 1.701901e+00 -2.172155e+00 -1.596197e+00 9.138112e-01 1.306491e+00 2.719196e-01 5.816838e+01
<VARIANCE> 13
 2.351583e+01 2.153606e+01 1.156089e+01 1.037125e+01 1.457907e+01 2.027660e+01 1.997623e+01 2.296807e+01 1.663875e+01 1.439748e+01 1.325376e+01 1.251068e+01 5.548840e+01
<GCONST> 6.133000e+01
<MIXTURE> 2 2.754266e-01
<MEAN> 13
 -1.180594e+01 -6.877957e+00 -2.836350e+00 -1.535372e+00 -2.399770e-02 -4.742665e+00 -7.349319e-01 -4.785008e+00 -3.325430e+00 -9.181404e-01 -8.764814e-02 -5.894880e-01 6.222227e+01
<VARIANCE> 13
 2.539174e+01 2.083065e+01 1.199238e+01 1.120620e+01 1.560619e+01 2.013210e+01 1.829872e+01 2.161582e+01 1.732104e+01 1.500149e+01 1.383736e+01 1.314507e+01 5.836290e+01
<GCONST> 6.162440e+01
<MIXTURE> 3 2.754266e-01
<MEAN> 13
 -1.180594e+01 -6.877957e+00 -2.836350e+00 -1.535372e+00 -2.399770e-02 -4.742665e+00 -7.349319e-01 -4.785008e+00 -3.325430e+00 -9.181404e-01 -8.764814e-02 -5.894880e-01 6.222227e+01
<VARIANCE> 13
 2.539174e+01 2.083065e+01 1.199238e+01 1.120620e+01 1.560619e+01 2.013210e+01 1.829872e+01 2.161582e+01 1.732104e+01 1.500149e+01 1.383736e+01 1.314507e+01 5.836290e+01
<GCONST> 6.162440e+01
<MIXTURE> 4 2.319729e-01
<MEAN> 13
 -1.207522e+01 -8.409968e+00 -4.307679e+00 -3.225266e+00 -1.965971e+00 -7.116151e+00 -2.792686e+00 -7.022334e+00 -5.051348e+00 -2.766443e+00 -1.609756e+00 -1.681742e+00 6.545753e+01
<VARIANCE> 13
 2.436839e+01 1.852084e+01 1.273816e+01 1.224305e+01 1.697625e+01 2.001098e+01 1.738800e+01 2.078694e+01 1.792019e+01 1.558442e+01 1.471558e+01 1.359665e+01 5.545996e+01
<GCONST> 6.171894e+01
<STATE> 4
<NUMMIXES> 4
<MIXTURE> 1 2.131423e-01
<MEAN> 13
 -1.112454e+01 -1.542220e+00 -1.219849e+00 -2.067658e-01 2.387737e+00 1.586440e+00 5.186363e+00 1.781385e+00 9.912491e-01 2.462685e+00 1.748208e+00 -3.118576e-02 5.276462e+01
<VARIANCE> 13
 1.519979e+01 1.582198e+01 1.237578e+01 1.080496e+01 1.181981e+01 1.596563e+01 1.509556e+01 1.572756e+01 1.458787e+01 1.391914e+01 1.269560e+01 1.217958e+01 1.939733e+01
<GCONST> 5.830046e+01
<MIXTURE> 2 2.777559e-01
<MEAN> 13
 -1.176686e+01 -2.608970e+00 -1.962776e+00 -1.177751e+00 9.413391e-01 -3.752582e-01 3.281552e+00 -1.834590e-01 -7.259838e-01 8.295574e-01 3.725452e-01 -9.760628e-01 5.432007e+01
<VARIANCE> 13
 1.633418e+01 1.805516e+01 1.224601e+01 1.092114e+01 1.295750e+01 1.791778e+01 1.594555e+01 1.697080e+01 1.518340e+01 1.429508e+01 1.304632e+01 1.260037e+01 2.599887e+01
<GCONST> 5.926354e+01
<MIXTURE> 3 2.777559e-01
<MEAN> 13
 -1.176686e+01 -2.608970e+00 -1.962776e+00 -1.177751e+00 9.413390e-01 -3.752582e-01 3.281552e+00 -1.834590e-01 -7.259838e-01 8.295574e-01 3.725452e-01 -9.760627e-01 5.432007e+01
<VARIANCE> 13
 1.633418e+01 1.805516e+01 1.224601e+01 1.092114e+01 1.295750e+01 1.791779e+01 1.594555e+01 1.697080e+01 1.518341e+01 1.429508e+01 1.304632e+01 1.260037e+01 2.599887e+01
<GCONST> 5.926354e+01
<MIXTURE> 4 2.313409e-01
<MEAN> 13
 -1.247731e+01 -4.209566e+00 -2.896761e+00 -2.418339e+00 -9.604569e-01 -2.971920e+00 9.660566e-01 -2.591024e+00 -2.710646e+00 -1.122740e+00 -1.220890e+00 -2.023072e+00 5.674818e+01
<VARIANCE> 13
 1.731798e+01 2.008826e+01 1.240114e+01 1.192311e+01 1.514131e+01 2.076969e+01 1.802979e+01 1.922045e+01 1.631625e+01 1.554750e+01 1.402756e+01 1.354218e+01 3.889590e+01
<GCONST> 6.078325e+01
<TRANSP> 5
 0.000000e+00 1.000000e+00 0.000000e+00 0.000000e+00 0.000000e+00
 0.000000e+00 9.957845e-01 4.215555e-03 0.000000e+00 0.000000e+00
 0.000000e+00 0.000000e+00 9.890962e-01 1.090372e-02 0.000000e+00
 0.000000e+00 0.000000e+00 0.000000e+00 9.964175e-01 3.582480e-03
 0.000000e+00 0.000000e+00 0.000000e+00 0.000000e+00 0.000000e+00
<ENDHMM>
~h "si"
<BEGINHMM>
<NUMSTATES> 5
<STATE> 2
<NUMMIXES> 4
<MIXTURE> 1 2.202616e-01
<MEAN> 13
 -8.280497e+00 1.400657e+00 1.477241e+00 2.084313e-02 2.337599e+00 2.449816e+00 4.771328e+00 2.760300e+00 1.844165e+00 2.170655e+00 2.318905e+00 -6.940542e-01 4.931540e+01
<VARIANCE> 13
 2.007397e+01 1.223595e+01 1.366712e+01 1.410497e+01 1.933425e+01 1.689566e+01 1.704148e+01 1.993203e+01 1.746187e+01 1.654487e+01 1.573254e+01 1.524027e+01 2.631753e+01
<GCONST> 6.069064e+01
<MIXTURE> 2 2.794593e-01
<MEAN> 13
 -8.779614e+00 2.146053e-01 1.479193e-01 -1.610786e+00 4.102734e-01 6.068059e-01 2.786172e+00 9.521300e-01 5.388922e-02 6.778117e-01 7.695898e-01 -1.790755e+00 4.992692e+01
<VARIANCE> 13
 2.181072e+01 1.508798e+01 1.364469e+01 1.368355e+01 1.967676e+01 1.765822e+01 1.826132e+01 2.105544e+01 1.855354e+01 1.735258e+01 1.617910e+01 1.574681e+01 2.857709e+01
<GCONST> 6.138820e+01
<MIXTURE> 3 2.794593e-01
<MEAN> 13
 -8.779614e+00 2.146052e-01 1.479193e-01 -1.610786e+00 4.102733e-01 6.068061e-01 2.786172e+00 9.521298e-01 5.388922e-02 6.778116e-01 7.695898e-01 -1.790755e+00 4.992692e+01
<VARIANCE> 13
 2.181072e+01 1.508798e+01 1.364469e+01 1.368355e+01 1.967676e+01 1.765822e+01 1.826132e+01 2.105544e+01 1.855354e+01 1.735258e+01 1.617910e+01 1.574681e+01 2.857709e+01
<GCONST> 6.138820e+01
<MIXTURE> 4 2.208078e-01
<MEAN> 13
 -8.937142e+00 -1.505957e+00 -1.192871e+00 -3.148641e+00 -1.549707e+00 -1.550171e+00 4.538927e-01 -1.441212e+00 -1.955329e+00 -1.122152e+00 -8.917384e-01 -2.985571e+00 5.199733e+01
<VARIANCE> 13
 2.540683e+01 2.550546e+01 1.729371e+01 1.600142e+01 2.213751e+01 2.051960e+01 2.155811e+01 2.369560e+01 2.109615e+01 1.906382e+01 1.733982e+01 1.689369e+01 4.303258e+01
<GCONST> 6.378282e+01
<STATE> 3
<NUMMIXES> 4
<MIXTURE> 1 2.367010e-01
<MEAN> 13
 -3.609979e+00 -3.283728e+00 -2.840121e+00 -1.903011e+00 3.144276e+00 5.486362e+00 6.230139e+00 2.362146e+00 9.647022e-01 2.818902e+00 2.787225e+00 -1.424692e+00 5.059200e+01
<VARIANCE> 13
 7.102717e+00 6.640431e+00 6.597225e+00 7.388286e+00 1.100192e+01 1.278540e+01 1.270880e+01 1.364176e+01 1.331647e+01 1.318680e+01 1.258463e+01 1.162990e+01 3.921522e+00
<GCONST> 5.325515e+01
<MIXTURE> 2 2.658810e-01
<MEAN> 13
 -3.790044e+00 -4.002178e+00 -3.770490e+00 -3.229206e+00 1.505466e+00 3.876024e+00 4.491003e+00 7.545092e-01 -6.429314e-01 1.286055e+00 1.340199e+00 -2.471292e+00 5.049348e+01
<VARIANCE> 13
 6.723257e+00 6.865448e+00 6.614036e+00 7.609525e+00 1.202406e+01 1.355928e+01 1.354198e+01 1.437806e+01 1.360910e+01 1.366340e+01 1.307960e+01 1.213984e+01 3.841398e+00
<GCONST> 5.364739e+01
<MIXTURE> 3 2.658810e-01
<MEAN> 13
 -3.790044e+00 -4.002178e+00 -3.770490e+00 -3.229206e+00 1.505466e+00 3.876024e+00 4.491003e+00 7.545092e-01 -6.429314e-01 1.286055e+00 1.340199e+00 -2.471292e+00 5.049348e+01
<VARIANCE> 13
 6.723257e+00 6.865448e+00 6.614036e+00 7.609525e+00 1.202406e+01 1.355928e+01 1.354198e+01 1.437806e+01 1.360910e+01 1.366340e+01 1.307960e+01 1.213984e+01 3.841398e+00
<GCONST> 5.364739e+01
<MIXTURE> 4 2.315298e-01
<MEAN> 13
 -3.986730e+00 -4.818952e+00 -4.757460e+00 -4.730161e+00 -3.540394e-01 2.015030e+00 2.428431e+00 -1.153018e+00 -2.375016e+00 -4.082269e-01 -2.911489e-01 -3.739758e+00 5.048577e+01
<VARIANCE> 13
 6.795242e+00 7.823747e+00 7.393183e+00 8.255856e+00 1.363951e+01 1.516508e+01 1.522535e+01 1.596353e+01 1.456050e+01 1.443883e+01 1.423042e+01 1.332673e+01 4.527471e+00
<GCONST> 5.490606e+01
<STATE> 4
<NUMMIXES> 4
<MIXTURE> 1 2.260587e-01
<MEAN> 13
 -5.805015e+00 2.623804e+00 2.029914e+00 -6.929128e-01 3.335461e+00 3.372347e+00 4.005793e+00 4.949095e+00 1.265775e+00 2.057549e+00 2.319594e+00 -1.408437e+00 4.430568e+01
<VARIANCE> 13
 7.966750e+00 5.978187e+00 8.639429e+00 9.701464e+00 1.477457e+01 1.319662e+01 1.370624e+01 1.614577e+01 1.457513e+01 1.532885e+01 1.311611e+01 1.206905e+01 7.708492e+00
<GCONST> 5.537265e+01
<MIXTURE> 2 2.756067e-01
<MEAN> 13
 -6.101585e+00 1.951554e+00 1.150990e+00 -1.924749e+00 2.048246e+00 1.795870e+00 2.323068e+00 3.401923e+00 -3.596134e-01 4.937895e-01 8.844962e-01 -2.451917e+00 4.435106e+01
<VARIANCE> 13
 8.317591e+00 6.753443e+00 8.655164e+00 9.737045e+00 1.498091e+01 1.386266e+01 1.410373e+01 1.668736e+01 1.464931e+01 1.521767e+01 1.345278e+01 1.251147e+01 7.784915e+00
<GCONST> 5.573686e+01
<MIXTURE> 3 2.756067e-01
<MEAN> 13
 -6.101585e+00 1.951554e+00 1.150990e+00 -1.924749e+00 2.048246e+00 1.795870e+00 2.323068e+00 3.401923e+00 -3.596134e-01 4.937895e-01 8.844962e-01 -2.451917e+00 4.435106e+01
<VARIANCE> 13
 8.317591e+00 6.753443e+00 8.655164e+00 9.737045e+00 1.498091e+01 1.386266e+01 1.410373e+01 1.668736e+01 1.464931e+01 1.521767e+01 1.345278e+01 1.251147e+01 7.784915e+00
<GCONST> 5.573686e+01
<MIXTURE> 4 2.227126e-01
<MEAN> 13
 -6.466934e+00 1.054294e+00 4.772990e-02 -3.334325e+00 4.663220e-01 -1.097246e-01 3.903698e-01 1.516306e+00 -2.094981e+00 -1.175381e+00 -6.848602e-01 -3.596243e+00 4.462316e+01
<VARIANCE> 13
 9.460501e+00 8.286578e+00 9.572855e+00 1.062647e+01 1.581096e+01 1.536821e+01 1.534469e+01 1.821458e+01 1.522140e+01 1.585808e+01 1.426864e+01 1.337253e+01 1.048275e+01
<GCONST> 5.708982e+01
<TRANSP> 5
 0.000000e+00 1.000000e+00 0.000000e+00 0.000000e+00 0.000000e+00
 0.000000e+00 9.902802e-01 9.719802e-03 0.000000e+00 0.000000e+00
 0.000000e+00 0.000000e+00 9.786788e-01 2.132116e-02 0.000000e+00
 0.000000e+00 0.000000e+00 0.000000e+00 9.920943e-01 7.905720e-03
 0.000000e+00 0.000000e+00 0.000000e+00 0.000000e+00 0.000000e+00
<ENDHMM>
~h "st"
<BEGINHMM>
<NUMSTATES> 5
<STATE> 2
<NUMMIXES> 4
<MIXTURE> 1 2.176661e-01
<MEAN> 13
 -8.377192e+00 -1.881980e+00 -2.360864e-01 -3.376706e+00 4.324924e-01 4.606991e-01 3.981106e+00 1.017338e+00 2.607974e-01 8.032604e-01 2.462189e+00 -1.251142e+00 5.602820e+01
<VARIANCE> 13
 1.752953e+01 1.839172e+01 1.376491e+01 1.874660e+01 1.636627e+01 2.005764e+01 1.675228e+01 1.667724e+01 1.697742e+01 1.654146e+01 1.460333e+01 1.286078e+01 3.634693e+01
<GCONST> 6.111404e+01
<MIXTURE> 2 2.856255e-01
<MEAN> 13
 -8.768579e+00 -2.661886e+00 -4.940956e-01 -5.058088e+00 -1.261808e+00 -1.656702e+00 2.034306e+00 -7.362992e-01 -1.344657e+00 -1.021021e+00 9.451121e-01 -2.249815e+00 5.777128e+01
<VARIANCE> 13
 1.705696e+01 2.115097e+01 1.442707e+01 2.200982e+01 1.862660e+01 2.264210e+01 1.885386e+01 1.777586e+01 1.804882e+01 1.759567e+01 1.479090e+01 1.393634e+01 4.023721e+01
<GCONST> 6.218424e+01
<MIXTURE> 3 2.856255e-01
<MEAN> 13
 -8.768579e+00 -2.661886e+00 -4.940956e-01 -5.058088e+00 -1.261808e+00 -1.656702e+00 2.034306e+00 -7.362992e-01 -1.344657e+00 -1.021021e+00 9.451121e-01 -2.249815e+00 5.777128e+01
<VARIANCE> 13
 1.705696e+01 2.115097e+01 1.442707e+01 2.200982e+01 1.862660e+01 2.264210e+01 1.885386e+01 1.777586e+01 1.804882e+01 1.759567e+01 1.479090e+01 1.393634e+01 4.023721e+01
<GCONST> 6.218424e+01
<MIXTURE> 4 2.110822e-01
<MEAN> 13
 -9.233998e+00 -3.980649e+00 -9.779977e-01 -7.205706e+00 -3.281973e+00 -4.227580e+00 -2.558935e-01 -2.661363e+00 -3.044774e+00 -2.978899e+00 -7.816898e-01 -3.499505e+00 6.023141e+01
<VARIANCE> 13
 1.678157e+01 2.402954e+01 1.617340e+01 2.443892e+01 2.100546e+01 2.465239e+01 2.072468e+01 1.923716e+01 1.904835e+01 1.914923e+01 1.618929e+01 1.548170e+01 4.632290e+01
<GCONST> 6.336823e+01
<STATE> 3
<NUMMIXES> 4
<MIXTURE> 1 2.292804e-01
<MEAN> 13
 -5.121823e+00 -2.511866e+00 -2.737121e+00 -3.161926e+00 1.301622e+00 2.488772e+00 4.949246e+00 1.934938e+00 1.020834e+00 2.379814e+00 2.643754e+00 -1.500642e+00 5.328822e+01
<VARIANCE> 13
 5.611650e+00 8.460294e+00 9.469073e+00 1.217122e+01 1.500741e+01 1.705377e+01 1.443403e+01 1.598682e+01 1.434960e+01 1.382504e+01 1.319993e+01 1.271102e+01 1.141580e+01
<GCONST> 5.633389e+01
<MIXTURE> 2 2.736546e-01
<MEAN> 13
 -5.441928e+00 -3.616933e+00 -3.206243e+00 -4.756014e+00 -4.861950e-01 5.071160e-01 2.847269e+00 4.361443e-01 -5.217233e-01 7.566031e-01 1.138154e+00 -2.697029e+00 5.406039e+01
<VARIANCE> 13
 7.063683e+00 9.770135e+00 1.107847e+01 1.422502e+01 1.684691e+01 1.931557e+01 1.630333e+01 1.701977e+01 1.582144e+01 1.511488e+01 1.422003e+01 1.312841e+01 1.713964e+01
<GCONST> 5.814540e+01
<MIXTURE> 3 2.736546e-01
<MEAN> 13
 -5.441928e+00 -3.616933e+00 -3.206243e+00 -4.756014e+00 -4.861951e-01 5.071160e-01 2.847269e+00 4.361441e-01 -5.217232e-01 7.566031e-01 1.138154e+00 -2.697029e+00 5.406039e+01
<VARIANCE> 13
 7.063682e+00 9.770132e+00 1.107847e+01 1.422502e+01 1.684691e+01 1.931557e+01 1.630333e+01 1.701977e+01 1.582144e+01 1.511488e+01 1.422003e+01 1.312841e+01 1.713964e+01
<GCONST> 5.814540e+01
<MIXTURE> 4 2.234111e-01
<MEAN> 13
 -6.031240e+00 -4.992685e+00 -3.575634e+00 -6.848949e+00 -2.646911e+00 -2.063448e+00 3.897927e-01 -1.419945e+00 -2.352221e+00 -1.339084e+00 -5.881327e-01 -3.848608e+00 5.569098e+01
<VARIANCE> 13
 9.333648e+00 1.158104e+01 1.323600e+01 1.657105e+01 1.849668e+01 2.335102e+01 1.873092e+01 1.868860e+01 1.770532e+01 1.712379e+01 1.545164e+01 1.387480e+01 2.744190e+01
<GCONST> 6.028651e+01
<STATE> 4
<NUMMIXES> 4
<MIXTURE> 1 2.273275e-01
<MEAN> 13
 -1.008454e+01 1.787490e+00 1.733914e+00 -9.581603e-01 2.059261e+00 1.219979e+00 3.910614e+00 2.170222e+00 1.981979e+00 1.538257e+00 2.305043e+00 -1.080274e+00 5.094741e+01
<VARIANCE> 13
 1.279493e+01 7.271707e+00 9.725851e+00 1.414239e+01 1.322088e+01 1.511953e+01 1.487951e+01 1.732742e+01 1.580410e+01 1.471699e+01 1.304413e+01 1.241496e+01 3.284384e+01
<GCONST> 5.822775e+01
<MIXTURE> 2 2.731695e-01
<MEAN> 13
 -1.041881e+01 8.846888e-01 9.014973e-01 -2.435697e+00 3.742507e-01 -6.925824e-01 2.093539e+00 4.100667e-01 2.487845e-01 -1.576602e-01 7.526368e-01 -2.252815e+00 5.208322e+01
<VARIANCE> 13
 1.419367e+01 8.795424e+00 1.062447e+01 1.605570e+01 1.499035e+01 1.738456e+01 1.613342e+01 1.809657e+01 1.625735e+01 1.501974e+01 1.349262e+01 1.267932e+01 3.546815e+01
<GCONST> 5.930691e+01
<MIXTURE> 3 2.731695e-01
<MEAN> 13
 -1.041881e+01 8.846888e-01 9.014972e-01 -2.435697e+00 3.742508e-01 -6.925824e-01 2.093539e+00 4.100667e-01 2.487845e-01 -1.576602e-01 7.526368e-01 -2.252815e+00 5.208322e+01
<VARIANCE> 13
 1.419367e+01 8.795424e+00 1.062447e+01 1.605570e+01 1.499035e+01 1.738456e+01 1.613342e+01 1.809657e+01 1.625735e+01 1.501974e+01 1.349262e+01 1.267932e+01 3.546815e+01
<GCONST> 5.930691e+01
<MIXTURE> 4 2.263336e-01
<MEAN> 13
 -1.069552e+01 -3.604206e-01 -9.913441e-02 -4.542910e+00 -1.708793e+00 -3.061843e+00 -7.451810e-02 -1.638258e+00 -1.557722e+00 -1.967958e+00 -8.925292e-01 -3.449058e+00 5.416624e+01
<VARIANCE> 13
 1.660385e+01 1.094536e+01 1.210934e+01 1.958602e+01 1.707592e+01 1.997823e+01 1.824197e+01 1.936047e+01 1.761202e+01 1.604691e+01 1.423328e+01 1.329564e+01 4.354677e+01
<GCONST> 6.092397e+01
<TRANSP> 5
 0.000000e+00 1.000000e+00 0.000000e+00 0.000000e+00 0.000000e+00
 0.000000e+00 9.857138e-01 1.428623e-02 0.000000e+00 0.000000e+00
 0.000000e+00 0.000000e+00 9.823223e-01 1.767763e-02 0.000000e+00
 0.000000e+00 0.000000e+00 0.000000e+00 9.911913e-01 8.808719e-03
 0.000000e+00 0.000000e+00 0.000000e+00 0.000000e+00 0.000000e+00
<ENDHMM>
~h "spe"
<BEGINHMM>
<NUMSTATES> 5
<STATE> 2
<NUMMIXES> 4
<MIXTURE> 1 1.902019e-01
<MEAN> 13
 -2.202221e+00 -3.438741e+00 2.862526e-01 -5.541329e+00 -1.806912e-01 1.192719e+00 2.405450e+00 9.826601e-01 -7.058612e-01 2.824605e+00 2.434617e+00 -3.461744e+00 5.458722e+01
<VARIANCE> 13
 1.594408e+01 1.996865e+01 3.104513e+01 3.271213e+01 3.397260e+01 3.428697e+01 3.249678e+01 2.761015e+01 2.121619e+01 2.067351e+01 2.316454e+01 1.896560e+01 2.101284e+01
<GCONST> 6.565249e+01
<MIXTURE> 2 3.037606e-01
<MEAN> 13
 -1.767983e+00 -4.033425e+00 4.901579e-01 -6.795319e+00 -1.925940e+00 -1.013480e+00 -2.943472e-02 -7.110919e-01 -2.510309e+00 1.238987e+00 5.351737e-01 -5.140586e+00 5.546397e+01
<VARIANCE> 13
 1.516403e+01 2.369338e+01 3.379197e+01 3.158149e+01 3.458858e+01 3.455318e+01 3.322198e+01 3.185343e+01 2.375865e+01 2.266279e+01 2.524164e+01 1.973990e+01 1.920203e+01
<GCONST> 6.625452e+01
<MIXTURE> 3 3.037606e-01
<MEAN> 13
 -1.767984e+00 -4.033426e+00 4.901579e-01 -6.795319e+00 -1.925940e+00 -1.013480e+00 -2.943465e-02 -7.110915e-01 -2.510309e+00 1.238987e+00 5.351736e-01 -5.140586e+00 5.546397e+01
<VARIANCE> 13
 1.516403e+01 2.369338e+01 3.379197e+01 3.158149e+01 3.458858e+01 3.455318e+01 3.322197e+01 3.185342e+01 2.375865e+01 2.266279e+01 2.524164e+01 1.973989e+01 1.920203e+01
<GCONST> 6.625452e+01
<MIXTURE> 4 2.022754e-01
<MEAN> 13
 -1.278578e+00 -5.058155e+00 1.953208e-01 -8.395014e+00 -3.580966e+00 -3.130933e+00 -2.641540e+00 -2.760319e+00 -4.547730e+00 -6.660992e-01 -1.591331e+00 -7.014797e+00 5.627375e+01
<VARIANCE> 13
 1.321305e+01 2.722492e+01 3.579622e+01 3.172739e+01 3.566027e+01 3.591973e+01 3.366210e+01 3.578389e+01 2.522878e+01 2.616836e+01 2.930423e+01 2.036643e+01 1.818418e+01
<GCONST> 6.684667e+01
<STATE> 3
<NUMMIXES> 4
<MIXTURE> 1 1.952975e-01
<MEAN> 13
 -2.360246e+00 -2.900691e+00 5.315692e+00 -8.883320e+00 -3.390239e+00 -3.029959e+00 -2.204352e+00 -8.951399e-01 -3.728933e-01 -7.025420e-01 -3.147738e+00 -2.967787e+00 6.095719e+01
<VARIANCE> 13
 2.081610e+01 3.702874e+01 8.408234e+01 6.627012e+01 7.705427e+01 5.953895e+01 3.010055e+01 5.663546e+01 3.310072e+01 2.778974e+01 4.010250e+01 3.461170e+01 3.253587e+01
<GCONST> 7.257987e+01
<MIXTURE> 2 3.022518e-01
<MEAN> 13
 -1.627862e+00 -4.333902e+00 3.605590e+00 -1.172847e+01 -4.392986e+00 -4.762399e+00 -4.864152e+00 -2.529036e+00 -1.905733e+00 -3.008148e+00 -5.796290e+00 -4.345945e+00 6.139027e+01
<VARIANCE> 13
 2.298580e+01 3.551336e+01 8.207398e+01 7.220493e+01 7.291624e+01 6.488221e+01 3.916154e+01 5.629827e+01 4.100607e+01 3.240524e+01 4.225826e+01 4.206464e+01 2.462207e+01
<GCONST> 7.332324e+01
<MIXTURE> 3 3.022518e-01
<MEAN> 13
 -1.627862e+00 -4.333902e+00 3.605590e+00 -1.172847e+01 -4.392986e+00 -4.762399e+00 -4.864152e+00 -2.529036e+00 -1.905733e+00 -3.008148e+00 -5.796290e+00 -4.345945e+00 6.139027e+01
<VARIANCE> 13
 2.298580e+01 3.551336e+01 8.207398e+01 7.220493e+01 7.291624e+01 6.488221e+01 3.916154e+01 5.629827e+01 4.100607e+01 3.240524e+01 4.225826e+01 4.206464e+01 2.462207e+01
<GCONST> 7.332324e+01
<MIXTURE> 4 2.002000e-01
<MEAN> 13
 -7.320458e-01 -5.343368e+00 2.319247e+00 -1.455817e+01 -5.440917e+00 -6.318959e+00 -8.147589e+00 -5.803095e+00 -4.322850e+00 -5.863513e+00 -9.115026e+00 -5.874644e+00 6.168206e+01
<VARIANCE> 13
 1.922641e+01 2.966631e+01 8.139364e+01 6.590678e+01 6.277328e+01 6.964292e+01 4.151783e+01 7.139203e+01 5.298208e+01 3.645321e+01 4.462785e+01 4.723404e+01 1.702789e+01
<GCONST> 7.325777e+01
<STATE> 4
<NUMMIXES> 4
<MIXTURE> 1 1.961912e-01
<MEAN> 13
 -1.324155e+00 -1.532600e+00 5.944801e-01 -2.146357e+00 -2.303776e+00 8.575143e-01 1.740702e+00 1.074940e+00 5.518839e-01 1.610899e+00 4.472417e-01 -3.993876e+00 5.182138e+01
<VARIANCE> 13
 1.554174e+01 2.622713e+01 2.963458e+01 1.816150e+01 4.636921e+01 3.321407e+01 2.709550e+01 2.631397e+01 2.531601e+01 2.383735e+01 2.594424e+01 2.395741e+01 1.202051e+01
<GCONST> 6.542158e+01
<MIXTURE> 2 3.050303e-01
<MEAN> 13
 -9.399275e-01 -2.374509e+00 -1.569655e-01 -3.349839e+00 -2.828806e+00 1.851955e-01 -3.944169e-01 -7.380223e-01 -1.511582e+00 -4.168545e-01 -1.712150e+00 -5.876822e+00 5.251477e+01
<VARIANCE> 13
 1.636602e+01 3.035249e+01 2.958688e+01 2.024796e+01 4.678955e+01 3.428841e+01 2.936357e+01 2.807471e+01 2.802147e+01 2.670391e+01 2.788936e+01 2.625587e+01 1.397780e+01
<GCONST> 6.644235e+01
<MIXTURE> 3 3.050303e-01
<MEAN> 13
 -9.399275e-01 -2.374509e+00 -1.569655e-01 -3.349839e+00 -2.828806e+00 1.851955e-01 -3.944169e-01 -7.380223e-01 -1.511582e+00 -4.168545e-01 -1.712150e+00 -5.876822e+00 5.251477e+01
<VARIANCE> 13
 1.636602e+01 3.035249e+01 2.958688e+01 2.024796e+01 4.678955e+01 3.428841e+01 2.936357e+01 2.807471e+01 2.802147e+01 2.670391e+01 2.788936e+01 2.625587e+01 1.397780e+01
<GCONST> 6.644235e+01
<MIXTURE> 4 1.937491e-01
<MEAN> 13
 -2.512860e-01 -3.926474e+00 -1.052516e+00 -4.984202e+00 -3.280828e+00 -5.631406e-01 -3.332065e+00 -2.914989e+00 -4.283927e+00 -3.154281e+00 -4.090343e+00 -8.018826e+00 5.359775e+01
<VARIANCE> 13
 1.635504e+01 3.414310e+01 3.205318e+01 2.204642e+01 5.207255e+01 3.634852e+01 3.369174e+01 3.069225e+01 3.087694e+01 3.141170e+01 2.881098e+01 2.785187e+01 1.574254e+01
<GCONST> 6.758632e+01
<TRANSP> 5
 0.000000e+00 1.000000e+00 0.000000e+00 0.000000e+00 0.000000e+00
 0.000000e+00 9.918136e-01 8.186366e-03 0.000000e+00 0.000000e+00
 0.000000e+00 0.000000e+00 9.801326e-01 1.986742e-02 0.000000e+00
 0.000000e+00 0.000000e+00 0.000000e+00 9.953550e-01 4.644962e-03
 0.000000e+00 0.000000e+00 0.000000e+00 0.000000e+00 0.000000e+00
<ENDHMM>
