~o
<STREAMINFO> 1 39
<VECSIZE> 39<NULLD><MFCC_D_A_0><DIAGC>
~h "ap"
<BEGINHMM>
<NUMSTATES> 5
<STATE> 2
<MEAN> 39
 -1.354590e+01 -9.069322e+00 -2.887763e+00 5.809956e-01 -9.299939e-01 -3.568922e+00 2.824015e+00 -2.382608e+00 -1.839162e+00 -7.738388e-01 6.220656e-01 -1.150792e+00 6.202207e+01 -6.557693e-02 -1.938348e-01 -1.212278e-01 -2.358003e-02 -7.572347e-02 -1.404406e-01 -5.824132e-02 -5.871592e-02 -7.879815e-02 -5.188050e-02 -1.712100e-02 -2.374923e-02 3.514082e-01 2.238430e-02 1.327995e-02 8.862262e-04 -1.080210e-02 1.773165e-02 2.491661e-02 1.449298e-02 4.608054e-03 5.276427e-03 1.059299e-02 -2.346613e-04 -9.202295e-03 -4.779809e-02
<VARIANCE> 39
 3.167144e+01 4.194934e+01 2.332997e+01 2.319789e+01 3.015382e+01 4.525403e+01 2.461672e+01 2.522008e+01 2.197717e+01 2.025046e+01 1.947035e+01 1.590592e+01 1.142492e+02 1.730099e+00 1.789292e+00 9.830953e-01 1.118130e+00 2.024430e+00 2.797577e+00 1.680123e+00 1.556024e+00 1.672074e+00 1.728009e+00 1.575298e+00 1.387147e+00 7.835337e+00 2.656579e-01 2.513888e-01 1.469097e-01 2.055225e-01 3.593705e-01 5.162395e-01 3.039609e-01 2.846997e-01 3.185782e-01 3.486955e-01 3.094970e-01 2.833879e-01 1.151426e+00
<GCONST> 1.083773e+02
<STATE> 3
<MEAN> 39
 -1.080730e+01 -1.659152e+01 -1.011452e+01 2.016884e+00 2.419824e-01 -9.053087e+00 4.224618e-01 -2.301833e+00 -6.061835e+00 -3.800376e+00 5.843306e-01 -1.542680e+00 6.944227e+01 1.123672e-01 5.241336e-02 7.061917e-02 6.455033e-02 1.263413e-01 8.689108e-02 5.830727e-02 1.064572e-02 1.749121e-03 1.394049e-02 3.381956e-02 7.370526e-03 -3.352106e-01 -6.550290e-04 1.399683e-02 1.431945e-02 1.480606e-02 5.830865e-03 2.330789e-03 1.137942e-03 1.155299e-02 8.307477e-03 5.188281e-03 3.671780e-03 9.773917e-03 -1.177542e-02
<VARIANCE> 39
 1.287405e+01 1.777140e+01 1.769723e+01 2.247388e+01 3.097380e+01 2.335312e+01 2.753780e+01 2.143352e+01 2.386622e+01 2.218390e+01 1.709132e+01 1.548298e+01 7.169930e+01 5.233076e-01 4.939063e-01 6.099774e-01 8.865693e-01 1.581421e+00 1.619365e+00 1.244260e+00 1.169533e+00 1.586207e+00 1.508485e+00 1.284600e+00 1.652280e+00 3.664025e+00 8.849794e-02 8.259048e-02 1.053759e-01 1.635716e-01 2.996654e-01 3.284409e-01 2.397261e-01 2.195692e-01 3.198505e-01 3.115999e-01 2.513150e-01 3.725786e-01 5.711524e-01
<GCONST> 9.497761e+01
<STATE> 4
<MEAN> 39
 -1.038982e+01 -1.027612e+01 -4.871559e+00 8.595552e-01 5.537795e-01 -4.010748e+00 2.491592e+00 -2.623271e+00 -3.485489e+00 -4.766892e-01 6.952561e-01 -1.395240e+00 5.993019e+01 8.214160e-03 2.564839e-02 1.643664e-02 2.502062e-03 -5.724647e-03 1.505241e-02 4.719753e-03 1.218121e-02 1.732471e-02 9.645707e-03 -1.345026e-03 -2.667827e-03 -3.722608e-02 -1.002729e-03 -1.057280e-03 -1.675156e-03 -1.921547e-03 -2.440637e-03 -2.671748e-03 -1.742972e-03 -3.620802e-04 -2.851694e-03 -1.581591e-03 -1.315977e-03 -7.433369e-04 2.327471e-03
<VARIANCE> 39
 2.454415e+01 5.288110e+01 2.620978e+01 2.470314e+01 3.681829e+01 3.534963e+01 2.539923e+01 2.830617e+01 2.309261e+01 1.989319e+01 1.707613e+01 1.448651e+01 1.283979e+02 9.044492e-01 1.260942e+00 7.778354e-01 9.253772e-01 1.579802e+00 1.842187e+00 1.351936e+00 1.491541e+00 1.504645e+00 1.493844e+00 1.361748e+00 1.210991e+00 5.246325e+00 1.412611e-01 1.936462e-01 1.302806e-01 1.732299e-01 2.910914e-01 3.530377e-01 2.573074e-01 2.790890e-01 3.020431e-01 3.079241e-01 2.708712e-01 2.463762e-01 7.794299e-01
<GCONST> 1.024733e+02
<TRANSP> 5
 0.000000e+00 1.000000e+00 0.000000e+00 0.000000e+00 0.000000e+00
 0.000000e+00 9.811643e-01 1.883576e-02 0.000000e+00 0.000000e+00
 0.000000e+00 0.000000e+00 9.852493e-01 1.475066e-02 0.000000e+00
 0.000000e+00 0.000000e+00 0.000000e+00 9.939479e-01 6.052091e-03
 0.000000e+00 0.000000e+00 0.000000e+00 0.000000e+00 0.000000e+00
<ENDHMM>
~h "cl"
<BEGINHMM>
<NUMSTATES> 5
<STATE> 2
<MEAN> 39
 -1.146995e+01 -1.595962e+00 -1.232970e+00 -2.637253e+00 -7.553129e-01 5.062325e+00 3.408444e+00 -1.515682e-01 2.098590e+00 9.701312e-02 -1.925792e+00 5.439814e-01 5.408997e+01 -2.858298e-01 4.432434e-02 3.155229e-02 -2.057429e-03 -9.942198e-02 1.029354e-01 -6.087936e-02 -1.360120e-01 9.718218e-02 -4.941611e-03 -1.126778e-01 6.879196e-02 2.181947e-01 -4.045775e-02 2.037912e-03 1.496452e-02 -1.017803e-02 -1.599376e-02 3.967219e-02 -1.328522e-02 -3.121195e-02 1.580951e-02 -1.260942e-02 -4.043337e-02 2.425809e-02 2.527248e-02
<VARIANCE> 39
 3.864471e+01 2.877111e+01 2.663559e+01 1.452134e+01 1.853261e+01 4.555506e+01 2.131871e+01 2.513085e+01 3.240171e+01 2.266332e+01 2.794609e+01 2.352841e+01 5.183503e+01 2.382439e+00 8.615866e-01 7.198271e-01 8.414561e-01 1.375636e+00 2.114807e+00 1.774292e+00 2.029468e+00 2.192768e+00 1.824020e+00 1.927662e+00 1.753869e+00 2.077466e+00 2.906568e-01 1.261108e-01 1.148852e-01 1.462422e-01 2.360014e-01 3.552657e-01 3.167526e-01 3.545399e-01 3.763385e-01 3.515085e-01 3.422765e-01 2.947238e-01 2.691236e-01
<GCONST> 1.029217e+02
<STATE> 3
<MEAN> 39
 -1.957642e+01 2.827960e+00 -2.257156e-01 -5.341085e+00 -4.173839e+00 1.209287e+01 6.282582e-01 -3.645513e+00 7.571061e+00 -3.552690e+00 -3.419538e+00 5.364658e+00 5.875661e+01 2.362592e-02 -4.934814e-03 -8.527162e-03 3.717775e-03 3.759335e-03 -2.507511e-03 -1.138555e-04 -6.161425e-03 -9.962679e-03 -4.020677e-03 1.844149e-03 -2.424709e-03 -1.214860e-02 1.149517e-02 -2.399086e-03 -8.996074e-04 8.462352e-05 3.167224e-03 -7.369646e-03 1.168208e-03 4.483480e-03 -4.528453e-03 4.139062e-03 4.845621e-03 -3.908269e-03 -7.793719e-03
<VARIANCE> 39
 5.093686e+01 9.855669e+00 1.985500e+01 1.252108e+01 1.766971e+01 3.413448e+01 2.556331e+01 2.215057e+01 2.634227e+01 2.022369e+01 1.925806e+01 1.986529e+01 2.078069e+01 1.813946e+00 4.944356e-01 7.655659e-01 9.187697e-01 1.247770e+00 2.038644e+00 1.850730e+00 1.757496e+00 1.793634e+00 1.640085e+00 1.581826e+00 1.615678e+00 9.666876e-01 3.282014e-01 8.816148e-02 1.431351e-01 1.806601e-01 2.385487e-01 3.876935e-01 3.607392e-01 3.464188e-01 3.541944e-01 3.301938e-01 3.126129e-01 3.119591e-01 1.759340e-01
<GCONST> 9.717815e+01
<STATE> 4
<MEAN> 39
 -2.211275e+01 1.046992e+00 6.373175e+00 -2.984843e+00 -6.573737e+00 1.051086e+01 1.615236e+00 -6.744066e+00 2.859340e+00 4.446376e+00 -1.156473e+01 4.821505e+00 5.760735e+01 5.039972e-02 -5.024665e-03 6.816199e-03 -1.225090e-02 4.242019e-03 -1.120336e-02 -9.017098e-03 1.722135e-03 -8.187816e-04 -5.978204e-03 1.129499e-02 -1.691922e-03 -3.903277e-02 1.845792e-03 9.703295e-04 -2.426435e-03 6.302145e-04 1.559130e-03 -4.776491e-03 -9.280190e-04 3.567116e-03 -1.583243e-03 -7.644065e-05 3.181429e-03 -2.174687e-03 -2.041793e-03
<VARIANCE> 39
 4.081063e+01 8.827425e+00 1.569653e+01 1.684712e+01 2.687297e+01 3.014733e+01 2.937938e+01 4.656348e+01 3.432291e+01 2.928168e+01 2.898870e+01 2.989932e+01 3.493150e+01 1.330109e+00 5.214813e-01 1.006136e+00 9.783493e-01 1.317200e+00 2.064427e+00 1.657610e+00 2.526050e+00 2.612098e+00 1.920314e+00 1.689655e+00 1.839039e+00 1.295735e+00 2.460296e-01 9.998963e-02 1.968309e-01 1.972262e-01 2.492113e-01 3.995274e-01 3.202996e-01 4.652875e-01 5.152420e-01 3.794251e-01 3.362107e-01 3.656848e-01 2.433952e-01
<GCONST> 1.030415e+02
<TRANSP> 5
 0.000000e+00 1.000000e+00 0.000000e+00 0.000000e+00 0.000000e+00
 0.000000e+00 9.469696e-01 5.303043e-02 0.000000e+00 0.000000e+00
 0.000000e+00 0.000000e+00 9.920722e-01 7.927840e-03 0.000000e+00
 0.000000e+00 0.000000e+00 0.000000e+00 9.936403e-01 6.359715e-03
 0.000000e+00 0.000000e+00 0.000000e+00 0.000000e+00 0.000000e+00
<ENDHMM>
~h "cm"
<BEGINHMM>
<NUMSTATES> 5
<STATE> 2
<MEAN> 39
 -9.116567e+00 -1.096071e+00 -2.712135e+00 -4.429820e+00 -8.698864e-01 -9.893333e-01 -1.682458e+00 -9.595343e-01 -2.708158e+00 -9.443468e-01 1.227521e-01 -2.197824e+00 6.178277e+01 5.898698e-02 -2.434093e-02 -1.686397e-02 -3.360404e-02 -3.543631e-02 -4.940977e-02 -6.341764e-02 -7.088386e-02 -5.241801e-02 -3.290065e-02 -5.761937e-02 -3.628490e-03 3.518201e-01 2.965285e-03 5.834242e-03 1.124311e-03 1.015741e-02 9.527790e-03 1.635880e-02 1.228198e-02 4.739486e-03 1.270034e-03 1.207631e-02 1.351117e-02 1.299980e-03 -1.122440e-02
<VARIANCE> 39
 2.000051e+01 1.836005e+01 1.457269e+01 1.758543e+01 1.686053e+01 1.766768e+01 2.044417e+01 2.061462e+01 2.135254e+01 1.857429e+01 1.859773e+01 1.477375e+01 6.911569e+01 5.366039e-01 7.199553e-01 7.789192e-01 1.055245e+00 1.219621e+00 1.511857e+00 1.533278e+00 1.619312e+00 1.670863e+00 1.544812e+00 1.519554e+00 1.374425e+00 1.117170e+00 7.511558e-02 1.150996e-01 1.391246e-01 1.874300e-01 2.331947e-01 2.845511e-01 2.917418e-01 3.063374e-01 3.256899e-01 3.006203e-01 2.849937e-01 2.597390e-01 1.331387e-01
<GCONST> 9.240550e+01
<STATE> 3
<MEAN> 39
 -1.300672e+01 -3.223529e-02 -2.777355e+00 -4.882014e+00 5.669016e-02 1.052416e+00 -1.748508e+00 -1.453184e-01 -2.663933e+00 5.512079e-01 2.769521e+00 -4.570838e-01 5.915637e+01 3.589500e-02 7.894448e-04 -6.543932e-03 9.173756e-03 1.197232e-02 -4.208001e-03 -1.204723e-02 -1.180025e-02 -2.126740e-02 -1.717101e-02 -2.621399e-02 -7.020891e-03 7.533459e-02 1.711856e-02 1.557204e-03 -1.460549e-03 -6.760177e-04 -7.678402e-03 -1.476318e-02 -7.646106e-03 -6.094146e-03 -9.513337e-03 -1.911617e-02 -1.920163e-02 -1.196623e-02 4.800804e-03
<VARIANCE> 39
 8.870545e+00 1.147747e+01 1.022245e+01 1.154406e+01 1.434531e+01 1.542530e+01 1.723469e+01 1.874117e+01 1.683413e+01 1.646717e+01 1.851598e+01 1.613379e+01 2.133408e+01 2.401237e-01 3.565801e-01 5.046228e-01 7.580000e-01 9.700692e-01 1.193299e+00 1.326981e+00 1.401626e+00 1.388244e+00 1.334474e+00 1.285454e+00 1.187016e+00 2.161300e-01 3.227342e-02 6.096144e-02 9.453170e-02 1.413410e-01 1.887432e-01 2.404289e-01 2.671318e-01 2.802047e-01 2.794632e-01 2.749155e-01 2.573900e-01 2.400676e-01 2.291385e-02
<GCONST> 7.813055e+01
<STATE> 4
<MEAN> 39
 -5.462435e+00 4.086640e-01 -2.746059e+00 -3.890441e+00 -9.315881e-01 -1.536418e+00 -3.193489e+00 -2.541905e+00 -4.158196e+00 -2.536335e+00 -1.680213e+00 -2.838310e+00 6.793644e+01 5.700125e-02 2.780621e-02 3.774381e-02 5.324119e-02 4.195774e-02 2.385859e-02 2.529223e-02 -1.708204e-02 -1.754059e-05 -6.128893e-03 1.504357e-03 -5.485484e-03 -1.693575e-01 -6.441380e-03 -1.411278e-03 5.180320e-04 9.160166e-05 2.230856e-03 5.165065e-03 3.590381e-03 2.195953e-03 2.979540e-03 2.590728e-03 4.955839e-03 4.604650e-03 -1.099925e-02
<VARIANCE> 39
 8.774151e+00 1.042880e+01 1.215282e+01 1.391394e+01 1.420288e+01 1.338412e+01 1.537662e+01 1.728205e+01 1.680264e+01 1.538968e+01 1.461680e+01 1.281104e+01 6.360637e+01 2.083072e-01 3.025325e-01 4.689403e-01 6.894627e-01 8.765091e-01 1.039814e+00 1.173924e+00 1.248901e+00 1.333057e+00 1.333724e+00 1.284168e+00 1.157302e+00 3.470365e-01 3.197988e-02 5.391684e-02 8.828499e-02 1.331593e-01 1.710096e-01 2.067836e-01 2.322282e-01 2.472885e-01 2.664865e-01 2.719792e-01 2.577348e-01 2.332015e-01 2.859443e-02
<GCONST> 7.740785e+01
<TRANSP> 5
 0.000000e+00 1.000000e+00 0.000000e+00 0.000000e+00 0.000000e+00
 0.000000e+00 9.539036e-01 4.609643e-02 0.000000e+00 0.000000e+00
 0.000000e+00 0.000000e+00 9.648895e-01 3.511047e-02 0.000000e+00
 0.000000e+00 0.000000e+00 0.000000e+00 9.855958e-01 1.440426e-02
 0.000000e+00 0.000000e+00 0.000000e+00 0.000000e+00 0.000000e+00
<ENDHMM>
~h "co"
<BEGINHMM>
<NUMSTATES> 5
<STATE> 2
<MEAN> 39
 -6.547575e+00 -6.000418e+00 7.233595e-02 -1.062733e+00 -1.311820e+01 -6.214672e+00 -4.618952e+00 -6.630300e-01 1.776767e+00 -2.092853e+00 -3.862642e+00 -7.254302e+00 6.241188e+01 -6.315397e-01 -9.575286e-02 2.999194e-01 -4.108632e-01 -6.016234e-01 -8.718852e-01 -2.292347e-01 -7.611663e-01 -1.023120e+00 -9.939240e-01 -3.960488e-01 -3.415918e-01 2.529165e+00 -5.655713e-02 5.743366e-02 -1.430671e-02 4.807195e-02 3.596579e-01 2.006012e-01 1.803441e-01 3.945128e-02 -9.151363e-02 7.917585e-02 1.626537e-01 5.919193e-02 -1.184039e-01
<VARIANCE> 39
 1.890050e+01 3.548852e+01 3.534123e+01 3.908274e+01 9.683498e+01 6.551618e+01 7.883617e+01 6.760165e+01 5.514651e+01 4.376505e+01 5.195419e+01 3.633464e+01 1.009914e+02 1.141615e+00 2.132110e+00 1.849899e+00 1.912636e+00 6.670533e+00 3.735302e+00 4.131666e+00 3.584720e+00 4.195630e+00 3.324369e+00 2.660946e+00 2.843350e+00 3.471051e+00 1.415666e-01 3.191342e-01 2.764722e-01 2.484265e-01 7.629575e-01 5.976437e-01 6.300313e-01 5.822614e-01 6.820626e-01 6.025665e-01 4.138040e-01 4.705065e-01 5.126324e-01
<GCONST> 1.259099e+02
<STATE> 3
<MEAN> 39
 -6.612720e+00 -6.305567e+00 -4.400357e-01 -2.217288e+00 -7.699681e+00 -8.112361e+00 -6.184737e+00 -7.351931e+00 -5.060105e+00 -4.479635e+00 -4.261701e+00 -8.961729e+00 6.778269e+01 7.052014e-02 -2.485603e-02 1.641980e-03 5.043052e-02 1.236369e-01 3.894280e-02 -6.191715e-02 -5.813337e-02 -1.060469e-02 3.759710e-02 1.729436e-02 -2.849705e-02 -9.603795e-02 1.782759e-02 2.510889e-03 2.950517e-03 7.334009e-03 -6.027507e-03 8.965139e-04 -6.444048e-03 7.854557e-03 1.456363e-02 5.184377e-03 -5.890815e-03 -1.052248e-03 -3.104522e-02
<VARIANCE> 39
 1.762551e+01 1.199043e+01 2.471314e+01 2.133101e+01 3.322097e+01 3.145862e+01 5.095934e+01 5.720397e+01 4.251769e+01 3.858821e+01 3.630318e+01 3.960870e+01 4.693287e+01 4.520936e-01 7.518266e-01 9.270089e-01 1.222670e+00 2.499878e+00 1.725718e+00 2.171420e+00 2.270374e+00 3.049916e+00 2.306672e+00 2.198887e+00 1.777813e+00 1.270027e+00 6.326950e-02 1.516444e-01 1.637707e-01 2.269536e-01 4.461477e-01 3.296337e-01 3.913913e-01 4.294091e-01 6.255417e-01 4.666183e-01 4.327331e-01 3.420100e-01 1.467525e-01
<GCONST> 1.057068e+02
<STATE> 4
<MEAN> 39
 -3.790168e+00 -3.650198e+00 3.831403e+00 2.157526e+00 -1.389064e+00 -2.543941e+00 -5.198574e+00 -4.898869e+00 -3.858907e+00 -4.480889e+00 -3.924850e+00 -8.471246e+00 5.786204e+01 6.194090e-02 1.171250e-01 2.767118e-02 3.200069e-02 1.372486e-01 8.992397e-02 7.210276e-02 7.699406e-02 -2.350222e-03 7.799281e-03 2.052936e-02 4.117531e-02 -2.898103e-01 -4.011448e-03 -1.060177e-05 -8.413014e-03 -4.517690e-03 -1.019278e-02 -7.657661e-03 -9.513693e-04 -3.883227e-04 -1.182882e-04 -1.259580e-03 -1.822010e-03 -3.219268e-03 4.674254e-03
<VARIANCE> 39
 1.285310e+01 2.306906e+01 2.035331e+01 2.464782e+01 3.739653e+01 3.074158e+01 5.251372e+01 4.193997e+01 3.189211e+01 3.649618e+01 3.294769e+01 2.842533e+01 6.541155e+01 2.884036e-01 5.732792e-01 6.707289e-01 8.455506e-01 1.498405e+00 1.215193e+00 1.726553e+00 1.582515e+00 1.609934e+00 1.757038e+00 1.554831e+00 1.432157e+00 7.527745e-01 4.306693e-02 9.757743e-02 1.232172e-01 1.613237e-01 2.676914e-01 2.324683e-01 3.191695e-01 2.957275e-01 3.149456e-01 3.511665e-01 3.103545e-01 2.830012e-01 6.453720e-02
<GCONST> 9.530585e+01
<TRANSP> 5
 0.000000e+00 1.000000e+00 0.000000e+00 0.000000e+00 0.000000e+00
 0.000000e+00 8.450449e-01 1.549552e-01 0.000000e+00 0.000000e+00
 0.000000e+00 0.000000e+00 9.839013e-01 1.609868e-02 0.000000e+00
 0.000000e+00 0.000000e+00 0.000000e+00 9.818457e-01 1.815426e-02
 0.000000e+00 0.000000e+00 0.000000e+00 0.000000e+00 0.000000e+00
<ENDHMM>
~h "ds"
<BEGINHMM>
<NUMSTATES> 5
<STATE> 2
<MEAN> 39
 -1.350469e+01 8.302781e-01 9.223909e-01 -3.314991e-01 8.127668e-02 -2.101770e+00 4.814871e+00 -2.101180e+00 1.854322e+00 1.869338e+00 4.282466e+00 3.264413e-01 6.540370e+01 -1.951221e-01 9.345184e-02 -8.221534e-02 -5.658653e-02 -1.547360e-01 -9.108511e-02 -1.456554e-02 -2.259531e-02 3.952835e-02 7.793375e-02 1.533830e-02 3.744547e-02 9.835595e-01 3.695621e-02 -2.617776e-02 1.368119e-02 3.519286e-02 4.945153e-02 9.058608e-02 8.914647e-03 5.855099e-02 -1.826723e-02 -3.931679e-02 4.087214e-03 2.567403e-02 -1.290701e-01
<VARIANCE> 39
 2.258566e+01 1.726852e+01 1.551292e+01 2.021599e+01 2.871488e+01 2.376655e+01 2.844162e+01 3.707669e+01 2.793566e+01 2.470214e+01 2.004056e+01 1.714814e+01 9.377638e+01 2.141214e+00 1.105436e+00 1.433099e+00 1.715504e+00 2.589626e+00 2.355473e+00 2.461632e+00 2.477913e+00 2.175144e+00 2.297387e+00 2.011376e+00 1.785996e+00 3.951898e+00 3.360236e-01 1.977612e-01 2.404672e-01 3.151747e-01 4.732931e-01 4.585792e-01 4.385113e-01 4.647453e-01 3.982140e-01 4.376749e-01 3.724790e-01 3.380920e-01 6.095266e-01
<GCONST> 1.107115e+02
<STATE> 3
<MEAN> 39
 -1.645226e+01 3.245409e-01 -1.795419e+00 -7.890001e-01 -3.522111e+00 -2.285644e+00 1.765151e+00 -2.097599e+00 1.578211e+00 3.299309e+00 4.628517e+00 1.177690e+00 7.051505e+01 2.789424e-01 -9.077659e-02 3.103068e-01 5.358381e-01 6.318831e-01 3.570104e-01 7.687370e-02 1.049330e-01 -5.328860e-03 -1.494102e-01 -3.813175e-02 -7.937981e-02 -6.657186e-01 9.566456e-02 9.911262e-02 4.117728e-02 1.371953e-02 9.604852e-03 -9.856088e-02 -1.715573e-02 -1.189056e-01 -3.001098e-02 1.744951e-02 -6.363571e-02 -6.077369e-02 -1.196096e-01
<VARIANCE> 39
 1.506826e+01 7.605975e+00 8.364686e+00 1.221112e+01 1.534101e+01 1.179213e+01 1.277108e+01 1.202744e+01 1.403536e+01 1.464602e+01 1.478833e+01 1.220087e+01 1.850773e+02 1.638864e+00 9.617919e-01 9.570436e-01 8.262495e-01 1.048777e+00 1.505857e+00 1.392338e+00 1.429790e+00 1.294606e+00 1.378399e+00 1.147338e+00 1.217492e+00 2.084181e+01 3.474092e-01 1.496573e-01 1.773928e-01 1.793124e-01 1.993305e-01 3.068972e-01 2.749082e-01 2.495595e-01 2.545237e-01 2.732684e-01 2.384748e-01 2.602057e-01 3.909663e+00
<GCONST> 9.637533e+01
<STATE> 4
<MEAN> 39
 -9.959063e+00 1.470713e+00 2.063992e+00 8.214412e-01 2.972127e+00 7.079588e-01 2.959094e+00 -1.202624e+00 3.099974e-01 -3.305672e-01 2.186237e+00 -1.534558e+00 5.591707e+01 4.155958e-02 2.346491e-03 2.120393e-02 6.642138e-03 3.216263e-02 2.419159e-02 1.751354e-02 1.086986e-02 -4.359097e-03 -1.531953e-02 -1.436062e-02 -1.486797e-02 -1.066039e-01 -1.573025e-03 -6.431803e-04 -1.842774e-03 -2.580762e-03 -3.487739e-03 -1.189675e-03 -7.047987e-04 2.523043e-04 1.642326e-03 1.766383e-03 2.171726e-03 1.548154e-03 2.703681e-03
<VARIANCE> 39
 1.568818e+01 1.167825e+01 1.602009e+01 1.733375e+01 1.956792e+01 2.170185e+01 2.407840e+01 1.919527e+01 2.418082e+01 2.265697e+01 1.797614e+01 1.715046e+01 5.990224e+01 5.829830e-01 4.815972e-01 6.726471e-01 9.088003e-01 1.294739e+00 1.423524e+00 1.585470e+00 1.543638e+00 1.749535e+00 1.756676e+00 1.593719e+00 1.359473e+00 8.355384e-01 9.789655e-02 8.472657e-02 1.249334e-01 1.751959e-01 2.555048e-01 2.767102e-01 3.109712e-01 3.071726e-01 3.465533e-01 3.530294e-01 3.234408e-01 2.732244e-01 1.036463e-01
<GCONST> 9.188617e+01
<TRANSP> 5
 0.000000e+00 1.000000e+00 0.000000e+00 0.000000e+00 0.000000e+00
 0.000000e+00 9.314566e-01 6.854346e-02 0.000000e+00 0.000000e+00
 0.000000e+00 0.000000e+00 8.599446e-01 1.400554e-01 0.000000e+00
 0.000000e+00 0.000000e+00 0.000000e+00 9.936471e-01 6.352890e-03
 0.000000e+00 0.000000e+00 0.000000e+00 0.000000e+00 0.000000e+00
<ENDHMM>
~h "kj"
<BEGINHMM>
<NUMSTATES> 5
<STATE> 2
<MEAN> 39
 -1.950685e+01 3.656009e+00 -1.852496e-01 -1.478435e+00 -9.730917e-01 3.533156e+00 2.181222e+00 2.418674e+00 -3.021643e-01 2.909019e-02 1.497148e+00 -8.413615e-01 5.584147e+01 -2.118911e-02 1.718795e-02 3.416894e-03 -4.444375e-03 -1.996796e-03 1.186136e-02 4.588203e-03 1.182905e-03 1.013629e-02 -1.407742e-03 6.178130e-03 -1.274774e-03 4.157720e-03 1.312708e-03 -1.031195e-03 -4.777571e-04 3.526309e-04 -2.085772e-03 -2.134447e-03 8.846810e-04 1.596302e-03 -1.910194e-04 1.087111e-03 -2.076579e-03 -1.340825e-04 -1.579980e-04
<VARIANCE> 39
 3.125057e+01 2.341944e+01 1.722191e+01 2.635933e+01 1.708715e+01 3.537753e+01 2.629284e+01 2.181044e+01 1.788433e+01 2.106250e+01 1.699304e+01 1.572424e+01 2.312097e+01 6.487721e-01 5.451477e-01 7.259762e-01 9.279729e-01 1.157625e+00 1.467251e+00 1.607923e+00 1.633410e+00 1.611169e+00 1.681573e+00 1.509192e+00 1.339649e+00 3.882581e-01 1.068991e-01 9.875147e-02 1.355905e-01 1.818254e-01 2.221955e-01 2.906308e-01 3.196971e-01 3.272660e-01 3.270995e-01 3.369140e-01 3.040658e-01 2.692496e-01 6.027322e-02
<GCONST> 9.185465e+01
<STATE> 3
<MEAN> 39
 -1.495090e+01 -7.261526e+00 -4.192522e+00 -9.146276e-01 -1.805388e+00 -3.934346e+00 -2.091606e+00 -3.454525e+00 -2.550498e+00 6.456037e-01 4.149652e-01 -7.123047e-01 6.375019e+01 5.916782e-02 -1.388719e-01 -4.004143e-02 1.977599e-02 1.348953e-02 -7.883532e-02 -3.881241e-02 -5.759129e-02 -3.615424e-02 3.424141e-03 3.477829e-03 1.055648e-02 4.638949e-02 -2.028318e-04 1.410910e-02 1.725842e-02 -6.329375e-04 7.758477e-03 1.749436e-02 2.229166e-02 1.160810e-02 6.315899e-03 6.274157e-03 2.691959e-03 -5.443864e-03 -1.840873e-02
<VARIANCE> 39
 1.857540e+01 3.122202e+01 1.255489e+01 1.490394e+01 1.707376e+01 1.962111e+01 2.076968e+01 2.024266e+01 1.787892e+01 1.744840e+01 1.575367e+01 1.341482e+01 6.921230e+01 6.728072e-01 1.732389e+00 8.391637e-01 9.472818e-01 1.271200e+00 1.721016e+00 1.835386e+00 1.764894e+00 1.670447e+00 1.524232e+00 1.413061e+00 1.249121e+00 2.087433e+00 1.035921e-01 2.653175e-01 1.500515e-01 1.817959e-01 2.421112e-01 3.092453e-01 3.478140e-01 3.412322e-01 3.361420e-01 3.063636e-01 2.857218e-01 2.567182e-01 2.682901e-01
<GCONST> 9.646100e+01
<STATE> 4
<MEAN> 39
 -2.132270e+01 8.282440e-01 2.201524e+00 2.071398e+00 -2.772376e+00 -8.119251e-01 6.630709e+00 -7.371688e-01 -3.959116e+00 4.631730e+00 6.481791e-01 -3.525808e+00 5.635925e+01 3.018618e-02 1.548059e-03 6.081642e-03 -8.002193e-03 5.023132e-03 8.304434e-03 9.667696e-03 6.934013e-03 1.025475e-02 -7.149039e-03 8.327519e-04 5.227937e-03 -2.798158e-02 2.252312e-03 -8.651697e-04 -2.061317e-03 -1.771978e-03 1.307984e-03 1.913478e-04 -2.169208e-03 3.814222e-04 1.346332e-03 -2.694965e-03 9.829681e-04 2.345790e-03 -1.180840e-03
<VARIANCE> 39
 3.791488e+01 2.733909e+01 1.810891e+01 1.904205e+01 1.683736e+01 2.138923e+01 3.270473e+01 2.011355e+01 1.944549e+01 2.300473e+01 1.798767e+01 1.621427e+01 2.985658e+01 4.803934e-01 7.568446e-01 6.690275e-01 9.532315e-01 1.218101e+00 1.358181e+00 1.659548e+00 1.559168e+00 1.633088e+00 1.729784e+00 1.448520e+00 1.317001e+00 5.475974e-01 7.823638e-02 1.292075e-01 1.234155e-01 1.830109e-01 2.396905e-01 2.686911e-01 3.173955e-01 3.119899e-01 3.301362e-01 3.437223e-01 2.908475e-01 2.668037e-01 7.806098e-02
<GCONST> 9.236694e+01
<TRANSP> 5
 0.000000e+00 1.000000e+00 0.000000e+00 0.000000e+00 0.000000e+00
 0.000000e+00 9.936981e-01 6.301942e-03 0.000000e+00 0.000000e+00
 0.000000e+00 0.000000e+00 9.746039e-01 2.539613e-02 0.000000e+00
 0.000000e+00 0.000000e+00 0.000000e+00 9.914431e-01 8.556904e-03
 0.000000e+00 0.000000e+00 0.000000e+00 0.000000e+00 0.000000e+00
<ENDHMM>
~h "kn"
<BEGINHMM>
<NUMSTATES> 5
<STATE> 2
<MEAN> 39
 -5.131320e-01 7.638546e-01 -2.411074e+00 -2.467317e+00 1.213953e+00 -6.260433e-01 1.979902e+00 -3.575078e+00 -2.585801e-01 -4.091626e-01 7.073629e-01 -3.928731e+00 5.694886e+01 1.725596e-01 1.880692e-01 -8.970211e-02 1.575911e-01 2.622087e-01 -3.795681e-01 4.388099e-01 -6.197813e-02 9.532841e-01 2.146558e-01 2.017912e-01 2.911245e-01 1.931871e+00 -4.521466e-02 8.468958e-02 9.741240e-02 8.525286e-02 1.850205e-01 2.027560e-01 -3.413967e-02 5.760647e-02 -1.707397e-01 -3.975001e-02 4.944371e-03 9.832454e-02 -4.013575e-01
<VARIANCE> 39
 2.550072e+01 2.445110e+01 2.946329e+01 1.183773e+01 2.070257e+01 2.614172e+01 2.605753e+01 5.478625e+01 2.935210e+01 3.203851e+01 2.449704e+01 1.810860e+01 1.266043e+02 2.318424e+00 1.382157e+00 1.893395e+00 9.737146e-01 1.490000e+00 2.062780e+00 2.974376e+00 5.301857e+00 3.340623e+00 2.294435e+00 2.059581e+00 2.161839e+00 6.794611e+00 3.346551e-01 1.742617e-01 2.916692e-01 1.492497e-01 2.166112e-01 3.366644e-01 4.955609e-01 7.487087e-01 6.200730e-01 3.954374e-01 3.336329e-01 3.306537e-01 1.070032e+00
<GCONST> 1.132820e+02
<STATE> 3
<MEAN> 39
 5.564093e+00 -3.464024e-01 -2.887984e+00 9.437956e-01 4.419026e+00 -9.872063e-01 1.784584e+00 -4.065749e+00 -2.853985e-01 -9.428927e-01 1.030486e+00 -1.821375e+00 6.043593e+01 6.775013e-02 -1.698774e-02 2.593242e-02 4.745463e-02 2.013255e-02 1.729944e-02 -9.380092e-03 1.846293e-02 -4.668841e-02 1.246690e-02 -1.492564e-02 2.143503e-02 -1.168411e-01 2.915547e-05 -3.728451e-03 -4.022809e-03 -5.629829e-03 -9.080274e-03 7.558910e-04 -6.841071e-03 -3.478459e-03 -1.065684e-02 -4.720035e-03 -5.072378e-03 -1.736300e-02 -1.062116e-02
<VARIANCE> 39
 1.124023e+01 2.307123e+01 1.435397e+01 1.441681e+01 1.884873e+01 2.184725e+01 2.106831e+01 2.257629e+01 2.193944e+01 2.075749e+01 1.700047e+01 1.709100e+01 2.933432e+01 3.808490e-01 8.177193e-01 7.641813e-01 9.686010e-01 1.362695e+00 1.366644e+00 1.450915e+00 1.903211e+00 1.769940e+00 1.516205e+00 1.354545e+00 1.423945e+00 1.943127e+00 6.750399e-02 1.585744e-01 1.407025e-01 2.041923e-01 2.896014e-01 2.758873e-01 2.978850e-01 4.019501e-01 3.725533e-01 3.196105e-01 2.716637e-01 2.882673e-01 3.265273e-01
<GCONST> 9.387241e+01
<STATE> 4
<MEAN> 39
 4.026104e+00 2.722099e+00 4.623886e-01 7.620553e-01 5.148213e+00 2.374926e+00 1.320181e+00 -1.158964e+00 -2.923039e+00 -1.384079e+00 1.271843e-01 -2.863859e+00 5.108478e+01 -1.995587e-01 1.022684e-01 1.711174e-01 -4.869559e-02 2.502948e-02 1.990862e-01 1.186448e-03 1.536126e-01 -1.042331e-01 -4.280754e-02 -4.273001e-02 -7.801158e-02 -3.775452e-01 -1.054862e-02 -1.197632e-02 -5.906498e-03 -1.508137e-02 -2.065340e-02 -2.208630e-02 1.906634e-02 2.904085e-03 1.597573e-02 5.028993e-03 7.717414e-03 1.297482e-02 2.390453e-02
<VARIANCE> 39
 1.561136e+01 1.874182e+01 1.553438e+01 1.375208e+01 2.063972e+01 1.716643e+01 1.860465e+01 2.018058e+01 2.019433e+01 1.854917e+01 1.540150e+01 1.488989e+01 2.535695e+01 2.407263e-01 3.939271e-01 5.353341e-01 6.128985e-01 9.306061e-01 1.070887e+00 1.273446e+00 1.520370e+00 1.547158e+00 1.359842e+00 1.261316e+00 1.195447e+00 2.456803e-01 3.399097e-02 6.301577e-02 9.694099e-02 1.176953e-01 1.799885e-01 1.995896e-01 2.627894e-01 3.011847e-01 3.158459e-01 2.717882e-01 2.542908e-01 2.345983e-01 2.582291e-02
<GCONST> 8.063740e+01
<TRANSP> 5
 0.000000e+00 1.000000e+00 0.000000e+00 0.000000e+00 0.000000e+00
 0.000000e+00 8.372340e-01 1.627660e-01 0.000000e+00 0.000000e+00
 0.000000e+00 0.000000e+00 9.852732e-01 1.472678e-02 0.000000e+00
 0.000000e+00 0.000000e+00 0.000000e+00 9.574162e-01 4.258385e-02
 0.000000e+00 0.000000e+00 0.000000e+00 0.000000e+00 0.000000e+00
<ENDHMM>
~h "kt"
<BEGINHMM>
<NUMSTATES> 5
<STATE> 2
<MEAN> 39
 -1.099931e+01 1.482684e-01 -6.478490e+00 -1.096809e+00 1.455144e+00 1.311909e+00 4.691431e+00 7.024937e-01 1.188297e+00 8.376992e-01 1.571881e+00 -1.316891e+00 5.564819e+01 2.054360e-03 8.034483e-04 -5.804338e-03 3.205229e-04 -2.674343e-04 -8.432088e-04 3.278298e-03 -8.278688e-04 -3.169655e-03 -2.613877e-06 4.249243e-04 -2.975886e-03 9.439893e-04 9.453306e-04 -5.989504e-04 1.139583e-03 3.385821e-04 6.281798e-04 -3.024075e-04 -5.304694e-04 5.205459e-04 -1.171894e-03 -6.700580e-05 -4.489623e-04 -5.303168e-04 -1.712119e-03
<VARIANCE> 39
 1.483529e+01 6.257366e+00 7.547584e+00 1.084958e+01 1.198482e+01 1.716939e+01 1.624034e+01 1.631917e+01 1.678343e+01 1.539943e+01 1.441501e+01 1.325677e+01 1.843670e+01 8.997691e-01 4.422749e-01 6.194007e-01 8.526359e-01 1.106034e+00 1.466503e+00 1.692352e+00 1.679260e+00 1.624200e+00 1.650799e+00 1.485452e+00 1.302601e+00 1.009505e+00 1.656369e-01 8.636910e-02 1.243831e-01 1.658694e-01 2.243966e-01 2.991592e-01 3.554276e-01 3.471310e-01 3.267710e-01 3.413147e-01 2.979355e-01 2.632459e-01 1.750636e-01
<GCONST> 8.746265e+01
<STATE> 3
<MEAN> 39
 -1.217192e+01 3.194932e+00 -2.800770e+00 9.047987e-01 8.346406e-01 -2.377012e+00 2.432702e+00 1.121653e+00 2.352445e-02 -5.723789e-01 -3.795341e-01 -1.610575e+00 5.315081e+01 -6.507942e-03 5.769084e-04 -3.814045e-03 5.634964e-03 3.982170e-03 -1.008033e-02 1.301723e-02 -1.586834e-02 3.379979e-03 -9.212513e-03 6.782295e-03 -9.813403e-03 1.040678e-02 8.500673e-03 -2.028819e-03 3.520394e-03 -1.380075e-03 5.091486e-03 1.008137e-02 3.456295e-03 4.549090e-03 4.750839e-03 2.954652e-03 3.225729e-03 1.896643e-03 -1.589344e-02
<VARIANCE> 39
 7.948164e+00 6.175548e+00 9.150597e+00 1.175702e+01 1.458591e+01 1.685497e+01 1.745990e+01 1.701238e+01 1.775427e+01 1.971314e+01 1.761015e+01 1.396473e+01 2.036062e+01 7.485538e-01 4.789274e-01 7.587853e-01 9.303410e-01 1.337638e+00 1.805061e+00 1.675062e+00 1.598764e+00 1.727006e+00 2.136796e+00 1.704151e+00 1.381364e+00 1.659710e+00 1.438201e-01 8.994328e-02 1.515855e-01 1.899365e-01 2.736594e-01 3.831095e-01 3.421074e-01 3.257813e-01 3.506055e-01 4.502122e-01 3.379079e-01 2.821028e-01 3.150852e-01
<GCONST> 9.128867e+01
<STATE> 4
<MEAN> 39
 -9.716695e+00 3.166659e+00 -2.549436e+00 -2.768394e-02 4.435091e-01 -9.824759e-02 3.143813e+00 2.142224e+00 6.525108e-01 -2.866585e-02 5.929145e-01 -2.093541e+00 4.880436e+01 1.686825e-02 -1.771429e-03 6.641650e-03 -9.089642e-03 6.601682e-03 1.119920e-02 3.166491e-03 6.434322e-03 -8.137844e-05 1.840475e-03 3.455858e-03 1.307566e-03 -2.191474e-02 -6.740098e-04 5.504178e-05 -8.041273e-05 9.468228e-04 5.825449e-05 -1.434202e-03 -2.262697e-03 -3.677697e-04 -8.862905e-04 -8.051111e-04 -1.131168e-03 4.154266e-04 2.274986e-03
<VARIANCE> 39
 9.512197e+00 8.989268e+00 1.096883e+01 1.157598e+01 1.665113e+01 1.586450e+01 1.692476e+01 1.738573e+01 1.736057e+01 1.734616e+01 1.508878e+01 1.299970e+01 1.163880e+01 6.898904e-01 5.162247e-01 6.995617e-01 8.597662e-01 1.156718e+00 1.312440e+00 1.433156e+00 1.484594e+00 1.609297e+00 1.615742e+00 1.437605e+00 1.231073e+00 7.792061e-01 1.310183e-01 9.951481e-02 1.365831e-01 1.717537e-01 2.311880e-01 2.655345e-01 2.929956e-01 2.996210e-01 3.303871e-01 3.350476e-01 2.915875e-01 2.464220e-01 1.426528e-01
<GCONST> 8.648302e+01
<TRANSP> 5
 0.000000e+00 1.000000e+00 0.000000e+00 0.000000e+00 0.000000e+00
 0.000000e+00 9.916905e-01 8.309494e-03 0.000000e+00 0.000000e+00
 0.000000e+00 0.000000e+00 9.848139e-01 1.518603e-02 0.000000e+00
 0.000000e+00 0.000000e+00 0.000000e+00 9.930381e-01 6.961884e-03
 0.000000e+00 0.000000e+00 0.000000e+00 0.000000e+00 0.000000e+00
<ENDHMM>
~h "pr"
<BEGINHMM>
<NUMSTATES> 5
<STATE> 2
<MEAN> 39
 -1.461085e+01 -7.829092e+00 -1.249726e-01 -6.816157e+00 2.943944e+00 5.540848e+00 4.938657e+00 2.573529e-01 -2.172185e+00 -2.085478e+00 4.872959e+00 -4.700504e-01 5.820672e+01 -3.888367e-02 -1.235247e-02 1.342717e-02 -1.720033e-02 1.293731e-02 1.681757e-02 7.043064e-03 -1.834726e-02 6.344285e-03 -1.541707e-02 -8.511313e-03 4.458773e-02 3.470646e-02 1.342762e-02 2.537118e-03 -6.206555e-04 2.833907e-03 -3.610194e-03 1.649949e-03 -4.903359e-03 1.154384e-03 1.973449e-03 5.734209e-03 -6.264476e-03 -4.684965e-03 -1.102909e-02
<VARIANCE> 39
 3.261814e+01 4.265131e+01 4.417349e+01 3.526626e+01 4.658944e+01 7.049660e+01 5.153953e+01 6.326331e+01 5.880808e+01 3.392735e+01 5.452544e+01 5.625183e+01 2.611450e+01 8.157129e-01 7.950889e-01 9.789217e-01 1.376318e+00 1.505697e+00 1.830534e+00 2.105598e+00 2.316121e+00 2.260694e+00 1.997186e+00 2.379948e+00 2.097351e+00 5.972493e-01 1.193347e-01 1.274089e-01 1.671033e-01 2.395026e-01 2.699914e-01 3.256575e-01 3.887723e-01 4.111149e-01 4.194849e-01 3.621640e-01 4.395087e-01 3.783061e-01 8.255361e-02
<GCONST> 1.085632e+02
<STATE> 3
<MEAN> 39
 -1.946999e+01 3.421957e+00 1.786374e+01 -1.632139e+01 3.282283e+00 1.229142e+01 -5.979257e+00 -4.366897e+00 1.057310e+01 -5.346708e+00 -8.491150e+00 8.923049e+00 5.286343e+01 6.995042e-02 -3.530500e-02 -8.208360e-03 -1.348471e-02 2.636920e-02 -1.883305e-02 -3.067862e-02 4.176626e-02 -2.822206e-02 4.486719e-02 -2.757467e-02 6.463288e-03 -5.537113e-02 1.552040e-03 1.747399e-03 -7.339634e-03 7.067709e-03 7.921252e-03 -1.312064e-02 5.004135e-03 1.415509e-02 -9.710640e-03 3.888304e-04 1.366183e-02 -1.148427e-02 -1.831715e-03
<VARIANCE> 39
 1.903988e+01 1.826885e+01 1.451976e+01 3.226741e+01 2.834293e+01 2.307316e+01 1.754063e+01 3.668766e+01 3.178583e+01 4.387302e+01 3.170695e+01 2.081551e+01 1.348253e+01 5.464037e-01 4.630797e-01 5.203200e-01 8.866411e-01 1.265869e+00 1.604477e+00 1.379743e+00 1.524799e+00 1.620996e+00 1.680555e+00 1.887306e+00 1.128770e+00 2.413064e-01 1.334595e-01 8.789577e-02 1.032587e-01 1.772888e-01 2.626264e-01 3.453621e-01 2.806320e-01 3.108532e-01 3.402899e-01 3.227950e-01 3.711195e-01 2.301761e-01 5.758380e-02
<GCONST> 9.179492e+01
<STATE> 4
<MEAN> 39
 -1.402510e+01 -5.088372e+00 4.917245e+00 -5.846971e+00 3.503610e+00 -1.265241e+00 3.303265e+00 4.580442e+00 2.707451e+00 -1.905539e+00 -3.211862e+00 2.933580e+00 5.411844e+01 3.373159e-02 2.261055e-02 -1.975428e-02 2.051596e-02 -2.077096e-02 -7.504807e-03 6.746810e-03 -3.713271e-03 -5.161882e-04 -2.388595e-03 1.218957e-02 -2.151060e-02 -3.151976e-02 -6.224051e-04 6.169984e-04 1.277182e-03 -8.646752e-04 -8.133348e-04 9.588741e-04 -1.865974e-04 -1.245295e-03 2.862317e-04 4.649368e-04 -5.416434e-04 -1.499344e-03 2.931207e-04
<VARIANCE> 39
 3.909534e+01 5.419582e+01 5.258313e+01 5.566115e+01 8.560086e+01 9.090845e+01 6.846290e+01 6.308379e+01 5.274359e+01 4.982468e+01 5.201919e+01 6.963998e+01 4.676660e+01 3.166694e-01 4.112165e-01 6.508613e-01 9.354322e-01 1.130995e+00 1.514916e+00 1.529787e+00 1.580737e+00 1.684783e+00 1.739580e+00 1.548877e+00 1.362066e+00 1.621214e-01 5.670727e-02 7.396187e-02 1.211794e-01 1.703609e-01 2.207766e-01 2.938629e-01 3.002010e-01 2.992302e-01 3.236423e-01 3.416629e-01 3.070014e-01 2.634089e-01 2.644271e-02
<GCONST> 1.006018e+02
<TRANSP> 5
 0.000000e+00 1.000000e+00 0.000000e+00 0.000000e+00 0.000000e+00
 0.000000e+00 9.894274e-01 1.057262e-02 0.000000e+00 0.000000e+00
 0.000000e+00 0.000000e+00 9.843987e-01 1.560121e-02 0.000000e+00
 0.000000e+00 0.000000e+00 0.000000e+00 9.952680e-01 4.731934e-03
 0.000000e+00 0.000000e+00 0.000000e+00 0.000000e+00 0.000000e+00
<ENDHMM>
~h "pw"
<BEGINHMM>
<NUMSTATES> 5
<STATE> 2
<MEAN> 39
 -1.328879e+01 -2.086186e+00 -9.465885e-01 -6.326849e-01 1.173364e+00 -1.081011e+00 3.034561e+00 2.018058e-01 -6.522416e-01 9.731621e-01 1.386287e-01 -9.515263e-01 5.385382e+01 -2.488690e-03 -4.173500e-03 3.196955e-03 -6.476037e-04 -1.976861e-03 -7.464661e-03 1.089677e-03 -3.928874e-03 -2.198454e-03 -1.620808e-04 7.876765e-04 1.216573e-03 5.148198e-03 4.060449e-05 -1.436206e-03 -2.586687e-03 -7.848958e-05 -1.737755e-03 -2.453851e-03 -2.254849e-03 -9.117684e-04 -1.904890e-03 1.359925e-03 -6.169588e-04 5.014518e-04 2.662275e-03
<VARIANCE> 39
 1.584717e+01 2.114907e+01 1.178847e+01 1.205800e+01 1.515232e+01 1.773570e+01 1.728368e+01 1.859851e+01 1.661990e+01 1.558976e+01 1.445096e+01 1.295820e+01 2.288244e+01 5.543627e-01 7.658155e-01 6.967633e-01 8.968276e-01 1.153827e+00 1.402675e+00 1.449323e+00 1.559673e+00 1.592423e+00 1.462575e+00 1.455286e+00 1.251827e+00 5.739332e-01 9.117532e-02 1.299909e-01 1.333892e-01 1.773830e-01 2.291079e-01 2.856868e-01 2.942246e-01 3.128846e-01 3.267649e-01 2.937867e-01 3.002032e-01 2.549588e-01 8.444253e-02
<GCONST> 8.791938e+01
<STATE> 3
<MEAN> 39
 -1.091618e+01 -6.183311e+00 -2.525298e+00 -1.428578e+00 1.902787e-01 -4.489312e+00 -6.581227e-01 -4.487924e+00 -3.276233e+00 -8.083127e-01 -1.934953e-01 -4.829699e-01 6.121608e+01 -8.017399e-03 -6.375316e-02 -1.731900e-02 4.745974e-03 -1.095286e-02 -4.651092e-02 -5.179598e-02 -6.559562e-02 -3.815115e-02 -2.424935e-02 4.286935e-03 8.540234e-03 9.457846e-02 6.643138e-03 8.790160e-03 3.220895e-03 7.120683e-04 1.067145e-02 1.533012e-02 1.228704e-02 1.106679e-02 8.563672e-03 3.719217e-03 4.362154e-03 -3.868268e-03 -2.119835e-02
<VARIANCE> 39
 2.177136e+01 2.822753e+01 1.385686e+01 1.265045e+01 1.880166e+01 2.563124e+01 2.219646e+01 2.687558e+01 1.946115e+01 1.712016e+01 1.505188e+01 1.333059e+01 8.572725e+01 6.536308e-01 1.081917e+00 7.345482e-01 8.643894e-01 1.465837e+00 1.911518e+00 1.696967e+00 1.781390e+00 1.539463e+00 1.466921e+00 1.376163e+00 1.303880e+00 3.914263e+00 1.088225e-01 1.645560e-01 1.358669e-01 1.654576e-01 2.870226e-01 3.624292e-01 3.275369e-01 3.413127e-01 3.110242e-01 2.943138e-01 2.797459e-01 2.716461e-01 5.343558e-01
<GCONST> 9.762790e+01
<STATE> 4
<MEAN> 39
 -1.202464e+01 -3.004748e+00 -1.625511e+00 -9.125401e-01 8.908398e-01 -1.034440e+00 2.861935e+00 -4.923903e-01 -8.979720e-01 6.618739e-01 3.687060e-01 -8.298565e-01 5.455323e+01 1.049155e-02 8.791253e-03 3.740449e-03 -1.750802e-03 3.981454e-03 1.397022e-02 1.069629e-02 1.393502e-02 9.620344e-03 5.387454e-03 6.905438e-04 -3.838124e-03 -2.635253e-02 4.207699e-04 -7.524816e-04 -3.418486e-04 -6.288268e-04 -1.196393e-03 -8.661978e-04 -1.404482e-03 -2.222200e-03 -1.855125e-03 -8.181836e-04 -3.463065e-04 1.351030e-04 1.248973e-03
<VARIANCE> 39
 1.737169e+01 2.136001e+01 1.279142e+01 1.220827e+01 1.441728e+01 2.102093e+01 1.840570e+01 2.110499e+01 1.747882e+01 1.615576e+01 1.436667e+01 1.336427e+01 3.435290e+01 5.330074e-01 7.634541e-01 6.627022e-01 8.543020e-01 1.132735e+00 1.457961e+00 1.463804e+00 1.571138e+00 1.516682e+00 1.506732e+00 1.415903e+00 1.288133e+00 8.853530e-01 8.683681e-02 1.268754e-01 1.247781e-01 1.670611e-01 2.235832e-01 2.925455e-01 2.914084e-01 3.134207e-01 3.070492e-01 3.096931e-01 2.884690e-01 2.650285e-01 1.263022e-01
<GCONST> 8.943786e+01
<TRANSP> 5
 0.000000e+00 1.000000e+00 0.000000e+00 0.000000e+00 0.000000e+00
 0.000000e+00 9.938994e-01 6.100566e-03 0.000000e+00 0.000000e+00
 0.000000e+00 0.000000e+00 9.883853e-01 1.161472e-02 0.000000e+00
 0.000000e+00 0.000000e+00 0.000000e+00 9.972070e-01 2.792940e-03
 0.000000e+00 0.000000e+00 0.000000e+00 0.000000e+00 0.000000e+00
<ENDHMM>
~h "si"
<BEGINHMM>
<NUMSTATES> 5
<STATE> 2
<MEAN> 39
 -5.806303e+00 2.088675e+00 1.191603e+00 -1.918202e+00 1.982623e+00 1.940726e+00 2.249295e+00 3.303910e+00 -4.356830e-01 3.475578e-01 7.634728e-01 -2.637402e+00 4.428975e+01 -2.951492e-03 3.930420e-03 -9.162056e-03 -8.971808e-03 -5.924605e-03 2.231850e-03 5.127261e-03 1.364069e-02 3.888961e-03 6.300398e-03 6.149030e-03 -1.499225e-03 -1.584017e-02 -8.683152e-04 -7.997490e-04 -6.624775e-04 1.650934e-04 -3.409334e-04 -2.851287e-04 -8.410138e-05 -1.165246e-03 1.042040e-04 3.590238e-04 2.671621e-04 6.315104e-04 1.260237e-03
<VARIANCE> 39
 7.289833e+00 6.113299e+00 9.994231e+00 1.101579e+01 1.785931e+01 1.494650e+01 1.609808e+01 1.896457e+01 1.649738e+01 1.698658e+01 1.490980e+01 1.323033e+01 6.599379e+00 1.711986e-01 3.074884e-01 4.736721e-01 6.923824e-01 9.364781e-01 1.115406e+00 1.269996e+00 1.367316e+00 1.394974e+00 1.412800e+00 1.321501e+00 1.131765e+00 8.199086e-02 3.004771e-02 5.775061e-02 9.222306e-02 1.376072e-01 1.861857e-01 2.232573e-01 2.555412e-01 2.750761e-01 2.828149e-01 2.875669e-01 2.687190e-01 2.289315e-01 1.243255e-02
<GCONST> 7.316297e+01
<STATE> 3
<MEAN> 39
 -3.889784e+00 -3.888591e+00 -3.632004e+00 -3.230997e+00 1.298669e+00 3.746017e+00 4.365936e+00 6.946232e-01 -6.395201e-01 1.174502e+00 1.236601e+00 -2.599087e+00 5.072477e+01 -2.401212e-03 -5.132264e-03 -1.063300e-02 -8.307995e-03 -6.833859e-03 2.346874e-03 3.437128e-03 5.480949e-03 5.183958e-03 9.365922e-03 3.319484e-03 4.602724e-03 -1.324861e-02 -2.289194e-03 1.849438e-03 2.759354e-03 1.758375e-03 -3.375183e-04 -3.460304e-03 -2.607574e-03 -1.568343e-03 -3.873324e-04 -8.773964e-04 -1.257026e-03 2.794754e-05 2.632569e-03
<VARIANCE> 39
 7.845582e+00 8.388949e+00 7.867007e+00 9.132032e+00 1.472491e+01 1.531033e+01 1.596364e+01 1.608101e+01 1.547089e+01 1.539592e+01 1.470586e+01 1.328058e+01 5.145063e+00 1.646525e-01 3.023903e-01 4.914119e-01 6.788585e-01 9.544858e-01 1.148623e+00 1.277272e+00 1.428084e+00 1.407028e+00 1.430666e+00 1.357779e+00 1.207844e+00 7.476641e-02 2.842703e-02 5.733815e-02 9.710422e-02 1.344415e-01 1.926342e-01 2.311633e-01 2.564760e-01 2.905187e-01 2.865678e-01 2.935378e-01 2.777288e-01 2.454279e-01 1.175405e-02
<GCONST> 7.261524e+01
<STATE> 4
<MEAN> 39
 -8.717901e+00 2.327959e-01 2.411188e-01 -1.652072e+00 6.742788e-01 4.515086e-01 2.648029e+00 1.209213e+00 1.140423e-02 7.288808e-01 8.653947e-01 -1.695510e+00 4.942313e+01 -9.235775e-03 -1.360086e-03 7.602156e-04 -1.050583e-03 -2.901985e-03 -5.840257e-03 -2.334923e-03 -3.670090e-03 2.177806e-03 2.073645e-03 3.534280e-03 4.236871e-03 1.636680e-02 1.301493e-03 -1.558815e-04 -5.347221e-05 -4.749594e-04 3.804996e-04 1.187906e-03 3.592138e-04 2.764047e-04 -6.857765e-05 -2.745969e-04 3.243886e-05 -5.065477e-04 -1.517805e-04
<VARIANCE> 39
 2.059328e+01 1.684073e+01 1.370336e+01 1.442560e+01 1.941534e+01 1.936391e+01 1.967209e+01 2.298798e+01 1.934092e+01 1.791901e+01 1.668989e+01 1.559953e+01 3.364011e+01 4.213579e-01 5.561918e-01 6.078985e-01 8.360772e-01 1.075900e+00 1.305932e+00 1.411826e+00 1.521619e+00 1.510691e+00 1.497166e+00 1.399794e+00 1.239206e+00 5.191393e-01 6.619620e-02 9.587171e-02 1.142205e-01 1.619754e-01 2.099770e-01 2.578486e-01 2.817728e-01 3.032344e-01 3.033094e-01 3.027821e-01 2.829081e-01 2.497346e-01 7.470762e-02
<GCONST> 8.741273e+01
<TRANSP> 5
 0.000000e+00 1.000000e+00 0.000000e+00 0.000000e+00 0.000000e+00
 0.000000e+00 9.908999e-01 9.100124e-03 0.000000e+00 0.000000e+00
 0.000000e+00 0.000000e+00 9.800115e-01 1.998847e-02 0.000000e+00
 0.000000e+00 0.000000e+00 0.000000e+00 9.914057e-01 8.594280e-03
 0.000000e+00 0.000000e+00 0.000000e+00 0.000000e+00 0.000000e+00
<ENDHMM>
~h "st"
<BEGINHMM>
<NUMSTATES> 5
<STATE> 2
<MEAN> 39
 -9.677018e+00 -2.925144e+00 -1.219059e-01 -5.748969e+00 -1.414379e+00 -3.480319e+00 6.110633e-01 2.922002e-02 -3.835050e-01 -5.605791e-01 9.586470e-01 -2.525033e+00 6.005762e+01 -1.894630e-01 -5.248280e-01 2.011629e-01 -4.843421e-01 -3.244556e-01 -5.727738e-01 -1.823551e-01 -1.957370e-02 5.832581e-02 -4.553147e-02 -9.788141e-04 2.540376e-02 1.231801e+00 8.010105e-02 7.854743e-02 4.898897e-03 8.254340e-02 9.017193e-02 1.395679e-01 1.145483e-01 2.693352e-02 1.464824e-02 3.297166e-02 -3.754007e-03 1.501178e-02 -2.339119e-01
<VARIANCE> 39
 2.201060e+01 2.892996e+01 1.868378e+01 2.840591e+01 2.595281e+01 3.608589e+01 2.721487e+01 2.479904e+01 2.114022e+01 2.161834e+01 2.036871e+01 1.536714e+01 9.676752e+01 1.368495e+00 1.514664e+00 1.211946e+00 1.908612e+00 2.275719e+00 3.112340e+00 2.465309e+00 2.347707e+00 1.831837e+00 2.180672e+00 2.135752e+00 1.760517e+00 5.092071e+00 1.863969e-01 2.509571e-01 1.995880e-01 3.166083e-01 3.758470e-01 4.904094e-01 4.082933e-01 4.358267e-01 3.198107e-01 3.801206e-01 3.770019e-01 3.096541e-01 8.122432e-01
<GCONST> 1.101215e+02
<STATE> 3
<MEAN> 39
 -7.263464e+00 -3.250665e+00 -1.787330e+00 -5.025964e+00 -9.767314e-01 -6.845424e-01 2.414462e+00 -2.794258e-01 -1.097839e+00 -3.229327e-01 1.000926e+00 -2.462412e+00 5.620752e+01 7.375554e-04 2.062018e-02 -5.725882e-03 1.900339e-02 7.631031e-03 2.545094e-02 1.048961e-02 -3.513868e-03 -5.736405e-03 2.871702e-03 2.744168e-03 1.194561e-03 -4.873007e-02 -1.731098e-03 1.591456e-03 -1.046277e-03 1.995895e-03 3.789799e-04 -2.916214e-04 -3.217634e-03 -1.181777e-03 -5.902948e-04 -3.722333e-04 3.880034e-04 7.224963e-05 3.906677e-04
<VARIANCE> 39
 1.522446e+01 1.663509e+01 1.461160e+01 2.016660e+01 1.942169e+01 2.392800e+01 1.955486e+01 1.884561e+01 1.850978e+01 1.892970e+01 1.569133e+01 1.429447e+01 3.214375e+01 5.271275e-01 6.853318e-01 7.186319e-01 1.168647e+00 1.336370e+00 1.575647e+00 1.547880e+00 1.565054e+00 1.573825e+00 1.588134e+00 1.506627e+00 1.310555e+00 1.302267e+00 8.274958e-02 1.134435e-01 1.356893e-01 2.167481e-01 2.594401e-01 3.069868e-01 3.116597e-01 3.192272e-01 3.224953e-01 3.267364e-01 3.108018e-01 2.666181e-01 1.952057e-01
<GCONST> 9.258065e+01
<STATE> 4
<MEAN> 39
 -1.027466e+01 8.007745e-01 7.992610e-01 -2.573503e+00 2.828317e-01 -7.561076e-01 2.032450e+00 3.423440e-01 2.707607e-01 -1.230056e-01 7.331910e-01 -2.263302e+00 5.223519e+01 4.849278e-03 7.690807e-03 -2.279495e-03 6.651036e-03 1.298192e-02 2.099430e-02 1.045472e-02 1.979908e-03 1.946108e-03 -1.896700e-03 -4.933863e-03 3.200598e-03 -2.919183e-02 1.273884e-03 -1.888284e-03 -1.391207e-03 -3.036638e-03 -2.796009e-03 -4.415914e-04 4.973158e-04 1.309139e-03 5.362829e-04 1.526942e-03 4.578110e-04 2.767628e-04 1.190236e-03
<VARIANCE> 39
 1.466637e+01 8.984005e+00 1.136726e+01 1.720146e+01 1.650840e+01 1.945693e+01 1.809246e+01 1.992893e+01 1.753962e+01 1.639640e+01 1.466614e+01 1.333408e+01 3.625193e+01 4.369743e-01 4.932686e-01 6.262835e-01 9.986920e-01 1.160685e+00 1.390502e+00 1.438686e+00 1.543468e+00 1.532591e+00 1.503785e+00 1.416294e+00 1.271550e+00 9.716059e-01 7.084257e-02 8.721691e-02 1.202232e-01 1.839383e-01 2.243024e-01 2.708197e-01 2.862611e-01 3.110898e-01 3.093529e-01 3.069046e-01 2.906102e-01 2.618163e-01 1.205759e-01
<GCONST> 8.752492e+01
<TRANSP> 5
 0.000000e+00 1.000000e+00 0.000000e+00 0.000000e+00 0.000000e+00
 0.000000e+00 8.384132e-01 1.615867e-01 0.000000e+00 0.000000e+00
 0.000000e+00 0.000000e+00 9.915427e-01 8.457285e-03 0.000000e+00
 0.000000e+00 0.000000e+00 0.000000e+00 9.913540e-01 8.646000e-03
 0.000000e+00 0.000000e+00 0.000000e+00 0.000000e+00 0.000000e+00
<ENDHMM>
~h "spe"
<BEGINHMM>
<NUMSTATES> 5
<STATE> 2
<MEAN> 39
 -1.110001e+00 -4.778170e-02 4.882711e+00 -5.511188e+00 -6.245908e+00 7.864992e-01 -1.262407e+00 -4.789059e+00 -4.052692e+00 -3.153607e-01 1.567465e-02 -5.090064e+00 5.541228e+01 1.171271e-01 -2.783149e-01 2.500211e-01 -2.107341e-01 -3.236391e-01 -1.351957e-01 -2.809714e-01 8.718882e-02 9.356529e-02 2.130319e-01 3.704190e-02 -1.886704e-01 3.676416e-01 -1.232656e-02 -5.858542e-02 -2.701664e-02 -7.711037e-03 1.160343e-03 -2.455147e-02 -9.148373e-03 3.589774e-02 3.163633e-02 1.076310e-02 -3.656608e-02 -1.703372e-02 1.657344e-02
<VARIANCE> 39
 2.564901e+01 2.685599e+01 7.598127e+01 4.212744e+01 6.294621e+01 3.627108e+01 2.288463e+01 3.996552e+01 2.987426e+01 2.761392e+01 2.404579e+01 2.630450e+01 1.389296e+01 7.410148e-01 9.962527e-01 1.207062e+00 1.689430e+00 2.813506e+00 2.319788e+00 1.609572e+00 2.573321e+00 2.093801e+00 1.856329e+00 1.670678e+00 1.631749e+00 4.605338e-01 8.496951e-02 1.207529e-01 1.542081e-01 2.311687e-01 4.366589e-01 4.308633e-01 2.766957e-01 3.908751e-01 3.215409e-01 3.101294e-01 2.915950e-01 2.526938e-01 3.975361e-02
<GCONST> 1.019761e+02
<STATE> 3
<MEAN> 39
 -1.521208e+00 -5.008878e+00 1.141622e+00 -1.195291e+01 -2.704041e+00 -4.733896e+00 -4.537629e+00 -1.110029e+00 -1.592379e+00 -2.017568e+00 -5.241045e+00 -4.953378e+00 6.156835e+01 -3.179953e-02 3.818671e-02 -7.340313e-02 7.213618e-02 9.341817e-02 -2.250160e-04 -6.988583e-04 -5.383822e-02 -3.824608e-02 -7.018369e-02 -6.766283e-02 -6.568048e-03 -1.467995e-02 -1.243596e-03 2.413993e-02 3.616889e-04 2.104908e-02 6.876646e-03 1.022926e-02 1.571649e-02 -1.583608e-02 -1.541102e-02 -3.534849e-03 9.664289e-03 1.219305e-02 -2.190319e-02
<VARIANCE> 39
 2.501670e+01 3.973542e+01 6.193901e+01 6.695536e+01 5.349205e+01 6.155779e+01 4.057791e+01 5.644839e+01 3.894397e+01 3.969712e+01 5.425437e+01 4.070751e+01 2.313307e+01 6.567173e-01 1.125550e+00 1.353873e+00 1.562136e+00 1.810968e+00 1.890102e+00 1.920302e+00 2.363384e+00 2.386372e+00 2.077674e+00 2.074192e+00 1.761680e+00 4.486468e-01 8.943988e-02 1.494103e-01 1.996106e-01 2.524982e-01 3.002284e-01 3.464430e-01 3.518766e-01 4.305349e-01 4.519474e-01 4.047641e-01 3.840895e-01 3.367767e-01 5.089564e-02
<GCONST> 1.080399e+02
<STATE> 4
<MEAN> 39
 -1.204702e+00 -3.086788e+00 1.540925e-01 -4.427133e+00 -2.566841e+00 -2.072725e-01 -3.108201e-01 -8.716565e-01 -1.964447e+00 -4.081265e-02 -1.006690e+00 -5.616076e+00 5.331238e+01 -3.326844e-03 5.125979e-03 -5.492384e-03 9.729616e-03 1.004492e-02 1.178359e-02 2.067303e-02 8.468519e-03 5.945252e-03 8.031356e-03 1.162202e-02 1.275277e-02 -2.259568e-02 -2.082055e-04 -6.163012e-04 2.822366e-04 -8.778117e-04 9.736419e-05 1.142785e-03 8.082699e-05 7.967528e-04 9.031480e-04 5.059317e-04 -6.228125e-04 -2.922426e-04 4.273395e-04
<VARIANCE> 39
 1.483460e+01 2.716186e+01 3.269449e+01 2.538075e+01 4.525603e+01 3.520703e+01 3.427867e+01 3.068275e+01 2.878795e+01 2.792938e+01 2.887741e+01 2.539849e+01 1.615583e+01 3.600487e-01 6.544902e-01 8.514153e-01 1.004399e+00 1.459371e+00 1.499792e+00 1.565230e+00 1.710341e+00 1.705273e+00 1.662930e+00 1.637978e+00 1.515059e+00 2.094962e-01 4.898812e-02 9.525301e-02 1.297265e-01 1.697602e-01 2.406527e-01 2.660473e-01 2.873278e-01 3.235959e-01 3.259627e-01 3.204441e-01 3.098798e-01 2.863370e-01 2.246267e-02
<GCONST> 9.256896e+01
<TRANSP> 5
 0.000000e+00 1.000000e+00 0.000000e+00 0.000000e+00 0.000000e+00
 0.000000e+00 9.384890e-01 6.151098e-02 0.000000e+00 0.000000e+00
 0.000000e+00 0.000000e+00 9.827197e-01 1.728025e-02 0.000000e+00
 0.000000e+00 0.000000e+00 0.000000e+00 9.968117e-01 3.188285e-03
 0.000000e+00 0.000000e+00 0.000000e+00 0.000000e+00 0.000000e+00
<ENDHMM>
