~o
<STREAMINFO> 1 39
<VECSIZE> 39<NULLD><MFCC_D_A_Z_0><DIAGC>
~h "ap"
<BEGINHMM>
<NUMSTATES> 5
<STATE> 2
<NUMMIXES> 2
<MIXTURE> 1 4.922344e-01
<MEAN> 39
 -4.714861e+00 4.223603e+00 2.556340e+00 -1.726810e+00 -3.525771e+00 1.655983e+00 -1.304934e-01 1.136378e+00 2.999055e+00 1.604510e+00 -4.140822e-02 1.990540e-01 2.248278e+00 -2.843874e-01 -6.349766e-01 -4.525010e-01 -3.373139e-01 7.570954e-02 -6.491432e-03 -3.197111e-02 -1.458819e-01 6.214556e-02 1.547137e-01 1.569372e-02 -3.459500e-01 9.830682e-01 2.157401e-01 2.009468e-01 1.479161e-01 8.612485e-02 2.733607e-01 3.168007e-01 2.044623e-01 1.386160e-01 9.205816e-02 6.701436e-02 -1.161498e-02 1.673588e-02 -6.562328e-01
<VARIANCE> 39
 4.802536e+01 4.919691e+01 3.857005e+01 1.848799e+01 2.815011e+01 6.009040e+01 3.337511e+01 2.430992e+01 2.314970e+01 2.605438e+01 2.040720e+01 1.564032e+01 1.978886e+02 3.031427e+00 2.323251e+00 1.063853e+00 1.523840e+00 2.805856e+00 3.502373e+00 1.700704e+00 1.837600e+00 1.794817e+00 2.226666e+00 1.569828e+00 1.674220e+00 9.252538e+00 6.783451e-01 5.636014e-01 2.229878e-01 2.834481e-01 5.118622e-01 7.738727e-01 3.428856e-01 3.312367e-01 3.046775e-01 3.482171e-01 2.908773e-01 2.951428e-01 2.505630e+00
<GCONST> 1.174342e+02
<MIXTURE> 2 5.077651e-01
<MEAN> 39
 -4.549340e+00 2.204016e+00 1.894321e-01 -5.215882e-01 -3.093391e+00 -1.105953e+00 -1.633296e+00 1.145215e+00 1.504198e+00 -5.122280e-01 -1.845466e+00 2.500626e-01 6.470021e+00 -1.447046e+00 -2.056905e+00 -1.129548e+00 -2.394297e-01 -1.237193e+00 -1.498495e+00 -8.429502e-01 -9.831625e-01 -5.624960e-01 -6.850352e-01 -4.121593e-01 -2.762083e-01 4.154305e+00 2.061421e-01 1.676401e-01 6.250633e-03 -1.663247e-01 2.679037e-01 3.163989e-01 1.391130e-01 3.927955e-02 4.105045e-02 1.909195e-01 4.478223e-02 -1.204916e-01 -5.471992e-01
<VARIANCE> 39
 4.302867e+01 6.890712e+01 3.169245e+01 2.011396e+01 3.375872e+01 6.322227e+01 2.946982e+01 3.016336e+01 2.838965e+01 2.787927e+01 2.206404e+01 1.706182e+01 2.527723e+02 5.188172e+00 4.785112e+00 1.788843e+00 2.393575e+00 3.751629e+00 6.038858e+00 2.722584e+00 2.469354e+00 2.434326e+00 2.296146e+00 2.626333e+00 1.969371e+00 1.846172e+01 6.996588e-01 7.598197e-01 2.728597e-01 3.552515e-01 6.275761e-01 8.480557e-01 3.556991e-01 3.797898e-01 3.750959e-01 3.908610e-01 3.572859e-01 2.811565e-01 3.124854e+00
<GCONST> 1.260178e+02
<STATE> 3
<NUMMIXES> 2
<MIXTURE> 1 4.931698e-01
<MEAN> 39
 4.272613e-01 2.432098e+00 1.468668e+00 2.997348e-01 2.065065e+00 2.392952e+00 8.013404e-01 5.630020e-01 1.110704e+00 3.548643e-01 1.237933e-01 2.080702e-01 -4.651973e+00 2.776325e-01 3.371817e-01 2.745889e-01 1.725459e-01 2.830817e-01 3.864956e-01 2.818637e-01 2.854908e-01 2.352652e-01 2.773434e-01 2.509002e-01 1.375103e-01 -5.172982e-01 1.587108e-02 4.698236e-02 4.135875e-02 2.065015e-02 1.371921e-02 2.202592e-02 2.894503e-02 5.930218e-02 5.067344e-02 5.706796e-02 3.188261e-02 8.959671e-03 2.544727e-02
<VARIANCE> 39
 1.620092e+01 3.539035e+01 1.644519e+01 1.582099e+01 2.224508e+01 2.395059e+01 1.768407e+01 2.181997e+01 1.990613e+01 1.870836e+01 1.398226e+01 1.226188e+01 6.050745e+01 1.473272e-01 2.660872e-01 3.942058e-01 6.652911e-01 8.505657e-01 9.413716e-01 9.942459e-01 1.151238e+00 1.237996e+00 1.342213e+00 1.154111e+00 1.184242e+00 1.650825e-01 2.160783e-02 4.763443e-02 7.884170e-02 1.291467e-01 1.654895e-01 2.043415e-01 1.977336e-01 2.385281e-01 2.648095e-01 3.043476e-01 2.570471e-01 2.510867e-01 7.541119e-03
<GCONST> 7.729194e+01
<MIXTURE> 2 5.068291e-01
<MEAN> 39
 -1.314916e+00 -6.422525e-01 -9.650585e-01 -4.988318e-01 1.573379e-01 -2.542439e-02 -2.736742e-01 -8.335965e-01 -7.874200e-02 -4.492267e-01 -5.460126e-01 -4.476293e-01 2.568373e+00 1.883202e-01 6.795029e-02 3.825768e-02 -4.981447e-02 5.163335e-02 -2.576111e-03 -7.006866e-02 -1.437763e-01 -1.676289e-01 -1.648729e-01 -1.386333e-01 -8.673269e-02 -6.800310e-01 -2.591248e-02 -2.502363e-02 -2.452131e-02 -7.107244e-03 -4.578817e-02 -5.443862e-02 -4.235687e-02 -4.295816e-02 -4.296540e-02 -5.550363e-02 -2.698137e-02 6.714214e-03 -1.332655e-03
<VARIANCE> 39
 1.614952e+01 3.265847e+01 2.235479e+01 1.478720e+01 2.303829e+01 2.534194e+01 1.876192e+01 2.241287e+01 1.884096e+01 1.858768e+01 1.532882e+01 1.324279e+01 8.705551e+01 1.352929e-01 2.344293e-01 3.941865e-01 5.985520e-01 8.972721e-01 1.034022e+00 1.048306e+00 1.136221e+00 1.274242e+00 1.356513e+00 1.223917e+00 1.184275e+00 1.891422e-01 2.053841e-02 4.416808e-02 7.713576e-02 1.217418e-01 1.702060e-01 2.179996e-01 2.097078e-01 2.380939e-01 2.612604e-01 2.853723e-01 2.474395e-01 2.583677e-01 9.841007e-03
<GCONST> 7.832166e+01
<STATE> 4
<NUMMIXES> 2
<MIXTURE> 1 5.140106e-01
<MEAN> 39
 9.970194e-01 5.370955e-01 7.562777e-01 3.799984e-01 5.893464e-01 5.836484e-01 4.878602e-01 3.258733e-01 2.267318e-01 4.153011e-01 6.408428e-01 2.701841e-01 -2.528646e+00 2.684647e-01 2.702292e-01 2.244571e-01 1.282834e-01 3.072187e-01 3.847451e-01 2.811878e-01 3.055923e-01 2.844636e-01 2.562461e-01 2.093352e-01 8.865214e-02 -6.075786e-01 5.393867e-03 4.977728e-02 3.315011e-02 4.582392e-02 4.888183e-02 5.001451e-02 3.954283e-02 5.831650e-02 4.105895e-02 2.612082e-02 5.446774e-03 1.350173e-02 -4.560456e-02
<VARIANCE> 39
 1.615113e+01 3.458421e+01 1.842970e+01 1.763947e+01 2.509957e+01 2.845258e+01 2.000350e+01 2.352834e+01 2.096832e+01 1.761252e+01 1.534630e+01 1.371526e+01 8.638155e+01 2.283146e-01 4.033947e-01 4.387338e-01 7.628104e-01 1.014320e+00 1.148224e+00 1.104919e+00 1.202487e+00 1.332439e+00 1.381027e+00 1.260451e+00 1.307023e+00 6.850727e-01 9.197538e-02 1.136514e-01 1.073386e-01 1.527068e-01 2.598329e-01 3.006915e-01 2.393920e-01 2.484338e-01 2.945892e-01 3.005548e-01 2.604950e-01 2.748733e-01 4.875754e-01
<GCONST> 9.009695e+01
<MIXTURE> 2 4.859881e-01
<MEAN> 39
 -6.298743e-01 -1.088014e+00 -9.653891e-01 -3.015905e-01 -8.972453e-01 -1.103624e+00 -5.736763e-01 -3.450467e-01 -5.617197e-01 -4.453327e-01 -5.407566e-01 -2.470408e-01 2.849313e+00 -2.845439e-01 -3.188588e-01 -2.495264e-01 -1.139479e-01 -3.298907e-01 -4.359881e-01 -3.019477e-01 -3.245334e-01 -3.108159e-01 -2.804141e-01 -2.224321e-01 -9.791292e-02 6.615898e-01 -5.877762e-03 -5.343030e-02 -3.571455e-02 -4.796438e-02 -5.084794e-02 -5.338060e-02 -4.286946e-02 -6.076745e-02 -4.488568e-02 -2.862462e-02 -7.305483e-03 -1.425792e-02 4.860587e-02
<VARIANCE> 39
 1.990508e+01 3.875061e+01 2.051299e+01 1.841451e+01 2.892651e+01 3.290353e+01 2.245472e+01 2.385743e+01 2.237039e+01 1.872175e+01 1.698540e+01 1.463961e+01 1.155526e+02 1.692831e+00 1.943435e+00 1.094406e+00 1.190903e+00 2.330581e+00 2.661098e+00 1.584362e+00 1.493265e+00 1.678196e+00 1.569427e+00 1.437824e+00 1.405675e+00 1.061232e+01 2.380179e-01 2.669881e-01 1.592178e-01 2.107013e-01 3.873942e-01 4.925371e-01 2.989708e-01 2.824048e-01 3.372043e-01 3.352471e-01 2.925283e-01 3.024314e-01 1.321944e+00
<GCONST> 1.072756e+02
<TRANSP> 5
 0.000000e+00 1.000000e+00 0.000000e+00 0.000000e+00 0.000000e+00
 0.000000e+00 8.303223e-01 1.696777e-01 0.000000e+00 0.000000e+00
 0.000000e+00 0.000000e+00 9.783181e-01 2.168191e-02 0.000000e+00
 0.000000e+00 0.000000e+00 0.000000e+00 9.957283e-01 4.271660e-03
 0.000000e+00 0.000000e+00 0.000000e+00 0.000000e+00 0.000000e+00
<ENDHMM>
~h "cl"
<BEGINHMM>
<NUMSTATES> 5
<STATE> 2
<NUMMIXES> 2
<MIXTURE> 1 5.047789e-01
<MEAN> 39
 7.496294e+00 -1.039677e+00 -2.097778e+00 1.106338e+00 3.179732e+00 -3.488401e+00 1.828099e+00 3.808665e+00 -1.818420e+00 1.118193e+00 3.866867e+00 -3.526206e+00 -5.775681e+00 -3.034130e-01 1.828505e-01 2.087744e-01 1.254613e-01 2.780782e-02 4.089871e-01 1.922873e-01 7.554931e-02 4.640360e-01 2.639157e-01 -3.297630e-03 3.852993e-01 2.314797e-01 -1.157546e-01 2.827506e-02 5.792589e-02 2.461707e-02 -6.469436e-03 8.344071e-02 1.807691e-02 -5.116000e-03 7.325408e-02 5.663093e-02 -3.153944e-02 7.461697e-02 9.198790e-02
<VARIANCE> 39
 3.882954e+01 1.747688e+01 1.378871e+01 9.896822e+00 1.966262e+01 2.912000e+01 2.194407e+01 3.595433e+01 3.374329e+01 2.497649e+01 3.678456e+01 3.040277e+01 2.015812e+01 2.873515e+00 7.551652e-01 7.790851e-01 8.983288e-01 1.323795e+00 1.734612e+00 1.596022e+00 2.199399e+00 2.402790e+00 1.839321e+00 2.227028e+00 1.990676e+00 1.447109e+00 4.104891e-01 1.158723e-01 1.273038e-01 1.592329e-01 2.014963e-01 2.849141e-01 2.856057e-01 4.166903e-01 4.156778e-01 3.560668e-01 4.100613e-01 3.205015e-01 2.126922e-01
<GCONST> 1.013257e+02
<MIXTURE> 2 4.952207e-01
<MEAN> 39
 8.187531e+00 -1.449750e+00 -2.109707e+00 8.368518e-01 2.821172e+00 -3.916206e+00 1.745692e+00 3.562910e+00 -2.324062e+00 1.735766e+00 3.287198e+00 -3.762923e+00 -5.922221e+00 -4.089549e-01 -4.739268e-02 -1.176608e-01 -1.214660e-01 -3.205839e-01 -1.076227e-01 -3.020113e-01 -4.910558e-01 -1.954831e-01 -1.954625e-01 -3.709281e-01 -1.174311e-01 3.267606e-01 -6.305542e-02 -2.412084e-02 -1.964214e-02 -5.234448e-02 -7.939310e-02 -1.726773e-02 -7.870431e-02 -1.177899e-01 -1.209166e-02 -1.208375e-01 -9.097271e-02 9.598687e-03 5.289672e-02
<VARIANCE> 39
 3.872420e+01 1.985648e+01 1.326430e+01 1.004697e+01 1.876986e+01 3.158056e+01 2.180229e+01 3.276807e+01 2.983229e+01 2.492370e+01 3.586809e+01 3.090060e+01 1.957932e+01 2.762873e+00 8.717645e-01 6.761732e-01 8.898138e-01 1.358033e+00 1.930133e+00 1.687232e+00 2.430988e+00 2.338559e+00 1.934276e+00 2.404069e+00 1.750623e+00 1.747351e+00 3.526709e-01 1.273765e-01 1.072927e-01 1.623682e-01 2.203295e-01 3.068273e-01 2.786659e-01 4.019803e-01 4.041526e-01 3.713991e-01 4.119142e-01 3.002121e-01 2.233882e-01
<GCONST> 1.014962e+02
<STATE> 3
<NUMMIXES> 2
<MIXTURE> 1 4.993687e-01
<MEAN> 39
 2.070498e-01 -6.608443e-02 8.344078e-01 3.894844e-01 -7.085817e-01 1.838360e+00 3.143736e-01 -4.080566e-01 1.862379e+00 9.713273e-02 -6.808611e-01 7.367489e-01 -9.059615e-01 2.004640e-03 1.159680e-01 1.863312e-01 1.490534e-01 2.178303e-01 2.866157e-01 2.507584e-01 2.273184e-01 2.372499e-01 1.979067e-01 1.537711e-01 1.734398e-01 -2.174397e-02 1.331392e-02 2.286468e-02 9.732514e-03 3.499549e-02 6.267902e-02 -2.751132e-04 5.035512e-02 9.465019e-02 3.363853e-02 6.208671e-02 6.738545e-02 7.677082e-03 -1.198680e-02
<VARIANCE> 39
 4.110063e+01 9.624625e+00 1.462184e+01 1.367958e+01 2.073710e+01 2.883065e+01 2.415643e+01 3.124340e+01 2.932377e+01 2.156403e+01 2.229411e+01 1.883743e+01 3.246962e+01 2.387223e+00 5.050836e-01 8.498774e-01 1.015258e+00 1.374157e+00 2.252299e+00 1.608059e+00 2.313416e+00 2.207495e+00 1.628424e+00 1.631444e+00 1.613627e+00 1.603256e+00 4.384829e-01 9.991810e-02 1.613345e-01 1.955904e-01 2.779213e-01 4.609498e-01 3.468865e-01 4.312324e-01 4.732056e-01 3.445930e-01 3.186458e-01 3.231672e-01 3.425160e-01
<GCONST> 1.014513e+02
<MIXTURE> 2 5.006307e-01
<MEAN> 39
 2.623807e-01 -5.620089e-01 -1.544275e-02 5.403091e-02 -1.374010e+00 5.869651e-01 -5.787641e-01 -9.718891e-01 1.133306e+00 -1.916696e-01 -8.026439e-01 3.675410e-01 6.557407e-01 -2.984153e-01 -1.202546e-01 -1.614390e-01 -1.988394e-01 -2.212807e-01 -2.606654e-01 -3.043412e-01 -2.352949e-01 -3.624496e-01 -2.833227e-01 -2.135414e-01 -1.953022e-01 2.983261e-01 7.436433e-02 -2.807306e-02 -1.910710e-02 -4.565790e-02 -2.028600e-02 -1.485969e-02 -4.303242e-02 -4.796651e-02 -6.795152e-02 -3.926428e-02 -3.063327e-02 -4.914985e-02 -6.103590e-02
<VARIANCE> 39
 4.685272e+01 1.211597e+01 1.736708e+01 1.546478e+01 2.039615e+01 3.507486e+01 2.545115e+01 3.328376e+01 3.144325e+01 2.266535e+01 2.182113e+01 1.982921e+01 3.938462e+01 3.186973e+00 6.720449e-01 9.697623e-01 1.060995e+00 1.631531e+00 2.916765e+00 1.991061e+00 2.686042e+00 2.649068e+00 1.901527e+00 1.724360e+00 1.781129e+00 2.845839e+00 5.563427e-01 1.193455e-01 1.705745e-01 2.096267e-01 3.091332e-01 5.587793e-01 3.705830e-01 4.959605e-01 5.107046e-01 3.596314e-01 3.339323e-01 3.483189e-01 4.528467e-01
<GCONST> 1.069193e+02
<STATE> 4
<NUMMIXES> 2
<MIXTURE> 1 5.041969e-01
<MEAN> 39
 -7.230032e-01 2.417714e-01 2.050902e-01 9.544463e-02 3.005266e-01 4.436155e-01 2.709049e-01 1.583803e-01 1.574410e-01 1.463546e-01 5.165746e-02 2.771166e-01 1.254310e-01 1.409650e-01 1.036436e-01 1.668458e-01 1.568837e-01 2.032025e-01 2.268007e-01 2.294292e-01 2.241547e-01 2.916765e-01 2.470559e-01 2.240976e-01 1.780859e-01 -9.852895e-02 3.233340e-03 1.584947e-02 2.118464e-02 3.696015e-02 3.306683e-02 1.969278e-02 4.315346e-02 5.671694e-02 4.272342e-02 4.829360e-02 4.120890e-02 1.794495e-02 6.594665e-03
<VARIANCE> 39
 3.401511e+01 7.384633e+00 1.208896e+01 1.056176e+01 1.515505e+01 2.461095e+01 1.979225e+01 2.441531e+01 2.508183e+01 1.975291e+01 1.946932e+01 1.874636e+01 2.266704e+01 1.253381e+00 4.644768e-01 7.937274e-01 8.863239e-01 1.162257e+00 1.802270e+00 1.600643e+00 1.942232e+00 2.028244e+00 1.670989e+00 1.521316e+00 1.632966e+00 8.665839e-01 2.311963e-01 8.999301e-02 1.684280e-01 1.804703e-01 2.327253e-01 3.631662e-01 3.264856e-01 3.790393e-01 4.174487e-01 3.481226e-01 3.200768e-01 3.276936e-01 1.677745e-01
<GCONST> 9.445449e+01
<MIXTURE> 2 4.958018e-01
<MEAN> 39
 -2.381021e-01 1.588828e-02 -1.302971e-01 -2.924575e-01 -2.397214e-01 -5.044069e-01 -4.252085e-01 -3.084676e-01 -5.077060e-01 -2.907319e-01 -1.679105e-01 -8.564970e-02 5.788668e-01 1.435383e-04 -1.170610e-01 -1.747913e-01 -1.626239e-01 -1.956868e-01 -2.539166e-01 -2.383725e-01 -2.287893e-01 -2.839472e-01 -2.514943e-01 -1.963204e-01 -1.860794e-01 -1.446815e-02 -2.066484e-03 -1.628763e-02 -2.368827e-02 -3.466503e-02 -3.417334e-02 -2.863501e-02 -4.399540e-02 -5.535486e-02 -4.460752e-02 -4.772454e-02 -3.923665e-02 -1.811518e-02 -7.608366e-03
<VARIANCE> 39
 4.100685e+01 8.534396e+00 1.411830e+01 1.225521e+01 1.621901e+01 2.852074e+01 2.268005e+01 2.740787e+01 2.624816e+01 2.052187e+01 1.919766e+01 1.947626e+01 2.444676e+01 1.313819e+00 5.139042e-01 9.194546e-01 9.091823e-01 1.233167e+00 1.982104e+00 1.736476e+00 2.133336e+00 2.162117e+00 1.773812e+00 1.610565e+00 1.763193e+00 1.088285e+00 2.399708e-01 9.481559e-02 1.760689e-01 1.874640e-01 2.364148e-01 3.846667e-01 3.403076e-01 4.085565e-01 4.393450e-01 3.608621e-01 3.196549e-01 3.532071e-01 1.951687e-01
<GCONST> 9.754951e+01
<TRANSP> 5
 0.000000e+00 1.000000e+00 0.000000e+00 0.000000e+00 0.000000e+00
 0.000000e+00 9.260108e-01 7.398915e-02 0.000000e+00 0.000000e+00
 0.000000e+00 0.000000e+00 9.785160e-01 2.148397e-02 0.000000e+00
 0.000000e+00 0.000000e+00 0.000000e+00 9.958707e-01 4.129280e-03
 0.000000e+00 0.000000e+00 0.000000e+00 0.000000e+00 0.000000e+00
<ENDHMM>
~h "cm"
<BEGINHMM>
<NUMSTATES> 5
<STATE> 2
<NUMMIXES> 2
<MIXTURE> 1 4.991171e-01
<MEAN> 39
 -2.794849e+00 1.647843e-01 1.718891e-01 -5.572831e-01 1.441879e-01 8.804590e-01 1.253446e+00 1.946785e+00 1.515289e+00 1.494780e+00 1.676171e+00 9.702633e-01 -4.000252e+00 1.141355e-01 7.219892e-02 9.657401e-02 1.412357e-01 1.824410e-01 1.871641e-01 1.859222e-01 2.130146e-01 2.030298e-01 1.921573e-01 1.438565e-01 1.587199e-01 3.454006e-01 2.759220e-02 2.651492e-02 2.870670e-02 4.363222e-02 3.758698e-02 3.403812e-02 3.330155e-02 2.909423e-02 3.243532e-02 3.345582e-02 2.510097e-02 8.039508e-03 -1.172103e-03
<VARIANCE> 39
 1.419289e+01 1.338229e+01 1.212249e+01 1.552285e+01 1.437076e+01 1.557651e+01 1.638566e+01 1.798877e+01 1.761642e+01 1.551995e+01 1.732883e+01 1.370867e+01 3.310214e+01 4.296197e-01 5.280310e-01 6.605653e-01 8.687739e-01 1.041110e+00 1.265625e+00 1.356092e+00 1.497033e+00 1.530985e+00 1.418389e+00 1.410187e+00 1.263319e+00 6.370360e-01 6.092292e-02 9.257156e-02 1.200237e-01 1.609150e-01 2.061489e-01 2.598262e-01 2.814113e-01 2.978711e-01 3.075609e-01 2.861038e-01 2.704164e-01 2.423185e-01 8.575160e-02
<GCONST> 8.554356e+01
<MIXTURE> 2 5.008829e-01
<MEAN> 39
 -2.742348e+00 -2.243093e-01 -1.152933e-01 -8.013040e-01 -3.903388e-01 1.793972e-01 4.587410e-01 1.269418e+00 9.833636e-01 1.037571e+00 1.168566e+00 6.229543e-01 -3.129535e+00 4.711093e-02 -1.549099e-01 -1.927475e-01 -2.756324e-01 -2.914977e-01 -3.527421e-01 -3.593529e-01 -3.664170e-01 -3.386238e-01 -2.929633e-01 -3.048298e-01 -1.929057e-01 4.921412e-01 2.847775e-03 -2.789872e-02 -3.631178e-02 -3.441666e-02 -3.379951e-02 -2.646833e-02 -3.252725e-02 -4.708347e-02 -6.008125e-02 -4.913722e-02 -3.235815e-02 -2.728879e-02 1.542598e-02
<VARIANCE> 39
 1.450282e+01 1.377446e+01 1.202618e+01 1.499863e+01 1.519491e+01 1.616593e+01 1.712901e+01 1.884895e+01 1.689055e+01 1.599153e+01 1.676450e+01 1.396808e+01 3.722899e+01 5.500761e-01 6.948819e-01 7.387197e-01 1.025601e+00 1.196718e+00 1.417722e+00 1.513050e+00 1.579973e+00 1.509716e+00 1.472997e+00 1.440661e+00 1.363821e+00 1.068490e+00 6.884072e-02 1.030480e-01 1.353080e-01 1.835188e-01 2.337389e-01 2.788448e-01 2.996092e-01 3.145488e-01 3.025643e-01 3.057072e-01 2.822656e-01 2.741440e-01 1.178432e-01
<GCONST> 8.900949e+01
<STATE> 3
<NUMMIXES> 2
<MIXTURE> 1 5.078890e-01
<MEAN> 39
 1.321181e-01 -6.209947e-01 -4.776647e-01 -5.085489e-01 -3.077565e-01 -2.684253e-01 -2.613167e-01 -2.596858e-02 -4.710504e-02 -4.837096e-02 -1.957478e-01 -1.814925e-02 3.307093e+00 7.960342e-02 9.327597e-02 1.285082e-01 2.002502e-01 2.104377e-01 2.194017e-01 2.315293e-01 2.059450e-01 2.337806e-01 2.160582e-01 2.033714e-01 1.416522e-01 1.121268e-02 8.303352e-03 2.178641e-02 2.988862e-02 3.726172e-02 3.960425e-02 3.919658e-02 4.254990e-02 3.411330e-02 3.352599e-02 3.128443e-02 2.614568e-02 1.841000e-02 -1.529826e-02
<VARIANCE> 39
 7.030948e+00 6.345042e+00 6.973053e+00 9.362430e+00 1.086801e+01 1.234291e+01 1.333776e+01 1.419347e+01 1.460879e+01 1.345276e+01 1.367962e+01 1.176781e+01 1.905935e+01 2.223204e-01 3.317249e-01 4.917532e-01 6.986531e-01 8.786572e-01 1.085677e+00 1.191200e+00 1.239101e+00 1.317354e+00 1.283514e+00 1.245983e+00 1.156748e+00 3.100344e-01 3.718751e-02 6.127011e-02 9.519840e-02 1.408214e-01 1.809716e-01 2.278726e-01 2.489513e-01 2.579813e-01 2.773371e-01 2.772717e-01 2.653576e-01 2.372631e-01 3.900983e-02
<GCONST> 7.458778e+01
<MIXTURE> 2 4.921104e-01
<MEAN> 39
 1.741953e-01 -7.937677e-01 -7.616328e-01 -8.888650e-01 -7.653136e-01 -7.535268e-01 -8.390695e-01 -6.950059e-01 -6.675033e-01 -6.057478e-01 -7.269905e-01 -3.380789e-01 3.771423e+00 -8.369438e-03 -9.098594e-02 -1.182845e-01 -1.387990e-01 -1.801854e-01 -2.012349e-01 -2.352594e-01 -2.520149e-01 -2.518838e-01 -2.347840e-01 -2.267519e-01 -1.651913e-01 1.683630e-02 -1.320190e-02 -1.270122e-02 -1.623382e-02 -1.957062e-02 -2.580240e-02 -2.782132e-02 -2.924811e-02 -2.327892e-02 -2.419701e-02 -2.426491e-02 -1.851778e-02 -1.181452e-02 -2.776062e-02
<VARIANCE> 39
 7.130574e+00 6.839539e+00 6.923715e+00 9.871455e+00 1.119765e+01 1.249006e+01 1.334212e+01 1.452687e+01 1.432663e+01 1.371082e+01 1.388999e+01 1.177961e+01 1.967466e+01 2.357788e-01 3.424765e-01 4.759539e-01 7.172767e-01 8.856759e-01 1.093055e+00 1.180914e+00 1.248475e+00 1.324263e+00 1.336714e+00 1.258142e+00 1.129364e+00 3.503940e-01 3.658612e-02 6.290678e-02 9.472104e-02 1.425311e-01 1.820956e-01 2.299015e-01 2.490913e-01 2.592877e-01 2.827101e-01 2.826245e-01 2.610934e-01 2.344075e-01 3.881002e-02
<GCONST> 7.513007e+01
<STATE> 4
<NUMMIXES> 2
<MIXTURE> 1 5.061201e-01
<MEAN> 39
 1.942992e+00 1.609990e+00 1.515686e+00 2.246408e+00 1.524449e+00 9.415859e-01 7.783144e-01 -3.373685e-01 -1.466211e-02 -1.156668e-01 6.135413e-02 -1.082700e-01 -4.762753e+00 1.034083e-01 1.650171e-01 2.279874e-01 2.564057e-01 2.756050e-01 2.492649e-01 2.810223e-01 2.013903e-01 2.199019e-01 2.109928e-01 2.181432e-01 1.550575e-01 -4.303021e-01 1.425798e-02 1.743971e-02 1.865025e-02 1.567217e-02 2.048666e-02 2.666998e-02 2.415053e-02 2.926366e-02 3.393958e-02 1.448457e-02 1.656430e-02 1.692996e-02 2.245411e-02
<VARIANCE> 39
 1.216021e+01 6.581271e+00 7.447189e+00 8.917987e+00 1.057617e+01 1.200367e+01 1.379615e+01 1.424231e+01 1.369797e+01 1.294352e+01 1.294107e+01 1.147556e+01 3.019997e+01 1.762112e-01 2.746588e-01 4.151197e-01 6.090399e-01 8.130581e-01 9.773023e-01 1.109039e+00 1.208661e+00 1.267904e+00 1.269357e+00 1.236962e+00 1.126878e+00 1.626774e-01 2.381415e-02 4.822813e-02 7.874280e-02 1.222591e-01 1.643032e-01 1.941280e-01 2.253752e-01 2.497662e-01 2.601056e-01 2.572391e-01 2.460192e-01 2.291692e-01 1.182984e-02
<GCONST> 7.086584e+01
<MIXTURE> 2 4.938769e-01
<MEAN> 39
 2.186025e+00 1.313135e+00 9.434948e-01 1.746046e+00 8.494323e-01 2.068585e-01 -3.334277e-02 -9.810470e-01 -7.005510e-01 -7.490469e-01 -6.470134e-01 -5.478044e-01 -3.507041e+00 1.704294e-02 -1.373926e-02 -4.247316e-02 -7.032309e-02 -9.827861e-02 -1.313662e-01 -1.416373e-01 -1.939368e-01 -2.002507e-01 -2.113610e-01 -1.736326e-01 -1.336143e-01 -4.745285e-01 -2.470051e-02 -3.162947e-02 -4.082197e-02 -4.858346e-02 -4.533389e-02 -4.012607e-02 -3.543637e-02 -3.306958e-02 -3.415502e-02 -2.414419e-02 -2.181207e-02 -1.469621e-02 -4.430020e-03
<VARIANCE> 39
 1.131417e+01 6.617335e+00 7.328674e+00 8.763269e+00 1.085470e+01 1.189342e+01 1.271247e+01 1.391616e+01 1.361017e+01 1.331378e+01 1.303524e+01 1.183456e+01 2.888449e+01 1.806753e-01 2.665699e-01 4.202490e-01 6.362386e-01 8.249014e-01 9.423313e-01 1.079676e+00 1.180840e+00 1.248580e+00 1.203272e+00 1.196488e+00 1.147297e+00 1.725000e-01 2.396299e-02 4.674335e-02 8.027485e-02 1.255601e-01 1.626665e-01 1.866074e-01 2.105553e-01 2.338813e-01 2.497144e-01 2.531163e-01 2.497057e-01 2.318774e-01 1.289954e-02
<GCONST> 7.054009e+01
<TRANSP> 5
 0.000000e+00 1.000000e+00 0.000000e+00 0.000000e+00 0.000000e+00
 0.000000e+00 9.620360e-01 3.796403e-02 0.000000e+00 0.000000e+00
 0.000000e+00 0.000000e+00 9.840109e-01 1.598914e-02 0.000000e+00
 0.000000e+00 0.000000e+00 0.000000e+00 9.674436e-01 3.255644e-02
 0.000000e+00 0.000000e+00 0.000000e+00 0.000000e+00 0.000000e+00
<ENDHMM>
~h "co"
<BEGINHMM>
<NUMSTATES> 5
<STATE> 2
<NUMMIXES> 2
<MIXTURE> 1 5.132411e-01
<MEAN> 39
 -1.291181e+00 3.513095e-01 5.136945e-01 -3.991095e-01 -4.090935e+00 1.029835e+00 2.802100e+00 5.431951e+00 3.691493e+00 1.752742e+00 3.438568e-01 1.999843e+00 -1.798689e+00 -5.148561e-01 -9.238432e-02 2.824587e-01 -5.652090e-02 -1.718084e-01 -3.947476e-01 4.540574e-02 -2.141156e-01 -5.277500e-01 -4.284324e-01 3.050320e-05 8.708528e-02 1.694851e+00 4.912970e-03 -2.462338e-02 -4.624798e-02 7.192413e-02 2.031246e-01 1.716537e-01 1.583097e-01 1.031841e-01 9.052291e-02 1.964004e-01 1.464185e-01 6.764185e-02 -1.645371e-01
<VARIANCE> 39
 1.740084e+01 2.379404e+01 2.429493e+01 2.835356e+01 8.123749e+01 4.553756e+01 4.859256e+01 5.131583e+01 4.614571e+01 4.001518e+01 3.512835e+01 2.838587e+01 1.068623e+02 1.221558e+00 1.840016e+00 1.457189e+00 1.618064e+00 5.611105e+00 3.339453e+00 3.573383e+00 2.881938e+00 4.194953e+00 2.883470e+00 2.057317e+00 2.362704e+00 3.527583e+00 1.345857e-01 2.854699e-01 2.378828e-01 2.400902e-01 7.290833e-01 5.911133e-01 5.787358e-01 5.235436e-01 7.173718e-01 4.857950e-01 4.008093e-01 4.530876e-01 4.808297e-01
<GCONST> 1.199880e+02
<MIXTURE> 2 4.867581e-01
<MEAN> 39
 -1.343646e+00 -9.786689e-01 -1.625767e+00 -3.640823e-01 -8.174669e+00 -1.374197e+00 2.894720e-01 4.202115e+00 5.812977e+00 2.129404e+00 1.613306e-01 1.014124e+00 4.732009e-01 -5.338594e-01 -1.183778e-01 1.487701e-01 -6.422527e-01 -6.897941e-01 -9.603254e-01 -4.021472e-01 -9.837374e-01 -1.086797e+00 -1.121326e+00 -6.273628e-01 -6.264796e-01 2.423297e+00 -6.921291e-02 9.210894e-02 -4.048090e-04 -1.930933e-03 3.689626e-01 1.624784e-01 1.152543e-01 -3.475266e-02 -1.970928e-01 -5.020061e-02 1.196211e-01 2.378795e-02 -8.781076e-02
<VARIANCE> 39
 1.341290e+01 2.578078e+01 2.735761e+01 2.507217e+01 8.914797e+01 5.171640e+01 6.356777e+01 6.249647e+01 5.874337e+01 4.597501e+01 4.046505e+01 2.578258e+01 9.029352e+01 8.996660e-01 2.377005e+00 1.987845e+00 1.921295e+00 6.935315e+00 3.395995e+00 4.588540e+00 3.500924e+00 5.082604e+00 3.557218e+00 2.959479e+00 2.658414e+00 4.536842e+00 1.216090e-01 4.167782e-01 3.076259e-01 2.664914e-01 8.063037e-01 4.954832e-01 7.735658e-01 6.112593e-01 9.282482e-01 6.747331e-01 4.697047e-01 4.484535e-01 4.602405e-01
<GCONST> 1.246859e+02
<STATE> 3
<NUMMIXES> 2
<MIXTURE> 1 5.113960e-01
<MEAN> 39
 -9.666210e-01 -6.770629e-01 -6.634254e-01 -6.910068e-01 -8.568365e-01 -7.292613e-01 3.804932e-01 -5.237667e-01 -1.773224e-01 3.152724e-01 1.073880e-01 3.572185e-01 2.091329e+00 2.505354e-02 6.809815e-02 1.236693e-01 2.201448e-01 3.473730e-01 2.868817e-01 2.563010e-01 2.282682e-01 1.911886e-01 2.409396e-01 2.287237e-01 1.803067e-01 -9.857944e-02 1.874084e-02 2.682454e-03 2.756712e-02 4.705081e-02 2.265381e-02 4.462380e-02 6.945539e-02 5.581636e-02 6.830861e-02 3.620400e-02 1.831335e-02 2.090759e-02 -2.763513e-02
<VARIANCE> 39
 1.403347e+01 1.182475e+01 1.607702e+01 1.619458e+01 2.932200e+01 2.314872e+01 3.879218e+01 3.615762e+01 2.811459e+01 2.632570e+01 2.596418e+01 2.429204e+01 5.492849e+01 4.074587e-01 6.858600e-01 8.715237e-01 1.135110e+00 2.088395e+00 1.510011e+00 1.862357e+00 2.114646e+00 2.592027e+00 2.150242e+00 1.989154e+00 1.546045e+00 1.001332e+00 5.980282e-02 1.374591e-01 1.547648e-01 2.090263e-01 4.077310e-01 3.243869e-01 3.592101e-01 4.045915e-01 5.109466e-01 4.281995e-01 4.096737e-01 3.196114e-01 1.392137e-01
<GCONST> 9.954493e+01
<MIXTURE> 2 4.886031e-01
<MEAN> 39
 -1.212713e+00 -1.360411e+00 -1.701875e+00 -1.217678e+00 -2.213789e+00 -1.875535e+00 -7.908875e-01 -1.515305e+00 -4.118745e-01 -4.408517e-01 -8.109590e-01 -8.999940e-01 4.494610e+00 1.057169e-01 -1.197038e-01 -1.266794e-01 -1.315625e-01 -1.551413e-01 -2.243399e-01 -4.070424e-01 -3.166165e-01 -2.124948e-01 -2.119551e-01 -2.221456e-01 -2.587131e-01 -4.988583e-02 1.120943e-02 9.315489e-03 -1.560885e-02 -2.967328e-02 -3.024841e-02 -4.592151e-02 -7.942323e-02 -4.709860e-02 -5.178395e-02 -3.464909e-02 -2.939665e-02 -2.681597e-02 -2.016893e-02
<VARIANCE> 39
 1.132627e+01 1.215020e+01 1.549432e+01 1.783398e+01 3.010501e+01 2.333239e+01 3.984340e+01 3.562645e+01 3.413960e+01 2.998440e+01 2.737732e+01 2.480316e+01 3.962112e+01 4.531116e-01 9.067539e-01 9.131438e-01 1.190226e+00 2.561123e+00 1.734790e+00 2.156022e+00 2.222072e+00 3.029540e+00 2.279737e+00 2.159788e+00 1.800780e+00 1.407728e+00 6.204391e-02 1.660622e-01 1.626228e-01 2.333847e-01 4.489618e-01 3.159614e-01 3.847549e-01 4.155756e-01 6.361788e-01 4.822927e-01 4.165301e-01 3.400729e-01 1.280265e-01
<GCONST> 1.022272e+02
<STATE> 4
<NUMMIXES> 2
<MIXTURE> 1 5.204546e-01
<MEAN> 39
 2.318617e+00 2.223911e+00 2.395303e+00 2.044219e+00 4.607940e+00 2.719879e+00 8.857381e-01 1.233756e+00 -2.528419e-01 1.938356e-02 8.928561e-01 5.303677e-01 -6.887783e+00 1.110032e-01 2.653674e-01 1.523042e-01 1.685999e-01 3.516567e-01 2.942976e-01 3.691625e-01 3.059842e-01 1.851383e-01 2.071197e-01 2.082587e-01 1.947001e-01 -4.382639e-01 9.073025e-03 2.105764e-02 1.871430e-02 3.252904e-02 1.746800e-02 2.818202e-02 4.221769e-02 5.256805e-02 3.960210e-02 4.279235e-02 3.035174e-02 2.105500e-02 1.370925e-02
<VARIANCE> 39
 9.922585e+00 1.248846e+01 1.316669e+01 1.529498e+01 2.523207e+01 1.907130e+01 3.137416e+01 2.828672e+01 1.761094e+01 1.994950e+01 2.038003e+01 1.720416e+01 4.626994e+01 2.441390e-01 3.358071e-01 5.830197e-01 7.450129e-01 1.100743e+00 1.020051e+00 1.351495e+00 1.361976e+00 1.385481e+00 1.544963e+00 1.444270e+00 1.305728e+00 3.845724e-01 3.716502e-02 6.423743e-02 1.085352e-01 1.425770e-01 2.156850e-01 2.090415e-01 2.727743e-01 2.711294e-01 2.761098e-01 3.136787e-01 2.979307e-01 2.627985e-01 3.865298e-02
<GCONST> 8.399702e+01
<MIXTURE> 2 4.795452e-01
<MEAN> 39
 1.672278e+00 1.124707e+00 1.569432e+00 1.140800e+00 2.488896e+00 1.469375e+00 -9.198203e-01 2.139838e-01 -5.568109e-01 -5.834288e-01 8.885176e-02 -2.905184e-01 -3.318833e+00 3.916138e-02 3.582658e-02 -8.488584e-02 -1.086682e-01 -2.525502e-02 -1.042165e-01 -1.686611e-01 -1.795282e-01 -2.223894e-01 -1.692321e-01 -1.535437e-01 -7.604345e-02 -3.262350e-01 -2.415121e-02 -3.040221e-02 -5.065300e-02 -5.706612e-02 -5.187433e-02 -5.231114e-02 -5.391195e-02 -5.551479e-02 -4.197119e-02 -4.505679e-02 -3.975872e-02 -2.592338e-02 1.767328e-05
<VARIANCE> 39
 1.012453e+01 1.245967e+01 1.285998e+01 1.477610e+01 3.159249e+01 2.028905e+01 3.699107e+01 2.841159e+01 1.949502e+01 2.473848e+01 2.280754e+01 2.076446e+01 5.438906e+01 3.072243e-01 4.239665e-01 6.531738e-01 7.926385e-01 1.570590e+00 1.223569e+00 1.775873e+00 1.483135e+00 1.487422e+00 1.761351e+00 1.525069e+00 1.549995e+00 9.294757e-01 4.537531e-02 7.890889e-02 1.234039e-01 1.544319e-01 2.666658e-01 2.289570e-01 3.416271e-01 2.954320e-01 2.958491e-01 3.563157e-01 3.167338e-01 3.103518e-01 7.877700e-02
<GCONST> 9.040007e+01
<TRANSP> 5
 0.000000e+00 1.000000e+00 0.000000e+00 0.000000e+00 0.000000e+00
 0.000000e+00 8.770400e-01 1.229600e-01 0.000000e+00 0.000000e+00
 0.000000e+00 0.000000e+00 9.860143e-01 1.398572e-02 0.000000e+00
 0.000000e+00 0.000000e+00 0.000000e+00 9.772829e-01 2.271713e-02
 0.000000e+00 0.000000e+00 0.000000e+00 0.000000e+00 0.000000e+00
<ENDHMM>
~h "ds"
<BEGINHMM>
<NUMSTATES> 5
<STATE> 2
<NUMMIXES> 2
<MIXTURE> 1 5.117996e-01
<MEAN> 39
 -1.024626e+00 -5.307934e-01 6.773331e-01 8.398934e-02 -8.239502e-02 -9.109998e-01 2.465977e+00 -5.404166e-01 1.695864e+00 1.430359e+00 2.058067e+00 1.662830e+00 2.659435e+00 1.078391e-03 8.932491e-02 1.531223e-01 1.722176e-01 1.986439e-01 1.666155e-01 2.543543e-01 2.277852e-01 2.702795e-01 2.772453e-01 1.630954e-01 2.609902e-01 3.759099e-01 1.061009e-02 3.452703e-02 -9.647042e-03 1.512900e-02 -2.355790e-02 2.692039e-02 1.836534e-02 4.476585e-02 1.213200e-02 5.219330e-02 2.035807e-02 2.037195e-02 -2.512077e-02
<VARIANCE> 39
 1.658962e+01 9.656917e+00 1.065774e+01 1.379798e+01 1.774685e+01 2.010530e+01 2.496778e+01 3.592226e+01 2.639637e+01 2.058720e+01 1.946528e+01 1.589699e+01 4.810479e+01 1.035127e+00 6.102405e-01 7.912999e-01 1.035454e+00 1.673780e+00 1.768854e+00 1.919727e+00 2.571244e+00 1.784565e+00 2.124525e+00 1.910399e+00 1.619272e+00 2.278622e+00 1.628547e-01 1.075637e-01 1.531987e-01 1.972346e-01 3.228808e-01 3.348883e-01 3.396041e-01 4.887440e-01 3.297457e-01 3.941741e-01 3.463262e-01 3.061220e-01 3.089125e-01
<GCONST> 9.861209e+01
<MIXTURE> 2 4.882004e-01
<MEAN> 39
 -1.883757e+00 -1.494345e+00 -3.019397e-01 -1.252451e+00 -1.481977e+00 -1.530733e+00 2.237303e+00 9.198788e-01 3.256010e-01 1.011400e+00 1.561808e+00 1.464992e+00 1.572709e+00 -3.836501e-01 1.565523e-02 -4.123446e-01 -3.954735e-01 -6.124322e-01 -5.726787e-01 -2.979614e-01 -4.178211e-01 -1.555462e-01 6.881167e-02 -1.997228e-01 -1.761154e-01 9.094930e-01 -9.638081e-02 1.054104e-02 -1.181296e-01 -1.300503e-01 -1.275652e-01 -1.107450e-01 -8.133806e-02 -7.876990e-02 -5.316187e-02 -4.546883e-02 -5.281469e-02 -8.378114e-02 2.115360e-01
<VARIANCE> 39
 2.131007e+01 1.323911e+01 1.269411e+01 1.646152e+01 1.937132e+01 2.009602e+01 3.018728e+01 3.907486e+01 2.975199e+01 2.276952e+01 2.022742e+01 1.947640e+01 4.996528e+01 1.651753e+00 7.578987e-01 1.326993e+00 1.462541e+00 2.465214e+00 2.100746e+00 2.140908e+00 2.201502e+00 1.968174e+00 2.207620e+00 1.834415e+00 1.600357e+00 3.509973e+00 2.275407e-01 1.233349e-01 1.700839e-01 2.380396e-01 3.717032e-01 3.615380e-01 3.535258e-01 4.136638e-01 3.394614e-01 3.915931e-01 3.580392e-01 3.147653e-01 3.748533e-01
<GCONST> 1.040973e+02
<STATE> 3
<NUMMIXES> 2
<MIXTURE> 1 4.959011e-01
<MEAN> 39
 -5.646684e+00 -5.437751e-01 -3.978926e+00 -3.979442e+00 -6.620452e+00 -4.461957e+00 -1.590566e+00 -1.351906e+00 9.436154e-01 2.114656e+00 1.575614e+00 1.257241e+00 1.105992e+01 4.752724e-01 3.275483e-01 7.566507e-01 8.716153e-01 1.009887e+00 1.029487e+00 5.849015e-01 5.329343e-01 6.097319e-02 -4.504890e-01 3.174810e-01 3.103862e-01 2.027017e+00 3.439984e-01 4.015352e-03 2.814007e-01 3.377117e-01 3.567735e-01 3.114103e-01 1.715410e-01 1.350044e-01 9.861417e-02 -1.681606e-02 -4.254529e-02 9.304189e-02 -7.219416e-01
<VARIANCE> 39
 2.083337e+01 1.442224e+01 1.375620e+01 1.384962e+01 2.430731e+01 1.969229e+01 1.954306e+01 1.674024e+01 1.363059e+01 2.065739e+01 1.665246e+01 1.659257e+01 2.295338e+02 3.735776e+00 2.421299e+00 1.782081e+00 1.701460e+00 1.860032e+00 2.065525e+00 2.317862e+00 2.156139e+00 2.071504e+00 1.925613e+00 1.805227e+00 1.442327e+00 2.117515e+01 6.427906e-01 3.637846e-01 3.162796e-01 3.724170e-01 4.755945e-01 4.725377e-01 5.832828e-01 3.586571e-01 4.227566e-01 3.808088e-01 3.747393e-01 3.707281e-01 4.090861e+00
<GCONST> 1.139107e+02
<MIXTURE> 2 5.040979e-01
<MEAN> 39
 -5.639119e+00 -1.068887e+00 -4.879038e+00 -4.437185e+00 -7.144939e+00 -5.253318e+00 -2.174893e+00 -2.131086e+00 2.766542e-01 1.842122e+00 -1.205257e-01 5.940543e-01 8.661655e+00 -7.854213e-01 -2.624938e-01 -4.478914e-01 -3.656040e-01 -3.798904e-01 -1.575686e-01 -2.803195e-01 7.486864e-02 -6.095700e-02 -1.434815e-01 -1.445192e-01 -2.806581e-01 1.475113e-01 2.146969e-01 -3.263023e-02 2.426442e-01 2.599987e-01 3.604827e-01 3.347895e-01 9.201124e-02 1.280407e-01 -1.183578e-02 -1.726389e-01 5.699943e-02 8.600699e-02 -5.024228e-01
<VARIANCE> 39
 2.846306e+01 2.139194e+01 1.592220e+01 1.415746e+01 2.095010e+01 2.015328e+01 2.463015e+01 2.049193e+01 1.787658e+01 2.491606e+01 1.446503e+01 1.531170e+01 3.533967e+02 4.936366e+00 2.517698e+00 2.092190e+00 2.170765e+00 3.157243e+00 2.484685e+00 3.186437e+00 1.913984e+00 2.642929e+00 2.182154e+00 1.871384e+00 1.907110e+00 4.015301e+01 9.776925e-01 4.929698e-01 3.956193e-01 4.064091e-01 5.478147e-01 5.647265e-01 5.378015e-01 4.334161e-01 4.870529e-01 4.695461e-01 3.853264e-01 3.813521e-01 6.880569e+00
<GCONST> 1.211101e+02
<STATE> 4
<NUMMIXES> 2
<MIXTURE> 1 4.892173e-01
<MEAN> 39
 4.506415e-01 5.782423e-01 8.210779e-01 8.164757e-01 8.229797e-01 6.361048e-01 4.696235e-01 2.495766e-01 3.405343e-01 -1.414225e-01 8.826207e-02 2.702661e-01 3.236144e-01 1.146566e-01 1.079888e-01 1.885264e-01 2.142233e-01 2.891229e-01 2.889559e-01 2.812897e-01 2.790608e-01 2.578078e-01 2.070631e-01 1.848117e-01 1.410946e-01 -1.788370e-01 1.465626e-02 2.288616e-02 2.875521e-02 3.462038e-02 4.074139e-02 4.586631e-02 3.705692e-02 3.869125e-02 4.595203e-02 4.852215e-02 3.676086e-02 2.441057e-02 -1.459457e-02
<VARIANCE> 39
 1.339219e+01 1.064189e+01 1.553615e+01 1.607583e+01 1.894136e+01 2.088776e+01 2.220688e+01 1.773890e+01 2.352518e+01 2.170249e+01 1.772672e+01 1.578716e+01 6.637748e+01 5.401500e-01 4.471775e-01 5.986108e-01 8.573390e-01 1.199223e+00 1.343530e+00 1.471232e+00 1.421665e+00 1.643442e+00 1.699458e+00 1.558884e+00 1.314462e+00 8.077182e-01 1.024592e-01 8.327140e-02 1.173203e-01 1.725412e-01 2.542913e-01 2.756352e-01 2.997088e-01 2.985698e-01 3.395341e-01 3.525914e-01 3.267574e-01 2.663760e-01 9.753386e-02
<GCONST> 9.020997e+01
<MIXTURE> 2 5.107808e-01
<MEAN> 39
 1.497959e-01 -3.600295e-01 -5.152190e-01 -4.190127e-01 -2.174402e-01 -1.126351e-01 -6.502039e-01 -1.453843e-01 -5.099807e-01 -1.684224e-01 -3.857352e-01 -5.389843e-01 -1.270423e+00 -4.323823e-03 -9.977963e-02 -1.209401e-01 -1.584201e-01 -1.819229e-01 -2.180473e-01 -2.399481e-01 -2.497472e-01 -2.573539e-01 -2.310795e-01 -2.086592e-01 -1.711224e-01 -7.684745e-02 -1.527447e-02 -2.140692e-02 -3.403137e-02 -4.305674e-02 -4.995381e-02 -5.491785e-02 -4.138973e-02 -4.321992e-02 -4.684623e-02 -4.273620e-02 -3.422570e-02 -2.294900e-02 1.469479e-02
<VARIANCE> 39
 1.334179e+01 8.864772e+00 1.266946e+01 1.287522e+01 1.722556e+01 1.919844e+01 2.044015e+01 1.836049e+01 2.192717e+01 2.162925e+01 1.716803e+01 1.658766e+01 3.714649e+01 5.971314e-01 4.785653e-01 6.863899e-01 8.908120e-01 1.264719e+00 1.368910e+00 1.535254e+00 1.503471e+00 1.691762e+00 1.692907e+00 1.522418e+00 1.349269e+00 8.256674e-01 8.989806e-02 8.406785e-02 1.290677e-01 1.724434e-01 2.467809e-01 2.754753e-01 3.146458e-01 3.088340e-01 3.441887e-01 3.459134e-01 3.112853e-01 2.762873e-01 1.049242e-01
<GCONST> 8.937720e+01
<TRANSP> 5
 0.000000e+00 1.000000e+00 0.000000e+00 0.000000e+00 0.000000e+00
 0.000000e+00 9.131523e-01 8.684772e-02 0.000000e+00 0.000000e+00
 0.000000e+00 0.000000e+00 8.208356e-01 1.791644e-01 0.000000e+00
 0.000000e+00 0.000000e+00 0.000000e+00 9.938288e-01 6.171233e-03
 0.000000e+00 0.000000e+00 0.000000e+00 0.000000e+00 0.000000e+00
<ENDHMM>
~h "kj"
<BEGINHMM>
<NUMSTATES> 5
<STATE> 2
<NUMMIXES> 2
<MIXTURE> 1 5.018017e-01
<MEAN> 39
 6.435061e+00 3.270828e-01 -2.211164e+00 -1.363521e-01 1.059701e+00 -8.091036e-01 -1.339952e+00 -4.167115e-01 -1.233596e-01 2.687668e-01 -9.331178e-01 -7.367871e-02 -4.063782e+00 -3.030433e-01 -1.039100e-01 6.427430e-02 1.691977e-01 4.074083e-02 1.190882e-01 1.960632e-01 1.143020e-01 2.769833e-01 2.150487e-01 2.742015e-01 1.978888e-01 4.243655e-01 -1.177754e-02 4.463213e-03 2.900741e-02 2.826431e-02 5.081617e-02 3.987826e-02 7.067427e-02 6.990667e-02 5.580613e-02 5.259896e-02 1.658740e-02 1.267573e-02 1.068841e-03
<VARIANCE> 39
 1.855121e+01 2.174367e+01 1.268745e+01 1.655205e+01 2.067756e+01 2.628904e+01 2.242433e+01 2.052970e+01 2.031053e+01 1.863541e+01 1.556287e+01 1.659775e+01 1.801337e+01 9.789845e-01 1.132495e+00 9.809412e-01 1.007074e+00 1.582728e+00 1.713059e+00 2.130704e+00 1.786283e+00 1.765939e+00 1.957045e+00 1.339456e+00 1.377229e+00 9.142665e-01 1.518119e-01 1.879862e-01 1.610975e-01 1.921302e-01 2.738449e-01 3.232804e-01 4.308137e-01 3.327119e-01 3.381982e-01 3.824555e-01 2.851856e-01 2.623177e-01 1.254766e-01
<GCONST> 9.591119e+01
<MIXTURE> 2 4.981974e-01
<MEAN> 39
 6.363376e+00 -3.661085e-01 -2.503726e+00 -4.460902e-01 5.697877e-01 -1.518569e+00 -1.462637e+00 -1.045914e+00 -4.063883e-01 2.176416e-01 -1.394269e+00 -4.168192e-01 -3.579072e+00 -3.792421e-01 -3.159525e-01 -2.179996e-01 -1.285848e-01 -3.349748e-01 -2.891266e-01 -3.293795e-01 -4.667412e-01 -2.485411e-01 -2.660870e-01 -1.755105e-01 -1.202355e-01 5.513396e-01 1.555899e-02 -2.998645e-02 -1.857390e-02 -4.118601e-02 -3.384561e-02 -2.154435e-02 -4.409587e-02 -3.755734e-02 -4.994879e-02 -4.694786e-02 -3.168456e-02 -2.288187e-02 2.013313e-03
<VARIANCE> 39
 1.880589e+01 2.263097e+01 1.265756e+01 1.757713e+01 1.864981e+01 2.674142e+01 2.115328e+01 2.230057e+01 1.928141e+01 1.818267e+01 1.468360e+01 1.796478e+01 1.985286e+01 1.042658e+00 1.367269e+00 1.117176e+00 1.096942e+00 1.484498e+00 1.855444e+00 2.138776e+00 1.891915e+00 1.719310e+00 1.896215e+00 1.389838e+00 1.324767e+00 1.108606e+00 1.529699e-01 2.135091e-01 1.802065e-01 1.983104e-01 2.518914e-01 3.371206e-01 3.942921e-01 3.654191e-01 3.254258e-01 3.679242e-01 2.511867e-01 2.337937e-01 1.449444e-01
<GCONST> 9.674597e+01
<STATE> 3
<NUMMIXES> 2
<MIXTURE> 1 5.084102e-01
<MEAN> 39
 3.669246e+00 -4.191850e+00 -4.226780e+00 -1.406034e-01 1.286390e+00 -2.585015e+00 -4.009269e+00 -2.810558e+00 -5.623799e-01 -1.132062e-01 1.285150e-01 8.523458e-01 2.231753e+00 -1.095776e-01 3.327915e-01 2.026264e-01 1.925482e-01 2.924004e-01 3.506019e-01 3.181017e-01 3.551793e-01 2.336023e-01 3.085848e-01 2.667927e-01 1.891346e-01 -1.062191e-01 1.159608e-02 4.460061e-02 7.142546e-02 2.912610e-02 3.080491e-02 7.253577e-02 7.204816e-02 8.799525e-02 5.175724e-02 3.844710e-02 4.757958e-02 3.978293e-02 -1.857972e-02
<VARIANCE> 39
 1.354100e+01 1.761076e+01 1.025179e+01 1.550511e+01 1.395145e+01 1.957327e+01 2.496131e+01 1.661499e+01 1.765926e+01 1.678847e+01 1.617659e+01 1.536556e+01 1.644853e+01 5.247425e-01 6.452397e-01 6.473010e-01 8.267106e-01 9.959226e-01 1.211082e+00 1.494593e+00 1.436670e+00 1.417978e+00 1.487913e+00 1.545755e+00 1.290718e+00 5.000755e-01 9.375888e-02 1.192630e-01 1.245402e-01 1.536936e-01 2.191446e-01 2.392024e-01 3.132790e-01 3.163164e-01 2.890209e-01 3.211509e-01 3.262372e-01 2.614220e-01 8.319511e-02
<GCONST> 8.681810e+01
<MIXTURE> 2 4.915891e-01
<MEAN> 39
 3.885253e+00 -4.661079e+00 -4.562731e+00 -3.976470e-01 8.341486e-01 -3.222599e+00 -4.593212e+00 -3.158005e+00 -8.375420e-01 -4.470967e-01 -2.608660e-01 5.797392e-01 3.015869e+00 -1.481527e-01 -6.922912e-03 -1.440498e-01 -1.753983e-01 -1.602494e-01 -2.048610e-01 -2.500116e-01 -2.219511e-01 -2.714939e-01 -2.503535e-01 -2.354380e-01 -1.719760e-01 -5.253744e-02 -3.414099e-02 2.998620e-02 1.415481e-03 -3.549971e-02 -3.960619e-02 -4.192885e-02 -2.703260e-02 -2.624694e-02 -4.336122e-02 -3.322807e-02 -3.919514e-02 -3.665907e-02 -3.316519e-02
<VARIANCE> 39
 1.141638e+01 1.576470e+01 1.047767e+01 1.523458e+01 1.433039e+01 2.043469e+01 2.332077e+01 1.719331e+01 1.879277e+01 1.831153e+01 1.581796e+01 1.435958e+01 1.690892e+01 5.201480e-01 7.566377e-01 6.595906e-01 8.147185e-01 1.162243e+00 1.287577e+00 1.525423e+00 1.693898e+00 1.537660e+00 1.613971e+00 1.474039e+00 1.194303e+00 6.453249e-01 9.288881e-02 1.265420e-01 1.354091e-01 1.714556e-01 2.399234e-01 2.525558e-01 3.289306e-01 3.440613e-01 3.260029e-01 3.436929e-01 3.163588e-01 2.439326e-01 1.071095e-01
<GCONST> 8.837280e+01
<STATE> 4
<NUMMIXES> 2
<MIXTURE> 1 5.030004e-01
<MEAN> 39
 -1.085512e+00 1.214282e+00 9.025131e-01 2.981354e-01 1.572614e-02 8.760223e-01 1.055769e+00 7.563266e-01 2.954637e-01 2.709914e-01 2.469400e-01 -1.715735e-02 -8.613096e-01 8.180654e-02 1.067230e-01 1.414209e-01 1.694081e-01 2.227157e-01 2.397824e-01 2.527390e-01 2.690850e-01 2.679446e-01 2.441599e-01 2.244703e-01 1.597804e-01 -3.965042e-02 1.409506e-02 2.225499e-02 2.654790e-02 3.086459e-02 4.199810e-02 4.613473e-02 5.049546e-02 4.599690e-02 4.423132e-02 4.216810e-02 3.629018e-02 2.504038e-02 3.872748e-03
<VARIANCE> 39
 2.595575e+01 2.245441e+01 1.305477e+01 1.311190e+01 1.508987e+01 1.980164e+01 2.341360e+01 1.929227e+01 1.714703e+01 1.893839e+01 1.564944e+01 1.428846e+01 2.001570e+01 5.416374e-01 5.680468e-01 6.472576e-01 8.942584e-01 1.109127e+00 1.334336e+00 1.511895e+00 1.513362e+00 1.553221e+00 1.588140e+00 1.421424e+00 1.286615e+00 4.106212e-01 9.109677e-02 1.081141e-01 1.252484e-01 1.789876e-01 2.244313e-01 2.765588e-01 3.109303e-01 3.145635e-01 3.293658e-01 3.289526e-01 2.973964e-01 2.684998e-01 6.631084e-02
<GCONST> 8.831471e+01
<MIXTURE> 2 4.969983e-01
<MEAN> 39
 -1.615127e-01 -5.084962e-01 3.839361e-02 -2.289923e-01 -2.712469e-01 -2.981613e-01 -2.288364e-01 -2.072410e-01 -1.589681e-01 -2.537883e-01 -1.222009e-01 -7.463975e-02 8.326803e-01 -9.420032e-03 -1.322752e-01 -1.429870e-01 -1.816849e-01 -2.161739e-01 -2.485810e-01 -2.530802e-01 -2.754229e-01 -2.603323e-01 -2.567917e-01 -2.267090e-01 -1.616244e-01 -1.838994e-03 -9.333361e-03 -2.521946e-02 -3.079653e-02 -3.144049e-02 -4.183964e-02 -4.758160e-02 -5.073754e-02 -4.792485e-02 -4.317874e-02 -4.274825e-02 -3.756021e-02 -2.491462e-02 -6.307620e-03
<VARIANCE> 39
 2.746008e+01 3.725423e+01 1.561338e+01 1.394551e+01 1.512499e+01 2.509922e+01 2.810134e+01 2.160621e+01 1.721797e+01 1.959904e+01 1.576242e+01 1.433498e+01 3.632719e+01 5.865684e-01 9.042874e-01 7.211005e-01 9.241424e-01 1.153367e+00 1.448943e+00 1.627204e+00 1.546132e+00 1.556477e+00 1.623690e+00 1.415820e+00 1.303000e+00 8.650473e-01 9.494936e-02 1.468102e-01 1.352231e-01 1.852435e-01 2.311892e-01 2.899318e-01 3.191798e-01 3.231512e-01 3.282111e-01 3.348477e-01 2.921285e-01 2.676680e-01 1.150929e-01
<GCONST> 9.311110e+01
<TRANSP> 5
 0.000000e+00 1.000000e+00 0.000000e+00 0.000000e+00 0.000000e+00
 0.000000e+00 9.284928e-01 7.150719e-02 0.000000e+00 0.000000e+00
 0.000000e+00 0.000000e+00 9.555297e-01 4.447034e-02 0.000000e+00
 0.000000e+00 0.000000e+00 0.000000e+00 9.964087e-01 3.591305e-03
 0.000000e+00 0.000000e+00 0.000000e+00 0.000000e+00 0.000000e+00
<ENDHMM>
~h "kn"
<BEGINHMM>
<NUMSTATES> 5
<STATE> 2
<NUMMIXES> 2
<MIXTURE> 1 4.954002e-01
<MEAN> 39
 -2.862759e+00 -6.922581e-01 -2.572711e+00 -2.627096e+00 -3.104013e+00 -1.534997e+00 4.488556e-01 -1.655115e+00 2.089865e+00 -3.029532e-01 1.641233e-01 -1.769005e+00 4.875172e+00 -5.129778e-02 5.620303e-01 1.881566e-01 2.224676e-01 6.190481e-01 -2.432938e-01 9.308287e-01 5.776662e-01 1.671624e+00 5.198302e-01 3.887172e-01 6.672651e-01 2.379573e+00 -2.064272e-01 1.892130e-01 2.725402e-01 1.530274e-01 3.325407e-01 3.961866e-01 -6.355774e-02 8.862071e-02 -3.879901e-01 -1.624737e-02 2.628005e-02 1.770774e-01 -9.456968e-01
<VARIANCE> 39
 1.636628e+01 1.541252e+01 1.508061e+01 9.796610e+00 1.546146e+01 2.547804e+01 2.506829e+01 4.270325e+01 3.448053e+01 2.145052e+01 2.233138e+01 1.858706e+01 6.069476e+01 2.547850e+00 1.500586e+00 1.747938e+00 1.049027e+00 1.371718e+00 2.054503e+00 2.733090e+00 5.069956e+00 2.792158e+00 1.966631e+00 1.919960e+00 1.980999e+00 6.328822e+00 3.545946e-01 2.111365e-01 2.524610e-01 1.577327e-01 1.925509e-01 3.398963e-01 5.095962e-01 9.853491e-01 6.870958e-01 3.809300e-01 3.167848e-01 3.609798e-01 8.576042e-01
<GCONST> 1.094987e+02
<MIXTURE> 2 5.046000e-01
<MEAN> 39
 -5.227243e+00 6.332706e-02 -6.433123e-01 -3.098482e+00 -2.769167e+00 -8.275971e-02 -4.081956e-01 -1.069335e+00 -5.454924e-01 -6.949539e-01 -4.645338e-01 -2.092226e+00 -1.482531e+00 4.586653e-01 -3.694806e-02 -2.998776e-01 1.939588e-01 9.201281e-03 -5.968226e-01 2.723142e-01 -7.805140e-01 6.106240e-01 1.617815e-01 -1.056530e-02 9.116905e-02 2.280675e+00 8.547879e-02 2.582046e-02 -2.004732e-02 7.680979e-02 1.370161e-01 1.114814e-01 -3.463526e-02 2.779503e-02 -7.489071e-02 -9.224665e-02 -2.963016e-02 7.051808e-02 -1.078894e-01
<VARIANCE> 39
 2.218200e+01 1.550705e+01 1.859415e+01 9.734797e+00 1.775059e+01 2.301162e+01 2.399595e+01 5.411012e+01 2.693383e+01 2.155457e+01 2.030596e+01 1.926783e+01 9.802139e+01 2.775797e+00 1.611685e+00 2.173714e+00 9.856068e-01 1.727182e+00 2.291815e+00 2.886861e+00 6.428642e+00 3.643473e+00 2.228171e+00 1.966992e+00 2.577293e+00 7.670385e+00 3.877616e-01 1.813522e-01 2.959646e-01 1.273760e-01 2.151248e-01 2.839467e-01 4.696511e-01 7.656429e-01 5.908926e-01 2.965518e-01 2.790960e-01 3.257256e-01 1.124156e+00
<GCONST> 1.113542e+02
<STATE> 3
<NUMMIXES> 2
<MIXTURE> 1 4.978627e-01
<MEAN> 39
 5.662985e-01 -4.822935e-01 -7.738382e-01 -2.822510e-01 -2.412621e-01 -8.569660e-01 1.883002e-01 -1.382180e-01 1.058287e+00 3.399089e-01 6.606109e-01 5.398981e-01 2.373760e+00 1.244158e-01 1.832787e-01 1.764412e-01 1.999872e-01 2.598617e-01 2.201636e-01 2.453120e-01 4.476214e-01 3.074318e-01 3.318175e-01 2.469898e-01 3.170462e-01 -1.029961e-01 -2.313833e-03 6.155698e-02 6.898683e-02 9.522766e-02 8.988662e-02 1.077605e-01 6.640382e-03 3.014553e-02 -2.600569e-02 5.568020e-02 2.824911e-04 -1.420701e-02 -1.690489e-01
<VARIANCE> 39
 8.803201e+00 1.191834e+01 1.040109e+01 9.807403e+00 1.275634e+01 1.524910e+01 1.626407e+01 2.076985e+01 1.921260e+01 1.566892e+01 1.458820e+01 1.457521e+01 2.252525e+01 4.045392e-01 7.658237e-01 7.252001e-01 8.601769e-01 1.212131e+00 1.285359e+00 1.427995e+00 1.705958e+00 1.698561e+00 1.394475e+00 1.338912e+00 1.318137e+00 1.709207e+00 7.730250e-02 1.738386e-01 1.449958e-01 2.057732e-01 2.868879e-01 2.725572e-01 3.163374e-01 4.091298e-01 3.848532e-01 3.110135e-01 2.721938e-01 2.787525e-01 3.334109e-01
<GCONST> 8.967159e+01
<MIXTURE> 2 5.021365e-01
<MEAN> 39
 3.385297e-01 -9.338746e-02 -2.593867e-01 2.075928e-01 1.031466e-01 -3.150782e-01 -3.322005e-01 -6.249807e-01 -2.222618e-01 -8.441236e-02 -1.337017e-01 -3.500756e-02 3.289409e-01 -2.151256e-02 -2.354674e-01 -1.425941e-01 -1.093510e-01 -2.011850e-01 -1.978158e-01 -2.466093e-01 -4.226919e-01 -3.642055e-01 -3.303193e-01 -2.461500e-01 -2.701231e-01 5.387293e-03 5.795714e-03 -7.075235e-02 -7.239695e-02 -9.970455e-02 -1.057809e-01 -1.090896e-01 -1.863693e-02 -3.947611e-02 1.015002e-03 -5.971234e-02 -1.241364e-02 -7.906057e-03 1.475593e-01
<VARIANCE> 39
 8.389442e+00 9.885190e+00 1.049503e+01 8.881723e+00 1.262389e+01 1.415483e+01 1.554327e+01 2.083701e+01 1.657031e+01 1.546103e+01 1.457155e+01 1.468964e+01 2.081801e+01 4.318456e-01 8.231444e-01 8.192847e-01 1.012679e+00 1.357297e+00 1.369349e+00 1.411663e+00 1.883166e+00 1.670818e+00 1.447899e+00 1.304132e+00 1.370394e+00 2.290556e+00 6.923219e-02 1.418649e-01 1.365632e-01 1.756880e-01 2.600426e-01 2.531464e-01 2.899745e-01 4.212246e-01 3.707990e-01 3.274948e-01 2.833699e-01 2.964633e-01 2.980483e-01
<GCONST> 8.924133e+01
<STATE> 4
<NUMMIXES> 2
<MIXTURE> 1 5.051394e-01
<MEAN> 39
 -4.422555e-01 9.149877e-01 1.815456e+00 7.197446e-01 8.129653e-01 1.694860e+00 5.670448e-02 1.368015e+00 -1.286031e+00 -8.172473e-02 -5.090079e-01 -1.341726e-01 -4.235926e+00 -8.278041e-02 2.722460e-01 3.560072e-01 1.511775e-01 2.022605e-01 4.103506e-01 1.982135e-01 4.410333e-01 1.575764e-01 2.198960e-01 1.372449e-01 7.855869e-02 -4.881464e-01 8.280769e-04 1.485880e-02 1.965401e-02 2.451943e-02 5.156543e-02 6.483640e-02 9.122875e-02 8.478745e-02 7.987474e-02 4.565401e-02 6.228884e-02 5.479766e-03 3.417083e-02
<VARIANCE> 39
 1.026144e+01 9.987928e+00 8.806066e+00 7.532291e+00 1.149707e+01 1.581981e+01 1.289604e+01 1.566100e+01 1.514142e+01 1.506417e+01 1.247932e+01 1.296028e+01 2.314807e+01 1.724916e-01 3.010988e-01 4.353679e-01 6.106206e-01 9.831222e-01 1.031727e+00 1.193122e+00 1.179239e+00 1.416503e+00 1.341277e+00 1.170457e+00 1.178015e+00 1.085134e-01 2.319513e-02 5.248250e-02 8.711588e-02 1.254211e-01 1.941257e-01 2.096560e-01 2.562164e-01 2.543197e-01 3.117486e-01 2.821175e-01 2.405010e-01 2.362225e-01 7.922803e-03
<GCONST> 7.218882e+01
<MIXTURE> 2 4.948599e-01
<MEAN> 39
 -4.237707e-01 7.700889e-01 1.621518e+00 6.046680e-01 7.137985e-01 1.809511e+00 3.379050e-01 1.251318e+00 -1.276268e+00 -4.158229e-01 -8.608591e-01 -4.778287e-01 -3.756187e+00 -1.998706e-01 -3.732305e-02 -4.907303e-03 -2.353955e-01 -1.966744e-01 -2.190945e-02 -2.614754e-01 -1.017220e-01 -4.291903e-01 -2.614375e-01 -2.742314e-01 -2.375059e-01 -5.615546e-01 -2.954615e-02 -3.190646e-02 -4.352680e-02 -7.326002e-02 -9.674644e-02 -9.716937e-02 -5.872915e-02 -6.797457e-02 -3.511464e-02 -4.871790e-02 -4.005910e-02 -1.579056e-02 1.520830e-02
<VARIANCE> 39
 9.507639e+00 9.906794e+00 9.560340e+00 8.834127e+00 1.199809e+01 1.498677e+01 1.385079e+01 1.569597e+01 1.556341e+01 1.545906e+01 1.319292e+01 1.254711e+01 2.223775e+01 1.625821e-01 3.058130e-01 4.722483e-01 6.045492e-01 9.267421e-01 1.038440e+00 1.235879e+00 1.280882e+00 1.407576e+00 1.323463e+00 1.230499e+00 1.131269e+00 1.287676e-01 2.005268e-02 5.305937e-02 9.410478e-02 1.312878e-01 1.923434e-01 1.955880e-01 2.546975e-01 2.538346e-01 2.905880e-01 2.751416e-01 2.510197e-01 2.403548e-01 7.866433e-03
<GCONST> 7.255799e+01
<TRANSP> 5
 0.000000e+00 1.000000e+00 0.000000e+00 0.000000e+00 0.000000e+00
 0.000000e+00 7.957159e-01 2.042841e-01 0.000000e+00 0.000000e+00
 0.000000e+00 0.000000e+00 9.852433e-01 1.475669e-02 0.000000e+00
 0.000000e+00 0.000000e+00 0.000000e+00 9.597898e-01 4.021023e-02
 0.000000e+00 0.000000e+00 0.000000e+00 0.000000e+00 0.000000e+00
<ENDHMM>
~h "kt"
<BEGINHMM>
<NUMSTATES> 5
<STATE> 2
<NUMMIXES> 2
<MIXTURE> 1 4.965273e-01
<MEAN> 39
 7.713383e-02 -4.197127e-01 2.634602e-01 -3.888249e-01 -5.012804e-01 1.041948e-01 8.026057e-02 5.632970e-01 5.565000e-01 4.041325e-01 4.596884e-01 3.480660e-01 1.318296e-01 6.269727e-02 1.205829e-01 1.684017e-01 2.217112e-01 2.705844e-01 2.684215e-01 3.185738e-01 3.065780e-01 2.980871e-01 2.801851e-01 2.840960e-01 1.789907e-01 -3.535850e-03 3.314430e-02 2.607276e-02 3.376237e-02 4.928212e-02 6.516413e-02 5.754722e-02 5.828066e-02 4.080125e-02 4.225978e-02 5.335759e-02 3.949650e-02 2.391024e-02 -4.170474e-02
<VARIANCE> 39
 1.288611e+01 7.583870e+00 9.141954e+00 1.096920e+01 1.308235e+01 1.580329e+01 1.581185e+01 1.638663e+01 1.610432e+01 1.574354e+01 1.474968e+01 1.260079e+01 1.852600e+01 9.043328e-01 5.004349e-01 7.154515e-01 8.575763e-01 1.143471e+00 1.395599e+00 1.472237e+00 1.568434e+00 1.585969e+00 1.637904e+00 1.420811e+00 1.219360e+00 1.164384e+00 1.828653e-01 1.016586e-01 1.533409e-01 1.772143e-01 2.441825e-01 3.028381e-01 3.103184e-01 3.302608e-01 3.335174e-01 3.495054e-01 3.041473e-01 2.496956e-01 2.371302e-01
<GCONST> 8.847577e+01
<MIXTURE> 2 5.034705e-01
<MEAN> 39
 2.311663e-01 -4.870870e-01 8.612838e-02 -5.447510e-01 -3.769220e-01 5.932052e-02 -1.004444e-01 1.599315e-01 2.397211e-01 1.837995e-01 1.195272e-01 5.667368e-02 1.499646e-02 -1.902792e-01 -7.386021e-02 -2.379859e-01 -1.923000e-01 -2.856588e-01 -3.627714e-01 -3.121992e-01 -3.058333e-01 -2.745467e-01 -2.805810e-01 -2.920089e-01 -1.813453e-01 1.657620e-01 -2.990042e-02 -2.527069e-02 -2.528452e-02 -3.627855e-02 -5.519791e-02 -5.307727e-02 -6.219719e-02 -4.385320e-02 -4.668565e-02 -6.259078e-02 -3.601757e-02 -2.699331e-02 3.955599e-02
<VARIANCE> 39
 1.352352e+01 8.506269e+00 9.265398e+00 1.096407e+01 1.300781e+01 1.618756e+01 1.574137e+01 1.713641e+01 1.606805e+01 1.518407e+01 1.446774e+01 1.273960e+01 1.961448e+01 1.179163e+00 5.992545e-01 8.223712e-01 9.196601e-01 1.168295e+00 1.518090e+00 1.475344e+00 1.572057e+00 1.546102e+00 1.621957e+00 1.460143e+00 1.285703e+00 1.740553e+00 1.939197e-01 1.084081e-01 1.619687e-01 1.797785e-01 2.411652e-01 3.081639e-01 3.263801e-01 3.352721e-01 3.269795e-01 3.410882e-01 3.022231e-01 2.613832e-01 2.511644e-01
<GCONST> 9.024782e+01
<STATE> 3
<NUMMIXES> 2
<MIXTURE> 1 5.017672e-01
<MEAN> 39
 -1.160434e+00 2.563923e-01 -1.862005e-01 6.704269e-01 1.867763e-01 -7.050515e-01 -1.271560e-01 -4.864489e-01 1.382629e-02 -1.067547e-01 -1.023677e-01 1.591069e-01 1.472460e+00 1.314895e-01 8.638455e-02 1.934429e-01 2.291083e-01 2.563448e-01 3.415798e-01 3.577637e-01 2.825163e-01 3.122294e-01 2.698208e-01 3.185287e-01 1.696295e-01 -8.015528e-02 4.619940e-02 2.042396e-02 3.352960e-02 3.464366e-02 5.303284e-02 5.047002e-02 4.903133e-02 5.993806e-02 4.586311e-02 5.824389e-02 2.637002e-02 2.388481e-02 -7.010888e-02
<VARIANCE> 39
 8.249142e+00 4.992841e+00 7.284150e+00 1.069375e+01 1.249627e+01 1.555460e+01 1.640102e+01 1.579927e+01 1.747118e+01 1.827912e+01 1.609392e+01 1.316657e+01 1.435154e+01 7.135163e-01 3.969284e-01 6.202399e-01 8.405984e-01 1.125534e+00 1.487043e+00 1.559787e+00 1.558361e+00 1.606922e+00 1.958920e+00 1.513536e+00 1.333147e+00 1.250588e+00 1.548083e-01 8.028441e-02 1.334391e-01 1.825843e-01 2.420332e-01 3.292185e-01 3.491387e-01 3.352705e-01 3.512902e-01 4.277690e-01 3.176312e-01 2.727270e-01 2.785021e-01
<GCONST> 8.752976e+01
<MIXTURE> 2 4.982333e-01
<MEAN> 39
 -1.097180e+00 2.342640e-01 -3.039590e-01 6.614126e-01 1.098350e-01 -1.021454e+00 -4.633946e-01 -6.756011e-01 -2.278493e-01 -2.341589e-01 -5.086078e-01 -1.081159e-01 1.286664e+00 -8.920154e-02 -9.065189e-02 -1.822318e-01 -2.168683e-01 -2.441697e-01 -3.102746e-01 -3.278255e-01 -3.051600e-01 -3.181113e-01 -2.866721e-01 -2.961093e-01 -1.754805e-01 2.817252e-02 -3.158564e-02 -2.274074e-02 -3.108435e-02 -4.489250e-02 -5.312331e-02 -4.109844e-02 -4.286498e-02 -5.073699e-02 -3.858931e-02 -4.878644e-02 -2.754769e-02 -2.221146e-02 4.303377e-02
<VARIANCE> 39
 8.553702e+00 5.111954e+00 7.188226e+00 1.040859e+01 1.257358e+01 1.704798e+01 1.714158e+01 1.566259e+01 1.783343e+01 1.782731e+01 1.631779e+01 1.333706e+01 1.414537e+01 8.076323e-01 4.351995e-01 6.470936e-01 8.741050e-01 1.201285e+00 1.613377e+00 1.642731e+00 1.483768e+00 1.679528e+00 1.940226e+00 1.541099e+00 1.289999e+00 1.546593e+00 1.518499e-01 8.540644e-02 1.354561e-01 1.793068e-01 2.518333e-01 3.726574e-01 3.610250e-01 3.252667e-01 3.514957e-01 4.287258e-01 3.232909e-01 2.756024e-01 2.659025e-01
<GCONST> 8.856032e+01
<STATE> 4
<NUMMIXES> 2
<MIXTURE> 1 4.985777e-01
<MEAN> 39
 5.420184e-01 9.645118e-02 1.545424e-01 -1.309731e-01 2.010549e-01 6.071152e-01 3.684075e-01 4.291029e-01 4.705625e-02 1.624211e-01 2.174741e-01 4.265015e-04 -7.987497e-01 1.038336e-01 9.822004e-02 1.809148e-01 2.060612e-01 2.686356e-01 3.004242e-01 3.108205e-01 3.128596e-01 3.094474e-01 3.143081e-01 2.666724e-01 1.695843e-01 -3.577784e-02 3.111809e-02 1.997405e-02 3.509710e-02 4.313290e-02 5.541187e-02 5.305467e-02 4.494534e-02 4.179984e-02 4.952260e-02 3.973898e-02 3.911851e-02 3.290179e-02 -1.799659e-02
<VARIANCE> 39
 9.607233e+00 6.891721e+00 8.550694e+00 1.010495e+01 1.283313e+01 1.542149e+01 1.474978e+01 1.552286e+01 1.619201e+01 1.534271e+01 1.369817e+01 1.258393e+01 1.043336e+01 6.294487e-01 4.473131e-01 6.064478e-01 7.756025e-01 1.029692e+00 1.214653e+00 1.403312e+00 1.431563e+00 1.487201e+00 1.469350e+00 1.366714e+00 1.216589e+00 5.828068e-01 1.232220e-01 9.151118e-02 1.243343e-01 1.615208e-01 2.200511e-01 2.595188e-01 3.068529e-01 3.108568e-01 3.203019e-01 3.176542e-01 2.869097e-01 2.461050e-01 1.128574e-01
<GCONST> 8.298712e+01
<MIXTURE> 2 5.014217e-01
<MEAN> 39
 6.742156e-01 -1.518412e-02 -5.831894e-03 -2.770257e-01 -1.641946e-02 3.534027e-01 -7.753898e-03 -3.276962e-02 -2.458106e-01 -1.998622e-01 -9.098896e-02 -1.963531e-01 -9.035390e-01 -4.858551e-02 -1.155572e-01 -1.575939e-01 -2.348422e-01 -2.533314e-01 -2.679590e-01 -3.083808e-01 -3.001158e-01 -3.156152e-01 -3.060907e-01 -2.628120e-01 -1.737894e-01 -2.883438e-02 -3.393228e-02 -2.115846e-02 -3.545694e-02 -4.101911e-02 -5.392478e-02 -5.491307e-02 -4.855090e-02 -4.201080e-02 -5.112870e-02 -4.037663e-02 -3.957197e-02 -3.093176e-02 2.361858e-02
<VARIANCE> 39
 9.501719e+00 7.110392e+00 8.295098e+00 9.978992e+00 1.287273e+01 1.543578e+01 1.493665e+01 1.563428e+01 1.626370e+01 1.560235e+01 1.411927e+01 1.293143e+01 9.909806e+00 6.861680e-01 4.976958e-01 6.094415e-01 7.769682e-01 1.072653e+00 1.256064e+00 1.389446e+00 1.432428e+00 1.461965e+00 1.472577e+00 1.361900e+00 1.235855e+00 7.089970e-01 1.212412e-01 9.395227e-02 1.237331e-01 1.644396e-01 2.259251e-01 2.697045e-01 3.052441e-01 3.064979e-01 3.176927e-01 3.250890e-01 2.936355e-01 2.561767e-01 1.142397e-01
<GCONST> 8.363249e+01
<TRANSP> 5
 0.000000e+00 1.000000e+00 0.000000e+00 0.000000e+00 0.000000e+00
 0.000000e+00 9.852053e-01 1.479477e-02 0.000000e+00 0.000000e+00
 0.000000e+00 0.000000e+00 9.897797e-01 1.022029e-02 0.000000e+00
 0.000000e+00 0.000000e+00 0.000000e+00 9.939172e-01 6.082835e-03
 0.000000e+00 0.000000e+00 0.000000e+00 0.000000e+00 0.000000e+00
<ENDHMM>
~h "pr"
<BEGINHMM>
<NUMSTATES> 5
<STATE> 2
<NUMMIXES> 2
<MIXTURE> 1 5.029880e-01
<MEAN> 39
 -1.478687e+00 -7.174822e-02 2.034465e-01 3.253523e-01 2.971460e+00 -6.033009e-01 -1.627505e+00 -1.051866e+00 -2.544479e-01 -8.817200e-02 -5.103422e-02 9.756998e-01 9.838867e-01 -6.958655e-02 6.569737e-02 1.847050e-01 1.547209e-01 2.602137e-01 2.589981e-01 2.303351e-01 1.484571e-01 2.785510e-01 1.827152e-01 2.517356e-01 2.376396e-01 1.096588e-01 2.778311e-02 3.074833e-02 4.588889e-02 5.558933e-02 6.066839e-02 6.771208e-02 6.249215e-02 6.886010e-02 5.411454e-02 4.737790e-02 6.949100e-02 3.331283e-02 -1.081636e-02
<VARIANCE> 39
 1.953511e+01 1.797908e+01 2.318703e+01 2.983624e+01 7.264124e+01 4.380171e+01 5.283087e+01 5.062063e+01 3.961351e+01 3.338358e+01 5.254576e+01 4.760900e+01 1.166214e+01 1.151879e+00 8.378810e-01 1.158893e+00 1.605542e+00 1.724132e+00 2.203109e+00 2.277993e+00 2.725438e+00 2.492757e+00 2.139570e+00 2.736986e+00 2.353827e+00 7.505499e-01 1.632029e-01 1.402101e-01 2.033072e-01 2.865782e-01 3.156759e-01 4.065274e-01 4.203367e-01 4.747348e-01 4.723880e-01 4.031253e-01 5.189185e-01 4.161642e-01 1.068465e-01
<GCONST> 1.087863e+02
<MIXTURE> 2 4.970099e-01
<MEAN> 39
 -1.251444e+00 -9.907157e-02 1.691001e-01 2.787745e-01 2.731970e+00 -5.352463e-01 -1.814276e+00 -1.088271e+00 -9.800746e-02 3.390367e-03 1.409888e-02 7.376818e-01 1.271889e+00 -9.361245e-02 -1.703321e-01 -1.361358e-01 -1.906395e-01 -2.460269e-01 -2.230637e-01 -2.140388e-01 -2.635007e-01 -2.405913e-01 -2.809525e-01 -2.613975e-01 -1.152706e-01 5.820680e-02 1.900814e-02 -1.888993e-02 -6.133105e-02 -4.327034e-02 -6.330570e-02 -7.033951e-02 -6.750477e-02 -5.361843e-02 -6.128670e-02 -3.773331e-02 -7.134551e-02 -6.496876e-02 -2.835162e-02
<VARIANCE> 39
 1.888933e+01 1.743480e+01 2.233451e+01 2.891226e+01 6.620591e+01 4.363650e+01 5.281799e+01 4.866327e+01 4.075947e+01 3.350278e+01 5.161655e+01 4.718647e+01 1.131338e+01 9.651770e-01 8.603161e-01 1.198767e+00 1.658859e+00 1.797324e+00 2.209945e+00 2.470351e+00 2.685554e+00 2.477138e+00 2.176298e+00 2.845723e+00 2.311066e+00 6.937219e-01 1.569787e-01 1.434893e-01 2.046237e-01 2.882530e-01 3.238100e-01 3.979402e-01 4.572981e-01 4.737536e-01 4.870853e-01 3.881688e-01 5.241762e-01 4.257840e-01 9.899833e-02
<GCONST> 1.085037e+02
<STATE> 3
<NUMMIXES> 2
<MIXTURE> 1 4.996471e-01
<MEAN> 39
 -4.795283e+00 -8.533047e-01 1.936307e+00 -1.083087e-02 6.494452e-01 2.344851e+00 -1.533531e+00 -3.119109e+00 2.697502e+00 -3.752178e+00 1.214110e+00 6.391115e-01 3.819295e+00 7.926247e-02 1.128983e-01 1.830412e-01 1.611683e-01 2.450607e-01 2.241708e-01 2.731561e-01 2.854837e-01 2.463700e-01 2.429765e-01 1.928493e-01 1.889372e-01 -5.664890e-03 1.182376e-02 3.964728e-02 4.459132e-02 4.175950e-02 6.115096e-02 5.257202e-02 6.445128e-02 6.535847e-02 3.541901e-02 5.273523e-02 4.510581e-02 4.324966e-02 9.644870e-03
<VARIANCE> 39
 9.139222e+00 1.926176e+01 1.292680e+01 1.530553e+01 3.350823e+01 2.941310e+01 2.487978e+01 2.304244e+01 2.332602e+01 2.286310e+01 2.529497e+01 2.236745e+01 5.627104e+00 4.845949e-01 3.824322e-01 5.011501e-01 7.733958e-01 1.174308e+00 1.568981e+00 1.453995e+00 1.344130e+00 1.616821e+00 1.734724e+00 1.795516e+00 1.222857e+00 2.022469e-01 1.101379e-01 7.220598e-02 1.001267e-01 1.614354e-01 2.531966e-01 3.356306e-01 3.052035e-01 2.859337e-01 3.406878e-01 3.444773e-01 3.717974e-01 2.476730e-01 4.464990e-02
<GCONST> 8.709237e+01
<MIXTURE> 2 5.003496e-01
<MEAN> 39
 -4.565765e+00 -6.709251e-01 1.808403e+00 1.488362e-01 7.896027e-01 2.503973e+00 -1.453733e+00 -3.187619e+00 2.305099e+00 -3.853494e+00 1.215648e+00 5.826690e-01 3.831262e+00 2.207774e-03 -1.458728e-01 -1.863318e-01 -2.405191e-01 -2.377137e-01 -2.066686e-01 -2.781385e-01 -2.531927e-01 -2.068499e-01 -2.239611e-01 -2.541088e-01 -1.304399e-01 -8.243719e-02 -6.473871e-03 -3.369272e-02 -4.160972e-02 -5.035621e-02 -5.892806e-02 -6.676692e-02 -6.410040e-02 -4.211141e-02 -4.341326e-02 -3.743168e-02 -5.006505e-02 -5.106353e-02 -1.492018e-02
<VARIANCE> 39
 9.509737e+00 2.020452e+01 1.274888e+01 1.579813e+01 3.084051e+01 2.777835e+01 2.402302e+01 2.240434e+01 2.163456e+01 2.251621e+01 2.510451e+01 2.090684e+01 5.683128e+00 4.776859e-01 4.029666e-01 5.186192e-01 8.159108e-01 1.204068e+00 1.583515e+00 1.484595e+00 1.362735e+00 1.551617e+00 1.730025e+00 1.828354e+00 1.231316e+00 2.048832e-01 1.085936e-01 7.848742e-02 1.005064e-01 1.646056e-01 2.539096e-01 3.333237e-01 3.144755e-01 2.870553e-01 3.322290e-01 3.410439e-01 3.757265e-01 2.559787e-01 4.551810e-02
<GCONST> 8.717722e+01
<STATE> 4
<NUMMIXES> 2
<MIXTURE> 1 5.002783e-01
<MEAN> 39
 1.768997e+00 2.762642e-01 -7.430199e-01 -3.389890e-01 -9.486067e-01 -7.626150e-01 7.524503e-01 1.246289e+00 -8.150889e-01 1.092255e+00 -4.997268e-01 -3.543343e-01 -1.601344e+00 9.740989e-02 1.589012e-01 1.607171e-01 2.365833e-01 2.277960e-01 2.374187e-01 2.533385e-01 2.682500e-01 2.546417e-01 2.530238e-01 2.291671e-01 1.477567e-01 -9.198359e-03 1.792282e-02 3.842790e-02 5.339924e-02 6.099520e-02 6.609986e-02 7.018679e-02 7.878395e-02 7.134160e-02 7.526618e-02 7.297333e-02 5.974046e-02 5.115398e-02 1.204563e-02
<VARIANCE> 39
 2.460907e+01 1.994618e+01 3.017958e+01 4.224912e+01 3.229927e+01 3.831464e+01 3.093336e+01 3.776883e+01 4.323437e+01 4.208607e+01 3.737276e+01 4.024865e+01 1.684755e+01 3.680654e-01 4.485725e-01 6.281929e-01 9.376891e-01 1.060274e+00 1.396842e+00 1.406726e+00 1.564482e+00 1.618145e+00 1.620661e+00 1.522108e+00 1.354810e+00 2.099192e-01 6.219374e-02 8.122272e-02 1.191629e-01 1.722188e-01 2.109564e-01 2.786876e-01 2.879946e-01 3.021915e-01 3.174954e-01 3.272212e-01 3.027708e-01 2.617049e-01 3.334828e-02
<GCONST> 9.318279e+01
<MIXTURE> 2 4.997186e-01
<MEAN> 39
 1.946344e+00 2.648337e-01 -5.755063e-01 1.531516e-01 -8.526987e-01 -5.672982e-01 1.031299e+00 1.326594e+00 -7.482085e-01 1.429848e+00 -2.907623e-01 -4.467851e-01 -1.440024e+00 -1.932470e-02 -1.127470e-01 -2.004643e-01 -1.871731e-01 -2.468301e-01 -2.625418e-01 -2.552076e-01 -2.515068e-01 -2.885249e-01 -2.295130e-01 -2.075901e-01 -1.953694e-01 -5.945420e-02 -2.015319e-02 -3.917038e-02 -5.316276e-02 -5.667196e-02 -6.648340e-02 -6.921916e-02 -7.951207e-02 -7.640553e-02 -7.436036e-02 -7.481427e-02 -5.649177e-02 -5.401785e-02 -1.049843e-02
<VARIANCE> 39
 2.506576e+01 1.918811e+01 3.036771e+01 4.259126e+01 3.209612e+01 3.783232e+01 3.024363e+01 3.799762e+01 4.317453e+01 4.206597e+01 3.642076e+01 4.055051e+01 1.673284e+01 3.249612e-01 4.616042e-01 6.119835e-01 8.955529e-01 1.062769e+00 1.388549e+00 1.476705e+00 1.576656e+00 1.657190e+00 1.664878e+00 1.511939e+00 1.375991e+00 2.114623e-01 5.906305e-02 8.020338e-02 1.171196e-01 1.683300e-01 2.120037e-01 2.708856e-01 2.845308e-01 3.042161e-01 3.205186e-01 3.232587e-01 2.974928e-01 2.649980e-01 3.283389e-02
<GCONST> 9.290915e+01
<TRANSP> 5
 0.000000e+00 1.000000e+00 0.000000e+00 0.000000e+00 0.000000e+00
 0.000000e+00 9.818673e-01 1.813272e-02 0.000000e+00 0.000000e+00
 0.000000e+00 0.000000e+00 9.871696e-01 1.283040e-02 0.000000e+00
 0.000000e+00 0.000000e+00 0.000000e+00 9.957792e-01 4.220777e-03
 0.000000e+00 0.000000e+00 0.000000e+00 0.000000e+00 0.000000e+00
<ENDHMM>
~h "pw"
<BEGINHMM>
<NUMSTATES> 5
<STATE> 2
<NUMMIXES> 2
<MIXTURE> 1 4.983216e-01
<MEAN> 39
 -5.838622e-01 1.081709e+00 3.008040e-01 2.641961e-01 5.746254e-01 1.084275e+00 9.378191e-01 1.073716e+00 5.933034e-01 3.756845e-01 1.865857e-01 -2.704339e-02 -1.551999e+00 4.979196e-02 1.140256e-01 1.487938e-01 1.997178e-01 2.383837e-01 2.539086e-01 2.818978e-01 2.808867e-01 2.692814e-01 2.613680e-01 2.393246e-01 1.971407e-01 -1.598502e-02 8.181346e-03 2.121791e-02 3.438677e-02 3.875735e-02 3.970176e-02 4.100661e-02 3.860246e-02 5.215436e-02 3.786636e-02 3.870581e-02 3.793024e-02 2.804652e-02 8.546758e-03
<VARIANCE> 39
 1.456425e+01 1.824566e+01 1.028987e+01 1.063027e+01 1.357804e+01 1.515960e+01 1.606451e+01 1.764765e+01 1.607296e+01 1.494348e+01 1.445861e+01 1.252671e+01 1.788391e+01 5.177680e-01 6.630241e-01 6.360738e-01 8.313056e-01 1.033857e+00 1.277719e+00 1.352443e+00 1.434355e+00 1.467722e+00 1.370755e+00 1.393671e+00 1.228486e+00 4.516318e-01 8.709437e-02 1.189946e-01 1.301572e-01 1.698889e-01 2.172497e-01 2.713768e-01 2.860831e-01 3.059973e-01 3.163395e-01 2.917042e-01 3.027095e-01 2.563982e-01 6.981879e-02
<GCONST> 8.492140e+01
<MIXTURE> 2 5.016785e-01
<MEAN> 39
 -7.490171e-01 4.905146e-01 4.533783e-02 7.402834e-02 6.811602e-02 3.964407e-01 3.033803e-01 4.334703e-01 1.625742e-02 -3.583084e-02 -2.443255e-01 -2.459105e-01 -3.481412e-01 -5.495263e-02 -1.244059e-01 -1.430506e-01 -1.990534e-01 -2.388212e-01 -2.640301e-01 -2.779845e-01 -2.874456e-01 -2.686027e-01 -2.601995e-01 -2.349183e-01 -1.959265e-01 2.885196e-02 -7.748282e-03 -2.315280e-02 -3.843772e-02 -3.813061e-02 -4.193758e-02 -4.550148e-02 -4.144207e-02 -5.304756e-02 -4.118216e-02 -3.672864e-02 -3.925728e-02 -2.736624e-02 -4.202774e-03
<VARIANCE> 39
 1.519439e+01 1.889037e+01 1.043572e+01 1.113005e+01 1.444380e+01 1.686871e+01 1.660293e+01 1.852632e+01 1.610594e+01 1.509533e+01 1.452390e+01 1.304913e+01 2.029052e+01 5.853269e-01 7.680882e-01 7.069142e-01 8.667764e-01 1.123129e+00 1.364756e+00 1.400492e+00 1.518031e+00 1.499047e+00 1.434420e+00 1.458863e+00 1.237652e+00 6.111621e-01 9.318149e-02 1.292856e-01 1.321717e-01 1.782718e-01 2.292839e-01 2.906756e-01 3.012097e-01 3.142330e-01 3.182177e-01 2.988365e-01 3.068098e-01 2.601133e-01 8.561219e-02
<GCONST> 8.724863e+01
<STATE> 3
<NUMMIXES> 2
<MIXTURE> 1 5.026317e-01
<MEAN> 39
 8.188442e-01 -1.947791e+00 -5.073132e-01 -2.572164e-01 -2.612872e-01 -1.662140e+00 -1.684444e+00 -2.160910e+00 -1.039470e+00 -7.467561e-01 1.021189e-01 2.566948e-01 3.545476e+00 1.008951e-01 1.288378e-01 1.191611e-01 1.780410e-01 2.606992e-01 2.673763e-01 2.372631e-01 2.118463e-01 2.218223e-01 1.898976e-01 2.220341e-01 1.442543e-01 -1.512195e-01 7.227922e-03 4.269853e-02 3.475936e-02 3.822470e-02 2.658067e-02 4.032810e-02 5.097846e-02 6.327034e-02 5.182512e-02 5.775990e-02 1.919965e-02 2.626552e-02 -6.366149e-02
<VARIANCE> 39
 1.663189e+01 2.713610e+01 1.207062e+01 1.191029e+01 1.586498e+01 2.429274e+01 2.312792e+01 2.785893e+01 1.848263e+01 1.590691e+01 1.379002e+01 1.242815e+01 8.468953e+01 4.966362e-01 7.499380e-01 6.450472e-01 7.827114e-01 1.148357e+00 1.451725e+00 1.508898e+00 1.686282e+00 1.481371e+00 1.361387e+00 1.296633e+00 1.239127e+00 2.310016e+00 9.103265e-02 1.426556e-01 1.256507e-01 1.561754e-01 2.482417e-01 3.315391e-01 3.279607e-01 3.343691e-01 3.018126e-01 2.840682e-01 2.683737e-01 2.582144e-01 4.716552e-01
<GCONST> 9.337341e+01
<MIXTURE> 2 4.973681e-01
<MEAN> 39
 6.235905e-01 -3.355146e+00 -1.179732e+00 -1.010419e+00 -1.545223e+00 -3.499941e+00 -2.978704e+00 -3.520360e+00 -1.675401e+00 -1.216155e+00 -6.456010e-01 1.206651e-02 7.213164e+00 -1.049462e-01 -2.794633e-01 -1.546256e-01 -1.742532e-01 -2.985902e-01 -3.989996e-01 -3.569409e-01 -3.487737e-01 -2.935001e-01 -2.469960e-01 -2.282670e-01 -1.250531e-01 3.878127e-01 7.641944e-03 -2.539432e-02 -3.028136e-02 -3.442063e-02 -5.422878e-03 -7.717244e-03 -3.178210e-02 -4.559355e-02 -3.805141e-02 -5.119367e-02 -1.184947e-02 -3.251261e-02 1.977048e-02
<VARIANCE> 39
 1.778252e+01 2.677629e+01 1.340332e+01 1.311015e+01 1.781423e+01 2.585129e+01 2.306268e+01 2.671600e+01 1.841945e+01 1.636283e+01 1.489295e+01 1.319480e+01 7.558375e+01 7.798811e-01 1.369751e+00 8.003094e-01 9.261717e-01 1.655995e+00 2.210611e+00 1.796882e+00 1.858351e+00 1.516112e+00 1.479421e+00 1.364918e+00 1.333363e+00 5.619987e+00 1.238648e-01 1.925002e-01 1.482850e-01 1.803941e-01 3.283740e-01 4.052175e-01 3.396384e-01 3.695147e-01 3.258173e-01 3.006141e-01 2.913601e-01 2.852235e-01 6.315898e-01
<GCONST> 9.956458e+01
<STATE> 4
<NUMMIXES> 2
<MIXTURE> 1 5.022250e-01
<MEAN> 39
 3.411694e-01 7.184342e-01 2.835861e-01 2.116665e-01 3.676980e-01 8.710695e-01 7.210608e-01 8.500732e-01 4.712104e-01 4.563000e-01 2.968121e-01 1.088819e-01 -1.872983e+00 7.553697e-02 1.452930e-01 1.402065e-01 1.797819e-01 2.344874e-01 2.905350e-01 2.927464e-01 2.911587e-01 2.767870e-01 2.675909e-01 2.378871e-01 1.520473e-01 -8.853131e-02 6.206512e-03 2.534044e-02 3.299890e-02 3.816208e-02 3.440717e-02 3.801014e-02 4.322679e-02 4.881211e-02 4.967608e-02 3.746847e-02 2.809359e-02 2.648827e-02 2.912145e-03
<VARIANCE> 39
 1.435987e+01 1.835928e+01 1.014152e+01 1.058276e+01 1.295785e+01 1.770571e+01 1.658277e+01 1.956568e+01 1.678138e+01 1.517835e+01 1.353724e+01 1.259768e+01 2.441819e+01 4.662246e-01 6.602623e-01 6.069199e-01 7.844750e-01 1.018654e+00 1.291161e+00 1.326904e+00 1.448304e+00 1.434635e+00 1.405465e+00 1.326873e+00 1.220999e+00 5.562963e-01 8.077975e-02 1.184626e-01 1.189324e-01 1.599141e-01 2.137400e-01 2.768361e-01 2.793267e-01 3.016018e-01 3.067167e-01 3.028514e-01 2.788765e-01 2.547734e-01 9.682758e-02
<GCONST> 8.535568e+01
<MIXTURE> 2 4.977725e-01
<MEAN> 39
 -4.545692e-02 -2.490657e-01 -6.202806e-02 -8.245489e-02 -2.600948e-01 -3.925502e-01 -2.421196e-01 -2.638911e-01 -1.388608e-01 -1.693250e-01 -1.472781e-01 -4.250108e-02 3.151533e-01 -5.798955e-02 -1.241234e-01 -1.337941e-01 -1.841932e-01 -2.266875e-01 -2.593051e-01 -2.720371e-01 -2.662366e-01 -2.639844e-01 -2.581393e-01 -2.362718e-01 -1.605739e-01 2.683914e-02 -5.767383e-03 -2.723125e-02 -3.388293e-02 -4.063462e-02 -3.728145e-02 -4.023759e-02 -4.562007e-02 -5.281707e-02 -5.304871e-02 -3.885802e-02 -2.847903e-02 -2.673001e-02 -5.963014e-05
<VARIANCE> 39
 1.473785e+01 2.099075e+01 1.130944e+01 1.113449e+01 1.409505e+01 2.043479e+01 1.861164e+01 2.204501e+01 1.760847e+01 1.593384e+01 1.432464e+01 1.313524e+01 3.625107e+01 5.962780e-01 8.634699e-01 6.827647e-01 8.553798e-01 1.159335e+00 1.485664e+00 1.421932e+00 1.514916e+00 1.474333e+00 1.462138e+00 1.362639e+00 1.289147e+00 1.273454e+00 9.485782e-02 1.379666e-01 1.283520e-01 1.706830e-01 2.355929e-01 3.068042e-01 2.957862e-01 3.146213e-01 3.069960e-01 3.105218e-01 2.901693e-01 2.701153e-01 1.643584e-01
<GCONST> 9.021350e+01
<TRANSP> 5
 0.000000e+00 1.000000e+00 0.000000e+00 0.000000e+00 0.000000e+00
 0.000000e+00 9.940647e-01 5.935300e-03 0.000000e+00 0.000000e+00
 0.000000e+00 0.000000e+00 9.877973e-01 1.220273e-02 0.000000e+00
 0.000000e+00 0.000000e+00 0.000000e+00 9.972038e-01 2.796177e-03
 0.000000e+00 0.000000e+00 0.000000e+00 0.000000e+00 0.000000e+00
<ENDHMM>
~h "si"
<BEGINHMM>
<NUMSTATES> 5
<STATE> 2
<NUMMIXES> 2
<MIXTURE> 1 4.993793e-01
<MEAN> 39
 -2.559781e-01 3.169347e-01 4.534071e-01 5.318726e-01 3.657674e-01 1.025185e-01 2.290619e-01 -1.794783e-01 1.637443e-01 -5.018715e-02 -1.130027e-01 2.610565e-01 2.369588e-01 5.116440e-02 1.044096e-01 1.330354e-01 1.748369e-01 2.116537e-01 2.479022e-01 2.649307e-01 2.829425e-01 2.625713e-01 2.560408e-01 2.280538e-01 1.525533e-01 -2.409146e-02 1.663454e-02 2.431876e-02 3.387732e-02 4.222597e-02 4.404704e-02 4.591134e-02 4.662471e-02 4.704856e-02 4.717597e-02 4.054074e-02 3.788184e-02 2.544720e-02 4.520659e-03
<VARIANCE> 39
 1.406604e+01 1.162528e+01 1.062720e+01 1.268337e+01 1.601478e+01 1.694267e+01 1.664594e+01 1.922178e+01 1.648558e+01 1.571452e+01 1.501046e+01 1.353158e+01 1.665499e+01 3.107400e-01 4.363171e-01 5.317474e-01 7.396526e-01 9.644181e-01 1.160515e+00 1.289475e+00 1.345530e+00 1.371244e+00 1.370067e+00 1.321180e+00 1.165633e+00 2.500816e-01 5.092772e-02 8.081556e-02 1.047444e-01 1.487017e-01 1.989260e-01 2.397494e-01 2.690779e-01 2.793484e-01 2.845656e-01 2.862870e-01 2.745726e-01 2.401077e-01 3.901526e-02
<GCONST> 8.038512e+01
<MIXTURE> 2 5.006073e-01
<MEAN> 39
 -3.501493e-01 -2.234568e-01 6.741306e-02 9.661298e-02 -2.647116e-01 -5.982559e-01 -5.016831e-01 -8.391444e-01 -2.400008e-01 -4.147879e-01 -4.626190e-01 4.969975e-03 1.029607e+00 -6.263900e-02 -1.137261e-01 -1.529763e-01 -2.049223e-01 -2.348081e-01 -2.465314e-01 -2.471169e-01 -2.505724e-01 -2.484520e-01 -2.288147e-01 -2.129842e-01 -1.550993e-01 -1.998096e-02 -1.381924e-02 -2.191540e-02 -3.393810e-02 -4.162941e-02 -4.183604e-02 -4.117607e-02 -4.433241e-02 -4.466565e-02 -4.578780e-02 -3.808675e-02 -3.493132e-02 -2.494019e-02 -7.479857e-03
<VARIANCE> 39
 1.453153e+01 1.320828e+01 1.127942e+01 1.247449e+01 1.660847e+01 1.803060e+01 1.817676e+01 2.050477e+01 1.740574e+01 1.702619e+01 1.568878e+01 1.418395e+01 1.944624e+01 3.629326e-01 5.384098e-01 5.876644e-01 7.953554e-01 1.019131e+00 1.239886e+00 1.343981e+00 1.419340e+00 1.393236e+00 1.402424e+00 1.348940e+00 1.210557e+00 3.901067e-01 5.643269e-02 9.201488e-02 1.122354e-01 1.584798e-01 2.053422e-01 2.534039e-01 2.775845e-01 2.898594e-01 2.890789e-01 2.914550e-01 2.792177e-01 2.442267e-01 5.314463e-02
<GCONST> 8.341382e+01
<STATE> 3
<NUMMIXES> 2
<MIXTURE> 1 5.013444e-01
<MEAN> 39
 6.289021e-01 2.754070e-01 1.336011e-02 -3.168816e-02 2.521518e-01 5.877488e-01 2.571231e-01 6.593838e-01 1.396081e-01 2.562636e-01 3.059931e-01 -1.036155e-01 -1.022572e+00 7.015114e-02 1.251162e-01 1.546279e-01 1.930974e-01 2.274565e-01 2.486073e-01 2.607286e-01 2.727579e-01 2.710440e-01 2.609188e-01 2.318115e-01 1.635543e-01 2.223195e-02 1.574793e-02 2.320882e-02 3.038066e-02 3.422340e-02 3.746571e-02 3.781799e-02 3.834452e-02 3.860424e-02 4.106346e-02 3.684726e-02 3.319268e-02 2.424125e-02 1.194646e-02
<VARIANCE> 39
 4.031297e+00 4.374084e+00 6.280711e+00 8.053283e+00 1.142253e+01 1.249177e+01 1.336770e+01 1.483772e+01 1.438359e+01 1.439111e+01 1.349261e+01 1.210882e+01 2.706667e+00 1.401074e-01 2.618462e-01 4.353862e-01 6.354271e-01 8.709265e-01 1.038242e+00 1.171280e+00 1.297409e+00 1.319575e+00 1.348738e+00 1.261745e+00 1.119301e+00 5.277723e-02 2.575192e-02 5.292025e-02 9.030650e-02 1.335145e-01 1.839868e-01 2.206670e-01 2.507263e-01 2.780246e-01 2.827089e-01 2.907424e-01 2.692972e-01 2.334474e-01 8.609418e-03
<GCONST> 6.694917e+01
<MIXTURE> 2 4.986384e-01
<MEAN> 39
 6.787579e-01 1.082395e-01 -1.723440e-01 -3.146918e-01 -8.489827e-02 2.542771e-01 -1.298378e-01 2.924824e-01 -1.816292e-01 -4.679944e-02 -3.766572e-02 -3.624669e-01 -9.471678e-01 -7.179714e-02 -1.181687e-01 -1.686816e-01 -2.021934e-01 -2.316791e-01 -2.439569e-01 -2.586570e-01 -2.578701e-01 -2.688263e-01 -2.575853e-01 -2.255629e-01 -1.622985e-01 -4.265944e-02 -1.981183e-02 -2.480895e-02 -3.032908e-02 -3.404843e-02 -3.938206e-02 -4.261316e-02 -4.162792e-02 -4.301589e-02 -4.234632e-02 -3.849034e-02 -3.529637e-02 -2.346491e-02 -7.093019e-03
<VARIANCE> 39
 4.070776e+00 4.499439e+00 6.348957e+00 8.150801e+00 1.148692e+01 1.270651e+01 1.348830e+01 1.499176e+01 1.456655e+01 1.458109e+01 1.382924e+01 1.221285e+01 2.820544e+00 1.385016e-01 2.666355e-01 4.404720e-01 6.356331e-01 8.711133e-01 1.043520e+00 1.185950e+00 1.301083e+00 1.322487e+00 1.360294e+00 1.276973e+00 1.117854e+00 5.269628e-02 2.575903e-02 5.393099e-02 9.140819e-02 1.343644e-01 1.851163e-01 2.223778e-01 2.511834e-01 2.785669e-01 2.841186e-01 2.916058e-01 2.715449e-01 2.324963e-01 8.860310e-03
<GCONST> 6.730732e+01
<STATE> 4
<NUMMIXES> 2
<MIXTURE> 1 4.999487e-01
<MEAN> 39
 -1.417756e+00 -2.828340e-01 9.605695e-02 2.673599e-01 3.258795e-02 -5.089931e-01 3.049288e-01 -3.788278e-01 4.172179e-01 2.170618e-01 2.448148e-01 6.477207e-01 1.459373e+00 5.059390e-02 1.279611e-01 1.594307e-01 2.021554e-01 2.283296e-01 2.591138e-01 2.706369e-01 2.695284e-01 2.750522e-01 2.532195e-01 2.377368e-01 1.762200e-01 9.250069e-03 1.842495e-02 2.794139e-02 3.629367e-02 4.458002e-02 4.792927e-02 5.232217e-02 4.987827e-02 5.580456e-02 4.775156e-02 4.673308e-02 3.715134e-02 2.596099e-02 -6.855746e-03
<VARIANCE> 39
 1.704108e+01 1.575998e+01 1.072248e+01 1.349353e+01 1.671580e+01 1.831702e+01 1.863887e+01 2.224879e+01 1.879573e+01 1.696383e+01 1.643557e+01 1.550217e+01 2.670692e+01 4.774466e-01 5.387401e-01 5.999461e-01 8.097538e-01 1.037520e+00 1.261499e+00 1.392483e+00 1.520633e+00 1.481838e+00 1.466463e+00 1.366213e+00 1.256982e+00 5.222568e-01 7.930843e-02 1.002263e-01 1.168172e-01 1.645733e-01 2.122153e-01 2.600891e-01 2.894538e-01 3.168001e-01 3.099475e-01 3.025839e-01 2.838196e-01 2.568420e-01 8.777368e-02
<GCONST> 8.670266e+01
<MIXTURE> 2 5.000496e-01
<MEAN> 39
 -1.459467e+00 -9.199659e-01 -3.372164e-01 -1.242596e-01 -6.378466e-01 -1.206164e+00 -3.047023e-01 -9.552577e-01 -2.000566e-01 -1.940025e-01 -2.415684e-01 3.104837e-01 2.407890e+00 -8.814244e-02 -1.360445e-01 -1.494312e-01 -1.958240e-01 -2.380483e-01 -2.886677e-01 -2.858158e-01 -3.072316e-01 -2.682206e-01 -2.495449e-01 -2.313645e-01 -1.575854e-01 8.733872e-02 -1.310286e-02 -2.739984e-02 -3.450930e-02 -4.434546e-02 -4.626472e-02 -4.800713e-02 -4.775611e-02 -5.347668e-02 -4.703812e-02 -4.713853e-02 -3.662747e-02 -2.864684e-02 6.368117e-03
<VARIANCE> 39
 1.806907e+01 1.990160e+01 1.234208e+01 1.389057e+01 1.782337e+01 2.010309e+01 1.987243e+01 2.310966e+01 1.947919e+01 1.741800e+01 1.631215e+01 1.546865e+01 3.221581e+01 6.294175e-01 7.606801e-01 6.857889e-01 8.981466e-01 1.156803e+00 1.396955e+00 1.457423e+00 1.585856e+00 1.550484e+00 1.495183e+00 1.407643e+00 1.270209e+00 1.041009e+00 9.288911e-02 1.217668e-01 1.258111e-01 1.733587e-01 2.244495e-01 2.796705e-01 2.962856e-01 3.195564e-01 3.172959e-01 3.091677e-01 2.876767e-01 2.575148e-01 1.363106e-01
<GCONST> 9.075611e+01
<TRANSP> 5
 0.000000e+00 1.000000e+00 0.000000e+00 0.000000e+00 0.000000e+00
 0.000000e+00 9.859275e-01 1.407254e-02 0.000000e+00 0.000000e+00
 0.000000e+00 0.000000e+00 9.933946e-01 6.605439e-03 0.000000e+00
 0.000000e+00 0.000000e+00 0.000000e+00 9.814211e-01 1.857893e-02
 0.000000e+00 0.000000e+00 0.000000e+00 0.000000e+00 0.000000e+00
<ENDHMM>
~h "st"
<BEGINHMM>
<NUMSTATES> 5
<STATE> 2
<NUMMIXES> 2
<MIXTURE> 1 4.942612e-01
<MEAN> 39
 -7.095181e-01 -1.425340e+00 1.164743e-01 -7.300229e-01 -3.206176e-01 -1.943442e+00 -8.959155e-01 5.573604e-01 6.297544e-01 -1.115345e-01 -4.605601e-02 -1.094685e-01 3.321618e+00 2.005779e-02 -1.833267e-01 2.453915e-01 -5.780916e-02 2.883765e-02 6.304536e-02 2.523828e-01 2.605731e-01 2.865082e-01 2.445719e-01 2.365091e-01 1.467577e-01 4.679876e-01 5.733185e-02 1.247377e-01 2.337017e-02 1.106136e-01 1.039286e-01 1.665781e-01 1.305043e-01 6.803393e-02 6.100261e-02 3.099102e-02 3.672176e-02 2.627175e-02 -2.608700e-01
<VARIANCE> 39
 1.796842e+01 2.342744e+01 1.510233e+01 2.566166e+01 2.457493e+01 3.455093e+01 2.215126e+01 1.963847e+01 1.997262e+01 2.143118e+01 1.951220e+01 1.461773e+01 7.960321e+01 9.497558e-01 1.027100e+00 1.046122e+00 1.480112e+00 1.822839e+00 2.165230e+00 1.830880e+00 1.888146e+00 1.786559e+00 2.062460e+00 1.988775e+00 1.501768e+00 3.350823e+00 1.569757e-01 2.014020e-01 1.736946e-01 2.865040e-01 3.677249e-01 4.408317e-01 3.593262e-01 3.763658e-01 3.499355e-01 4.115609e-01 3.921341e-01 2.810076e-01 6.329778e-01
<GCONST> 1.043465e+02
<MIXTURE> 2 5.057406e-01
<MEAN> 39
 -9.261866e-01 -1.229740e+00 3.023265e-02 -1.120521e+00 -6.378220e-01 -2.168766e+00 -1.254136e+00 1.991383e-01 2.731842e-01 -7.642533e-01 -3.846751e-01 -5.478510e-01 3.747210e+00 -2.397838e-01 -5.194896e-01 8.089668e-02 -6.024815e-01 -5.138833e-01 -8.306541e-01 -4.962463e-01 -2.605829e-01 -1.785887e-01 -3.348054e-01 -2.337196e-01 -9.774607e-02 1.161728e+00 5.174048e-02 -1.434705e-03 -1.915400e-02 1.180466e-02 2.176398e-02 2.921224e-02 1.561248e-02 -4.113945e-02 -5.115619e-02 7.091640e-03 -4.567080e-02 -4.893728e-03 -7.655963e-02
<VARIANCE> 39
 1.705861e+01 2.435321e+01 1.679711e+01 2.543288e+01 2.503476e+01 3.387966e+01 2.347211e+01 2.099423e+01 2.062463e+01 2.001866e+01 2.034307e+01 1.555162e+01 7.998803e+01 1.316997e+00 1.629351e+00 1.224084e+00 2.024376e+00 2.356343e+00 2.978835e+00 2.225001e+00 2.177836e+00 1.920869e+00 2.114977e+00 2.081246e+00 1.712520e+00 5.544796e+00 1.665378e-01 2.174324e-01 2.106101e-01 3.148211e-01 3.791594e-01 4.465274e-01 3.900594e-01 4.113261e-01 3.587747e-01 4.030018e-01 3.860900e-01 3.032007e-01 7.183714e-01
<GCONST> 1.084047e+02
<STATE> 3
<NUMMIXES> 2
<MIXTURE> 1 5.032468e-01
<MEAN> 39
 1.791199e-01 1.925046e-01 -2.166033e-02 2.773952e-01 3.121769e-01 3.591631e-01 2.280479e-01 2.427076e-01 1.990397e-01 2.945139e-01 2.058271e-01 1.255752e-01 -5.285974e-01 5.835825e-02 1.246234e-01 1.193447e-01 2.012968e-01 2.408109e-01 2.983349e-01 3.032632e-01 2.803780e-01 2.747478e-01 2.847520e-01 2.537208e-01 1.727125e-01 -1.180361e-01 1.971740e-02 3.043632e-02 2.830118e-02 5.357861e-02 5.172753e-02 5.918843e-02 5.351007e-02 4.272711e-02 3.718943e-02 3.473312e-02 3.323865e-02 2.132174e-02 -4.224066e-02
<VARIANCE> 39
 1.423654e+01 1.387570e+01 1.170744e+01 1.895820e+01 1.773496e+01 2.064365e+01 1.774654e+01 1.809731e+01 1.763770e+01 1.676745e+01 1.489188e+01 1.370373e+01 4.101584e+01 4.907761e-01 5.439669e-01 6.629603e-01 9.607165e-01 1.103458e+00 1.306323e+00 1.386787e+00 1.464290e+00 1.460044e+00 1.422842e+00 1.429336e+00 1.279573e+00 1.142486e+00 8.549582e-02 1.050787e-01 1.301649e-01 2.076208e-01 2.420189e-01 2.851798e-01 3.012263e-01 3.160549e-01 3.064424e-01 3.069983e-01 3.074912e-01 2.727324e-01 2.108144e-01
<GCONST> 8.978536e+01
<MIXTURE> 2 4.967482e-01
<MEAN> 39
 1.588741e-02 -1.907419e-01 1.508265e-01 -3.835269e-01 -3.046479e-01 -3.836044e-01 -3.484985e-01 -3.305210e-01 -2.818290e-01 -2.801901e-01 -2.058278e-01 -1.600890e-01 6.531143e-01 -6.703737e-02 -1.108038e-01 -1.138170e-01 -2.082766e-01 -2.458002e-01 -2.882735e-01 -3.020700e-01 -2.865912e-01 -2.843980e-01 -2.931618e-01 -2.627926e-01 -1.726446e-01 8.048977e-02 -1.985605e-02 -2.919796e-02 -3.224081e-02 -5.080778e-02 -5.224932e-02 -6.017245e-02 -5.576511e-02 -4.461445e-02 -3.975818e-02 -3.565099e-02 -3.378998e-02 -2.212373e-02 3.948471e-02
<VARIANCE> 39
 1.436127e+01 1.480117e+01 1.230618e+01 1.966821e+01 1.868011e+01 2.254438e+01 1.884067e+01 1.878979e+01 1.842249e+01 1.788256e+01 1.550404e+01 1.415121e+01 4.412539e+01 6.972709e-01 7.698545e-01 7.550269e-01 1.331346e+00 1.433604e+00 1.633974e+00 1.552843e+00 1.574134e+00 1.539900e+00 1.566092e+00 1.486066e+00 1.336206e+00 2.275209e+00 1.017151e-01 1.164869e-01 1.420106e-01 2.264435e-01 2.659000e-01 3.141270e-01 3.224002e-01 3.352927e-01 3.321949e-01 3.352275e-01 3.225962e-01 2.762612e-01 2.632205e-01
<GCONST> 9.440209e+01
<STATE> 4
<NUMMIXES> 2
<MIXTURE> 1 5.002401e-01
<MEAN> 39
 -5.240079e-02 2.827699e-01 -1.789821e-02 4.417832e-01 3.513369e-01 5.376757e-01 4.762777e-01 2.704939e-01 2.280317e-01 2.729579e-01 2.662424e-01 2.579482e-01 -7.598276e-01 5.905609e-02 1.361707e-01 1.332122e-01 2.211756e-01 2.695207e-01 3.128901e-01 2.806032e-01 2.650599e-01 2.718293e-01 2.765120e-01 2.410536e-01 1.690174e-01 -8.690690e-02 9.675583e-03 2.146968e-02 3.122502e-02 3.618320e-02 3.789669e-02 4.051322e-02 4.315959e-02 4.230263e-02 4.257145e-02 4.220777e-02 3.291415e-02 1.853759e-02 3.925462e-03
<VARIANCE> 39
 7.066636e+00 7.464913e+00 8.268683e+00 1.308054e+01 1.450825e+01 1.752262e+01 1.588031e+01 1.640803e+01 1.545326e+01 1.487550e+01 1.346192e+01 1.241503e+01 1.173777e+01 3.082007e-01 4.228137e-01 5.615101e-01 8.476402e-01 1.018832e+00 1.240860e+00 1.302215e+00 1.412793e+00 1.415296e+00 1.413606e+00 1.320551e+00 1.194275e+00 3.401281e-01 5.183631e-02 7.953668e-02 1.120296e-01 1.680229e-01 2.151945e-01 2.644069e-01 2.746828e-01 2.961332e-01 3.029819e-01 3.061491e-01 2.795440e-01 2.530248e-01 5.151135e-02
<GCONST> 7.974906e+01
<MIXTURE> 2 4.997574e-01
<MEAN> 39
 -3.199131e-02 -6.520091e-02 -1.392557e-01 -1.712421e-01 -2.839844e-01 -1.706250e-01 -1.638321e-01 -2.387300e-01 -2.135203e-01 -2.195319e-01 -2.330476e-01 -1.656463e-01 3.457832e-02 -4.120207e-02 -9.289291e-02 -1.629245e-01 -1.602101e-01 -2.191719e-01 -2.286617e-01 -2.411009e-01 -2.676319e-01 -2.755959e-01 -2.663640e-01 -2.392567e-01 -1.633326e-01 -3.447611e-02 -1.087522e-02 -2.514207e-02 -3.224929e-02 -4.299838e-02 -4.341890e-02 -4.225089e-02 -4.648079e-02 -3.970894e-02 -3.945981e-02 -3.868568e-02 -3.058868e-02 -1.726808e-02 4.603671e-03
<VARIANCE> 39
 7.786797e+00 8.287524e+00 8.853916e+00 1.399712e+01 1.551104e+01 1.869784e+01 1.683797e+01 1.717160e+01 1.571576e+01 1.516781e+01 1.386621e+01 1.247377e+01 1.363395e+01 3.829504e-01 5.383726e-01 6.115450e-01 9.940305e-01 1.150692e+00 1.399961e+00 1.396158e+00 1.451340e+00 1.458679e+00 1.428692e+00 1.318643e+00 1.226238e+00 5.657158e-01 6.152457e-02 9.339238e-02 1.191530e-01 1.826965e-01 2.260010e-01 2.755556e-01 2.839791e-01 3.031544e-01 3.084530e-01 3.044808e-01 2.790483e-01 2.510334e-01 7.145428e-02
<GCONST> 8.311418e+01
<TRANSP> 5
 0.000000e+00 1.000000e+00 0.000000e+00 0.000000e+00 0.000000e+00
 0.000000e+00 8.900155e-01 1.099844e-01 0.000000e+00 0.000000e+00
 0.000000e+00 0.000000e+00 9.918447e-01 8.155324e-03 0.000000e+00
 0.000000e+00 0.000000e+00 0.000000e+00 9.907731e-01 9.226874e-03
 0.000000e+00 0.000000e+00 0.000000e+00 0.000000e+00 0.000000e+00
<ENDHMM>
~h "spe"
<BEGINHMM>
<NUMSTATES> 5
<STATE> 2
<NUMMIXES> 2
<MIXTURE> 1 4.926766e-01
<MEAN> 39
 -9.997750e-01 1.118406e+00 6.849648e-01 1.801019e-01 3.781013e-01 4.220507e-01 1.244973e+00 7.788564e-01 -1.623843e-01 6.910129e-01 1.073517e+00 3.850682e-01 2.928129e-01 1.473060e-02 -9.028529e-02 2.113800e-01 2.597787e-02 6.788816e-02 1.498826e-01 1.581733e-01 2.545791e-01 3.447715e-01 2.851679e-01 1.851258e-01 8.613802e-02 1.942828e-01 2.196455e-02 5.472540e-03 2.393467e-02 5.029944e-02 2.989929e-02 3.964518e-02 1.734544e-02 3.876045e-02 4.738167e-02 5.058309e-02 1.014112e-02 3.410351e-02 -2.136824e-03
<VARIANCE> 39
 3.292891e+01 2.872707e+01 6.747890e+01 7.708192e+01 4.708276e+01 5.560698e+01 4.420761e+01 4.169241e+01 3.366035e+01 2.843692e+01 3.126132e+01 2.749259e+01 3.968365e+01 7.547718e-01 1.249533e+00 1.549946e+00 1.921471e+00 2.239602e+00 2.090795e+00 2.097334e+00 2.659827e+00 2.308843e+00 1.942254e+00 2.013858e+00 1.794595e+00 6.669791e-01 1.105732e-01 1.693571e-01 2.158210e-01 2.860502e-01 3.506321e-01 3.890294e-01 3.920067e-01 4.451025e-01 4.189910e-01 3.518330e-01 3.749370e-01 3.407348e-01 7.056327e-02
<GCONST> 1.093285e+02
<MIXTURE> 2 5.073237e-01
<MEAN> 39
 5.244375e-01 -6.242573e-01 -1.001774e-01 -2.070529e+00 -8.573568e-01 -5.348065e-01 -9.177539e-01 -9.016916e-02 -1.015300e-01 -1.677229e-01 -8.282663e-01 -4.333547e-01 1.099327e+00 6.804866e-02 -1.759494e-01 -3.437203e-02 -2.305142e-01 -2.209662e-01 -2.491181e-01 -3.135302e-01 -2.162918e-01 -2.761286e-01 -1.369017e-01 -2.286487e-01 -1.563956e-01 2.089598e-01 -3.309574e-02 -2.357347e-02 -2.190407e-02 -1.488345e-02 -3.324619e-02 -4.843742e-02 -2.065186e-02 -5.513264e-02 -5.137595e-02 -5.897561e-02 -3.391236e-02 -1.795791e-02 -9.465070e-03
<VARIANCE> 39
 2.680379e+01 3.608693e+01 6.285809e+01 5.903674e+01 4.147677e+01 5.035411e+01 4.837068e+01 6.128667e+01 4.050106e+01 3.789177e+01 3.410566e+01 3.029718e+01 2.462411e+01 9.281490e-01 1.394894e+00 1.684305e+00 2.078369e+00 2.360603e+00 2.319443e+00 2.525974e+00 2.847997e+00 3.025061e+00 2.415641e+00 2.408053e+00 2.054727e+00 6.754729e-01 1.131578e-01 1.950879e-01 2.313000e-01 3.392960e-01 3.724165e-01 4.190038e-01 4.046991e-01 5.106431e-01 5.272642e-01 4.544431e-01 4.495132e-01 3.949037e-01 7.233085e-02
<GCONST> 1.126934e+02
<STATE> 3
<NUMMIXES> 2
<MIXTURE> 1 5.063148e-01
<MEAN> 39
 2.368831e-01 -6.356962e-01 1.134616e+00 -1.099653e+00 -9.959071e-01 -8.438473e-01 -1.863473e+00 -8.655272e-01 -1.068191e+00 -4.224193e-01 -7.562448e-02 -4.328355e-01 2.642926e+00 7.925739e-04 1.167971e-01 1.053615e-01 1.731330e-01 1.932764e-01 2.046150e-01 2.540812e-01 2.474830e-01 2.305244e-01 2.217795e-01 2.020119e-01 1.557819e-01 9.899117e-03 2.310857e-02 4.036528e-02 3.342427e-02 5.954361e-02 7.336990e-02 7.145612e-02 7.442828e-02 6.581967e-02 5.530722e-02 3.137649e-02 3.433658e-02 2.898226e-02 6.485552e-04
<VARIANCE> 39
 1.934372e+01 3.266673e+01 4.945213e+01 3.071779e+01 5.539659e+01 4.132448e+01 2.404973e+01 3.901394e+01 2.623045e+01 2.868752e+01 3.139503e+01 2.688942e+01 1.126195e+01 6.043121e-01 9.130796e-01 1.106544e+00 1.272116e+00 1.801508e+00 1.777623e+00 1.498380e+00 1.985267e+00 1.787212e+00 1.803762e+00 1.644971e+00 1.660387e+00 2.378675e-01 7.945208e-02 1.261175e-01 1.593541e-01 1.992010e-01 3.209969e-01 3.136269e-01 2.946304e-01 3.724428e-01 3.543284e-01 3.692995e-01 3.104333e-01 3.025871e-01 3.001820e-02
<GCONST> 9.809205e+01
<MIXTURE> 2 4.936855e-01
<MEAN> 39
 7.821574e-01 -9.853273e-01 1.298466e+00 -1.173677e+00 -7.531776e-01 -4.968040e-01 -2.559940e+00 -1.230909e+00 -1.777544e+00 -1.211450e+00 -1.073281e+00 -1.337802e+00 2.923057e+00 -6.016671e-02 -1.657895e-02 -1.499574e-01 -6.942031e-02 -1.437475e-01 -2.496282e-01 -2.514183e-01 -3.102812e-01 -2.917238e-01 -2.930360e-01 -2.283183e-01 -1.668968e-01 -8.681089e-02 -2.674008e-02 -2.537396e-02 -4.884848e-02 -5.451072e-02 -6.214355e-02 -6.210480e-02 -5.009380e-02 -5.662958e-02 -4.676795e-02 -2.362261e-02 -2.682640e-02 -2.965302e-02 -1.931249e-02
<VARIANCE> 39
 1.817651e+01 3.208288e+01 5.368730e+01 2.844510e+01 5.598110e+01 4.316326e+01 2.584827e+01 3.940538e+01 2.968913e+01 2.891450e+01 3.191737e+01 3.001248e+01 1.136388e+01 5.753674e-01 9.616827e-01 1.095277e+00 1.148999e+00 1.969983e+00 1.662869e+00 1.523634e+00 1.932584e+00 1.718739e+00 1.797836e+00 1.631423e+00 1.606288e+00 2.480527e-01 6.718130e-02 1.228162e-01 1.602702e-01 2.034877e-01 2.996503e-01 3.131955e-01 2.995519e-01 3.650483e-01 3.472274e-01 3.561698e-01 3.197831e-01 2.869435e-01 2.703740e-02
<GCONST> 9.785636e+01
<STATE> 4
<NUMMIXES> 2
<MIXTURE> 1 5.005718e-01
<MEAN> 39
 -4.908098e-01 4.808805e-01 -6.509325e-01 8.032496e-01 3.721691e-01 3.328846e-01 1.279297e+00 4.567762e-01 7.190396e-01 5.775178e-01 6.019172e-01 7.983096e-01 -1.485141e+00 5.080863e-02 8.150340e-02 1.294107e-01 1.593681e-01 1.646275e-01 2.256583e-01 2.467370e-01 2.437104e-01 2.713662e-01 2.575989e-01 2.457493e-01 1.827517e-01 1.250562e-02 2.013871e-02 2.511810e-02 4.003149e-02 4.295936e-02 5.951452e-02 5.900837e-02 5.123650e-02 5.525149e-02 5.430392e-02 4.059619e-02 4.233531e-02 2.549848e-02 1.325253e-02
<VARIANCE> 39
 1.210747e+01 1.812030e+01 2.828843e+01 1.998701e+01 3.701913e+01 3.023569e+01 2.960426e+01 2.682896e+01 2.514552e+01 2.304698e+01 2.473108e+01 2.185518e+01 1.316454e+01 3.160345e-01 5.835814e-01 7.847052e-01 9.132749e-01 1.342291e+00 1.414860e+00 1.456718e+00 1.592402e+00 1.636928e+00 1.564968e+00 1.567847e+00 1.453043e+00 1.909315e-01 4.512942e-02 8.992373e-02 1.239303e-01 1.601263e-01 2.276932e-01 2.556820e-01 2.807896e-01 3.182106e-01 3.236966e-01 3.114937e-01 3.078345e-01 2.843607e-01 2.132944e-02
<GCONST> 8.863979e+01
<MIXTURE> 2 4.994290e-01
<MEAN> 39
 2.465280e-01 -5.703912e-02 -1.519524e-01 1.263186e-01 2.176102e-01 8.676199e-02 5.540583e-03 8.303742e-02 1.654163e-01 -1.571514e-01 -2.901148e-01 -2.639275e-01 -3.638895e-01 -5.136269e-02 -8.290818e-02 -1.537820e-01 -1.368105e-01 -1.364889e-01 -1.898239e-01 -2.151825e-01 -2.245138e-01 -2.546384e-01 -2.429469e-01 -2.311796e-01 -1.674287e-01 -5.646370e-02 -2.023073e-02 -2.567715e-02 -3.841212e-02 -4.342862e-02 -5.968319e-02 -5.708649e-02 -5.283414e-02 -5.691910e-02 -5.737238e-02 -4.098091e-02 -4.346288e-02 -2.508109e-02 -1.261437e-02
<VARIANCE> 39
 1.193335e+01 2.134020e+01 3.074822e+01 2.234381e+01 4.071557e+01 3.122425e+01 3.448662e+01 2.854031e+01 2.683879e+01 2.583113e+01 2.774078e+01 2.495489e+01 1.477709e+01 3.086823e-01 6.120424e-01 7.807599e-01 9.798925e-01 1.362313e+00 1.407401e+00 1.518313e+00 1.621857e+00 1.628679e+00 1.573084e+00 1.598645e+00 1.442149e+00 2.221332e-01 4.213502e-02 8.527367e-02 1.217615e-01 1.602299e-01 2.192149e-01 2.564990e-01 2.777430e-01 3.066434e-01 3.200515e-01 3.125819e-01 3.074782e-01 2.776241e-01 2.126227e-02
<GCONST> 8.993234e+01
<TRANSP> 5
 0.000000e+00 1.000000e+00 0.000000e+00 0.000000e+00 0.000000e+00
 0.000000e+00 9.714801e-01 2.851992e-02 0.000000e+00 0.000000e+00
 0.000000e+00 0.000000e+00 9.877150e-01 1.228500e-02 0.000000e+00
 0.000000e+00 0.000000e+00 0.000000e+00 9.963142e-01 3.685804e-03
 0.000000e+00 0.000000e+00 0.000000e+00 0.000000e+00 0.000000e+00
<ENDHMM>
