~o
<STREAMINFO> 1 39
<VECSIZE> 39<NULLD><MFCC_D_A_0><DIAGC>
~h "ap"
<BEGINHMM>
<NUMSTATES> 5
<STATE> 2
<MEAN> 39
 -1.422692e+01 -9.076380e+00 -2.529772e+00 7.932586e-01 -9.445307e-01 -3.894804e+00 2.712042e+00 -1.811599e+00 -1.550900e+00 -1.003754e+00 3.530487e-01 -9.377837e-01 6.242607e+01 -1.014930e-01 -2.602429e-01 -1.502149e-01 -3.661747e-02 -1.039527e-01 -1.802378e-01 -7.338185e-02 -9.095698e-02 -9.896240e-02 -6.476115e-02 -2.798835e-02 -3.166300e-02 4.697262e-01 3.162810e-02 1.839631e-02 2.885822e-03 -1.586006e-02 2.525659e-02 3.726368e-02 2.010949e-02 6.069382e-03 6.929155e-03 1.416509e-02 1.782105e-03 -1.243474e-02 -6.799114e-02
<VARIANCE> 39
 3.025187e+01 4.014383e+01 2.529427e+01 2.156639e+01 3.068267e+01 4.859899e+01 2.453737e+01 2.377169e+01 2.207914e+01 2.086879e+01 1.965862e+01 1.625823e+01 1.148210e+02 1.905624e+00 2.012098e+00 1.063928e+00 1.196625e+00 2.210967e+00 3.074758e+00 1.734675e+00 1.603823e+00 1.688134e+00 1.779542e+00 1.643104e+00 1.401066e+00 8.596946e+00 2.924487e-01 2.828405e-01 1.560081e-01 2.183180e-01 3.922224e-01 5.654358e-01 3.126566e-01 2.905936e-01 3.197886e-01 3.570731e-01 3.199221e-01 2.814623e-01 1.271474e+00
<GCONST> 1.098971e+02
<STATE> 3
<MEAN> 39
 -1.086664e+01 -1.668380e+01 -1.004893e+01 2.001786e+00 1.151647e-02 -9.021969e+00 4.996886e-01 -2.512180e+00 -5.994349e+00 -3.787589e+00 5.200157e-01 -1.575443e+00 6.960871e+01 1.132898e-01 5.239316e-02 6.980675e-02 6.144473e-02 1.242292e-01 8.826359e-02 6.081709e-02 5.991836e-03 3.245685e-03 1.212676e-02 3.404237e-02 5.867554e-03 -3.343618e-01 -7.788846e-04 1.445151e-02 1.424347e-02 1.630297e-02 6.542489e-03 8.099128e-04 1.267443e-03 1.245560e-02 7.580530e-03 5.626771e-03 2.372445e-03 1.032045e-02 -1.171800e-02
<VARIANCE> 39
 1.316383e+01 1.757955e+01 1.827173e+01 2.301477e+01 3.116884e+01 2.412663e+01 2.730675e+01 2.222295e+01 2.368879e+01 2.192857e+01 1.732713e+01 1.563750e+01 6.907339e+01 5.235339e-01 4.866413e-01 6.018881e-01 8.930427e-01 1.615604e+00 1.614080e+00 1.213413e+00 1.182910e+00 1.588553e+00 1.499916e+00 1.290143e+00 1.685445e+00 3.635449e+00 8.855136e-02 8.157338e-02 1.034139e-01 1.648061e-01 3.070032e-01 3.273809e-01 2.336623e-01 2.231968e-01 3.210973e-01 3.097828e-01 2.520202e-01 3.803048e-01 5.667686e-01
<GCONST> 9.507702e+01
<STATE> 4
<MEAN> 39
 -1.049048e+01 -1.028103e+01 -4.921669e+00 8.230429e-01 5.106828e-01 -4.026386e+00 2.470443e+00 -2.642827e+00 -3.491682e+00 -5.285248e-01 7.652792e-01 -1.411684e+00 6.016084e+01 1.166390e-02 2.238427e-02 1.283390e-02 5.525010e-03 -1.917096e-03 1.188491e-02 3.082172e-03 1.476621e-02 1.293118e-02 8.095951e-03 3.239360e-04 -1.980775e-03 -3.725816e-02 -9.935760e-04 -8.027691e-04 -1.515495e-03 -1.744266e-03 -2.452388e-03 -2.385518e-03 -1.588119e-03 -3.236725e-04 -2.049743e-03 -1.351946e-03 -1.090679e-03 -7.154589e-04 2.172608e-03
<VARIANCE> 39
 2.484818e+01 5.225968e+01 2.600643e+01 2.474704e+01 3.607903e+01 3.563247e+01 2.570105e+01 2.785089e+01 2.332480e+01 2.016266e+01 1.711434e+01 1.446539e+01 1.275817e+02 9.253426e-01 1.240071e+00 7.765129e-01 9.215678e-01 1.564912e+00 1.857533e+00 1.375239e+00 1.474457e+00 1.515580e+00 1.505209e+00 1.361195e+00 1.220203e+00 5.264365e+00 1.444841e-01 1.897004e-01 1.298762e-01 1.725015e-01 2.873450e-01 3.556694e-01 2.609563e-01 2.757735e-01 3.030797e-01 3.101636e-01 2.711499e-01 2.497739e-01 7.811450e-01
<GCONST> 1.025179e+02
<TRANSP> 5
 0.000000e+00 1.000000e+00 0.000000e+00 0.000000e+00 0.000000e+00
 0.000000e+00 9.738791e-01 2.612095e-02 0.000000e+00 0.000000e+00
 0.000000e+00 0.000000e+00 9.843371e-01 1.566288e-02 0.000000e+00
 0.000000e+00 0.000000e+00 0.000000e+00 9.945648e-01 5.435179e-03
 0.000000e+00 0.000000e+00 0.000000e+00 0.000000e+00 0.000000e+00
<ENDHMM>
~h "cl"
<BEGINHMM>
<NUMSTATES> 5
<STATE> 2
<MEAN> 39
 -1.172632e+01 -1.089211e+00 -1.630709e+00 -2.817573e+00 -7.344096e-01 5.744579e+00 3.339693e+00 -4.337997e-01 2.336241e+00 -1.788391e-01 -1.975714e+00 9.931648e-01 5.423719e+01 -2.223732e-01 4.028025e-02 1.793358e-02 -7.121627e-03 -8.319628e-02 7.316688e-02 -4.560634e-02 -1.044642e-01 6.526437e-02 -7.099541e-03 -8.647433e-02 5.181029e-02 1.724171e-01 -4.410196e-02 1.842094e-03 1.332795e-02 -7.397550e-03 -1.757007e-02 3.443611e-02 -1.108497e-02 -2.620617e-02 2.213684e-02 -8.204953e-03 -3.671670e-02 2.305635e-02 2.778957e-02
<VARIANCE> 39
 3.660650e+01 2.927279e+01 2.558114e+01 1.407208e+01 1.836670e+01 4.744921e+01 2.095062e+01 2.516150e+01 3.116651e+01 2.208464e+01 2.668232e+01 2.406013e+01 4.783548e+01 2.136163e+00 8.434615e-01 6.994739e-01 8.630488e-01 1.372832e+00 2.102888e+00 1.713002e+00 1.935334e+00 2.153484e+00 1.786886e+00 1.835148e+00 1.695232e+00 1.834005e+00 2.734140e-01 1.238485e-01 1.148295e-01 1.529954e-01 2.374144e-01 3.638462e-01 3.071434e-01 3.486711e-01 3.807576e-01 3.463174e-01 3.349183e-01 2.900245e-01 2.449207e-01
<GCONST> 1.020015e+02
<STATE> 3
<MEAN> 39
 -1.968022e+01 2.825042e+00 -1.415237e-01 -5.363409e+00 -4.240190e+00 1.211028e+01 5.896624e-01 -3.661001e+00 7.636527e+00 -3.579810e+00 -3.434414e+00 5.380910e+00 5.881733e+01 1.986283e-02 -5.182723e-03 -7.100432e-03 4.864162e-03 3.551863e-03 -8.017282e-04 -1.383901e-03 -7.249634e-03 -7.029959e-03 -3.240504e-03 1.406003e-03 -1.511669e-03 -1.002927e-02 1.201712e-02 -2.495777e-03 -1.033626e-03 3.603086e-05 3.585212e-03 -7.428621e-03 9.393957e-04 4.156054e-03 -5.898413e-03 4.041666e-03 4.534564e-03 -4.330697e-03 -8.038121e-03
<VARIANCE> 39
 5.097805e+01 9.769578e+00 1.970933e+01 1.257198e+01 1.743905e+01 3.422844e+01 2.563690e+01 2.219268e+01 2.628503e+01 2.029593e+01 1.926438e+01 1.995958e+01 2.071664e+01 1.846269e+00 4.902876e-01 7.697029e-01 9.158393e-01 1.245993e+00 2.037735e+00 1.862498e+00 1.763636e+00 1.793523e+00 1.642098e+00 1.585667e+00 1.623219e+00 9.859982e-01 3.297980e-01 8.778936e-02 1.436248e-01 1.801042e-01 2.382300e-01 3.870347e-01 3.632977e-01 3.473272e-01 3.529568e-01 3.305482e-01 3.130318e-01 3.130498e-01 1.771032e-01
<GCONST> 9.722868e+01
<STATE> 4
<MEAN> 39
 -2.211370e+01 1.046556e+00 6.371965e+00 -2.983614e+00 -6.573081e+00 1.050877e+01 1.613808e+00 -6.743433e+00 2.857987e+00 4.447728e+00 -1.156422e+01 4.818923e+00 5.760843e+01 4.933067e-02 -5.004610e-03 6.932735e-03 -1.237996e-02 3.728890e-03 -1.007713e-02 -9.180590e-03 2.273749e-04 -4.022499e-04 -6.287482e-03 9.782891e-03 -1.166434e-03 -3.789318e-02 2.687885e-03 1.006355e-03 -2.331707e-03 4.440586e-04 1.722587e-03 -4.713748e-03 -8.319304e-04 3.672927e-03 -1.654385e-03 -3.456354e-04 3.587920e-03 -2.092595e-03 -2.673216e-03
<VARIANCE> 39
 4.081116e+01 8.831869e+00 1.570174e+01 1.684743e+01 2.686691e+01 3.015196e+01 2.937027e+01 4.654633e+01 3.432024e+01 2.927609e+01 2.898587e+01 2.990820e+01 3.492265e+01 1.333118e+00 5.218274e-01 1.006263e+00 9.788343e-01 1.317337e+00 2.066208e+00 1.657964e+00 2.530292e+00 2.611849e+00 1.920895e+00 1.694526e+00 1.839072e+00 1.298751e+00 2.476015e-01 1.000274e-01 1.968431e-01 1.972549e-01 2.492916e-01 3.993900e-01 3.202458e-01 4.652128e-01 5.151740e-01 3.795210e-01 3.364409e-01 3.656795e-01 2.443062e-01
<GCONST> 1.030643e+02
<TRANSP> 5
 0.000000e+00 1.000000e+00 0.000000e+00 0.000000e+00 0.000000e+00
 0.000000e+00 9.527246e-01 4.727540e-02 0.000000e+00 0.000000e+00
 0.000000e+00 0.000000e+00 9.919203e-01 8.079691e-03 0.000000e+00
 0.000000e+00 0.000000e+00 0.000000e+00 9.936433e-01 6.356678e-03
 0.000000e+00 0.000000e+00 0.000000e+00 0.000000e+00 0.000000e+00
<ENDHMM>
~h "cm"
<BEGINHMM>
<NUMSTATES> 5
<STATE> 2
<MEAN> 39
 -9.090635e+00 -1.061392e+00 -2.659717e+00 -4.391150e+00 -8.661684e-01 -9.762673e-01 -1.605155e+00 -8.962988e-01 -2.643181e+00 -9.170927e-01 1.040598e-01 -2.231537e+00 6.165895e+01 5.724277e-02 -2.421630e-02 -1.956054e-02 -3.950271e-02 -4.178207e-02 -5.467638e-02 -6.854727e-02 -7.208513e-02 -5.203908e-02 -3.448232e-02 -6.199955e-02 -3.591208e-03 3.569003e-01 3.080461e-03 5.128584e-03 1.131549e-04 9.204789e-03 9.876812e-03 1.666297e-02 1.202818e-02 3.350744e-03 5.120674e-04 1.210236e-02 1.446537e-02 1.713184e-03 -1.032109e-02
<VARIANCE> 39
 1.996017e+01 1.871894e+01 1.478086e+01 1.778726e+01 1.709303e+01 1.787079e+01 2.045191e+01 2.077736e+01 2.138677e+01 1.870252e+01 1.866693e+01 1.476564e+01 7.026269e+01 5.355310e-01 7.316996e-01 7.830317e-01 1.064523e+00 1.229543e+00 1.522303e+00 1.521718e+00 1.619720e+00 1.676392e+00 1.547514e+00 1.519236e+00 1.372958e+00 1.133896e+00 7.496254e-02 1.172954e-01 1.402089e-01 1.890162e-01 2.355350e-01 2.868635e-01 2.896553e-01 3.064974e-01 3.263027e-01 2.999271e-01 2.843953e-01 2.590138e-01 1.357977e-01
<GCONST> 9.262333e+01
<STATE> 3
<MEAN> 39
 -1.303619e+01 -1.566012e-01 -2.895323e+00 -4.960055e+00 -2.452159e-02 1.009593e+00 -1.813453e+00 -2.170804e-01 -2.697959e+00 5.623401e-01 2.794382e+00 -4.056252e-01 5.940974e+01 4.175759e-02 4.112853e-04 -8.017886e-03 8.522509e-03 1.130196e-02 -4.988851e-03 -1.473436e-02 -1.581523e-02 -2.535563e-02 -2.063388e-02 -2.865009e-02 -9.793463e-03 8.873886e-02 1.718890e-02 1.697731e-03 -1.372791e-03 -8.579978e-05 -7.536608e-03 -1.416938e-02 -6.079717e-03 -3.948810e-03 -7.779740e-03 -1.885835e-02 -2.032808e-02 -1.318107e-02 4.321842e-03
<VARIANCE> 39
 8.752498e+00 1.130734e+01 9.929580e+00 1.137746e+01 1.413530e+01 1.552270e+01 1.726565e+01 1.892447e+01 1.685637e+01 1.642308e+01 1.847380e+01 1.605139e+01 1.996746e+01 2.513256e-01 3.598592e-01 5.117159e-01 7.615632e-01 9.714167e-01 1.204885e+00 1.353279e+00 1.418474e+00 1.391218e+00 1.341111e+00 1.292638e+00 1.197947e+00 2.286874e-01 3.354712e-02 6.116339e-02 9.537394e-02 1.421876e-01 1.887216e-01 2.422087e-01 2.719092e-01 2.828620e-01 2.796057e-01 2.766539e-01 2.578253e-01 2.420564e-01 2.384575e-02
<GCONST> 7.832895e+01
<STATE> 4
<MEAN> 39
 -5.497997e+00 4.338172e-01 -2.713614e+00 -3.876180e+00 -8.986232e-01 -1.516207e+00 -3.174804e+00 -2.515021e+00 -4.148922e+00 -2.531807e+00 -1.664680e+00 -2.841522e+00 6.780604e+01 5.515419e-02 2.739977e-02 3.859323e-02 5.440266e-02 4.336056e-02 2.502412e-02 2.703430e-02 -1.561483e-02 1.005008e-03 -4.517576e-03 3.213415e-03 -4.355201e-03 -1.711071e-01 -6.399798e-03 -1.184749e-03 7.901434e-04 2.351613e-04 2.134352e-03 4.931075e-03 3.109610e-03 1.762184e-03 2.480055e-03 2.558619e-03 5.196606e-03 4.932123e-03 -1.106903e-02
<VARIANCE> 39
 8.979547e+00 1.046975e+01 1.222013e+01 1.390546e+01 1.430615e+01 1.341768e+01 1.543777e+01 1.729529e+01 1.683231e+01 1.537661e+01 1.462667e+01 1.278711e+01 6.555849e+01 2.073837e-01 3.017997e-01 4.677556e-01 6.885700e-01 8.761183e-01 1.036461e+00 1.170018e+00 1.245638e+00 1.333478e+00 1.332221e+00 1.283452e+00 1.155435e+00 3.427032e-01 3.192848e-02 5.377974e-02 8.811700e-02 1.328805e-01 1.709333e-01 2.061546e-01 2.315303e-01 2.467719e-01 2.668439e-01 2.717684e-01 2.579761e-01 2.328593e-01 2.844035e-02
<GCONST> 7.742627e+01
<TRANSP> 5
 0.000000e+00 1.000000e+00 0.000000e+00 0.000000e+00 0.000000e+00
 0.000000e+00 9.524060e-01 4.759394e-02 0.000000e+00 0.000000e+00
 0.000000e+00 0.000000e+00 9.648414e-01 3.515863e-02 0.000000e+00
 0.000000e+00 0.000000e+00 0.000000e+00 9.857439e-01 1.425612e-02
 0.000000e+00 0.000000e+00 0.000000e+00 0.000000e+00 0.000000e+00
<ENDHMM>
~h "co"
<BEGINHMM>
<NUMSTATES> 5
<STATE> 2
<MEAN> 39
 -6.533689e+00 -6.003032e+00 7.048147e-02 -1.051468e+00 -1.311636e+01 -6.205170e+00 -4.626454e+00 -6.562399e-01 1.797671e+00 -2.078059e+00 -3.857657e+00 -7.254327e+00 6.237436e+01 -6.301289e-01 -9.647534e-02 3.006911e-01 -4.123687e-01 -6.079954e-01 -8.763992e-01 -2.320167e-01 -7.625300e-01 -1.022478e+00 -9.972286e-01 -3.997589e-01 -3.426730e-01 2.532980e+00 -5.756518e-02 5.873397e-02 -1.406207e-02 4.751550e-02 3.607919e-01 2.008849e-01 1.805842e-01 3.844837e-02 -9.386866e-02 7.785881e-02 1.625562e-01 5.905942e-02 -1.167488e-01
<VARIANCE> 39
 1.887184e+01 3.555059e+01 3.537952e+01 3.908859e+01 9.706138e+01 6.555766e+01 7.893355e+01 6.765136e+01 5.511664e+01 4.373655e+01 5.202774e+01 3.636425e+01 1.007741e+02 1.143458e+00 2.135433e+00 1.851358e+00 1.912560e+00 6.672568e+00 3.734952e+00 4.132606e+00 3.589715e+00 4.202891e+00 3.324448e+00 2.660148e+00 2.846317e+00 3.475729e+00 1.413900e-01 3.187561e-01 2.766425e-01 2.485131e-01 7.641577e-01 5.985950e-01 6.307522e-01 5.823354e-01 6.813575e-01 6.027296e-01 4.136139e-01 4.705406e-01 5.130554e-01
<GCONST> 1.259275e+02
<STATE> 3
<MEAN> 39
 -6.652829e+00 -6.312935e+00 -4.862185e-01 -2.244390e+00 -7.736458e+00 -8.143622e+00 -6.152935e+00 -7.377946e+00 -5.100388e+00 -4.448272e+00 -4.239218e+00 -8.992440e+00 6.787935e+01 6.938278e-02 -2.443433e-02 2.539328e-03 5.267611e-02 1.235164e-01 3.952680e-02 -5.986154e-02 -5.883236e-02 -1.309702e-02 3.673162e-02 1.620546e-02 -2.784636e-02 -9.500336e-02 1.806970e-02 2.177770e-03 3.240673e-03 7.761634e-03 -6.499490e-03 8.991517e-04 -6.664968e-03 7.866214e-03 1.478221e-02 5.230257e-03 -5.570062e-03 -6.490781e-04 -3.131973e-02
<VARIANCE> 39
 1.764499e+01 1.185706e+01 2.465517e+01 2.138645e+01 3.300838e+01 3.131102e+01 5.078822e+01 5.738766e+01 4.249252e+01 3.876516e+01 3.638163e+01 3.960558e+01 4.599884e+01 4.550857e-01 7.541262e-01 9.303438e-01 1.229246e+00 2.511698e+00 1.722679e+00 2.162373e+00 2.266372e+00 3.061086e+00 2.318058e+00 2.203252e+00 1.774690e+00 1.262619e+00 6.355887e-02 1.524272e-01 1.642008e-01 2.282806e-01 4.484479e-01 3.288467e-01 3.901295e-01 4.271189e-01 6.278422e-01 4.688873e-01 4.334838e-01 3.408990e-01 1.460792e-01
<GCONST> 1.057049e+02
<STATE> 4
<MEAN> 39
 -3.792808e+00 -3.684018e+00 3.814302e+00 2.116621e+00 -1.451482e+00 -2.598835e+00 -5.247653e+00 -4.907857e+00 -3.833916e+00 -4.516032e+00 -3.955243e+00 -8.444841e+00 5.791668e+01 6.290850e-02 1.144599e-01 2.629285e-02 2.984506e-02 1.376362e-01 8.866576e-02 6.797892e-02 7.551173e-02 -1.911721e-04 9.231320e-03 2.194773e-02 3.936598e-02 -2.873545e-01 -3.839297e-03 2.642846e-04 -8.583796e-03 -4.718303e-03 -9.609422e-03 -7.485393e-03 -7.578958e-04 -1.432558e-04 1.089790e-04 -1.029364e-03 -2.166204e-03 -3.589108e-03 4.184251e-03
<VARIANCE> 39
 1.279752e+01 2.310620e+01 2.033874e+01 2.458811e+01 3.772036e+01 3.103245e+01 5.275646e+01 4.193306e+01 3.199532e+01 3.633250e+01 3.292909e+01 2.857181e+01 6.565070e+01 2.881871e-01 5.741355e-01 6.713605e-01 8.444411e-01 1.501792e+00 1.226836e+00 1.744823e+00 1.597808e+00 1.620690e+00 1.753345e+00 1.560268e+00 1.441247e+00 7.698805e-01 4.310489e-02 9.767050e-02 1.234086e-01 1.609128e-01 2.679484e-01 2.348664e-01 3.217031e-01 3.004179e-01 3.174262e-01 3.505786e-01 3.115126e-01 2.851989e-01 6.671546e-02
<GCONST> 9.548510e+01
<TRANSP> 5
 0.000000e+00 1.000000e+00 0.000000e+00 0.000000e+00 0.000000e+00
 0.000000e+00 8.445621e-01 1.554379e-01 0.000000e+00 0.000000e+00
 0.000000e+00 0.000000e+00 9.836723e-01 1.632771e-02 0.000000e+00
 0.000000e+00 0.000000e+00 0.000000e+00 9.821349e-01 1.786513e-02
 0.000000e+00 0.000000e+00 0.000000e+00 0.000000e+00 0.000000e+00
<ENDHMM>
~h "ds"
<BEGINHMM>
<NUMSTATES> 5
<STATE> 2
<MEAN> 39
 -1.355410e+01 8.089309e-01 8.729442e-01 -3.804400e-01 1.159041e-02 -2.136506e+00 4.781708e+00 -2.121253e+00 1.844962e+00 1.897629e+00 4.303088e+00 3.338076e-01 6.543610e+01 -1.970678e-01 9.148549e-02 -7.810544e-02 -4.977781e-02 -1.464135e-01 -7.997807e-02 -1.033130e-02 -1.740233e-02 3.961761e-02 6.909161e-02 1.886497e-02 3.966364e-02 9.836595e-01 4.167579e-02 -2.499156e-02 1.841531e-02 3.937330e-02 5.369322e-02 9.345329e-02 1.256121e-02 6.084927e-02 -1.690244e-02 -4.030668e-02 2.586083e-03 2.650245e-02 -1.315218e-01
<VARIANCE> 39
 2.260196e+01 1.704305e+01 1.553839e+01 2.020398e+01 2.908484e+01 2.382103e+01 2.848178e+01 3.698332e+01 2.785412e+01 2.465769e+01 1.991907e+01 1.710984e+01 9.367002e+01 2.134713e+00 1.102784e+00 1.431528e+00 1.717220e+00 2.598346e+00 2.377029e+00 2.457699e+00 2.482615e+00 2.169933e+00 2.300552e+00 2.009261e+00 1.784932e+00 3.946164e+00 3.342496e-01 1.965386e-01 2.399929e-01 3.163012e-01 4.742039e-01 4.596595e-01 4.394991e-01 4.638073e-01 3.979445e-01 4.359281e-01 3.710580e-01 3.382473e-01 5.971147e-01
<GCONST> 1.106690e+02
<STATE> 3
<MEAN> 39
 -1.646169e+01 3.353550e-01 -1.778683e+00 -7.698977e-01 -3.475351e+00 -2.212298e+00 1.848930e+00 -1.960868e+00 1.642980e+00 3.256893e+00 4.588072e+00 1.207803e+00 7.045089e+01 2.844491e-01 -9.296871e-02 3.236288e-01 5.443540e-01 6.348951e-01 3.528043e-01 7.907027e-02 1.090732e-01 3.783248e-03 -1.234455e-01 -3.692424e-02 -8.181577e-02 -6.724818e-01 9.401411e-02 1.034217e-01 3.279319e-02 6.437285e-03 -8.150948e-04 -1.156268e-01 -3.087746e-02 -1.355302e-01 -3.775665e-02 2.200972e-02 -6.217679e-02 -6.414699e-02 -1.209228e-01
<VARIANCE> 39
 1.600913e+01 8.058130e+00 8.710195e+00 1.221762e+01 1.551028e+01 1.164654e+01 1.282678e+01 1.172172e+01 1.380389e+01 1.493940e+01 1.528844e+01 1.239123e+01 1.965729e+02 1.727533e+00 1.008120e+00 9.841687e-01 8.356594e-01 1.055017e+00 1.499295e+00 1.407080e+00 1.420989e+00 1.290810e+00 1.365410e+00 1.145290e+00 1.233616e+00 2.215888e+01 3.697304e-01 1.578308e-01 1.816134e-01 1.783012e-01 1.985280e-01 3.041651e-01 2.734745e-01 2.454115e-01 2.517810e-01 2.739538e-01 2.426594e-01 2.622221e-01 4.186273e+00
<GCONST> 9.701271e+01
<STATE> 4
<MEAN> 39
 -9.970906e+00 1.469270e+00 2.057537e+00 8.210908e-01 2.959554e+00 7.007136e-01 2.954658e+00 -1.208746e+00 3.111098e-01 -3.220597e-01 2.192108e+00 -1.529622e+00 5.595409e+01 4.224715e-02 2.331996e-03 2.109560e-02 7.140870e-03 3.299301e-02 2.430393e-02 1.720327e-02 1.048499e-02 -4.772151e-03 -1.600634e-02 -1.481542e-02 -1.516759e-02 -1.082535e-01 -1.683939e-03 -6.503038e-04 -1.811811e-03 -2.627087e-03 -3.420628e-03 -1.033036e-03 -5.094653e-04 3.939325e-04 1.763507e-03 1.722242e-03 2.065554e-03 1.433085e-03 2.692297e-03
<VARIANCE> 39
 1.571732e+01 1.166876e+01 1.601761e+01 1.731792e+01 1.961351e+01 2.169699e+01 2.406152e+01 1.919902e+01 2.416789e+01 2.266191e+01 1.797189e+01 1.714196e+01 6.034204e+01 5.821570e-01 4.810319e-01 6.721405e-01 9.082028e-01 1.293646e+00 1.422359e+00 1.584405e+00 1.542961e+00 1.748762e+00 1.756147e+00 1.592604e+00 1.358320e+00 8.347718e-01 9.772831e-02 8.463013e-02 1.249219e-01 1.750748e-01 2.551875e-01 2.765693e-01 3.107599e-01 3.070548e-01 3.464057e-01 3.528963e-01 3.231631e-01 2.730542e-01 1.034143e-01
<GCONST> 9.187302e+01
<TRANSP> 5
 0.000000e+00 1.000000e+00 0.000000e+00 0.000000e+00 0.000000e+00
 0.000000e+00 9.317100e-01 6.829001e-02 0.000000e+00 0.000000e+00
 0.000000e+00 0.000000e+00 8.507809e-01 1.492191e-01 0.000000e+00
 0.000000e+00 0.000000e+00 0.000000e+00 9.936626e-01 6.337420e-03
 0.000000e+00 0.000000e+00 0.000000e+00 0.000000e+00 0.000000e+00
<ENDHMM>
~h "kj"
<BEGINHMM>
<NUMSTATES> 5
<STATE> 2
<MEAN> 39
 -1.933051e+01 4.237472e+00 -1.237761e-01 -1.413337e+00 -7.604706e-01 3.276972e+00 1.955453e+00 2.660763e+00 -2.953561e-01 2.345039e-03 1.456733e+00 -8.727407e-01 5.518937e+01 -2.284109e-02 1.752610e-02 1.964007e-03 -3.727184e-03 -3.009123e-03 1.074438e-02 6.491253e-03 -4.503663e-04 1.167730e-02 -1.593121e-03 6.043307e-03 -2.401436e-03 6.087419e-03 1.016184e-03 -1.947599e-03 5.225042e-04 1.749903e-04 -2.901504e-03 -2.630722e-03 7.281625e-04 1.725655e-03 -1.356706e-03 5.856556e-04 -2.377836e-03 2.364784e-04 -1.195225e-04
<VARIANCE> 39
 3.144232e+01 2.107309e+01 1.670693e+01 2.575975e+01 1.680293e+01 3.299485e+01 2.700455e+01 2.210035e+01 1.783368e+01 2.198619e+01 1.729418e+01 1.613833e+01 2.156572e+01 6.028374e-01 5.380238e-01 6.883259e-01 9.239316e-01 1.141197e+00 1.460171e+00 1.598657e+00 1.631763e+00 1.612382e+00 1.688034e+00 1.513938e+00 1.346816e+00 3.561032e-01 9.891641e-02 9.667835e-02 1.292637e-01 1.819587e-01 2.202498e-01 2.897818e-01 3.171350e-01 3.265708e-01 3.296188e-01 3.361840e-01 3.044644e-01 2.710107e-01 5.534518e-02
<GCONST> 9.118604e+01
<STATE> 3
<MEAN> 39
 -1.470890e+01 -6.366018e+00 -4.044580e+00 -5.665351e-01 -1.497623e+00 -3.490937e+00 -1.660025e+00 -2.957454e+00 -2.467959e+00 8.237486e-01 5.121598e-01 -7.253746e-01 6.243061e+01 1.908807e-02 -1.004994e-01 -2.698130e-02 7.897020e-03 5.335647e-03 -5.479160e-02 -3.869395e-02 -4.883879e-02 -2.681639e-02 2.758160e-03 9.021764e-03 1.346019e-02 4.872731e-02 -1.597129e-03 1.543103e-02 1.288392e-02 -1.957438e-03 6.586465e-03 1.608137e-02 2.119472e-02 1.060226e-02 8.671513e-03 6.635363e-03 3.659018e-03 -4.464467e-03 -1.492106e-02
<VARIANCE> 39
 1.762211e+01 3.101436e+01 1.279651e+01 1.462782e+01 1.741171e+01 1.996093e+01 2.081105e+01 2.041646e+01 1.827936e+01 1.783834e+01 1.581068e+01 1.309467e+01 6.237914e+01 6.925302e-01 1.591291e+00 8.501747e-01 9.239144e-01 1.263635e+00 1.649675e+00 1.798774e+00 1.715494e+00 1.646653e+00 1.563359e+00 1.470232e+00 1.245177e+00 1.809556e+00 1.072607e-01 2.494768e-01 1.534350e-01 1.770874e-01 2.402395e-01 3.006884e-01 3.451667e-01 3.352937e-01 3.259560e-01 3.185625e-01 2.974902e-01 2.552438e-01 2.406396e-01
<GCONST> 9.595128e+01
<STATE> 4
<MEAN> 39
 -2.135804e+01 9.356765e-01 1.782485e+00 1.218068e+00 -2.686081e+00 3.440379e-01 5.996221e+00 -3.128777e-01 -3.225283e+00 3.710412e+00 8.499680e-01 -2.990983e+00 5.697912e+01 3.155678e-02 -2.416191e-03 4.284260e-03 -5.119325e-03 6.573629e-03 5.576200e-03 8.421929e-03 6.532793e-03 7.538341e-03 -5.855489e-03 3.536032e-04 3.712496e-03 -2.570397e-02 2.811891e-03 -9.921362e-04 -1.884604e-03 -7.764496e-04 1.419422e-03 -2.355167e-05 -1.820967e-03 4.766978e-04 1.146281e-03 -1.819793e-03 2.170549e-04 1.425656e-03 -1.489903e-03
<VARIANCE> 39
 3.503997e+01 2.908403e+01 1.904695e+01 2.418965e+01 1.678793e+01 3.176099e+01 3.296431e+01 2.132101e+01 2.131877e+01 2.536198e+01 1.774536e+01 1.715392e+01 3.288174e+01 5.464129e-01 7.295458e-01 7.060487e-01 9.586520e-01 1.219711e+00 1.399390e+00 1.661621e+00 1.585624e+00 1.633368e+00 1.708178e+00 1.441464e+00 1.319138e+00 5.748608e-01 8.965619e-02 1.246347e-01 1.298001e-01 1.841118e-01 2.380121e-01 2.755963e-01 3.199688e-01 3.168490e-01 3.301563e-01 3.403473e-01 2.899936e-01 2.665818e-01 8.069193e-02
<GCONST> 9.387904e+01
<TRANSP> 5
 0.000000e+00 1.000000e+00 0.000000e+00 0.000000e+00 0.000000e+00
 0.000000e+00 9.921080e-01 7.892012e-03 0.000000e+00 0.000000e+00
 0.000000e+00 0.000000e+00 9.773266e-01 2.267342e-02 0.000000e+00
 0.000000e+00 0.000000e+00 0.000000e+00 9.930607e-01 6.939287e-03
 0.000000e+00 0.000000e+00 0.000000e+00 0.000000e+00 0.000000e+00
<ENDHMM>
~h "kn"
<BEGINHMM>
<NUMSTATES> 5
<STATE> 2
<MEAN> 39
 -5.282744e-01 7.609842e-01 -2.402407e+00 -2.470335e+00 1.197894e+00 -6.230795e-01 1.956016e+00 -3.572970e+00 -2.972513e-01 -4.034891e-01 6.868626e-01 -3.946964e+00 5.684947e+01 1.740091e-01 1.830762e-01 -9.682492e-02 1.515176e-01 2.533480e-01 -3.906273e-01 4.410539e-01 -6.771675e-02 9.597570e-01 2.134259e-01 2.002980e-01 2.826846e-01 1.953355e+00 -4.736729e-02 8.655713e-02 9.808271e-02 8.322196e-02 1.864293e-01 2.027811e-01 -3.190788e-02 6.248581e-02 -1.647536e-01 -3.796467e-02 7.524329e-03 1.002341e-01 -3.966155e-01
<VARIANCE> 39
 2.564466e+01 2.429780e+01 2.961440e+01 1.180817e+01 2.072044e+01 2.609588e+01 2.609715e+01 5.509596e+01 2.935704e+01 3.214796e+01 2.454123e+01 1.806211e+01 1.266280e+02 2.335219e+00 1.386967e+00 1.901847e+00 9.728078e-01 1.491224e+00 2.058134e+00 2.988426e+00 5.313875e+00 3.346204e+00 2.306619e+00 2.064015e+00 2.163770e+00 6.803158e+00 3.358504e-01 1.739441e-01 2.928008e-01 1.490018e-01 2.170901e-01 3.370438e-01 4.971428e-01 7.491417e-01 6.191125e-01 3.960593e-01 3.343707e-01 3.312113e-01 1.075354e+00
<GCONST> 1.133442e+02
<STATE> 3
<MEAN> 39
 5.357342e+00 -4.766094e-01 -2.950273e+00 9.409814e-01 4.330274e+00 -1.124743e+00 1.831217e+00 -4.150461e+00 -1.363882e-01 -8.610051e-01 1.104887e+00 -1.721046e+00 6.075368e+01 7.311436e-02 -2.304074e-02 2.715129e-02 5.160163e-02 1.978571e-02 1.446125e-02 -1.284665e-02 1.939522e-02 -4.698332e-02 1.381949e-02 -1.477474e-02 2.228161e-02 -1.175650e-01 7.400102e-04 -4.409967e-03 -4.648633e-03 -5.458828e-03 -1.008058e-02 -5.535873e-04 -8.191577e-03 -3.592760e-03 -1.232388e-02 -5.041619e-03 -5.981359e-03 -1.740786e-02 -1.225344e-02
<VARIANCE> 39
 1.066733e+01 2.332609e+01 1.438492e+01 1.446844e+01 1.873746e+01 2.223174e+01 2.148242e+01 2.259712e+01 2.185778e+01 2.093539e+01 1.731614e+01 1.718090e+01 2.857796e+01 3.785728e-01 8.142769e-01 7.733535e-01 9.923311e-01 1.375514e+00 1.402428e+00 1.465518e+00 1.887305e+00 1.754114e+00 1.513434e+00 1.378981e+00 1.434318e+00 1.977802e+00 6.764548e-02 1.589935e-01 1.425264e-01 2.092398e-01 2.931518e-01 2.834101e-01 3.015725e-01 3.983105e-01 3.676454e-01 3.182656e-01 2.764751e-01 2.894017e-01 3.334801e-01
<GCONST> 9.407523e+01
<STATE> 4
<MEAN> 39
 4.727837e+00 2.552377e+00 8.960371e-02 7.900652e-01 5.236796e+00 2.174082e+00 1.290139e+00 -1.410643e+00 -2.851236e+00 -1.504402e+00 9.903021e-02 -2.934323e+00 5.180697e+01 -1.708963e-01 9.935612e-02 1.473322e-01 -4.187991e-02 2.751686e-02 1.792724e-01 7.953976e-03 1.317963e-01 -9.406843e-02 -3.673129e-02 -3.802866e-02 -6.226439e-02 -3.363025e-01 -1.017622e-02 -9.371443e-03 -4.117964e-03 -1.338828e-02 -1.648681e-02 -1.515842e-02 1.763945e-02 1.241624e-03 1.406639e-02 3.805220e-03 7.293470e-03 8.235663e-03 2.049888e-02
<VARIANCE> 39
 1.749293e+01 1.838941e+01 1.590370e+01 1.376065e+01 2.038149e+01 1.655143e+01 1.796924e+01 2.058441e+01 1.991797e+01 1.831281e+01 1.473565e+01 1.468436e+01 2.708653e+01 2.712165e-01 4.660125e-01 5.526788e-01 6.134100e-01 9.685921e-01 1.036737e+00 1.266997e+00 1.622522e+00 1.619521e+00 1.389518e+00 1.220390e+00 1.210342e+00 4.336882e-01 3.905569e-02 7.680737e-02 9.953643e-02 1.194544e-01 1.884406e-01 1.943541e-01 2.597712e-01 3.255314e-01 3.369954e-01 2.822823e-01 2.458512e-01 2.402611e-01 5.759709e-02
<GCONST> 8.303474e+01
<TRANSP> 5
 0.000000e+00 1.000000e+00 0.000000e+00 0.000000e+00 0.000000e+00
 0.000000e+00 8.357018e-01 1.642983e-01 0.000000e+00 0.000000e+00
 0.000000e+00 0.000000e+00 9.843006e-01 1.569940e-02 0.000000e+00
 0.000000e+00 0.000000e+00 0.000000e+00 9.639602e-01 3.603978e-02
 0.000000e+00 0.000000e+00 0.000000e+00 0.000000e+00 0.000000e+00
<ENDHMM>
~h "kt"
<BEGINHMM>
<NUMSTATES> 5
<STATE> 2
<MEAN> 39
 -1.099656e+01 1.462494e-01 -6.475599e+00 -1.097957e+00 1.455445e+00 1.313538e+00 4.692644e+00 7.056712e-01 1.189139e+00 8.378526e-01 1.572453e+00 -1.317673e+00 5.564323e+01 1.355488e-03 6.099722e-04 -6.149571e-03 4.285378e-04 -2.493806e-04 -1.182704e-03 3.212919e-03 -1.105677e-03 -3.330046e-03 5.185862e-05 3.126746e-04 -2.722419e-03 1.821588e-03 7.734870e-04 -5.508478e-04 1.035532e-03 4.205769e-04 6.424880e-04 -3.773642e-04 -5.433160e-04 4.085449e-04 -1.250191e-03 -1.234190e-04 -4.644251e-04 -5.951325e-04 -1.536042e-03
<VARIANCE> 39
 1.484388e+01 6.270305e+00 7.573640e+00 1.084849e+01 1.198227e+01 1.716926e+01 1.623991e+01 1.633509e+01 1.677330e+01 1.538880e+01 1.440821e+01 1.325928e+01 1.848072e+01 9.010580e-01 4.431168e-01 6.204985e-01 8.534228e-01 1.106119e+00 1.467287e+00 1.693038e+00 1.680277e+00 1.623091e+00 1.650441e+00 1.485264e+00 1.302616e+00 1.011507e+00 1.658439e-01 8.644768e-02 1.245857e-01 1.659701e-01 2.243607e-01 2.992152e-01 3.554225e-01 3.472814e-01 3.265283e-01 3.412098e-01 2.979352e-01 2.632156e-01 1.753854e-01
<GCONST> 8.748429e+01
<STATE> 3
<MEAN> 39
 -1.223110e+01 3.214272e+00 -2.957001e+00 8.643682e-01 7.636988e-01 -2.452764e+00 2.434435e+00 1.062062e+00 4.221719e-02 -5.652336e-01 -3.950852e-01 -1.598004e+00 5.335410e+01 -5.041447e-03 7.327321e-04 -1.871188e-03 6.962896e-03 6.027678e-03 -9.336061e-03 1.364505e-02 -1.511308e-02 3.062239e-03 -1.045830e-02 7.687727e-03 -9.467687e-03 8.530698e-03 9.355507e-03 -2.194173e-03 4.084649e-03 -1.448267e-03 5.302467e-03 1.074423e-02 4.074789e-03 4.951947e-03 5.323014e-03 3.435224e-03 3.083353e-03 1.939336e-03 -1.694065e-02
<VARIANCE> 39
 7.909771e+00 6.194375e+00 8.759265e+00 1.183962e+01 1.461957e+01 1.662788e+01 1.744160e+01 1.710804e+01 1.784453e+01 1.989202e+01 1.774873e+01 1.400494e+01 1.989028e+01 7.494290e-01 4.753173e-01 7.646374e-01 9.291904e-01 1.345382e+00 1.812806e+00 1.669027e+00 1.614318e+00 1.740031e+00 2.141680e+00 1.708651e+00 1.380059e+00 1.679022e+00 1.437467e-01 8.947105e-02 1.528769e-01 1.895745e-01 2.752610e-01 3.846604e-01 3.409529e-01 3.288668e-01 3.534326e-01 4.509560e-01 3.380529e-01 2.818595e-01 3.194409e-01
<GCONST> 9.132384e+01
<STATE> 4
<MEAN> 39
 -9.756296e+00 3.161054e+00 -2.492110e+00 1.404519e-02 4.830370e-01 -1.256290e-01 3.123935e+00 2.138901e+00 6.279330e-01 -4.566664e-02 5.742375e-01 -2.085976e+00 4.883276e+01 1.622801e-02 -1.619574e-03 5.839949e-03 -9.363978e-03 5.658775e-03 1.062292e-02 3.205570e-03 5.776664e-03 2.716564e-04 2.040324e-03 3.250690e-03 6.725379e-04 -2.102108e-02 -6.609213e-04 3.252803e-05 -1.418257e-04 8.494888e-04 8.547517e-05 -1.359830e-03 -2.367657e-03 -3.212025e-04 -9.202301e-04 -8.660691e-04 -9.478970e-04 4.880565e-04 2.111172e-03
<VARIANCE> 39
 9.514550e+00 8.888281e+00 1.103905e+01 1.159604e+01 1.660984e+01 1.596476e+01 1.695676e+01 1.730393e+01 1.735927e+01 1.734991e+01 1.510991e+01 1.300685e+01 1.179191e+01 6.899688e-01 5.161156e-01 6.977208e-01 8.613911e-01 1.157989e+00 1.321055e+00 1.441262e+00 1.480123e+00 1.607705e+00 1.627204e+00 1.442624e+00 1.235435e+00 7.918312e-01 1.311989e-01 9.940731e-02 1.362544e-01 1.722854e-01 2.316205e-01 2.678177e-01 2.947258e-01 2.988573e-01 3.299050e-01 3.377435e-01 2.927054e-01 2.474561e-01 1.449263e-01
<GCONST> 8.657993e+01
<TRANSP> 5
 0.000000e+00 1.000000e+00 0.000000e+00 0.000000e+00 0.000000e+00
 0.000000e+00 9.916911e-01 8.308883e-03 0.000000e+00 0.000000e+00
 0.000000e+00 0.000000e+00 9.838985e-01 1.610153e-02 0.000000e+00
 0.000000e+00 0.000000e+00 0.000000e+00 9.932145e-01 6.785427e-03
 0.000000e+00 0.000000e+00 0.000000e+00 0.000000e+00 0.000000e+00
<ENDHMM>
~h "pr"
<BEGINHMM>
<NUMSTATES> 5
<STATE> 2
<MEAN> 39
 -1.457001e+01 -7.685499e+00 -2.824019e-01 -6.842394e+00 2.910933e+00 5.662397e+00 4.981770e+00 1.777492e-01 -2.300000e+00 -2.133354e+00 4.948859e+00 -2.393398e-01 5.822259e+01 -4.283194e-02 -1.203029e-02 1.427900e-02 -1.490461e-02 1.058963e-02 1.666579e-02 6.471949e-03 -2.195137e-02 6.266829e-03 -1.707347e-02 -5.929452e-03 4.437446e-02 3.731775e-02 1.358404e-02 2.225416e-03 -9.816582e-04 2.411565e-03 -3.287042e-03 7.199782e-04 -4.136644e-03 1.494654e-03 1.644901e-03 6.456691e-03 -6.811531e-03 -4.824893e-03 -1.076802e-02
<VARIANCE> 39
 3.298744e+01 4.265404e+01 4.355461e+01 3.347944e+01 4.654501e+01 6.967223e+01 5.205270e+01 6.330316e+01 5.572349e+01 3.373035e+01 5.457824e+01 5.303258e+01 2.661257e+01 8.262042e-01 8.022708e-01 9.849520e-01 1.386184e+00 1.513028e+00 1.839757e+00 2.090163e+00 2.323056e+00 2.240247e+00 1.994429e+00 2.387751e+00 2.107375e+00 6.076207e-01 1.206902e-01 1.282144e-01 1.680087e-01 2.408421e-01 2.704494e-01 3.268362e-01 3.844934e-01 4.118987e-01 4.175263e-01 3.614276e-01 4.414189e-01 3.804150e-01 8.386914e-02
<GCONST> 1.085066e+02
<STATE> 3
<MEAN> 39
 -1.973492e+01 3.516233e+00 1.788757e+01 -1.623865e+01 3.063246e+00 1.238965e+01 -5.964382e+00 -4.687779e+00 1.083333e+01 -5.606682e+00 -8.386705e+00 8.912504e+00 5.308198e+01 6.805371e-02 -3.946919e-02 -1.665068e-03 -2.655991e-02 3.016884e-02 -1.573354e-02 -3.186034e-02 4.176859e-02 -2.904691e-02 4.793820e-02 -3.559580e-02 1.339989e-02 -5.508859e-02 2.077402e-03 2.160654e-03 -7.093051e-03 5.960267e-03 8.320565e-03 -1.155453e-02 5.514290e-03 1.654606e-02 -1.090370e-02 -1.100057e-04 1.393552e-02 -1.185866e-02 -2.339716e-03
<VARIANCE> 39
 1.740729e+01 1.844510e+01 1.479325e+01 3.240754e+01 2.728983e+01 2.314187e+01 1.769558e+01 3.423790e+01 3.011766e+01 4.275066e+01 3.196947e+01 2.118526e+01 1.248182e+01 5.605432e-01 4.688593e-01 5.222630e-01 8.866790e-01 1.283925e+00 1.628234e+00 1.391042e+00 1.543048e+00 1.627966e+00 1.700451e+00 1.907982e+00 1.140746e+00 2.487261e-01 1.373305e-01 8.922002e-02 1.036837e-01 1.785616e-01 2.671052e-01 3.510554e-01 2.823233e-01 3.146178e-01 3.422355e-01 3.262144e-01 3.751683e-01 2.322782e-01 5.938135e-02
<GCONST> 9.184305e+01
<STATE> 4
<MEAN> 39
 -1.402637e+01 -5.128901e+00 5.038649e+00 -5.972841e+00 3.571294e+00 -1.128474e+00 3.211752e+00 4.565511e+00 2.701469e+00 -1.846070e+00 -3.223082e+00 2.853425e+00 5.408844e+01 3.538770e-02 2.266880e-02 -2.146383e-02 2.248815e-02 -1.998355e-02 -8.132195e-03 6.971322e-03 -1.927946e-03 -4.274730e-04 -2.274171e-03 1.274898e-02 -2.230686e-02 -3.210577e-02 -6.414933e-04 6.660210e-04 1.252812e-03 -2.442837e-04 -1.016238e-03 7.776644e-04 -6.682042e-04 -1.897077e-03 6.929637e-04 3.667314e-04 -3.228046e-04 -1.468943e-03 1.646611e-04
<VARIANCE> 39
 3.859348e+01 5.430625e+01 5.335456e+01 5.742485e+01 8.481960e+01 9.118891e+01 6.837034e+01 6.255294e+01 5.357309e+01 4.954256e+01 5.263903e+01 7.142889e+01 4.657385e+01 3.165242e-01 4.117579e-01 6.505462e-01 9.361067e-01 1.128713e+00 1.509052e+00 1.538899e+00 1.581247e+00 1.698107e+00 1.737633e+00 1.553229e+00 1.361337e+00 1.617479e-01 5.655026e-02 7.404784e-02 1.210794e-01 1.703714e-01 2.203200e-01 2.926375e-01 3.024628e-01 2.993179e-01 3.252801e-01 3.410666e-01 3.073133e-01 2.630356e-01 2.637923e-02
<GCONST> 1.006716e+02
<TRANSP> 5
 0.000000e+00 1.000000e+00 0.000000e+00 0.000000e+00 0.000000e+00
 0.000000e+00 9.891137e-01 1.088626e-02 0.000000e+00 0.000000e+00
 0.000000e+00 0.000000e+00 9.838741e-01 1.612581e-02 0.000000e+00
 0.000000e+00 0.000000e+00 0.000000e+00 9.953734e-01 4.626606e-03
 0.000000e+00 0.000000e+00 0.000000e+00 0.000000e+00 0.000000e+00
<ENDHMM>
~h "pw"
<BEGINHMM>
<NUMSTATES> 5
<STATE> 2
<MEAN> 39
 -1.330896e+01 -2.076641e+00 -9.066231e-01 -6.283795e-01 1.156174e+00 -1.113469e+00 3.012798e+00 2.015542e-01 -6.462649e-01 9.719156e-01 1.311622e-01 -9.547466e-01 5.384978e+01 -2.876153e-03 -4.674875e-03 3.192493e-03 -3.093128e-04 -1.799947e-03 -7.420228e-03 1.177129e-03 -3.500992e-03 -1.834583e-03 -3.108934e-04 6.619790e-04 8.895687e-04 5.648924e-03 9.823807e-05 -1.650137e-03 -2.766793e-03 -1.427167e-04 -1.722644e-03 -2.482429e-03 -2.436283e-03 -1.031532e-03 -1.976492e-03 1.222467e-03 -7.538412e-04 5.098734e-04 2.853572e-03
<VARIANCE> 39
 1.586118e+01 2.122038e+01 1.169735e+01 1.208506e+01 1.513726e+01 1.770132e+01 1.730180e+01 1.861329e+01 1.664723e+01 1.561562e+01 1.446376e+01 1.296872e+01 2.302760e+01 5.564925e-01 7.681667e-01 6.968192e-01 8.978351e-01 1.155671e+00 1.405762e+00 1.450404e+00 1.558355e+00 1.595005e+00 1.464630e+00 1.455792e+00 1.250482e+00 5.792632e-01 9.144382e-02 1.303581e-01 1.334419e-01 1.774799e-01 2.294709e-01 2.861950e-01 2.945602e-01 3.125063e-01 3.273561e-01 2.942392e-01 3.001731e-01 2.545420e-01 8.529115e-02
<GCONST> 8.797331e+01
<STATE> 3
<MEAN> 39
 -1.090892e+01 -6.193816e+00 -2.536689e+00 -1.427460e+00 1.953512e-01 -4.485866e+00 -6.529232e-01 -4.494318e+00 -3.287019e+00 -8.132125e-01 -1.925765e-01 -4.841466e-01 6.122218e+01 -8.102234e-03 -6.351221e-02 -1.779879e-02 4.525328e-03 -1.075516e-02 -4.698698e-02 -5.239728e-02 -6.618398e-02 -3.829941e-02 -2.450504e-02 4.166654e-03 9.242809e-03 9.437811e-02 6.388488e-03 9.214683e-03 3.439793e-03 7.380176e-04 1.069713e-02 1.549533e-02 1.254862e-02 1.129272e-02 8.948823e-03 4.242212e-03 4.625036e-03 -3.785693e-03 -2.151454e-02
<VARIANCE> 39
 2.174801e+01 2.818765e+01 1.385683e+01 1.266369e+01 1.884151e+01 2.560421e+01 2.215797e+01 2.689016e+01 1.941027e+01 1.710865e+01 1.506203e+01 1.333747e+01 8.567989e+01 6.527448e-01 1.083066e+00 7.359970e-01 8.636283e-01 1.466493e+00 1.910396e+00 1.694934e+00 1.783670e+00 1.538569e+00 1.466623e+00 1.375550e+00 1.305746e+00 3.914088e+00 1.087501e-01 1.648464e-01 1.360173e-01 1.652414e-01 2.870926e-01 3.623932e-01 3.269770e-01 3.415357e-01 3.108418e-01 2.942519e-01 2.796019e-01 2.721105e-01 5.342098e-01
<GCONST> 9.762469e+01
<STATE> 4
<MEAN> 39
 -1.202080e+01 -3.004462e+00 -1.639049e+00 -9.140236e-01 8.981212e-01 -1.021412e+00 2.870342e+00 -4.894905e-01 -8.978554e-01 6.642420e-01 3.710622e-01 -8.284083e-01 5.455289e+01 1.064467e-02 8.906822e-03 3.851383e-03 -1.846651e-03 3.832895e-03 1.398711e-02 1.075881e-02 1.381173e-02 9.445489e-03 5.493345e-03 7.773826e-04 -3.840418e-03 -2.641178e-02 4.557851e-04 -7.572310e-04 -3.186321e-04 -6.039816e-04 -1.208536e-03 -8.941967e-04 -1.384590e-03 -2.215310e-03 -1.912878e-03 -8.736106e-04 -3.470342e-04 1.117963e-04 1.237540e-03
<VARIANCE> 39
 1.734492e+01 2.131843e+01 1.280088e+01 1.219174e+01 1.442373e+01 2.104010e+01 1.841849e+01 2.108084e+01 1.746396e+01 1.614265e+01 1.435761e+01 1.335639e+01 3.426285e+01 5.323280e-01 7.621781e-01 6.624295e-01 8.541479e-01 1.131859e+00 1.456729e+00 1.463765e+00 1.571167e+00 1.515935e+00 1.505712e+00 1.415915e+00 1.288176e+00 8.826665e-01 8.674998e-02 1.266532e-01 1.247440e-01 1.670974e-01 2.234295e-01 2.923119e-01 2.914015e-01 3.135378e-01 3.068780e-01 3.094465e-01 2.885456e-01 2.650733e-01 1.259066e-01
<GCONST> 8.941181e+01
<TRANSP> 5
 0.000000e+00 1.000000e+00 0.000000e+00 0.000000e+00 0.000000e+00
 0.000000e+00 9.938590e-01 6.140970e-03 0.000000e+00 0.000000e+00
 0.000000e+00 0.000000e+00 9.883752e-01 1.162481e-02 0.000000e+00
 0.000000e+00 0.000000e+00 0.000000e+00 9.972160e-01 2.783942e-03
 0.000000e+00 0.000000e+00 0.000000e+00 0.000000e+00 0.000000e+00
<ENDHMM>
~h "si"
<BEGINHMM>
<NUMSTATES> 5
<STATE> 2
<MEAN> 39
 -5.789671e+00 2.081803e+00 1.196277e+00 -1.907981e+00 1.965121e+00 1.942166e+00 2.256577e+00 3.295206e+00 -4.228939e-01 3.626945e-01 7.672110e-01 -2.647445e+00 4.433047e+01 -2.538138e-03 3.607887e-03 -9.424716e-03 -9.221709e-03 -6.263541e-03 2.530549e-03 5.371577e-03 1.421171e-02 4.079909e-03 6.537933e-03 6.284010e-03 -1.537431e-03 -1.655691e-02 -8.874394e-04 -7.907809e-04 -7.220471e-04 2.025477e-04 -3.567573e-04 -2.603373e-04 4.368907e-05 -1.205549e-03 4.155581e-05 3.774452e-04 2.748908e-04 6.167775e-04 1.249356e-03
<VARIANCE> 39
 7.281652e+00 6.143452e+00 1.001536e+01 1.109633e+01 1.807609e+01 1.499950e+01 1.616067e+01 1.905882e+01 1.656641e+01 1.703915e+01 1.493985e+01 1.326743e+01 6.872024e+00 1.706165e-01 3.076468e-01 4.737617e-01 6.925650e-01 9.370193e-01 1.115154e+00 1.270295e+00 1.368266e+00 1.394391e+00 1.411174e+00 1.321653e+00 1.134130e+00 8.161044e-02 2.993214e-02 5.775327e-02 9.218564e-02 1.376362e-01 1.862490e-01 2.231997e-01 2.556365e-01 2.753518e-01 2.826163e-01 2.870725e-01 2.686194e-01 2.293607e-01 1.236604e-02
<GCONST> 7.323918e+01
<STATE> 3
<MEAN> 39
 -3.869089e+00 -3.929941e+00 -3.661843e+00 -3.257958e+00 1.309508e+00 3.757395e+00 4.374019e+00 6.936034e-01 -6.441418e-01 1.179680e+00 1.240737e+00 -2.590059e+00 5.070265e+01 -2.680066e-03 -4.318846e-03 -1.011316e-02 -7.763699e-03 -6.459029e-03 2.058083e-03 3.612279e-03 5.003648e-03 4.716584e-03 8.924997e-03 2.757654e-03 4.524610e-03 -1.243635e-02 -2.316453e-03 1.949505e-03 2.836924e-03 1.769003e-03 -2.139426e-04 -3.701899e-03 -2.874282e-03 -1.302819e-03 -2.541847e-04 -1.038647e-03 -1.381457e-03 -9.385137e-05 2.673022e-03
<VARIANCE> 39
 7.738583e+00 8.226724e+00 7.709203e+00 8.983467e+00 1.441850e+01 1.523718e+01 1.590238e+01 1.605862e+01 1.543129e+01 1.536193e+01 1.466799e+01 1.320755e+01 5.042988e+00 1.642649e-01 3.018175e-01 4.902085e-01 6.780049e-01 9.547874e-01 1.149056e+00 1.276526e+00 1.428544e+00 1.406309e+00 1.431105e+00 1.355268e+00 1.204043e+00 7.420504e-02 2.839233e-02 5.731486e-02 9.695673e-02 1.343699e-01 1.929783e-01 2.313577e-01 2.562497e-01 2.906814e-01 2.864747e-01 2.938322e-01 2.773508e-01 2.448957e-01 1.167377e-02
<GCONST> 7.245002e+01
<STATE> 4
<MEAN> 39
 -8.726963e+00 2.287751e-01 2.256963e-01 -1.657715e+00 6.850489e-01 4.575651e-01 2.648119e+00 1.208004e+00 -6.355669e-04 7.160180e-01 8.624095e-01 -1.691368e+00 4.941841e+01 -9.494196e-03 -1.437714e-03 7.623754e-04 -1.055933e-03 -2.750555e-03 -5.984915e-03 -2.635502e-03 -4.019118e-03 2.205235e-03 2.059718e-03 3.634631e-03 4.327732e-03 1.665492e-02 1.319665e-03 -1.940219e-04 -1.311429e-05 -5.053352e-04 3.417730e-04 1.247437e-03 3.372781e-04 1.972126e-04 -6.802149e-05 -2.290217e-04 7.026926e-05 -4.420546e-04 -1.488106e-04
<VARIANCE> 39
 2.054233e+01 1.682969e+01 1.370138e+01 1.437779e+01 1.935420e+01 1.935262e+01 1.964035e+01 2.290638e+01 1.929144e+01 1.788285e+01 1.667335e+01 1.558162e+01 3.370539e+01 4.215785e-01 5.558121e-01 6.081797e-01 8.359501e-01 1.075106e+00 1.305805e+00 1.411645e+00 1.520567e+00 1.511413e+00 1.498467e+00 1.400766e+00 1.238793e+00 5.188834e-01 6.624605e-02 9.580742e-02 1.143038e-01 1.619177e-01 2.097621e-01 2.578033e-01 2.817373e-01 3.029359e-01 3.035199e-01 3.031293e-01 2.831864e-01 2.496050e-01 7.468700e-02
<GCONST> 8.739236e+01
<TRANSP> 5
 0.000000e+00 1.000000e+00 0.000000e+00 0.000000e+00 0.000000e+00
 0.000000e+00 9.909328e-01 9.067151e-03 0.000000e+00 0.000000e+00
 0.000000e+00 0.000000e+00 9.797634e-01 2.023663e-02 0.000000e+00
 0.000000e+00 0.000000e+00 0.000000e+00 9.914215e-01 8.578556e-03
 0.000000e+00 0.000000e+00 0.000000e+00 0.000000e+00 0.000000e+00
<ENDHMM>
~h "st"
<BEGINHMM>
<NUMSTATES> 5
<STATE> 2
<MEAN> 39
 -9.672440e+00 -2.888322e+00 -1.292772e-01 -5.723886e+00 -1.409661e+00 -3.450425e+00 6.172556e-01 3.834807e-02 -3.755947e-01 -5.489874e-01 9.628130e-01 -2.525116e+00 5.997998e+01 -1.941365e-01 -5.305412e-01 2.010796e-01 -4.901834e-01 -3.307945e-01 -5.797439e-01 -1.855455e-01 -1.945743e-02 5.953413e-02 -4.302220e-02 -1.768585e-04 2.458319e-02 1.249811e+00 8.039549e-02 7.837043e-02 5.973230e-03 8.256540e-02 9.038363e-02 1.397410e-01 1.161848e-01 2.724090e-02 1.519819e-02 3.261476e-02 -3.609286e-03 1.611321e-02 -2.344423e-01
<VARIANCE> 39
 2.206802e+01 2.886218e+01 1.870500e+01 2.842961e+01 2.597838e+01 3.609430e+01 2.724937e+01 2.484260e+01 2.109427e+01 2.157155e+01 2.034615e+01 1.538173e+01 9.678147e+01 1.375171e+00 1.518936e+00 1.216435e+00 1.913818e+00 2.278909e+00 3.119255e+00 2.471381e+00 2.352040e+00 1.832327e+00 2.183184e+00 2.140864e+00 1.762474e+00 5.093982e+00 1.874946e-01 2.519434e-01 1.998567e-01 3.177250e-01 3.766522e-01 4.915154e-01 4.085692e-01 4.360064e-01 3.196143e-01 3.795824e-01 3.776263e-01 3.097723e-01 8.181073e-01
<GCONST> 1.101783e+02
<STATE> 3
<MEAN> 39
 -7.284746e+00 -3.283734e+00 -1.780088e+00 -5.075308e+00 -1.021346e+00 -7.242362e-01 2.382609e+00 -2.782447e-01 -1.109828e+00 -3.512611e-01 9.747993e-01 -2.474280e+00 5.624690e+01 6.420741e-04 2.049878e-02 -4.961199e-03 1.901119e-02 7.498013e-03 2.544568e-02 1.045283e-02 -4.013618e-03 -5.557804e-03 2.563833e-03 2.511721e-03 1.605869e-03 -4.899133e-02 -1.688578e-03 1.614899e-03 -1.211550e-03 2.112169e-03 5.221617e-04 -1.551529e-04 -3.221125e-03 -1.174786e-03 -7.380964e-04 -3.619018e-04 5.418806e-04 -2.563332e-05 2.101234e-04
<VARIANCE> 39
 1.538464e+01 1.673454e+01 1.468420e+01 2.013902e+01 1.938119e+01 2.389705e+01 1.951529e+01 1.876045e+01 1.854794e+01 1.897039e+01 1.570184e+01 1.431917e+01 3.251545e+01 5.303542e-01 6.892428e-01 7.199740e-01 1.175006e+00 1.339275e+00 1.575899e+00 1.552828e+00 1.568102e+00 1.572240e+00 1.591064e+00 1.510037e+00 1.315210e+00 1.317200e+00 8.317275e-02 1.139171e-01 1.361909e-01 2.179831e-01 2.599866e-01 3.070393e-01 3.129471e-01 3.202431e-01 3.218341e-01 3.272902e-01 3.113830e-01 2.676718e-01 1.975521e-01
<GCONST> 9.269906e+01
<STATE> 4
<MEAN> 39
 -1.020561e+01 7.654687e-01 7.508819e-01 -2.566380e+00 3.059613e-01 -7.183830e-01 2.069142e+00 3.306602e-01 2.601337e-01 -9.894270e-02 7.631901e-01 -2.254834e+00 5.226683e+01 5.041111e-03 8.092931e-03 -3.001916e-03 6.940186e-03 1.321844e-02 2.118656e-02 1.057772e-02 2.371858e-03 1.607358e-03 -1.665300e-03 -4.621642e-03 2.813661e-03 -2.965859e-02 1.201450e-03 -1.813217e-03 -1.275623e-03 -3.036954e-03 -2.859367e-03 -5.248712e-04 4.037427e-04 1.257181e-03 6.417858e-04 1.518214e-03 2.950802e-04 3.190086e-04 1.285726e-03
<VARIANCE> 39
 1.478280e+01 9.033480e+00 1.148993e+01 1.714567e+01 1.651111e+01 1.957955e+01 1.818269e+01 2.000334e+01 1.751900e+01 1.638976e+01 1.468886e+01 1.332075e+01 3.587088e+01 4.351756e-01 4.924679e-01 6.264577e-01 9.950123e-01 1.160723e+00 1.393265e+00 1.435588e+00 1.540891e+00 1.534912e+00 1.502385e+00 1.414392e+00 1.267666e+00 9.619858e-01 7.060471e-02 8.718735e-02 1.199915e-01 1.832375e-01 2.243433e-01 2.713828e-01 2.854142e-01 3.102544e-01 3.102287e-01 3.067320e-01 2.903582e-01 2.608624e-01 1.194341e-01
<GCONST> 8.749998e+01
<TRANSP> 5
 0.000000e+00 1.000000e+00 0.000000e+00 0.000000e+00 0.000000e+00
 0.000000e+00 8.371215e-01 1.628785e-01 0.000000e+00 0.000000e+00
 0.000000e+00 0.000000e+00 9.914066e-01 8.593453e-03 0.000000e+00
 0.000000e+00 0.000000e+00 0.000000e+00 9.914954e-01 8.504606e-03
 0.000000e+00 0.000000e+00 0.000000e+00 0.000000e+00 0.000000e+00
<ENDHMM>
~h "spe"
<BEGINHMM>
<NUMSTATES> 5
<STATE> 2
<MEAN> 39
 -1.003289e+00 4.492152e-01 3.397840e+00 -6.006378e+00 -4.568556e+00 1.221465e+00 -1.101730e+00 -4.533971e+00 -3.777383e+00 -1.841664e-01 -5.966691e-02 -5.325277e+00 5.487314e+01 1.001651e-01 -2.851562e-01 2.737207e-01 -2.390052e-01 -3.101892e-01 -1.907728e-01 -2.965122e-01 6.831506e-02 8.055231e-02 2.413281e-01 3.494032e-02 -1.723111e-01 4.144159e-01 -1.451115e-02 -7.065199e-02 -7.402301e-03 4.900170e-03 -3.098787e-02 -3.113518e-02 -1.017912e-02 2.558653e-02 2.825337e-02 1.527563e-02 -4.013544e-02 -1.047696e-02 2.022255e-02
<VARIANCE> 39
 2.770337e+01 2.693917e+01 6.266320e+01 4.429882e+01 4.524146e+01 3.343201e+01 2.373085e+01 4.355096e+01 3.169544e+01 2.801567e+01 2.513406e+01 2.651865e+01 1.200144e+01 7.947112e-01 1.061532e+00 1.184353e+00 1.770170e+00 2.921538e+00 2.328459e+00 1.649213e+00 2.586823e+00 2.167708e+00 1.952167e+00 1.740221e+00 1.700405e+00 4.868761e-01 9.011693e-02 1.233260e-01 1.535134e-01 2.429132e-01 4.344046e-01 4.268677e-01 2.808316e-01 4.015046e-01 3.271246e-01 3.277927e-01 2.995154e-01 2.663624e-01 4.082793e-02
<GCONST> 1.023895e+02
<STATE> 3
<MEAN> 39
 -1.531233e+00 -4.990590e+00 1.615963e+00 -1.164181e+01 -3.222175e+00 -4.677934e+00 -4.490708e+00 -1.288402e+00 -1.744287e+00 -2.005696e+00 -5.068637e+00 -4.905944e+00 6.152101e+01 -2.329768e-02 3.137511e-02 -7.038031e-02 7.118819e-02 7.848899e-02 9.775878e-03 -3.664718e-03 -4.544693e-02 -3.087030e-02 -6.851837e-02 -6.367040e-02 -1.469345e-02 -1.601553e-02 -1.134351e-03 2.472722e-02 -5.097941e-03 1.714827e-02 1.462416e-02 1.097094e-02 1.562900e-02 -1.145635e-02 -1.297060e-02 -3.989513e-03 9.358154e-03 9.696982e-03 -2.170228e-02
<VARIANCE> 39
 2.448102e+01 3.871446e+01 6.794444e+01 6.823337e+01 6.035849e+01 6.115278e+01 3.994667e+01 5.592234e+01 3.880782e+01 3.927118e+01 5.406503e+01 4.023824e+01 2.268990e+01 6.468568e-01 1.106392e+00 1.353711e+00 1.543165e+00 1.820477e+00 1.894467e+00 1.901084e+00 2.366056e+00 2.359304e+00 2.045592e+00 2.045280e+00 1.743133e+00 4.367194e-01 8.793648e-02 1.474262e-01 1.986678e-01 2.491018e-01 3.041126e-01 3.493267e-01 3.484230e-01 4.268284e-01 4.467606e-01 3.976423e-01 3.794343e-01 3.311109e-01 5.022332e-02
<GCONST> 1.079019e+02
<STATE> 4
<MEAN> 39
 -1.205462e+00 -3.086414e+00 1.523558e-01 -4.426165e+00 -2.565029e+00 -2.071612e-01 -3.082030e-01 -8.689404e-01 -1.961521e+00 -3.938188e-02 -1.006485e+00 -5.615139e+00 5.331061e+01 -3.356017e-03 5.054605e-03 -5.434434e-03 9.706405e-03 1.002128e-02 1.176052e-02 2.048862e-02 8.521514e-03 5.862396e-03 7.925173e-03 1.154585e-02 1.258249e-02 -2.250266e-02 -1.854026e-04 -6.133325e-04 2.629310e-04 -8.837882e-04 8.740603e-05 1.120792e-03 7.728229e-06 7.237669e-04 8.515983e-04 4.594887e-04 -6.468247e-04 -2.821679e-04 4.315900e-04
<VARIANCE> 39
 1.483684e+01 2.716800e+01 3.267710e+01 2.538333e+01 4.525761e+01 3.520731e+01 3.425434e+01 3.066678e+01 2.876644e+01 2.791266e+01 2.887554e+01 2.539095e+01 1.615222e+01 3.600763e-01 6.545335e-01 8.513296e-01 1.004335e+00 1.459077e+00 1.499906e+00 1.565259e+00 1.710365e+00 1.705402e+00 1.662893e+00 1.638020e+00 1.515039e+00 2.095107e-01 4.899248e-02 9.527383e-02 1.297002e-01 1.697407e-01 2.406389e-01 2.660809e-01 2.873676e-01 3.236108e-01 3.259756e-01 3.204364e-01 3.098729e-01 2.863332e-01 2.246421e-02
<GCONST> 9.256609e+01
<TRANSP> 5
 0.000000e+00 1.000000e+00 0.000000e+00 0.000000e+00 0.000000e+00
 0.000000e+00 9.315090e-01 6.849096e-02 0.000000e+00 0.000000e+00
 0.000000e+00 0.000000e+00 9.832366e-01 1.676340e-02 0.000000e+00
 0.000000e+00 0.000000e+00 0.000000e+00 9.968104e-01 3.189580e-03
 0.000000e+00 0.000000e+00 0.000000e+00 0.000000e+00 0.000000e+00
<ENDHMM>
