~o
<STREAMINFO> 1 13
<VECSIZE> 13<NULLD><MFCC_0><DIAGC>
~h "ap"
<BEGINHMM>
<NUMSTATES> 5
<STATE> 2
<NUMMIXES> 16
<MIXTURE> 1 2.861005e-02
<MEAN> 13
 -3.968529e+00 -2.525206e+00 -2.339188e+00 -7.547928e-01 4.308434e+00 7.431858e+00 7.556943e+00 3.231794e+00 1.877552e+00 4.105928e+00 4.214077e+00 2.157658e-01 5.059142e+01
<VARIANCE> 13
 6.047761e+00 5.076819e+00 6.718973e+00 6.183391e+00 7.960979e+00 1.068911e+01 1.100843e+01 1.105795e+01 1.135673e+01 1.280021e+01 1.033823e+01 1.206511e+01 2.042017e+00
<GCONST> 5.080854e+01
<MIXTURE> 2 6.175286e-02
<MEAN> 13
 -3.886415e+00 -3.068505e+00 -3.085310e+00 -1.682150e+00 3.151870e+00 5.986642e+00 6.061931e+00 2.188546e+00 6.988516e-01 2.598701e+00 2.843117e+00 -9.130179e-01 5.045848e+01
<VARIANCE> 13
 5.910379e+00 5.239861e+00 5.449048e+00 6.411680e+00 9.165957e+00 1.220545e+01 1.194344e+01 1.221803e+01 1.148225e+01 1.198801e+01 1.075847e+01 1.139349e+01 2.409399e+00
<GCONST> 5.119227e+01
<MIXTURE> 3 6.175286e-02
<MEAN> 13
 -3.886415e+00 -3.068505e+00 -3.085310e+00 -1.682150e+00 3.151870e+00 5.986642e+00 6.061931e+00 2.188546e+00 6.988516e-01 2.598701e+00 2.843117e+00 -9.130179e-01 5.045848e+01
<VARIANCE> 13
 5.910379e+00 5.239861e+00 5.449048e+00 6.411680e+00 9.165957e+00 1.220545e+01 1.194344e+01 1.221803e+01 1.148225e+01 1.198801e+01 1.075847e+01 1.139349e+01 2.409399e+00
<GCONST> 5.119227e+01
<MIXTURE> 4 7.533601e-02
<MEAN> 13
 -3.711646e+00 -3.767325e+00 -3.674535e+00 -2.732312e+00 1.675543e+00 4.356058e+00 4.409507e+00 7.479195e-01 -5.535973e-01 1.134193e+00 1.438796e+00 -1.936348e+00 5.042389e+01
<VARIANCE> 13
 5.617152e+00 5.146545e+00 5.806596e+00 7.009223e+00 1.069748e+01 1.331232e+01 1.372011e+01 1.358286e+01 1.278825e+01 1.238898e+01 1.105803e+01 1.173911e+01 3.026364e+00
<GCONST> 5.218792e+01
<MIXTURE> 5 6.175286e-02
<MEAN> 13
 -3.886415e+00 -3.068505e+00 -3.085310e+00 -1.682150e+00 3.151870e+00 5.986642e+00 6.061931e+00 2.188546e+00 6.988516e-01 2.598701e+00 2.843117e+00 -9.130179e-01 5.045848e+01
<VARIANCE> 13
 5.910379e+00 5.239861e+00 5.449048e+00 6.411680e+00 9.165957e+00 1.220545e+01 1.194344e+01 1.221803e+01 1.148225e+01 1.198801e+01 1.075847e+01 1.139349e+01 2.409399e+00
<GCONST> 5.119227e+01
<MIXTURE> 6 7.533601e-02
<MEAN> 13
 -3.711646e+00 -3.767325e+00 -3.674535e+00 -2.732312e+00 1.675543e+00 4.356058e+00 4.409507e+00 7.479195e-01 -5.535973e-01 1.134193e+00 1.438796e+00 -1.936348e+00 5.042389e+01
<VARIANCE> 13
 5.617152e+00 5.146545e+00 5.806596e+00 7.009223e+00 1.069748e+01 1.331232e+01 1.372011e+01 1.358286e+01 1.278825e+01 1.238898e+01 1.105803e+01 1.173911e+01 3.026364e+00
<GCONST> 5.218792e+01
<MIXTURE> 7 7.533601e-02
<MEAN> 13
 -3.711646e+00 -3.767325e+00 -3.674535e+00 -2.732312e+00 1.675543e+00 4.356058e+00 4.409507e+00 7.479195e-01 -5.535973e-01 1.134193e+00 1.438796e+00 -1.936348e+00 5.042389e+01
<VARIANCE> 13
 5.617152e+00 5.146545e+00 5.806596e+00 7.009223e+00 1.069748e+01 1.331232e+01 1.372011e+01 1.358286e+01 1.278825e+01 1.238898e+01 1.105803e+01 1.173911e+01 3.026364e+00
<GCONST> 5.218792e+01
<MIXTURE> 8 5.917021e-02
<MEAN> 13
 -3.764415e+00 -4.518445e+00 -4.447907e+00 -4.063555e+00 1.578916e-01 2.812613e+00 2.675222e+00 -6.961308e-01 -1.907982e+00 -2.985215e-01 1.259279e-01 -3.058331e+00 5.029231e+01
<VARIANCE> 13
 5.484643e+00 5.014214e+00 7.038969e+00 7.749620e+00 1.132345e+01 1.410184e+01 1.523051e+01 1.585851e+01 1.422766e+01 1.360987e+01 1.083981e+01 1.404535e+01 4.026423e+00
<GCONST> 5.345031e+01
<MIXTURE> 9 6.175286e-02
<MEAN> 13
 -3.886415e+00 -3.068505e+00 -3.085310e+00 -1.682150e+00 3.151870e+00 5.986642e+00 6.061931e+00 2.188546e+00 6.988516e-01 2.598701e+00 2.843117e+00 -9.130179e-01 5.045848e+01
<VARIANCE> 13
 5.910379e+00 5.239861e+00 5.449048e+00 6.411680e+00 9.165957e+00 1.220545e+01 1.194344e+01 1.221803e+01 1.148225e+01 1.198801e+01 1.075847e+01 1.139349e+01 2.409399e+00
<GCONST> 5.119227e+01
<MIXTURE> 10 7.533601e-02
<MEAN> 13
 -3.711646e+00 -3.767325e+00 -3.674535e+00 -2.732312e+00 1.675543e+00 4.356058e+00 4.409507e+00 7.479195e-01 -5.535973e-01 1.134193e+00 1.438796e+00 -1.936348e+00 5.042389e+01
<VARIANCE> 13
 5.617152e+00 5.146545e+00 5.806596e+00 7.009223e+00 1.069748e+01 1.331232e+01 1.372011e+01 1.358286e+01 1.278825e+01 1.238898e+01 1.105803e+01 1.173911e+01 3.026364e+00
<GCONST> 5.218792e+01
<MIXTURE> 11 7.533601e-02
<MEAN> 13
 -3.711646e+00 -3.767325e+00 -3.674535e+00 -2.732312e+00 1.675543e+00 4.356058e+00 4.409507e+00 7.479195e-01 -5.535973e-01 1.134193e+00 1.438796e+00 -1.936348e+00 5.042389e+01
<VARIANCE> 13
 5.617152e+00 5.146545e+00 5.806596e+00 7.009223e+00 1.069748e+01 1.331232e+01 1.372011e+01 1.358286e+01 1.278825e+01 1.238898e+01 1.105803e+01 1.173911e+01 3.026364e+00
<GCONST> 5.218792e+01
<MIXTURE> 12 5.917021e-02
<MEAN> 13
 -3.764414e+00 -4.518445e+00 -4.447907e+00 -4.063555e+00 1.578916e-01 2.812613e+00 2.675222e+00 -6.961308e-01 -1.907982e+00 -2.985216e-01 1.259279e-01 -3.058331e+00 5.029231e+01
<VARIANCE> 13
 5.484643e+00 5.014214e+00 7.038968e+00 7.749621e+00 1.132345e+01 1.410184e+01 1.523051e+01 1.585850e+01 1.422766e+01 1.360987e+01 1.083981e+01 1.404535e+01 4.026422e+00
<GCONST> 5.345031e+01
<MIXTURE> 13 7.533601e-02
<MEAN> 13
 -3.711646e+00 -3.767325e+00 -3.674535e+00 -2.732312e+00 1.675543e+00 4.356058e+00 4.409507e+00 7.479195e-01 -5.535973e-01 1.134193e+00 1.438796e+00 -1.936348e+00 5.042389e+01
<VARIANCE> 13
 5.617152e+00 5.146545e+00 5.806596e+00 7.009223e+00 1.069748e+01 1.331232e+01 1.372011e+01 1.358286e+01 1.278825e+01 1.238898e+01 1.105803e+01 1.173911e+01 3.026364e+00
<GCONST> 5.218792e+01
<MIXTURE> 14 5.917021e-02
<MEAN> 13
 -3.764414e+00 -4.518445e+00 -4.447907e+00 -4.063555e+00 1.578916e-01 2.812613e+00 2.675222e+00 -6.961308e-01 -1.907982e+00 -2.985216e-01 1.259279e-01 -3.058331e+00 5.029231e+01
<VARIANCE> 13
 5.484643e+00 5.014214e+00 7.038968e+00 7.749621e+00 1.132345e+01 1.410184e+01 1.523051e+01 1.585850e+01 1.422766e+01 1.360987e+01 1.083981e+01 1.404535e+01 4.026422e+00
<GCONST> 5.345031e+01
<MIXTURE> 15 5.917021e-02
<MEAN> 13
 -3.764415e+00 -4.518444e+00 -4.447907e+00 -4.063555e+00 1.578919e-01 2.812613e+00 2.675222e+00 -6.961309e-01 -1.907982e+00 -2.985220e-01 1.259280e-01 -3.058331e+00 5.029231e+01
<VARIANCE> 13
 5.484644e+00 5.014211e+00 7.038970e+00 7.749621e+00 1.132346e+01 1.410184e+01 1.523051e+01 1.585851e+01 1.422766e+01 1.360987e+01 1.083981e+01 1.404535e+01 4.026423e+00
<GCONST> 5.345031e+01
<MIXTURE> 16 3.567263e-02
<MEAN> 13
 -4.064015e+00 -5.321858e+00 -5.617811e+00 -5.645046e+00 -1.478123e+00 1.185851e+00 9.566948e-01 -1.832861e+00 -3.232718e+00 -1.820269e+00 -1.080303e+00 -4.374374e+00 4.987976e+01
<VARIANCE> 13
 5.400606e+00 4.855421e+00 7.740927e+00 8.574549e+00 1.115646e+01 1.572723e+01 1.432003e+01 1.671694e+01 1.493521e+01 1.589108e+01 1.073646e+01 1.630164e+01 4.734733e+00
<GCONST> 5.418914e+01
<STATE> 3
<NUMMIXES> 16
<MIXTURE> 1 2.467126e-02
<MEAN> 13
 -5.987300e+00 1.959080e+00 3.882442e-01 1.120144e+00 2.413913e+00 4.849343e+00 7.000485e+00 4.947312e+00 2.640146e+00 4.451057e+00 3.270100e+00 -2.449339e-01 4.528592e+01
<VARIANCE> 13
 7.719559e+00 5.342792e+00 5.372315e+00 6.100994e+00 8.404982e+00 1.028761e+01 1.066932e+01 1.096440e+01 1.083168e+01 1.168117e+01 1.080777e+01 9.078531e+00 6.487069e+00
<GCONST> 5.161985e+01
<MIXTURE> 2 6.092152e-02
<MEAN> 13
 -6.387310e+00 1.748825e+00 -4.392990e-01 3.143727e-01 1.478457e+00 3.658690e+00 5.621414e+00 3.457264e+00 1.388985e+00 2.995718e+00 1.995625e+00 -9.360442e-01 4.587200e+01
<VARIANCE> 13
 9.024066e+00 6.202269e+00 5.514199e+00 6.824936e+00 9.294683e+00 1.088054e+01 1.114377e+01 1.183961e+01 1.174195e+01 1.193612e+01 1.063716e+01 1.001984e+01 7.964131e+00
<GCONST> 5.273048e+01
<MIXTURE> 3 6.092152e-02
<MEAN> 13
 -6.387310e+00 1.748825e+00 -4.392990e-01 3.143730e-01 1.478457e+00 3.658690e+00 5.621414e+00 3.457264e+00 1.388984e+00 2.995718e+00 1.995625e+00 -9.360443e-01 4.587200e+01
<VARIANCE> 13
 9.024068e+00 6.202269e+00 5.514200e+00 6.824936e+00 9.294683e+00 1.088055e+01 1.114377e+01 1.183961e+01 1.174195e+01 1.193612e+01 1.063716e+01 1.001984e+01 7.964131e+00
<GCONST> 5.273048e+01
<MIXTURE> 4 7.737497e-02
<MEAN> 13
 -6.799036e+00 1.247878e+00 -1.256553e+00 -7.346193e-01 4.192636e-01 2.306426e+00 4.124587e+00 1.899908e+00 6.428975e-02 1.588928e+00 7.852191e-01 -1.695303e+00 4.633903e+01
<VARIANCE> 13
 9.968992e+00 6.988720e+00 5.602135e+00 7.211523e+00 9.697597e+00 1.171382e+01 1.177630e+01 1.258352e+01 1.163939e+01 1.227351e+01 1.090574e+01 1.084270e+01 9.794691e+00
<GCONST> 5.358259e+01
<MIXTURE> 5 6.092152e-02
<MEAN> 13
 -6.387310e+00 1.748825e+00 -4.392990e-01 3.143730e-01 1.478457e+00 3.658690e+00 5.621414e+00 3.457264e+00 1.388984e+00 2.995718e+00 1.995625e+00 -9.360443e-01 4.587200e+01
<VARIANCE> 13
 9.024068e+00 6.202269e+00 5.514200e+00 6.824936e+00 9.294683e+00 1.088055e+01 1.114377e+01 1.183961e+01 1.174195e+01 1.193612e+01 1.063716e+01 1.001984e+01 7.964131e+00
<GCONST> 5.273048e+01
<MIXTURE> 6 7.737497e-02
<MEAN> 13
 -6.799036e+00 1.247878e+00 -1.256553e+00 -7.346193e-01 4.192636e-01 2.306426e+00 4.124587e+00 1.899908e+00 6.428978e-02 1.588928e+00 7.852191e-01 -1.695303e+00 4.633903e+01
<VARIANCE> 13
 9.968992e+00 6.988720e+00 5.602135e+00 7.211523e+00 9.697597e+00 1.171382e+01 1.177630e+01 1.258352e+01 1.163939e+01 1.227351e+01 1.090574e+01 1.084270e+01 9.794691e+00
<GCONST> 5.358259e+01
<MIXTURE> 7 7.737497e-02
<MEAN> 13
 -6.799036e+00 1.247878e+00 -1.256553e+00 -7.346193e-01 4.192636e-01 2.306426e+00 4.124587e+00 1.899908e+00 6.428974e-02 1.588928e+00 7.852191e-01 -1.695303e+00 4.633903e+01
<VARIANCE> 13
 9.968992e+00 6.988720e+00 5.602135e+00 7.211523e+00 9.697596e+00 1.171382e+01 1.177630e+01 1.258352e+01 1.163939e+01 1.227351e+01 1.090574e+01 1.084270e+01 9.794690e+00
<GCONST> 5.358259e+01
<MIXTURE> 8 5.872737e-02
<MEAN> 13
 -7.389985e+00 5.399392e-01 -2.141175e+00 -1.898544e+00 -6.714674e-01 7.427136e-01 2.474058e+00 3.650627e-01 -1.298442e+00 7.404925e-02 -5.568666e-01 -2.517015e+00 4.686893e+01
<VARIANCE> 13
 1.156724e+01 7.972594e+00 5.954356e+00 7.589001e+00 1.071931e+01 1.281510e+01 1.226211e+01 1.310577e+01 1.189737e+01 1.332951e+01 1.153590e+01 1.131188e+01 1.323489e+01
<GCONST> 5.475013e+01
<MIXTURE> 9 6.092152e-02
<MEAN> 13
 -6.387310e+00 1.748825e+00 -4.392990e-01 3.143728e-01 1.478457e+00 3.658690e+00 5.621414e+00 3.457265e+00 1.388985e+00 2.995718e+00 1.995625e+00 -9.360444e-01 4.587200e+01
<VARIANCE> 13
 9.024067e+00 6.202269e+00 5.514200e+00 6.824936e+00 9.294683e+00 1.088055e+01 1.114377e+01 1.183961e+01 1.174195e+01 1.193612e+01 1.063716e+01 1.001984e+01 7.964133e+00
<GCONST> 5.273048e+01
<MIXTURE> 10 7.737497e-02
<MEAN> 13
 -6.799036e+00 1.247878e+00 -1.256553e+00 -7.346193e-01 4.192636e-01 2.306426e+00 4.124587e+00 1.899908e+00 6.428974e-02 1.588928e+00 7.852191e-01 -1.695303e+00 4.633903e+01
<VARIANCE> 13
 9.968992e+00 6.988720e+00 5.602135e+00 7.211523e+00 9.697596e+00 1.171382e+01 1.177630e+01 1.258352e+01 1.163939e+01 1.227351e+01 1.090574e+01 1.084270e+01 9.794690e+00
<GCONST> 5.358259e+01
<MIXTURE> 11 7.737498e-02
<MEAN> 13
 -6.799036e+00 1.247878e+00 -1.256553e+00 -7.346193e-01 4.192636e-01 2.306426e+00 4.124587e+00 1.899908e+00 6.428973e-02 1.588928e+00 7.852191e-01 -1.695303e+00 4.633903e+01
<VARIANCE> 13
 9.968991e+00 6.988720e+00 5.602135e+00 7.211522e+00 9.697595e+00 1.171381e+01 1.177630e+01 1.258352e+01 1.163939e+01 1.227351e+01 1.090574e+01 1.084270e+01 9.794689e+00
<GCONST> 5.358259e+01
<MIXTURE> 12 5.872737e-02
<MEAN> 13
 -7.389985e+00 5.399392e-01 -2.141175e+00 -1.898544e+00 -6.714674e-01 7.427136e-01 2.474058e+00 3.650627e-01 -1.298442e+00 7.404925e-02 -5.568666e-01 -2.517015e+00 4.686893e+01
<VARIANCE> 13
 1.156724e+01 7.972594e+00 5.954356e+00 7.589001e+00 1.071931e+01 1.281510e+01 1.226211e+01 1.310577e+01 1.189737e+01 1.332951e+01 1.153590e+01 1.131188e+01 1.323489e+01
<GCONST> 5.475013e+01
<MIXTURE> 13 7.737498e-02
<MEAN> 13
 -6.799036e+00 1.247878e+00 -1.256553e+00 -7.346193e-01 4.192636e-01 2.306426e+00 4.124587e+00 1.899908e+00 6.428970e-02 1.588928e+00 7.852191e-01 -1.695303e+00 4.633903e+01
<VARIANCE> 13
 9.968991e+00 6.988719e+00 5.602135e+00 7.211522e+00 9.697595e+00 1.171381e+01 1.177630e+01 1.258352e+01 1.163939e+01 1.227351e+01 1.090574e+01 1.084270e+01 9.794689e+00
<GCONST> 5.358259e+01
<MIXTURE> 14 5.872737e-02
<MEAN> 13
 -7.389985e+00 5.399392e-01 -2.141175e+00 -1.898544e+00 -6.714674e-01 7.427136e-01 2.474058e+00 3.650627e-01 -1.298442e+00 7.404925e-02 -5.568666e-01 -2.517015e+00 4.686893e+01
<VARIANCE> 13
 1.156724e+01 7.972594e+00 5.954356e+00 7.589001e+00 1.071931e+01 1.281510e+01 1.226211e+01 1.310577e+01 1.189737e+01 1.332951e+01 1.153590e+01 1.131188e+01 1.323489e+01
<GCONST> 5.475013e+01
<MIXTURE> 15 5.872737e-02
<MEAN> 13
 -7.389985e+00 5.399392e-01 -2.141175e+00 -1.898544e+00 -6.714675e-01 7.427133e-01 2.474058e+00 3.650627e-01 -1.298442e+00 7.404926e-02 -5.568666e-01 -2.517015e+00 4.686893e+01
<VARIANCE> 13
 1.156724e+01 7.972594e+00 5.954356e+00 7.589000e+00 1.071931e+01 1.281510e+01 1.226211e+01 1.310577e+01 1.189737e+01 1.332951e+01 1.153590e+01 1.131188e+01 1.323489e+01
<GCONST> 5.475013e+01
<MIXTURE> 16 3.247998e-02
<MEAN> 13
 -7.917597e+00 -2.533497e-01 -3.121212e+00 -3.437227e+00 -2.093367e+00 -1.246583e+00 5.214031e-01 -1.104311e+00 -2.704255e+00 -1.751564e+00 -2.043605e+00 -3.511753e+00 4.741810e+01
<VARIANCE> 13
 1.416428e+01 9.090898e+00 6.930220e+00 9.998932e+00 1.374378e+01 1.340231e+01 1.293248e+01 1.430960e+01 1.158203e+01 1.504674e+01 1.102480e+01 1.195037e+01 1.795138e+01
<GCONST> 5.635465e+01
<STATE> 4
<NUMMIXES> 16
<MIXTURE> 1 3.125596e-02
<MEAN> 13
 -6.814185e+00 -4.376966e+00 -1.698578e-01 2.386982e+00 3.330304e+00 1.254538e+00 5.622458e+00 3.115860e+00 4.664088e-01 2.458872e+00 3.576068e+00 -4.364223e-01 4.954737e+01
<VARIANCE> 13
 1.211026e+01 3.570271e+01 1.668035e+01 2.294557e+01 1.856429e+01 2.281501e+01 1.809195e+01 2.340291e+01 1.780748e+01 1.597851e+01 1.324140e+01 1.342717e+01 3.759921e+01
<GCONST> 6.246450e+01
<MIXTURE> 2 6.294721e-02
<MEAN> 13
 -8.084659e+00 -7.163431e+00 -1.998437e+00 2.148692e+00 2.407783e+00 -1.301739e+00 4.076793e+00 6.243507e-01 -1.580781e+00 6.500896e-01 2.237807e+00 -9.955333e-01 5.326282e+01
<VARIANCE> 13
 1.812652e+01 4.857513e+01 2.068571e+01 2.279384e+01 2.402246e+01 2.895090e+01 1.984192e+01 2.652505e+01 2.013704e+01 1.786678e+01 1.447469e+01 1.447921e+01 7.330386e+01
<GCONST> 6.516454e+01
<MIXTURE> 3 6.294720e-02
<MEAN> 13
 -8.084659e+00 -7.163432e+00 -1.998437e+00 2.148692e+00 2.407783e+00 -1.301739e+00 4.076792e+00 6.243504e-01 -1.580782e+00 6.500894e-01 2.237808e+00 -9.955332e-01 5.326282e+01
<VARIANCE> 13
 1.812652e+01 4.857513e+01 2.068571e+01 2.279384e+01 2.402246e+01 2.895090e+01 1.984192e+01 2.652505e+01 2.013704e+01 1.786678e+01 1.447469e+01 1.447921e+01 7.330399e+01
<GCONST> 6.516454e+01
<MIXTURE> 4 7.263847e-02
<MEAN> 13
 -1.072608e+01 -1.191809e+01 -5.353729e+00 1.463977e+00 4.786105e-01 -5.146337e+00 2.060585e+00 -2.512645e+00 -3.958019e+00 -1.362846e+00 8.275563e-01 -1.350224e+00 6.169092e+01
<VARIANCE> 13
 2.355154e+01 5.059166e+01 2.889534e+01 2.290521e+01 3.351273e+01 3.272324e+01 2.395981e+01 2.603337e+01 2.212424e+01 1.999612e+01 1.623723e+01 1.508756e+01 1.156126e+02
<GCONST> 6.724983e+01
<MIXTURE> 5 6.294720e-02
<MEAN> 13
 -8.084659e+00 -7.163432e+00 -1.998437e+00 2.148692e+00 2.407783e+00 -1.301739e+00 4.076792e+00 6.243504e-01 -1.580782e+00 6.500894e-01 2.237808e+00 -9.955332e-01 5.326282e+01
<VARIANCE> 13
 1.812652e+01 4.857513e+01 2.068571e+01 2.279384e+01 2.402246e+01 2.895090e+01 1.984192e+01 2.652505e+01 2.013704e+01 1.786678e+01 1.447469e+01 1.447921e+01 7.330399e+01
<GCONST> 6.516454e+01
<MIXTURE> 6 7.263847e-02
<MEAN> 13
 -1.072608e+01 -1.191809e+01 -5.353729e+00 1.463977e+00 4.786105e-01 -5.146337e+00 2.060585e+00 -2.512645e+00 -3.958019e+00 -1.362846e+00 8.275563e-01 -1.350224e+00 6.169092e+01
<VARIANCE> 13
 2.355154e+01 5.059166e+01 2.889534e+01 2.290521e+01 3.351273e+01 3.272324e+01 2.395981e+01 2.603337e+01 2.212424e+01 1.999612e+01 1.623723e+01 1.508756e+01 1.156126e+02
<GCONST> 6.724983e+01
<MIXTURE> 7 7.263848e-02
<MEAN> 13
 -1.072608e+01 -1.191809e+01 -5.353729e+00 1.463977e+00 4.786105e-01 -5.146337e+00 2.060585e+00 -2.512645e+00 -3.958019e+00 -1.362846e+00 8.275563e-01 -1.350224e+00 6.169092e+01
<VARIANCE> 13
 2.355154e+01 5.059166e+01 2.889534e+01 2.290521e+01 3.351272e+01 3.272324e+01 2.395981e+01 2.603336e+01 2.212424e+01 1.999612e+01 1.623723e+01 1.508755e+01 1.156126e+02
<GCONST> 6.724983e+01
<MIXTURE> 8 6.311940e-02
<MEAN> 13
 -1.299733e+01 -1.530486e+01 -8.742600e+00 6.447854e-02 -1.864105e+00 -8.299104e+00 -1.580346e-01 -4.512855e+00 -5.873203e+00 -3.232363e+00 -8.776738e-01 -2.236601e+00 7.012123e+01
<VARIANCE> 13
 2.039550e+01 3.648068e+01 2.694973e+01 2.388866e+01 3.719796e+01 2.896752e+01 2.658739e+01 2.308352e+01 2.269409e+01 2.102207e+01 1.721200e+01 1.478163e+01 9.167056e+01
<GCONST> 6.659874e+01
<MIXTURE> 9 6.294720e-02
<MEAN> 13
 -8.084659e+00 -7.163432e+00 -1.998437e+00 2.148691e+00 2.407783e+00 -1.301739e+00 4.076792e+00 6.243505e-01 -1.580782e+00 6.500893e-01 2.237808e+00 -9.955330e-01 5.326282e+01
<VARIANCE> 13
 1.812652e+01 4.857513e+01 2.068571e+01 2.279384e+01 2.402246e+01 2.895090e+01 1.984193e+01 2.652505e+01 2.013704e+01 1.786678e+01 1.447469e+01 1.447921e+01 7.330401e+01
<GCONST> 6.516454e+01
<MIXTURE> 10 7.263848e-02
<MEAN> 13
 -1.072608e+01 -1.191809e+01 -5.353729e+00 1.463977e+00 4.786105e-01 -5.146337e+00 2.060585e+00 -2.512645e+00 -3.958019e+00 -1.362846e+00 8.275563e-01 -1.350224e+00 6.169092e+01
<VARIANCE> 13
 2.355154e+01 5.059166e+01 2.889534e+01 2.290521e+01 3.351272e+01 3.272324e+01 2.395981e+01 2.603336e+01 2.212424e+01 1.999612e+01 1.623723e+01 1.508755e+01 1.156126e+02
<GCONST> 6.724983e+01
<MIXTURE> 11 7.263848e-02
<MEAN> 13
 -1.072608e+01 -1.191809e+01 -5.353729e+00 1.463977e+00 4.786105e-01 -5.146337e+00 2.060585e+00 -2.512645e+00 -3.958019e+00 -1.362846e+00 8.275563e-01 -1.350224e+00 6.169092e+01
<VARIANCE> 13
 2.355154e+01 5.059166e+01 2.889534e+01 2.290521e+01 3.351272e+01 3.272324e+01 2.395981e+01 2.603336e+01 2.212424e+01 1.999612e+01 1.623723e+01 1.508755e+01 1.156126e+02
<GCONST> 6.724983e+01
<MIXTURE> 12 6.311940e-02
<MEAN> 13
 -1.299733e+01 -1.530486e+01 -8.742600e+00 6.447854e-02 -1.864105e+00 -8.299104e+00 -1.580346e-01 -4.512855e+00 -5.873203e+00 -3.232363e+00 -8.776738e-01 -2.236601e+00 7.012123e+01
<VARIANCE> 13
 2.039550e+01 3.648068e+01 2.694973e+01 2.388866e+01 3.719796e+01 2.896752e+01 2.658739e+01 2.308352e+01 2.269409e+01 2.102207e+01 1.721200e+01 1.478163e+01 9.167056e+01
<GCONST> 6.659874e+01
<MIXTURE> 13 7.263848e-02
<MEAN> 13
 -1.072608e+01 -1.191809e+01 -5.353729e+00 1.463977e+00 4.786105e-01 -5.146337e+00 2.060585e+00 -2.512645e+00 -3.958019e+00 -1.362846e+00 8.275563e-01 -1.350224e+00 6.169092e+01
<VARIANCE> 13
 2.355154e+01 5.059166e+01 2.889534e+01 2.290521e+01 3.351272e+01 3.272324e+01 2.395981e+01 2.603336e+01 2.212424e+01 1.999612e+01 1.623723e+01 1.508755e+01 1.156126e+02
<GCONST> 6.724983e+01
<MIXTURE> 14 6.311940e-02
<MEAN> 13
 -1.299733e+01 -1.530486e+01 -8.742600e+00 6.447854e-02 -1.864105e+00 -8.299104e+00 -1.580346e-01 -4.512855e+00 -5.873203e+00 -3.232363e+00 -8.776738e-01 -2.236601e+00 7.012123e+01
<VARIANCE> 13
 2.039550e+01 3.648068e+01 2.694973e+01 2.388866e+01 3.719796e+01 2.896752e+01 2.658739e+01 2.308352e+01 2.269409e+01 2.102207e+01 1.721200e+01 1.478163e+01 9.167056e+01
<GCONST> 6.659874e+01
<MIXTURE> 15 6.311947e-02
<MEAN> 13
 -1.299733e+01 -1.530486e+01 -8.742602e+00 6.447785e-02 -1.864107e+00 -8.299105e+00 -1.580355e-01 -4.512855e+00 -5.873203e+00 -3.232363e+00 -8.776745e-01 -2.236601e+00 7.012124e+01
<VARIANCE> 13
 2.039550e+01 3.648066e+01 2.694971e+01 2.388865e+01 3.719795e+01 2.896750e+01 2.658738e+01 2.308351e+01 2.269409e+01 2.102208e+01 1.721200e+01 1.478163e+01 9.167062e+01
<GCONST> 6.659873e+01
<MIXTURE> 16 2.850436e-02
<MEAN> 13
 -1.415853e+01 -1.629974e+01 -1.068547e+01 -1.175519e+00 -3.376944e+00 -1.025594e+01 -2.126804e+00 -5.435269e+00 -7.222691e+00 -4.936159e+00 -2.627182e+00 -3.327983e+00 7.465250e+01
<VARIANCE> 13
 1.744674e+01 3.078593e+01 2.406512e+01 2.510270e+01 3.708789e+01 2.669262e+01 2.792216e+01 2.236708e+01 2.304339e+01 2.083665e+01 1.743732e+01 1.449511e+01 6.336888e+01
<GCONST> 6.577253e+01
<TRANSP> 5
 0.000000e+00 1.000000e+00 0.000000e+00 0.000000e+00 0.000000e+00
 0.000000e+00 9.781941e-01 2.180590e-02 0.000000e+00 0.000000e+00
 0.000000e+00 0.000000e+00 9.863908e-01 1.360918e-02 0.000000e+00
 0.000000e+00 0.000000e+00 0.000000e+00 9.965858e-01 3.414210e-03
 0.000000e+00 0.000000e+00 0.000000e+00 0.000000e+00 0.000000e+00
<ENDHMM>
~h "cl"
<BEGINHMM>
<NUMSTATES> 5
<STATE> 2
<NUMMIXES> 16
<MIXTURE> 1 6.588791e-03
<MEAN> 13
 -9.569100e+00 -2.254472e+00 3.167759e+00 -2.829539e+00 4.834787e+00 2.876159e+00 5.373223e+00 6.777240e+00 2.797330e+00 -1.883162e-01 2.134035e+00 2.043386e+00 4.966782e+01
<VARIANCE> 13
 4.576427e+01 2.706272e+01 4.165906e+01 4.821620e+01 5.131281e+01 5.309779e+01 2.246493e+01 4.799615e+01 3.257586e+01 6.730852e+01 6.348312e+01 5.666246e+01 2.863811e+01
<GCONST> 7.274791e+01
<MIXTURE> 2 5.294409e-02
<MEAN> 13
 -1.019564e+01 -3.370171e+00 3.105804e+00 -3.561199e+00 4.545115e+00 1.499870e+00 4.190730e+00 5.952795e+00 1.646842e+00 -1.297125e+00 1.132810e+00 1.378191e+00 5.050231e+01
<VARIANCE> 13
 5.082726e+01 3.113073e+01 4.311283e+01 4.827562e+01 5.655876e+01 5.345683e+01 2.431436e+01 4.907150e+01 3.515253e+01 6.841999e+01 6.282527e+01 6.228496e+01 3.275915e+01
<GCONST> 7.354490e+01
<MIXTURE> 3 5.294409e-02
<MEAN> 13
 -1.019564e+01 -3.370171e+00 3.105804e+00 -3.561199e+00 4.545115e+00 1.499870e+00 4.190730e+00 5.952795e+00 1.646842e+00 -1.297125e+00 1.132810e+00 1.378191e+00 5.050231e+01
<VARIANCE> 13
 5.082726e+01 3.113073e+01 4.311283e+01 4.827562e+01 5.655876e+01 5.345683e+01 2.431436e+01 4.907150e+01 3.515253e+01 6.841999e+01 6.282527e+01 6.228496e+01 3.275915e+01
<GCONST> 7.354490e+01
<MIXTURE> 4 9.622759e-02
<MEAN> 13
 -1.060048e+01 -4.864818e+00 2.613193e+00 -4.371471e+00 3.811100e+00 1.345466e-01 2.618054e+00 4.485250e+00 2.376918e-01 -2.256611e+00 -1.039603e-02 3.458536e-01 5.170837e+01
<VARIANCE> 13
 5.468522e+01 3.443139e+01 4.342952e+01 4.547324e+01 6.238293e+01 5.415196e+01 2.817762e+01 5.179418e+01 3.747088e+01 6.848299e+01 6.100547e+01 6.652342e+01 3.934135e+01
<GCONST> 7.426307e+01
<MIXTURE> 5 5.294409e-02
<MEAN> 13
 -1.019564e+01 -3.370171e+00 3.105804e+00 -3.561199e+00 4.545115e+00 1.499870e+00 4.190730e+00 5.952795e+00 1.646842e+00 -1.297125e+00 1.132810e+00 1.378191e+00 5.050231e+01
<VARIANCE> 13
 5.082726e+01 3.113073e+01 4.311283e+01 4.827562e+01 5.655876e+01 5.345683e+01 2.431436e+01 4.907150e+01 3.515253e+01 6.841999e+01 6.282527e+01 6.228496e+01 3.275915e+01
<GCONST> 7.354490e+01
<MIXTURE> 6 9.622759e-02
<MEAN> 13
 -1.060048e+01 -4.864818e+00 2.613194e+00 -4.371471e+00 3.811100e+00 1.345465e-01 2.618054e+00 4.485250e+00 2.376918e-01 -2.256612e+00 -1.039601e-02 3.458535e-01 5.170837e+01
<VARIANCE> 13
 5.468522e+01 3.443139e+01 4.342952e+01 4.547324e+01 6.238294e+01 5.415196e+01 2.817762e+01 5.179418e+01 3.747087e+01 6.848299e+01 6.100547e+01 6.652342e+01 3.934135e+01
<GCONST> 7.426307e+01
<MIXTURE> 7 9.622759e-02
<MEAN> 13
 -1.060048e+01 -4.864818e+00 2.613194e+00 -4.371471e+00 3.811100e+00 1.345465e-01 2.618054e+00 4.485250e+00 2.376918e-01 -2.256612e+00 -1.039601e-02 3.458535e-01 5.170837e+01
<VARIANCE> 13
 5.468522e+01 3.443139e+01 4.342952e+01 4.547324e+01 6.238294e+01 5.415196e+01 2.817762e+01 5.179418e+01 3.747087e+01 6.848299e+01 6.100547e+01 6.652342e+01 3.934135e+01
<GCONST> 7.426307e+01
<MIXTURE> 8 4.861840e-02
<MEAN> 13
 -1.013159e+01 -6.579469e+00 1.238643e+00 -5.203240e+00 2.300318e+00 -1.529093e+00 -2.335066e-02 1.821443e+00 -2.054013e+00 -3.268206e+00 -1.454979e+00 -1.522231e+00 5.372169e+01
<VARIANCE> 13
 5.761763e+01 3.694215e+01 4.313537e+01 4.022911e+01 7.135671e+01 5.325228e+01 3.702090e+01 5.667923e+01 4.290558e+01 6.773818e+01 5.523699e+01 6.700716e+01 5.082025e+01
<GCONST> 7.502552e+01
<MIXTURE> 9 5.294409e-02
<MEAN> 13
 -1.019564e+01 -3.370170e+00 3.105804e+00 -3.561200e+00 4.545115e+00 1.499870e+00 4.190730e+00 5.952795e+00 1.646842e+00 -1.297124e+00 1.132808e+00 1.378191e+00 5.050231e+01
<VARIANCE> 13
 5.082726e+01 3.113073e+01 4.311283e+01 4.827561e+01 5.655875e+01 5.345682e+01 2.431436e+01 4.907150e+01 3.515253e+01 6.841998e+01 6.282525e+01 6.228496e+01 3.275915e+01
<GCONST> 7.354490e+01
<MIXTURE> 10 9.622759e-02
<MEAN> 13
 -1.060048e+01 -4.864818e+00 2.613194e+00 -4.371471e+00 3.811100e+00 1.345465e-01 2.618054e+00 4.485250e+00 2.376918e-01 -2.256612e+00 -1.039601e-02 3.458535e-01 5.170837e+01
<VARIANCE> 13
 5.468522e+01 3.443139e+01 4.342952e+01 4.547324e+01 6.238294e+01 5.415196e+01 2.817762e+01 5.179418e+01 3.747087e+01 6.848299e+01 6.100547e+01 6.652342e+01 3.934135e+01
<GCONST> 7.426307e+01
<MIXTURE> 11 9.622759e-02
<MEAN> 13
 -1.060048e+01 -4.864818e+00 2.613194e+00 -4.371471e+00 3.811100e+00 1.345465e-01 2.618054e+00 4.485250e+00 2.376918e-01 -2.256612e+00 -1.039601e-02 3.458535e-01 5.170837e+01
<VARIANCE> 13
 5.468522e+01 3.443139e+01 4.342952e+01 4.547324e+01 6.238294e+01 5.415196e+01 2.817762e+01 5.179418e+01 3.747087e+01 6.848299e+01 6.100547e+01 6.652342e+01 3.934135e+01
<GCONST> 7.426307e+01
<MIXTURE> 12 4.861841e-02
<MEAN> 13
 -1.013159e+01 -6.579469e+00 1.238644e+00 -5.203241e+00 2.300318e+00 -1.529093e+00 -2.335074e-02 1.821443e+00 -2.054014e+00 -3.268205e+00 -1.454979e+00 -1.522231e+00 5.372169e+01
<VARIANCE> 13
 5.761763e+01 3.694215e+01 4.313536e+01 4.022909e+01 7.135670e+01 5.325227e+01 3.702089e+01 5.667923e+01 4.290557e+01 6.773816e+01 5.523698e+01 6.700716e+01 5.082024e+01
<GCONST> 7.502552e+01
<MIXTURE> 13 9.622759e-02
<MEAN> 13
 -1.060048e+01 -4.864818e+00 2.613193e+00 -4.371471e+00 3.811100e+00 1.345466e-01 2.618054e+00 4.485250e+00 2.376918e-01 -2.256611e+00 -1.039603e-02 3.458536e-01 5.170837e+01
<VARIANCE> 13
 5.468522e+01 3.443139e+01 4.342952e+01 4.547324e+01 6.238293e+01 5.415196e+01 2.817762e+01 5.179418e+01 3.747088e+01 6.848299e+01 6.100547e+01 6.652342e+01 3.934135e+01
<GCONST> 7.426307e+01
<MIXTURE> 14 4.861841e-02
<MEAN> 13
 -1.013159e+01 -6.579469e+00 1.238644e+00 -5.203241e+00 2.300318e+00 -1.529093e+00 -2.335074e-02 1.821443e+00 -2.054014e+00 -3.268205e+00 -1.454979e+00 -1.522231e+00 5.372169e+01
<VARIANCE> 13
 5.761763e+01 3.694215e+01 4.313536e+01 4.022909e+01 7.135670e+01 5.325227e+01 3.702089e+01 5.667923e+01 4.290557e+01 6.773816e+01 5.523698e+01 6.700716e+01 5.082024e+01
<GCONST> 7.502552e+01
<MIXTURE> 15 4.861841e-02
<MEAN> 13
 -1.013159e+01 -6.579469e+00 1.238644e+00 -5.203241e+00 2.300318e+00 -1.529093e+00 -2.335067e-02 1.821443e+00 -2.054014e+00 -3.268205e+00 -1.454979e+00 -1.522231e+00 5.372169e+01
<VARIANCE> 13
 5.761763e+01 3.694215e+01 4.313536e+01 4.022909e+01 7.135670e+01 5.325227e+01 3.702089e+01 5.667923e+01 4.290557e+01 6.773816e+01 5.523698e+01 6.700716e+01 5.082024e+01
<GCONST> 7.502552e+01
<MIXTURE> 16 9.778680e-03
<MEAN> 13
 -7.348083e+00 -8.381304e+00 -1.924967e+00 -5.848364e+00 3.877877e-01 -3.787582e+00 -4.663061e+00 -2.814454e+00 -6.132183e+00 -5.704581e+00 -3.249030e+00 -4.083993e+00 5.728075e+01
<VARIANCE> 13
 5.790987e+01 3.989273e+01 4.128503e+01 3.072247e+01 8.118639e+01 4.759302e+01 4.365245e+01 5.470671e+01 4.916862e+01 7.344119e+01 3.957058e+01 5.121587e+01 6.272734e+01
<GCONST> 7.476534e+01
<STATE> 3
<NUMMIXES> 16
<MIXTURE> 1 1.492887e-02
<MEAN> 13
 -1.999729e+01 3.758548e+00 5.426686e-01 -3.598445e+00 -1.423354e+00 1.527746e+01 3.596564e+00 -1.337633e+00 1.079931e+01 -7.623088e-01 -9.620801e-01 7.078176e+00 5.949513e+01
<VARIANCE> 13
 3.493536e+01 6.982674e+00 1.119334e+01 9.287946e+00 1.266720e+01 2.328787e+01 2.211256e+01 1.986293e+01 2.025974e+01 1.873714e+01 1.777440e+01 1.768637e+01 1.452854e+01
<GCONST> 6.017113e+01
<MIXTURE> 2 5.848715e-02
<MEAN> 13
 -1.902453e+01 3.163028e+00 -4.031855e-01 -4.267313e+00 -2.291497e+00 1.414514e+01 2.423605e+00 -2.421096e+00 9.236121e+00 -1.804982e+00 -1.950740e+00 6.241334e+00 5.892411e+01
<VARIANCE> 13
 3.978584e+01 7.743672e+00 1.134120e+01 9.603905e+00 1.375029e+01 2.342440e+01 2.215064e+01 1.930573e+01 2.029191e+01 1.865300e+01 1.798124e+01 1.747512e+01 1.603391e+01
<GCONST> 6.060755e+01
<MIXTURE> 3 5.848715e-02
<MEAN> 13
 -1.902453e+01 3.163028e+00 -4.031857e-01 -4.267313e+00 -2.291497e+00 1.414514e+01 2.423606e+00 -2.421095e+00 9.236121e+00 -1.804983e+00 -1.950740e+00 6.241334e+00 5.892411e+01
<VARIANCE> 13
 3.978584e+01 7.743671e+00 1.134120e+01 9.603907e+00 1.375028e+01 2.342441e+01 2.215064e+01 1.930573e+01 2.029191e+01 1.865300e+01 1.798124e+01 1.747512e+01 1.603391e+01
<GCONST> 6.060755e+01
<MIXTURE> 4 8.402333e-02
<MEAN> 13
 -1.823726e+01 2.576907e+00 -1.381206e+00 -5.163977e+00 -3.384210e+00 1.258350e+01 8.864338e-01 -3.768757e+00 7.501095e+00 -3.056330e+00 -2.971415e+00 5.239155e+00 5.851818e+01
<VARIANCE> 13
 4.255193e+01 8.851211e+00 1.138499e+01 1.038496e+01 1.507005e+01 2.563693e+01 2.288003e+01 2.031087e+01 2.146169e+01 1.821598e+01 1.787222e+01 1.754659e+01 1.694489e+01
<GCONST> 6.124114e+01
<MIXTURE> 5 5.848715e-02
<MEAN> 13
 -1.902453e+01 3.163028e+00 -4.031857e-01 -4.267313e+00 -2.291497e+00 1.414514e+01 2.423606e+00 -2.421095e+00 9.236121e+00 -1.804983e+00 -1.950740e+00 6.241334e+00 5.892411e+01
<VARIANCE> 13
 3.978584e+01 7.743671e+00 1.134120e+01 9.603907e+00 1.375028e+01 2.342441e+01 2.215064e+01 1.930573e+01 2.029191e+01 1.865300e+01 1.798124e+01 1.747512e+01 1.603391e+01
<GCONST> 6.060755e+01
<MIXTURE> 6 8.402333e-02
<MEAN> 13
 -1.823726e+01 2.576907e+00 -1.381206e+00 -5.163977e+00 -3.384210e+00 1.258350e+01 8.864338e-01 -3.768757e+00 7.501095e+00 -3.056330e+00 -2.971415e+00 5.239155e+00 5.851818e+01
<VARIANCE> 13
 4.255193e+01 8.851211e+00 1.138499e+01 1.038496e+01 1.507005e+01 2.563693e+01 2.288003e+01 2.031087e+01 2.146169e+01 1.821598e+01 1.787222e+01 1.754659e+01 1.694489e+01
<GCONST> 6.124114e+01
<MIXTURE> 7 8.402333e-02
<MEAN> 13
 -1.823726e+01 2.576907e+00 -1.381206e+00 -5.163977e+00 -3.384210e+00 1.258350e+01 8.864338e-01 -3.768757e+00 7.501095e+00 -3.056330e+00 -2.971415e+00 5.239155e+00 5.851818e+01
<VARIANCE> 13
 4.255193e+01 8.851211e+00 1.138499e+01 1.038496e+01 1.507005e+01 2.563693e+01 2.288003e+01 2.031087e+01 2.146169e+01 1.821598e+01 1.787222e+01 1.754659e+01 1.694489e+01
<GCONST> 6.124114e+01
<MIXTURE> 8 5.629384e-02
<MEAN> 13
 -1.738435e+01 2.055042e+00 -2.541872e+00 -6.423066e+00 -5.027390e+00 1.027201e+01 -1.321105e+00 -5.750842e+00 5.443005e+00 -4.465048e+00 -4.010146e+00 4.321560e+00 5.849210e+01
<VARIANCE> 13
 4.616265e+01 1.097960e+01 1.319201e+01 1.138013e+01 1.651173e+01 2.976027e+01 2.560040e+01 2.380970e+01 2.285794e+01 1.859685e+01 1.830633e+01 1.830303e+01 1.889605e+01
<GCONST> 6.254760e+01
<MIXTURE> 9 5.848715e-02
<MEAN> 13
 -1.902453e+01 3.163028e+00 -4.031857e-01 -4.267313e+00 -2.291497e+00 1.414514e+01 2.423606e+00 -2.421095e+00 9.236121e+00 -1.804983e+00 -1.950740e+00 6.241334e+00 5.892411e+01
<VARIANCE> 13
 3.978584e+01 7.743671e+00 1.134120e+01 9.603907e+00 1.375028e+01 2.342441e+01 2.215064e+01 1.930573e+01 2.029191e+01 1.865300e+01 1.798124e+01 1.747512e+01 1.603391e+01
<GCONST> 6.060755e+01
<MIXTURE> 10 8.402333e-02
<MEAN> 13
 -1.823726e+01 2.576907e+00 -1.381206e+00 -5.163977e+00 -3.384210e+00 1.258350e+01 8.864338e-01 -3.768757e+00 7.501095e+00 -3.056330e+00 -2.971415e+00 5.239155e+00 5.851818e+01
<VARIANCE> 13
 4.255193e+01 8.851211e+00 1.138499e+01 1.038496e+01 1.507005e+01 2.563693e+01 2.288003e+01 2.031087e+01 2.146169e+01 1.821598e+01 1.787222e+01 1.754659e+01 1.694489e+01
<GCONST> 6.124114e+01
<MIXTURE> 11 8.402333e-02
<MEAN> 13
 -1.823726e+01 2.576907e+00 -1.381206e+00 -5.163977e+00 -3.384210e+00 1.258350e+01 8.864338e-01 -3.768757e+00 7.501095e+00 -3.056330e+00 -2.971415e+00 5.239155e+00 5.851818e+01
<VARIANCE> 13
 4.255193e+01 8.851211e+00 1.138499e+01 1.038496e+01 1.507005e+01 2.563693e+01 2.288003e+01 2.031087e+01 2.146169e+01 1.821598e+01 1.787222e+01 1.754659e+01 1.694489e+01
<GCONST> 6.124114e+01
<MIXTURE> 12 5.629384e-02
<MEAN> 13
 -1.738435e+01 2.055042e+00 -2.541872e+00 -6.423066e+00 -5.027390e+00 1.027201e+01 -1.321105e+00 -5.750842e+00 5.443005e+00 -4.465048e+00 -4.010146e+00 4.321560e+00 5.849210e+01
<VARIANCE> 13
 4.616265e+01 1.097960e+01 1.319201e+01 1.138013e+01 1.651173e+01 2.976027e+01 2.560040e+01 2.380970e+01 2.285794e+01 1.859685e+01 1.830633e+01 1.830303e+01 1.889605e+01
<GCONST> 6.254760e+01
<MIXTURE> 13 8.402333e-02
<MEAN> 13
 -1.823726e+01 2.576907e+00 -1.381206e+00 -5.163977e+00 -3.384210e+00 1.258350e+01 8.864338e-01 -3.768757e+00 7.501095e+00 -3.056330e+00 -2.971415e+00 5.239155e+00 5.851818e+01
<VARIANCE> 13
 4.255193e+01 8.851211e+00 1.138499e+01 1.038496e+01 1.507005e+01 2.563693e+01 2.288003e+01 2.031087e+01 2.146169e+01 1.821598e+01 1.787222e+01 1.754659e+01 1.694489e+01
<GCONST> 6.124114e+01
<MIXTURE> 14 5.629384e-02
<MEAN> 13
 -1.738435e+01 2.055042e+00 -2.541872e+00 -6.423066e+00 -5.027390e+00 1.027201e+01 -1.321105e+00 -5.750842e+00 5.443005e+00 -4.465048e+00 -4.010146e+00 4.321560e+00 5.849210e+01
<VARIANCE> 13
 4.616265e+01 1.097960e+01 1.319201e+01 1.138013e+01 1.651173e+01 2.976027e+01 2.560040e+01 2.380970e+01 2.285794e+01 1.859685e+01 1.830633e+01 1.830303e+01 1.889605e+01
<GCONST> 6.254760e+01
<MIXTURE> 15 5.629384e-02
<MEAN> 13
 -1.738435e+01 2.055042e+00 -2.541872e+00 -6.423066e+00 -5.027390e+00 1.027201e+01 -1.321105e+00 -5.750842e+00 5.443005e+00 -4.465048e+00 -4.010146e+00 4.321560e+00 5.849210e+01
<VARIANCE> 13
 4.616265e+01 1.097960e+01 1.319201e+01 1.138013e+01 1.651173e+01 2.976027e+01 2.560040e+01 2.380970e+01 2.285794e+01 1.859685e+01 1.830633e+01 1.830303e+01 1.889605e+01
<GCONST> 6.254760e+01
<MIXTURE> 16 2.181222e-02
<MEAN> 13
 -1.562511e+01 1.669905e+00 -4.103141e+00 -8.086797e+00 -7.096392e+00 7.144258e+00 -4.299393e+00 -8.440356e+00 3.204579e+00 -5.890130e+00 -4.849183e+00 3.874183e+00 5.903943e+01
<VARIANCE> 13
 5.616893e+01 1.491511e+01 1.782947e+01 1.320291e+01 1.624016e+01 3.603348e+01 3.084487e+01 2.763616e+01 2.355638e+01 1.899287e+01 1.828885e+01 1.938360e+01 2.301877e+01
<GCONST> 6.431496e+01
<STATE> 4
<NUMMIXES> 16
<MIXTURE> 1 1.168413e-02
<MEAN> 13
 -1.995166e+01 2.758684e+00 7.535061e+00 -2.414760e-01 -3.658131e+00 1.217147e+01 5.675193e+00 -3.160476e+00 5.305626e+00 7.479451e+00 -8.198281e+00 5.141753e+00 5.420646e+01
<VARIANCE> 13
 4.275363e+01 8.065795e+00 1.228381e+01 1.582705e+01 2.263835e+01 2.915549e+01 2.034518e+01 3.532843e+01 2.970090e+01 3.124547e+01 2.889464e+01 2.251791e+01 2.756985e+01
<GCONST> 6.470305e+01
<MIXTURE> 2 5.594573e-02
<MEAN> 13
 -2.046602e+01 1.902595e+00 6.954051e+00 -1.669189e+00 -4.646958e+00 1.123744e+01 3.819808e+00 -4.359368e+00 4.395538e+00 5.705925e+00 -9.414037e+00 4.935190e+00 5.521580e+01
<VARIANCE> 13
 4.870766e+01 8.038337e+00 1.382396e+01 1.624676e+01 2.456315e+01 3.009695e+01 2.285996e+01 3.955004e+01 3.062531e+01 2.905103e+01 3.173877e+01 2.611515e+01 3.525779e+01
<GCONST> 6.576300e+01
<MIXTURE> 3 5.594573e-02
<MEAN> 13
 -2.046602e+01 1.902595e+00 6.954051e+00 -1.669189e+00 -4.646958e+00 1.123744e+01 3.819808e+00 -4.359368e+00 4.395538e+00 5.705925e+00 -9.414037e+00 4.935190e+00 5.521580e+01
<VARIANCE> 13
 4.870766e+01 8.038337e+00 1.382396e+01 1.624676e+01 2.456315e+01 3.009695e+01 2.285996e+01 3.955004e+01 3.062531e+01 2.905103e+01 3.173877e+01 2.611515e+01 3.525779e+01
<GCONST> 6.576300e+01
<MIXTURE> 4 8.889913e-02
<MEAN> 13
 -2.105398e+01 1.047362e+00 6.290158e+00 -3.086258e+00 -6.137940e+00 1.007505e+01 1.650884e+00 -6.189157e+00 3.029053e+00 4.171660e+00 -1.084347e+01 4.656557e+00 5.660812e+01
<VARIANCE> 13
 5.330362e+01 8.481999e+00 1.585674e+01 1.579711e+01 2.660590e+01 3.275084e+01 2.566681e+01 4.607256e+01 3.238924e+01 2.723108e+01 3.355100e+01 3.072926e+01 4.218489e+01
<GCONST> 6.683778e+01
<MIXTURE> 5 5.594573e-02
<MEAN> 13
 -2.046602e+01 1.902595e+00 6.954051e+00 -1.669189e+00 -4.646958e+00 1.123744e+01 3.819808e+00 -4.359368e+00 4.395538e+00 5.705925e+00 -9.414037e+00 4.935190e+00 5.521580e+01
<VARIANCE> 13
 4.870766e+01 8.038337e+00 1.382396e+01 1.624676e+01 2.456315e+01 3.009695e+01 2.285996e+01 3.955004e+01 3.062531e+01 2.905103e+01 3.173877e+01 2.611515e+01 3.525779e+01
<GCONST> 6.576300e+01
<MIXTURE> 6 8.889913e-02
<MEAN> 13
 -2.105398e+01 1.047362e+00 6.290158e+00 -3.086258e+00 -6.137940e+00 1.007505e+01 1.650884e+00 -6.189157e+00 3.029053e+00 4.171660e+00 -1.084347e+01 4.656557e+00 5.660812e+01
<VARIANCE> 13
 5.330362e+01 8.481999e+00 1.585674e+01 1.579711e+01 2.660590e+01 3.275084e+01 2.566681e+01 4.607256e+01 3.238924e+01 2.723108e+01 3.355100e+01 3.072926e+01 4.218489e+01
<GCONST> 6.683778e+01
<MIXTURE> 7 8.889913e-02
<MEAN> 13
 -2.105398e+01 1.047362e+00 6.290158e+00 -3.086258e+00 -6.137940e+00 1.007505e+01 1.650884e+00 -6.189157e+00 3.029053e+00 4.171660e+00 -1.084347e+01 4.656557e+00 5.660812e+01
<VARIANCE> 13
 5.330362e+01 8.481999e+00 1.585674e+01 1.579711e+01 2.660590e+01 3.275084e+01 2.566681e+01 4.607256e+01 3.238924e+01 2.723108e+01 3.355100e+01 3.072926e+01 4.218489e+01
<GCONST> 6.683778e+01
<MIXTURE> 8 5.394704e-02
<MEAN> 13
 -2.091753e+01 3.725239e-01 5.490640e+00 -4.500361e+00 -7.973960e+00 8.171557e+00 -7.748037e-01 -8.649769e+00 9.911402e-01 2.630066e+00 -1.218389e+01 3.982366e+00 5.795877e+01
<VARIANCE> 13
 6.104665e+01 1.018534e+01 2.023360e+01 1.585544e+01 2.841840e+01 3.765189e+01 2.754573e+01 5.304953e+01 3.516757e+01 2.621676e+01 3.594963e+01 3.367992e+01 4.513255e+01
<GCONST> 6.809348e+01
<MIXTURE> 9 5.594573e-02
<MEAN> 13
 -2.046602e+01 1.902594e+00 6.954051e+00 -1.669189e+00 -4.646958e+00 1.123744e+01 3.819808e+00 -4.359368e+00 4.395538e+00 5.705925e+00 -9.414037e+00 4.935191e+00 5.521580e+01
<VARIANCE> 13
 4.870765e+01 8.038336e+00 1.382396e+01 1.624676e+01 2.456315e+01 3.009695e+01 2.285995e+01 3.955004e+01 3.062530e+01 2.905103e+01 3.173877e+01 2.611515e+01 3.525778e+01
<GCONST> 6.576300e+01
<MIXTURE> 10 8.889913e-02
<MEAN> 13
 -2.105398e+01 1.047362e+00 6.290158e+00 -3.086258e+00 -6.137940e+00 1.007505e+01 1.650884e+00 -6.189157e+00 3.029053e+00 4.171660e+00 -1.084347e+01 4.656557e+00 5.660812e+01
<VARIANCE> 13
 5.330362e+01 8.481999e+00 1.585674e+01 1.579711e+01 2.660590e+01 3.275084e+01 2.566681e+01 4.607256e+01 3.238924e+01 2.723108e+01 3.355100e+01 3.072926e+01 4.218489e+01
<GCONST> 6.683778e+01
<MIXTURE> 11 8.889913e-02
<MEAN> 13
 -2.105398e+01 1.047362e+00 6.290158e+00 -3.086258e+00 -6.137940e+00 1.007505e+01 1.650884e+00 -6.189157e+00 3.029053e+00 4.171660e+00 -1.084347e+01 4.656557e+00 5.660812e+01
<VARIANCE> 13
 5.330362e+01 8.481999e+00 1.585674e+01 1.579711e+01 2.660590e+01 3.275084e+01 2.566681e+01 4.607256e+01 3.238924e+01 2.723108e+01 3.355100e+01 3.072926e+01 4.218489e+01
<GCONST> 6.683778e+01
<MIXTURE> 12 5.394704e-02
<MEAN> 13
 -2.091753e+01 3.725239e-01 5.490640e+00 -4.500361e+00 -7.973960e+00 8.171557e+00 -7.748037e-01 -8.649769e+00 9.911402e-01 2.630066e+00 -1.218389e+01 3.982366e+00 5.795877e+01
<VARIANCE> 13
 6.104665e+01 1.018534e+01 2.023360e+01 1.585544e+01 2.841840e+01 3.765189e+01 2.754573e+01 5.304953e+01 3.516757e+01 2.621676e+01 3.594963e+01 3.367992e+01 4.513255e+01
<GCONST> 6.809348e+01
<MIXTURE> 13 8.889913e-02
<MEAN> 13
 -2.105398e+01 1.047362e+00 6.290158e+00 -3.086258e+00 -6.137940e+00 1.007505e+01 1.650884e+00 -6.189157e+00 3.029053e+00 4.171660e+00 -1.084347e+01 4.656557e+00 5.660812e+01
<VARIANCE> 13
 5.330362e+01 8.481999e+00 1.585674e+01 1.579711e+01 2.660590e+01 3.275084e+01 2.566681e+01 4.607256e+01 3.238924e+01 2.723108e+01 3.355100e+01 3.072926e+01 4.218489e+01
<GCONST> 6.683778e+01
<MIXTURE> 14 5.394704e-02
<MEAN> 13
 -2.091753e+01 3.725239e-01 5.490640e+00 -4.500361e+00 -7.973960e+00 8.171557e+00 -7.748037e-01 -8.649769e+00 9.911402e-01 2.630066e+00 -1.218389e+01 3.982366e+00 5.795877e+01
<VARIANCE> 13
 6.104665e+01 1.018534e+01 2.023360e+01 1.585544e+01 2.841840e+01 3.765189e+01 2.754573e+01 5.304953e+01 3.516757e+01 2.621676e+01 3.594963e+01 3.367992e+01 4.513255e+01
<GCONST> 6.809348e+01
<MIXTURE> 15 5.394704e-02
<MEAN> 13
 -2.091753e+01 3.725240e-01 5.490640e+00 -4.500361e+00 -7.973960e+00 8.171557e+00 -7.748037e-01 -8.649769e+00 9.911403e-01 2.630066e+00 -1.218389e+01 3.982366e+00 5.795877e+01
<VARIANCE> 13
 6.104665e+01 1.018534e+01 2.023360e+01 1.585544e+01 2.841840e+01 3.765189e+01 2.754573e+01 5.304953e+01 3.516757e+01 2.621676e+01 3.594963e+01 3.367992e+01 4.513255e+01
<GCONST> 6.809348e+01
<MIXTURE> 16 1.525379e-02
<MEAN> 13
 -1.871609e+01 -3.746757e-01 3.979348e+00 -6.179681e+00 -1.030187e+01 4.933321e+00 -3.493214e+00 -1.157387e+01 -1.727062e+00 9.572840e-01 -1.320877e+01 2.692671e+00 5.901574e+01
<VARIANCE> 13
 8.327078e+01 1.828340e+01 3.394201e+01 1.662260e+01 3.218317e+01 4.456308e+01 2.796314e+01 5.326085e+01 3.496995e+01 2.504401e+01 4.209921e+01 3.215137e+01 4.178900e+01
<GCONST> 6.984859e+01
<TRANSP> 5
 0.000000e+00 1.000000e+00 0.000000e+00 0.000000e+00 0.000000e+00
 0.000000e+00 9.814110e-01 1.858897e-02 0.000000e+00 0.000000e+00
 0.000000e+00 0.000000e+00 9.868869e-01 1.311315e-02 0.000000e+00
 0.000000e+00 0.000000e+00 0.000000e+00 9.943014e-01 5.698634e-03
 0.000000e+00 0.000000e+00 0.000000e+00 0.000000e+00 0.000000e+00
<ENDHMM>
~h "cm"
<BEGINHMM>
<NUMSTATES> 5
<STATE> 2
<NUMMIXES> 16
<MIXTURE> 1 2.161180e-02
<MEAN> 13
 -8.640521e+00 1.370136e+00 -8.313490e-01 -1.995590e+00 2.331934e+00 2.318847e+00 9.988167e-01 1.538486e+00 -3.612540e-01 1.677695e+00 2.946766e+00 -2.776924e-01 6.024551e+01
<VARIANCE> 13
 2.669139e+01 1.092232e+01 1.124508e+01 1.235769e+01 1.182568e+01 1.317335e+01 1.626167e+01 1.790089e+01 1.624798e+01 1.567890e+01 1.836523e+01 1.393024e+01 4.818719e+01
<GCONST> 6.018379e+01
<MIXTURE> 2 6.042692e-02
<MEAN> 13
 -8.855102e+00 6.288853e-01 -1.633867e+00 -2.990213e+00 1.029978e+00 8.266898e-01 -6.466560e-01 -1.942178e-01 -1.924692e+00 1.689884e-01 1.653099e+00 -1.022641e+00 6.139058e+01
<VARIANCE> 13
 2.502278e+01 1.152122e+01 1.128821e+01 1.277309e+01 1.279496e+01 1.381917e+01 1.584171e+01 1.773459e+01 1.647171e+01 1.651455e+01 1.799567e+01 1.459631e+01 5.200632e+01
<GCONST> 6.046891e+01
<MIXTURE> 3 6.042692e-02
<MEAN> 13
 -8.855102e+00 6.288853e-01 -1.633867e+00 -2.990213e+00 1.029978e+00 8.266898e-01 -6.466560e-01 -1.942181e-01 -1.924692e+00 1.689883e-01 1.653099e+00 -1.022641e+00 6.139058e+01
<VARIANCE> 13
 2.502278e+01 1.152122e+01 1.128821e+01 1.277309e+01 1.279496e+01 1.381917e+01 1.584171e+01 1.773459e+01 1.647171e+01 1.651455e+01 1.799567e+01 1.459631e+01 5.200632e+01
<GCONST> 6.046890e+01
<MIXTURE> 4 8.102462e-02
<MEAN> 13
 -8.694036e+00 -1.666612e-01 -2.564429e+00 -4.062858e+00 -4.459774e-01 -7.934799e-01 -2.344555e+00 -1.952786e+00 -3.559524e+00 -1.401979e+00 1.598342e-01 -1.899420e+00 6.282574e+01
<VARIANCE> 13
 2.441370e+01 1.229752e+01 1.170363e+01 1.346145e+01 1.316949e+01 1.405209e+01 1.522025e+01 1.738409e+01 1.684525e+01 1.685816e+01 1.818057e+01 1.479932e+01 5.705739e+01
<GCONST> 6.074342e+01
<MIXTURE> 5 6.042692e-02
<MEAN> 13
 -8.855102e+00 6.288853e-01 -1.633867e+00 -2.990213e+00 1.029978e+00 8.266898e-01 -6.466560e-01 -1.942181e-01 -1.924692e+00 1.689883e-01 1.653099e+00 -1.022641e+00 6.139058e+01
<VARIANCE> 13
 2.502278e+01 1.152122e+01 1.128821e+01 1.277309e+01 1.279496e+01 1.381917e+01 1.584171e+01 1.773459e+01 1.647171e+01 1.651455e+01 1.799567e+01 1.459631e+01 5.200632e+01
<GCONST> 6.046890e+01
<MIXTURE> 6 8.102462e-02
<MEAN> 13
 -8.694036e+00 -1.666612e-01 -2.564429e+00 -4.062858e+00 -4.459774e-01 -7.934799e-01 -2.344555e+00 -1.952785e+00 -3.559524e+00 -1.401979e+00 1.598343e-01 -1.899420e+00 6.282574e+01
<VARIANCE> 13
 2.441370e+01 1.229752e+01 1.170363e+01 1.346145e+01 1.316949e+01 1.405209e+01 1.522025e+01 1.738409e+01 1.684525e+01 1.685816e+01 1.818057e+01 1.479932e+01 5.705739e+01
<GCONST> 6.074342e+01
<MIXTURE> 7 8.102462e-02
<MEAN> 13
 -8.694036e+00 -1.666612e-01 -2.564429e+00 -4.062858e+00 -4.459774e-01 -7.934799e-01 -2.344555e+00 -1.952785e+00 -3.559524e+00 -1.401979e+00 1.598343e-01 -1.899420e+00 6.282574e+01
<VARIANCE> 13
 2.441370e+01 1.229752e+01 1.170363e+01 1.346145e+01 1.316949e+01 1.405209e+01 1.522025e+01 1.738409e+01 1.684525e+01 1.685816e+01 1.818057e+01 1.479932e+01 5.705739e+01
<GCONST> 6.074342e+01
<MIXTURE> 8 5.663553e-02
<MEAN> 13
 -8.533757e+00 -1.087423e+00 -3.693403e+00 -5.241929e+00 -2.086415e+00 -2.536160e+00 -4.092457e+00 -3.780053e+00 -5.255820e+00 -3.025487e+00 -1.496661e+00 -2.840290e+00 6.450305e+01
<VARIANCE> 13
 2.295878e+01 1.327584e+01 1.273149e+01 1.432343e+01 1.360325e+01 1.448203e+01 1.528666e+01 1.711951e+01 1.725566e+01 1.690906e+01 1.808918e+01 1.488249e+01 6.230697e+01
<GCONST> 6.107200e+01
<MIXTURE> 9 6.042692e-02
<MEAN> 13
 -8.855102e+00 6.288853e-01 -1.633867e+00 -2.990213e+00 1.029978e+00 8.266898e-01 -6.466560e-01 -1.942180e-01 -1.924692e+00 1.689886e-01 1.653099e+00 -1.022641e+00 6.139058e+01
<VARIANCE> 13
 2.502278e+01 1.152122e+01 1.128821e+01 1.277309e+01 1.279496e+01 1.381917e+01 1.584171e+01 1.773459e+01 1.647171e+01 1.651455e+01 1.799567e+01 1.459631e+01 5.200632e+01
<GCONST> 6.046890e+01
<MIXTURE> 10 8.102462e-02
<MEAN> 13
 -8.694036e+00 -1.666612e-01 -2.564429e+00 -4.062858e+00 -4.459774e-01 -7.934799e-01 -2.344555e+00 -1.952785e+00 -3.559524e+00 -1.401979e+00 1.598343e-01 -1.899420e+00 6.282574e+01
<VARIANCE> 13
 2.441370e+01 1.229752e+01 1.170363e+01 1.346145e+01 1.316949e+01 1.405209e+01 1.522025e+01 1.738409e+01 1.684525e+01 1.685816e+01 1.818057e+01 1.479932e+01 5.705739e+01
<GCONST> 6.074342e+01
<MIXTURE> 11 8.102462e-02
<MEAN> 13
 -8.694036e+00 -1.666612e-01 -2.564429e+00 -4.062858e+00 -4.459773e-01 -7.934797e-01 -2.344555e+00 -1.952785e+00 -3.559524e+00 -1.401979e+00 1.598342e-01 -1.899420e+00 6.282574e+01
<VARIANCE> 13
 2.441370e+01 1.229752e+01 1.170363e+01 1.346145e+01 1.316949e+01 1.405209e+01 1.522025e+01 1.738409e+01 1.684525e+01 1.685816e+01 1.818057e+01 1.479932e+01 5.705739e+01
<GCONST> 6.074342e+01
<MIXTURE> 12 5.663554e-02
<MEAN> 13
 -8.533757e+00 -1.087423e+00 -3.693403e+00 -5.241929e+00 -2.086415e+00 -2.536160e+00 -4.092457e+00 -3.780053e+00 -5.255820e+00 -3.025488e+00 -1.496661e+00 -2.840290e+00 6.450305e+01
<VARIANCE> 13
 2.295878e+01 1.327584e+01 1.273149e+01 1.432343e+01 1.360325e+01 1.448203e+01 1.528666e+01 1.711951e+01 1.725565e+01 1.690906e+01 1.808918e+01 1.488249e+01 6.230697e+01
<GCONST> 6.107200e+01
<MIXTURE> 13 8.102462e-02
<MEAN> 13
 -8.694036e+00 -1.666612e-01 -2.564429e+00 -4.062858e+00 -4.459773e-01 -7.934798e-01 -2.344555e+00 -1.952786e+00 -3.559524e+00 -1.401979e+00 1.598343e-01 -1.899420e+00 6.282574e+01
<VARIANCE> 13
 2.441370e+01 1.229752e+01 1.170363e+01 1.346145e+01 1.316949e+01 1.405209e+01 1.522025e+01 1.738409e+01 1.684525e+01 1.685816e+01 1.818057e+01 1.479932e+01 5.705740e+01
<GCONST> 6.074342e+01
<MIXTURE> 14 5.663554e-02
<MEAN> 13
 -8.533757e+00 -1.087423e+00 -3.693403e+00 -5.241929e+00 -2.086415e+00 -2.536160e+00 -4.092457e+00 -3.780053e+00 -5.255820e+00 -3.025488e+00 -1.496661e+00 -2.840290e+00 6.450305e+01
<VARIANCE> 13
 2.295878e+01 1.327584e+01 1.273149e+01 1.432343e+01 1.360325e+01 1.448203e+01 1.528666e+01 1.711951e+01 1.725565e+01 1.690906e+01 1.808918e+01 1.488249e+01 6.230697e+01
<GCONST> 6.107200e+01
<MIXTURE> 15 5.663554e-02
<MEAN> 13
 -8.533757e+00 -1.087423e+00 -3.693403e+00 -5.241929e+00 -2.086415e+00 -2.536160e+00 -4.092457e+00 -3.780053e+00 -5.255820e+00 -3.025488e+00 -1.496661e+00 -2.840290e+00 6.450305e+01
<VARIANCE> 13
 2.295878e+01 1.327584e+01 1.273149e+01 1.432343e+01 1.360325e+01 1.448203e+01 1.528666e+01 1.711951e+01 1.725565e+01 1.690906e+01 1.808918e+01 1.488249e+01 6.230697e+01
<GCONST> 6.107200e+01
<MIXTURE> 16 2.394035e-02
<MEAN> 13
 -8.683633e+00 -2.342526e+00 -5.040329e+00 -6.698135e+00 -3.914146e+00 -4.455214e+00 -5.999992e+00 -5.785274e+00 -7.038614e+00 -4.708598e+00 -3.192314e+00 -3.857437e+00 6.654898e+01
<VARIANCE> 13
 2.047099e+01 1.564645e+01 1.531303e+01 1.524252e+01 1.383624e+01 1.459537e+01 1.627794e+01 1.718465e+01 1.783425e+01 1.672934e+01 1.734645e+01 1.464565e+01 6.480462e+01
<GCONST> 6.146347e+01
<STATE> 3
<NUMMIXES> 16
<MIXTURE> 1 2.003246e-02
<MEAN> 13
 -9.016348e+00 2.808755e+00 1.519629e+00 3.303864e-01 2.777086e+00 3.275842e+00 5.287344e+00 4.161085e+00 3.208124e+00 3.175084e+00 3.222720e+00 -2.394506e-01 4.871980e+01
<VARIANCE> 13
 1.595485e+01 6.461343e+00 7.473743e+00 9.975036e+00 1.185684e+01 1.183830e+01 1.445770e+01 1.474459e+01 1.549207e+01 1.393814e+01 1.239156e+01 1.219591e+01 1.087636e+01
<GCONST> 5.592550e+01
<MIXTURE> 2 5.920032e-02
<MEAN> 13
 -9.121881e+00 2.428148e+00 9.196844e-01 -5.266642e-01 1.771552e+00 1.982357e+00 3.972063e+00 2.830189e+00 1.691456e+00 1.866654e+00 1.928243e+00 -1.127903e+00 4.870639e+01
<VARIANCE> 13
 1.453041e+01 7.084473e+00 8.037348e+00 1.012039e+01 1.206424e+01 1.268889e+01 1.412532e+01 1.452218e+01 1.496035e+01 1.404955e+01 1.273599e+01 1.223918e+01 9.870698e+00
<GCONST> 5.596645e+01
<MIXTURE> 3 5.920032e-02
<MEAN> 13
 -9.121881e+00 2.428148e+00 9.196844e-01 -5.266645e-01 1.771552e+00 1.982357e+00 3.972063e+00 2.830189e+00 1.691456e+00 1.866654e+00 1.928243e+00 -1.127903e+00 4.870639e+01
<VARIANCE> 13
 1.453041e+01 7.084473e+00 8.037348e+00 1.012039e+01 1.206424e+01 1.268889e+01 1.412532e+01 1.452218e+01 1.496035e+01 1.404955e+01 1.273599e+01 1.223918e+01 9.870697e+00
<GCONST> 5.596645e+01
<MIXTURE> 4 8.053852e-02
<MEAN> 13
 -9.135393e+00 1.826580e+00 1.628972e-01 -1.559448e+00 5.815830e-01 5.367425e-01 2.524062e+00 1.345586e+00 2.264639e-01 4.996167e-01 6.646418e-01 -2.041590e+00 4.890397e+01
<VARIANCE> 13
 1.357102e+01 8.057261e+00 8.663084e+00 1.088805e+01 1.271551e+01 1.333320e+01 1.445089e+01 1.524461e+01 1.507915e+01 1.427183e+01 1.304685e+01 1.240394e+01 1.051129e+01
<GCONST> 5.647232e+01
<MIXTURE> 5 5.920032e-02
<MEAN> 13
 -9.121881e+00 2.428148e+00 9.196844e-01 -5.266645e-01 1.771552e+00 1.982357e+00 3.972063e+00 2.830189e+00 1.691456e+00 1.866654e+00 1.928243e+00 -1.127903e+00 4.870639e+01
<VARIANCE> 13
 1.453041e+01 7.084473e+00 8.037348e+00 1.012039e+01 1.206424e+01 1.268889e+01 1.412532e+01 1.452218e+01 1.496035e+01 1.404955e+01 1.273599e+01 1.223918e+01 9.870697e+00
<GCONST> 5.596645e+01
<MIXTURE> 6 8.053852e-02
<MEAN> 13
 -9.135393e+00 1.826580e+00 1.628972e-01 -1.559448e+00 5.815830e-01 5.367424e-01 2.524062e+00 1.345586e+00 2.264639e-01 4.996167e-01 6.646418e-01 -2.041590e+00 4.890397e+01
<VARIANCE> 13
 1.357102e+01 8.057261e+00 8.663084e+00 1.088805e+01 1.271551e+01 1.333320e+01 1.445089e+01 1.524461e+01 1.507915e+01 1.427183e+01 1.304685e+01 1.240394e+01 1.051129e+01
<GCONST> 5.647232e+01
<MIXTURE> 7 8.053852e-02
<MEAN> 13
 -9.135393e+00 1.826580e+00 1.628973e-01 -1.559448e+00 5.815828e-01 5.367425e-01 2.524062e+00 1.345586e+00 2.264639e-01 4.996167e-01 6.646418e-01 -2.041590e+00 4.890397e+01
<VARIANCE> 13
 1.357102e+01 8.057261e+00 8.663084e+00 1.088805e+01 1.271552e+01 1.333320e+01 1.445089e+01 1.524460e+01 1.507915e+01 1.427183e+01 1.304685e+01 1.240394e+01 1.051129e+01
<GCONST> 5.647232e+01
<MIXTURE> 8 5.802658e-02
<MEAN> 13
 -9.186737e+00 9.828690e-01 -7.963342e-01 -2.849524e+00 -8.553025e-01 -1.161249e+00 8.394270e-01 -3.637441e-01 -1.321169e+00 -9.167994e-01 -5.901734e-01 -2.988845e+00 4.931520e+01
<VARIANCE> 13
 1.331089e+01 9.915968e+00 9.349342e+00 1.202111e+01 1.356794e+01 1.474415e+01 1.516137e+01 1.601669e+01 1.519023e+01 1.426225e+01 1.340191e+01 1.282554e+01 1.287732e+01
<GCONST> 5.736861e+01
<MIXTURE> 9 5.920032e-02
<MEAN> 13
 -9.121881e+00 2.428148e+00 9.196844e-01 -5.266645e-01 1.771552e+00 1.982357e+00 3.972063e+00 2.830189e+00 1.691456e+00 1.866654e+00 1.928243e+00 -1.127903e+00 4.870639e+01
<VARIANCE> 13
 1.453041e+01 7.084473e+00 8.037348e+00 1.012039e+01 1.206424e+01 1.268889e+01 1.412532e+01 1.452218e+01 1.496035e+01 1.404955e+01 1.273599e+01 1.223918e+01 9.870697e+00
<GCONST> 5.596645e+01
<MIXTURE> 10 8.053852e-02
<MEAN> 13
 -9.135393e+00 1.826580e+00 1.628973e-01 -1.559448e+00 5.815828e-01 5.367425e-01 2.524062e+00 1.345586e+00 2.264639e-01 4.996167e-01 6.646418e-01 -2.041590e+00 4.890397e+01
<VARIANCE> 13
 1.357102e+01 8.057261e+00 8.663084e+00 1.088805e+01 1.271552e+01 1.333320e+01 1.445089e+01 1.524460e+01 1.507915e+01 1.427183e+01 1.304685e+01 1.240394e+01 1.051129e+01
<GCONST> 5.647232e+01
<MIXTURE> 11 8.053852e-02
<MEAN> 13
 -9.135393e+00 1.826580e+00 1.628973e-01 -1.559448e+00 5.815828e-01 5.367425e-01 2.524062e+00 1.345586e+00 2.264639e-01 4.996167e-01 6.646418e-01 -2.041590e+00 4.890397e+01
<VARIANCE> 13
 1.357102e+01 8.057261e+00 8.663084e+00 1.088805e+01 1.271552e+01 1.333320e+01 1.445089e+01 1.524460e+01 1.507915e+01 1.427183e+01 1.304685e+01 1.240394e+01 1.051129e+01
<GCONST> 5.647232e+01
<MIXTURE> 12 5.802658e-02
<MEAN> 13
 -9.186737e+00 9.828690e-01 -7.963341e-01 -2.849524e+00 -8.553024e-01 -1.161248e+00 8.394270e-01 -3.637441e-01 -1.321169e+00 -9.167994e-01 -5.901734e-01 -2.988845e+00 4.931520e+01
<VARIANCE> 13
 1.331089e+01 9.915968e+00 9.349343e+00 1.202111e+01 1.356794e+01 1.474415e+01 1.516137e+01 1.601669e+01 1.519023e+01 1.426225e+01 1.340191e+01 1.282554e+01 1.287732e+01
<GCONST> 5.736861e+01
<MIXTURE> 13 8.053852e-02
<MEAN> 13
 -9.135393e+00 1.826580e+00 1.628973e-01 -1.559448e+00 5.815828e-01 5.367425e-01 2.524062e+00 1.345586e+00 2.264639e-01 4.996167e-01 6.646418e-01 -2.041590e+00 4.890397e+01
<VARIANCE> 13
 1.357102e+01 8.057261e+00 8.663084e+00 1.088805e+01 1.271552e+01 1.333320e+01 1.445089e+01 1.524460e+01 1.507915e+01 1.427183e+01 1.304685e+01 1.240394e+01 1.051129e+01
<GCONST> 5.647232e+01
<MIXTURE> 14 5.802658e-02
<MEAN> 13
 -9.186737e+00 9.828690e-01 -7.963341e-01 -2.849524e+00 -8.553024e-01 -1.161248e+00 8.394270e-01 -3.637441e-01 -1.321169e+00 -9.167994e-01 -5.901734e-01 -2.988845e+00 4.931520e+01
<VARIANCE> 13
 1.331089e+01 9.915968e+00 9.349343e+00 1.202111e+01 1.356794e+01 1.474415e+01 1.516137e+01 1.601669e+01 1.519023e+01 1.426225e+01 1.340191e+01 1.282554e+01 1.287732e+01
<GCONST> 5.736861e+01
<MIXTURE> 15 5.802658e-02
<MEAN> 13
 -9.186737e+00 9.828690e-01 -7.963342e-01 -2.849524e+00 -8.553025e-01 -1.161249e+00 8.394270e-01 -3.637441e-01 -1.321169e+00 -9.167994e-01 -5.901734e-01 -2.988845e+00 4.931520e+01
<VARIANCE> 13
 1.331089e+01 9.915968e+00 9.349341e+00 1.202111e+01 1.356794e+01 1.474415e+01 1.516137e+01 1.601669e+01 1.519023e+01 1.426225e+01 1.340191e+01 1.282554e+01 1.287732e+01
<GCONST> 5.736861e+01
<MIXTURE> 16 2.771369e-02
<MEAN> 13
 -9.373082e+00 -2.693507e-01 -1.927500e+00 -4.592778e+00 -2.575992e+00 -3.443516e+00 -1.206805e+00 -2.267860e+00 -2.971817e+00 -2.522778e+00 -1.957605e+00 -3.934178e+00 5.022963e+01
<VARIANCE> 13
 1.389789e+01 1.377955e+01 1.011756e+01 1.554189e+01 1.467730e+01 1.776261e+01 1.663111e+01 1.685716e+01 1.582936e+01 1.439257e+01 1.475026e+01 1.295297e+01 1.858164e+01
<GCONST> 5.900792e+01
<STATE> 4
<NUMMIXES> 16
<MIXTURE> 1 2.117004e-02
<MEAN> 13
 -5.761126e+00 -1.690881e+00 -2.625152e+00 -2.153963e+00 2.591094e+00 4.911298e+00 6.049314e+00 3.311787e+00 2.163508e+00 3.528716e+00 3.365035e+00 -6.441244e-01 5.279577e+01
<VARIANCE> 13
 1.290929e+01 7.700233e+00 8.125028e+00 1.006848e+01 1.230548e+01 1.482323e+01 1.437497e+01 1.378674e+01 1.346015e+01 1.321607e+01 1.326468e+01 1.297939e+01 1.393688e+01
<GCONST> 5.635557e+01
<MIXTURE> 2 6.093215e-02
<MEAN> 13
 -5.848058e+00 -2.144851e+00 -3.126961e+00 -3.203297e+00 1.227728e+00 3.329418e+00 4.679212e+00 2.057197e+00 9.184057e-01 2.247918e+00 2.203347e+00 -1.701709e+00 5.284274e+01
<VARIANCE> 13
 1.201860e+01 8.734785e+00 9.081471e+00 1.084412e+01 1.428211e+01 1.658448e+01 1.486680e+01 1.473825e+01 1.444754e+01 1.373512e+01 1.366651e+01 1.316047e+01 1.331951e+01
<GCONST> 5.706496e+01
<MIXTURE> 3 6.093215e-02
<MEAN> 13
 -5.848058e+00 -2.144851e+00 -3.126961e+00 -3.203297e+00 1.227728e+00 3.329418e+00 4.679212e+00 2.057197e+00 9.184057e-01 2.247918e+00 2.203347e+00 -1.701709e+00 5.284274e+01
<VARIANCE> 13
 1.201860e+01 8.734785e+00 9.081471e+00 1.084412e+01 1.428211e+01 1.658448e+01 1.486680e+01 1.473825e+01 1.444754e+01 1.373512e+01 1.366651e+01 1.316047e+01 1.331951e+01
<GCONST> 5.706496e+01
<MIXTURE> 4 8.014606e-02
<MEAN> 13
 -6.071403e+00 -2.868003e+00 -3.593499e+00 -4.528841e+00 -3.650058e-01 1.409014e+00 2.876988e+00 5.760332e-01 -4.579747e-01 8.076127e-01 9.230902e-01 -2.747285e+00 5.351083e+01
<VARIANCE> 13
 1.255092e+01 1.058398e+01 1.058023e+01 1.282330e+01 1.587193e+01 1.877731e+01 1.605952e+01 1.581525e+01 1.570726e+01 1.472064e+01 1.440522e+01 1.380779e+01 1.729317e+01
<GCONST> 5.851278e+01
<MIXTURE> 5 6.093215e-02
<MEAN> 13
 -5.848058e+00 -2.144851e+00 -3.126961e+00 -3.203297e+00 1.227728e+00 3.329418e+00 4.679212e+00 2.057197e+00 9.184057e-01 2.247918e+00 2.203347e+00 -1.701709e+00 5.284274e+01
<VARIANCE> 13
 1.201860e+01 8.734785e+00 9.081471e+00 1.084412e+01 1.428211e+01 1.658448e+01 1.486680e+01 1.473825e+01 1.444754e+01 1.373512e+01 1.366651e+01 1.316047e+01 1.331951e+01
<GCONST> 5.706496e+01
<MIXTURE> 6 8.014606e-02
<MEAN> 13
 -6.071403e+00 -2.868003e+00 -3.593499e+00 -4.528841e+00 -3.650060e-01 1.409014e+00 2.876988e+00 5.760332e-01 -4.579747e-01 8.076128e-01 9.230902e-01 -2.747285e+00 5.351083e+01
<VARIANCE> 13
 1.255092e+01 1.058397e+01 1.058023e+01 1.282330e+01 1.587193e+01 1.877731e+01 1.605952e+01 1.581525e+01 1.570726e+01 1.472064e+01 1.440522e+01 1.380779e+01 1.729317e+01
<GCONST> 5.851278e+01
<MIXTURE> 7 8.014606e-02
<MEAN> 13
 -6.071403e+00 -2.868003e+00 -3.593499e+00 -4.528841e+00 -3.650060e-01 1.409014e+00 2.876988e+00 5.760332e-01 -4.579747e-01 8.076128e-01 9.230902e-01 -2.747285e+00 5.351083e+01
<VARIANCE> 13
 1.255092e+01 1.058397e+01 1.058023e+01 1.282330e+01 1.587193e+01 1.877731e+01 1.605952e+01 1.581525e+01 1.570726e+01 1.472064e+01 1.440522e+01 1.380779e+01 1.729317e+01
<GCONST> 5.851278e+01
<MIXTURE> 8 5.701536e-02
<MEAN> 13
 -6.442531e+00 -3.872889e+00 -4.039510e+00 -6.212801e+00 -2.200097e+00 -8.499591e-01 8.063197e-01 -1.038374e+00 -1.922135e+00 -8.500729e-01 -5.174263e-01 -3.809266e+00 5.474427e+01
<VARIANCE> 13
 1.411564e+01 1.304416e+01 1.265468e+01 1.538504e+01 1.775348e+01 2.182854e+01 1.744584e+01 1.677095e+01 1.709430e+01 1.596155e+01 1.530722e+01 1.494057e+01 2.517014e+01
<GCONST> 6.028499e+01
<MIXTURE> 9 6.093215e-02
<MEAN> 13
 -5.848058e+00 -2.144851e+00 -3.126961e+00 -3.203297e+00 1.227728e+00 3.329418e+00 4.679212e+00 2.057197e+00 9.184057e-01 2.247918e+00 2.203347e+00 -1.701709e+00 5.284274e+01
<VARIANCE> 13
 1.201860e+01 8.734785e+00 9.081471e+00 1.084412e+01 1.428211e+01 1.658448e+01 1.486680e+01 1.473825e+01 1.444754e+01 1.373512e+01 1.366651e+01 1.316047e+01 1.331951e+01
<GCONST> 5.706496e+01
<MIXTURE> 10 8.014606e-02
<MEAN> 13
 -6.071403e+00 -2.868003e+00 -3.593499e+00 -4.528841e+00 -3.650060e-01 1.409014e+00 2.876988e+00 5.760332e-01 -4.579747e-01 8.076128e-01 9.230902e-01 -2.747285e+00 5.351083e+01
<VARIANCE> 13
 1.255092e+01 1.058397e+01 1.058023e+01 1.282330e+01 1.587193e+01 1.877731e+01 1.605952e+01 1.581525e+01 1.570726e+01 1.472064e+01 1.440522e+01 1.380779e+01 1.729317e+01
<GCONST> 5.851278e+01
<MIXTURE> 11 8.014606e-02
<MEAN> 13
 -6.071403e+00 -2.868003e+00 -3.593499e+00 -4.528841e+00 -3.650060e-01 1.409014e+00 2.876988e+00 5.760332e-01 -4.579747e-01 8.076128e-01 9.230902e-01 -2.747285e+00 5.351083e+01
<VARIANCE> 13
 1.255092e+01 1.058397e+01 1.058023e+01 1.282330e+01 1.587193e+01 1.877731e+01 1.605952e+01 1.581525e+01 1.570726e+01 1.472064e+01 1.440522e+01 1.380779e+01 1.729317e+01
<GCONST> 5.851278e+01
<MIXTURE> 12 5.701536e-02
<MEAN> 13
 -6.442531e+00 -3.872889e+00 -4.039510e+00 -6.212801e+00 -2.200097e+00 -8.499591e-01 8.063197e-01 -1.038374e+00 -1.922135e+00 -8.500729e-01 -5.174263e-01 -3.809266e+00 5.474427e+01
<VARIANCE> 13
 1.411564e+01 1.304416e+01 1.265468e+01 1.538504e+01 1.775348e+01 2.182854e+01 1.744584e+01 1.677095e+01 1.709430e+01 1.596155e+01 1.530722e+01 1.494057e+01 2.517014e+01
<GCONST> 6.028499e+01
<MIXTURE> 13 8.014606e-02
<MEAN> 13
 -6.071403e+00 -2.868003e+00 -3.593499e+00 -4.528841e+00 -3.650059e-01 1.409014e+00 2.876988e+00 5.760332e-01 -4.579748e-01 8.076128e-01 9.230902e-01 -2.747285e+00 5.351083e+01
<VARIANCE> 13
 1.255092e+01 1.058397e+01 1.058023e+01 1.282330e+01 1.587193e+01 1.877731e+01 1.605952e+01 1.581525e+01 1.570726e+01 1.472064e+01 1.440522e+01 1.380779e+01 1.729317e+01
<GCONST> 5.851278e+01
<MIXTURE> 14 5.701536e-02
<MEAN> 13
 -6.442531e+00 -3.872889e+00 -4.039510e+00 -6.212801e+00 -2.200097e+00 -8.499591e-01 8.063197e-01 -1.038374e+00 -1.922135e+00 -8.500729e-01 -5.174263e-01 -3.809266e+00 5.474427e+01
<VARIANCE> 13
 1.411564e+01 1.304416e+01 1.265468e+01 1.538504e+01 1.775348e+01 2.182854e+01 1.744584e+01 1.677095e+01 1.709430e+01 1.596155e+01 1.530722e+01 1.494057e+01 2.517014e+01
<GCONST> 6.028499e+01
<MIXTURE> 15 5.701536e-02
<MEAN> 13
 -6.442531e+00 -3.872889e+00 -4.039510e+00 -6.212801e+00 -2.200097e+00 -8.499589e-01 8.063197e-01 -1.038374e+00 -1.922135e+00 -8.500729e-01 -5.174263e-01 -3.809266e+00 5.474427e+01
<VARIANCE> 13
 1.411563e+01 1.304416e+01 1.265468e+01 1.538504e+01 1.775348e+01 2.182854e+01 1.744584e+01 1.677095e+01 1.709430e+01 1.596155e+01 1.530722e+01 1.494057e+01 2.517014e+01
<GCONST> 6.028498e+01
<MIXTURE> 16 2.608106e-02
<MEAN> 13
 -7.013418e+00 -5.207807e+00 -4.497558e+00 -8.305994e+00 -4.249458e+00 -3.623456e+00 -1.550591e+00 -2.716352e+00 -3.452035e+00 -2.737977e+00 -2.071630e+00 -4.849794e+00 5.673809e+01
<VARIANCE> 13
 1.613941e+01 1.546215e+01 1.550980e+01 1.810587e+01 1.958204e+01 2.583060e+01 1.973979e+01 1.807553e+01 1.859690e+01 1.746021e+01 1.586090e+01 1.603579e+01 3.785459e+01
<GCONST> 6.210849e+01
<TRANSP> 5
 0.000000e+00 1.000000e+00 0.000000e+00 0.000000e+00 0.000000e+00
 0.000000e+00 9.899107e-01 1.008936e-02 0.000000e+00 0.000000e+00
 0.000000e+00 0.000000e+00 9.899211e-01 1.007893e-02 0.000000e+00
 0.000000e+00 0.000000e+00 0.000000e+00 9.914080e-01 8.592036e-03
 0.000000e+00 0.000000e+00 0.000000e+00 0.000000e+00 0.000000e+00
<ENDHMM>
~h "co"
<BEGINHMM>
<NUMSTATES> 5
<STATE> 2
<NUMMIXES> 16
<MIXTURE> 1 2.147988e-02
<MEAN> 13
 -4.468930e+00 -3.732987e+00 2.044862e+00 1.730405e+00 9.284659e-01 1.445254e+00 1.892562e+00 1.955397e-01 6.525464e-01 6.607131e-03 -1.777078e-01 -4.120955e+00 5.442784e+01
<VARIANCE> 13
 1.367555e+01 1.307378e+01 2.499666e+01 2.641418e+01 3.074890e+01 3.297803e+01 4.171544e+01 4.174547e+01 2.604053e+01 2.703714e+01 3.078063e+01 2.025834e+01 6.080682e+01
<GCONST> 6.705544e+01
<MIXTURE> 2 5.810486e-02
<MEAN> 13
 -5.426842e+00 -4.702543e+00 2.318115e+00 1.115311e+00 -2.589635e+00 -2.493488e+00 -1.908927e+00 -3.424695e+00 -1.762560e+00 -2.134494e+00 -2.165857e+00 -6.185082e+00 5.956431e+01
<VARIANCE> 13
 1.859064e+01 1.543095e+01 2.381964e+01 2.635824e+01 4.005363e+01 3.880672e+01 5.202121e+01 5.142683e+01 3.360068e+01 3.358575e+01 3.289437e+01 2.788721e+01 7.625233e+01
<GCONST> 6.941852e+01
<MIXTURE> 3 5.810487e-02
<MEAN> 13
 -5.426842e+00 -4.702543e+00 2.318115e+00 1.115311e+00 -2.589635e+00 -2.493488e+00 -1.908926e+00 -3.424694e+00 -1.762560e+00 -2.134494e+00 -2.165857e+00 -6.185082e+00 5.956431e+01
<VARIANCE> 13
 1.859064e+01 1.543095e+01 2.381964e+01 2.635824e+01 4.005364e+01 3.880671e+01 5.202121e+01 5.142683e+01 3.360069e+01 3.358575e+01 3.289437e+01 2.788721e+01 7.625232e+01
<GCONST> 6.941852e+01
<MIXTURE> 4 8.203021e-02
<MEAN> 13
 -5.780040e+00 -5.931053e+00 1.061769e+00 -6.908663e-01 -6.274337e+00 -5.933635e+00 -5.924355e+00 -5.961574e+00 -3.802896e+00 -4.282849e+00 -4.129989e+00 -8.619759e+00 6.470345e+01
<VARIANCE> 13
 1.801419e+01 1.554396e+01 2.573119e+01 2.585279e+01 4.383042e+01 3.871500e+01 5.283992e+01 5.570574e+01 4.114843e+01 3.945680e+01 3.684401e+01 3.481408e+01 6.062997e+01
<GCONST> 7.010516e+01
<MIXTURE> 5 5.810487e-02
<MEAN> 13
 -5.426842e+00 -4.702543e+00 2.318115e+00 1.115311e+00 -2.589635e+00 -2.493488e+00 -1.908926e+00 -3.424694e+00 -1.762560e+00 -2.134494e+00 -2.165857e+00 -6.185082e+00 5.956431e+01
<VARIANCE> 13
 1.859064e+01 1.543095e+01 2.381964e+01 2.635824e+01 4.005364e+01 3.880671e+01 5.202121e+01 5.142683e+01 3.360069e+01 3.358575e+01 3.289437e+01 2.788721e+01 7.625232e+01
<GCONST> 6.941852e+01
<MIXTURE> 6 8.203020e-02
<MEAN> 13
 -5.780040e+00 -5.931053e+00 1.061769e+00 -6.908661e-01 -6.274337e+00 -5.933635e+00 -5.924355e+00 -5.961575e+00 -3.802896e+00 -4.282849e+00 -4.129989e+00 -8.619759e+00 6.470345e+01
<VARIANCE> 13
 1.801419e+01 1.554396e+01 2.573119e+01 2.585279e+01 4.383042e+01 3.871500e+01 5.283993e+01 5.570574e+01 4.114844e+01 3.945680e+01 3.684401e+01 3.481409e+01 6.062997e+01
<GCONST> 7.010516e+01
<MIXTURE> 7 8.203022e-02
<MEAN> 13
 -5.780040e+00 -5.931053e+00 1.061769e+00 -6.908661e-01 -6.274336e+00 -5.933633e+00 -5.924355e+00 -5.961575e+00 -3.802896e+00 -4.282849e+00 -4.129989e+00 -8.619759e+00 6.470345e+01
<VARIANCE> 13
 1.801418e+01 1.554395e+01 2.573118e+01 2.585278e+01 4.383041e+01 3.871498e+01 5.283992e+01 5.570573e+01 4.114843e+01 3.945679e+01 3.684401e+01 3.481408e+01 6.062995e+01
<GCONST> 7.010516e+01
<MIXTURE> 8 5.896236e-02
<MEAN> 13
 -5.923120e+00 -6.908215e+00 -1.162934e+00 -2.601865e+00 -8.966821e+00 -8.628149e+00 -9.084590e+00 -7.786640e+00 -5.444332e+00 -6.360606e+00 -5.900963e+00 -1.091232e+01 6.824673e+01
<VARIANCE> 13
 1.342562e+01 1.412662e+01 2.587429e+01 2.313447e+01 3.924052e+01 3.809612e+01 5.006476e+01 5.717100e+01 4.611890e+01 4.262001e+01 3.817640e+01 3.892673e+01 4.083380e+01
<GCONST> 6.939835e+01
<MIXTURE> 9 5.810487e-02
<MEAN> 13
 -5.426842e+00 -4.702543e+00 2.318115e+00 1.115311e+00 -2.589635e+00 -2.493488e+00 -1.908926e+00 -3.424694e+00 -1.762560e+00 -2.134494e+00 -2.165857e+00 -6.185082e+00 5.956431e+01
<VARIANCE> 13
 1.859064e+01 1.543095e+01 2.381964e+01 2.635824e+01 4.005364e+01 3.880671e+01 5.202121e+01 5.142683e+01 3.360069e+01 3.358575e+01 3.289437e+01 2.788721e+01 7.625232e+01
<GCONST> 6.941852e+01
<MIXTURE> 10 8.203020e-02
<MEAN> 13
 -5.780040e+00 -5.931053e+00 1.061769e+00 -6.908661e-01 -6.274337e+00 -5.933635e+00 -5.924355e+00 -5.961575e+00 -3.802896e+00 -4.282849e+00 -4.129989e+00 -8.619759e+00 6.470345e+01
<VARIANCE> 13
 1.801419e+01 1.554396e+01 2.573119e+01 2.585279e+01 4.383042e+01 3.871500e+01 5.283993e+01 5.570574e+01 4.114844e+01 3.945680e+01 3.684401e+01 3.481409e+01 6.062997e+01
<GCONST> 7.010516e+01
<MIXTURE> 11 8.203022e-02
<MEAN> 13
 -5.780040e+00 -5.931053e+00 1.061769e+00 -6.908661e-01 -6.274336e+00 -5.933633e+00 -5.924355e+00 -5.961575e+00 -3.802896e+00 -4.282849e+00 -4.129989e+00 -8.619759e+00 6.470345e+01
<VARIANCE> 13
 1.801418e+01 1.554395e+01 2.573118e+01 2.585278e+01 4.383041e+01 3.871498e+01 5.283992e+01 5.570573e+01 4.114843e+01 3.945679e+01 3.684401e+01 3.481408e+01 6.062995e+01
<GCONST> 7.010516e+01
<MIXTURE> 12 5.896238e-02
<MEAN> 13
 -5.923121e+00 -6.908216e+00 -1.162934e+00 -2.601865e+00 -8.966822e+00 -8.628149e+00 -9.084590e+00 -7.786640e+00 -5.444331e+00 -6.360605e+00 -5.900963e+00 -1.091232e+01 6.824673e+01
<VARIANCE> 13
 1.342561e+01 1.412662e+01 2.587428e+01 2.313446e+01 3.924051e+01 3.809610e+01 5.006474e+01 5.717097e+01 4.611887e+01 4.262000e+01 3.817638e+01 3.892672e+01 4.083381e+01
<GCONST> 6.939834e+01
<MIXTURE> 13 8.203022e-02
<MEAN> 13
 -5.780040e+00 -5.931053e+00 1.061769e+00 -6.908662e-01 -6.274336e+00 -5.933634e+00 -5.924355e+00 -5.961575e+00 -3.802896e+00 -4.282849e+00 -4.129989e+00 -8.619759e+00 6.470345e+01
<VARIANCE> 13
 1.801418e+01 1.554395e+01 2.573118e+01 2.585278e+01 4.383041e+01 3.871499e+01 5.283992e+01 5.570573e+01 4.114843e+01 3.945679e+01 3.684401e+01 3.481408e+01 6.062996e+01
<GCONST> 7.010516e+01
<MIXTURE> 14 5.896238e-02
<MEAN> 13
 -5.923121e+00 -6.908216e+00 -1.162934e+00 -2.601865e+00 -8.966822e+00 -8.628149e+00 -9.084590e+00 -7.786640e+00 -5.444331e+00 -6.360605e+00 -5.900963e+00 -1.091232e+01 6.824673e+01
<VARIANCE> 13
 1.342561e+01 1.412662e+01 2.587428e+01 2.313446e+01 3.924051e+01 3.809610e+01 5.006474e+01 5.717097e+01 4.611887e+01 4.262000e+01 3.817638e+01 3.892672e+01 4.083381e+01
<GCONST> 6.939834e+01
<MIXTURE> 15 5.896238e-02
<MEAN> 13
 -5.923121e+00 -6.908216e+00 -1.162934e+00 -2.601865e+00 -8.966822e+00 -8.628148e+00 -9.084590e+00 -7.786640e+00 -5.444330e+00 -6.360606e+00 -5.900963e+00 -1.091232e+01 6.824673e+01
<VARIANCE> 13
 1.342561e+01 1.412662e+01 2.587428e+01 2.313445e+01 3.924051e+01 3.809610e+01 5.006476e+01 5.717097e+01 4.611887e+01 4.262001e+01 3.817638e+01 3.892672e+01 4.083383e+01
<GCONST> 6.939834e+01
<MIXTURE> 16 1.805487e-02
<MEAN> 13
 -6.241641e+00 -7.776465e+00 -2.859090e+00 -3.611180e+00 -1.073107e+01 -1.087202e+01 -1.154844e+01 -9.701134e+00 -7.061621e+00 -8.196632e+00 -7.406903e+00 -1.275657e+01 7.038345e+01
<VARIANCE> 13
 9.890502e+00 1.307009e+01 2.233536e+01 2.099348e+01 3.261949e+01 3.440850e+01 5.231360e+01 5.389980e+01 4.573856e+01 4.176301e+01 4.102303e+01 4.013530e+01 2.759911e+01
<GCONST> 6.815140e+01
<STATE> 3
<NUMMIXES> 16
<MIXTURE> 1 1.199041e-02
<MEAN> 13
 -1.481418e+00 1.080083e+00 6.225083e+00 5.424865e+00 4.704811e+00 2.332846e+00 8.005368e-01 -1.368453e+00 -1.758476e+00 -6.718496e-01 -1.410330e+00 -5.629806e+00 5.020968e+01
<VARIANCE> 13
 5.274306e+00 1.387720e+01 2.656942e+01 2.113437e+01 1.722174e+01 1.527276e+01 1.925595e+01 2.172188e+01 1.847581e+01 1.998798e+01 2.111238e+01 1.506260e+01 2.079761e+01
<GCONST> 6.083305e+01
<MIXTURE> 2 5.032153e-02
<MEAN> 13
 -1.718976e+00 7.760190e-01 4.879353e+00 3.601452e+00 3.552560e+00 1.119893e+00 -2.582822e-01 -2.150791e+00 -3.266146e+00 -2.161047e+00 -2.163815e+00 -6.301148e+00 4.972871e+01
<VARIANCE> 13
 6.071671e+00 1.605319e+01 2.104650e+01 2.037120e+01 1.602703e+01 1.715627e+01 2.011077e+01 2.236606e+01 2.081870e+01 2.022113e+01 1.794897e+01 1.703304e+01 1.942277e+01
<GCONST> 6.098995e+01
<MIXTURE> 3 5.032152e-02
<MEAN> 13
 -1.718976e+00 7.760190e-01 4.879353e+00 3.601452e+00 3.552560e+00 1.119893e+00 -2.582818e-01 -2.150791e+00 -3.266146e+00 -2.161047e+00 -2.163815e+00 -6.301149e+00 4.972871e+01
<VARIANCE> 13
 6.071672e+00 1.605319e+01 2.104650e+01 2.037119e+01 1.602703e+01 1.715627e+01 2.011077e+01 2.236606e+01 2.081870e+01 2.022113e+01 1.794897e+01 1.703304e+01 1.942277e+01
<GCONST> 6.098995e+01
<MIXTURE> 4 8.659108e-02
<MEAN> 13
 -1.906864e+00 2.055337e-01 3.793603e+00 1.948905e+00 2.272057e+00 -3.079807e-01 -1.741596e+00 -3.640536e+00 -4.982046e+00 -3.632017e+00 -3.022320e+00 -7.150257e+00 4.973013e+01
<VARIANCE> 13
 6.482467e+00 1.662066e+01 1.786666e+01 1.789777e+01 1.604304e+01 1.871901e+01 2.061746e+01 2.368146e+01 2.145031e+01 2.073709e+01 1.638807e+01 1.770133e+01 1.803313e+01
<GCONST> 6.089547e+01
<MIXTURE> 5 5.032152e-02
<MEAN> 13
 -1.718976e+00 7.760190e-01 4.879353e+00 3.601452e+00 3.552560e+00 1.119893e+00 -2.582818e-01 -2.150791e+00 -3.266146e+00 -2.161047e+00 -2.163815e+00 -6.301149e+00 4.972871e+01
<VARIANCE> 13
 6.071672e+00 1.605319e+01 2.104650e+01 2.037119e+01 1.602703e+01 1.715627e+01 2.011077e+01 2.236606e+01 2.081870e+01 2.022113e+01 1.794897e+01 1.703304e+01 1.942277e+01
<GCONST> 6.098995e+01
<MIXTURE> 6 8.659108e-02
<MEAN> 13
 -1.906864e+00 2.055337e-01 3.793603e+00 1.948905e+00 2.272057e+00 -3.079807e-01 -1.741596e+00 -3.640536e+00 -4.982046e+00 -3.632017e+00 -3.022320e+00 -7.150257e+00 4.973013e+01
<VARIANCE> 13
 6.482467e+00 1.662066e+01 1.786666e+01 1.789777e+01 1.604304e+01 1.871901e+01 2.061746e+01 2.368146e+01 2.145031e+01 2.073709e+01 1.638807e+01 1.770133e+01 1.803313e+01
<GCONST> 6.089547e+01
<MIXTURE> 7 8.659108e-02
<MEAN> 13
 -1.906864e+00 2.055337e-01 3.793603e+00 1.948905e+00 2.272057e+00 -3.079807e-01 -1.741596e+00 -3.640536e+00 -4.982047e+00 -3.632017e+00 -3.022320e+00 -7.150257e+00 4.973013e+01
<VARIANCE> 13
 6.482467e+00 1.662066e+01 1.786666e+01 1.789777e+01 1.604304e+01 1.871901e+01 2.061746e+01 2.368146e+01 2.145031e+01 2.073709e+01 1.638807e+01 1.770133e+01 1.803313e+01
<GCONST> 6.089547e+01
<MIXTURE> 8 6.203316e-02
<MEAN> 13
 -1.999108e+00 -6.447093e-01 2.937458e+00 6.195011e-01 9.791557e-01 -1.943017e+00 -3.411967e+00 -5.326519e+00 -6.756607e+00 -5.070453e+00 -3.929325e+00 -8.055592e+00 5.013626e+01
<VARIANCE> 13
 6.490367e+00 1.571607e+01 1.770380e+01 1.727368e+01 1.620844e+01 1.967609e+01 2.180834e+01 2.469029e+01 2.271299e+01 2.248861e+01 1.713374e+01 1.807755e+01 1.692959e+01
<GCONST> 6.109474e+01
<MIXTURE> 9 5.032151e-02
<MEAN> 13
 -1.718976e+00 7.760187e-01 4.879352e+00 3.601451e+00 3.552559e+00 1.119893e+00 -2.582816e-01 -2.150791e+00 -3.266145e+00 -2.161047e+00 -2.163815e+00 -6.301149e+00 4.972871e+01
<VARIANCE> 13
 6.071673e+00 1.605319e+01 2.104651e+01 2.037119e+01 1.602704e+01 1.715627e+01 2.011078e+01 2.236606e+01 2.081870e+01 2.022113e+01 1.794898e+01 1.703304e+01 1.942277e+01
<GCONST> 6.098996e+01
<MIXTURE> 10 8.659108e-02
<MEAN> 13
 -1.906864e+00 2.055337e-01 3.793603e+00 1.948905e+00 2.272057e+00 -3.079807e-01 -1.741596e+00 -3.640536e+00 -4.982047e+00 -3.632017e+00 -3.022320e+00 -7.150257e+00 4.973013e+01
<VARIANCE> 13
 6.482467e+00 1.662066e+01 1.786666e+01 1.789777e+01 1.604304e+01 1.871901e+01 2.061746e+01 2.368146e+01 2.145031e+01 2.073709e+01 1.638807e+01 1.770133e+01 1.803313e+01
<GCONST> 6.089547e+01
<MIXTURE> 11 8.659108e-02
<MEAN> 13
 -1.906864e+00 2.055337e-01 3.793603e+00 1.948905e+00 2.272057e+00 -3.079807e-01 -1.741596e+00 -3.640536e+00 -4.982047e+00 -3.632017e+00 -3.022320e+00 -7.150257e+00 4.973013e+01
<VARIANCE> 13
 6.482467e+00 1.662066e+01 1.786666e+01 1.789777e+01 1.604304e+01 1.871901e+01 2.061746e+01 2.368146e+01 2.145031e+01 2.073709e+01 1.638807e+01 1.770133e+01 1.803313e+01
<GCONST> 6.089547e+01
<MIXTURE> 12 6.203316e-02
<MEAN> 13
 -1.999108e+00 -6.447093e-01 2.937459e+00 6.195008e-01 9.791555e-01 -1.943017e+00 -3.411967e+00 -5.326519e+00 -6.756607e+00 -5.070453e+00 -3.929325e+00 -8.055592e+00 5.013626e+01
<VARIANCE> 13
 6.490367e+00 1.571607e+01 1.770380e+01 1.727368e+01 1.620844e+01 1.967609e+01 2.180834e+01 2.469029e+01 2.271299e+01 2.248861e+01 1.713374e+01 1.807755e+01 1.692959e+01
<GCONST> 6.109474e+01
<MIXTURE> 13 8.659108e-02
<MEAN> 13
 -1.906864e+00 2.055338e-01 3.793603e+00 1.948905e+00 2.272057e+00 -3.079808e-01 -1.741596e+00 -3.640536e+00 -4.982047e+00 -3.632017e+00 -3.022320e+00 -7.150257e+00 4.973013e+01
<VARIANCE> 13
 6.482466e+00 1.662066e+01 1.786666e+01 1.789777e+01 1.604304e+01 1.871901e+01 2.061746e+01 2.368146e+01 2.145031e+01 2.073709e+01 1.638807e+01 1.770133e+01 1.803313e+01
<GCONST> 6.089547e+01
<MIXTURE> 14 6.203316e-02
<MEAN> 13
 -1.999108e+00 -6.447093e-01 2.937459e+00 6.195008e-01 9.791555e-01 -1.943017e+00 -3.411967e+00 -5.326519e+00 -6.756607e+00 -5.070453e+00 -3.929325e+00 -8.055592e+00 5.013626e+01
<VARIANCE> 13
 6.490367e+00 1.571607e+01 1.770380e+01 1.727368e+01 1.620844e+01 1.967609e+01 2.180834e+01 2.469029e+01 2.271299e+01 2.248861e+01 1.713374e+01 1.807755e+01 1.692959e+01
<GCONST> 6.109474e+01
<MIXTURE> 15 6.203316e-02
<MEAN> 13
 -1.999108e+00 -6.447093e-01 2.937458e+00 6.195011e-01 9.791557e-01 -1.943017e+00 -3.411967e+00 -5.326519e+00 -6.756607e+00 -5.070453e+00 -3.929325e+00 -8.055592e+00 5.013626e+01
<VARIANCE> 13
 6.490368e+00 1.571606e+01 1.770380e+01 1.727368e+01 1.620844e+01 1.967609e+01 2.180834e+01 2.469028e+01 2.271299e+01 2.248861e+01 1.713374e+01 1.807755e+01 1.692959e+01
<GCONST> 6.109474e+01
<MIXTURE> 16 1.903882e-02
<MEAN> 13
 -2.019289e+00 -1.464454e+00 1.899592e+00 -5.479355e-01 -1.906183e-01 -4.088679e+00 -5.485168e+00 -6.868053e+00 -8.945390e+00 -6.748613e+00 -4.877856e+00 -8.595786e+00 5.057128e+01
<VARIANCE> 13
 5.887669e+00 1.280363e+01 1.777995e+01 1.669156e+01 1.613699e+01 2.277509e+01 2.223151e+01 2.355085e+01 2.500830e+01 2.269741e+01 1.920812e+01 1.793573e+01 1.522097e+01
<GCONST> 6.098168e+01
<STATE> 4
<NUMMIXES> 16
<MIXTURE> 1 2.071392e-02
<MEAN> 13
 -4.031615e+00 -7.703170e-01 -9.222438e-01 -1.888938e-01 2.687324e+00 5.516665e+00 6.541255e+00 4.280112e+00 2.522588e+00 3.982347e+00 3.416237e+00 -4.457998e-01 4.766380e+01
<VARIANCE> 13
 7.718877e+00 1.699573e+01 1.032990e+01 1.084898e+01 1.020030e+01 1.385385e+01 1.228456e+01 1.446104e+01 1.457031e+01 1.394553e+01 1.170787e+01 1.190012e+01 9.563095e+00
<GCONST> 5.612780e+01
<MIXTURE> 2 6.152306e-02
<MEAN> 13
 -4.280559e+00 -1.041270e+00 -1.299073e+00 -8.757358e-01 1.848762e+00 4.288901e+00 5.394448e+00 2.960496e+00 1.161338e+00 2.645759e+00 2.246254e+00 -1.229119e+00 4.760690e+01
<VARIANCE> 13
 7.330862e+00 1.615511e+01 1.052545e+01 9.956061e+00 1.049059e+01 1.409405e+01 1.228865e+01 1.395123e+01 1.388802e+01 1.328479e+01 1.193363e+01 1.245588e+01 9.621852e+00
<GCONST> 5.594242e+01
<MIXTURE> 3 6.152306e-02
<MEAN> 13
 -4.280559e+00 -1.041270e+00 -1.299072e+00 -8.757357e-01 1.848762e+00 4.288901e+00 5.394448e+00 2.960495e+00 1.161338e+00 2.645759e+00 2.246254e+00 -1.229119e+00 4.760690e+01
<VARIANCE> 13
 7.330863e+00 1.615512e+01 1.052545e+01 9.956059e+00 1.049059e+01 1.409405e+01 1.228864e+01 1.395123e+01 1.388801e+01 1.328479e+01 1.193363e+01 1.245588e+01 9.621852e+00
<GCONST> 5.594242e+01
<MIXTURE> 4 8.021952e-02
<MEAN> 13
 -4.553846e+00 -1.509520e+00 -1.881065e+00 -1.827291e+00 8.817604e-01 2.964071e+00 4.042894e+00 1.517473e+00 -3.573115e-01 1.208578e+00 9.555578e-01 -2.173027e+00 4.765681e+01
<VARIANCE> 13
 7.586349e+00 1.652861e+01 1.082006e+01 9.852906e+00 1.141046e+01 1.459144e+01 1.231830e+01 1.403336e+01 1.354289e+01 1.318984e+01 1.249344e+01 1.250605e+01 9.741465e+00
<GCONST> 5.617361e+01
<MIXTURE> 5 6.152306e-02
<MEAN> 13
 -4.280559e+00 -1.041270e+00 -1.299072e+00 -8.757357e-01 1.848762e+00 4.288901e+00 5.394448e+00 2.960495e+00 1.161338e+00 2.645759e+00 2.246254e+00 -1.229119e+00 4.760690e+01
<VARIANCE> 13
 7.330863e+00 1.615512e+01 1.052545e+01 9.956059e+00 1.049059e+01 1.409405e+01 1.228864e+01 1.395123e+01 1.388801e+01 1.328479e+01 1.193363e+01 1.245588e+01 9.621852e+00
<GCONST> 5.594242e+01
<MIXTURE> 6 8.021952e-02
<MEAN> 13
 -4.553846e+00 -1.509520e+00 -1.881065e+00 -1.827291e+00 8.817604e-01 2.964071e+00 4.042894e+00 1.517473e+00 -3.573115e-01 1.208578e+00 9.555578e-01 -2.173027e+00 4.765681e+01
<VARIANCE> 13
 7.586349e+00 1.652861e+01 1.082006e+01 9.852906e+00 1.141046e+01 1.459144e+01 1.231830e+01 1.403336e+01 1.354289e+01 1.318984e+01 1.249344e+01 1.250605e+01 9.741465e+00
<GCONST> 5.617361e+01
<MIXTURE> 7 8.021952e-02
<MEAN> 13
 -4.553846e+00 -1.509520e+00 -1.881065e+00 -1.827291e+00 8.817604e-01 2.964071e+00 4.042894e+00 1.517473e+00 -3.573115e-01 1.208578e+00 9.555578e-01 -2.173027e+00 4.765681e+01
<VARIANCE> 13
 7.586349e+00 1.652861e+01 1.082006e+01 9.852906e+00 1.141046e+01 1.459144e+01 1.231830e+01 1.403336e+01 1.354289e+01 1.318984e+01 1.249344e+01 1.250605e+01 9.741465e+00
<GCONST> 5.617361e+01
<MIXTURE> 8 5.662337e-02
<MEAN> 13
 -4.902876e+00 -2.220868e+00 -2.736743e+00 -2.999328e+00 -3.181543e-01 1.428756e+00 2.453390e+00 -6.831127e-02 -1.956838e+00 -3.186891e-01 -3.963092e-01 -3.178903e+00 4.775538e+01
<VARIANCE> 13
 8.099361e+00 1.698614e+01 1.116569e+01 9.678567e+00 1.205822e+01 1.521635e+01 1.279645e+01 1.463016e+01 1.341805e+01 1.297029e+01 1.290852e+01 1.279233e+01 9.763215e+00
<GCONST> 5.648833e+01
<MIXTURE> 9 6.152306e-02
<MEAN> 13
 -4.280559e+00 -1.041270e+00 -1.299072e+00 -8.757360e-01 1.848762e+00 4.288901e+00 5.394447e+00 2.960495e+00 1.161338e+00 2.645759e+00 2.246255e+00 -1.229119e+00 4.760690e+01
<VARIANCE> 13
 7.330862e+00 1.615511e+01 1.052545e+01 9.956061e+00 1.049059e+01 1.409405e+01 1.228865e+01 1.395123e+01 1.388801e+01 1.328479e+01 1.193364e+01 1.245588e+01 9.621853e+00
<GCONST> 5.594242e+01
<MIXTURE> 10 8.021952e-02
<MEAN> 13
 -4.553846e+00 -1.509520e+00 -1.881065e+00 -1.827291e+00 8.817604e-01 2.964071e+00 4.042894e+00 1.517473e+00 -3.573115e-01 1.208578e+00 9.555578e-01 -2.173027e+00 4.765681e+01
<VARIANCE> 13
 7.586349e+00 1.652861e+01 1.082006e+01 9.852906e+00 1.141046e+01 1.459144e+01 1.231830e+01 1.403336e+01 1.354289e+01 1.318984e+01 1.249344e+01 1.250605e+01 9.741465e+00
<GCONST> 5.617361e+01
<MIXTURE> 11 8.021952e-02
<MEAN> 13
 -4.553846e+00 -1.509520e+00 -1.881065e+00 -1.827291e+00 8.817604e-01 2.964071e+00 4.042894e+00 1.517473e+00 -3.573115e-01 1.208578e+00 9.555578e-01 -2.173027e+00 4.765681e+01
<VARIANCE> 13
 7.586349e+00 1.652861e+01 1.082006e+01 9.852906e+00 1.141046e+01 1.459144e+01 1.231830e+01 1.403336e+01 1.354289e+01 1.318984e+01 1.249344e+01 1.250605e+01 9.741465e+00
<GCONST> 5.617361e+01
<MIXTURE> 12 5.662337e-02
<MEAN> 13
 -4.902877e+00 -2.220868e+00 -2.736743e+00 -2.999328e+00 -3.181542e-01 1.428755e+00 2.453390e+00 -6.831127e-02 -1.956838e+00 -3.186893e-01 -3.963093e-01 -3.178903e+00 4.775538e+01
<VARIANCE> 13
 8.099361e+00 1.698614e+01 1.116569e+01 9.678566e+00 1.205821e+01 1.521635e+01 1.279645e+01 1.463016e+01 1.341805e+01 1.297029e+01 1.290852e+01 1.279233e+01 9.763214e+00
<GCONST> 5.648833e+01
<MIXTURE> 13 8.021952e-02
<MEAN> 13
 -4.553846e+00 -1.509520e+00 -1.881065e+00 -1.827291e+00 8.817604e-01 2.964071e+00 4.042894e+00 1.517473e+00 -3.573115e-01 1.208578e+00 9.555578e-01 -2.173027e+00 4.765681e+01
<VARIANCE> 13
 7.586349e+00 1.652861e+01 1.082006e+01 9.852906e+00 1.141046e+01 1.459144e+01 1.231830e+01 1.403336e+01 1.354289e+01 1.318984e+01 1.249344e+01 1.250605e+01 9.741465e+00
<GCONST> 5.617361e+01
<MIXTURE> 14 5.662337e-02
<MEAN> 13
 -4.902877e+00 -2.220868e+00 -2.736743e+00 -2.999328e+00 -3.181542e-01 1.428755e+00 2.453390e+00 -6.831127e-02 -1.956838e+00 -3.186893e-01 -3.963093e-01 -3.178903e+00 4.775538e+01
<VARIANCE> 13
 8.099361e+00 1.698614e+01 1.116569e+01 9.678566e+00 1.205821e+01 1.521635e+01 1.279645e+01 1.463016e+01 1.341805e+01 1.297029e+01 1.290852e+01 1.279233e+01 9.763214e+00
<GCONST> 5.648833e+01
<MIXTURE> 15 5.662337e-02
<MEAN> 13
 -4.902876e+00 -2.220868e+00 -2.736742e+00 -2.999328e+00 -3.181543e-01 1.428756e+00 2.453390e+00 -6.831161e-02 -1.956838e+00 -3.186891e-01 -3.963093e-01 -3.178903e+00 4.775538e+01
<VARIANCE> 13
 8.099360e+00 1.698614e+01 1.116569e+01 9.678566e+00 1.205822e+01 1.521636e+01 1.279645e+01 1.463016e+01 1.341805e+01 1.297029e+01 1.290852e+01 1.279233e+01 9.763217e+00
<GCONST> 5.648833e+01
<MIXTURE> 16 2.545430e-02
<MEAN> 13
 -5.313111e+00 -2.987937e+00 -3.746102e+00 -4.334083e+00 -1.688995e+00 -2.837618e-01 5.328751e-01 -1.801320e+00 -3.590068e+00 -1.908890e+00 -1.709659e+00 -4.175899e+00 4.788675e+01
<VARIANCE> 13
 9.026757e+00 1.698767e+01 1.080137e+01 9.788213e+00 1.259550e+01 1.541776e+01 1.342869e+01 1.490240e+01 1.406377e+01 1.280219e+01 1.312121e+01 1.314913e+01 1.028158e+01
<GCONST> 5.682787e+01
<TRANSP> 5
 0.000000e+00 1.000000e+00 0.000000e+00 0.000000e+00 0.000000e+00
 0.000000e+00 9.910499e-01 8.950128e-03 0.000000e+00 0.000000e+00
 0.000000e+00 0.000000e+00 9.671302e-01 3.286981e-02 0.000000e+00
 0.000000e+00 0.000000e+00 0.000000e+00 9.924175e-01 7.582483e-03
 0.000000e+00 0.000000e+00 0.000000e+00 0.000000e+00 0.000000e+00
<ENDHMM>
~h "ds"
<BEGINHMM>
<NUMSTATES> 5
<STATE> 2
<NUMMIXES> 16
<MIXTURE> 1 3.741002e-02
<MEAN> 13
 -8.007601e+00 5.592113e+00 7.563759e+00 6.990372e+00 8.077811e+00 4.817447e+00 8.192556e+00 1.103335e+00 3.950095e+00 1.954626e+00 4.216975e+00 1.307872e+00 6.330089e+01
<VARIANCE> 13
 1.480296e+01 7.363972e+00 1.232393e+01 9.774883e+00 1.179039e+01 1.386646e+01 1.377249e+01 1.402069e+01 1.584550e+01 1.571683e+01 1.537649e+01 1.303196e+01 8.171580e+01
<GCONST> 5.895626e+01
<MIXTURE> 2 5.396971e-02
<MEAN> 13
 -8.821987e+00 4.286200e+00 5.498214e+00 4.791210e+00 5.958210e+00 3.290152e+00 6.246309e+00 -7.049906e-02 2.955846e+00 1.066202e+00 3.419717e+00 2.922433e-01 6.131450e+01
<VARIANCE> 13
 1.703374e+01 1.167959e+01 1.525877e+01 1.384722e+01 1.718287e+01 1.921598e+01 1.816086e+01 1.721505e+01 1.879283e+01 2.029333e+01 1.765229e+01 1.478162e+01 9.520850e+01
<GCONST> 6.214748e+01
<MIXTURE> 3 5.396971e-02
<MEAN> 13
 -8.821987e+00 4.286200e+00 5.498214e+00 4.791210e+00 5.958210e+00 3.290152e+00 6.246309e+00 -7.049900e-02 2.955846e+00 1.066202e+00 3.419718e+00 2.922435e-01 6.131450e+01
<VARIANCE> 13
 1.703374e+01 1.167959e+01 1.525877e+01 1.384722e+01 1.718287e+01 1.921598e+01 1.816086e+01 1.721505e+01 1.879283e+01 2.029333e+01 1.765229e+01 1.478162e+01 9.520851e+01
<GCONST> 6.214748e+01
<MIXTURE> 4 6.662829e-02
<MEAN> 13
 -1.063230e+01 1.846182e+00 2.367024e+00 1.595835e+00 2.796574e+00 7.850082e-01 3.703552e+00 -1.491200e+00 1.510049e+00 4.871326e-01 2.972307e+00 -6.330376e-01 5.863639e+01
<VARIANCE> 13
 1.895377e+01 1.223955e+01 1.496469e+01 1.470724e+01 2.058140e+01 2.217694e+01 2.222080e+01 2.058755e+01 2.154239e+01 2.490770e+01 1.866473e+01 1.563442e+01 8.516822e+01
<GCONST> 6.338820e+01
<MIXTURE> 5 5.396971e-02
<MEAN> 13
 -8.821987e+00 4.286200e+00 5.498214e+00 4.791210e+00 5.958210e+00 3.290152e+00 6.246309e+00 -7.049900e-02 2.955846e+00 1.066202e+00 3.419718e+00 2.922435e-01 6.131450e+01
<VARIANCE> 13
 1.703374e+01 1.167959e+01 1.525877e+01 1.384722e+01 1.718287e+01 1.921598e+01 1.816086e+01 1.721505e+01 1.879283e+01 2.029333e+01 1.765229e+01 1.478162e+01 9.520851e+01
<GCONST> 6.214748e+01
<MIXTURE> 6 6.662829e-02
<MEAN> 13
 -1.063230e+01 1.846182e+00 2.367024e+00 1.595835e+00 2.796574e+00 7.850083e-01 3.703552e+00 -1.491200e+00 1.510049e+00 4.871325e-01 2.972307e+00 -6.330376e-01 5.863639e+01
<VARIANCE> 13
 1.895377e+01 1.223955e+01 1.496469e+01 1.470724e+01 2.058140e+01 2.217694e+01 2.222080e+01 2.058755e+01 2.154239e+01 2.490770e+01 1.866473e+01 1.563442e+01 8.516822e+01
<GCONST> 6.338820e+01
<MIXTURE> 7 6.662829e-02
<MEAN> 13
 -1.063230e+01 1.846182e+00 2.367024e+00 1.595835e+00 2.796574e+00 7.850083e-01 3.703552e+00 -1.491200e+00 1.510049e+00 4.871325e-01 2.972307e+00 -6.330376e-01 5.863639e+01
<VARIANCE> 13
 1.895377e+01 1.223955e+01 1.496469e+01 1.470724e+01 2.058140e+01 2.217694e+01 2.222080e+01 2.058755e+01 2.154239e+01 2.490770e+01 1.866473e+01 1.563442e+01 8.516822e+01
<GCONST> 6.338820e+01
<MIXTURE> 8 7.366816e-02
<MEAN> 13
 -1.176236e+01 1.868280e-01 3.639604e-01 -4.735562e-01 4.953214e-01 -1.395656e+00 1.769973e+00 -2.921470e+00 -2.901664e-01 -3.431703e-01 1.981208e+00 -1.752707e+00 5.801139e+01
<VARIANCE> 13
 2.095730e+01 1.054692e+01 1.421497e+01 1.401828e+01 2.157956e+01 2.083358e+01 2.427906e+01 2.243546e+01 2.165509e+01 2.548067e+01 1.870266e+01 1.603730e+01 7.974989e+01
<GCONST> 6.338959e+01
<MIXTURE> 9 5.396969e-02
<MEAN> 13
 -8.821989e+00 4.286202e+00 5.498214e+00 4.791212e+00 5.958210e+00 3.290151e+00 6.246309e+00 -7.050040e-02 2.955846e+00 1.066202e+00 3.419718e+00 2.922436e-01 6.131450e+01
<VARIANCE> 13
 1.703375e+01 1.167960e+01 1.525877e+01 1.384722e+01 1.718287e+01 1.921599e+01 1.816086e+01 1.721505e+01 1.879283e+01 2.029333e+01 1.765229e+01 1.478162e+01 9.520857e+01
<GCONST> 6.214748e+01
<MIXTURE> 10 6.662829e-02
<MEAN> 13
 -1.063230e+01 1.846182e+00 2.367024e+00 1.595835e+00 2.796574e+00 7.850083e-01 3.703552e+00 -1.491200e+00 1.510049e+00 4.871325e-01 2.972307e+00 -6.330376e-01 5.863639e+01
<VARIANCE> 13
 1.895377e+01 1.223955e+01 1.496469e+01 1.470724e+01 2.058140e+01 2.217694e+01 2.222080e+01 2.058755e+01 2.154239e+01 2.490770e+01 1.866473e+01 1.563442e+01 8.516822e+01
<GCONST> 6.338820e+01
<MIXTURE> 11 6.662829e-02
<MEAN> 13
 -1.063230e+01 1.846182e+00 2.367024e+00 1.595835e+00 2.796574e+00 7.850082e-01 3.703552e+00 -1.491200e+00 1.510049e+00 4.871325e-01 2.972307e+00 -6.330376e-01 5.863639e+01
<VARIANCE> 13
 1.895377e+01 1.223955e+01 1.496469e+01 1.470724e+01 2.058140e+01 2.217694e+01 2.222080e+01 2.058755e+01 2.154239e+01 2.490770e+01 1.866473e+01 1.563442e+01 8.516822e+01
<GCONST> 6.338820e+01
<MIXTURE> 12 7.366816e-02
<MEAN> 13
 -1.176236e+01 1.868280e-01 3.639604e-01 -4.735562e-01 4.953212e-01 -1.395656e+00 1.769973e+00 -2.921469e+00 -2.901662e-01 -3.431703e-01 1.981207e+00 -1.752707e+00 5.801139e+01
<VARIANCE> 13
 2.095730e+01 1.054692e+01 1.421497e+01 1.401828e+01 2.157956e+01 2.083358e+01 2.427906e+01 2.243546e+01 2.165509e+01 2.548067e+01 1.870266e+01 1.603730e+01 7.974990e+01
<GCONST> 6.338959e+01
<MIXTURE> 13 6.662829e-02
<MEAN> 13
 -1.063230e+01 1.846182e+00 2.367024e+00 1.595835e+00 2.796574e+00 7.850081e-01 3.703552e+00 -1.491200e+00 1.510049e+00 4.871323e-01 2.972307e+00 -6.330376e-01 5.863639e+01
<VARIANCE> 13
 1.895377e+01 1.223955e+01 1.496469e+01 1.470724e+01 2.058140e+01 2.217694e+01 2.222079e+01 2.058755e+01 2.154239e+01 2.490770e+01 1.866473e+01 1.563442e+01 8.516823e+01
<GCONST> 6.338820e+01
<MIXTURE> 14 7.366816e-02
<MEAN> 13
 -1.176236e+01 1.868280e-01 3.639604e-01 -4.735562e-01 4.953212e-01 -1.395656e+00 1.769973e+00 -2.921469e+00 -2.901662e-01 -3.431703e-01 1.981207e+00 -1.752707e+00 5.801139e+01
<VARIANCE> 13
 2.095730e+01 1.054692e+01 1.421497e+01 1.401828e+01 2.157956e+01 2.083358e+01 2.427906e+01 2.243546e+01 2.165509e+01 2.548067e+01 1.870266e+01 1.603730e+01 7.974990e+01
<GCONST> 6.338959e+01
<MIXTURE> 15 7.366815e-02
<MEAN> 13
 -1.176236e+01 1.868280e-01 3.639604e-01 -4.735561e-01 4.953220e-01 -1.395656e+00 1.769973e+00 -2.921469e+00 -2.901661e-01 -3.431704e-01 1.981207e+00 -1.752707e+00 5.801139e+01
<VARIANCE> 13
 2.095730e+01 1.054692e+01 1.421497e+01 1.401828e+01 2.157956e+01 2.083358e+01 2.427906e+01 2.243546e+01 2.165509e+01 2.548067e+01 1.870267e+01 1.603730e+01 7.974989e+01
<GCONST> 6.338959e+01
<MIXTURE> 16 5.226537e-02
<MEAN> 13
 -1.267439e+01 -1.198338e+00 -1.538548e+00 -2.080920e+00 -1.548654e+00 -3.267905e+00 -1.638739e-01 -4.393656e+00 -2.135824e+00 -1.512536e+00 5.666419e-01 -2.945615e+00 5.660564e+01
<VARIANCE> 13
 2.816760e+01 1.163528e+01 1.920061e+01 1.545954e+01 2.334761e+01 2.080406e+01 2.674083e+01 2.502139e+01 2.150135e+01 2.600837e+01 1.995951e+01 1.844513e+01 1.409788e+02
<GCONST> 6.525300e+01
<STATE> 3
<NUMMIXES> 16
<MIXTURE> 1 4.095737e-02
<MEAN> 13
 -5.082509e+00 3.547999e+00 3.597145e+00 2.857361e+00 5.267600e+00 5.588666e+00 7.847396e+00 4.609854e+00 4.074031e+00 3.494114e+00 3.652968e+00 -7.614367e-01 4.991039e+01
<VARIANCE> 13
 9.116283e+00 7.013320e+00 1.015565e+01 9.729074e+00 1.690603e+01 1.418144e+01 1.479925e+01 1.485839e+01 1.553398e+01 1.434974e+01 1.503857e+01 1.219610e+01 1.106088e+01
<GCONST> 5.653809e+01
<MIXTURE> 2 5.807278e-02
<MEAN> 13
 -6.087539e+00 2.677975e+00 1.833241e+00 8.634748e-01 2.860558e+00 3.564896e+00 5.641341e+00 3.181080e+00 2.622247e+00 2.787769e+00 2.729363e+00 -1.372822e+00 4.839563e+01
<VARIANCE> 13
 9.965446e+00 5.862871e+00 9.369459e+00 1.006516e+01 1.843274e+01 1.507588e+01 1.528479e+01 1.645274e+01 1.599814e+01 1.521014e+01 1.424570e+01 1.203786e+01 1.027999e+01
<GCONST> 5.663042e+01
<MIXTURE> 3 5.807278e-02
<MEAN> 13
 -6.087539e+00 2.677975e+00 1.833241e+00 8.634748e-01 2.860558e+00 3.564896e+00 5.641341e+00 3.181080e+00 2.622247e+00 2.787769e+00 2.729363e+00 -1.372822e+00 4.839563e+01
<VARIANCE> 13
 9.965446e+00 5.862871e+00 9.369459e+00 1.006516e+01 1.843274e+01 1.507588e+01 1.528479e+01 1.645274e+01 1.599814e+01 1.521014e+01 1.424570e+01 1.203786e+01 1.027999e+01
<GCONST> 5.663042e+01
<MIXTURE> 4 7.420345e-02
<MEAN> 13
 -6.653465e+00 2.003925e+00 5.657047e-01 -7.736780e-01 7.726299e-01 1.760755e+00 3.717523e+00 1.783663e+00 1.062640e+00 1.689642e+00 1.468827e+00 -2.311896e+00 4.750808e+01
<VARIANCE> 13
 1.015705e+01 5.409152e+00 8.760624e+00 1.033280e+01 1.860027e+01 1.453005e+01 1.517730e+01 1.736913e+01 1.639530e+01 1.699406e+01 1.445051e+01 1.247049e+01 8.995907e+00
<GCONST> 5.659887e+01
<MIXTURE> 5 5.807278e-02
<MEAN> 13
 -6.087539e+00 2.677975e+00 1.833241e+00 8.634748e-01 2.860558e+00 3.564896e+00 5.641341e+00 3.181080e+00 2.622247e+00 2.787769e+00 2.729363e+00 -1.372822e+00 4.839563e+01
<VARIANCE> 13
 9.965446e+00 5.862871e+00 9.369459e+00 1.006516e+01 1.843274e+01 1.507588e+01 1.528479e+01 1.645274e+01 1.599814e+01 1.521014e+01 1.424570e+01 1.203786e+01 1.027999e+01
<GCONST> 5.663042e+01
<MIXTURE> 6 7.420345e-02
<MEAN> 13
 -6.653465e+00 2.003925e+00 5.657047e-01 -7.736780e-01 7.726299e-01 1.760755e+00 3.717523e+00 1.783663e+00 1.062640e+00 1.689642e+00 1.468827e+00 -2.311896e+00 4.750808e+01
<VARIANCE> 13
 1.015705e+01 5.409152e+00 8.760624e+00 1.033280e+01 1.860027e+01 1.453005e+01 1.517730e+01 1.736913e+01 1.639530e+01 1.699406e+01 1.445051e+01 1.247049e+01 8.995907e+00
<GCONST> 5.659887e+01
<MIXTURE> 7 7.420345e-02
<MEAN> 13
 -6.653465e+00 2.003925e+00 5.657047e-01 -7.736780e-01 7.726299e-01 1.760755e+00 3.717523e+00 1.783663e+00 1.062640e+00 1.689642e+00 1.468827e+00 -2.311896e+00 4.750808e+01
<VARIANCE> 13
 1.015705e+01 5.409152e+00 8.760624e+00 1.033280e+01 1.860027e+01 1.453005e+01 1.517730e+01 1.736913e+01 1.639530e+01 1.699406e+01 1.445051e+01 1.247049e+01 8.995907e+00
<GCONST> 5.659887e+01
<MIXTURE> 8 6.224935e-02
<MEAN> 13
 -6.820591e+00 1.306906e+00 -4.812919e-01 -2.202100e+00 -1.084194e+00 2.484022e-01 2.133658e+00 4.075685e-01 -4.341336e-01 4.760730e-01 7.544926e-02 -3.465120e+00 4.728189e+01
<VARIANCE> 13
 1.057818e+01 5.846544e+00 9.127992e+00 1.111625e+01 1.942217e+01 1.477591e+01 1.588778e+01 1.811621e+01 1.694524e+01 1.782504e+01 1.535883e+01 1.336556e+01 8.941347e+00
<GCONST> 5.718422e+01
<MIXTURE> 9 5.807278e-02
<MEAN> 13
 -6.087539e+00 2.677975e+00 1.833241e+00 8.634748e-01 2.860558e+00 3.564896e+00 5.641341e+00 3.181080e+00 2.622247e+00 2.787769e+00 2.729363e+00 -1.372822e+00 4.839563e+01
<VARIANCE> 13
 9.965446e+00 5.862871e+00 9.369459e+00 1.006516e+01 1.843274e+01 1.507588e+01 1.528479e+01 1.645274e+01 1.599814e+01 1.521014e+01 1.424570e+01 1.203786e+01 1.027999e+01
<GCONST> 5.663042e+01
<MIXTURE> 10 7.420345e-02
<MEAN> 13
 -6.653465e+00 2.003925e+00 5.657047e-01 -7.736780e-01 7.726299e-01 1.760755e+00 3.717523e+00 1.783663e+00 1.062640e+00 1.689642e+00 1.468827e+00 -2.311896e+00 4.750808e+01
<VARIANCE> 13
 1.015705e+01 5.409152e+00 8.760624e+00 1.033280e+01 1.860027e+01 1.453005e+01 1.517730e+01 1.736913e+01 1.639530e+01 1.699406e+01 1.445051e+01 1.247049e+01 8.995907e+00
<GCONST> 5.659887e+01
<MIXTURE> 11 7.420345e-02
<MEAN> 13
 -6.653465e+00 2.003925e+00 5.657048e-01 -7.736781e-01 7.726297e-01 1.760755e+00 3.717523e+00 1.783663e+00 1.062640e+00 1.689642e+00 1.468827e+00 -2.311896e+00 4.750808e+01
<VARIANCE> 13
 1.015705e+01 5.409152e+00 8.760623e+00 1.033280e+01 1.860027e+01 1.453005e+01 1.517729e+01 1.736913e+01 1.639530e+01 1.699406e+01 1.445051e+01 1.247049e+01 8.995904e+00
<GCONST> 5.659886e+01
<MIXTURE> 12 6.224935e-02
<MEAN> 13
 -6.820591e+00 1.306906e+00 -4.812919e-01 -2.202100e+00 -1.084194e+00 2.484022e-01 2.133658e+00 4.075685e-01 -4.341336e-01 4.760730e-01 7.544926e-02 -3.465120e+00 4.728189e+01
<VARIANCE> 13
 1.057818e+01 5.846544e+00 9.127992e+00 1.111625e+01 1.942217e+01 1.477591e+01 1.588778e+01 1.811621e+01 1.694524e+01 1.782504e+01 1.535883e+01 1.336556e+01 8.941347e+00
<GCONST> 5.718422e+01
<MIXTURE> 13 7.420345e-02
<MEAN> 13
 -6.653466e+00 2.003925e+00 5.657048e-01 -7.736781e-01 7.726297e-01 1.760755e+00 3.717523e+00 1.783663e+00 1.062640e+00 1.689642e+00 1.468827e+00 -2.311896e+00 4.750808e+01
<VARIANCE> 13
 1.015705e+01 5.409152e+00 8.760622e+00 1.033280e+01 1.860027e+01 1.453005e+01 1.517729e+01 1.736913e+01 1.639530e+01 1.699406e+01 1.445051e+01 1.247049e+01 8.995904e+00
<GCONST> 5.659886e+01
<MIXTURE> 14 6.224935e-02
<MEAN> 13
 -6.820591e+00 1.306906e+00 -4.812919e-01 -2.202100e+00 -1.084194e+00 2.484022e-01 2.133658e+00 4.075685e-01 -4.341336e-01 4.760730e-01 7.544926e-02 -3.465120e+00 4.728189e+01
<VARIANCE> 13
 1.057818e+01 5.846544e+00 9.127992e+00 1.111625e+01 1.942217e+01 1.477591e+01 1.588778e+01 1.811621e+01 1.694524e+01 1.782504e+01 1.535883e+01 1.336556e+01 8.941347e+00
<GCONST> 5.718422e+01
<MIXTURE> 15 6.224934e-02
<MEAN> 13
 -6.820591e+00 1.306906e+00 -4.812920e-01 -2.202100e+00 -1.084194e+00 2.484021e-01 2.133658e+00 4.075688e-01 -4.341334e-01 4.760733e-01 7.544944e-02 -3.465120e+00 4.728189e+01
<VARIANCE> 13
 1.057818e+01 5.846544e+00 9.127992e+00 1.111625e+01 1.942217e+01 1.477591e+01 1.588778e+01 1.811621e+01 1.694524e+01 1.782504e+01 1.535883e+01 1.336556e+01 8.941347e+00
<GCONST> 5.718422e+01
<MIXTURE> 16 3.258801e-02
<MEAN> 13
 -6.976917e+00 3.738568e-01 -1.635575e+00 -3.771945e+00 -3.064199e+00 -1.285606e+00 5.637791e-01 -1.032706e+00 -1.885039e+00 -7.437769e-01 -1.421765e+00 -4.776241e+00 4.725585e+01
<VARIANCE> 13
 1.068919e+01 6.949561e+00 9.948613e+00 1.213309e+01 1.965389e+01 1.583322e+01 1.678684e+01 1.784279e+01 1.712145e+01 1.842974e+01 1.634682e+01 1.457429e+01 1.029868e+01
<GCONST> 5.799587e+01
<STATE> 4
<NUMMIXES> 16
<MIXTURE> 1 2.330814e-02
<MEAN> 13
 -9.322925e+00 -1.116962e+00 -3.656975e-01 -9.125570e-01 2.606902e+00 5.364615e+00 6.816563e+00 3.117808e+00 2.802699e+00 3.833637e+00 4.805021e+00 2.003395e-01 5.590732e+01
<VARIANCE> 13
 5.890977e+01 1.001727e+01 1.330537e+01 1.379483e+01 1.514333e+01 2.478151e+01 1.978627e+01 2.026925e+01 1.701904e+01 1.593177e+01 1.416011e+01 1.339431e+01 3.047606e+01
<GCONST> 6.167178e+01
<MIXTURE> 2 6.151193e-02
<MEAN> 13
 -9.347427e+00 -1.841959e+00 -1.444329e+00 -2.345533e+00 1.473738e+00 4.076394e+00 5.330203e+00 1.990822e+00 1.083333e+00 2.292998e+00 3.256008e+00 -9.508026e-01 5.514721e+01
<VARIANCE> 13
 5.590074e+01 1.049456e+01 1.258934e+01 1.185523e+01 1.518646e+01 2.497977e+01 1.857879e+01 1.870885e+01 1.647913e+01 1.571672e+01 1.396340e+01 1.297027e+01 2.588702e+01
<GCONST> 6.107161e+01
<MIXTURE> 3 6.151193e-02
<MEAN> 13
 -9.347427e+00 -1.841959e+00 -1.444329e+00 -2.345533e+00 1.473738e+00 4.076394e+00 5.330203e+00 1.990822e+00 1.083333e+00 2.292998e+00 3.256008e+00 -9.508026e-01 5.514721e+01
<VARIANCE> 13
 5.590074e+01 1.049456e+01 1.258934e+01 1.185523e+01 1.518646e+01 2.497977e+01 1.857879e+01 1.870885e+01 1.647913e+01 1.571672e+01 1.396340e+01 1.297027e+01 2.588702e+01
<GCONST> 6.107161e+01
<MIXTURE> 4 8.019274e-02
<MEAN> 13
 -8.846343e+00 -2.846740e+00 -2.407909e+00 -3.556799e+00 1.699772e-01 2.225039e+00 3.729232e+00 5.790551e-01 -4.671271e-01 8.237743e-01 1.734199e+00 -2.004233e+00 5.513951e+01
<VARIANCE> 13
 4.892420e+01 1.196047e+01 1.223424e+01 1.221065e+01 1.553845e+01 2.516476e+01 2.049726e+01 1.904004e+01 1.699839e+01 1.613636e+01 1.462261e+01 1.357685e+01 2.735040e+01
<GCONST> 6.142028e+01
<MIXTURE> 5 6.151193e-02
<MEAN> 13
 -9.347427e+00 -1.841959e+00 -1.444329e+00 -2.345533e+00 1.473738e+00 4.076394e+00 5.330203e+00 1.990822e+00 1.083333e+00 2.292998e+00 3.256008e+00 -9.508026e-01 5.514721e+01
<VARIANCE> 13
 5.590074e+01 1.049456e+01 1.258934e+01 1.185523e+01 1.518646e+01 2.497977e+01 1.857879e+01 1.870885e+01 1.647913e+01 1.571672e+01 1.396340e+01 1.297027e+01 2.588702e+01
<GCONST> 6.107161e+01
<MIXTURE> 6 8.019274e-02
<MEAN> 13
 -8.846343e+00 -2.846740e+00 -2.407909e+00 -3.556799e+00 1.699772e-01 2.225039e+00 3.729232e+00 5.790551e-01 -4.671271e-01 8.237743e-01 1.734199e+00 -2.004233e+00 5.513951e+01
<VARIANCE> 13
 4.892420e+01 1.196047e+01 1.223424e+01 1.221065e+01 1.553845e+01 2.516476e+01 2.049726e+01 1.904004e+01 1.699839e+01 1.613636e+01 1.462261e+01 1.357685e+01 2.735040e+01
<GCONST> 6.142028e+01
<MIXTURE> 7 8.019274e-02
<MEAN> 13
 -8.846343e+00 -2.846740e+00 -2.407909e+00 -3.556799e+00 1.699772e-01 2.225039e+00 3.729232e+00 5.790551e-01 -4.671271e-01 8.237743e-01 1.734199e+00 -2.004233e+00 5.513951e+01
<VARIANCE> 13
 4.892420e+01 1.196047e+01 1.223424e+01 1.221065e+01 1.553845e+01 2.516476e+01 2.049726e+01 1.904004e+01 1.699839e+01 1.613636e+01 1.462261e+01 1.357685e+01 2.735040e+01
<GCONST> 6.142028e+01
<MIXTURE> 8 5.615856e-02
<MEAN> 13
 -8.512129e+00 -4.265579e+00 -3.320023e+00 -4.977025e+00 -1.444258e+00 4.683340e-02 1.606258e+00 -1.175876e+00 -1.980263e+00 -7.459761e-01 1.870445e-01 -3.108721e+00 5.605483e+01
<VARIANCE> 13
 4.377163e+01 1.478323e+01 1.243858e+01 1.427673e+01 1.651730e+01 2.670836e+01 2.351865e+01 2.000746e+01 1.816345e+01 1.684115e+01 1.549965e+01 1.505421e+01 3.960520e+01
<GCONST> 6.264227e+01
<MIXTURE> 9 6.151193e-02
<MEAN> 13
 -9.347427e+00 -1.841959e+00 -1.444329e+00 -2.345533e+00 1.473738e+00 4.076394e+00 5.330203e+00 1.990822e+00 1.083333e+00 2.292998e+00 3.256008e+00 -9.508026e-01 5.514721e+01
<VARIANCE> 13
 5.590074e+01 1.049456e+01 1.258934e+01 1.185523e+01 1.518646e+01 2.497977e+01 1.857879e+01 1.870885e+01 1.647913e+01 1.571672e+01 1.396340e+01 1.297027e+01 2.588702e+01
<GCONST> 6.107161e+01
<MIXTURE> 10 8.019274e-02
<MEAN> 13
 -8.846343e+00 -2.846740e+00 -2.407909e+00 -3.556799e+00 1.699772e-01 2.225039e+00 3.729232e+00 5.790551e-01 -4.671271e-01 8.237743e-01 1.734199e+00 -2.004233e+00 5.513951e+01
<VARIANCE> 13
 4.892420e+01 1.196047e+01 1.223424e+01 1.221065e+01 1.553845e+01 2.516476e+01 2.049726e+01 1.904004e+01 1.699839e+01 1.613636e+01 1.462261e+01 1.357685e+01 2.735040e+01
<GCONST> 6.142028e+01
<MIXTURE> 11 8.019274e-02
<MEAN> 13
