~o
<STREAMINFO> 1 13
<VECSIZE> 13<NULLD><MFCC_0><DIAGC>
~h "ap"
<BEGINHMM>
<NUMSTATES> 5
<STATE> 2
<NUMMIXES> 16
<MIXTURE> 1 3.759050e-02
<MEAN> 13
 -5.183156e+00 -2.245079e+00 -3.169074e+00 -8.276584e-01 4.838168e+00 8.009639e+00 8.083244e+00 3.157358e+00 1.695360e+00 4.390494e+00 4.304798e+00 2.593509e-01 5.060062e+01
<VARIANCE> 13
 8.941384e+00 6.059115e+00 8.859189e+00 5.949535e+00 6.564840e+00 8.257715e+00 9.233315e+00 9.972231e+00 1.079068e+01 1.283890e+01 1.061300e+01 1.310332e+01 1.844872e+00
<GCONST> 5.084344e+01
<MIXTURE> 2 6.483345e-02
<MEAN> 13
 -4.078726e+00 -3.188689e+00 -3.488043e+00 -1.862133e+00 3.570096e+00 6.521070e+00 6.531283e+00 2.409496e+00 6.063155e-01 2.461010e+00 2.621473e+00 -1.244218e+00 5.028316e+01
<VARIANCE> 13
 5.713295e+00 5.125646e+00 4.825485e+00 5.549343e+00 7.009155e+00 8.944406e+00 9.320183e+00 1.053780e+01 1.003597e+01 1.117067e+01 1.034886e+01 1.098682e+01 1.535001e+00
<GCONST> 4.916402e+01
<MIXTURE> 3 6.483345e-02
<MEAN> 13
 -4.078726e+00 -3.188689e+00 -3.488043e+00 -1.862133e+00 3.570096e+00 6.521070e+00 6.531283e+00 2.409496e+00 6.063155e-01 2.461010e+00 2.621473e+00 -1.244218e+00 5.028316e+01
<VARIANCE> 13
 5.713295e+00 5.125646e+00 4.825485e+00 5.549343e+00 7.009155e+00 8.944406e+00 9.320183e+00 1.053780e+01 1.003597e+01 1.117067e+01 1.034886e+01 1.098682e+01 1.535001e+00
<GCONST> 4.916402e+01
<MIXTURE> 4 7.093416e-02
<MEAN> 13
 -3.520746e+00 -3.945700e+00 -3.859333e+00 -2.924782e+00 1.832866e+00 4.488699e+00 4.503923e+00 7.260456e-01 -9.367515e-01 9.369909e-01 1.277128e+00 -2.086018e+00 5.014655e+01
<VARIANCE> 13
 4.287117e+00 4.179534e+00 4.899103e+00 6.153327e+00 7.653899e+00 9.338379e+00 1.042258e+01 1.151737e+01 1.140750e+01 1.150175e+01 1.071025e+01 1.036849e+01 1.594514e+00
<GCONST> 4.929475e+01
<MIXTURE> 5 6.483345e-02
<MEAN> 13
 -4.078726e+00 -3.188689e+00 -3.488043e+00 -1.862133e+00 3.570096e+00 6.521070e+00 6.531283e+00 2.409496e+00 6.063155e-01 2.461010e+00 2.621473e+00 -1.244218e+00 5.028316e+01
<VARIANCE> 13
 5.713295e+00 5.125646e+00 4.825485e+00 5.549343e+00 7.009155e+00 8.944406e+00 9.320183e+00 1.053780e+01 1.003597e+01 1.117067e+01 1.034886e+01 1.098682e+01 1.535001e+00
<GCONST> 4.916402e+01
<MIXTURE> 6 7.093416e-02
<MEAN> 13
 -3.520746e+00 -3.945700e+00 -3.859333e+00 -2.924782e+00 1.832866e+00 4.488699e+00 4.503923e+00 7.260456e-01 -9.367515e-01 9.369909e-01 1.277128e+00 -2.086018e+00 5.014655e+01
<VARIANCE> 13
 4.287117e+00 4.179534e+00 4.899103e+00 6.153327e+00 7.653899e+00 9.338379e+00 1.042258e+01 1.151737e+01 1.140750e+01 1.150175e+01 1.071025e+01 1.036849e+01 1.594514e+00
<GCONST> 4.929475e+01
<MIXTURE> 7 7.093416e-02
<MEAN> 13
 -3.520746e+00 -3.945700e+00 -3.859333e+00 -2.924782e+00 1.832866e+00 4.488699e+00 4.503923e+00 7.260456e-01 -9.367515e-01 9.369909e-01 1.277128e+00 -2.086018e+00 5.014655e+01
<VARIANCE> 13
 4.287117e+00 4.179534e+00 4.899103e+00 6.153327e+00 7.653899e+00 9.338379e+00 1.042258e+01 1.151737e+01 1.140750e+01 1.150175e+01 1.071025e+01 1.036849e+01 1.594514e+00
<GCONST> 4.929475e+01
<MIXTURE> 8 5.400112e-02
<MEAN> 13
 -3.635415e+00 -4.297689e+00 -3.773517e+00 -3.919916e+00 -4.600712e-01 1.961999e+00 1.851312e+00 -1.200992e+00 -1.910272e+00 -2.104066e-01 4.536924e-01 -2.626750e+00 5.061501e+01
<VARIANCE> 13
 5.977686e+00 5.637364e+00 9.619544e+00 8.428172e+00 8.955654e+00 1.387757e+01 1.554574e+01 1.678951e+01 1.634179e+01 1.541881e+01 1.275458e+01 1.538745e+01 5.263018e+00
<GCONST> 5.466179e+01
<MIXTURE> 9 6.483345e-02
<MEAN> 13
 -4.078726e+00 -3.188689e+00 -3.488043e+00 -1.862133e+00 3.570096e+00 6.521070e+00 6.531283e+00 2.409496e+00 6.063155e-01 2.461010e+00 2.621473e+00 -1.244218e+00 5.028316e+01
<VARIANCE> 13
 5.713295e+00 5.125646e+00 4.825485e+00 5.549343e+00 7.009155e+00 8.944406e+00 9.320183e+00 1.053780e+01 1.003597e+01 1.117067e+01 1.034886e+01 1.098682e+01 1.535001e+00
<GCONST> 4.916402e+01
<MIXTURE> 10 7.093416e-02
<MEAN> 13
 -3.520746e+00 -3.945700e+00 -3.859333e+00 -2.924782e+00 1.832866e+00 4.488699e+00 4.503923e+00 7.260456e-01 -9.367515e-01 9.369909e-01 1.277128e+00 -2.086018e+00 5.014655e+01
<VARIANCE> 13
 4.287117e+00 4.179534e+00 4.899103e+00 6.153327e+00 7.653899e+00 9.338379e+00 1.042258e+01 1.151737e+01 1.140750e+01 1.150175e+01 1.071025e+01 1.036849e+01 1.594514e+00
<GCONST> 4.929475e+01
<MIXTURE> 11 7.093416e-02
<MEAN> 13
 -3.520746e+00 -3.945700e+00 -3.859333e+00 -2.924782e+00 1.832866e+00 4.488699e+00 4.503923e+00 7.260456e-01 -9.367515e-01 9.369909e-01 1.277128e+00 -2.086018e+00 5.014655e+01
<VARIANCE> 13
 4.287117e+00 4.179534e+00 4.899103e+00 6.153327e+00 7.653899e+00 9.338379e+00 1.042258e+01 1.151737e+01 1.140750e+01 1.150175e+01 1.071025e+01 1.036849e+01 1.594514e+00
<GCONST> 4.929475e+01
<MIXTURE> 12 5.400093e-02
<MEAN> 13
 -3.635412e+00 -4.297692e+00 -3.773518e+00 -3.919917e+00 -4.600707e-01 1.962001e+00 1.851311e+00 -1.200995e+00 -1.910274e+00 -2.104067e-01 4.536922e-01 -2.626750e+00 5.061500e+01
<VARIANCE> 13
 5.977679e+00 5.637358e+00 9.619549e+00 8.428182e+00 8.955663e+00 1.387758e+01 1.554575e+01 1.678950e+01 1.634180e+01 1.541883e+01 1.275458e+01 1.538746e+01 5.263000e+00
<GCONST> 5.466179e+01
<MIXTURE> 13 7.093416e-02
<MEAN> 13
 -3.520746e+00 -3.945700e+00 -3.859333e+00 -2.924782e+00 1.832866e+00 4.488699e+00 4.503923e+00 7.260456e-01 -9.367515e-01 9.369909e-01 1.277128e+00 -2.086018e+00 5.014655e+01
<VARIANCE> 13
 4.287117e+00 4.179534e+00 4.899103e+00 6.153327e+00 7.653899e+00 9.338379e+00 1.042258e+01 1.151737e+01 1.140750e+01 1.150175e+01 1.071025e+01 1.036849e+01 1.594514e+00
<GCONST> 4.929475e+01
<MIXTURE> 14 5.400093e-02
<MEAN> 13
 -3.635412e+00 -4.297692e+00 -3.773518e+00 -3.919917e+00 -4.600707e-01 1.962001e+00 1.851311e+00 -1.200995e+00 -1.910274e+00 -2.104067e-01 4.536922e-01 -2.626750e+00 5.061500e+01
<VARIANCE> 13
 5.977679e+00 5.637358e+00 9.619549e+00 8.428182e+00 8.955663e+00 1.387758e+01 1.554575e+01 1.678950e+01 1.634180e+01 1.541883e+01 1.275458e+01 1.538746e+01 5.263000e+00
<GCONST> 5.466179e+01
<MIXTURE> 15 5.400119e-02
<MEAN> 13
 -3.635416e+00 -4.297688e+00 -3.773515e+00 -3.919914e+00 -4.600720e-01 1.961998e+00 1.851311e+00 -1.200993e+00 -1.910273e+00 -2.104078e-01 4.536924e-01 -2.626749e+00 5.061501e+01
<VARIANCE> 13
 5.977695e+00 5.637363e+00 9.619548e+00 8.428177e+00 8.955663e+00 1.387758e+01 1.554574e+01 1.678951e+01 1.634179e+01 1.541882e+01 1.275459e+01 1.538745e+01 5.263021e+00
<GCONST> 5.466179e+01
<MIXTURE> 16 6.147610e-02
<MEAN> 13
 -2.758222e+00 -5.150791e+00 -3.238678e+00 -5.452457e+00 -4.637999e+00 -2.146863e+00 -2.666195e+00 -2.679610e+00 -8.359788e-01 6.625624e-01 1.513421e+00 -3.476126e+00 5.269610e+01
<VARIANCE> 13
 4.965875e+00 8.537067e+00 1.559826e+01 1.475967e+01 2.236512e+01 2.894577e+01 3.428708e+01 3.424236e+01 3.524338e+01 2.992107e+01 2.553249e+01 2.638134e+01 1.642257e+01
<GCONST> 6.289173e+01
<STATE> 3
<NUMMIXES> 16
<MIXTURE> 1 5.890464e-02
<MEAN> 13
 -4.781528e+00 1.587068e+00 1.230438e-01 5.418779e-01 1.482429e+00 5.296509e+00 7.348697e+00 5.579216e+00 2.643683e+00 4.857661e+00 2.991604e+00 -1.265391e+00 4.409613e+01
<VARIANCE> 13
 1.610152e+00 2.126552e+00 4.764268e+00 4.871493e+00 6.304657e+00 7.918572e+00 8.678385e+00 8.853883e+00 9.373468e+00 1.057563e+01 1.004369e+01 8.511567e+00 7.899174e-01
<GCONST> 4.532895e+01
<MIXTURE> 2 7.298534e-02
<MEAN> 13
 -5.101471e+00 1.631047e+00 -5.727047e-01 -1.178040e-01 6.741565e-01 4.064955e+00 5.810176e+00 3.627771e+00 1.070901e+00 3.039680e+00 1.493054e+00 -1.835366e+00 4.456739e+01
<VARIANCE> 13
 3.341439e+00 2.956436e+00 4.713105e+00 6.102906e+00 8.151182e+00 8.703443e+00 8.960549e+00 1.015589e+01 1.093775e+01 1.099914e+01 9.543508e+00 9.806056e+00 1.579769e+00
<GCONST> 4.810085e+01
<MIXTURE> 3 7.298545e-02
<MEAN> 13
 -5.101471e+00 1.631047e+00 -5.727043e-01 -1.178034e-01 6.741577e-01 4.064956e+00 5.810176e+00 3.627771e+00 1.070899e+00 3.039679e+00 1.493054e+00 -1.835366e+00 4.456739e+01
<VARIANCE> 13
 3.341443e+00 2.956437e+00 4.713107e+00 6.102909e+00 8.151189e+00 8.703449e+00 8.960549e+00 1.015589e+01 1.093775e+01 1.099914e+01 9.543508e+00 9.806057e+00 1.579770e+00
<GCONST> 4.810085e+01
<MIXTURE> 4 6.873710e-02
<MEAN> 13
 -5.763070e+00 1.247408e+00 -1.354273e+00 -1.058624e+00 -1.255006e-01 2.338192e+00 4.091542e+00 1.664439e+00 -1.993914e-01 1.782272e+00 4.888679e-01 -2.065418e+00 4.542513e+01
<VARIANCE> 13
 6.203471e+00 4.873122e+00 5.233856e+00 6.974611e+00 1.009604e+01 9.896674e+00 9.579921e+00 1.142592e+01 1.165738e+01 1.173203e+01 1.095268e+01 1.123484e+01 4.575738e+00
<GCONST> 5.145020e+01
<MIXTURE> 5 7.298545e-02
<MEAN> 13
 -5.101471e+00 1.631047e+00 -5.727043e-01 -1.178034e-01 6.741577e-01 4.064956e+00 5.810176e+00 3.627771e+00 1.070899e+00 3.039679e+00 1.493054e+00 -1.835366e+00 4.456739e+01
<VARIANCE> 13
 3.341443e+00 2.956437e+00 4.713107e+00 6.102909e+00 8.151189e+00 8.703449e+00 8.960549e+00 1.015589e+01 1.093775e+01 1.099914e+01 9.543508e+00 9.806057e+00 1.579770e+00
<GCONST> 4.810085e+01
<MIXTURE> 6 6.873710e-02
<MEAN> 13
 -5.763070e+00 1.247408e+00 -1.354273e+00 -1.058624e+00 -1.255006e-01 2.338192e+00 4.091542e+00 1.664439e+00 -1.993914e-01 1.782272e+00 4.888679e-01 -2.065418e+00 4.542513e+01
<VARIANCE> 13
 6.203471e+00 4.873122e+00 5.233856e+00 6.974611e+00 1.009604e+01 9.896674e+00 9.579921e+00 1.142592e+01 1.165738e+01 1.173203e+01 1.095268e+01 1.123484e+01 4.575738e+00
<GCONST> 5.145020e+01
<MIXTURE> 7 6.873686e-02
<MEAN> 13
 -5.763069e+00 1.247409e+00 -1.354273e+00 -1.058624e+00 -1.255002e-01 2.338192e+00 4.091542e+00 1.664439e+00 -1.993912e-01 1.782272e+00 4.888679e-01 -2.065418e+00 4.542513e+01
<VARIANCE> 13
 6.203464e+00 4.873116e+00 5.233853e+00 6.974601e+00 1.009604e+01 9.896668e+00 9.579917e+00 1.142591e+01 1.165737e+01 1.173202e+01 1.095268e+01 1.123483e+01 4.575734e+00
<GCONST> 5.145020e+01
<MIXTURE> 8 4.859957e-02
<MEAN> 13
 -7.415751e+00 -1.085546e-01 -1.966823e+00 -1.661109e+00 7.377118e-03 4.859963e-02 2.265943e+00 -1.383924e-01 -1.322830e+00 4.307731e-01 -1.398028e-01 -1.771096e+00 4.784198e+01
<VARIANCE> 13
 9.569989e+00 1.092829e+01 6.844167e+00 8.574361e+00 1.432532e+01 1.261595e+01 1.206521e+01 1.249841e+01 1.273715e+01 1.382789e+01 1.362801e+01 1.326213e+01 1.255735e+01
<GCONST> 5.572604e+01
<MIXTURE> 9 7.298543e-02
<MEAN> 13
 -5.101470e+00 1.631047e+00 -5.727043e-01 -1.178035e-01 6.741562e-01 4.064955e+00 5.810177e+00 3.627772e+00 1.070901e+00 3.039679e+00 1.493054e+00 -1.835366e+00 4.456739e+01
<VARIANCE> 13
 3.341440e+00 2.956435e+00 4.713106e+00 6.102908e+00 8.151188e+00 8.703449e+00 8.960548e+00 1.015590e+01 1.093775e+01 1.099914e+01 9.543506e+00 9.806056e+00 1.579770e+00
<GCONST> 4.810085e+01
<MIXTURE> 10 6.873686e-02
<MEAN> 13
 -5.763069e+00 1.247409e+00 -1.354273e+00 -1.058624e+00 -1.255002e-01 2.338192e+00 4.091542e+00 1.664439e+00 -1.993912e-01 1.782272e+00 4.888679e-01 -2.065418e+00 4.542513e+01
<VARIANCE> 13
 6.203464e+00 4.873116e+00 5.233853e+00 6.974601e+00 1.009604e+01 9.896668e+00 9.579917e+00 1.142591e+01 1.165737e+01 1.173202e+01 1.095268e+01 1.123483e+01 4.575734e+00
<GCONST> 5.145020e+01
<MIXTURE> 11 6.873738e-02
<MEAN> 13
 -5.763070e+00 1.247409e+00 -1.354273e+00 -1.058623e+00 -1.255008e-01 2.338192e+00 4.091542e+00 1.664439e+00 -1.993920e-01 1.782271e+00 4.888677e-01 -2.065418e+00 4.542513e+01
<VARIANCE> 13
 6.203473e+00 4.873121e+00 5.233855e+00 6.974605e+00 1.009603e+01 9.896663e+00 9.579922e+00 1.142592e+01 1.165738e+01 1.173202e+01 1.095268e+01 1.123484e+01 4.575739e+00
<GCONST> 5.145020e+01
<MIXTURE> 12 4.859957e-02
<MEAN> 13
 -7.415751e+00 -1.085546e-01 -1.966823e+00 -1.661109e+00 7.377118e-03 4.859963e-02 2.265943e+00 -1.383924e-01 -1.322830e+00 4.307731e-01 -1.398028e-01 -1.771096e+00 4.784198e+01
<VARIANCE> 13
 9.569989e+00 1.092829e+01 6.844167e+00 8.574361e+00 1.432532e+01 1.261595e+01 1.206521e+01 1.249841e+01 1.273715e+01 1.382789e+01 1.362801e+01 1.326213e+01 1.255735e+01
<GCONST> 5.572604e+01
<MIXTURE> 13 6.873726e-02
<MEAN> 13
 -5.763070e+00 1.247409e+00 -1.354273e+00 -1.058623e+00 -1.255008e-01 2.338192e+00 4.091541e+00 1.664439e+00 -1.993920e-01 1.782271e+00 4.888680e-01 -2.065418e+00 4.542513e+01
<VARIANCE> 13
 6.203466e+00 4.873116e+00 5.233850e+00 6.974602e+00 1.009603e+01 9.896657e+00 9.579908e+00 1.142591e+01 1.165735e+01 1.173202e+01 1.095268e+01 1.123483e+01 4.575735e+00
<GCONST> 5.145018e+01
<MIXTURE> 14 4.859957e-02
<MEAN> 13
 -7.415751e+00 -1.085546e-01 -1.966823e+00 -1.661109e+00 7.377118e-03 4.859963e-02 2.265943e+00 -1.383924e-01 -1.322830e+00 4.307731e-01 -1.398028e-01 -1.771096e+00 4.784198e+01
<VARIANCE> 13
 9.569989e+00 1.092829e+01 6.844167e+00 8.574361e+00 1.432532e+01 1.261595e+01 1.206521e+01 1.249841e+01 1.273715e+01 1.382789e+01 1.362801e+01 1.326213e+01 1.255735e+01
<GCONST> 5.572604e+01
<MIXTURE> 15 4.859954e-02
<MEAN> 13
 -7.415751e+00 -1.085542e-01 -1.966823e+00 -1.661109e+00 7.376290e-03 4.859956e-02 2.265943e+00 -1.383923e-01 -1.322830e+00 4.307727e-01 -1.398026e-01 -1.771096e+00 4.784198e+01
<VARIANCE> 13
 9.569990e+00 1.092829e+01 6.844166e+00 8.574358e+00 1.432532e+01 1.261594e+01 1.206521e+01 1.249841e+01 1.273716e+01 1.382790e+01 1.362801e+01 1.326213e+01 1.255735e+01
<GCONST> 5.572604e+01
<MIXTURE> 16 4.232873e-02
<MEAN> 13
 -1.026522e+01 -2.366782e+00 -1.008788e+00 -2.672535e+00 6.849108e-01 -2.671845e+00 1.058056e-01 -7.869377e-01 -2.124341e+00 -2.774739e-01 -9.717388e-01 -1.940974e+00 5.223132e+01
<VARIANCE> 13
 1.827697e+01 1.347210e+01 1.665136e+01 1.423337e+01 2.465306e+01 1.452739e+01 1.463926e+01 1.615815e+01 1.368126e+01 2.361599e+01 1.683653e+01 1.608840e+01 2.569329e+01
<GCONST> 6.083965e+01
<STATE> 4
<NUMMIXES> 16
<MIXTURE> 1 1.152885e-01
<MEAN> 13
 -5.089046e+00 -4.792331e-01 2.514633e-01 -1.201694e+00 1.962062e+00 2.099350e+00 4.179750e+00 4.586033e+00 4.063705e-01 2.040920e+00 2.215925e+00 -2.593807e+00 4.521588e+01
<VARIANCE> 13
 3.744290e+00 1.189877e+01 8.983629e+00 1.491002e+01 1.299150e+01 1.330233e+01 1.540255e+01 1.372264e+01 1.290937e+01 1.311151e+01 1.234212e+01 1.279153e+01 9.193347e+00
<GCONST> 5.550405e+01
<MIXTURE> 2 5.870069e-02
<MEAN> 13
 -7.392526e+00 -6.277861e+00 -1.125459e+00 2.409885e+00 2.889173e+00 -8.123657e-01 4.033509e+00 1.298839e-01 -2.121819e+00 2.891856e-02 1.333853e+00 -1.717374e+00 5.075977e+01
<VARIANCE> 13
 1.025515e+01 2.694095e+01 1.430074e+01 2.122617e+01 2.094047e+01 2.060159e+01 1.891570e+01 1.897402e+01 1.807759e+01 1.763364e+01 1.508258e+01 1.379030e+01 1.917008e+01
<GCONST> 6.123483e+01
<MIXTURE> 3 5.870074e-02
<MEAN> 13
 -7.392527e+00 -6.277860e+00 -1.125459e+00 2.409885e+00 2.889173e+00 -8.123664e-01 4.033508e+00 1.298846e-01 -2.121820e+00 2.891728e-02 1.333854e+00 -1.717373e+00 5.075977e+01
<VARIANCE> 13
 1.025515e+01 2.694096e+01 1.430073e+01 2.122617e+01 2.094048e+01 2.060159e+01 1.891571e+01 1.897402e+01 1.807760e+01 1.763365e+01 1.508258e+01 1.379031e+01 1.917008e+01
<GCONST> 6.123483e+01
<MIXTURE> 4 5.293643e-02
<MEAN> 13
 -1.105538e+01 -1.306600e+01 -5.079265e+00 2.544771e+00 1.292305e+00 -5.471144e+00 2.367744e+00 -3.676391e+00 -4.364610e+00 -1.453743e+00 1.123907e+00 -6.992747e-01 6.140773e+01
<VARIANCE> 13
 2.078168e+01 3.157472e+01 2.086028e+01 2.324106e+01 3.280185e+01 2.503430e+01 2.481689e+01 2.423497e+01 2.337806e+01 2.132085e+01 1.738364e+01 1.515047e+01 3.491307e+01
<GCONST> 6.501056e+01
<MIXTURE> 5 5.870074e-02
<MEAN> 13
 -7.392527e+00 -6.277860e+00 -1.125459e+00 2.409885e+00 2.889173e+00 -8.123664e-01 4.033508e+00 1.298846e-01 -2.121820e+00 2.891728e-02 1.333854e+00 -1.717373e+00 5.075977e+01
<VARIANCE> 13
 1.025515e+01 2.694096e+01 1.430073e+01 2.122617e+01 2.094048e+01 2.060159e+01 1.891571e+01 1.897402e+01 1.807760e+01 1.763365e+01 1.508258e+01 1.379031e+01 1.917008e+01
<GCONST> 6.123483e+01
<MIXTURE> 6 5.293643e-02
<MEAN> 13
 -1.105538e+01 -1.306600e+01 -5.079265e+00 2.544771e+00 1.292305e+00 -5.471144e+00 2.367744e+00 -3.676391e+00 -4.364610e+00 -1.453743e+00 1.123907e+00 -6.992747e-01 6.140773e+01
<VARIANCE> 13
 2.078168e+01 3.157472e+01 2.086028e+01 2.324106e+01 3.280185e+01 2.503430e+01 2.481689e+01 2.423497e+01 2.337806e+01 2.132085e+01 1.738364e+01 1.515047e+01 3.491307e+01
<GCONST> 6.501056e+01
<MIXTURE> 7 5.293626e-02
<MEAN> 13
 -1.105538e+01 -1.306600e+01 -5.079265e+00 2.544772e+00 1.292307e+00 -5.471146e+00 2.367743e+00 -3.676391e+00 -4.364612e+00 -1.453743e+00 1.123907e+00 -6.992754e-01 6.140773e+01
<VARIANCE> 13
 2.078168e+01 3.157470e+01 2.086029e+01 2.324106e+01 3.280183e+01 2.503431e+01 2.481689e+01 2.423496e+01 2.337805e+01 2.132086e+01 1.738364e+01 1.515047e+01 3.491307e+01
<GCONST> 6.501056e+01
<MIXTURE> 8 6.926318e-02
<MEAN> 13
 -1.388277e+01 -1.667752e+01 -9.636555e+00 1.079183e-01 -2.859025e+00 -8.739308e+00 3.337208e-01 -4.447890e+00 -5.472241e+00 -2.501681e+00 -2.316411e-01 -1.591573e+00 7.323003e+01
<VARIANCE> 13
 1.776049e+01 2.820706e+01 1.955609e+01 2.313860e+01 3.665742e+01 2.477912e+01 2.504146e+01 2.288073e+01 2.382794e+01 2.135152e+01 1.852216e+01 1.599011e+01 4.133249e+01
<GCONST> 6.503075e+01
<MIXTURE> 9 5.870079e-02
<MEAN> 13
 -7.392527e+00 -6.277859e+00 -1.125460e+00 2.409884e+00 2.889173e+00 -8.123656e-01 4.033507e+00 1.298851e-01 -2.121819e+00 2.891710e-02 1.333853e+00 -1.717373e+00 5.075977e+01
<VARIANCE> 13
 1.025515e+01 2.694094e+01 1.430072e+01 2.122617e+01 2.094047e+01 2.060159e+01 1.891571e+01 1.897402e+01 1.807759e+01 1.763364e+01 1.508258e+01 1.379031e+01 1.917008e+01
<GCONST> 6.123482e+01
<MIXTURE> 10 5.293626e-02
<MEAN> 13
 -1.105538e+01 -1.306600e+01 -5.079265e+00 2.544772e+00 1.292307e+00 -5.471146e+00 2.367743e+00 -3.676391e+00 -4.364612e+00 -1.453743e+00 1.123907e+00 -6.992754e-01 6.140773e+01
<VARIANCE> 13
 2.078168e+01 3.157470e+01 2.086029e+01 2.324106e+01 3.280183e+01 2.503431e+01 2.481689e+01 2.423496e+01 2.337805e+01 2.132086e+01 1.738364e+01 1.515047e+01 3.491307e+01
<GCONST> 6.501056e+01
<MIXTURE> 11 5.293626e-02
<MEAN> 13
 -1.105538e+01 -1.306600e+01 -5.079265e+00 2.544772e+00 1.292307e+00 -5.471146e+00 2.367743e+00 -3.676391e+00 -4.364612e+00 -1.453743e+00 1.123907e+00 -6.992754e-01 6.140773e+01
<VARIANCE> 13
 2.078168e+01 3.157470e+01 2.086029e+01 2.324106e+01 3.280183e+01 2.503431e+01 2.481689e+01 2.423496e+01 2.337805e+01 2.132086e+01 1.738364e+01 1.515047e+01 3.491307e+01
<GCONST> 6.501056e+01
<MIXTURE> 12 6.926318e-02
<MEAN> 13
 -1.388277e+01 -1.667752e+01 -9.636555e+00 1.079183e-01 -2.859025e+00 -8.739308e+00 3.337208e-01 -4.447890e+00 -5.472241e+00 -2.501681e+00 -2.316411e-01 -1.591573e+00 7.323003e+01
<VARIANCE> 13
 1.776049e+01 2.820706e+01 1.955609e+01 2.313860e+01 3.665742e+01 2.477912e+01 2.504146e+01 2.288073e+01 2.382794e+01 2.135152e+01 1.852216e+01 1.599011e+01 4.133249e+01
<GCONST> 6.503075e+01
<MIXTURE> 13 5.293626e-02
<MEAN> 13
 -1.105538e+01 -1.306600e+01 -5.079265e+00 2.544772e+00 1.292307e+00 -5.471146e+00 2.367743e+00 -3.676391e+00 -4.364612e+00 -1.453743e+00 1.123907e+00 -6.992754e-01 6.140773e+01
<VARIANCE> 13
 2.078168e+01 3.157470e+01 2.086029e+01 2.324106e+01 3.280183e+01 2.503431e+01 2.481689e+01 2.423496e+01 2.337805e+01 2.132086e+01 1.738364e+01 1.515047e+01 3.491307e+01
<GCONST> 6.501056e+01
<MIXTURE> 14 6.926318e-02
<MEAN> 13
 -1.388277e+01 -1.667752e+01 -9.636555e+00 1.079183e-01 -2.859025e+00 -8.739308e+00 3.337208e-01 -4.447890e+00 -5.472241e+00 -2.501681e+00 -2.316411e-01 -1.591573e+00 7.323003e+01
<VARIANCE> 13
 1.776049e+01 2.820706e+01 1.955609e+01 2.313860e+01 3.665742e+01 2.477912e+01 2.504146e+01 2.288073e+01 2.382794e+01 2.135152e+01 1.852216e+01 1.599011e+01 4.133249e+01
<GCONST> 6.503075e+01
<MIXTURE> 15 6.926341e-02
<MEAN> 13
 -1.388277e+01 -1.667752e+01 -9.636558e+00 1.079198e-01 -2.859029e+00 -8.739311e+00 3.337218e-01 -4.447888e+00 -5.472240e+00 -2.501680e+00 -2.316408e-01 -1.591575e+00 7.323004e+01
<VARIANCE> 13
 1.776049e+01 2.820709e+01 1.955608e+01 2.313860e+01 3.665742e+01 2.477911e+01 2.504148e+01 2.288071e+01 2.382794e+01 2.135154e+01 1.852217e+01 1.599009e+01 4.133249e+01
<GCONST> 6.503075e+01
<MIXTURE> 16 5.508740e-02
<MEAN> 13
 -1.431192e+01 -1.718479e+01 -1.273340e+01 -4.770143e-01 -2.422764e+00 -1.183886e+01 -3.006498e+00 -2.868825e+00 -6.152123e+00 -5.438139e+00 -2.116584e+00 -2.587381e+00 7.901806e+01
<VARIANCE> 13
 1.174045e+01 1.754037e+01 1.649034e+01 2.263655e+01 2.874178e+01 2.149112e+01 2.802320e+01 2.003345e+01 2.608575e+01 1.970798e+01 1.625263e+01 1.425365e+01 2.388713e+01
<GCONST> 6.275974e+01
<TRANSP> 5
 0.000000e+00 1.000000e+00 0.000000e+00 0.000000e+00 0.000000e+00
 0.000000e+00 9.786746e-01 2.132540e-02 0.000000e+00 0.000000e+00
 0.000000e+00 0.000000e+00 9.849985e-01 1.500158e-02 0.000000e+00
 0.000000e+00 0.000000e+00 0.000000e+00 9.966761e-01 3.323825e-03
 0.000000e+00 0.000000e+00 0.000000e+00 0.000000e+00 0.000000e+00
<ENDHMM>
~h "cl"
<BEGINHMM>
<NUMSTATES> 5
<STATE> 2
<NUMMIXES> 16
<MIXTURE> 1 5.140493e-02
<MEAN> 13
 -5.371352e+00 -5.024475e-02 9.300833e-01 -2.859563e+00 1.392580e+00 4.263140e+00 4.560771e+00 4.160245e+00 1.116552e+00 1.400979e+00 1.147844e+00 -1.969506e+00 4.554232e+01
<VARIANCE> 13
 6.041061e+00 1.253096e+01 1.584165e+01 8.155199e+00 1.067399e+01 1.561952e+01 1.033103e+01 2.029725e+01 1.439692e+01 1.783627e+01 1.622651e+01 1.258216e+01 1.047550e+01
<GCONST> 5.675866e+01
<MIXTURE> 2 6.928714e-02
<MEAN> 13
 -7.382711e+00 -1.668812e+00 1.192601e+00 -1.898385e+00 9.192829e-01 2.151571e+00 4.185532e+00 3.885792e+00 1.597932e+00 -1.119046e+00 1.970623e+00 -2.035457e+00 4.747411e+01
<VARIANCE> 13
 1.812605e+01 2.079222e+01 2.798223e+01 4.177681e+01 2.578098e+01 4.558632e+01 1.522850e+01 3.773617e+01 3.697983e+01 7.845318e+01 6.947034e+01 2.834356e+01 1.632979e+01
<GCONST> 6.866244e+01
<MIXTURE> 3 6.928714e-02
<MEAN> 13
 -7.382711e+00 -1.668812e+00 1.192601e+00 -1.898385e+00 9.192829e-01 2.151571e+00 4.185532e+00 3.885792e+00 1.597932e+00 -1.119046e+00 1.970623e+00 -2.035457e+00 4.747411e+01
<VARIANCE> 13
 1.812605e+01 2.079222e+01 2.798223e+01 4.177681e+01 2.578098e+01 4.558632e+01 1.522850e+01 3.773617e+01 3.697983e+01 7.845318e+01 6.947034e+01 2.834356e+01 1.632979e+01
<GCONST> 6.866244e+01
<MIXTURE> 4 8.192769e-02
<MEAN> 13
 -1.408838e+01 -5.848989e+00 5.612156e+00 -6.063221e+00 6.641811e+00 -2.099817e+00 2.503899e+00 7.388052e+00 4.606512e-01 -4.470840e+00 -9.854829e-01 3.147444e+00 5.271933e+01
<VARIANCE> 13
 4.459199e+01 4.106105e+01 4.227324e+01 6.792857e+01 7.936740e+01 7.143081e+01 2.947915e+01 6.376535e+01 4.537136e+01 8.222853e+01 9.529130e+01 9.821315e+01 3.211616e+01
<GCONST> 7.638716e+01
<MIXTURE> 5 6.928714e-02
<MEAN> 13
 -7.382711e+00 -1.668812e+00 1.192601e+00 -1.898385e+00 9.192829e-01 2.151571e+00 4.185532e+00 3.885792e+00 1.597932e+00 -1.119046e+00 1.970623e+00 -2.035457e+00 4.747411e+01
<VARIANCE> 13
 1.812605e+01 2.079222e+01 2.798223e+01 4.177681e+01 2.578098e+01 4.558632e+01 1.522850e+01 3.773617e+01 3.697983e+01 7.845318e+01 6.947034e+01 2.834356e+01 1.632979e+01
<GCONST> 6.866244e+01
<MIXTURE> 6 8.192763e-02
<MEAN> 13
 -1.408838e+01 -5.848989e+00 5.612163e+00 -6.063230e+00 6.641823e+00 -2.099818e+00 2.503895e+00 7.388058e+00 4.606498e-01 -4.470839e+00 -9.854946e-01 3.147455e+00 5.271933e+01
<VARIANCE> 13
 4.459202e+01 4.106107e+01 4.227322e+01 6.792844e+01 7.936742e+01 7.143082e+01 2.947916e+01 6.376539e+01 4.537126e+01 8.222841e+01 9.529114e+01 9.821311e+01 3.211618e+01
<GCONST> 7.638716e+01
<MIXTURE> 7 8.192763e-02
<MEAN> 13
 -1.408838e+01 -5.848989e+00 5.612163e+00 -6.063230e+00 6.641823e+00 -2.099818e+00 2.503895e+00 7.388058e+00 4.606498e-01 -4.470839e+00 -9.854946e-01 3.147455e+00 5.271933e+01
<VARIANCE> 13
 4.459202e+01 4.106107e+01 4.227322e+01 6.792844e+01 7.936742e+01 7.143082e+01 2.947916e+01 6.376539e+01 4.537126e+01 8.222841e+01 9.529114e+01 9.821311e+01 3.211618e+01
<GCONST> 7.638716e+01
<MIXTURE> 8 4.071683e-02
<MEAN> 13
 -1.700883e+01 -9.254000e+00 6.349848e+00 -7.091914e+00 7.527916e+00 -8.592691e-01 -4.578965e-01 4.100209e+00 -1.671982e+00 -3.084873e+00 -1.628925e+00 1.577218e+00 5.666302e+01
<VARIANCE> 13
 5.135305e+01 3.448771e+01 3.242816e+01 2.879624e+01 8.133133e+01 5.194517e+01 4.914755e+01 6.136201e+01 4.825051e+01 7.731972e+01 3.943228e+01 9.494244e+01 2.940328e+01
<GCONST> 7.440466e+01
<MIXTURE> 9 6.928743e-02
<MEAN> 13
 -7.382689e+00 -1.668798e+00 1.192615e+00 -1.898433e+00 9.192947e-01 2.151614e+00 4.185527e+00 3.885787e+00 1.597900e+00 -1.118980e+00 1.970565e+00 -2.035444e+00 4.747409e+01
<VARIANCE> 13
 1.812595e+01 2.079223e+01 2.798218e+01 4.177594e+01 2.578086e+01 4.558572e+01 1.522850e+01 3.773614e+01 3.697934e+01 7.845164e+01 6.946904e+01 2.834347e+01 1.632977e+01
<GCONST> 6.866235e+01
<MIXTURE> 10 8.192763e-02
<MEAN> 13
 -1.408838e+01 -5.848989e+00 5.612163e+00 -6.063230e+00 6.641823e+00 -2.099818e+00 2.503895e+00 7.388058e+00 4.606498e-01 -4.470839e+00 -9.854946e-01 3.147455e+00 5.271933e+01
<VARIANCE> 13
 4.459202e+01 4.106107e+01 4.227322e+01 6.792844e+01 7.936742e+01 7.143082e+01 2.947916e+01 6.376539e+01 4.537126e+01 8.222841e+01 9.529114e+01 9.821311e+01 3.211618e+01
<GCONST> 7.638716e+01
<MIXTURE> 11 8.192763e-02
<MEAN> 13
 -1.408838e+01 -5.848989e+00 5.612163e+00 -6.063230e+00 6.641823e+00 -2.099818e+00 2.503895e+00 7.388058e+00 4.606498e-01 -4.470839e+00 -9.854946e-01 3.147455e+00 5.271933e+01
<VARIANCE> 13
 4.459202e+01 4.106107e+01 4.227322e+01 6.792844e+01 7.936742e+01 7.143082e+01 2.947916e+01 6.376539e+01 4.537126e+01 8.222841e+01 9.529114e+01 9.821311e+01 3.211618e+01
<GCONST> 7.638716e+01
<MIXTURE> 12 4.071683e-02
<MEAN> 13
 -1.700883e+01 -9.253997e+00 6.349844e+00 -7.091913e+00 7.527917e+00 -8.592685e-01 -4.579000e-01 4.100205e+00 -1.671977e+00 -3.084875e+00 -1.628928e+00 1.577217e+00 5.666302e+01
<VARIANCE> 13
 5.135306e+01 3.448771e+01 3.242823e+01 2.879621e+01 8.133134e+01 5.194513e+01 4.914746e+01 6.136197e+01 4.825036e+01 7.731959e+01 3.943214e+01 9.494231e+01 2.940331e+01
<GCONST> 7.440465e+01
<MIXTURE> 13 8.192769e-02
<MEAN> 13
 -1.408838e+01 -5.848989e+00 5.612156e+00 -6.063221e+00 6.641811e+00 -2.099817e+00 2.503899e+00 7.388052e+00 4.606512e-01 -4.470840e+00 -9.854829e-01 3.147444e+00 5.271933e+01
<VARIANCE> 13
 4.459199e+01 4.106105e+01 4.227324e+01 6.792857e+01 7.936740e+01 7.143081e+01 2.947915e+01 6.376535e+01 4.537136e+01 8.222853e+01 9.529130e+01 9.821315e+01 3.211616e+01
<GCONST> 7.638716e+01
<MIXTURE> 14 4.071683e-02
<MEAN> 13
 -1.700883e+01 -9.253997e+00 6.349844e+00 -7.091913e+00 7.527917e+00 -8.592685e-01 -4.579000e-01 4.100205e+00 -1.671977e+00 -3.084875e+00 -1.628928e+00 1.577217e+00 5.666302e+01
<VARIANCE> 13
 5.135306e+01 3.448771e+01 3.242823e+01 2.879621e+01 8.133134e+01 5.194513e+01 4.914746e+01 6.136197e+01 4.825036e+01 7.731959e+01 3.943214e+01 9.494231e+01 2.940331e+01
<GCONST> 7.440465e+01
<MIXTURE> 15 4.071683e-02
<MEAN> 13
 -1.700883e+01 -9.253997e+00 6.349844e+00 -7.091913e+00 7.527917e+00 -8.592682e-01 -4.578993e-01 4.100205e+00 -1.671977e+00 -3.084875e+00 -1.628928e+00 1.577216e+00 5.666302e+01
<VARIANCE> 13
 5.135307e+01 3.448771e+01 3.242822e+01 2.879621e+01 8.133134e+01 5.194513e+01 4.914746e+01 6.136198e+01 4.825036e+01 7.731960e+01 3.943214e+01 9.494231e+01 2.940331e+01
<GCONST> 7.440465e+01
<MIXTURE> 16 1.699708e-02
<MEAN> 13
 4.665463e-01 -1.255435e+01 -6.174515e+00 -7.150360e+00 1.000668e+01 6.684399e-01 -8.517625e+00 -5.456817e+00 -8.057800e+00 -1.126574e+01 -4.878903e+00 -3.194404e+00 5.697672e+01
<VARIANCE> 13
 2.767676e+01 3.351383e+01 1.635499e+01 1.690522e+01 3.813947e+01 2.172059e+01 4.022398e+01 1.662169e+01 2.309306e+01 5.505917e+01 1.278827e+01 1.345382e+01 3.954800e+01
<GCONST> 6.554504e+01
<STATE> 3
<NUMMIXES> 16
<MIXTURE> 1 1.953232e-02
<MEAN> 13
 -2.334957e+01 3.846856e+00 1.229866e+00 -4.494662e+00 -2.746695e+00 1.567618e+01 3.303362e+00 -1.963838e+00 1.120471e+01 -2.566783e+00 -2.419499e+00 6.716164e+00 6.149083e+01
<VARIANCE> 13
 1.554265e+01 3.977354e+00 9.625057e+00 9.362720e+00 1.222647e+01 2.117935e+01 2.359238e+01 2.004023e+01 1.859619e+01 1.974339e+01 1.712500e+01 1.879498e+01 8.031834e+00
<GCONST> 5.799633e+01
<MIXTURE> 2 6.215533e-02
<MEAN> 13
 -2.094188e+01 3.313231e+00 -2.003144e-01 -4.840003e+00 -2.855303e+00 1.462479e+01 2.428922e+00 -2.726805e+00 9.603868e+00 -2.572534e+00 -2.786683e+00 6.107219e+00 5.990276e+01
<VARIANCE> 13
 2.900604e+01 5.297761e+00 1.090727e+01 8.943613e+00 1.283494e+01 2.060904e+01 2.171058e+01 1.791350e+01 1.787363e+01 1.897415e+01 1.791365e+01 1.730119e+01 1.289101e+01
<GCONST> 5.916809e+01
<MIXTURE> 3 6.215531e-02
<MEAN> 13
 -2.094188e+01 3.313231e+00 -2.003150e-01 -4.840002e+00 -2.855303e+00 1.462479e+01 2.428924e+00 -2.726804e+00 9.603867e+00 -2.572535e+00 -2.786682e+00 6.107217e+00 5.990276e+01
<VARIANCE> 13
 2.900603e+01 5.297762e+00 1.090727e+01 8.943616e+00 1.283494e+01 2.060904e+01 2.171058e+01 1.791349e+01 1.787362e+01 1.897416e+01 1.791364e+01 1.730121e+01 1.289101e+01
<GCONST> 5.916809e+01
<MIXTURE> 4 8.294865e-02
<MEAN> 13
 -1.768054e+01 2.338452e+00 -1.654114e+00 -5.183260e+00 -3.037299e+00 1.278156e+01 1.117253e+00 -3.429748e+00 7.549410e+00 -2.950838e+00 -2.867885e+00 5.018304e+00 5.792096e+01
<VARIANCE> 13
 4.016351e+01 7.720995e+00 1.058307e+01 1.003652e+01 1.431699e+01 2.180766e+01 2.060293e+01 1.778375e+01 1.917255e+01 1.743674e+01 1.717796e+01 1.686005e+01 1.553157e+01
<GCONST> 6.016572e+01
<MIXTURE> 5 6.215531e-02
<MEAN> 13
 -2.094188e+01 3.313231e+00 -2.003150e-01 -4.840002e+00 -2.855303e+00 1.462479e+01 2.428924e+00 -2.726804e+00 9.603867e+00 -2.572535e+00 -2.786682e+00 6.107217e+00 5.990276e+01
<VARIANCE> 13
 2.900603e+01 5.297762e+00 1.090727e+01 8.943616e+00 1.283494e+01 2.060904e+01 2.171058e+01 1.791349e+01 1.787362e+01 1.897416e+01 1.791364e+01 1.730121e+01 1.289101e+01
<GCONST> 5.916809e+01
<MIXTURE> 6 8.294865e-02
<MEAN> 13
 -1.768054e+01 2.338452e+00 -1.654114e+00 -5.183260e+00 -3.037299e+00 1.278156e+01 1.117253e+00 -3.429748e+00 7.549410e+00 -2.950838e+00 -2.867885e+00 5.018304e+00 5.792096e+01
<VARIANCE> 13
 4.016351e+01 7.720995e+00 1.058307e+01 1.003652e+01 1.431699e+01 2.180766e+01 2.060293e+01 1.778375e+01 1.917255e+01 1.743674e+01 1.717796e+01 1.686005e+01 1.553157e+01
<GCONST> 6.016572e+01
<MIXTURE> 7 8.294865e-02
<MEAN> 13
 -1.768054e+01 2.338452e+00 -1.654114e+00 -5.183260e+00 -3.037299e+00 1.278156e+01 1.117253e+00 -3.429748e+00 7.549410e+00 -2.950838e+00 -2.867885e+00 5.018304e+00 5.792096e+01
<VARIANCE> 13
 4.016351e+01 7.720995e+00 1.058307e+01 1.003652e+01 1.431699e+01 2.180766e+01 2.060293e+01 1.778375e+01 1.917255e+01 1.743674e+01 1.717796e+01 1.686005e+01 1.553157e+01
<GCONST> 6.016572e+01
<MIXTURE> 8 4.884934e-02
<MEAN> 13
 -1.682256e+01 2.001276e+00 -2.204142e+00 -5.774821e+00 -4.953878e+00 9.925486e+00 -1.428739e+00 -5.737286e+00 5.074420e+00 -3.925960e+00 -3.566603e+00 4.609157e+00 5.790889e+01
<VARIANCE> 13
 4.470832e+01 1.306001e+01 1.205821e+01 1.370063e+01 1.783831e+01 2.683517e+01 2.377052e+01 2.267507e+01 2.371367e+01 2.101635e+01 1.961176e+01 1.945365e+01 1.802984e+01
<GCONST> 6.287762e+01
<MIXTURE> 9 6.215531e-02
<MEAN> 13
 -2.094188e+01 3.313231e+00 -2.003150e-01 -4.840002e+00 -2.855303e+00 1.462479e+01 2.428924e+00 -2.726804e+00 9.603867e+00 -2.572535e+00 -2.786682e+00 6.107217e+00 5.990276e+01
<VARIANCE> 13
 2.900603e+01 5.297762e+00 1.090727e+01 8.943616e+00 1.283494e+01 2.060904e+01 2.171058e+01 1.791349e+01 1.787362e+01 1.897416e+01 1.791364e+01 1.730121e+01 1.289101e+01
<GCONST> 5.916809e+01
<MIXTURE> 10 8.294865e-02
<MEAN> 13
 -1.768054e+01 2.338452e+00 -1.654114e+00 -5.183260e+00 -3.037299e+00 1.278156e+01 1.117253e+00 -3.429748e+00 7.549410e+00 -2.950838e+00 -2.867885e+00 5.018304e+00 5.792096e+01
<VARIANCE> 13
 4.016351e+01 7.720995e+00 1.058307e+01 1.003652e+01 1.431699e+01 2.180766e+01 2.060293e+01 1.778375e+01 1.917255e+01 1.743674e+01 1.717796e+01 1.686005e+01 1.553157e+01
<GCONST> 6.016572e+01
<MIXTURE> 11 8.294865e-02
<MEAN> 13
 -1.768054e+01 2.338452e+00 -1.654114e+00 -5.183260e+00 -3.037299e+00 1.278156e+01 1.117253e+00 -3.429748e+00 7.549410e+00 -2.950838e+00 -2.867885e+00 5.018304e+00 5.792096e+01
<VARIANCE> 13
 4.016351e+01 7.720995e+00 1.058307e+01 1.003652e+01 1.431699e+01 2.180766e+01 2.060293e+01 1.778375e+01 1.917255e+01 1.743674e+01 1.717796e+01 1.686005e+01 1.553157e+01
<GCONST> 6.016572e+01
<MIXTURE> 12 4.884934e-02
<MEAN> 13
 -1.682256e+01 2.001276e+00 -2.204142e+00 -5.774821e+00 -4.953878e+00 9.925486e+00 -1.428739e+00 -5.737286e+00 5.074420e+00 -3.925960e+00 -3.566603e+00 4.609157e+00 5.790889e+01
<VARIANCE> 13
 4.470832e+01 1.306001e+01 1.205821e+01 1.370063e+01 1.783831e+01 2.683517e+01 2.377052e+01 2.267507e+01 2.371367e+01 2.101635e+01 1.961176e+01 1.945365e+01 1.802984e+01
<GCONST> 6.287762e+01
<MIXTURE> 13 8.294865e-02
<MEAN> 13
 -1.768054e+01 2.338452e+00 -1.654114e+00 -5.183260e+00 -3.037299e+00 1.278156e+01 1.117253e+00 -3.429748e+00 7.549410e+00 -2.950838e+00 -2.867885e+00 5.018304e+00 5.792096e+01
<VARIANCE> 13
 4.016351e+01 7.720995e+00 1.058307e+01 1.003652e+01 1.431699e+01 2.180766e+01 2.060293e+01 1.778375e+01 1.917255e+01 1.743674e+01 1.717796e+01 1.686005e+01 1.553157e+01
<GCONST> 6.016572e+01
<MIXTURE> 14 4.884934e-02
<MEAN> 13
 -1.682256e+01 2.001276e+00 -2.204142e+00 -5.774821e+00 -4.953878e+00 9.925486e+00 -1.428739e+00 -5.737286e+00 5.074420e+00 -3.925960e+00 -3.566603e+00 4.609157e+00 5.790889e+01
<VARIANCE> 13
 4.470832e+01 1.306001e+01 1.205821e+01 1.370063e+01 1.783831e+01 2.683517e+01 2.377052e+01 2.267507e+01 2.371367e+01 2.101635e+01 1.961176e+01 1.945365e+01 1.802984e+01
<GCONST> 6.287762e+01
<MIXTURE> 15 4.884934e-02
<MEAN> 13
 -1.682256e+01 2.001276e+00 -2.204142e+00 -5.774821e+00 -4.953878e+00 9.925486e+00 -1.428739e+00 -5.737286e+00 5.074420e+00 -3.925960e+00 -3.566603e+00 4.609157e+00 5.790889e+01
<VARIANCE> 13
 4.470832e+01 1.306001e+01 1.205821e+01 1.370063e+01 1.783831e+01 2.683517e+01 2.377052e+01 2.267507e+01 2.371367e+01 2.101635e+01 1.961176e+01 1.945365e+01 1.802984e+01
<GCONST> 6.287762e+01
<MIXTURE> 16 3.880586e-02
<MEAN> 13
 -1.395090e+01 4.985219e+00 -4.020973e+00 -7.626393e+00 -8.494457e+00 3.851943e+00 -7.138333e+00 -1.201461e+01 1.817011e+00 -5.695400e+00 -3.652385e+00 6.962673e+00 6.303023e+01
<VARIANCE> 13
 5.953699e+01 2.237198e+01 3.064840e+01 1.966694e+01 1.539012e+01 3.429263e+01 2.373008e+01 2.020167e+01 2.030665e+01 2.167747e+01 3.079829e+01 1.997983e+01 1.831210e+01
<GCONST> 6.534646e+01
<STATE> 4
<NUMMIXES> 16
<MIXTURE> 1 1.994590e-02
<MEAN> 13
 -1.989788e+01 3.399872e+00 7.144930e+00 8.297926e-01 -4.929977e+00 1.169752e+01 6.869783e+00 -4.391089e+00 2.864866e+00 8.603814e+00 -9.241684e+00 2.745834e+00 5.349236e+01
<VARIANCE> 13
 1.756061e+01 6.296742e+00 8.306895e+00 1.370161e+01 2.034548e+01 2.333663e+01 1.582551e+01 2.823887e+01 2.506125e+01 3.351250e+01 1.909164e+01 1.372934e+01 1.073192e+01
<GCONST> 6.027314e+01
<MIXTURE> 2 6.445630e-02
<MEAN> 13
 -1.903675e+01 2.181649e+00 6.268353e+00 -1.702414e+00 -3.901153e+00 9.949685e+00 4.569773e+00 -3.476431e+00 3.159194e+00 4.906814e+00 -8.575923e+00 2.928651e+00 5.353115e+01
<VARIANCE> 13
 4.905934e+01 6.895766e+00 1.274975e+01 1.641469e+01 2.273576e+01 2.751116e+01 1.736588e+01 3.236681e+01 2.879028e+01 3.258738e+01 2.795544e+01 1.812315e+01 2.992745e+01
<GCONST> 6.430074e+01
<MIXTURE> 3 6.445630e-02
<MEAN> 13
 -1.903675e+01 2.181649e+00 6.268353e+00 -1.702414e+00 -3.901153e+00 9.949685e+00 4.569773e+00 -3.476431e+00 3.159194e+00 4.906814e+00 -8.575923e+00 2.928651e+00 5.353115e+01
<VARIANCE> 13
 4.905934e+01 6.895766e+00 1.274975e+01 1.641469e+01 2.273576e+01 2.751116e+01 1.736588e+01 3.236681e+01 2.879028e+01 3.258738e+01 2.795544e+01 1.812315e+01 2.992745e+01
<GCONST> 6.430074e+01
<MIXTURE> 4 7.917580e-02
<MEAN> 13
 -2.182739e+01 8.238361e-01 5.989792e+00 -3.134537e+00 -5.869626e+00 1.022923e+01 2.039401e+00 -5.618413e+00 3.186812e+00 4.125411e+00 -1.078827e+01 4.274569e+00 5.685825e+01
<VARIANCE> 13
 5.183927e+01 7.564687e+00 1.557035e+01 1.551067e+01 2.407028e+01 2.965790e+01 2.128616e+01 4.148125e+01 3.216671e+01 2.793409e+01 2.730630e+01 2.512070e+01 3.892520e+01
<GCONST> 6.569817e+01
<MIXTURE> 5 6.445630e-02
<MEAN> 13
 -1.903675e+01 2.181649e+00 6.268353e+00 -1.702414e+00 -3.901153e+00 9.949685e+00 4.569773e+00 -3.476431e+00 3.159194e+00 4.906814e+00 -8.575923e+00 2.928651e+00 5.353115e+01
<VARIANCE> 13
 4.905934e+01 6.895766e+00 1.274975e+01 1.641469e+01 2.273576e+01 2.751116e+01 1.736588e+01 3.236681e+01 2.879028e+01 3.258738e+01 2.795544e+01 1.812315e+01 2.992745e+01
<GCONST> 6.430074e+01
<MIXTURE> 6 7.917580e-02
<MEAN> 13
 -2.182739e+01 8.238361e-01 5.989792e+00 -3.134537e+00 -5.869626e+00 1.022923e+01 2.039401e+00 -5.618413e+00 3.186812e+00 4.125411e+00 -1.078827e+01 4.274569e+00 5.685825e+01
<VARIANCE> 13
 5.183927e+01 7.564687e+00 1.557035e+01 1.551067e+01 2.407028e+01 2.965790e+01 2.128616e+01 4.148125e+01 3.216671e+01 2.793409e+01 2.730630e+01 2.512070e+01 3.892520e+01
<GCONST> 6.569817e+01
<MIXTURE> 7 7.917580e-02
<MEAN> 13
 -2.182739e+01 8.238361e-01 5.989792e+00 -3.134537e+00 -5.869626e+00 1.022923e+01 2.039401e+00 -5.618413e+00 3.186812e+00 4.125411e+00 -1.078827e+01 4.274569e+00 5.685825e+01
<VARIANCE> 13
 5.183927e+01 7.564687e+00 1.557035e+01 1.551067e+01 2.407028e+01 2.965790e+01 2.128616e+01 4.148125e+01 3.216671e+01 2.793409e+01 2.730630e+01 2.512070e+01 3.892520e+01
<GCONST> 6.569817e+01
<MIXTURE> 8 5.361551e-02
<MEAN> 13
 -2.244172e+01 9.069736e-02 7.394552e+00 -4.549958e+00 -9.700270e+00 1.040373e+01 -2.658837e+00 -1.143485e+01 2.497635e+00 3.267503e+00 -1.451219e+01 7.668973e+00 6.017495e+01
<VARIANCE> 13
 4.084330e+01 9.105477e+00 1.662191e+01 1.401143e+01 2.327823e+01 3.752037e+01 2.276563e+01 4.802249e+01 4.309684e+01 2.290812e+01 3.270612e+01 4.441952e+01 4.022075e+01
<GCONST> 6.690151e+01
<MIXTURE> 9 6.445600e-02
<MEAN> 13
 -1.903675e+01 2.181648e+00 6.268354e+00 -1.702414e+00 -3.901154e+00 9.949686e+00 4.569773e+00 -3.476431e+00 3.159194e+00 4.906813e+00 -8.575924e+00 2.928651e+00 5.353116e+01
<VARIANCE> 13
 4.905936e+01 6.895765e+00 1.274975e+01 1.641470e+01 2.273578e+01 2.751118e+01 1.736590e+01 3.236687e+01 2.879031e+01 3.258741e+01 2.795547e+01 1.812316e+01 2.992747e+01
<GCONST> 6.430074e+01
<MIXTURE> 10 7.917580e-02
<MEAN> 13
 -2.182739e+01 8.238361e-01 5.989792e+00 -3.134537e+00 -5.869626e+00 1.022923e+01 2.039401e+00 -5.618413e+00 3.186812e+00 4.125411e+00 -1.078827e+01 4.274569e+00 5.685825e+01
<VARIANCE> 13
 5.183927e+01 7.564687e+00 1.557035e+01 1.551067e+01 2.407028e+01 2.965790e+01 2.128616e+01 4.148125e+01 3.216671e+01 2.793409e+01 2.730630e+01 2.512070e+01 3.892520e+01
<GCONST> 6.569817e+01
<MIXTURE> 11 7.917580e-02
<MEAN> 13
 -2.182739e+01 8.238361e-01 5.989792e+00 -3.134537e+00 -5.869626e+00 1.022923e+01 2.039401e+00 -5.618413e+00 3.186812e+00 4.125411e+00 -1.078827e+01 4.274569e+00 5.685825e+01
<VARIANCE> 13
 5.183927e+01 7.564687e+00 1.557035e+01 1.551067e+01 2.407028e+01 2.965790e+01 2.128616e+01 4.148125e+01 3.216671e+01 2.793409e+01 2.730630e+01 2.512070e+01 3.892520e+01
<GCONST> 6.569817e+01
<MIXTURE> 12 5.361551e-02
<MEAN> 13
 -2.244172e+01 9.069736e-02 7.394552e+00 -4.549958e+00 -9.700270e+00 1.040373e+01 -2.658837e+00 -1.143485e+01 2.497635e+00 3.267503e+00 -1.451219e+01 7.668973e+00 6.017495e+01
<VARIANCE> 13
 4.084330e+01 9.105477e+00 1.662191e+01 1.401143e+01 2.327823e+01 3.752037e+01 2.276563e+01 4.802249e+01 4.309684e+01 2.290812e+01 3.270612e+01 4.441952e+01 4.022075e+01
<GCONST> 6.690151e+01
<MIXTURE> 13 7.917580e-02
<MEAN> 13
 -2.182739e+01 8.238361e-01 5.989792e+00 -3.134537e+00 -5.869626e+00 1.022923e+01 2.039401e+00 -5.618413e+00 3.186812e+00 4.125411e+00 -1.078827e+01 4.274569e+00 5.685825e+01
<VARIANCE> 13
 5.183927e+01 7.564687e+00 1.557035e+01 1.551067e+01 2.407028e+01 2.965790e+01 2.128616e+01 4.148125e+01 3.216671e+01 2.793409e+01 2.730630e+01 2.512070e+01 3.892520e+01
<GCONST> 6.569817e+01
<MIXTURE> 14 5.361551e-02
<MEAN> 13
 -2.244172e+01 9.069736e-02 7.394552e+00 -4.549958e+00 -9.700270e+00 1.040373e+01 -2.658837e+00 -1.143485e+01 2.497635e+00 3.267503e+00 -1.451219e+01 7.668973e+00 6.017495e+01
<VARIANCE> 13
 4.084330e+01 9.105477e+00 1.662191e+01 1.401143e+01 2.327823e+01 3.752037e+01 2.276563e+01 4.802249e+01 4.309684e+01 2.290812e+01 3.270612e+01 4.441952e+01 4.022075e+01
<GCONST> 6.690151e+01
<MIXTURE> 15 5.361551e-02
<MEAN> 13
 -2.244173e+01 9.069725e-02 7.394552e+00 -4.549958e+00 -9.700270e+00 1.040373e+01 -2.658837e+00 -1.143485e+01 2.497635e+00 3.267503e+00 -1.451219e+01 7.668973e+00 6.017495e+01
<VARIANCE> 13
 4.084330e+01 9.105474e+00 1.662191e+01 1.401143e+01 2.327823e+01 3.752037e+01 2.276563e+01 4.802248e+01 4.309684e+01 2.290812e+01 3.270612e+01 4.441951e+01 4.022075e+01
<GCONST> 6.690150e+01
<MIXTURE> 16 3.260703e-02
<MEAN> 13
 -8.468652e+00 1.078240e+00 6.014743e-01 -6.471112e+00 -7.261619e+00 -1.479743e+00 -4.663478e+00 -7.713975e+00 -2.387313e+00 1.374416e+00 -4.618523e+00 1.659790e+00 5.460295e+01
<VARIANCE> 13
 6.697266e+01 3.713389e+01 4.774673e+01 1.535959e+01 3.948257e+01 2.631252e+01 1.799804e+01 4.907051e+01 2.507862e+01 1.960036e+01 5.261785e+01 2.488421e+01 5.071490e+01
<GCONST> 6.933936e+01
<TRANSP> 5
 0.000000e+00 1.000000e+00 0.000000e+00 0.000000e+00 0.000000e+00
 0.000000e+00 9.754103e-01 2.458963e-02 0.000000e+00 0.000000e+00
 0.000000e+00 0.000000e+00 9.868482e-01 1.315185e-02 0.000000e+00
 0.000000e+00 0.000000e+00 0.000000e+00 9.943356e-01 5.664424e-03
 0.000000e+00 0.000000e+00 0.000000e+00 0.000000e+00 0.000000e+00
<ENDHMM>
~h "cm"
<BEGINHMM>
<NUMSTATES> 5
<STATE> 2
<NUMMIXES> 16
<MIXTURE> 1 4.391832e-02
<MEAN> 13
 -1.347577e+01 -4.767738e-02 -1.848489e+00 -3.414437e+00 2.109766e+00 3.563780e+00 2.416682e+00 3.305631e+00 1.065793e+00 2.140096e+00 3.399353e+00 -6.082628e-01 5.681454e+01
<VARIANCE> 13
 1.652179e+01 1.179136e+01 1.261013e+01 1.225860e+01 1.208232e+01 1.290455e+01 1.435406e+01 1.488012e+01 1.523450e+01 1.355444e+01 1.639123e+01 1.313250e+01 1.521795e+01
<GCONST> 5.804315e+01
<MIXTURE> 2 6.751166e-02
<MEAN> 13
 -1.177803e+01 1.488456e-01 -2.071198e+00 -3.584299e+00 9.778797e-01 1.514748e+00 -3.023297e-01 4.000536e-01 -1.618988e+00 5.616390e-01 2.353477e+00 -8.679249e-01 5.857271e+01
<VARIANCE> 13
 2.035694e+01 1.192710e+01 1.098396e+01 1.310064e+01 1.286499e+01 1.299045e+01 1.430798e+01 1.515936e+01 1.475995e+01 1.488728e+01 1.714942e+01 1.500262e+01 2.204405e+01
<GCONST> 5.888755e+01
<MIXTURE> 3 6.751188e-02
<MEAN> 13
 -1.177803e+01 1.488462e-01 -2.071197e+00 -3.584297e+00 9.778815e-01 1.514749e+00 -3.023302e-01 4.000530e-01 -1.618989e+00 5.616387e-01 2.353476e+00 -8.679253e-01 5.857271e+01
<VARIANCE> 13
 2.035692e+01 1.192709e+01 1.098396e+01 1.310063e+01 1.286498e+01 1.299044e+01 1.430798e+01 1.515936e+01 1.475995e+01 1.488729e+01 1.714941e+01 1.500262e+01 2.204406e+01
<GCONST> 5.888755e+01
<MIXTURE> 4 6.782400e-02
<MEAN> 13
 -8.558300e+00 3.099185e-01 -2.392071e+00 -3.684825e+00 -3.056799e-01 -6.646039e-01 -2.631172e+00 -2.236465e+00 -3.968245e+00 -1.574898e+00 1.894943e-01 -1.854296e+00 6.234710e+01
<VARIANCE> 13
 2.374814e+01 1.187075e+01 1.105262e+01 1.318107e+01 1.247629e+01 1.188665e+01 1.294393e+01 1.524840e+01 1.538492e+01 1.599682e+01 1.721088e+01 1.507015e+01 4.548933e+01
<GCONST> 5.968129e+01
<MIXTURE> 5 6.751188e-02
<MEAN> 13
 -1.177803e+01 1.488462e-01 -2.071197e+00 -3.584297e+00 9.778815e-01 1.514749e+00 -3.023302e-01 4.000530e-01 -1.618989e+00 5.616387e-01 2.353476e+00 -8.679253e-01 5.857271e+01
<VARIANCE> 13
 2.035692e+01 1.192709e+01 1.098396e+01 1.310063e+01 1.286498e+01 1.299044e+01 1.430798e+01 1.515936e+01 1.475995e+01 1.488729e+01 1.714941e+01 1.500262e+01 2.204406e+01
<GCONST> 5.888755e+01
<MIXTURE> 6 6.782401e-02
<MEAN> 13
 -8.558300e+00 3.099186e-01 -2.392071e+00 -3.684825e+00 -3.056804e-01 -6.646040e-01 -2.631172e+00 -2.236463e+00 -3.968244e+00 -1.574898e+00 1.894944e-01 -1.854296e+00 6.234711e+01
<VARIANCE> 13
 2.374815e+01 1.187076e+01 1.105263e+01 1.318107e+01 1.247630e+01 1.188665e+01 1.294393e+01 1.524840e+01 1.538494e+01 1.599683e+01 1.721089e+01 1.507015e+01 4.548935e+01
<GCONST> 5.968130e+01
<MIXTURE> 7 6.782401e-02
<MEAN> 13
 -8.558300e+00 3.099186e-01 -2.392071e+00 -3.684825e+00 -3.056804e-01 -6.646040e-01 -2.631172e+00 -2.236463e+00 -3.968244e+00 -1.574898e+00 1.894944e-01 -1.854296e+00 6.234711e+01
<VARIANCE> 13
 2.374815e+01 1.187076e+01 1.105263e+01 1.318107e+01 1.247630e+01 1.188665e+01 1.294393e+01 1.524840e+01 1.538494e+01 1.599683e+01 1.721089e+01 1.507015e+01 4.548935e+01
<GCONST> 5.968130e+01
<MIXTURE> 8 5.970945e-02
<MEAN> 13
 -6.452512e+00 -3.191646e-01 -3.532675e+00 -4.614350e+00 -2.119962e+00 -2.766830e+00 -4.527644e+00 -4.071393e+00 -5.563518e+00 -3.485098e+00 -2.269316e+00 -3.037003e+00 6.803574e+01
<VARIANCE> 13
 1.314412e+01 1.091113e+01 1.146629e+01 1.285991e+01 1.203829e+01 1.137682e+01 1.222329e+01 1.430041e+01 1.523714e+01 1.426695e+01 1.459247e+01 1.341659e+01 5.565991e+01
<GCONST> 5.861293e+01
<MIXTURE> 9 6.751188e-02
<MEAN> 13
 -1.177803e+01 1.488462e-01 -2.071197e+00 -3.584297e+00 9.778815e-01 1.514748e+00 -3.023303e-01 4.000530e-01 -1.618989e+00 5.616390e-01 2.353477e+00 -8.679253e-01 5.857271e+01
<VARIANCE> 13
 2.035693e+01 1.192710e+01 1.098396e+01 1.310063e+01 1.286498e+01 1.299044e+01 1.430798e+01 1.515936e+01 1.475995e+01 1.488729e+01 1.714941e+01 1.500262e+01 2.204406e+01
<GCONST> 5.888755e+01
<MIXTURE> 10 6.782401e-02
<MEAN> 13
 -8.558300e+00 3.099186e-01 -2.392071e+00 -3.684825e+00 -3.056804e-01 -6.646040e-01 -2.631172e+00 -2.236463e+00 -3.968244e+00 -1.574898e+00 1.894944e-01 -1.854296e+00 6.234711e+01
<VARIANCE> 13
 2.374815e+01 1.187076e+01 1.105263e+01 1.318107e+01 1.247630e+01 1.188665e+01 1.294393e+01 1.524840e+01 1.538494e+01 1.599683e+01 1.721089e+01 1.507015e+01 4.548935e+01
<GCONST> 5.968130e+01
<MIXTURE> 11 6.782400e-02
<MEAN> 13
 -8.558300e+00 3.099186e-01 -2.392071e+00 -3.684825e+00 -3.056800e-01 -6.646035e-01 -2.631172e+00 -2.236464e+00 -3.968245e+00 -1.574898e+00 1.894944e-01 -1.854296e+00 6.234710e+01
<VARIANCE> 13
 2.374814e+01 1.187076e+01 1.105262e+01 1.318107e+01 1.247629e+01 1.188665e+01 1.294393e+01 1.524840e+01 1.538493e+01 1.599682e+01 1.721088e+01 1.507014e+01 4.548932e+01
<GCONST> 5.968129e+01
<MIXTURE> 12 5.970940e-02
<MEAN> 13
 -6.452512e+00 -3.191645e-01 -3.532675e+00 -4.614350e+00 -2.119962e+00 -2.766830e+00 -4.527644e+00 -4.071393e+00 -5.563518e+00 -3.485099e+00 -2.269316e+00 -3.037003e+00 6.803574e+01
<VARIANCE> 13
 1.314411e+01 1.091113e+01 1.146628e+01 1.285990e+01 1.203829e+01 1.137682e+01 1.222329e+01 1.430040e+01 1.523712e+01 1.426695e+01 1.459248e+01 1.341659e+01 5.565990e+01
<GCONST> 5.861292e+01
<MIXTURE> 13 6.782401e-02
<MEAN> 13
 -8.558300e+00 3.099184e-01 -2.392071e+00 -3.684825e+00 -3.056799e-01 -6.646041e-01 -2.631172e+00 -2.236465e+00 -3.968245e+00 -1.574898e+00 1.894946e-01 -1.854296e+00 6.234711e+01
<VARIANCE> 13
 2.374814e+01 1.187075e+01 1.105263e+01 1.318107e+01 1.247629e+01 1.188665e+01 1.294393e+01 1.524840e+01 1.538492e+01 1.599682e+01 1.721088e+01 1.507015e+01 4.548935e+01
<GCONST> 5.968129e+01
<MIXTURE> 14 5.970940e-02
<MEAN> 13
 -6.452512e+00 -3.191645e-01 -3.532675e+00 -4.614350e+00 -2.119962e+00 -2.766830e+00 -4.527644e+00 -4.071393e+00 -5.563518e+00 -3.485099e+00 -2.269316e+00 -3.037003e+00 6.803574e+01
<VARIANCE> 13
 1.314411e+01 1.091113e+01 1.146628e+01 1.285990e+01 1.203829e+01 1.137682e+01 1.222329e+01 1.430040e+01 1.523712e+01 1.426695e+01 1.459248e+01 1.341659e+01 5.565990e+01
<GCONST> 5.861292e+01
<MIXTURE> 15 5.970940e-02
<MEAN> 13
 -6.452512e+00 -3.191645e-01 -3.532675e+00 -4.614350e+00 -2.119962e+00 -2.766830e+00 -4.527644e+00 -4.071393e+00 -5.563518e+00 -3.485099e+00 -2.269316e+00 -3.037003e+00 6.803574e+01
<VARIANCE> 13
 1.314411e+01 1.091113e+01 1.146628e+01 1.285990e+01 1.203829e+01 1.137682e+01 1.222329e+01 1.430040e+01 1.523712e+01 1.426695e+01 1.459248e+01 1.341659e+01 5.565990e+01
<GCONST> 5.861292e+01
<MIXTURE> 16 4.020084e-02
<MEAN> 13
 -7.080957e+00 -2.029755e+00 -5.210959e+00 -6.163355e+00 -4.354290e+00 -4.906250e+00 -6.935358e+00 -6.131621e+00 -7.379454e+00 -4.785210e+00 -3.793156e+00 -3.471193e+00 7.251351e+01
<VARIANCE> 13
 9.188520e+00 1.378791e+01 1.637630e+01 1.463139e+01 1.206844e+01 1.199805e+01 1.399269e+01 1.481764e+01 1.606334e+01 1.475811e+01 1.358296e+01 1.268912e+01 3.846608e+01
<GCONST> 5.879051e+01
<STATE> 3
<NUMMIXES> 16
<MIXTURE> 1 1.969328e-02
<MEAN> 13
 -9.423967e+00 2.244715e+00 4.696804e-01 -3.496203e-01 1.890326e+00 3.476905e+00 6.314684e+00 5.050412e+00 3.958137e+00 3.556473e+00 2.755575e+00 -9.561018e-01 4.772664e+01
<VARIANCE> 13
 1.386689e+01 4.140030e+00 6.474140e+00 9.022148e+00 1.010746e+01 1.035789e+01 1.252424e+01 1.285753e+01 1.464795e+01 1.394556e+01 1.229702e+01 1.245953e+01 6.405102e+00
<GCONST> 5.395113e+01
<MIXTURE> 2 5.714178e-02
<MEAN> 13
 -8.988938e+00 2.414037e+00 4.183788e-01 -6.759187e-01 1.418151e+00 2.169110e+00 4.580320e+00 3.187464e+00 1.864086e+00 1.825143e+00 1.420780e+00 -1.585216e+00 4.788261e+01
<VARIANCE> 13
 1.210453e+01 4.601348e+00 6.831676e+00 8.575973e+00 1.050814e+01 1.095938e+01 1.193829e+01 1.241640e+01 1.326243e+01 1.353358e+01 1.268355e+01 1.193704e+01 6.219033e+00
<GCONST> 5.376566e+01
<MIXTURE> 3 5.714175e-02
<MEAN> 13
 -8.988938e+00 2.414037e+00 4.183787e-01 -6.759189e-01 1.418152e+00 2.169111e+00 4.580320e+00 3.187464e+00 1.864086e+00 1.825143e+00 1.420780e+00 -1.585216e+00 4.788261e+01
<VARIANCE> 13
 1.210453e+01 4.601344e+00 6.831671e+00 8.575969e+00 1.050814e+01 1.095938e+01 1.193829e+01 1.241640e+01 1.326242e+01 1.353357e+01 1.268355e+01 1.193704e+01 6.219033e+00
<GCONST> 5.376566e+01
<MIXTURE> 4 7.519932e-02
<MEAN> 13
 -8.556396e+00 2.170814e+00 4.283288e-02 -1.477997e+00 3.075019e-01 5.239137e-01 2.528311e+00 1.211190e+00 6.541607e-02 4.221622e-01 4.082156e-01 -2.212438e+00 4.851853e+01
<VARIANCE> 13
 1.223995e+01 6.173915e+00 8.089448e+00 9.888312e+00 1.205445e+01 1.179259e+01 1.252246e+01 1.433965e+01 1.491085e+01 1.479497e+01 1.370014e+01 1.286679e+01 7.685032e+00
<GCONST> 5.535452e+01
<MIXTURE> 5 5.714175e-02
<MEAN> 13
 -8.988938e+00 2.414037e+00 4.183787e-01 -6.759189e-01 1.418152e+00 2.169111e+00 4.580320e+00 3.187464e+00 1.864086e+00 1.825143e+00 1.420780e+00 -1.585216e+00 4.788261e+01
<VARIANCE> 13
 1.210453e+01 4.601344e+00 6.831671e+00 8.575969e+00 1.050814e+01 1.095938e+01 1.193829e+01 1.241640e+01 1.326242e+01 1.353357e+01 1.268355e+01 1.193704e+01 6.219033e+00
<GCONST> 5.376566e+01
<MIXTURE> 6 7.519932e-02
<MEAN> 13
 -8.556396e+00 2.170814e+00 4.283306e-02 -1.477997e+00 3.075018e-01 5.239135e-01 2.528311e+00 1.211190e+00 6.541601e-02 4.221620e-01 4.082156e-01 -2.212438e+00 4.851853e+01
<VARIANCE> 13
 1.223995e+01 6.173916e+00 8.089449e+00 9.888312e+00 1.205445e+01 1.179259e+01 1.252246e+01 1.433965e+01 1.491085e+01 1.479496e+01 1.370014e+01 1.286679e+01 7.685032e+00
<GCONST> 5.535452e+01
<MIXTURE> 7 7.519909e-02
<MEAN> 13
 -8.556395e+00 2.170814e+00 4.283258e-02 -1.477998e+00 3.075009e-01 5.239133e-01 2.528311e+00 1.211190e+00 6.541595e-02 4.221624e-01 4.082160e-01 -2.212437e+00 4.851853e+01
<VARIANCE> 13
 1.223995e+01 6.173916e+00 8.089452e+00 9.888316e+00 1.205445e+01 1.179259e+01 1.252246e+01 1.433963e+01 1.491085e+01 1.479497e+01 1.370014e+01 1.286679e+01 7.685034e+00
<GCONST> 5.535452e+01
<MIXTURE> 8 5.985156e-02
<MEAN> 13
 -8.233181e+00 1.203020e+00 -7.105777e-01 -2.732339e+00 -1.350056e+00 -1.579361e+00 1.137730e-01 -9.677635e-01 -1.467683e+00 -6.008635e-01 -1.680770e-01 -2.545244e+00 5.025899e+01
<VARIANCE> 13
 1.410443e+01 1.080142e+01 1.036861e+01 1.287805e+01 1.470692e+01 1.405622e+01 1.408285e+01 1.688093e+01 1.699557e+01 1.577076e+01 1.504401e+01 1.448146e+01 1.125613e+01
<GCONST> 5.801128e+01
<MIXTURE> 9 5.714175e-02
<MEAN> 13
 -8.988938e+00 2.414037e+00 4.183787e-01 -6.759189e-01 1.418152e+00 2.169111e+00 4.580320e+00 3.187464e+00 1.864086e+00 1.825143e+00 1.420780e+00 -1.585216e+00 4.788261e+01
<VARIANCE> 13
 1.210453e+01 4.601344e+00 6.831671e+00 8.575969e+00 1.050814e+01 1.095938e+01 1.193829e+01 1.241640e+01 1.326242e+01 1.353357e+01 1.268355e+01 1.193704e+01 6.219033e+00
<GCONST> 5.376566e+01
<MIXTURE> 10 7.519909e-02
<MEAN> 13
 -8.556395e+00 2.170814e+00 4.283258e-02 -1.477998e+00 3.075009e-01 5.239133e-01 2.528311e+00 1.211190e+00 6.541595e-02 4.221624e-01 4.082160e-01 -2.212437e+00 4.851853e+01
<VARIANCE> 13
 1.223995e+01 6.173916e+00 8.089452e+00 9.888316e+00 1.205445e+01 1.179259e+01 1.252246e+01 1.433963e+01 1.491085e+01 1.479497e+01 1.370014e+01 1.286679e+01 7.685034e+00
<GCONST> 5.535452e+01
<MIXTURE> 11 7.519909e-02
<MEAN> 13
 -8.556395e+00 2.170814e+00 4.283258e-02 -1.477998e+00 3.075009e-01 5.239133e-01 2.528311e+00 1.211190e+00 6.541595e-02 4.221624e-01 4.082160e-01 -2.212437e+00 4.851853e+01
<VARIANCE> 13
 1.223995e+01 6.173916e+00 8.089452e+00 9.888316e+00 1.205445e+01 1.179259e+01 1.252246e+01 1.433963e+01 1.491085e+01 1.479497e+01 1.370014e+01 1.286679e+01 7.685034e+00
<GCONST> 5.535452e+01
<MIXTURE> 12 5.985175e-02
<MEAN> 13
 -8.233180e+00 1.203020e+00 -7.105784e-01 -2.732339e+00 -1.350057e+00 -1.579360e+00 1.137745e-01 -9.677635e-01 -1.467685e+00 -6.008648e-01 -1.680772e-01 -2.545243e+00 5.025899e+01
<VARIANCE> 13
 1.410443e+01 1.080140e+01 1.036861e+01 1.287804e+01 1.470691e+01 1.405622e+01 1.408286e+01 1.688093e+01 1.699557e+01 1.577075e+01 1.504400e+01 1.448147e+01 1.125612e+01
<GCONST> 5.801127e+01
<MIXTURE> 13 7.519909e-02
<MEAN> 13
 -8.556395e+00 2.170814e+00 4.283258e-02 -1.477998e+00 3.075009e-01 5.239133e-01 2.528311e+00 1.211190e+00 6.541595e-02 4.221624e-01 4.082160e-01 -2.212437e+00 4.851853e+01
<VARIANCE> 13
 1.223995e+01 6.173916e+00 8.089452e+00 9.888316e+00 1.205445e+01 1.179259e+01 1.252246e+01 1.433963e+01 1.491085e+01 1.479497e+01 1.370014e+01 1.286679e+01 7.685034e+00
<GCONST> 5.535452e+01
<MIXTURE> 14 5.985175e-02
<MEAN> 13
 -8.233180e+00 1.203020e+00 -7.105784e-01 -2.732339e+00 -1.350057e+00 -1.579360e+00 1.137745e-01 -9.677635e-01 -1.467685e+00 -6.008648e-01 -1.680772e-01 -2.545243e+00 5.025899e+01
<VARIANCE> 13
 1.410443e+01 1.080140e+01 1.036861e+01 1.287804e+01 1.470691e+01 1.405622e+01 1.408286e+01 1.688093e+01 1.699557e+01 1.577075e+01 1.504400e+01 1.448147e+01 1.125612e+01
<GCONST> 5.801127e+01
<MIXTURE> 15 5.985156e-02
<MEAN> 13
 -8.233181e+00 1.203020e+00 -7.105778e-01 -2.732339e+00 -1.350057e+00 -1.579361e+00 1.137734e-01 -9.677633e-01 -1.467683e+00 -6.008635e-01 -1.680769e-01 -2.545243e+00 5.025899e+01
<VARIANCE> 13
 1.410443e+01 1.080142e+01 1.036861e+01 1.287804e+01 1.470692e+01 1.405622e+01 1.408285e+01 1.688093e+01 1.699557e+01 1.577076e+01 1.504401e+01 1.448146e+01 1.125613e+01
<GCONST> 5.801128e+01
<MIXTURE> 16 6.110013e-02
<MEAN> 13
 -8.295815e+00 -2.499994e+00 -1.226001e+00 -5.342741e+00 -3.507834e+00 -5.251515e+00 -2.665521e+00 -2.151540e+00 -1.285700e+00 -4.428378e-01 2.833095e-02 -2.097651e+00 5.500948e+01
<VARIANCE> 13
 1.239386e+01 2.539190e+01 1.778528e+01 2.442599e+01 1.781144e+01 1.974969e+01 1.977111e+01 2.583421e+01 2.201952e+01 1.778848e+01 1.944086e+01 1.728666e+01 2.138215e+01
<GCONST> 6.266730e+01
<STATE> 4
<NUMMIXES> 16
<MIXTURE> 1 3.642925e-02
<MEAN> 13
 -4.633447e+00 -3.053722e+00 -3.494915e+00 -2.216312e+00 3.613638e+00 6.501997e+00 7.477078e+00 3.498193e+00 1.760467e+00 3.324407e+00 2.889328e+00 -1.454523e+00 5.064479e+01
<VARIANCE> 13
 7.843192e+00 5.006038e+00 4.860025e+00 5.655867e+00 7.118014e+00 8.908425e+00 9.949312e+00 1.056861e+01 1.086859e+01 1.155869e+01 1.126155e+01 1.093907e+01 3.184210e+00
<GCONST> 5.048670e+01
<MIXTURE> 2 8.011039e-02
<MEAN> 13
 -4.671367e+00 -2.943027e+00 -3.947405e+00 -2.959378e+00 2.059603e+00 4.606770e+00 5.572953e+00 1.878495e+00 2.207050e-01 1.723737e+00 1.519463e+00 -2.334728e+00 5.097514e+01
<VARIANCE> 13
 6.694413e+00 5.746920e+00 5.509180e+00 6.439833e+00 8.776101e+00 9.888839e+00 1.047843e+01 1.211865e+01 1.235667e+01 1.209782e+01 1.233090e+01 1.173962e+01 3.413720e+00
<GCONST> 5.162887e+01
<MIXTURE> 3 8.011039e-02
<MEAN> 13
 -4.671367e+00 -2.943027e+00 -3.947405e+00 -2.959378e+00 2.059603e+00 4.606770e+00 5.572953e+00 1.878495e+00 2.207050e-01 1.723737e+00 1.519463e+00 -2.334728e+00 5.097514e+01
<VARIANCE> 13
 6.694413e+00 5.746920e+00 5.509180e+00 6.439833e+00 8.776101e+00 9.888839e+00 1.047843e+01 1.211865e+01 1.235667e+01 1.209782e+01 1.233090e+01 1.173962e+01 3.413720e+00
<GCONST> 5.162887e+01
<MIXTURE> 4 6.687275e-02
<MEAN> 13
 -5.207970e+00 -3.029322e+00 -4.082906e+00 -4.307814e+00 -2.484781e-01 1.760588e+00 2.870117e+00 1.085675e-01 -9.622129e-01 6.429491e-01 6.820342e-01 -3.006857e+00 5.229615e+01
<VARIANCE> 13
 9.596430e+00 8.575843e+00 8.519991e+00 9.625081e+00 1.244519e+01 1.207987e+01 1.249654e+01 1.533105e+01 1.602412e+01 1.527595e+01 1.559621e+01 1.431463e+01 6.705787e+00
<GCONST> 5.578939e+01
<MIXTURE> 5 8.011039e-02
<MEAN> 13
 -4.671367e+00 -2.943027e+00 -3.947405e+00 -2.959378e+00 2.059603e+00 4.606770e+00 5.572953e+00 1.878495e+00 2.207050e-01 1.723737e+00 1.519463e+00 -2.334728e+00 5.097514e+01
<VARIANCE> 13
 6.694413e+00 5.746920e+00 5.509180e+00 6.439833e+00 8.776101e+00 9.888839e+00 1.047843e+01 1.211865e+01 1.235667e+01 1.209782e+01 1.233090e+01 1.173962e+01 3.413720e+00
<GCONST> 5.162887e+01
<MIXTURE> 6 6.687266e-02
<MEAN> 13
 -5.207970e+00 -3.029321e+00 -4.082905e+00 -4.307814e+00 -2.484784e-01 1.760588e+00 2.870116e+00 1.085667e-01 -9.622136e-01 6.429489e-01 6.820342e-01 -3.006857e+00 5.229615e+01
<VARIANCE> 13
 9.596427e+00 8.575835e+00 8.519988e+00 9.625066e+00 1.244518e+01 1.207986e+01 1.249653e+01 1.533105e+01 1.602412e+01 1.527595e+01 1.559620e+01 1.431463e+01 6.705783e+00
<GCONST> 5.578938e+01
<MIXTURE> 7 6.687266e-02
<MEAN> 13
 -5.207970e+00 -3.029321e+00 -4.082905e+00 -4.307814e+00 -2.484784e-01 1.760588e+00 2.870116e+00 1.085667e-01 -9.622136e-01 6.429489e-01 6.820342e-01 -3.006857e+00 5.229615e+01
<VARIANCE> 13
 9.596427e+00 8.575835e+00 8.519988e+00 9.625066e+00 1.244518e+01 1.207986e+01 1.249653e+01 1.533105e+01 1.602412e+01 1.527595e+01 1.559620e+01 1.431463e+01 6.705783e+00
<GCONST> 5.578938e+01
<MIXTURE> 8 4.613744e-02
<MEAN> 13
 -6.774400e+00 -3.769384e+00 -2.741841e+00 -6.572014e+00 -2.732971e+00 -1.907866e+00 1.571494e-01 -8.093386e-01 -1.331268e+00 -2.064890e-01 4.532253e-01 -2.886157e+00 5.607721e+01
<VARIANCE> 13
 1.842468e+01 1.606412e+01 1.727724e+01 1.664883e+01 1.896255e+01 1.548791e+01 1.648063e+01 2.029618e+01 2.048609e+01 1.820197e+01 1.829842e+01 1.778986e+01 1.714755e+01
<GCONST> 6.128813e+01
<MIXTURE> 9 8.011039e-02
<MEAN> 13
 -4.671367e+00 -2.943027e+00 -3.947405e+00 -2.959378e+00 2.059603e+00 4.606770e+00 5.572953e+00 1.878495e+00 2.207050e-01 1.723737e+00 1.519463e+00 -2.334728e+00 5.097514e+01
<VARIANCE> 13
 6.694413e+00 5.746920e+00 5.509180e+00 6.439833e+00 8.776101e+00 9.888839e+00 1.047843e+01 1.211865e+01 1.235667e+01 1.209782e+01 1.233090e+01 1.173962e+01 3.413720e+00
<GCONST> 5.162887e+01
<MIXTURE> 10 6.687266e-02
<MEAN> 13
 -5.207970e+00 -3.029321e+00 -4.082905e+00 -4.307814e+00 -2.484784e-01 1.760588e+00 2.870116e+00 1.085667e-01 -9.622136e-01 6.429489e-01 6.820342e-01 -3.006857e+00 5.229615e+01
<VARIANCE> 13
 9.596427e+00 8.575835e+00 8.519988e+00 9.625066e+00 1.244518e+01 1.207986e+01 1.249653e+01 1.533105e+01 1.602412e+01 1.527595e+01 1.559620e+01 1.431463e+01 6.705783e+00
<GCONST> 5.578938e+01
<MIXTURE> 11 6.687266e-02
<MEAN> 13
 -5.207970e+00 -3.029321e+00 -4.082905e+00 -4.307814e+00 -2.484784e-01 1.760588e+00 2.870116e+00 1.085667e-01 -9.622136e-01 6.429489e-01 6.820342e-01 -3.006857e+00 5.229615e+01
<VARIANCE> 13
 9.596427e+00 8.575835e+00 8.519988e+00 9.625066e+00 1.244518e+01 1.207986e+01 1.249653e+01 1.533105e+01 1.602412e+01 1.527595e+01 1.559620e+01 1.431463e+01 6.705783e+00
<GCONST> 5.578938e+01
<MIXTURE> 12 4.613744e-02
<MEAN> 13
 -6.774400e+00 -3.769384e+00 -2.741841e+00 -6.572014e+00 -2.732971e+00 -1.907866e+00 1.571494e-01 -8.093386e-01 -1.331268e+00 -2.064890e-01 4.532253e-01 -2.886157e+00 5.607721e+01
<VARIANCE> 13
 1.842468e+01 1.606412e+01 1.727724e+01 1.664883e+01 1.896255e+01 1.548791e+01 1.648063e+01 2.029618e+01 2.048609e+01 1.820197e+01 1.829842e+01 1.778986e+01 1.714755e+01
<GCONST> 6.128813e+01
<MIXTURE> 13 6.687264e-02
<MEAN> 13
 -5.207970e+00 -3.029322e+00 -4.082906e+00 -4.307814e+00 -2.484781e-01 1.760588e+00 2.870116e+00 1.085663e-01 -9.622138e-01 6.429489e-01 6.820341e-01 -3.006857e+00 5.229615e+01
<VARIANCE> 13
 9.596430e+00 8.575836e+00 8.519988e+00 9.625063e+00 1.244518e+01 1.207986e+01 1.249653e+01 1.533106e+01 1.602410e+01 1.527595e+01 1.559620e+01 1.431462e+01 6.705784e+00
<GCONST> 5.578938e+01
<MIXTURE> 14 4.613744e-02
<MEAN> 13
 -6.774400e+00 -3.769384e+00 -2.741841e+00 -6.572014e+00 -2.732971e+00 -1.907866e+00 1.571494e-01 -8.093386e-01 -1.331268e+00 -2.064890e-01 4.532253e-01 -2.886157e+00 5.607721e+01
<VARIANCE> 13
 1.842468e+01 1.606412e+01 1.727724e+01 1.664883e+01 1.896255e+01 1.548791e+01 1.648063e+01 2.029618e+01 2.048609e+01 1.820197e+01 1.829842e+01 1.778986e+01 1.714755e+01
<GCONST> 6.128813e+01
<MIXTURE> 15 4.613747e-02
<MEAN> 13
 -6.774396e+00 -3.769385e+00 -2.741843e+00 -6.572015e+00 -2.732973e+00 -1.907866e+00 1.571487e-01 -8.093397e-01 -1.331270e+00 -2.064892e-01 4.532240e-01 -2.886158e+00 5.607721e+01
<VARIANCE> 13
 1.842466e+01 1.606409e+01 1.727724e+01 1.664882e+01 1.896255e+01 1.548789e+01 1.648062e+01 2.029620e+01 2.048607e+01 1.820196e+01 1.829842e+01 1.778988e+01 1.714755e+01
<GCONST> 6.128813e+01
<MIXTURE> 16 5.746425e-02
<MEAN> 13
 -1.032837e+01 -6.498054e+00 -6.920473e-01 -1.001013e+01 -4.364563e+00 -6.668117e+00 -1.385718e+00 -9.725549e-01 -1.079737e+00 -1.705954e+00 3.043102e-01 -2.194385e+00 6.448972e+01
<VARIANCE> 13
 1.842615e+01 2.056693e+01 2.071674e+01 2.084376e+01 2.529171e+01 1.863168e+01 2.118673e+01 2.322754e+01 2.480298e+01 2.225672e+01 1.827467e+01 1.837637e+01 3.351403e+01
<GCONST> 6.389406e+01
<TRANSP> 5
 0.000000e+00 1.000000e+00 0.000000e+00 0.000000e+00 0.000000e+00
 0.000000e+00 9.900663e-01 9.933636e-03 0.000000e+00 0.000000e+00
 0.000000e+00 0.000000e+00 9.883143e-01 1.168564e-02 0.000000e+00
 0.000000e+00 0.000000e+00 0.000000e+00 9.929467e-01 7.053229e-03
 0.000000e+00 0.000000e+00 0.000000e+00 0.000000e+00 0.000000e+00
<ENDHMM>
~h "co"
<BEGINHMM>
<NUMSTATES> 5
<STATE> 2
<NUMMIXES> 16
<MIXTURE> 1 1.400435e-01
<MEAN> 13
 -3.349507e+00 -4.501507e+00 -3.199152e+00 -2.647038e+00 1.514249e+00 4.063834e+00 4.282467e+00 1.918918e+00 7.894394e-01 1.130145e+00 9.867177e-01 -3.024195e+00 4.988136e+01
<VARIANCE> 13
 3.883143e+00 7.368859e+00 9.865433e+00 9.382251e+00 1.096921e+01 1.288374e+01 1.361566e+01 1.468703e+01 1.445788e+01 1.575036e+01 1.420596e+01 1.237302e+01 4.128593e+00
<GCONST> 5.403864e+01
<MIXTURE> 2 4.676796e-02
<MEAN> 13
 -5.787001e+00 -4.211863e+00 3.227169e+00 1.843383e+00 -1.546775e+00 -2.961513e+00 -1.782440e+00 -4.357331e+00 -2.408423e+00 -2.727206e+00 -2.764652e+00 -5.860700e+00 5.751840e+01
<VARIANCE> 13
 2.027740e+01 1.522787e+01 1.620918e+01 2.482264e+01 2.190114e+01 2.179035e+01 3.633825e+01 4.114009e+01 2.584268e+01 2.824393e+01 2.767028e+01 2.185623e+01 5.457601e+01
<GCONST> 6.609758e+01
<MIXTURE> 3 4.676796e-02
<MEAN> 13
 -5.787004e+00 -4.211865e+00 3.227170e+00 1.843382e+00 -1.546776e+00 -2.961515e+00 -1.782439e+00 -4.357333e+00 -2.408424e+00 -2.727206e+00 -2.764652e+00 -5.860700e+00 5.751841e+01
<VARIANCE> 13
 2.027740e+01 1.522787e+01 1.620918e+01 2.482264e+01 2.190114e+01 2.179036e+01 3.633826e+01 4.114010e+01 2.584271e+01 2.824393e+01 2.767030e+01 2.185623e+01 5.457610e+01
<GCONST> 6.609758e+01
<MIXTURE> 4 6.478265e-02
<MEAN> 13
 -5.958028e+00 -6.183730e+00 2.357933e+00 -4.288183e-03 -6.527818e+00 -6.142015e+00 -6.355561e+00 -7.056229e+00 -4.553406e+00 -4.022959e+00 -3.932525e+00 -8.581961e+00 6.514558e+01
<VARIANCE> 13
 2.187579e+01 1.663507e+01 2.323376e+01 2.708539e+01 4.238159e+01 3.581740e+01 5.271600e+01 6.000252e+01 4.295476e+01 4.034188e+01 3.875360e+01 3.215765e+01 3.795832e+01
<GCONST> 6.984026e+01
<MIXTURE> 5 4.676796e-02
<MEAN> 13
 -5.787004e+00 -4.211865e+00 3.227170e+00 1.843382e+00 -1.546776e+00 -2.961515e+00 -1.782439e+00 -4.357333e+00 -2.408424e+00 -2.727206e+00 -2.764652e+00 -5.860700e+00 5.751841e+01
<VARIANCE> 13
 2.027740e+01 1.522787e+01 1.620918e+01 2.482264e+01 2.190114e+01 2.179036e+01 3.633826e+01 4.114010e+01 2.584271e+01 2.824393e+01 2.767030e+01 2.185623e+01 5.457610e+01
<GCONST> 6.609758e+01
<MIXTURE> 6 6.478275e-02
<MEAN> 13
 -5.958027e+00 -6.183731e+00 2.357933e+00 -4.286765e-03 -6.527822e+00 -6.142015e+00 -6.355562e+00 -7.056231e+00 -4.553403e+00 -4.022958e+00 -3.932524e+00 -8.581961e+00 6.514558e+01
<VARIANCE> 13
 2.187580e+01 1.663511e+01 2.323376e+01 2.708541e+01 4.238166e+01 3.581742e+01 5.271601e+01 6.000256e+01 4.295484e+01 4.034191e+01 3.875362e+01 3.215767e+01 3.795833e+01
<GCONST> 6.984026e+01
<MIXTURE> 7 6.478237e-02
<MEAN> 13
 -5.958028e+00 -6.183726e+00 2.357932e+00 -4.289944e-03 -6.527811e+00 -6.142015e+00 -6.355562e+00 -7.056232e+00 -4.553410e+00 -4.022962e+00 -3.932524e+00 -8.581960e+00 6.514558e+01
<VARIANCE> 13
 2.187576e+01 1.663504e+01 2.323374e+01 2.708535e+01 4.238148e+01 3.581735e+01 5.271593e+01 6.000252e+01 4.295469e+01 4.034189e+01 3.875356e+01 3.215765e+01 3.795830e+01
<GCONST> 6.984024e+01
<MIXTURE> 8 6.332581e-02
<MEAN> 13
 -6.050989e+00 -6.982544e+00 -2.117930e+00 -2.944234e+00 -9.842560e+00 -8.795633e+00 -9.149311e+00 -6.260906e+00 -4.016302e+00 -6.145086e+00 -5.876799e+00 -1.132039e+01 7.025726e+01
<VARIANCE> 13
 9.485779e+00 1.274094e+01 2.313364e+01 2.096711e+01 3.581067e+01 3.899617e+01 4.523259e+01 5.814685e+01 5.283141e+01 4.614948e+01 4.006943e+01 4.020150e+01 2.210294e+01
<GCONST> 6.826698e+01
<MIXTURE> 9 4.676796e-02
<MEAN> 13
 -5.787004e+00 -4.211865e+00 3.227170e+00 1.843382e+00 -1.546776e+00 -2.961515e+00 -1.782439e+00 -4.357333e+00 -2.408424e+00 -2.727206e+00 -2.764652e+00 -5.860700e+00 5.751841e+01
<VARIANCE> 13
 2.027740e+01 1.522787e+01 1.620918e+01 2.482264e+01 2.190114e+01 2.179036e+01 3.633826e+01 4.114010e+01 2.584271e+01 2.824393e+01 2.767030e+01 2.185623e+01 5.457610e+01
<GCONST> 6.609758e+01
<MIXTURE> 10 6.478275e-02
<MEAN> 13
 -5.958027e+00 -6.183731e+00 2.357933e+00 -4.286765e-03 -6.527822e+00 -6.142015e+00 -6.355562e+00 -7.056231e+00 -4.553403e+00 -4.022958e+00 -3.932524e+00 -8.581961e+00 6.514558e+01
<VARIANCE> 13
 2.187580e+01 1.663511e+01 2.323376e+01 2.708541e+01 4.238166e+01 3.581742e+01 5.271601e+01 6.000256e+01 4.295484e+01 4.034191e+01 3.875362e+01 3.215767e+01 3.795833e+01
<GCONST> 6.984026e+01
<MIXTURE> 11 6.478237e-02
<MEAN> 13
 -5.958028e+00 -6.183726e+00 2.357932e+00 -4.289944e-03 -6.527811e+00 -6.142015e+00 -6.355562e+00 -7.056232e+00 -4.553410e+00 -4.022962e+00 -3.932524e+00 -8.581960e+00 6.514558e+01
<VARIANCE> 13
 2.187576e+01 1.663504e+01 2.323374e+01 2.708535e+01 4.238148e+01 3.581735e+01 5.271593e+01 6.000252e+01 4.295469e+01 4.034189e+01 3.875356e+01 3.215765e+01 3.795830e+01
<GCONST> 6.984024e+01
<MIXTURE> 12 6.332646e-02
<MEAN> 13
 -6.050990e+00 -6.982540e+00 -2.117930e+00 -2.944235e+00 -9.842557e+00 -8.795637e+00 -9.149308e+00 -6.260908e+00 -4.016304e+00 -6.145086e+00 -5.876801e+00 -1.132039e+01 7.025726e+01
<VARIANCE> 13
 9.485773e+00 1.274093e+01 2.313361e+01 2.096710e+01 3.581065e+01 3.899613e+01 4.523248e+01 5.814674e+01 5.283132e+01 4.614942e+01 4.006939e+01 4.020145e+01 2.210295e+01
<GCONST> 6.826697e+01
<MIXTURE> 13 6.478239e-02
<MEAN> 13
 -5.958028e+00 -6.183726e+00 2.357933e+00 -4.289808e-03 -6.527811e+00 -6.142015e+00 -6.355562e+00 -7.056232e+00 -4.553410e+00 -4.022962e+00 -3.932524e+00 -8.581960e+00 6.514558e+01
<VARIANCE> 13
 2.187576e+01 1.663504e+01 2.323374e+01 2.708537e+01 4.238148e+01 3.581736e+01 5.271595e+01 6.000253e+01 4.295467e+01 4.034190e+01 3.875357e+01 3.215765e+01 3.795831e+01
<GCONST> 6.984024e+01
<MIXTURE> 14 6.332646e-02
<MEAN> 13
 -6.050990e+00 -6.982540e+00 -2.117930e+00 -2.944235e+00 -9.842557e+00 -8.795637e+00 -9.149308e+00 -6.260908e+00 -4.016304e+00 -6.145086e+00 -5.876801e+00 -1.132039e+01 7.025726e+01
<VARIANCE> 13
 9.485773e+00 1.274093e+01 2.313361e+01 2.096710e+01 3.581065e+01 3.899613e+01 4.523248e+01 5.814674e+01 5.283132e+01 4.614942e+01 4.006939e+01 4.020145e+01 2.210295e+01
<GCONST> 6.826697e+01
<MIXTURE> 15 6.332641e-02
<MEAN> 13
 -6.050990e+00 -6.982540e+00 -2.117929e+00 -2.944236e+00 -9.842554e+00 -8.795636e+00 -9.149309e+00 -6.260908e+00 -4.016307e+00 -6.145089e+00 -5.876803e+00 -1.132039e+01 7.025726e+01
<VARIANCE> 13
 9.485773e+00 1.274091e+01 2.313358e+01 2.096709e+01 3.581060e+01 3.899610e+01 4.523251e+01 5.814668e+01 5.283125e+01 4.614943e+01 4.006935e+01 4.020141e+01 2.210294e+01
<GCONST> 6.826696e+01
<MIXTURE> 16 3.086546e-02
<MEAN> 13
 -6.611981e+00 -7.171813e+00 -3.443869e+00 -3.483324e+00 -1.111146e+01 -1.121151e+01 -1.102921e+01 -7.554556e+00 -5.429871e+00 -8.023516e+00 -6.967240e+00 -1.248985e+01 7.285763e+01
<VARIANCE> 13
 4.930281e+00 1.068199e+01 1.653711e+01 1.597938e+01 2.202742e+01 2.705751e+01 5.345121e+01 4.624533e+01 3.970437e+01 3.770352e+01 4.038641e+01 4.208831e+01 1.134650e+01
<GCONST> 6.481464e+01
<STATE> 3
<NUMMIXES> 16
<MIXTURE> 1 1.603443e-02
<MEAN> 13
 -2.319707e+00 6.489004e-01 9.397114e+00 8.083535e+00 4.714887e+00 1.615823e+00 4.378245e-01 -2.559273e+00 -1.583883e+00 -1.006257e+00 -4.710253e+00 -7.232342e+00 5.156908e+01
<VARIANCE> 13
 3.756920e+00 1.032554e+01 2.109789e+01 2.199605e+01 1.600578e+01 1.103623e+01 1.376175e+01 2.200771e+01 1.471412e+01 1.636043e+01 2.077903e+01 1.179898e+01 3.003449e+01
<GCONST> 5.896605e+01
<MIXTURE> 2 5.646507e-02
<MEAN> 13
 -3.033972e+00 2.692569e+00 5.284968e+00 3.311007e+00 3.938487e+00 1.823992e+00 9.051811e-01 -6.256416e-01 -3.676147e+00 -2.732051e+00 -3.147714e+00 -6.857028e+00 4.685361e+01
<VARIANCE> 13
 5.791532e+00 9.309859e+00 1.403127e+01 1.610136e+01 1.462169e+01 1.260681e+01 1.464145e+01 1.781054e+01 1.645157e+01 1.594294e+01 1.538512e+01 1.478866e+01 1.430667e+01
<GCONST> 5.773788e+01
<MIXTURE> 3 5.646503e-02
<MEAN> 13
 -3.033972e+00 2.692569e+00 5.284967e+00 3.311006e+00 3.938487e+00 1.823992e+00 9.051813e-01 -6.256417e-01 -3.676147e+00 -2.732051e+00 -3.147714e+00 -6.857029e+00 4.685361e+01
<VARIANCE> 13
 5.791532e+00 9.309854e+00 1.403125e+01 1.610134e+01 1.462168e+01 1.260680e+01 1.464145e+01 1.781052e+01 1.645156e+01 1.594293e+01 1.538511e+01 1.478864e+01 1.430666e+01
<GCONST> 5.773787e+01
<MIXTURE> 4 7.409258e-02
<MEAN> 13
 -2.199033e+00 1.778151e+00 4.622508e+00 2.441407e+00 2.995839e+00 -1.287106e-01 -1.653033e+00 -3.330703e+00 -5.646129e+00 -4.174149e+00 -3.499156e+00 -7.637511e+00 4.829838e+01
<VARIANCE> 13
 6.222370e+00 1.215826e+01 1.268147e+01 1.412031e+01 1.446730e+01 1.675988e+01 1.722440e+01 1.991520e+01 1.743429e+01 1.771874e+01 1.530490e+01 1.666015e+01 1.874845e+01
<GCONST> 5.894037e+01
<MIXTURE> 5 5.646503e-02
<MEAN> 13
 -3.033972e+00 2.692569e+00 5.284967e+00 3.311006e+00 3.938487e+00 1.823992e+00 9.051813e-01 -6.256417e-01 -3.676147e+00 -2.732051e+00 -3.147714e+00 -6.857029e+00 4.685361e+01
<VARIANCE> 13
 5.791532e+00 9.309854e+00 1.403125e+01 1.610134e+01 1.462168e+01 1.260680e+01 1.464145e+01 1.781052e+01 1.645156e+01 1.594293e+01 1.538511e+01 1.478864e+01 1.430666e+01
<GCONST> 5.773787e+01
<MIXTURE> 6 7.409258e-02
<MEAN> 13
 -2.199033e+00 1.778151e+00 4.622508e+00 2.441407e+00 2.995839e+00 -1.287106e-01 -1.653033e+00 -3.330703e+00 -5.646129e+00 -4.174149e+00 -3.499156e+00 -7.637511e+00 4.829838e+01
<VARIANCE> 13
 6.222370e+00 1.215826e+01 1.268147e+01 1.412031e+01 1.446730e+01 1.675988e+01 1.722440e+01 1.991520e+01 1.743429e+01 1.771874e+01 1.530490e+01 1.666015e+01 1.874845e+01
<GCONST> 5.894037e+01
<MIXTURE> 7 7.409260e-02
<MEAN> 13
 -2.199033e+00 1.778151e+00 4.622508e+00 2.441408e+00 2.995840e+00 -1.287104e-01 -1.653034e+00 -3.330702e+00 -5.646131e+00 -4.174150e+00 -3.499156e+00 -7.637511e+00 4.829838e+01
<VARIANCE> 13
 6.222372e+00 1.215826e+01 1.268147e+01 1.412032e+01 1.446730e+01 1.675988e+01 1.722441e+01 1.991521e+01 1.743429e+01 1.771874e+01 1.530490e+01 1.666014e+01 1.874846e+01
<GCONST> 5.894037e+01
<MIXTURE> 8 6.680639e-02
<MEAN> 13
 -7.614132e-01 -9.204518e-01 4.407022e+00 2.114820e+00 1.414422e+00 -2.934476e+00 -5.079278e+00 -7.436077e+00 -7.349435e+00 -5.490953e+00 -3.393721e+00 -8.321876e+00 5.279968e+01
<VARIANCE> 13
 4.737294e+00 9.467991e+00 1.553459e+01 1.943237e+01 1.744919e+01 1.989722e+01 2.039759e+01 2.471920e+01 2.134054e+01 2.738725e+01 2.018495e+01 2.079814e+01 1.828244e+01
<GCONST> 6.079509e+01
<MIXTURE> 9 5.646494e-02
<MEAN> 13
 -3.033975e+00 2.692569e+00 5.284965e+00 3.311004e+00 3.938486e+00 1.823994e+00 9.051837e-01 -6.256385e-01 -3.676145e+00 -2.732049e+00 -3.147713e+00 -6.857028e+00 4.685361e+01
<VARIANCE> 13
 5.791539e+00 9.309849e+00 1.403125e+01 1.610134e+01 1.462170e+01 1.260682e+01 1.464146e+01 1.781053e+01 1.645157e+01 1.594294e+01 1.538515e+01 1.478867e+01 1.430666e+01
<GCONST> 5.773788e+01
<MIXTURE> 10 7.409260e-02
<MEAN> 13
 -2.199033e+00 1.778151e+00 4.622508e+00 2.441408e+00 2.995840e+00 -1.287104e-01 -1.653034e+00 -3.330702e+00 -5.646131e+00 -4.174150e+00 -3.499156e+00 -7.637511e+00 4.829838e+01
<VARIANCE> 13
 6.222372e+00 1.215826e+01 1.268147e+01 1.412032e+01 1.446730e+01 1.675988e+01 1.722441e+01 1.991521e+01 1.743429e+01 1.771874e+01 1.530490e+01 1.666014e+01 1.874846e+01
<GCONST> 5.894037e+01
<MIXTURE> 11 7.409260e-02
<MEAN> 13
 -2.199033e+00 1.778151e+00 4.622508e+00 2.441408e+00 2.995840e+00 -1.287104e-01 -1.653034e+00 -3.330702e+00 -5.646131e+00 -4.174150e+00 -3.499156e+00 -7.637511e+00 4.829838e+01
<VARIANCE> 13
 6.222372e+00 1.215826e+01 1.268147e+01 1.412032e+01 1.446730e+01 1.675988e+01 1.722441e+01 1.991521e+01 1.743429e+01 1.771874e+01 1.530490e+01 1.666014e+01 1.874846e+01
<GCONST> 5.894037e+01
<MIXTURE> 12 6.680646e-02
<MEAN> 13
 -7.614130e-01 -9.204515e-01 4.407023e+00 2.114821e+00 1.414423e+00 -2.934477e+00 -5.079279e+00 -7.436078e+00 -7.349436e+00 -5.490954e+00 -3.393721e+00 -8.321877e+00 5.279968e+01
<VARIANCE> 13
 4.737293e+00 9.467993e+00 1.553459e+01 1.943240e+01 1.744919e+01 1.989722e+01 2.039759e+01 2.471919e+01 2.134053e+01 2.738727e+01 2.018495e+01 2.079815e+01 1.828245e+01
<GCONST> 6.079509e+01
<MIXTURE> 13 7.409254e-02
<MEAN> 13
 -2.199033e+00 1.778151e+00 4.622507e+00 2.441407e+00 2.995839e+00 -1.287109e-01 -1.653034e+00 -3.330702e+00 -5.646131e+00 -4.174150e+00 -3.499156e+00 -7.637511e+00 4.829838e+01
<VARIANCE> 13
 6.222372e+00 1.215826e+01 1.268147e+01 1.412031e+01 1.446730e+01 1.675989e+01 1.722441e+01 1.991521e+01 1.743430e+01 1.771874e+01 1.530490e+01 1.666014e+01 1.874846e+01
<GCONST> 5.894037e+01
<MIXTURE> 14 6.680646e-02
<MEAN> 13
 -7.614130e-01 -9.204515e-01 4.407023e+00 2.114821e+00 1.414423e+00 -2.934477e+00 -5.079279e+00 -7.436078e+00 -7.349436e+00 -5.490954e+00 -3.393721e+00 -8.321877e+00 5.279968e+01
<VARIANCE> 13
 4.737293e+00 9.467993e+00 1.553459e+01 1.943240e+01 1.744919e+01 1.989722e+01 2.039759e+01 2.471919e+01 2.134053e+01 2.738727e+01 2.018495e+01 2.079815e+01 1.828245e+01
<GCONST> 6.079509e+01
<MIXTURE> 15 6.680652e-02
<MEAN> 13
 -7.614133e-01 -9.204525e-01 4.407022e+00 2.114818e+00 1.414421e+00 -2.934476e+00 -5.079279e+00 -7.436078e+00 -7.349436e+00 -5.490952e+00 -3.393720e+00 -8.321875e+00 5.279969e+01
<VARIANCE> 13
 4.737291e+00 9.467983e+00 1.553459e+01 1.943237e+01 1.744918e+01 1.989722e+01 2.039758e+01 2.471920e+01 2.134054e+01 2.738727e+01 2.018495e+01 2.079815e+01 1.828245e+01
<GCONST> 6.079509e+01
<MIXTURE> 16 4.632273e-02
<MEAN> 13
 -2.911341e-01 -2.213950e+00 2.475503e+00 -2.526599e-01 -9.488827e-01 -5.558972e+00 -7.756032e+00 -9.102551e+00 -1.011059e+01 -6.595885e+00 -2.466224e+00 -6.945904e+00 5.375592e+01
<VARIANCE> 13
 3.787521e+00 5.211413e+00 1.569563e+01 1.738975e+01 1.777126e+01 2.217283e+01 2.115052e+01 2.309468e+01 2.595993e+01 2.437537e+01 2.625589e+01 1.960504e+01 1.130064e+01
<GCONST> 5.977061e+01
<STATE> 4
<NUMMIXES> 16
<MIXTURE> 1 2.278442e-02
<MEAN> 13
 -4.200237e+00 -1.995987e+00 -2.537894e+00 -1.570781e+00 1.795100e+00 5.773460e+00 7.410734e+00 5.182552e+00 3.662268e+00 4.710660e+00 3.164696e+00 -1.384489e+00 4.759884e+01
<VARIANCE> 13
 5.512125e+00 1.332689e+01 7.567022e+00 9.986111e+00 9.953360e+00 1.309553e+01 1.117493e+01 1.325491e+01 1.393811e+01 1.387764e+01 1.137718e+01 1.165799e+01 8.836128e+00
<GCONST> 5.471371e+01
<MIXTURE> 2 6.198604e-02
<MEAN> 13
 -4.239828e+00 -1.349309e+00 -2.003470e+00 -1.029524e+00 1.480614e+00 4.465390e+00 5.937164e+00 3.363231e+00 1.499055e+00 2.816681e+00 1.948483e+00 -1.748198e+00 4.721415e+01
<VARIANCE> 13
 4.689974e+00 1.338709e+01 8.685981e+00 1.000026e+01 9.852367e+00 1.176852e+01 1.030935e+01 1.184320e+01 1.254739e+01 1.258383e+01 1.128281e+01 1.218192e+01 8.492016e+00
<GCONST> 5.417867e+01
<MIXTURE> 3 6.198598e-02
<MEAN> 13
 -4.239828e+00 -1.349307e+00 -2.003469e+00 -1.029523e+00 1.480615e+00 4.465390e+00 5.937164e+00 3.363230e+00 1.499054e+00 2.816681e+00 1.948483e+00 -1.748198e+00 4.721415e+01
<VARIANCE> 13
 4.689973e+00 1.338708e+01 8.685975e+00 1.000026e+01 9.852367e+00 1.176851e+01 1.030935e+01 1.184319e+01 1.254737e+01 1.258383e+01 1.128280e+01 1.218193e+01 8.492011e+00
<GCONST> 5.417867e+01
<MIXTURE> 4 7.671274e-02
<MEAN> 13
 -4.223089e+00 -2.027178e+00 -2.311429e+00 -1.770373e+00 1.026571e+00 3.387071e+00 4.399766e+00 1.410957e+00 -4.179639e-01 1.098832e+00 6.877706e-01 -2.439492e+00 4.795515e+01
<VARIANCE> 13
 6.219869e+00 1.451433e+01 9.598979e+00 1.015733e+01 1.152874e+01 1.337925e+01 1.057249e+01 1.226037e+01 1.271178e+01 1.295374e+01 1.248857e+01 1.267380e+01 8.466639e+00
<GCONST> 5.518271e+01
<MIXTURE> 5 6.198598e-02
<MEAN> 13
 -4.239828e+00 -1.349307e+00 -2.003469e+00 -1.029523e+00 1.480615e+00 4.465390e+00 5.937164e+00 3.363230e+00 1.499054e+00 2.816681e+00 1.948483e+00 -1.748198e+00 4.721415e+01
<VARIANCE> 13
 4.689973e+00 1.338708e+01 8.685975e+00 1.000026e+01 9.852367e+00 1.176851e+01 1.030935e+01 1.184319e+01 1.254737e+01 1.258383e+01 1.128280e+01 1.218193e+01 8.492011e+00
<GCONST> 5.417867e+01
<MIXTURE> 6 7.671274e-02
<MEAN> 13
 -4.223089e+00 -2.027178e+00 -2.311429e+00 -1.770373e+00 1.026571e+00 3.387071e+00 4.399766e+00 1.410957e+00 -4.179639e-01 1.098832e+00 6.877706e-01 -2.439492e+00 4.795515e+01
<VARIANCE> 13
 6.219869e+00 1.451433e+01 9.598979e+00 1.015733e+01 1.152874e+01 1.337925e+01 1.057249e+01 1.226037e+01 1.271178e+01 1.295374e+01 1.248857e+01 1.267380e+01 8.466639e+00
<GCONST> 5.518271e+01
<MIXTURE> 7 7.671274e-02
<MEAN> 13
 -4.223089e+00 -2.027178e+00 -2.311429e+00 -1.770373e+00 1.026571e+00 3.387071e+00 4.399766e+00 1.410957e+00 -4.179639e-01 1.098832e+00 6.877706e-01 -2.439492e+00 4.795515e+01
<VARIANCE> 13
 6.219869e+00 1.451433e+01 9.598979e+00 1.015733e+01 1.152874e+01 1.337925e+01 1.057249e+01 1.226037e+01 1.271178e+01 1.295374e+01 1.248857e+01 1.267380e+01 8.466639e+00
<GCONST> 5.518271e+01
<MIXTURE> 8 5.833972e-02
<MEAN> 13
 -4.208231e+00 -3.232863e+00 -3.130557e+00 -3.067751e+00 6.372549e-02 2.043288e+00 2.406461e+00 -7.913020e-01 -2.145282e+00 -4.648652e-01 -4.762272e-01 -3.138271e+00 4.902298e+01
<VARIANCE> 13
 8.975112e+00 1.432817e+01 9.845241e+00 9.590210e+00 1.327926e+01 1.600837e+01 1.185010e+01 1.357843e+01 1.417295e+01 1.371764e+01 1.408005e+01 1.454063e+01 7.168278e+00
<GCONST> 5.629835e+01
<MIXTURE> 9 6.198598e-02
<MEAN> 13
 -4.239828e+00 -1.349307e+00 -2.003469e+00 -1.029523e+00 1.480614e+00 4.465389e+00 5.937163e+00 3.363229e+00 1.499054e+00 2.816682e+00 1.948484e+00 -1.748198e+00 4.721415e+01
<VARIANCE> 13
 4.689971e+00 1.338707e+01 8.685978e+00 1.000026e+01 9.852365e+00 1.176852e+01 1.030935e+01 1.184319e+01 1.254737e+01 1.258383e+01 1.128280e+01 1.218192e+01 8.492009e+00
<GCONST> 5.417867e+01
<MIXTURE> 10 7.671274e-02
<MEAN> 13
 -4.223089e+00 -2.027178e+00 -2.311429e+00 -1.770373e+00 1.026571e+00 3.387071e+00 4.399766e+00 1.410957e+00 -4.179639e-01 1.098832e+00 6.877706e-01 -2.439492e+00 4.795515e+01
<VARIANCE> 13
 6.219869e+00 1.451433e+01 9.598979e+00 1.015733e+01 1.152874e+01 1.337925e+01 1.057249e+01 1.226037e+01 1.271178e+01 1.295374e+01 1.248857e+01 1.267380e+01 8.466639e+00
<GCONST> 5.518271e+01
<MIXTURE> 11 7.671274e-02
<MEAN> 13
 -4.223089e+00 -2.027178e+00 -2.311429e+00 -1.770373e+00 1.026571e+00 3.387071e+00 4.399766e+00 1.410957e+00 -4.179639e-01 1.098832e+00 6.877706e-01 -2.439492e+00 4.795515e+01
<VARIANCE> 13
 6.219869e+00 1.451433e+01 9.598979e+00 1.015733e+01 1.152874e+01 1.337925e+01 1.057249e+01 1.226037e+01 1.271178e+01 1.295374e+01 1.248857e+01 1.267380e+01 8.466639e+00
<GCONST> 5.518271e+01
<MIXTURE> 12 5.833969e-02
<MEAN> 13
 -4.208233e+00 -3.232861e+00 -3.130557e+00 -3.067751e+00 6.372664e-02 2.043288e+00 2.406461e+00 -7.913024e-01 -2.145283e+00 -4.648665e-01 -4.762276e-01 -3.138270e+00 4.902298e+01
<VARIANCE> 13
 8.975122e+00 1.432816e+01 9.845236e+00 9.590201e+00 1.327924e+01 1.600837e+01 1.185009e+01 1.357842e+01 1.417294e+01 1.371763e+01 1.408005e+01 1.454063e+01 7.168283e+00
<GCONST> 5.629833e+01
<MIXTURE> 13 7.671274e-02
<MEAN> 13
 -4.223089e+00 -2.027178e+00 -2.311429e+00 -1.770373e+00 1.026571e+00 3.387071e+00 4.399766e+00 1.410957e+00 -4.179639e-01 1.098832e+00 6.877706e-01 -2.439492e+00 4.795515e+01
<VARIANCE> 13
 6.219869e+00 1.451433e+01 9.598979e+00 1.015733e+01 1.152874e+01 1.337925e+01 1.057249e+01 1.226037e+01 1.271178e+01 1.295374e+01 1.248857e+01 1.267380e+01 8.466639e+00
<GCONST> 5.518271e+01
<MIXTURE> 14 5.833969e-02
<MEAN> 13
 -4.208233e+00 -3.232861e+00 -3.130557e+00 -3.067751e+00 6.372664e-02 2.043288e+00 2.406461e+00 -7.913024e-01 -2.145283e+00 -4.648665e-01 -4.762276e-01 -3.138270e+00 4.902298e+01
<VARIANCE> 13
 8.975122e+00 1.432816e+01 9.845236e+00 9.590201e+00 1.327924e+01 1.600837e+01 1.185009e+01 1.357842e+01 1.417294e+01 1.371763e+01 1.408005e+01 1.454063e+01 7.168283e+00
<GCONST> 5.629833e+01
<MIXTURE> 15 5.833985e-02
<MEAN> 13
 -4.208232e+00 -3.232861e+00 -3.130554e+00 -3.067750e+00 6.372557e-02 2.043289e+00 2.406460e+00 -7.913030e-01 -2.145282e+00 -4.648655e-01 -4.762278e-01 -3.138270e+00 4.902298e+01
<VARIANCE> 13
 8.975129e+00 1.432818e+01 9.845248e+00 9.590212e+00 1.327927e+01 1.600841e+01 1.185010e+01 1.357844e+01 1.417297e+01 1.371765e+01 1.408006e+01 1.454063e+01 7.168282e+00
<GCONST> 5.629835e+01
<MIXTURE> 16 3.562828e-02
<MEAN> 13
 -4.602139e+00 -3.969648e+00 -3.392859e+00 -4.419475e+00 -2.013771e+00 2.834767e-01 -5.887129e-01 -3.280484e+00 -2.821629e+00 -1.499440e+00 -1.427494e+00 -3.117664e+00 5.032537e+01
<VARIANCE> 13
 1.934053e+01 1.669286e+01 1.074786e+01 1.104726e+01 1.682510e+01 1.801870e+01 1.241571e+01 1.445794e+01 2.831375e+01 1.487226e+01 1.649457e+01 1.939065e+01 7.946828e+00
<GCONST> 5.923441e+01
<TRANSP> 5
 0.000000e+00 1.000000e+00 0.000000e+00 0.000000e+00 0.000000e+00
 0.000000e+00 9.917682e-01 8.231803e-03 0.000000e+00 0.000000e+00
 0.000000e+00 0.000000e+00 9.646143e-01 3.538571e-02 0.000000e+00
 0.000000e+00 0.000000e+00 0.000000e+00 9.915739e-01 8.426143e-03
 0.000000e+00 0.000000e+00 0.000000e+00 0.000000e+00 0.000000e+00
<ENDHMM>
~h "ds"
<BEGINHMM>
<NUMSTATES> 5
<STATE> 2
<NUMMIXES> 16
<MIXTURE> 1 5.545698e-02
<MEAN> 13
 -6.987423e+00 5.973973e+00 8.675188e+00 7.872982e+00 9.105571e+00 5.225096e+00 8.177069e+00 6.293489e-01 2.327123e+00 4.872631e-01 2.403544e+00 -2.828448e-02 6.068869e+01
<VARIANCE> 13
 9.829759e+00 4.170572e+00 8.096598e+00 5.815397e+00 7.042015e+00 9.125672e+00 1.041563e+01 1.189279e+01 1.241253e+01 1.205900e+01 1.294890e+01 1.206477e+01 6.198141e+01
<GCONST> 5.462670e+01
<MIXTURE> 2 4.004442e-02
<MEAN> 13
 -8.431688e+00 4.795292e+00 5.674713e+00 5.137570e+00 6.320310e+00 3.025319e+00 6.150468e+00 -5.033238e-01 1.818991e+00 6.433991e-02 2.042556e+00 -8.116664e-01 6.141418e+01
<VARIANCE> 13
 1.433712e+01 9.719391e+00 8.804176e+00 7.746638e+00 1.046491e+01 1.361557e+01 1.355859e+01 1.640779e+01 1.620330e+01 1.565824e+01 1.594251e+01 1.402198e+01 1.124276e+02
<GCONST> 5.908401e+01
<MIXTURE> 3 4.004438e-02
<MEAN> 13
 -8.431689e+00 4.795291e+00 5.674713e+00 5.137570e+00 6.320310e+00 3.025319e+00 6.150468e+00 -5.033234e-01 1.818992e+00 6.434134e-02 2.042558e+00 -8.116645e-01 6.141418e+01
<VARIANCE> 13
 1.433712e+01 9.719379e+00 8.804171e+00 7.746639e+00 1.046491e+01 1.361556e+01 1.355859e+01 1.640779e+01 1.620330e+01 1.565823e+01 1.594251e+01 1.402199e+01 1.124275e+02
<GCONST> 5.908401e+01
<MIXTURE> 4 6.283188e-02
<MEAN> 13
 -1.098221e+01 1.082810e+00 2.290656e+00 9.814484e-01 2.726956e+00 1.142610e+00 3.325903e+00 -9.913157e-01 1.648271e+00 -2.327481e-02 3.295279e+00 -5.265459e-01 5.594961e+01
<VARIANCE> 13
 1.413291e+01 9.047987e+00 9.627805e+00 1.020270e+01 1.398996e+01 2.209535e+01 2.615933e+01 2.209256e+01 2.864884e+01 3.096816e+01 1.973606e+01 1.750882e+01 4.804665e+01
<GCONST> 6.192931e+01
<MIXTURE> 5 4.004438e-02
<MEAN> 13
 -8.431689e+00 4.795291e+00 5.674713e+00 5.137570e+00 6.320310e+00 3.025319e+00 6.150468e+00 -5.033234e-01 1.818992e+00 6.434134e-02 2.042558e+00 -8.116645e-01 6.141418e+01
<VARIANCE> 13
 1.433712e+01 9.719379e+00 8.804171e+00 7.746639e+00 1.046491e+01 1.361556e+01 1.355859e+01 1.640779e+01 1.620330e+01 1.565823e+01 1.594251e+01 1.402199e+01 1.124275e+02
<GCONST> 5.908401e+01
<MIXTURE> 6 6.283188e-02
<MEAN> 13
 -1.098221e+01 1.082810e+00 2.290656e+00 9.814481e-01 2.726955e+00 1.142612e+00 3.325902e+00 -9.913156e-01 1.648272e+00 -2.327698e-02 3.295280e+00 -5.265455e-01 5.594961e+01
<VARIANCE> 13
 1.413292e+01 9.047991e+00 9.627809e+00 1.020271e+01 1.398997e+01 2.209538e+01 2.615936e+01 2.209257e+01 2.864887e+01 3.096820e+01 1.973607e+01 1.750882e+01 4.804668e+01
<GCONST> 6.192932e+01
<MIXTURE> 7 6.283188e-02
<MEAN> 13
 -1.098221e+01 1.082810e+00 2.290656e+00 9.814481e-01 2.726955e+00 1.142612e+00 3.325902e+00 -9.913156e-01 1.648272e+00 -2.327698e-02 3.295280e+00 -5.265455e-01 5.594961e+01
<VARIANCE> 13
 1.413292e+01 9.047991e+00 9.627809e+00 1.020271e+01 1.398997e+01 2.209538e+01 2.615936e+01 2.209257e+01 2.864887e+01 3.096820e+01 1.973607e+01 1.750882e+01 4.804668e+01
<GCONST> 6.192932e+01
<MIXTURE> 8 8.302259e-02
<MEAN> 13
 -1.191592e+01 -2.795611e-01 9.355077e-02 -9.910245e-01 1.146371e-01 -1.825026e+00 2.309682e+00 -2.175310e+00 -2.476323e-01 5.558677e-01 2.691956e+00 -1.446915e+00 5.864067e+01
<VARIANCE> 13
 1.857645e+01 8.450001e+00 9.082921e+00 1.157456e+01 1.613214e+01 1.443153e+01 2.282478e+01 2.424282e+01 2.138599e+01 1.967370e+01 1.756479e+01 1.666744e+01 5.614197e+01
<GCONST> 6.111912e+01
<MIXTURE> 9 4.004445e-02
<MEAN> 13
 -8.431689e+00 4.795297e+00 5.674713e+00 5.137572e+00 6.320307e+00 3.025314e+00 6.150467e+00 -5.033278e-01 1.818992e+00 6.434054e-02 2.042558e+00 -8.116646e-01 6.141420e+01
<VARIANCE> 13
 1.433712e+01 9.719399e+00 8.804172e+00 7.746632e+00 1.046492e+01 1.361559e+01 1.355859e+01 1.640779e+01 1.620331e+01 1.565825e+01 1.594250e+01 1.402198e+01 1.124278e+02
<GCONST> 5.908403e+01
<MIXTURE> 10 6.283188e-02
<MEAN> 13
 -1.098221e+01 1.082810e+00 2.290656e+00 9.814481e-01 2.726955e+00 1.142612e+00 3.325902e+00 -9.913156e-01 1.648272e+00 -2.327698e-02 3.295280e+00 -5.265455e-01 5.594961e+01
<VARIANCE> 13
 1.413292e+01 9.047991e+00 9.627809e+00 1.020271e+01 1.398997e+01 2.209538e+01 2.615936e+01 2.209257e+01 2.864887e+01 3.096820e+01 1.973607e+01 1.750882e+01 4.804668e+01
<GCONST> 6.192932e+01
<MIXTURE> 11 6.283187e-02
<MEAN> 13
 -1.098221e+01 1.082810e+00 2.290656e+00 9.814480e-01 2.726955e+00 1.142612e+00 3.325902e+00 -9.913157e-01 1.648273e+00 -2.327665e-02 3.295280e+00 -5.265453e-01 5.594961e+01
<VARIANCE> 13
 1.413292e+01 9.047992e+00 9.627810e+00 1.020271e+01 1.398997e+01 2.209538e+01 2.615936e+01 2.209258e+01 2.864888e+01 3.096820e+01 1.973608e+01 1.750882e+01 4.804668e+01
<GCONST> 6.192932e+01
<MIXTURE> 12 8.302272e-02
<MEAN> 13
 -1.191592e+01 -2.795622e-01 9.355061e-02 -9.910251e-01 1.146370e-01 -1.825025e+00 2.309684e+00 -2.175309e+00 -2.476325e-01 5.558673e-01 2.691956e+00 -1.446915e+00 5.864067e+01
<VARIANCE> 13
 1.857646e+01 8.450007e+00 9.082921e+00 1.157456e+01 1.613215e+01 1.443155e+01 2.282480e+01 2.424285e+01 2.138599e+01 1.967371e+01 1.756479e+01 1.666744e+01 5.614198e+01
<GCONST> 6.111913e+01
<MIXTURE> 13 6.283183e-02
<MEAN> 13
 -1.098221e+01 1.082810e+00 2.290655e+00 9.814489e-01 2.726955e+00 1.142609e+00 3.325903e+00 -9.913163e-01 1.648270e+00 -2.327459e-02 3.295279e+00 -5.265461e-01 5.594961e+01
<VARIANCE> 13
 1.413292e+01 9.047990e+00 9.627800e+00 1.020270e+01 1.398997e+01 2.209535e+01 2.615932e+01 2.209255e+01 2.864884e+01 3.096816e+01 1.973606e+01 1.750882e+01 4.804668e+01
<GCONST> 6.192931e+01
<MIXTURE> 14 8.302272e-02
<MEAN> 13
 -1.191592e+01 -2.795622e-01 9.355061e-02 -9.910251e-01 1.146370e-01 -1.825025e+00 2.309684e+00 -2.175309e+00 -2.476325e-01 5.558673e-01 2.691956e+00 -1.446915e+00 5.864067e+01
<VARIANCE> 13
 1.857646e+01 8.450007e+00 9.082921e+00 1.157456e+01 1.613215e+01 1.443155e+01 2.282480e+01 2.424285e+01 2.138599e+01 1.967371e+01 1.756479e+01 1.666744e+01 5.614198e+01
<GCONST> 6.111913e+01
<MIXTURE> 15 8.302270e-02
<MEAN> 13
 -1.191592e+01 -2.795619e-01 9.355073e-02 -9.910247e-01 1.146382e-01 -1.825024e+00 2.309683e+00 -2.175309e+00 -2.476315e-01 5.558671e-01 2.691955e+00 -1.446916e+00 5.864067e+01
<VARIANCE> 13
 1.857645e+01 8.449996e+00 9.082918e+00 1.157456e+01 1.613214e+01 1.443154e+01 2.282478e+01 2.424284e+01 2.138599e+01 1.967371e+01 1.756479e+01 1.666742e+01 5.614195e+01
<GCONST> 6.111911e+01
<MIXTURE> 16 7.522598e-02
<MEAN> 13
 -1.555670e+01 -1.596635e+00 -2.625729e+00 -3.910697e+00 -4.101369e+00 -4.606351e+00 2.383523e+00 -2.137096e+00 -7.474008e-01 1.566119e+00 3.037068e+00 -6.393559e-01 6.354080e+01
<VARIANCE> 13
 3.237024e+01 1.702668e+01 1.510270e+01 1.729011e+01 2.683880e+01 2.307083e+01 4.704868e+01 4.208170e+01 3.044828e+01 3.104337e+01 2.571671e+01 2.279316e+01 1.802738e+02
<GCONST> 6.820815e+01
<STATE> 3
<NUMMIXES> 16
<MIXTURE> 1 6.957209e-02
<MEAN> 13
 -4.335627e+00 3.638766e+00 4.422935e+00 3.816640e+00 7.115690e+00 7.223111e+00 8.469321e+00 4.159382e+00 2.694734e+00 1.472127e+00 1.177319e+00 -2.559575e+00 5.006298e+01
<VARIANCE> 13
 6.994041e+00 7.829555e+00 1.227096e+01 6.638299e+00 1.037986e+01 1.107170e+01 1.212932e+01 1.291406e+01 1.424467e+01 1.236082e+01 1.529823e+01 1.186151e+01 1.355287e+01
<GCONST> 5.507220e+01
<MIXTURE> 2 5.114064e-02
<MEAN> 13
 -6.072733e+00 2.596109e+00 1.766244e+00 1.140512e+00 3.041696e+00 3.881025e+00 5.974294e+00 2.906418e+00 2.458749e+00 2.571358e+00 2.436546e+00 -1.544552e+00 4.826794e+01
<VARIANCE> 13
 8.402315e+00 5.462347e+00 9.295316e+00 7.719308e+00 1.366137e+01 1.282766e+01 1.342315e+01 1.523666e+01 1.550639e+01 1.405316e+01 1.414796e+01 1.152947e+01 9.383731e+00
<GCONST> 5.519644e+01
<MIXTURE> 3 5.114064e-02
<MEAN> 13
 -6.072733e+00 2.596109e+00 1.766244e+00 1.140512e+00 3.041696e+00 3.881025e+00 5.974294e+00 2.906418e+00 2.458749e+00 2.571358e+00 2.436546e+00 -1.544552e+00 4.826794e+01
<VARIANCE> 13
 8.402315e+00 5.462347e+00 9.295316e+00 7.719308e+00 1.366137e+01 1.282766e+01 1.342315e+01 1.523666e+01 1.550639e+01 1.405316e+01 1.414796e+01 1.152947e+01 9.383731e+00
<GCONST> 5.519644e+01
<MIXTURE> 4 7.144564e-02
<MEAN> 13
 -6.079490e+00 2.189342e+00 3.000537e-01 -8.467038e-01 2.025128e-01 1.741870e+00 3.609354e+00 1.671618e+00 1.203751e+00 1.911932e+00 1.620766e+00 -2.169462e+00 4.714285e+01
<VARIANCE> 13
 7.563288e+00 4.102309e+00 7.765292e+00 8.503089e+00 1.388616e+01 1.239453e+01 1.312385e+01 1.586836e+01 1.526470e+01 1.608830e+01 1.390555e+01 1.218451e+01 6.605301e+00
<GCONST> 5.452822e+01
<MIXTURE> 5 5.114064e-02
<MEAN> 13
 -6.072733e+00 2.596109e+00 1.766244e+00 1.140512e+00 3.041696e+00 3.881025e+00 5.974294e+00 2.906418e+00 2.458749e+00 2.571358e+00 2.436546e+00 -1.544552e+00 4.826794e+01
<VARIANCE> 13
 8.402315e+00 5.462347e+00 9.295316e+00 7.719308e+00 1.366137e+01 1.282766e+01 1.342315e+01 1.523666e+01 1.550639e+01 1.405316e+01 1.414796e+01 1.152947e+01 9.383731e+00
<GCONST> 5.519644e+01
<MIXTURE> 6 7.144564e-02
<MEAN> 13
 -6.079490e+00 2.189342e+00 3.000537e-01 -8.467038e-01 2.025128e-01 1.741870e+00 3.609354e+00 1.671618e+00 1.203751e+00 1.911932e+00 1.620766e+00 -2.169462e+00 4.714285e+01
<VARIANCE> 13
 7.563288e+00 4.102309e+00 7.765292e+00 8.503089e+00 1.388616e+01 1.239453e+01 1.312385e+01 1.586836e+01 1.526470e+01 1.608830e+01 1.390555e+01 1.218451e+01 6.605301e+00
<GCONST> 5.452822e+01
<MIXTURE> 7 7.144564e-02
<MEAN> 13
 -6.079490e+00 2.189342e+00 3.000537e-01 -8.467038e-01 2.025128e-01 1.741870e+00 3.609354e+00 1.671618e+00 1.203751e+00 1.911932e+00 1.620766e+00 -2.169462e+00 4.714285e+01
<VARIANCE> 13
 7.563288e+00 4.102309e+00 7.765292e+00 8.503089e+00 1.388616e+01 1.239453e+01 1.312385e+01 1.586836e+01 1.526470e+01 1.608830e+01 1.390555e+01 1.218451e+01 6.605301e+00
<GCONST> 5.452822e+01
<MIXTURE> 8 6.283265e-02
<MEAN> 13
 -5.676805e+00 1.405509e+00 -7.919928e-01 -2.642634e+00 -2.386858e+00 1.748904e-01 2.125660e+00 3.610824e-01 3.334642e-01 1.565373e+00 2.817087e-01 -3.380799e+00 4.735085e+01
<VARIANCE> 13
 7.984474e+00 5.243596e+00 9.543211e+00 1.128143e+01 1.644948e+01 1.533685e+01 1.712976e+01 2.130934e+01 1.824250e+01 2.068845e+01 1.837928e+01 1.505809e+01 7.045584e+00
<GCONST> 5.724528e+01
<MIXTURE> 9 5.114064e-02
<MEAN> 13
 -6.072733e+00 2.596109e+00 1.766244e+00 1.140512e+00 3.041696e+00 3.881025e+00 5.974294e+00 2.906418e+00 2.458749e+00 2.571358e+00 2.436546e+00 -1.544552e+00 4.826794e+01
<VARIANCE> 13
 8.402315e+00 5.462347e+00 9.295316e+00 7.719308e+00 1.366137e+01 1.282766e+01 1.342315e+01 1.523666e+01 1.550639e+01 1.405316e+01 1.414796e+01 1.152947e+01 9.383731e+00
<GCONST> 5.519644e+01
<MIXTURE> 10 7.144564e-02
<MEAN> 13
 -6.079490e+00 2.189342e+00 3.000537e-01 -8.467038e-01 2.025128e-01 1.741870e+00 3.609354e+00 1.671618e+00 1.203751e+00 1.911932e+00 1.620766e+00 -2.169462e+00 4.714285e+01
<VARIANCE> 13
 7.563288e+00 4.102309e+00 7.765292e+00 8.503089e+00 1.388616e+01 1.239453e+01 1.312385e+01 1.586836e+01 1.526470e+01 1.608830e+01 1.390555e+01 1.218451e+01 6.605301e+00
<GCONST> 5.452822e+01
<MIXTURE> 11 7.144596e-02
<MEAN> 13
 -6.079490e+00 2.189343e+00 3.000538e-01 -8.467034e-01 2.025151e-01 1.741869e+00 3.609354e+00 1.671618e+00 1.203750e+00 1.911931e+00 1.620766e+00 -2.169462e+00 4.714285e+01
<VARIANCE> 13
 7.563284e+00 4.102304e+00 7.765290e+00 8.503076e+00 1.388615e+01 1.239453e+01 1.312383e+01 1.586834e+01 1.526467e+01 1.608826e+01 1.390551e+01 1.218450e+01 6.605299e+00
<GCONST> 5.452820e+01
<MIXTURE> 12 6.283265e-02
<MEAN> 13
 -5.676805e+00 1.405509e+00 -7.919928e-01 -2.642634e+00 -2.386858e+00 1.748904e-01 2.125660e+00 3.610824e-01 3.334642e-01 1.565373e+00 2.817087e-01 -3.380799e+00 4.735085e+01
<VARIANCE> 13
 7.984474e+00 5.243596e+00 9.543211e+00 1.128143e+01 1.644948e+01 1.533685e+01 1.712976e+01 2.130934e+01 1.824250e+01 2.068845e+01 1.837928e+01 1.505809e+01 7.045584e+00
<GCONST> 5.724528e+01
<MIXTURE> 13 7.144606e-02
<MEAN> 13
 -6.079492e+00 2.189342e+00 3.000540e-01 -8.467035e-01 2.025157e-01 1.741869e+00 3.609354e+00 1.671618e+00 1.203750e+00 1.911930e+00 1.620766e+00 -2.169462e+00 4.714285e+01
<VARIANCE> 13
 7.563288e+00 4.102306e+00 7.765286e+00 8.503076e+00 1.388615e+01 1.239452e+01 1.312383e+01 1.586835e+01 1.526470e+01 1.608826e+01 1.390551e+01 1.218450e+01 6.605298e+00
<GCONST> 5.452821e+01
<MIXTURE> 14 6.283265e-02
<MEAN> 13
 -5.676805e+00 1.405509e+00 -7.919928e-01 -2.642634e+00 -2.386858e+00 1.748904e-01 2.125660e+00 3.610824e-01 3.334642e-01 1.565373e+00 2.817087e-01 -3.380799e+00 4.735085e+01
<VARIANCE> 13
 7.984474e+00 5.243596e+00 9.543211e+00 1.128143e+01 1.644948e+01 1.533685e+01 1.712976e+01 2.130934e+01 1.824250e+01 2.068845e+01 1.837928e+01 1.505809e+01 7.045584e+00
<GCONST> 5.724528e+01
<MIXTURE> 15 6.283283e-02
<MEAN> 13
 -5.676805e+00 1.405509e+00 -7.919924e-01 -2.642635e+00 -2.386859e+00 1.748911e-01 2.125661e+00 3.610829e-01 3.334663e-01 1.565376e+00 2.817080e-01 -3.380800e+00 4.735085e+01
<VARIANCE> 13
 7.984481e+00 5.243598e+00 9.543220e+00 1.128145e+01 1.644947e+01 1.533687e+01 1.712977e+01 2.130938e+01 1.824251e+01 2.068847e+01 1.837929e+01 1.505808e+01 7.045578e+00
<GCONST> 5.724529e+01
<MIXTURE> 16 4.586567e-02
<MEAN> 13
 -5.635731e+00 -6.323553e-01 -2.276520e+00 -4.465506e+00 -4.823773e+00 -1.720842e+00 7.951056e-01 -5.872712e-01 6.149256e-01 2.051433e+00 -6.742046e-01 -4.854360e+00 4.966142e+01
<VARIANCE> 13
 9.221062e+00 1.407356e+01 1.417774e+01 1.752305e+01 1.922171e+01 2.150108e+01 2.397980e+01 2.293912e+01 1.940302e+01 2.407537e+01 2.741330e+01 1.744792e+01 1.531425e+01
<GCONST> 6.165322e+01
<STATE> 4
<NUMMIXES> 16
<MIXTURE> 1 2.800165e-02
<MEAN> 13
 -1.637514e+01 -1.000123e+00 1.355105e+00 -2.191909e+00 -9.394287e-02 6.272125e+00 5.699211e+00 3.139609e+00 2.494153e+00 3.018555e+00 4.796456e+00 2.735164e-01 5.908703e+01
<VARIANCE> 13
 8.645577e+01 1.072392e+01 1.870996e+01 1.923442e+01 2.111334e+01 3.181869e+01 2.429164e+01 2.270176e+01 1.823233e+01 1.963843e+01 1.499913e+01 1.413810e+01 3.020642e+01
<GCONST> 6.407841e+01
<MIXTURE> 2 6.197099e-02
<MEAN> 13
 -1.040414e+01 -1.553522e+00 -1.391099e+00 -2.686064e+00 1.445791e+00 5.123979e+00 5.372858e+00 2.038906e+00 9.376429e-01 2.024567e+00 3.097479e+00 -1.242874e+00 5.495580e+01
<VARIANCE> 13
 6.725786e+01 9.183015e+00 1.355888e+01 1.103598e+01 1.506160e+01 2.284406e+01 1.519924e+01 1.611145e+01 1.488152e+01 1.535452e+01 1.287439e+01 1.179049e+01 2.093017e+01
<GCONST> 6.016336e+01
<MIXTURE> 3 6.197099e-02
<MEAN> 13
 -1.040414e+01 -1.553522e+00 -1.391099e+00 -2.686064e+00 1.445791e+00 5.123979e+00 5.372858e+00 2.038906e+00 9.376429e-01 2.024567e+00 3.097479e+00 -1.242874e+00 5.495580e+01
<VARIANCE> 13
 6.725786e+01 9.183015e+00 1.355888e+01 1.103598e+01 1.506160e+01 2.284406e+01 1.519924e+01 1.611145e+01 1.488152e+01 1.535452e+01 1.287439e+01 1.179049e+01 2.093017e+01
<GCONST> 6.016336e+01
<MIXTURE> 4 7.972272e-02
<MEAN> 13
 -7.004067e+00 -2.794896e+00 -2.989398e+00 -3.266434e+00 8.085771e-01 2.454962e+00 4.052574e+00 3.497265e-01 -6.096139e-01 8.720201e-01 1.487001e+00 -2.420373e+00 5.354151e+01
<VARIANCE> 13
 3.176576e+01 9.111153e+00 9.486148e+00 1.006092e+01 1.299072e+01 1.798336e+01 1.582791e+01 1.655638e+01 1.574300e+01 1.537003e+01 1.390079e+01 1.287044e+01 1.293574e+01
<GCONST> 5.837670e+01
<MIXTURE> 5 6.197099e-02
<MEAN> 13
 -1.040414e+01 -1.553522e+00 -1.391099e+00 -2.686064e+00 1.445791e+00 5.123979e+00 5.372858e+00 2.038906e+00 9.376429e-01 2.024567e+00 3.097479e+00 -1.242874e+00 5.495580e+01
<VARIANCE> 13
 6.725786e+01 9.183015e+00 1.355888e+01 1.103598e+01 1.506160e+01 2.284406e+01 1.519924e+01 1.611145e+01 1.488152e+01 1.535452e+01 1.287439e+01 1.179049e+01 2.093017e+01
<GCONST> 6.016336e+01
<MIXTURE> 6 7.972272e-02
<MEAN> 13
 -7.004067e+00 -2.794896e+00 -2.989398e+00 -3.266434e+00 8.085771e-01 2.454962e+00 4.052574e+00 3.497265e-01 -6.096139e-01 8.720201e-01 1.487001e+00 -2.420373e+00 5.354151e+01
<VARIANCE> 13
 3.176576e+01 9.111153e+00 9.486148e+00 1.006092e+01 1.299072e+01 1.798336e+01 1.582791e+01 1.655638e+01 1.574300e+01 1.537003e+01 1.390079e+01 1.287044e+01 1.293574e+01
<GCONST> 5.837670e+01
<MIXTURE> 7 7.972272e-02
<MEAN> 13
 -7.004067e+00 -2.794896e+00 -2.989398e+00 -3.266434e+00 8.085771e-01 2.454962e+00 4.052574e+00 3.497265e-01 -6.096139e-01 8.720201e-01 1.487001e+00 -2.420373e+00 5.354151e+01
<VARIANCE> 13
 3.176576e+01 9.111153e+00 9.486148e+00 1.006092e+01 1.299072e+01 1.798336e+01 1.582791e+01 1.655638e+01 1.574300e+01 1.537003e+01 1.390079e+01 1.287044e+01 1.293574e+01
<GCONST> 5.837670e+01
<MIXTURE> 8 4.865520e-02
<MEAN> 13
 -7.840546e+00 -4.392430e+00 -2.764364e+00 -5.035564e+00 -1.880273e+00 -5.649943e-01 9.622728e-01 -1.135566e+00 -1.373492e+00 -5.356667e-01 3.343390e-01 -2.940098e+00 5.661559e+01
<VARIANCE> 13
 4.426120e+01 1.790902e+01 1.284542e+01 1.689679e+01 1.690006e+01 2.433936e+01 2.171242e+01 2.218905e+01 2.191236e+01 1.963320e+01 1.836558e+01 1.733548e+01 2.620130e+01
<GCONST> 6.323814e+01
<MIXTURE> 9 6.197099e-02
<MEAN> 13
 -1.040414e+01 -1.553522e+00 -1.391099e+00 -2.686064e+00 1.445791e+00 5.123979e+00 5.372858e+00 2.038906e+00 9.376429e-01 2.024567e+00 3.097479e+00 -1.242874e+00 5.495580e+01
<VARIANCE> 13
 6.725786e+01 9.183015e+00 1.355888e+01 1.103598e+01 1.506160e+01 2.284406e+01 1.519924e+01 1.611145e+01 1.488152e+01 1.535452e+01 1.287439e+01 1.179049e+01 2.093017e+01
<GCONST> 6.016336e+01
<MIXTURE> 10 7.972272e-02
<MEAN> 13
 -7.004067e+00 -2.794896e+00 -2.989398e+00 -3.266434e+00 8.085771e-01 2.454962e+00 4.052574e+00 3.497265e-01 -6.096139e-01 8.720201e-01 1.487001e+00 -2.420373e+00 5.354151e+01
<VARIANCE> 13
 3.176576e+01 9.111153e+00 9.486148e+00 1.006092e+01 1.299072e+01 1.798336e+01 1.582791e+01 1.655638e+01 1.574300e+01 1.537003e+01 1.390079e+01 1.287044e+01 1.293574e+01
<GCONST> 5.837670e+01
<MIXTURE> 11 7.972272e-02
<MEAN> 13
