~o
<STREAMINFO> 1 13
<VECSIZE> 13<NULLD><MFCC_0><DIAGC>
~h "ap"
<BEGINHMM>
<NUMSTATES> 5
<STATE> 2
<MEAN> 13
 -3.878844e+00 -4.362039e+00 -3.498171e+00 -3.117566e+00 1.335752e+00 3.449908e+00 3.617684e+00 7.020891e-02 -1.200103e+00 7.524593e-01 1.163272e+00 -2.541164e+00 5.054070e+01
<VARIANCE> 13
 8.225085e+00 6.450568e+00 8.051746e+00 9.543613e+00 1.355622e+01 1.839180e+01 1.971136e+01 1.710134e+01 1.552817e+01 1.528602e+01 1.384518e+01 1.547160e+01 6.514711e+00
<GCONST> 5.625522e+01
<STATE> 3
<MEAN> 13
 -6.293383e+00 2.077692e-01 -2.007425e+00 -1.300323e+00 8.310733e-01 2.950372e+00 4.377658e+00 1.886102e+00 1.206547e-02 1.504156e+00 8.797089e-01 -1.858002e+00 4.725829e+01
<VARIANCE> 13
 1.030017e+01 1.032057e+01 6.702292e+00 8.296916e+00 1.100084e+01 1.441630e+01 1.350262e+01 1.331430e+01 1.268093e+01 1.371893e+01 1.214178e+01 1.121519e+01 1.164154e+01
<GCONST> 5.536246e+01
<STATE> 4
<MEAN> 13
 -1.057916e+01 -1.144854e+01 -5.208138e+00 1.196097e+00 3.710499e-01 -5.007784e+00 1.860003e+00 -2.174580e+00 -3.767846e+00 -1.403567e+00 6.686406e-01 -1.546791e+00 6.146714e+01
<VARIANCE> 13
 2.406214e+01 5.907664e+01 3.462513e+01 2.456882e+01 3.477800e+01 3.746304e+01 2.540312e+01 3.020017e+01 2.399469e+01 2.197458e+01 1.786583e+01 1.527142e+01 1.443090e+02
<GCONST> 6.856154e+01
<TRANSP> 5
 0.000000e+00 1.000000e+00 0.000000e+00 0.000000e+00 0.000000e+00
 0.000000e+00 9.799890e-01 2.001104e-02 0.000000e+00 0.000000e+00
 0.000000e+00 0.000000e+00 9.887026e-01 1.129736e-02 0.000000e+00
 0.000000e+00 0.000000e+00 0.000000e+00 9.963557e-01 3.644305e-03
 0.000000e+00 0.000000e+00 0.000000e+00 0.000000e+00 0.000000e+00
<ENDHMM>
~h "cl"
<BEGINHMM>
<NUMSTATES> 5
<STATE> 2
<MEAN> 13
 -1.033171e+01 -6.783595e+00 2.340850e+00 -4.722442e+00 2.684934e+00 -1.241004e+00 7.516419e-01 3.227921e+00 -4.244117e-01 -3.301590e+00 -6.594748e-01 -1.155640e+00 5.541562e+01
<VARIANCE> 13
 6.566161e+01 2.670094e+01 4.952375e+01 5.119111e+01 8.841249e+01 6.143338e+01 4.987012e+01 7.272616e+01 5.188246e+01 7.697985e+01 7.395596e+01 9.580228e+01 4.783264e+01
<GCONST> 7.702171e+01
<STATE> 3
<MEAN> 13
 -1.582512e+01 1.908323e+00 -1.730007e+00 -5.130328e+00 -3.090295e+00 1.137846e+01 5.737853e-01 -3.645960e+00 6.602355e+00 -2.468379e+00 -2.578244e+00 4.631837e+00 5.741709e+01
<VARIANCE> 13
 4.914413e+01 1.437186e+01 1.144566e+01 1.195843e+01 1.959608e+01 3.170628e+01 2.827575e+01 2.530814e+01 2.719988e+01 1.967920e+01 1.947830e+01 2.284777e+01 1.869700e+01
<GCONST> 6.368575e+01
<STATE> 4
<MEAN> 13
 -2.033697e+01 1.101396e+00 6.103082e+00 -3.202274e+00 -6.008773e+00 9.607155e+00 1.575508e+00 -6.037549e+00 2.847511e+00 4.047286e+00 -1.047658e+01 4.366881e+00 5.618414e+01
<VARIANCE> 13
 6.030748e+01 9.256518e+00 1.772624e+01 1.730913e+01 2.972824e+01 3.666187e+01 2.793814e+01 5.114722e+01 3.404021e+01 2.884936e+01 3.760942e+01 3.152682e+01 4.562213e+01
<GCONST> 6.799013e+01
<TRANSP> 5
 0.000000e+00 1.000000e+00 0.000000e+00 0.000000e+00 0.000000e+00
 0.000000e+00 9.767593e-01 2.324066e-02 0.000000e+00 0.000000e+00
 0.000000e+00 0.000000e+00 9.837303e-01 1.626975e-02 0.000000e+00
 0.000000e+00 0.000000e+00 0.000000e+00 9.945289e-01 5.471047e-03
 0.000000e+00 0.000000e+00 0.000000e+00 0.000000e+00 0.000000e+00
<ENDHMM>
~h "cm"
<BEGINHMM>
<NUMSTATES> 5
<STATE> 2
<MEAN> 13
 -8.646132e+00 -5.392718e-01 -2.684496e+00 -3.946394e+00 -7.087382e-01 -1.154900e+00 -2.314765e+00 -2.116012e+00 -3.561064e+00 -1.530324e+00 -1.746600e-01 -1.982328e+00 6.361831e+01
<VARIANCE> 13
 2.468567e+01 1.386896e+01 1.188929e+01 1.377592e+01 1.431155e+01 1.589552e+01 1.760727e+01 1.894265e+01 1.895438e+01 1.784916e+01 1.922287e+01 1.517767e+01 5.901106e+01
<GCONST> 6.164132e+01
<STATE> 3
<MEAN> 13
 -7.898540e+00 1.906171e+00 1.858577e-02 -2.002860e+00 8.765690e-01 3.543085e-01 1.638094e+00 9.698373e-01 -6.927825e-01 -1.536826e-01 6.152753e-01 -2.386571e+00 4.938006e+01
<VARIANCE> 13
 1.362795e+01 8.337687e+00 8.100024e+00 1.240313e+01 1.296574e+01 1.503261e+01 1.673681e+01 1.822225e+01 1.708901e+01 1.554259e+01 1.432926e+01 1.303543e+01 1.711358e+01
<GCONST> 5.787978e+01
<STATE> 4
<MEAN> 13
 -7.337989e+00 -2.286390e+00 -2.655511e+00 -4.144659e+00 -7.830978e-01 6.569753e-01 2.623060e+00 4.516899e-01 -4.501388e-01 6.035836e-01 8.372597e-01 -2.453416e+00 5.373670e+01
<VARIANCE> 13
 1.776149e+01 1.476544e+01 1.310793e+01 1.603399e+01 1.777440e+01 2.173462e+01 1.879419e+01 1.829317e+01 1.788570e+01 1.722566e+01 1.564132e+01 1.478580e+01 2.586040e+01
<GCONST> 6.103310e+01
<TRANSP> 5
 0.000000e+00 1.000000e+00 0.000000e+00 0.000000e+00 0.000000e+00
 0.000000e+00 9.900855e-01 9.914479e-03 0.000000e+00 0.000000e+00
 0.000000e+00 0.000000e+00 9.871657e-01 1.283425e-02 0.000000e+00
 0.000000e+00 0.000000e+00 0.000000e+00 9.945019e-01 5.498057e-03
 0.000000e+00 0.000000e+00 0.000000e+00 0.000000e+00 0.000000e+00
<ENDHMM>
~h "co"
<BEGINHMM>
<NUMSTATES> 5
<STATE> 2
<MEAN> 13
 -5.903409e+00 -6.075029e+00 1.464842e-02 -7.888787e-01 -6.711423e+00 -6.599068e+00 -6.768339e+00 -5.328758e+00 -3.791685e+00 -5.355312e+00 -4.562866e+00 -8.920838e+00 6.562605e+01
<VARIANCE> 13
 1.621768e+01 1.458216e+01 2.550388e+01 2.615463e+01 4.829762e+01 4.345781e+01 5.761166e+01 5.627133e+01 4.322379e+01 4.162028e+01 4.065145e+01 3.763051e+01 6.413277e+01
<GCONST> 7.058303e+01
<STATE> 3
<MEAN> 13
 -2.847523e+00 -2.581852e+00 3.279190e+00 1.414645e+00 -1.221896e-01 -2.078210e+00 -2.045150e+00 -5.443182e+00 -4.025148e+00 -2.077927e+00 -1.893791e+00 -6.374543e+00 5.344617e+01
<VARIANCE> 13
 1.204672e+01 1.943533e+01 2.348042e+01 2.753089e+01 2.756938e+01 2.843360e+01 3.210649e+01 4.870422e+01 3.051064e+01 2.888255e+01 2.382977e+01 2.230321e+01 3.836305e+01
<GCONST> 6.654295e+01
<STATE> 4
<MEAN> 13
 -5.458877e+00 1.412786e+00 9.265321e-01 -1.812979e+00 2.396831e+00 2.320395e+00 2.377215e+00 3.503295e+00 -5.232206e-01 3.601134e-01 7.722774e-01 -2.806658e+00 4.417451e+01
<VARIANCE> 13
 6.536010e+00 8.474424e+00 9.833690e+00 1.011358e+01 1.462208e+01 1.483071e+01 1.488663e+01 1.724038e+01 1.581413e+01 1.583972e+01 1.437518e+01 1.311948e+01 7.992955e+00
<GCONST> 5.627501e+01
<TRANSP> 5
 0.000000e+00 1.000000e+00 0.000000e+00 0.000000e+00 0.000000e+00
 0.000000e+00 9.874058e-01 1.259424e-02 0.000000e+00 0.000000e+00
 0.000000e+00 0.000000e+00 9.764433e-01 2.355664e-02 0.000000e+00
 0.000000e+00 0.000000e+00 0.000000e+00 9.962798e-01 3.720177e-03
 0.000000e+00 0.000000e+00 0.000000e+00 0.000000e+00 0.000000e+00
<ENDHMM>
~h "ds"
<BEGINHMM>
<NUMSTATES> 5
<STATE> 2
<MEAN> 13
 -1.012008e+01 2.427785e+00 3.362668e+00 2.979383e+00 4.185296e+00 1.441356e+00 4.982708e+00 -1.125798e+00 1.601643e+00 5.840821e-01 2.837833e+00 -5.349148e-01 5.948822e+01
<VARIANCE> 13
 1.880267e+01 1.235910e+01 1.599264e+01 1.679724e+01 2.214651e+01 2.214927e+01 2.170420e+01 2.211683e+01 1.991016e+01 1.899807e+01 1.881137e+01 1.647865e+01 7.950130e+01
<GCONST> 6.335133e+01
<STATE> 3
<MEAN> 13
 -6.650998e+00 1.449081e+00 6.362104e-01 -4.774188e-01 1.497309e+00 1.676546e+00 3.783510e+00 1.307872e+00 7.719913e-01 1.362349e+00 1.682062e+00 -2.219188e+00 4.870487e+01
<VARIANCE> 13
 1.125470e+01 7.392739e+00 8.941947e+00 1.061628e+01 1.774555e+01 1.746462e+01 1.782730e+01 1.939241e+01 1.761365e+01 1.746958e+01 1.564814e+01 1.332037e+01 1.496517e+01
<GCONST> 5.822326e+01
<STATE> 4
<MEAN> 13
 -9.415325e+00 -2.349752e+00 -1.750127e+00 -3.043803e+00 -9.569858e-02 1.150859e+00 3.264014e+00 -1.634339e-01 -2.751412e-01 8.708472e-01 1.868129e+00 -1.972637e+00 5.588812e+01
<VARIANCE> 13
 4.311580e+01 1.397917e+01 1.336249e+01 1.514872e+01 1.778065e+01 2.701469e+01 2.239586e+01 2.199340e+01 1.966207e+01 1.871213e+01 1.725742e+01 1.554159e+01 3.943068e+01
<GCONST> 6.315251e+01
<TRANSP> 5
 0.000000e+00 1.000000e+00 0.000000e+00 0.000000e+00 0.000000e+00
 0.000000e+00 9.831145e-01 1.688549e-02 0.000000e+00 0.000000e+00
 0.000000e+00 0.000000e+00 9.889939e-01 1.100605e-02 0.000000e+00
 0.000000e+00 0.000000e+00 0.000000e+00 9.946834e-01 5.316584e-03
 0.000000e+00 0.000000e+00 0.000000e+00 0.000000e+00 0.000000e+00
<ENDHMM>
~h "kj"
<BEGINHMM>
<NUMSTATES> 5
<STATE> 2
<MEAN> 13
 -2.158837e+01 3.148299e+00 1.282297e+00 -5.367671e+00 -4.652453e+00 1.208098e+01 1.184141e+00 -3.094665e+00 8.065001e+00 -3.880518e+00 -3.905081e+00 5.348317e+00 5.881108e+01
<VARIANCE> 13
 4.694901e+01 8.863007e+00 1.900421e+01 1.358483e+01 1.699610e+01 3.922148e+01 2.246384e+01 2.064366e+01 2.556716e+01 2.204387e+01 1.988086e+01 2.209883e+01 2.681859e+01
<GCONST> 6.382721e+01
<STATE> 3
<MEAN> 13
 -8.926767e+00 -4.482430e+00 -4.111074e+00 -1.299835e+00 -1.192706e+00 -6.735238e-02 2.453123e+00 -1.060658e+00 -5.986173e-01 6.142195e-01 1.823411e-01 -1.141811e+00 5.586851e+01
<VARIANCE> 13
 3.137665e+01 3.950222e+01 1.712983e+01 1.606820e+01 2.664062e+01 3.946207e+01 2.699843e+01 2.460804e+01 2.824379e+01 1.933099e+01 1.621807e+01 1.714294e+01 9.130199e+01
<GCONST> 6.653358e+01
<STATE> 4
<MEAN> 13
 -1.687066e+01 2.174545e+00 3.069171e-01 5.990885e-01 -1.743451e+00 4.209525e-01 3.970948e+00 8.675198e-01 -1.819147e+00 2.252519e+00 8.252431e-01 -2.149325e+00 5.358514e+01
<VARIANCE> 13
 6.530502e+01 2.979733e+01 1.817852e+01 2.134164e+01 1.738290e+01 2.431998e+01 3.280643e+01 2.302061e+01 2.144086e+01 2.508263e+01 1.672860e+01 1.728717e+01 3.819800e+01
<GCONST> 6.569794e+01
<TRANSP> 5
 0.000000e+00 1.000000e+00 0.000000e+00 0.000000e+00 0.000000e+00
 0.000000e+00 9.889982e-01 1.100180e-02 0.000000e+00 0.000000e+00
 0.000000e+00 0.000000e+00 9.926201e-01 7.379918e-03 0.000000e+00
 0.000000e+00 0.000000e+00 0.000000e+00 9.967104e-01 3.289662e-03
 0.000000e+00 0.000000e+00 0.000000e+00 0.000000e+00 0.000000e+00
<ENDHMM>
~h "kn"
<BEGINHMM>
<NUMSTATES> 5
<STATE> 2
<MEAN> 13
 -5.656240e+00 1.338171e+00 -5.056377e-01 -1.026867e+00 1.310012e+00 -1.669450e+00 2.081206e+00 -2.703676e+00 1.073857e+00 4.502115e-01 2.507700e+00 -1.286336e+00 5.821456e+01
<VARIANCE> 13
 5.494688e+01 1.329944e+01 1.838832e+01 1.456597e+01 1.932503e+01 2.414886e+01 2.849940e+01 2.601820e+01 2.661669e+01 2.307212e+01 1.927681e+01 2.122169e+01 7.248748e+01
<GCONST> 6.554873e+01
<STATE> 3
<MEAN> 13
 5.556911e+00 3.957377e-02 -2.035968e+00 1.587265e+00 5.263206e+00 4.056988e-02 1.987272e+00 -3.284026e+00 -1.150986e+00 -1.308859e+00 6.645780e-01 -2.226381e+00 5.848214e+01
<VARIANCE> 13
 1.079648e+01 2.068160e+01 1.543982e+01 1.222538e+01 1.830662e+01 2.367737e+01 2.037096e+01 2.375136e+01 2.204387e+01 1.947210e+01 1.629345e+01 1.737819e+01 3.947057e+01
<GCONST> 6.217842e+01
<STATE> 4
<MEAN> 13
 -3.704078e+00 9.588174e-01 -3.281906e-01 -2.046501e+00 -2.064793e+00 1.880838e+00 2.819392e+00 8.996869e-01 5.698390e-01 2.065974e+00 4.602069e-01 -2.883508e+00 4.634810e+01
<VARIANCE> 13
 1.013457e+01 8.379846e+00 1.204289e+01 1.142291e+01 2.413259e+01 1.628224e+01 1.995447e+01 2.353632e+01 1.940264e+01 2.088349e+01 1.932659e+01 1.537367e+01 1.234515e+01
<GCONST> 5.959568e+01
<TRANSP> 5
 0.000000e+00 1.000000e+00 0.000000e+00 0.000000e+00 0.000000e+00
 0.000000e+00 9.616170e-01 3.838299e-02 0.000000e+00 0.000000e+00
 0.000000e+00 0.000000e+00 9.870741e-01 1.292587e-02 0.000000e+00
 0.000000e+00 0.000000e+00 0.000000e+00 9.886736e-01 1.132641e-02
 0.000000e+00 0.000000e+00 0.000000e+00 0.000000e+00 0.000000e+00
<ENDHMM>
~h "kt"
<BEGINHMM>
<NUMSTATES> 5
<STATE> 2
<MEAN> 13
 -1.185120e+01 1.880020e+00 -2.873120e+00 -1.627316e-01 1.336201e-01 -2.654679e+00 1.741848e+00 3.154206e-01 -6.499879e-01 -8.404673e-01 -6.800293e-01 -1.456103e+00 5.497585e+01
<VARIANCE> 13
 1.225942e+01 1.413481e+01 8.895061e+00 1.350016e+01 1.438719e+01 1.671285e+01 1.929487e+01 2.071554e+01 2.044626e+01 1.987941e+01 1.773534e+01 1.478458e+01 2.402812e+01
<GCONST> 6.006462e+01
<STATE> 3
<MEAN> 13
 -9.030145e+00 2.606032e+00 -1.974900e+00 -1.507905e-01 1.186244e-01 9.520518e-02 3.298323e+00 1.792720e+00 5.382879e-01 4.023285e-01 4.151405e-01 -2.032431e+00 4.830378e+01
<VARIANCE> 13
 1.124973e+01 8.291786e+00 1.030489e+01 1.099410e+01 1.650536e+01 1.564701e+01 1.680966e+01 1.774790e+01 1.664063e+01 1.753822e+01 1.478465e+01 1.276864e+01 1.134261e+01
<GCONST> 5.775555e+01
<STATE> 4
<MEAN> 13
 -8.625167e+00 -2.867332e+00 -4.560918e+00 -2.311490e+00 1.419928e+00 2.137704e+00 4.428513e+00 2.934680e-01 -3.857608e-01 7.932109e-01 1.126739e+00 -1.552235e+00 5.396368e+01
<VARIANCE> 13
 2.435665e+01 1.154117e+01 8.978958e+00 9.935929e+00 1.200106e+01 1.907264e+01 1.606035e+01 1.673071e+01 1.607297e+01 1.486200e+01 1.381642e+01 1.267707e+01 2.303856e+01
<GCONST> 5.882778e+01
<TRANSP> 5
 0.000000e+00 1.000000e+00 0.000000e+00 0.000000e+00 0.000000e+00
 0.000000e+00 9.815525e-01 1.844755e-02 0.000000e+00 0.000000e+00
 0.000000e+00 0.000000e+00 9.960361e-01 3.963904e-03 0.000000e+00
 0.000000e+00 0.000000e+00 0.000000e+00 9.978315e-01 2.168568e-03
 0.000000e+00 0.000000e+00 0.000000e+00 0.000000e+00 0.000000e+00
<ENDHMM>
~h "pr"
<BEGINHMM>
<NUMSTATES> 5
<STATE> 2
<MEAN> 13
 -8.453623e+00 -4.984196e+00 2.433072e+00 -3.741112e+00 -2.042193e+00 2.106580e+00 3.225034e+00 3.160419e-01 8.797526e-01 3.337904e+00 3.109018e-01 -4.288895e+00 5.145814e+01
<VARIANCE> 13
 2.802329e+01 4.159212e+01 4.068795e+01 4.521679e+01 5.983729e+01 3.166410e+01 3.745758e+01 4.769120e+01 6.341864e+01 3.854254e+01 3.724839e+01 5.814933e+01 3.058917e+01
<GCONST> 7.240831e+01
<STATE> 3
<MEAN> 13
 -1.551217e+01 -9.712585e+00 2.778328e+00 -5.652570e+00 5.160525e+00 -3.314410e-01 4.807590e+00 4.640133e+00 -5.237769e-01 -2.939151e+00 4.160118e-01 3.209349e+00 5.814375e+01
<VARIANCE> 13
 3.604057e+01 3.280469e+01 3.836180e+01 4.453339e+01 8.219675e+01 1.181904e+02 6.451725e+01 7.427200e+01 5.460308e+01 3.977114e+01 7.394247e+01 6.791424e+01 2.392256e+01
<GCONST> 7.544658e+01
<STATE> 4
<MEAN> 13
 -1.580025e+01 2.936616e+00 1.325320e+01 -1.270135e+01 3.714886e+00 8.663470e+00 -3.859020e+00 -1.318260e+00 7.705739e+00 -3.499688e+00 -6.674541e+00 6.608236e+00 5.025585e+01
<VARIANCE> 13
 4.567051e+01 1.309523e+01 5.029108e+01 5.567326e+01 2.529741e+01 5.891525e+01 2.473310e+01 5.179389e+01 5.454200e+01 4.168113e+01 3.953825e+01 3.759222e+01 2.206087e+01
<GCONST> 7.081254e+01
<TRANSP> 5
 0.000000e+00 1.000000e+00 0.000000e+00 0.000000e+00 0.000000e+00
 0.000000e+00 9.623287e-01 3.767135e-02 0.000000e+00 0.000000e+00
 0.000000e+00 0.000000e+00 9.933871e-01 6.612870e-03 0.000000e+00
 0.000000e+00 0.000000e+00 0.000000e+00 9.926485e-01 7.351476e-03
 0.000000e+00 0.000000e+00 0.000000e+00 0.000000e+00 0.000000e+00
<ENDHMM>
~h "pw"
<BEGINHMM>
<NUMSTATES> 5
<STATE> 2
<MEAN> 13
 -1.416058e+01 -6.031819e+00 -1.829578e+00 -1.131454e+00 -1.493669e-01 -4.353307e+00 4.725799e-01 -2.766407e+00 -2.319552e+00 -6.538804e-02 4.027333e-02 -8.818557e-01 6.022239e+01
<VARIANCE> 13
 2.064523e+01 2.041825e+01 1.246623e+01 1.291203e+01 1.755036e+01 2.060754e+01 1.928239e+01 2.393499e+01 1.875427e+01 1.705320e+01 1.556781e+01 1.409697e+01 5.045780e+01
<GCONST> 6.212283e+01
<STATE> 3
<MEAN> 13
 -1.028216e+01 -1.024743e+01 -1.272855e+00 -2.475132e+00 8.131773e-01 -5.715880e+00 -1.917893e+00 -4.951141e+00 -1.242321e+00 -2.884550e+00 -3.596703e+00 -1.953995e+00 6.483831e+01
<VARIANCE> 13
 3.985944e+01 1.976484e+01 2.568557e+01 2.017555e+01 8.531973e+01 5.176147e+01 3.650544e+01 6.509701e+01 4.971590e+01 2.575546e+01 3.932827e+01 6.241374e+01 2.954064e+01
<GCONST> 7.132493e+01
<STATE> 4
<MEAN> 13
 -8.272601e+00 -5.026371e+00 -1.181062e+00 -2.102491e+00 -1.810238e+00 -2.909301e+00 1.915669e+00 -1.763734e+00 -2.292710e+00 1.060506e-01 -1.077783e-01 -3.024958e+00 5.655753e+01
<VARIANCE> 13
 2.824630e+01 3.171723e+01 2.249621e+01 1.740710e+01 4.827354e+01 2.554644e+01 6.144402e+01 4.279470e+01 2.955147e+01 2.114559e+01 1.861099e+01 2.278726e+01 5.374227e+01
<GCONST> 6.812409e+01
<TRANSP> 5
 0.000000e+00 1.000000e+00 0.000000e+00 0.000000e+00 0.000000e+00
 0.000000e+00 9.872250e-01 1.277505e-02 0.000000e+00 0.000000e+00
 0.000000e+00 0.000000e+00 9.422388e-01 5.776121e-02 0.000000e+00
 0.000000e+00 0.000000e+00 0.000000e+00 9.848011e-01 1.519893e-02
 0.000000e+00 0.000000e+00 0.000000e+00 0.000000e+00 0.000000e+00
<ENDHMM>
~h "si"
<BEGINHMM>
<NUMSTATES> 5
<STATE> 2
<MEAN> 13
 -9.952273e+00 3.824666e-01 2.730333e+00 1.089911e-01 2.133053e+00 -5.709679e-02 1.819066e+00 -1.992185e+00 7.190055e-03 -1.286968e+00 1.800319e+00 -9.500272e-01 5.579953e+01
<VARIANCE> 13
 2.193334e+01 2.330047e+01 2.136457e+01 2.147190e+01 2.781689e+01 3.025068e+01 3.113181e+01 2.292134e+01 3.430309e+01 3.064277e+01 2.317596e+01 1.954890e+01 6.795522e+01
<GCONST> 6.685534e+01
<STATE> 3
<MEAN> 13
 -5.594001e+00 2.940472e+00 4.483404e+00 -1.892156e-02 3.216565e+00 2.384992e+00 2.430068e+00 8.199370e-01 -1.411950e+00 -3.627466e-01 -4.538832e-01 -2.537379e+00 4.604026e+01
<VARIANCE> 13
 1.397974e+01 1.112376e+01 1.255270e+01 1.420312e+01 2.625041e+01 2.178095e+01 2.364274e+01 3.003835e+01 1.915873e+01 2.538908e+01 1.984920e+01 1.539981e+01 1.334257e+01
<GCONST> 6.153729e+01
<STATE> 4
<MEAN> 13
 -8.307421e+00 1.216047e+00 1.184488e+00 -1.725185e+00 2.122764e+00 8.032585e-01 2.262338e+00 2.635280e+00 -3.770381e-01 2.853104e-01 9.411621e-01 -2.008179e+00 4.654556e+01
<VARIANCE> 13
 1.713775e+01 1.147691e+01 8.688996e+00 1.199302e+01 1.422534e+01 1.668653e+01 1.579766e+01 1.968588e+01 1.626985e+01 1.579434e+01 1.426452e+01 1.353613e+01 2.428649e+01
<GCONST> 5.903182e+01
<TRANSP> 5
 0.000000e+00 1.000000e+00 0.000000e+00 0.000000e+00 0.000000e+00
 0.000000e+00 9.612053e-01 3.879465e-02 0.000000e+00 0.000000e+00
 0.000000e+00 0.000000e+00 9.460216e-01 5.397845e-02 0.000000e+00
 0.000000e+00 0.000000e+00 0.000000e+00 9.966978e-01 3.302177e-03
 0.000000e+00 0.000000e+00 0.000000e+00 0.000000e+00 0.000000e+00
<ENDHMM>
~h "st"
<BEGINHMM>
<NUMSTATES> 5
<STATE> 2
<MEAN> 13
 -7.305186e+00 -1.101123e+00 -2.692225e+00 -5.828919e+00 -2.115487e+00 -2.740465e+00 -2.845626e+00 -2.322330e+00 -3.487673e+00 -2.145050e+00 -1.180038e+00 -2.781249e+00 6.844279e+01
<VARIANCE> 13
 1.597366e+01 1.264545e+01 1.247471e+01 1.564486e+01 1.592541e+01 1.571605e+01 2.101320e+01 1.883377e+01 1.883220e+01 1.714149e+01 1.798969e+01 1.460141e+01 6.199906e+01
<GCONST> 6.145300e+01
<STATE> 3
<MEAN> 13
 -1.205299e+01 1.976669e+00 1.546432e+00 1.133425e+00 1.017299e+00 -8.005187e-01 1.863932e+00 -2.606545e+00 7.998086e-01 5.137299e-01 1.868230e+00 -7.172854e-01 6.640685e+01
<VARIANCE> 13
 3.082818e+01 2.080427e+01 1.479471e+01 2.021918e+01 2.132816e+01 1.707462e+01 2.008409e+01 1.717679e+01 2.291933e+01 2.097092e+01 1.921983e+01 1.394558e+01 1.574176e+02
<GCONST> 6.462312e+01
<STATE> 4
<MEAN> 13
 -7.789660e+00 -6.015217e+00 -9.962656e-01 -5.572622e+00 -1.209487e+00 -3.141681e+00 -7.555175e-01 -3.350573e+00 -1.978559e+00 -1.743184e+00 -1.306704e+00 -1.401634e+00 6.021452e+01
<VARIANCE> 13
 4.441620e+01 4.715100e+01 4.294295e+01 6.038615e+01 2.994303e+01 5.519296e+01 3.952574e+01 3.626789e+01 3.615515e+01 2.683615e+01 4.215818e+01 2.280645e+01 9.039856e+01
<GCONST> 7.232828e+01
<TRANSP> 5
 0.000000e+00 1.000000e+00 0.000000e+00 0.000000e+00 0.000000e+00
 0.000000e+00 9.766149e-01 2.338512e-02 0.000000e+00 0.000000e+00
 0.000000e+00 0.000000e+00 8.888739e-01 1.111260e-01 0.000000e+00
 0.000000e+00 0.000000e+00 0.000000e+00 9.142059e-01 8.579406e-02
 0.000000e+00 0.000000e+00 0.000000e+00 0.000000e+00 0.000000e+00
<ENDHMM>
~h "spe"
<BEGINHMM>
<NUMSTATES> 5
<STATE> 2
<MEAN> 13
 -4.765558e+00 -4.146288e+00 -3.363043e+00 -3.929232e+00 6.547170e-01 2.923551e+00 4.961121e+00 1.167876e+00 -3.744682e-01 1.110932e+00 1.031894e+00 -3.204175e+00 5.168615e+01
<VARIANCE> 13
 2.255120e+01 1.436757e+01 1.095083e+01 1.513948e+01 2.220432e+01 2.325727e+01 2.232685e+01 1.996679e+01 1.891326e+01 1.714874e+01 1.759207e+01 1.600004e+01 2.029465e+01
<GCONST> 6.156284e+01
<STATE> 3
<MEAN> 13
 -2.018441e+00 -3.488618e+00 2.350325e-01 -5.262029e+00 -3.577386e+00 -1.147519e+00 -3.408222e-01 -1.461115e+00 -1.838191e+00 -3.628155e-01 -1.057285e+00 -5.690957e+00 5.504525e+01
<VARIANCE> 13
 2.932198e+01 3.060418e+01 4.152701e+01 3.453496e+01 4.589527e+01 4.153221e+01 4.591367e+01 3.881322e+01 3.224982e+01 3.136648e+01 3.643142e+01 2.767270e+01 2.362161e+01
<GCONST> 6.999584e+01
<STATE> 4
<MEAN> 13
 -7.618483e+00 -5.047877e-01 -1.992453e+00 -1.524013e+00 -1.985234e-01 1.124671e+00 3.335889e+00 5.487433e-01 1.259212e-01 1.565977e+00 2.930330e-01 -1.852245e+00 5.054815e+01
<VARIANCE> 13
 2.543197e+01 1.688586e+01 9.962219e+00 1.093727e+01 1.690972e+01 2.319469e+01 1.888081e+01 1.934925e+01 1.796476e+01 1.706837e+01 1.537441e+01 1.448747e+01 3.073747e+01
<GCONST> 6.107559e+01
<TRANSP> 5
 0.000000e+00 1.000000e+00 0.000000e+00 0.000000e+00 0.000000e+00
 0.000000e+00 9.960980e-01 3.901962e-03 0.000000e+00 0.000000e+00
 0.000000e+00 0.000000e+00 9.970831e-01 2.916918e-03 0.000000e+00
 0.000000e+00 0.000000e+00 0.000000e+00 9.982461e-01 1.753844e-03
 0.000000e+00 0.000000e+00 0.000000e+00 0.000000e+00 0.000000e+00
<ENDHMM>
