~o
<STREAMINFO> 1 39
<VECSIZE> 39<NULLD><MFCC_D_A_0><DIAGC>
~h "ap"
<BEGINHMM>
<NUMSTATES> 5
<STATE> 2
<NUMMIXES> 4
<MIXTURE> 1 5.638813e-01
<MEAN> 39
 -1.228874e+01 -7.943867e+00 -2.418731e+00 7.170194e-01 1.670672e+00 -3.061143e+00 3.442949e+00 -2.452979e+00 -2.203566e+00 -5.637389e-01 1.100574e+00 -8.808146e-01 5.842541e+01 3.854792e-01 2.534701e-01 2.046101e-01 6.358570e-02 1.612885e-01 1.606393e-01 1.107789e-01 1.878915e-01 1.275933e-01 6.414634e-02 4.915788e-02 -4.017000e-02 -7.279133e-01 -1.123533e-02 -6.765278e-03 -3.346494e-02 -4.169696e-02 -5.598795e-02 -2.293455e-02 -3.483067e-02 -1.940690e-02 -1.796336e-02 -2.088978e-03 -1.362884e-02 -9.516647e-03 1.886357e-02
<VARIANCE> 39
 1.761835e+01 2.744096e+01 1.637441e+01 1.975596e+01 1.909598e+01 3.451295e+01 2.147220e+01 2.276071e+01 2.084959e+01 1.979488e+01 1.595895e+01 1.510688e+01 4.203163e+01 1.054406e-01 2.160569e-01 3.703906e-01 6.447217e-01 8.192897e-01 1.103882e+00 1.064728e+00 1.178520e+00 1.291888e+00 1.401145e+00 1.250923e+00 1.197980e+00 6.960366e-02 1.832724e-02 3.802776e-02 6.385082e-02 1.178597e-01 1.573094e-01 2.193007e-01 2.059648e-01 2.339477e-01 2.545758e-01 2.893096e-01 2.507822e-01 2.473233e-01 5.442891e-03
<GCONST> 7.565191e+01
<MIXTURE> 2 1.270262e-01
<MEAN> 39
 -1.678842e+01 -1.260110e+01 -6.792682e+00 -2.008604e+00 -3.203502e+00 -5.661019e+00 8.121442e-01 -5.495926e+00 -4.044670e+00 -1.150317e+00 -6.105673e-01 -1.467790e+00 7.085745e+01 3.510685e-01 2.495723e-02 1.229566e-01 1.160546e-01 5.840133e-01 5.104889e-01 3.118026e-01 -1.137140e-01 -2.042940e-01 8.059251e-02 1.619642e-01 7.825190e-02 -9.917219e-01 6.578207e-04 1.148555e-01 1.106298e-01 1.752438e-01 6.367557e-02 -1.387563e-02 6.225886e-02 1.155136e-01 5.383044e-02 -2.471071e-02 2.446746e-02 8.993457e-02 -1.002536e-01
<VARIANCE> 39
 1.562055e+01 3.410074e+01 1.982715e+01 2.276070e+01 2.693148e+01 3.142735e+01 2.269984e+01 2.244039e+01 2.365468e+01 1.986413e+01 2.162850e+01 1.650042e+01 5.844458e+01 1.245201e-01 2.327340e-01 3.666946e-01 5.958447e-01 9.586946e-01 1.089704e+00 1.042783e+00 1.110445e+00 1.441174e+00 1.311148e+00 1.624660e+00 1.489096e+00 5.147540e-02 6.212349e-02 8.031818e-02 9.579396e-02 1.358760e-01 2.378082e-01 2.680048e-01 2.210010e-01 2.378269e-01 3.181930e-01 2.990215e-01 3.685806e-01 3.407576e-01 2.822537e-01
<GCONST> 8.578799e+01
<MIXTURE> 3 1.270259e-01
<MEAN> 39
 -1.678826e+01 -1.260094e+01 -6.792508e+00 -2.008540e+00 -3.203332e+00 -5.660906e+00 8.122353e-01 -5.495800e+00 -4.044594e+00 -1.150283e+00 -6.104987e-01 -1.467786e+00 7.085699e+01 3.510698e-01 2.496708e-02 1.229582e-01 1.160514e-01 5.840043e-01 5.104833e-01 3.117965e-01 -1.137055e-01 -2.042895e-01 8.059135e-02 1.619572e-01 7.824903e-02 -9.917123e-01 6.478264e-04 1.148523e-01 1.106226e-01 1.752423e-01 6.366470e-02 -1.388812e-02 6.225128e-02 1.155094e-01 5.382699e-02 -2.471463e-02 2.446236e-02 8.993646e-02 -1.002343e-01
<VARIANCE> 39
 1.562185e+01 3.410124e+01 1.982787e+01 2.276085e+01 2.693213e+01 3.142775e+01 2.269992e+01 2.244063e+01 2.365458e+01 1.986424e+01 2.162833e+01 1.650035e+01 5.845140e+01 1.245200e-01 2.327361e-01 3.666902e-01 5.958429e-01 9.586990e-01 1.089698e+00 1.042777e+00 1.110443e+00 1.441159e+00 1.311144e+00 1.624641e+00 1.489067e+00 5.147897e-02 6.213204e-02 8.032038e-02 9.579577e-02 1.358778e-01 2.378171e-01 2.680138e-01 2.210042e-01 2.378281e-01 3.181918e-01 2.990217e-01 3.685781e-01 3.407542e-01 2.822784e-01
<GCONST> 8.578866e+01
<MIXTURE> 4 1.820650e-01
<MEAN> 39
 -1.359780e+01 -6.779773e+00 -3.137187e+00 3.027891e-01 -1.967468e+00 -4.789823e+00 2.073767e+00 -8.909687e-01 -1.682273e+00 -1.009307e+00 -6.042857e-02 -7.884395e-01 6.178861e+01 -1.776097e+00 -1.212874e+00 -1.011235e+00 -3.309694e-01 -1.381751e+00 -1.522256e+00 -9.171306e-01 -5.461463e-01 -3.026452e-01 -4.839042e-01 -4.241323e-01 -5.842182e-03 4.235424e+00 5.822073e-02 -1.793366e-01 -9.240219e-02 -1.276045e-01 1.004215e-01 5.861709e-02 9.770110e-03 -8.193811e-02 -3.819413e-02 4.257371e-02 2.369180e-02 -9.872146e-02 1.389791e-01
<VARIANCE> 39
 5.237430e+01 4.408317e+01 2.489209e+01 2.406192e+01 4.678736e+01 6.533072e+01 3.042086e+01 2.447519e+01 2.310631e+01 2.439812e+01 2.343711e+01 1.534643e+01 1.934354e+02 4.243841e+00 4.116271e+00 1.978115e+00 2.471856e+00 3.944997e+00 5.653130e+00 2.830404e+00 2.479605e+00 2.446976e+00 2.676466e+00 2.216946e+00 1.719882e+00 1.444920e+01 1.170902e+00 6.857355e-01 4.069300e-01 3.918786e-01 9.892916e-01 1.364758e+00 6.199106e-01 4.064477e-01 4.352436e-01 5.189788e-01 3.924579e-01 3.055452e-01 4.536290e+00
<GCONST> 1.280983e+02
<STATE> 3
<NUMMIXES> 4
<MIXTURE> 1 4.091702e-01
<MEAN> 39
 -8.449797e+00 -1.456345e+01 -7.793488e+00 3.628873e+00 3.475237e+00 -7.186367e+00 1.910653e+00 -1.492036e+00 -5.582326e+00 -2.927246e+00 1.634488e+00 -8.243484e-01 6.137246e+01 3.054239e-01 3.241437e-01 3.051521e-01 2.747257e-01 3.380771e-01 3.099239e-01 1.243318e-01 1.970962e-01 1.989767e-01 9.873544e-02 -5.726630e-02 -9.219005e-02 -7.828527e-01 -1.346259e-02 2.121308e-03 -3.140175e-02 -3.431547e-02 -7.012564e-02 -4.576621e-02 -2.542892e-02 2.836262e-03 -6.477096e-03 8.971063e-03 -4.940688e-03 -1.265490e-02 1.681242e-02
<VARIANCE> 39
 8.088544e+00 2.303475e+01 1.279918e+01 2.060296e+01 2.933445e+01 1.774252e+01 2.536710e+01 2.011273e+01 2.277002e+01 2.230225e+01 1.564916e+01 1.368467e+01 3.094955e+01 9.546095e-02 2.070197e-01 3.526491e-01 6.102439e-01 8.231322e-01 9.698646e-01 9.970804e-01 1.012653e+00 1.488748e+00 1.563699e+00 1.139295e+00 1.384631e+00 3.213511e-02 1.707104e-02 4.194601e-02 6.681316e-02 1.232985e-01 1.632336e-01 2.065558e-01 2.014429e-01 1.917559e-01 3.027492e-01 3.344027e-01 2.236022e-01 2.963178e-01 4.845966e-03
<GCONST> 7.316710e+01
<MIXTURE> 2 2.003935e-01
<MEAN> 39
 -1.202551e+01 -1.789461e+01 -1.236696e+01 4.673081e-01 -7.976331e-01 -1.090766e+01 -6.195651e-01 -2.694752e+00 -6.748096e+00 -4.543774e+00 7.054880e-02 -1.945621e+00 7.404668e+01 2.569456e-01 5.323996e-02 1.743125e-01 1.562119e-01 3.435358e-01 2.117748e-01 1.761591e-01 -9.842657e-02 -9.800565e-02 1.455486e-02 1.657928e-01 1.586665e-01 -1.003260e+00 -2.957824e-03 5.879504e-02 5.923125e-02 7.600625e-02 3.868021e-02 2.807261e-02 4.537258e-03 3.599063e-02 3.134713e-02 3.562770e-03 8.556658e-03 5.139601e-02 -2.865594e-02
<VARIANCE> 39
 8.836416e+00 1.343227e+01 1.197056e+01 1.810290e+01 2.487225e+01 1.517112e+01 2.417862e+01 1.745180e+01 2.306830e+01 1.919168e+01 1.480326e+01 1.735151e+01 2.964531e+01 8.418053e-02 1.697348e-01 2.622494e-01 5.346772e-01 1.012775e+00 1.106042e+00 8.983027e-01 1.032319e+00 1.383712e+00 1.180455e+00 1.181740e+00 1.699745e+00 2.618270e-02 2.208735e-02 4.091164e-02 6.049860e-02 1.238228e-01 2.164587e-01 2.446766e-01 1.853971e-01 1.934303e-01 3.008280e-01 2.560051e-01 2.474864e-01 4.115004e-01 5.408888e-02
<GCONST> 7.427708e+01
<MIXTURE> 3 2.003680e-01
<MEAN> 39
 -1.202554e+01 -1.789423e+01 -1.236701e+01 4.670253e-01 -7.984531e-01 -1.090817e+01 -6.205550e-01 -2.694541e+00 -6.747125e+00 -4.543426e+00 7.013745e-02 -1.945764e+00 7.404777e+01 2.569835e-01 5.319719e-02 1.742405e-01 1.560364e-01 3.437151e-01 2.121177e-01 1.763027e-01 -9.849056e-02 -9.796356e-02 1.452470e-02 1.655543e-01 1.583038e-01 -1.003301e+00 -2.942806e-03 5.888775e-02 5.931063e-02 7.614893e-02 3.886463e-02 2.817742e-02 4.580320e-03 3.596946e-02 3.128020e-02 3.485254e-03 8.486860e-03 5.137501e-02 -2.889389e-02
<VARIANCE> 39
 8.838261e+00 1.343411e+01 1.197197e+01 1.810456e+01 2.487435e+01 1.517353e+01 2.418445e+01 1.745191e+01 2.306938e+01 1.919135e+01 1.480453e+01 1.735218e+01 2.966257e+01 8.419355e-02 1.697403e-01 2.622439e-01 5.347325e-01 1.012724e+00 1.106084e+00 8.983784e-01 1.032256e+00 1.383560e+00 1.180349e+00 1.181854e+00 1.700001e+00 2.619276e-02 2.210630e-02 4.094396e-02 6.052833e-02 1.238705e-01 2.165093e-01 2.446789e-01 1.854181e-01 1.934391e-01 3.008218e-01 2.560125e-01 2.474839e-01 4.114859e-01 5.439525e-02
<GCONST> 7.428815e+01
<MIXTURE> 4 1.900664e-01
<MEAN> 39
 -1.139697e+01 -1.436141e+01 -9.591875e+00 2.440073e+00 -6.045609e-01 -9.510043e+00 -6.213495e-01 -9.365745e-01 -4.882769e+00 -3.383119e+00 1.507466e-01 -8.548751e-01 6.981389e+01 -8.765100e-01 -7.547334e-01 -9.277031e-01 -7.955155e-01 -1.147892e+00 -8.902389e-01 -5.221448e-01 -1.792012e-01 -2.069058e-01 -1.911383e-01 -1.275707e-01 -1.807029e-01 3.041826e+00 8.494977e-02 7.039388e-03 3.927331e-02 -6.934714e-02 1.202435e-01 1.660150e-01 1.061336e-01 -4.959058e-02 1.421576e-03 2.832179e-02 -1.597477e-02 -7.813815e-02 -2.414609e-01
<VARIANCE> 39
 2.545820e+01 3.157411e+01 2.330618e+01 2.814313e+01 4.868238e+01 3.826070e+01 3.575544e+01 1.907816e+01 2.775508e+01 2.317723e+01 2.037189e+01 1.371497e+01 1.746183e+02 1.989812e+00 2.829952e+00 1.546669e+00 1.778383e+00 3.333687e+00 3.878982e+00 2.648660e+00 1.855131e+00 2.366378e+00 1.994347e+00 1.801598e+00 1.548517e+00 1.341793e+01 5.006356e-01 5.300112e-01 3.693123e-01 3.563516e-01 8.708460e-01 9.458676e-01 5.227723e-01 3.459783e-01 4.455527e-01 3.726545e-01 3.317641e-01 2.986257e-01 4.084049e+00
<GCONST> 1.202765e+02
<STATE> 4
<NUMMIXES> 4
<MIXTURE> 1 4.020621e-01
<MEAN> 39
 -6.178579e+00 -5.175550e+00 -1.199804e+00 1.833081e+00 2.356078e+00 3.938935e-01 4.417944e+00 6.707284e-01 -1.619335e+00 8.333080e-01 1.496021e+00 -2.029269e+00 4.910928e+01 1.191147e-01 3.534946e-01 6.624183e-02 -9.650913e-02 -2.693508e-02 1.802155e-01 1.498779e-02 2.137601e-01 1.119035e-01 8.431080e-02 -1.146939e-02 -4.555109e-02 -3.561939e-01 -2.625263e-02 -1.062832e-02 -2.441473e-02 -2.622927e-02 -3.330262e-02 -3.620192e-02 -3.373569e-02 -3.164599e-02 -1.962727e-02 -1.779356e-02 -7.427999e-03 1.117022e-02 2.858391e-02
<VARIANCE> 39
 7.366311e+00 3.266642e+01 1.051203e+01 2.158588e+01 1.951461e+01 1.839479e+01 1.715983e+01 1.988831e+01 1.805302e+01 1.662436e+01 1.447757e+01 1.242782e+01 1.869731e+01 1.515009e-01 3.247958e-01 4.372939e-01 6.795400e-01 8.684325e-01 1.071574e+00 1.167815e+00 1.401036e+00 1.364731e+00 1.359824e+00 1.358178e+00 1.079374e+00 1.102204e-01 2.331099e-02 5.280152e-02 8.500724e-02 1.260096e-01 1.672437e-01 2.048810e-01 2.215339e-01 2.734358e-01 2.724812e-01 2.662558e-01 2.726385e-01 2.138859e-01 7.179066e-03
<GCONST> 7.530089e+01
<MIXTURE> 2 2.281011e-01
<MEAN> 39
 -1.219658e+01 -1.546080e+01 -6.916184e+00 5.124809e-01 -1.527777e+00 -5.882202e+00 1.887033e+00 -5.937319e+00 -4.767098e+00 -9.627168e-01 3.972268e-01 -1.490641e+00 6.673316e+01 3.119453e-01 1.729066e-01 2.476367e-01 2.150205e-01 3.561780e-01 2.168306e-01 1.648434e-01 3.861091e-02 -1.334971e-02 2.309292e-02 7.854540e-02 3.624469e-02 -9.078249e-01 -1.875395e-03 2.632836e-02 2.498843e-02 3.528672e-02 -5.650396e-04 2.555327e-03 1.641979e-02 5.194317e-02 2.599338e-02 1.935530e-02 3.090907e-03 8.151313e-03 4.621837e-03
<VARIANCE> 39
 1.368745e+01 3.021610e+01 2.384758e+01 2.557441e+01 3.695455e+01 2.114235e+01 2.512005e+01 1.945427e+01 2.155465e+01 1.865793e+01 1.663438e+01 1.555341e+01 5.668925e+01 9.684582e-02 2.289061e-01 3.324942e-01 5.917743e-01 9.748340e-01 9.915212e-01 1.005386e+00 1.093940e+00 1.267140e+00 1.386501e+00 1.044427e+00 1.214851e+00 3.303764e-02 2.148224e-02 4.916855e-02 6.879100e-02 1.323912e-01 2.101756e-01 2.174416e-01 2.037609e-01 2.191068e-01 2.684609e-01 3.114769e-01 2.099560e-01 2.555783e-01 9.719691e-03
<GCONST> 7.678954e+01
<MIXTURE> 3 2.281028e-01
<MEAN> 39
 -1.219650e+01 -1.546085e+01 -6.916114e+00 5.125761e-01 -1.527756e+00 -5.882157e+00 1.887133e+00 -5.937330e+00 -4.767136e+00 -9.626867e-01 3.972474e-01 -1.490622e+00 6.673301e+01 3.119435e-01 1.729081e-01 2.476412e-01 2.150234e-01 3.561705e-01 2.168232e-01 1.648446e-01 3.862031e-02 -1.334325e-02 2.309790e-02 7.855275e-02 3.625380e-02 -9.078227e-01 -1.875809e-03 2.632513e-02 2.498377e-02 3.527981e-02 -5.680259e-04 2.554874e-03 1.641561e-02 5.194086e-02 2.599510e-02 1.935459e-02 3.091288e-03 8.149143e-03 4.626143e-03
<VARIANCE> 39
 1.368752e+01 3.021653e+01 2.384778e+01 2.557479e+01 3.695509e+01 2.114270e+01 2.512049e+01 1.945456e+01 2.155511e+01 1.865838e+01 1.663467e+01 1.555362e+01 5.668890e+01 9.684688e-02 2.289104e-01 3.324997e-01 5.917852e-01 9.748530e-01 9.915397e-01 1.005408e+00 1.093957e+00 1.267169e+00 1.386534e+00 1.044448e+00 1.214867e+00 3.303792e-02 2.148177e-02 4.916837e-02 6.879152e-02 1.323906e-01 2.101791e-01 2.174452e-01 2.037638e-01 2.191093e-01 2.684667e-01 3.114848e-01 2.099606e-01 2.555824e-01 9.717268e-03
<GCONST> 7.678983e+01
<MIXTURE> 4 1.417390e-01
<MEAN> 39
 -1.201521e+01 -9.029084e+00 -4.684222e+00 1.154400e+00 -1.982872e+00 -4.477221e+00 1.596086e+00 -1.378620e+00 -2.456504e+00 7.939434e-02 -2.775458e-01 -1.484436e+00 6.304816e+01 -1.235963e+00 -1.413887e+00 -8.323749e-01 -3.507823e-01 -1.078798e+00 -1.087871e+00 -4.637663e-01 -6.803926e-01 -1.908801e-01 -2.235488e-01 -2.024047e-01 1.876928e-03 3.510371e+00 7.108735e-02 -5.704418e-02 -1.962404e-02 -3.761407e-02 9.044116e-02 6.744408e-02 2.973083e-02 -6.721607e-02 -3.864990e-02 -2.524384e-02 6.525706e-03 -5.529816e-02 -7.603904e-02
<VARIANCE> 39
 3.724065e+01 6.876131e+01 2.831776e+01 2.557216e+01 4.981365e+01 5.361285e+01 2.887824e+01 2.967723e+01 2.366006e+01 1.930102e+01 2.070134e+01 1.370145e+01 2.523128e+02 2.936090e+00 5.649016e+00 1.946468e+00 2.367740e+00 3.360840e+00 4.964935e+00 2.329274e+00 2.809722e+00 2.456351e+00 2.115659e+00 2.041734e+00 1.414325e+00 1.912919e+01 6.990684e-01 1.155318e+00 3.922520e-01 4.504245e-01 7.741767e-01 1.114696e+00 4.551567e-01 5.622833e-01 4.663688e-01 4.158476e-01 4.138081e-01 2.585638e-01 5.014108e+00
<GCONST> 1.270254e+02
<TRANSP> 5
 0.000000e+00 1.000000e+00 0.000000e+00 0.000000e+00 0.000000e+00
 0.000000e+00 9.878181e-01 1.218191e-02 0.000000e+00 0.000000e+00
 0.000000e+00 0.000000e+00 9.878352e-01 1.216484e-02 0.000000e+00
 0.000000e+00 0.000000e+00 0.000000e+00 9.917913e-01 8.208681e-03
 0.000000e+00 0.000000e+00 0.000000e+00 0.000000e+00 0.000000e+00
<ENDHMM>
~h "cl"
<BEGINHMM>
<NUMSTATES> 5
<STATE> 2
<NUMMIXES> 4
<MIXTURE> 1 4.063731e-01
<MEAN> 39
 -7.330740e+00 -2.742146e+00 -3.041099e+00 -2.656910e+00 8.888019e-01 4.877958e+00 4.717371e+00 1.285509e+00 1.524736e+00 1.018491e+00 -6.492718e-01 -1.515086e+00 5.101209e+01 2.283158e-01 -2.366058e-02 4.128804e-03 -1.680059e-02 1.013976e-01 1.782877e-02 1.116416e-01 4.923970e-02 -6.659280e-02 1.043725e-01 1.041866e-01 -1.313928e-01 -1.944205e-01 -3.384066e-02 1.326278e-02 5.319884e-03 -9.132271e-03 -1.465331e-02 1.455084e-02 -4.100092e-02 -1.031291e-02 1.115360e-02 -3.727397e-02 -2.151622e-03 4.296050e-02 2.404581e-02
<VARIANCE> 39
 1.563030e+01 1.119828e+01 1.193616e+01 1.195233e+01 1.665048e+01 2.051707e+01 1.369954e+01 1.723055e+01 2.315896e+01 1.608086e+01 1.729603e+01 1.631174e+01 1.045777e+01 2.021777e-01 3.587413e-01 4.612016e-01 6.535463e-01 9.063152e-01 1.111494e+00 1.258985e+00 1.662664e+00 1.504390e+00 1.314749e+00 1.247447e+00 1.263564e+00 9.609201e-02 2.722276e-02 5.682520e-02 7.218599e-02 1.273166e-01 1.790629e-01 1.924327e-01 2.367172e-01 3.302815e-01 2.749824e-01 2.588643e-01 2.432749e-01 2.273572e-01 8.876999e-03
<GCONST> 7.538843e+01
<MIXTURE> 2 2.013643e-01
<MEAN> 39
 -1.435679e+01 -1.814196e+00 -8.534659e-01 -2.656405e+00 -2.056708e+00 5.047658e+00 2.388882e+00 -2.101492e+00 2.750870e+00 -1.193015e+00 -2.918023e+00 2.228336e+00 5.748382e+01 1.596508e-01 3.914971e-02 1.658271e-02 9.080121e-02 3.688355e-02 1.446153e-01 2.581337e-03 -5.308507e-02 7.967710e-03 -3.862585e-02 1.913005e-02 1.125621e-02 -3.081985e-01 1.251628e-02 3.943755e-03 1.813253e-02 2.682515e-03 4.986532e-03 -3.138799e-02 3.520883e-02 3.258952e-02 -6.047333e-03 2.611428e-02 -2.067176e-02 -1.851340e-02 -4.832843e-03
<VARIANCE> 39
 2.571987e+01 4.565773e+01 3.344578e+01 1.743382e+01 1.587973e+01 6.398330e+01 2.357064e+01 2.577932e+01 4.236062e+01 2.231787e+01 3.254479e+01 2.313767e+01 6.333757e+01 5.292995e-01 5.197513e-01 6.372126e-01 7.682467e-01 1.113715e+00 1.533472e+00 1.591673e+00 1.422289e+00 2.058639e+00 1.382406e+00 1.589095e+00 1.465687e+00 3.172073e-01 1.004098e-01 8.690821e-02 1.145451e-01 1.458474e-01 2.020634e-01 2.776409e-01 3.135519e-01 2.509066e-01 3.846212e-01 3.024930e-01 3.189123e-01 2.963368e-01 4.885569e-02
<GCONST> 9.437633e+01
<MIXTURE> 3 2.013633e-01
<MEAN> 39
 -1.435686e+01 -1.813855e+00 -8.533236e-01 -2.656538e+00 -2.056776e+00 5.048037e+00 2.388933e+00 -2.101541e+00 2.751099e+00 -1.192985e+00 -2.918226e+00 2.228502e+00 5.748349e+01 1.596467e-01 3.913952e-02 1.657763e-02 9.079576e-02 3.687433e-02 1.446121e-01 2.573068e-03 -5.308469e-02 7.975635e-03 -3.862597e-02 1.913837e-02 1.125583e-02 -3.081775e-01 1.251914e-02 3.941855e-03 1.813338e-02 2.686166e-03 4.990520e-03 -3.139064e-02 3.520976e-02 3.259177e-02 -6.048997e-03 2.611645e-02 -2.066754e-02 -1.851555e-02 -4.834775e-03
<VARIANCE> 39
 2.572042e+01 4.565554e+01 3.344732e+01 1.743366e+01 1.587973e+01 6.398293e+01 2.357047e+01 2.577973e+01 4.236049e+01 2.231821e+01 3.254536e+01 2.313773e+01 6.333426e+01 5.293128e-01 5.197619e-01 6.372133e-01 7.682521e-01 1.113726e+00 1.533492e+00 1.591683e+00 1.422294e+00 2.058665e+00 1.382432e+00 1.589129e+00 1.465675e+00 3.172062e-01 1.004143e-01 8.690963e-02 1.145447e-01 1.458468e-01 2.020636e-01 2.776449e-01 3.135528e-01 2.509077e-01 3.846250e-01 3.024984e-01 3.189190e-01 2.963332e-01 4.885741e-02
<GCONST> 9.437659e+01
<MIXTURE> 4 1.908989e-01
<MEAN> 39
 -1.269896e+01 -7.105979e-01 -1.423424e-01 -2.404624e+00 -1.826351e+00 3.520005e+00 2.637477e+00 -1.275958e-01 2.101425e+00 8.887582e-01 -1.698500e+00 5.211462e-01 5.479441e+01 -2.568349e+00 2.102664e-01 2.127838e-01 -2.066321e-01 -9.686798e-01 4.966733e-01 -7.317711e-01 -8.985583e-01 7.492169e-01 -2.706316e-01 -1.138945e+00 7.276089e-01 2.390605e+00 -6.480820e-02 -3.897091e-02 2.256109e-02 -6.445427e-02 -2.419898e-02 1.771356e-01 -1.887306e-02 -1.677931e-01 9.419787e-03 -2.737609e-02 -9.185530e-02 6.688819e-02 1.757749e-02
<VARIANCE> 39
 6.363132e+01 2.980446e+01 2.649578e+01 1.658754e+01 2.417581e+01 5.831166e+01 3.103007e+01 3.091478e+01 3.515834e+01 3.576068e+01 3.149526e+01 2.514371e+01 9.211449e+01 5.041902e+00 2.723582e+00 1.481179e+00 1.410139e+00 2.193298e+00 6.253250e+00 3.460297e+00 4.160609e+00 3.479610e+00 4.273748e+00 3.001439e+00 2.805768e+00 5.098512e+00 1.303023e+00 3.688378e-01 1.957080e-01 1.989982e-01 4.299271e-01 9.070768e-01 5.890361e-01 6.305196e-01 5.840222e-01 7.354543e-01 5.637552e-01 4.113128e-01 1.395731e+00
<GCONST> 1.249794e+02
<STATE> 3
<NUMMIXES> 4
<MIXTURE> 1 1.247950e-01
<MEAN> 39
 -1.889302e+01 2.629486e+00 7.893016e-01 -6.221164e+00 -4.291812e+00 1.429198e+01 -4.955386e-01 -3.688193e+00 9.715158e+00 -4.081818e+00 -3.052944e+00 6.634643e+00 5.758614e+01 -1.227731e+00 2.869359e-01 9.823233e-03 4.242589e-01 -7.800134e-02 -5.913799e-01 5.590674e-01 2.447585e-01 -2.927732e-01 2.251456e-02 6.267948e-02 7.205168e-02 8.678296e-01 -4.634200e-01 -1.036917e-02 -1.536105e-02 1.209130e-01 1.710103e-02 -1.769987e-01 1.984814e-01 6.591047e-02 -1.933864e-01 -1.374428e-03 -8.737794e-02 -1.488966e-01 3.664478e-01
<VARIANCE> 39
 3.099470e+01 5.971261e+00 1.569539e+01 9.913486e+00 1.469148e+01 2.018555e+01 2.080152e+01 1.542758e+01 1.740317e+01 1.788034e+01 1.786673e+01 1.650300e+01 1.452273e+01 1.766598e+00 6.389319e-01 9.646513e-01 1.139869e+00 1.624106e+00 3.402923e+00 2.660851e+00 2.352944e+00 2.605511e+00 1.963237e+00 1.977674e+00 2.037125e+00 8.071541e-01 5.194758e-01 1.086263e-01 1.611324e-01 1.725525e-01 2.450494e-01 4.262552e-01 4.009970e-01 3.730049e-01 3.809722e-01 3.664144e-01 3.329391e-01 3.182725e-01 2.410330e-01
<GCONST> 9.782977e+01
<MIXTURE> 2 3.508855e-01
<MEAN> 39
 -1.915666e+01 2.963910e+00 -3.300510e-01 -5.486332e+00 -4.027349e+00 1.262221e+01 6.185120e-01 -3.818984e+00 7.641705e+00 -3.390183e+00 -3.525038e+00 5.380293e+00 5.831156e+01 5.835945e-01 -8.343165e-02 -3.320185e-02 -5.758536e-02 5.888852e-02 3.308656e-02 -5.818054e-02 3.707741e-02 2.667960e-02 8.888594e-02 1.031637e-01 -6.133771e-02 -4.517280e-01 -1.113706e-03 1.192839e-03 -1.287249e-02 2.988538e-02 -9.774703e-03 -6.730261e-02 2.072102e-02 2.723099e-02 -2.120638e-02 -4.778216e-04 1.982825e-02 1.020097e-02 1.779550e-03
<VARIANCE> 39
 4.520552e+01 9.369554e+00 1.897061e+01 1.160997e+01 1.668546e+01 3.009523e+01 2.386097e+01 2.212038e+01 2.495840e+01 1.930059e+01 1.873277e+01 1.910126e+01 1.770714e+01 2.525176e-01 3.183436e-01 5.613317e-01 7.407788e-01 9.707864e-01 1.360957e+00 1.389332e+00 1.461799e+00 1.447247e+00 1.441839e+00 1.382080e+00 1.324380e+00 1.212619e-01 9.266973e-02 6.472955e-02 1.195819e-01 1.522475e-01 2.079030e-01 2.955431e-01 3.020487e-01 3.129488e-01 3.086623e-01 2.997240e-01 2.882051e-01 2.810100e-01 4.899026e-02
<GCONST> 8.517785e+01
<MIXTURE> 3 3.508873e-01
<MEAN> 39
 -1.915670e+01 2.963933e+00 -3.300371e-01 -5.486327e+00 -4.027320e+00 1.262226e+01 6.185474e-01 -3.818971e+00 7.641736e+00 -3.390168e+00 -3.525038e+00 5.380309e+00 5.831156e+01 5.835975e-01 -8.343112e-02 -3.320293e-02 -5.758280e-02 5.888939e-02 3.308361e-02 -5.817923e-02 3.708124e-02 2.667919e-02 8.888539e-02 1.031641e-01 -6.133699e-02 -4.517289e-01 -1.114622e-03 1.191602e-03 -1.287338e-02 2.988466e-02 -9.777330e-03 -6.730430e-02 2.071859e-02 2.722874e-02 -2.120746e-02 -4.796293e-04 1.982692e-02 1.020044e-02 1.780231e-03
<VARIANCE> 39
 4.520491e+01 9.369453e+00 1.897046e+01 1.160989e+01 1.668538e+01 3.009494e+01 2.386084e+01 2.212030e+01 2.495823e+01 1.930054e+01 1.873282e+01 1.910118e+01 1.770695e+01 2.525176e-01 3.183447e-01 5.613322e-01 7.407805e-01 9.707883e-01 1.360957e+00 1.389335e+00 1.461806e+00 1.447249e+00 1.441841e+00 1.382086e+00 1.324384e+00 1.212616e-01 9.266817e-02 6.472918e-02 1.195812e-01 1.522468e-01 2.079021e-01 2.955425e-01 3.020486e-01 3.129486e-01 3.086621e-01 2.997235e-01 2.882054e-01 2.810096e-01 4.898921e-02
<GCONST> 8.517773e+01
<MIXTURE> 4 1.734340e-01
<MEAN> 39
 -2.146922e+01 2.336112e+00 -6.211289e-01 -4.108603e+00 -4.530468e+00 8.407667e+00 1.616699e+00 -2.730204e+00 5.641088e+00 -3.820586e+00 -3.212141e+00 4.363369e+00 6.123535e+01 -1.322379e+00 1.018250e-01 7.248049e-02 -5.284432e-02 -1.467691e-01 2.513202e-01 -1.468986e-01 -3.433553e-01 3.471110e-02 -3.932879e-01 -4.179681e-01 1.812675e-01 1.119696e+00 3.948435e-01 -7.545607e-03 5.805266e-02 -2.063693e-01 4.343499e-02 3.646328e-01 -2.248770e-01 -1.336043e-01 2.036797e-01 2.131595e-02 6.275840e-03 4.546417e-02 -3.100727e-01
<VARIANCE> 39
 8.498306e+01 1.438113e+01 2.562064e+01 1.573196e+01 2.384886e+01 4.206344e+01 3.369746e+01 2.730809e+01 3.095669e+01 2.441237e+01 2.234577e+01 2.316852e+01 3.011772e+01 3.893902e+00 1.015372e+00 1.420149e+00 1.321027e+00 2.048925e+00 3.377541e+00 2.793647e+00 2.289166e+00 2.514702e+00 1.972301e+00 1.835281e+00 2.445162e+00 1.816349e+00 8.280718e-01 1.675243e-01 2.197756e-01 2.420805e-01 3.602957e-01 5.548654e-01 4.808275e-01 4.395704e-01 4.438159e-01 4.203337e-01 3.950471e-01 4.135976e-01 4.450762e-01
<GCONST> 1.119226e+02
<STATE> 4
<NUMMIXES> 4
<MIXTURE> 1 3.675394e-01
<MEAN> 39
 -1.923939e+01 1.043811e+00 7.086848e+00 -3.358103e+00 -5.736775e+00 1.028437e+01 2.324767e+00 -5.661944e+00 3.175833e+00 4.725777e+00 -1.007102e+01 3.666889e+00 5.460961e+01 5.910874e-01 1.489054e-01 1.215595e-01 -3.843007e-02 1.685834e-01 9.808533e-02 7.724196e-02 -1.886464e-02 2.138246e-01 7.110927e-02 1.242215e-01 -2.073957e-02 -6.039938e-01 -2.805042e-02 9.781816e-03 -7.510353e-02 2.107945e-02 2.622707e-03 -5.053733e-02 2.073241e-02 7.711591e-03 -2.056607e-02 -3.941005e-02 -3.195252e-02 3.431779e-02 2.952848e-02
<VARIANCE> 39
 5.015607e+01 7.033028e+00 1.426451e+01 1.653764e+01 2.586134e+01 2.689375e+01 2.260545e+01 3.838118e+01 3.096608e+01 2.925015e+01 2.764423e+01 2.288431e+01 2.978762e+01 1.830935e-01 2.810583e-01 5.795012e-01 6.775756e-01 9.764035e-01 1.196241e+00 1.359095e+00 1.496313e+00 1.586560e+00 1.423221e+00 1.418049e+00 1.285471e+00 1.101785e-01 3.081198e-02 5.467334e-02 1.072561e-01 1.370305e-01 1.904421e-01 2.363810e-01 2.650265e-01 2.898301e-01 2.914117e-01 2.869382e-01 2.921683e-01 2.422130e-01 1.550784e-02
<GCONST> 8.357242e+01
<MIXTURE> 2 1.969867e-01
<MEAN> 39
 -2.352264e+01 8.263975e-01 6.411899e+00 -3.060978e+00 -7.537064e+00 1.163953e+01 8.629242e-01 -8.822011e+00 2.781400e+00 3.942068e+00 -1.323414e+01 6.134328e+00 5.937346e+01 3.965779e-01 -1.735221e-02 2.338081e-01 -1.529556e-01 -1.775112e-01 1.831062e-01 -1.573860e-03 -2.421247e-01 4.324977e-01 -3.977386e-02 -1.549239e-01 2.095367e-01 -4.794248e-01 -4.640614e-02 3.445481e-02 8.761332e-03 3.862986e-02 2.514605e-02 -1.495848e-01 -4.247621e-03 1.872237e-01 2.284211e-03 1.015950e-01 1.100716e-01 -9.582709e-02 6.110890e-03
<VARIANCE> 39
 2.223532e+01 8.743575e+00 1.493007e+01 1.650620e+01 2.758182e+01 2.866944e+01 3.289174e+01 4.799035e+01 3.649809e+01 2.927692e+01 2.840243e+01 3.695666e+01 2.644768e+01 3.452577e-01 4.533803e-01 8.155261e-01 9.042974e-01 1.034933e+00 1.614030e+00 1.403779e+00 1.905936e+00 2.047121e+00 1.673585e+00 1.437756e+00 1.673865e+00 2.602938e-01 2.274603e-01 1.094327e-01 2.168294e-01 2.099699e-01 2.624333e-01 3.860051e-01 3.262008e-01 4.424419e-01 6.225957e-01 4.108504e-01 3.237897e-01 4.157302e-01 2.384805e-01
<GCONST> 9.798865e+01
<MIXTURE> 3 1.969904e-01
<MEAN> 39
 -2.352257e+01 8.263882e-01 6.411807e+00 -3.061031e+00 -7.537063e+00 1.163945e+01 8.629204e-01 -8.822001e+00 2.781337e+00 3.941944e+00 -1.323413e+01 6.134282e+00 5.937347e+01 3.965804e-01 -1.735208e-02 2.338089e-01 -1.529579e-01 -1.775096e-01 1.831149e-01 -1.573736e-03 -2.421282e-01 4.324905e-01 -3.977629e-02 -1.549248e-01 2.095418e-01 -4.794257e-01 -4.640451e-02 3.445641e-02 8.772416e-03 3.863147e-02 2.514671e-02 -1.495807e-01 -4.249480e-03 1.872238e-01 2.294633e-03 1.016076e-01 1.100754e-01 -9.582034e-02 6.105252e-03
<VARIANCE> 39
 2.223659e+01 8.743808e+00 1.493085e+01 1.650637e+01 2.758197e+01 2.867009e+01 3.289221e+01 4.799098e+01 3.649850e+01 2.927726e+01 2.840297e+01 3.695695e+01 2.644828e+01 3.452607e-01 4.533822e-01 8.155286e-01 9.043007e-01 1.034938e+00 1.614030e+00 1.403785e+00 1.905944e+00 2.047123e+00 1.673592e+00 1.437769e+00 1.673881e+00 2.602934e-01 2.274664e-01 1.094342e-01 2.168350e-01 2.099722e-01 2.624362e-01 3.860100e-01 3.262041e-01 4.424447e-01 6.226055e-01 4.108557e-01 3.237945e-01 4.157346e-01 2.384859e-01
<GCONST> 9.798915e+01
<MIXTURE> 4 2.384788e-01
<MEAN> 39
 -2.406955e+01 1.493821e+00 5.182977e+00 -2.252752e+00 -6.104678e+00 8.872449e+00 1.790544e+00 -4.743171e+00 2.441198e+00 4.762683e+00 -1.089249e+01 4.318171e+00 5.911515e+01 -1.359424e+00 -2.200566e-01 -5.483065e-01 2.654135e-01 5.191613e-02 -5.065891e-01 -1.540238e-01 4.362584e-01 -1.046737e+00 -6.326462e-02 1.114623e-01 -3.270972e-01 1.562518e+00 1.222482e-01 -6.881884e-02 9.234080e-02 -9.261008e-02 -4.202879e-02 3.084172e-01 -2.980168e-02 -3.104272e-01 2.470571e-02 -1.061274e-01 -1.249746e-01 9.695218e-02 -5.978468e-02
<VARIANCE> 39
 3.738181e+01 1.154459e+01 1.679113e+01 1.689911e+01 2.480589e+01 3.283585e+01 3.206571e+01 4.469748e+01 3.558557e+01 2.866852e+01 2.526104e+01 2.395065e+01 3.608665e+01 2.132262e+00 9.221576e-01 1.560108e+00 1.449311e+00 2.204182e+00 3.795132e+00 2.489372e+00 4.811674e+00 3.657254e+00 3.062610e+00 2.476273e+00 2.786072e+00 1.464565e+00 5.887470e-01 1.478527e-01 2.834101e-01 2.553611e-01 3.117967e-01 5.323685e-01 3.891827e-01 6.127790e-01 6.799895e-01 4.351081e-01 3.883253e-01 4.464326e-01 5.938062e-01
<GCONST> 1.133221e+02
<TRANSP> 5
 0.000000e+00 1.000000e+00 0.000000e+00 0.000000e+00 0.000000e+00
 0.000000e+00 9.416741e-01 5.832594e-02 0.000000e+00 0.000000e+00
 0.000000e+00 0.000000e+00 9.921073e-01 7.892742e-03 0.000000e+00
 0.000000e+00 0.000000e+00 0.000000e+00 9.936865e-01 6.313493e-03
 0.000000e+00 0.000000e+00 0.000000e+00 0.000000e+00 0.000000e+00
<ENDHMM>
~h "cm"
<BEGINHMM>
<NUMSTATES> 5
<STATE> 2
<NUMMIXES> 4
<MIXTURE> 1 1.705463e-01
<MEAN> 39
 -8.874043e+00 -2.825750e+00 -3.678186e+00 -5.399032e+00 -2.109900e+00 -2.018203e+00 -2.024389e+00 -1.838347e+00 -3.376661e+00 -1.026899e+00 1.409975e-03 -1.522392e+00 6.406887e+01 1.066070e-01 2.147900e-01 2.446163e-01 5.224739e-01 6.309539e-01 8.450952e-01 6.707478e-01 4.873166e-01 4.048014e-01 2.789721e-01 2.553557e-01 1.971061e-01 -3.074167e-01 5.798021e-03 9.948649e-02 1.390840e-01 1.688446e-01 1.304280e-01 1.094098e-01 3.130843e-02 4.770986e-02 2.957803e-02 -1.745083e-02 -7.234311e-02 -1.072934e-01 -4.587859e-02
<VARIANCE> 39
 1.846189e+01 1.736693e+01 1.278281e+01 1.688680e+01 1.435676e+01 1.708046e+01 2.170939e+01 2.190621e+01 2.415022e+01 1.958606e+01 1.989193e+01 1.519561e+01 6.519839e+01 2.191734e-01 3.866258e-01 4.927203e-01 6.938292e-01 8.210642e-01 9.811584e-01 1.115849e+00 1.381954e+00 1.496077e+00 1.341806e+00 1.336827e+00 1.181419e+00 2.775067e-01 4.254160e-02 8.788242e-02 1.084945e-01 1.435189e-01 1.897327e-01 2.459779e-01 2.976874e-01 3.197170e-01 3.473978e-01 3.143539e-01 2.842489e-01 2.532926e-01 4.846740e-02
<GCONST> 8.404349e+01
<MIXTURE> 2 3.367284e-01
<MEAN> 39
 -9.295631e+00 -2.563029e-01 -1.711036e+00 -2.931304e+00 8.691838e-02 3.851313e-01 -9.509611e-01 -6.319280e-01 -2.467686e+00 -7.735977e-01 2.155307e-01 -2.307030e+00 5.950546e+01 -3.997122e-02 5.074159e-02 -3.414096e-02 -7.056352e-02 -8.715185e-02 -6.876144e-02 -1.086778e-01 -9.286615e-02 -9.239972e-02 -1.744111e-02 -2.337452e-02 -3.593450e-02 -3.950637e-02 -1.677591e-02 -3.334714e-02 -5.346761e-02 -6.635354e-02 -6.064132e-02 -6.533636e-02 -3.708030e-02 -1.590087e-02 -6.228011e-03 -2.429168e-03 1.197546e-02 1.128568e-02 3.621925e-02
<VARIANCE> 39
 1.883438e+01 1.699304e+01 1.323654e+01 1.350697e+01 1.387855e+01 1.519623e+01 1.744271e+01 1.973466e+01 1.969099e+01 1.846124e+01 1.695563e+01 1.394503e+01 5.758806e+01 2.692268e-01 4.136789e-01 5.515763e-01 7.332771e-01 8.281965e-01 1.044916e+00 1.191054e+00 1.347916e+00 1.426696e+00 1.433944e+00 1.349266e+00 1.219657e+00 2.982526e-01 3.508279e-02 6.475794e-02 9.072817e-02 1.262203e-01 1.662235e-01 2.190017e-01 2.315904e-01 2.654988e-01 2.707272e-01 2.803392e-01 2.644739e-01 2.261127e-01 2.379860e-02
<GCONST> 8.068025e+01
<MIXTURE> 3 3.367357e-01
<MEAN> 39
 -9.295641e+00 -2.562962e-01 -1.711036e+00 -2.931304e+00 8.692676e-02 3.851523e-01 -9.509335e-01 -6.319007e-01 -2.467661e+00 -7.735825e-01 2.155411e-01 -2.307028e+00 5.950542e+01 -3.997171e-02 5.074129e-02 -3.414074e-02 -7.056465e-02 -8.715218e-02 -6.876180e-02 -1.086784e-01 -9.286627e-02 -9.239998e-02 -1.744135e-02 -2.337419e-02 -3.593387e-02 -3.950411e-02 -1.677579e-02 -3.334720e-02 -5.346740e-02 -6.635367e-02 -6.064222e-02 -6.533816e-02 -3.708246e-02 -1.590301e-02 -6.229512e-03 -2.429501e-03 1.197522e-02 1.128548e-02 3.621969e-02
<VARIANCE> 39
 1.883438e+01 1.699304e+01 1.323654e+01 1.350697e+01 1.387858e+01 1.519623e+01 1.744267e+01 1.973460e+01 1.969101e+01 1.846123e+01 1.695562e+01 1.394500e+01 5.758785e+01 2.692267e-01 4.136793e-01 5.515772e-01 7.332779e-01 8.281976e-01 1.044915e+00 1.191052e+00 1.347914e+00 1.426697e+00 1.433945e+00 1.349265e+00 1.219657e+00 2.982522e-01 3.508283e-02 6.475802e-02 9.072825e-02 1.262204e-01 1.662235e-01 2.190020e-01 2.315897e-01 2.654988e-01 2.707281e-01 2.803389e-01 2.644735e-01 2.261123e-01 2.379872e-02
<GCONST> 8.068024e+01
<MIXTURE> 4 1.559854e-01
<MEAN> 39
 -1.000915e+01 -2.822671e+00 -2.825629e+00 -5.099694e+00 -1.884513e+00 -3.041131e+00 -3.240023e+00 -1.711686e+00 -3.101154e+00 -2.130479e+00 -9.465410e-01 -2.469256e+00 6.442354e+01 4.434624e-03 -4.950770e-01 -1.958115e-01 -4.192851e-01 -4.290491e-01 -6.670210e-01 -4.842944e-01 -3.584475e-01 -2.400512e-01 -2.197013e-01 -2.365359e-01 9.074872e-02 1.420266e+00 7.951648e-02 5.780048e-02 5.878727e-02 9.598029e-02 1.411280e-01 2.098954e-01 1.569387e-01 2.853260e-02 -3.161502e-03 1.004032e-01 1.208988e-01 8.114778e-02 -1.331467e-01
<VARIANCE> 39
 2.079841e+01 2.422999e+01 1.970776e+01 2.517386e+01 2.467304e+01 2.281260e+01 2.608414e+01 2.567522e+01 2.479768e+01 2.134311e+01 1.973881e+01 1.776860e+01 7.537051e+01 1.392863e+00 1.722084e+00 1.571804e+00 1.770816e+00 2.128028e+00 2.198812e+00 2.037025e+00 2.331733e+00 2.270832e+00 2.046702e+00 1.923324e+00 1.736404e+00 2.399334e+00 1.894293e-01 2.818936e-01 2.813956e-01 3.409975e-01 4.143414e-01 4.140813e-01 4.056801e-01 4.288273e-01 4.385888e-01 3.844260e-01 3.337305e-01 3.189221e-01 5.604559e-01
<GCONST> 1.086326e+02
<STATE> 3
<NUMMIXES> 4
<MIXTURE> 1 1.842355e-01
<MEAN> 39
 -1.139905e+01 -1.114148e-01 -2.967003e+00 -5.421795e+00 -1.401178e+00 -1.131546e+00 -2.934390e+00 -9.772335e-01 -3.049088e+00 -3.419155e-01 1.429729e+00 -1.388735e+00 6.121442e+01 4.603122e-01 2.006781e-01 2.196805e-01 2.589281e-01 7.104915e-02 -1.529393e-01 -4.966676e-02 -4.842973e-02 -1.790222e-02 -1.727829e-01 -3.189453e-01 -1.839088e-01 6.969528e-01 4.562580e-02 -2.688808e-03 -2.592628e-02 2.120037e-02 6.154047e-02 6.865343e-02 9.893072e-02 8.211976e-02 5.472769e-02 5.343140e-02 2.910810e-02 3.038781e-02 3.107137e-02
<VARIANCE> 39
 1.047330e+01 1.022108e+01 1.119532e+01 1.492594e+01 1.494779e+01 1.517445e+01 1.835011e+01 2.157275e+01 1.835243e+01 1.444619e+01 1.548055e+01 1.569612e+01 2.693058e+01 7.100646e-01 7.528321e-01 8.280026e-01 1.104385e+00 1.440484e+00 1.716144e+00 1.887698e+00 1.869364e+00 1.588688e+00 1.530713e+00 1.486710e+00 1.498202e+00 7.425216e-01 1.058646e-01 1.250141e-01 1.609568e-01 2.262645e-01 2.802768e-01 3.287768e-01 3.515990e-01 3.527085e-01 3.284387e-01 2.784325e-01 2.391758e-01 2.756959e-01 1.185462e-01
<GCONST> 9.073004e+01
<MIXTURE> 2 3.223753e-01
<MEAN> 39
 -1.401110e+01 -6.928582e-01 -3.418632e+00 -5.114297e+00 4.587657e-01 1.829253e+00 -1.261499e+00 2.174309e-01 -2.604093e+00 7.605822e-01 3.181212e+00 -2.583280e-01 5.912603e+01 -1.273242e-02 -3.804898e-02 3.730699e-03 8.861427e-02 1.734871e-01 1.915118e-01 1.510907e-01 1.265303e-01 1.015792e-01 6.854299e-02 1.735298e-02 -2.460465e-03 2.095922e-02 1.499543e-02 8.619612e-03 -1.042907e-03 -1.778542e-02 -4.438172e-02 -6.088211e-02 -4.786236e-02 -2.594396e-02 -1.160248e-02 -4.672231e-03 8.076503e-03 1.460084e-02 5.221487e-04
<VARIANCE> 39
 5.446956e+00 1.126091e+01 8.623468e+00 1.029215e+01 1.321451e+01 1.329707e+01 1.623924e+01 1.793347e+01 1.633418e+01 1.559119e+01 1.589542e+01 1.455660e+01 1.078956e+01 1.451328e-01 2.847527e-01 4.113593e-01 6.177740e-01 7.663070e-01 1.007744e+00 1.156141e+00 1.241171e+00 1.319573e+00 1.279530e+00 1.244359e+00 1.120161e+00 9.863435e-02 2.323885e-02 5.039204e-02 7.888900e-02 1.249855e-01 1.677897e-01 2.243066e-01 2.535342e-01 2.636264e-01 2.692184e-01 2.676491e-01 2.440502e-01 2.238527e-01 8.345971e-03
<GCONST> 7.089330e+01
<MIXTURE> 3 3.223794e-01
<MEAN> 39
 -1.401104e+01 -6.927863e-01 -3.418555e+00 -5.114215e+00 4.588215e-01 1.829301e+00 -1.261448e+00 2.174674e-01 -2.604082e+00 7.605286e-01 3.181119e+00 -2.584136e-01 5.912602e+01 -1.273252e-02 -3.804678e-02 3.731290e-03 8.861256e-02 1.734851e-01 1.915109e-01 1.510879e-01 1.265291e-01 1.015806e-01 6.854373e-02 1.735308e-02 -2.460428e-03 2.095669e-02 1.499320e-02 8.615122e-03 -1.048963e-03 -1.779319e-02 -4.438895e-02 -6.088888e-02 -4.786767e-02 -2.594770e-02 -1.160392e-02 -4.668331e-03 8.084173e-03 1.460749e-02 5.218273e-04
<VARIANCE> 39
 5.446990e+00 1.126084e+01 8.623483e+00 1.029212e+01 1.321447e+01 1.329700e+01 1.623910e+01 1.793342e+01 1.633424e+01 1.559126e+01 1.589536e+01 1.455651e+01 1.078979e+01 1.451337e-01 2.847525e-01 4.113570e-01 6.177744e-01 7.663066e-01 1.007747e+00 1.156140e+00 1.241171e+00 1.319577e+00 1.279535e+00 1.244364e+00 1.120158e+00 9.863608e-02 2.323892e-02 5.039181e-02 7.888845e-02 1.249851e-01 1.677892e-01 2.243058e-01 2.535324e-01 2.636255e-01 2.692203e-01 2.676508e-01 2.440495e-01 2.238524e-01 8.346042e-03
<GCONST> 7.089336e+01
<MIXTURE> 4 1.710082e-01
<MEAN> 39
 -1.332012e+01 8.517540e-01 -2.750455e+00 -5.952607e+00 -9.950348e-01 -3.369573e-01 -2.957963e+00 -5.124435e-01 -2.355515e+00 2.593780e+00 5.481218e+00 1.749724e+00 5.798314e+01 8.822126e-02 -7.603920e-02 -2.802879e-01 -5.694914e-01 -7.552705e-01 -7.970564e-01 -7.491276e-01 -6.696635e-01 -5.516365e-01 -3.479617e-01 -1.260638e-01 1.809951e-02 2.745973e-01 5.696498e-02 -1.467693e-02 2.129504e-02 6.342031e-02 3.253158e-02 6.116535e-02 6.786259e-02 -1.221426e-02 -6.859102e-02 -1.700898e-01 -2.314483e-01 -1.933248e-01 4.048832e-02
<VARIANCE> 39
 5.633597e+00 9.375929e+00 8.832717e+00 1.147336e+01 1.322797e+01 1.487280e+01 1.765364e+01 2.036431e+01 1.797478e+01 1.413470e+01 1.799149e+01 1.540077e+01 1.525799e+01 3.227790e-01 4.167843e-01 5.864952e-01 8.256398e-01 8.715119e-01 9.952684e-01 1.196039e+00 1.311826e+00 1.251595e+00 1.223520e+00 1.390495e+00 1.295078e+00 3.161524e-01 3.251494e-02 7.046746e-02 1.105490e-01 1.708442e-01 2.201477e-01 2.581124e-01 2.739141e-01 2.944854e-01 2.840863e-01 2.482134e-01 2.701623e-01 2.464976e-01 2.170304e-02
<GCONST> 7.813144e+01
<STATE> 4
<NUMMIXES> 4
<MIXTURE> 1 2.585839e-01
<MEAN> 39
 -5.701547e+00 2.466396e+00 -1.404511e-01 -1.026579e+00 2.259228e+00 1.177659e+00 -1.009975e+00 -1.452896e+00 -3.368509e+00 -1.730527e+00 -2.364206e-01 -2.497958e+00 5.946968e+01 1.579734e-02 7.921328e-02 1.170580e-01 1.344955e-01 1.405559e-01 1.026712e-01 1.086585e-01 3.832188e-02 1.728838e-02 -2.270585e-02 2.466803e-03 -1.783164e-02 -4.078865e-01 1.346089e-03 -2.100695e-02 -5.776194e-02 -1.012577e-01 -1.268492e-01 -1.239225e-01 -1.078479e-01 -5.445516e-02 -5.100792e-02 -6.910540e-02 -7.018179e-02 -3.092940e-02 2.880739e-02
<VARIANCE> 39
 1.574927e+01 8.294856e+00 9.429576e+00 8.104385e+00 9.296634e+00 1.091161e+01 1.357276e+01 1.700123e+01 1.694575e+01 1.598208e+01 1.373971e+01 1.333155e+01 4.727768e+01 1.872755e-01 2.793751e-01 4.306484e-01 6.594485e-01 8.363152e-01 1.015499e+00 1.099813e+00 1.229436e+00 1.341342e+00 1.382211e+00 1.256183e+00 1.109949e+00 1.485020e-01 2.397902e-02 4.663651e-02 7.479224e-02 1.189328e-01 1.502047e-01 1.906483e-01 2.059565e-01 2.373619e-01 2.610939e-01 2.717422e-01 2.381826e-01 2.260041e-01 1.082019e-02
<GCONST> 7.240285e+01
<MIXTURE> 2 2.786416e-01
<MEAN> 39
 -5.123614e+00 4.239716e-02 -3.247513e+00 -4.588178e+00 -1.536811e+00 -2.135623e+00 -3.832188e+00 -3.043935e+00 -4.522968e+00 -3.076374e+00 -2.237720e+00 -3.202346e+00 7.017589e+01 7.413670e-02 5.633483e-02 5.221008e-02 9.730652e-02 8.555430e-02 5.748516e-02 6.187946e-02 -5.582268e-04 1.623018e-02 2.899876e-02 5.760145e-02 3.917135e-02 -2.025359e-01 -1.775709e-02 -6.073877e-03 -2.903877e-03 -3.057461e-03 4.668428e-03 9.896566e-03 2.873703e-02 3.440168e-02 3.587454e-02 4.995933e-02 4.815578e-02 3.280400e-02 -1.520767e-02
<VARIANCE> 39
 5.893169e+00 8.446142e+00 8.467625e+00 9.875296e+00 1.024009e+01 1.022689e+01 1.323924e+01 1.522971e+01 1.538866e+01 1.330283e+01 1.367309e+01 1.186174e+01 3.927018e+01 1.603953e-01 2.560079e-01 4.038376e-01 6.115724e-01 8.200262e-01 9.745706e-01 1.148209e+00 1.172690e+00 1.271552e+00 1.230685e+00 1.251853e+00 1.138637e+00 2.546388e-01 2.559039e-02 4.659535e-02 7.620719e-02 1.130555e-01 1.545369e-01 1.886316e-01 2.235489e-01 2.273678e-01 2.461762e-01 2.469662e-01 2.528131e-01 2.270046e-01 1.809235e-02
<GCONST> 7.129520e+01
<MIXTURE> 3 2.786426e-01
<MEAN> 39
 -5.123600e+00 4.239193e-02 -3.247516e+00 -4.588197e+00 -1.536822e+00 -2.135632e+00 -3.832177e+00 -3.043915e+00 -4.522935e+00 -3.076349e+00 -2.237694e+00 -3.202336e+00 7.017590e+01 7.413672e-02 5.633445e-02 5.220938e-02 9.730574e-02 8.555295e-02 5.748424e-02 6.187845e-02 -5.581289e-04 1.622985e-02 2.899823e-02 5.760108e-02 3.917101e-02 -2.025354e-01 -1.775758e-02 -6.073731e-03 -2.903324e-03 -3.056313e-03 4.669642e-03 9.897107e-03 2.873571e-02 3.439930e-02 3.587103e-02 4.995594e-02 4.815271e-02 3.280242e-02 -1.520774e-02
<VARIANCE> 39
 5.893119e+00 8.446098e+00 8.467548e+00 9.875265e+00 1.024001e+01 1.022676e+01 1.323914e+01 1.522956e+01 1.538853e+01 1.330273e+01 1.367300e+01 1.186167e+01 3.926998e+01 1.603944e-01 2.560068e-01 4.038366e-01 6.115706e-01 8.200253e-01 9.745696e-01 1.148209e+00 1.172687e+00 1.271549e+00 1.230680e+00 1.251843e+00 1.138631e+00 2.546385e-01 2.559022e-02 4.659516e-02 7.620668e-02 1.130547e-01 1.545358e-01 1.886295e-01 2.235474e-01 2.273654e-01 2.461740e-01 2.469640e-01 2.528113e-01 2.270033e-01 1.809222e-02
<GCONST> 7.129498e+01
<MIXTURE> 4 1.841272e-01
<MEAN> 39
 -6.630328e+00 -8.778918e-01 -4.862286e+00 -6.412093e+00 -3.451005e+00 -3.407758e+00 -4.144653e+00 -2.006532e+00 -3.880104e+00 -1.847395e+00 -1.773313e+00 -2.328447e+00 7.213162e+01 6.259973e-02 -1.626330e-01 -1.372394e-01 -2.148051e-01 -2.310491e-01 -1.941724e-01 -2.035782e-01 -1.436220e-01 -9.223814e-02 -9.074984e-02 -1.726765e-01 -1.203125e-01 4.374545e-01 2.914654e-03 4.262779e-02 9.997674e-02 1.623247e-01 1.915678e-01 1.848279e-01 8.085063e-02 -1.753474e-02 -2.277873e-02 -3.757631e-02 -9.001832e-03 -2.396398e-02 -7.792991e-02
<VARIANCE> 39
 7.658525e+00 9.412746e+00 1.258947e+01 1.393009e+01 1.270667e+01 1.187149e+01 1.559927e+01 2.056804e+01 1.936335e+01 1.710278e+01 1.464397e+01 1.332874e+01 3.824188e+01 3.943969e-01 4.457555e-01 7.140805e-01 9.272345e-01 1.062449e+00 1.257279e+00 1.333461e+00 1.489644e+00 1.548995e+00 1.558328e+00 1.389853e+00 1.306446e+00 6.697298e-01 6.676445e-02 8.677169e-02 1.357097e-01 1.781456e-01 1.986897e-01 2.414788e-01 2.816040e-01 3.154207e-01 3.458876e-01 3.336096e-01 2.923544e-01 2.696563e-01 8.674241e-02
<GCONST> 8.505557e+01
<TRANSP> 5
 0.000000e+00 1.000000e+00 0.000000e+00 0.000000e+00 0.000000e+00
 0.000000e+00 9.546862e-01 4.531387e-02 0.000000e+00 0.000000e+00
 0.000000e+00 0.000000e+00 9.607128e-01 3.928724e-02 0.000000e+00
 0.000000e+00 0.000000e+00 0.000000e+00 9.861260e-01 1.387400e-02
 0.000000e+00 0.000000e+00 0.000000e+00 0.000000e+00 0.000000e+00
<ENDHMM>
~h "co"
<BEGINHMM>
<NUMSTATES> 5
<STATE> 2
<NUMMIXES> 4
<MIXTURE> 1 4.349031e-01
<MEAN> 39
 -1.055970e+01 -4.547803e+00 2.603956e+00 -3.439752e+00 -1.289422e+01 -8.709167e+00 -2.412363e+00 -3.190299e+00 -5.383558e+00 -7.155289e+00 -4.963324e+00 -8.282475e+00 7.308893e+01 -8.627809e-01 -1.372836e-01 1.462934e-01 3.115945e-02 1.176538e+00 5.700934e-01 7.862369e-01 -3.456128e-01 -8.969690e-01 -5.041801e-02 6.973199e-01 3.043343e-01 1.270693e+00 2.607891e-01 -1.843153e-01 -2.405932e-01 1.309922e-01 4.995641e-02 1.154217e-01 -7.288777e-02 1.668635e-01 4.526119e-01 4.065688e-01 1.223055e-01 6.039058e-02 -6.119274e-01
<VARIANCE> 39
 8.748050e+00 1.150288e+01 2.062178e+01 1.975211e+01 3.210977e+01 3.997116e+01 4.361025e+01 5.507435e+01 2.362282e+01 2.296511e+01 2.093774e+01 2.186678e+01 2.137954e+01 6.236761e-01 1.050318e+00 1.044184e+00 1.458544e+00 1.735248e+00 1.803097e+00 2.242029e+00 1.994289e+00 2.459308e+00 2.476124e+00 1.466547e+00 1.902445e+00 1.185261e+00 8.975255e-02 1.871695e-01 2.202910e-01 2.085992e-01 3.260233e-01 4.500048e-01 4.536566e-01 3.532841e-01 3.418262e-01 3.639900e-01 3.383198e-01 3.658676e-01 1.175152e-01
<GCONST> 1.011319e+02
<MIXTURE> 2 1.870130e-01
<MEAN> 39
 -5.029870e+00 -5.688700e+00 -6.633950e-01 1.237668e+00 -8.776735e+00 -2.625085e+00 -5.098824e+00 -7.874439e-01 3.178008e+00 -4.436682e-01 -2.893776e+00 -6.575589e+00 5.683678e+01 -2.590269e-01 -3.333513e-01 2.438260e-01 -2.293445e-01 -9.897048e-01 -1.056977e+00 -3.860821e-01 -5.074592e-01 -1.178615e-01 -5.469660e-01 -4.193149e-01 -5.785518e-02 1.582048e+00 -4.503661e-02 -3.563319e-02 5.409501e-02 -4.612553e-02 -9.750449e-02 -1.451738e-01 9.822825e-04 -1.648258e-02 -9.426936e-02 -2.188239e-02 -5.030749e-02 -6.923167e-02 2.630273e-01
<VARIANCE> 39
 1.781941e+01 4.091149e+01 4.058158e+01 3.579382e+01 1.042403e+02 5.596557e+01 7.320692e+01 6.273481e+01 5.316636e+01 3.786927e+01 7.527394e+01 3.452253e+01 7.868189e+01 8.034633e-01 1.222733e+00 1.616282e+00 1.551618e+00 5.176809e+00 3.189537e+00 3.469319e+00 3.630924e+00 2.984725e+00 2.857485e+00 1.982048e+00 2.308756e+00 2.196273e+00 7.091400e-02 1.384455e-01 1.360974e-01 1.202392e-01 4.499299e-01 3.624855e-01 4.171286e-01 5.294963e-01 3.543277e-01 3.540839e-01 2.804419e-01 3.475917e-01 2.952460e-01
<GCONST> 1.154959e+02
<MIXTURE> 3 1.870252e-01
<MEAN> 39
 -5.028537e+00 -5.689029e+00 -6.632478e-01 1.238781e+00 -8.778186e+00 -2.625816e+00 -5.100865e+00 -7.877988e-01 3.177902e+00 -4.446480e-01 -2.895721e+00 -6.576372e+00 5.683772e+01 -2.590519e-01 -3.331977e-01 2.438071e-01 -2.292576e-01 -9.889707e-01 -1.056606e+00 -3.858877e-01 -5.075526e-01 -1.181060e-01 -5.469719e-01 -4.190577e-01 -5.786855e-02 1.581816e+00 -4.510380e-02 -3.562700e-02 5.408348e-02 -4.612271e-02 -9.739908e-02 -1.450972e-01 1.068036e-03 -1.649885e-02 -9.426850e-02 -2.180959e-02 -5.023126e-02 -6.914072e-02 2.628972e-01
<VARIANCE> 39
 1.780566e+01 4.091589e+01 4.058346e+01 3.579665e+01 1.042381e+02 5.597202e+01 7.321053e+01 6.273927e+01 5.316529e+01 3.787276e+01 7.528801e+01 3.452305e+01 7.867415e+01 8.027892e-01 1.222565e+00 1.615824e+00 1.551239e+00 5.175035e+00 3.188993e+00 3.468956e+00 3.630754e+00 2.984333e+00 2.857156e+00 1.981646e+00 2.308708e+00 2.195804e+00 7.084880e-02 1.384225e-01 1.360509e-01 1.202368e-01 4.498135e-01 3.623672e-01 4.170925e-01 5.293846e-01 3.542122e-01 3.540582e-01 2.803941e-01 3.475307e-01 2.951415e-01
<GCONST> 1.154895e+02
<MIXTURE> 4 1.910582e-01
<MEAN> 39
 -6.308557e+00 -7.746045e+00 -2.679971e-01 -2.241849e+00 -1.909081e+01 -9.350192e+00 -4.948441e+00 8.693542e-01 3.648367e+00 -8.368279e-01 -5.275541e+00 -7.388693e+00 6.479318e+01 -6.252142e-01 1.546127e-01 2.769848e-01 -8.993714e-01 -1.418919e+00 -1.663797e+00 -9.994956e-01 -1.304768e+00 -2.064954e+00 -2.002576e+00 -1.331607e+00 -1.326443e+00 4.573639e+00 -2.663408e-01 4.810206e-01 5.661681e-02 4.898054e-02 1.246699e+00 6.562437e-01 5.362902e-01 -7.797164e-02 -6.734368e-01 -2.292907e-01 4.251774e-01 1.788366e-01 -3.005853e-01
<VARIANCE> 39
 1.420418e+01 3.539229e+01 2.745167e+01 4.046893e+01 5.689662e+01 5.445911e+01 1.028499e+02 7.752715e+01 4.977906e+01 4.572332e+01 3.368208e+01 4.617209e+01 5.705495e+01 1.420574e+00 3.942852e+00 2.687159e+00 2.287764e+00 9.118439e+00 3.436740e+00 4.017380e+00 4.314837e+00 4.859029e+00 3.191051e+00 2.790366e+00 2.561666e+00 1.985798e+00 1.943579e-01 4.497560e-01 4.271039e-01 4.721637e-01 4.824590e-01 5.848166e-01 9.245533e-01 8.143945e-01 8.882558e-01 8.534343e-01 4.921417e-01 7.232311e-01 5.099920e-01
<GCONST> 1.287162e+02
<STATE> 3
<NUMMIXES> 4
<MIXTURE> 1 2.848313e-01
<MEAN> 39
 -5.436120e+00 -4.806671e+00 1.261664e+00 -2.462870e-01 -3.447415e+00 -7.323369e+00 -5.162834e+00 -9.639266e+00 -7.287242e+00 -3.938195e+00 -2.301495e+00 -7.711662e+00 6.371732e+01 1.665566e-01 1.087489e-01 1.163821e-01 2.177682e-01 4.327633e-01 3.205139e-01 3.164121e-01 1.413320e-01 1.397712e-01 2.755663e-01 2.255234e-01 2.105298e-01 -6.808987e-01 -3.498568e-02 -7.207071e-02 -1.225792e-01 -1.627773e-01 -2.212780e-01 -5.604561e-02 2.081843e-02 1.674599e-01 1.681115e-01 6.872483e-02 2.488429e-02 2.984858e-03 7.952727e-03
<VARIANCE> 39
 2.269297e+01 7.186159e+00 1.652329e+01 1.593373e+01 1.685015e+01 2.759621e+01 4.854730e+01 4.728319e+01 3.013010e+01 2.833780e+01 2.589734e+01 3.585519e+01 4.384383e+01 1.701792e-01 2.870848e-01 5.119864e-01 7.862797e-01 9.993651e-01 1.079879e+00 1.272486e+00 1.517298e+00 1.781164e+00 1.423137e+00 1.291641e+00 1.290000e+00 8.639688e-02 3.337501e-02 5.739807e-02 8.628584e-02 1.547671e-01 2.083613e-01 2.382091e-01 2.627494e-01 3.019777e-01 3.442799e-01 2.924452e-01 2.728803e-01 2.757585e-01 2.144335e-02
<GCONST> 8.455084e+01
<MIXTURE> 2 2.794354e-01
<MEAN> 39
 -6.978340e+00 -7.288394e+00 -2.041138e+00 -3.315726e+00 -8.351440e+00 -8.295918e+00 -6.896515e+00 -6.427200e+00 -4.655283e+00 -4.832026e+00 -4.318855e+00 -9.917192e+00 7.013028e+01 2.383571e-01 -2.500327e-02 -3.790583e-02 9.016380e-02 3.349778e-01 -3.819326e-02 -2.644604e-01 -3.227658e-01 -1.026533e-01 5.871458e-02 3.520988e-02 -9.742741e-02 -4.373724e-01 5.147725e-02 7.955978e-02 1.024231e-01 1.099769e-01 5.025745e-02 1.183450e-02 -3.780747e-02 -7.708381e-02 -9.021969e-02 -8.634496e-02 -9.946827e-02 -3.125544e-02 -4.273137e-02
<VARIANCE> 39
 1.457084e+01 9.179374e+00 2.262451e+01 1.906898e+01 2.203184e+01 3.072555e+01 4.861822e+01 5.334433e+01 3.940515e+01 4.434275e+01 3.845068e+01 4.089607e+01 2.178185e+01 2.439745e-01 4.819474e-01 7.339875e-01 8.775981e-01 1.299001e+00 1.320820e+00 1.667421e+00 1.900660e+00 2.148917e+00 2.118401e+00 1.811901e+00 1.579941e+00 2.053046e-01 4.760692e-02 8.865941e-02 1.328385e-01 1.703583e-01 2.391109e-01 2.673344e-01 3.427814e-01 3.771222e-01 4.391463e-01 4.291267e-01 3.592013e-01 3.140382e-01 3.437385e-02
<GCONST> 9.374936e+01
<MIXTURE> 3 2.794338e-01
<MEAN> 39
 -6.978340e+00 -7.288406e+00 -2.041167e+00 -3.315749e+00 -8.351433e+00 -8.295923e+00 -6.896492e+00 -6.427171e+00 -4.655274e+00 -4.831996e+00 -4.318822e+00 -9.917159e+00 7.013026e+01 2.383595e-01 -2.500170e-02 -3.790453e-02 9.016559e-02 3.349796e-01 -3.819357e-02 -2.644620e-01 -3.227680e-01 -1.026557e-01 5.871177e-02 3.520679e-02 -9.742733e-02 -4.373772e-01 5.147801e-02 7.956216e-02 1.024255e-01 1.099787e-01 5.025752e-02 1.183341e-02 -3.780987e-02 -7.708739e-02 -9.022382e-02 -8.634920e-02 -9.947193e-02 -3.125767e-02 -4.273034e-02
<VARIANCE> 39
 1.457084e+01 9.179347e+00 2.262454e+01 1.906894e+01 2.203181e+01 3.072540e+01 4.861817e+01 5.334449e+01 3.940528e+01 4.434275e+01 3.845059e+01 4.089599e+01 2.178195e+01 2.439717e-01 4.819439e-01 7.339830e-01 8.775948e-01 1.298997e+00 1.320817e+00 1.667416e+00 1.900655e+00 2.148911e+00 2.118394e+00 1.811895e+00 1.579936e+00 2.053024e-01 4.760641e-02 8.865853e-02 1.328381e-01 1.703575e-01 2.391104e-01 2.673342e-01 3.427804e-01 3.771221e-01 4.391462e-01 4.291264e-01 3.592003e-01 3.140378e-01 3.437341e-02
<GCONST> 9.374921e+01
<MIXTURE> 4 1.562972e-01
<MEAN> 39
 -6.034729e+00 -6.239715e+00 4.660288e-01 -1.368826e+00 -1.051815e+01 -8.413795e+00 -6.343345e+00 -7.062043e+00 -2.926564e+00 -4.090349e+00 -6.627569e+00 -9.350060e+00 6.612836e+01 -3.763428e-01 -8.694685e-02 -4.641221e-02 -4.187156e-01 -1.264341e+00 -2.258204e-01 -1.854696e-01 4.919673e-01 1.703388e-01 -4.282730e-01 -4.617643e-01 -2.568287e-01 1.563576e+00 -9.566489e-02 -1.059250e-01 -6.190794e-02 -6.804652e-02 1.804042e-01 7.995828e-02 1.059405e-01 3.857148e-02 5.032643e-02 1.540800e-01 2.479750e-01 1.022580e-01 5.838114e-02
<VARIANCE> 39
 1.236957e+01 1.853248e+01 2.091434e+01 2.714812e+01 5.710445e+01 3.946606e+01 5.477668e+01 6.332383e+01 6.534321e+01 3.435257e+01 4.500990e+01 3.869321e+01 5.778776e+01 1.154097e+00 2.386087e+00 2.135400e+00 2.622537e+00 6.287757e+00 3.456064e+00 4.692356e+00 3.870803e+00 8.264238e+00 3.700932e+00 4.411341e+00 3.043294e+00 2.595870e+00 1.132410e-01 4.732827e-01 3.029831e-01 4.149874e-01 1.358743e+00 5.992041e-01 6.717800e-01 7.256869e-01 1.659616e+00 7.343100e-01 8.099153e-01 5.023269e-01 6.021870e-01
<GCONST> 1.271140e+02
<STATE> 4
<NUMMIXES> 4
<MIXTURE> 1 3.219958e-01
<MEAN> 39
 -3.435817e+00 -1.644686e-01 4.216731e+00 2.360861e+00 2.321754e+00 -3.648491e-01 -9.407524e-01 -2.549066e+00 -3.280797e+00 -3.193100e+00 -2.923458e+00 -6.707609e+00 4.971580e+01 -2.161355e-02 2.079376e-01 -8.123353e-02 -7.036320e-02 9.959348e-02 2.011242e-01 2.498700e-01 3.556940e-01 6.044926e-02 1.534803e-03 -2.827540e-02 3.863559e-03 -3.480397e-01 4.364656e-04 -6.757105e-03 -4.710704e-04 5.878657e-03 -1.481979e-02 -1.902098e-02 -1.535825e-02 -3.864214e-02 -2.867419e-02 -2.612628e-02 -2.321354e-02 -2.350943e-02 3.352852e-02
<VARIANCE> 39
 1.051668e+01 1.374483e+01 1.750496e+01 2.055685e+01 1.643147e+01 1.591205e+01 2.433291e+01 3.004393e+01 2.712972e+01 1.794318e+01 1.755013e+01 1.671090e+01 1.523940e+01 1.703339e-01 3.108939e-01 5.074278e-01 6.759252e-01 8.009760e-01 9.911184e-01 1.186312e+00 1.278803e+00 1.312476e+00 1.433521e+00 1.318602e+00 1.134348e+00 9.023933e-02 2.327302e-02 5.469213e-02 9.429964e-02 1.177320e-01 1.410876e-01 1.737999e-01 2.138041e-01 2.414262e-01 2.381810e-01 2.544690e-01 2.435812e-01 2.167476e-01 6.543822e-03
<GCONST> 7.548402e+01
<MIXTURE> 2 2.601399e-01
<MEAN> 39
 -3.656103e+00 -4.997798e+00 4.421643e+00 2.225211e+00 -1.922408e+00 -3.554919e+00 -7.324280e+00 -6.423882e+00 -4.264658e+00 -5.183332e+00 -4.452589e+00 -8.688537e+00 6.083280e+01 1.861356e-01 1.582456e-01 3.382105e-02 5.921599e-02 2.936207e-01 6.771184e-02 4.969500e-02 -1.433858e-02 -7.181984e-02 4.188147e-02 3.679424e-02 9.396964e-02 -5.959066e-01 -7.395038e-03 -2.294514e-03 -2.739806e-02 -1.630291e-02 -5.698302e-02 -6.856798e-03 -5.125937e-03 3.102649e-02 3.185173e-02 2.047195e-02 6.691137e-03 5.370534e-04 -9.164959e-03
<VARIANCE> 39
 1.443225e+01 1.718373e+01 1.861188e+01 2.785054e+01 2.875814e+01 3.114395e+01 5.409225e+01 4.289239e+01 3.102506e+01 4.359811e+01 3.631249e+01 2.879212e+01 3.869317e+01 2.210071e-01 3.667381e-01 5.913042e-01 7.408484e-01 9.905942e-01 1.133832e+00 1.358298e+00 1.277572e+00 1.549107e+00 1.641147e+00 1.526937e+00 1.296733e+00 1.195183e-01 3.824125e-02 6.956469e-02 1.133672e-01 1.530524e-01 2.035692e-01 2.444448e-01 2.761873e-01 2.562392e-01 3.222100e-01 3.541847e-01 3.217655e-01 2.637489e-01 1.549320e-02
<GCONST> 8.819035e+01
<MIXTURE> 3 2.601366e-01
<MEAN> 39
 -3.656082e+00 -4.997768e+00 4.421652e+00 2.225234e+00 -1.922359e+00 -3.554929e+00 -7.324226e+00 -6.423879e+00 -4.264638e+00 -5.183293e+00 -4.452551e+00 -8.688497e+00 6.083271e+01 1.861334e-01 1.582433e-01 3.381637e-02 5.921168e-02 2.936145e-01 6.770929e-02 4.969518e-02 -1.433793e-02 -7.181600e-02 4.188655e-02 3.679752e-02 9.397139e-02 -5.959108e-01 -7.395401e-03 -2.294112e-03 -2.739813e-02 -1.630360e-02 -5.698321e-02 -6.858205e-03 -5.127712e-03 3.102480e-02 3.184927e-02 2.046943e-02 6.688643e-03 5.351893e-04 -9.164313e-03
<VARIANCE> 39
 1.443220e+01 1.718358e+01 1.861168e+01 2.785048e+01 2.875799e+01 3.114368e+01 5.409184e+01 4.289214e+01 3.102494e+01 4.359774e+01 3.631226e+01 2.879199e+01 3.869287e+01 2.210049e-01 3.667336e-01 5.912986e-01 7.408436e-01 9.905871e-01 1.133823e+00 1.358292e+00 1.277565e+00 1.549094e+00 1.641132e+00 1.526927e+00 1.296723e+00 1.195168e-01 3.824092e-02 6.956416e-02 1.133661e-01 1.530515e-01 2.035688e-01 2.444445e-01 2.761864e-01 2.562372e-01 3.222086e-01 3.541824e-01 3.217640e-01 2.637484e-01 1.549303e-02
<GCONST> 8.819009e+01
<MIXTURE> 4 1.577257e-01
<MEAN> 39
 -4.858206e+00 -5.572885e+00 2.832341e+00 1.796798e+00 -7.975726e+00 -3.417500e+00 -6.997529e+00 -4.712726e+00 -2.648613e+00 -4.215221e+00 -5.008197e+00 -9.830771e+00 6.209095e+01 -3.775694e-01 -2.978829e-01 2.196156e-01 1.354864e-01 -5.046609e-01 -1.801846e-01 -2.151746e-01 -9.842241e-02 5.957917e-02 -2.423155e-01 -7.456473e-02 -1.170439e-01 1.255899e+00 8.539279e-03 3.198891e-02 3.454636e-02 1.822744e-02 1.918969e-01 1.888284e-02 4.653785e-02 -7.010513e-02 -8.381855e-02 -2.409256e-02 4.112694e-02 3.035156e-02 4.674814e-03
<VARIANCE> 39
 1.251572e+01 3.150146e+01 2.844776e+01 2.393221e+01 5.661683e+01 4.673464e+01 5.593407e+01 5.509152e+01 3.958844e+01 4.869912e+01 4.073610e+01 4.148260e+01 7.669665e+01 6.677963e-01 1.781866e+00 1.426948e+00 1.847556e+00 5.057643e+00 2.499354e+00 4.412555e+00 3.486763e+00 2.732826e+00 3.386053e+00 2.708330e+00 2.637419e+00 2.534961e+00 1.159053e-01 2.976162e-01 2.423529e-01 3.312047e-01 8.709280e-01 4.270838e-01 7.834327e-01 5.779882e-01 4.962631e-01 6.902122e-01 5.272651e-01 5.211517e-01 4.704950e-01
<GCONST> 1.201752e+02
<TRANSP> 5
 0.000000e+00 1.000000e+00 0.000000e+00 0.000000e+00 0.000000e+00
 0.000000e+00 8.893326e-01 1.106674e-01 0.000000e+00 0.000000e+00
 0.000000e+00 0.000000e+00 9.836193e-01 1.638071e-02 0.000000e+00
 0.000000e+00 0.000000e+00 0.000000e+00 9.813330e-01 1.866703e-02
 0.000000e+00 0.000000e+00 0.000000e+00 0.000000e+00 0.000000e+00
<ENDHMM>
~h "ds"
<BEGINHMM>
<NUMSTATES> 5
<STATE> 2
<NUMMIXES> 4
<MIXTURE> 1 2.194901e-01
<MEAN> 39
 -1.766518e+01 8.377711e-01 -2.310173e+00 -2.092140e+00 -3.189034e+00 -3.771055e+00 2.723065e+00 -4.128987e+00 2.862878e+00 2.509164e+00 5.336052e+00 4.578912e-01 7.501053e+01 3.584482e-01 1.680936e-01 6.582195e-01 9.733737e-01 1.323880e+00 1.379618e+00 8.197927e-01 5.098427e-01 1.543703e-01 -7.017562e-01 7.892803e-02 4.606791e-01 5.783355e-01 4.761861e-01 1.151093e-01 3.430857e-01 3.516675e-01 2.523711e-01 2.593921e-01 8.155108e-02 1.994790e-01 -2.221973e-02 8.775174e-02 -1.050536e-01 9.307074e-02 -8.338016e-01
<VARIANCE> 39
 9.000380e+00 9.844575e+00 1.039536e+01 1.668566e+01 2.736140e+01 1.932761e+01 2.211121e+01 1.959462e+01 2.086760e+01 1.909436e+01 1.643508e+01 1.479160e+01 2.552842e+01 1.343460e+00 1.811275e+00 1.015894e+00 1.136022e+00 1.084349e+00 1.528753e+00 2.108812e+00 2.623022e+00 2.218009e+00 1.928237e+00 1.706714e+00 1.493983e+00 2.427181e+00 2.618317e-01 2.121106e-01 1.560975e-01 2.584084e-01 3.311877e-01 3.861776e-01 5.183648e-01 3.908893e-01 5.011477e-01 3.645467e-01 3.539349e-01 3.247311e-01 2.800402e-01
<GCONST> 1.000143e+02
<MIXTURE> 2 2.730953e-01
<MEAN> 39
 -1.238916e+01 -4.375971e-01 2.029456e+00 2.906610e-01 2.383898e+00 -1.911149e-01 6.592917e+00 -1.859963e-01 1.515129e+00 1.203644e+00 4.240258e+00 4.468455e-01 6.000381e+01 1.878119e-01 1.011878e-01 5.491588e-02 8.169976e-02 -3.879039e-02 1.409494e-02 -1.318882e-02 -1.292140e-02 9.608028e-03 1.512250e-01 -2.378144e-02 7.492793e-02 -1.153425e-01 -9.402992e-02 3.593250e-02 -1.131912e-01 -9.955715e-02 -1.999409e-01 -1.690460e-01 -1.196717e-01 -1.283891e-01 -2.295243e-02 6.249622e-02 2.010684e-02 -5.107251e-02 1.569691e-01
<VARIANCE> 39
 1.966623e+01 1.209201e+01 1.090810e+01 1.728210e+01 1.520338e+01 1.991377e+01 2.314134e+01 3.695780e+01 3.095913e+01 2.001936e+01 1.905130e+01 1.702054e+01 5.290385e+01 5.661168e-01 4.701607e-01 7.171266e-01 9.209835e-01 1.509354e+00 1.472631e+00 1.565745e+00 2.029319e+00 1.593474e+00 1.754638e+00 1.682213e+00 1.526310e+00 1.002409e+00 1.326723e-01 9.537389e-02 1.448584e-01 1.972704e-01 3.023695e-01 3.046068e-01 2.852495e-01 3.812898e-01 3.142702e-01 3.527508e-01 3.280788e-01 3.004701e-01 2.212081e-01
<GCONST> 9.466795e+01
<MIXTURE> 3 2.730642e-01
<MEAN> 39
 -1.238912e+01 -4.375505e-01 2.029207e+00 2.903776e-01 2.383392e+00 -1.914865e-01 6.592412e+00 -1.863333e-01 1.515060e+00 1.203766e+00 4.240333e+00 4.466394e-01 6.000371e+01 1.876999e-01 1.011660e-01 5.491168e-02 8.166475e-02 -3.879787e-02 1.405589e-02 -1.316874e-02 -1.295543e-02 9.645394e-03 1.512238e-01 -2.375872e-02 7.493371e-02 -1.151661e-01 -9.400854e-02 3.592403e-02 -1.131471e-01 -9.950192e-02 -1.998527e-01 -1.689728e-01 -1.196057e-01 -1.283394e-01 -2.294620e-02 6.247856e-02 2.009888e-02 -5.104613e-02 1.569400e-01
<VARIANCE> 39
 1.966637e+01 1.209177e+01 1.090813e+01 1.728184e+01 1.520294e+01 1.991279e+01 2.314084e+01 3.695821e+01 3.095822e+01 2.001908e+01 1.905070e+01 1.701987e+01 5.290250e+01 5.662852e-01 4.701891e-01 7.171466e-01 9.210120e-01 1.509375e+00 1.472667e+00 1.565813e+00 2.029596e+00 1.593548e+00 1.754665e+00 1.682258e+00 1.526327e+00 1.002757e+00 1.326713e-01 9.536579e-02 1.448471e-01 1.972496e-01 3.023387e-01 3.045922e-01 2.852394e-01 3.813039e-01 3.142651e-01 3.527383e-01 3.280602e-01 3.004596e-01 2.211962e-01
<GCONST> 9.466821e+01
<MIXTURE> 4 2.343476e-01
<MEAN> 39
 -1.440721e+01 1.506820e+00 -1.079382e+00 -2.047250e+00 -4.047796e+00 -4.527485e+00 2.572365e+00 -4.143771e+00 1.721344e+00 4.492310e+00 4.853893e+00 8.596819e-01 6.674490e+01 -1.880674e+00 -2.393544e-01 -1.049099e+00 -1.134322e+00 -1.429546e+00 -1.305793e+00 -5.894546e-01 -3.915894e-01 1.058430e-01 3.898624e-01 2.252265e-01 -3.280589e-01 3.612864e+00 2.049684e-01 -8.301728e-02 2.181883e-01 2.411189e-01 5.412136e-01 5.140305e-01 2.813964e-01 2.477448e-01 4.601053e-03 -4.001679e-01 -4.589798e-02 1.022285e-01 -2.084051e-01
<VARIANCE> 39
 2.465757e+01 1.030343e+01 1.486169e+01 1.868438e+01 2.947845e+01 2.387049e+01 2.491938e+01 2.966082e+01 2.167598e+01 2.472021e+01 2.046811e+01 1.794235e+01 8.008304e+01 1.586335e+00 1.205622e+00 1.574806e+00 1.699313e+00 3.011712e+00 2.320510e+00 3.292217e+00 2.803042e+00 3.069838e+00 2.811707e+00 2.608844e+00 2.043648e+00 2.365879e+00 4.600921e-01 2.202119e-01 2.887335e-01 3.956726e-01 5.008650e-01 5.211314e-01 4.927510e-01 4.956568e-01 4.212268e-01 3.997307e-01 4.404596e-01 3.948071e-01 9.221079e-01
<GCONST> 1.122418e+02
<STATE> 3
<NUMMIXES> 4
<MIXTURE> 1 8.318903e-02
<MEAN> 39
 -7.911952e+00 7.770734e+00 3.800725e+00 3.993292e+00 1.927807e+00 -1.221403e+00 2.793008e+00 -3.415466e+00 8.695465e-01 -1.344787e+00 1.040684e+00 -1.197495e+00 7.985150e+01 1.280525e+00 5.644808e-01 8.135564e-01 6.372849e-01 6.704659e-01 7.057914e-01 1.455850e-01 2.759989e-01 -2.604738e-01 -1.248227e-01 -9.133758e-02 1.395130e-01 1.342778e+00 -8.493713e-01 -6.823359e-01 -4.853773e-01 -3.641502e-01 -2.786427e-01 -1.832472e-02 -1.213713e-01 2.467471e-01 1.602024e-01 1.866421e-01 1.066111e-01 4.768557e-02 -1.960986e+00
<VARIANCE> 39
 1.126839e+01 1.387047e+01 8.478539e+00 1.048591e+01 1.624111e+01 1.507769e+01 2.467322e+01 1.730427e+01 1.475400e+01 1.888575e+01 1.943941e+01 1.689306e+01 3.221077e+01 3.721641e+00 3.337687e+00 2.152851e+00 1.763952e+00 2.009099e+00 1.542157e+00 3.039790e+00 1.880770e+00 2.288939e+00 2.255749e+00 2.100055e+00 1.366247e+00 3.252317e+01 4.051441e-01 2.750460e-01 1.771168e-01 2.593384e-01 3.223898e-01 2.650436e-01 5.673417e-01 3.735206e-01 3.717971e-01 4.394985e-01 3.947789e-01 3.549830e-01 4.620640e+00
<GCONST> 1.090436e+02
<MIXTURE> 2 4.352813e-01
<MEAN> 39
 -1.490255e+01 3.097921e-01 -7.831984e-01 3.794144e-01 -1.403649e+00 -1.888098e+00 1.474377e+00 -3.133125e+00 8.969123e-01 2.626414e+00 4.199073e+00 -4.945499e-01 6.880920e+01 3.384556e-01 -1.245453e-02 1.907229e-01 2.138283e-01 4.517143e-01 1.329048e-01 -2.103700e-02 -1.126645e-01 -1.350953e-01 -1.144469e-01 -1.450468e-01 -3.034538e-01 -7.457048e-01 1.101716e-02 2.077863e-02 -2.317846e-02 -4.250774e-02 -2.121184e-02 -3.270087e-02 -1.202110e-02 -4.931911e-02 -3.642922e-02 1.558781e-02 -5.372976e-03 -1.839451e-02 4.841272e-03
<VARIANCE> 39
 4.875832e+00 3.329821e+00 4.794809e+00 1.026488e+01 1.523523e+01 1.105740e+01 1.243414e+01 1.313159e+01 1.507150e+01 1.307673e+01 1.269502e+01 1.424505e+01 1.965329e+01 1.353594e-01 2.542213e-01 4.403586e-01 6.359208e-01 8.177992e-01 1.107703e+00 1.170127e+00 1.255685e+00 1.369574e+00 1.248640e+00 1.236981e+00 1.233686e+00 5.046660e-02 2.828865e-02 5.245978e-02 9.014418e-02 1.208964e-01 1.611179e-01 2.589809e-01 2.373130e-01 2.618065e-01 2.761651e-01 2.652361e-01 2.525208e-01 2.592575e-01 1.187657e-02
<GCONST> 6.889828e+01
<MIXTURE> 3 4.352684e-01
<MEAN> 39
 -1.490294e+01 3.097259e-01 -7.833931e-01 3.791634e-01 -1.404190e+00 -1.888237e+00 1.474575e+00 -3.132750e+00 8.972617e-01 2.626795e+00 4.199388e+00 -4.940444e-01 6.881000e+01 3.384832e-01 -1.244333e-02 1.907469e-01 2.138937e-01 4.517127e-01 1.328650e-01 -2.106180e-02 -1.126715e-01 -1.350824e-01 -1.144344e-01 -1.450563e-01 -3.034533e-01 -7.457120e-01 1.102165e-02 2.078971e-02 -2.318511e-02 -4.251816e-02 -2.122333e-02 -3.273322e-02 -1.205409e-02 -4.936561e-02 -3.646187e-02 1.557227e-02 -5.400700e-03 -1.842789e-02 4.836417e-03
<VARIANCE> 39
 4.876195e+00 3.329687e+00 4.794756e+00 1.026498e+01 1.523494e+01 1.105718e+01 1.243363e+01 1.313111e+01 1.507125e+01 1.307676e+01 1.269427e+01 1.424446e+01 1.965390e+01 1.353484e-01 2.542219e-01 4.403509e-01 6.359143e-01 8.177590e-01 1.107699e+00 1.170121e+00 1.255688e+00 1.369563e+00 1.248598e+00 1.236929e+00 1.233637e+00 5.046304e-02 2.828752e-02 5.245878e-02 9.014045e-02 1.208912e-01 1.611114e-01 2.589932e-01 2.373053e-01 2.617988e-01 2.761571e-01 2.652335e-01 2.525029e-01 2.592439e-01 1.187728e-02
<GCONST> 6.889747e+01
<MIXTURE> 4 4.626042e-02
<MEAN> 39
 -1.795868e+01 -2.118450e+00 -4.542840e+00 -1.037688e+00 -2.113080e+00 -2.823730e-01 -1.139062e+00 4.423176e-02 -6.142030e-01 -1.569587e-01 -9.850461e-02 2.722918e-01 3.786549e+01 -7.552335e-01 -5.534770e-01 -2.971556e-01 -1.965692e-01 2.295394e-02 1.441736e-01 1.198500e-01 3.351510e-01 2.451093e-01 3.390648e-01 1.862989e-01 3.383107e-01 -3.570099e+00 7.813292e-01 6.394655e-01 5.635539e-01 3.442509e-01 3.125762e-01 -5.532537e-02 2.316916e-01 -1.666662e-01 1.103094e-01 -5.512678e-02 5.013585e-02 -5.676995e-02 2.960392e+00
<VARIANCE> 39
 3.935799e+01 8.202512e+00 6.101179e+00 5.179943e+00 4.882229e+00 6.049510e+00 7.518797e+00 9.270664e+00 7.710674e+00 1.139121e+01 6.406324e+00 9.537327e+00 6.517890e+02 1.017428e+01 3.317277e+00 2.950371e+00 1.446924e+00 1.275210e+00 9.724889e-01 1.551695e+00 1.234946e+00 8.152391e-01 1.403533e+00 8.008881e-01 1.279264e+00 1.427902e+02 1.251004e+00 2.046187e-01 1.809137e-01 1.892864e-01 1.647693e-01 2.086642e-01 2.420533e-01 2.344050e-01 1.612891e-01 2.412897e-01 2.029047e-01 2.512698e-01 1.758206e+01
<GCONST> 1.002293e+02
<STATE> 4
<NUMMIXES> 4
<MIXTURE> 1 1.573383e-01
<MEAN> 39
 -8.774929e+00 5.075297e+00 6.570871e+00 6.219907e+00 7.270576e+00 3.279170e+00 7.338584e+00 -5.682155e-01 2.607331e+00 2.729395e-01 2.784535e+00 1.396382e-01 6.458997e+01 1.251575e-01 -7.393553e-02 1.017646e-01 5.790533e-02 1.444257e-01 1.511887e-01 6.976502e-02 1.166522e-01 3.588876e-03 7.115923e-03 -4.300912e-02 -1.798247e-02 -5.978004e-01 -1.790937e-02 -4.856751e-02 -8.214687e-02 -1.112547e-01 -1.091961e-01 -9.725172e-02 -9.942891e-02 -6.510350e-02 -4.858082e-02 -3.476799e-02 -7.395181e-03 -2.160905e-02 1.832652e-04
<VARIANCE> 39
 1.441383e+01 8.864728e+00 1.006970e+01 8.086350e+00 1.103253e+01 1.241467e+01 1.323205e+01 1.393760e+01 1.579862e+01 1.453305e+01 1.472956e+01 1.277579e+01 8.111542e+01 3.156458e-01 3.481223e-01 5.312914e-01 7.319607e-01 8.875122e-01 1.108449e+00 1.274117e+00 1.389204e+00 1.480213e+00 1.558276e+00 1.532425e+00 1.283432e+00 1.865830e-01 6.548374e-02 7.603785e-02 1.055111e-01 1.443198e-01 1.804639e-01 2.199088e-01 2.564701e-01 2.703953e-01 3.051209e-01 3.082686e-01 3.143032e-01 2.593378e-01 3.747152e-02
<GCONST> 7.983132e+01
<MIXTURE> 2 3.324503e-01
<MEAN> 39
 -9.580011e+00 9.769782e-01 1.722325e+00 1.556561e-01 2.768176e+00 6.339509e-01 2.584141e+00 -8.672454e-01 -2.083215e-01 -5.179441e-01 1.706629e+00 -1.915388e+00 5.266343e+01 1.004690e-01 3.460496e-02 4.562376e-02 2.266644e-02 4.865861e-02 4.817059e-02 1.534435e-02 2.099567e-02 -4.213559e-03 3.418829e-02 7.696555e-03 -1.129263e-02 -2.302483e-01 -1.973763e-02 6.754905e-03 2.655771e-03 -2.449117e-04 -1.499003e-02 -7.262249e-03 -1.546322e-02 -6.664822e-03 1.171050e-02 1.461733e-02 2.359561e-02 6.343120e-04 2.324842e-02
<VARIANCE> 39
 1.293881e+01 8.445675e+00 1.104591e+01 1.118122e+01 1.398139e+01 1.889295e+01 1.917886e+01 1.832643e+01 2.204265e+01 2.049900e+01 1.637962e+01 1.578471e+01 2.075981e+01 2.414423e-01 3.151400e-01 5.257490e-01 7.471122e-01 9.914295e-01 1.185663e+00 1.338812e+00 1.399187e+00 1.535447e+00 1.543582e+00 1.423965e+00 1.228389e+00 1.604248e-01 3.884107e-02 5.854736e-02 1.003913e-01 1.452933e-01 1.962846e-01 2.361532e-01 2.657602e-01 2.805879e-01 3.073173e-01 3.134879e-01 2.911370e-01 2.506607e-01 1.805964e-02
<GCONST> 7.924576e+01
<MIXTURE> 3 3.324448e-01
<MEAN> 39
 -9.579964e+00 9.769835e-01 1.722258e+00 1.556941e-01 2.768206e+00 6.338227e-01 2.584264e+00 -8.672015e-01 -2.084593e-01 -5.177881e-01 1.706532e+00 -1.915479e+00 5.266341e+01 1.004669e-01 3.460444e-02 4.562369e-02 2.266468e-02 4.865706e-02 4.817173e-02 1.534165e-02 2.099462e-02 -4.211301e-03 3.418435e-02 7.697851e-03 -1.129375e-02 -2.302465e-01 -1.973869e-02 6.754741e-03 2.656925e-03 -2.454645e-04 -1.499007e-02 -7.259279e-03 -1.546714e-02 -6.666714e-03 1.171324e-02 1.461419e-02 2.359938e-02 6.380265e-04 2.324930e-02
<VARIANCE> 39
 1.293880e+01 8.445643e+00 1.104548e+01 1.118113e+01 1.398115e+01 1.889117e+01 1.917760e+01 1.832614e+01 2.204029e+01 2.049655e+01 1.637884e+01 1.578412e+01 2.075989e+01 2.414431e-01 3.151404e-01 5.257469e-01 7.471146e-01 9.914282e-01 1.185661e+00 1.338811e+00 1.399198e+00 1.535441e+00 1.543564e+00 1.423956e+00 1.228390e+00 1.604254e-01 3.884131e-02 5.854751e-02 1.003907e-01 1.452934e-01 1.962844e-01 2.361492e-01 2.657573e-01 2.805876e-01 3.073116e-01 3.134805e-01 2.911328e-01 2.506580e-01 1.805973e-02
<GCONST> 7.924513e+01
<MIXTURE> 4 1.777743e-01
<MEAN> 39
 -1.124814e+01 5.150617e-01 1.549506e-01 -1.481866e+00 8.260977e-01 -6.930387e-01 9.360731e-01 -2.296596e+00 2.142507e-01 -8.795025e-01 2.973256e+00 -1.619580e+00 5.744723e+01 -3.228563e-01 -5.000283e-02 -1.765029e-01 -1.065027e-01 -2.448185e-01 -2.271967e-01 -2.220701e-02 -7.584970e-02 4.053295e-02 -1.819068e-01 -4.189878e-02 6.229675e-02 9.748773e-01 8.097175e-02 1.633177e-02 5.170441e-02 8.913084e-02 1.340675e-01 9.767184e-02 1.365547e-01 8.236862e-02 7.758066e-03 -2.139876e-02 -7.392342e-02 2.218766e-02 -7.653158e-02
<VARIANCE> 39
 2.286240e+01 1.577809e+01 1.977227e+01 1.840762e+01 2.670078e+01 3.419655e+01 3.275588e+01 2.511053e+01 3.707487e+01 3.920242e+01 2.586594e+01 2.433628e+01 6.438216e+01 2.071790e+00 1.291502e+00 1.371704e+00 1.749481e+00 2.770546e+00 2.584316e+00 2.914998e+00 2.285878e+00 2.872361e+00 2.861795e+00 2.358262e+00 1.918297e+00 2.584032e+00 3.618789e-01 2.006492e-01 2.385996e-01 3.112693e-01 5.391563e-01 4.755655e-01 5.243087e-01 4.421967e-01 5.467835e-01 5.717166e-01 4.601165e-01 3.703277e-01 5.007299e-01
<GCONST> 1.135035e+02
<TRANSP> 5
 0.000000e+00 1.000000e+00 0.000000e+00 0.000000e+00 0.000000e+00
 0.000000e+00 9.355880e-01 6.441203e-02 0.000000e+00 0.000000e+00
 0.000000e+00 0.000000e+00 9.319634e-01 6.803664e-02 0.000000e+00
 0.000000e+00 0.000000e+00 0.000000e+00 9.932848e-01 6.715251e-03
 0.000000e+00 0.000000e+00 0.000000e+00 0.000000e+00 0.000000e+00
<ENDHMM>
~h "kj"
<BEGINHMM>
<NUMSTATES> 5
<STATE> 2
<NUMMIXES> 4
<MIXTURE> 1 1.677330e-01
<MEAN> 39
 -1.896621e+01 3.589253e+00 -1.917937e+00 -1.134058e+00 -2.521286e+00 8.564430e-02 4.295154e-02 -1.849188e-01 -2.118784e+00 -1.105209e+00 8.200389e-01 -5.389290e-01 5.555392e+01 2.194683e-01 2.477591e-01 1.599753e-01 2.648750e-01 3.855020e-01 4.052601e-01 4.117976e-01 3.614200e-01 3.768578e-01 3.236192e-01 2.419045e-01 6.860925e-02 -2.344760e-01 2.828041e-03 3.822443e-02 9.554995e-02 1.190920e-01 2.098112e-01 2.845088e-01 3.074200e-01 3.309567e-01 2.461640e-01 1.816259e-01 6.345366e-02 -9.873099e-03 1.020791e-02
<VARIANCE> 39
 2.902841e+01 2.723496e+01 1.689143e+01 3.049540e+01 1.708380e+01 2.969517e+01 2.606194e+01 1.987935e+01 1.733848e+01 1.899404e+01 1.620158e+01 1.724987e+01 1.849452e+01 3.131379e-01 4.233394e-01 4.841444e-01 7.128841e-01 9.196095e-01 1.161096e+00 1.304176e+00 1.400627e+00 1.427589e+00 1.522309e+00 1.337618e+00 1.188999e+00 1.541093e-01 5.986147e-02 7.345478e-02 1.011165e-01 1.678377e-01 2.054824e-01 2.109952e-01 2.693333e-01 2.603709e-01 2.874435e-01 2.946961e-01 2.842132e-01 2.687777e-01 2.669100e-02
<GCONST> 8.441207e+01
<MIXTURE> 2 3.269157e-01
<MEAN> 39
 -1.957545e+01 4.247828e+00 4.665235e-01 -1.522775e+00 -4.087101e-01 4.675241e+00 2.807083e+00 3.390419e+00 2.897057e-01 2.060269e-01 1.728741e+00 -1.005204e+00 5.534900e+01 1.396665e-01 2.533815e-02 -1.103432e-01 -9.986847e-02 -5.136174e-02 -3.371185e-02 -7.648274e-02 -6.280505e-02 -7.794060e-02 -6.167863e-02 -3.673982e-02 -4.132839e-02 -1.473598e-01 -1.836678e-02 -1.376869e-02 -3.425210e-02 -2.585545e-02 -7.085477e-02 -9.633158e-02 -8.074518e-02 -8.795737e-02 -6.821638e-02 -4.045470e-02 -2.093154e-02 1.322463e-02 1.170043e-02
<VARIANCE> 39
 3.001385e+01 1.973780e+01 1.402303e+01 2.565776e+01 1.487788e+01 3.051473e+01 2.443542e+01 1.886741e+01 1.605923e+01 2.060326e+01 1.674727e+01 1.509000e+01 2.219526e+01 3.810105e-01 3.575355e-01 5.682944e-01 8.229696e-01 9.812275e-01 1.254751e+00 1.471698e+00 1.507910e+00 1.488913e+00 1.596402e+00 1.472881e+00 1.300756e+00 1.765279e-01 7.590581e-02 7.205807e-02 1.101003e-01 1.615022e-01 1.813736e-01 2.386356e-01 2.750122e-01 2.874501e-01 2.986624e-01 3.195460e-01 2.966526e-01 2.580093e-01 3.343145e-02
<GCONST> 8.543250e+01
<MIXTURE> 3 3.269189e-01
<MEAN> 39
 -1.957545e+01 4.247823e+00 4.665300e-01 -1.522759e+00 -4.087038e-01 4.675241e+00 2.807121e+00 3.390423e+00 2.897143e-01 2.060269e-01 1.728723e+00 -1.005218e+00 5.534899e+01 1.396737e-01 2.533661e-02 -1.103459e-01 -9.986946e-02 -5.136052e-02 -3.371046e-02 -7.648262e-02 -6.280555e-02 -7.794056e-02 -6.167984e-02 -3.674115e-02 -4.132992e-02 -1.473649e-01 -1.836641e-02 -1.376860e-02 -3.425290e-02 -2.585637e-02 -7.085609e-02 -9.633429e-02 -8.074860e-02 -8.795904e-02 -6.821768e-02 -4.045335e-02 -2.092926e-02 1.322668e-02 1.170036e-02
<VARIANCE> 39
 3.001400e+01 1.973784e+01 1.402310e+01 2.565793e+01 1.487799e+01 3.051481e+01 2.443549e+01 1.886744e+01 1.605935e+01 2.060335e+01 1.674738e+01 1.509011e+01 2.219538e+01 3.810070e-01 3.575357e-01 5.682929e-01 8.229722e-01 9.812311e-01 1.254747e+00 1.471695e+00 1.507910e+00 1.488914e+00 1.596406e+00 1.472883e+00 1.300755e+00 1.765262e-01 7.590485e-02 7.205800e-02 1.101002e-01 1.615023e-01 1.813740e-01 2.386361e-01 2.750122e-01 2.874502e-01 2.986646e-01 3.195467e-01 2.966538e-01 2.580103e-01 3.343103e-02
<GCONST> 8.543255e+01
<MIXTURE> 4 1.784302e-01
<MEAN> 39
 -1.948792e+01 1.578926e+00 -1.153312e+00 -1.371322e+00 -1.681035e+00 2.388204e+00 1.903697e+00 1.130802e+00 -8.088975e-01 5.240647e-01 1.061929e+00 -5.037681e-01 5.769178e+01 -8.604910e-01 -2.533227e-01 2.661321e-01 1.022236e-01 -2.111753e-01 -2.100690e-01 -7.859499e-02 -1.203150e-01 -1.738523e-02 -6.927948e-02 -5.454560e-02 7.347959e-02 8.243670e-01 7.043282e-02 -3.353917e-03 3.813701e-02 -1.505047e-02 5.023375e-02 6.924061e-02 7.672250e-03 1.636990e-02 1.883840e-02 -1.874226e-02 8.473257e-03 -3.848730e-02 -4.291376e-02
<VARIANCE> 39
 3.796070e+01 2.788453e+01 2.441793e+01 2.567412e+01 2.155948e+01 4.167097e+01 2.687586e+01 2.305979e+01 2.036209e+01 2.348530e+01 1.911280e+01 1.642643e+01 2.883338e+01 1.144388e+00 1.288613e+00 1.435551e+00 1.405669e+00 1.881796e+00 2.373906e+00 2.238466e+00 2.178039e+00 2.107708e+00 2.057635e+00 1.794914e+00 1.609466e+00 6.819051e-01 2.624820e-01 2.387856e-01 2.548284e-01 2.526965e-01 3.315419e-01 4.544913e-01 4.221126e-01 4.070356e-01 3.999926e-01 4.046853e-01 3.561673e-01 3.129726e-01 2.041385e-01
<GCONST> 1.051397e+02
<STATE> 3
<NUMMIXES> 4
<MIXTURE> 1 4.665790e-01
<MEAN> 39
 -1.350066e+01 -7.027935e+00 -3.695338e+00 -3.571706e-01 -5.244273e-01 -3.187275e+00 -1.575155e+00 -3.479045e+00 -2.354646e+00 3.825255e-01 9.806163e-01 -3.888393e-01 6.139415e+01 2.677988e-01 2.623995e-01 1.161877e-01 1.358716e-01 1.636068e-01 2.090874e-01 2.177060e-01 2.643581e-01 1.049971e-01 9.124435e-02 9.885614e-02 8.188870e-04 -6.831635e-01 -2.561701e-02 6.443195e-03 -9.253981e-03 -3.475814e-02 -4.356140e-02 -4.885498e-02 -2.611828e-02 -2.263355e-02 -3.321603e-02 1.150090e-02 -2.292817e-02 -1.196653e-02 2.081425e-02
<VARIANCE> 39
 1.667566e+01 2.104112e+01 9.427466e+00 1.115389e+01 1.422421e+01 1.487049e+01 1.788657e+01 1.808809e+01 1.793157e+01 1.550010e+01 1.542039e+01 1.273784e+01 5.092944e+01 1.713337e-01 2.660138e-01 4.526429e-01 6.265217e-01 8.566583e-01 1.162339e+00 1.243493e+00 1.501466e+00 1.442981e+00 1.230577e+00 1.300117e+00 1.156028e+00 9.011423e-02 3.027909e-02 4.690543e-02 8.665665e-02 1.226334e-01 1.676818e-01 2.155908e-01 2.447086e-01 3.092635e-01 3.137572e-01 2.487360e-01 2.755271e-01 2.338635e-01 1.124789e-02
<GCONST> 7.622853e+01
<MIXTURE> 2 1.842633e-01
<MEAN> 39
 -1.581293e+01 -8.169411e+00 -5.208841e+00 -1.426382e+00 -2.629399e+00 -4.969417e+00 -3.261504e+00 -4.681073e+00 -3.492251e+00 5.417573e-01 -7.740913e-02 -1.079049e+00 6.622878e+01 -5.173671e-03 1.646349e-01 -1.199328e-01 2.953570e-02 1.075449e-02 5.913520e-03 -4.599943e-02 -1.704393e-01 -1.383324e-01 -7.400153e-02 -1.868080e-02 2.183492e-02 -2.118176e-01 -2.624642e-02 7.871497e-02 8.496337e-02 3.397898e-02 3.691087e-02 4.403992e-02 1.498465e-01 1.445384e-01 9.249613e-02 6.065686e-02 3.112136e-02 9.157960e-03 -8.696576e-02
<VARIANCE> 39
 1.351530e+01 2.717743e+01 1.203793e+01 1.342256e+01 1.585151e+01 1.544124e+01 1.846075e+01 1.668232e+01 1.686185e+01 1.804357e+01 1.484306e+01 1.431194e+01 7.009864e+01 4.333929e-01 5.826799e-01 6.147583e-01 8.647248e-01 1.212849e+00 1.149408e+00 1.652930e+00 1.440156e+00 1.739406e+00 1.581899e+00 1.397967e+00 1.253621e+00 4.778485e-01 9.178187e-02 1.625887e-01 1.351641e-01 1.748010e-01 2.506170e-01 2.501729e-01 3.449224e-01 3.031806e-01 3.323191e-01 3.306871e-01 2.748430e-01 2.656381e-01 1.591895e-01
<GCONST> 8.961063e+01
<MIXTURE> 3 1.842726e-01
<MEAN> 39
 -1.581334e+01 -8.170112e+00 -5.208946e+00 -1.426773e+00 -2.629715e+00 -4.969918e+00 -3.262131e+00 -4.681530e+00 -3.492412e+00 5.413341e-01 -7.747171e-02 -1.078972e+00 6.623026e+01 -5.099651e-03 1.646175e-01 -1.199449e-01 2.956937e-02 1.074505e-02 5.902315e-03 -4.604143e-02 -1.704711e-01 -1.383306e-01 -7.402885e-02 -1.867035e-02 2.183204e-02 -2.119273e-01 -2.623290e-02 7.873218e-02 8.496866e-02 3.400533e-02 3.693517e-02 4.407966e-02 1.498904e-01 1.445701e-01 9.250160e-02 6.067147e-02 3.113141e-02 9.169987e-03 -8.699059e-02
<VARIANCE> 39
 1.351492e+01 2.717547e+01 1.203704e+01 1.342256e+01 1.585145e+01 1.544083e+01 1.846013e+01 1.668172e+01 1.686147e+01 1.804300e+01 1.484261e+01 1.431163e+01 7.009935e+01 4.333328e-01 5.826221e-01 6.147126e-01 8.646772e-01 1.212812e+00 1.149353e+00 1.652887e+00 1.440092e+00 1.739373e+00 1.581906e+00 1.397969e+00 1.253584e+00 4.778252e-01 9.176920e-02 1.625636e-01 1.351535e-01 1.747862e-01 2.506104e-01 2.501580e-01 3.449050e-01 3.031636e-01 3.323086e-01 3.306777e-01 2.748313e-01 2.656277e-01 1.591599e-01
<GCONST> 8.960872e+01
<MIXTURE> 4 1.648820e-01
<MEAN> 39
 -1.721473e+01 -5.471227e+00 -2.777443e+00 -1.292184e+00 -3.117651e+00 -3.593635e+00 -3.101643e-01 -9.657682e-01 -1.258486e+00 1.814275e+00 3.376015e-01 -8.478752e-01 6.394485e+01 -2.958411e-01 -1.812048e+00 -2.176861e-01 -3.836303e-01 -3.446105e-01 -9.370542e-01 -6.658497e-01 -6.461716e-01 -1.621985e-01 -1.539851e-01 -2.601680e-01 3.207272e-02 2.429374e+00 1.364928e-01 -5.532061e-02 -8.948794e-02 1.757279e-02 9.906437e-02 1.644851e-01 -1.282875e-01 -1.688045e-01 -9.138566e-02 -1.412494e-01 -5.026031e-03 -2.480897e-02 -2.607611e-02
<VARIANCE> 39
 2.549544e+01 5.699669e+01 1.827532e+01 2.475986e+01 2.211032e+01 3.444462e+01 3.049597e+01 2.326578e+01 1.713961e+01 2.138241e+01 1.772940e+01 1.386513e+01 8.847662e+01 2.091166e+00 4.599757e+00 2.119396e+00 1.743319e+00 2.313979e+00 3.374844e+00 3.297741e+00 2.593386e+00 1.834873e+00 2.085387e+00 1.673702e+00 1.570762e+00 3.474166e+00 2.775903e-01 9.926684e-01 3.032108e-01 3.377295e-01 4.175392e-01 6.117783e-01 5.776901e-01 4.501708e-01 3.307537e-01 3.817747e-01 3.259265e-01 3.032929e-01 1.119599e+00
<GCONST> 1.149409e+02
<STATE> 4
<NUMMIXES> 4
<MIXTURE> 1 2.354954e-01
<MEAN> 39
 -2.512977e+01 9.891668e-01 3.573814e+00 3.232552e+00 -4.365371e+00 -1.458759e+00 7.925234e+00 -2.073636e+00 -5.876887e+00 5.190115e+00 4.767630e-01 -4.810110e+00 5.733519e+01 2.603779e-01 2.078007e-01 1.972464e-01 7.673883e-02 2.799940e-01 3.906588e-01 2.674616e-01 2.429963e-01 3.136773e-01 1.529131e-01 1.245436e-01 4.461436e-02 -2.664967e-01 3.732735e-02 7.174344e-02 6.088638e-02 5.419119e-02 1.282961e-01 1.396126e-01 9.478106e-02 2.206604e-01 1.838821e-01 1.038521e-01 7.111744e-02 7.684610e-02 -2.449279e-02
<VARIANCE> 39
 6.807465e+00 9.282899e+00 9.205954e+00 1.510682e+01 1.250593e+01 1.362899e+01 2.046565e+01 1.649213e+01 1.564849e+01 1.786884e+01 1.578916e+01 1.303277e+01 8.084953e+00 2.477234e-01 3.531414e-01 5.141926e-01 7.807370e-01 9.421705e-01 1.048450e+00 1.323913e+00 1.348619e+00 1.489749e+00 1.459414e+00 1.480139e+00 1.196620e+00 1.356775e-01 4.964904e-02 8.076839e-02 1.050913e-01 1.577654e-01 2.041849e-01 2.076908e-01 2.584415e-01 2.760800e-01 3.087043e-01 2.932425e-01 2.691197e-01 2.492358e-01 2.900185e-02
<GCONST> 7.727428e+01
<MIXTURE> 2 3.141160e-01
<MEAN> 39
 -2.168689e+01 2.551771e+00 3.145844e+00 2.386820e+00 -2.327691e+00 4.575624e-01 8.097692e+00 4.810377e-01 -3.333028e+00 5.291416e+00 6.642946e-01 -3.821320e+00 5.480479e+01 -6.099909e-02 -3.091980e-02 -4.794503e-02 -4.753099e-02 -1.092453e-01 -1.293413e-01 -7.373890e-02 -7.937542e-02 -1.076029e-01 -6.404378e-02 -5.709594e-02 -2.849749e-02 3.358234e-02 -1.075665e-02 -3.850240e-02 -3.739861e-02 -2.953002e-02 -5.677471e-02 -7.288032e-02 -5.907257e-02 -9.041739e-02 -6.866653e-02 -4.798738e-02 -2.361139e-02 -1.607208e-02 1.507912e-02
<VARIANCE> 39
 3.349184e+01 1.145679e+01 1.222423e+01 1.807466e+01 1.584111e+01 1.751917e+01 2.240244e+01 1.716978e+01 1.931643e+01 2.162582e+01 1.847536e+01 1.475998e+01 2.004440e+01 4.891870e-01 5.795448e-01 6.166313e-01 9.718900e-01 1.207248e+00 1.341036e+00 1.640508e+00 1.560091e+00 1.669347e+00 1.788464e+00 1.396390e+00 1.354379e+00 3.079304e-01 8.342622e-02 1.034927e-01 1.121256e-01 1.854282e-01 2.309619e-01 2.693130e-01 3.156715e-01 2.911989e-01 3.287864e-01 3.537637e-01 2.935325e-01 2.686327e-01 4.908100e-02
<GCONST> 8.795117e+01
<MIXTURE> 3 3.141091e-01
<MEAN> 39
 -2.168694e+01 2.551761e+00 3.145847e+00 2.386828e+00 -2.327726e+00 4.575369e-01 8.097692e+00 4.810589e-01 -3.333056e+00 5.291419e+00 6.642706e-01 -3.821329e+00 5.480482e+01 -6.102054e-02 -3.092956e-02 -4.794755e-02 -4.752045e-02 -1.092433e-01 -1.293449e-01 -7.373204e-02 -7.936967e-02 -1.076004e-01 -6.403998e-02 -5.709549e-02 -2.849495e-02 3.360312e-02 -1.075390e-02 -3.850264e-02 -3.739839e-02 -2.952960e-02 -5.677120e-02 -7.287700e-02 -5.907168e-02 -9.042059e-02 -6.866275e-02 -4.798592e-02 -2.360773e-02 -1.607078e-02 1.507857e-02
<VARIANCE> 39
 3.349173e+01 1.145690e+01 1.222427e+01 1.807492e+01 1.584128e+01 1.751933e+01 2.240255e+01 1.716994e+01 1.931654e+01 2.162599e+01 1.847557e+01 1.476021e+01 2.004441e+01 4.892021e-01 5.795634e-01 6.166416e-01 9.719107e-01 1.207267e+00 1.341054e+00 1.640524e+00 1.560106e+00 1.669370e+00 1.788478e+00 1.396401e+00 1.354404e+00 3.079413e-01 8.342896e-02 1.034962e-01 1.121271e-01 1.854321e-01 2.309649e-01 2.693173e-01 3.156758e-01 2.912019e-01 3.287896e-01 3.537682e-01 2.935364e-01 2.686376e-01 4.908295e-02
<GCONST> 8.795175e+01
<MIXTURE> 4 1.362780e-01
<MEAN> 39
 -1.420953e+01 -7.571329e+00 -3.612900e+00 -1.181302e+00 -2.431554e+00 -5.713423e+00 -1.429346e+00 -3.901511e+00 -3.985740e+00 1.354264e+00 9.862335e-01 -5.532406e-01 6.228383e+01 6.346829e-02 -2.150605e-01 -9.590305e-02 2.940884e-02 7.908022e-02 -4.032137e-02 -8.785833e-02 3.733078e-03 2.302119e-02 -1.900848e-02 6.501450e-02 9.682312e-02 1.264910e-01 1.984038e-03 4.584057e-02 5.419957e-02 2.916505e-02 4.579994e-02 9.548188e-02 9.945084e-02 3.591595e-02 1.337579e-02 2.997876e-02 -5.007633e-03 -4.110062e-02 -3.289522e-02
<VARIANCE> 39
 3.165330e+01 4.787406e+01 1.651788e+01 1.688886e+01 2.167453e+01 1.944619e+01 2.208644e+01 1.940565e+01 1.728579e+01 2.206859e+01 1.774136e+01 1.415694e+01 6.160095e+01 6.873399e-01 2.184033e+00 1.079523e+00 1.183624e+00 1.494057e+00 1.616234e+00 2.128155e+00 1.723428e+00 1.532974e+00 1.863736e+00 1.478924e+00 1.303670e+00 2.192805e+00 1.036765e-01 3.167963e-01 1.892853e-01 2.161379e-01 2.859408e-01 2.982932e-01 3.770311e-01 3.338656e-01 3.025661e-01 3.566855e-01 2.851989e-01 2.666686e-01 2.982772e-01
<GCONST> 1.004920e+02
<TRANSP> 5
 0.000000e+00 1.000000e+00 0.000000e+00 0.000000e+00 0.000000e+00
 0.000000e+00 9.937915e-01 6.208537e-03 0.000000e+00 0.000000e+00
 0.000000e+00 0.000000e+00 9.751998e-01 2.480027e-02 0.000000e+00
 0.000000e+00 0.000000e+00 0.000000e+00 9.911919e-01 8.808152e-03
 0.000000e+00 0.000000e+00 0.000000e+00 0.000000e+00 0.000000e+00
<ENDHMM>
~h "kn"
<BEGINHMM>
<NUMSTATES> 5
<STATE> 2
<NUMMIXES> 4
<MIXTURE> 1 2.383091e-01
<MEAN> 39
 3.498167e+00 -2.668878e+00 -6.662314e+00 -6.358328e-01 8.010781e-01 -4.513085e+00 1.175808e+00 -6.928233e+00 1.556690e+00 -2.348428e+00 1.351160e+00 -4.780230e+00 6.743333e+01 -2.780294e-01 5.920438e-01 9.472883e-02 8.647024e-03 6.645406e-01 -5.107721e-01 1.527786e+00 1.027786e+00 2.464075e+00 3.747262e-01 4.506734e-01 7.483244e-01 3.558320e+00 -4.832578e-01 4.420589e-01 5.389359e-01 3.436346e-02 5.167829e-01 7.161542e-01 -1.563002e-02 4.318709e-01 -4.354704e-01 1.012402e-01 7.712267e-02 3.465610e-01 -1.596354e+00
<VARIANCE> 39
 1.213699e+01 2.247923e+01 1.512881e+01 1.114011e+01 1.856404e+01 2.418072e+01 2.786967e+01 3.862579e+01 3.223198e+01 2.660716e+01 2.364243e+01 2.574824e+01 1.680234e+01 2.411875e+00 1.637843e+00 1.684984e+00 1.186364e+00 1.298707e+00 1.864863e+00 1.785380e+00 3.388992e+00 1.386013e+00 1.740513e+00 1.258824e+00 1.813387e+00 4.613925e+00 3.500720e-01 2.012096e-01 2.513984e-01 1.902697e-01 2.275441e-01 3.056216e-01 5.157143e-01 9.475467e-01 5.703251e-01 4.043038e-01 3.898538e-01 4.225171e-01 4.767172e-01
<GCONST> 1.063883e+02
<MIXTURE> 2 2.082407e-01
<MEAN> 39
 1.337512e+00 2.046142e+00 -4.134109e+00 -3.373635e+00 5.405777e-01 -1.273210e+00 1.593392e+00 -6.770565e+00 -1.522279e+00 -7.995714e-01 1.086176e+00 -4.428454e+00 5.993530e+01 2.240106e-01 5.238874e-02 -9.832121e-02 1.902140e-01 1.516288e-01 -5.518467e-01 3.567841e-01 -5.231218e-01 9.941618e-01 2.793020e-01 1.041837e-01 3.644280e-01 2.156343e+00 1.610449e-02 2.352807e-02 7.132152e-02 7.477904e-02 1.303259e-01 9.591062e-02 -3.086731e-02 2.084604e-01 -1.498188e-02 -4.642887e-02 5.029894e-02 1.310754e-01 -2.943274e-01
<VARIANCE> 39
 1.549537e+01 3.241755e+01 1.639359e+01 1.291515e+01 1.813892e+01 1.680382e+01 3.405696e+01 3.542092e+01 3.348059e+01 3.076716e+01 2.061347e+01 1.650798e+01 4.374612e+01 3.091890e+00 1.490208e+00 2.442027e+00 1.118611e+00 1.377411e+00 2.810719e+00 4.392403e+00 5.726945e+00 3.650278e+00 2.894670e+00 2.540304e+00 2.047898e+00 8.154933e+00 3.957731e-01 1.517806e-01 2.490767e-01 1.270741e-01 1.667360e-01 1.910371e-01 7.323180e-01 7.134200e-01 5.892386e-01 4.261432e-01 3.383746e-01 2.212217e-01 2.732935e-01
<GCONST> 1.101967e+02
<MIXTURE> 3 2.082517e-01
<MEAN> 39
 1.334361e+00 2.053383e+00 -4.133240e+00 -3.376587e+00 5.404768e-01 -1.275214e+00 1.600165e+00 -6.768616e+00 -1.513772e+00 -7.959270e-01 1.087659e+00 -4.425273e+00 5.994683e+01 2.204254e-01 5.444992e-02 -9.526084e-02 1.899331e-01 1.526914e-01 -5.490004e-01 3.584269e-01 -5.204600e-01 9.933001e-01 2.802984e-01 1.045200e-01 3.659409e-01 2.149543e+00 1.731087e-02 2.278551e-02 7.069977e-02 7.506908e-02 1.299672e-01 9.550641e-02 -3.242314e-02 2.068047e-01 -1.647797e-02 -4.721376e-02 4.974130e-02 1.304573e-01 -2.946895e-01
<VARIANCE> 39
 1.549213e+01 3.240712e+01 1.638219e+01 1.290368e+01 1.814821e+01 1.680644e+01 3.407297e+01 3.541072e+01 3.350175e+01 3.080160e+01 2.062001e+01 1.651221e+01 4.371057e+01 3.088945e+00 1.486714e+00 2.438773e+00 1.117786e+00 1.375202e+00 2.807721e+00 4.393088e+00 5.721547e+00 3.651546e+00 2.893536e+00 2.539582e+00 2.044418e+00 8.135358e+00 3.954600e-01 1.516705e-01 2.488185e-01 1.270017e-01 1.666197e-01 1.909305e-01 7.324380e-01 7.126464e-01 5.890478e-01 4.261685e-01 3.384414e-01 2.210677e-01 2.732470e-01
<GCONST> 1.101774e+02
<MIXTURE> 4 3.451982e-01
<MEAN> 39
 -6.292691e+00 1.809703e+00 3.334342e+00 -2.569054e+00 2.305730e+00 3.130199e+00 2.195271e+00 1.734481e+00 -1.801051e+00 1.638356e+00 -9.263306e-01 -2.857256e+00 4.241293e+01 5.763192e-01 -2.338603e-01 -4.429882e-01 1.532390e-01 -1.940893e-01 -3.349901e-01 -1.299952e-01 -8.924875e-01 -2.697161e-01 -1.413580e-01 -4.118047e-03 -3.985836e-01 1.058183e+00 1.808442e-01 -6.377178e-02 -2.001393e-01 1.066871e-02 -2.029437e-02 -8.660298e-02 -5.183568e-05 -1.291986e-01 1.459370e-01 -4.960192e-02 -1.920564e-02 -7.137540e-02 5.277624e-01
<VARIANCE> 39
 1.777508e+00 3.041463e+00 9.533126e+00 7.393356e+00 2.579202e+01 1.006130e+01 1.455392e+01 5.101050e+01 1.123782e+01 3.319561e+01 2.799134e+01 1.242432e+01 2.166715e+00 1.482006e+00 7.292349e-01 1.440824e+00 6.764227e-01 1.299459e+00 1.444518e+00 1.629255e+00 4.357159e+00 1.440034e+00 2.053787e+00 2.128481e+00 2.068498e+00 5.045971e+00 1.359342e-01 7.917463e-02 1.744550e-01 1.093909e-01 1.902732e-01 2.259808e-01 2.508670e-01 3.772463e-01 3.370750e-01 3.194636e-01 3.198813e-01 3.305661e-01 6.583261e-01
<GCONST> 9.027372e+01
<STATE> 3
<NUMMIXES> 4
<MIXTURE> 1 1.679827e-01
<MEAN> 39
 5.210699e+00 -2.906777e+00 -4.740995e+00 -1.165799e+00 2.120133e+00 -3.264227e+00 2.518619e+00 -4.630300e+00 1.442459e+00 -1.948514e+00 1.588248e+00 -3.251561e+00 6.559205e+01 -2.730128e-02 2.185379e-01 -8.433259e-02 -2.654511e-02 3.586906e-01 -6.984374e-03 4.782246e-01 1.050800e+00 1.032109e+00 3.955343e-01 3.938251e-01 5.814039e-01 9.693245e-01 2.464389e-03 3.994885e-01 3.144462e-01 3.894252e-01 4.195096e-01 4.265962e-01 -1.678238e-01 4.451392e-02 -3.636708e-01 1.506685e-01 -5.986814e-02 2.138183e-01 -8.655344e-01
<VARIANCE> 39
 1.290096e+01 2.612965e+01 1.690059e+01 1.491190e+01 1.545258e+01 2.479245e+01 2.441608e+01 3.795732e+01 2.813222e+01 2.377787e+01 1.870704e+01 1.825669e+01 1.956595e+01 7.935704e-01 1.386958e+00 1.052854e+00 1.357821e+00 1.746332e+00 1.657679e+00 1.758958e+00 1.836726e+00 1.951652e+00 1.441756e+00 1.421468e+00 1.278905e+00 2.788902e+00 1.584543e-01 2.398915e-01 1.763385e-01 2.128729e-01 2.807936e-01 2.701968e-01 4.024085e-01 7.017212e-01 5.034996e-01 3.502111e-01 3.173947e-01 2.642453e-01 2.065870e-01
<GCONST> 1.002804e+02
<MIXTURE> 2 3.423950e-01
<MEAN> 39
 5.681082e+00 2.623419e-01 -2.625307e+00 1.383375e+00 5.021579e+00 -4.972359e-01 1.921708e+00 -3.735050e+00 -2.788821e-01 -5.209754e-01 1.079437e+00 -1.351389e+00 5.983543e+01 7.431754e-02 1.289883e-01 2.128468e-01 1.329825e-01 5.114339e-02 1.816147e-01 -1.369019e-01 3.775838e-02 -3.048408e-01 4.757063e-02 -1.191356e-01 2.056291e-02 -7.813131e-01 -1.392648e-02 -5.683341e-02 -2.936540e-02 -6.463271e-02 -8.586613e-02 -4.355820e-02 -1.244378e-02 -5.046220e-02 -3.012128e-02 -6.672866e-02 -2.305105e-02 -9.124844e-02 1.619262e-02
<VARIANCE> 39
 1.187189e+01 2.120349e+01 1.286242e+01 1.335825e+01 1.806355e+01 1.971694e+01 2.004004e+01 1.847429e+01 1.950122e+01 1.922521e+01 1.659092e+01 1.623982e+01 2.526722e+01 1.955473e-01 3.285668e-01 4.187334e-01 7.454389e-01 1.039457e+00 1.016808e+00 1.137802e+00 1.261774e+00 1.265002e+00 1.290389e+00 1.168184e+00 1.234380e+00 7.753807e-02 3.492018e-02 6.976825e-02 8.590472e-02 1.509975e-01 2.227299e-01 2.046580e-01 2.489683e-01 2.905383e-01 2.885866e-01 2.863324e-01 2.421953e-01 2.636774e-01 4.712079e-02
<GCONST> 7.932439e+01
<MIXTURE> 3 3.424037e-01
<MEAN> 39
 5.681042e+00 2.623161e-01 -2.625271e+00 1.383459e+00 5.021652e+00 -4.971758e-01 1.921785e+00 -3.735031e+00 -2.788571e-01 -5.209715e-01 1.079410e+00 -1.351419e+00 5.983549e+01 7.431506e-02 1.289762e-01 2.128332e-01 1.329637e-01 5.112196e-02 1.815971e-01 -1.369103e-01 3.775735e-02 -3.048444e-01 4.756567e-02 -1.191476e-01 2.055121e-02 -7.813174e-01 -1.392591e-02 -5.682967e-02 -2.936403e-02 -6.464013e-02 -8.587416e-02 -4.356590e-02 -1.244899e-02 -5.045489e-02 -3.012135e-02 -6.672717e-02 -2.304538e-02 -9.123736e-02 1.618681e-02
<VARIANCE> 39
 1.187204e+01 2.120379e+01 1.286262e+01 1.335853e+01 1.806400e+01 1.971727e+01 2.004051e+01 1.847456e+01 1.950175e+01 1.922583e+01 1.659154e+01 1.624037e+01 2.526735e+01 1.955499e-01 3.285731e-01 4.187456e-01 7.454549e-01 1.039473e+00 1.016837e+00 1.137828e+00 1.261790e+00 1.265029e+00 1.290420e+00 1.168204e+00 1.234403e+00 7.753921e-02 3.491971e-02 6.976806e-02 8.590544e-02 1.509990e-01 2.227315e-01 2.046615e-01 2.489706e-01 2.905379e-01 2.885900e-01 2.863394e-01 2.422020e-01 2.636853e-01 4.711273e-02
<GCONST> 7.932486e+01
<MIXTURE> 4 1.472162e-01
<MEAN> 39
 5.439814e+00 7.173753e-01 -1.478848e+00 1.221352e+00 4.343105e+00 2.766995e-01 6.516896e-01 -4.258564e+00 -2.634642e+00 -1.496056e+00 1.847827e-01 -2.741709e+00 5.524902e+01 8.726602e-02 -8.723931e-01 -6.563724e-01 -2.946919e-01 -4.407745e-01 -6.110672e-01 4.350851e-03 -1.094362e+00 -7.406322e-02 -5.801196e-01 -5.605333e-03 -6.460218e-01 1.571961e+00 4.508841e-02 -2.247751e-01 -2.391614e-01 -1.783797e-01 -1.367903e-01 -2.804107e-01 1.839646e-01 1.210309e-01 4.078849e-01 7.667122e-02 1.225246e-01 7.104662e-02 7.853627e-01
<VARIANCE> 39
 8.204546e+00 1.826840e+01 1.164755e+01 1.294963e+01 1.841682e+01 1.934964e+01 2.017318e+01 2.316765e+01 1.811291e+01 1.925378e+01 1.518462e+01 1.542993e+01 1.708505e+01 7.664220e-01 1.448711e+00 1.272979e+00 1.226694e+00 1.902395e+00 1.923152e+00 2.044610e+00 2.545905e+00 2.324075e+00 1.937017e+00 1.797467e+00 1.619950e+00 2.857179e+00 1.071882e-01 1.928938e-01 1.582565e-01 1.807818e-01 2.986872e-01 2.765370e-01 3.247551e-01 5.447873e-01 3.303288e-01 3.489971e-01 3.062446e-01 3.125585e-01 2.455874e-01
<GCONST> 9.742621e+01
<STATE> 4
<NUMMIXES> 4
<MIXTURE> 1 1.653606e-01
<MEAN> 39
 2.822968e+00 3.949379e+00 1.095778e+00 -5.164574e-01 3.058702e+00 -8.607213e-01 -1.842560e+00 -2.569191e+00 -5.057375e+00 -2.621004e+00 -4.121821e-01 -2.914616e+00 4.919364e+01 -1.378675e-01 2.906215e-01 5.235153e-01 3.835558e-01 3.732446e-01 3.179738e-01 8.177109e-02 4.322658e-01 3.121391e-01 2.737166e-01 1.538907e-01 6.724724e-02 -2.342232e-01 1.638036e-02 3.621078e-02 1.191394e-01 1.997153e-01 3.336192e-01 4.101077e-01 4.435160e-01 3.308999e-01 2.405771e-01 9.215985e-02 4.567316e-02 -6.474109e-02 1.281536e-02
<VARIANCE> 39
 2.245724e+01 1.875231e+01 1.395473e+01 1.311330e+01 1.395211e+01 1.727842e+01 1.236258e+01 1.800550e+01 1.616617e+01 1.378129e+01 1.439026e+01 1.669721e+01 2.009247e+01 2.981692e-01 3.973422e-01 4.861061e-01 6.369264e-01 9.873472e-01 1.242067e+00 1.260980e+00 1.176367e+00 1.176691e+00 1.428313e+00 1.400828e+00 1.535296e+00 1.938609e-01 5.616154e-02 7.700077e-02 1.149071e-01 1.453834e-01 1.391011e-01 1.728621e-01 2.066962e-01 2.586263e-01 2.692199e-01 2.757740e-01 2.469468e-01 2.568054e-01 2.693692e-02
<GCONST> 7.948077e+01
<MIXTURE> 2 3.077837e-01
<MEAN> 39
 4.926088e+00 1.884401e+00 1.678969e-02 1.420739e+00 6.191523e+00 3.412096e+00 1.657213e+00 -9.337960e-01 -3.093530e+00 -1.503340e+00 -5.600303e-02 -3.019662e+00 5.160324e+01 -2.452918e-01 2.221676e-01 2.495566e-01 -8.492589e-02 6.066382e-02 3.278139e-01 4.127784e-02 1.914327e-01 -1.582972e-01 -1.466628e-01 -1.011199e-01 -1.054283e-01 -4.507452e-01 -1.646854e-02 -6.195987e-03 -8.639762e-03 -3.577862e-02 -8.239830e-02 -8.647043e-02 -5.500706e-03 1.196872e-03 4.831534e-02 1.375713e-02 3.330831e-02 4.367435e-02 2.939430e-02
<VARIANCE> 39
 5.407680e+00 1.534079e+01 1.396228e+01 1.283296e+01 2.091455e+01 1.338976e+01 1.801870e+01 1.738838e+01 2.062658e+01 2.224276e+01 1.591151e+01 1.448881e+01 1.155498e+01 1.096037e-01 2.976249e-01 4.631688e-01 5.053007e-01 8.626685e-01 9.957951e-01 1.281088e+00 1.479308e+00 1.538319e+00 1.332763e+00 1.240325e+00 1.097950e+00 4.395554e-02 1.592131e-02 4.807862e-02 8.836738e-02 9.761468e-02 1.497760e-01 1.665396e-01 2.267229e-01 2.679508e-01 3.026989e-01 2.623990e-01 2.501897e-01 2.200564e-01 4.538837e-03
<GCONST> 7.094914e+01
<MIXTURE> 3 3.077821e-01
<MEAN> 39
 4.926077e+00 1.884391e+00 1.680433e-02 1.420728e+00 6.191496e+00 3.412097e+00 1.657217e+00 -9.337896e-01 -3.093507e+00 -1.503329e+00 -5.601245e-02 -3.019671e+00 5.160324e+01 -2.452914e-01 2.221675e-01 2.495579e-01 -8.492350e-02 6.066498e-02 3.278146e-01 4.127895e-02 1.914343e-01 -1.582976e-01 -1.466647e-01 -1.011228e-01 -1.054319e-01 -4.507443e-01 -1.646803e-02 -6.195608e-03 -8.639787e-03 -3.577874e-02 -8.239779e-02 -8.646916e-02 -5.500370e-03 1.196173e-03 4.831312e-02 1.375590e-02 3.330817e-02 4.367460e-02 2.939452e-02
<VARIANCE> 39
 5.407692e+00 1.534087e+01 1.396236e+01 1.283300e+01 2.091465e+01 1.338979e+01 1.801882e+01 1.738847e+01 2.062672e+01 2.224302e+01 1.591167e+01 1.448897e+01 1.155505e+01 1.096043e-01 2.976263e-01 4.631719e-01 5.053022e-01 8.626717e-01 9.957973e-01 1.281090e+00 1.479316e+00 1.538323e+00 1.332767e+00 1.240328e+00 1.097950e+00 4.395574e-02 1.592134e-02 4.807882e-02 8.836785e-02 9.761517e-02 1.497767e-01 1.665398e-01 2.267246e-01 2.679523e-01 3.027008e-01 2.624010e-01 2.501914e-01 2.200582e-01 4.538846e-03
<GCONST> 7.094935e+01
<MIXTURE> 4 2.190720e-01
<MEAN> 39
 -2.504930e-01 5.526659e+00 3.866972e+00 -7.251449e-01 3.918508e+00 3.580159e+00 1.649586e+00 1.587917e+00 -2.417870e+00 -1.412633e+00 1.329047e-01 -3.028316e+00 4.589776e+01 -3.567454e-01 -2.957138e-01 -2.037055e-01 -2.683202e-01 -3.330402e-01 -2.589759e-01 -6.207461e-02 -1.237140e-01 -1.201921e-01 3.031375e-02 6.906674e-02 2.874362e-02 -7.751833e-02 1.161199e-02 -5.027170e-02 -9.465414e-02 -6.819171e-02 -8.839807e-02 -1.292092e-01 -1.758861e-01 -2.343955e-01 -1.858183e-01 -3.540322e-02 -6.238360e-02 1.144433e-03 3.465445e-02
<VARIANCE> 39
 1.478998e+01 1.558392e+01 8.927757e+00 1.237165e+01 2.134389e+01 1.599708e+01 1.366898e+01 1.594057e+01 1.775525e+01 1.511933e+01 1.402656e+01 1.286597e+01 1.046325e+01 3.906811e-01 3.406939e-01 6.318594e-01 7.342911e-01 9.444964e-01 1.094839e+00 1.384429e+00 1.684508e+00 1.765612e+00 1.642347e+00 1.402897e+00 1.195205e+00 2.502810e-01 4.848971e-02 6.968182e-02 1.091570e-01 1.213548e-01 1.863877e-01 2.091871e-01 2.326779e-01 2.728125e-01 3.117580e-01 3.535308e-01 3.111690e-01 2.487561e-01 2.206820e-02
<GCONST> 7.987379e+01
<TRANSP> 5
 0.000000e+00 1.000000e+00 0.000000e+00 0.000000e+00 0.000000e+00
 0.000000e+00 8.174412e-01 1.825588e-01 0.000000e+00 0.000000e+00
 0.000000e+00 0.000000e+00 9.864344e-01 1.356563e-02 0.000000e+00
 0.000000e+00 0.000000e+00 0.000000e+00 9.454654e-01 5.453463e-02
 0.000000e+00 0.000000e+00 0.000000e+00 0.000000e+00 0.000000e+00
<ENDHMM>
~h "kt"
<BEGINHMM>
<NUMSTATES> 5
<STATE> 2
<NUMMIXES> 4
<MIXTURE> 1 1.835989e-01
<MEAN> 39
 -1.553913e+01 8.956929e-01 -5.811956e+00 -1.480404e+00 3.865758e-02 -1.832110e+00 2.384944e+00 1.212060e+00 3.079850e+00 1.021572e+00 4.193999e-01 -1.130659e+00 6.078337e+01 -3.894921e-01 -3.397302e-02 8.826028e-03 1.733266e-01 8.978577e-02 -6.127922e-03 3.862282e-01 5.957133e-01 4.578609e-01 5.533763e-01 2.957137e-01 -3.543340e-02 7.594219e-01 4.925507e-01 -9.560694e-02 -8.290986e-02 7.281347e-02 2.141543e-01 3.614638e-01 3.737876e-01 -7.091890e-02 -2.053785e-01 -2.449347e-02 1.864863e-01 3.476239e-02 -5.299042e-01
<VARIANCE> 39
 9.056434e+00 7.021276e+00 1.016089e+01 1.838935e+01 1.562035e+01 1.933336e+01 2.038505e+01 2.217203e+01 2.087999e+01 2.019369e+01 1.593118e+01 1.453488e+01 1.483430e+01 1.605298e+00 5.434099e-01 7.720771e-01 1.051913e+00 1.189869e+00 1.955956e+00 2.105152e+00 1.772813e+00 1.846659e+00 1.720720e+00 1.586809e+00 1.416990e+00 2.162202e+00 1.477886e-01 1.150886e-01 1.597532e-01 2.201420e-01 2.390722e-01 3.150678e-01 3.943563e-01 4.262855e-01 3.517154e-01 4.181069e-01 3.030184e-01 2.849890e-01 1.827216e-01
<GCONST> 9.376772e+01
<MIXTURE> 2 2.378726e-01
<MEAN> 39
 -9.907962e+00 -3.933378e-01 -7.035320e+00 -1.661867e+00 1.044707e+00 1.345834e+00 4.323811e+00 -3.389910e-01 -5.658972e-02 1.475223e-01 1.432436e+00 -1.556778e+00 5.433820e+01 -1.213456e-01 1.428056e-01 4.349753e-02 2.473743e-02 -2.870759e-02 -3.000006e-02 -6.847766e-02 1.037207e-02 7.337155e-02 -3.844308e-02 -4.433230e-02 9.814074e-02 5.918065e-02 -1.351466e-01 7.353371e-02 1.009248e-01 9.559918e-02 8.203864e-02 2.819934e-02 5.367996e-02 1.737017e-01 1.914184e-01 1.261131e-01 3.350355e-02 2.693446e-02 1.813923e-01
<VARIANCE> 39
 1.162778e+01 6.541218e+00 7.454834e+00 9.176207e+00 1.050658e+01 1.471529e+01 1.304129e+01 1.370776e+01 1.368678e+01 1.357788e+01 1.323889e+01 1.275141e+01 1.223796e+01 9.723249e-01 4.819523e-01 6.595960e-01 9.099172e-01 1.239103e+00 1.580535e+00 1.768158e+00 1.611946e+00 1.536841e+00 1.608398e+00 1.479977e+00 1.305377e+00 8.241488e-01 1.371510e-01 8.440378e-02 1.164404e-01 1.499701e-01 2.028927e-01 2.714792e-01 2.882199e-01 2.949875e-01 2.784486e-01 3.095147e-01 2.836046e-01 2.524545e-01 1.320477e-01
<GCONST> 8.415762e+01
<MIXTURE> 3 2.378726e-01
<MEAN> 39
 -9.907962e+00 -3.933378e-01 -7.035320e+00 -1.661867e+00 1.044707e+00 1.345834e+00 4.323811e+00 -3.389910e-01 -5.658972e-02 1.475223e-01 1.432436e+00 -1.556778e+00 5.433820e+01 -1.213456e-01 1.428056e-01 4.349753e-02 2.473743e-02 -2.870759e-02 -3.000006e-02 -6.847766e-02 1.037207e-02 7.337155e-02 -3.844308e-02 -4.433230e-02 9.814074e-02 5.918065e-02 -1.351466e-01 7.353371e-02 1.009248e-01 9.559918e-02 8.203864e-02 2.819934e-02 5.367996e-02 1.737017e-01 1.914184e-01 1.261131e-01 3.350355e-02 2.693446e-02 1.813923e-01
<VARIANCE> 39
 1.162778e+01 6.541218e+00 7.454834e+00 9.176207e+00 1.050658e+01 1.471529e+01 1.304129e+01 1.370776e+01 1.368678e+01 1.357788e+01 1.323889e+01 1.275141e+01 1.223796e+01 9.723249e-01 4.819523e-01 6.595960e-01 9.099172e-01 1.239103e+00 1.580535e+00 1.768158e+00 1.611946e+00 1.536841e+00 1.608398e+00 1.479977e+00 1.305377e+00 8.241488e-01 1.371510e-01 8.440378e-02 1.164404e-01 1.499701e-01 2.028927e-01 2.714792e-01 2.882199e-01 2.949875e-01 2.784486e-01 3.095147e-01 2.836046e-01 2.524545e-01 1.320477e-01
<GCONST> 8.415762e+01
<MIXTURE> 4 3.406534e-01
<MEAN> 39
