~o
<STREAMINFO> 1 13
<VECSIZE> 13<NULLD><MFCC_0><DIAGC>
~h "ap"
<BEGINHMM>
<NUMSTATES> 5
<STATE> 2
<NUMMIXES> 4
<MIXTURE> 1 2.873366e-01
<MEAN> 13
 -6.739304e+00 -2.260728e+00 -1.232041e+00 -4.899866e-01 2.654288e+00 1.245210e+00 4.261213e+00 1.217487e+00 -5.766581e-01 9.216408e-01 1.241625e+00 -1.915468e+00 4.859651e+01
<VARIANCE> 13
 7.773462e+00 1.283339e+01 1.135158e+01 1.250355e+01 1.807065e+01 1.993043e+01 1.679153e+01 1.607868e+01 1.403057e+01 1.510219e+01 1.328841e+01 1.216125e+01 1.248547e+01
<GCONST> 5.790124e+01
<MIXTURE> 2 1.872232e-01
<MEAN> 13
 -1.222947e+01 -9.255611e+00 -3.505701e+00 8.575147e-01 2.809853e+00 -4.026829e+00 2.126099e+00 -3.410890e+00 -2.993262e+00 -1.429322e+00 1.158584e+00 -4.475932e-01 5.877774e+01
<VARIANCE> 13
 1.379298e+01 2.321826e+01 2.157625e+01 1.989680e+01 2.646472e+01 3.140607e+01 2.394894e+01 2.239287e+01 2.255934e+01 2.061579e+01 1.782879e+01 1.512105e+01 2.460480e+01
<GCONST> 6.367319e+01
<MIXTURE> 3 1.872234e-01
<MEAN> 13
 -1.222947e+01 -9.255611e+00 -3.505701e+00 8.575138e-01 2.809854e+00 -4.026829e+00 2.126097e+00 -3.410890e+00 -2.993263e+00 -1.429323e+00 1.158584e+00 -4.475927e-01 5.877774e+01
<VARIANCE> 13
 1.379299e+01 2.321826e+01 2.157627e+01 1.989681e+01 2.646472e+01 3.140608e+01 2.394894e+01 2.239288e+01 2.255937e+01 2.061579e+01 1.782879e+01 1.512106e+01 2.460480e+01
<GCONST> 6.367319e+01
<MIXTURE> 4 3.382092e-01
<MEAN> 13
 -1.707744e+01 -1.267779e+01 -8.543205e+00 -2.549167e+00 -2.396291e+00 -6.984608e+00 -6.867664e-01 -4.974109e+00 -3.810101e+00 -1.931046e+00 -5.560099e-01 -1.206838e+00 7.330786e+01
<VARIANCE> 13
 1.415854e+01 2.621832e+01 2.420242e+01 2.424863e+01 3.176126e+01 3.242318e+01 2.392519e+01 2.232756e+01 2.316371e+01 1.922231e+01 2.035161e+01 1.584737e+01 3.289383e+01
<GCONST> 6.476997e+01
<STATE> 3
<NUMMIXES> 4
<MIXTURE> 1 3.083811e-01
<MEAN> 13
 -7.329500e+00 -1.195665e+01 -6.686717e+00 3.864212e+00 5.819349e+00 -5.278652e+00 1.566990e+00 1.246527e-01 -4.395879e+00 -2.761315e+00 1.413294e+00 -7.730090e-01 5.761903e+01
<VARIANCE> 13
 6.820383e+00 1.728284e+01 9.975140e+00 1.877486e+01 2.426552e+01 1.739483e+01 2.113219e+01 1.865464e+01 2.294770e+01 1.894978e+01 1.476178e+01 1.268988e+01 2.242727e+01
<GCONST> 6.033491e+01
<MIXTURE> 2 2.000976e-01
<MEAN> 13
 -1.019318e+01 -1.656329e+01 -1.129358e+01 1.814899e+00 1.708006e+00 -9.937093e+00 -5.937173e-01 -1.837178e+00 -5.773659e+00 -4.539702e+00 1.060802e+00 -5.698812e-01 6.832037e+01
<VARIANCE> 13
 6.942451e+00 1.085332e+01 1.108897e+01 1.664675e+01 2.165984e+01 1.501116e+01 2.157368e+01 1.675669e+01 2.520168e+01 2.115925e+01 1.492634e+01 1.628807e+01 1.912553e+01
<GCONST> 5.983079e+01
<MIXTURE> 3 2.000976e-01
<MEAN> 13
 -1.019318e+01 -1.656329e+01 -1.129358e+01 1.814899e+00 1.708006e+00 -9.937093e+00 -5.937173e-01 -1.837178e+00 -5.773659e+00 -4.539702e+00 1.060802e+00 -5.698812e-01 6.832037e+01
<VARIANCE> 13
 6.942451e+00 1.085332e+01 1.108897e+01 1.664675e+01 2.165984e+01 1.501116e+01 2.157368e+01 1.675669e+01 2.520168e+01 2.115925e+01 1.492634e+01 1.628807e+01 1.912553e+01
<GCONST> 5.983079e+01
<MIXTURE> 4 2.914207e-01
<MEAN> 13
 -1.355564e+01 -1.804032e+01 -1.357694e+01 4.692378e-02 -2.436912e+00 -1.277976e+01 -2.450784e+00 -2.025262e+00 -7.106415e+00 -5.571990e+00 -6.717343e-01 -2.028489e+00 7.979955e+01
<VARIANCE> 13
 7.576497e+00 8.813980e+00 1.125171e+01 1.644683e+01 2.290582e+01 1.677043e+01 2.606240e+01 1.688511e+01 2.664856e+01 1.829188e+01 1.688070e+01 1.559086e+01 1.540979e+01
<GCONST> 5.984943e+01
<STATE> 4
<NUMMIXES> 4
<MIXTURE> 1 2.770837e-01
<MEAN> 13
 -5.512825e+00 -5.132830e+00 -5.832486e-01 2.829716e+00 1.578763e+00 4.686284e-01 5.086339e+00 1.646049e+00 -1.564733e+00 1.256287e+00 1.839948e+00 -2.313352e+00 4.803870e+01
<VARIANCE> 13
 5.316367e+00 2.571169e+01 8.799993e+00 2.118425e+01 1.396133e+01 1.753497e+01 1.483754e+01 1.805889e+01 1.726829e+01 1.588280e+01 1.286429e+01 1.207533e+01 1.346173e+01
<GCONST> 5.838901e+01
<MIXTURE> 2 1.826207e-01
<MEAN> 13
 -8.824694e+00 -1.555543e+01 -3.598003e+00 5.589467e+00 -1.000098e+00 -5.034369e+00 5.224536e+00 -4.507138e+00 -5.284063e+00 1.774500e-01 1.175664e+00 -1.530477e+00 5.932869e+01
<VARIANCE> 13
 1.249026e+01 2.635896e+01 1.230546e+01 1.706743e+01 1.746951e+01 1.773267e+01 1.850945e+01 2.050056e+01 2.104752e+01 1.912120e+01 1.673083e+01 1.437321e+01 2.166253e+01
<GCONST> 6.126676e+01
<MIXTURE> 3 1.826207e-01
<MEAN> 13
 -8.824694e+00 -1.555543e+01 -3.598003e+00 5.589467e+00 -1.000098e+00 -5.034369e+00 5.224536e+00 -4.507138e+00 -5.284063e+00 1.774500e-01 1.175664e+00 -1.530477e+00 5.932869e+01
<VARIANCE> 13
 1.249026e+01 2.635896e+01 1.230546e+01 1.706743e+01 1.746951e+01 1.773267e+01 1.850945e+01 2.050056e+01 2.104752e+01 1.912120e+01 1.673083e+01 1.437321e+01 2.166253e+01
<GCONST> 6.126676e+01
<MIXTURE> 4 3.576689e-01
<MEAN> 13
 -1.317301e+01 -1.990136e+01 -7.932578e+00 2.257024e+00 -6.934132e+00 -8.896349e+00 3.168435e+00 -5.666967e+00 -6.058866e+00 -6.315658e-01 -5.459943e-01 -2.506354e+00 7.415730e+01
<VARIANCE> 13
 1.209741e+01 2.120469e+01 1.268066e+01 1.637313e+01 2.251326e+01 1.919337e+01 1.905226e+01 2.003633e+01 2.168566e+01 1.933635e+01 1.918001e+01 1.530147e+01 3.438648e+01
<GCONST> 6.204686e+01
<TRANSP> 5
 0.000000e+00 1.000000e+00 0.000000e+00 0.000000e+00 0.000000e+00
 0.000000e+00 9.931235e-01 6.876495e-03 0.000000e+00 0.000000e+00
 0.000000e+00 0.000000e+00 9.833802e-01 1.661981e-02 0.000000e+00
 0.000000e+00 0.000000e+00 0.000000e+00 9.875814e-01 1.241855e-02
 0.000000e+00 0.000000e+00 0.000000e+00 0.000000e+00 0.000000e+00
<ENDHMM>
~h "cl"
<BEGINHMM>
<NUMSTATES> 5
<STATE> 2
<NUMMIXES> 4
<MIXTURE> 1 2.783719e-01
<MEAN> 13
 -9.249915e+00 -1.717958e-01 -6.760097e-01 -2.022832e+00 1.285433e+00 6.295710e+00 5.394170e+00 2.136010e+00 1.650367e+00 1.567148e+00 -9.701725e-01 -2.470447e-01 4.979356e+01
<VARIANCE> 13
 3.199666e+01 1.125171e+01 2.384645e+01 1.033241e+01 1.167413e+01 1.914772e+01 1.403064e+01 1.644228e+01 1.931025e+01 1.656108e+01 2.195469e+01 1.571436e+01 1.495790e+01
<GCONST> 6.045261e+01
<MIXTURE> 2 2.856480e-01
<MEAN> 13
 -1.951587e+01 1.144093e+00 4.088564e+00 -4.074627e+00 -3.454443e+00 9.190532e+00 3.580077e+00 -2.877306e+00 4.293616e+00 1.918689e+00 -8.060496e+00 3.917693e+00 5.514050e+01
<VARIANCE> 13
 5.116573e+01 9.598598e+00 3.020467e+01 1.312965e+01 1.424947e+01 2.482716e+01 2.102146e+01 2.948866e+01 3.101534e+01 2.411954e+01 2.395436e+01 2.122103e+01 2.871872e+01
<GCONST> 6.457636e+01
<MIXTURE> 3 2.856480e-01
<MEAN> 13
 -1.951587e+01 1.144093e+00 4.088564e+00 -4.074627e+00 -3.454443e+00 9.190532e+00 3.580077e+00 -2.877306e+00 4.293616e+00 1.918689e+00 -8.060496e+00 3.917693e+00 5.514050e+01
<VARIANCE> 13
 5.116573e+01 9.598598e+00 3.020467e+01 1.312965e+01 1.424947e+01 2.482716e+01 2.102146e+01 2.948866e+01 3.101534e+01 2.411954e+01 2.395436e+01 2.122103e+01 2.871872e+01
<GCONST> 6.457636e+01
<MIXTURE> 4 1.503303e-01
<MEAN> 13
 -1.084998e+01 -7.153988e+00 -3.268729e+00 -1.891795e+00 -1.120521e+00 -1.915238e+00 1.275893e+00 -9.651276e-01 -1.359069e+00 -1.360763e+00 -4.934648e-02 -1.880345e+00 5.981289e+01
<VARIANCE> 13
 3.520352e+01 2.757938e+01 1.101873e+01 1.661956e+01 2.255722e+01 2.443572e+01 2.580307e+01 1.878670e+01 2.563217e+01 2.243680e+01 1.718390e+01 1.505815e+01 1.039565e+02
<GCONST> 6.503094e+01
<STATE> 3
<NUMMIXES> 4
<MIXTURE> 1 2.302767e-01
<MEAN> 13
 -2.282644e+01 3.749168e+00 7.497879e-01 -4.752104e+00 -3.084189e+00 1.467708e+01 2.830643e+00 -2.561974e+00 9.439291e+00 -2.987190e+00 -3.306760e+00 6.222594e+00 6.008966e+01
<VARIANCE> 13
 2.165695e+01 5.057131e+00 1.509003e+01 8.341423e+00 1.217124e+01 2.183187e+01 2.048393e+01 1.793187e+01 1.748906e+01 1.855521e+01 1.854369e+01 1.765453e+01 1.222728e+01
<GCONST> 5.898959e+01
<MIXTURE> 2 2.825253e-01
<MEAN> 13
 -2.086330e+01 2.889875e+00 5.038239e-01 -5.853946e+00 -4.695594e+00 1.314729e+01 1.645029e-01 -3.824984e+00 8.349486e+00 -4.181804e+00 -3.974384e+00 5.821424e+00 5.902305e+01
<VARIANCE> 13
 3.546947e+01 7.120082e+00 1.597219e+01 1.173375e+01 1.641825e+01 2.358172e+01 2.257410e+01 1.964892e+01 2.119053e+01 1.924113e+01 1.861931e+01 1.807902e+01 1.722531e+01
<GCONST> 6.138694e+01
<MIXTURE> 3 2.825215e-01
<MEAN> 13
 -2.086330e+01 2.889873e+00 5.038216e-01 -5.853944e+00 -4.695590e+00 1.314729e+01 1.645049e-01 -3.824984e+00 8.349484e+00 -4.181805e+00 -3.974384e+00 5.821424e+00 5.902305e+01
<VARIANCE> 13
 3.546951e+01 7.120100e+00 1.597218e+01 1.173375e+01 1.641821e+01 2.358175e+01 2.257412e+01 1.964896e+01 2.119055e+01 1.924115e+01 1.861933e+01 1.807904e+01 1.722534e+01
<GCONST> 6.138695e+01
<MIXTURE> 4 2.046747e-01
<MEAN> 13
 -1.139750e+01 1.339023e+00 -3.416873e+00 -4.675781e+00 -4.043770e+00 5.580819e+00 -8.217715e-01 -4.739509e+00 2.750101e+00 -2.266430e+00 -2.158532e+00 2.959450e+00 5.617302e+01
<VARIANCE> 13
 5.545770e+01 2.154910e+01 2.325924e+01 1.849732e+01 2.570889e+01 3.114001e+01 3.402663e+01 3.517399e+01 2.722499e+01 2.251037e+01 2.079026e+01 2.117335e+01 3.358274e+01
<GCONST> 6.683482e+01
<STATE> 4
<NUMMIXES> 4
<MIXTURE> 1 2.855039e-01
<MEAN> 13
 -1.765766e+01 2.310048e+00 7.353981e+00 -1.947337e+00 -5.209255e+00 1.051070e+01 4.281596e+00 -5.204486e+00 3.584349e+00 5.357763e+00 -9.509354e+00 3.279901e+00 5.239199e+01
<VARIANCE> 13
 3.297472e+01 7.184745e+00 1.102808e+01 1.857283e+01 2.153266e+01 2.277847e+01 2.071168e+01 2.951622e+01 2.900210e+01 3.540035e+01 2.106084e+01 1.766711e+01 1.650357e+01
<GCONST> 6.295006e+01
<MIXTURE> 2 2.423764e-01
<MEAN> 13
 -2.506617e+01 7.359198e-01 5.499210e+00 -2.654511e+00 -6.090594e+00 1.064841e+01 2.152547e+00 -5.399619e+00 2.438060e+00 4.887792e+00 -1.144101e+01 4.061920e+00 5.949537e+01
<VARIANCE> 13
 2.114603e+01 7.619755e+00 1.398079e+01 1.637030e+01 2.232756e+01 2.854701e+01 2.106801e+01 3.838151e+01 3.143348e+01 2.815478e+01 2.034455e+01 2.196279e+01 1.935851e+01
<GCONST> 6.341134e+01
<MIXTURE> 3 2.423764e-01
<MEAN> 13
 -2.506617e+01 7.359198e-01 5.499210e+00 -2.654511e+00 -6.090594e+00 1.064841e+01 2.152547e+00 -5.399619e+00 2.438060e+00 4.887792e+00 -1.144101e+01 4.061920e+00 5.949537e+01
<VARIANCE> 13
 2.114603e+01 7.619755e+00 1.398079e+01 1.637030e+01 2.232756e+01 2.854701e+01 2.106801e+01 3.838151e+01 3.143348e+01 2.815478e+01 2.034455e+01 2.196279e+01 1.935851e+01
<GCONST> 6.341134e+01
<MIXTURE> 4 2.297410e-01
<MEAN> 13
 -2.331437e+01 2.682322e-01 8.126292e+00 -4.298102e+00 -1.106334e+01 1.147187e+01 -3.734977e+00 -1.344025e+01 2.639140e+00 3.632343e+00 -1.633589e+01 9.031496e+00 6.166927e+01
<VARIANCE> 13
 2.164968e+01 1.005408e+01 1.185072e+01 1.315641e+01 1.933834e+01 4.025442e+01 1.799834e+01 3.224617e+01 4.715068e+01 2.271325e+01 2.456720e+01 4.362421e+01 2.619309e+01
<GCONST> 6.456448e+01
<TRANSP> 5
 0.000000e+00 1.000000e+00 0.000000e+00 0.000000e+00 0.000000e+00
 0.000000e+00 9.705195e-01 2.948043e-02 0.000000e+00 0.000000e+00
 0.000000e+00 0.000000e+00 9.922352e-01 7.764739e-03 0.000000e+00
 0.000000e+00 0.000000e+00 0.000000e+00 9.928329e-01 7.167102e-03
 0.000000e+00 0.000000e+00 0.000000e+00 0.000000e+00 0.000000e+00
<ENDHMM>
~h "cm"
<BEGINHMM>
<NUMSTATES> 5
<STATE> 2
<NUMMIXES> 4
<MIXTURE> 1 2.280915e-01
<MEAN> 13
 -1.149474e+01 1.510788e+00 -7.834284e-01 -2.946449e+00 1.259916e+00 2.547751e+00 1.895870e+00 2.912235e+00 4.988244e-01 1.059637e+00 1.636906e+00 -1.861391e+00 5.351535e+01
<VARIANCE> 13
 1.289760e+01 1.131127e+01 1.162558e+01 1.249812e+01 1.138873e+01 1.523426e+01 1.186503e+01 1.470110e+01 1.533665e+01 1.570016e+01 1.458284e+01 1.275299e+01 1.878015e+01
<GCONST> 5.781404e+01
<MIXTURE> 2 2.566837e-01
<MEAN> 13
 -1.322826e+01 -1.201034e+00 -3.688707e+00 -5.635282e+00 -4.137415e-01 1.229828e+00 -7.662186e-01 6.219018e-01 -1.728581e+00 1.279624e+00 3.268280e+00 -4.248789e-01 5.830774e+01
<VARIANCE> 13
 1.418278e+01 1.318807e+01 9.946074e+00 1.141398e+01 1.441016e+01 1.290146e+01 1.260545e+01 1.283519e+01 1.369128e+01 1.451020e+01 1.506293e+01 1.351259e+01 1.279817e+01
<GCONST> 5.732413e+01
<MIXTURE> 3 2.566845e-01
<MEAN> 13
 -1.322827e+01 -1.201032e+00 -3.688707e+00 -5.635282e+00 -4.137405e-01 1.229828e+00 -7.662202e-01 6.219011e-01 -1.728582e+00 1.279624e+00 3.268281e+00 -4.248782e-01 5.830774e+01
<VARIANCE> 13
 1.418276e+01 1.318805e+01 9.946069e+00 1.141396e+01 1.441013e+01 1.290146e+01 1.260544e+01 1.283516e+01 1.369127e+01 1.451019e+01 1.506292e+01 1.351258e+01 1.279816e+01
<GCONST> 5.732411e+01
<MIXTURE> 4 2.585388e-01
<MEAN> 13
 -1.286132e+01 -2.725247e-01 -2.790919e+00 -6.011791e+00 -2.009269e+00 -2.309630e+00 -5.111647e+00 -3.655716e+00 -5.021777e+00 4.826498e-01 3.762866e+00 8.464613e-01 5.974953e+01
<VARIANCE> 13
 1.271924e+01 1.509986e+01 1.049498e+01 1.220975e+01 1.165530e+01 1.277603e+01 1.404735e+01 1.362265e+01 1.502683e+01 2.072653e+01 2.538223e+01 2.212441e+01 1.723882e+01
<GCONST> 5.917998e+01
<STATE> 3
<NUMMIXES> 4
<MIXTURE> 1 2.356408e-01
<MEAN> 13
 -1.121723e+01 -1.316214e+00 -2.252264e+00 -2.497087e+00 1.990532e+00 2.465004e+00 4.228355e-01 7.745316e-01 -2.202964e+00 -7.669843e-01 6.115808e-01 -2.078541e+00 6.282266e+01
<VARIANCE> 13
 1.060193e+01 1.314631e+01 1.260890e+01 1.179270e+01 1.377976e+01 1.146846e+01 1.366654e+01 1.690814e+01 1.515723e+01 1.336292e+01 1.424820e+01 1.383015e+01 2.648944e+01
<GCONST> 5.820820e+01
<MIXTURE> 2 2.426550e-01
<MEAN> 13
 -8.478260e+00 -4.113227e-01 -3.193809e+00 -3.342883e+00 -5.373188e-01 -7.128651e-01 -2.655912e+00 -2.251013e+00 -4.639310e+00 -2.139255e+00 -1.294734e+00 -2.266950e+00 6.698800e+01
<VARIANCE> 13
 9.907338e+00 1.132635e+01 1.288885e+01 1.286723e+01 1.174827e+01 1.029649e+01 1.190465e+01 1.444652e+01 1.563727e+01 1.622434e+01 1.488687e+01 1.340260e+01 4.185970e+01
<GCONST> 5.823317e+01
<MIXTURE> 3 2.426545e-01
<MEAN> 13
 -8.478261e+00 -4.113242e-01 -3.193809e+00 -3.342884e+00 -5.373188e-01 -7.128648e-01 -2.655910e+00 -2.251011e+00 -4.639309e+00 -2.139254e+00 -1.294735e+00 -2.266950e+00 6.698800e+01
<VARIANCE> 13
 9.907322e+00 1.132636e+01 1.288884e+01 1.286726e+01 1.174828e+01 1.029649e+01 1.190466e+01 1.444653e+01 1.563727e+01 1.622431e+01 1.488685e+01 1.340261e+01 4.185973e+01
<GCONST> 5.823317e+01
<MIXTURE> 4 2.790503e-01
<MEAN> 13
 -8.614089e+00 -1.733991e+00 -5.207478e+00 -5.079175e+00 -3.658310e+00 -3.647024e+00 -5.787586e+00 -4.811686e+00 -6.541068e+00 -3.060119e+00 -2.766481e+00 -2.253096e+00 7.249007e+01
<VARIANCE> 13
 7.335360e+00 1.435318e+01 1.734992e+01 1.638073e+01 1.338531e+01 1.447181e+01 1.239711e+01 1.804669e+01 1.917968e+01 1.620552e+01 1.794266e+01 1.579711e+01 4.634362e+01
<GCONST> 6.009785e+01
<STATE> 4
<NUMMIXES> 4
<MIXTURE> 1 2.992580e-01
<MEAN> 13
 -5.503273e+00 2.905332e+00 7.506130e-02 -1.001606e+00 2.272990e+00 9.049685e-01 -1.550927e+00 -1.796628e+00 -3.704961e+00 -2.229187e+00 -6.002915e-01 -2.812414e+00 5.834654e+01
<VARIANCE> 13
 1.519793e+01 8.565072e+00 9.287724e+00 8.496291e+00 9.296692e+00 1.151871e+01 1.498563e+01 1.821181e+01 1.747900e+01 1.675081e+01 1.435894e+01 1.365429e+01 3.996275e+01
<GCONST> 5.805819e+01
<MIXTURE> 2 2.258787e-01
<MEAN> 13
 -4.338840e+00 5.191691e-01 -2.883352e+00 -4.353382e+00 -1.223818e+00 -1.742955e+00 -2.959929e+00 -1.910390e+00 -3.274155e+00 -2.164938e+00 -1.416177e+00 -2.988149e+00 6.882846e+01
<VARIANCE> 13
 4.313493e+00 6.957688e+00 6.836458e+00 8.081412e+00 9.478243e+00 9.089297e+00 1.248091e+01 1.684769e+01 1.555557e+01 1.405829e+01 1.358043e+01 1.151899e+01 3.605725e+01
<GCONST> 5.513571e+01
<MIXTURE> 3 2.258780e-01
<MEAN> 13
 -4.338840e+00 5.191702e-01 -2.883350e+00 -4.353378e+00 -1.223816e+00 -1.742959e+00 -2.959934e+00 -1.910395e+00 -3.274158e+00 -2.164939e+00 -1.416176e+00 -2.988149e+00 6.882846e+01
<VARIANCE> 13
 4.313488e+00 6.957692e+00 6.836465e+00 8.081419e+00 9.478257e+00 9.089293e+00 1.248091e+01 1.684770e+01 1.555556e+01 1.405829e+01 1.358043e+01 1.151899e+01 3.605724e+01
<GCONST> 5.513571e+01
<MIXTURE> 4 2.489800e-01
<MEAN> 13
 -5.147577e+00 -1.527307e+00 -4.240556e+00 -7.238338e+00 -3.495950e+00 -4.196376e+00 -5.265606e+00 -3.490684e+00 -4.691221e+00 -3.476472e+00 -2.679920e+00 -3.223462e+00 7.381364e+01
<VARIANCE> 13
 3.067886e+00 6.834609e+00 6.495123e+00 9.369547e+00 9.682985e+00 9.167596e+00 1.259300e+01 1.429596e+01 1.405702e+01 1.359522e+01 1.287809e+01 1.197351e+01 1.891507e+01
<GCONST> 5.395410e+01
<TRANSP> 5
 0.000000e+00 1.000000e+00 0.000000e+00 0.000000e+00 0.000000e+00
 0.000000e+00 9.668058e-01 3.319426e-02 0.000000e+00 0.000000e+00
 0.000000e+00 0.000000e+00 9.661686e-01 3.383135e-02 0.000000e+00
 0.000000e+00 0.000000e+00 0.000000e+00 9.833097e-01 1.669028e-02
 0.000000e+00 0.000000e+00 0.000000e+00 0.000000e+00 0.000000e+00
<ENDHMM>
~h "co"
<BEGINHMM>
<NUMSTATES> 5
<STATE> 2
<NUMMIXES> 4
<MIXTURE> 1 2.707219e-01
<MEAN> 13
 -5.074022e+00 -3.242187e+00 -9.696292e-02 -6.898977e-01 8.077187e-01 2.469969e+00 3.821031e+00 2.112715e+00 8.431990e-01 -5.158024e-01 -5.780436e-01 -3.543701e+00 4.942801e+01
<VARIANCE> 13
 6.022559e+00 1.317861e+01 1.777679e+01 1.902961e+01 1.098343e+01 1.278094e+01 1.640076e+01 1.546983e+01 1.860146e+01 1.753510e+01 1.568738e+01 1.390344e+01 1.175069e+01
<GCONST> 5.820732e+01
<MIXTURE> 2 2.263963e-01
<MEAN> 13
 -7.684538e+00 -5.717046e+00 3.492136e+00 6.103371e-01 -7.251404e+00 -2.181133e+00 -1.906501e+00 -2.864851e+00 -1.809357e+00 -4.336436e+00 -6.541593e+00 -7.756723e+00 6.530730e+01
<VARIANCE> 13
 1.748533e+01 1.188878e+01 1.428583e+01 3.099648e+01 3.753739e+01 2.151336e+01 2.925644e+01 3.356092e+01 2.517275e+01 2.596944e+01 3.468769e+01 1.645860e+01 5.192742e+01
<GCONST> 6.568574e+01
<MIXTURE> 3 2.263969e-01
<MEAN> 13
 -7.684542e+00 -5.717047e+00 3.492137e+00 6.103337e-01 -7.251408e+00 -2.181135e+00 -1.906496e+00 -2.864848e+00 -1.809358e+00 -4.336435e+00 -6.541587e+00 -7.756722e+00 6.530730e+01
<VARIANCE> 13
 1.748531e+01 1.188879e+01 1.428582e+01 3.099648e+01 3.753738e+01 2.151336e+01 2.925643e+01 3.356091e+01 2.517274e+01 2.596943e+01 3.468768e+01 1.645860e+01 5.192741e+01
<GCONST> 6.568573e+01
<MIXTURE> 4 2.764826e-01
<MEAN> 13
 -5.270169e+00 -8.439269e+00 -7.180477e-01 2.365174e+00 -1.524169e+01 -6.020005e+00 -8.837758e+00 -3.421561e+00 2.876423e+00 -2.034387e+00 -6.945921e+00 -9.512408e+00 6.543831e+01
<VARIANCE> 13
 9.819002e+00 3.015603e+01 3.942533e+01 2.456806e+01 7.132188e+01 5.142048e+01 5.143168e+01 6.487789e+01 6.152742e+01 5.676373e+01 7.424921e+01 4.117084e+01 3.094484e+01
<GCONST> 7.239471e+01
<STATE> 3
<NUMMIXES> 4
<MIXTURE> 1 2.443032e-01
<MEAN> 13
 -9.654547e+00 -5.601151e+00 2.242004e+00 -4.269536e-01 -4.422757e+00 -7.071317e+00 -2.865465e-01 -8.637107e+00 -6.441406e+00 -2.576384e+00 -5.789661e-01 -4.770180e+00 6.639775e+01
<VARIANCE> 13
 2.651731e+01 1.051943e+01 1.232198e+01 1.544925e+01 2.176298e+01 2.289632e+01 3.654227e+01 4.279227e+01 2.484128e+01 2.927955e+01 2.075108e+01 2.522541e+01 5.401645e+01
<GCONST> 6.517752e+01
<MIXTURE> 2 2.356439e-01
<MEAN> 13
 -4.491973e+00 -7.051147e+00 -9.351392e-01 -2.759272e+00 -6.330416e+00 -6.480084e+00 -1.011486e+01 -6.003832e+00 -4.384372e+00 -6.105083e+00 -5.401303e+00 -1.185070e+01 6.675687e+01
<VARIANCE> 13
 1.027671e+01 1.232393e+01 1.819615e+01 1.678060e+01 2.654185e+01 4.419223e+01 4.607567e+01 5.237566e+01 4.252688e+01 4.891544e+01 2.983390e+01 3.688277e+01 3.094714e+01
<GCONST> 6.738716e+01
<MIXTURE> 3 2.356430e-01
<MEAN> 13
 -4.491977e+00 -7.051145e+00 -9.351375e-01 -2.759269e+00 -6.330419e+00 -6.480087e+00 -1.011486e+01 -6.003833e+00 -4.384375e+00 -6.105087e+00 -5.401306e+00 -1.185069e+01 6.675687e+01
<VARIANCE> 13
 1.027670e+01 1.232393e+01 1.819617e+01 1.678061e+01 2.654185e+01 4.419221e+01 4.607563e+01 5.237562e+01 4.252686e+01 4.891541e+01 2.983393e+01 3.688276e+01 3.094714e+01
<GCONST> 6.738716e+01
<MIXTURE> 4 2.844054e-01
<MEAN> 13
 -7.319170e+00 -7.038909e+00 -3.849010e+00 -4.199183e+00 -1.196308e+01 -1.101830e+01 -7.816026e+00 -6.081948e+00 -4.322165e+00 -6.136545e+00 -5.986557e+00 -1.038897e+01 7.294157e+01
<VARIANCE> 13
 6.017697e+00 1.202507e+01 2.048198e+01 2.133894e+01 2.862997e+01 2.374248e+01 4.401271e+01 6.394852e+01 5.362617e+01 4.019418e+01 4.115796e+01 4.165972e+01 1.358608e+01
<GCONST> 6.645021e+01
<STATE> 4
<NUMMIXES> 4
<MIXTURE> 1 2.571273e-01
<MEAN> 13
 -3.068976e+00 1.308169e+00 5.178657e+00 2.921297e+00 3.367978e+00 3.293243e-01 -8.678291e-01 -2.099715e+00 -3.984273e+00 -3.462801e+00 -3.486681e+00 -7.461098e+00 4.845712e+01
<VARIANCE> 13
 8.704730e+00 1.082391e+01 1.575068e+01 2.063593e+01 1.599059e+01 1.328428e+01 1.954002e+01 2.683360e+01 2.214040e+01 1.821277e+01 1.827762e+01 1.509420e+01 1.540324e+01
<GCONST> 6.019674e+01
<MIXTURE> 2 2.358088e-01
<MEAN> 13
 -3.387908e+00 -2.938569e+00 4.577067e+00 2.666063e+00 -5.791472e-01 -4.709688e+00 -5.139363e+00 -7.909238e+00 -5.158627e+00 -4.165287e+00 -3.071443e+00 -7.351721e+00 5.771487e+01
<VARIANCE> 13
 1.437475e+01 9.423551e+00 1.236999e+01 2.141022e+01 2.184828e+01 1.930342e+01 2.571296e+01 3.577578e+01 2.897067e+01 2.732152e+01 2.704055e+01 2.325937e+01 3.210138e+01
<GCONST> 6.383580e+01
<MIXTURE> 3 2.358088e-01
<MEAN> 13
 -3.387908e+00 -2.938569e+00 4.577067e+00 2.666063e+00 -5.791472e-01 -4.709688e+00 -5.139363e+00 -7.909238e+00 -5.158627e+00 -4.165287e+00 -3.071443e+00 -7.351721e+00 5.771487e+01
<VARIANCE> 13
 1.437475e+01 9.423551e+00 1.236999e+01 2.141022e+01 2.184828e+01 1.930342e+01 2.571296e+01 3.577578e+01 2.897067e+01 2.732152e+01 2.704055e+01 2.325937e+01 3.210138e+01
<GCONST> 6.383580e+01
<MIXTURE> 4 2.712531e-01
<MEAN> 13
 -3.796674e+00 -6.388984e+00 4.628313e+00 1.850162e+00 -7.256706e+00 -6.298159e+00 -9.372707e+00 -8.561003e+00 -5.606562e+00 -3.705144e+00 -3.638806e+00 -9.285021e+00 6.374525e+01
<VARIANCE> 13
 1.426578e+01 2.002033e+01 2.575000e+01 3.379391e+01 3.959008e+01 4.220326e+01 4.447629e+01 6.740172e+01 4.301548e+01 4.439264e+01 4.560694e+01 2.622972e+01 2.542328e+01
<GCONST> 6.961967e+01
<TRANSP> 5
 0.000000e+00 1.000000e+00 0.000000e+00 0.000000e+00 0.000000e+00
 0.000000e+00 9.446728e-01 5.532727e-02 0.000000e+00 0.000000e+00
 0.000000e+00 0.000000e+00 9.832055e-01 1.679450e-02 0.000000e+00
 0.000000e+00 0.000000e+00 0.000000e+00 9.782780e-01 2.172195e-02
 0.000000e+00 0.000000e+00 0.000000e+00 0.000000e+00 0.000000e+00
<ENDHMM>
~h "ds"
<BEGINHMM>
<NUMSTATES> 5
<STATE> 2
<NUMMIXES> 4
<MIXTURE> 1 2.965738e-01
<MEAN> 13
 -1.090260e+01 1.525893e+00 2.590397e+00 1.870820e+00 3.018589e+00 2.190571e-01 5.468368e+00 -1.929588e+00 1.983885e+00 1.334712e+00 4.195163e+00 2.060059e-01 6.241701e+01
<VARIANCE> 13
 1.689828e+01 1.441813e+01 9.217399e+00 1.127725e+01 1.396903e+01 1.733173e+01 2.379882e+01 2.909551e+01 2.961891e+01 2.359485e+01 2.302370e+01 1.972585e+01 9.468340e+01
<GCONST> 6.328001e+01
<MIXTURE> 2 2.548184e-01
<MEAN> 13
 -1.482954e+01 4.080040e-01 -7.568020e-01 3.819134e-02 -1.637059e+00 -2.264303e+00 1.625976e+00 -3.590361e+00 1.363318e+00 2.738189e+00 4.456213e+00 -1.273380e-01 6.880035e+01
<VARIANCE> 13
 7.178146e+00 3.874796e+00 5.212992e+00 8.459910e+00 1.204685e+01 1.007297e+01 1.340960e+01 1.381048e+01 1.497942e+01 1.389859e+01 1.349499e+01 1.373992e+01 2.661485e+01
<GCONST> 5.486703e+01
<MIXTURE> 3 2.548182e-01
<MEAN> 13
 -1.482954e+01 4.080043e-01 -7.568025e-01 3.819123e-02 -1.637059e+00 -2.264302e+00 1.625976e+00 -3.590362e+00 1.363315e+00 2.738183e+00 4.456207e+00 -1.273410e-01 6.880035e+01
<VARIANCE> 13
 7.178172e+00 3.874801e+00 5.212993e+00 8.459911e+00 1.204686e+01 1.007299e+01 1.340960e+01 1.381048e+01 1.497942e+01 1.389861e+01 1.349500e+01 1.373994e+01 2.661491e+01
<GCONST> 5.486705e+01
<MIXTURE> 4 1.937867e-01
<MEAN> 13
 -1.814054e+01 -1.393913e+00 -3.159915e+00 -4.611105e+00 -4.987716e+00 -4.815395e+00 3.359665e+00 -5.223298e-01 2.590391e-01 2.465663e+00 3.788369e+00 2.005718e-01 6.566640e+01
<VARIANCE> 13
 1.125145e+01 1.404442e+01 1.027216e+01 1.130431e+01 2.444835e+01 2.389028e+01 3.560829e+01 4.477220e+01 2.530504e+01 2.576646e+01 1.758217e+01 1.513063e+01 2.542545e+02
<GCONST> 6.505597e+01
<STATE> 3
<NUMMIXES> 4
<MIXTURE> 1 2.542045e-01
<MEAN> 13
 -1.207383e+01 3.444527e+00 4.080478e+00 6.574357e+00 7.003271e+00 4.188994e+00 8.167428e+00 1.627360e-01 4.776768e+00 3.103033e+00 5.081274e+00 2.145374e+00 6.868661e+01
<VARIANCE> 13
 8.100306e+00 3.127604e+00 4.973088e+00 6.005268e+00 7.946167e+00 8.899708e+00 1.064506e+01 1.284558e+01 1.271737e+01 1.159419e+01 1.266233e+01 1.094875e+01 3.687626e+01
<GCONST> 5.323095e+01
<MIXTURE> 2 2.031259e-01
<MEAN> 13
 -6.653994e+00 6.703491e+00 6.395676e+00 6.148039e+00 6.336837e+00 2.861022e+00 5.873705e+00 -1.779132e+00 1.356367e+00 -8.976206e-02 1.958998e+00 -8.386002e-01 6.705909e+01
<VARIANCE> 13
 7.694343e+00 4.767982e+00 4.122284e+00 6.261640e+00 1.094936e+01 1.398944e+01 1.109990e+01 1.124658e+01 1.231518e+01 1.334325e+01 1.201896e+01 1.089856e+01 6.404760e+01
<GCONST> 5.474083e+01
<MIXTURE> 3 2.031256e-01
<MEAN> 13
 -6.653994e+00 6.703497e+00 6.395681e+00 6.148044e+00 6.336837e+00 2.861022e+00 5.873705e+00 -1.779136e+00 1.356362e+00 -8.976961e-02 1.958993e+00 -8.386042e-01 6.705910e+01
<VARIANCE> 13
 7.694344e+00 4.767988e+00 4.122286e+00 6.261658e+00 1.094941e+01 1.398948e+01 1.109993e+01 1.124662e+01 1.231519e+01 1.334326e+01 1.201897e+01 1.089858e+01 6.404771e+01
<GCONST> 5.474085e+01
<MIXTURE> 4 3.395432e-01
<MEAN> 13
 -1.087951e+01 6.633086e-01 1.379986e+00 2.053234e+00 4.195677e+00 8.023654e-01 2.701892e+00 -4.358779e+00 -1.394541e+00 4.841342e-01 2.541053e+00 -2.636448e+00 6.188511e+01
<VARIANCE> 13
 4.948702e+00 5.990748e+00 4.686364e+00 6.127298e+00 1.015525e+01 8.739404e+00 1.241307e+01 1.481201e+01 1.430505e+01 1.329071e+01 1.465287e+01 1.348960e+01 1.592217e+01
<GCONST> 5.364112e+01
<STATE> 4
<NUMMIXES> 4
<MIXTURE> 1 1.426422e-01
<MEAN> 13
 -8.829508e+00 4.650592e+00 6.693638e+00 5.755852e+00 7.195830e+00 2.984857e+00 7.229650e+00 -4.607187e-01 2.285496e+00 -4.655068e-01 2.384603e+00 -2.186277e-01 6.239681e+01
<VARIANCE> 13
 1.593725e+01 1.102653e+01 1.161639e+01 9.255543e+00 1.251738e+01 1.490289e+01 1.533997e+01 1.626055e+01 1.750079e+01 1.506078e+01 1.580532e+01 1.367339e+01 1.016171e+02
<GCONST> 6.005823e+01
<MIXTURE> 2 3.036343e-01
<MEAN> 13
 -9.458286e+00 1.470376e+00 2.179706e+00 3.050521e-01 2.987832e+00 1.266089e+00 2.495800e+00 -3.768496e-01 2.915478e-01 -6.086715e-01 1.900838e+00 -1.832315e+00 5.139017e+01
<VARIANCE> 13
 1.154608e+01 7.100706e+00 9.117320e+00 9.120364e+00 1.239374e+01 2.005861e+01 2.047326e+01 1.736952e+01 2.534227e+01 2.481137e+01 1.703562e+01 1.515831e+01 1.381060e+01
<GCONST> 5.873238e+01
<MIXTURE> 3 3.036343e-01
<MEAN> 13
 -9.458286e+00 1.470376e+00 2.179706e+00 3.050521e-01 2.987832e+00 1.266089e+00 2.495800e+00 -3.768496e-01 2.915478e-01 -6.086715e-01 1.900838e+00 -1.832315e+00 5.139017e+01
<VARIANCE> 13
 1.154608e+01 7.100706e+00 9.117320e+00 9.120364e+00 1.239374e+01 2.005861e+01 2.047326e+01 1.736952e+01 2.534227e+01 2.481137e+01 1.703562e+01 1.515831e+01 1.381060e+01
<GCONST> 5.873238e+01
<MIXTURE> 4 2.500820e-01
<MEAN> 13
 -1.115621e+01 -8.487232e-01 -9.825820e-01 -2.170921e+00 1.601916e-01 -2.131381e+00 1.123397e+00 -2.711884e+00 -1.108256e+00 -5.962713e-01 2.104520e+00 -1.875723e+00 5.758575e+01
<VARIANCE> 13
 2.342759e+01 1.234847e+01 1.597958e+01 1.701126e+01 2.258828e+01 2.096586e+01 2.609675e+01 2.150520e+01 2.481645e+01 2.501487e+01 2.270379e+01 2.418013e+01 3.634938e+01
<GCONST> 6.398769e+01
<TRANSP> 5
 0.000000e+00 1.000000e+00 0.000000e+00 0.000000e+00 0.000000e+00
 0.000000e+00 9.658493e-01 3.415070e-02 0.000000e+00 0.000000e+00
 0.000000e+00 0.000000e+00 9.250503e-01 7.494965e-02 0.000000e+00
 0.000000e+00 0.000000e+00 0.000000e+00 9.926747e-01 7.325277e-03
 0.000000e+00 0.000000e+00 0.000000e+00 0.000000e+00 0.000000e+00
<ENDHMM>
~h "kj"
<BEGINHMM>
<NUMSTATES> 5
<STATE> 2
<NUMMIXES> 4
<MIXTURE> 1 2.581945e-01
<MEAN> 13
 -1.689518e+01 6.340347e+00 7.010066e-01 -2.694707e+00 1.073462e-02 5.581419e+00 4.443932e-02 5.858441e+00 2.038548e+00 -5.215999e-01 3.058768e+00 -2.850542e-01 5.243229e+01
<VARIANCE> 13
 2.823273e+01 1.138646e+01 9.178661e+00 1.006320e+01 1.318425e+01 1.943586e+01 2.366159e+01 1.491656e+01 1.390685e+01 2.072861e+01 1.536277e+01 1.524835e+01 1.672554e+01
<GCONST> 5.954079e+01
<MIXTURE> 2 2.718737e-01
<MEAN> 13
 -2.131875e+01 2.227296e+00 1.264808e+00 -3.975183e+00 -1.189932e+00 6.593710e+00 2.374276e+00 2.602624e+00 -1.435198e-01 -2.654479e-01 1.811914e+00 -1.243783e+00 5.808684e+01
<VARIANCE> 13
 2.173736e+01 1.381021e+01 1.299898e+01 1.351858e+01 1.625185e+01 2.827564e+01 2.138062e+01 1.709853e+01 1.436967e+01 1.982285e+01 1.526536e+01 1.297252e+01 1.734893e+01
<GCONST> 6.059137e+01
<MIXTURE> 3 2.718743e-01
<MEAN> 13
 -2.131877e+01 2.227286e+00 1.264820e+00 -3.975188e+00 -1.189941e+00 6.593720e+00 2.374279e+00 2.602618e+00 -1.435197e-01 -2.654476e-01 1.811920e+00 -1.243781e+00 5.808686e+01
<VARIANCE> 13
 2.173729e+01 1.381021e+01 1.299899e+01 1.351856e+01 1.625184e+01 2.827561e+01 2.138063e+01 1.709857e+01 1.436968e+01 1.982286e+01 1.526533e+01 1.297252e+01 1.734888e+01
<GCONST> 6.059135e+01
<MIXTURE> 4 1.980555e-01
<MEAN> 13
 -1.534665e+01 3.244167e-01 -2.344602e+00 -2.651073e+00 -1.232404e+00 1.979184e-01 2.378100e-01 -9.987629e-01 -2.502932e+00 3.291817e-01 -1.671621e-01 -1.654497e+00 5.584684e+01
<VARIANCE> 13
 3.041569e+01 2.608945e+01 1.402388e+01 1.703341e+01 2.262053e+01 2.525897e+01 2.570578e+01 1.782493e+01 1.808303e+01 2.380162e+01 1.612719e+01 1.788340e+01 3.257958e+01
<GCONST> 6.373298e+01
<STATE> 3
<NUMMIXES> 4
<MIXTURE> 1 3.048874e-01
<MEAN> 13
 -1.347830e+01 -1.328898e+00 -3.700276e+00 1.488178e+00 6.928305e-01 -1.532698e+00 1.870934e+00 -3.434294e-01 -6.575097e-01 2.010381e+00 6.969151e-01 -1.059186e+00 5.520401e+01
<VARIANCE> 13
 1.185314e+01 1.983692e+01 1.607787e+01 1.862295e+01 1.108654e+01 1.499313e+01 1.485521e+01 1.363780e+01 1.712190e+01 1.623107e+01 1.796164e+01 1.376138e+01 1.450824e+01
<GCONST> 5.929100e+01
<MIXTURE> 2 2.334799e-01
<MEAN> 13
 -1.505109e+01 -5.421963e+00 -4.597284e+00 -2.476623e-01 -1.865637e+00 -4.216798e+00 -1.923315e+00 -3.930362e+00 -2.864632e+00 1.604968e+00 7.878461e-01 -7.966080e-01 6.113429e+01
<VARIANCE> 13
 1.132415e+01 2.094819e+01 1.209758e+01 1.066263e+01 1.537643e+01 1.411097e+01 1.568664e+01 1.715113e+01 1.703498e+01 1.702505e+01 1.554554e+01 1.391980e+01 1.739979e+01
<GCONST> 5.909930e+01
<MIXTURE> 3 2.334801e-01
<MEAN> 13
 -1.505109e+01 -5.421964e+00 -4.597284e+00 -2.476624e-01 -1.865636e+00 -4.216797e+00 -1.923316e+00 -3.930362e+00 -2.864632e+00 1.604966e+00 7.878460e-01 -7.966076e-01 6.113429e+01
<VARIANCE> 13
 1.132415e+01 2.094819e+01 1.209759e+01 1.066264e+01 1.537643e+01 1.411098e+01 1.568664e+01 1.715115e+01 1.703498e+01 1.702506e+01 1.554555e+01 1.391981e+01 1.739981e+01
<GCONST> 5.909931e+01
<MIXTURE> 4 2.281505e-01
<MEAN> 13
 -1.803915e+01 -1.107862e+01 -3.968822e+00 -3.661147e+00 -2.584210e+00 -6.232784e+00 -4.973544e+00 -5.650559e+00 -4.083087e+00 -8.640209e-01 2.148765e-01 -1.418045e-01 7.291398e+01
<VARIANCE> 13
 1.178073e+01 1.456910e+01 7.831540e+00 1.235416e+01 1.538202e+01 1.432650e+01 1.722301e+01 1.393479e+01 1.733749e+01 1.435219e+01 1.459199e+01 1.384359e+01 3.319025e+01
<GCONST> 5.881319e+01
<STATE> 4
<NUMMIXES> 4
<MIXTURE> 1 2.491544e-01
<MEAN> 13
 -2.236968e+01 6.803763e+00 -7.607332e-02 4.483534e+00 -9.331787e-01 4.137597e-01 7.224784e+00 2.932806e+00 -7.162929e-01 1.581128e+00 7.278056e-01 -4.951254e-01 5.373425e+01
<VARIANCE> 13
 2.143300e+01 1.554321e+01 1.882345e+01 2.001419e+01 1.477594e+01 1.858598e+01 1.854548e+01 1.560321e+01 1.798508e+01 2.560730e+01 1.704433e+01 2.062644e+01 1.083523e+01
<GCONST> 6.129323e+01
<MIXTURE> 2 2.766948e-01
<MEAN> 13
 -2.340886e+01 2.047194e+00 3.495954e+00 2.851221e+00 -3.372702e+00 -5.098060e-01 8.037546e+00 -7.586725e-01 -4.623555e+00 5.463128e+00 6.142154e-01 -4.311496e+00 5.604286e+01
<VARIANCE> 13
 2.003370e+01 1.182094e+01 1.039776e+01 1.673481e+01 1.496910e+01 1.680669e+01 2.166672e+01 1.689082e+01 1.806975e+01 1.988430e+01 1.820568e+01 1.355460e+01 1.530781e+01
<GCONST> 6.007008e+01
<MIXTURE> 3 2.766948e-01
<MEAN> 13
 -2.340886e+01 2.047194e+00 3.495954e+00 2.851221e+00 -3.372702e+00 -5.098060e-01 8.037546e+00 -7.586725e-01 -4.623555e+00 5.463128e+00 6.142154e-01 -4.311496e+00 5.604286e+01
<VARIANCE> 13
 2.003370e+01 1.182094e+01 1.039776e+01 1.673481e+01 1.496910e+01 1.680669e+01 2.166672e+01 1.689082e+01 1.806975e+01 1.988430e+01 1.820568e+01 1.355460e+01 1.530781e+01
<GCONST> 6.007008e+01
<MIXTURE> 4 1.974507e-01
<MEAN> 13
 -1.311989e+01 -6.558153e+00 -4.254183e+00 -7.201477e-01 -2.156377e+00 -4.280922e+00 -1.606112e+00 -3.184824e+00 -2.750121e+00 6.060998e-01 4.369616e-01 -7.405187e-01 6.123364e+01
<VARIANCE> 13
 2.441700e+01 4.948613e+01 1.642489e+01 1.446459e+01 2.229811e+01 2.125173e+01 1.680256e+01 2.018172e+01 1.682566e+01 1.885527e+01 1.718981e+01 1.344974e+01 8.761104e+01
<GCONST> 6.412301e+01
<TRANSP> 5
 0.000000e+00 1.000000e+00 0.000000e+00 0.000000e+00 0.000000e+00
 0.000000e+00 9.917518e-01 8.248261e-03 0.000000e+00 0.000000e+00
 0.000000e+00 0.000000e+00 9.729859e-01 2.701407e-02 0.000000e+00
 0.000000e+00 0.000000e+00 0.000000e+00 9.936170e-01 6.382991e-03
 0.000000e+00 0.000000e+00 0.000000e+00 0.000000e+00 0.000000e+00
<ENDHMM>
~h "kn"
<BEGINHMM>
<NUMSTATES> 5
<STATE> 2
<NUMMIXES> 4
<MIXTURE> 1 3.331461e-01
<MEAN> 13
 5.726657e+00 4.852828e-01 -6.151813e+00 -1.659247e+00 1.741394e+00 -2.052912e+00 6.486180e-01 -2.099746e+00 4.216863e+00 3.281049e+00 4.222196e+00 6.529666e-01 5.883886e+01
<VARIANCE> 13
 1.022880e+01 1.776722e+01 8.600866e+00 1.234665e+01 1.221106e+01 1.989086e+01 1.676670e+01 1.673999e+01 1.593237e+01 1.512721e+01 1.356962e+01 1.548163e+01 2.333650e+01
<GCONST> 5.887236e+01
<MIXTURE> 2 2.194100e-01
<MEAN> 13
 7.951925e-01 3.718616e+00 -2.485719e-01 -2.468885e+00 2.206611e+00 1.026508e+00 1.394507e+00 -2.468094e+00 4.515588e-02 8.830297e-02 6.061168e-01 -2.636980e+00 5.299696e+01
<VARIANCE> 13
 2.197961e+01 1.040958e+01 1.514688e+01 7.371520e+00 1.422115e+01 1.709709e+01 1.993027e+01 3.132120e+01 1.742280e+01 1.480190e+01 1.490044e+01 1.260538e+01 5.762826e+01
<GCONST> 6.081290e+01
<MIXTURE> 3 2.194099e-01
<MEAN> 13
 7.952147e-01 3.718620e+00 -2.485891e-01 -2.468885e+00 2.206608e+00 1.026494e+00 1.394508e+00 -2.468117e+00 4.516615e-02 8.830106e-02 6.061200e-01 -2.636980e+00 5.299701e+01
<VARIANCE> 13
 2.197952e+01 1.040959e+01 1.514684e+01 7.371521e+00 1.422111e+01 1.709709e+01 1.993030e+01 3.132107e+01 1.742280e+01 1.480184e+01 1.490039e+01 1.260537e+01 5.762814e+01
<GCONST> 6.081288e+01
<MIXTURE> 4 2.280329e-01
<MEAN> 13
 4.783513e+00 1.033042e+00 -5.547235e+00 -2.703461e+00 1.623161e+00 -2.292821e+00 -1.800544e+00 -8.037297e+00 -2.515416e+00 -2.438898e+00 -1.015413e+00 -4.318336e+00 5.892389e+01
<VARIANCE> 13
 1.606995e+01 2.432301e+01 2.108069e+01 1.104008e+01 2.343751e+01 2.008182e+01 2.533100e+01 1.906302e+01 1.637391e+01 2.537402e+01 1.791372e+01 1.488507e+01 3.146862e+01
<GCONST> 6.270893e+01
<STATE> 3
<NUMMIXES> 4
<MIXTURE> 1 2.380634e-01
<MEAN> 13
 2.767571e+00 -2.858421e-01 -1.232098e+00 3.043013e+00 7.783317e+00 2.323747e+00 5.807903e+00 -1.564264e+00 2.128626e+00 4.135524e-01 2.560209e+00 -1.720477e-01 6.416531e+01
<VARIANCE> 13
 6.888422e+00 1.251749e+01 8.537571e+00 1.249282e+01 1.429958e+01 1.832866e+01 1.816418e+01 1.445337e+01 1.662233e+01 1.977606e+01 1.729636e+01 1.687034e+01 2.105569e+01
<GCONST> 5.867651e+01
<MIXTURE> 2 2.615590e-01
<MEAN> 13
 6.558980e+00 -1.622465e+00 -2.407476e+00 2.040488e+00 5.005120e+00 -1.016630e+00 1.744412e+00 -3.535790e+00 -9.260957e-01 -7.346144e-01 1.001333e+00 -1.502235e+00 5.998499e+01
<VARIANCE> 13
 6.228231e+00 1.530387e+01 1.206546e+01 1.069179e+01 1.325674e+01 1.829174e+01 1.489053e+01 1.405657e+01 1.527989e+01 1.513395e+01 1.463134e+01 1.335588e+01 1.941512e+01
<GCONST> 5.782885e+01
<MIXTURE> 3 2.615590e-01
<MEAN> 13
 6.558980e+00 -1.622465e+00 -2.407476e+00 2.040488e+00 5.005120e+00 -1.016630e+00 1.744412e+00 -3.535790e+00 -9.260957e-01 -7.346144e-01 1.001333e+00 -1.502235e+00 5.998499e+01
<VARIANCE> 13
 6.228231e+00 1.530387e+01 1.206546e+01 1.069179e+01 1.325674e+01 1.829174e+01 1.489053e+01 1.405657e+01 1.527989e+01 1.513395e+01 1.463134e+01 1.335588e+01 1.941512e+01
<GCONST> 5.782885e+01
<MIXTURE> 4 2.388173e-01
<MEAN> 13
 5.123024e+00 -3.716520e+00 -3.305710e+00 1.052070e+00 2.517334e+00 -3.938766e+00 1.043081e+00 -7.989688e+00 -3.423223e+00 -4.272398e+00 -6.199702e-01 -3.880297e+00 6.385724e+01
<VARIANCE> 13
 9.373853e+00 2.866987e+01 1.395803e+01 1.408416e+01 1.890070e+01 2.140365e+01 1.995436e+01 2.510189e+01 2.177847e+01 1.920324e+01 1.754515e+01 1.867335e+01 2.845290e+01
<GCONST> 6.216255e+01
<STATE> 4
<NUMMIXES> 4
<MIXTURE> 1 2.537440e-01
<MEAN> 13
 6.497327e+00 1.823126e+00 -1.454539e+00 2.650425e+00 7.920968e+00 3.161770e+00 2.999702e+00 -1.866571e-01 -1.541613e+00 -7.695128e-01 9.447208e-01 -2.230063e+00 5.298677e+01
<VARIANCE> 13
 1.802928e+01 8.600121e+00 1.176754e+01 7.416422e+00 1.404062e+01 1.678068e+01 1.507485e+01 1.724005e+01 1.543634e+01 1.324020e+01 1.003860e+01 1.222252e+01 1.637251e+01
<GCONST> 5.735297e+01
<MIXTURE> 2 2.614036e-01
<MEAN> 13
 5.683539e+00 3.890516e+00 3.809350e-01 1.652242e+00 6.543146e+00 2.139942e+00 1.181031e+00 -1.102367e+00 -3.593683e+00 -2.906374e+00 -7.385421e-01 -3.851563e+00 5.149540e+01
<VARIANCE> 13
 1.712906e+01 1.605342e+01 1.589704e+01 8.772776e+00 1.383968e+01 1.709175e+01 1.561996e+01 1.920347e+01 1.681160e+01 1.157398e+01 9.931065e+00 1.061400e+01 2.756218e+01
<GCONST> 5.886179e+01
<MIXTURE> 3 2.614036e-01
<MEAN> 13
 5.683539e+00 3.890516e+00 3.809350e-01 1.652242e+00 6.543146e+00 2.139942e+00 1.181031e+00 -1.102367e+00 -3.593683e+00 -2.906374e+00 -7.385421e-01 -3.851563e+00 5.149540e+01
<VARIANCE> 13
 1.712906e+01 1.605342e+01 1.589704e+01 8.772776e+00 1.383968e+01 1.709175e+01 1.561996e+01 1.920347e+01 1.681160e+01 1.157398e+01 9.931065e+00 1.061400e+01 2.756218e+01
<GCONST> 5.886179e+01
<MIXTURE> 4 2.234490e-01
<MEAN> 13
 3.941566e+00 3.955159e+00 1.689608e+00 -9.166493e-01 2.182177e+00 1.167762e+00 3.277636e-02 -3.103956e+00 -4.608962e+00 -2.647965e+00 -1.096232e+00 -4.104780e+00 5.040801e+01
<VARIANCE> 13
 1.188598e+01 2.802435e+01 1.544252e+01 1.196823e+01 1.778019e+01 1.312495e+01 1.939093e+01 3.200299e+01 2.198540e+01 2.899690e+01 1.981283e+01 1.938559e+01 3.354673e+01
<GCONST> 6.272482e+01
<TRANSP> 5
 0.000000e+00 1.000000e+00 0.000000e+00 0.000000e+00 0.000000e+00
 0.000000e+00 9.630786e-01 3.692137e-02 0.000000e+00 0.000000e+00
 0.000000e+00 0.000000e+00 9.790933e-01 2.090669e-02 0.000000e+00
 0.000000e+00 0.000000e+00 0.000000e+00 9.557799e-01 4.422008e-02
 0.000000e+00 0.000000e+00 0.000000e+00 0.000000e+00 0.000000e+00
<ENDHMM>
~h "kt"
<BEGINHMM>
<NUMSTATES> 5
<STATE> 2
<NUMMIXES> 4
<MIXTURE> 1 2.459584e-01
<MEAN> 13
 -1.192442e+01 9.503326e-01 -6.149711e+00 -3.698746e-01 2.004110e+00 1.723642e+00 6.407287e+00 2.956565e+00 3.658595e+00 3.242425e+00 3.218607e+00 -2.753801e-01 5.684626e+01
<VARIANCE> 13
 7.572281e+00 3.273813e+00 5.435790e+00 8.929655e+00 1.103645e+01 1.182020e+01 1.360822e+01 1.343413e+01 1.233685e+01 1.230642e+01 1.311068e+01 1.265065e+01 1.092777e+01
<GCONST> 5.358987e+01
<MIXTURE> 2 2.620923e-01
<MEAN> 13
 -9.104667e+00 -3.293025e-01 -6.738706e+00 -1.174650e+00 1.885267e+00 2.766632e+00 5.155569e+00 1.237172e-01 -1.486674e-01 2.918299e-01 1.586000e+00 -1.729519e+00 5.352766e+01
<VARIANCE> 13
 9.397121e+00 6.308322e+00 6.548234e+00 7.921884e+00 9.378577e+00 1.176901e+01 1.183196e+01 1.171653e+01 1.122646e+01 1.207922e+01 1.196944e+01 1.190817e+01 8.292315e+00
<GCONST> 5.354388e+01
<MIXTURE> 3 2.620936e-01
<MEAN> 13
 -9.104654e+00 -3.293086e-01 -6.738706e+00 -1.174653e+00 1.885268e+00 2.766638e+00 5.155570e+00 1.237165e-01 -1.486705e-01 2.918308e-01 1.586000e+00 -1.729522e+00 5.352765e+01
<VARIANCE> 13
 9.397109e+00 6.308323e+00 6.548236e+00 7.921864e+00 9.378572e+00 1.176899e+01 1.183195e+01 1.171653e+01 1.122645e+01 1.207922e+01 1.196943e+01 1.190817e+01 8.292291e+00
<GCONST> 5.354387e+01
<MIXTURE> 4 2.298535e-01
<MEAN> 13
 -1.441640e+01 3.175381e-01 -6.272160e+00 -1.703243e+00 -1.558194e-01 -2.429968e+00 1.763609e+00 -5.634342e-01 1.470752e+00 -3.993855e-01 -1.275896e-01 -1.429211e+00 5.955519e+01
<VARIANCE> 13
 1.434738e+01 8.218725e+00 1.176762e+01 1.876455e+01 1.593796e+01 1.659102e+01 1.746998e+01 2.115854e+01 2.351056e+01 1.778537e+01 1.533125e+01 1.511590e+01 2.080891e+01
<GCONST> 6.006664e+01
<STATE> 3
<NUMMIXES> 4
<MIXTURE> 1 3.162176e-01
<MEAN> 13
 -1.008256e+01 3.521637e+00 -2.380213e+00 1.216791e+00 1.884710e+00 -5.359363e-02 4.511680e+00 3.289076e+00 1.958313e+00 8.003959e-01 1.383782e+00 -1.255502e+00 4.942545e+01
<VARIANCE> 13
 4.980013e+00 4.423710e+00 7.585619e+00 9.340982e+00 1.014113e+01 1.129956e+01 1.245727e+01 1.322213e+01 1.339111e+01 1.386080e+01 1.195132e+01 1.125479e+01 7.181718e+00
<GCONST> 5.318787e+01
<MIXTURE> 2 2.452128e-01
<MEAN> 13
 -1.217279e+01 3.340019e+00 -2.829224e+00 1.450467e+00 1.356002e+00 -2.019114e+00 2.262594e+00 1.245616e-01 -1.007399e+00 -1.747117e+00 -7.505496e-01 -2.022317e+00 5.291045e+01
<VARIANCE> 13
 4.911117e+00 5.907965e+00 7.553176e+00 1.040587e+01 1.166959e+01 1.131025e+01 1.371340e+01 1.461227e+01 1.475492e+01 1.633884e+01 1.526770e+01 1.355171e+01 1.180220e+01
<GCONST> 5.509314e+01
<MIXTURE> 3 2.452136e-01
<MEAN> 13
 -1.217279e+01 3.340019e+00 -2.829224e+00 1.450465e+00 1.356001e+00 -2.019113e+00 2.262597e+00 1.245621e-01 -1.007400e+00 -1.747118e+00 -7.505504e-01 -2.022318e+00 5.291045e+01
<VARIANCE> 13
 4.911115e+00 5.907961e+00 7.553174e+00 1.040587e+01 1.166958e+01 1.131025e+01 1.371340e+01 1.461225e+01 1.475491e+01 1.633886e+01 1.526768e+01 1.355170e+01 1.180221e+01
<GCONST> 5.509313e+01
<MIXTURE> 4 1.933548e-01
<MEAN> 13
 -1.458265e+01 3.040277e+00 -4.439789e+00 -8.273858e-01 -1.614142e+00 -5.522631e+00 8.136796e-01 7.105163e-01 8.082006e-02 -2.028861e-01 -1.790423e+00 -1.228941e+00 5.721742e+01
<VARIANCE> 13
 6.914982e+00 8.336106e+00 9.829289e+00 1.392879e+01 1.631532e+01 1.913533e+01 2.442680e+01 1.999696e+01 2.317524e+01 2.677793e+01 2.326675e+01 1.725884e+01 1.693833e+01
<GCONST> 6.005650e+01
<STATE> 4
<NUMMIXES> 4
<MIXTURE> 1 2.518681e-01
<MEAN> 13
 -8.479867e+00 3.386051e+00 -1.300586e+00 7.081826e-01 2.700665e+00 2.609599e+00 5.233911e+00 4.770269e+00 2.145998e+00 7.852743e-01 1.450482e+00 -2.038075e+00 4.671420e+01
<VARIANCE> 13
 5.639667e+00 5.587310e+00 9.648680e+00 9.517250e+00 1.081617e+01 1.082433e+01 1.329939e+01 1.228804e+01 1.425037e+01 1.450551e+01 1.305958e+01 1.147273e+01 4.444583e+00
<GCONST> 5.355433e+01
<MIXTURE> 2 2.553608e-01
<MEAN> 13
 -9.246258e+00 3.471251e+00 -2.574333e+00 -2.613294e-01 3.141406e-01 -2.436701e-01 2.546858e+00 1.766713e+00 2.317661e-01 -3.613411e-01 4.775217e-01 -2.254035e+00 4.788242e+01
<VARIANCE> 13
 6.215433e+00 6.095235e+00 8.697591e+00 8.986016e+00 1.255824e+01 1.047742e+01 1.306593e+01 1.280472e+01 1.468574e+01 1.552408e+01 1.394753e+01 1.259151e+01 6.297425e+00
<GCONST> 5.432282e+01
<MIXTURE> 3 2.553613e-01
<MEAN> 13
 -9.246258e+00 3.471251e+00 -2.574334e+00 -2.613291e-01 3.141411e-01 -2.436699e-01 2.546859e+00 1.766713e+00 2.317658e-01 -3.613420e-01 4.775204e-01 -2.254036e+00 4.788242e+01
<VARIANCE> 13
 6.215429e+00 6.095235e+00 8.697587e+00 8.986018e+00 1.255824e+01 1.047742e+01 1.306591e+01 1.280471e+01 1.468574e+01 1.552407e+01 1.394753e+01 1.259149e+01 6.297420e+00
<GCONST> 5.432281e+01
<MIXTURE> 4 2.374074e-01
<MEAN> 13
 -1.151330e+01 1.910778e+00 -3.264824e+00 -7.599502e-01 -2.055502e+00 -2.512999e+00 1.892887e+00 3.971199e-01 4.335279e-02 1.456622e-01 -1.271570e-02 -1.996571e+00 5.238542e+01
<VARIANCE> 13
 1.614916e+01 1.829053e+01 1.691134e+01 1.805107e+01 2.234645e+01 2.071321e+01 2.270016e+01 2.219439e+01 2.372426e+01 2.409988e+01 1.876280e+01 1.587469e+01 1.345215e+01
<GCONST> 6.230593e+01
<TRANSP> 5
 0.000000e+00 1.000000e+00 0.000000e+00 0.000000e+00 0.000000e+00
 0.000000e+00 9.916540e-01 8.346051e-03 0.000000e+00 0.000000e+00
 0.000000e+00 0.000000e+00 9.871896e-01 1.281037e-02 0.000000e+00
 0.000000e+00 0.000000e+00 0.000000e+00 9.924216e-01 7.578361e-03
 0.000000e+00 0.000000e+00 0.000000e+00 0.000000e+00 0.000000e+00
<ENDHMM>
~h "pr"
<BEGINHMM>
<NUMSTATES> 5
<STATE> 2
<NUMMIXES> 4
<MIXTURE> 1 2.308721e-01
<MEAN> 13
 -1.858952e+01 -1.106897e+01 3.736007e+00 -4.900311e+00 8.998498e+00 4.379279e-01 4.651794e+00 3.236442e+00 -3.218873e+00 -5.684358e+00 2.706897e+00 6.663291e+00 6.007534e+01
<VARIANCE> 13
 2.850621e+01 1.593786e+01 2.256532e+01 4.811845e+01 4.219662e+01 9.131870e+01 5.394523e+01 7.937791e+01 1.011215e+02 3.612180e+01 9.475890e+01 5.934929e+01 8.059199e+00
<GCONST> 7.254500e+01
<MIXTURE> 2 2.489434e-01
<MEAN> 13
 -1.646383e+01 -9.858670e+00 1.524065e+00 -5.204647e+00 2.512561e+00 -8.598363e-01 5.754714e+00 3.446406e+00 1.506436e+00 -1.896286e+00 -2.526556e-01 -3.160745e-01 6.022760e+01
<VARIANCE> 13
 2.816687e+01 3.290847e+01 4.033376e+01 4.364845e+01 9.441902e+01 6.568121e+01 6.835001e+01 5.840331e+01 4.017406e+01 3.712130e+01 3.440559e+01 5.719853e+01 1.064744e+01
<GCONST> 7.247968e+01
<MIXTURE> 3 2.489427e-01
<MEAN> 13
 -1.646382e+01 -9.858668e+00 1.524042e+00 -5.204645e+00 2.512517e+00 -8.598431e-01 5.754750e+00 3.446400e+00 1.506430e+00 -1.896271e+00 -2.526485e-01 -3.160921e-01 6.022761e+01
<VARIANCE> 13
 2.816684e+01 3.290845e+01 4.033369e+01 4.364823e+01 9.441930e+01 6.568102e+01 6.835015e+01 5.840331e+01 4.017402e+01 3.712121e+01 3.440552e+01 5.719837e+01 1.064742e+01
<GCONST> 7.247967e+01
<MIXTURE> 4 2.712404e-01
<MEAN> 13
 -1.205279e+01 -6.984460e+00 -3.348239e+00 -5.621058e+00 -4.341391e+00 2.240622e-01 1.037362e+01 1.221191e+00 6.410891e-01 5.334030e-01 2.075561e+00 -3.918873e+00 5.894721e+01
<VARIANCE> 13
 2.150661e+01 3.716455e+01 3.033266e+01 2.149294e+01 4.608902e+01 4.157343e+01 6.046818e+01 6.318454e+01 2.995949e+01 2.583146e+01 2.381659e+01 2.892154e+01 1.826646e+01
<GCONST> 6.895376e+01
<STATE> 3
<NUMMIXES> 4
<MIXTURE> 1 2.987176e-01
<MEAN> 13
 -2.257875e+01 4.338545e+00 1.707389e+01 -1.530473e+01 2.394925e+00 1.554556e+01 -3.341324e+00 -4.626869e+00 1.458072e+01 -6.541402e+00 -5.647869e+00 9.682119e+00 5.337199e+01
<VARIANCE> 13
 6.895081e+00 5.069100e+00 7.223203e+00 1.188942e+01 1.707601e+01 1.398050e+01 1.187489e+01 1.240970e+01 1.470746e+01 1.768593e+01 2.200050e+01 1.247318e+01 3.300942e+00
<GCONST> 5.473754e+01
<MIXTURE> 2 2.889920e-01
<MEAN> 13
 -2.134339e+01 6.211413e+00 1.762546e+01 -1.421267e+01 7.168069e-01 1.276945e+01 -6.480527e+00 -8.141491e+00 1.223139e+01 -9.285931e+00 -7.220599e+00 7.255033e+00 5.488817e+01
<VARIANCE> 13
 7.506574e+00 8.570161e+00 8.921103e+00 1.468986e+01 1.651994e+01 1.649754e+01 1.499195e+01 1.872033e+01 1.909370e+01 2.312715e+01 2.352594e+01 1.297469e+01 3.546417e+00
<GCONST> 5.725436e+01
<MIXTURE> 3 2.889920e-01
<MEAN> 13
 -2.134339e+01 6.211413e+00 1.762546e+01 -1.421267e+01 7.168069e-01 1.276945e+01 -6.480527e+00 -8.141491e+00 1.223139e+01 -9.285931e+00 -7.220599e+00 7.255033e+00 5.488817e+01
<VARIANCE> 13
 7.506574e+00 8.570161e+00 8.921103e+00 1.468986e+01 1.651994e+01 1.649754e+01 1.499195e+01 1.872033e+01 1.909370e+01 2.312715e+01 2.352594e+01 1.297469e+01 3.546417e+00
<GCONST> 5.725436e+01
<MIXTURE> 4 1.232985e-01
<MEAN> 13
 -1.895593e+01 7.079913e-01 1.417204e+01 -1.195749e+01 1.902060e+00 6.893517e+00 -6.058791e+00 -5.570479e+00 7.906690e+00 -6.966897e+00 -6.764186e+00 5.759540e+00 5.606837e+01
<VARIANCE> 13
 1.656320e+01 3.760036e+01 4.629537e+01 6.377507e+01 2.400332e+01 4.351414e+01 3.621019e+01 4.372692e+01 3.315925e+01 3.460124e+01 3.736866e+01 3.034615e+01 1.229942e+01
<GCONST> 6.922385e+01
<STATE> 4
<NUMMIXES> 4
<MIXTURE> 1 1.868719e-01
<MEAN> 13
 -1.317282e+01 -1.744817e+00 6.646307e+00 -6.273211e+00 1.226165e+01 -1.116677e+01 -3.066603e-01 1.383632e+01 -4.556146e-01 -8.285286e-01 -1.156557e+01 1.307080e+01 4.995059e+01
<VARIANCE> 13
 8.529802e+00 9.384685e+00 3.430154e+01 6.626710e+01 2.350090e+01 9.946783e+01 2.749610e+01 4.271531e+01 2.008734e+01 4.381807e+01 2.309681e+01 3.365712e+01 9.619950e+00
<GCONST> 6.652930e+01
<MIXTURE> 2 2.918307e-01
<MEAN> 13
 -1.130617e+01 1.253101e+00 9.906406e+00 -1.056324e+01 4.452940e+00 6.235513e+00 -2.009392e+00 1.836604e+00 3.754266e+00 -3.548215e-01 -5.290832e+00 4.230527e+00 4.712343e+01
<VARIANCE> 13
 3.447370e+01 1.159684e+01 6.239560e+01 7.072398e+01 1.924085e+01 4.371823e+01 2.958151e+01 3.227896e+01 4.814893e+01 2.600643e+01 4.911713e+01 4.882183e+01 1.383852e+01
<GCONST> 6.941446e+01
<MIXTURE> 3 2.918293e-01
<MEAN> 13
 -1.130613e+01 1.253103e+00 9.906346e+00 -1.056318e+01 4.452937e+00 6.235472e+00 -2.009360e+00 1.836632e+00 3.754222e+00 -3.548163e-01 -5.290789e+00 4.230476e+00 4.712340e+01
<VARIANCE> 13
 3.447358e+01 1.159685e+01 6.239563e+01 7.072397e+01 1.924081e+01 4.371814e+01 2.958148e+01 3.227893e+01 4.814877e+01 2.600635e+01 4.911707e+01 4.882183e+01 1.383850e+01
<GCONST> 6.941444e+01
<MIXTURE> 4 2.294626e-01
<MEAN> 13
 -1.454126e+01 -7.535056e+00 6.033078e+00 -7.392308e+00 1.806665e+00 7.568354e+00 1.298052e+00 -1.087407e-01 3.521930e+00 -4.062537e+00 4.312498e+00 -1.113665e-01 5.444208e+01
<VARIANCE> 13
 4.229862e+01 7.293359e+01 8.922253e+01 9.284985e+01 6.900681e+01 1.331044e+02 4.530361e+01 5.083162e+01 1.061074e+02 1.079440e+02 1.116347e+02 5.724930e+01 1.590641e+01
<GCONST> 7.869151e+01
<TRANSP> 5
 0.000000e+00 1.000000e+00 0.000000e+00 0.000000e+00 0.000000e+00
 0.000000e+00 9.942630e-01 5.736996e-03 0.000000e+00 0.000000e+00
 0.000000e+00 0.000000e+00 9.785675e-01 2.143244e-02 0.000000e+00
 0.000000e+00 0.000000e+00 0.000000e+00 9.932907e-01 6.709322e-03
 0.000000e+00 0.000000e+00 0.000000e+00 0.000000e+00 0.000000e+00
<ENDHMM>
~h "pw"
<BEGINHMM>
<NUMSTATES> 5
<STATE> 2
<NUMMIXES> 4
<MIXTURE> 1 2.841305e-01
<MEAN> 13
 -1.065483e+01 1.057733e+00 4.147519e-01 -2.093482e-01 1.997443e+00 7.895641e-01 4.824768e+00 2.782623e+00 7.801336e-01 1.946914e+00 8.682879e-01 -7.541848e-01 4.871761e+01
<VARIANCE> 13
 1.051135e+01 8.228535e+00 7.247937e+00 1.011543e+01 1.135972e+01 1.152261e+01 1.207309e+01 1.308702e+01 1.440771e+01 1.452021e+01 1.312579e+01 1.212792e+01 8.324726e+00
<GCONST> 5.511685e+01
<MIXTURE> 2 2.398371e-01
<MEAN> 13
 -1.361625e+01 -2.259070e+00 -4.440657e-01 4.719792e-02 1.194493e+00 -1.799335e+00 2.434324e+00 -2.592308e-01 -8.790665e-01 9.369405e-01 7.417624e-02 -7.343444e-01 5.352525e+01
<VARIANCE> 13
 1.328562e+01 1.971988e+01 1.091262e+01 1.256336e+01 1.476370e+01 1.339073e+01 1.370087e+01 1.455846e+01 1.605155e+01 1.494932e+01 1.457094e+01 1.336537e+01 1.327287e+01
<GCONST> 5.830167e+01
<MIXTURE> 3 2.398364e-01
<MEAN> 13
 -1.361625e+01 -2.259080e+00 -4.440650e-01 4.720034e-02 1.194496e+00 -1.799333e+00 2.434327e+00 -2.592285e-01 -8.790631e-01 9.369425e-01 7.417686e-02 -7.343441e-01 5.352525e+01
<VARIANCE> 13
 1.328562e+01 1.971992e+01 1.091266e+01 1.256338e+01 1.476369e+01 1.339074e+01 1.370089e+01 1.455848e+01 1.605158e+01 1.494936e+01 1.457098e+01 1.336539e+01 1.327288e+01
<GCONST> 5.830169e+01
<MIXTURE> 4 2.361832e-01
<MEAN> 13
 -1.338793e+01 -7.188002e+00 -2.706590e+00 -1.764752e+00 -6.609718e-01 -5.269945e+00 -6.466565e-01 -4.167601e+00 -2.706611e+00 -3.865463e-01 -2.548896e-01 -7.670039e-01 6.098794e+01
<VARIANCE> 13
 2.630050e+01 2.308799e+01 1.398550e+01 1.314070e+01 1.842200e+01 2.125371e+01 1.829051e+01 2.209335e+01 1.837039e+01 1.717866e+01 1.621695e+01 1.532357e+01 3.942697e+01
<GCONST> 6.243108e+01
<STATE> 3
<NUMMIXES> 4
<MIXTURE> 1 3.408953e-01
<MEAN> 13
 -1.033938e+01 -1.907340e+00 2.420445e-01 9.139771e-01 3.124714e+00 -7.142995e-01 1.848493e+00 -1.063168e+00 -2.140884e+00 2.812065e-01 7.387090e-02 -8.351830e-01 5.115517e+01
<VARIANCE> 13
 1.716301e+01 1.809745e+01 9.796764e+00 9.139170e+00 1.146640e+01 1.249956e+01 1.579472e+01 1.818001e+01 1.693387e+01 1.402664e+01 1.315736e+01 1.199478e+01 2.235850e+01
<GCONST> 5.838960e+01
<MIXTURE> 2 2.066087e-01
<MEAN> 13
 -1.095626e+01 -7.262609e+00 -2.651546e+00 -5.496591e-01 7.394016e-01 -5.193390e+00 -1.237180e+00 -5.697797e+00 -4.386752e+00 -1.183901e+00 -1.090142e-01 -3.064799e-01 6.133782e+01
<VARIANCE> 13
 2.438853e+01 1.560429e+01 1.165309e+01 8.571831e+00 1.089830e+01 1.208072e+01 1.438163e+01 1.520978e+01 1.712340e+01 1.568422e+01 1.380430e+01 1.238131e+01 3.497890e+01
<GCONST> 5.899524e+01
<MIXTURE> 3 2.066087e-01
<MEAN> 13
 -1.095626e+01 -7.262609e+00 -2.651546e+00 -5.496591e-01 7.394016e-01 -5.193390e+00 -1.237180e+00 -5.697797e+00 -4.386752e+00 -1.183901e+00 -1.090142e-01 -3.064799e-01 6.133782e+01
<VARIANCE> 13
 2.438853e+01 1.560429e+01 1.165309e+01 8.571831e+00 1.089830e+01 1.208072e+01 1.438163e+01 1.520978e+01 1.712340e+01 1.568422e+01 1.380430e+01 1.238131e+01 3.497890e+01
<GCONST> 5.899524e+01
<MIXTURE> 4 2.458837e-01
<MEAN> 13
 -1.161271e+01 -9.491405e+00 -4.382182e+00 -3.689307e+00 -2.881732e+00 -8.724841e+00 -3.764621e+00 -7.851118e+00 -4.434785e+00 -2.049757e+00 -6.329140e-01 -1.031963e+00 7.096996e+01
<VARIANCE> 13
 1.896632e+01 1.665892e+01 1.301272e+01 1.240718e+01 1.591977e+01 1.595724e+01 1.734679e+01 1.886554e+01 1.904346e+01 1.747721e+01 1.573987e+01 1.441465e+01 3.884089e+01
<GCONST> 6.095197e+01
<STATE> 4
<NUMMIXES> 4
<MIXTURE> 1 2.832055e-01
<MEAN> 13
 -8.847265e+00 -2.231922e+00 -4.319072e+00 -2.327269e+00 2.474336e+00 4.146102e+00 6.787569e+00 1.752015e+00 5.810996e-01 1.923620e+00 1.064912e+00 -1.380639e+00 5.280908e+01
<VARIANCE> 13
 1.055148e+01 6.095699e+00 6.393498e+00 7.002506e+00 8.271088e+00 9.230317e+00 1.057678e+01 1.259991e+01 1.271532e+01 1.250323e+01 1.241477e+01 1.199479e+01 5.148388e+00
<GCONST> 5.279625e+01
<MIXTURE> 2 2.349217e-01
<MEAN> 13
 -1.161862e+01 -3.317359e+00 -3.323754e+00 -1.805358e+00 7.092741e-01 6.659729e-01 3.785261e+00 -5.988224e-01 -1.129834e+00 2.628789e-01 3.835918e-01 -9.981121e-01 5.568995e+01
<VARIANCE> 13
 1.324847e+01 1.119634e+01 8.909923e+00 9.596606e+00 1.094271e+01 1.025803e+01 1.153514e+01 1.413342e+01 1.432023e+01 1.382025e+01 1.352821e+01 1.253043e+01 9.956578e+00
<GCONST> 5.587410e+01
<MIXTURE> 3 2.349215e-01
<MEAN> 13
 -1.161862e+01 -3.317359e+00 -3.323753e+00 -1.805359e+00 7.092733e-01 6.659746e-01 3.785264e+00 -5.988207e-01 -1.129833e+00 2.628794e-01 3.835901e-01 -9.981126e-01 5.568995e+01
<VARIANCE> 13
 1.324849e+01 1.119636e+01 8.909945e+00 9.596625e+00 1.094273e+01 1.025804e+01 1.153518e+01 1.413344e+01 1.432024e+01 1.382028e+01 1.352824e+01 1.253045e+01 9.956587e+00
<GCONST> 5.587412e+01
<MIXTURE> 4 2.469568e-01
<MEAN> 13
 -1.432380e+01 -6.731174e+00 -2.217143e+00 -2.055884e+00 -1.463603e+00 -4.311884e+00 -2.980034e-02 -3.822016e+00 -2.572360e+00 -1.865458e+00 -3.625461e-01 -6.670280e-01 6.301673e+01
<VARIANCE> 13
 1.725393e+01 1.397170e+01 1.261051e+01 1.311611e+01 1.707046e+01 1.657091e+01 1.929620e+01 2.334154e+01 2.105675e+01 1.727102e+01 1.603346e+01 1.431377e+01 2.844256e+01
<GCONST> 6.092102e+01
<TRANSP> 5
 0.000000e+00 1.000000e+00 0.000000e+00 0.000000e+00 0.000000e+00
 0.000000e+00 9.973876e-01 2.612340e-03 0.000000e+00 0.000000e+00
 0.000000e+00 0.000000e+00 9.839179e-01 1.608210e-02 0.000000e+00
 0.000000e+00 0.000000e+00 0.000000e+00 9.938682e-01 6.131798e-03
 0.000000e+00 0.000000e+00 0.000000e+00 0.000000e+00 0.000000e+00
<ENDHMM>
~h "si"
<BEGINHMM>
<NUMSTATES> 5
<STATE> 2
<NUMMIXES> 4
<MIXTURE> 1 2.789952e-01
<MEAN> 13
 -8.167942e+00 2.377560e+00 1.709966e+00 4.581934e-01 3.322342e+00 3.365969e+00 5.209085e+00 3.474361e+00 1.184364e+00 1.077945e+00 1.278484e+00 -1.667922e+00 4.712255e+01
<VARIANCE> 13
 1.266171e+01 6.423518e+00 1.006237e+01 1.047234e+01 1.243906e+01 1.095590e+01 1.251908e+01 1.395844e+01 1.479848e+01 1.428651e+01 1.299735e+01 1.205231e+01 1.130788e+01
<GCONST> 5.585989e+01
<MIXTURE> 2 2.668163e-01
<MEAN> 13
 -9.114728e+00 8.193726e-01 -2.759108e-01 -1.816034e+00 -1.356828e-01 -8.077043e-02 2.293033e+00 6.493422e-01 1.162109e-01 6.717573e-01 7.002273e-01 -1.987430e+00 4.954185e+01
<VARIANCE> 13
 1.629051e+01 8.756916e+00 9.428966e+00 1.035909e+01 1.380919e+01 1.269069e+01 1.418257e+01 1.598070e+01 1.707622e+01 1.587576e+01 1.470372e+01 1.365417e+01 1.579752e+01
<GCONST> 5.768855e+01
<MIXTURE> 3 2.668170e-01
<MEAN> 13
 -9.114722e+00 8.193723e-01 -2.759121e-01 -1.816036e+00 -1.356882e-01 -8.076949e-02 2.293033e+00 6.493422e-01 1.162119e-01 6.717586e-01 7.002252e-01 -1.987433e+00 4.954185e+01
<VARIANCE> 13
 1.629052e+01 8.756917e+00 9.428982e+00 1.035911e+01 1.380923e+01 1.269068e+01 1.418257e+01 1.598072e+01 1.707624e+01 1.587578e+01 1.470373e+01 1.365420e+01 1.579754e+01
<GCONST> 5.768857e+01
<MIXTURE> 4 1.873510e-01
<MEAN> 13
 -1.070980e+01 -3.088820e+00 1.788898e-01 -2.531601e+00 -1.065287e+00 -2.009078e+00 6.937130e-01 -1.740278e+00 -1.401058e+00 -5.244583e-01 2.115320e-01 -1.228110e+00 5.633302e+01
<VARIANCE> 13
 4.070311e+01 3.597494e+01 3.038513e+01 2.899787e+01 3.998914e+01 2.962679e+01 3.480561e+01 3.769445e+01 3.191081e+01 2.768926e+01 2.787376e+01 2.773895e+01 4.580938e+01
<GCONST> 6.947828e+01
<STATE> 3
<NUMMIXES> 4
<MIXTURE> 1 2.207975e-01
<MEAN> 13
 -3.884352e+00 -3.393257e+00 -3.271795e+00 -1.715846e+00 3.977238e+00 6.546387e+00 7.235951e+00 2.962574e+00 9.282122e-01 2.516426e+00 2.192227e+00 -2.029083e+00 5.029548e+01
<VARIANCE> 13
 6.402420e+00 5.656561e+00 5.777329e+00 6.001637e+00 7.741710e+00 9.147444e+00 9.801494e+00 1.126172e+01 1.206574e+01 1.239561e+01 1.232413e+01 1.157458e+01 2.375394e+00
<GCONST> 5.082515e+01
<MIXTURE> 2 2.363888e-01
<MEAN> 13
 -3.363347e+00 -4.438517e+00 -4.160767e+00 -3.613243e+00 1.567270e+00 3.986532e+00 4.420434e+00 4.527765e-01 -1.315024e+00 8.726709e-01 1.034344e+00 -2.748999e+00 4.992979e+01
<VARIANCE> 13
 3.599835e+00 4.483351e+00 5.037195e+00 5.850269e+00 7.692298e+00 8.451413e+00 9.543359e+00 1.175725e+01 1.206740e+01 1.245469e+01 1.218656e+01 1.122038e+01 1.592100e+00
<GCONST> 4.934760e+01
<MIXTURE> 3 2.363888e-01
<MEAN> 13
 -3.363347e+00 -4.438517e+00 -4.160767e+00 -3.613243e+00 1.567270e+00 3.986532e+00 4.420434e+00 4.527765e-01 -1.315024e+00 8.726709e-01 1.034344e+00 -2.748999e+00 4.992979e+01
<VARIANCE> 13
 3.599835e+00 4.483351e+00 5.037195e+00 5.850269e+00 7.692298e+00 8.451413e+00 9.543359e+00 1.175725e+01 1.206740e+01 1.245469e+01 1.218656e+01 1.122038e+01 1.592100e+00
<GCONST> 4.934760e+01
<MIXTURE> 4 3.064011e-01
<MEAN> 13
 -5.316263e+00 -3.460453e+00 -3.480608e+00 -4.167821e+00 -1.750257e+00 5.240313e-01 1.534794e+00 -1.047112e+00 -6.310395e-01 7.787082e-01 6.646102e-01 -2.796666e+00 5.295557e+01
<VARIANCE> 13
 1.529275e+01 1.527475e+01 1.287979e+01 1.422465e+01 1.816771e+01 1.908232e+01 1.884813e+01 2.165571e+01 2.249479e+01 2.174636e+01 2.068463e+01 1.871033e+01 1.017196e+01
<GCONST> 6.088754e+01
<STATE> 4
<NUMMIXES> 4
<MIXTURE> 1 2.330013e-01
<MEAN> 13
 -5.486546e+00 2.469914e+00 1.626107e+00 -1.118736e+00 3.877927e+00 4.313045e+00 4.522711e+00 5.957327e+00 1.121316e+00 1.704764e+00 1.997078e+00 -2.006658e+00 4.315863e+01
<VARIANCE> 13
 4.047162e+00 3.779983e+00 6.928386e+00 7.978861e+00 1.257009e+01 9.589604e+00 1.098248e+01 1.257551e+01 1.287187e+01 1.423314e+01 1.187088e+01 1.110087e+01 2.364084e+00
<GCONST> 5.130473e+01
<MIXTURE> 2 2.719811e-01
<MEAN> 13
 -5.400628e+00 2.129359e+00 1.057720e+00 -2.457928e+00 1.924785e+00 1.535337e+00 1.445157e+00 3.235387e+00 -1.267287e+00 -2.607087e-01 5.240438e-01 -2.951075e+00 4.338927e+01
<VARIANCE> 13
 4.094205e+00 4.042481e+00 7.406900e+00 8.830198e+00 1.285631e+01 1.091286e+01 1.222155e+01 1.334821e+01 1.361168e+01 1.455560e+01 1.302687e+01 1.220115e+01 2.412116e+00
<GCONST> 5.215573e+01
<MIXTURE> 3 2.719811e-01
<MEAN> 13
 -5.400628e+00 2.129359e+00 1.057720e+00 -2.457928e+00 1.924785e+00 1.535337e+00 1.445157e+00 3.235387e+00 -1.267287e+00 -2.607087e-01 5.240438e-01 -2.951075e+00 4.338927e+01
<VARIANCE> 13
 4.094205e+00 4.042481e+00 7.406900e+00 8.830198e+00 1.285631e+01 1.091286e+01 1.222155e+01 1.334821e+01 1.361168e+01 1.455560e+01 1.302687e+01 1.220115e+01 2.412116e+00
<GCONST> 5.215573e+01
<MIXTURE> 4 2.229815e-01
<MEAN> 13
 -8.345178e+00 -8.676908e-03 8.036034e-01 -1.786753e+00 -4.597303e-01 -8.870174e-01 1.767493e+00 1.739553e-01 -2.304600e-02 1.083678e+00 4.819016e-01 -1.500741e+00 4.867433e+01
<VARIANCE> 13
 2.207031e+01 1.925173e+01 1.692596e+01 1.711079e+01 2.176387e+01 2.204754e+01 2.457754e+01 2.438812e+01 2.249915e+01 2.293313e+01 2.136304e+01 1.748456e+01 1.986758e+01
<GCONST> 6.334030e+01
<TRANSP> 5
 0.000000e+00 1.000000e+00 0.000000e+00 0.000000e+00 0.000000e+00
 0.000000e+00 9.889106e-01 1.108945e-02 0.000000e+00 0.000000e+00
 0.000000e+00 0.000000e+00 9.816468e-01 1.835317e-02 0.000000e+00
 0.000000e+00 0.000000e+00 0.000000e+00 9.924019e-01 7.598117e-03
 0.000000e+00 0.000000e+00 0.000000e+00 0.000000e+00 0.000000e+00
<ENDHMM>
~h "st"
<BEGINHMM>
<NUMSTATES> 5
<STATE> 2
<NUMMIXES> 4
<MIXTURE> 1 3.148921e-01
<MEAN> 13
 -9.900711e+00 -1.482718e-02 -1.749950e-01 -1.296191e+00 1.216885e+00 1.421447e+00 4.488264e+00 5.960859e-01 -3.678329e-01 -3.281697e-01 1.337678e+00 -2.001326e+00 5.330744e+01
<VARIANCE> 13
 1.636402e+01 7.223682e+00 1.136857e+01 1.163789e+01 1.163270e+01 1.293532e+01 1.231560e+01 1.406584e+01 1.541454e+01 1.566104e+01 1.455969e+01 1.230674e+01 9.292473e+00
<GCONST> 5.662247e+01
<MIXTURE> 2 2.231855e-01
<MEAN> 13
 -9.164599e+00 -1.558599e+00 -9.640784e-02 -4.049790e+00 -1.831091e+00 -1.506738e+00 1.708537e+00 -1.905576e+00 -2.491047e+00 -2.036637e+00 4.150704e-01 -2.345681e+00 5.688472e+01
<VARIANCE> 13
 1.865354e+01 1.781076e+01 1.146313e+01 1.656083e+01 1.553152e+01 1.591238e+01 1.738946e+01 1.573469e+01 1.814963e+01 1.776595e+01 1.488576e+01 1.402773e+01 1.661186e+01
<GCONST> 5.999361e+01
<MIXTURE> 3 2.231855e-01
<MEAN> 13
 -9.164599e+00 -1.558599e+00 -9.640784e-02 -4.049790e+00 -1.831091e+00 -1.506738e+00 1.708537e+00 -1.905576e+00 -2.491047e+00 -2.036637e+00 4.150704e-01 -2.345681e+00 5.688472e+01
<VARIANCE> 13
 1.865354e+01 1.781076e+01 1.146313e+01 1.656083e+01 1.553152e+01 1.591238e+01 1.738946e+01 1.573469e+01 1.814963e+01 1.776595e+01 1.488576e+01 1.402773e+01 1.661186e+01
<GCONST> 5.999361e+01
<MIXTURE> 4 2.387365e-01
<MEAN> 13
 -8.319111e+00 -7.191254e+00 3.106226e-01 -7.942836e+00 -3.532746e+00 -5.290214e+00 2.682847e-01 -1.605094e+00 -2.003616e+00 -2.126402e+00 1.566677e-01 -3.092676e+00 6.596385e+01
<VARIANCE> 13
 1.549540e+01 1.769203e+01 1.662395e+01 1.926821e+01 2.168284e+01 2.406915e+01 2.639599e+01 2.473726e+01 2.381729e+01 2.332667e+01 2.036600e+01 1.696387e+01 3.055019e+01
<GCONST> 6.359867e+01
<STATE> 3
<NUMMIXES> 4
<MIXTURE> 1 2.919393e-01
<MEAN> 13
 -4.841749e+00 -2.600435e+00 -4.145390e+00 -2.852955e+00 2.132182e+00 4.012775e+00 5.367677e+00 1.155195e+00 -3.084443e-01 1.302180e+00 1.396743e+00 -2.502076e+00 5.137465e+01
<VARIANCE> 13
 2.513048e+00 3.640127e+00 5.346625e+00 6.054938e+00 8.184296e+00 9.104653e+00 1.006245e+01 1.221503e+01 1.269772e+01 1.214792e+01 1.218347e+01 1.126281e+01 1.563743e+00
<GCONST> 4.911299e+01
<MIXTURE> 2 2.094742e-01
<MEAN> 13
 -5.258204e+00 -3.434196e+00 -3.351875e+00 -5.060637e+00 -9.899836e-01 -1.582108e-01 2.046977e+00 -1.636304e-01 -7.633329e-01 6.094055e-01 1.067064e+00 -2.847168e+00 5.368504e+01
<VARIANCE> 13
 6.218646e+00 9.312927e+00 1.072322e+01 1.223796e+01 1.467762e+01 1.213750e+01 1.471969e+01 1.868742e+01 1.779969e+01 1.747623e+01 1.667200e+01 1.451620e+01 4.647075e+00
<GCONST> 5.639323e+01
<MIXTURE> 3 2.094736e-01
<MEAN> 13
 -5.258203e+00 -3.434197e+00 -3.351876e+00 -5.060637e+00 -9.899834e-01 -1.582096e-01 2.046980e+00 -1.636287e-01 -7.633330e-01 6.094036e-01 1.067061e+00 -2.847170e+00 5.368504e+01
<VARIANCE> 13
 6.218639e+00 9.312930e+00 1.072323e+01 1.223795e+01 1.467764e+01 1.213751e+01 1.471968e+01 1.868743e+01 1.779971e+01 1.747622e+01 1.667199e+01 1.451620e+01 4.647073e+00
<GCONST> 5.639323e+01
<MIXTURE> 4 2.891131e-01
<MEAN> 13
 -9.206519e+00 -5.320884e+00 -7.290635e-01 -8.837895e+00 -3.016266e+00 -4.695872e+00 1.414426e-01 1.466915e-03 -5.511283e-01 -6.636576e-01 1.209288e+00 -2.022882e+00 6.146333e+01
<VARIANCE> 13
 1.656142e+01 2.162682e+01 1.750529e+01 2.238935e+01 2.488133e+01 2.072533e+01 2.078568e+01 2.279981e+01 2.168467e+01 2.069353e+01 1.667172e+01 1.596921e+01 2.699697e+01
<GCONST> 6.313752e+01
<STATE> 4
<NUMMIXES> 4
<MIXTURE> 1 2.923292e-01
<MEAN> 13
 -9.397754e+00 2.046387e+00 9.601560e-01 -4.268247e-01 2.790804e+00 2.168833e+00 4.231011e+00 2.707913e+00 1.183336e+00 8.013077e-01 1.396047e+00 -1.821454e+00 4.786217e+01
<VARIANCE> 13
 7.958145e+00 4.618747e+00 6.362108e+00 8.544636e+00 9.187958e+00 9.852330e+00 1.137173e+01 1.300198e+01 1.409915e+01 1.387049e+01 1.223355e+01 1.139515e+01 8.424440e+00
<GCONST> 5.333860e+01
<MIXTURE> 2 2.292169e-01
<MEAN> 13
 -1.063631e+01 8.252711e-01 8.661731e-01 -1.871251e+00 5.310522e-01 -7.797594e-01 1.815472e+00 -3.080378e-01 -3.264845e-01 -7.122451e-01 3.349296e-01 -2.387638e+00 5.125834e+01
<VARIANCE> 13
 1.492444e+01 7.861316e+00 1.065570e+01 1.202750e+01 1.131886e+01 1.184354e+01 1.368516e+01 1.584983e+01 1.635835e+01 1.519775e+01 1.434505e+01 1.321354e+01 1.500480e+01
<GCONST> 5.725728e+01
<MIXTURE> 3 2.292184e-01
<MEAN> 13
 -1.063632e+01 8.252647e-01 8.661765e-01 -1.871248e+00 5.310556e-01 -7.797568e-01 1.815477e+00 -3.080385e-01 -3.264797e-01 -7.122442e-01 3.349316e-01 -2.387636e+00 5.125835e+01
<VARIANCE> 13
 1.492446e+01 7.861314e+00 1.065569e+01 1.202750e+01 1.131885e+01 1.184354e+01 1.368518e+01 1.584982e+01 1.635835e+01 1.519775e+01 1.434502e+01 1.321350e+01 1.500479e+01
<GCONST> 5.725727e+01
<MIXTURE> 4 2.492279e-01
<MEAN> 13
 -1.080190e+01 -2.987666e-01 8.817397e-01 -6.551672e+00 -3.389784e+00 -4.528794e+00 -4.202856e-01 -1.241380e+00 2.433874e-01 -1.327710e-01 7.224438e-01 -2.500249e+00 5.909125e+01
<VARIANCE> 13
 1.989451e+01 1.391263e+01 1.769017e+01 1.706924e+01 1.519821e+01 2.190477e+01 2.340746e+01 2.722709e+01 2.273837e+01 1.991525e+01 1.762971e+01 1.604178e+01 4.870241e+01
<GCONST> 6.313712e+01
<TRANSP> 5
 0.000000e+00 1.000000e+00 0.000000e+00 0.000000e+00 0.000000e+00
 0.000000e+00 9.800581e-01 1.994194e-02 0.000000e+00 0.000000e+00
 0.000000e+00 0.000000e+00 9.871151e-01 1.288493e-02 0.000000e+00
 0.000000e+00 0.000000e+00 0.000000e+00 9.910980e-01 8.901960e-03
 0.000000e+00 0.000000e+00 0.000000e+00 0.000000e+00 0.000000e+00
<ENDHMM>
~h "spe"
<BEGINHMM>
<NUMSTATES> 5
<STATE> 2
<NUMMIXES> 4
<MIXTURE> 1 3.259793e-01
<MEAN> 13
 -2.387304e+00 -4.353625e+00 -2.979595e+00 -3.580496e+00 2.125805e+00 3.856062e+00 4.490040e+00 3.436622e-01 -1.569348e+00 5.905449e-01 9.070163e-01 -3.422553e+00 5.025083e+01
<VARIANCE> 13
 4.958419e+00 5.752750e+00 6.749901e+00 7.338644e+00 9.639853e+00 1.120397e+01 1.433146e+01 1.413865e+01 1.435423e+01 1.387862e+01 1.387855e+01 1.326531e+01 2.320036e+00
<GCONST> 5.249086e+01
<MIXTURE> 2 1.778924e-01
<MEAN> 13
 -1.995391e+00 -1.809041e+00 1.042779e+00 -6.083529e+00 -3.140980e+00 -1.769888e+00 -7.083283e-01 -3.101887e+00 -3.738452e+00 6.561797e-01 4.410939e-01 -4.922546e+00 5.562278e+01
<VARIANCE> 13
 2.145831e+01 2.128453e+01 4.078833e+01 2.997510e+01 2.808434e+01 2.645564e+01 2.776552e+01 3.058166e+01 2.824902e+01 2.610481e+01 2.356259e+01 1.918950e+01 8.255664e+00
<GCONST> 6.530824e+01
<MIXTURE> 3 1.778924e-01
<MEAN> 13
 -1.995405e+00 -1.809030e+00 1.042764e+00 -6.083520e+00 -3.140971e+00 -1.769881e+00 -7.083151e-01 -3.101884e+00 -3.738444e+00 6.561736e-01 4.410884e-01 -4.922546e+00 5.562278e+01
<VARIANCE> 13
 2.145841e+01 2.128464e+01 4.078841e+01 2.997520e+01 2.808439e+01 2.645568e+01 2.776554e+01 3.058165e+01 2.824900e+01 2.610480e+01 2.356260e+01 1.918947e+01 8.255679e+00
<GCONST> 6.530825e+01
<MIXTURE> 4 3.182342e-01
<MEAN> 13
 2.172420e-02 -8.186981e+00 3.170418e+00 -1.093918e+01 -4.713010e+00 -3.722003e+00 -3.878830e+00 1.173724e+00 -1.695464e+00 1.578045e+00 -1.062723e+00 -8.065125e+00 5.947976e+01
<VARIANCE> 13
 6.892393e+00 1.922245e+01 4.089336e+01 2.878749e+01 5.193567e+01 4.352670e+01 2.770352e+01 4.860477e+01 3.226875e+01 3.043269e+01 4.038497e+01 2.189760e+01 1.079813e+01
<GCONST> 6.683229e+01
<STATE> 3
<NUMMIXES> 4
<MIXTURE> 1 3.754045e-01
<MEAN> 13
 -6.716240e+00 1.601116e+00 1.184848e+00 -2.498173e+00 -3.561693e+00 -2.415279e+00 9.452279e-01 -5.705200e-01 -1.526940e+00 -1.460576e+00 -2.282840e-01 -2.631868e+00 5.780384e+01
<VARIANCE> 13
 2.578205e+01 3.120402e+01 8.662115e+01 1.979204e+01 8.235840e+01 3.613143e+01 3.146384e+01 3.189012e+01 2.602014e+01 1.662486e+01 3.569920e+01 1.683730e+01 4.609138e+01
<GCONST> 6.923795e+01
<MIXTURE> 2 1.558699e-01
<MEAN> 13
 -3.854135e+00 -9.691862e-01 6.501608e+00 -1.569974e+01 -1.571538e+00 -1.011755e+01 -3.135522e+00 -5.681218e+00 -2.603053e+00 -4.664450e+00 -7.746433e+00 1.990556e-01 6.299703e+01
<VARIANCE> 13
 2.719450e+01 2.094788e+01 7.962257e+01 7.523646e+01 7.749699e+01 6.223964e+01 4.353184e+01 4.847060e+01 3.905489e+01 3.592908e+01 2.674231e+01 3.766464e+01 2.044905e+01
<GCONST> 7.225049e+01
<MIXTURE> 3 1.558699e-01
<MEAN> 13
 -3.854135e+00 -9.691862e-01 6.501608e+00 -1.569974e+01 -1.571538e+00 -1.011755e+01 -3.135522e+00 -5.681218e+00 -2.603053e+00 -4.664450e+00 -7.746433e+00 1.990556e-01 6.299703e+01
<VARIANCE> 13
 2.719450e+01 2.094788e+01 7.962257e+01 7.523646e+01 7.749699e+01 6.223964e+01 4.353184e+01 4.847060e+01 3.905489e+01 3.592908e+01 2.674231e+01 3.766464e+01 2.044905e+01
<GCONST> 7.225049e+01
<MIXTURE> 4 3.128549e-01
<MEAN> 13
 1.559338e+00 -5.853983e+00 -2.043949e+00 -1.844249e+01 -3.895364e+00 -7.881870e+00 -9.568573e+00 -2.854845e+00 2.038861e-01 -5.008721e+00 -1.203055e+01 -3.622281e+00 6.371761e+01
<VARIANCE> 13
 1.006793e+01 3.229527e+01 4.605487e+01 3.000376e+01 3.476748e+01 3.950088e+01 4.468617e+01 7.223660e+01 4.626075e+01 3.847830e+01 2.525502e+01 2.841134e+01 5.828972e+00
<GCONST> 6.803548e+01
<STATE> 4
<NUMMIXES> 4
<MIXTURE> 1 2.326330e-01
<MEAN> 13
 -2.530420e+00 -8.989705e-01 -1.059897e+00 -2.435947e+00 -1.306458e+00 8.454419e-01 2.423046e+00 1.148445e+00 3.770085e-01 1.756157e+00 1.020155e+00 -2.892868e+00 4.955449e+01
<VARIANCE> 13
 1.040004e+01 1.529159e+01 1.272546e+01 1.284081e+01 2.552235e+01 2.632174e+01 1.535123e+01 1.928567e+01 1.921679e+01 1.709066e+01 1.534671e+01 1.364439e+01 3.772259e+00
<GCONST> 5.872447e+01
<MIXTURE> 2 2.468726e-01
<MEAN> 13
 -1.334172e+00 3.537703e-01 1.043000e+00 -1.933407e+00 -3.610998e+00 -1.168811e+00 -8.418971e-01 -1.834299e+00 -2.348875e+00 -1.046115e+00 -2.653521e+00 -6.097270e+00 5.175534e+01
<VARIANCE> 13
 1.824766e+01 1.945931e+01 2.829362e+01 1.854104e+01 3.785388e+01 3.384613e+01 2.180709e+01 2.944729e+01 2.988418e+01 2.678628e+01 2.353661e+01 2.450723e+01 6.567094e+00
<GCONST> 6.457260e+01
<MIXTURE> 3 2.468726e-01
<MEAN> 13
 -1.334172e+00 3.537703e-01 1.043000e+00 -1.933407e+00 -3.610998e+00 -1.168811e+00 -8.418971e-01 -1.834299e+00 -2.348875e+00 -1.046115e+00 -2.653521e+00 -6.097270e+00 5.175534e+01
<VARIANCE> 13
 1.824766e+01 1.945931e+01 2.829362e+01 1.854104e+01 3.785388e+01 3.384613e+01 2.180709e+01 2.944729e+01 2.988418e+01 2.678628e+01 2.353661e+01 2.450723e+01 6.567094e+00
<GCONST> 6.457260e+01
<MIXTURE> 4 2.736186e-01
<MEAN> 13
 2.318177e+00 -8.206992e+00 1.329357e-01 -6.132163e+00 -4.944518e+00 1.712430e+00 -5.373445e+00 -1.740708e+00 -2.585765e+00 -2.748659e+00 -4.156085e+00 -9.467887e+00 5.745447e+01
<VARIANCE> 13
 4.456509e+00 1.884131e+01 5.909636e+01 2.211926e+01 9.276896e+01 4.106934e+01 3.591386e+01 4.073186e+01 4.516152e+01 4.396547e+01 4.427993e+01 3.380046e+01 1.015129e+01
<GCONST> 6.825421e+01
<TRANSP> 5
 0.000000e+00 1.000000e+00 0.000000e+00 0.000000e+00 0.000000e+00
 0.000000e+00 9.940751e-01 5.924897e-03 0.000000e+00 0.000000e+00
 0.000000e+00 0.000000e+00 9.736922e-01 2.630785e-02 0.000000e+00
 0.000000e+00 0.000000e+00 0.000000e+00 9.944746e-01 5.525345e-03
 0.000000e+00 0.000000e+00 0.000000e+00 0.000000e+00 0.000000e+00
<ENDHMM>
