~o
<STREAMINFO> 1 13
<VECSIZE> 13<NULLD><MFCC_0><DIAGC>
~h "prototype"
<BEGINHMM>
<NUMSTATES> 5
<STATE> 2
<MEAN> 13
 -8.934282e+00 -6.825228e-01 -9.848723e-02 -2.161269e+00 6.876392e-01 1.002387e+00 2.231934e+00 5.421166e-01 -3.167706e-01 1.483874e-01 2.504286e-01 -1.640889e+00 5.212624e+01
<VARIANCE> 13
 3.853715e+01 2.690095e+01 2.425870e+01 2.146677e+01 2.593693e+01 3.315263e+01 2.608070e+01 2.961901e+01 2.535707e+01 2.224580e+01 2.424195e+01 2.263577e+01 6.635159e+01
<GCONST> 6.733567e+01
<STATE> 3
<MEAN> 13
 -8.934282e+00 -6.825228e-01 -9.848723e-02 -2.161269e+00 6.876392e-01 1.002387e+00 2.231934e+00 5.421166e-01 -3.167706e-01 1.483874e-01 2.504286e-01 -1.640889e+00 5.212624e+01
<VARIANCE> 13
 3.853715e+01 2.690095e+01 2.425870e+01 2.146677e+01 2.593693e+01 3.315263e+01 2.608070e+01 2.961901e+01 2.535707e+01 2.224580e+01 2.424195e+01 2.263577e+01 6.635159e+01
<GCONST> 6.733567e+01
<STATE> 4
<MEAN> 13
 -8.934282e+00 -6.825228e-01 -9.848723e-02 -2.161269e+00 6.876392e-01 1.002387e+00 2.231934e+00 5.421166e-01 -3.167706e-01 1.483874e-01 2.504286e-01 -1.640889e+00 5.212624e+01
<VARIANCE> 13
 3.853715e+01 2.690095e+01 2.425870e+01 2.146677e+01 2.593693e+01 3.315263e+01 2.608070e+01 2.961901e+01 2.535707e+01 2.224580e+01 2.424195e+01 2.263577e+01 6.635159e+01
<GCONST> 6.733567e+01
<TRANSP> 5
 0.000000e+00 1.000000e+00 0.000000e+00 0.000000e+00 0.000000e+00
 0.000000e+00 6.000000e-01 4.000000e-01 0.000000e+00 0.000000e+00
 0.000000e+00 0.000000e+00 6.000000e-01 4.000000e-01 0.000000e+00
 0.000000e+00 0.000000e+00 0.000000e+00 7.000000e-01 3.000000e-01
 0.000000e+00 0.000000e+00 0.000000e+00 0.000000e+00 0.000000e+00
<ENDHMM>
