~o
<STREAMINFO> 1 39
<VECSIZE> 39<NULLD><MFCC_D_A_Z_0><DIAGC>
~h "ap"
<BEGINHMM>
<NUMSTATES> 5
<STATE> 2
<NUMMIXES> 8
<MIXTURE> 1 2.935784e-01
<MEAN> 39
 -8.617487e+00 5.616891e+00 4.865550e+00 -1.086389e+00 -1.973884e+00 2.293917e+00 1.263026e+00 -1.783045e-01 4.462954e+00 3.268225e+00 6.774421e-01 -8.083201e-01 1.939837e+00 4.611802e-01 1.169332e-01 1.393618e-01 -1.212102e-02 5.311961e-01 5.104912e-01 2.685383e-01 1.421959e-01 -1.063024e-01 1.780627e-01 1.523399e-01 -1.009301e-01 -8.974111e-01 3.211258e-02 6.531304e-02 5.239502e-02 1.076630e-01 -1.243156e-01 -1.184427e-01 -4.123189e-02 -6.171880e-02 -1.674086e-01 -1.954330e-01 -4.072117e-02 1.307923e-01 -7.432091e-02
<VARIANCE> 39
 1.354515e+01 2.411476e+01 2.524409e+01 1.884145e+01 1.558019e+01 2.831767e+01 2.439237e+01 1.694230e+01 1.539285e+01 1.862319e+01 1.690929e+01 1.595220e+01 5.898102e+01 1.553166e-01 2.491661e-01 3.007113e-01 7.255301e-01 1.174854e+00 1.325776e+00 1.280471e+00 1.335136e+00 1.550063e+00 1.835950e+00 1.481794e+00 1.637502e+00 7.225849e-02 4.033150e-02 7.068726e-02 7.092658e-02 1.918026e-01 1.872155e-01 2.237733e-01 2.459777e-01 2.752424e-01 2.761610e-01 3.322075e-01 3.194599e-01 3.051023e-01 1.298691e-01
<GCONST> 8.380608e+01
<MIXTURE> 2 9.514068e-02
<MEAN> 39
 -7.360157e+00 -3.207804e+00 -3.519584e+00 -2.194247e+00 -5.800626e+00 -4.841672e+00 -2.882876e+00 -1.121948e+00 -2.214744e-01 -2.866678e-01 -4.865199e-01 9.202908e-01 1.753720e+01 4.891928e-01 -3.354488e-01 -8.185604e-01 -1.127852e+00 2.028750e-01 9.852300e-01 2.672403e-01 -1.244424e-01 2.104157e-01 9.548094e-02 3.200731e-02 -9.115094e-01 -2.709355e-01 3.544796e-01 5.369723e-01 3.525282e-01 2.385752e-01 6.177593e-01 5.255966e-01 3.022824e-01 2.228614e-01 1.160458e-01 1.280548e-01 -1.578307e-01 -7.894658e-02 -1.380377e+00
<VARIANCE> 39
 7.777603e+00 2.688281e+01 2.150307e+01 1.954325e+01 1.880824e+01 2.444023e+01 2.285996e+01 1.985251e+01 2.219131e+01 2.401971e+01 2.332516e+01 1.688524e+01 4.160719e+01 3.306197e-01 4.731844e-01 6.718220e-01 8.374181e-01 1.965995e+00 1.183341e+00 1.795344e+00 1.545394e+00 1.530198e+00 1.931413e+00 1.543602e+00 1.187881e+00 1.219385e+00 2.849241e-01 3.014574e-01 1.567803e-01 1.783504e-01 2.651826e-01 4.119813e-01 2.688185e-01 2.100746e-01 2.743346e-01 2.192750e-01 2.962490e-01 2.690654e-01 1.000794e+00
<GCONST> 9.615559e+01
<MIXTURE> 3 9.425356e-02
<MEAN> 39
 -7.360747e+00 -3.184556e+00 -3.503237e+00 -2.141954e+00 -5.736650e+00 -4.865027e+00 -2.897812e+00 -1.103806e+00 -2.509889e-01 -3.219508e-01 -5.231903e-01 9.108861e-01 1.754178e+01 4.848881e-01 -3.334807e-01 -8.172126e-01 -1.119616e+00 1.982837e-01 9.886057e-01 2.648169e-01 -1.314217e-01 2.047556e-01 8.171915e-02 3.622673e-02 -9.047620e-01 -2.658150e-01 3.464891e-01 5.252815e-01 3.480595e-01 2.366928e-01 6.074569e-01 5.145802e-01 2.978303e-01 2.197275e-01 1.163043e-01 1.282507e-01 -1.590378e-01 -7.791565e-02 -1.357643e+00
<VARIANCE> 39
 7.843129e+00 2.720288e+01 2.176047e+01 1.961929e+01 1.877034e+01 2.443400e+01 2.281335e+01 2.002449e+01 2.217662e+01 2.413287e+01 2.333050e+01 1.694628e+01 4.220326e+01 3.340577e-01 4.750414e-01 6.718419e-01 8.384078e-01 1.968201e+00 1.179949e+00 1.801686e+00 1.543171e+00 1.524001e+00 1.932769e+00 1.557329e+00 1.191199e+00 1.231705e+00 2.803331e-01 2.963626e-01 1.569414e-01 1.770467e-01 2.632634e-01 4.081358e-01 2.663225e-01 2.092592e-01 2.723992e-01 2.179252e-01 2.951039e-01 2.663630e-01 9.876919e-01
<GCONST> 9.614230e+01
<MIXTURE> 4 6.754830e-02
<MEAN> 39
 -9.064586e+00 -1.495981e-01 7.835532e-01 1.782166e+00 -5.906055e+00 -4.866408e+00 -3.241453e+00 -1.114220e-01 1.760126e+00 -2.629332e+00 -4.012923e+00 8.017570e-01 1.328129e+01 -2.238342e+00 -3.262687e+00 -1.636406e+00 -6.037761e-01 -1.853153e+00 -2.397571e+00 -1.276327e+00 -1.476317e+00 -1.018809e+00 -5.500738e-01 5.964896e-02 -9.447355e-02 6.739648e+00 1.017552e+00 7.656299e-01 9.553657e-02 -5.632626e-01 7.423516e-01 1.143517e+00 5.074649e-01 3.875903e-01 2.636091e-01 5.789049e-01 3.623194e-01 -2.606198e-01 -2.070843e+00
<VARIANCE> 39
 1.179568e+01 3.965538e+01 2.163830e+01 2.083266e+01 3.444233e+01 3.759429e+01 3.209893e+01 2.586219e+01 3.346218e+01 2.326547e+01 1.758620e+01 1.714781e+01 7.190005e+01 4.209572e+00 3.673420e+00 1.721808e+00 1.943978e+00 3.812648e+00 3.844218e+00 2.749658e+00 2.316909e+00 2.479185e+00 2.238775e+00 2.605907e+00 1.837893e+00 7.262663e+00 4.587680e-01 4.696723e-01 2.969534e-01 2.990092e-01 7.118734e-01 4.906907e-01 3.795266e-01 4.169732e-01 4.375674e-01 3.484710e-01 3.887058e-01 3.334179e-01 1.035271e+00
<GCONST> 1.174706e+02
<MIXTURE> 5 9.485505e-02
<MEAN> 39
 -7.362147e+00 -3.196259e+00 -3.511239e+00 -2.175932e+00 -5.777587e+00 -4.850922e+00 -2.889457e+00 -1.115862e+00 -2.342859e-01 -3.010435e-01 -4.989609e-01 9.181735e-01 1.753494e+01 4.878016e-01 -3.352014e-01 -8.183779e-01 -1.125051e+00 2.014055e-01 9.866443e-01 2.653705e-01 -1.274959e-01 2.076471e-01 9.047057e-02 3.381297e-02 -9.096298e-01 -2.679612e-01 3.519593e-01 5.329975e-01 3.509554e-01 2.378222e-01 6.143349e-01 5.220646e-01 3.010899e-01 2.219866e-01 1.167482e-01 1.285623e-01 -1.582378e-01 -7.864624e-02 -1.372979e+00
<VARIANCE> 39
 7.802608e+00 2.700244e+01 2.159544e+01 1.956987e+01 1.879095e+01 2.444304e+01 2.284715e+01 1.991664e+01 2.218890e+01 2.406645e+01 2.333041e+01 1.691004e+01 4.181279e+01 3.320723e-01 4.739784e-01 6.723983e-01 8.374756e-01 1.967703e+00 1.182580e+00 1.797351e+00 1.545040e+00 1.528543e+00 1.933016e+00 1.548510e+00 1.188556e+00 1.224997e+00 2.835639e-01 2.997096e-01 1.568083e-01 1.778932e-01 2.645027e-01 4.110593e-01 2.680944e-01 2.098087e-01 2.737408e-01 2.188856e-01 2.959261e-01 2.681440e-01 9.963078e-01
<GCONST> 9.616068e+01
<MIXTURE> 6 6.754711e-02
<MEAN> 39
 -9.064510e+00 -1.458369e-01 7.854912e-01 1.782435e+00 -5.905696e+00 -4.866714e+00 -3.239164e+00 -1.094772e-01 1.764252e+00 -2.627254e+00 -4.013114e+00 8.023981e-01 1.327545e+01 -2.239106e+00 -3.262335e+00 -1.636382e+00 -6.033989e-01 -1.853418e+00 -2.398488e+00 -1.276642e+00 -1.476456e+00 -1.019378e+00 -5.502112e-01 5.912009e-02 -9.456819e-02 6.740225e+00 1.017438e+00 7.651874e-01 9.537239e-02 -5.632197e-01 7.422532e-01 1.143410e+00 5.071434e-01 3.873101e-01 2.633024e-01 5.787900e-01 3.625123e-01 -2.604925e-01 -2.070069e+00
<VARIANCE> 39
 1.180237e+01 3.966407e+01 2.163803e+01 2.083156e+01 3.446360e+01 3.759016e+01 3.209781e+01 2.585659e+01 3.347061e+01 2.327343e+01 1.758201e+01 1.714663e+01 7.192400e+01 4.210979e+00 3.674442e+00 1.721960e+00 1.943940e+00 3.814128e+00 3.845031e+00 2.750440e+00 2.317231e+00 2.479135e+00 2.238740e+00 2.606417e+00 1.838178e+00 7.261994e+00 4.588068e-01 4.696369e-01 2.968675e-01 2.989495e-01 7.122981e-01 4.906847e-01 3.795529e-01 4.169157e-01 4.376123e-01 3.484275e-01 3.885513e-01 3.333632e-01 1.035408e+00
<GCONST> 1.174738e+02
<MIXTURE> 7 6.756517e-02
<MEAN> 39
 -9.065432e+00 -1.070362e-01 8.047731e-01 1.783226e+00 -5.902803e+00 -4.862482e+00 -3.223074e+00 -8.706268e-02 1.800380e+00 -2.612465e+00 -4.008522e+00 8.094657e-01 1.321791e+01 -2.246443e+00 -3.257808e+00 -1.634349e+00 -6.016743e-01 -1.852980e+00 -2.402965e+00 -1.280309e+00 -1.476824e+00 -1.023378e+00 -5.548698e-01 5.522285e-02 -9.558266e-02 6.742055e+00 1.017056e+00 7.607214e-01 9.390853e-02 -5.628859e-01 7.413914e-01 1.141800e+00 5.050830e-01 3.845001e-01 2.605906e-01 5.784444e-01 3.633857e-01 -2.599044e-01 -2.063336e+00
<VARIANCE> 39
 1.186477e+01 3.977353e+01 2.165385e+01 2.083210e+01 3.456742e+01 3.763788e+01 3.212502e+01 2.587333e+01 3.351302e+01 2.335345e+01 1.757725e+01 1.716196e+01 7.219661e+01 4.226444e+00 3.680025e+00 1.718728e+00 1.948562e+00 3.824463e+00 3.852956e+00 2.756208e+00 2.323734e+00 2.480634e+00 2.246374e+00 2.618015e+00 1.843103e+00 7.249885e+00 4.597252e-01 4.695705e-01 2.961529e-01 2.987301e-01 7.146165e-01 4.905245e-01 3.797961e-01 4.174258e-01 4.372000e-01 3.490945e-01 3.876288e-01 3.340136e-01 1.036810e+00
<GCONST> 1.175276e+02
<MIXTURE> 8 2.195119e-01
<MEAN> 39
 4.406309e+00 1.149748e+01 4.390742e+00 -2.319178e+00 1.492722e+00 7.513741e+00 2.185427e+00 5.284419e+00 3.805895e+00 3.437912e+00 1.403018e+00 -2.989393e-01 -1.488089e+01 -2.334564e+00 -1.945440e+00 -4.909697e-01 9.580301e-01 -1.266903e+00 -2.237310e+00 -9.373755e-01 -9.221743e-01 -4.907588e-01 -1.020953e+00 -9.854374e-01 2.266237e-01 4.751771e+00 -5.881200e-01 -7.107335e-01 -2.896555e-01 -4.816662e-02 -3.576102e-01 -4.815464e-01 -2.390318e-01 -3.153331e-01 -9.560688e-02 -9.359518e-02 -7.961246e-02 2.093513e-02 1.451173e+00
<VARIANCE> 39
 2.221418e+01 1.206467e+01 1.753087e+01 1.326035e+01 1.891238e+01 2.319262e+01 2.444111e+01 1.928321e+01 1.278718e+01 1.946441e+01 1.695347e+01 1.565230e+01 2.394925e+01 5.096581e+00 5.125809e+00 1.967739e+00 1.899996e+00 3.908801e+00 4.587252e+00 2.313419e+00 2.392099e+00 2.101276e+00 2.423575e+00 2.546142e+00 1.921003e+00 1.672070e+01 5.216550e-01 4.124836e-01 1.864423e-01 3.196089e-01 2.743925e-01 4.421893e-01 3.112729e-01 2.372079e-01 2.647344e-01 3.205193e-01 2.654294e-01 2.496316e-01 1.475269e+00
<GCONST> 1.105772e+02
<STATE> 3
<NUMMIXES> 8
<MIXTURE> 1 7.497451e-02
<MEAN> 39
 2.353393e+00 9.176316e+00 2.837747e+00 -3.118034e+00 1.811004e+00 4.728565e+00 1.251573e-01 2.943749e+00 3.194884e+00 8.210964e-01 8.734573e-01 9.256872e-01 -1.277947e+01 3.115383e-01 2.559234e-01 1.292395e-01 1.185993e-01 2.418302e-01 4.469805e-01 2.132970e-01 1.111319e-01 2.494633e-01 4.023356e-01 3.177967e-01 3.239715e-01 -3.208183e-01 5.757635e-02 1.469612e-01 1.616817e-01 1.520293e-01 1.648587e-01 1.428011e-01 1.173763e-01 8.561641e-02 9.702297e-02 3.532531e-02 -1.502905e-01 -1.115426e-01 6.495358e-02
<VARIANCE> 39
 6.943798e+00 1.312051e+01 9.454492e+00 8.438025e+00 1.575644e+01 1.455647e+01 1.577805e+01 1.417718e+01 1.121805e+01 1.469325e+01 1.604499e+01 1.295993e+01 5.795610e+00 1.681492e-01 3.658467e-01 4.057412e-01 5.992038e-01 9.007639e-01 1.028315e+00 1.036136e+00 1.274645e+00 1.275320e+00 1.245225e+00 1.246203e+00 1.146114e+00 8.277020e-02 1.672613e-02 3.551239e-02 6.999748e-02 1.178132e-01 1.963375e-01 1.406171e-01 2.206414e-01 1.764256e-01 2.131327e-01 2.814602e-01 3.049806e-01 3.156318e-01 5.700552e-03
<GCONST> 6.855574e+01
<MIXTURE> 2 1.599568e-01
<MEAN> 39
 3.961513e-01 4.268332e+00 2.368207e+00 -2.241919e-01 1.757462e+00 2.599175e+00 9.391830e-01 1.506148e+00 1.928143e+00 7.843426e-01 2.092311e-01 5.798874e-02 -4.805821e+00 1.665594e-01 1.382875e-01 1.217826e-02 -1.269026e-01 -6.270936e-02 3.194050e-02 -9.029325e-03 1.052602e-01 6.105574e-02 -3.746669e-02 -2.738698e-02 -4.346219e-02 -3.200575e-01 -2.544881e-02 -5.217154e-02 -7.183695e-02 -6.028706e-02 -6.409135e-02 -5.503663e-02 -4.638914e-02 -3.954091e-02 -4.149665e-02 -4.095001e-02 -1.457973e-02 8.040532e-03 5.970805e-03
<VARIANCE> 39
 6.874224e+00 2.589808e+01 1.074843e+01 1.054813e+01 1.381505e+01 1.848725e+01 1.243279e+01 1.568219e+01 1.611386e+01 1.418794e+01 1.178062e+01 1.030770e+01 2.950840e+01 1.590719e-01 2.494432e-01 4.350523e-01 5.999601e-01 7.759629e-01 9.431710e-01 9.515045e-01 1.216062e+00 1.259624e+00 1.305582e+00 1.268169e+00 1.122239e+00 1.568942e-01 2.015391e-02 4.173733e-02 7.487492e-02 1.109019e-01 1.437486e-01 1.802264e-01 1.822770e-01 2.572682e-01 2.500468e-01 2.696024e-01 2.463041e-01 2.120992e-01 5.393712e-03
<GCONST> 7.082729e+01
<MIXTURE> 3 1.599544e-01
<MEAN> 39
 3.960920e-01 4.268238e+00 2.368174e+00 -2.241491e-01 1.757457e+00 2.599124e+00 9.391849e-01 1.506108e+00 1.928143e+00 7.843695e-01 2.092313e-01 5.798852e-02 -4.805703e+00 1.665628e-01 1.382909e-01 1.218514e-02 -1.268972e-01 -6.270566e-02 3.194232e-02 -9.027473e-03 1.052608e-01 6.105949e-02 -3.746411e-02 -2.738435e-02 -4.346092e-02 -3.200609e-01 -2.544728e-02 -5.216987e-02 -7.183613e-02 -6.028907e-02 -6.409208e-02 -5.503655e-02 -4.638954e-02 -3.954210e-02 -4.149951e-02 -4.095358e-02 -1.458123e-02 8.041243e-03 5.971281e-03
<VARIANCE> 39
 6.874268e+00 2.589748e+01 1.074839e+01 1.054806e+01 1.381509e+01 1.848721e+01 1.243284e+01 1.568196e+01 1.611395e+01 1.418820e+01 1.178082e+01 1.030780e+01 2.950778e+01 1.590734e-01 2.494428e-01 4.350517e-01 5.999617e-01 7.759640e-01 9.431695e-01 9.515037e-01 1.216062e+00 1.259634e+00 1.305586e+00 1.268165e+00 1.122238e+00 1.568953e-01 2.015419e-02 4.173728e-02 7.487481e-02 1.109021e-01 1.437485e-01 1.802261e-01 1.822773e-01 2.572682e-01 2.500480e-01 2.696058e-01 2.463095e-01 2.121012e-01 5.393775e-03
<GCONST> 7.082740e+01
<MIXTURE> 4 1.215205e-01
<MEAN> 39
 -4.374233e+00 -2.550805e+00 -3.302303e+00 -2.084200e+00 -9.487686e-01 -1.510215e+00 -1.957246e+00 -2.291430e+00 -8.908122e-01 -1.290754e+00 -1.581760e+00 -5.960969e-01 9.164064e+00 3.119588e-01 1.326101e-01 2.200098e-01 1.922705e-01 3.285328e-01 2.402434e-01 2.614260e-01 -6.053787e-02 -8.848424e-02 7.075636e-02 1.726735e-01 1.286729e-01 -8.902166e-01 3.328752e-03 3.397708e-02 5.938416e-02 5.753560e-02 -2.205052e-02 -3.913805e-02 1.666770e-02 6.679054e-02 6.748453e-02 5.262527e-02 5.379016e-02 2.968702e-02 1.081665e-02
<VARIANCE> 39
 8.468282e+00 1.995698e+01 1.888869e+01 1.157375e+01 2.086564e+01 2.210875e+01 1.760441e+01 2.214079e+01 1.628459e+01 1.731234e+01 1.323321e+01 1.457250e+01 5.290759e+01 8.606147e-02 1.917209e-01 3.483404e-01 5.184143e-01 8.002769e-01 1.025205e+00 1.055722e+00 1.154075e+00 1.134774e+00 1.090230e+00 1.090560e+00 1.163027e+00 6.767591e-02 1.515714e-02 3.591147e-02 7.253525e-02 1.082511e-01 1.657961e-01 2.330595e-01 2.201770e-01 2.320533e-01 2.275693e-01 2.264992e-01 2.334307e-01 2.554649e-01 4.927847e-03
<GCONST> 7.141903e+01
<MIXTURE> 5 1.599584e-01
<MEAN> 39
 3.961109e-01 4.268361e+00 2.368252e+00 -2.241994e-01 1.757467e+00 2.599265e+00 9.392505e-01 1.506197e+00 1.928272e+00 7.844923e-01 2.093758e-01 5.807835e-02 -4.805837e+00 1.665649e-01 1.382958e-01 1.219019e-02 -1.268983e-01 -6.270043e-02 3.194848e-02 -9.018268e-03 1.052687e-01 6.106256e-02 -3.746070e-02 -2.738563e-02 -4.346359e-02 -3.200619e-01 -2.544884e-02 -5.217166e-02 -7.183814e-02 -6.028816e-02 -6.409318e-02 -5.504417e-02 -4.639774e-02 -3.954946e-02 -4.151234e-02 -4.097417e-02 -1.460412e-02 8.027080e-03 5.970712e-03
<VARIANCE> 39
 6.874378e+00 2.589824e+01 1.074866e+01 1.054823e+01 1.381506e+01 1.848732e+01 1.243273e+01 1.568217e+01 1.611398e+01 1.418783e+01 1.178036e+01 1.030758e+01 2.950846e+01 1.590727e-01 2.494433e-01 4.350577e-01 5.999612e-01 7.759570e-01 9.431635e-01 9.515052e-01 1.216059e+00 1.259631e+00 1.305585e+00 1.268155e+00 1.122243e+00 1.568958e-01 2.015387e-02 4.173715e-02 7.487553e-02 1.109015e-01 1.437475e-01 1.802253e-01 1.822754e-01 2.572668e-01 2.500431e-01 2.695970e-01 2.462980e-01 2.120977e-01 5.393635e-03
<GCONST> 7.082722e+01
<MIXTURE> 6 1.215129e-01
<MEAN> 39
 -4.373882e+00 -2.550086e+00 -3.301644e+00 -2.084002e+00 -9.484389e-01 -1.510139e+00 -1.957349e+00 -2.291538e+00 -8.907432e-01 -1.290715e+00 -1.581676e+00 -5.958409e-01 9.162199e+00 3.119410e-01 1.326199e-01 2.200122e-01 1.922754e-01 3.285287e-01 2.402691e-01 2.614437e-01 -6.048931e-02 -8.844782e-02 7.076883e-02 1.726545e-01 1.286547e-01 -8.901561e-01 3.332670e-03 3.398305e-02 5.938991e-02 5.753651e-02 -2.203169e-02 -3.910587e-02 1.669323e-02 6.681567e-02 6.750088e-02 5.264232e-02 5.379555e-02 2.966804e-02 1.081868e-02
<VARIANCE> 39
 8.469092e+00 1.995555e+01 1.888644e+01 1.157343e+01 2.086457e+01 2.210624e+01 1.760475e+01 2.213893e+01 1.628406e+01 1.731222e+01 1.323240e+01 1.457234e+01 5.290672e+01 8.606409e-02 1.917191e-01 3.483489e-01 5.183970e-01 8.002449e-01 1.025161e+00 1.055732e+00 1.154103e+00 1.134849e+00 1.090299e+00 1.090541e+00 1.163012e+00 6.771249e-02 1.515650e-02 3.591134e-02 7.253855e-02 1.082445e-01 1.657872e-01 2.330491e-01 2.201690e-01 2.320503e-01 2.275848e-01 2.265096e-01 2.334238e-01 2.554571e-01 4.927685e-03
<GCONST> 7.141898e+01
<MIXTURE> 7 1.215127e-01
<MEAN> 39
 -4.374012e+00 -2.550274e+00 -3.301788e+00 -2.084064e+00 -9.485167e-01 -1.510107e+00 -1.957309e+00 -2.291520e+00 -8.907429e-01 -1.290722e+00 -1.581697e+00 -5.959003e-01 9.162699e+00 3.119475e-01 1.326203e-01 2.200144e-01 1.922777e-01 3.285334e-01 2.402632e-01 2.614371e-01 -6.050407e-02 -8.845943e-02 7.076352e-02 1.726590e-01 1.286600e-01 -8.901731e-01 3.332301e-03 3.398209e-02 5.938822e-02 5.753593e-02 -2.203880e-02 -3.911791e-02 1.668517e-02 6.680916e-02 6.749725e-02 5.263806e-02 5.379477e-02 2.967284e-02 1.081840e-02
<VARIANCE> 39
 8.468918e+00 1.995606e+01 1.888716e+01 1.157360e+01 2.086491e+01 2.210724e+01 1.760464e+01 2.213943e+01 1.628431e+01 1.731229e+01 1.323275e+01 1.457249e+01 5.290693e+01 8.606377e-02 1.917211e-01 3.483486e-01 5.184035e-01 8.002535e-01 1.025170e+00 1.055731e+00 1.154093e+00 1.134834e+00 1.090280e+00 1.090552e+00 1.163018e+00 6.770166e-02 1.515679e-02 3.591148e-02 7.253763e-02 1.082467e-01 1.657897e-01 2.330517e-01 2.201711e-01 2.320507e-01 2.275824e-01 2.265078e-01 2.334276e-01 2.554603e-01 4.927753e-03
<GCONST> 7.141914e+01
<MIXTURE> 8 8.060694e-02
<MEAN> 39
 -2.578585e+00 -1.098840e+00 -1.325231e+00 -1.564314e+00 -1.499327e+00 -1.761431e+00 -1.874517e+00 -8.882459e-01 -1.835658e-01 -1.225812e+00 -9.188511e-01 -8.755875e-02 3.193504e+00 -2.276603e-02 -9.737363e-02 -3.469924e-02 8.134577e-02 2.701055e-01 1.618074e-01 -4.649767e-02 -2.579858e-01 -5.150220e-02 -1.031701e-01 -3.245859e-01 -3.189498e-01 -9.681565e-02 6.423419e-02 1.190079e-01 1.797030e-01 2.054728e-01 2.412767e-01 1.682378e-01 8.460073e-02 3.168759e-02 1.426874e-02 1.026341e-01 1.160546e-01 7.249396e-02 -4.023951e-02
<VARIANCE> 39
 1.065039e+01 1.724897e+01 1.400374e+01 9.591720e+00 1.187595e+01 2.007923e+01 1.930372e+01 1.604439e+01 1.964365e+01 1.794559e+01 1.390723e+01 1.458650e+01 6.900202e+01 4.556485e-01 7.040406e-01 6.330217e-01 8.702434e-01 1.130487e+00 1.466011e+00 1.617621e+00 1.050130e+00 1.671199e+00 2.020643e+00 1.224718e+00 1.121525e+00 6.041883e-01 8.162819e-02 1.122983e-01 1.214404e-01 1.560879e-01 1.760961e-01 3.187193e-01 3.199170e-01 2.254131e-01 4.198923e-01 4.623561e-01 2.918166e-01 2.888075e-01 9.187086e-02
<GCONST> 8.807703e+01
<STATE> 4
<NUMMIXES> 8
<MIXTURE> 1 2.702170e-01
<MEAN> 39
 3.740918e+00 4.108385e+00 3.210405e+00 1.511315e+00 3.170969e+00 3.448308e+00 1.791109e+00 2.478466e+00 1.633935e+00 1.116869e+00 8.555281e-01 -1.379830e-01 -1.008252e+01 2.420910e-01 3.926741e-01 1.311592e-01 -4.364513e-02 4.667669e-02 2.532079e-01 8.309505e-02 2.834769e-01 1.590084e-01 1.146852e-01 -1.927466e-02 -6.134269e-02 -5.276091e-01 -3.100792e-02 -1.354591e-02 -4.222401e-02 -5.196625e-02 -6.555111e-02 -4.519932e-02 -5.091358e-02 -4.258739e-02 -4.849500e-02 -3.005750e-02 -1.506572e-02 2.135346e-03 2.855592e-02
<VARIANCE> 39
 6.003350e+00 2.328604e+01 1.034025e+01 1.669167e+01 1.610898e+01 1.940733e+01 1.712959e+01 1.951206e+01 1.782928e+01 1.632313e+01 1.435249e+01 1.241587e+01 1.195662e+01 1.444594e-01 2.725351e-01 4.163593e-01 7.069451e-01 8.780456e-01 1.092113e+00 1.199284e+00 1.334149e+00 1.388157e+00 1.388661e+00 1.294313e+00 1.096945e+00 8.325677e-02 2.147488e-02 4.768573e-02 7.615734e-02 1.271698e-01 1.630771e-01 2.060696e-01 2.247526e-01 2.577493e-01 2.741106e-01 2.695655e-01 2.573875e-01 2.217248e-01 6.451037e-03
<GCONST> 7.287920e+01
<MIXTURE> 2 1.744553e-01
<MEAN> 39
 -1.007772e+00 -3.210252e+00 -1.714653e+00 -4.011116e-01 -8.946512e-01 -1.644494e+00 -4.016410e-01 -1.835765e+00 -1.471851e+00 -6.590281e-01 -1.394238e-02 9.119282e-02 4.114731e+00 3.030951e-01 1.579336e-01 2.512944e-01 2.339869e-01 3.543789e-01 1.977820e-01 1.421254e-01 2.663841e-02 -4.365163e-03 2.948989e-02 1.161954e-01 8.080098e-02 -9.183933e-01 -1.629840e-03 2.464081e-02 1.864433e-02 2.480790e-02 -8.255271e-03 -3.366922e-03 7.285162e-03 4.797729e-02 4.452129e-02 2.133816e-02 3.520883e-03 9.315896e-03 1.180013e-02
<VARIANCE> 39
 1.063619e+01 2.081468e+01 1.525774e+01 1.602649e+01 2.273283e+01 2.193069e+01 1.920338e+01 1.926832e+01 1.960025e+01 1.786480e+01 1.553114e+01 1.512097e+01 4.562575e+01 8.970017e-02 2.085190e-01 3.179103e-01 5.604433e-01 9.288248e-01 1.009204e+00 9.466109e-01 1.058372e+00 1.381553e+00 1.391488e+00 1.191164e+00 1.420881e+00 3.147957e-02 1.803026e-02 4.186918e-02 6.337457e-02 1.180160e-01 1.953313e-01 2.237564e-01 1.903371e-01 2.054953e-01 2.831663e-01 3.079335e-01 2.453544e-01 3.174314e-01 5.445830e-03
<GCONST> 7.313293e+01
<MIXTURE> 3 1.744583e-01
<MEAN> 39
 -1.007995e+00 -3.210380e+00 -1.714837e+00 -4.013134e-01 -8.949171e-01 -1.644632e+00 -4.018189e-01 -1.835854e+00 -1.471865e+00 -6.590725e-01 -1.399256e-02 9.116770e-02 4.115280e+00 3.030938e-01 1.579248e-01 2.512852e-01 2.339784e-01 3.543882e-01 1.977942e-01 1.421292e-01 2.661643e-02 -4.397588e-03 2.948427e-02 1.162159e-01 8.082823e-02 -9.184018e-01 -1.627695e-03 2.464613e-02 1.865280e-02 2.481963e-02 -8.245811e-03 -3.361278e-03 7.292246e-03 4.798244e-02 4.452413e-02 2.133798e-02 3.518890e-03 9.313822e-03 1.180120e-02
<VARIANCE> 39
 1.063670e+01 2.081560e+01 1.525839e+01 1.602684e+01 2.273354e+01 2.193178e+01 1.920400e+01 1.926891e+01 1.960078e+01 1.786530e+01 1.553189e+01 1.512161e+01 4.562901e+01 8.970223e-02 2.085208e-01 3.179112e-01 5.604498e-01 9.288363e-01 1.009208e+00 9.466065e-01 1.058394e+00 1.381567e+00 1.391472e+00 1.191185e+00 1.420888e+00 3.148026e-02 1.803125e-02 4.186999e-02 6.337524e-02 1.180191e-01 1.953360e-01 2.237634e-01 1.903411e-01 2.055020e-01 2.831718e-01 3.079403e-01 2.453670e-01 3.174446e-01 5.446215e-03
<GCONST> 7.313395e+01
<MIXTURE> 4 3.619753e-02
<MEAN> 39
 -8.609340e-01 1.503702e-01 -9.867861e-01 -1.495872e+00 -2.312477e+00 -1.167466e+00 -1.133174e+00 5.965331e-01 8.506912e-01 5.057805e-01 1.401462e-01 -3.446703e-02 3.553833e+00 2.921101e-01 2.537857e-02 -8.785180e-02 -4.378941e-01 2.963173e-01 6.523769e-01 2.609964e-01 -6.661315e-02 9.453546e-02 1.371022e-01 -2.619879e-02 -4.463634e-01 -4.924993e-01 -1.384085e-02 2.048168e-01 1.500653e-01 2.763185e-01 2.074342e-01 8.423632e-02 5.086209e-02 1.837337e-02 -7.329755e-02 -7.625449e-02 -1.349597e-01 3.175034e-02 -3.293720e-01
<VARIANCE> 39
 2.895648e+01 4.272662e+01 2.581212e+01 2.057776e+01 3.745282e+01 4.141950e+01 2.365130e+01 2.145232e+01 2.053885e+01 1.667852e+01 1.799517e+01 1.367589e+01 1.973800e+02 3.554358e-01 6.019092e-01 5.215843e-01 1.062838e+00 1.265137e+00 1.370272e+00 1.373673e+00 1.389133e+00 1.461180e+00 1.491106e+00 1.408366e+00 1.259635e+00 6.476326e-01 4.658381e-01 4.618877e-01 2.940434e-01 2.634567e-01 6.558104e-01 7.581657e-01 3.973605e-01 3.404284e-01 3.706041e-01 3.271208e-01 3.064111e-01 2.781800e-01 2.986814e+00
<GCONST> 1.049866e+02
<MIXTURE> 5 1.744581e-01
<MEAN> 39
 -1.007610e+00 -3.210196e+00 -1.714522e+00 -4.009312e-01 -8.944708e-01 -1.644430e+00 -4.015216e-01 -1.835714e+00 -1.471882e+00 -6.589947e-01 -1.382813e-02 9.127927e-02 4.114297e+00 3.030973e-01 1.579479e-01 2.513103e-01 2.339995e-01 3.543843e-01 1.977929e-01 1.421402e-01 2.667712e-02 -4.320443e-03 2.951634e-02 1.161930e-01 8.078763e-02 -9.183871e-01 -1.629609e-03 2.463834e-02 1.863927e-02 2.480086e-02 -8.257078e-03 -3.366455e-03 7.281209e-03 4.797590e-02 4.452410e-02 2.133721e-02 3.512078e-03 9.305100e-03 1.180067e-02
<VARIANCE> 39
 1.063596e+01 2.081411e+01 1.525767e+01 1.602646e+01 2.273261e+01 2.193061e+01 1.920337e+01 1.926839e+01 1.960037e+01 1.786516e+01 1.553110e+01 1.512109e+01 4.562369e+01 8.970039e-02 2.085226e-01 3.179164e-01 5.604498e-01 9.288287e-01 1.009216e+00 9.466267e-01 1.058380e+00 1.381561e+00 1.391509e+00 1.191178e+00 1.420906e+00 3.147970e-02 1.802986e-02 4.186896e-02 6.337477e-02 1.180163e-01 1.953303e-01 2.237572e-01 1.903366e-01 2.054961e-01 2.831701e-01 3.079397e-01 2.453548e-01 3.174359e-01 5.445604e-03
<GCONST> 7.313295e+01
<MIXTURE> 6 3.614095e-02
<MEAN> 39
 -3.314588e-01 6.608028e-01 -5.506245e-01 -1.242405e+00 -1.743468e+00 -5.968700e-01 -8.417102e-01 8.403768e-01 9.716907e-01 6.005459e-01 1.408993e-01 -1.007052e-01 2.019444e+00 2.610441e-01 7.704546e-02 -6.546556e-02 -3.839491e-01 2.653160e-01 6.141232e-01 2.388758e-01 -3.909668e-02 8.916117e-02 1.237134e-01 -3.714174e-02 -4.086098e-01 -4.913390e-01 -8.563028e-02 1.460121e-01 1.017138e-01 2.552238e-01 1.302063e-01 6.466082e-04 9.115791e-03 -3.924508e-03 -8.285830e-02 -9.242899e-02 -1.456983e-01 4.265912e-02 -1.323126e-01
<VARIANCE> 39
 2.901512e+01 4.358918e+01 2.600791e+01 2.068889e+01 3.748581e+01 4.216911e+01 2.379116e+01 2.164063e+01 2.035602e+01 1.670144e+01 1.770099e+01 1.351228e+01 1.989445e+02 3.539360e-01 5.875922e-01 5.108159e-01 1.023183e+00 1.255007e+00 1.359738e+00 1.344190e+00 1.371639e+00 1.436401e+00 1.462961e+00 1.390592e+00 1.257100e+00 5.960239e-01 4.623114e-01 4.671951e-01 2.989823e-01 2.649485e-01 6.597304e-01 7.602535e-01 4.028202e-01 3.430135e-01 3.700986e-01 3.292184e-01 3.090966e-01 2.739081e-01 2.984757e+00
<GCONST> 1.048092e+02
<MIXTURE> 7 3.618211e-02
<MEAN> 39
 -2.402719e-01 7.487319e-01 -4.755758e-01 -1.198879e+00 -1.645548e+00 -4.981631e-01 -7.910262e-01 8.826371e-01 9.924148e-01 6.168084e-01 1.409215e-01 -1.122682e-01 1.755563e+00 2.557739e-01 8.582140e-02 -6.163625e-02 -3.747573e-01 2.599066e-01 6.075270e-01 2.350960e-01 -3.434321e-02 8.820662e-02 1.214550e-01 -3.902407e-02 -4.021499e-01 -4.910337e-01 -9.798385e-02 1.358868e-01 9.336439e-02 2.515725e-01 1.168991e-01 -1.378198e-02 1.880628e-03 -7.804046e-03 -8.447788e-02 -9.520891e-02 -1.475509e-01 4.454653e-02 -9.843357e-02
<VARIANCE> 39
 2.897195e+01 4.369029e+01 2.600817e+01 2.069718e+01 3.743586e+01 4.224441e+01 2.380142e+01 2.166516e+01 2.032220e+01 1.670323e+01 1.764886e+01 1.348281e+01 1.987762e+02 3.533899e-01 5.846169e-01 5.088505e-01 1.015966e+00 1.253087e+00 1.357666e+00 1.339022e+00 1.368488e+00 1.432043e+00 1.458047e+00 1.387429e+00 1.256377e+00 5.872285e-01 4.608251e-01 4.675471e-01 2.994590e-01 2.651359e-01 6.594437e-01 7.595434e-01 4.035053e-01 3.433953e-01 3.699970e-01 3.295515e-01 3.095314e-01 2.731458e-01 2.977770e+00
<GCONST> 1.047523e+02
<MIXTURE> 8 9.786596e-02
<MEAN> 39
 -1.216374e+00 2.361151e+00 5.701463e-01 1.146217e+00 -1.589275e+00 -9.265263e-01 -1.133044e+00 1.859429e+00 6.853204e-01 -3.516436e-01 -1.759058e+00 9.736873e-02 1.346577e+00 -2.418903e+00 -1.923983e+00 -1.513732e+00 -5.071346e-01 -2.207325e+00 -2.431305e+00 -1.226571e+00 -7.685414e-01 -4.982901e-01 -5.863931e-01 -4.957894e-01 1.966126e-01 6.506135e+00 1.567204e-01 -2.705895e-01 -1.162216e-01 -2.899943e-01 4.446168e-02 1.107815e-01 6.756317e-02 -1.336950e-01 -1.975268e-02 5.971760e-02 1.697685e-01 -1.026108e-01 7.852262e-02
<VARIANCE> 39
 3.662451e+01 4.688013e+01 2.227522e+01 2.050728e+01 4.031482e+01 5.527930e+01 3.051146e+01 2.383750e+01 2.580777e+01 2.429189e+01 2.070829e+01 1.422007e+01 2.046064e+02 1.965083e+00 5.252105e+00 1.967198e+00 3.035805e+00 2.971282e+00 3.665815e+00 2.661175e+00 2.877314e+00 2.936781e+00 2.489727e+00 2.281828e+00 1.546967e+00 7.831093e+00 8.661535e-01 8.708987e-01 4.098186e-01 3.852538e-01 9.404791e-01 1.307997e+00 6.013657e-01 4.984491e-01 5.093681e-01 4.905372e-01 3.780600e-01 3.045080e-01 5.125794e+00
<GCONST> 1.258093e+02
<TRANSP> 5
 0.000000e+00 1.000000e+00 0.000000e+00 0.000000e+00 0.000000e+00
 0.000000e+00 8.545439e-01 1.454561e-01 0.000000e+00 0.000000e+00
 0.000000e+00 0.000000e+00 9.646869e-01 3.531314e-02 0.000000e+00
 0.000000e+00 0.000000e+00 0.000000e+00 9.960147e-01 3.985290e-03
 0.000000e+00 0.000000e+00 0.000000e+00 0.000000e+00 0.000000e+00
<ENDHMM>
~h "cl"
<BEGINHMM>
<NUMSTATES> 5
<STATE> 2
<NUMMIXES> 8
<MIXTURE> 1 3.516446e-01
<MEAN> 39
 4.139353e+00 -4.442317e-01 6.588879e-01 -7.185625e-01 -1.058634e+00 1.216191e+00 -7.568930e-01 -1.393811e+00 1.792134e+00 -7.563701e-01 -5.643773e-01 7.021996e-01 -3.509822e+00 6.377717e-01 -1.362780e-01 -1.595978e-02 1.080647e-02 1.519574e-01 4.482734e-02 6.011755e-02 1.075251e-01 -1.804210e-02 8.371259e-02 1.886996e-01 -4.948093e-02 -4.601580e-01 1.411963e-02 1.335002e-02 -7.934650e-03 8.930907e-02 1.139842e-01 -3.915128e-02 1.008761e-01 1.416975e-01 -2.690220e-02 9.070809e-02 7.864428e-02 -3.282834e-02 -2.198610e-03
<VARIANCE> 39
 2.400664e+01 8.886267e+00 1.542385e+01 9.263450e+00 1.464259e+01 1.744915e+01 1.728498e+01 2.021949e+01 2.508829e+01 1.658171e+01 1.918837e+01 1.808379e+01 1.182242e+01 2.100586e-01 2.964034e-01 5.639966e-01 7.740641e-01 1.044738e+00 1.095535e+00 1.294846e+00 1.479536e+00 1.653441e+00 1.430636e+00 1.556572e+00 1.768543e+00 8.920007e-02 5.018977e-02 5.994480e-02 1.062189e-01 1.467421e-01 2.049760e-01 2.379246e-01 2.413308e-01 2.877074e-01 3.383420e-01 2.885740e-01 3.190912e-01 3.532076e-01 1.954748e-02
<GCONST> 8.028839e+01
<MIXTURE> 2 6.223952e-02
<MEAN> 39
 5.990539e+00 -6.657867e-01 -1.822055e+00 3.078466e-01 2.144783e+00 -2.450635e+00 9.737893e-01 1.843788e+00 -1.315915e+00 -1.126564e+00 2.849036e+00 -2.184235e+00 -4.086823e+00 -4.591255e-02 9.163104e-02 7.073915e-02 -3.264232e-02 -7.398681e-02 2.747490e-01 6.383808e-02 3.828817e-02 2.826275e-01 1.640450e-01 4.440203e-02 2.466303e-01 -1.440626e-02 -1.762602e-01 4.508046e-02 5.984970e-02 3.936150e-02 -6.414375e-02 -5.071368e-03 -7.496180e-02 8.954449e-03 6.494959e-02 1.344962e-01 -2.678799e-02 6.913435e-02 9.240333e-02
<VARIANCE> 39
 5.163007e+01 1.696971e+01 2.156358e+01 1.089538e+01 2.303633e+01 4.024044e+01 2.683214e+01 4.268208e+01 3.127835e+01 2.166311e+01 4.801822e+01 3.195783e+01 3.338136e+01 1.002498e+00 6.781744e-01 8.419199e-01 9.170582e-01 1.240150e+00 2.024251e+00 1.725328e+00 1.840032e+00 2.277383e+00 1.837091e+00 2.043778e+00 1.786498e+00 4.275191e-01 8.165426e-01 1.941686e-01 1.846050e-01 1.774493e-01 2.893614e-01 3.680518e-01 3.699342e-01 4.712499e-01 5.649672e-01 4.080347e-01 4.976735e-01 4.078978e-01 4.147277e-01
<GCONST> 1.052688e+02
<MIXTURE> 3 6.217732e-02
<MEAN> 39
 6.001473e+00 -6.657082e-01 -1.829240e+00 3.087772e-01 2.151099e+00 -2.461571e+00 9.753624e-01 1.853169e+00 -1.322803e+00 -1.125120e+00 2.860417e+00 -2.193144e+00 -4.094438e+00 -4.424190e-02 9.157109e-02 7.087205e-02 -3.196428e-02 -7.340900e-02 2.748913e-01 6.420449e-02 3.891815e-02 2.834704e-01 1.644067e-01 4.478575e-02 2.464651e-01 -1.559468e-02 -1.773671e-01 4.525253e-02 6.028121e-02 3.932501e-02 -6.447863e-02 -4.611759e-03 -7.498392e-02 8.298650e-03 6.520207e-02 1.342120e-01 -2.743846e-02 6.961475e-02 9.311353e-02
<VARIANCE> 39
 5.165224e+01 1.698187e+01 2.153438e+01 1.089568e+01 2.305480e+01 4.027337e+01 2.683496e+01 4.271768e+01 3.125440e+01 2.166402e+01 4.806457e+01 3.197133e+01 3.342721e+01 1.000087e+00 6.769888e-01 8.413548e-01 9.167511e-01 1.239345e+00 2.023135e+00 1.724242e+00 1.838056e+00 2.275845e+00 1.836283e+00 2.042192e+00 1.785550e+00 4.266366e-01 8.157851e-01 1.941366e-01 1.843549e-01 1.774359e-01 2.892320e-01 3.678691e-01 3.695806e-01 4.706719e-01 5.645089e-01 4.078164e-01 4.975144e-01 4.075546e-01 4.143578e-01
<GCONST> 1.052516e+02
<MIXTURE> 4 1.074805e-01
<MEAN> 39
 8.001229e+00 -1.954319e+00 -1.338342e+00 1.061357e+00 2.646867e+00 -1.895018e+00 2.092266e+00 3.087067e+00 -1.363621e+00 2.316643e+00 2.561871e+00 -2.862867e+00 -5.571280e+00 1.611215e-01 -4.155372e-02 -2.909820e-02 -2.867773e-02 -7.007007e-03 -1.594626e-01 -9.131800e-02 -1.073071e-02 -8.200323e-02 -6.577346e-02 -5.354897e-02 -1.439441e-01 -1.381778e-01 -3.782520e-02 -2.329724e-03 -3.374186e-02 -7.636271e-02 -9.482603e-02 -4.492977e-02 -8.168790e-02 -9.412483e-02 -4.352264e-02 -1.121511e-01 -6.916754e-02 9.328828e-03 1.939628e-02
<VARIANCE> 39
 3.301464e+01 1.517697e+01 9.110021e+00 8.350886e+00 1.423739e+01 2.454731e+01 1.695831e+01 2.307228e+01 2.988251e+01 1.914788e+01 2.169214e+01 2.673181e+01 1.095002e+01 4.586433e-01 3.993011e-01 4.971195e-01 6.664403e-01 1.044278e+00 1.137257e+00 1.326985e+00 1.699458e+00 1.857774e+00 1.455122e+00 1.749696e+00 1.374082e+00 1.623455e-01 6.080031e-02 6.004639e-02 8.061633e-02 1.250426e-01 1.658148e-01 1.935918e-01 2.456502e-01 2.981130e-01 3.324084e-01 2.850225e-01 3.362960e-01 2.611170e-01 1.733309e-02
<GCONST> 8.228649e+01
<MIXTURE> 5 6.213357e-02
<MEAN> 39
 6.004174e+00 -6.650929e-01 -1.833955e+00 3.084676e-01 2.152883e+00 -2.468534e+00 9.745955e-01 1.855628e+00 -1.328116e+00 -1.125957e+00 2.865049e+00 -2.197341e+00 -4.094950e+00 -4.292179e-02 9.156013e-02 7.126451e-02 -3.150246e-02 -7.296884e-02 2.754730e-01 6.457775e-02 3.919290e-02 2.845152e-01 1.646173e-01 4.476928e-02 2.463378e-01 -1.661582e-02 -1.773308e-01 4.521566e-02 6.057821e-02 3.933201e-02 -6.444664e-02 -4.240871e-03 -7.478960e-02 8.202864e-03 6.549059e-02 1.342176e-01 -2.753886e-02 6.987236e-02 9.301082e-02
<VARIANCE> 39
 5.166035e+01 1.699076e+01 2.151791e+01 1.089544e+01 2.305603e+01 4.030456e+01 2.683810e+01 4.272225e+01 3.123416e+01 2.166534e+01 4.807705e+01 3.197522e+01 3.344019e+01 9.984189e-01 6.761239e-01 8.410313e-01 9.164796e-01 1.238988e+00 2.022330e+00 1.723676e+00 1.836951e+00 2.274631e+00 1.835494e+00 2.041291e+00 1.785095e+00 4.261350e-01 8.148016e-01 1.940898e-01 1.841751e-01 1.773593e-01 2.890134e-01 3.676540e-01 3.692229e-01 4.701541e-01 5.640174e-01 4.076927e-01 4.973202e-01 4.072056e-01 4.137938e-01
<GCONST> 1.052346e+02
<MIXTURE> 6 1.075596e-01
<MEAN> 39
 8.016205e+00 -1.961286e+00 -1.341952e+00 1.062136e+00 2.649543e+00 -1.903375e+00 2.094211e+00 3.092617e+00 -1.370907e+00 2.319854e+00 2.564772e+00 -2.873930e+00 -5.579028e+00 1.621378e-01 -4.206539e-02 -2.911086e-02 -2.827149e-02 -6.299105e-03 -1.595314e-01 -9.063178e-02 -1.017100e-02 -8.225118e-02 -6.498983e-02 -5.283316e-02 -1.442506e-01 -1.387188e-01 -3.800533e-02 -2.228512e-03 -3.368569e-02 -7.638277e-02 -9.469914e-02 -4.474735e-02 -8.163100e-02 -9.413670e-02 -4.324676e-02 -1.120595e-01 -6.900772e-02 9.664622e-03 1.947861e-02
<VARIANCE> 39
 3.298927e+01 1.517999e+01 9.097237e+00 8.343598e+00 1.423322e+01 2.454668e+01 1.695198e+01 2.305915e+01 2.989050e+01 1.915918e+01 2.167858e+01 2.671649e+01 1.093421e+01 4.569695e-01 3.985249e-01 4.967371e-01 6.661348e-01 1.043013e+00 1.136570e+00 1.326445e+00 1.698616e+00 1.856699e+00 1.454421e+00 1.748238e+00 1.372917e+00 1.617611e-01 6.065568e-02 5.998846e-02 8.057229e-02 1.250029e-01 1.657602e-01 1.935776e-01 2.456528e-01 2.981624e-01 3.323557e-01 2.850134e-01 3.361399e-01 2.609705e-01 1.728494e-02
<GCONST> 8.225628e+01
<MIXTURE> 7 1.075430e-01
<MEAN> 39
 8.013149e+00 -1.959848e+00 -1.341171e+00 1.062005e+00 2.649006e+00 -1.901597e+00 2.093885e+00 3.091526e+00 -1.369336e+00 2.319184e+00 2.564183e+00 -2.871683e+00 -5.577457e+00 1.619436e-01 -4.196605e-02 -2.910949e-02 -2.835293e-02 -6.435262e-03 -1.595194e-01 -9.076727e-02 -1.027650e-02 -8.220631e-02 -6.514195e-02 -5.297467e-02 -1.441935e-01 -1.386157e-01 -3.796939e-02 -2.250652e-03 -3.370112e-02 -7.638381e-02 -9.472915e-02 -4.479157e-02 -8.165275e-02 -9.414407e-02 -4.331197e-02 -1.120806e-01 -6.903960e-02 9.598033e-03 1.946222e-02
<VARIANCE> 39
 3.299448e+01 1.517943e+01 9.100033e+00 8.345164e+00 1.423415e+01 2.454697e+01 1.695347e+01 2.306215e+01 2.988944e+01 1.915710e+01 2.168147e+01 2.671966e+01 1.093747e+01 4.572967e-01 3.986748e-01 4.968129e-01 6.661978e-01 1.043275e+00 1.136712e+00 1.326565e+00 1.698798e+00 1.856924e+00 1.454570e+00 1.748544e+00 1.373150e+00 1.618774e-01 6.068518e-02 6.000055e-02 8.058167e-02 1.250131e-01 1.657737e-01 1.935829e-01 2.456560e-01 2.981584e-01 3.323694e-01 2.850187e-01 3.361754e-01 2.610004e-01 1.729497e-02
<GCONST> 8.226265e+01
<MIXTURE> 8 1.392167e-01
<MEAN> 39
 5.240604e+00 -1.771708e-01 -1.743901e+00 1.584775e+00 2.102556e+00 -3.683059e+00 1.056157e+00 3.554383e+00 -1.142660e+00 8.167908e-01 3.703418e+00 -2.441921e+00 -4.312787e+00 -3.317566e+00 5.973852e-01 2.444649e-01 4.043038e-03 -9.086484e-01 5.095606e-01 -2.373761e-01 -1.063512e+00 4.314934e-01 -3.568212e-01 -1.134731e+00 6.968494e-01 2.602144e+00 -4.267114e-02 -8.650794e-02 4.861793e-02 -1.212142e-01 -4.153929e-02 2.187861e-01 5.402859e-03 -2.370879e-01 3.830276e-02 -1.500622e-01 -1.199127e-01 1.736030e-02 8.786053e-02
<VARIANCE> 39
 6.613972e+01 1.685537e+01 1.647677e+01 1.686388e+01 2.797737e+01 3.789309e+01 2.655187e+01 4.109159e+01 3.749144e+01 2.548564e+01 3.997245e+01 3.548248e+01 3.915195e+01 4.749056e+00 2.035671e+00 1.790827e+00 1.933552e+00 2.221150e+00 4.481167e+00 3.500185e+00 4.500419e+00 4.758985e+00 3.451509e+00 3.482836e+00 3.178550e+00 1.955462e+00 1.408269e+00 2.404322e-01 2.086578e-01 2.793989e-01 3.674188e-01 5.450098e-01 4.512286e-01 5.404414e-01 5.581445e-01 5.680394e-01 5.776887e-01 4.126101e-01 7.845734e-01
<GCONST> 1.207384e+02
<STATE> 3
<NUMMIXES> 8
<MIXTURE> 1 6.106969e-02
<MEAN> 39
 2.091596e+00 1.218161e+00 -1.751848e-01 1.801449e-01 2.705212e+00 4.740906e-01 2.387275e+00 1.604757e+00 -1.299928e-01 -7.720214e-01 9.278085e-01 -1.783486e+00 -2.752178e+00 7.189782e-01 1.939592e-01 1.115432e-01 3.403697e-01 4.176312e-01 1.971522e-01 3.506270e-01 2.877028e-01 3.461820e-01 3.152227e-01 2.873538e-01 2.436997e-02 -4.950117e-01 -4.598536e-01 -6.225615e-02 -1.613599e-02 4.130303e-02 -2.654705e-01 -2.065498e-01 -1.832572e-01 7.726145e-03 -4.448095e-03 1.242537e-01 -2.527924e-02 1.851580e-01 3.817101e-01
<VARIANCE> 39
 1.440761e+01 5.104726e+00 1.020282e+01 9.454591e+00 1.277504e+01 2.159348e+01 1.884400e+01 2.192749e+01 2.349903e+01 2.058790e+01 1.840199e+01 1.562801e+01 9.111218e+00 1.958555e-01 2.900532e-01 5.113916e-01 5.725921e-01 8.902534e-01 1.141360e+00 1.342580e+00 1.436050e+00 1.648208e+00 1.513889e+00 1.289656e+00 1.152735e+00 9.315925e-02 2.413143e-01 7.774224e-02 1.601483e-01 1.873898e-01 2.215718e-01 4.355220e-01 3.693581e-01 4.213944e-01 4.585113e-01 3.722098e-01 3.789525e-01 2.985488e-01 1.525397e-01
<GCONST> 8.424621e+01
<MIXTURE> 2 1.835315e-01
<MEAN> 39
 -2.673090e+00 -8.020665e-02 8.689548e-01 -4.087611e-01 -4.474628e-01 1.452629e+00 -4.260787e-01 -5.642892e-01 6.091980e-01 2.234583e-01 -6.456501e-01 7.189603e-01 1.703632e+00 6.456520e-01 7.124463e-02 1.917737e-01 -2.027808e-01 -4.217979e-02 1.748494e-01 -5.115004e-02 -1.596284e-01 3.348399e-01 6.470655e-02 -2.027669e-02 8.842430e-02 -6.761476e-01 -1.517452e-02 2.459286e-02 -5.987197e-02 6.630837e-02 3.287385e-02 -1.187653e-01 6.252205e-02 1.040329e-01 -2.623584e-02 3.017631e-03 4.002774e-02 -4.579255e-02 4.418084e-03
<VARIANCE> 39
 1.335755e+01 5.252495e+00 9.990137e+00 9.507798e+00 1.428911e+01 2.187029e+01 1.826621e+01 2.390123e+01 2.446577e+01 1.916125e+01 1.827575e+01 1.818253e+01 1.129132e+01 1.843199e-01 3.262466e-01 6.366551e-01 7.418021e-01 9.500161e-01 1.314497e+00 1.306807e+00 1.455558e+00 1.675798e+00 1.459745e+00 1.337949e+00 1.357464e+00 1.041746e-01 8.760094e-02 7.423227e-02 1.372685e-01 1.624549e-01 2.083529e-01 3.051092e-01 2.893317e-01 3.418878e-01 3.879431e-01 3.274783e-01 2.894375e-01 3.028738e-01 7.418431e-02
<GCONST> 8.221248e+01
<MIXTURE> 3 1.835286e-01
<MEAN> 39
 -2.673182e+00 -8.024738e-02 8.689110e-01 -4.087574e-01 -4.475402e-01 1.452678e+00 -4.261146e-01 -5.643870e-01 6.091306e-01 2.233418e-01 -6.457766e-01 7.190038e-01 1.703745e+00 6.456521e-01 7.124621e-02 1.917909e-01 -2.027889e-01 -4.218451e-02 1.748652e-01 -5.115207e-02 -1.596313e-01 3.348545e-01 6.471268e-02 -2.028115e-02 8.843295e-02 -6.761515e-01 -1.517031e-02 2.459752e-02 -5.986684e-02 6.630924e-02 3.287918e-02 -1.187714e-01 6.252427e-02 1.040464e-01 -2.622668e-02 3.034075e-03 4.004244e-02 -4.579553e-02 4.412527e-03
<VARIANCE> 39
 1.335741e+01 5.252518e+00 9.990380e+00 9.507822e+00 1.428921e+01 2.187048e+01 1.826633e+01 2.390159e+01 2.446615e+01 1.916160e+01 1.827598e+01 1.818270e+01 1.129131e+01 1.843198e-01 3.262472e-01 6.366576e-01 7.418066e-01 9.500175e-01 1.314496e+00 1.306802e+00 1.455556e+00 1.675796e+00 1.459742e+00 1.337950e+00 1.357469e+00 1.041752e-01 8.760538e-02 7.423390e-02 1.372722e-01 1.624551e-01 2.083554e-01 3.051131e-01 2.893337e-01 3.418923e-01 3.879536e-01 3.274855e-01 2.894413e-01 3.028778e-01 7.418952e-02
<GCONST> 8.221291e+01
<MIXTURE> 4 1.060906e-01
<MEAN> 39
 -2.996485e+00 2.704073e-02 -4.160238e-01 4.557991e-01 -3.489740e-01 3.142917e-01 1.423706e-01 -9.963787e-02 5.230815e-01 -3.845308e-01 -4.259806e-01 3.366717e-01 2.247606e+00 -6.438348e-01 -8.876815e-02 -1.962096e-01 1.535619e-01 -7.862591e-02 -1.159788e-01 5.222917e-02 -1.353336e-02 -3.211257e-01 -2.254141e-01 -5.637250e-02 -5.836942e-02 6.650794e-01 8.839916e-02 -6.032108e-03 9.488130e-02 -6.778120e-02 1.394411e-02 8.452969e-02 -4.000848e-02 -3.054006e-02 -1.499201e-02 3.474538e-02 -5.850188e-04 -2.599563e-03 -7.222828e-02
<VARIANCE> 39
 2.216354e+01 7.129494e+00 1.430265e+01 1.167719e+01 1.670317e+01 2.484163e+01 2.115160e+01 2.493490e+01 2.695427e+01 2.107958e+01 1.818985e+01 1.924337e+01 1.920364e+01 1.261723e+00 7.142841e-01 1.278669e+00 1.247018e+00 1.720701e+00 3.379947e+00 2.275399e+00 3.438591e+00 2.814097e+00 2.275665e+00 2.001051e+00 2.422163e+00 7.791395e-01 5.471768e-01 1.251830e-01 2.646908e-01 2.408116e-01 3.066209e-01 5.077729e-01 3.910521e-01 5.000907e-01 6.319225e-01 4.306160e-01 3.576271e-01 4.297269e-01 4.870846e-01
<GCONST> 1.038564e+02
<MIXTURE> 5 1.835312e-01
<MEAN> 39
 -2.673150e+00 -8.021723e-02 8.689542e-01 -4.087774e-01 -4.474424e-01 1.452589e+00 -4.260868e-01 -5.642480e-01 6.091210e-01 2.234852e-01 -6.456344e-01 7.188969e-01 1.703673e+00 6.456586e-01 7.125054e-02 1.917815e-01 -2.027801e-01 -4.217416e-02 1.748555e-01 -5.114358e-02 -1.596244e-01 3.348448e-01 6.471555e-02 -2.026636e-02 8.842934e-02 -6.761547e-01 -1.516823e-02 2.459217e-02 -5.987047e-02 6.630938e-02 3.287366e-02 -1.187558e-01 6.252363e-02 1.040270e-01 -2.622454e-02 3.016361e-03 4.002497e-02 -4.578296e-02 4.413444e-03
<VARIANCE> 39
 1.335723e+01 5.252422e+00 9.989933e+00 9.507771e+00 1.428904e+01 2.187003e+01 1.826593e+01 2.390084e+01 2.446561e+01 1.916125e+01 1.827573e+01 1.818237e+01 1.129110e+01 1.843162e-01 3.262439e-01 6.366510e-01 7.417949e-01 9.500097e-01 1.314471e+00 1.306803e+00 1.455549e+00 1.675793e+00 1.459735e+00 1.337944e+00 1.357460e+00 1.041721e-01 8.759141e-02 7.423063e-02 1.372647e-01 1.624523e-01 2.083497e-01 3.050992e-01 2.893241e-01 3.418761e-01 3.879308e-01 3.274738e-01 2.894339e-01 3.028647e-01 7.417610e-02
<GCONST> 8.221175e+01
<MIXTURE> 6 1.060935e-01
<MEAN> 39
 -2.996134e+00 2.704894e-02 -4.158721e-01 4.556710e-01 -3.491701e-01 3.145155e-01 1.422430e-01 -9.992535e-02 5.234118e-01 -3.845639e-01 -4.261034e-01 3.368864e-01 2.247269e+00 -6.438775e-01 -8.875564e-02 -1.962109e-01 1.535842e-01 -7.861844e-02 -1.160581e-01 5.224237e-02 -1.344486e-02 -3.211521e-01 -2.253771e-01 -5.634263e-02 -5.839147e-02 6.650941e-01 8.833575e-02 -6.035424e-03 9.485346e-02 -6.775615e-02 1.397232e-02 8.448992e-02 -3.998844e-02 -3.049379e-02 -1.504759e-02 3.474715e-02 -5.667531e-04 -2.632269e-03 -7.216526e-02
<VARIANCE> 39
 2.216426e+01 7.129557e+00 1.430249e+01 1.167714e+01 1.670323e+01 2.484146e+01 2.115145e+01 2.493503e+01 2.695422e+01 2.107902e+01 1.818953e+01 1.924304e+01 1.920382e+01 1.261729e+00 7.142869e-01 1.278658e+00 1.247015e+00 1.720687e+00 3.379962e+00 2.275400e+00 3.438671e+00 2.814142e+00 2.275636e+00 2.001051e+00 2.422151e+00 7.791340e-01 5.471945e-01 1.251833e-01 2.646903e-01 2.408090e-01 3.066229e-01 5.077754e-01 3.910507e-01 5.001007e-01 6.319296e-01 4.306083e-01 3.576207e-01 4.297155e-01 4.870951e-01
<GCONST> 1.038564e+02
<MIXTURE> 7 1.060831e-01
<MEAN> 39
 -2.994892e+00 2.718693e-02 -4.154014e-01 4.553351e-01 -3.495696e-01 3.151091e-01 1.420559e-01 -1.006166e-01 5.244096e-01 -3.846201e-01 -4.263692e-01 3.374041e-01 2.246075e+00 -6.440727e-01 -8.870252e-02 -1.962280e-01 1.536673e-01 -7.858899e-02 -1.163788e-01 5.228927e-02 -1.311050e-02 -3.212916e-01 -2.252406e-01 -5.622118e-02 -5.850113e-02 6.652074e-01 8.811498e-02 -6.061752e-03 9.475821e-02 -6.768481e-02 1.403355e-02 8.437449e-02 -3.995309e-02 -3.037889e-02 -1.522295e-02 3.474260e-02 -5.269385e-04 -2.712283e-03 -7.194317e-02
<VARIANCE> 39
 2.216691e+01 7.129691e+00 1.430232e+01 1.167714e+01 1.670367e+01 2.484236e+01 2.115163e+01 2.493650e+01 2.695510e+01 2.107854e+01 1.818967e+01 1.924330e+01 1.920493e+01 1.261834e+00 7.143041e-01 1.278669e+00 1.247045e+00 1.720702e+00 3.380177e+00 2.275459e+00 3.439137e+00 2.814395e+00 2.275635e+00 2.001127e+00 2.422248e+00 7.791639e-01 5.472637e-01 1.251844e-01 2.646935e-01 2.408056e-01 3.066307e-01 5.078098e-01 3.910604e-01 5.001464e-01 6.319723e-01 4.306099e-01 3.576232e-01 4.297053e-01 4.871390e-01
<GCONST> 1.038578e+02
<MIXTURE> 8 7.005505e-02
<MEAN> 39
 -4.128477e+00 7.578883e-01 -3.349900e-01 1.743219e+00 2.019430e-01 -3.700032e+00 8.691779e-01 4.323328e+00 -1.832241e+00 1.386518e+00 1.071530e+00 -1.010561e+00 2.835418e+00 -2.865362e+00 -3.019874e-01 -5.689255e-01 4.639569e-01 3.220016e-01 -8.442643e-01 -1.333812e-01 9.846832e-01 -1.595238e+00 1.982056e-01 1.188809e-02 -3.844201e-01 2.763171e+00 3.341929e-01 -1.061203e-01 2.671306e-02 -2.490394e-01 -3.990636e-02 6.712806e-01 -1.391100e-01 -6.260345e-01 2.522181e-01 -2.776361e-01 -2.345866e-01 1.545244e-01 -1.928403e-01
<VARIANCE> 39
 4.006467e+01 8.221397e+00 1.295696e+01 1.223063e+01 1.742933e+01 3.227446e+01 2.547542e+01 3.457787e+01 3.300008e+01 1.977501e+01 1.916038e+01 1.978858e+01 2.985168e+01 1.796790e+00 8.654225e-01 1.684931e+00 1.428943e+00 2.486265e+00 4.165251e+00 3.272378e+00 4.155400e+00 3.737306e+00 3.276356e+00 2.536577e+00 2.800172e+00 1.055514e+00 7.136032e-01 1.373804e-01 2.144550e-01 2.331674e-01 3.245345e-01 5.299925e-01 4.609220e-01 6.212488e-01 5.847175e-01 3.773296e-01 3.786756e-01 4.175738e-01 5.739986e-01
<GCONST> 1.100161e+02
<STATE> 4
<NUMMIXES> 8
<MIXTURE> 1 1.554940e-01
<MEAN> 39
 6.664014e+00 -1.376534e+00 -2.475860e+00 -2.324291e+00 -2.703639e+00 -5.966411e+00 -4.853794e+00 -4.241289e+00 -4.368484e+00 -2.364883e+00 -1.993888e-01 -1.339115e+00 -2.674779e-01 2.289364e-01 -7.210340e-03 1.557012e-01 1.858986e-01 3.062036e-01 2.240911e-01 2.416856e-01 1.596372e-01 1.091781e-01 1.718479e-01 1.723745e-01 -2.934988e-02 -4.764115e-01 1.434425e-02 6.153140e-02 1.120869e-01 1.450676e-01 1.930763e-01 2.029075e-01 2.531143e-01 2.239156e-01 1.754805e-01 1.414697e-01 9.983877e-02 7.029121e-02 1.868436e-02
<VARIANCE> 39
 6.199297e+01 2.200182e+01 2.903592e+01 1.913128e+01 2.126924e+01 2.365924e+01 2.278727e+01 3.300076e+01 2.355416e+01 2.352852e+01 2.641640e+01 2.139222e+01 5.432240e+01 2.178640e-01 3.089126e-01 6.096147e-01 6.727518e-01 1.018746e+00 1.188075e+00 1.312642e+00 1.564750e+00 1.609845e+00 1.380899e+00 1.393263e+00 1.301235e+00 1.627720e-01 3.316637e-02 5.422916e-02 1.284428e-01 1.243268e-01 1.883657e-01 2.289924e-01 2.635874e-01 2.899299e-01 3.399385e-01 2.697572e-01 2.790260e-01 2.617625e-01 1.395423e-02
<GCONST> 8.615688e+01
<MIXTURE> 2 2.033221e-01
<MEAN> 39
 3.853634e+00 4.735356e-01 2.176833e-01 2.647386e-01 6.562539e-01 4.443146e-01 8.136890e-01 -4.061596e-02 2.874229e-01 3.565600e-01 2.378116e-01 8.790037e-02 -3.579757e+00 4.674645e-01 -1.167614e-01 -7.837699e-02 -4.057168e-03 7.584550e-02 -1.107315e-01 -3.560299e-02 8.079742e-02 -2.212092e-02 4.020923e-02 1.216803e-01 -8.362080e-02 -3.661011e-01 -2.272316e-02 -1.497361e-02 -4.236390e-02 -3.125079e-02 -4.931269e-02 -7.855916e-02 -5.393022e-02 -3.399390e-02 -5.063708e-02 -3.660821e-02 -1.638102e-02 -1.676461e-02 1.086877e-02
<VARIANCE> 39
 4.158684e+01 9.569434e+00 1.216830e+01 1.186653e+01 1.438595e+01 2.372918e+01 1.883565e+01 2.399781e+01 2.352053e+01 1.878255e+01 2.068340e+01 1.756072e+01 2.507649e+01 2.282301e-01 3.301569e-01 5.487746e-01 6.905024e-01 9.408996e-01 1.272088e+00 1.386037e+00 1.486160e+00 1.457011e+00 1.402413e+00 1.339689e+00 1.328462e+00 9.591021e-02 3.872040e-02 5.917832e-02 1.013124e-01 1.287874e-01 1.788038e-01 2.360473e-01 2.638431e-01 2.927537e-01 2.731033e-01 2.784865e-01 2.689812e-01 2.650965e-01 1.489200e-02
<GCONST> 8.051587e+01
<MIXTURE> 3 2.033249e-01
<MEAN> 39
 3.853649e+00 4.735328e-01 2.176867e-01 2.647396e-01 6.562499e-01 4.443010e-01 8.136758e-01 -4.063948e-02 2.874012e-01 3.565376e-01 2.378043e-01 8.789784e-02 -3.579761e+00 4.674642e-01 -1.167609e-01 -7.837699e-02 -4.058132e-03 7.584429e-02 -1.107325e-01 -3.560494e-02 8.079598e-02 -2.212084e-02 4.020835e-02 1.216798e-01 -8.362024e-02 -3.661013e-01 -2.272312e-02 -1.497360e-02 -4.236419e-02 -3.125111e-02 -4.931275e-02 -7.855887e-02 -5.392892e-02 -3.399118e-02 -5.063429e-02 -3.660556e-02 -1.637970e-02 -1.676487e-02 1.086868e-02
<VARIANCE> 39
 4.158695e+01 9.569467e+00 1.216831e+01 1.186659e+01 1.438603e+01 2.372916e+01 1.883572e+01 2.399788e+01 2.352064e+01 1.878252e+01 2.068336e+01 1.756076e+01 2.507656e+01 2.282297e-01 3.301569e-01 5.487748e-01 6.905034e-01 9.409007e-01 1.272088e+00 1.386041e+00 1.486163e+00 1.457011e+00 1.402411e+00 1.339687e+00 1.328463e+00 9.591015e-02 3.872017e-02 5.917816e-02 1.013123e-01 1.287876e-01 1.788042e-01 2.360467e-01 2.638436e-01 2.927537e-01 2.731033e-01 2.784854e-01 2.689802e-01 2.650962e-01 1.489190e-02
<GCONST> 8.051587e+01
<MIXTURE> 4 5.825537e-02
<MEAN> 39
 7.920518e-01 4.240720e-01 -4.862256e-02 2.673975e-01 8.203660e-01 2.006418e-02 9.649596e-01 5.360312e-01 -8.084644e-02 -6.793936e-02 1.632608e-01 7.223700e-02 -1.294517e+00 -6.529589e-01 2.144512e-01 7.358312e-02 -2.266582e-02 -1.804302e-01 2.149304e-02 9.083156e-02 -1.107596e-01 7.273832e-02 -1.594048e-01 -1.099188e-01 1.360109e-01 4.799724e-01 4.411074e-02 -1.997850e-03 4.988415e-03 -4.244402e-02 -7.228435e-02 -7.934570e-02 -1.176454e-01 -5.464819e-02 -4.531975e-02 -2.626783e-02 -6.248559e-03 -1.407742e-02 4.122112e-02
<VARIANCE> 39
 4.181798e+01 9.373533e+00 1.110464e+01 1.274106e+01 1.752684e+01 2.628401e+01 2.355337e+01 2.495220e+01 2.180848e+01 2.287115e+01 2.155014e+01 2.085662e+01 2.218633e+01 1.716222e+00 7.817827e-01 1.000089e+00 1.161801e+00 1.584143e+00 2.600507e+00 2.294866e+00 2.293600e+00 2.140946e+00 2.004388e+00 1.919926e+00 2.098791e+00 6.991372e-01 5.838490e-01 1.531954e-01 1.845895e-01 2.263202e-01 2.866593e-01 4.281304e-01 4.467082e-01 3.771942e-01 4.154124e-01 4.260947e-01 3.819850e-01 4.012890e-01 3.022353e-01
<GCONST> 1.022703e+02
<MIXTURE> 5 2.033267e-01
<MEAN> 39
 3.854421e+00 4.733250e-01 2.176772e-01 2.647350e-01 6.564481e-01 4.439963e-01 8.136744e-01 -4.034923e-02 2.874390e-01 3.565309e-01 2.381537e-01 8.770388e-02 -3.580315e+00 4.674495e-01 -1.167616e-01 -7.839283e-02 -4.060371e-03 7.584014e-02 -1.107608e-01 -3.561976e-02 8.079433e-02 -2.214239e-02 4.020193e-02 1.216925e-01 -8.363146e-02 -3.660911e-01 -2.272868e-02 -1.496834e-02 -4.236058e-02 -3.125308e-02 -4.931778e-02 -7.855437e-02 -5.393115e-02 -3.400312e-02 -5.064042e-02 -3.661088e-02 -1.638990e-02 -1.676250e-02 1.087305e-02
<VARIANCE> 39
 4.158940e+01 9.569734e+00 1.216845e+01 1.186688e+01 1.438649e+01 2.372917e+01 1.883567e+01 2.399880e+01 2.352192e+01 1.878273e+01 2.068429e+01 1.756119e+01 2.507817e+01 2.282284e-01 3.301601e-01 5.487767e-01 6.904982e-01 9.408935e-01 1.272069e+00 1.386014e+00 1.486154e+00 1.457025e+00 1.402416e+00 1.339676e+00 1.328454e+00 9.591023e-02 3.872057e-02 5.917889e-02 1.013127e-01 1.287875e-01 1.788040e-01 2.360450e-01 2.638410e-01 2.927586e-01 2.731084e-01 2.784879e-01 2.689801e-01 2.650931e-01 1.489192e-02
<GCONST> 8.051627e+01
<MIXTURE> 6 5.825205e-02
<MEAN> 39
 7.933308e-01 4.237773e-01 -4.915381e-02 2.677553e-01 8.209884e-01 1.926991e-02 9.652252e-01 5.363441e-01 -8.172929e-02 -6.780387e-02 1.636562e-01 7.137900e-02 -1.295273e+00 -6.525241e-01 2.143194e-01 7.355268e-02 -2.267206e-02 -1.803966e-01 2.154250e-02 9.081391e-02 -1.108069e-01 7.274938e-02 -1.593559e-01 -1.098957e-01 1.360184e-01 4.796425e-01 4.399925e-02 -1.957235e-03 5.042973e-03 -4.248159e-02 -7.234740e-02 -7.926391e-02 -1.176510e-01 -5.465415e-02 -4.519115e-02 -2.626726e-02 -6.270662e-03 -1.395194e-02 4.125888e-02
<VARIANCE> 39
 4.181936e+01 9.374722e+00 1.110423e+01 1.274148e+01 1.752827e+01 2.628327e+01 2.355250e+01 2.495246e+01 2.180901e+01 2.287278e+01 2.155042e+01 2.085758e+01 2.218702e+01 1.715222e+00 7.816273e-01 9.999841e-01 1.161676e+00 1.583909e+00 2.600017e+00 2.294517e+00 2.293212e+00 2.140769e+00 2.004239e+00 1.919768e+00 2.098502e+00 6.987293e-01 5.837709e-01 1.531887e-01 1.845806e-01 2.263207e-01 2.866692e-01 4.281251e-01 4.466935e-01 3.771603e-01 4.154154e-01 4.260910e-01 3.819688e-01 4.012775e-01 3.021755e-01
<GCONST> 1.022675e+02
<MIXTURE> 7 5.825340e-02
<MEAN> 39
 7.938974e-01 4.236225e-01 -4.910153e-02 2.677159e-01 8.211135e-01 1.937707e-02 9.652769e-01 5.365784e-01 -8.154865e-02 -6.756729e-02 1.638895e-01 7.140187e-02 -1.295726e+00 -6.526521e-01 2.143668e-01 7.354481e-02 -2.266695e-02 -1.804085e-01 2.147636e-02 9.084333e-02 -1.107607e-01 7.273537e-02 -1.593626e-01 -1.098833e-01 1.360178e-01 4.797294e-01 4.392470e-02 -1.938607e-03 5.039714e-03 -4.247554e-02 -7.236610e-02 -7.928561e-02 -1.176584e-01 -5.468037e-02 -4.522205e-02 -2.630514e-02 -6.299315e-03 -1.396408e-02 4.132258e-02
<VARIANCE> 39
 4.181980e+01 9.374728e+00 1.110390e+01 1.274084e+01 1.752805e+01 2.628292e+01 2.355229e+01 2.495293e+01 2.180873e+01 2.287222e+01 2.155024e+01 2.085760e+01 2.218718e+01 1.715429e+00 7.816672e-01 1.000004e+00 1.161709e+00 1.583946e+00 2.600134e+00 2.294618e+00 2.293325e+00 2.140848e+00 2.004267e+00 1.919773e+00 2.098576e+00 6.988161e-01 5.837937e-01 1.531936e-01 1.845820e-01 2.263182e-01 2.866685e-01 4.281314e-01 4.466973e-01 3.771691e-01 4.154131e-01 4.260879e-01 3.819660e-01 4.012779e-01 3.021978e-01
<GCONST> 1.022682e+02
<MIXTURE> 8 5.975830e-02
<MEAN> 39
 4.045273e+00 -2.429249e-02 -2.757283e+00 -1.892113e+00 -2.705248e+00 -7.765992e+00 -3.950552e+00 -1.112190e+00 -4.226598e+00 -1.761393e+00 8.130100e-01 -1.030497e+00 3.640306e+00 -8.236539e-01 1.481324e-01 -3.020711e-01 -2.440918e-01 -6.124291e-01 -5.811487e-01 -8.946311e-01 -6.424536e-01 -3.660377e-01 -5.247347e-01 -3.250169e-01 -1.202084e-02 1.744588e+00 -2.283855e-02 -4.173273e-02 1.282995e-01 6.564776e-02 1.981853e-01 4.649535e-01 1.811833e-01 -5.172766e-02 1.956628e-01 1.055469e-01 -4.806385e-02 5.993036e-02 -2.585584e-01
<VARIANCE> 39
 7.766820e+01 3.238794e+01 2.764703e+01 2.243624e+01 2.807639e+01 3.961608e+01 3.428742e+01 3.301364e+01 3.479954e+01 2.761003e+01 2.356861e+01 2.318710e+01 6.816541e+01 7.021356e+00 2.305010e+00 2.326787e+00 1.713683e+00 2.396192e+00 4.824177e+00 3.422680e+00 2.434442e+00 3.187083e+00 2.581232e+00 2.140663e+00 2.373099e+00 4.991711e+00 7.717968e-01 3.232632e-01 3.339862e-01 2.731903e-01 4.047283e-01 7.197120e-01 6.041564e-01 4.165491e-01 5.740269e-01 4.458087e-01 3.479089e-01 3.952491e-01 9.529080e-01
<GCONST> 1.216611e+02
<TRANSP> 5
 0.000000e+00 1.000000e+00 0.000000e+00 0.000000e+00 0.000000e+00
 0.000000e+00 9.681380e-01 3.186207e-02 0.000000e+00 0.000000e+00
 0.000000e+00 0.000000e+00 9.947277e-01 5.272317e-03 0.000000e+00
 0.000000e+00 0.000000e+00 0.000000e+00 9.876817e-01 1.231829e-02
 0.000000e+00 0.000000e+00 0.000000e+00 0.000000e+00 0.000000e+00
<ENDHMM>
~h "cm"
<BEGINHMM>
<NUMSTATES> 5
<STATE> 2
<NUMMIXES> 8
<MIXTURE> 1 1.195730e-01
<MEAN> 39
 -1.207437e+00 -1.623475e+00 -1.144329e+00 -2.494134e+00 -3.103781e+00 -3.190777e+00 -2.562090e+00 -2.082311e+00 -1.429082e+00 -5.644420e-01 -4.203643e-01 1.804688e-01 1.297914e+00 1.741225e-01 1.350369e-01 9.563402e-02 2.077912e-01 3.206193e-01 3.628048e-01 2.787237e-01 1.759333e-01 9.638211e-02 1.416846e-01 2.107097e-01 1.851699e-01 -1.659491e-02 -2.371949e-02 7.763851e-02 1.412757e-01 2.591512e-01 3.137175e-01 3.834761e-01 3.608086e-01 3.306198e-01 2.691348e-01 1.292414e-01 1.117618e-01 1.651021e-02 -1.461520e-01
<VARIANCE> 39
 1.583858e+01 1.549092e+01 1.235096e+01 1.470806e+01 1.179747e+01 1.204913e+01 1.302988e+01 1.462016e+01 1.728689e+01 1.600127e+01 1.653263e+01 1.418488e+01 4.440039e+01 2.909381e-01 4.722314e-01 6.944725e-01 8.707803e-01 1.028632e+00 1.192784e+00 1.277437e+00 1.470405e+00 1.578792e+00 1.432969e+00 1.515444e+00 1.323431e+00 5.260069e-01 6.859821e-02 1.186955e-01 1.467789e-01 1.701875e-01 2.037053e-01 2.232149e-01 2.383379e-01 2.918198e-01 3.270108e-01 3.605327e-01 3.013795e-01 3.072731e-01 1.122401e-01
<GCONST> 8.571767e+01
<MIXTURE> 2 1.850337e-01
<MEAN> 39
 -3.070168e+00 7.059859e-02 -2.257102e-01 -7.201978e-01 2.767382e-01 1.641233e+00 1.672750e+00 2.271174e+00 1.758790e+00 1.934065e+00 2.060853e+00 1.023356e+00 -3.562013e+00 -4.737601e-02 -3.384039e-02 -7.640509e-03 5.866925e-02 1.510908e-01 1.776952e-01 1.066137e-01 8.435193e-02 4.195683e-02 5.429995e-02 4.247805e-02 1.945059e-02 9.752661e-02 8.769250e-03 3.611207e-03 4.291853e-03 -6.421267e-03 -3.986896e-02 -8.021334e-02 -8.263196e-02 -8.212821e-02 -7.200803e-02 -6.066846e-02 -5.436086e-02 -2.748112e-02 1.778248e-02
<VARIANCE> 39
 1.222813e+01 1.061251e+01 1.070902e+01 1.309496e+01 1.261663e+01 1.183869e+01 1.333668e+01 1.551705e+01 1.570380e+01 1.415419e+01 1.520166e+01 1.245506e+01 2.151841e+01 1.876685e-01 3.255512e-01 4.732924e-01 7.231774e-01 8.733006e-01 1.073498e+00 1.172400e+00 1.351817e+00 1.391564e+00 1.340455e+00 1.304401e+00 1.150270e+00 1.725229e-01 2.732096e-02 5.217517e-02 8.062488e-02 1.261451e-01 1.648535e-01 2.137963e-01 2.296892e-01 2.567867e-01 2.603333e-01 2.604491e-01 2.503420e-01 2.155648e-01 1.123858e-02
<GCONST> 7.392549e+01
<MIXTURE> 3 1.850312e-01
<MEAN> 39
 -3.070141e+00 7.058541e-02 -2.256748e-01 -7.201371e-01 2.767952e-01 1.641263e+00 1.672805e+00 2.271211e+00 1.758825e+00 1.934064e+00 2.060838e+00 1.023347e+00 -3.562037e+00 -4.737613e-02 -3.383712e-02 -7.638541e-03 5.866945e-02 1.510918e-01 1.776995e-01 1.066157e-01 8.435581e-02 4.196246e-02 5.430891e-02 4.248633e-02 1.945304e-02 9.752281e-02 8.769628e-03 3.611890e-03 4.289901e-03 -6.426574e-03 -3.987630e-02 -8.022013e-02 -8.263931e-02 -8.213473e-02 -7.201327e-02 -6.067105e-02 -5.436272e-02 -2.748232e-02 1.778333e-02
<VARIANCE> 39
 1.222839e+01 1.061268e+01 1.070914e+01 1.309509e+01 1.261679e+01 1.183892e+01 1.333684e+01 1.551724e+01 1.570394e+01 1.415451e+01 1.520202e+01 1.245531e+01 2.151879e+01 1.876696e-01 3.255541e-01 4.732957e-01 7.231845e-01 8.733094e-01 1.073506e+00 1.172402e+00 1.351822e+00 1.391569e+00 1.340461e+00 1.304405e+00 1.150273e+00 1.725269e-01 2.732126e-02 5.217553e-02 8.062570e-02 1.261463e-01 1.648560e-01 2.137998e-01 2.296919e-01 2.567893e-01 2.603360e-01 2.604539e-01 2.503469e-01 2.155686e-01 1.123869e-02
<GCONST> 7.392596e+01
<MIXTURE> 4 9.091516e-02
<MEAN> 39
 -2.339173e+00 4.656964e-01 8.856710e-01 4.031218e-01 4.576035e-01 6.098120e-01 7.529020e-01 1.125068e+00 1.016595e+00 7.821293e-01 9.356126e-01 5.101005e-01 -4.376585e+00 2.829108e-01 8.835854e-02 -1.089990e-01 -2.664133e-01 -4.569868e-01 -5.436612e-01 -4.783118e-01 -3.551398e-01 -2.382391e-01 -2.591566e-01 -3.442707e-01 -2.277066e-01 6.846660e-01 2.099571e-02 -7.370164e-02 -1.066865e-01 -1.036334e-01 -9.263781e-02 -5.992403e-02 -1.230365e-02 3.016986e-02 1.600868e-02 1.763182e-02 1.746482e-02 3.765086e-03 9.956513e-02
<VARIANCE> 39
 1.338692e+01 1.166091e+01 1.037249e+01 1.276026e+01 1.308357e+01 1.344911e+01 1.587925e+01 1.732597e+01 1.618604e+01 1.497410e+01 1.645263e+01 1.391775e+01 2.945434e+01 6.826258e-01 7.093365e-01 8.287274e-01 1.042474e+00 1.147339e+00 1.378576e+00 1.661357e+00 1.698362e+00 1.650850e+00 1.563988e+00 1.436476e+00 1.330103e+00 6.979719e-01 8.123425e-02 1.049241e-01 1.285944e-01 1.657255e-01 2.186132e-01 2.741554e-01 3.053806e-01 3.058834e-01 3.011501e-01 2.817236e-01 2.811810e-01 2.619758e-01 7.552022e-02
<GCONST> 8.711107e+01
<MIXTURE> 5 1.850304e-01
<MEAN> 39
 -3.070040e+00 7.068142e-02 -2.255746e-01 -7.200235e-01 2.768340e-01 1.641224e+00 1.672697e+00 2.271040e+00 1.758642e+00 1.933888e+00 2.060708e+00 1.023288e+00 -3.562042e+00 -4.737880e-02 -3.383535e-02 -7.640473e-03 5.866582e-02 1.510898e-01 1.777016e-01 1.066192e-01 8.436319e-02 4.196893e-02 5.431662e-02 4.249557e-02 1.945553e-02 9.751645e-02 8.765869e-03 3.605563e-03 4.282353e-03 -6.434135e-03 -3.987862e-02 -8.021741e-02 -8.262728e-02 -8.211702e-02 -7.199259e-02 -6.065157e-02 -5.435034e-02 -2.747770e-02 1.778275e-02
<VARIANCE> 39
 1.222842e+01 1.061249e+01 1.070905e+01 1.309499e+01 1.261675e+01 1.183881e+01 1.333671e+01 1.551700e+01 1.570374e+01 1.415429e+01 1.520188e+01 1.245526e+01 2.151868e+01 1.876682e-01 3.255504e-01 4.732909e-01 7.231759e-01 8.733014e-01 1.073504e+00 1.172397e+00 1.351811e+00 1.391559e+00 1.340454e+00 1.304403e+00 1.150276e+00 1.725248e-01 2.732081e-02 5.217469e-02 8.062411e-02 1.261444e-01 1.648555e-01 2.137982e-01 2.296888e-01 2.567850e-01 2.603314e-01 2.604501e-01 2.503445e-01 2.155671e-01 1.123858e-02
<GCONST> 7.392556e+01
<MIXTURE> 6 9.091613e-02
<MEAN> 39
 -2.339236e+00 4.656565e-01 8.856232e-01 4.030579e-01 4.575566e-01 6.097882e-01 7.529069e-01 1.125125e+00 1.016684e+00 7.822587e-01 9.357465e-01 5.101886e-01 -4.376611e+00 2.829152e-01 8.835286e-02 -1.090074e-01 -2.664222e-01 -4.569966e-01 -5.436713e-01 -4.783135e-01 -3.551404e-01 -2.382388e-01 -2.591539e-01 -3.442730e-01 -2.277043e-01 6.846774e-01 2.099901e-02 -7.369870e-02 -1.066813e-01 -1.036272e-01 -9.263235e-02 -5.991931e-02 -1.230414e-02 3.016306e-02 1.599788e-02 1.761653e-02 1.745005e-02 3.753943e-03 9.956598e-02
<VARIANCE> 39
 1.338692e+01 1.166106e+01 1.037253e+01 1.276040e+01 1.308360e+01 1.344918e+01 1.587922e+01 1.732600e+01 1.618609e+01 1.497395e+01 1.645256e+01 1.391774e+01 2.945416e+01 6.826296e-01 7.093375e-01 8.287271e-01 1.042480e+00 1.147344e+00 1.378580e+00 1.661367e+00 1.698380e+00 1.650859e+00 1.563993e+00 1.436477e+00 1.330108e+00 6.979713e-01 8.123534e-02 1.049252e-01 1.285959e-01 1.657276e-01 2.186146e-01 2.741562e-01 3.053811e-01 3.058837e-01 3.011503e-01 2.817229e-01 2.811815e-01 2.619769e-01 7.552061e-02
<GCONST> 8.711120e+01
<MIXTURE> 7 9.091470e-02
<MEAN> 39
 -2.339320e+00 4.655557e-01 8.856293e-01 4.031116e-01 4.576958e-01 6.099620e-01 7.530826e-01 1.125205e+00 1.016755e+00 7.822964e-01 9.357840e-01 5.102089e-01 -4.376668e+00 2.829102e-01 8.835634e-02 -1.089906e-01 -2.663954e-01 -4.569696e-01 -5.436419e-01 -4.782782e-01 -3.551180e-01 -2.382251e-01 -2.591469e-01 -3.442686e-01 -2.277003e-01 6.846646e-01 2.100667e-02 -7.369338e-02 -1.066810e-01 -1.036358e-01 -9.265237e-02 -5.994941e-02 -1.232875e-02 3.015284e-02 1.598973e-02 1.760810e-02 1.744086e-02 3.748872e-03 9.957460e-02
<VARIANCE> 39
 1.338741e+01 1.166147e+01 1.037292e+01 1.276065e+01 1.308400e+01 1.344954e+01 1.587983e+01 1.732646e+01 1.618653e+01 1.497445e+01 1.645299e+01 1.391794e+01 2.945452e+01 6.826287e-01 7.093392e-01 8.287374e-01 1.042488e+00 1.147353e+00 1.378596e+00 1.661387e+00 1.698395e+00 1.650884e+00 1.563988e+00 1.436462e+00 1.330109e+00 6.979688e-01 8.123954e-02 1.049292e-01 1.286001e-01 1.657298e-01 2.186226e-01 2.741646e-01 3.053930e-01 3.058918e-01 3.011574e-01 2.817306e-01 2.811869e-01 2.619795e-01 7.552616e-02
<GCONST> 8.711205e+01
<MIXTURE> 8 5.257879e-02
<MEAN> 39
 -2.725252e+00 -2.692364e+00 -1.054563e+00 -1.696254e+00 -1.950082e+00 -2.628250e+00 -9.949289e-01 1.043529e+00 7.288669e-01 -6.019817e-01 -4.532147e-01 -4.912280e-02 1.858221e+00 5.494667e-02 -8.049806e-01 -2.004026e-01 -5.577099e-01 -5.937692e-01 -9.703835e-01 -5.867361e-01 -5.623907e-01 -4.577896e-01 -4.481598e-01 -4.617921e-01 1.685758e-01 2.214896e+00 1.251843e-01 1.385076e-01 1.150852e-01 1.020686e-01 2.136073e-01 2.761676e-01 1.626332e-01 -6.647640e-02 -6.309820e-02 1.207992e-01 1.701775e-01 8.681650e-02 -2.361415e-01
<VARIANCE> 39
 2.059077e+01 2.452922e+01 1.909423e+01 2.598743e+01 2.668939e+01 2.426036e+01 2.797051e+01 2.551460e+01 2.348207e+01 2.150271e+01 1.907534e+01 2.133157e+01 6.306584e+01 1.957797e+00 2.059638e+00 2.016361e+00 2.168560e+00 2.466205e+00 2.690892e+00 2.507132e+00 2.546756e+00 2.372921e+00 2.027247e+00 2.163730e+00 2.415143e+00 2.684860e+00 2.352785e-01 3.233692e-01 3.472602e-01 4.055528e-01 4.829391e-01 5.093027e-01 5.133501e-01 4.514034e-01 4.677373e-01 3.997189e-01 3.949578e-01 4.603620e-01 7.638223e-01
<GCONST> 1.133060e+02
<STATE> 3
<NUMMIXES> 8
<MIXTURE> 1 1.204728e-01
<MEAN> 39
 9.993725e-01 -1.686366e+00 -1.930478e+00 -2.826903e+00 -3.225385e+00 -3.635110e+00 -3.812277e+00 -3.058217e+00 -2.323108e+00 -1.884222e+00 -1.830836e+00 -7.938302e-01 5.814080e+00 9.981387e-02 1.004990e-01 1.529584e-01 3.469487e-01 3.845280e-01 3.586719e-01 2.852028e-01 9.856191e-02 4.827091e-02 5.779063e-03 3.077128e-02 9.549705e-03 -1.226575e-01 9.111064e-03 9.632101e-02 1.561908e-01 2.559862e-01 3.157768e-01 3.548917e-01 3.929651e-01 2.825720e-01 2.083285e-01 1.618742e-01 1.214184e-01 6.286863e-02 -7.162707e-02
<VARIANCE> 39
 8.249620e+00 6.229864e+00 6.408774e+00 7.427382e+00 8.385728e+00 8.900285e+00 9.974288e+00 1.268204e+01 1.296236e+01 1.162412e+01 1.166832e+01 1.182869e+01 2.054425e+01 1.841482e-01 3.283581e-01 4.579287e-01 6.029608e-01 8.428688e-01 1.005262e+00 1.254132e+00 1.423287e+00 1.448972e+00 1.304623e+00 1.246893e+00 1.206633e+00 2.574528e-01 3.712712e-02 5.910435e-02 8.683982e-02 1.138924e-01 1.588257e-01 1.830645e-01 2.189334e-01 2.404516e-01 2.718804e-01 2.533202e-01 2.319633e-01 2.211739e-01 3.855553e-02
<GCONST> 7.148568e+01
<MIXTURE> 2 1.493824e-01
<MEAN> 39
 8.089378e-02 -6.002275e-01 -4.628877e-01 -1.919508e-01 1.970755e-01 4.532813e-01 4.314686e-01 5.443301e-01 8.201123e-01 1.084355e+00 9.151221e-01 6.058456e-01 3.160676e+00 2.429125e-02 4.491903e-02 6.834430e-02 1.763525e-01 2.047458e-01 2.317064e-01 2.185836e-01 1.398066e-01 1.043575e-01 8.154860e-02 6.747787e-02 1.674036e-02 -1.287921e-01 5.477115e-03 1.168698e-02 5.358673e-03 -2.723226e-02 -5.383446e-02 -8.896806e-02 -1.148487e-01 -1.056652e-01 -1.681943e-01 -1.979505e-01 -1.797031e-01 -1.105590e-01 -7.407968e-03
<VARIANCE> 39
 5.589415e+00 5.127547e+00 5.493248e+00 7.673872e+00 9.058911e+00 1.016056e+01 1.151380e+01 1.197791e+01 1.153632e+01 1.038603e+01 1.082212e+01 1.011205e+01 1.402463e+01 1.606176e-01 2.738710e-01 4.128277e-01 6.267517e-01 7.767496e-01 9.824378e-01 1.131353e+00 1.152122e+00 1.277450e+00 1.255334e+00 1.224078e+00 1.149825e+00 1.859355e-01 2.740399e-02 4.945172e-02 7.876983e-02 1.199548e-01 1.555791e-01 2.002766e-01 2.259672e-01 2.231656e-01 2.311252e-01 2.251023e-01 2.236069e-01 2.163849e-01 1.808573e-02
<GCONST> 6.727689e+01
<MIXTURE> 3 1.493883e-01
<MEAN> 39
 8.085596e-02 -6.002184e-01 -4.628250e-01 -1.918246e-01 1.972451e-01 4.534628e-01 4.316146e-01 5.444109e-01 8.201084e-01 1.084301e+00 9.150415e-01 6.057725e-01 3.160608e+00 2.429027e-02 4.492092e-02 6.834542e-02 1.763556e-01 2.047493e-01 2.317061e-01 2.185873e-01 1.398098e-01 1.043558e-01 8.154315e-02 6.747034e-02 1.673479e-02 -1.287924e-01 5.478858e-03 1.168517e-02 5.351281e-03 -2.724764e-02 -5.385524e-02 -8.899201e-02 -1.148687e-01 -1.056763e-01 -1.681939e-01 -1.979423e-01 -1.796905e-01 -1.105484e-01 -7.405855e-03
<VARIANCE> 39
 5.589483e+00 5.127610e+00 5.493330e+00 7.673967e+00 9.059196e+00 1.016094e+01 1.151403e+01 1.197806e+01 1.153643e+01 1.038618e+01 1.082233e+01 1.011221e+01 1.402480e+01 1.606183e-01 2.738730e-01 4.128326e-01 6.267580e-01 7.767534e-01 9.824516e-01 1.131370e+00 1.152137e+00 1.277464e+00 1.255344e+00 1.224084e+00 1.149828e+00 1.859345e-01 2.740430e-02 4.945228e-02 7.877038e-02 1.199564e-01 1.555827e-01 2.002828e-01 2.259711e-01 2.231684e-01 2.311289e-01 2.251058e-01 2.236108e-01 2.163888e-01 1.808582e-02
<GCONST> 6.727740e+01
<MIXTURE> 4 1.208021e-01
<MEAN> 39
 6.835780e-01 -6.532402e-02 -1.272636e-01 -1.331749e-01 -2.257231e-01 -4.777561e-01 -9.427384e-01 -1.086959e+00 -1.698772e+00 -2.019568e+00 -2.037042e+00 -1.162943e+00 3.685655e+00 6.062661e-02 -2.165354e-02 -8.532757e-02 -1.702560e-01 -2.611433e-01 -3.024814e-01 -2.980932e-01 -2.422999e-01 -1.556610e-01 -1.063871e-01 -7.381114e-02 -2.657316e-02 3.685795e-03 -2.306189e-02 -3.790237e-02 -5.302659e-02 -4.805658e-02 -3.216233e-02 -8.847865e-03 3.659852e-02 7.570031e-02 1.720182e-01 2.211297e-01 2.031563e-01 1.274941e-01 -1.733914e-02
<VARIANCE> 39
 5.641844e+00 5.691872e+00 5.815625e+00 8.160418e+00 9.459678e+00 9.874261e+00 1.090562e+01 1.199025e+01 1.124517e+01 1.023723e+01 1.080861e+01 1.070110e+01 1.486440e+01 1.929285e-01 2.865602e-01 4.384205e-01 6.253974e-01 7.917835e-01 9.366651e-01 1.091027e+00 1.144310e+00 1.265872e+00 1.313115e+00 1.296776e+00 1.123866e+00 2.572474e-01 2.632157e-02 5.021476e-02 8.138033e-02 1.177273e-01 1.557318e-01 1.891075e-01 2.101313e-01 2.165010e-01 2.272133e-01 2.208006e-01 2.179117e-01 2.225704e-01 2.101529e-02
<GCONST> 6.810011e+01
<MIXTURE> 5 1.493867e-01
<MEAN> 39
 8.091053e-02 -6.002003e-01 -4.628664e-01 -1.919347e-01 1.970695e-01 4.532491e-01 4.314114e-01 5.442719e-01 8.200703e-01 1.084337e+00 9.151344e-01 6.058636e-01 3.160667e+00 2.429059e-02 4.491960e-02 6.834522e-02 1.763549e-01 2.047493e-01 2.317122e-01 2.185894e-01 1.398102e-01 1.043606e-01 8.155116e-02 6.747939e-02 1.674166e-02 -1.287931e-01 5.475760e-03 1.168445e-02 5.356175e-03 -2.723385e-02 -5.383377e-02 -8.896427e-02 -1.148416e-01 -1.056581e-01 -1.681893e-01 -1.979488e-01 -1.797057e-01 -1.105620e-01 -7.408090e-03
<VARIANCE> 39
 5.589409e+00 5.127525e+00 5.493267e+00 7.673871e+00 9.058968e+00 1.016053e+01 1.151378e+01 1.197789e+01 1.153628e+01 1.038602e+01 1.082205e+01 1.011202e+01 1.402453e+01 1.606182e-01 2.738717e-01 4.128284e-01 6.267539e-01 7.767513e-01 9.824414e-01 1.131359e+00 1.152129e+00 1.277454e+00 1.255331e+00 1.224075e+00 1.149825e+00 1.859353e-01 2.740383e-02 4.945159e-02 7.876989e-02 1.199547e-01 1.555799e-01 2.002757e-01 2.259666e-01 2.231648e-01 2.311241e-01 2.251027e-01 2.236055e-01 2.163844e-01 1.808560e-02
<GCONST> 6.727686e+01
<MIXTURE> 6 1.208017e-01
<MEAN> 39
 6.835756e-01 -6.532349e-02 -1.272544e-01 -1.331491e-01 -2.256988e-01 -4.777395e-01 -9.427530e-01 -1.087017e+00 -1.698863e+00 -2.019632e+00 -2.037082e+00 -1.162956e+00 3.685655e+00 6.062709e-02 -2.165206e-02 -8.532441e-02 -1.702523e-01 -2.611410e-01 -3.024788e-01 -2.980876e-01 -2.422941e-01 -1.556555e-01 -1.063830e-01 -7.381184e-02 -2.657571e-02 3.684971e-03 -2.306116e-02 -3.790287e-02 -5.302806e-02 -4.805958e-02 -3.216534e-02 -8.850430e-03 3.659922e-02 7.570725e-02 1.720297e-01 2.211391e-01 2.031615e-01 1.274961e-01 -1.733894e-02
<VARIANCE> 39
 5.641943e+00 5.691984e+00 5.815708e+00 8.160515e+00 9.459793e+00 9.874428e+00 1.090583e+01 1.199051e+01 1.124552e+01 1.023748e+01 1.080898e+01 1.070142e+01 1.486455e+01 1.929307e-01 2.865633e-01 4.384253e-01 6.254048e-01 7.917896e-01 9.366804e-01 1.091031e+00 1.144318e+00 1.265881e+00 1.313122e+00 1.296779e+00 1.123868e+00 2.572498e-01 2.632202e-02 5.021562e-02 8.138118e-02 1.177291e-01 1.557337e-01 1.891103e-01 2.101338e-01 2.165053e-01 2.272193e-01 2.208058e-01 2.179186e-01 2.225759e-01 2.101575e-02
<GCONST> 6.810071e+01
<MIXTURE> 7 1.208017e-01
<MEAN> 39
 6.835756e-01 -6.532349e-02 -1.272544e-01 -1.331491e-01 -2.256988e-01 -4.777395e-01 -9.427530e-01 -1.087017e+00 -1.698863e+00 -2.019632e+00 -2.037082e+00 -1.162956e+00 3.685655e+00 6.062709e-02 -2.165206e-02 -8.532441e-02 -1.702523e-01 -2.611410e-01 -3.024788e-01 -2.980876e-01 -2.422941e-01 -1.556555e-01 -1.063830e-01 -7.381184e-02 -2.657571e-02 3.684971e-03 -2.306116e-02 -3.790287e-02 -5.302806e-02 -4.805958e-02 -3.216534e-02 -8.850430e-03 3.659922e-02 7.570725e-02 1.720297e-01 2.211391e-01 2.031615e-01 1.274961e-01 -1.733894e-02
<VARIANCE> 39
 5.641943e+00 5.691984e+00 5.815708e+00 8.160515e+00 9.459793e+00 9.874428e+00 1.090583e+01 1.199051e+01 1.124552e+01 1.023748e+01 1.080898e+01 1.070142e+01 1.486455e+01 1.929307e-01 2.865633e-01 4.384253e-01 6.254048e-01 7.917896e-01 9.366804e-01 1.091031e+00 1.144318e+00 1.265881e+00 1.313122e+00 1.296779e+00 1.123868e+00 2.572498e-01 2.632202e-02 5.021562e-02 8.138118e-02 1.177291e-01 1.557337e-01 1.891103e-01 2.101338e-01 2.165053e-01 2.272193e-01 2.208058e-01 2.179186e-01 2.225759e-01 2.101575e-02
<GCONST> 6.810071e+01
<MIXTURE> 8 6.895625e-02
<MEAN> 39
 2.961727e-01 -1.108169e+00 -1.037943e+00 -1.610999e+00 -1.098714e+00 -1.729430e+00 -1.629904e-01 9.467596e-01 6.454772e-01 4.853373e-01 -3.478581e-01 3.791494e-03 4.754748e+00 -5.049793e-02 -2.813645e-01 -1.789045e-01 -3.742084e-01 -3.637151e-01 -3.445224e-01 -3.102077e-01 -1.116600e-01 -3.637625e-02 -3.350717e-02 -2.012450e-01 -1.005727e-01 7.611188e-01 2.400414e-02 2.776735e-02 6.903026e-02 9.289467e-02 6.337573e-02 8.597053e-02 -7.879261e-02 -1.848422e-01 -1.533446e-01 -1.231436e-01 -6.305890e-02 -3.456303e-02 -7.185663e-02
<VARIANCE> 39
 9.551263e+00 9.111343e+00 1.152866e+01 1.498345e+01 1.442121e+01 1.448756e+01 1.411329e+01 1.833434e+01 1.863583e+01 1.732773e+01 1.693037e+01 1.404045e+01 3.417931e+01 6.573259e-01 7.370096e-01 1.014268e+00 1.273096e+00 1.328710e+00 1.476177e+00 1.435012e+00 1.758878e+00 1.835985e+00 1.900698e+00 1.499570e+00 1.368362e+00 9.184715e-01 1.166167e-01 1.366253e-01 1.867067e-01 2.618849e-01 2.758657e-01 3.027488e-01 2.692013e-01 3.516149e-01 3.617399e-01 3.656066e-01 3.079263e-01 2.791902e-01 2.020448e-01
<GCONST> 9.191341e+01
<STATE> 4
<NUMMIXES> 8
<MIXTURE> 1 9.313119e-02
<MEAN> 39
 6.727589e-01 1.045945e+00 6.887100e-01 4.301496e-01 -7.702163e-01 -1.593110e+00 -7.829108e-01 -1.092394e+00 4.435936e-01 1.545781e+00 2.464067e+00 1.563091e+00 -6.108660e+00 3.536637e-02 1.181211e-01 3.219248e-01 3.464820e-01 3.582442e-01 3.762007e-01 4.367910e-01 3.736892e-01 3.821764e-01 1.671656e-01 7.803347e-02 7.725039e-02 -3.566717e-01 5.535647e-02 7.429654e-02 1.284115e-01 2.412489e-01 2.947717e-01 3.107129e-01 2.250079e-01 1.303239e-01 -2.883523e-02 -2.818677e-01 -4.004782e-01 -2.746198e-01 4.058917e-03
<VARIANCE> 39
 1.239359e+01 9.014981e+00 1.221318e+01 1.302400e+01 1.084196e+01 1.295488e+01 1.555230e+01 1.725879e+01 1.179566e+01 1.194394e+01 1.090891e+01 1.331228e+01 2.284157e+01 2.963901e-01 3.760164e-01 6.115162e-01 7.163103e-01 8.569833e-01 1.219453e+00 1.357055e+00 1.388015e+00 1.450766e+00 1.490906e+00 1.436171e+00 1.159062e+00 2.893997e-01 4.864721e-02 7.617188e-02 1.217417e-01 1.889061e-01 1.705265e-01 1.929355e-01 2.343278e-01 3.374514e-01 2.632161e-01 2.684417e-01 2.033200e-01 2.256183e-01 4.375161e-02
<GCONST> 7.857062e+01
<MIXTURE> 2 1.377464e-01
<MEAN> 39
 2.364680e+00 1.878030e+00 1.984689e+00 3.095831e+00 2.584295e+00 2.049789e+00 2.228396e+00 7.006097e-01 1.114607e+00 5.561960e-01 4.935395e-01 6.565934e-02 -6.943318e+00 8.810628e-02 1.285706e-01 1.727032e-01 2.121472e-01 2.103546e-01 2.092132e-01 1.989175e-01 3.945863e-02 4.494726e-03 -1.878579e-02 7.157482e-03 -1.458821e-02 -5.500155e-01 -4.860967e-03 -3.231863e-03 -2.947231e-02 -7.366732e-02 -1.163030e-01 -1.376123e-01 -1.756631e-01 -1.642427e-01 -1.732920e-01 -1.165594e-01 -6.799331e-02 -2.882888e-02 2.616114e-02
<VARIANCE> 39
 1.080712e+01 6.703616e+00 6.164057e+00 6.998889e+00 8.822116e+00 1.065437e+01 1.054497e+01 1.168204e+01 1.173544e+01 1.146836e+01 1.154300e+01 1.079848e+01 2.208501e+01 1.654845e-01 2.761930e-01 3.793124e-01 5.706194e-01 8.164201e-01 1.003678e+00 1.049678e+00 1.191093e+00 1.362720e+00 1.343576e+00 1.159183e+00 1.072724e+00 1.129070e-01 2.103813e-02 4.444715e-02 6.303368e-02 9.679427e-02 1.384409e-01 1.699419e-01 1.820140e-01 1.998714e-01 2.344623e-01 2.363186e-01 2.123657e-01 2.143381e-01 8.872015e-03
<GCONST> 6.610880e+01
<MIXTURE> 3 1.377438e-01
<MEAN> 39
 2.364761e+00 1.878059e+00 1.984735e+00 3.095895e+00 2.584371e+00 2.049824e+00 2.228365e+00 7.004842e-01 1.114471e+00 5.560884e-01 4.934920e-01 6.565174e-02 -6.943367e+00 8.811081e-02 1.285736e-01 1.727072e-01 2.121561e-01 2.103655e-01 2.092234e-01 1.989176e-01 3.945503e-02 4.487769e-03 -1.878955e-02 7.154277e-03 -1.459182e-02 -5.500219e-01 -4.863244e-03 -3.233818e-03 -2.947475e-02 -7.367110e-02 -1.163087e-01 -1.376168e-01 -1.756577e-01 -1.642296e-01 -1.732748e-01 -1.165444e-01 -6.798597e-02 -2.882567e-02 2.616122e-02
<VARIANCE> 39
 1.080695e+01 6.703465e+00 6.164002e+00 6.998846e+00 8.822075e+00 1.065426e+01 1.054480e+01 1.168185e+01 1.173526e+01 1.146814e+01 1.154282e+01 1.079838e+01 2.208506e+01 1.654818e-01 2.761892e-01 3.793092e-01 5.706171e-01 8.164220e-01 1.003676e+00 1.049671e+00 1.191082e+00 1.362715e+00 1.343569e+00 1.159173e+00 1.072721e+00 1.129044e-01 2.103762e-02 4.444586e-02 6.303245e-02 9.679362e-02 1.384399e-01 1.699400e-01 1.820119e-01 1.998696e-01 2.344584e-01 2.363141e-01 2.123605e-01 2.143348e-01 8.871827e-03
<GCONST> 6.610835e+01
<MIXTURE> 4 1.340507e-01
<MEAN> 39
 3.325806e+00 1.677034e+00 1.056086e+00 1.907895e+00 4.728886e-01 -5.740523e-01 -1.122157e+00 -2.284146e+00 -2.054546e+00 -1.899290e+00 -1.586716e+00 -1.009943e+00 -4.607069e+00 7.341489e-02 8.791243e-02 9.495227e-02 7.817975e-02 6.403306e-02 -5.583926e-02 -6.582223e-02 -1.047745e-01 -4.521843e-02 3.776897e-02 8.385246e-02 4.232536e-02 -5.892164e-01 -3.327770e-02 -2.657976e-02 -6.840034e-03 5.967070e-03 5.674019e-02 9.024037e-02 1.492008e-01 1.714592e-01 2.088984e-01 1.755667e-01 1.459413e-01 8.549000e-02 1.037523e-02
<VARIANCE> 39
 1.055664e+01 7.336991e+00 7.122822e+00 7.788959e+00 9.394839e+00 9.886445e+00 9.358499e+00 1.163336e+01 1.168202e+01 1.094317e+01 1.188637e+01 1.144392e+01 2.067930e+01 1.644294e-01 2.729488e-01 4.148699e-01 5.907958e-01 7.654473e-01 8.806196e-01 1.086513e+00 1.235401e+00 1.267665e+00 1.218626e+00 1.284878e+00 1.244998e+00 1.254440e-01 2.181014e-02 4.635391e-02 7.992859e-02 1.194276e-01 1.445284e-01 1.597459e-01 1.700694e-01 2.078314e-01 2.227022e-01 2.292070e-01 2.346178e-01 2.235152e-01 1.026348e-02
<GCONST> 6.711427e+01
<MIXTURE> 5 1.377501e-01
<MEAN> 39
 2.364652e+00 1.878034e+00 1.984702e+00 3.095866e+00 2.584368e+00 2.049901e+00 2.228498e+00 7.006590e-01 1.114602e+00 5.561085e-01 4.934222e-01 6.556208e-02 -6.943329e+00 8.810709e-02 1.285696e-01 1.726990e-01 2.121437e-01 2.103485e-01 2.092098e-01 1.989157e-01 3.945856e-02 4.495164e-03 -1.878333e-02 7.162386e-03 -1.458487e-02 -5.500132e-01 -4.860652e-03 -3.230842e-03 -2.947213e-02 -7.367145e-02 -1.163126e-01 -1.376269e-01 -1.756752e-01 -1.642476e-01 -1.732900e-01 -1.165444e-01 -6.797469e-02 -2.881362e-02 2.616066e-02
<VARIANCE> 39
 1.080722e+01 6.703552e+00 6.164056e+00 6.998919e+00 8.822089e+00 1.065434e+01 1.054506e+01 1.168213e+01 1.173541e+01 1.146829e+01 1.154286e+01 1.079837e+01 2.208516e+01 1.654839e-01 2.761922e-01 3.793082e-01 5.706161e-01 8.164161e-01 1.003672e+00 1.049675e+00 1.191085e+00 1.362720e+00 1.343571e+00 1.159176e+00 1.072719e+00 1.129081e-01 2.103812e-02 4.444711e-02 6.303349e-02 9.679396e-02 1.384406e-01 1.699415e-01 1.820143e-01 1.998727e-01 2.344619e-01 2.363162e-01 2.123636e-01 2.143357e-01 8.872011e-03
<GCONST> 6.610873e+01
<MIXTURE> 6 1.340470e-01
<MEAN> 39
 3.325656e+00 1.677012e+00 1.056028e+00 1.907828e+00 4.728217e-01 -5.740722e-01 -1.122108e+00 -2.284016e+00 -2.054469e+00 -1.899358e+00 -1.586876e+00 -1.010054e+00 -4.607043e+00 7.340607e-02 8.790664e-02 9.494447e-02 7.816911e-02 6.402497e-02 -5.584280e-02 -6.581746e-02 -1.047874e-01 -4.522077e-02 3.777558e-02 8.385385e-02 4.232530e-02 -5.891966e-01 -3.327387e-02 -2.657564e-02 -6.831409e-03 5.975239e-03 5.674897e-02 9.024414e-02 1.491967e-01 1.714468e-01 2.088906e-01 1.755795e-01 1.459660e-01 8.550528e-02 1.037403e-02
<VARIANCE> 39
 1.055689e+01 7.337117e+00 7.122988e+00 7.789002e+00 9.395045e+00 9.886646e+00 9.358601e+00 1.163348e+01 1.168194e+01 1.094346e+01 1.188667e+01 1.144406e+01 2.067863e+01 1.644346e-01 2.729584e-01 4.148807e-01 5.908049e-01 7.654561e-01 8.806344e-01 1.086530e+00 1.235418e+00 1.267678e+00 1.218645e+00 1.284904e+00 1.245001e+00 1.254579e-01 2.181130e-02 4.635546e-02 7.993126e-02 1.194297e-01 1.445313e-01 1.597489e-01 1.700717e-01 2.078344e-01 2.227022e-01 2.292136e-01 2.346255e-01 2.235169e-01 1.026448e-02
<GCONST> 6.711511e+01
<MIXTURE> 7 1.340465e-01
<MEAN> 39
 3.325695e+00 1.677034e+00 1.056034e+00 1.907817e+00 4.728101e-01 -5.740719e-01 -1.122110e+00 -2.284008e+00 -2.054426e+00 -1.899268e+00 -1.586751e+00 -1.009967e+00 -4.607053e+00 7.340935e-02 8.790659e-02 9.494547e-02 7.816859e-02 6.402069e-02 -5.585182e-02 -6.583112e-02 -1.047923e-01 -4.522886e-02 3.776712e-02 8.384939e-02 4.232687e-02 -5.892023e-01 -3.327581e-02 -2.657798e-02 -6.833112e-03 5.977181e-03 5.675092e-02 9.024397e-02 1.491956e-01 1.714445e-01 2.088842e-01 1.755666e-01 1.459483e-01 8.549336e-02 1.037384e-02
<VARIANCE> 39
 1.055674e+01 7.337038e+00 7.122916e+00 7.788933e+00 9.394922e+00 9.886516e+00 9.358541e+00 1.163329e+01 1.168178e+01 1.094326e+01 1.188647e+01 1.144398e+01 2.067872e+01 1.644331e-01 2.729554e-01 4.148796e-01 5.908032e-01 7.654533e-01 8.806338e-01 1.086522e+00 1.235407e+00 1.267665e+00 1.218629e+00 1.284888e+00 1.244996e+00 1.254533e-01 2.181094e-02 4.635480e-02 7.993017e-02 1.194281e-01 1.445297e-01 1.597467e-01 1.700701e-01 2.078318e-01 2.226993e-01 2.292096e-01 2.346204e-01 2.235151e-01 1.026417e-02
<GCONST> 6.711464e+01
<MIXTURE> 8 9.147736e-02
<MEAN> 39
 -7.435197e-01 1.408715e+00 2.297188e+00 3.058613e+00 2.535392e+00 1.708163e+00 1.970980e+00 1.247273e+00 1.208991e+00 -2.392623e-01 -4.905486e-01 -8.519884e-01 -6.331320e+00 -1.936169e-01 -3.023454e-01 -3.060735e-01 -5.271343e-01 -5.347099e-01 -4.505538e-01 -1.484853e-01 -4.096869e-02 -4.077560e-02 -2.055988e-01 -1.525768e-01 1.624553e-02 7.307798e-02 4.375645e-02 -3.018833e-02 -9.435213e-02 -1.233920e-01 -1.645028e-01 -1.107940e-01 -9.751574e-02 -1.280224e-01 -6.877422e-02 2.788760e-02 6.294170e-02 9.398419e-02 -7.484634e-03
<VARIANCE> 39
 1.462777e+01 1.151154e+01 1.275786e+01 1.356620e+01 1.166245e+01 1.298180e+01 1.367064e+01 1.665719e+01 1.577621e+01 1.648105e+01 1.587678e+01 1.484297e+01 1.912387e+01 5.158803e-01 4.756446e-01 7.527871e-01 1.091686e+00 1.074498e+00 1.093629e+00 1.219796e+00 1.873571e+00 1.533092e+00 1.518137e+00 1.597593e+00 1.322011e+00 5.059879e-01 6.869796e-02 1.048291e-01 1.531056e-01 1.982237e-01 1.967696e-01 2.219503e-01 2.381518e-01 3.740004e-01 2.977737e-01 2.885627e-01 2.689754e-01 2.498184e-01 7.739837e-02
<GCONST> 8.498606e+01
<TRANSP> 5
 0.000000e+00 1.000000e+00 0.000000e+00 0.000000e+00 0.000000e+00
 0.000000e+00 9.686353e-01 3.136477e-02 0.000000e+00 0.000000e+00
 0.000000e+00 0.000000e+00 9.841257e-01 1.587425e-02 0.000000e+00
 0.000000e+00 0.000000e+00 0.000000e+00 9.595491e-01 4.045094e-02
 0.000000e+00 0.000000e+00 0.000000e+00 0.000000e+00 0.000000e+00
<ENDHMM>
~h "co"
<BEGINHMM>
<NUMSTATES> 5
<STATE> 2
<NUMMIXES> 8
<MIXTURE> 1 5.135390e-02
<MEAN> 39
 2.068912e+00 6.224341e+00 -1.090900e+00 -2.407213e+00 6.694525e+00 1.072439e+01 7.306469e+00 1.140988e+01 5.985287e+00 3.983513e+00 3.042768e+00 4.768274e+00 -1.904576e+01 -3.623157e-03 1.127467e-02 1.428081e-01 1.861411e-01 -7.918926e-02 -3.860828e-01 2.152657e-02 5.940950e-01 7.736403e-02 -2.071404e-01 4.709227e-02 2.647834e-01 1.625539e-01 -5.441480e-03 -1.663717e-01 9.239116e-02 -1.500416e-02 -6.699049e-01 -5.636964e-01 -3.027911e-01 3.374001e-02 6.231184e-02 9.119809e-02 -2.434010e-01 -1.173791e-01 4.127698e-01
<VARIANCE> 39
 1.819722e+00 7.164411e+00 1.360311e+01 1.687030e+01 1.225068e+01 1.252017e+01 2.008759e+01 2.260223e+01 1.070536e+01 1.745444e+01 1.254354e+01 2.495735e+01 5.231353e+00 1.429758e-01 2.453169e-01 3.336282e-01 9.190701e-01 1.462344e+00 1.698189e+00 1.884103e+00 2.486891e+00 9.697111e-01 1.712416e+00 1.120157e+00 1.832133e+00 9.386137e-02 4.155066e-02 6.006349e-02 9.848949e-02 1.571347e-01 1.991331e-01 1.608888e-01 4.938249e-01 5.810606e-01 1.980209e-01 2.406943e-01 1.634002e-01 3.483063e-01 1.884586e-01
<GCONST> 7.781552e+01
<MIXTURE> 2 1.738772e-01
<MEAN> 39
 -4.565577e+00 3.274432e-01 1.029243e+00 -2.368950e+00 -7.002175e+00 -2.148292e+00 3.069889e+00 3.546005e+00 -1.634053e-01 -3.061992e+00 -1.476419e+00 6.597540e-01 8.510600e+00 -8.120733e-01 -7.386348e-02 1.240212e-01 6.258158e-02 1.056645e+00 4.410423e-01 6.827714e-01 -4.964148e-01 -9.248036e-01 -7.360831e-02 6.494892e-01 2.869113e-01 1.284857e+00 2.212480e-01 -1.519841e-01 -2.173970e-01 1.051768e-01 5.165479e-02 9.312043e-02 -7.123080e-02 1.181989e-01 3.693205e-01 3.657992e-01 1.208166e-01 5.476588e-02 -5.426282e-01
<VARIANCE> 39
 7.354108e+00 9.894798e+00 1.544548e+01 1.509689e+01 2.761644e+01 3.435197e+01 3.319680e+01 4.009316e+01 1.906610e+01 2.402011e+01 2.144092e+01 2.151545e+01 2.725889e+01 5.878270e-01 1.107006e+00 1.077898e+00 1.381359e+00 1.733582e+00 1.949641e+00 2.174055e+00 2.298290e+00 2.412529e+00 2.603264e+00 1.415109e+00 1.948458e+00 1.147037e+00 8.421108e-02 1.873454e-01 2.051342e-01 2.080252e-01 3.110267e-01 4.387696e-01 4.229285e-01 3.680276e-01 3.778408e-01 3.468511e-01 3.429739e-01 3.759049e-01 1.362024e-01
<GCONST> 9.958566e+01
<MIXTURE> 3 1.740027e-01
<MEAN> 39
 -4.565639e+00 3.327376e-01 1.024805e+00 -2.373781e+00 -7.010603e+00 -2.159518e+00 3.064792e+00 3.536384e+00 -1.652543e-01 -3.063144e+00 -1.481155e+00 6.536149e-01 8.522368e+00 -8.124821e-01 -7.346681e-02 1.246184e-01 6.128602e-02 1.058841e+00 4.416412e-01 6.840511e-01 -4.949402e-01 -9.260596e-01 -7.455690e-02 6.494026e-01 2.864924e-01 1.284704e+00 2.211544e-01 -1.529483e-01 -2.172597e-01 1.058848e-01 5.151143e-02 9.375121e-02 -7.121483e-02 1.189479e-01 3.700137e-01 3.663848e-01 1.215574e-01 5.523782e-02 -5.430572e-01
<VARIANCE> 39
 7.343771e+00 9.877211e+00 1.543478e+01 1.509536e+01 2.761281e+01 3.432937e+01 3.320114e+01 4.013224e+01 1.906380e+01 2.401438e+01 2.143023e+01 2.152783e+01 2.722317e+01 5.871673e-01 1.107037e+00 1.077857e+00 1.382997e+00 1.733987e+00 1.949423e+00 2.176406e+00 2.298024e+00 2.412667e+00 2.602467e+00 1.415720e+00 1.949593e+00 1.146576e+00 8.409768e-02 1.871440e-01 2.052343e-01 2.080769e-01 3.109698e-01 4.383840e-01 4.229133e-01 3.679610e-01 3.780037e-01 3.468445e-01 3.434311e-01 3.763368e-01 1.361141e-01
<GCONST> 9.958115e+01
<MIXTURE> 4 1.092704e-01
<MEAN> 39
 -8.303874e-01 3.327042e-01 -2.257551e+00 -2.112442e-01 -6.155593e+00 1.490588e+00 1.023132e+00 4.639642e+00 7.695515e+00 3.643935e+00 2.402757e+00 1.593090e+00 -4.943360e+00 -4.375612e-01 -4.849154e-01 5.805895e-01 -4.930514e-01 -1.430779e+00 -1.554636e+00 -6.190385e-01 -7.447075e-01 -5.721993e-01 -1.151872e+00 -1.018928e+00 -3.821552e-01 2.752993e+00 -1.114990e-01 2.394741e-02 7.346129e-02 4.077102e-02 2.765150e-01 1.019746e-01 2.433959e-01 4.051562e-02 -2.419054e-01 -3.923485e-02 9.357291e-02 2.721808e-02 1.817902e-01
<VARIANCE> 39
 1.840819e+01 1.992797e+01 3.861378e+01 2.460982e+01 1.186385e+02 5.192136e+01 7.124012e+01 7.600732e+01 4.835632e+01 3.930756e+01 4.456536e+01 3.597583e+01 7.755494e+01 1.453552e+00 1.561946e+00 2.527801e+00 1.995303e+00 7.223892e+00 3.644613e+00 4.183852e+00 3.889378e+00 4.479579e+00 3.285407e+00 2.454957e+00 2.552589e+00 2.822291e+00 1.500466e-01 1.734081e-01 2.507337e-01 1.905376e-01 6.835205e-01 5.392911e-01 6.376396e-01 6.230956e-01 5.508282e-01 4.832473e-01 4.636038e-01 4.840935e-01 4.736820e-01
<GCONST> 1.229262e+02
<MIXTURE> 5 1.738164e-01
<MEAN> 39
 -4.567427e+00 3.251367e-01 1.030849e+00 -2.364153e+00 -6.993406e+00 -2.139314e+00 3.077490e+00 3.549743e+00 -1.635488e-01 -3.060432e+00 -1.471009e+00 6.644367e-01 8.504851e+00 -8.104274e-01 -7.471770e-02 1.231270e-01 6.366723e-02 1.055509e+00 4.403518e-01 6.819858e-01 -4.963358e-01 -9.219142e-01 -7.122632e-02 6.492086e-01 2.873328e-01 1.282919e+00 2.214345e-01 -1.513217e-01 -2.172759e-01 1.043718e-01 5.099126e-02 9.184922e-02 -7.207081e-02 1.172206e-01 3.684052e-01 3.648400e-01 1.198917e-01 5.427833e-02 -5.418151e-01
<VARIANCE> 39
 7.360633e+00 9.904782e+00 1.545207e+01 1.510295e+01 2.761149e+01 3.438476e+01 3.319616e+01 4.007561e+01 1.907977e+01 2.401122e+01 2.143515e+01 2.151401e+01 2.728361e+01 5.873232e-01 1.104933e+00 1.077525e+00 1.379503e+00 1.732658e+00 1.950117e+00 2.171713e+00 2.297891e+00 2.410463e+00 2.602535e+00 1.414935e+00 1.946719e+00 1.145559e+00 8.418792e-02 1.872969e-01 2.048169e-01 2.079494e-01 3.106903e-01 4.386833e-01 4.228319e-01 3.679997e-01 3.778316e-01 3.467247e-01 3.422996e-01 3.756278e-01 1.360351e-01
<GCONST> 9.957187e+01
<MIXTURE> 6 1.092207e-01
<MEAN> 39
 -8.267647e-01 3.273689e-01 -2.269617e+00 -2.187754e-01 -6.216308e+00 1.451109e+00 9.749387e-01 4.602888e+00 7.691656e+00 3.611711e+00 2.377846e+00 1.564521e+00 -4.880973e+00 -4.402918e-01 -4.807083e-01 5.843300e-01 -4.953680e-01 -1.414450e+00 -1.550847e+00 -6.119791e-01 -7.494630e-01 -5.825864e-01 -1.159253e+00 -1.018309e+00 -3.813412e-01 2.754980e+00 -1.126632e-01 2.437593e-02 7.345273e-02 4.168727e-02 2.802465e-01 1.049906e-01 2.476040e-01 4.346323e-02 -2.414933e-01 -3.591491e-02 9.690887e-02 3.112200e-02 1.772987e-01
<VARIANCE> 39
 1.833253e+01 1.987519e+01 3.855162e+01 2.460139e+01 1.185344e+02 5.199419e+01 7.132700e+01 7.621639e+01 4.840009e+01 3.939281e+01 4.467421e+01 3.592419e+01 7.757718e+01 1.449620e+00 1.561673e+00 2.529723e+00 1.992512e+00 7.222491e+00 3.633810e+00 4.177403e+00 3.883586e+00 4.479902e+00 3.278297e+00 2.457235e+00 2.551587e+00 2.818910e+00 1.495203e-01 1.730225e-01 2.510214e-01 1.908962e-01 6.818033e-01 5.392836e-01 6.382983e-01 6.241991e-01 5.500758e-01 4.844235e-01 4.644080e-01 4.839535e-01 4.730709e-01
<GCONST> 1.229126e+02
<MIXTURE> 7 1.093487e-01
<MEAN> 39
 -8.421217e-01 3.361322e-01 -2.235523e+00 -2.044767e-01 -6.079654e+00 1.535419e+00 1.081080e+00 4.677378e+00 7.699968e+00 3.681256e+00 2.429605e+00 1.628410e+00 -5.008235e+00 -4.349332e-01 -4.894812e-01 5.765987e-01 -4.908376e-01 -1.449342e+00 -1.558349e+00 -6.260741e-01 -7.392149e-01 -5.608707e-01 -1.143433e+00 -1.019421e+00 -3.823369e-01 2.751104e+00 -1.095192e-01 2.373726e-02 7.307532e-02 3.976759e-02 2.719727e-01 9.858175e-02 2.385858e-01 3.781819e-02 -2.420917e-01 -4.279601e-02 8.981644e-02 2.266042e-02 1.862353e-01
<VARIANCE> 39
 1.857312e+01 1.998436e+01 3.872857e+01 2.461276e+01 1.187753e+02 5.187877e+01 7.115165e+01 7.576649e+01 4.828328e+01 3.925548e+01 4.443571e+01 3.604141e+01 7.756431e+01 1.463514e+00 1.563449e+00 2.525950e+00 1.998885e+00 7.229645e+00 3.658570e+00 4.189892e+00 3.896198e+00 4.481315e+00 3.293275e+00 2.453350e+00 2.553221e+00 2.828584e+00 1.516061e-01 1.742435e-01 2.507387e-01 1.902416e-01 6.860998e-01 5.403714e-01 6.370871e-01 6.224596e-01 5.525545e-01 4.822882e-01 4.631077e-01 4.845588e-01 4.752498e-01
<GCONST> 1.229762e+02
<MIXTURE> 8 9.911084e-02
<MEAN> 39
 -1.145285e+00 -5.315149e+00 -7.416373e-01 1.144354e-01 -1.518487e+01 -2.213048e+00 3.556098e+00 9.253218e+00 1.088053e+01 6.866953e+00 -1.715098e+00 1.957314e+00 5.737600e-01 -4.355413e-01 4.661244e-01 -3.588227e-01 -1.070360e+00 -1.868626e+00 -1.658026e+00 -1.396201e+00 -1.422019e+00 -2.179950e+00 -1.901156e+00 -1.221679e+00 -1.838868e+00 4.949634e+00 -2.527015e-01 7.980525e-01 1.151180e-01 -1.187520e-01 1.481610e+00 6.971321e-01 3.243992e-01 -3.554172e-01 -8.558853e-01 -5.106248e-01 4.306026e-01 6.259644e-02 -3.343590e-01
<VARIANCE> 39
 9.504807e+00 2.738690e+01 2.011122e+01 3.439222e+01 2.477963e+01 4.373072e+01 9.494926e+01 5.234974e+01 5.515715e+01 4.244298e+01 3.644432e+01 2.555144e+01 4.549011e+01 7.503477e-01 5.153512e+00 1.456566e+00 2.437994e+00 1.028499e+01 3.231984e+00 4.058271e+00 4.582068e+00 5.863919e+00 2.745874e+00 2.810951e+00 1.925487e+00 2.073708e+00 2.048876e-01 4.605352e-01 4.198948e-01 5.722256e-01 5.668297e-01 6.142867e-01 1.059464e+00 6.971098e-01 8.960811e-01 6.979504e-01 3.792877e-01 6.430065e-01 5.203990e-01
<GCONST> 1.242550e+02
<STATE> 3
<NUMMIXES> 8
<MIXTURE> 1 1.785034e-01
<MEAN> 39
 1.822171e+00 8.860593e-01 8.970925e-01 8.499157e-01 3.111086e+00 -3.409522e-01 -1.865920e+00 -3.623169e+00 -2.498240e+00 -1.612884e-01 4.244989e-01 -3.551006e-01 -2.393295e+00 2.437554e-01 2.720362e-01 3.163514e-01 3.115978e-01 4.448526e-01 3.098424e-01 2.099433e-01 5.169000e-02 -2.619936e-03 7.359008e-02 5.475638e-02 8.061320e-02 -6.747609e-01 -8.052214e-02 -1.332317e-01 -1.909884e-01 -1.959180e-01 -2.274968e-01 -1.541998e-02 1.262003e-01 2.446388e-01 2.560320e-01 1.866845e-01 1.274322e-01 8.004713e-02 3.588683e-03
<VARIANCE> 39
 8.033874e+00 5.394653e+00 1.075710e+01 1.221706e+01 1.473089e+01 1.797266e+01 3.134987e+01 2.402847e+01 2.227948e+01 2.021343e+01 2.017252e+01 2.255349e+01 3.625323e+01 1.668905e-01 2.468041e-01 4.537131e-01 7.577667e-01 9.675972e-01 1.040519e+00 1.414841e+00 1.619069e+00 1.853890e+00 1.441723e+00 1.262569e+00 1.273053e+00 9.278565e-02 2.662166e-02 4.998107e-02 8.271286e-02 1.622052e-01 1.991488e-01 2.255769e-01 2.459690e-01 2.751099e-01 3.371044e-01 2.876827e-01 2.693335e-01 2.655869e-01 1.647479e-02
<GCONST> 7.820116e+01
<MIXTURE> 2 1.551926e-01
<MEAN> 39
 -1.741034e+00 -1.752717e+00 -1.631454e+00 -1.233941e+00 -4.173671e-01 -5.771422e-01 9.538490e-01 -2.984785e-02 2.945528e-01 8.840252e-01 9.392050e-01 5.988209e-01 3.799429e+00 1.662825e-01 -1.150433e-02 -6.289826e-02 9.113013e-02 3.969998e-01 3.305580e-02 -2.089214e-02 -1.273581e-01 -2.171748e-02 1.113729e-01 1.031123e-01 8.022246e-02 -5.780825e-01 6.675655e-02 1.003286e-01 8.778089e-02 6.302987e-02 -4.811189e-02 -7.461745e-02 -1.257839e-01 -1.269833e-01 -1.347137e-01 -1.670533e-01 -1.663509e-01 -9.615079e-02 -6.873127e-03
<VARIANCE> 39
 1.343568e+01 9.149987e+00 1.320369e+01 1.604233e+01 1.854450e+01 1.992688e+01 3.866707e+01 3.222971e+01 2.380752e+01 2.369582e+01 2.265469e+01 2.278230e+01 3.568168e+01 1.799452e-01 3.509223e-01 5.852948e-01 7.704283e-01 1.059107e+00 1.164732e+00 1.381160e+00 1.542525e+00 1.672226e+00 1.637912e+00 1.483624e+00 1.334723e+00 1.284754e-01 3.600847e-02 6.151654e-02 1.071871e-01 1.575868e-01 2.184985e-01 2.427572e-01 2.851409e-01 3.071711e-01 3.578681e-01 3.299268e-01 3.004239e-01 2.714176e-01 2.378283e-02
<GCONST> 8.414018e+01
<MIXTURE> 3 1.551903e-01
<MEAN> 39
 -1.741237e+00 -1.752729e+00 -1.631299e+00 -1.233786e+00 -4.174410e-01 -5.771474e-01 9.539948e-01 -2.981356e-02 2.943508e-01 8.836761e-01 9.390165e-01 5.987704e-01 3.799874e+00 1.662842e-01 -1.150882e-02 -6.290029e-02 9.114234e-02 3.970087e-01 3.303228e-02 -2.091565e-02 -1.273975e-01 -2.174038e-02 1.113732e-01 1.031156e-01 8.023231e-02 -5.780821e-01 6.675287e-02 1.003186e-01 8.776440e-02 6.301221e-02 -4.811257e-02 -7.461854e-02 -1.257828e-01 -1.269729e-01 -1.346864e-01 -1.670135e-01 -1.663203e-01 -9.613200e-02 -6.883324e-03
<VARIANCE> 39
 1.343550e+01 9.149473e+00 1.320353e+01 1.604199e+01 1.854401e+01 1.992631e+01 3.866655e+01 3.222843e+01 2.380655e+01 2.369527e+01 2.265437e+01 2.278220e+01 3.567949e+01 1.799473e-01 3.509222e-01 5.853032e-01 7.704216e-01 1.059104e+00 1.164726e+00 1.381161e+00 1.542505e+00 1.672196e+00 1.637898e+00 1.483626e+00 1.334732e+00 1.284739e-01 3.600681e-02 6.151458e-02 1.071840e-01 1.575830e-01 2.184871e-01 2.427493e-01 2.851285e-01 3.071551e-01 3.578483e-01 3.299145e-01 3.004169e-01 2.714125e-01 2.377833e-02
<GCONST> 8.413916e+01
<MIXTURE> 4 8.691354e-02
<MEAN> 39
 -1.279667e+00 -1.024632e+00 -2.064718e+00 -1.643631e+00 -4.112862e+00 -3.089831e+00 -2.273100e+00 -2.489727e+00 -1.232553e+00 -1.448611e+00 -2.048310e+00 -2.238783e+00 6.718208e+00 2.322497e-01 -4.552632e-02 -1.167396e-01 -2.318899e-01 -2.148328e-02 -7.658058e-02 -5.206172e-01 -1.823469e-01 3.281539e-03 7.069515e-02 5.935458e-02 -2.540592e-01 3.733578e-02 -1.751849e-02 -8.747219e-02 -3.008544e-03 5.723875e-02 1.197077e-01 1.505074e-01 1.410811e-01 1.489944e-01 1.724960e-01 1.750534e-01 1.507232e-01 1.084349e-01 -1.094667e-01
<VARIANCE> 39
 8.133196e+00 1.424489e+01 1.641864e+01 1.713367e+01 2.104568e+01 2.168427e+01 3.506637e+01 3.331148e+01 2.804241e+01 3.043222e+01 2.595841e+01 2.246567e+01 1.772593e+01 5.138667e-01 1.027836e+00 1.094721e+00 1.310628e+00 1.935326e+00 1.792292e+00 2.696642e+00 2.416566e+00 3.163333e+00 2.896962e+00 2.471063e+00 2.013207e+00 3.117828e-01 7.182850e-02 1.640512e-01 1.844200e-01 2.113183e-01 2.880211e-01 2.812046e-01 4.313255e-01 4.201091e-01 5.750285e-01 5.323864e-01 4.102255e-01 3.277069e-01 7.357301e-02
<GCONST> 9.903580e+01
<MIXTURE> 5 1.551957e-01
<MEAN> 39
 -1.741106e+00 -1.752811e+00 -1.631489e+00 -1.234069e+00 -4.178527e-01 -5.776253e-01 9.533308e-01 -3.020547e-02 2.941241e-01 8.834163e-01 9.389578e-01 5.984898e-01 3.800241e+00 1.662949e-01 -1.150881e-02 -6.285780e-02 9.118053e-02 3.970499e-01 3.303683e-02 -2.092964e-02 -1.274168e-01 -2.175724e-02 1.113719e-01 1.031033e-01 8.022776e-02 -5.781183e-01 6.673970e-02 1.003170e-01 8.777844e-02 6.303883e-02 -4.805161e-02 -7.456580e-02 -1.257318e-01 -1.269394e-01 -1.346637e-01 -1.669843e-01 -1.663084e-01 -9.611768e-02 -6.897086e-03
<VARIANCE> 39
 1.343497e+01 9.148433e+00 1.320323e+01 1.604060e+01 1.854280e+01 1.992600e+01 3.866659e+01 3.222736e+01 2.380612e+01 2.369508e+01 2.265427e+01 2.278288e+01 3.567604e+01 1.799383e-01 3.509115e-01 5.853015e-01 7.704030e-01 1.059064e+00 1.164675e+00 1.381137e+00 1.542453e+00 1.672189e+00 1.637879e+00 1.483592e+00 1.334743e+00 1.284679e-01 3.600262e-02 6.151021e-02 1.071802e-01 1.575726e-01 2.184646e-01 2.427356e-01 2.851142e-01 3.071430e-01 3.578363e-01 3.299133e-01 3.004112e-01 2.714108e-01 2.376931e-02
<GCONST> 8.413737e+01
<MIXTURE> 6 8.688659e-02
<MEAN> 39
 -1.279922e+00 -1.028520e+00 -2.068185e+00 -1.647480e+00 -4.115593e+00 -3.089514e+00 -2.274773e+00 -2.486040e+00 -1.226552e+00 -1.443429e+00 -2.044939e+00 -2.239037e+00 6.719456e+00 2.319329e-01 -4.549909e-02 -1.159465e-01 -2.306922e-01 -2.022999e-02 -7.615254e-02 -5.200295e-01 -1.827251e-01 2.579334e-03 7.033592e-02 5.903666e-02 -2.538058e-01 3.686643e-02 -1.732527e-02 -8.689655e-02 -2.533939e-03 5.766101e-02 1.199569e-01 1.503823e-01 1.409642e-01 1.483233e-01 1.713477e-01 1.740353e-01 1.499459e-01 1.081451e-01 -1.094440e-01
<VARIANCE> 39
 8.134844e+00 1.424457e+01 1.642020e+01 1.713542e+01 2.104744e+01 2.169125e+01 3.507619e+01 3.331060e+01 2.804988e+01 3.044913e+01 2.596433e+01 2.247328e+01 1.772865e+01 5.133848e-01 1.027395e+00 1.093941e+00 1.309231e+00 1.933799e+00 1.791299e+00 2.695409e+00 2.416494e+00 3.162654e+00 2.897219e+00 2.470321e+00 2.012339e+00 3.116828e-01 7.181263e-02 1.640510e-01 1.844087e-01 2.112917e-01 2.879785e-01 2.812029e-01 4.313245e-01 4.201104e-01 5.750322e-01 5.324844e-01 4.101073e-01 3.277176e-01 7.354626e-02
<GCONST> 9.903122e+01
<MIXTURE> 7 8.691255e-02
<MEAN> 39
 -1.279839e+00 -1.024319e+00 -2.064314e+00 -1.643084e+00 -4.112267e+00 -3.089657e+00 -2.272630e+00 -2.489776e+00 -1.233146e+00 -1.449391e+00 -2.048719e+00 -2.238650e+00 6.718104e+00 2.323087e-01 -4.541332e-02 -1.166726e-01 -2.318216e-01 -2.151989e-02 -7.669675e-02 -5.206956e-01 -1.825354e-01 3.049444e-03 7.046860e-02 5.918378e-02 -2.541329e-01 3.733109e-02 -1.751860e-02 -8.750864e-02 -3.069455e-03 5.716362e-02 1.196378e-01 1.504873e-01 1.410529e-01 1.490353e-01 1.725985e-01 1.751612e-01 1.508037e-01 1.084558e-01 -1.094480e-01
<VARIANCE> 39
 8.132902e+00 1.424456e+01 1.641755e+01 1.713216e+01 2.104626e+01 2.168335e+01 3.506709e+01 3.331000e+01 2.804013e+01 3.042739e+01 2.595624e+01 2.246554e+01 1.772515e+01 5.138989e-01 1.027789e+00 1.094654e+00 1.310609e+00 1.935358e+00 1.792343e+00 2.696605e+00 2.416514e+00 3.163123e+00 2.896690e+00 2.471049e+00 2.013243e+00 3.117741e-01 7.182674e-02 1.640364e-01 1.844061e-01 2.112994e-01 2.880040e-01 2.811963e-01 4.313143e-01 4.200818e-01 5.749508e-01 5.323024e-01 4.101942e-01 3.277040e-01 7.356746e-02
<GCONST> 9.903404e+01
<MIXTURE> 8 9.519702e-02
<MEAN> 39
 4.426508e-01 -1.540829e+00 -2.112680e-02 5.035632e-01 -4.556971e+00 -1.106512e+00 2.331290e-01 9.257299e-01 3.345652e+00 1.273037e+00 -2.179949e+00 -3.116138e-01 -1.164352e+00 -7.478025e-01 -2.459587e-01 9.156518e-02 1.594454e-02 -1.605277e+00 -2.575406e-01 2.896166e-01 4.970666e-01 1.103219e-01 -6.104701e-01 -6.959406e-01 -2.772027e-01 2.191781e+00 -1.022291e-01 6.597511e-02 1.386999e-02 -9.346808e-02 2.513669e-01 3.789316e-03 1.848823e-02 -1.541814e-01 -2.418278e-01 -6.317492e-02 1.043054e-01 3.291113e-02 1.999662e-01
<VARIANCE> 39
 8.352501e+00 2.239724e+01 1.985387e+01 2.273023e+01 6.515414e+01 2.738460e+01 5.229705e+01 3.852845e+01 6.459806e+01 4.055167e+01 4.386574e+01 3.273444e+01 6.231655e+01 6.959980e-01 3.097469e+00 2.159040e+00 2.694239e+00 7.287800e+00 3.238032e+00 4.659309e+00 4.742456e+00 9.308223e+00 4.005826e+00 4.522177e+00 3.258119e+00 2.785760e+00 1.037996e-01 6.194049e-01 3.250506e-01 4.448795e-01 1.757784e+00 6.226351e-01 7.703797e-01 8.007635e-01 1.731397e+00 7.763768e-01 8.887714e-01 6.347873e-01 7.656826e-01
<GCONST> 1.278929e+02
<STATE> 4
<NUMMIXES> 8
<MIXTURE> 1 7.736654e-02
<MEAN> 39
 2.803453e+00 1.327450e+00 1.716979e+00 1.726241e+00 5.160471e+00 2.988272e+00 2.904355e-01 -6.921217e-01 -2.011833e+00 -7.245488e-01 6.326425e-01 6.123501e-01 -7.064422e+00 3.327405e-01 6.720228e-01 6.988916e-01 8.598996e-01 7.988411e-01 7.101399e-01 6.975914e-01 4.210945e-01 1.143968e-01 -2.223395e-01 -2.803286e-01 -9.827410e-02 -5.857705e-01 9.187725e-02 1.475043e-01 1.488573e-01 1.815297e-01 2.535960e-02 -7.866556e-02 -3.865203e-02 9.163201e-02 1.512810e-01 9.881163e-02 1.072587e-02 -7.269390e-02 6.503530e-02
<VARIANCE> 39
 7.282968e+00 7.325588e+00 1.025737e+01 1.176871e+01 1.536287e+01 1.506856e+01 1.903107e+01 2.226929e+01 1.484166e+01 1.318083e+01 1.589837e+01 1.096008e+01 2.691082e+01 1.966639e-01 2.439315e-01 3.449970e-01 5.076230e-01 8.963225e-01 1.051091e+00 1.091180e+00 1.485873e+00 1.505376e+00 1.416104e+00 1.386893e+00 1.106951e+00 8.118448e-02 2.750795e-02 5.243117e-02 7.784396e-02 1.340619e-01 2.213693e-01 2.135370e-01 2.058066e-01 2.765502e-01 2.675113e-01 2.278068e-01 2.359110e-01 2.022135e-01 7.436967e-03
<GCONST> 7.222552e+01
