~o
<STREAMINFO> 1 39
<VECSIZE> 39<NULLD><MFCC_D_A_0><DIAGC>
~h "ap"
<BEGINHMM>
<NUMSTATES> 5
<STATE> 2
<NUMMIXES> 2
<MIXTURE> 1 5.231229e-01
<MEAN> 39
 -1.192082e+01 -8.793981e+00 -2.827957e+00 6.128988e-01 -1.123175e-01 -2.608457e+00 3.321678e+00 -2.253847e+00 -1.675145e+00 -1.128133e-01 1.015123e+00 -9.408517e-01 5.954382e+01 3.215027e-01 2.122761e-01 1.609228e-01 5.748550e-02 3.043183e-01 3.784310e-01 2.787542e-01 2.839010e-01 2.404233e-01 2.678271e-01 2.149776e-01 6.125680e-02 -5.451817e-01 1.956257e-02 5.789393e-02 4.013655e-02 5.019113e-02 5.440044e-02 4.645094e-02 4.549066e-02 5.755885e-02 3.434782e-02 3.208163e-02 2.047652e-02 1.922497e-02 -7.404419e-02
<VARIANCE> 39
 2.720519e+01 3.887296e+01 2.156665e+01 2.163474e+01 2.773408e+01 3.647485e+01 2.241718e+01 2.515723e+01 2.012816e+01 1.862423e+01 1.689123e+01 1.415477e+01 9.521603e+01 2.970638e-01 4.520495e-01 4.786615e-01 7.720612e-01 1.014454e+00 1.257738e+00 1.109944e+00 1.218117e+00 1.280213e+00 1.384025e+00 1.307180e+00 1.235242e+00 8.087800e-01 1.274226e-01 1.270524e-01 1.111866e-01 1.513820e-01 2.503198e-01 3.358818e-01 2.469018e-01 2.586405e-01 2.750513e-01 3.048984e-01 2.806562e-01 2.530339e-01 5.429970e-01
<GCONST> 9.321214e+01
<MIXTURE> 2 4.768745e-01
<MEAN> 39
 -1.363526e+01 -1.016823e+01 -4.279409e+00 -7.832655e-03 -1.639786e+00 -4.402094e+00 2.163169e+00 -3.187546e+00 -2.755708e+00 -9.301370e-01 -9.647997e-02 -1.325219e+00 6.428169e+01 -4.185085e-01 -5.046919e-01 -3.594479e-01 -8.311129e-02 -4.302606e-01 -6.180912e-01 -3.850986e-01 -3.625897e-01 -3.776816e-01 -3.698080e-01 -2.507268e-01 -1.058795e-01 1.059894e+00 7.528766e-03 -4.875346e-02 -4.288386e-02 -6.829831e-02 -3.581157e-02 -2.188901e-02 -3.336836e-02 -5.653599e-02 -3.219104e-02 -2.336806e-02 -2.065502e-02 -3.185512e-02 2.470626e-02
<VARIANCE> 39
 2.998353e+01 4.960328e+01 2.303043e+01 2.444386e+01 3.366270e+01 4.205206e+01 2.525423e+01 2.713167e+01 2.269836e+01 2.106817e+01 2.083118e+01 1.509319e+01 1.295186e+02 2.514554e+00 2.517998e+00 1.311689e+00 1.289981e+00 2.480942e+00 3.398685e+00 1.914463e+00 1.652444e+00 1.787398e+00 1.790869e+00 1.649002e+00 1.390929e+00 1.256625e+01 3.470334e-01 3.248758e-01 1.840149e-01 2.235985e-01 4.182768e-01 6.087493e-01 3.430399e-01 3.057081e-01 3.494533e-01 3.781123e-01 3.250188e-01 2.877500e-01 1.569958e+00
<GCONST> 1.131258e+02
<STATE> 3
<NUMMIXES> 2
<MIXTURE> 1 5.130785e-01
<MEAN> 39
 -9.968632e+00 -1.629214e+01 -9.665699e+00 2.513560e+00 1.065355e+00 -8.752054e+00 1.015453e+00 -1.967856e+00 -6.255029e+00 -3.434668e+00 1.356196e+00 -1.249422e+00 6.705717e+01 3.010338e-01 2.405043e-01 2.968909e-01 2.306919e-01 3.833360e-01 3.897868e-01 3.353357e-01 2.667111e-01 2.662452e-01 2.458514e-01 2.194261e-01 1.272829e-01 -7.785793e-01 1.092681e-02 5.660206e-02 4.173190e-02 5.653796e-02 6.207591e-02 7.266405e-02 3.734985e-02 5.888233e-02 6.464078e-02 3.029361e-02 -1.629151e-03 4.246038e-03 -5.958354e-02
<VARIANCE> 39
 1.230496e+01 1.736779e+01 1.693655e+01 2.243420e+01 3.116499e+01 2.161803e+01 2.573229e+01 2.043809e+01 2.330728e+01 2.148233e+01 1.588899e+01 1.567409e+01 6.790040e+01 1.449559e-01 2.711951e-01 3.598900e-01 7.188886e-01 9.515799e-01 1.083086e+00 9.547750e-01 1.043088e+00 1.399374e+00 1.426412e+00 1.210748e+00 1.602902e+00 4.325654e-01 5.228680e-02 6.181714e-02 9.093349e-02 1.469032e-01 2.525311e-01 2.743273e-01 2.046594e-01 2.084657e-01 3.099823e-01 3.126963e-01 2.442775e-01 3.634262e-01 3.457539e-01
<GCONST> 8.597392e+01
<MIXTURE> 2 4.869195e-01
<MEAN> 39
 -1.100645e+01 -1.699425e+01 -1.092899e+01 1.772485e+00 -7.234587e-02 -9.722395e+00 3.183702e-02 -2.266962e+00 -6.348921e+00 -4.150229e+00 1.727689e-01 -1.886499e+00 7.106310e+01 -8.807407e-02 -1.282369e-01 -1.364772e-01 -9.689809e-02 -1.425950e-01 -2.190555e-01 -2.152723e-01 -2.537238e-01 -2.702160e-01 -2.141214e-01 -1.575920e-01 -1.144926e-01 1.175510e-01 -1.386540e-02 -2.834085e-02 -1.633702e-02 -3.312656e-02 -5.707769e-02 -6.818210e-02 -3.601068e-02 -3.916650e-02 -5.084650e-02 -1.764463e-02 6.389144e-03 1.059734e-02 3.543380e-02
<VARIANCE> 39
 1.325633e+01 1.772588e+01 1.712369e+01 2.203829e+01 2.934996e+01 2.357712e+01 2.896438e+01 2.017687e+01 2.464047e+01 2.188938e+01 1.675838e+01 1.585964e+01 7.339807e+01 8.626828e-01 6.845983e-01 7.470294e-01 9.956727e-01 2.073436e+00 1.975885e+00 1.356684e+00 1.199951e+00 1.683666e+00 1.445511e+00 1.303321e+00 1.605804e+00 6.587329e+00 1.276293e-01 1.063739e-01 1.162597e-01 1.747269e-01 3.312252e-01 3.746985e-01 2.698477e-01 2.344533e-01 3.344404e-01 3.045234e-01 2.635241e-01 3.643468e-01 8.042921e-01
<GCONST> 9.884891e+01
<STATE> 4
<NUMMIXES> 2
<MIXTURE> 1 5.113174e-01
<MEAN> 39
 -9.139470e+00 -8.972153e+00 -3.525302e+00 1.352037e+00 1.186603e+00 -2.846579e+00 3.093869e+00 -2.041566e+00 -3.046104e+00 4.124437e-03 1.243314e+00 -1.321350e+00 5.623101e+01 2.107447e-01 3.097032e-01 2.167879e-01 1.090523e-01 2.707938e-01 3.845098e-01 2.490304e-01 3.098575e-01 2.971414e-01 2.657523e-01 2.163102e-01 9.873604e-02 -5.100057e-01 9.303520e-03 4.673146e-02 3.521690e-02 3.966652e-02 4.810862e-02 5.061301e-02 5.005685e-02 7.020271e-02 4.719901e-02 3.789736e-02 1.728602e-02 1.835487e-02 -4.304892e-02
<VARIANCE> 39
 2.233423e+01 5.135374e+01 2.092075e+01 2.312844e+01 3.388155e+01 3.255100e+01 2.397624e+01 2.926465e+01 2.195069e+01 1.920167e+01 1.574983e+01 1.435621e+01 1.050500e+02 2.068173e-01 4.106919e-01 4.543918e-01 7.532760e-01 9.827637e-01 1.072000e+00 1.132552e+00 1.274125e+00 1.302814e+00 1.361235e+00 1.220203e+00 1.155742e+00 5.248120e-01 7.463866e-02 1.175606e-01 1.033927e-01 1.478822e-01 2.365012e-01 2.659436e-01 2.375041e-01 2.617921e-01 2.855028e-01 2.971306e-01 2.550793e-01 2.331166e-01 3.732555e-01
<GCONST> 9.099966e+01
<MIXTURE> 2 4.886870e-01
<MEAN> 39
 -1.148727e+01 -1.123375e+01 -5.875300e+00 6.148158e-01 2.714435e-01 -5.032008e+00 1.782432e+00 -3.164807e+00 -3.866228e+00 -9.674547e-01 1.317101e-01 -1.609557e+00 6.277533e+01 -2.185888e-01 -2.552235e-01 -1.885814e-01 -1.268894e-01 -3.098835e-01 -3.618241e-01 -2.600005e-01 -3.119785e-01 -2.606251e-01 -2.566793e-01 -2.395564e-01 -1.081518e-01 4.622259e-01 -1.186991e-02 -5.264521e-02 -4.137274e-02 -4.592855e-02 -5.586293e-02 -6.025469e-02 -5.624282e-02 -7.524538e-02 -5.683368e-02 -4.508885e-02 -2.162876e-02 -1.980207e-02 5.054230e-02
<VARIANCE> 39
 2.525782e+01 5.357706e+01 2.877695e+01 2.646742e+01 4.173774e+01 3.522796e+01 2.716313e+01 2.843628e+01 2.281646e+01 1.999320e+01 1.754221e+01 1.499094e+01 1.362953e+02 1.450086e+00 2.065379e+00 1.005965e+00 1.113541e+00 2.055577e+00 2.257330e+00 1.408238e+00 1.529727e+00 1.510319e+00 1.457400e+00 1.357945e+00 1.256440e+00 9.580441e+00 1.940443e-01 2.802296e-01 1.488672e-01 2.033351e-01 3.491364e-01 4.211023e-01 2.644219e-01 2.837571e-01 3.070094e-01 3.075770e-01 2.747729e-01 2.586685e-01 1.178713e+00
<GCONST> 1.074151e+02
<TRANSP> 5
 0.000000e+00 1.000000e+00 0.000000e+00 0.000000e+00 0.000000e+00
 0.000000e+00 9.884233e-01 1.157666e-02 0.000000e+00 0.000000e+00
 0.000000e+00 0.000000e+00 9.862021e-01 1.379794e-02 0.000000e+00
 0.000000e+00 0.000000e+00 0.000000e+00 9.921421e-01 7.857937e-03
 0.000000e+00 0.000000e+00 0.000000e+00 0.000000e+00 0.000000e+00
<ENDHMM>
~h "cl"
<BEGINHMM>
<NUMSTATES> 5
<STATE> 2
<NUMMIXES> 2
<MIXTURE> 1 5.061531e-01
<MEAN> 39
 -1.136589e+01 -1.263844e+00 -1.203074e+00 -2.469308e+00 -5.572233e-01 5.165817e+00 3.783184e+00 -3.012635e-02 2.198162e+00 4.339316e-01 -1.686042e+00 3.654204e-01 5.322779e+01 -1.539625e-01 1.800745e-01 1.991531e-01 1.407810e-01 9.121379e-02 3.926497e-01 1.835599e-01 1.244271e-01 3.744177e-01 2.356963e-01 1.029248e-01 2.425793e-01 9.200200e-02 -5.141811e-02 2.684189e-02 7.067284e-02 3.644640e-02 3.049806e-02 1.060519e-01 3.082335e-02 2.683843e-02 6.185861e-02 4.045999e-02 -4.907055e-03 7.600357e-02 2.996845e-02
<VARIANCE> 39
 3.867217e+01 2.432025e+01 2.761691e+01 1.477113e+01 1.838409e+01 3.759850e+01 2.040859e+01 2.569886e+01 3.254637e+01 2.053851e+01 2.745892e+01 2.239847e+01 4.038016e+01 1.956437e+00 6.779052e-01 7.282926e-01 8.245416e-01 1.155350e+00 1.688512e+00 1.610062e+00 1.897494e+00 2.135253e+00 1.575168e+00 1.759821e+00 1.776309e+00 1.125071e+00 2.573606e-01 1.117304e-01 1.148908e-01 1.382487e-01 2.091448e-01 3.130245e-01 3.123766e-01 3.467250e-01 3.743826e-01 3.228163e-01 3.224767e-01 2.917518e-01 1.996516e-01
<GCONST> 9.926028e+01
<MIXTURE> 2 4.938464e-01
<MEAN> 39
 -1.172054e+01 -2.087967e+00 -9.873536e-01 -2.603387e+00 -1.102084e+00 4.176102e+00 2.928185e+00 -4.395775e-01 1.773476e+00 7.411743e-02 -2.183448e+00 3.419785e-01 5.503086e+01 -4.866748e-01 -9.453131e-02 -1.262637e-01 -1.479953e-01 -3.201956e-01 -1.524439e-01 -3.377985e-01 -4.486284e-01 -1.611735e-01 -2.575190e-01 -3.904829e-01 -8.695856e-02 3.993932e-01 -1.124141e-02 -2.778611e-02 -4.026210e-02 -6.183956e-02 -5.902598e-02 -2.599241e-02 -5.742119e-02 -9.237947e-02 -3.469016e-02 -6.628267e-02 -6.912179e-02 -2.653734e-02 7.093602e-03
<VARIANCE> 39
 4.201075e+01 3.433546e+01 2.700646e+01 1.455962e+01 1.947141e+01 4.832619e+01 2.301716e+01 2.552735e+01 3.321032e+01 2.531125e+01 2.909713e+01 2.312418e+01 6.594139e+01 2.909672e+00 1.015042e+00 6.947234e-01 8.365057e-01 1.526181e+00 2.525393e+00 1.888370e+00 2.157397e+00 2.157517e+00 2.030369e+00 2.051656e+00 1.707013e+00 3.230947e+00 3.359158e-01 1.400869e-01 1.115019e-01 1.520070e-01 2.532327e-01 3.901244e-01 3.245462e-01 3.606905e-01 3.775257e-01 3.820753e-01 3.546283e-01 2.930157e-01 3.679949e-01
<GCONST> 1.059864e+02
<STATE> 3
<NUMMIXES> 2
<MIXTURE> 1 5.029980e-01
<MEAN> 39
 -2.007891e+01 2.931035e+00 1.233433e-02 -5.174515e+00 -3.849598e+00 1.276509e+01 1.074919e+00 -3.373255e+00 7.947227e+00 -3.411509e+00 -3.337436e+00 5.543994e+00 5.867019e+01 4.347719e-02 1.076649e-01 1.487591e-01 1.762898e-01 2.011288e-01 2.163882e-01 2.260145e-01 2.478519e-01 2.591448e-01 2.297954e-01 2.120151e-01 1.659382e-01 2.819727e-03 -1.464983e-03 1.571357e-02 2.857624e-02 3.418602e-02 3.507127e-02 3.351836e-02 4.646302e-02 5.695292e-02 4.412692e-02 4.319811e-02 3.900434e-02 3.051787e-02 9.976690e-03
<VARIANCE> 39
 4.570538e+01 8.843563e+00 1.827415e+01 1.170782e+01 1.705447e+01 2.973170e+01 2.393049e+01 2.046702e+01 2.439726e+01 2.018192e+01 1.927027e+01 1.935300e+01 1.955525e+01 1.843487e+00 4.671908e-01 7.239202e-01 8.832460e-01 1.183998e+00 1.973669e+00 1.760607e+00 1.677853e+00 1.703273e+00 1.583055e+00 1.545527e+00 1.586436e+00 9.138228e-01 3.250454e-01 8.452711e-02 1.420727e-01 1.745481e-01 2.355267e-01 3.794453e-01 3.566185e-01 3.388743e-01 3.485051e-01 3.275620e-01 3.183661e-01 3.075541e-01 1.682347e-01
<GCONST> 9.559952e+01
<MIXTURE> 2 4.970010e-01
<MEAN> 39
 -1.896777e+01 2.695474e+00 -5.093552e-01 -5.503701e+00 -4.447982e+00 1.144326e+01 2.205970e-01 -3.867769e+00 7.160910e+00 -3.689676e+00 -3.495782e+00 5.183648e+00 5.878736e+01 9.020209e-03 -1.187368e-01 -1.685927e-01 -1.722032e-01 -1.949560e-01 -2.261460e-01 -2.262429e-01 -2.617225e-01 -2.841674e-01 -2.405201e-01 -2.057819e-01 -1.735619e-01 -3.141221e-02 2.340395e-02 -2.008203e-02 -3.089625e-02 -3.437987e-02 -2.960542e-02 -4.918511e-02 -4.508826e-02 -4.808468e-02 -5.352383e-02 -3.585472e-02 -3.011466e-02 -3.893624e-02 -2.513499e-02
<VARIANCE> 39
 5.597598e+01 1.088703e+01 2.129342e+01 1.321417e+01 1.824792e+01 3.744139e+01 2.677379e+01 2.394481e+01 2.788265e+01 2.008342e+01 1.932043e+01 2.029444e+01 2.206470e+01 1.765007e+00 5.005528e-01 7.511126e-01 8.924310e-01 1.234466e+00 1.992603e+00 1.824981e+00 1.695279e+00 1.731512e+00 1.578454e+00 1.525867e+00 1.585402e+00 9.994284e-01 3.319441e-01 9.156017e-02 1.418996e-01 1.839430e-01 2.408615e-01 3.923037e-01 3.590126e-01 3.482094e-01 3.549562e-01 3.291276e-01 3.070318e-01 3.137431e-01 1.822468e-01
<GCONST> 9.773928e+01
<STATE> 4
<NUMMIXES> 2
<MIXTURE> 1 5.012647e-01
<MEAN> 39
 -2.206085e+01 1.156783e+00 6.457607e+00 -2.736956e+00 -6.223315e+00 1.089925e+01 2.183981e+00 -6.352366e+00 3.059113e+00 4.613735e+00 -1.135645e+01 4.761869e+00 5.698502e+01 1.733604e-01 1.060597e-01 1.905538e-01 1.355221e-01 2.034096e-01 2.488850e-01 2.419782e-01 1.991457e-01 3.064781e-01 2.392135e-01 2.062854e-01 1.944959e-01 -1.540961e-01 2.235395e-03 2.319100e-02 2.023521e-02 4.517161e-02 4.795388e-02 9.758481e-03 5.144891e-02 7.977049e-02 5.328217e-02 6.606541e-02 5.839746e-02 1.678071e-02 4.215974e-03
<VARIANCE> 39
 3.891720e+01 8.302334e+00 1.478564e+01 1.679067e+01 2.549395e+01 2.758450e+01 2.681052e+01 4.298274e+01 3.304649e+01 3.013115e+01 2.853457e+01 2.812602e+01 3.328891e+01 1.158597e+00 4.720110e-01 8.760532e-01 9.277273e-01 1.233730e+00 1.796931e+00 1.492240e+00 2.252801e+00 2.301328e+00 1.753431e+00 1.572879e+00 1.628065e+00 1.034630e+00 2.273747e-01 9.683393e-02 1.907026e-01 1.902029e-01 2.454103e-01 3.747815e-01 3.088125e-01 4.277039e-01 4.822920e-01 3.643931e-01 3.297119e-01 3.338064e-01 2.170620e-01
<GCONST> 1.002223e+02
<MIXTURE> 2 4.987344e-01
<MEAN> 39
 -2.216278e+01 9.365701e-01 6.290712e+00 -3.236299e+00 -6.926686e+00 1.012299e+01 1.043941e+00 -7.135893e+00 2.655030e+00 4.277785e+00 -1.177569e+01 4.883211e+00 5.823050e+01 -7.268844e-02 -1.164098e-01 -1.783833e-01 -1.598780e-01 -1.947447e-01 -2.747923e-01 -2.609907e-01 -1.937923e-01 -3.102148e-01 -2.518563e-01 -1.832317e-01 -2.002323e-01 7.591952e-02 -9.238331e-05 -2.133876e-02 -2.515139e-02 -4.381960e-02 -4.537762e-02 -1.890255e-02 -5.348699e-02 -7.356878e-02 -5.637043e-02 -6.641274e-02 -5.327675e-02 -2.108994e-02 -7.027619e-03
<VARIANCE> 39
 4.274355e+01 9.325053e+00 1.660078e+01 1.677771e+01 2.802732e+01 3.243372e+01 3.133509e+01 4.987327e+01 3.552811e+01 2.838281e+01 2.936484e+01 3.168388e+01 3.583043e+01 1.470302e+00 5.457191e-01 1.068979e+00 9.836105e-01 1.320216e+00 2.191938e+00 1.697528e+00 2.716817e+00 2.735936e+00 1.967056e+00 1.727783e+00 1.972034e+00 1.529523e+00 2.624749e-01 1.021311e-01 2.018797e-01 2.001830e-01 2.482996e-01 4.239074e-01 3.264255e-01 4.911166e-01 5.424519e-01 3.856618e-01 3.354102e-01 3.970483e-01 2.682556e-01
<GCONST> 1.047408e+02
<TRANSP> 5
 0.000000e+00 1.000000e+00 0.000000e+00 0.000000e+00 0.000000e+00
 0.000000e+00 9.450132e-01 5.498680e-02 0.000000e+00 0.000000e+00
 0.000000e+00 0.000000e+00 9.921202e-01 7.879765e-03 0.000000e+00
 0.000000e+00 0.000000e+00 0.000000e+00 9.936363e-01 6.363704e-03
 0.000000e+00 0.000000e+00 0.000000e+00 0.000000e+00 0.000000e+00
<ENDHMM>
~h "cm"
<BEGINHMM>
<NUMSTATES> 5
<STATE> 2
<NUMMIXES> 2
<MIXTURE> 1 5.000793e-01
<MEAN> 39
 -9.325375e+00 -9.646842e-01 -2.461613e+00 -4.109414e+00 -4.391104e-01 -6.214690e-01 -1.353502e+00 -6.422204e-01 -2.332672e+00 -7.413572e-01 4.546066e-01 -1.969311e+00 6.078201e+01 9.554362e-02 8.392656e-02 1.124078e-01 1.639068e-01 1.874406e-01 2.313163e-01 2.155477e-01 2.094679e-01 2.148774e-01 1.990263e-01 1.845996e-01 1.813683e-01 2.497652e-01 1.621103e-02 3.820198e-02 3.483774e-02 4.920134e-02 4.122449e-02 4.801267e-02 5.778649e-02 4.746796e-02 4.766214e-02 5.635564e-02 4.477969e-02 1.533291e-02 -2.350878e-02
<VARIANCE> 39
 1.989963e+01 1.890439e+01 1.433182e+01 1.822462e+01 1.656962e+01 1.739571e+01 2.011734e+01 2.038409e+01 2.133332e+01 1.856104e+01 1.833887e+01 1.429876e+01 6.872161e+01 4.544864e-01 6.117014e-01 7.067483e-01 9.196898e-01 1.083335e+00 1.328233e+00 1.399434e+00 1.514020e+00 1.612540e+00 1.473272e+00 1.434615e+00 1.299679e+00 8.168542e-01 7.047743e-02 1.074766e-01 1.240436e-01 1.738608e-01 2.206476e-01 2.738546e-01 2.819813e-01 3.020138e-01 3.217004e-01 2.932484e-01 2.811951e-01 2.446407e-01 1.100874e-01
<GCONST> 9.009000e+01
<MIXTURE> 2 4.999189e-01
<MEAN> 39
 -9.093191e+00 -1.509559e+00 -2.895623e+00 -4.655839e+00 -1.223959e+00 -1.369340e+00 -2.181761e+00 -1.517080e+00 -3.231352e+00 -1.425946e+00 -2.908669e-01 -2.316272e+00 6.299395e+01 2.335236e-02 -1.304468e-01 -1.384455e-01 -2.168816e-01 -2.508563e-01 -3.200662e-01 -3.313331e-01 -3.398464e-01 -3.163257e-01 -2.619430e-01 -2.947721e-01 -1.871915e-01 4.230084e-01 -1.069544e-02 -2.560798e-02 -3.156383e-02 -2.927771e-02 -2.270661e-02 -1.591830e-02 -3.312235e-02 -3.751745e-02 -4.369539e-02 -3.086642e-02 -1.746016e-02 -1.285031e-02 5.953170e-04
<VARIANCE> 39
 2.064570e+01 1.790903e+01 1.435121e+01 1.676373e+01 1.623582e+01 1.712453e+01 2.071698e+01 2.098595e+01 2.125056e+01 1.925909e+01 1.931937e+01 1.514867e+01 6.460709e+01 6.085063e-01 8.022853e-01 7.989814e-01 1.097141e+00 1.243514e+00 1.530738e+00 1.517471e+00 1.600797e+00 1.596642e+00 1.537927e+00 1.504308e+00 1.363255e+00 1.368911e+00 7.770235e-02 1.216035e-01 1.484510e-01 1.958878e-01 2.422852e-01 2.916066e-01 2.978581e-01 3.161695e-01 3.277403e-01 3.119810e-01 2.905227e-01 2.716829e-01 1.500172e-01
<GCONST> 9.332167e+01
<STATE> 3
<NUMMIXES> 2
<MIXTURE> 1 5.013647e-01
<MEAN> 39
 -1.281393e+01 2.511002e-01 -2.566085e+00 -4.730844e+00 2.658474e-01 1.361991e+00 -1.366220e+00 2.736927e-01 -2.407566e+00 7.711568e-01 2.887962e+00 -5.107974e-01 5.892581e+01 9.817778e-02 1.058247e-01 1.483019e-01 2.049169e-01 2.236959e-01 2.026470e-01 2.192723e-01 2.195516e-01 2.118740e-01 1.922328e-01 1.625357e-01 1.257152e-01 9.807104e-02 3.702335e-02 3.138881e-02 3.109298e-02 3.276876e-02 3.012157e-02 2.117253e-02 2.156959e-02 2.927580e-02 3.484749e-02 2.394651e-02 1.206653e-02 1.839869e-02 1.407840e-02
<VARIANCE> 39
 8.609910e+00 1.137021e+01 1.116337e+01 1.168005e+01 1.483388e+01 1.553090e+01 1.726806e+01 1.874528e+01 1.698010e+01 1.654735e+01 1.867385e+01 1.622156e+01 2.333088e+01 2.333385e-01 3.513534e-01 4.949847e-01 7.316891e-01 9.100946e-01 1.132099e+00 1.255388e+00 1.331341e+00 1.339592e+00 1.287333e+00 1.271773e+00 1.165271e+00 2.092633e-01 3.211803e-02 5.994815e-02 9.618410e-02 1.425625e-01 1.859846e-01 2.315818e-01 2.598899e-01 2.720669e-01 2.794296e-01 2.694409e-01 2.570288e-01 2.367290e-01 2.358825e-02
<GCONST> 7.778445e+01
<MIXTURE> 2 4.986342e-01
<MEAN> 39
 -1.314492e+01 -2.001542e-01 -2.914579e+00 -4.976639e+00 -1.071220e-01 8.223040e-01 -2.021636e+00 -4.403872e-01 -2.884979e+00 3.781787e-01 2.657124e+00 -4.188733e-01 5.922018e+01 -3.300022e-02 -1.025413e-01 -1.634158e-01 -1.936785e-01 -2.008210e-01 -2.095600e-01 -2.399109e-01 -2.422902e-01 -2.492343e-01 -2.206544e-01 -2.096404e-01 -1.405753e-01 3.505759e-02 -2.782871e-03 -2.828638e-02 -3.504709e-02 -3.571299e-02 -4.682313e-02 -5.234044e-02 -3.879032e-02 -4.483083e-02 -5.773588e-02 -6.383682e-02 -5.016232e-02 -4.211241e-02 -3.109216e-03
<VARIANCE> 39
 8.867628e+00 1.154942e+01 9.599569e+00 1.142115e+01 1.383807e+01 1.505394e+01 1.686138e+01 1.830834e+01 1.642874e+01 1.641398e+01 1.841803e+01 1.624044e+01 1.969696e+01 2.200411e-01 3.364298e-01 4.626525e-01 7.086447e-01 9.240015e-01 1.139393e+00 1.261592e+00 1.327379e+00 1.331969e+00 1.265140e+00 1.212641e+00 1.170147e+00 2.035014e-01 2.927010e-02 5.909489e-02 9.042053e-02 1.377303e-01 1.852890e-01 2.420040e-01 2.675901e-01 2.786660e-01 2.765087e-01 2.710580e-01 2.537701e-01 2.418779e-01 1.996425e-02
<GCONST> 7.673999e+01
<STATE> 4
<NUMMIXES> 2
<MIXTURE> 1 4.985487e-01
<MEAN> 39
 -5.275076e+00 7.711962e-01 -2.386748e+00 -3.504090e+00 -4.620512e-01 -1.081572e+00 -2.624204e+00 -1.997346e+00 -3.625597e+00 -2.056836e+00 -1.217575e+00 -2.636214e+00 6.675720e+01 9.782316e-02 1.207755e-01 1.578168e-01 2.097017e-01 2.279075e-01 2.123656e-01 2.413742e-01 1.930876e-01 2.252977e-01 2.083024e-01 2.043073e-01 1.420654e-01 -1.974226e-01 5.251329e-03 1.671694e-02 2.797014e-02 3.417454e-02 4.088073e-02 4.209696e-02 4.180055e-02 3.406558e-02 3.520660e-02 2.670789e-02 2.786465e-02 1.742874e-02 2.119578e-03
<VARIANCE> 39
 9.122893e+00 9.995749e+00 1.200945e+01 1.350591e+01 1.431615e+01 1.346138e+01 1.525142e+01 1.742353e+01 1.669314e+01 1.520720e+01 1.428209e+01 1.269118e+01 6.624290e+01 1.986771e-01 2.848124e-01 4.523912e-01 6.463006e-01 8.426497e-01 1.009767e+00 1.117229e+00 1.196555e+00 1.274170e+00 1.272129e+00 1.225781e+00 1.123118e+00 3.193382e-01 3.053369e-02 5.222939e-02 8.704829e-02 1.290715e-01 1.684010e-01 2.068518e-01 2.321515e-01 2.472247e-01 2.633117e-01 2.672215e-01 2.544723e-01 2.299672e-01 2.603855e-02
<GCONST> 7.645562e+01
<MIXTURE> 2 5.014501e-01
<MEAN> 39
 -5.617054e+00 1.235532e-01 -3.156730e+00 -4.327881e+00 -1.431317e+00 -1.998314e+00 -3.767428e+00 -3.064386e+00 -4.670827e+00 -2.941650e+00 -2.104132e+00 -3.054349e+00 6.914704e+01 1.833305e-02 -6.534094e-02 -8.291068e-02 -1.029822e-01 -1.439098e-01 -1.665121e-01 -1.933993e-01 -2.292668e-01 -2.267679e-01 -2.226303e-01 -2.032877e-01 -1.526956e-01 -1.338816e-01 -1.791031e-02 -1.993812e-02 -2.680652e-02 -3.335416e-02 -3.586449e-02 -3.128967e-02 -3.407162e-02 -2.853053e-02 -2.818337e-02 -2.175275e-02 -1.862294e-02 -8.391888e-03 -2.425980e-02
<VARIANCE> 39
 8.279846e+00 1.006108e+01 1.187906e+01 1.393687e+01 1.370563e+01 1.294267e+01 1.470786e+01 1.641265e+01 1.629189e+01 1.499135e+01 1.447344e+01 1.281321e+01 5.779429e+01 2.169630e-01 2.959863e-01 4.575570e-01 6.814017e-01 8.461821e-01 1.005436e+00 1.142714e+00 1.211827e+00 1.279073e+00 1.300956e+00 1.256107e+00 1.150254e+00 3.782459e-01 3.362406e-02 5.367711e-02 8.812752e-02 1.344158e-01 1.711586e-01 2.049418e-01 2.302787e-01 2.442118e-01 2.650815e-01 2.745412e-01 2.588845e-01 2.363226e-01 3.095295e-02
<GCONST> 7.693859e+01
<TRANSP> 5
 0.000000e+00 1.000000e+00 0.000000e+00 0.000000e+00 0.000000e+00
 0.000000e+00 9.556131e-01 4.438685e-02 0.000000e+00 0.000000e+00
 0.000000e+00 0.000000e+00 9.643472e-01 3.565278e-02 0.000000e+00
 0.000000e+00 0.000000e+00 0.000000e+00 9.855117e-01 1.448823e-02
 0.000000e+00 0.000000e+00 0.000000e+00 0.000000e+00 0.000000e+00
<ENDHMM>
~h "co"
<BEGINHMM>
<NUMSTATES> 5
<STATE> 2
<NUMMIXES> 2
<MIXTURE> 1 5.017384e-01
<MEAN> 39
 -6.562529e+00 -5.487672e+00 9.856141e-01 -1.557289e+00 -1.135291e+01 -5.129137e+00 -3.581505e+00 -2.691351e-01 9.017343e-01 -2.322546e+00 -3.967232e+00 -7.249248e+00 6.163426e+01 -6.951951e-01 -1.120550e-01 3.973777e-01 -1.050381e-01 -2.922443e-01 -5.600904e-01 5.219453e-02 -4.636799e-01 -8.411928e-01 -6.742682e-01 -9.157073e-02 4.008178e-02 2.227813e+00 -2.108270e-02 1.888148e-02 -3.792604e-02 1.021914e-01 3.084697e-01 2.203464e-01 2.029799e-01 1.201964e-01 3.301535e-02 2.169209e-01 2.162517e-01 1.182873e-01 -1.930009e-01
<VARIANCE> 39
 1.991375e+01 3.446595e+01 3.229086e+01 3.969627e+01 9.552124e+01 5.906008e+01 6.792290e+01 5.905097e+01 4.426426e+01 4.059197e+01 4.992013e+01 3.512059e+01 1.081342e+02 1.258045e+00 1.931972e+00 1.668958e+00 1.634530e+00 5.685653e+00 3.560174e+00 3.551526e+00 3.192594e+00 3.680914e+00 2.876007e+00 2.183128e+00 2.455199e+00 3.080760e+00 1.413074e-01 2.643606e-01 2.497866e-01 2.302698e-01 7.217579e-01 6.368047e-01 5.593224e-01 5.368088e-01 5.719861e-01 4.930716e-01 3.913959e-01 4.484201e-01 5.021515e-01
<GCONST> 1.226189e+02
<MIXTURE> 2 4.982609e-01
<MEAN> 39
 -6.521889e+00 -6.532797e+00 -8.688468e-01 -5.606468e-01 -1.492173e+01 -7.335102e+00 -5.670868e+00 -1.010413e+00 2.680995e+00 -1.825238e+00 -3.754831e+00 -7.236912e+00 6.315070e+01 -5.653405e-01 -8.182871e-02 2.007387e-01 -7.246721e-01 -9.323285e-01 -1.190359e+00 -5.272864e-01 -1.064179e+00 -1.212976e+00 -1.328175e+00 -7.136082e-01 -7.429916e-01 2.838990e+00 -9.353283e-02 9.728841e-02 1.117796e-02 -5.499140e-03 4.130093e-01 1.782799e-01 1.566389e-01 -4.337537e-02 -2.161966e-01 -6.153772e-02 1.090907e-01 -1.321432e-03 -4.016434e-02
<VARIANCE> 39
 1.785721e+01 3.604833e+01 3.676127e+01 3.809647e+01 9.212313e+01 6.982372e+01 8.775089e+01 7.567262e+01 6.466948e+01 4.683205e+01 5.418574e+01 3.747739e+01 9.327659e+01 1.022237e+00 2.346218e+00 2.012066e+00 2.007594e+00 7.449933e+00 3.726025e+00 4.537881e+00 3.791343e+00 4.659493e+00 3.559361e+00 2.946326e+00 2.900586e+00 3.696363e+00 1.395749e-01 3.735496e-01 3.016349e-01 2.622134e-01 8.023855e-01 5.593259e-01 7.020022e-01 6.161979e-01 7.636719e-01 6.760672e-01 4.321045e-01 4.829845e-01 5.135008e-01
<GCONST> 1.278029e+02
<STATE> 3
<NUMMIXES> 2
<MIXTURE> 1 5.006957e-01
<MEAN> 39
 -6.551352e+00 -5.902843e+00 3.787984e-01 -1.779399e+00 -7.131383e+00 -7.395875e+00 -5.604741e+00 -7.388377e+00 -5.027146e+00 -4.071563e+00 -3.999315e+00 -8.448775e+00 6.677269e+01 2.167956e-02 5.679799e-02 1.351227e-01 2.210434e-01 3.913787e-01 3.055494e-01 2.719636e-01 2.348617e-01 1.991057e-01 2.761877e-01 2.785487e-01 2.077805e-01 -1.211342e-01 2.015725e-02 -7.682648e-03 2.508800e-02 4.608018e-02 2.689622e-02 5.483618e-02 8.139312e-02 8.051694e-02 9.575677e-02 5.928755e-02 3.204943e-02 3.517010e-02 -4.563029e-02
<VARIANCE> 39
 2.037275e+01 1.167274e+01 2.274501e+01 2.164203e+01 3.259507e+01 3.207683e+01 4.960006e+01 5.732303e+01 3.787729e+01 3.565276e+01 3.632941e+01 3.810729e+01 5.289977e+01 4.470849e-01 6.104645e-01 8.995927e-01 1.195782e+00 2.123803e+00 1.519788e+00 1.858848e+00 2.124168e+00 2.651694e+00 2.224323e+00 2.002838e+00 1.636823e+00 1.035555e+00 6.522370e-02 1.285414e-01 1.612974e-01 2.167593e-01 4.156492e-01 3.267030e-01 3.707763e-01 4.097459e-01 5.256976e-01 4.466619e-01 4.242099e-01 3.389892e-01 1.510522e-01
<GCONST> 1.036844e+02
<MIXTURE> 2 4.993028e-01
<MEAN> 39
 -6.583607e+00 -6.704682e+00 -1.199595e+00 -2.494160e+00 -8.251468e+00 -8.674713e+00 -6.751426e+00 -7.227870e+00 -4.998157e+00 -4.814487e+00 -4.632496e+00 -9.403198e+00 6.867234e+01 1.141629e-01 -1.045140e-01 -1.287572e-01 -1.118925e-01 -1.410883e-01 -2.250351e-01 -3.917491e-01 -3.394020e-01 -2.118476e-01 -2.014693e-01 -2.387950e-01 -2.580506e-01 -6.361932e-02 1.585168e-02 1.303459e-02 -1.811639e-02 -3.140778e-02 -3.871167e-02 -5.133244e-02 -9.311483e-02 -6.484623e-02 -6.619143e-02 -4.813017e-02 -4.422377e-02 -3.768799e-02 -1.555744e-02
<VARIANCE> 39
 1.544772e+01 1.199355e+01 2.508634e+01 2.196501e+01 3.331578e+01 3.094286e+01 5.097575e+01 5.818819e+01 4.713398e+01 4.068533e+01 3.704447e+01 4.022132e+01 3.995058e+01 4.595133e-01 8.985949e-01 9.166592e-01 1.218385e+00 2.790961e+00 1.797892e+00 2.257837e+00 2.254428e+00 3.346638e+00 2.263893e+00 2.265194e+00 1.803519e+00 1.518854e+00 6.184833e-02 1.787107e-01 1.641078e-01 2.384154e-01 4.848062e-01 3.285706e-01 3.944877e-01 4.338412e-01 7.061240e-01 4.792638e-01 4.388893e-01 3.407643e-01 1.438597e-01
<GCONST> 1.067430e+02
<STATE> 4
<NUMMIXES> 2
<MIXTURE> 1 4.937862e-01
<MEAN> 39
 -3.778362e+00 -2.938682e+00 4.220361e+00 2.503664e+00 -2.771845e-01 -2.260221e+00 -4.017910e+00 -4.517825e+00 -3.680071e+00 -3.933878e+00 -3.488211e+00 -7.825677e+00 5.593655e+01 9.526516e-02 2.369945e-01 1.479227e-01 1.725239e-01 3.435417e-01 2.941051e-01 3.402423e-01 2.990540e-01 1.951990e-01 2.097777e-01 1.967952e-01 1.770090e-01 -3.231933e-01 1.158319e-02 2.829327e-02 3.082776e-02 4.674309e-02 3.244605e-02 5.036040e-02 6.194116e-02 6.237566e-02 5.724034e-02 5.404196e-02 4.266913e-02 3.195765e-02 9.250403e-03
<VARIANCE> 39
 1.269049e+01 2.250959e+01 1.973636e+01 2.483257e+01 3.289097e+01 2.837945e+01 4.765957e+01 4.126904e+01 3.029642e+01 3.144560e+01 2.854366e+01 2.485956e+01 5.963108e+01 2.674431e-01 4.462184e-01 6.244600e-01 7.815322e-01 1.209941e+00 1.101017e+00 1.518046e+00 1.490706e+00 1.474939e+00 1.613785e+00 1.449427e+00 1.274378e+00 5.353914e-01 4.012546e-02 8.217621e-02 1.206584e-01 1.515747e-01 2.385924e-01 2.242541e-01 2.919014e-01 2.952913e-01 2.990817e-01 3.306551e-01 2.949816e-01 2.581646e-01 5.217133e-02
<GCONST> 9.164108e+01
<MIXTURE> 2 5.062125e-01
<MEAN> 39
 -3.854784e+00 -4.299772e+00 3.462004e+00 1.715456e+00 -2.383166e+00 -2.892414e+00 -6.347068e+00 -5.324693e+00 -4.115260e+00 -5.100522e+00 -4.222741e+00 -9.175616e+00 5.970140e+01 3.438402e-02 4.484587e-04 -9.265698e-02 -1.151023e-01 -6.648964e-02 -1.125221e-01 -1.911526e-01 -1.516793e-01 -2.053730e-01 -1.895537e-01 -1.571599e-01 -9.676035e-02 -2.670877e-01 -1.995115e-02 -2.807203e-02 -4.839032e-02 -5.492752e-02 -5.208410e-02 -6.603275e-02 -6.350970e-02 -6.173888e-02 -5.727255e-02 -5.607748e-02 -4.470479e-02 -3.704209e-02 -5.713063e-04
<VARIANCE> 39
 1.270962e+01 2.279638e+01 2.123695e+01 2.409984e+01 3.915478e+01 3.315015e+01 5.540726e+01 4.111143e+01 3.342422e+01 4.134239e+01 3.571318e+01 3.136879e+01 6.440784e+01 2.973484e-01 6.460694e-01 6.873544e-01 8.318560e-01 1.617740e+00 1.228880e+00 1.793056e+00 1.562004e+00 1.655872e+00 1.820054e+00 1.579767e+00 1.554499e+00 9.361646e-01 4.445573e-02 1.052839e-01 1.233907e-01 1.595985e-01 2.776546e-01 2.303392e-01 3.394443e-01 2.914488e-01 3.254489e-01 3.648273e-01 3.186064e-01 3.060927e-01 7.322996e-02
<GCONST> 9.691794e+01
<TRANSP> 5
 0.000000e+00 1.000000e+00 0.000000e+00 0.000000e+00 0.000000e+00
 0.000000e+00 8.443893e-01 1.556108e-01 0.000000e+00 0.000000e+00
 0.000000e+00 0.000000e+00 9.840358e-01 1.596417e-02 0.000000e+00
 0.000000e+00 0.000000e+00 0.000000e+00 9.816808e-01 1.831924e-02
 0.000000e+00 0.000000e+00 0.000000e+00 0.000000e+00 0.000000e+00
<ENDHMM>
~h "ds"
<BEGINHMM>
<NUMSTATES> 5
<STATE> 2
<NUMMIXES> 2
<MIXTURE> 1 4.920616e-01
<MEAN> 39
 -1.319917e+01 1.466550e+00 1.421454e+00 5.828658e-01 9.675372e-01 -1.590570e+00 4.721678e+00 -2.738831e+00 2.707185e+00 1.716872e+00 4.471929e+00 2.026034e-01 6.654949e+01 1.108281e-01 2.324913e-01 3.133792e-01 3.461808e-01 3.485509e-01 3.175413e-01 3.638214e-01 2.529036e-01 2.528847e-01 1.795737e-01 1.846320e-01 3.077592e-01 7.336956e-01 9.857056e-02 5.576190e-03 4.058469e-02 6.817083e-02 6.510800e-02 1.175644e-01 3.011097e-02 1.034630e-01 -1.818410e-02 2.597281e-02 2.114941e-02 6.254411e-02 -2.145825e-01
<VARIANCE> 39
 2.125078e+01 1.583731e+01 1.475945e+01 1.808464e+01 2.550827e+01 2.341787e+01 2.704282e+01 3.210627e+01 2.602321e+01 2.332424e+01 2.003296e+01 1.607283e+01 9.672598e+01 1.975512e+00 1.219324e+00 1.132200e+00 1.381011e+00 1.867477e+00 2.011038e+00 2.243446e+00 2.591582e+00 2.204330e+00 2.320931e+00 2.002175e+00 1.688218e+00 3.377237e+00 3.496055e-01 2.111703e-01 2.254633e-01 2.855061e-01 4.157983e-01 4.157845e-01 4.485651e-01 4.807687e-01 4.251971e-01 4.396492e-01 3.655558e-01 3.227265e-01 4.632754e-01
<GCONST> 1.082517e+02
<MIXTURE> 2 5.079380e-01
<MEAN> 39
 -1.352941e+01 2.438663e-01 6.264352e-01 -1.077440e+00 -5.175437e-01 -2.457870e+00 5.029841e+00 -1.418525e+00 9.962383e-01 1.893364e+00 4.002036e+00 3.401589e-01 6.399656e+01 -4.965639e-01 -3.953670e-02 -4.997055e-01 -4.999758e-01 -7.024153e-01 -5.518860e-01 -4.098274e-01 -3.366558e-01 -1.719311e-01 1.187072e-02 -1.782681e-01 -2.399042e-01 1.244488e+00 -4.598453e-02 -6.039860e-02 -3.592505e-02 -1.947736e-02 1.264707e-02 4.878683e-02 -2.983696e-02 8.088229e-03 -2.522330e-02 -1.003841e-01 -7.784293e-03 -1.170856e-02 -3.994589e-02
<VARIANCE> 39
 2.391233e+01 1.887584e+01 1.584971e+01 2.050555e+01 2.893555e+01 2.336220e+01 2.967340e+01 4.187915e+01 2.867480e+01 2.624651e+01 2.030832e+01 1.821360e+01 8.825823e+01 2.180562e+00 9.880735e-01 1.419850e+00 1.659967e+00 2.721032e+00 2.226769e+00 2.398172e+00 2.170105e+00 2.071300e+00 2.237468e+00 1.951944e+00 1.733705e+00 4.452000e+00 3.314615e-01 1.917277e-01 2.534497e-01 3.332022e-01 5.251414e-01 4.952890e-01 4.174151e-01 4.515137e-01 3.676465e-01 4.317080e-01 3.834293e-01 3.482338e-01 8.293932e-01
<GCONST> 1.112693e+02
<STATE> 3
<NUMMIXES> 2
<MIXTURE> 1 4.859197e-01
<MEAN> 39
 -1.634313e+01 7.501050e-01 -1.731540e+00 -6.100543e-01 -3.082935e+00 -2.102685e+00 2.056218e+00 -2.133088e+00 1.764018e+00 3.275040e+00 4.937215e+00 1.511838e+00 7.089961e+01 5.253026e-01 9.997178e-02 5.985500e-01 8.501039e-01 9.950099e-01 7.707325e-01 3.944325e-01 3.803174e-01 2.066102e-01 -1.815404e-01 2.274498e-01 1.730842e-01 5.159869e-01 1.607240e-01 9.366354e-02 1.311087e-01 1.142775e-01 7.906936e-02 -7.531093e-03 6.836027e-02 -4.372231e-02 4.519096e-02 6.262381e-02 -6.201644e-02 -5.402075e-02 -1.985522e-01
<VARIANCE> 39
 1.636609e+01 8.481285e+00 1.011344e+01 1.492122e+01 1.976488e+01 1.358578e+01 1.387782e+01 1.249674e+01 1.382928e+01 1.408570e+01 1.523035e+01 1.235989e+01 1.746795e+02 1.329486e+00 9.655552e-01 8.554891e-01 7.338991e-01 9.884775e-01 1.519845e+00 1.375672e+00 1.521314e+00 1.257217e+00 1.481321e+00 1.173415e+00 1.127223e+00 1.735486e+01 3.368821e-01 1.644350e-01 1.988034e-01 2.152735e-01 2.451092e-01 3.169739e-01 3.185407e-01 2.510387e-01 2.608423e-01 2.768977e-01 2.608134e-01 2.816292e-01 3.651747e+00
<GCONST> 9.766392e+01
<MIXTURE> 2 5.140796e-01
<MEAN> 39
 -1.659442e+01 -9.866575e-02 -1.936452e+00 -1.066228e+00 -4.045072e+00 -2.793758e+00 1.264569e+00 -2.433422e+00 1.321551e+00 3.342680e+00 4.423731e+00 7.750974e-01 7.035736e+01 2.454716e-02 -2.485150e-01 3.223806e-02 2.364344e-01 3.080028e-01 1.595240e-02 -2.085847e-01 -1.131198e-01 -2.164043e-01 -1.960331e-01 -2.530169e-01 -2.998641e-01 -1.733067e+00 5.437647e-02 8.938888e-02 -2.609150e-03 -4.672837e-02 -1.340487e-02 -1.144776e-01 -4.875992e-02 -1.377829e-01 -7.188463e-02 -2.855180e-02 -6.038399e-02 -6.071214e-02 -4.050057e-02
<VARIANCE> 39
 1.052509e+01 4.996636e+00 5.715067e+00 1.003665e+01 1.103492e+01 1.081951e+01 1.169467e+01 1.206912e+01 1.474667e+01 1.429037e+01 1.320185e+01 1.113326e+01 1.606747e+02 1.543457e+00 7.557301e-01 8.047014e-01 7.422528e-01 8.426527e-01 1.280850e+00 1.222875e+00 1.263261e+00 1.275783e+00 1.328890e+00 1.085996e+00 1.198710e+00 1.776249e+01 2.720195e-01 1.073938e-01 1.389554e-01 1.475471e-01 1.665421e-01 3.083272e-01 2.497281e-01 2.498980e-01 2.601236e-01 2.642234e-01 2.163766e-01 2.422569e-01 3.246607e+00
<GCONST> 9.104814e+01
<STATE> 4
<NUMMIXES> 2
<MIXTURE> 1 4.883931e-01
<MEAN> 39
 -9.706523e+00 2.125885e+00 2.910930e+00 1.690477e+00 3.695284e+00 1.237715e+00 3.745004e+00 -9.504769e-01 8.586324e-01 -2.521333e-01 2.454242e+00 -1.041107e+00 5.712315e+01 1.067808e-01 1.053090e-01 1.770171e-01 1.911679e-01 2.683528e-01 2.777203e-01 2.805012e-01 2.777630e-01 2.493582e-01 2.028545e-01 1.775248e-01 1.347073e-01 -1.786694e-01 1.429627e-02 2.327660e-02 2.895194e-02 3.810427e-02 4.414303e-02 5.083618e-02 4.040027e-02 4.121934e-02 4.783629e-02 4.677065e-02 3.856017e-02 2.655166e-02 -1.270237e-02
<VARIANCE> 39
 1.585124e+01 1.251866e+01 1.692188e+01 1.890567e+01 2.028550e+01 2.236352e+01 2.443410e+01 1.856428e+01 2.457121e+01 2.254888e+01 1.811607e+01 1.641385e+01 7.772108e+01 5.427000e-01 4.508379e-01 6.029255e-01 8.528501e-01 1.199647e+00 1.337426e+00 1.475772e+00 1.435111e+00 1.655894e+00 1.706174e+00 1.575146e+00 1.313122e+00 8.246563e-01 1.035398e-01 8.315918e-02 1.178023e-01 1.721114e-01 2.555501e-01 2.724774e-01 2.994048e-01 3.005013e-01 3.403784e-01 3.527308e-01 3.297075e-01 2.659609e-01 9.791117e-02
<GCONST> 9.145504e+01
<MIXTURE> 2 5.116038e-01
<MEAN> 39
 -1.016957e+01 8.529564e-01 1.277473e+00 -3.074826e-03 2.319131e+00 2.272211e-01 2.227308e+00 -1.424471e+00 -2.142197e-01 -4.242428e-01 1.917343e+00 -2.012487e+00 5.466781e+01 -2.233426e-02 -9.600246e-02 -1.274024e-01 -1.700970e-01 -1.955031e-01 -2.182259e-01 -2.323937e-01 -2.428469e-01 -2.454258e-01 -2.209475e-01 -1.963562e-01 -1.563513e-01 -3.273022e-02 -1.648898e-02 -2.349482e-02 -3.158361e-02 -4.115669e-02 -4.911875e-02 -5.171500e-02 -4.060105e-02 -3.948679e-02 -4.306823e-02 -4.152155e-02 -3.256266e-02 -2.178957e-02 1.739460e-02
<VARIANCE> 39
 1.538069e+01 1.011978e+01 1.384831e+01 1.449531e+01 1.784375e+01 2.056446e+01 2.266093e+01 1.968473e+01 2.331097e+01 2.278230e+01 1.772972e+01 1.746977e+01 3.885200e+01 6.159614e-01 4.932178e-01 6.951763e-01 9.005052e-01 1.284361e+00 1.388433e+00 1.564958e+00 1.518714e+00 1.722540e+00 1.720485e+00 1.545738e+00 1.365142e+00 8.380059e-01 9.253894e-02 8.553196e-02 1.299780e-01 1.754253e-01 2.520860e-01 2.760541e-01 3.193470e-01 3.110518e-01 3.490152e-01 3.503548e-01 3.156210e-01 2.794434e-01 1.093891e-01
<GCONST> 9.080695e+01
<TRANSP> 5
 0.000000e+00 1.000000e+00 0.000000e+00 0.000000e+00 0.000000e+00
 0.000000e+00 9.301527e-01 6.984735e-02 0.000000e+00 0.000000e+00
 0.000000e+00 0.000000e+00 8.741473e-01 1.258527e-01 0.000000e+00
 0.000000e+00 0.000000e+00 0.000000e+00 9.936255e-01 6.374489e-03
 0.000000e+00 0.000000e+00 0.000000e+00 0.000000e+00 0.000000e+00
<ENDHMM>
~h "kj"
<BEGINHMM>
<NUMSTATES> 5
<STATE> 2
<NUMMIXES> 2
<MIXTURE> 1 5.007025e-01
<MEAN> 39
 -1.975624e+01 3.949497e+00 3.851943e-02 -1.363348e+00 -8.949639e-01 3.902640e+00 2.397165e+00 2.718763e+00 -1.285318e-01 6.808680e-02 1.762415e+00 -6.711155e-01 5.561999e+01 2.366437e-02 1.234703e-01 1.455070e-01 1.774510e-01 2.145295e-01 2.392974e-01 2.527191e-01 2.582170e-01 2.613048e-01 2.587039e-01 2.351631e-01 1.676192e-01 1.228980e-02 1.015243e-02 2.161827e-02 3.020255e-02 4.035441e-02 4.857953e-02 5.238997e-02 5.693091e-02 5.377366e-02 4.312347e-02 4.395636e-02 3.398269e-02 2.523067e-02 6.362230e-03
<VARIANCE> 39
 3.135906e+01 2.248008e+01 1.700415e+01 2.749250e+01 1.708557e+01 3.556711e+01 2.675591e+01 2.073631e+01 1.795350e+01 2.097047e+01 1.680484e+01 1.551810e+01 2.274825e+01 6.437980e-01 5.150999e-01 6.996884e-01 8.914453e-01 1.105259e+00 1.416180e+00 1.531752e+00 1.560951e+00 1.529988e+00 1.603605e+00 1.442905e+00 1.317779e+00 3.615650e-01 1.077218e-01 9.489519e-02 1.325087e-01 1.790789e-01 2.218576e-01 2.902907e-01 3.176596e-01 3.223910e-01 3.241417e-01 3.312021e-01 3.056081e-01 2.713772e-01 5.690577e-02
<GCONST> 9.106362e+01
<MIXTURE> 2 4.992963e-01
<MEAN> 39
 -1.922534e+01 3.251050e+00 -4.478002e-01 -1.480042e+00 -1.051807e+00 3.011356e+00 1.982304e+00 2.084046e+00 -5.691223e-01 8.206946e-02 1.223239e+00 -1.055479e+00 5.605282e+01 -7.036342e-02 -8.982526e-02 -1.419471e-01 -1.848262e-01 -2.203872e-01 -2.186009e-01 -2.436893e-01 -2.587803e-01 -2.446491e-01 -2.621057e-01 -2.212538e-01 -1.706629e-01 5.565720e-04 -7.653188e-03 -2.501579e-02 -3.080847e-02 -3.938768e-02 -5.343726e-02 -5.764862e-02 -5.546939e-02 -5.122618e-02 -4.352416e-02 -4.207414e-02 -3.840716e-02 -2.575841e-02 -5.794100e-03
<VARIANCE> 39
 3.116708e+01 2.475322e+01 1.729311e+01 2.552859e+01 1.694670e+01 3.533864e+01 2.544863e+01 2.254405e+01 1.810818e+01 2.137174e+01 1.691966e+01 1.600809e+01 2.395687e+01 6.525975e-01 5.725635e-01 7.133412e-01 9.045123e-01 1.112432e+00 1.417938e+00 1.555843e+00 1.574646e+00 1.561690e+00 1.623979e+00 1.467020e+00 1.295930e+00 4.297440e-01 1.058051e-01 1.059584e-01 1.370570e-01 1.818483e-01 2.169205e-01 2.853222e-01 3.141880e-01 3.275922e-01 3.244993e-01 3.384560e-01 2.985628e-01 2.637726e-01 6.611392e-02
<GCONST> 9.185129e+01
<STATE> 3
<NUMMIXES> 2
<MIXTURE> 1 4.999118e-01
<MEAN> 39
 -1.452618e+01 -6.985988e+00 -4.161269e+00 -5.439410e-01 -1.456071e+00 -3.555930e+00 -1.901848e+00 -3.314872e+00 -2.421030e+00 8.385459e-01 6.485446e-01 -5.144588e-01 6.263185e+01 1.068805e-01 4.026610e-02 1.232864e-01 1.891918e-01 2.098377e-01 2.278567e-01 2.581959e-01 2.941389e-01 2.489843e-01 2.670670e-01 2.395987e-01 1.764513e-01 -1.115905e-01 6.674711e-03 3.784486e-02 4.829878e-02 2.000874e-02 4.754878e-02 5.023481e-02 7.504683e-02 6.636401e-02 6.982284e-02 5.157372e-02 3.786287e-02 1.680808e-02 -4.703493e-03
<VARIANCE> 39
 1.952550e+01 3.124666e+01 1.279443e+01 1.420644e+01 1.716314e+01 1.818884e+01 2.050949e+01 2.007353e+01 1.803463e+01 1.718198e+01 1.657691e+01 1.305513e+01 6.155609e+01 5.768757e-01 1.391768e+00 7.417749e-01 8.503491e-01 1.184349e+00 1.356374e+00 1.591024e+00 1.566367e+00 1.622907e+00 1.440931e+00 1.369369e+00 1.200328e+00 1.493412e+00 9.290195e-02 2.517499e-01 1.448320e-01 1.733293e-01 2.364106e-01 2.818315e-01 3.380263e-01 3.260335e-01 3.370740e-01 2.948596e-01 2.921539e-01 2.612570e-01 2.339590e-01
<GCONST> 9.405668e+01
<MIXTURE> 2 5.000874e-01
<MEAN> 39
 -1.568634e+01 -8.049704e+00 -4.402504e+00 -1.341323e+00 -2.329231e+00 -4.423409e+00 -2.537647e+00 -3.820237e+00 -2.764180e+00 3.399385e-01 2.052373e-01 -8.140610e-01 6.589534e+01 3.713997e-02 -3.379479e-01 -1.928353e-01 -1.581887e-01 -1.860637e-01 -3.708548e-01 -3.338619e-01 -4.152880e-01 -3.034077e-01 -2.532622e-01 -2.505180e-01 -1.506909e-01 2.072475e-01 -3.285737e-03 6.699428e-04 -1.151478e-02 -1.904485e-02 -2.512196e-02 -7.304150e-03 -2.236278e-02 -3.339939e-02 -5.300577e-02 -3.493760e-02 -3.031644e-02 -2.807112e-02 -4.017172e-02
<VARIANCE> 39
 1.722136e+01 3.111683e+01 1.255770e+01 1.569805e+01 1.712305e+01 2.049082e+01 2.025376e+01 1.969229e+01 1.801788e+01 1.757129e+01 1.564117e+01 1.364591e+01 6.927206e+01 7.654684e-01 2.117529e+00 9.064111e-01 1.016690e+00 1.344071e+00 1.912637e+00 1.956803e+00 1.717012e+00 1.589391e+00 1.482775e+00 1.386883e+00 1.282815e+00 2.796860e+00 1.157434e-01 2.921244e-01 1.551188e-01 1.956316e-01 2.567596e-01 3.362826e-01 3.577258e-01 3.457196e-01 3.378325e-01 3.166770e-01 2.858421e-01 2.626792e-01 3.193929e-01
<GCONST> 9.808508e+01
<STATE> 4
<NUMMIXES> 2
<MIXTURE> 1 5.014793e-01
<MEAN> 39
 -2.186592e+01 1.380819e+00 2.752647e+00 2.429486e+00 -2.685331e+00 -3.534545e-01 7.365050e+00 -4.134839e-01 -3.835625e+00 4.967286e+00 7.420612e-01 -3.679631e+00 5.571304e+01 8.341652e-02 1.148604e-01 1.488868e-01 1.727610e-01 2.358178e-01 2.470775e-01 2.625293e-01 2.784214e-01 2.888383e-01 2.325035e-01 2.173079e-01 1.613247e-01 -4.727978e-02 1.821702e-02 2.415569e-02 3.497562e-02 3.859000e-02 4.237940e-02 5.237201e-02 5.277695e-02 4.401612e-02 4.832152e-02 5.027414e-02 4.726942e-02 3.360313e-02 1.297669e-03
<VARIANCE> 39
 3.591980e+01 1.908029e+01 1.506870e+01 1.815304e+01 1.687724e+01 1.927396e+01 2.808934e+01 1.975989e+01 1.931903e+01 2.187312e+01 1.781372e+01 1.581369e+01 2.367389e+01 4.622422e-01 5.760229e-01 5.948477e-01 9.062265e-01 1.136435e+00 1.259059e+00 1.547665e+00 1.458566e+00 1.576854e+00 1.625770e+00 1.418281e+00 1.273737e+00 3.534167e-01 7.477676e-02 1.112976e-01 1.144960e-01 1.759749e-01 2.304994e-01 2.584315e-01 3.104610e-01 3.043242e-01 3.309945e-01 3.390612e-01 2.888609e-01 2.649577e-01 5.618003e-02
<GCONST> 8.898810e+01
<MIXTURE> 2 4.985202e-01
<MEAN> 39
 -2.065298e+01 2.647730e-01 1.722172e+00 1.671300e+00 -2.866104e+00 -1.311059e+00 5.958985e+00 -1.159755e+00 -4.069595e+00 4.330648e+00 5.100380e-01 -3.405050e+00 5.688795e+01 -2.276274e-02 -1.093638e-01 -1.379829e-01 -1.893419e-01 -2.237597e-01 -2.356194e-01 -2.469994e-01 -2.623362e-01 -2.728881e-01 -2.507223e-01 -2.142757e-01 -1.528411e-01 -1.569477e-02 -1.493071e-02 -2.728253e-02 -4.028704e-02 -4.370770e-02 -4.120287e-02 -5.321750e-02 -5.946155e-02 -4.581574e-02 -4.723286e-02 -5.705184e-02 -4.586068e-02 -2.877384e-02 -2.740340e-03
<VARIANCE> 39
 4.066041e+01 3.352361e+01 2.018100e+01 1.923011e+01 1.675784e+01 2.253591e+01 3.657627e+01 2.007580e+01 1.933899e+01 2.383569e+01 1.801447e+01 1.633596e+01 3.271566e+01 4.837953e-01 8.793566e-01 6.941344e-01 9.172728e-01 1.181469e+00 1.337128e+00 1.638584e+00 1.509729e+00 1.529810e+00 1.711125e+00 1.371170e+00 1.307288e+00 7.109933e-01 8.003763e-02 1.397277e-01 1.286941e-01 1.840555e-01 2.430343e-01 2.722251e-01 3.186520e-01 3.160736e-01 3.241478e-01 3.418747e-01 2.866636e-01 2.654068e-01 9.609482e-02
<GCONST> 9.359079e+01
<TRANSP> 5
 0.000000e+00 1.000000e+00 0.000000e+00 0.000000e+00 0.000000e+00
 0.000000e+00 9.938074e-01 6.192651e-03 0.000000e+00 0.000000e+00
 0.000000e+00 0.000000e+00 9.736800e-01 2.632003e-02 0.000000e+00
 0.000000e+00 0.000000e+00 0.000000e+00 9.913380e-01 8.662037e-03
 0.000000e+00 0.000000e+00 0.000000e+00 0.000000e+00 0.000000e+00
<ENDHMM>
~h "kn"
<BEGINHMM>
<NUMSTATES> 5
<STATE> 2
<NUMMIXES> 2
<MIXTURE> 1 4.865986e-01
<MEAN> 39
 1.129712e+00 -7.015885e-02 -3.797919e+00 -2.087348e+00 1.507854e+00 -1.187825e+00 2.359548e+00 -4.166890e+00 8.372784e-01 -8.742551e-01 1.310772e+00 -3.772317e+00 6.091213e+01 -1.747423e-02 5.302856e-01 1.612075e-01 2.746721e-01 5.692613e-01 -2.000733e-01 8.312759e-01 5.247014e-01 1.452278e+00 3.954444e-01 4.075782e-01 6.112887e-01 2.142242e+00 -1.933018e-01 1.673474e-01 2.520258e-01 1.296579e-01 2.922082e-01 3.376710e-01 -2.406201e-02 1.191105e-01 -2.991225e-01 1.826777e-02 3.219742e-02 1.638483e-01 -7.787223e-01
<VARIANCE> 39
 2.193914e+01 2.672828e+01 2.543223e+01 1.285881e+01 1.907993e+01 2.781285e+01 2.676661e+01 4.918944e+01 3.261730e+01 2.911891e+01 2.298769e+01 1.867639e+01 1.023285e+02 2.334913e+00 1.226044e+00 1.617933e+00 1.032044e+00 1.322447e+00 1.931702e+00 2.940042e+00 5.073472e+00 2.940495e+00 2.100270e+00 1.972647e+00 1.881698e+00 6.418295e+00 3.278610e-01 1.871697e-01 2.621295e-01 1.642432e-01 1.976600e-01 3.506025e-01 5.293044e-01 8.889191e-01 6.703582e-01 4.058674e-01 3.441370e-01 3.343315e-01 9.535677e-01
<GCONST> 1.121699e+02
<MIXTURE> 2 5.134015e-01
<MEAN> 39
 -2.039196e+00 1.535993e+00 -1.123353e+00 -2.826327e+00 9.327227e-01 -1.125565e-01 1.643307e+00 -3.011180e+00 -1.250752e+00 2.696549e-02 1.618960e-01 -4.053194e+00 5.326496e+01 3.535521e-01 -1.344379e-01 -3.239110e-01 5.102866e-02 -2.098474e-02 -5.402437e-01 6.623880e-02 -6.108657e-01 4.721027e-01 4.394066e-02 7.401462e-03 -6.368577e-03 1.711446e+00 9.539840e-02 7.026672e-03 -4.750879e-02 4.523603e-02 8.223940e-02 7.624179e-02 -4.662127e-02 -4.133855e-03 -5.534944e-02 -9.584749e-02 -2.479922e-02 3.326291e-02 -5.008358e-02
<VARIANCE> 39
 2.394942e+01 2.125524e+01 2.971534e+01 1.064265e+01 2.197115e+01 2.400127e+01 2.508930e+01 5.913387e+01 2.423379e+01 3.436742e+01 2.536874e+01 1.765845e+01 1.207641e+02 2.219446e+00 1.309662e+00 2.028891e+00 8.969412e-01 1.478832e+00 2.129076e+00 2.707548e+00 4.862428e+00 3.249570e+00 2.413783e+00 2.064420e+00 2.237113e+00 7.058675e+00 2.988113e-01 1.494226e-01 2.750390e-01 1.321882e-01 2.125026e-01 2.904364e-01 4.628856e-01 6.081155e-01 5.445851e-01 3.780767e-01 3.232201e-01 3.201146e-01 9.193481e-01
<GCONST> 1.113849e+02
<STATE> 3
<NUMMIXES> 2
<MIXTURE> 1 4.951049e-01
<MEAN> 39
 5.496947e+00 -3.780591e-01 -2.840063e+00 8.829799e-01 4.540366e+00 -8.862395e-01 2.310004e+00 -3.615026e+00 2.717254e-01 -6.721883e-01 1.548156e+00 -1.456964e+00 6.120971e+01 1.380986e-01 1.705838e-01 1.683646e-01 1.841332e-01 2.311956e-01 2.075384e-01 2.453560e-01 4.261983e-01 3.012110e-01 3.236572e-01 2.263582e-01 2.933487e-01 -1.124763e-01 4.037032e-05 6.592489e-02 6.799490e-02 1.001189e-01 1.010252e-01 1.153079e-01 8.999673e-03 3.985766e-02 -6.807401e-03 6.775601e-02 7.196241e-03 -1.892107e-02 -1.631105e-01
<VARIANCE> 39
 1.201063e+01 2.314263e+01 1.435699e+01 1.452615e+01 1.865368e+01 2.253123e+01 2.153458e+01 2.328448e+01 2.279209e+01 2.042693e+01 1.694118e+01 1.704111e+01 3.349249e+01 3.725910e-01 7.988995e-01 6.860046e-01 8.894385e-01 1.227938e+00 1.300622e+00 1.413849e+00 1.698067e+00 1.706116e+00 1.383189e+00 1.322935e+00 1.345589e+00 1.751101e+00 7.309312e-02 1.785281e-01 1.384908e-01 2.063332e-01 2.896543e-01 2.724563e-01 3.155676e-01 4.112166e-01 3.790279e-01 3.033316e-01 2.661455e-01 2.814564e-01 3.157803e-01
<GCONST> 9.347403e+01
<MIXTURE> 2 5.048937e-01
<MEAN> 39
 5.544059e+00 4.126959e-02 -2.758820e+00 8.556533e-01 4.272528e+00 -9.645211e-01 1.068729e+00 -4.340992e+00 -1.094938e+00 -1.218798e+00 6.168926e-01 -2.214406e+00 5.890202e+01 -1.817695e-02 -2.014236e-01 -1.111531e-01 -8.831359e-02 -1.861484e-01 -1.733551e-01 -2.532848e-01 -3.849406e-01 -3.834805e-01 -2.908706e-01 -2.438150e-01 -2.462225e-01 -1.034012e-01 -5.402271e-04 -7.399792e-02 -7.487895e-02 -1.084584e-01 -1.184218e-01 -1.142448e-01 -2.046463e-02 -4.390077e-02 -1.326781e-02 -7.255674e-02 -1.738420e-02 -1.261646e-02 1.402995e-01
<VARIANCE> 39
 1.170067e+01 2.437612e+01 1.481378e+01 1.443638e+01 1.840796e+01 2.093490e+01 1.959715e+01 2.255088e+01 2.053941e+01 2.014198e+01 1.651116e+01 1.676966e+01 3.110122e+01 4.079719e-01 7.751614e-01 7.907134e-01 9.866723e-01 1.374207e+00 1.337569e+00 1.362003e+00 1.796423e+00 1.597356e+00 1.433851e+00 1.280877e+00 1.373228e+00 2.098215e+00 6.495243e-02 1.286790e-01 1.303460e-01 1.754681e-01 2.590044e-01 2.464008e-01 2.798935e-01 3.910448e-01 3.654930e-01 3.200179e-01 2.785724e-01 2.991512e-01 2.836047e-01
<GCONST> 9.264835e+01
<STATE> 4
<NUMMIXES> 2
<MIXTURE> 1 5.089622e-01
<MEAN> 39
 4.130567e+00 2.319361e+00 3.623508e-01 1.323551e+00 5.669939e+00 2.553217e+00 1.782833e+00 -1.244831e+00 -2.579773e+00 -1.287250e+00 3.003122e-02 -2.709082e+00 5.173512e+01 -1.133050e-01 2.423763e-01 3.552428e-01 1.360271e-01 2.035506e-01 4.236148e-01 1.911316e-01 4.399173e-01 1.741034e-01 1.874904e-01 1.270661e-01 4.840586e-02 -4.160244e-01 1.311688e-03 2.156619e-02 3.835956e-02 2.489957e-02 4.190498e-02 5.806263e-02 1.149948e-01 9.475376e-02 7.578766e-02 4.624700e-02 7.638083e-02 3.946045e-02 3.605797e-02
<VARIANCE> 39
 1.298892e+01 1.779601e+01 1.441349e+01 1.295804e+01 2.096666e+01 1.735411e+01 1.889930e+01 1.902280e+01 2.111431e+01 1.962533e+01 1.508280e+01 1.530273e+01 2.557525e+01 1.911895e-01 3.171203e-01 4.940284e-01 5.994465e-01 9.249100e-01 9.946964e-01 1.202583e+00 1.324425e+00 1.365891e+00 1.295074e+00 1.152122e+00 1.146545e+00 1.171747e-01 2.648395e-02 5.374951e-02 9.381447e-02 1.196530e-01 1.735470e-01 1.952632e-01 2.476240e-01 2.878653e-01 3.077462e-01 2.607666e-01 2.311366e-01 2.169606e-01 8.853916e-03
<GCONST> 7.659615e+01
<MIXTURE> 2 4.910370e-01
<MEAN> 39
 3.918096e+00 2.534237e+00 6.227666e-01 6.484562e-01 4.847778e+00 2.429319e+00 1.415974e+00 -1.075394e+00 -2.915336e+00 -1.533640e+00 -2.663849e-01 -3.105524e+00 5.120742e+01 -2.838121e-01 -1.960222e-02 -1.456147e-03 -2.543009e-01 -1.643637e-01 1.297625e-02 -2.143797e-01 -1.073377e-01 -4.184256e-01 -2.988683e-01 -2.506173e-01 -2.271141e-01 -4.456998e-01 -2.295218e-02 -4.216887e-02 -5.211209e-02 -6.209538e-02 -8.326201e-02 -1.015166e-01 -8.086047e-02 -9.714221e-02 -4.252814e-02 -4.623461e-02 -5.892114e-02 -1.887120e-02 1.618174e-02
<VARIANCE> 39
 1.550047e+01 1.903649e+01 1.703021e+01 1.378997e+01 2.201261e+01 1.735594e+01 1.894429e+01 1.940115e+01 2.065677e+01 1.960812e+01 1.486538e+01 1.426129e+01 2.609394e+01 1.621172e-01 3.293338e-01 5.071952e-01 5.554860e-01 8.988338e-01 1.069971e+00 1.236823e+00 1.431660e+00 1.520563e+00 1.360827e+00 1.263739e+00 1.104827e+00 1.190171e-01 2.512092e-02 5.444406e-02 9.553440e-02 1.120454e-01 1.806940e-01 1.989338e-01 2.527464e-01 2.708421e-01 3.069066e-01 2.894256e-01 2.590706e-01 2.268704e-01 9.074246e-03
<GCONST> 7.746944e+01
<TRANSP> 5
 0.000000e+00 1.000000e+00 0.000000e+00 0.000000e+00 0.000000e+00
 0.000000e+00 8.379529e-01 1.620471e-01 0.000000e+00 0.000000e+00
 0.000000e+00 0.000000e+00 9.856915e-01 1.430852e-02 0.000000e+00
 0.000000e+00 0.000000e+00 0.000000e+00 9.534252e-01 4.657481e-02
 0.000000e+00 0.000000e+00 0.000000e+00 0.000000e+00 0.000000e+00
<ENDHMM>
~h "kt"
<BEGINHMM>
<NUMSTATES> 5
<STATE> 2
<NUMMIXES> 2
<MIXTURE> 1 4.971178e-01
<MEAN> 39
 -1.130413e+01 2.267789e-01 -6.407971e+00 -1.076638e+00 1.392824e+00 1.209936e+00 4.733984e+00 8.919082e-01 1.400912e+00 9.952654e-01 1.666209e+00 -1.186053e+00 5.597680e+01 5.210626e-02 1.161500e-01 1.725944e-01 2.431241e-01 2.611547e-01 2.857927e-01 3.447382e-01 3.376464e-01 3.033303e-01 3.462393e-01 2.822323e-01 1.970376e-01 6.036541e-02 5.523325e-02 1.677286e-02 3.164033e-02 4.794694e-02 7.184677e-02 7.636328e-02 7.034351e-02 3.994833e-02 3.239647e-02 4.651553e-02 4.994923e-02 2.690421e-02 -4.405147e-02
<VARIANCE> 39
 1.490275e+01 6.049837e+00 7.716018e+00 1.102577e+01 1.199745e+01 1.740761e+01 1.644860e+01 1.638019e+01 1.666894e+01 1.578939e+01 1.421782e+01 1.288466e+01 1.892866e+01 9.063783e-01 4.157043e-01 5.953465e-01 8.049325e-01 1.055155e+00 1.427772e+00 1.629679e+00 1.637351e+00 1.557627e+00 1.577201e+00 1.422511e+00 1.258190e+00 1.040868e+00 1.722479e-01 8.547685e-02 1.256297e-01 1.657298e-01 2.197103e-01 2.969472e-01 3.566139e-01 3.533299e-01 3.286767e-01 3.510281e-01 2.932156e-01 2.549567e-01 1.917577e-01
<GCONST> 8.718904e+01
<MIXTURE> 2 5.028809e-01
<MEAN> 39
 -1.070492e+01 7.074627e-02 -6.551424e+00 -1.115031e+00 1.514891e+00 1.408255e+00 4.648220e+00 5.092942e-01 9.772698e-01 6.830724e-01 1.478352e+00 -1.444321e+00 5.533279e+01 -4.673141e-02 -1.133607e-01 -1.819587e-01 -2.402890e-01 -2.591926e-01 -2.842415e-01 -3.345423e-01 -3.362456e-01 -3.065891e-01 -3.429492e-01 -2.781810e-01 -2.006300e-01 -5.851328e-02 -5.224543e-02 -1.776311e-02 -2.859598e-02 -4.668951e-02 -6.972076e-02 -7.595751e-02 -7.049882e-02 -3.818515e-02 -3.425488e-02 -4.614327e-02 -5.032707e-02 -2.764466e-02 3.963678e-02
<VARIANCE> 39
 1.456891e+01 6.443915e+00 7.349053e+00 1.067997e+01 1.197452e+01 1.692463e+01 1.602802e+01 1.615307e+01 1.681297e+01 1.497829e+01 1.459744e+01 1.358278e+01 1.766891e+01 8.868606e-01 4.421151e-01 5.797806e-01 7.823891e-01 1.021157e+00 1.342630e+00 1.523314e+00 1.493690e+00 1.505788e+00 1.487732e+00 1.391991e+00 1.268930e+00 9.713902e-01 1.530573e-01 8.665664e-02 1.211912e-01 1.615315e-01 2.190456e-01 2.897051e-01 3.443002e-01 3.377422e-01 3.228742e-01 3.276657e-01 2.976977e-01 2.702366e-01 1.550022e-01
<GCONST> 8.610182e+01
<STATE> 3
<NUMMIXES> 2
<MIXTURE> 1 5.014927e-01
<MEAN> 39
 -1.202749e+01 3.221610e+00 -2.667649e+00 9.427833e-01 8.967021e-01 -2.090607e+00 2.670541e+00 1.257226e+00 1.589805e-01 -4.821081e-01 -1.249677e-01 -1.467961e+00 5.304915e+01 1.514351e-01 5.815303e-02 2.009340e-01 2.189445e-01 2.583913e-01 3.445815e-01 3.414435e-01 2.590109e-01 3.011621e-01 1.923578e-01 3.244950e-01 1.190375e-01 -1.374837e-01 3.002867e-02 2.301939e-02 3.869371e-02 4.145015e-02 5.707058e-02 3.971132e-02 4.178428e-02 6.848855e-02 5.376656e-02 6.079620e-02 2.815086e-02 3.490147e-02 -7.200330e-02
<VARIANCE> 39
 7.733890e+00 5.952636e+00 9.074553e+00 1.180630e+01 1.472406e+01 1.594250e+01 1.680955e+01 1.700613e+01 1.766957e+01 1.968172e+01 1.739766e+01 1.402684e+01 2.011093e+01 6.018172e-01 4.299586e-01 6.631054e-01 8.480052e-01 1.191867e+00 1.553883e+00 1.452775e+00 1.516546e+00 1.603372e+00 2.088983e+00 1.556376e+00 1.384351e+00 1.291698e+00 1.389400e-01 8.475946e-02 1.468231e-01 1.856573e-01 2.615050e-01 3.565764e-01 3.296227e-01 3.219953e-01 3.436841e-01 4.396608e-01 3.355868e-01 2.830228e-01 3.068779e-01
<GCONST> 8.927108e+01
<MIXTURE> 2 4.985056e-01
<MEAN> 39
 -1.230245e+01 3.160557e+00 -2.901577e+00 8.777921e-01 7.868169e-01 -2.639350e+00 2.193163e+00 1.002033e+00 -1.230549e-01 -6.753808e-01 -6.283262e-01 -1.763246e+00 5.320164e+01 -1.674805e-01 -5.624502e-02 -2.105111e-01 -2.075518e-01 -2.520237e-01 -3.671830e-01 -3.177660e-01 -2.903472e-01 -2.955999e-01 -2.091568e-01 -3.117623e-01 -1.401782e-01 1.606250e-01 -1.431007e-02 -2.716173e-02 -3.274058e-02 -4.484611e-02 -4.759315e-02 -1.989985e-02 -3.497291e-02 -5.977931e-02 -4.451022e-02 -5.491258e-02 -2.159607e-02 -3.094558e-02 4.171353e-02
<VARIANCE> 39
 8.177141e+00 6.465932e+00 9.277376e+00 1.168894e+01 1.443216e+01 1.768912e+01 1.798757e+01 1.699503e+01 1.777157e+01 1.966032e+01 1.766504e+01 1.386879e+01 2.069570e+01 8.481246e-01 5.218256e-01 7.748397e-01 9.236261e-01 1.353067e+00 1.800173e+00 1.683546e+00 1.527723e+00 1.668767e+00 2.100662e+00 1.654306e+00 1.344134e+00 1.982058e+00 1.484194e-01 9.386126e-02 1.547764e-01 1.905527e-01 2.800283e-01 4.073304e-01 3.517889e-01 3.205722e-01 3.515583e-01 4.527795e-01 3.397642e-01 2.788233e-01 3.163305e-01
<GCONST> 9.191052e+01
<STATE> 4
<NUMMIXES> 2
<MIXTURE> 1 4.985798e-01
<MEAN> 39
 -9.708908e+00 3.219808e+00 -2.465215e+00 8.893568e-02 5.993327e-01 8.788972e-02 3.397355e+00 2.352516e+00 7.574755e-01 1.004507e-01 8.244406e-01 -1.968064e+00 4.879305e+01 1.168535e-01 1.026701e-01 1.811262e-01 1.886713e-01 2.674166e-01 2.990904e-01 3.009644e-01 2.897452e-01 3.124895e-01 2.932844e-01 2.690982e-01 1.771244e-01 -7.756793e-02 2.275938e-02 2.745459e-02 4.029172e-02 4.299203e-02 5.187479e-02 4.567182e-02 4.077099e-02 5.127091e-02 6.219251e-02 4.913844e-02 2.969148e-02 2.945616e-02 -1.589344e-02
<VARIANCE> 39
 9.196907e+00 8.743112e+00 1.130284e+01 1.160860e+01 1.638534e+01 1.561429e+01 1.661336e+01 1.689730e+01 1.705877e+01 1.714488e+01 1.500471e+01 1.286627e+01 1.128394e+01 6.145954e-01 4.691441e-01 6.511468e-01 8.028818e-01 1.051870e+00 1.161755e+00 1.333585e+00 1.374304e+00 1.508349e+00 1.515914e+00 1.365031e+00 1.184664e+00 6.212707e-01 1.256742e-01 9.610742e-02 1.329503e-01 1.682866e-01 2.250301e-01 2.494524e-01 2.847720e-01 2.944203e-01 3.278803e-01 3.248889e-01 2.878890e-01 2.404982e-01 1.326252e-01
<GCONST> 8.472871e+01
<MIXTURE> 2 5.014189e-01
<MEAN> 39
 -9.713676e+00 3.116776e+00 -2.644835e+00 -1.548178e-01 2.816413e-01 -2.803119e-01 2.896372e+00 1.935219e+00 5.566704e-01 -1.497028e-01 3.643583e-01 -2.217937e+00 4.881101e+01 -8.206550e-02 -1.060195e-01 -1.666421e-01 -2.059481e-01 -2.522708e-01 -2.747757e-01 -2.925830e-01 -2.754134e-01 -3.108040e-01 -2.886347e-01 -2.611668e-01 -1.731759e-01 3.321308e-02 -2.388877e-02 -2.721649e-02 -4.018816e-02 -4.070399e-02 -5.135277e-02 -4.835954e-02 -4.521704e-02 -5.196259e-02 -6.374164e-02 -5.060768e-02 -3.186747e-02 -2.863811e-02 2.032040e-02
<VARIANCE> 39
 9.817289e+00 9.217721e+00 1.059894e+01 1.150534e+01 1.686788e+01 1.604127e+01 1.711524e+01 1.780621e+01 1.763964e+01 1.751382e+01 1.506765e+01 1.309979e+01 1.197913e+01 7.446595e-01 5.416067e-01 6.857197e-01 8.386106e-01 1.126179e+00 1.297854e+00 1.355448e+00 1.436662e+00 1.516667e+00 1.545000e+00 1.365842e+00 1.214681e+00 9.274794e-01 1.351408e-01 1.014747e-01 1.365850e-01 1.716181e-01 2.319783e-01 2.769625e-01 2.972980e-01 2.998994e-01 3.252453e-01 3.400601e-01 2.927241e-01 2.503119e-01 1.514639e-01
<GCONST> 8.676694e+01
<TRANSP> 5
 0.000000e+00 1.000000e+00 0.000000e+00 0.000000e+00 0.000000e+00
 0.000000e+00 9.916900e-01 8.309969e-03 0.000000e+00 0.000000e+00
 0.000000e+00 0.000000e+00 9.848933e-01 1.510672e-02 0.000000e+00
 0.000000e+00 0.000000e+00 0.000000e+00 9.930217e-01 6.978353e-03
 0.000000e+00 0.000000e+00 0.000000e+00 0.000000e+00 0.000000e+00
<ENDHMM>
~h "pr"
<BEGINHMM>
<NUMSTATES> 5
<STATE> 2
<NUMMIXES> 2
<MIXTURE> 1 5.017495e-01
<MEAN> 39
 -1.452076e+01 -7.955190e+00 -1.100335e-01 -6.858926e+00 2.980364e+00 5.920020e+00 5.080686e+00 1.900385e-01 -2.678053e+00 -2.123641e+00 5.082100e+00 -2.621229e-01 5.793073e+01 -7.027837e-03 1.057238e-01 1.846747e-01 1.915452e-01 2.539085e-01 2.470309e-01 2.272634e-01 1.813365e-01 2.622660e-01 2.077775e-01 2.263750e-01 2.220411e-01 4.440992e-02 2.666972e-02 3.573810e-02 5.213605e-02 5.462689e-02 6.121061e-02 6.869467e-02 6.926434e-02 7.461199e-02 6.354135e-02 5.788631e-02 5.984522e-02 5.947102e-02 -4.826807e-03
<VARIANCE> 39
 3.354111e+01 4.371513e+01 4.156626e+01 3.495296e+01 4.562819e+01 7.036590e+01 5.181483e+01 6.251022e+01 6.190678e+01 3.394162e+01 5.658431e+01 5.807216e+01 2.636141e+01 8.563465e-01 7.666408e-01 9.298303e-01 1.347330e+00 1.444236e+00 1.778908e+00 1.998637e+00 2.312483e+00 2.207345e+00 1.908744e+00 2.319762e+00 2.119082e+00 5.889283e-01 1.208880e-01 1.227767e-01 1.647469e-01 2.418619e-01 2.651281e-01 3.276939e-01 3.747626e-01 4.144917e-01 4.214278e-01 3.586836e-01 4.396723e-01 3.780872e-01 8.233013e-02
<GCONST> 1.082868e+02
<MIXTURE> 2 4.982497e-01
<MEAN> 39
 -1.468504e+01 -7.680968e+00 -5.272168e-02 -6.750133e+00 2.800512e+00 5.188860e+00 4.801013e+00 3.155405e-01 -1.734359e+00 -1.972807e+00 4.651068e+00 -7.213035e-01 5.844379e+01 -7.171483e-02 -1.307571e-01 -1.586425e-01 -2.257561e-01 -2.270002e-01 -2.130812e-01 -2.141146e-01 -2.199544e-01 -2.516201e-01 -2.395339e-01 -2.446982e-01 -1.331812e-01 2.481965e-02 4.657363e-04 -3.125614e-02 -5.407593e-02 -4.956088e-02 -6.839304e-02 -6.630170e-02 -7.982762e-02 -7.233015e-02 -5.991044e-02 -4.732092e-02 -7.312186e-02 -6.937399e-02 -1.742907e-02
<VARIANCE> 39
 3.156762e+01 4.153285e+01 4.745481e+01 3.571734e+01 4.777003e+01 6.986469e+01 5.109068e+01 6.391878e+01 5.660112e+01 3.483492e+01 5.228660e+01 5.430846e+01 2.573994e+01 7.717508e-01 7.951002e-01 9.680386e-01 1.326500e+00 1.462101e+00 1.771464e+00 2.115561e+00 2.243982e+00 2.183275e+00 1.985166e+00 2.328447e+00 2.008667e+00 6.048251e-01 1.177881e-01 1.298834e-01 1.638591e-01 2.333409e-01 2.677533e-01 3.132915e-01 3.918712e-01 3.969571e-01 4.098174e-01 3.600701e-01 4.293302e-01 3.694358e-01 8.275386e-02
<GCONST> 1.080291e+02
<STATE> 3
<NUMMIXES> 2
<MIXTURE> 1 5.019345e-01
<MEAN> 39
 -1.933071e+01 3.302327e+00 1.784815e+01 -1.655266e+01 3.469109e+00 1.240930e+01 -5.981874e+00 -4.153246e+00 1.043760e+01 -5.206048e+00 -8.538586e+00 9.038210e+00 5.248177e+01 1.163764e-01 1.124139e-01 1.617440e-01 1.927104e-01 2.812011e-01 1.964217e-01 2.651641e-01 3.207659e-01 1.922199e-01 2.861138e-01 1.938217e-01 1.592181e-01 -1.042402e-02 7.508144e-03 4.163805e-02 4.539176e-02 6.354940e-02 5.885554e-02 4.371909e-02 6.623522e-02 7.182109e-02 5.608797e-02 5.467736e-02 6.418867e-02 3.577663e-02 1.553414e-02
<VARIANCE> 39
 2.077880e+01 1.679112e+01 1.316433e+01 3.024540e+01 2.840639e+01 2.299253e+01 1.714679e+01 3.774552e+01 3.329625e+01 4.446716e+01 3.072535e+01 1.991428e+01 1.340198e+01 5.383202e-01 3.945417e-01 4.683133e-01 8.084373e-01 1.187979e+00 1.536051e+00 1.259445e+00 1.389197e+00 1.561850e+00 1.627929e+00 1.805738e+00 1.077516e+00 2.243306e-01 1.292105e-01 8.064163e-02 9.856109e-02 1.658919e-01 2.568613e-01 3.398419e-01 2.692345e-01 3.021042e-01 3.287275e-01 3.269057e-01 3.597107e-01 2.240841e-01 5.415855e-02
<GCONST> 9.024007e+01
<MIXTURE> 2 4.980642e-01
<MEAN> 39
 -1.910745e+01 3.353102e+00 1.773743e+01 -1.614131e+01 3.387063e+00 1.180694e+01 -5.971076e+00 -4.097974e+00 1.017424e+01 -4.928437e+00 -8.533424e+00 8.796839e+00 5.288648e+01 2.716058e-02 -1.767624e-01 -1.889581e-01 -2.042037e-01 -2.353402e-01 -2.421753e-01 -3.260451e-01 -2.459415e-01 -2.593448e-01 -2.087098e-01 -2.401038e-01 -1.514885e-01 -1.019993e-01 -3.936558e-03 -3.749707e-02 -6.021922e-02 -5.108295e-02 -4.733305e-02 -7.210834e-02 -5.975800e-02 -4.894143e-02 -7.477680e-02 -6.000988e-02 -4.236710e-02 -6.080693e-02 -1.903419e-02
<VARIANCE> 39
 2.033336e+01 1.959758e+01 1.575817e+01 3.382126e+01 2.858920e+01 2.502272e+01 1.774971e+01 3.851125e+01 3.395897e+01 4.663865e+01 3.198126e+01 2.118584e+01 1.494611e+01 5.275978e-01 4.846647e-01 5.251719e-01 8.841169e-01 1.188306e+00 1.557413e+00 1.325086e+00 1.502202e+00 1.558603e+00 1.600042e+00 1.842472e+00 1.133297e+00 2.442842e-01 1.304860e-01 9.008193e-02 1.031656e-01 1.794902e-01 2.564202e-01 3.362513e-01 2.814955e-01 3.117940e-01 3.372218e-01 3.113455e-01 3.723978e-01 2.301719e-01 5.751208e-02
<GCONST> 9.216483e+01
<STATE> 4
<NUMMIXES> 2
<MIXTURE> 1 4.979942e-01
<MEAN> 39
 -1.408704e+01 -4.987860e+00 4.751525e+00 -5.902713e+00 3.474605e+00 -1.655953e+00 2.870788e+00 4.564597e+00 2.632053e+00 -2.151641e+00 -3.367151e+00 2.941711e+00 5.382287e+01 8.642467e-02 1.565854e-01 1.596815e-01 2.144973e-01 2.077053e-01 2.389643e-01 2.575749e-01 2.589416e-01 2.649713e-01 2.350544e-01 2.311714e-01 1.450327e-01 -3.337046e-04 2.070397e-02 4.589689e-02 6.215729e-02 6.112202e-02 7.913169e-02 9.055192e-02 9.445797e-02 8.064607e-02 7.966821e-02 8.118847e-02 6.405386e-02 5.283431e-02 1.392204e-02
<VARIANCE> 39
 4.010239e+01 5.392216e+01 5.113999e+01 5.604456e+01 8.416222e+01 9.294532e+01 6.696162e+01 6.367656e+01 5.235802e+01 4.979963e+01 5.304342e+01 7.039062e+01 4.730869e+01 3.459617e-01 3.890750e-01 6.300703e-01 9.158280e-01 1.067053e+00 1.454972e+00 1.429922e+00 1.507108e+00 1.608290e+00 1.665495e+00 1.496142e+00 1.325335e+00 1.716905e-01 5.848877e-02 7.276005e-02 1.182457e-01 1.689628e-01 2.144134e-01 2.895926e-01 2.927628e-01 2.911382e-01 3.175921e-01 3.372053e-01 3.050580e-01 2.574846e-01 2.718681e-02
<GCONST> 1.001506e+02
<MIXTURE> 2 5.020050e-01
<MEAN> 39
 -1.402344e+01 -5.299144e+00 4.842998e+00 -5.582905e+00 3.493267e+00 -1.044082e+00 3.905073e+00 4.625123e+00 2.835918e+00 -1.803981e+00 -2.931129e+00 2.835726e+00 5.456340e+01 -2.008020e-02 -1.116936e-01 -1.952127e-01 -1.773237e-01 -2.480532e-01 -2.506694e-01 -2.425035e-01 -2.628468e-01 -2.604364e-01 -2.358436e-01 -2.077352e-01 -1.864906e-01 -6.159575e-02 -2.216335e-02 -4.446372e-02 -5.888392e-02 -6.202037e-02 -7.927658e-02 -8.691780e-02 -9.310692e-02 -8.143918e-02 -7.871401e-02 -7.759322e-02 -6.315990e-02 -5.463591e-02 -1.319914e-02
<VARIANCE> 39
 3.868572e+01 5.482618e+01 5.275889e+01 5.329959e+01 8.793669e+01 8.891486e+01 6.888334e+01 6.322231e+01 5.278708e+01 4.936586e+01 5.072557e+01 6.920802e+01 4.594104e+01 2.844836e-01 3.981502e-01 6.070651e-01 8.762069e-01 1.090222e+00 1.461136e+00 1.506792e+00 1.515802e+00 1.629207e+00 1.707429e+00 1.508678e+00 1.348666e+00 1.521535e-01 5.457093e-02 7.135905e-02 1.168305e-01 1.640970e-01 2.151687e-01 2.843868e-01 2.911242e-01 2.940197e-01 3.186920e-01 3.341082e-01 3.014688e-01 2.648436e-01 2.557315e-02
<GCONST> 9.962287e+01
<TRANSP> 5
 0.000000e+00 1.000000e+00 0.000000e+00 0.000000e+00 0.000000e+00
 0.000000e+00 9.894392e-01 1.056074e-02 0.000000e+00 0.000000e+00
 0.000000e+00 0.000000e+00 9.848756e-01 1.512446e-02 0.000000e+00
 0.000000e+00 0.000000e+00 0.000000e+00 9.952199e-01 4.780042e-03
 0.000000e+00 0.000000e+00 0.000000e+00 0.000000e+00 0.000000e+00
<ENDHMM>
~h "pw"
<BEGINHMM>
<NUMSTATES> 5
<STATE> 2
<NUMMIXES> 2
<MIXTURE> 1 5.000685e-01
<MEAN> 39
 -1.302775e+01 -1.831196e+00 -8.865001e-01 -5.262790e-01 1.464230e+00 -6.581815e-01 3.414836e+00 5.437106e-01 -3.673233e-01 1.182733e+00 3.517268e-01 -8.526925e-01 5.320787e+01 4.855296e-02 1.172182e-01 1.478555e-01 1.990134e-01 2.405503e-01 2.522269e-01 2.778651e-01 2.773505e-01 2.691457e-01 2.619999e-01 2.316601e-01 1.938045e-01 -2.120158e-02 9.158650e-03 2.223970e-02 3.393334e-02 4.030716e-02 4.207094e-02 4.221859e-02 3.780279e-02 5.411163e-02 4.104380e-02 4.194630e-02 3.984409e-02 2.916231e-02 6.979307e-03
<VARIANCE> 39
 1.603433e+01 2.008554e+01 1.198217e+01 1.194151e+01 1.473156e+01 1.675229e+01 1.684204e+01 1.772146e+01 1.660122e+01 1.555389e+01 1.449312e+01 1.288647e+01 2.020842e+01 5.115343e-01 6.871232e-01 6.355928e-01 8.354585e-01 1.040598e+00 1.289737e+00 1.342495e+00 1.430030e+00 1.499907e+00 1.370708e+00 1.375467e+00 1.205817e+00 4.581297e-01 8.753959e-02 1.231660e-01 1.305543e-01 1.710345e-01 2.188827e-01 2.731740e-01 2.827978e-01 3.030403e-01 3.250064e-01 2.907718e-01 2.989659e-01 2.512200e-01 7.361839e-02
<GCONST> 8.596394e+01
<MIXTURE> 2 4.999289e-01
<MEAN> 39
 -1.352806e+01 -2.378258e+00 -1.101897e+00 -7.579799e-01 9.394833e-01 -1.442488e+00 2.688766e+00 -1.143900e-01 -9.275250e-01 7.986769e-01 -5.691358e-02 -1.058766e+00 5.447392e+01 -5.295817e-02 -1.250095e-01 -1.411450e-01 -2.008039e-01 -2.446754e-01 -2.673864e-01 -2.763050e-01 -2.865605e-01 -2.733891e-01 -2.627722e-01 -2.306115e-01 -1.912411e-01 3.116032e-02 -9.138900e-03 -2.508950e-02 -3.913794e-02 -4.035019e-02 -4.585454e-02 -4.723848e-02 -4.198612e-02 -5.558428e-02 -4.495312e-02 -3.926035e-02 -4.081583e-02 -2.797095e-02 -1.817356e-03
<VARIANCE> 39
 1.562227e+01 2.201946e+01 1.139424e+01 1.218598e+01 1.545551e+01 1.831492e+01 1.734503e+01 1.909748e+01 1.636716e+01 1.553203e+01 1.435680e+01 1.299127e+01 2.422186e+01 5.869060e-01 8.073589e-01 7.163853e-01 8.786530e-01 1.140130e+00 1.375127e+00 1.398907e+00 1.530229e+00 1.527615e+00 1.419351e+00 1.430750e+00 1.222361e+00 6.694852e-01 9.370744e-02 1.342777e-01 1.335431e-01 1.804209e-01 2.327857e-01 2.933002e-01 3.016268e-01 3.164661e-01 3.226005e-01 2.937756e-01 2.986617e-01 2.567331e-01 9.263496e-02
<GCONST> 8.834833e+01
<STATE> 3
<NUMMIXES> 2
<MIXTURE> 1 5.007953e-01
<MEAN> 39
 -1.067752e+01 -5.478615e+00 -2.072138e+00 -1.033081e+00 8.531343e-01 -3.614293e+00 -1.017413e-01 -3.875087e+00 -2.996984e+00 -5.420140e-01 1.855218e-01 -3.152807e-01 5.934361e+01 9.065317e-02 1.286657e-01 1.172462e-01 1.757517e-01 2.708273e-01 2.895754e-01 2.389360e-01 2.130246e-01 2.179678e-01 1.987603e-01 2.300539e-01 1.391014e-01 -1.538898e-01 6.633153e-03 4.397719e-02 3.752346e-02 4.083604e-02 3.498495e-02 4.268126e-02 5.656790e-02 6.640688e-02 5.789457e-02 5.495658e-02 2.144926e-02 2.683282e-02 -6.423879e-02
<VARIANCE> 39
 2.142284e+01 2.819524e+01 1.321558e+01 1.215832e+01 1.751677e+01 2.465178e+01 2.198332e+01 2.686371e+01 1.944760e+01 1.694537e+01 1.419463e+01 1.299488e+01 8.702185e+01 4.957477e-01 7.405159e-01 6.452492e-01 7.724212e-01 1.142576e+00 1.452607e+00 1.470325e+00 1.619598e+00 1.439961e+00 1.347024e+00 1.300102e+00 1.241212e+00 2.262676e+00 9.200372e-02 1.407308e-01 1.240989e-01 1.553360e-01 2.505004e-01 3.267924e-01 3.211427e-01 3.203251e-01 2.953246e-01 2.823477e-01 2.671138e-01 2.576643e-01 4.556728e-01
<GCONST> 9.370491e+01
<MIXTURE> 2 4.992031e-01
<MEAN> 39
 -1.113103e+01 -6.905561e+00 -2.925091e+00 -1.810502e+00 -4.593714e-01 -5.394981e+00 -1.222412e+00 -5.096534e+00 -3.558458e+00 -1.104534e+00 -5.768052e-01 -6.269882e-01 6.311296e+01 -1.044862e-01 -2.593115e-01 -1.535656e-01 -1.630704e-01 -2.901802e-01 -3.823695e-01 -3.415864e-01 -3.389488e-01 -2.908559e-01 -2.448435e-01 -2.174941e-01 -1.209649e-01 3.517095e-01 7.061274e-03 -2.594765e-02 -3.110101e-02 -3.814328e-02 -1.198254e-02 -1.121369e-02 -3.266295e-02 -4.492520e-02 -4.083562e-02 -4.830638e-02 -1.362917e-02 -3.450695e-02 2.162962e-02
<VARIANCE> 39
 2.208331e+01 2.731740e+01 1.406114e+01 1.275319e+01 1.915546e+01 2.546687e+01 2.202247e+01 2.612505e+01 1.938340e+01 1.707754e+01 1.560840e+01 1.362938e+01 7.847575e+01 8.050755e-01 1.354704e+00 7.932867e-01 9.051054e-01 1.640341e+00 2.167805e+00 1.772647e+00 1.801782e+00 1.509655e+00 1.484606e+00 1.354986e+00 1.331661e+00 5.480992e+00 1.278927e-01 1.865434e-01 1.462242e-01 1.742253e-01 3.244353e-01 3.992348e-01 3.334018e-01 3.580435e-01 3.205463e-01 2.999991e-01 2.925822e-01 2.834738e-01 6.145809e-01
<GCONST> 9.972937e+01
<STATE> 4
<NUMMIXES> 2
<MIXTURE> 1 5.010283e-01
<MEAN> 39
 -1.176937e+01 -2.520245e+00 -1.422362e+00 -7.343529e-01 1.217704e+00 -4.583108e-01 3.284864e+00 2.380159e-02 -5.940359e-01 9.890456e-01 6.079260e-01 -7.089325e-01 5.341452e+01 7.658897e-02 1.414367e-01 1.402473e-01 1.786565e-01 2.288587e-01 2.836484e-01 2.927197e-01 2.905640e-01 2.759159e-01 2.647123e-01 2.399115e-01 1.539481e-01 -8.105873e-02 7.437320e-03 2.593957e-02 3.579658e-02 4.040701e-02 3.574441e-02 4.111009e-02 4.524232e-02 4.880322e-02 4.891857e-02 3.852800e-02 2.892124e-02 2.715814e-02 3.169019e-03
<VARIANCE> 39
 1.688532e+01 2.009186e+01 1.286416e+01 1.205886e+01 1.371281e+01 1.922771e+01 1.729127e+01 1.979510e+01 1.697692e+01 1.565001e+01 1.395892e+01 1.316700e+01 2.788117e+01 4.719165e-01 6.594808e-01 6.066288e-01 7.859803e-01 1.011687e+00 1.289040e+00 1.338773e+00 1.469042e+00 1.429576e+00 1.414511e+00 1.334171e+00 1.230295e+00 5.640595e-01 8.085456e-02 1.177355e-01 1.191866e-01 1.597704e-01 2.109955e-01 2.767501e-01 2.819083e-01 3.064614e-01 3.045605e-01 3.044336e-01 2.807882e-01 2.569458e-01 9.669822e-02
<GCONST> 8.649545e+01
<MIXTURE> 2 4.989722e-01
<MEAN> 39
 -1.229696e+01 -3.481601e+00 -1.800504e+00 -1.087601e+00 5.310183e-01 -1.650468e+00 2.407434e+00 -1.039448e+00 -1.217045e+00 3.187951e-01 1.176426e-01 -9.521217e-01 5.573198e+01 -5.688281e-02 -1.244610e-01 -1.332943e-01 -1.835532e-01 -2.226888e-01 -2.574275e-01 -2.730168e-01 -2.651596e-01 -2.591522e-01 -2.557383e-01 -2.404056e-01 -1.626289e-01 2.756395e-02 -6.667420e-03 -2.765960e-02 -3.663414e-02 -4.221366e-02 -3.851431e-02 -4.311382e-02 -4.821182e-02 -5.344472e-02 -5.277145e-02 -4.013788e-02 -2.963655e-02 -2.714376e-02 -6.202817e-04
<VARIANCE> 39
 1.770341e+01 2.226056e+01 1.283066e+01 1.231044e+01 1.491159e+01 2.206681e+01 1.918879e+01 2.201767e+01 1.785184e+01 1.644311e+01 1.465225e+01 1.353190e+01 3.844810e+01 5.855540e-01 8.360711e-01 6.804901e-01 8.557965e-01 1.156106e+00 1.480085e+00 1.427684e+00 1.517595e+00 1.465835e+00 1.463090e+00 1.380536e+00 1.296810e+00 1.213968e+00 9.276825e-02 1.353167e-01 1.276410e-01 1.706122e-01 2.345425e-01 3.049516e-01 2.963224e-01 3.149649e-01 3.057994e-01 3.118442e-01 2.940733e-01 2.718771e-01 1.577280e-01
<GCONST> 9.083679e+01
<TRANSP> 5
 0.000000e+00 1.000000e+00 0.000000e+00 0.000000e+00 0.000000e+00
 0.000000e+00 9.938709e-01 6.129098e-03 0.000000e+00 0.000000e+00
 0.000000e+00 0.000000e+00 9.882721e-01 1.172787e-02 0.000000e+00
 0.000000e+00 0.000000e+00 0.000000e+00 9.972194e-01 2.780560e-03
 0.000000e+00 0.000000e+00 0.000000e+00 0.000000e+00 0.000000e+00
<ENDHMM>
~h "si"
<BEGINHMM>
<NUMSTATES> 5
<STATE> 2
<NUMMIXES> 2
<MIXTURE> 1 4.990848e-01
<MEAN> 39
 -5.853944e+00 2.186095e+00 1.287543e+00 -1.738948e+00 2.115592e+00 2.153154e+00 2.499377e+00 3.422846e+00 -2.575111e-01 5.038902e-01 9.183173e-01 -2.468896e+00 4.426424e+01 6.423841e-02 1.201417e-01 1.496282e-01 1.852940e-01 2.180652e-01 2.441290e-01 2.600022e-01 2.805534e-01 2.703964e-01 2.598590e-01 2.281173e-01 1.553599e-01 1.185665e-02 1.732982e-02 2.517894e-02 3.584492e-02 4.319518e-02 4.802408e-02 4.708158e-02 4.805250e-02 4.959362e-02 4.867344e-02 4.305739e-02 3.914737e-02 2.668661e-02 1.142804e-02
<VARIANCE> 39
 7.201836e+00 5.920129e+00 1.014993e+01 1.126016e+01 1.778470e+01 1.468880e+01 1.606410e+01 1.855410e+01 1.636862e+01 1.681647e+01 1.464032e+01 1.302078e+01 6.706435e+00 1.675152e-01 2.879973e-01 4.433658e-01 6.546692e-01 8.864926e-01 1.052344e+00 1.199724e+00 1.294100e+00 1.324229e+00 1.342006e+00 1.268191e+00 1.108967e+00 7.939719e-02 2.965317e-02 5.623379e-02 9.029736e-02 1.356884e-01 1.836302e-01 2.192538e-01 2.529074e-01 2.726495e-01 2.798031e-01 2.852702e-01 2.673557e-01 2.290136e-01 1.179438e-02
<GCONST> 7.224077e+01
<MIXTURE> 2 5.009064e-01
<MEAN> 39
 -5.820898e+00 1.979838e+00 1.097152e+00 -2.091327e+00 1.857032e+00 1.716517e+00 2.005950e+00 3.173848e+00 -6.105558e-01 1.814927e-01 6.002572e-01 -2.787776e+00 4.433622e+01 -6.987882e-02 -1.117962e-01 -1.669353e-01 -2.021316e-01 -2.291614e-01 -2.390355e-01 -2.494969e-01 -2.530217e-01 -2.617519e-01 -2.466270e-01 -2.154987e-01 -1.580709e-01 -4.277530e-02 -1.900241e-02 -2.663910e-02 -3.701524e-02 -4.264509e-02 -4.848089e-02 -4.744776e-02 -4.806648e-02 -5.177148e-02 -4.840452e-02 -4.232275e-02 -3.852585e-02 -2.534481e-02 -8.901913e-03
<VARIANCE> 39
 7.600842e+00 6.367129e+00 9.823078e+00 1.071662e+01 1.777744e+01 1.507175e+01 1.594807e+01 1.932830e+01 1.651221e+01 1.709393e+01 1.508849e+01 1.339697e+01 6.429870e+00 1.679277e-01 3.025448e-01 4.557549e-01 6.571447e-01 8.893573e-01 1.063740e+00 1.211173e+00 1.302301e+00 1.323641e+00 1.356119e+00 1.276673e+00 1.105915e+00 8.478903e-02 3.011085e-02 5.829866e-02 9.179142e-02 1.363537e-01 1.847276e-01 2.232733e-01 2.537413e-01 2.732727e-01 2.810084e-01 2.862446e-01 2.671411e-01 2.276626e-01 1.314147e-02
<GCONST> 7.278989e+01
<STATE> 3
<NUMMIXES> 2
<MIXTURE> 1 4.999186e-01
<MEAN> 39
 -3.985619e+00 -3.741647e+00 -3.486800e+00 -2.987180e+00 1.614887e+00 4.009100e+00 4.723589e+00 9.650248e-01 -4.075087e-01 1.383567e+00 1.465366e+00 -2.409888e+00 5.069898e+01 5.932017e-02 1.024291e-01 1.370682e-01 1.809236e-01 2.173713e-01 2.360616e-01 2.482247e-01 2.563352e-01 2.583621e-01 2.617246e-01 2.306309e-01 1.675444e-01 1.479312e-02 1.677762e-02 2.775526e-02 3.443918e-02 3.771840e-02 4.171813e-02 4.020685e-02 3.617767e-02 3.691062e-02 4.138577e-02 3.878165e-02 3.511130e-02 2.582714e-02 1.214765e-02
<VARIANCE> 39
 8.040167e+00 8.266570e+00 8.127774e+00 9.137662e+00 1.457090e+01 1.511084e+01 1.547322e+01 1.587016e+01 1.516970e+01 1.487535e+01 1.425337e+01 1.293759e+01 5.212730e+00 1.649674e-01 2.894908e-01 4.683443e-01 6.418682e-01 9.012523e-01 1.087500e+00 1.208708e+00 1.353797e+00 1.338711e+00 1.360367e+00 1.297582e+00 1.173633e+00 7.594725e-02 2.851277e-02 5.619596e-02 9.549926e-02 1.322521e-01 1.896635e-01 2.290038e-01 2.547496e-01 2.872585e-01 2.856754e-01 2.921830e-01 2.741333e-01 2.438982e-01 1.165560e-02
<GCONST> 7.183819e+01
<MIXTURE> 2 5.000717e-01
<MEAN> 39
 -3.846860e+00 -3.977406e+00 -3.709214e+00 -3.467235e+00 9.078702e-01 3.408949e+00 3.949954e+00 3.734530e-01 -8.232621e-01 9.755004e-01 1.015405e+00 -2.798386e+00 5.083561e+01 -6.400776e-02 -1.128621e-01 -1.582542e-01 -1.974020e-01 -2.300027e-01 -2.306272e-01 -2.408044e-01 -2.447931e-01 -2.491736e-01 -2.440327e-01 -2.233084e-01 -1.574974e-01 -4.213920e-02 -2.128849e-02 -2.414304e-02 -2.878724e-02 -3.417960e-02 -4.213303e-02 -4.684296e-02 -4.132713e-02 -3.978829e-02 -4.235812e-02 -4.048591e-02 -3.716020e-02 -2.543903e-02 -6.909210e-03
<VARIANCE> 39
 7.695292e+00 8.662953e+00 7.915397e+00 9.178981e+00 1.528977e+01 1.562553e+01 1.645229e+01 1.652389e+01 1.596545e+01 1.596127e+01 1.520017e+01 1.362920e+01 5.406162e+00 1.592686e-01 2.941835e-01 4.740976e-01 6.500695e-01 9.092234e-01 1.103032e+00 1.231154e+00 1.383345e+00 1.356900e+00 1.377681e+00 1.320870e+00 1.189971e+00 7.382316e-02 2.798253e-02 5.737793e-02 9.699044e-02 1.350165e-01 1.919252e-01 2.296583e-01 2.559323e-01 2.921120e-01 2.862085e-01 2.928893e-01 2.800161e-01 2.454670e-01 1.188614e-02
<GCONST> 7.250106e+01
<STATE> 4
<NUMMIXES> 2
<MIXTURE> 1 4.999265e-01
<MEAN> 39
 -8.687436e+00 5.743073e-01 4.839863e-01 -1.411231e+00 1.031197e+00 7.815735e-01 3.020941e+00 1.578063e+00 2.743014e-01 9.719817e-01 1.143959e+00 -1.506424e+00 4.877707e+01 5.312562e-02 1.207648e-01 1.499570e-01 1.931682e-01 2.247275e-01 2.537200e-01 2.661875e-01 2.701505e-01 2.681245e-01 2.500933e-01 2.337097e-01 1.669518e-01 -9.541397e-04 1.852735e-02 2.833115e-02 3.857068e-02 4.566668e-02 4.819681e-02 5.054144e-02 5.108848e-02 5.289412e-02 4.894160e-02 4.445672e-02 3.783609e-02 2.686721e-02 1.074291e-04
<VARIANCE> 39
 1.977822e+01 1.393028e+01 1.279816e+01 1.412739e+01 1.867686e+01 1.844433e+01 1.846595e+01 2.195712e+01 1.855228e+01 1.745040e+01 1.649366e+01 1.539095e+01 2.957173e+01 3.693945e-01 4.621151e-01 5.494927e-01 7.599095e-01 9.821076e-01 1.190796e+00 1.307674e+00 1.416976e+00 1.409031e+00 1.419226e+00 1.327743e+00 1.199721e+00 3.653824e-01 6.164601e-02 8.723444e-02 1.087044e-01 1.551319e-01 2.036287e-01 2.485348e-01 2.746216e-01 2.975585e-01 2.969646e-01 2.978987e-01 2.793907e-01 2.485077e-01 5.966659e-02
<GCONST> 8.462004e+01
<MIXTURE> 2 5.000703e-01
<MEAN> 39
 -8.784412e+00 -9.633107e-02 5.923935e-03 -1.874255e+00 3.122466e-01 9.358867e-02 2.277908e+00 8.451890e-01 -2.582784e-01 4.916987e-01 5.887421e-01 -1.867678e+00 5.008155e+01 -7.184459e-02 -1.234558e-01 -1.484963e-01 -1.953909e-01 -2.307221e-01 -2.656335e-01 -2.705412e-01 -2.773638e-01 -2.631027e-01 -2.452692e-01 -2.264131e-01 -1.584082e-01 3.440663e-02 -1.585453e-02 -2.865287e-02 -3.877046e-02 -4.671062e-02 -4.755441e-02 -4.820865e-02 -5.030650e-02 -5.234987e-02 -4.885401e-02 -4.487541e-02 -3.789362e-02 -2.802656e-02 -4.301287e-04
<VARIANCE> 39
 2.166914e+01 1.962387e+01 1.449171e+01 1.464672e+01 1.980188e+01 2.014225e+01 2.069215e+01 2.369380e+01 2.003718e+01 1.825942e+01 1.675857e+01 1.576862e+01 3.726870e+01 4.704124e-01 6.250508e-01 6.224691e-01 8.368986e-01 1.066609e+00 1.288799e+00 1.373428e+00 1.473480e+00 1.470648e+00 1.451948e+00 1.364983e+00 1.227257e+00 6.836831e-01 7.083987e-02 1.036200e-01 1.169533e-01 1.644333e-01 2.118393e-01 2.627403e-01 2.840703e-01 3.025806e-01 3.045589e-01 3.035209e-01 2.832115e-01 2.497828e-01 9.136126e-02
<GCONST> 8.877889e+01
<TRANSP> 5
 0.000000e+00 1.000000e+00 0.000000e+00 0.000000e+00 0.000000e+00
 0.000000e+00 9.909817e-01 9.018293e-03 0.000000e+00 0.000000e+00
 0.000000e+00 0.000000e+00 9.803337e-01 1.966630e-02 0.000000e+00
 0.000000e+00 0.000000e+00 0.000000e+00 9.912694e-01 8.730612e-03
 0.000000e+00 0.000000e+00 0.000000e+00 0.000000e+00 0.000000e+00
<ENDHMM>
~h "st"
<BEGINHMM>
<NUMSTATES> 5
<STATE> 2
<NUMMIXES> 2
<MIXTURE> 1 4.983047e-01
<MEAN> 39
 -9.869404e+00 -3.130609e+00 2.083912e-01 -5.536625e+00 -1.373924e+00 -3.549079e+00 7.571610e-01 1.760332e-01 -1.528450e-01 -1.991165e-01 1.218077e+00 -2.251886e+00 6.019037e+01 -3.256559e-02 -3.482618e-01 3.041102e-01 -1.796308e-01 -6.020601e-02 -1.267106e-01 2.067688e-01 2.083754e-01 2.812286e-01 2.645255e-01 2.297915e-01 1.711757e-01 8.293021e-01 7.958335e-02 1.628968e-01 2.302654e-02 1.427288e-01 1.465690e-01 2.214968e-01 1.859946e-01 9.949377e-02 6.520138e-02 3.383766e-02 3.040564e-02 2.571336e-02 -3.673380e-01
<VARIANCE> 39
 2.215340e+01 3.090438e+01 1.746348e+01 3.002343e+01 2.519928e+01 3.468851e+01 2.750810e+01 2.453768e+01 2.063733e+01 2.213385e+01 2.013150e+01 1.482658e+01 9.923763e+01 1.106799e+00 1.196720e+00 1.114408e+00 1.593789e+00 1.978211e+00 2.448310e+00 2.109108e+00 2.147602e+00 1.699919e+00 2.065599e+00 2.044148e+00 1.650502e+00 4.098129e+00 1.809470e-01 2.389192e-01 1.818482e-01 3.036348e-01 3.679739e-01 4.723517e-01 3.878061e-01 4.209011e-01 3.164034e-01 3.746499e-01 3.820890e-01 3.087228e-01 7.579083e-01
<GCONST> 1.078557e+02
<MIXTURE> 2 5.016947e-01
<MEAN> 39
 -9.486648e+00 -2.822989e+00 -4.605051e-01 -6.002690e+00 -1.451543e+00 -3.464288e+00 4.662555e-01 -1.563992e-01 -6.778277e-01 -9.815862e-01 6.925246e-01 -2.806082e+00 6.011605e+01 -3.330973e-01 -6.892181e-01 1.044618e-01 -7.845491e-01 -5.847872e-01 -1.013497e+00 -5.664405e-01 -2.403092e-01 -1.642536e-01 -3.606367e-01 -2.329380e-01 -1.166004e-01 1.613340e+00 8.141399e-02 -4.594866e-03 -1.453629e-02 2.435730e-02 3.485739e-02 5.943127e-02 4.412018e-02 -4.127653e-02 -3.291639e-02 3.640110e-02 -3.715173e-02 4.005618e-03 -1.044947e-01
<VARIANCE> 39
 2.185128e+01 2.713657e+01 1.966279e+01 2.688618e+01 2.669734e+01 3.761549e+01 2.689782e+01 2.488226e+01 2.155981e+01 2.099254e+01 2.056751e+01 1.575879e+01 9.449043e+01 1.584774e+00 1.773808e+00 1.286986e+00 2.049468e+00 2.438164e+00 3.382517e+00 2.517601e+00 2.433342e+00 1.869786e+00 2.109694e+00 2.117472e+00 1.830259e+00 5.818848e+00 1.922565e-01 2.485036e-01 2.175392e-01 3.242130e-01 3.773237e-01 4.948259e-01 4.175980e-01 4.383031e-01 3.190628e-01 3.887511e-01 3.690829e-01 3.093628e-01 8.318727e-01
<GCONST> 1.110990e+02
<STATE> 3
<NUMMIXES> 2
<MIXTURE> 1 5.040182e-01
<MEAN> 39
 -7.174211e+00 -3.096035e+00 -1.948719e+00 -4.687731e+00 -6.293241e-01 -2.835253e-01 2.794725e+00 3.376552e-02 -8.535392e-01 1.682339e-02 1.233962e+00 -2.276080e+00 5.569102e+01 5.615211e-02 1.363833e-01 1.033850e-01 2.112808e-01 2.516902e-01 3.264908e-01 3.036709e-01 2.646843e-01 2.598937e-01 2.782477e-01 2.440866e-01 1.663156e-01 -1.256546e-01 1.816622e-02 3.233407e-02 2.962677e-02 5.620114e-02 5.413279e-02 6.125791e-02 5.461198e-02 3.912614e-02 4.014881e-02 3.555354e-02 3.533807e-02 2.177819e-02 -3.179526e-02
<VARIANCE> 39
 1.490081e+01 1.572960e+01 1.424433e+01 1.970801e+01 1.912159e+01 2.298796e+01 1.853431e+01 1.828986e+01 1.806895e+01 1.831365e+01 1.502880e+01 1.381963e+01 2.972942e+01 4.478988e-01 5.667401e-01 6.585422e-01 9.607502e-01 1.141254e+00 1.328053e+00 1.387692e+00 1.442533e+00 1.462915e+00 1.450049e+00 1.416672e+00 1.253238e+00 8.399528e-01 7.485445e-02 1.059204e-01 1.279980e-01 2.024280e-01 2.488863e-01 2.918883e-01 3.010009e-01 3.098167e-01 3.101219e-01 3.159117e-01 3.027531e-01 2.636213e-01 1.674235e-01
<GCONST> 8.952275e+01
<MIXTURE> 2 4.959766e-01
<MEAN> 39
 -7.316833e+00 -3.429116e+00 -1.647199e+00 -5.353948e+00 -1.296442e+00 -1.047245e+00 2.054647e+00 -5.930540e-01 -1.344492e+00 -6.600144e-01 7.756020e-01 -2.644507e+00 5.671365e+01 -5.565049e-02 -9.631461e-02 -1.168639e-01 -1.760432e-01 -2.398058e-01 -2.775843e-01 -2.865327e-01 -2.743567e-01 -2.733709e-01 -2.754292e-01 -2.416820e-01 -1.652922e-01 2.968855e-02 -2.237487e-02 -2.986301e-02 -3.197100e-02 -5.330789e-02 -5.452346e-02 -6.266036e-02 -6.150965e-02 -4.184926e-02 -4.215206e-02 -3.713093e-02 -3.520755e-02 -2.150049e-02 3.349813e-02
<VARIANCE> 39
 1.544519e+01 1.735365e+01 1.493892e+01 2.040660e+01 1.950383e+01 2.447676e+01 2.033708e+01 1.915552e+01 1.882512e+01 1.929834e+01 1.623343e+01 1.468946e+01 3.386230e+01 6.009464e-01 7.744840e-01 7.557738e-01 1.302712e+00 1.412712e+00 1.643024e+00 1.536133e+00 1.540339e+00 1.542558e+00 1.567421e+00 1.477247e+00 1.310165e+00 1.753091e+00 8.975968e-02 1.183633e-01 1.416617e-01 2.247445e-01 2.642085e-01 3.144575e-01 3.155298e-01 3.254971e-01 3.317077e-01 3.335768e-01 3.157451e-01 2.678030e-01 2.199810e-01
<GCONST> 9.409930e+01
<STATE> 4
<NUMMIXES> 2
<MIXTURE> 1 4.993618e-01
<MEAN> 39
 -1.026224e+01 1.007424e+00 8.763520e-01 -2.215334e+00 6.313192e-01 -3.564823e-01 2.364905e+00 6.181823e-01 5.352197e-01 1.319006e-01 1.003606e+00 -2.022182e+00 5.173359e+01 5.578100e-02 1.189271e-01 1.472795e-01 2.040631e-01 2.490764e-01 2.836213e-01 2.790888e-01 2.777978e-01 2.821403e-01 2.744680e-01 2.451496e-01 1.707831e-01 -7.747117e-02 1.434719e-02 2.458746e-02 3.434722e-02 4.075421e-02 4.013604e-02 4.597310e-02 4.843333e-02 5.131362e-02 4.465400e-02 4.581495e-02 3.464145e-02 1.968099e-02 -1.123615e-02
<VARIANCE> 39
 1.425096e+01 8.610292e+00 1.115679e+01 1.667618e+01 1.576053e+01 1.846089e+01 1.754720e+01 1.959592e+01 1.734552e+01 1.625226e+01 1.462759e+01 1.343039e+01 3.497013e+01 3.708097e-01 4.103188e-01 5.785708e-01 8.572756e-01 1.010316e+00 1.225909e+00 1.312729e+00 1.445910e+00 1.427370e+00 1.404485e+00 1.348319e+00 1.221925e+00 7.538928e-01 6.572346e-02 8.104969e-02 1.167276e-01 1.759473e-01 2.151607e-01 2.612829e-01 2.770762e-01 3.044209e-01 3.024219e-01 3.006511e-01 2.870856e-01 2.610038e-01 1.099829e-01
<GCONST> 8.521770e+01
<MIXTURE> 2 5.006331e-01
<MEAN> 39
 -1.031376e+01 6.060691e-01 7.375261e-01 -2.954015e+00 -1.035468e-01 -1.197677e+00 1.674927e+00 6.233485e-02 3.763549e-03 -3.830468e-01 4.533397e-01 -2.511401e+00 5.276070e+01 -4.659922e-02 -1.046675e-01 -1.514484e-01 -1.908384e-01 -2.233275e-01 -2.441565e-01 -2.586021e-01 -2.751855e-01 -2.798080e-01 -2.787278e-01 -2.550437e-01 -1.654287e-01 1.998269e-02 -1.136950e-02 -2.808025e-02 -3.720719e-02 -4.653684e-02 -4.533840e-02 -4.694385e-02 -4.780552e-02 -4.907234e-02 -4.344699e-02 -4.262263e-02 -3.358962e-02 -1.954337e-02 1.327761e-02
<VARIANCE> 39
 1.498399e+01 9.292145e+00 1.148007e+01 1.754591e+01 1.708700e+01 2.020221e+01 1.836414e+01 2.017412e+01 1.761138e+01 1.643546e+01 1.457304e+01 1.314420e+01 3.727051e+01 4.989064e-01 5.567476e-01 6.292683e-01 1.063977e+00 1.200250e+00 1.417132e+00 1.419844e+00 1.491889e+00 1.480464e+00 1.456529e+00 1.361708e+00 1.268034e+00 1.193741e+00 7.584909e-02 9.292810e-02 1.211076e-01 1.886741e-01 2.299522e-01 2.763564e-01 2.911450e-01 3.128890e-01 3.123498e-01 3.106481e-01 2.926651e-01 2.628711e-01 1.325596e-01
<GCONST> 8.850655e+01
<TRANSP> 5
 0.000000e+00 1.000000e+00 0.000000e+00 0.000000e+00 0.000000e+00
 0.000000e+00 8.379781e-01 1.620219e-01 0.000000e+00 0.000000e+00
 0.000000e+00 0.000000e+00 9.915279e-01 8.472107e-03 0.000000e+00
 0.000000e+00 0.000000e+00 0.000000e+00 9.913707e-01 8.629281e-03
 0.000000e+00 0.000000e+00 0.000000e+00 0.000000e+00 0.000000e+00
<ENDHMM>
~h "spe"
<BEGINHMM>
<NUMSTATES> 5
<STATE> 2
<NUMMIXES> 2
<MIXTURE> 1 4.631815e-01
<MEAN> 39
 -1.971088e+00 1.993076e-01 5.331274e+00 -5.058307e+00 -6.176338e+00 4.720800e-01 -1.184014e+00 -4.694651e+00 -4.185463e+00 -4.851902e-01 2.338701e-01 -5.104501e+00 5.538889e+01 6.564282e-02 -1.136771e-01 3.697090e-01 -6.669933e-02 -1.566076e-01 1.183393e-01 2.454856e-02 2.793087e-01 3.206680e-01 3.863791e-01 1.821766e-01 2.784191e-02 3.292418e-01 1.845166e-02 -2.683491e-02 6.811915e-03 3.269383e-02 5.951107e-02 1.444847e-02 4.841790e-02 9.475903e-02 7.243942e-02 4.658582e-02 -1.143068e-02 1.066510e-02 2.185129e-02
<VARIANCE> 39
 2.807365e+01 2.627259e+01 6.981876e+01 3.945300e+01 6.610133e+01 3.930424e+01 2.261152e+01 4.167327e+01 2.762914e+01 3.289460e+01 2.468419e+01 2.714109e+01 1.438035e+01 7.253352e-01 9.143359e-01 1.113919e+00 1.518107e+00 2.614978e+00 2.185678e+00 1.505203e+00 2.574947e+00 1.852596e+00 1.884516e+00 1.563508e+00 1.615552e+00 4.202621e-01 9.080265e-02 1.226062e-01 1.471218e-01 2.040171e-01 4.399855e-01 4.007904e-01 2.773207e-01 3.775935e-01 3.163840e-01 3.520588e-01 2.759888e-01 2.583826e-01 4.022527e-02
<GCONST> 1.013758e+02
<MIXTURE> 2 5.368187e-01
<MEAN> 39
 -8.838619e-01 -1.158772e+00 6.791339e+00 -5.149282e+00 -8.020213e+00 9.633508e-01 -2.768719e+00 -5.066753e+00 -5.757985e+00 -1.923110e+00 -1.703763e+00 -7.605665e+00 5.612018e+01 9.467342e-02 -2.590680e-01 -1.016071e-01 -2.185088e-01 -1.903195e-01 -3.224783e-01 -3.907539e-01 -1.314898e-01 -2.549969e-01 -1.932984e-01 -1.899538e-01 -2.812312e-01 1.334099e-01 -3.640246e-02 -5.225608e-02 -6.064297e-02 -5.176004e-02 -2.154930e-02 -4.985255e-02 -4.427536e-02 -2.515198e-02 -1.349407e-02 -2.797707e-02 -4.256304e-02 -2.201667e-02 2.902235e-04
<VARIANCE> 39
 2.055816e+01 2.871945e+01 7.575173e+01 3.092785e+01 6.551250e+01 4.272305e+01 2.461090e+01 4.086938e+01 3.489771e+01 3.227068e+01 2.934421e+01 4.062548e+01 1.533987e+01 6.157175e-01 9.521257e-01 1.093454e+00 1.257367e+00 2.677846e+00 2.174921e+00 1.573859e+00 2.106468e+00 1.969360e+00 1.912808e+00 1.641299e+00 1.630224e+00 4.527821e-01 6.336036e-02 1.134998e-01 1.254162e-01 1.686843e-01 3.614843e-01 4.206018e-01 2.695116e-01 3.513172e-01 3.149861e-01 3.438593e-01 2.912685e-01 2.417754e-01 3.122949e-02
<GCONST> 1.003973e+02
<STATE> 3
<NUMMIXES> 2
<MIXTURE> 1 5.044020e-01
<MEAN> 39
 -2.058094e+00 -4.638932e+00 8.434101e-01 -1.136054e+01 -2.041276e+00 -4.666966e+00 -3.549542e+00 -2.577048e-02 -1.192280e+00 -1.120154e+00 -4.083123e+00 -4.539438e+00 6.136224e+01 -1.451126e-02 7.325500e-02 6.611395e-02 1.925266e-01 2.504332e-01 2.055298e-01 2.157438e-01 2.054876e-01 2.687286e-01 1.764425e-01 1.513977e-01 1.105093e-01 4.091087e-02 2.394736e-02 4.393273e-02 3.210063e-02 7.602298e-02 5.815073e-02 7.722909e-02 6.566151e-02 3.262966e-02 2.799778e-02 4.511888e-02 4.776131e-02 3.976751e-02 -2.153459e-02
<VARIANCE> 39
 2.594201e+01 4.162132e+01 5.568862e+01 6.425752e+01 4.882270e+01 5.779455e+01 3.717877e+01 4.815586e+01 3.344738e+01 3.581866e+01 5.234569e+01 3.623909e+01 2.702904e+01 6.053910e-01 1.122157e+00 1.299514e+00 1.581145e+00 1.718027e+00 1.854732e+00 1.749353e+00 2.238354e+00 2.131310e+00 1.929155e+00 1.965595e+00 1.706905e+00 4.593803e-01 8.768931e-02 1.422307e-01 1.930134e-01 2.390499e-01 2.884763e-01 3.375336e-01 3.538572e-01 4.159176e-01 4.269677e-01 3.747148e-01 3.673693e-01 3.299848e-01 5.005465e-02
<GCONST> 1.062738e+02
<MIXTURE> 2 4.955973e-01
<MEAN> 39
 -1.129352e+00 -5.204917e+00 4.016027e-01 -1.310543e+01 -2.386549e+00 -5.448930e+00 -5.069664e+00 -1.714146e+00 -1.534130e+00 -2.697815e+00 -6.444504e+00 -4.565668e+00 6.186113e+01 -4.806612e-02 -2.429041e-02 -1.704856e-01 -5.686983e-02 -1.180197e-01 -2.025665e-01 -2.324042e-01 -3.023676e-01 -3.120161e-01 -2.512691e-01 -2.454645e-01 -1.149782e-01 -2.298236e-02 -2.434941e-02 -1.231523e-03 -2.625890e-02 -3.044088e-02 -5.662724e-02 -5.839645e-02 -3.836240e-02 -6.185032e-02 -5.769182e-02 -5.283177e-02 -3.115911e-02 -2.051804e-02 -2.034549e-02
<VARIANCE> 39
 2.547186e+01 3.989746e+01 5.747720e+01 7.071535e+01 4.618134e+01 6.182090e+01 4.694167e+01 6.334362e+01 4.073244e+01 4.180421e+01 5.524938e+01 3.973718e+01 2.078599e+01 7.492085e-01 1.203797e+00 1.429682e+00 1.683936e+00 1.871139e+00 1.888500e+00 2.096254e+00 2.473037e+00 2.540982e+00 2.165316e+00 2.174139e+00 1.850184e+00 4.800791e-01 9.499492e-02 1.645545e-01 2.146255e-01 2.909949e-01 3.155695e-01 3.506970e-01 3.640879e-01 4.660408e-01 4.880844e-01 4.317451e-01 4.116626e-01 3.583298e-01 5.545733e-02
<GCONST> 1.098104e+02
<STATE> 4
<NUMMIXES> 2
<MIXTURE> 1 5.023605e-01
<MEAN> 39
 -1.547296e+00 -2.836842e+00 -4.597151e-02 -4.173649e+00 -2.550610e+00 -2.003235e-01 2.858869e-01 -6.205509e-01 -1.601916e+00 3.912069e-01 -5.739195e-01 -5.114569e+00 5.280394e+01 4.332869e-02 8.200625e-02 1.284162e-01 1.575192e-01 1.675925e-01 2.199364e-01 2.560615e-01 2.472964e-01 2.660102e-01 2.559729e-01 2.453336e-01 1.876721e-01 8.908752e-03 2.047794e-02 2.897889e-02 4.082174e-02 4.564213e-02 6.130781e-02 6.098428e-02 5.410537e-02 5.979725e-02 6.091807e-02 4.213773e-02 4.217106e-02 2.871374e-02 1.306939e-02
<VARIANCE> 39
 1.452983e+01 2.513881e+01 3.102398e+01 2.419712e+01 4.384733e+01 3.429871e+01 3.197047e+01 2.889890e+01 2.692059e+01 2.513842e+01 2.737605e+01 2.374768e+01 1.519638e+01 3.558569e-01 6.235580e-01 8.333047e-01 9.584938e-01 1.400520e+00 1.458394e+00 1.472919e+00 1.629844e+00 1.643753e+00 1.591587e+00 1.576177e+00 1.490671e+00 1.926820e-01 5.022234e-02 9.540898e-02 1.283770e-01 1.662396e-01 2.402340e-01 2.618520e-01 2.835090e-01 3.227828e-01 3.233405e-01 3.181408e-01 3.077776e-01 2.894558e-01 2.238381e-02
<GCONST> 9.125035e+01
<MIXTURE> 2 4.976377e-01
<MEAN> 39
 -8.019940e-01 -3.417268e+00 2.664437e-01 -4.718554e+00 -2.541427e+00 -1.850093e-01 -9.313658e-01 -1.098177e+00 -2.222969e+00 -4.156331e-01 -1.419778e+00 -6.091922e+00 5.382558e+01 -4.958412e-02 -7.102814e-02 -1.389489e-01 -1.397161e-01 -1.492565e-01 -1.980491e-01 -2.179964e-01 -2.346416e-01 -2.556649e-01 -2.431823e-01 -2.269693e-01 -1.672648e-01 -5.445179e-02 -2.140521e-02 -3.003011e-02 -4.060273e-02 -4.748068e-02 -6.156628e-02 -5.895696e-02 -5.443238e-02 -5.981119e-02 -6.037970e-02 -4.134082e-02 -4.345225e-02 -2.945361e-02 -1.260679e-02
<VARIANCE> 39
 1.454487e+01 2.894804e+01 3.376524e+01 2.646714e+01 4.656377e+01 3.561306e+01 3.600515e+01 3.183768e+01 3.009971e+01 3.001070e+01 2.999026e+01 2.619087e+01 1.670637e+01 3.571411e-01 6.684629e-01 8.351449e-01 1.007623e+00 1.461234e+00 1.441323e+00 1.537489e+00 1.669282e+00 1.632488e+00 1.594192e+00 1.586733e+00 1.465735e+00 2.226333e-01 4.667443e-02 9.244460e-02 1.286107e-01 1.688781e-01 2.321840e-01 2.614359e-01 2.832061e-01 3.156779e-01 3.211659e-01 3.154332e-01 3.084401e-01 2.806312e-01 2.209533e-02
<GCONST> 9.260138e+01
<TRANSP> 5
 0.000000e+00 1.000000e+00 0.000000e+00 0.000000e+00 0.000000e+00
 0.000000e+00 9.510444e-01 4.895559e-02 0.000000e+00 0.000000e+00
 0.000000e+00 0.000000e+00 9.820208e-01 1.797916e-02 0.000000e+00
 0.000000e+00 0.000000e+00 0.000000e+00 9.967921e-01 3.207916e-03
 0.000000e+00 0.000000e+00 0.000000e+00 0.000000e+00 0.000000e+00
<ENDHMM>
