~o
<STREAMINFO> 1 39
<VECSIZE> 39<NULLD><MFCC_D_A_Z_0><DIAGC>
~h "ap"
<BEGINHMM>
<NUMSTATES> 5
<STATE> 2
<MEAN> 39
 -4.191422e+00 3.331024e+00 1.551114e+00 -1.196699e+00 -3.214565e+00 1.577058e-01 -5.117038e-01 1.257271e+00 2.298202e+00 8.908873e-01 -9.883410e-01 1.160949e-01 3.613107e+00 -8.185234e-01 -1.273357e+00 -7.429275e-01 -2.328798e-01 -5.595137e-01 -7.228001e-01 -4.032226e-01 -5.316439e-01 -2.578201e-01 -2.676782e-01 -1.798432e-01 -2.865800e-01 2.441839e+00 1.970439e-01 1.697790e-01 6.473798e-02 -4.597621e-02 2.503878e-01 2.943074e-01 1.590003e-01 7.971718e-02 5.909350e-02 1.212723e-01 8.481353e-03 -6.026741e-02 -5.544122e-01
<VARIANCE> 39
 4.689026e+01 5.680911e+01 3.451818e+01 2.087803e+01 2.967960e+01 6.124124e+01 3.223550e+01 2.737658e+01 2.582154e+01 2.903187e+01 2.155817e+01 1.636722e+01 2.241019e+02 4.411376e+00 3.979331e+00 1.534130e+00 2.116748e+00 3.586965e+00 5.270225e+00 2.487859e+00 2.383890e+00 2.241077e+00 2.500727e+00 2.127035e+00 1.823712e+00 1.614007e+01 6.781054e-01 6.326590e-01 2.452454e-01 3.563096e-01 5.644376e-01 8.192130e-01 3.824185e-01 3.702374e-01 3.615949e-01 4.088089e-01 3.231645e-01 2.980516e-01 2.743324e+00
<GCONST> 1.237012e+02
<STATE> 3
<MEAN> 39
 -1.540929e+00 -5.472165e-01 -3.818111e-01 2.273951e-01 9.524081e-01 4.684756e-01 2.734060e-01 -9.929448e-01 1.439714e-01 -3.301104e-01 -3.228534e-01 -2.215981e-01 1.248851e+00 3.167597e-01 2.267957e-01 2.151292e-01 1.223456e-01 2.625009e-01 2.247829e-01 1.288291e-01 6.238913e-02 2.707051e-02 6.582312e-02 9.050535e-02 3.509085e-02 -8.256142e-01 -3.133879e-03 1.769625e-02 1.497866e-02 1.219242e-02 -1.857287e-02 -1.962820e-02 -1.423460e-02 1.085419e-02 2.454221e-03 1.896343e-03 5.271643e-03 1.392839e-02 1.079697e-02
<VARIANCE> 39
 1.656749e+01 3.273311e+01 2.441256e+01 1.769349e+01 2.764955e+01 2.686566e+01 1.988928e+01 2.212240e+01 2.107471e+01 2.002141e+01 1.577332e+01 1.381176e+01 8.861664e+01 9.867919e-02 2.300025e-01 3.637050e-01 6.349756e-01 8.523290e-01 9.892333e-01 1.015168e+00 1.156864e+00 1.266794e+00 1.305976e+00 1.183317e+00 1.237853e+00 5.188809e-02 1.741500e-02 4.238478e-02 7.221686e-02 1.256962e-01 1.652117e-01 2.084207e-01 2.001451e-01 2.346040e-01 2.586275e-01 2.783964e-01 2.428942e-01 2.657377e-01 6.513034e-03
<GCONST> 7.657104e+01
<STATE> 4
<MEAN> 39
 3.067720e-01 -1.432733e-02 9.776481e-03 1.157608e-03 -4.112922e-02 -6.470648e-02 -2.232059e-02 9.644070e-02 -7.742582e-02 1.996655e-02 6.709243e-02 2.572940e-02 -2.541516e-01 2.089347e-03 -6.894995e-03 -4.550845e-03 4.393171e-03 -5.156382e-03 -6.903729e-03 2.518840e-04 3.972260e-03 -1.765274e-03 -2.548439e-03 -2.432330e-03 -2.067466e-03 3.213570e-03 -6.843730e-04 -6.624085e-04 -6.040838e-04 5.212169e-05 -2.304525e-04 -7.892475e-04 3.190959e-05 4.634228e-04 -3.269378e-04 -7.119806e-04 -8.228758e-04 -5.560269e-05 8.668380e-04
<VARIANCE> 39
 1.824204e+01 3.785794e+01 1.977285e+01 1.764784e+01 2.690374e+01 3.121186e+01 2.112051e+01 2.364482e+01 2.156393e+01 1.813751e+01 1.626006e+01 1.402464e+01 1.063810e+02 9.660472e-01 1.189309e+00 7.947422e-01 9.611301e-01 1.707084e+00 1.995255e+00 1.402736e+00 1.430870e+00 1.574553e+00 1.544918e+00 1.388424e+00 1.348247e+00 5.579637e+00 1.549047e-01 1.833034e-01 1.315292e-01 1.789961e-01 3.158161e-01 3.859651e-01 2.660730e-01 2.672952e-01 3.145017e-01 3.185675e-01 2.760821e-01 2.849479e-01 8.446754e-01
<GCONST> 1.010380e+02
<TRANSP> 5
 0.000000e+00 1.000000e+00 0.000000e+00 0.000000e+00 0.000000e+00
 0.000000e+00 8.421574e-01 1.578427e-01 0.000000e+00 0.000000e+00
 0.000000e+00 0.000000e+00 9.688280e-01 3.117199e-02 0.000000e+00
 0.000000e+00 0.000000e+00 0.000000e+00 9.959629e-01 4.037133e-03
 0.000000e+00 0.000000e+00 0.000000e+00 0.000000e+00 0.000000e+00
<ENDHMM>
~h "cl"
<BEGINHMM>
<NUMSTATES> 5
<STATE> 2
<MEAN> 39
 7.425318e+00 -1.180071e+00 -2.216470e+00 1.094328e+00 3.080176e+00 -3.696209e+00 1.924901e+00 3.800073e+00 -2.144919e+00 1.434949e+00 3.575361e+00 -3.705230e+00 -5.621773e+00 -4.057017e-01 7.329889e-02 6.601977e-02 -1.026914e-02 -1.664524e-01 1.804502e-01 -4.881350e-02 -2.488083e-01 1.578305e-01 1.567306e-02 -2.264483e-01 1.677438e-01 3.229386e-01 -7.020911e-02 -2.067469e-03 2.249033e-02 -1.666278e-02 -3.862339e-02 3.746247e-02 -3.320787e-02 -5.700080e-02 3.373851e-02 -3.115647e-02 -5.309121e-02 3.852245e-02 5.680772e-02
<VARIANCE> 39
 4.021532e+01 1.905909e+01 1.277954e+01 9.912685e+00 1.886156e+01 3.065856e+01 2.124226e+01 3.391520e+01 3.159042e+01 2.532740e+01 3.658986e+01 3.047071e+01 2.026352e+01 2.956907e+00 8.623622e-01 7.750244e-01 9.264153e-01 1.406229e+00 1.975887e+00 1.744164e+00 2.471686e+00 2.467124e+00 2.009715e+00 2.444892e+00 1.972418e+00 1.712757e+00 4.024638e-01 1.279826e-01 1.218300e-01 1.654188e-01 2.189988e-01 3.060311e-01 2.899639e-01 4.175228e-01 4.076767e-01 3.849660e-01 4.236123e-01 3.135082e-01 2.311410e-01
<GCONST> 1.025909e+02
<STATE> 3
<MEAN> 39
 3.262129e-01 -3.261833e-01 4.579128e-01 2.425690e-01 -9.851626e-01 1.172822e+00 -1.393277e-01 -6.852379e-01 1.444384e+00 -4.510714e-02 -6.377189e-01 5.340186e-01 -2.193594e-01 -1.326186e-01 -3.317329e-03 7.469559e-03 -2.190218e-02 4.257143e-03 4.802791e-03 -2.904577e-02 1.175304e-02 -7.276882e-02 -3.494146e-02 -1.813644e-02 -1.981344e-02 1.273214e-01 3.767242e-02 -1.281033e-03 -5.855097e-03 -4.602863e-03 1.934028e-02 -8.666614e-03 4.511370e-03 2.101602e-02 -1.701255e-02 1.185264e-02 1.532117e-02 -1.931749e-02 -3.117388e-02
<VARIANCE> 39
 4.471832e+01 1.068433e+01 1.608627e+01 1.439260e+01 2.050898e+01 3.202116e+01 2.488376e+01 3.247157e+01 3.084238e+01 2.201838e+01 2.185601e+01 1.937173e+01 3.668241e+01 2.740282e+00 5.855830e-01 9.418338e-01 1.053789e+00 1.524268e+00 2.625140e+00 1.853848e+00 2.574477e+00 2.616861e+00 1.810939e+00 1.662959e+00 1.733197e+00 2.202931e+00 4.902258e-01 1.077389e-01 1.666221e-01 2.024106e-01 2.912697e-01 5.056938e-01 3.562913e-01 4.759932e-01 5.190721e-01 3.515330e-01 3.226380e-01 3.405758e-01 3.945703e-01
<GCONST> 1.046038e+02
<STATE> 4
<MEAN> 39
 -4.808385e-01 1.306234e-01 3.381323e-02 -1.092948e-01 2.192976e-02 -2.446575e-02 -8.041089e-02 -7.769948e-02 -1.651129e-01 -7.155308e-02 -7.448865e-02 1.022584e-01 3.585915e-01 7.183036e-02 -5.847091e-03 -2.725880e-03 -1.302650e-03 5.449871e-03 -1.163549e-02 -2.226351e-03 -1.109199e-03 7.382486e-03 -3.642293e-04 1.580014e-02 -2.482875e-03 -5.801398e-02 5.472495e-04 -9.392208e-05 -9.870596e-04 1.503035e-03 -2.324966e-04 -4.256530e-03 -6.243500e-05 1.274942e-03 -6.958729e-04 5.346840e-04 1.397575e-03 9.088888e-05 -4.587364e-04
<VARIANCE> 39
 3.763671e+01 7.989197e+00 1.313315e+01 1.145155e+01 1.577993e+01 2.681143e+01 2.135772e+01 2.587682e+01 2.570584e+01 2.017853e+01 1.939001e+01 1.912580e+01 2.362604e+01 1.286180e+00 5.019941e-01 8.834137e-01 9.244736e-01 1.238738e+00 1.947994e+00 1.724194e+00 2.076528e+00 2.156515e+00 1.782530e+00 1.612658e+00 1.727646e+00 9.744540e-01 2.351324e-01 9.274662e-02 1.724871e-01 1.853157e-01 2.358513e-01 3.741919e-01 3.357188e-01 3.948162e-01 4.252965e-01 3.566203e-01 3.220592e-01 3.398096e-01 1.806380e-01
<GCONST> 9.642335e+01
<TRANSP> 5
 0.000000e+00 1.000000e+00 0.000000e+00 0.000000e+00 0.000000e+00
 0.000000e+00 9.260298e-01 7.397024e-02 0.000000e+00 0.000000e+00
 0.000000e+00 0.000000e+00 9.790069e-01 2.099313e-02 0.000000e+00
 0.000000e+00 0.000000e+00 0.000000e+00 9.958520e-01 4.147968e-03
 0.000000e+00 0.000000e+00 0.000000e+00 0.000000e+00 0.000000e+00
<ENDHMM>
~h "cm"
<BEGINHMM>
<NUMSTATES> 5
<STATE> 2
<MEAN> 39
 -2.961648e+00 4.721911e-01 5.978478e-01 -3.303051e-01 2.090026e-01 8.244324e-01 1.414305e+00 2.161504e+00 1.772008e+00 1.349989e+00 1.625819e+00 8.035686e-01 -5.977882e+00 7.551329e-02 -2.601001e-02 -6.822830e-02 -1.329384e-01 -9.467939e-02 -1.188830e-01 -1.199580e-01 -1.115897e-01 -7.364402e-02 -4.341856e-02 -9.498045e-02 -2.932290e-03 5.480565e-01 2.768818e-02 -1.310235e-03 -1.663388e-02 -3.083820e-03 -1.301153e-02 -8.628265e-03 -1.294222e-02 -2.602318e-02 -2.938099e-02 -4.859149e-03 -4.953878e-03 -1.392669e-02 2.350850e-02
<VARIANCE> 39
 1.442563e+01 1.447222e+01 1.179208e+01 1.627294e+01 1.468800e+01 1.589504e+01 1.660776e+01 1.777464e+01 1.697010e+01 1.642593e+01 1.803670e+01 1.461948e+01 3.205031e+01 6.318071e-01 7.356508e-01 8.192612e-01 1.097285e+00 1.235204e+00 1.495161e+00 1.577116e+00 1.745253e+00 1.647435e+00 1.556099e+00 1.574790e+00 1.403094e+00 1.091176e+00 8.228701e-02 1.154009e-01 1.435447e-01 1.829220e-01 2.209164e-01 2.685903e-01 2.910134e-01 3.183557e-01 3.016857e-01 2.943755e-01 2.813619e-01 2.551700e-01 1.306056e-01
<GCONST> 9.007223e+01
<STATE> 3
<MEAN> 39
 -1.141616e+00 -8.263627e-01 -6.926202e-01 -9.888113e-01 -5.790381e-01 -2.623985e-01 -2.679314e-01 1.356084e-01 1.705558e-02 3.987643e-01 2.938022e-01 3.172810e-01 1.796484e+00 5.404505e-02 -3.398848e-02 -1.037647e-03 1.108482e-02 1.939510e-03 -1.205852e-02 -2.185803e-02 -2.491299e-02 -2.505981e-02 -3.572409e-02 -3.949887e-02 -2.526517e-02 1.943919e-01 -1.257270e-03 5.354798e-03 1.031010e-02 1.474246e-02 1.321281e-02 1.190150e-02 1.289593e-02 7.989974e-03 5.417288e-03 -2.728093e-03 3.040790e-03 1.358878e-03 -2.480209e-02
<VARIANCE> 39
 1.098274e+01 8.985925e+00 9.519361e+00 1.178502e+01 1.336907e+01 1.513178e+01 1.542582e+01 1.707764e+01 1.681825e+01 1.532179e+01 1.563852e+01 1.274522e+01 2.807944e+01 3.033679e-01 4.473621e-01 6.012011e-01 8.331089e-01 1.061795e+00 1.312985e+00 1.357731e+00 1.411813e+00 1.508109e+00 1.454963e+00 1.346438e+00 1.241586e+00 4.996844e-01 4.528071e-02 7.701691e-02 1.113926e-01 1.598682e-01 2.127733e-01 2.696186e-01 2.726494e-01 2.806084e-01 3.079508e-01 2.983367e-01 2.683174e-01 2.520968e-01 6.434952e-02
<GCONST> 8.201517e+01
<STATE> 4
<MEAN> 39
 1.255927e+00 3.807866e-01 2.783490e-01 6.364617e-01 2.914343e-01 -1.530611e-02 -1.312463e-01 -5.146691e-01 -3.676980e-01 -5.024079e-01 -4.976366e-01 -3.451044e-01 1.721414e-01 4.666897e-02 4.602145e-02 4.512486e-02 6.846099e-02 5.495144e-02 3.786533e-02 3.737115e-02 -8.599498e-03 3.382061e-03 5.144150e-03 1.380939e-02 5.344728e-03 -2.521240e-01 -3.310686e-03 -1.736385e-03 -2.302520e-03 -4.787460e-03 -2.861274e-03 -7.591243e-04 -3.873995e-04 1.866383e-03 2.268805e-03 1.027576e-03 5.904566e-04 2.134537e-03 -3.397157e-03
<VARIANCE> 39
 9.197989e+00 7.247335e+00 7.384814e+00 1.040949e+01 1.102883e+01 1.177712e+01 1.316110e+01 1.386728e+01 1.351406e+01 1.288092e+01 1.311062e+01 1.146801e+01 3.825317e+01 1.873721e-01 2.871979e-01 4.356738e-01 6.663271e-01 8.450399e-01 1.004705e+00 1.164746e+00 1.237959e+00 1.300635e+00 1.286723e+00 1.264512e+00 1.141369e+00 2.276858e-01 2.819628e-02 5.090021e-02 8.273186e-02 1.285709e-01 1.643482e-01 1.975351e-01 2.309971e-01 2.465716e-01 2.599266e-01 2.629483e-01 2.557408e-01 2.293827e-01 1.840172e-02
<GCONST> 7.265704e+01
<TRANSP> 5
 0.000000e+00 1.000000e+00 0.000000e+00 0.000000e+00 0.000000e+00
 0.000000e+00 9.263822e-01 7.361773e-02 0.000000e+00 0.000000e+00
 0.000000e+00 0.000000e+00 9.741970e-01 2.580295e-02 0.000000e+00
 0.000000e+00 0.000000e+00 0.000000e+00 9.851323e-01 1.486764e-02
 0.000000e+00 0.000000e+00 0.000000e+00 0.000000e+00 0.000000e+00
<ENDHMM>
~h "co"
<BEGINHMM>
<NUMSTATES> 5
<STATE> 2
<MEAN> 39
 -1.199861e+00 -3.282016e-01 -5.030981e-01 -4.038128e-01 -5.572550e+00 -2.204055e-01 1.256846e+00 4.377679e+00 4.357084e+00 1.870551e+00 5.261436e-01 1.616153e+00 -1.048836e+00 -4.657755e-01 -9.444953e-02 1.984232e-01 -3.043971e-01 -4.277785e-01 -6.521328e-01 -1.965915e-01 -5.618898e-01 -7.377279e-01 -7.353877e-01 -3.239604e-01 -2.459619e-01 1.906591e+00 -3.859569e-02 3.790122e-02 -1.377978e-02 2.404704e-02 2.693223e-01 1.581099e-01 1.367944e-01 2.985911e-02 -6.360804e-02 6.262520e-02 1.293331e-01 4.405449e-02 -1.011877e-01
<VARIANCE> 39
 1.493280e+01 2.465457e+01 2.710544e+01 2.578679e+01 8.772363e+01 4.859029e+01 5.781752e+01 5.852509e+01 5.721490e+01 4.063691e+01 3.951361e+01 2.658367e+01 9.646736e+01 1.059829e+00 2.091910e+00 1.712649e+00 1.837467e+00 6.158452e+00 3.336124e+00 4.000862e+00 3.223801e+00 5.179894e+00 3.176549e+00 2.646847e+00 2.600921e+00 4.441207e+00 1.230398e-01 3.481884e-01 2.667291e-01 2.589012e-01 7.874054e-01 5.274707e-01 6.573406e-01 5.401580e-01 9.264461e-01 5.631415e-01 4.390646e-01 4.448123e-01 4.604317e-01
<GCONST> 1.228438e+02
<STATE> 3
<MEAN> 39
 -1.949665e+00 -1.433957e+00 -1.610705e+00 -1.325853e+00 -2.216586e+00 -1.949413e+00 -9.169706e-02 -1.144749e+00 -2.185260e-01 -1.952405e-01 -4.080707e-01 -3.478607e-01 5.249437e+00 1.029864e-01 -2.593046e-02 -3.051968e-02 3.727503e-02 1.517607e-01 4.121955e-02 -8.208001e-02 -9.290156e-02 -2.776311e-02 4.159265e-02 2.288478e-02 -4.646711e-02 -1.201158e-01 2.440853e-02 7.208735e-03 6.805964e-03 1.384924e-02 -6.076806e-03 -1.105769e-03 -1.207041e-02 6.650500e-03 1.175356e-02 3.643428e-04 -1.020089e-02 -4.255474e-03 -3.973759e-02
<VARIANCE> 39
 1.184223e+01 8.901587e+00 1.453182e+01 1.665162e+01 2.686904e+01 2.123325e+01 3.457805e+01 3.501932e+01 2.876241e+01 2.664083e+01 2.560877e+01 2.431912e+01 2.987186e+01 4.536584e-01 6.792463e-01 9.105210e-01 1.130713e+00 2.091465e+00 1.554998e+00 2.104321e+00 2.221438e+00 2.793036e+00 2.326049e+00 2.081291e+00 1.704736e+00 9.470148e-01 6.525556e-02 1.330667e-01 1.631333e-01 2.064779e-01 3.664187e-01 2.967089e-01 3.806798e-01 4.141030e-01 5.753028e-01 4.710795e-01 4.072690e-01 3.193486e-01 1.155896e-01
<GCONST> 9.869235e+01
<STATE> 4
<MEAN> 39
 1.615484e+00 1.115415e+00 1.270550e+00 1.044503e+00 2.389050e+00 1.486732e+00 -9.640098e-02 2.814530e-01 -4.084886e-01 -9.951986e-02 2.361019e-01 4.799839e-02 -3.787950e+00 4.060404e-02 9.697653e-02 5.090315e-02 4.617781e-02 1.152529e-01 8.130161e-02 6.661300e-02 7.815439e-02 5.282186e-03 9.968509e-03 2.007878e-02 4.110134e-02 -2.456463e-01 -5.263065e-03 -2.371950e-03 -8.941005e-03 -5.657420e-03 -9.757305e-03 -5.817557e-03 1.877726e-03 2.065399e-03 4.233156e-03 3.111504e-03 -4.823082e-04 -4.833309e-04 5.994282e-03
<VARIANCE> 39
 1.024965e+01 1.516737e+01 1.578824e+01 1.651709e+01 3.411555e+01 2.269436e+01 4.019334e+01 3.238702e+01 2.400539e+01 2.571295e+01 2.412671e+01 2.149829e+01 6.064478e+01 3.107167e-01 6.179988e-01 7.132102e-01 9.672089e-01 1.906956e+00 1.430782e+00 1.799890e+00 1.745907e+00 1.900160e+00 1.843610e+00 1.735670e+00 1.541961e+00 1.036262e+00 4.466518e-02 1.110027e-01 1.277878e-01 1.852846e-01 3.458289e-01 2.739167e-01 3.281029e-01 3.294648e-01 3.695364e-01 3.674215e-01 3.470054e-01 3.087549e-01 9.568720e-02
<GCONST> 9.508466e+01
<TRANSP> 5
 0.000000e+00 1.000000e+00 0.000000e+00 0.000000e+00 0.000000e+00
 0.000000e+00 8.842276e-01 1.157723e-01 0.000000e+00 0.000000e+00
 0.000000e+00 0.000000e+00 9.796792e-01 2.032085e-02 0.000000e+00
 0.000000e+00 0.000000e+00 0.000000e+00 9.848037e-01 1.519626e-02
 0.000000e+00 0.000000e+00 0.000000e+00 0.000000e+00 0.000000e+00
<ENDHMM>
~h "ds"
<BEGINHMM>
<NUMSTATES> 5
<STATE> 2
<MEAN> 39
 -2.284582e+00 -8.519446e-01 -8.337545e-01 -1.546242e+00 -2.314523e+00 -2.420907e+00 1.467593e+00 -5.972832e-01 9.362060e-01 1.677854e+00 1.707723e+00 1.372882e+00 4.941707e+00 -2.590408e-01 6.074251e-02 -1.462803e-01 -1.283399e-01 -2.048272e-01 -1.456386e-01 -5.753724e-02 -4.009817e-02 2.870884e-02 7.131852e-02 9.769605e-03 1.264263e-02 9.930596e-01 4.191592e-02 -7.763945e-03 2.361679e-02 4.731356e-02 6.091992e-02 1.014163e-01 2.172189e-02 5.309884e-02 -1.048489e-02 -5.401413e-02 -3.328393e-03 1.900190e-02 -9.731319e-02
<VARIANCE> 39
 2.257762e+01 1.224640e+01 1.645951e+01 1.910960e+01 2.828632e+01 2.432650e+01 3.010518e+01 3.633484e+01 2.653922e+01 2.285601e+01 1.902225e+01 1.691177e+01 7.246897e+01 2.028634e+00 9.809229e-01 1.332962e+00 1.651485e+00 2.602126e+00 2.320797e+00 2.410708e+00 2.449978e+00 2.104353e+00 2.303326e+00 1.984527e+00 1.752818e+00 3.965265e+00 3.080100e-01 1.720142e-01 2.270662e-01 3.198925e-01 4.833060e-01 4.627334e-01 4.280025e-01 4.628077e-01 3.828550e-01 4.354444e-01 3.677572e-01 3.334734e-01 5.558902e-01
<GCONST> 1.091464e+02
<STATE> 3
<MEAN> 39
 -5.758523e+00 -1.793967e+00 -4.076177e+00 -3.160526e+00 -5.945193e+00 -2.904181e+00 -1.179721e+00 -4.918457e-02 1.040661e+00 1.763368e+00 1.162410e+00 1.665949e+00 8.918855e+00 2.871038e-01 -2.015931e-02 5.195341e-01 7.354027e-01 8.380411e-01 7.106898e-01 4.346044e-01 3.669120e-01 1.676998e-01 -1.373175e-01 1.397927e-02 -3.508327e-02 -3.906257e-01 1.517195e-01 9.463295e-02 7.696637e-02 6.411728e-02 4.811392e-02 -9.755142e-02 -4.146419e-02 -1.418912e-01 -1.203769e-03 9.196276e-02 -3.902151e-02 -3.483504e-02 -2.843567e-01
<VARIANCE> 39
 2.182452e+01 1.341161e+01 1.180598e+01 1.019840e+01 1.849863e+01 1.328932e+01 1.648096e+01 1.324536e+01 1.352801e+01 1.696050e+01 1.575534e+01 1.592104e+01 3.517900e+02 3.265204e+00 1.995592e+00 1.586180e+00 1.185548e+00 1.348374e+00 1.752481e+00 1.779953e+00 1.734318e+00 1.441526e+00 1.527603e+00 1.403330e+00 1.604927e+00 3.621314e+01 7.057563e-01 3.193771e-01 2.881637e-01 2.432790e-01 2.693578e-01 3.265840e-01 3.942285e-01 3.076667e-01 2.690603e-01 2.816814e-01 3.017237e-01 3.447937e-01 6.872253e+00
<GCONST> 1.079415e+02
<STATE> 4
<MEAN> 39
 3.468132e-01 1.201101e-01 1.780811e-01 2.155041e-01 3.542607e-01 2.840824e-01 -9.551250e-02 5.268110e-02 -1.077095e-01 -1.903824e-01 -1.772752e-01 -1.615970e-01 -6.579077e-01 5.010630e-02 2.032431e-03 2.606426e-02 1.697726e-02 4.118863e-02 2.520890e-02 1.281689e-02 7.106142e-03 -7.761050e-03 -1.708976e-02 -1.554008e-02 -1.482940e-02 -1.198652e-01 -1.514210e-03 -4.067716e-04 -2.776445e-03 -4.470279e-03 -5.000905e-03 -3.508945e-03 -1.429303e-03 -5.886988e-04 -4.462678e-04 1.187524e-03 9.760580e-04 4.180218e-04 1.441675e-03
<VARIANCE> 39
 1.308291e+01 1.000935e+01 1.443046e+01 1.475839e+01 1.793657e+01 2.016936e+01 2.176320e+01 1.817523e+01 2.296008e+01 2.163543e+01 1.750066e+01 1.637043e+01 4.999240e+01 5.747016e-01 4.777510e-01 6.692370e-01 9.043279e-01 1.284466e+00 1.417125e+00 1.575397e+00 1.537198e+00 1.744721e+00 1.748359e+00 1.583135e+00 1.351906e+00 8.275735e-01 9.636518e-02 8.446898e-02 1.245617e-01 1.736367e-01 2.526100e-01 2.772412e-01 3.086145e-01 3.056532e-01 3.461125e-01 3.516152e-01 3.210142e-01 2.716351e-01 1.019121e-01
<GCONST> 9.044390e+01
<TRANSP> 5
 0.000000e+00 1.000000e+00 0.000000e+00 0.000000e+00 0.000000e+00
 0.000000e+00 9.278535e-01 7.214648e-02 0.000000e+00 0.000000e+00
 0.000000e+00 0.000000e+00 7.620162e-01 2.379837e-01 0.000000e+00
 0.000000e+00 0.000000e+00 0.000000e+00 9.937918e-01 6.208274e-03
 0.000000e+00 0.000000e+00 0.000000e+00 0.000000e+00 0.000000e+00
<ENDHMM>
~h "kj"
<BEGINHMM>
<NUMSTATES> 5
<STATE> 2
<MEAN> 39
 6.722153e+00 -6.265960e-02 -2.445665e+00 -3.991337e-01 9.433712e-01 -1.445766e+00 -1.510415e+00 -7.242866e-01 -1.687959e-01 3.047715e-01 -1.207787e+00 -2.070806e-01 -3.988189e+00 -3.565172e-01 -2.329941e-01 -9.058717e-02 4.763508e-02 -1.548141e-01 -7.638066e-02 -7.179710e-02 -2.041561e-01 1.366913e-02 -1.558334e-02 4.494902e-02 2.902620e-02 5.185271e-01 3.342265e-03 -6.006614e-03 8.273631e-03 -6.667180e-03 1.086955e-02 2.104509e-02 1.785231e-02 2.164415e-02 1.041601e-02 6.179224e-03 -9.369747e-03 -6.478380e-03 -5.830078e-03
<VARIANCE> 39
 1.852103e+01 2.450603e+01 1.282834e+01 1.655517e+01 2.059327e+01 2.512663e+01 2.175786e+01 2.198802e+01 1.976531e+01 1.882853e+01 1.538896e+01 1.721401e+01 2.099325e+01 1.005182e+00 1.321590e+00 1.094642e+00 1.025708e+00 1.627639e+00 1.764354e+00 2.223605e+00 1.880695e+00 1.811448e+00 2.001240e+00 1.425178e+00 1.339535e+00 1.051308e+00 1.522496e-01 2.177634e-01 1.738262e-01 1.882453e-01 2.767587e-01 3.186425e-01 4.071077e-01 3.368411e-01 3.338547e-01 3.718255e-01 2.694430e-01 2.395177e-01 1.446386e-01
<GCONST> 9.698386e+01
<STATE> 3
<MEAN> 39
 3.864015e+00 -4.248430e+00 -4.325600e+00 -1.566927e-01 1.058672e+00 -2.812228e+00 -4.168393e+00 -2.903261e+00 -7.360317e-01 -2.603135e-01 -1.173301e-01 7.083450e-01 2.369252e+00 -1.284152e-01 1.606880e-01 3.380118e-02 3.962010e-03 6.508625e-02 7.137039e-02 4.010339e-02 7.322449e-02 -1.496838e-02 2.962907e-02 1.776382e-02 1.300648e-02 -6.958160e-02 -1.312130e-02 3.163030e-02 3.433132e-02 -5.343042e-03 -5.700400e-03 1.120149e-02 1.894764e-02 2.832631e-02 1.969784e-03 -1.063727e-03 4.387561e-03 2.394185e-03 -1.916442e-02
<VARIANCE> 39
 1.204500e+01 1.657918e+01 1.031677e+01 1.556130e+01 1.385117e+01 2.029616e+01 2.445510e+01 1.699696e+01 1.812034e+01 1.730451e+01 1.609183e+01 1.489228e+01 1.724290e+01 5.289543e-01 7.198154e-01 6.783243e-01 8.898319e-01 1.121662e+00 1.363825e+00 1.584064e+00 1.666342e+00 1.537404e+00 1.626538e+00 1.571256e+00 1.294683e+00 5.728205e-01 9.180500e-02 1.174534e-01 1.292221e-01 1.697692e-01 2.262327e-01 2.549054e-01 3.215697e-01 3.379367e-01 3.068811e-01 3.347251e-01 3.238900e-01 2.573012e-01 9.132551e-02
<GCONST> 8.821479e+01
<STATE> 4
<MEAN> 39
 -6.240555e-01 3.600684e-01 4.725890e-01 3.093586e-02 -1.310067e-01 3.008305e-01 4.177549e-01 2.763833e-01 6.940773e-02 8.331568e-03 6.360681e-02 -5.035434e-02 -2.179124e-02 3.560473e-02 -1.232025e-02 2.791044e-05 -5.540821e-03 4.286755e-03 -3.504967e-03 1.003210e-03 -1.624158e-03 5.607748e-03 -5.109764e-03 8.589351e-04 5.689070e-04 -2.002888e-02 2.615908e-03 -1.350517e-03 -1.954884e-03 1.150982e-04 4.522351e-04 -5.433823e-04 3.524531e-04 -6.396763e-04 7.173619e-04 1.894110e-04 -3.413981e-04 2.249210e-04 -1.311025e-03
<VARIANCE> 39
 2.690390e+01 3.052756e+01 1.451065e+01 1.361932e+01 1.513658e+01 2.284250e+01 2.614402e+01 2.067659e+01 1.725287e+01 1.933930e+01 1.572355e+01 1.433116e+01 2.880698e+01 5.686824e-01 7.502559e-01 7.054875e-01 9.400983e-01 1.179688e+00 1.453144e+00 1.636147e+00 1.605272e+00 1.626229e+00 1.669884e+00 1.468641e+00 1.321148e+00 6.376134e-01 9.366082e-02 1.280842e-01 1.313040e-01 1.830426e-01 2.295682e-01 2.858425e-01 3.186799e-01 3.214464e-01 3.310475e-01 3.340914e-01 2.958133e-01 2.687882e-01 9.072542e-02
<GCONST> 9.156783e+01
<TRANSP> 5
 0.000000e+00 1.000000e+00 0.000000e+00 0.000000e+00 0.000000e+00
 0.000000e+00 9.194583e-01 8.054176e-02 0.000000e+00 0.000000e+00
 0.000000e+00 0.000000e+00 9.573858e-01 4.261416e-02 0.000000e+00
 0.000000e+00 0.000000e+00 0.000000e+00 9.964163e-01 3.583720e-03
 0.000000e+00 0.000000e+00 0.000000e+00 0.000000e+00 0.000000e+00
<ENDHMM>
~h "kn"
<BEGINHMM>
<NUMSTATES> 5
<STATE> 2
<MEAN> 39
 -3.776396e+00 -4.509893e-01 -1.907182e+00 -2.864976e+00 -3.240853e+00 -1.059428e+00 -3.155679e-01 -1.655166e+00 5.878803e-01 -4.906460e-01 -3.984327e-04 -2.102742e+00 1.807020e+00 1.878301e-01 2.452153e-01 -1.096690e-01 1.694579e-01 2.740359e-01 -5.326799e-01 6.831060e-01 -5.364087e-02 1.325739e+00 3.738929e-01 2.096377e-01 3.693500e-01 2.675650e+00 -9.782060e-02 1.420560e-01 1.508292e-01 1.112745e-01 2.639571e-01 2.773554e-01 -2.695093e-02 9.655690e-02 -2.176402e-01 -4.639734e-02 1.063017e-02 1.525345e-01 -5.473067e-01
<VARIANCE> 39
 2.098879e+01 1.648298e+01 1.831679e+01 1.035699e+01 1.601954e+01 2.482621e+01 2.559764e+01 4.812077e+01 3.458135e+01 2.203341e+01 2.084215e+01 1.968164e+01 9.206145e+01 3.022056e+00 1.851769e+00 2.245908e+00 1.079237e+00 1.678144e+00 2.285277e+00 3.111730e+00 6.697474e+00 3.467140e+00 2.299613e+00 2.023114e+00 2.507170e+00 6.897154e+00 4.162686e-01 2.134494e-01 3.186731e-01 1.488599e-01 2.050227e-01 3.445724e-01 5.066357e-01 9.141718e-01 6.989566e-01 3.581175e-01 2.980466e-01 3.637280e-01 1.258063e+00
<GCONST> 1.133992e+02
<STATE> 3
<MEAN> 39
 2.681360e-01 -1.845716e-01 -5.609272e-01 -1.716124e-01 -7.387751e-02 -6.065816e-01 4.235240e-02 -4.576378e-01 5.628768e-01 1.035023e-01 2.215574e-01 2.602494e-01 1.556078e+00 7.623082e-02 -4.563158e-02 8.650112e-03 5.724702e-02 3.422842e-02 -3.515477e-03 -1.498015e-03 2.742981e-02 -1.818351e-02 1.474596e-02 1.039302e-02 3.256713e-02 -2.830637e-02 7.045330e-03 -7.430934e-03 -5.296300e-03 -1.810195e-04 -9.132403e-03 -1.474387e-04 -1.385054e-02 -8.664308e-03 -1.727250e-02 -2.040209e-03 -6.103199e-03 -1.332222e-02 -1.699765e-02
<VARIANCE> 39
 1.049915e+01 1.232195e+01 1.186822e+01 1.037810e+01 1.409243e+01 1.631128e+01 1.734057e+01 2.270157e+01 1.959507e+01 1.660801e+01 1.519195e+01 1.499647e+01 2.535545e+01 4.744769e-01 9.150649e-01 8.600261e-01 1.032686e+00 1.434275e+00 1.471326e+00 1.541847e+00 2.014796e+00 1.880183e+00 1.524435e+00 1.294475e+00 1.376652e+00 2.203863e+00 8.476188e-02 1.790329e-01 1.563212e-01 2.139304e-01 3.072931e-01 2.977218e-01 3.161883e-01 4.180369e-01 3.926543e-01 3.159161e-01 2.487193e-01 2.672027e-01 3.818359e-01
<GCONST> 9.279928e+01
<STATE> 4
<MEAN> 39
 7.069038e-02 2.319742e-01 7.543521e-01 4.406803e-01 3.743920e-01 7.234803e-01 -1.467686e-02 6.245726e-01 -6.349961e-01 -6.167873e-02 -2.286193e-01 -7.514263e-02 -1.772167e+00 -7.473227e-02 7.687856e-02 1.150216e-01 -8.311888e-03 1.712145e-02 1.292455e-01 -1.584944e-02 7.419712e-02 -9.799831e-02 -2.435072e-02 -4.693740e-02 -3.683455e-02 -3.243221e-01 -9.673228e-03 -5.706754e-03 -4.345615e-03 -1.468149e-02 -1.409298e-02 -8.412230e-03 1.184013e-02 4.107957e-03 7.413787e-03 -3.352656e-03 2.428011e-03 -6.168886e-03 1.070924e-02
<VARIANCE> 39
 8.265885e+00 9.368679e+00 9.494217e+00 7.825530e+00 1.102019e+01 1.489957e+01 1.322058e+01 1.708713e+01 1.580890e+01 1.449258e+01 1.365651e+01 1.343404e+01 2.645685e+01 2.451382e-01 4.778296e-01 5.656353e-01 7.128279e-01 1.057567e+00 1.113155e+00 1.300070e+00 1.612486e+00 1.554987e+00 1.453449e+00 1.402041e+00 1.355103e+00 8.271297e-01 3.551898e-02 8.474791e-02 1.052004e-01 1.474261e-01 2.115254e-01 2.147492e-01 2.682971e-01 3.326030e-01 3.253759e-01 3.056130e-01 2.923394e-01 2.807528e-01 1.234863e-01
<GCONST> 8.151553e+01
<TRANSP> 5
 0.000000e+00 1.000000e+00 0.000000e+00 0.000000e+00 0.000000e+00
 0.000000e+00 7.632723e-01 2.367276e-01 0.000000e+00 0.000000e+00
 0.000000e+00 0.000000e+00 9.788979e-01 2.110213e-02 0.000000e+00
 0.000000e+00 0.000000e+00 0.000000e+00 9.782218e-01 2.177817e-02
 0.000000e+00 0.000000e+00 0.000000e+00 0.000000e+00 0.000000e+00
<ENDHMM>
~h "kt"
<BEGINHMM>
<NUMSTATES> 5
<STATE> 2
<MEAN> 39
 -1.567547e-01 -4.451355e-01 2.465377e-01 -7.800888e-01 -4.427383e-01 -1.430788e-01 6.882083e-02 4.373448e-01 5.149132e-01 3.342599e-01 1.570749e-01 2.032229e-01 4.390788e-01 -1.321317e-01 1.523441e-02 -6.738925e-02 2.465572e-02 -2.634983e-02 -8.676971e-02 -9.540249e-03 8.756495e-04 2.525083e-02 1.264857e-03 -5.640166e-03 -8.633652e-03 1.926099e-01 1.486536e-02 -1.673856e-03 9.371021e-03 1.129387e-02 7.570969e-03 1.360529e-02 5.569186e-03 -2.703400e-03 -3.422780e-03 -4.068644e-03 1.330527e-02 -1.180907e-03 -1.717209e-02
<VARIANCE> 39
 1.627223e+01 9.780742e+00 1.001677e+01 1.192388e+01 1.373810e+01 1.774292e+01 1.738693e+01 1.802945e+01 1.730683e+01 1.600596e+01 1.491769e+01 1.351394e+01 2.444014e+01 1.237384e+00 6.136590e-01 8.413235e-01 1.000391e+00 1.261610e+00 1.806008e+00 1.740026e+00 1.831201e+00 1.737680e+00 1.770797e+00 1.611726e+00 1.395386e+00 1.865775e+00 2.195259e-01 1.125096e-01 1.651065e-01 1.906641e-01 2.428559e-01 3.597162e-01 3.541785e-01 3.639575e-01 3.419401e-01 3.485815e-01 3.218566e-01 2.820772e-01 3.170544e-01
<GCONST> 9.367242e+01
<STATE> 3
<MEAN> 39
 -1.507775e+00 -7.635985e-02 -1.516689e-01 8.469683e-01 5.070235e-02 -1.171099e+00 -5.091792e-01 -7.475523e-01 -2.701899e-01 -1.255568e-01 -2.987138e-01 6.308395e-02 2.033464e+00 4.661042e-02 1.146520e-02 1.327791e-02 5.215442e-03 2.166820e-02 3.040262e-02 3.536509e-02 -1.259983e-02 -9.942890e-03 -1.655077e-02 9.026661e-03 -5.969678e-03 -7.097039e-02 6.114488e-03 1.084334e-03 2.651685e-03 -6.681154e-03 2.443726e-03 2.488117e-03 7.793524e-04 8.163325e-03 5.751521e-03 4.574464e-03 -5.866672e-03 2.235967e-04 -1.263679e-02
<VARIANCE> 39
 7.885941e+00 5.288337e+00 7.583951e+00 1.156622e+01 1.338956e+01 1.727898e+01 1.631919e+01 1.627778e+01 1.738941e+01 1.764766e+01 1.647205e+01 1.308844e+01 1.232600e+01 7.248817e-01 4.342643e-01 7.067015e-01 9.660033e-01 1.261414e+00 1.755390e+00 1.658131e+00 1.511502e+00 1.710503e+00 2.011043e+00 1.631639e+00 1.291977e+00 1.277296e+00 1.418802e-01 8.572475e-02 1.435288e-01 1.960174e-01 2.588244e-01 3.702551e-01 3.449838e-01 3.043915e-01 3.458093e-01 4.296570e-01 3.249055e-01 2.628558e-01 2.514559e-01
<GCONST> 8.859516e+01
<STATE> 4
<MEAN> 39
 3.982762e-01 8.321126e-02 2.240262e-03 -9.854537e-02 5.120708e-02 3.124166e-01 1.169430e-01 1.231970e-01 -6.925178e-03 -1.691458e-02 5.177788e-02 -4.502065e-02 -5.699637e-01 1.690848e-02 -5.559254e-03 6.426957e-03 -8.639646e-03 3.378245e-03 8.499233e-03 -2.267630e-04 2.082207e-03 -1.884193e-03 2.494115e-03 2.763987e-03 -7.170133e-04 -2.001275e-02 -1.230629e-03 -8.642855e-04 -5.020595e-04 3.988945e-04 7.047963e-05 -8.012643e-04 -1.678397e-03 -3.372223e-04 -7.515047e-04 -2.537828e-04 -4.740980e-04 6.246269e-04 1.713465e-03
<VARIANCE> 39
 9.634679e+00 6.571030e+00 8.165377e+00 9.869246e+00 1.256328e+01 1.520456e+01 1.518963e+01 1.552650e+01 1.635917e+01 1.596228e+01 1.435207e+01 1.277552e+01 1.171944e+01 7.220858e-01 4.745286e-01 6.523685e-01 8.289144e-01 1.139866e+00 1.344974e+00 1.531642e+00 1.558684e+00 1.605773e+00 1.657602e+00 1.462605e+00 1.270386e+00 8.537591e-01 1.366884e-01 9.173084e-02 1.286991e-01 1.650189e-01 2.309783e-01 2.756628e-01 3.166180e-01 3.205724e-01 3.286609e-01 3.447393e-01 2.950035e-01 2.556638e-01 1.548293e-01
<GCONST> 8.531940e+01
<TRANSP> 5
 0.000000e+00 1.000000e+00 0.000000e+00 0.000000e+00 0.000000e+00
 0.000000e+00 9.707028e-01 2.929722e-02 0.000000e+00 0.000000e+00
 0.000000e+00 0.000000e+00 9.830453e-01 1.695476e-02 0.000000e+00
 0.000000e+00 0.000000e+00 0.000000e+00 9.957756e-01 4.224390e-03
 0.000000e+00 0.000000e+00 0.000000e+00 0.000000e+00 0.000000e+00
<ENDHMM>
~h "pr"
<BEGINHMM>
<NUMSTATES> 5
<STATE> 2
<MEAN> 39
 -8.711966e-01 3.337795e-01 -3.213821e-01 -1.134774e-01 1.390752e+00 4.433298e-01 -1.172128e+00 -2.065087e+00 -3.598548e-01 -2.422525e-01 1.076918e+00 7.076034e-01 1.232523e+00 -1.614129e-01 -9.127720e-02 5.019935e-02 -2.690727e-02 1.528596e-02 4.954515e-02 -2.839667e-03 -1.159500e-01 -1.863951e-04 -6.513061e-02 -3.374787e-02 1.189426e-01 1.674873e-01 4.708789e-02 9.079783e-03 -1.942458e-02 1.219624e-02 2.623834e-03 -6.219820e-03 -7.449970e-03 1.265398e-02 -9.193222e-03 1.414801e-02 -9.017195e-03 -2.152271e-02 -3.770829e-02
<VARIANCE> 39
 2.089102e+01 2.147322e+01 2.810052e+01 3.834027e+01 4.784386e+01 4.515899e+01 5.118685e+01 6.116374e+01 3.792876e+01 3.608821e+01 4.377577e+01 4.564221e+01 1.488445e+01 1.488089e+00 1.074448e+00 1.525156e+00 2.157516e+00 2.156381e+00 2.688005e+00 2.704661e+00 3.410775e+00 2.866842e+00 2.362253e+00 3.390898e+00 2.666349e+00 9.949170e-01 2.170245e-01 1.753354e-01 2.575267e-01 3.689532e-01 3.632293e-01 4.620280e-01 4.714579e-01 5.721413e-01 5.469720e-01 4.154940e-01 6.014830e-01 4.700044e-01 1.362601e-01
<GCONST> 1.143079e+02
<STATE> 3
<MEAN> 39
 -4.676023e+00 -7.661598e-01 1.927294e+00 2.181985e-01 1.898946e+00 1.873945e+00 -2.084951e+00 -2.859538e+00 2.264189e+00 -3.349752e+00 6.450467e-01 8.330264e-01 3.643658e+00 3.524260e-02 -1.552085e-02 -2.355570e-03 -3.327797e-02 4.916037e-03 2.337808e-03 4.929158e-03 1.280904e-02 2.626411e-02 2.881892e-04 -1.378545e-02 2.217345e-02 -3.959775e-02 1.026279e-03 3.163694e-03 3.156200e-03 -3.365051e-03 -6.455414e-04 -5.087205e-03 7.789883e-04 1.093121e-02 -2.560244e-03 4.755988e-03 4.180434e-04 -5.435210e-03 -2.107989e-03
<VARIANCE> 39
 9.576481e+00 1.872835e+01 1.316472e+01 1.574796e+01 5.346098e+01 3.378412e+01 3.030243e+01 2.535481e+01 2.532027e+01 2.488077e+01 3.363342e+01 2.605144e+01 6.054035e+00 4.815454e-01 4.246511e-01 5.815251e-01 8.810885e-01 1.267750e+00 1.638267e+00 1.606361e+00 1.505301e+00 1.719630e+00 1.807054e+00 1.927218e+00 1.338163e+00 2.269504e-01 1.071769e-01 7.914318e-02 1.083376e-01 1.743620e-01 2.616771e-01 3.411110e-01 3.253059e-01 3.040649e-01 3.515789e-01 3.496684e-01 3.924745e-01 2.701772e-01 4.815495e-02
<GCONST> 9.048005e+01
<STATE> 4
<MEAN> 39
 1.697305e+00 2.236569e-01 -6.218292e-01 -6.158982e-02 -8.077507e-01 -6.909688e-01 8.463303e-01 1.213021e+00 -7.325472e-01 1.172271e+00 -3.434460e-01 -3.654852e-01 -1.385831e+00 3.761965e-02 2.103187e-02 -1.843008e-02 2.170253e-02 -9.232733e-03 -1.119081e-02 -8.658296e-04 9.488180e-03 -1.413902e-02 1.093459e-02 8.579940e-03 -2.082822e-02 -3.286377e-02 -8.590925e-04 -2.203174e-04 1.206732e-04 1.874697e-03 -1.012830e-04 5.510813e-04 -1.329794e-04 -2.216611e-03 4.484390e-04 -6.226745e-04 1.551183e-03 -1.570806e-03 7.054134e-04
<VARIANCE> 39
 2.444054e+01 1.927114e+01 2.921903e+01 4.099617e+01 3.180143e+01 3.764497e+01 3.100605e+01 3.749825e+01 4.311243e+01 4.154756e+01 3.715072e+01 4.046881e+01 1.641044e+01 3.681002e-01 4.861234e-01 6.636190e-01 9.657355e-01 1.141067e+00 1.478639e+00 1.546136e+00 1.655914e+00 1.735862e+00 1.726374e+00 1.603887e+00 1.434961e+00 2.239661e-01 6.362606e-02 8.400643e-02 1.225303e-01 1.737767e-01 2.194170e-01 2.833595e-01 3.000960e-01 3.109590e-01 3.284655e-01 3.333465e-01 3.096888e-01 2.718514e-01 3.509634e-02
<GCONST> 9.413627e+01
<TRANSP> 5
 0.000000e+00 1.000000e+00 0.000000e+00 0.000000e+00 0.000000e+00
 0.000000e+00 9.655588e-01 3.444117e-02 0.000000e+00 0.000000e+00
 0.000000e+00 0.000000e+00 9.884843e-01 1.151574e-02 0.000000e+00
 0.000000e+00 0.000000e+00 0.000000e+00 9.960651e-01 3.934864e-03
 0.000000e+00 0.000000e+00 0.000000e+00 0.000000e+00 0.000000e+00
<ENDHMM>
~h "pw"
<BEGINHMM>
<NUMSTATES> 5
<STATE> 2
<MEAN> 39
 -9.499582e-01 1.644779e+00 4.190151e-01 3.758724e-01 6.812857e-01 1.194622e+00 8.979428e-01 1.095808e+00 5.432891e-01 3.402377e-01 4.361493e-02 -2.495319e-01 -1.741108e+00 -1.502907e-02 -1.148120e-02 5.419932e-03 -1.287765e-03 -2.734764e-03 -1.378755e-02 -2.707054e-03 -7.709845e-03 -3.456563e-03 -1.844444e-03 9.378564e-04 2.883231e-03 1.861065e-02 -1.581742e-03 -5.736137e-03 -4.055253e-03 -1.261893e-03 -3.478178e-03 -5.501908e-03 -4.578462e-03 -2.922118e-03 -2.927211e-03 3.488710e-04 -1.825641e-03 1.215088e-03 8.313304e-03
<VARIANCE> 39
 1.357010e+01 1.863268e+01 1.012790e+01 1.071612e+01 1.332693e+01 1.490922e+01 1.604709e+01 1.712616e+01 1.560791e+01 1.472020e+01 1.425995e+01 1.239021e+01 1.879193e+01 5.322407e-01 7.352442e-01 6.958843e-01 8.743978e-01 1.138505e+00 1.336895e+00 1.434411e+00 1.519428e+00 1.549523e+00 1.445792e+00 1.422868e+00 1.239871e+00 5.362273e-01 8.520294e-02 1.259008e-01 1.335487e-01 1.719809e-01 2.252108e-01 2.726783e-01 2.911836e-01 3.024410e-01 3.181257e-01 2.870632e-01 2.907187e-01 2.512613e-01 8.223785e-02
<GCONST> 8.582833e+01
<STATE> 3
<MEAN> 39
 3.978145e-01 -2.512028e+00 -7.516271e-01 -5.696966e-01 -1.006904e+00 -2.302338e+00 -1.897905e+00 -2.396694e+00 -1.237570e+00 -9.697579e-01 -3.105639e-01 1.499284e-01 4.695047e+00 4.176823e-03 -6.260817e-02 -1.733972e-02 5.458784e-03 -8.909818e-03 -4.218104e-02 -4.033511e-02 -5.108134e-02 -2.488064e-02 -2.152257e-02 -1.127495e-03 4.611566e-03 8.457322e-02 8.258145e-03 1.156547e-02 2.337288e-03 2.817228e-03 1.118465e-02 1.553866e-02 1.013637e-02 9.514066e-03 5.545579e-03 4.090392e-03 4.304789e-03 -2.796521e-03 -2.323392e-02
<VARIANCE> 39
 1.790184e+01 2.702411e+01 1.273585e+01 1.229893e+01 1.635401e+01 2.489103e+01 2.280149e+01 2.734499e+01 1.792906e+01 1.599099e+01 1.432856e+01 1.291982e+01 7.586272e+01 6.336498e-01 1.070158e+00 7.336797e-01 8.731384e-01 1.401713e+00 1.831590e+00 1.681731e+00 1.804349e+00 1.561958e+00 1.472423e+00 1.384245e+00 1.306641e+00 3.454213e+00 1.053934e-01 1.639385e-01 1.369671e-01 1.684592e-01 2.745045e-01 3.519863e-01 3.274784e-01 3.498262e-01 3.168480e-01 2.985606e-01 2.821978e-01 2.717707e-01 4.698137e-01
<GCONST> 9.643719e+01
<STATE> 4
<MEAN> 39
 1.465700e-01 1.846615e-01 7.389908e-02 4.115126e-02 6.840907e-02 2.490243e-01 2.274215e-01 2.969095e-01 1.590651e-01 1.464408e-01 6.355990e-02 2.757529e-02 -6.850498e-01 9.365500e-03 1.054229e-02 3.702978e-03 -1.782152e-03 3.229644e-03 1.310290e-02 9.280113e-03 1.104673e-02 6.371191e-03 5.189890e-03 1.865368e-03 -2.925111e-03 -2.618609e-02 2.110542e-04 -6.988025e-04 -1.898118e-04 -7.902739e-04 -1.297095e-03 -8.395278e-04 -8.140455e-04 -1.523764e-03 -1.175313e-03 -4.572504e-04 -1.996399e-04 -1.353092e-04 1.151611e-03
<VARIANCE> 39
 1.472050e+01 1.899605e+01 1.068250e+01 1.092065e+01 1.380104e+01 1.915515e+01 1.783151e+01 2.091375e+01 1.731784e+01 1.561887e+01 1.414738e+01 1.293378e+01 2.975132e+01 5.431127e-01 7.651188e-01 6.660991e-01 8.639199e-01 1.145626e+00 1.472746e+00 1.462608e+00 1.568465e+00 1.532979e+00 1.504308e+00 1.429191e+00 1.284706e+00 8.724757e-01 8.918779e-02 1.274220e-01 1.254290e-01 1.692898e-01 2.265749e-01 2.953359e-01 2.915802e-01 3.131598e-01 3.106661e-01 3.084714e-01 2.922846e-01 2.642589e-01 1.244128e-01
<GCONST> 8.858310e+01
<TRANSP> 5
 0.000000e+00 1.000000e+00 0.000000e+00 0.000000e+00 0.000000e+00
 0.000000e+00 9.903550e-01 9.644932e-03 0.000000e+00 0.000000e+00
 0.000000e+00 0.000000e+00 9.897726e-01 1.022738e-02 0.000000e+00
 0.000000e+00 0.000000e+00 0.000000e+00 9.975406e-01 2.459387e-03
 0.000000e+00 0.000000e+00 0.000000e+00 0.000000e+00 0.000000e+00
<ENDHMM>
~h "si"
<BEGINHMM>
<NUMSTATES> 5
<STATE> 2
<MEAN> 39
 -3.111129e-01 6.684574e-02 3.108415e-01 3.667063e-01 1.073557e-02 -3.171789e-01 -2.039067e-01 -6.558261e-01 -8.698282e-02 -2.947352e-01 -3.595539e-01 1.332379e-01 8.707926e-01 -5.519219e-03 -4.218088e-03 -1.124380e-02 -1.709591e-02 -1.350626e-02 9.494418e-04 1.045046e-02 1.886613e-02 8.073083e-03 1.550198e-02 8.167176e-03 -2.594799e-03 -2.643689e-02 1.386651e-03 1.027314e-03 -2.752417e-04 2.243701e-04 1.134872e-03 2.507887e-03 1.231673e-03 1.654184e-03 1.347273e-03 1.776857e-03 2.271258e-03 5.504786e-04 -1.640429e-03
<VARIANCE> 39
 1.523148e+01 1.287594e+01 1.165815e+01 1.310651e+01 1.792496e+01 1.850015e+01 1.816659e+01 2.089137e+01 1.759899e+01 1.696203e+01 1.608764e+01 1.439644e+01 1.814749e+01 3.417066e-01 4.986419e-01 5.853265e-01 8.051928e-01 1.059850e+00 1.269132e+00 1.382652e+00 1.476853e+00 1.460167e+00 1.453626e+00 1.397336e+00 1.221857e+00 3.096511e-01 5.398792e-02 8.640974e-02 1.097439e-01 1.552965e-01 2.057151e-01 2.481343e-01 2.743773e-01 2.904531e-01 2.902156e-01 2.909914e-01 2.795175e-01 2.440263e-01 4.447680e-02
<GCONST> 8.316020e+01
<STATE> 3
<MEAN> 39
 6.782500e-01 1.738813e-01 -6.741525e-02 -1.552571e-01 9.699021e-02 4.337353e-01 6.946415e-02 4.821982e-01 -2.061328e-02 1.035986e-01 1.449423e-01 -2.417133e-01 -1.003297e+00 -4.317143e-04 3.291804e-03 -6.919239e-03 -4.365203e-03 -1.550859e-03 3.404898e-03 2.235886e-03 8.756826e-03 1.896264e-03 2.839669e-03 3.775746e-03 8.250390e-04 -1.077149e-02 -1.936545e-03 -5.307969e-04 1.119215e-04 1.471384e-04 -8.632689e-04 -2.299954e-03 -1.654524e-03 -2.286028e-03 -7.835234e-04 -8.061901e-04 -1.073523e-03 4.382181e-04 2.361455e-03
<VARIANCE> 39
 3.890953e+00 4.348740e+00 6.252442e+00 8.043491e+00 1.140129e+01 1.249937e+01 1.340821e+01 1.480801e+01 1.444050e+01 1.438749e+01 1.360780e+01 1.209746e+01 2.612323e+00 1.417263e-01 2.754261e-01 4.614199e-01 6.712850e-01 9.215331e-01 1.095826e+00 1.245651e+00 1.360337e+00 1.390020e+00 1.414126e+00 1.320370e+00 1.143561e+00 5.103226e-02 2.562547e-02 5.328029e-02 9.139588e-02 1.345077e-01 1.856173e-01 2.219626e-01 2.527005e-01 2.780441e-01 2.843265e-01 2.909999e-01 2.712974e-01 2.333401e-01 8.377224e-03
<GCONST> 6.743476e+01
<STATE> 4
<MEAN> 39
 -1.187388e+00 -4.367381e-01 -1.346459e-01 5.081227e-03 -2.196491e-01 -6.526102e-01 3.368294e-02 -4.518398e-01 1.231371e-01 4.178153e-02 1.079105e-02 4.029711e-01 1.385833e+00 -1.644815e-02 -3.069734e-03 3.775638e-03 2.447479e-03 -4.040888e-03 -1.289286e-02 -7.446451e-03 -1.616752e-02 2.448340e-03 5.034292e-04 2.901583e-03 8.778673e-03 3.983264e-02 2.079062e-03 2.305936e-05 8.751716e-04 2.275457e-04 6.959945e-04 1.740002e-03 1.028561e-03 8.886580e-04 2.457998e-04 -3.945419e-04 -1.643456e-04 -1.270968e-03 8.663634e-05
<VARIANCE> 39
 1.592694e+01 1.625537e+01 1.069075e+01 1.294894e+01 1.569789e+01 1.824611e+01 1.825570e+01 2.137032e+01 1.817437e+01 1.667695e+01 1.561063e+01 1.478308e+01 2.746168e+01 5.046507e-01 6.266118e-01 6.423600e-01 8.722569e-01 1.109399e+00 1.369624e+00 1.469175e+00 1.592163e+00 1.553885e+00 1.530577e+00 1.416271e+00 1.264893e+00 6.855802e-01 7.873224e-02 1.065554e-01 1.194738e-01 1.677569e-01 2.152762e-01 2.686600e-01 2.902884e-01 3.143514e-01 3.107125e-01 3.074871e-01 2.843076e-01 2.535275e-01 9.846047e-02
<GCONST> 8.763451e+01
<TRANSP> 5
 0.000000e+00 1.000000e+00 0.000000e+00 0.000000e+00 0.000000e+00
 0.000000e+00 9.836897e-01 1.631024e-02 0.000000e+00 0.000000e+00
 0.000000e+00 0.000000e+00 9.931991e-01 6.800928e-03 0.000000e+00
 0.000000e+00 0.000000e+00 0.000000e+00 9.852783e-01 1.472177e-02
 0.000000e+00 0.000000e+00 0.000000e+00 0.000000e+00 0.000000e+00
<ENDHMM>
~h "st"
<BEGINHMM>
<NUMSTATES> 5
<STATE> 2
<MEAN> 39
 -4.219358e-01 -3.388758e-01 -9.648534e-02 6.438546e-02 2.897679e-02 -5.888784e-01 -1.595326e-01 4.377860e-01 3.859842e-01 -1.739712e-01 -3.620321e-01 -3.377703e-01 1.152606e+00 -6.745499e-02 -1.690093e-01 6.383186e-02 -1.663858e-01 -1.246656e-01 -1.874407e-01 -6.651609e-02 -3.275728e-04 1.278342e-02 -1.875466e-02 4.109561e-03 7.410771e-03 3.973494e-01 2.304082e-02 2.196675e-02 3.416145e-03 2.102173e-02 2.013023e-02 3.420404e-02 3.006141e-02 5.947555e-03 4.577217e-03 1.160041e-02 1.467183e-03 6.182963e-03 -6.465110e-02
<VARIANCE> 39
 1.596621e+01 2.463333e+01 1.506246e+01 2.338399e+01 2.267667e+01 2.855366e+01 2.135648e+01 2.065732e+01 1.803654e+01 2.104109e+01 1.782871e+01 1.500783e+01 5.558635e+01 9.522550e-01 1.188639e+00 9.982711e-01 1.601186e+00 1.840640e+00 2.206811e+00 1.863298e+00 1.773223e+00 1.677869e+00 1.931924e+00 1.835149e+00 1.478317e+00 3.362477e+00 1.478089e-01 1.823578e-01 1.755008e-01 2.772836e-01 3.323829e-01 3.758321e-01 3.452138e-01 3.382417e-01 3.231170e-01 3.726422e-01 3.591140e-01 2.858000e-01 4.991768e-01
<GCONST> 1.022489e+02
<STATE> 3
<MEAN> 39
 1.477262e-01 -9.897228e-02 8.159231e-02 -1.710693e-01 -8.511180e-02 -1.147996e-01 -1.504476e-01 -1.420591e-01 -1.064152e-01 9.130200e-03 7.143181e-02 4.592898e-02 2.166112e-01 1.306506e-03 1.331939e-02 4.965411e-03 4.478713e-03 4.686853e-03 1.224460e-02 6.506424e-03 -2.508793e-03 -1.985494e-04 -3.298240e-03 -6.540417e-03 8.133114e-04 -3.529802e-02 -1.434696e-04 2.020295e-03 -2.470359e-03 3.248635e-03 1.629168e-03 1.941236e-03 -7.162488e-04 -1.108309e-03 -2.286472e-03 -8.533979e-04 -2.891629e-04 -4.221154e-04 -3.278665e-03
<VARIANCE> 39
 1.467938e+01 1.361620e+01 1.160499e+01 1.961294e+01 1.808094e+01 2.209102e+01 1.811059e+01 1.812813e+01 1.844709e+01 1.719452e+01 1.500062e+01 1.382579e+01 4.646818e+01 5.839504e-01 6.332723e-01 7.005203e-01 1.180395e+00 1.310864e+00 1.551338e+00 1.552611e+00 1.600310e+00 1.585697e+00 1.564096e+00 1.499666e+00 1.324497e+00 1.730552e+00 9.001600e-02 1.066837e-01 1.333340e-01 2.187866e-01 2.543415e-01 3.063760e-01 3.142268e-01 3.299105e-01 3.229104e-01 3.211928e-01 3.114397e-01 2.721102e-01 2.352581e-01
<GCONST> 9.251746e+01
<STATE> 4
<MEAN> 39
 -4.839773e-02 1.449845e-01 -5.145948e-02 1.328689e-01 6.666024e-02 2.036284e-01 1.559966e-01 4.073864e-02 2.000747e-02 2.379101e-02 5.211768e-03 2.236303e-02 -3.917338e-01 6.686294e-03 2.002574e-02 -1.318709e-02 2.650601e-02 2.195646e-02 3.957136e-02 1.769515e-02 -4.168760e-04 -2.925526e-03 4.819187e-03 2.653033e-03 3.613029e-03 -5.491947e-02 -3.522362e-04 -1.838007e-03 -6.774385e-04 -3.213203e-03 -2.663639e-03 -1.267673e-03 -1.581934e-03 1.364338e-03 1.802219e-03 1.460956e-03 6.165117e-04 3.630946e-04 3.813964e-03
<VARIANCE> 39
 7.654229e+00 8.066497e+00 8.954490e+00 1.376157e+01 1.528428e+01 1.818771e+01 1.671652e+01 1.704472e+01 1.569873e+01 1.507074e+01 1.392524e+01 1.260249e+01 1.359448e+01 3.591078e-01 5.031686e-01 6.201446e-01 9.600776e-01 1.146583e+00 1.391586e+00 1.428893e+00 1.517384e+00 1.518347e+00 1.494812e+00 1.397680e+00 1.253838e+00 4.923075e-01 5.886326e-02 8.849331e-02 1.187081e-01 1.775252e-01 2.226728e-01 2.701150e-01 2.842007e-01 3.049357e-01 3.090649e-01 3.065685e-01 2.852617e-01 2.560697e-01 6.778322e-02
<GCONST> 8.278285e+01
<TRANSP> 5
 0.000000e+00 1.000000e+00 0.000000e+00 0.000000e+00 0.000000e+00
 0.000000e+00 9.534034e-01 4.659665e-02 0.000000e+00 0.000000e+00
 0.000000e+00 0.000000e+00 9.900122e-01 9.987839e-03 0.000000e+00
 0.000000e+00 0.000000e+00 0.000000e+00 9.915618e-01 8.438230e-03
 0.000000e+00 0.000000e+00 0.000000e+00 0.000000e+00 0.000000e+00
<ENDHMM>
~h "spe"
<BEGINHMM>
<NUMSTATES> 5
<STATE> 2
<MEAN> 39
 -4.144031e-01 5.021637e-01 2.485770e-01 -5.517974e-01 -1.585212e-01 -2.018593e-01 1.776276e-01 8.528110e-02 -1.587852e-01 1.031991e-01 9.415503e-02 1.660877e-01 4.982626e-01 4.165819e-02 -1.371174e-01 7.936845e-02 -1.111341e-01 -9.356155e-02 -5.827698e-02 -7.864501e-02 3.008107e-02 3.745972e-02 6.517135e-02 -1.418046e-02 -4.170239e-02 1.962678e-01 -5.933185e-03 -1.564472e-02 2.546656e-03 1.585267e-02 9.753379e-04 2.187651e-04 -1.379807e-03 -8.499232e-03 -3.304243e-03 -1.964840e-04 -1.562244e-02 3.324910e-03 -1.692066e-03
<VARIANCE> 39
 3.063204e+01 3.252277e+01 6.445887e+01 6.514773e+01 4.529674e+01 5.174266e+01 4.669137e+01 5.084166e+01 3.659811e+01 3.189387e+01 3.201261e+01 2.882025e+01 3.076874e+01 8.724381e-01 1.324860e+00 1.627513e+00 2.033743e+00 2.348053e+00 2.276344e+00 2.346064e+00 2.806547e+00 2.724949e+00 2.176556e+00 2.195114e+00 1.962108e+00 6.712244e-01 1.150058e-01 1.818781e-01 2.228488e-01 3.159416e-01 3.683684e-01 4.185823e-01 3.939403e-01 4.784695e-01 4.674544e-01 4.002651e-01 4.039008e-01 3.688751e-01 7.115123e-02
<GCONST> 1.112344e+02
<STATE> 3
<MEAN> 39
 9.741323e-01 -1.686691e+00 1.870564e+00 -2.064261e+00 -1.461645e+00 -2.829541e-01 -2.767263e+00 -1.119187e+00 -1.622177e+00 -7.834629e-01 -7.516890e-01 -1.388384e+00 3.739989e+00 -2.606150e-02 5.917783e-02 -3.607188e-02 8.379811e-02 4.714606e-02 -1.272411e-02 -1.187136e-02 -4.409316e-02 -4.344655e-02 -5.631157e-02 -3.112893e-02 1.266853e-03 -4.867862e-02 -5.185088e-03 1.802200e-02 -1.508356e-02 8.621817e-03 6.857542e-03 4.781289e-03 1.641415e-02 2.180730e-03 2.252334e-03 4.907831e-04 1.121013e-02 6.788140e-03 -1.575294e-02
<VARIANCE> 39
 1.867984e+01 3.380348e+01 5.815309e+01 2.946868e+01 5.706882e+01 4.192415e+01 2.444180e+01 4.210424e+01 2.826521e+01 3.041721e+01 3.508063e+01 3.030364e+01 1.028866e+01 5.379677e-01 9.156420e-01 1.082600e+00 1.161822e+00 1.943426e+00 1.739161e+00 1.567771e+00 2.009243e+00 1.785945e+00 1.950617e+00 1.673916e+00 1.605756e+00 2.436651e-01 6.742890e-02 1.170942e-01 1.609056e-01 1.925580e-01 3.146372e-01 3.147955e-01 3.049255e-01 3.623501e-01 3.497804e-01 3.811423e-01 3.048794e-01 2.789050e-01 2.677806e-02
<GCONST> 9.812555e+01
<STATE> 4
<MEAN> 39
 -1.395430e-01 2.673088e-01 -3.925433e-01 4.662947e-01 3.024682e-01 7.897613e-02 5.156557e-01 2.069474e-01 3.336435e-01 1.396802e-01 1.345938e-01 2.495320e-01 -7.849969e-01 -3.231355e-03 2.483170e-03 -8.925359e-03 9.872009e-03 1.317557e-02 1.445009e-02 1.803824e-02 8.209846e-03 7.930733e-03 9.654801e-03 8.854539e-03 6.600659e-03 -2.060856e-02 5.701474e-04 -7.789877e-04 1.505559e-03 -7.954762e-04 6.834841e-05 9.132988e-04 -3.572828e-04 3.100623e-04 -3.619127e-04 3.654717e-04 -1.091761e-03 -5.721381e-04 3.315833e-04
<VARIANCE> 39
 1.256292e+01 2.021048e+01 2.989717e+01 2.202346e+01 3.968634e+01 3.204796e+01 3.202185e+01 2.830341e+01 2.636112e+01 2.491414e+01 2.643357e+01 2.363433e+01 1.402515e+01 3.441395e-01 6.366470e-01 8.354819e-01 9.987174e-01 1.408848e+00 1.482872e+00 1.547322e+00 1.697595e+00 1.723068e+00 1.640097e+00 1.652658e+00 1.500777e+00 2.110222e-01 4.744302e-02 9.291068e-02 1.276060e-01 1.675399e-01 2.335315e-01 2.632744e-01 2.832623e-01 3.223756e-01 3.290099e-01 3.151126e-01 3.132089e-01 2.859994e-01 2.240222e-02
<GCONST> 9.069202e+01
<TRANSP> 5
 0.000000e+00 1.000000e+00 0.000000e+00 0.000000e+00 0.000000e+00
 0.000000e+00 9.716116e-01 2.838836e-02 0.000000e+00 0.000000e+00
 0.000000e+00 0.000000e+00 9.825424e-01 1.745762e-02 0.000000e+00
 0.000000e+00 0.000000e+00 0.000000e+00 9.966133e-01 3.386758e-03
 0.000000e+00 0.000000e+00 0.000000e+00 0.000000e+00 0.000000e+00
<ENDHMM>
