~o
<STREAMINFO> 1 13
<VECSIZE> 13<NULLD><MFCC_0><DIAGC>
~h "ap"
<BEGINHMM>
<NUMSTATES> 5
<STATE> 2
<MEAN> 13
 -3.762042e+00 -4.071115e+00 -3.826671e+00 -3.035238e+00 1.902399e+00 4.377296e+00 4.518426e+00 8.669580e-01 -7.715482e-01 1.014343e+00 1.243996e+00 -2.367126e+00 5.019914e+01
<VARIANCE> 13
 5.221892e+00 5.343473e+00 5.949270e+00 7.997525e+00 1.091324e+01 1.382586e+01 1.447206e+01 1.472464e+01 1.423551e+01 1.395859e+01 1.244496e+01 1.299965e+01 2.841444e+00
<GCONST> 5.288418e+01
<STATE> 3
<MEAN> 13
 -6.907811e+00 1.180969e+00 -1.334850e+00 -8.218026e-01 3.481100e-01 2.157552e+00 4.039978e+00 1.894917e+00 7.389703e-02 1.507571e+00 7.076142e-01 -1.742571e+00 4.643320e+01
<VARIANCE> 13
 1.039981e+01 7.404265e+00 6.068422e+00 8.328418e+00 1.080599e+01 1.345569e+01 1.350373e+01 1.417600e+01 1.298368e+01 1.396413e+01 1.203342e+01 1.125473e+01 1.042090e+01
<GCONST> 5.484552e+01
<STATE> 4
<MEAN> 13
 -1.059262e+01 -1.145971e+01 -5.223956e+00 1.213953e+00 3.290059e-01 -5.035908e+00 1.829755e+00 -2.211782e+00 -3.764434e+00 -1.379202e+00 6.830828e-01 -1.529219e+00 6.157074e+01
<VARIANCE> 13
 2.440950e+01 5.831225e+01 3.438888e+01 2.460384e+01 3.501615e+01 3.767128e+01 2.622022e+01 2.999461e+01 2.418239e+01 2.229250e+01 1.802309e+01 1.534462e+01 1.414397e+02
<GCONST> 6.861024e+01
<TRANSP> 5
 0.000000e+00 1.000000e+00 0.000000e+00 0.000000e+00 0.000000e+00
 0.000000e+00 9.836426e-01 1.635737e-02 0.000000e+00 0.000000e+00
 0.000000e+00 0.000000e+00 9.862998e-01 1.370024e-02 0.000000e+00
 0.000000e+00 0.000000e+00 0.000000e+00 9.963190e-01 3.681020e-03
 0.000000e+00 0.000000e+00 0.000000e+00 0.000000e+00 0.000000e+00
<ENDHMM>
~h "cl"
<BEGINHMM>
<NUMSTATES> 5
<STATE> 2
<MEAN> 13
 -9.774911e+00 -5.282032e+00 2.626796e+00 -4.344250e+00 2.729303e+00 -4.696220e-01 1.250703e+00 3.215298e+00 -4.219025e-01 -2.369824e+00 -4.991703e-01 -1.101233e+00 5.314668e+01
<VARIANCE> 13
 5.589059e+01 3.332611e+01 4.119221e+01 4.430257e+01 7.153022e+01 5.283009e+01 4.238560e+01 6.522602e+01 4.271608e+01 6.704773e+01 6.110003e+01 7.796934e+01 5.567328e+01
<GCONST> 7.554160e+01
<STATE> 3
<MEAN> 13
 -1.596891e+01 2.115666e+00 -1.843948e+00 -5.145928e+00 -3.160862e+00 1.148523e+01 5.662087e-01 -3.698438e+00 6.754437e+00 -2.438358e+00 -2.616316e+00 4.787946e+00 5.746527e+01
<VARIANCE> 13
 4.624459e+01 1.226350e+01 1.101374e+01 1.174428e+01 1.762625e+01 3.070350e+01 2.686275e+01 2.451725e+01 2.558782e+01 1.978397e+01 1.888676e+01 2.115318e+01 1.790197e+01
<GCONST> 6.298152e+01
<STATE> 4
<MEAN> 13
 -2.082109e+01 1.092971e+00 6.235715e+00 -3.093412e+00 -6.200078e+00 9.854122e+00 1.591243e+00 -6.314342e+00 2.848099e+00 4.147082e+00 -1.079436e+01 4.524333e+00 5.656663e+01
<VARIANCE> 13
 5.455086e+01 9.213746e+00 1.686886e+01 1.700569e+01 2.822978e+01 3.490900e+01 2.828335e+01 4.885892e+01 3.431739e+01 2.886896e+01 3.478341e+01 3.051308e+01 4.223756e+01
<GCONST> 6.750461e+01
<TRANSP> 5
 0.000000e+00 1.000000e+00 0.000000e+00 0.000000e+00 0.000000e+00
 0.000000e+00 9.824349e-01 1.756509e-02 0.000000e+00 0.000000e+00
 0.000000e+00 0.000000e+00 9.836199e-01 1.638014e-02 0.000000e+00
 0.000000e+00 0.000000e+00 0.000000e+00 9.943386e-01 5.661455e-03
 0.000000e+00 0.000000e+00 0.000000e+00 0.000000e+00 0.000000e+00
<ENDHMM>
~h "cm"
<BEGINHMM>
<NUMSTATES> 5
<STATE> 2
<MEAN> 13
 -8.434190e+00 -1.386640e-01 -2.736941e+00 -4.026771e+00 -7.583741e-01 -1.059762e+00 -2.585570e+00 -2.066904e+00 -3.639695e+00 -1.534635e+00 -8.236307e-02 -1.986669e+00 6.331375e+01
<VARIANCE> 13
 2.269440e+01 1.262300e+01 1.183095e+01 1.404317e+01 1.427846e+01 1.575342e+01 1.688740e+01 1.880392e+01 1.827824e+01 1.813084e+01 1.970830e+01 1.516535e+01 6.056896e+01
<GCONST> 6.144650e+01
<STATE> 3
<MEAN> 13
 -9.278151e+00 1.621948e+00 9.549762e-02 -1.817375e+00 5.209986e-01 3.371108e-01 2.434436e+00 1.387879e+00 2.578411e-01 4.278026e-01 7.564886e-01 -2.010391e+00 4.918178e+01
<VARIANCE> 13
 1.443175e+01 8.500933e+00 8.991224e+00 1.240360e+01 1.388358e+01 1.573040e+01 1.637452e+01 1.733968e+01 1.671323e+01 1.538467e+01 1.419120e+01 1.322872e+01 1.257314e+01
<GCONST> 5.776742e+01
<STATE> 4
<MEAN> 13
 -6.471480e+00 -2.816930e+00 -3.528830e+00 -4.739481e+00 -5.506357e-01 1.197025e+00 2.631193e+00 5.653131e-01 -4.792098e-01 7.157565e-01 8.834918e-01 -2.654156e+00 5.399845e+01
<VARIANCE> 13
 1.487160e+01 1.188217e+01 1.134386e+01 1.466901e+01 1.808905e+01 2.217454e+01 1.873957e+01 1.735585e+01 1.719605e+01 1.648761e+01 1.578024e+01 1.464602e+01 2.108077e+01
<GCONST> 6.009871e+01
<TRANSP> 5
 0.000000e+00 1.000000e+00 0.000000e+00 0.000000e+00 0.000000e+00
 0.000000e+00 9.889165e-01 1.108347e-02 0.000000e+00 0.000000e+00
 0.000000e+00 0.000000e+00 9.918759e-01 8.124020e-03 0.000000e+00
 0.000000e+00 0.000000e+00 0.000000e+00 9.922279e-01 7.772215e-03
 0.000000e+00 0.000000e+00 0.000000e+00 0.000000e+00 0.000000e+00
<ENDHMM>
~h "co"
<BEGINHMM>
<NUMSTATES> 5
<STATE> 2
<MEAN> 13
 -5.953069e+00 -6.194322e+00 -2.698617e-02 -1.017683e+00 -6.726341e+00 -6.354654e+00 -6.181080e+00 -5.689759e+00 -3.840807e+00 -4.804554e+00 -4.325325e+00 -8.594390e+00 6.533827e+01
<VARIANCE> 13
 1.669710e+01 1.418108e+01 2.509386e+01 2.507373e+01 4.680881e+01 4.530760e+01 6.014793e+01 6.104385e+01 4.375162e+01 4.216337e+01 4.063866e+01 3.881027e+01 6.523538e+01
<GCONST> 7.073342e+01
<STATE> 3
<MEAN> 13
 -2.852984e+00 -2.534788e+00 1.917526e+00 6.737743e-01 1.006258e+00 -2.071033e-01 -5.181935e-01 -2.855942e+00 -3.204293e+00 -1.938196e+00 -1.668599e+00 -5.775788e+00 5.179320e+01
<VARIANCE> 13
 9.267869e+00 1.919558e+01 2.743411e+01 2.582071e+01 2.039332e+01 2.674627e+01 3.299842e+01 3.238661e+01 2.589989e+01 2.904836e+01 2.426531e+01 2.216091e+01 3.084508e+01
<GCONST> 6.525196e+01
<STATE> 4
<MEAN> 13
 -5.429023e+00 1.167810e+00 3.690894e-01 -1.687083e+00 1.607752e+00 2.265852e+00 2.817357e+00 3.046408e+00 -3.331836e-01 6.596645e-01 7.711123e-01 -2.717177e+00 4.464829e+01
<VARIANCE> 13
 5.781317e+00 8.668944e+00 1.045518e+01 1.060974e+01 1.421466e+01 1.517580e+01 1.488236e+01 1.635214e+01 1.545316e+01 1.533401e+01 1.400373e+01 1.338972e+01 7.186627e+00
<GCONST> 5.605808e+01
<TRANSP> 5
 0.000000e+00 1.000000e+00 0.000000e+00 0.000000e+00 0.000000e+00
 0.000000e+00 9.884537e-01 1.154629e-02 0.000000e+00 0.000000e+00
 0.000000e+00 0.000000e+00 9.827846e-01 1.721537e-02 0.000000e+00
 0.000000e+00 0.000000e+00 0.000000e+00 9.931008e-01 6.899133e-03
 0.000000e+00 0.000000e+00 0.000000e+00 0.000000e+00 0.000000e+00
<ENDHMM>
~h "ds"
<BEGINHMM>
<NUMSTATES> 5
<STATE> 2
<MEAN> 13
 -1.030516e+01 2.132224e+00 2.802610e+00 2.130455e+00 3.468107e+00 1.085163e+00 4.587156e+00 -1.126287e+00 1.387124e+00 5.931290e-01 2.795818e+00 -6.447920e-01 5.923513e+01
<VARIANCE> 13
 2.164988e+01 1.426230e+01 1.936989e+01 1.955794e+01 2.522633e+01 2.400404e+01 2.377369e+01 2.240603e+01 2.192248e+01 2.093848e+01 1.806609e+01 1.633549e+01 8.540685e+01
<GCONST> 6.451005e+01
<STATE> 3
<MEAN> 13
 -7.021809e+00 1.801340e+00 6.469380e-01 -8.242901e-01 1.100294e+00 1.483005e+00 3.736954e+00 1.626384e+00 9.314471e-01 1.332680e+00 1.551525e+00 -2.327161e+00 4.831828e+01
<VARIANCE> 13
 1.171859e+01 6.482786e+00 9.258894e+00 1.170012e+01 1.873885e+01 1.721050e+01 1.775792e+01 1.912019e+01 1.850850e+01 1.813215e+01 1.584001e+01 1.373610e+01 1.130449e+01
<GCONST> 5.813529e+01
<STATE> 4
<MEAN> 13
 -8.655209e+00 -3.018198e+00 -2.243933e+00 -3.657455e+00 -9.761143e-02 1.793984e+00 3.456761e+00 3.623797e-01 -4.641811e-01 7.569921e-01 1.751413e+00 -2.096060e+00 5.537094e+01
<VARIANCE> 13
 4.774072e+01 1.350993e+01 1.284122e+01 1.460058e+01 1.739520e+01 2.825218e+01 2.349872e+01 2.117520e+01 1.874735e+01 1.822717e+01 1.630139e+01 1.463506e+01 3.143430e+01
<GCONST> 6.275901e+01
<TRANSP> 5
 0.000000e+00 1.000000e+00 0.000000e+00 0.000000e+00 0.000000e+00
 0.000000e+00 9.879458e-01 1.205423e-02 0.000000e+00 0.000000e+00
 0.000000e+00 0.000000e+00 9.885010e-01 1.149899e-02 0.000000e+00
 0.000000e+00 0.000000e+00 0.000000e+00 9.924492e-01 7.550863e-03
 0.000000e+00 0.000000e+00 0.000000e+00 0.000000e+00 0.000000e+00
<ENDHMM>
~h "kj"
<BEGINHMM>
<NUMSTATES> 5
<STATE> 2
<MEAN> 13
 -2.244048e+01 3.356844e+00 1.380736e+00 -5.401822e+00 -4.714343e+00 1.267394e+01 1.116527e+00 -3.181552e+00 8.298360e+00 -4.230689e+00 -3.935911e+00 5.670624e+00 5.932764e+01
<VARIANCE> 13
 3.818641e+01 7.909664e+00 1.906578e+01 1.319373e+01 1.711164e+01 3.444637e+01 2.317340e+01 2.070953e+01 2.485332e+01 2.065101e+01 1.941976e+01 2.037561e+01 2.303850e+01
<GCONST> 6.304191e+01
<STATE> 3
<MEAN> 13
 -9.078937e+00 -3.761533e+00 -3.925631e+00 -1.356948e+00 -1.194909e+00 7.999241e-02 2.529306e+00 -9.326811e-01 -5.819234e-01 7.333441e-01 2.003306e-01 -1.192774e+00 5.519859e+01
<VARIANCE> 13
 3.060683e+01 3.916035e+01 1.713764e+01 1.632733e+01 2.505441e+01 3.825451e+01 2.498786e+01 2.336296e+01 2.860731e+01 1.930446e+01 1.666984e+01 1.713302e+01 8.561673e+01
<GCONST> 6.626875e+01
<STATE> 4
<MEAN> 13
 -1.779494e+01 2.938461e+00 7.672222e-01 6.554307e-01 -1.764371e+00 8.446029e-01 4.448912e+00 1.113414e+00 -1.921301e+00 2.389719e+00 8.937346e-01 -2.219304e+00 5.342074e+01
<VARIANCE> 13
 6.403780e+01 2.412791e+01 1.652188e+01 2.192526e+01 1.715896e+01 2.415593e+01 3.249288e+01 2.236336e+01 2.178907e+01 2.599606e+01 1.697339e+01 1.797482e+01 3.062472e+01
<GCONST> 6.522485e+01
<TRANSP> 5
 0.000000e+00 1.000000e+00 0.000000e+00 0.000000e+00 0.000000e+00
 0.000000e+00 9.882891e-01 1.171093e-02 0.000000e+00 0.000000e+00
 0.000000e+00 0.000000e+00 9.939314e-01 6.068645e-03 0.000000e+00
 0.000000e+00 0.000000e+00 0.000000e+00 9.962794e-01 3.720602e-03
 0.000000e+00 0.000000e+00 0.000000e+00 0.000000e+00 0.000000e+00
<ENDHMM>
~h "kn"
<BEGINHMM>
<NUMSTATES> 5
<STATE> 2
<MEAN> 13
 -2.464349e+00 1.700774e+00 -1.520283e+00 -1.720422e+00 9.040697e-02 -1.644260e+00 9.771599e-01 -2.942763e+00 1.072544e+00 1.349618e+00 1.678821e+00 -2.029921e+00 5.617541e+01
<VARIANCE> 13
 5.270573e+01 2.215909e+01 1.946749e+01 1.333652e+01 1.921029e+01 2.318338e+01 2.739922e+01 2.743867e+01 2.948981e+01 2.109361e+01 2.152459e+01 2.116002e+01 5.631969e+01
<GCONST> 6.582133e+01
<STATE> 3
<MEAN> 13
 5.561790e+00 -2.245888e-01 -2.006687e+00 1.521487e+00 5.191568e+00 7.178415e-02 2.010796e+00 -3.229105e+00 -1.245230e+00 -1.363619e+00 6.719582e-01 -2.232827e+00 5.846458e+01
<VARIANCE> 13
 9.925004e+00 2.236094e+01 1.573711e+01 1.269606e+01 1.806421e+01 2.296678e+01 2.028982e+01 2.363788e+01 2.217873e+01 1.972580e+01 1.643296e+01 1.740237e+01 4.213332e+01
<GCONST> 6.227083e+01
<STATE> 4
<MEAN> 13
 -3.619264e+00 -1.678478e-02 1.802316e-01 -2.234287e+00 -1.126762e+00 2.267636e+00 3.086502e+00 7.713178e-01 -3.667265e-01 1.924265e+00 6.750152e-02 -3.162638e+00 4.629837e+01
<VARIANCE> 13
 5.342269e+00 1.376717e+01 1.429772e+01 1.100741e+01 2.759301e+01 1.676084e+01 2.331757e+01 2.734761e+01 1.888234e+01 2.446651e+01 2.038646e+01 1.485353e+01 8.147586e+00
<GCONST> 5.978981e+01
<TRANSP> 5
 0.000000e+00 1.000000e+00 0.000000e+00 0.000000e+00 0.000000e+00
 0.000000e+00 9.614959e-01 3.850405e-02 0.000000e+00 0.000000e+00
 0.000000e+00 0.000000e+00 9.876744e-01 1.232563e-02 0.000000e+00
 0.000000e+00 0.000000e+00 0.000000e+00 9.922135e-01 7.786531e-03
 0.000000e+00 0.000000e+00 0.000000e+00 0.000000e+00 0.000000e+00
<ENDHMM>
~h "kt"
<BEGINHMM>
<NUMSTATES> 5
<STATE> 2
<MEAN> 13
 -1.218016e+01 2.579054e+00 -3.034579e+00 6.440113e-01 8.744295e-01 -1.913546e+00 2.445557e+00 1.106475e+00 1.404429e-01 -5.112505e-01 -1.344487e-01 -1.502430e+00 5.325136e+01
<VARIANCE> 13
 8.096822e+00 9.440928e+00 9.621905e+00 1.235923e+01 1.390774e+01 1.669769e+01 1.784274e+01 1.733373e+01 1.795526e+01 1.856078e+01 1.718574e+01 1.394906e+01 2.011792e+01
<GCONST> 5.847938e+01
<STATE> 3
<MEAN> 13
 -8.648213e+00 2.595535e+00 -1.806213e+00 -2.560591e-01 -4.749872e-02 4.023154e-01 3.458107e+00 1.776285e+00 5.715306e-01 5.134386e-01 4.578650e-01 -2.017858e+00 4.793660e+01
<VARIANCE> 13
 1.076625e+01 8.238484e+00 1.062952e+01 1.052824e+01 1.753516e+01 1.563923e+01 1.705001e+01 1.830980e+01 1.683035e+01 1.782507e+01 1.462689e+01 1.257754e+01 1.066474e+01
<GCONST> 5.773842e+01
<STATE> 4
<MEAN> 13
 -7.457283e+00 -2.662484e+00 -4.806264e+00 -2.494871e+00 1.612159e+00 2.721253e+00 4.687072e+00 6.075311e-01 -2.576116e-01 1.037679e+00 1.268816e+00 -1.726155e+00 5.284222e+01
<VARIANCE> 13
 2.067795e+01 1.055381e+01 8.624730e+00 9.430784e+00 1.139272e+01 1.683615e+01 1.474406e+01 1.576622e+01 1.568853e+01 1.431997e+01 1.369265e+01 1.260131e+01 1.649443e+01
<GCONST> 5.775006e+01
<TRANSP> 5
 0.000000e+00 1.000000e+00 0.000000e+00 0.000000e+00 0.000000e+00
 0.000000e+00 9.888153e-01 1.118468e-02 0.000000e+00 0.000000e+00
 0.000000e+00 0.000000e+00 9.951315e-01 4.868485e-03 0.000000e+00
 0.000000e+00 0.000000e+00 0.000000e+00 9.971316e-01 2.868434e-03
 0.000000e+00 0.000000e+00 0.000000e+00 0.000000e+00 0.000000e+00
<ENDHMM>
~h "pr"
<BEGINHMM>
<NUMSTATES> 5
<STATE> 2
<MEAN> 13
 -7.312812e+00 -6.705872e+00 1.038364e+00 -5.272488e+00 1.614605e+00 5.718454e+00 1.496932e+00 3.116144e-01 3.039012e-01 2.027756e+00 2.023533e+00 -2.303334e+00 5.083736e+01
<VARIANCE> 13
 1.382321e+01 5.655806e+01 3.417168e+01 3.561632e+01 6.869909e+01 8.282703e+01 2.911538e+01 4.360543e+01 5.257169e+01 3.769049e+01 5.695055e+01 3.686872e+01 2.578903e+01
<GCONST> 7.194224e+01
<STATE> 3
<MEAN> 13
 -1.563300e+01 -8.214746e+00 1.755970e+00 -5.054744e+00 2.911944e+00 -2.273501e+00 6.231764e+00 4.292946e+00 2.290568e-02 -2.356426e+00 -1.000775e-01 2.017983e+00 5.870615e+01
<VARIANCE> 13
 3.015078e+01 3.601888e+01 4.247435e+01 4.051451e+01 9.590442e+01 8.397598e+01 6.785114e+01 7.591747e+01 5.165290e+01 3.927004e+01 6.278273e+01 7.510827e+01 2.190819e+01
<GCONST> 7.503455e+01
<STATE> 4
<MEAN> 13
 -1.605125e+01 3.116147e+00 1.374196e+01 -1.309518e+01 3.450529e+00 9.629633e+00 -4.109689e+00 -1.948358e+00 7.998484e+00 -3.738027e+00 -6.569721e+00 6.490368e+00 5.034085e+01
<VARIANCE> 13
 4.652284e+01 1.287383e+01 4.783090e+01 5.417004e+01 2.379660e+01 4.214315e+01 2.368673e+01 4.287357e+01 5.268052e+01 4.029824e+01 3.996790e+01 3.764123e+01 2.250429e+01
<GCONST> 7.007156e+01
<TRANSP> 5
 0.000000e+00 1.000000e+00 0.000000e+00 0.000000e+00 0.000000e+00
 0.000000e+00 9.783564e-01 2.164356e-02 0.000000e+00 0.000000e+00
 0.000000e+00 0.000000e+00 9.945752e-01 5.424762e-03 0.000000e+00
 0.000000e+00 0.000000e+00 0.000000e+00 9.922618e-01 7.738185e-03
 0.000000e+00 0.000000e+00 0.000000e+00 0.000000e+00 0.000000e+00
<ENDHMM>
~h "pw"
<BEGINHMM>
<NUMSTATES> 5
<STATE> 2
<MEAN> 13
 -1.331077e+01 -3.338352e+00 -1.778200e+00 -7.753329e-01 9.877437e-01 -1.391640e+00 2.597605e+00 -5.372838e-01 -1.043363e+00 5.606477e-01 3.047124e-01 -9.157182e-01 5.553122e+01
<VARIANCE> 13
 1.537235e+01 2.170849e+01 1.301675e+01 1.217275e+01 1.487071e+01 2.093581e+01 1.862652e+01 2.083913e+01 1.758127e+01 1.609657e+01 1.455454e+01 1.290559e+01 3.741963e+01
<GCONST> 6.097358e+01
<STATE> 3
<MEAN> 13
 -9.345177e+00 -8.924166e+00 -2.418092e+00 -2.989177e+00 -3.090240e+00 -6.419862e+00 -3.448108e+00 -7.655004e+00 -4.047577e+00 -2.380341e+00 -9.743192e-01 -3.457415e+00 6.778046e+01
<VARIANCE> 13
 2.490138e+01 1.533331e+01 2.144495e+01 1.454484e+01 3.041719e+01 3.107575e+01 2.670723e+01 2.530043e+01 3.141052e+01 2.028166e+01 2.030430e+01 3.532173e+01 4.336977e+01
<GCONST> 6.574922e+01
<STATE> 4
<MEAN> 13
 -6.656074e+00 -4.413721e+00 -1.329348e+00 -1.480205e+00 2.967333e-01 -3.764100e+00 -1.193871e+00 -4.510756e+00 -3.879276e+00 -1.212139e+00 -7.183824e-01 -1.834529e+00 5.744379e+01
<VARIANCE> 13
 1.606099e+01 3.335807e+01 1.563335e+01 1.242683e+01 2.693968e+01 2.643321e+01 2.306643e+01 3.043135e+01 2.340768e+01 1.800990e+01 1.723228e+01 1.960789e+01 8.288715e+01
<GCONST> 6.485162e+01
<TRANSP> 5
 0.000000e+00 1.000000e+00 0.000000e+00 0.000000e+00 0.000000e+00
 0.000000e+00 9.970106e-01 2.989343e-03 0.000000e+00 0.000000e+00
 0.000000e+00 0.000000e+00 9.490803e-01 5.091973e-02 0.000000e+00
 0.000000e+00 0.000000e+00 0.000000e+00 9.790439e-01 2.095619e-02
 0.000000e+00 0.000000e+00 0.000000e+00 0.000000e+00 0.000000e+00
<ENDHMM>
~h "si"
<BEGINHMM>
<NUMSTATES> 5
<STATE> 2
<MEAN> 13
 -1.120362e+01 -5.515197e-01 1.076872e+00 -8.635036e-01 1.110564e+00 -6.914740e-01 2.181839e+00 -5.586453e-01 -2.952692e-01 -1.215647e-01 1.217596e+00 -1.307413e+00 5.382001e+01
<VARIANCE> 13
 1.773999e+01 1.893871e+01 1.406868e+01 1.680634e+01 1.935879e+01 2.062747e+01 2.113093e+01 2.168360e+01 2.193685e+01 1.976704e+01 1.755430e+01 1.571730e+01 4.502396e+01
<GCONST> 6.279165e+01
<STATE> 3
<MEAN> 13
 -5.403610e+00 2.422641e+00 2.182615e+00 -2.128009e+00 3.203781e+00 2.327277e+00 1.917843e+00 3.949135e+00 -1.028571e+00 -3.149693e-02 1.091601e+00 -2.539018e+00 4.298129e+01
<VARIANCE> 13
 4.441217e+00 4.992060e+00 7.558218e+00 9.366208e+00 1.444683e+01 1.434031e+01 1.511254e+01 1.759870e+01 1.525537e+01 1.660678e+01 1.435682e+01 1.237582e+01 2.900272e+00
<GCONST> 5.394735e+01
<STATE> 4
<MEAN> 13
 -7.516893e+00 1.620129e+00 7.915845e-01 -2.124872e+00 1.934797e+00 8.115001e-01 2.197749e+00 3.206002e+00 -1.226345e-01 3.176099e-01 6.984598e-01 -2.303726e+00 4.529728e+01
<VARIANCE> 13
 1.106990e+01 9.366754e+00 8.250250e+00 1.191797e+01 1.291755e+01 1.494790e+01 1.487521e+01 1.703810e+01 1.558072e+01 1.521286e+01 1.418672e+01 1.345070e+01 9.175758e+00
<GCONST> 5.685647e+01
<TRANSP> 5
 0.000000e+00 1.000000e+00 0.000000e+00 0.000000e+00 0.000000e+00
 0.000000e+00 9.918036e-01 8.196414e-03 0.000000e+00 0.000000e+00
 0.000000e+00 0.000000e+00 9.917305e-01 8.269530e-03 0.000000e+00
 0.000000e+00 0.000000e+00 0.000000e+00 9.908262e-01 9.173759e-03
 0.000000e+00 0.000000e+00 0.000000e+00 0.000000e+00 0.000000e+00
<ENDHMM>
~h "st"
<BEGINHMM>
<NUMSTATES> 5
<STATE> 2
<MEAN> 13
 -5.770321e+00 -5.366398e-01 -3.331626e+00 -5.325076e+00 -1.769973e+00 -2.397065e+00 -3.512504e+00 -2.448884e+00 -4.036193e+00 -2.407021e+00 -1.748839e+00 -2.812878e+00 7.053809e+01
<VARIANCE> 13
 8.566306e+00 8.221688e+00 8.495753e+00 1.224450e+01 1.338725e+01 1.243963e+01 1.552920e+01 1.725563e+01 1.613988e+01 1.478731e+01 1.454608e+01 1.308095e+01 4.802941e+01
<GCONST> 5.809306e+01
<STATE> 3
<MEAN> 13
 -9.971070e+00 1.205036e+00 8.569822e-01 -3.298926e-01 3.391630e-01 -7.919015e-01 1.988730e+00 -1.412552e+00 2.565126e-01 4.822969e-01 1.663938e+00 -1.855452e+00 5.688141e+01
<VARIANCE> 13
 2.264520e+01 1.027034e+01 1.074194e+01 1.503408e+01 1.616413e+01 1.605862e+01 1.644712e+01 2.118572e+01 1.962222e+01 1.860384e+01 1.692305e+01 1.582670e+01 9.788504e+01
<GCONST> 6.191280e+01
<STATE> 4
<MEAN> 13
 -4.610170e+00 -2.281663e+00 3.303519e-01 -8.774660e+00 -2.189319e+00 -3.464589e+00 -2.035836e+00 -2.701822e+00 -1.208632e+00 -2.263310e+00 -3.577352e+00 -2.763063e+00 5.999860e+01
<VARIANCE> 13
 3.246959e+01 3.352452e+01 3.523404e+01 6.210158e+01 3.245600e+01 5.098446e+01 4.180365e+01 3.504403e+01 3.184468e+01 3.050817e+01 4.269227e+01 2.476332e+01 6.756500e+01
<GCONST> 7.133210e+01
<TRANSP> 5
 0.000000e+00 1.000000e+00 0.000000e+00 0.000000e+00 0.000000e+00
 0.000000e+00 9.714706e-01 2.852945e-02 0.000000e+00 0.000000e+00
 0.000000e+00 0.000000e+00 9.684751e-01 3.152492e-02 0.000000e+00
 0.000000e+00 0.000000e+00 0.000000e+00 9.521564e-01 4.784362e-02
 0.000000e+00 0.000000e+00 0.000000e+00 0.000000e+00 0.000000e+00
<ENDHMM>
~h "spe"
<BEGINHMM>
<NUMSTATES> 5
<STATE> 2
<MEAN> 13
 -3.633955e+00 -4.224012e+00 -3.463035e+00 -3.471217e+00 1.543642e+00 3.631036e+00 4.642291e+00 1.085432e+00 -5.141725e-01 1.106419e+00 1.109674e+00 -2.718642e+00 5.027777e+01
<VARIANCE> 13
 8.378123e+00 1.037610e+01 8.890280e+00 1.171402e+01 1.555048e+01 1.755423e+01 1.605205e+01 1.761018e+01 1.651490e+01 1.591362e+01 1.521329e+01 1.395056e+01 7.278973e+00
<GCONST> 5.717109e+01
<STATE> 3
<MEAN> 13
 -1.029726e+00 -3.502939e+00 5.558194e-01 -4.831124e+00 -3.139508e+00 -3.490241e-01 -7.420139e-01 -1.078528e+00 -2.243560e+00 -3.181212e-02 -1.068255e+00 -5.867801e+00 5.406790e+01
<VARIANCE> 13
 1.481323e+01 2.955016e+01 3.803933e+01 2.868184e+01 4.805407e+01 3.851618e+01 3.455018e+01 3.393847e+01 3.030628e+01 2.953056e+01 3.104143e+01 2.658904e+01 1.949032e+01
<GCONST> 6.804178e+01
<STATE> 4
<MEAN> 13
 -8.191165e+00 -1.213856e-01 -1.809064e+00 -1.291116e+00 -5.700903e-01 7.998373e-01 3.161074e+00 5.412328e-01 2.975442e-01 1.713439e+00 2.876291e-01 -1.757717e+00 5.066990e+01
<VARIANCE> 13
 2.606800e+01 1.715033e+01 1.046774e+01 1.062348e+01 1.653914e+01 2.222879e+01 1.900924e+01 1.966123e+01 1.784443e+01 1.725262e+01 1.566731e+01 1.477895e+01 3.572813e+01
<GCONST> 6.128756e+01
<TRANSP> 5
 0.000000e+00 1.000000e+00 0.000000e+00 0.000000e+00 0.000000e+00
 0.000000e+00 9.964884e-01 3.511639e-03 0.000000e+00 0.000000e+00
 0.000000e+00 0.000000e+00 9.970829e-01 2.917077e-03 0.000000e+00
 0.000000e+00 0.000000e+00 0.000000e+00 9.978500e-01 2.149945e-03
 0.000000e+00 0.000000e+00 0.000000e+00 0.000000e+00 0.000000e+00
<ENDHMM>
