~o
<STREAMINFO> 1 13
<VECSIZE> 13<NULLD><MFCC_0><DIAGC>
~h "ap"
<BEGINHMM>
<NUMSTATES> 5
<STATE> 2
<NUMMIXES> 4
<MIXTURE> 1 2.662562e-01
<MEAN> 13
 -4.299932e+00 -2.983773e+00 -3.417180e+00 -1.639481e+00 3.849981e+00 6.872368e+00 6.892123e+00 2.615940e+00 8.859713e-01 2.875624e+00 2.976164e+00 -9.525675e-01 5.035048e+01
<VARIANCE> 13
 6.453601e+00 5.445230e+00 5.527958e+00 5.617984e+00 7.039292e+00 8.999054e+00 9.478555e+00 1.048437e+01 1.013458e+01 1.187024e+01 1.068281e+01 1.170537e+01 1.625485e+00
<GCONST> 4.973959e+01
<MIXTURE> 2 2.473177e-01
<MEAN> 13
 -3.517978e+00 -3.933475e+00 -3.855488e+00 -2.942132e+00 1.820454e+00 4.499269e+00 4.504082e+00 7.180893e-01 -9.348656e-01 9.301572e-01 1.263945e+00 -2.090968e+00 5.014830e+01
<VARIANCE> 13
 4.332264e+00 4.178658e+00 4.924121e+00 6.092872e+00 7.561979e+00 9.300884e+00 1.052795e+01 1.165051e+01 1.133265e+01 1.142047e+01 1.063479e+01 1.033603e+01 1.608385e+00
<GCONST> 4.929047e+01
<MIXTURE> 3 2.473177e-01
<MEAN> 13
 -3.517978e+00 -3.933475e+00 -3.855488e+00 -2.942132e+00 1.820454e+00 4.499269e+00 4.504082e+00 7.180893e-01 -9.348656e-01 9.301572e-01 1.263945e+00 -2.090968e+00 5.014830e+01
<VARIANCE> 13
 4.332264e+00 4.178658e+00 4.924121e+00 6.092872e+00 7.561979e+00 9.300884e+00 1.052795e+01 1.165051e+01 1.133265e+01 1.142047e+01 1.063479e+01 1.033603e+01 1.608385e+00
<GCONST> 4.929047e+01
<MIXTURE> 4 2.391035e-01
<MEAN> 13
 -3.408819e+00 -4.575247e+00 -3.695256e+00 -4.358674e+00 -1.547042e+00 9.433320e-01 6.759534e-01 -1.615629e+00 -1.541259e+00 -7.909882e-02 4.538753e-01 -2.973348e+00 5.099849e+01
<VARIANCE> 13
 5.871688e+00 6.741886e+00 1.156193e+01 1.080507e+01 1.453793e+01 1.864963e+01 2.253749e+01 2.217469e+01 2.141394e+01 1.979335e+01 1.482447e+01 1.906263e+01 8.417220e+00
<GCONST> 5.803902e+01
<STATE> 3
<NUMMIXES> 4
<MIXTURE> 1 3.213106e-01
<MEAN> 13
 -4.998976e+00 1.649071e+00 -4.076854e-01 4.059136e-02 8.569801e-01 4.388294e+00 6.178559e+00 4.096053e+00 1.430333e+00 3.454172e+00 1.836662e+00 -1.712120e+00 4.443340e+01
<VARIANCE> 13
 2.859313e+00 2.678697e+00 4.705165e+00 5.867072e+00 7.725106e+00 8.641257e+00 9.166545e+00 1.028771e+01 1.087040e+01 1.133341e+01 9.936060e+00 9.538486e+00 1.284995e+00
<GCONST> 4.760992e+01
<MIXTURE> 2 2.380405e-01
<MEAN> 13
 -5.792290e+00 1.244676e+00 -1.392420e+00 -1.062481e+00 -1.167728e-01 2.331887e+00 4.069183e+00 1.628569e+00 -2.336332e-01 1.750951e+00 4.785263e-01 -2.047533e+00 4.544467e+01
<VARIANCE> 13
 6.235215e+00 4.870868e+00 5.159445e+00 6.796529e+00 9.972486e+00 9.758782e+00 9.530605e+00 1.133473e+01 1.154194e+01 1.158390e+01 1.093533e+01 1.112773e+01 4.595940e+00
<GCONST> 5.134572e+01
<MIXTURE> 3 2.380405e-01
<MEAN> 13
 -5.792290e+00 1.244676e+00 -1.392419e+00 -1.062480e+00 -1.167729e-01 2.331886e+00 4.069183e+00 1.628569e+00 -2.336332e-01 1.750951e+00 4.785262e-01 -2.047533e+00 4.544467e+01
<VARIANCE> 13
 6.235216e+00 4.870869e+00 5.159445e+00 6.796529e+00 9.972487e+00 9.758782e+00 9.530606e+00 1.133473e+01 1.154194e+01 1.158390e+01 1.093533e+01 1.112773e+01 4.595940e+00
<GCONST> 5.134572e+01
<MIXTURE> 4 2.026420e-01
<MEAN> 13
 -8.184923e+00 -7.848293e-01 -1.757115e+00 -1.932626e+00 2.000624e-01 -7.555348e-01 1.673654e+00 -3.991716e-01 -1.561516e+00 2.062107e-01 -3.635018e-01 -1.790400e+00 4.906684e+01
<VARIANCE> 13
 1.276473e+01 1.271083e+01 9.468603e+00 1.058259e+01 1.741410e+01 1.443428e+01 1.374937e+01 1.379337e+01 1.331166e+01 1.643389e+01 1.474701e+01 1.433197e+01 1.818807e+01
<GCONST> 5.800309e+01
<STATE> 4
<NUMMIXES> 4
<MIXTURE> 1 3.282572e-01
<MEAN> 13
 -6.533894e+00 -3.861218e+00 -5.166715e-01 1.051189e+00 2.651798e+00 4.521579e-01 4.081996e+00 1.915186e+00 -1.093634e+00 7.246367e-01 1.678820e+00 -2.042373e+00 4.840781e+01
<VARIANCE> 13
 8.412143e+00 2.665265e+01 1.232366e+01 2.058188e+01 1.776127e+01 1.912504e+01 1.726773e+01 2.060108e+01 1.727781e+01 1.660018e+01 1.405860e+01 1.332332e+01 2.074955e+01
<GCONST> 6.046722e+01
<MIXTURE> 2 1.818565e-01
<MEAN> 13
 -1.100709e+01 -1.297944e+01 -4.991864e+00 2.519410e+00 1.250393e+00 -5.393701e+00 2.379510e+00 -3.630507e+00 -4.334393e+00 -1.423437e+00 1.105350e+00 -7.398684e-01 6.129465e+01
<VARIANCE> 13
 2.095031e+01 3.217567e+01 2.131725e+01 2.346008e+01 3.326165e+01 2.530262e+01 2.469360e+01 2.417278e+01 2.316571e+01 2.107943e+01 1.741057e+01 1.511682e+01 3.759703e+01
<GCONST> 6.513845e+01
<MIXTURE> 3 1.818565e-01
<MEAN> 13
 -1.100709e+01 -1.297944e+01 -4.991864e+00 2.519409e+00 1.250392e+00 -5.393701e+00 2.379511e+00 -3.630507e+00 -4.334394e+00 -1.423437e+00 1.105350e+00 -7.398684e-01 6.129465e+01
<VARIANCE> 13
 2.095031e+01 3.217567e+01 2.131725e+01 2.346008e+01 3.326165e+01 2.530261e+01 2.469360e+01 2.417278e+01 2.316571e+01 2.107943e+01 1.741057e+01 1.511682e+01 3.759703e+01
<GCONST> 6.513845e+01
<MIXTURE> 4 3.080263e-01
<MEAN> 13
 -1.404607e+01 -1.687794e+01 -1.035799e+01 -6.652133e-02 -2.906312e+00 -9.426727e+00 -3.572924e-01 -4.153532e+00 -5.637926e+00 -3.095260e+00 -6.433091e-01 -1.833678e+00 7.470208e+01
<VARIANCE> 13
 1.637240e+01 2.588223e+01 1.985996e+01 2.303026e+01 3.521683e+01 2.522974e+01 2.713861e+01 2.259184e+01 2.427550e+01 2.219055e+01 1.864516e+01 1.574347e+01 4.028640e+01
<GCONST> 6.494233e+01
<TRANSP> 5
 0.000000e+00 1.000000e+00 0.000000e+00 0.000000e+00 0.000000e+00
 0.000000e+00 9.784026e-01 2.159741e-02 0.000000e+00 0.000000e+00
 0.000000e+00 0.000000e+00 9.849451e-01 1.505487e-02 0.000000e+00
 0.000000e+00 0.000000e+00 0.000000e+00 9.967062e-01 3.293753e-03
 0.000000e+00 0.000000e+00 0.000000e+00 0.000000e+00 0.000000e+00
<ENDHMM>
~h "cl"
<BEGINHMM>
<NUMSTATES> 5
<STATE> 2
<NUMMIXES> 4
<MIXTURE> 1 2.952403e-01
<MEAN> 13
 -6.857941e+00 -1.170959e+00 9.308899e-01 -2.151034e+00 1.057944e+00 3.061881e+00 4.445562e+00 3.606597e+00 1.299688e+00 8.401375e-03 1.229714e+00 -1.875977e+00 4.707336e+01
<VARIANCE> 13
 1.650511e+01 1.807075e+01 2.446103e+01 2.689244e+01 1.903855e+01 3.192266e+01 1.355625e+01 3.071315e+01 2.677945e+01 5.065469e+01 4.500007e+01 2.207860e+01 1.479765e+01
<GCONST> 6.532902e+01
<MIXTURE> 2 2.823534e-01
<MEAN> 13
 -1.339137e+01 -5.474871e+00 4.916432e+00 -5.530794e+00 5.770422e+00 -1.364081e+00 2.613726e+00 6.502429e+00 6.006147e-01 -3.956320e+00 -7.312402e-01 2.530179e+00 5.236485e+01
<VARIANCE> 13
 4.918069e+01 4.019913e+01 4.416424e+01 6.457906e+01 7.610138e+01 6.825426e+01 2.847939e+01 6.213654e+01 4.298297e+01 8.036554e+01 8.814320e+01 8.979063e+01 3.248263e+01
<GCONST> 7.607591e+01
<MIXTURE> 3 2.823534e-01
<MEAN> 13
 -1.339137e+01 -5.474871e+00 4.916432e+00 -5.530794e+00 5.770422e+00 -1.364081e+00 2.613726e+00 6.502429e+00 6.006147e-01 -3.956320e+00 -7.312402e-01 2.530179e+00 5.236485e+01
<VARIANCE> 13
 4.918069e+01 4.019913e+01 4.416424e+01 6.457906e+01 7.610138e+01 6.825426e+01 2.847939e+01 6.213654e+01 4.298297e+01 8.036554e+01 8.814320e+01 8.979063e+01 3.248263e+01
<GCONST> 7.607591e+01
<MIXTURE> 4 1.400333e-01
<MEAN> 13
 -1.261207e+01 -9.313510e+00 2.636090e+00 -5.998927e+00 4.795609e+00 -8.829814e-01 -2.409598e+00 3.302895e-01 -2.802638e+00 -2.957172e+00 -2.091866e+00 -2.995797e-01 5.743538e+01
<VARIANCE> 13
 8.584434e+01 3.698382e+01 4.959204e+01 2.297539e+01 9.295667e+01 4.158543e+01 4.969533e+01 5.711043e+01 5.045425e+01 7.649647e+01 2.865859e+01 6.758172e+01 5.192350e+01
<GCONST> 7.498132e+01
<STATE> 3
<NUMMIXES> 4
<MIXTURE> 1 2.346266e-01
<MEAN> 13
 -2.131256e+01 3.401353e+00 -2.147092e-03 -4.800731e+00 -2.840649e+00 1.480854e+01 2.560924e+00 -2.632011e+00 9.849867e+00 -2.565295e+00 -2.756258e+00 6.209878e+00 6.013856e+01
<VARIANCE> 13
 2.705246e+01 5.050340e+00 1.076578e+01 8.895483e+00 1.257056e+01 2.040353e+01 2.180781e+01 1.803303e+01 1.786966e+01 1.899747e+01 1.782779e+01 1.737900e+01 1.222358e+01
<GCONST> 5.895989e+01
<MIXTURE> 2 2.866684e-01
<MEAN> 13
 -1.763474e+01 2.311165e+00 -1.661734e+00 -5.192814e+00 -3.053450e+00 1.276235e+01 1.087485e+00 -3.442304e+00 7.537241e+00 -2.957671e+00 -2.881560e+00 4.989233e+00 5.789077e+01
<VARIANCE> 13
 4.030738e+01 7.795770e+00 1.040695e+01 1.002289e+01 1.423009e+01 2.152003e+01 2.045460e+01 1.773224e+01 1.917518e+01 1.747265e+01 1.718453e+01 1.692901e+01 1.540641e+01
<GCONST> 6.012988e+01
<MIXTURE> 3 2.866684e-01
<MEAN> 13
 -1.763474e+01 2.311165e+00 -1.661734e+00 -5.192814e+00 -3.053450e+00 1.276235e+01 1.087485e+00 -3.442304e+00 7.537241e+00 -2.957671e+00 -2.881560e+00 4.989233e+00 5.789077e+01
<VARIANCE> 13
 4.030738e+01 7.795770e+00 1.040695e+01 1.002289e+01 1.423009e+01 2.152003e+01 2.045460e+01 1.773224e+01 1.917518e+01 1.747265e+01 1.718453e+01 1.692901e+01 1.540641e+01
<GCONST> 6.012988e+01
<MIXTURE> 4 1.920438e-01
<MEAN> 13
 -1.631227e+01 2.634555e+00 -2.567293e+00 -6.140383e+00 -5.983446e+00 8.192866e+00 -2.854035e+00 -7.303998e+00 4.076562e+00 -4.347261e+00 -3.624920e+00 5.143081e+00 5.912060e+01
<VARIANCE> 13
 5.200435e+01 1.759863e+01 1.765529e+01 1.639799e+01 1.938230e+01 3.469485e+01 2.973836e+01 2.911227e+01 2.516583e+01 2.295158e+01 2.259549e+01 2.124392e+01 2.348467e+01
<GCONST> 6.534334e+01
<STATE> 4
<NUMMIXES> 4
<MIXTURE> 1 2.434745e-01
<MEAN> 13
 -1.913192e+01 2.354427e+00 6.419564e+00 -1.371025e+00 -3.960948e+00 1.021040e+01 4.884060e+00 -3.556541e+00 3.155504e+00 5.342806e+00 -8.638947e+00 2.924875e+00 5.348558e+01
<VARIANCE> 13
 4.456517e+01 6.856887e+00 1.200036e+01 1.654351e+01 2.259462e+01 2.673338e+01 1.731542e+01 3.147791e+01 2.825198e+01 3.383945e+01 2.689088e+01 1.733292e+01 2.708011e+01
<GCONST> 6.391602e+01
<MIXTURE> 2 2.749385e-01
<MEAN> 13
 -2.186015e+01 8.321533e-01 6.048328e+00 -3.107271e+00 -5.938251e+00 1.029804e+01 1.950280e+00 -5.759750e+00 3.179964e+00 4.150906e+00 -1.088421e+01 4.374143e+00 5.692945e+01
<VARIANCE> 13
 5.124484e+01 7.467979e+00 1.514112e+01 1.540928e+01 2.442744e+01 2.979489e+01 2.161037e+01 4.216333e+01 3.228772e+01 2.773379e+01 2.830919e+01 2.590565e+01 3.929201e+01
<GCONST> 6.576279e+01
<MIXTURE> 3 2.749385e-01
<MEAN> 13
 -2.186015e+01 8.321533e-01 6.048328e+00 -3.107271e+00 -5.938251e+00 1.029804e+01 1.950280e+00 -5.759750e+00 3.179964e+00 4.150906e+00 -1.088421e+01 4.374143e+00 5.692945e+01
<VARIANCE> 13
 5.124484e+01 7.467979e+00 1.514112e+01 1.540928e+01 2.442744e+01 2.979489e+01 2.161037e+01 4.216333e+01 3.228772e+01 2.773379e+01 2.830919e+01 2.590565e+01 3.929201e+01
<GCONST> 6.576279e+01
<MIXTURE> 4 2.065498e-01
<MEAN> 13
 -2.004931e+01 2.998633e-01 6.544560e+00 -5.070669e+00 -9.653921e+00 8.316770e+00 -3.283475e+00 -1.120977e+01 1.640750e+00 2.821849e+00 -1.314556e+01 6.904146e+00 5.927433e+01
<VARIANCE> 13
 6.821989e+01 1.391284e+01 2.727872e+01 1.449731e+01 2.633095e+01 5.460721e+01 2.220601e+01 5.231002e+01 4.485637e+01 2.204504e+01 5.017672e+01 4.889513e+01 4.895118e+01
<GCONST> 6.964909e+01
<TRANSP> 5
 0.000000e+00 1.000000e+00 0.000000e+00 0.000000e+00 0.000000e+00
 0.000000e+00 9.786577e-01 2.134236e-02 0.000000e+00 0.000000e+00
 0.000000e+00 0.000000e+00 9.868973e-01 1.310276e-02 0.000000e+00
 0.000000e+00 0.000000e+00 0.000000e+00 9.943160e-01 5.683942e-03
 0.000000e+00 0.000000e+00 0.000000e+00 0.000000e+00 0.000000e+00
<ENDHMM>
~h "cm"
<BEGINHMM>
<NUMSTATES> 5
<STATE> 2
<NUMMIXES> 4
<MIXTURE> 1 2.846688e-01
<MEAN> 13
 -1.204006e+01 1.243274e-01 -1.970493e+00 -3.465160e+00 1.255999e+00 1.930645e+00 2.831944e-01 9.792631e-01 -1.058107e+00 8.995070e-01 2.552598e+00 -8.222153e-01 5.810707e+01
<VARIANCE> 13
 2.039790e+01 1.225148e+01 1.148660e+01 1.329972e+01 1.289085e+01 1.348591e+01 1.507249e+01 1.587481e+01 1.557650e+01 1.476913e+01 1.722944e+01 1.469960e+01 2.093627e+01
<GCONST> 5.909240e+01
<MIXTURE> 2 2.346152e-01
<MEAN> 13
 -8.524513e+00 2.676256e-01 -2.403978e+00 -3.715496e+00 -2.813523e-01 -6.663628e-01 -2.610488e+00 -2.218845e+00 -3.943579e+00 -1.560382e+00 2.397479e-01 -1.835022e+00 6.225237e+01
<VARIANCE> 13
 2.420670e+01 1.191991e+01 1.089860e+01 1.299063e+01 1.232722e+01 1.179101e+01 1.275889e+01 1.526154e+01 1.514748e+01 1.594745e+01 1.701420e+01 1.496613e+01 4.578061e+01
<GCONST> 5.961165e+01
<MIXTURE> 3 2.346155e-01
<MEAN> 13
 -8.524514e+00 2.676249e-01 -2.403978e+00 -3.715496e+00 -2.813523e-01 -6.663624e-01 -2.610488e+00 -2.218845e+00 -3.943580e+00 -1.560382e+00 2.397483e-01 -1.835022e+00 6.225237e+01
<VARIANCE> 13
 2.420672e+01 1.191992e+01 1.089861e+01 1.299064e+01 1.232723e+01 1.179102e+01 1.275890e+01 1.526155e+01 1.514749e+01 1.594746e+01 1.701420e+01 1.496613e+01 4.578061e+01
<GCONST> 5.961166e+01
<MIXTURE> 4 2.459873e-01
<MEAN> 13
 -6.521510e+00 -7.807388e-01 -3.889024e+00 -5.024346e+00 -2.616798e+00 -3.323529e+00 -5.037817e+00 -4.521773e+00 -5.922775e+00 -3.811344e+00 -2.584510e+00 -3.122059e+00 6.909911e+01
<VARIANCE> 13
 1.212570e+01 1.195871e+01 1.295193e+01 1.358533e+01 1.267925e+01 1.202906e+01 1.318167e+01 1.512657e+01 1.582901e+01 1.475658e+01 1.440945e+01 1.344748e+01 5.481701e+01
<GCONST> 5.908621e+01
<STATE> 3
<NUMMIXES> 4
<MIXTURE> 1 2.252345e-01
<MEAN> 13
 -9.010931e+00 2.434829e+00 4.894533e-01 -5.536198e-01 1.639391e+00 2.489571e+00 4.852308e+00 3.520472e+00 2.096952e+00 2.026528e+00 1.652641e+00 -1.496459e+00 4.775088e+01
<VARIANCE> 13
 1.182847e+01 4.470473e+00 6.705362e+00 8.577251e+00 1.044565e+01 1.085818e+01 1.217059e+01 1.260907e+01 1.373556e+01 1.379645e+01 1.277927e+01 1.188154e+01 6.001965e+00
<GCONST> 5.373627e+01
<MIXTURE> 2 2.619464e-01
<MEAN> 13
 -8.518541e+00 2.218678e+00 2.622193e-02 -1.494171e+00 3.631290e-01 5.635284e-01 2.502888e+00 1.229058e+00 -5.205790e-03 3.560694e-01 4.096826e-01 -2.231532e+00 4.841027e+01
<VARIANCE> 13
 1.169005e+01 5.926855e+00 7.847408e+00 9.639991e+00 1.184052e+01 1.147864e+01 1.255856e+01 1.412702e+01 1.477212e+01 1.469255e+01 1.364175e+01 1.274561e+01 7.328766e+00
<GCONST> 5.507745e+01
<MIXTURE> 3 2.619466e-01
<MEAN> 13
 -8.518543e+00 2.218678e+00 2.622191e-02 -1.494171e+00 3.631287e-01 5.635278e-01 2.502888e+00 1.229058e+00 -5.205904e-03 3.560694e-01 4.096828e-01 -2.231531e+00 4.841026e+01
<VARIANCE> 13
 1.169006e+01 5.926861e+00 7.847408e+00 9.639999e+00 1.184053e+01 1.147865e+01 1.255856e+01 1.412703e+01 1.477213e+01 1.469255e+01 1.364176e+01 1.274561e+01 7.328765e+00
<GCONST> 5.507746e+01
<MIXTURE> 4 2.508627e-01
<MEAN> 13
 -8.241644e+00 3.514838e-01 -8.449655e-01 -3.424601e+00 -1.906251e+00 -2.460276e+00 -6.317887e-01 -1.312929e+00 -1.553519e+00 -6.593621e-01 -1.885804e-01 -2.515926e+00 5.150087e+01
<VARIANCE> 13
 1.412014e+01 1.719538e+01 1.253965e+01 1.729960e+01 1.639187e+01 1.748249e+01 1.627576e+01 1.895409e+01 1.869627e+01 1.682340e+01 1.630585e+01 1.507229e+01 1.721967e+01
<GCONST> 6.025543e+01
<STATE> 4
<NUMMIXES> 4
<MIXTURE> 1 3.255533e-01
<MEAN> 13
 -4.656805e+00 -2.952397e+00 -3.871710e+00 -2.817973e+00 2.351004e+00 4.950237e+00 5.917579e+00 2.167440e+00 4.855179e-01 1.993367e+00 1.756783e+00 -2.173651e+00 5.089655e+01
<VARIANCE> 13
 6.822964e+00 5.583110e+00 5.359440e+00 6.266655e+00 8.551252e+00 9.905863e+00 1.054313e+01 1.196483e+01 1.217300e+01 1.209055e+01 1.218660e+01 1.161376e+01 3.311400e+00
<GCONST> 5.146474e+01
<MIXTURE> 2 2.337000e-01
<MEAN> 13
 -5.239618e+00 -3.024427e+00 -4.072879e+00 -4.334498e+00 -2.719515e-01 1.714578e+00 2.837583e+00 1.087980e-01 -9.785712e-01 6.273217e-01 6.910495e-01 -3.010803e+00 5.233226e+01
<VARIANCE> 13
 9.665994e+00 8.645859e+00 8.584001e+00 9.658189e+00 1.250487e+01 1.232287e+01 1.264017e+01 1.537184e+01 1.590622e+01 1.522170e+01 1.546430e+01 1.440294e+01 6.808849e+00
<GCONST> 5.585641e+01
<MIXTURE> 3 2.337000e-01
<MEAN> 13
 -5.239618e+00 -3.024427e+00 -4.072879e+00 -4.334498e+00 -2.719515e-01 1.714578e+00 2.837583e+00 1.087980e-01 -9.785712e-01 6.273217e-01 6.910495e-01 -3.010803e+00 5.233226e+01
<VARIANCE> 13
 9.665994e+00 8.645859e+00 8.584001e+00 9.658189e+00 1.250487e+01 1.232287e+01 1.264017e+01 1.537184e+01 1.590622e+01 1.522170e+01 1.546430e+01 1.440294e+01 6.808849e+00
<GCONST> 5.585641e+01
<MIXTURE> 4 2.070925e-01
<MEAN> 13
 -7.988235e+00 -4.596968e+00 -2.033746e+00 -7.734422e+00 -3.393297e+00 -3.512962e+00 -4.427971e-01 -8.399221e-01 -1.229606e+00 -6.388581e-01 4.410083e-01 -2.649520e+00 5.881986e+01
<VARIANCE> 13
 2.114791e+01 1.958636e+01 1.947910e+01 2.058158e+01 2.179167e+01 2.048104e+01 1.882187e+01 2.159903e+01 2.217427e+01 1.990797e+01 1.838535e+01 1.826846e+01 3.390727e+01
<GCONST> 6.345162e+01
<TRANSP> 5
 0.000000e+00 1.000000e+00 0.000000e+00 0.000000e+00 0.000000e+00
 0.000000e+00 9.899761e-01 1.002383e-02 0.000000e+00 0.000000e+00
 0.000000e+00 0.000000e+00 9.879905e-01 1.200950e-02 0.000000e+00
 0.000000e+00 0.000000e+00 0.000000e+00 9.929448e-01 7.055155e-03
 0.000000e+00 0.000000e+00 0.000000e+00 0.000000e+00 0.000000e+00
<ENDHMM>
~h "co"
<BEGINHMM>
<NUMSTATES> 5
<STATE> 2
<NUMMIXES> 4
<MIXTURE> 1 2.677275e-01
<MEAN> 13
 -4.435081e+00 -4.126660e+00 4.810189e-01 -4.057639e-02 7.232965e-02 4.615175e-01 1.056301e+00 -1.048140e+00 -6.014703e-01 -1.020512e+00 -1.068097e+00 -4.608274e+00 5.331141e+01
<VARIANCE> 13
 1.259713e+01 1.156667e+01 2.215672e+01 2.272484e+01 1.841741e+01 2.794879e+01 3.281657e+01 3.548396e+01 2.205384e+01 2.590964e+01 2.429782e+01 1.855054e+01 3.921635e+01
<GCONST> 6.452737e+01
<MIXTURE> 2 2.318937e-01
<MEAN> 13
 -5.985118e+00 -6.153563e+00 2.337504e+00 2.341947e-02 -6.404418e+00 -6.073892e+00 -6.193274e+00 -7.050681e+00 -4.522118e+00 -4.004867e+00 -3.878241e+00 -8.517571e+00 6.508754e+01
<VARIANCE> 13
 2.191986e+01 1.622960e+01 2.310450e+01 2.710968e+01 4.187482e+01 3.505333e+01 5.266581e+01 5.882232e+01 4.239347e+01 4.006358e+01 3.826524e+01 3.214841e+01 3.869466e+01
<GCONST> 6.974466e+01
<MIXTURE> 3 2.318946e-01
<MEAN> 13
 -5.985116e+00 -6.153565e+00 2.337505e+00 2.342105e-02 -6.404417e+00 -6.073890e+00 -6.193274e+00 -7.050679e+00 -4.522116e+00 -4.004864e+00 -3.878242e+00 -8.517571e+00 6.508754e+01
<VARIANCE> 13
 2.191988e+01 1.622963e+01 2.310452e+01 2.710969e+01 4.187485e+01 3.505334e+01 5.266582e+01 5.882234e+01 4.239354e+01 4.006360e+01 3.826526e+01 3.214840e+01 3.869468e+01
<GCONST> 6.974467e+01
<MIXTURE> 4 2.684025e-01
<MEAN> 13
 -6.149466e+00 -7.039767e+00 -2.466846e+00 -3.131804e+00 -1.009202e+01 -9.242766e+00 -9.469839e+00 -6.429790e+00 -4.207997e+00 -6.473392e+00 -6.087313e+00 -1.155989e+01 7.080898e+01
<VARIANCE> 13
 8.510983e+00 1.230003e+01 2.191220e+01 1.987217e+01 3.301234e+01 3.743887e+01 4.616754e+01 5.647012e+01 5.116854e+01 4.566157e+01 4.002928e+01 4.103608e+01 2.011802e+01
<GCONST> 6.776736e+01
<STATE> 3
<NUMMIXES> 4
<MIXTURE> 1 2.081119e-01
<MEAN> 13
 -2.991798e+00 2.535779e+00 5.643574e+00 3.779265e+00 4.046567e+00 1.863002e+00 9.732428e-01 -6.626070e-01 -3.356200e+00 -2.453277e+00 -3.207715e+00 -6.822882e+00 4.720333e+01
<VARIANCE> 13
 5.633721e+00 9.494968e+00 1.588518e+01 1.822781e+01 1.485894e+01 1.245302e+01 1.465893e+01 1.852720e+01 1.638085e+01 1.625172e+01 1.622294e+01 1.454777e+01 1.683824e+01
<GCONST> 5.823695e+01
<MIXTURE> 2 2.532835e-01
<MEAN> 13
 -2.185220e+00 1.738368e+00 4.640754e+00 2.514578e+00 3.009151e+00 -1.901389e-01 -1.705234e+00 -3.360334e+00 -5.611870e+00 -4.163241e+00 -3.550768e+00 -7.631637e+00 4.841468e+01
<VARIANCE> 13
 6.288589e+00 1.193888e+01 1.291609e+01 1.457599e+01 1.465112e+01 1.702754e+01 1.781888e+01 2.031197e+01 1.744711e+01 1.788127e+01 1.589909e+01 1.676097e+01 1.940399e+01
<GCONST> 5.915333e+01
<MIXTURE> 3 2.532834e-01
<MEAN> 13
 -2.185220e+00 1.738368e+00 4.640753e+00 2.514576e+00 3.009149e+00 -1.901387e-01 -1.705234e+00 -3.360333e+00 -5.611868e+00 -4.163239e+00 -3.550767e+00 -7.631637e+00 4.841468e+01
<VARIANCE> 13
 6.288584e+00 1.193887e+01 1.291609e+01 1.457599e+01 1.465112e+01 1.702754e+01 1.781888e+01 2.031197e+01 1.744711e+01 1.788127e+01 1.589908e+01 1.676096e+01 1.940399e+01
<GCONST> 5.915332e+01
<MIXTURE> 4 2.853268e-01
<MEAN> 13
 -7.606246e-01 -1.060473e+00 4.233582e+00 1.918970e+00 1.025227e+00 -3.676921e+00 -5.729989e+00 -7.920491e+00 -7.889675e+00 -5.667777e+00 -3.528440e+00 -7.996945e+00 5.314705e+01
<VARIANCE> 13
 5.311229e+00 8.326927e+00 1.586887e+01 2.039943e+01 1.808111e+01 2.248294e+01 2.125249e+01 2.457957e+01 2.233347e+01 2.664967e+01 2.343835e+01 2.101658e+01 1.788904e+01
<GCONST> 6.120034e+01
<STATE> 4
<NUMMIXES> 4
<MIXTURE> 1 2.369077e-01
<MEAN> 13
 -4.206792e+00 -1.448837e+00 -2.077173e+00 -1.070819e+00 1.580103e+00 4.707833e+00 6.205155e+00 3.663301e+00 1.817395e+00 3.118407e+00 2.169460e+00 -1.677346e+00 4.724744e+01
<VARIANCE> 13
 4.636121e+00 1.337028e+01 8.449943e+00 9.984062e+00 9.736094e+00 1.174959e+01 1.041516e+01 1.215740e+01 1.290962e+01 1.288472e+01 1.127702e+01 1.204183e+01 8.508777e+00
<GCONST> 5.420159e+01
<MIXTURE> 2 2.624762e-01
<MEAN> 13
 -4.223598e+00 -2.058961e+00 -2.323137e+00 -1.778780e+00 1.056612e+00 3.398212e+00 4.415000e+00 1.420409e+00 -4.424122e-01 1.089129e+00 7.015829e-01 -2.449158e+00 4.795375e+01
<VARIANCE> 13
 6.116050e+00 1.457387e+01 9.610990e+00 1.013156e+01 1.129621e+01 1.316613e+01 1.049456e+01 1.223374e+01 1.259469e+01 1.285469e+01 1.242636e+01 1.260340e+01 8.569765e+00
<GCONST> 5.510729e+01
<MIXTURE> 3 2.624762e-01
<MEAN> 13
 -4.223598e+00 -2.058961e+00 -2.323137e+00 -1.778780e+00 1.056612e+00 3.398212e+00 4.415000e+00 1.420409e+00 -4.424125e-01 1.089129e+00 7.015831e-01 -2.449158e+00 4.795375e+01
<VARIANCE> 13
 6.116045e+00 1.457386e+01 9.610991e+00 1.013156e+01 1.129621e+01 1.316613e+01 1.049456e+01 1.223374e+01 1.259469e+01 1.285468e+01 1.242635e+01 1.260340e+01 8.569762e+00
<GCONST> 5.510728e+01
<MIXTURE> 4 2.381034e-01
<MEAN> 13
 -4.505705e+00 -3.410057e+00 -3.223953e+00 -3.346963e+00 -2.467194e-01 1.599746e+00 1.828866e+00 -1.286388e+00 -2.399502e+00 -7.672752e-01 -6.598443e-01 -3.153477e+00 4.941540e+01
<VARIANCE> 13
 1.214513e+01 1.500014e+01 1.025771e+01 1.010636e+01 1.319870e+01 1.727663e+01 1.270605e+01 1.434857e+01 1.619660e+01 1.402832e+01 1.465766e+01 1.554215e+01 9.110238e+00
<GCONST> 5.743759e+01
<TRANSP> 5
 0.000000e+00 1.000000e+00 0.000000e+00 0.000000e+00 0.000000e+00
 0.000000e+00 9.915091e-01 8.490867e-03 0.000000e+00 0.000000e+00
 0.000000e+00 0.000000e+00 9.648594e-01 3.514066e-02 0.000000e+00
 0.000000e+00 0.000000e+00 0.000000e+00 9.916392e-01 8.360814e-03
 0.000000e+00 0.000000e+00 0.000000e+00 0.000000e+00 0.000000e+00
<ENDHMM>
~h "ds"
<BEGINHMM>
<NUMSTATES> 5
<STATE> 2
<NUMMIXES> 4
<MIXTURE> 1 2.139447e-01
<MEAN> 13
 -7.634532e+00 5.204393e+00 6.873878e+00 6.018638e+00 7.476110e+00 3.929878e+00 6.969286e+00 1.006532e-01 2.099177e+00 1.167423e-01 2.065336e+00 -6.112015e-01 6.061093e+01
<VARIANCE> 13
 1.260687e+01 7.719467e+00 9.988217e+00 8.089067e+00 1.048541e+01 1.304490e+01 1.297189e+01 1.535653e+01 1.487716e+01 1.396965e+01 1.478421e+01 1.357620e+01 1.015903e+02
<GCONST> 5.833456e+01
<MIXTURE> 2 2.254477e-01
<MEAN> 13
 -1.049776e+01 1.262306e+00 2.286194e+00 9.955303e-01 2.910407e+00 1.113266e+00 3.224455e+00 -1.015199e+00 1.309989e+00 -1.865366e-01 2.892283e+00 -8.262156e-01 5.511773e+01
<VARIANCE> 13
 1.380233e+01 8.945344e+00 9.394946e+00 9.987089e+00 1.370161e+01 2.135801e+01 2.443717e+01 2.081943e+01 2.877741e+01 2.930666e+01 1.908191e+01 1.718419e+01 5.007037e+01
<GCONST> 6.160434e+01
<MIXTURE> 3 2.254478e-01
<MEAN> 13
 -1.049776e+01 1.262306e+00 2.286195e+00 9.955305e-01 2.910407e+00 1.113267e+00 3.224454e+00 -1.015199e+00 1.309991e+00 -1.865382e-01 2.892284e+00 -8.262150e-01 5.511773e+01
<VARIANCE> 13
 1.380233e+01 8.945334e+00 9.394946e+00 9.987095e+00 1.370161e+01 2.135801e+01 2.443718e+01 2.081943e+01 2.877742e+01 2.930668e+01 1.908191e+01 1.718419e+01 5.007031e+01
<GCONST> 6.160434e+01
<MIXTURE> 4 3.351365e-01
<MEAN> 13
 -1.248421e+01 -6.068424e-01 -6.914231e-01 -1.774353e+00 -8.083166e-01 -2.566689e+00 2.032842e+00 -2.256000e+00 -4.707442e-01 6.066663e-01 2.640200e+00 -1.343676e+00 5.951181e+01
<VARIANCE> 13
 2.491649e+01 1.138969e+01 1.198003e+01 1.436955e+01 2.179054e+01 1.788535e+01 2.777541e+01 2.783054e+01 2.422548e+01 2.293160e+01 2.054247e+01 1.996972e+01 9.053269e+01
<GCONST> 6.414708e+01
<STATE> 3
<NUMMIXES> 4
<MIXTURE> 1 2.467677e-01
<MEAN> 13
 -5.658807e+00 2.875759e+00 2.533625e+00 1.856353e+00 4.262478e+00 4.993100e+00 6.826764e+00 3.711109e+00 2.713010e+00 2.411420e+00 2.195022e+00 -1.738045e+00 4.852084e+01
<VARIANCE> 13
 9.295424e+00 6.834383e+00 1.065743e+01 8.059355e+00 1.547041e+01 1.348911e+01 1.373924e+01 1.527663e+01 1.540179e+01 1.374968e+01 1.451467e+01 1.174348e+01 1.119549e+01
<GCONST> 5.609385e+01
<MIXTURE> 2 2.476298e-01
<MEAN> 13
 -6.166822e+00 2.209586e+00 2.664849e-01 -9.225741e-01 1.626154e-01 1.865789e+00 3.786201e+00 1.977622e+00 1.387562e+00 1.996888e+00 1.585714e+00 -2.115006e+00 4.702443e+01
<VARIANCE> 13
 8.525787e+00 4.026191e+00 7.768365e+00 8.348354e+00 1.396266e+01 1.198143e+01 1.258405e+01 1.582376e+01 1.516992e+01 1.577835e+01 1.367730e+01 1.212443e+01 6.857384e+00
<GCONST> 5.452837e+01
<MIXTURE> 3 2.476309e-01
<MEAN> 13
 -6.166822e+00 2.209585e+00 2.664846e-01 -9.225748e-01 1.626145e-01 1.865789e+00 3.786201e+00 1.977621e+00 1.387563e+00 1.996888e+00 1.585715e+00 -2.115006e+00 4.702443e+01
<VARIANCE> 13
 8.525790e+00 4.026192e+00 7.768369e+00 8.348356e+00 1.396270e+01 1.198144e+01 1.258406e+01 1.582377e+01 1.516994e+01 1.577836e+01 1.367730e+01 1.212444e+01 6.857380e+00
<GCONST> 5.452838e+01
<MIXTURE> 4 2.579156e-01
<MEAN> 13
 -5.652290e+00 1.014315e+00 -1.183151e+00 -3.231088e+00 -3.233936e+00 -1.720647e-01 1.918284e+00 2.752115e-01 4.679404e-01 1.880727e+00 -5.867152e-02 -3.703970e+00 4.753790e+01
<VARIANCE> 13
 8.549014e+00 6.943545e+00 1.033018e+01 1.231295e+01 1.721144e+01 1.683586e+01 1.855020e+01 2.254904e+01 1.785698e+01 2.141638e+01 2.074731e+01 1.619150e+01 8.751829e+00
<GCONST> 5.845972e+01
<STATE> 4
<NUMMIXES> 4
<MIXTURE> 1 2.428116e-01
<MEAN> 13
 -1.142750e+01 -1.405010e+00 -9.063374e-01 -2.614542e+00 1.276603e+00 5.446690e+00 5.521875e+00 2.356214e+00 1.238387e+00 2.230401e+00 3.433629e+00 -9.962633e-01 5.553594e+01
<VARIANCE> 13
 7.397599e+01 9.416889e+00 1.524097e+01 1.208146e+01 1.612340e+01 2.418200e+01 1.664906e+01 1.733668e+01 1.552835e+01 1.606567e+01 1.328721e+01 1.217590e+01 2.345977e+01
<GCONST> 6.104627e+01
<MIXTURE> 2 2.776541e-01
<MEAN> 13
 -6.951262e+00 -2.835958e+00 -3.008198e+00 -3.298636e+00 7.387820e-01 2.420712e+00 4.010752e+00 3.364575e-01 -6.114525e-01 8.705285e-01 1.466746e+00 -2.470312e+00 5.351675e+01
<VARIANCE> 13
 3.063830e+01 9.124408e+00 9.575533e+00 1.008555e+01 1.311923e+01 1.797448e+01 1.575544e+01 1.661056e+01 1.589783e+01 1.535775e+01 1.396772e+01 1.302343e+01 1.260916e+01
<GCONST> 5.836190e+01
<MIXTURE> 3 2.776541e-01
<MEAN> 13
 -6.951262e+00 -2.835958e+00 -3.008198e+00 -3.298636e+00 7.387820e-01 2.420712e+00 4.010752e+00 3.364575e-01 -6.114525e-01 8.705285e-01 1.466746e+00 -2.470312e+00 5.351675e+01
<VARIANCE> 13
 3.063830e+01 9.124408e+00 9.575533e+00 1.008555e+01 1.311923e+01 1.797448e+01 1.575544e+01 1.661056e+01 1.589783e+01 1.535775e+01 1.396772e+01 1.302343e+01 1.260916e+01
<GCONST> 5.836190e+01
<MIXTURE> 4 2.017211e-01
<MEAN> 13
 -1.008567e+01 -5.195210e+00 -2.372741e+00 -5.513664e+00 -2.792905e+00 -1.979180e+00 -3.350137e-01 -1.671299e+00 -1.679156e+00 -8.932135e-01 4.588177e-01 -2.283925e+00 6.034674e+01
<VARIANCE> 13
 5.438663e+01 2.195330e+01 1.511915e+01 2.206474e+01 1.813917e+01 3.022799e+01 2.618013e+01 2.479909e+01 2.314339e+01 2.127352e+01 1.981492e+01 1.888167e+01 5.745611e+01
<GCONST> 6.574485e+01
<TRANSP> 5
 0.000000e+00 1.000000e+00 0.000000e+00 0.000000e+00 0.000000e+00
 0.000000e+00 9.934627e-01 6.537287e-03 0.000000e+00 0.000000e+00
 0.000000e+00 0.000000e+00 9.841725e-01 1.582751e-02 0.000000e+00
 0.000000e+00 0.000000e+00 0.000000e+00 9.917194e-01 8.280622e-03
 0.000000e+00 0.000000e+00 0.000000e+00 0.000000e+00 0.000000e+00
<ENDHMM>
~h "kj"
<BEGINHMM>
<NUMSTATES> 5
<STATE> 2
<NUMMIXES> 4
<MIXTURE> 1 2.036214e-01
<MEAN> 13
 -2.281365e+01 4.143933e+00 2.680723e+00 -4.606100e+00 -3.629229e+00 1.427424e+01 2.183965e+00 -1.874862e+00 9.913028e+00 -2.838275e+00 -3.434043e+00 6.886961e+00 5.829452e+01
<VARIANCE> 13
 2.496314e+01 6.257430e+00 1.804665e+01 1.001626e+01 1.309494e+01 2.501630e+01 2.018115e+01 1.773962e+01 1.947703e+01 1.975857e+01 1.725046e+01 1.619125e+01 2.006303e+01
<GCONST> 6.039706e+01
<MIXTURE> 2 3.003173e-01
<MEAN> 13
 -2.421150e+01 3.312866e+00 2.679084e+00 -5.581710e+00 -5.134159e+00 1.323726e+01 8.407034e-01 -2.924603e+00 8.708983e+00 -4.759598e+00 -4.531084e+00 6.134468e+00 5.986076e+01
<VARIANCE> 13
 2.324421e+01 7.071835e+00 1.515570e+01 1.248366e+01 1.502300e+01 2.899010e+01 2.216680e+01 1.872392e+01 2.249535e+01 1.899414e+01 1.953102e+01 1.986786e+01 1.979783e+01
<GCONST> 6.134643e+01
<MIXTURE> 3 3.003173e-01
<MEAN> 13
 -2.421150e+01 3.312866e+00 2.679084e+00 -5.581710e+00 -5.134159e+00 1.323726e+01 8.407034e-01 -2.924603e+00 8.708983e+00 -4.759598e+00 -4.531084e+00 6.134468e+00 5.986076e+01
<VARIANCE> 13
 2.324421e+01 7.071835e+00 1.515570e+01 1.248366e+01 1.502300e+01 2.899010e+01 2.216680e+01 1.872392e+01 2.249535e+01 1.899414e+01 1.953102e+01 1.986786e+01 1.979783e+01
<GCONST> 6.134643e+01
<MIXTURE> 4 1.957102e-01
<MEAN> 13
 -1.844711e+01 3.552979e+00 8.433529e-01 -6.516629e+00 -7.283103e+00 7.518861e+00 -1.285827e+00 -4.407161e+00 6.234031e+00 -4.531303e+00 -4.850527e+00 3.929287e+00 5.722078e+01
<VARIANCE> 13
 6.038365e+01 1.250115e+01 2.627961e+01 2.450588e+01 2.085864e+01 5.153122e+01 2.832172e+01 2.539133e+01 3.372909e+01 2.354808e+01 1.833812e+01 2.502323e+01 3.397941e+01
<GCONST> 6.687659e+01
<STATE> 3
<NUMMIXES> 4
<MIXTURE> 1 3.939529e-01
<MEAN> 13
 -7.552959e+00 1.887025e+00 -1.404609e+00 -1.328609e+00 -4.282572e-01 3.974061e+00 4.362824e+00 2.778929e+00 1.672229e+00 2.001963e+00 8.728192e-01 -1.671813e+00 4.779523e+01
<VARIANCE> 13
 2.136695e+01 1.247319e+01 8.449352e+00 8.695573e+00 1.393763e+01 1.475513e+01 1.473446e+01 1.490079e+01 1.531144e+01 1.475089e+01 1.374123e+01 1.519483e+01 9.368443e+00
<GCONST> 5.749113e+01
<MIXTURE> 2 2.321640e-01
<MEAN> 13
 -1.050733e+01 1.445174e+00 -1.573449e+00 -2.381782e+00 -1.756410e+00 1.885389e+00 7.265289e-01 5.695117e-01 8.790042e-02 -2.566128e-01 3.840030e-01 -9.572907e-01 5.128907e+01
<VARIANCE> 13
 3.866327e+01 2.596715e+01 1.298330e+01 1.371173e+01 2.180988e+01 2.485414e+01 2.173358e+01 2.323158e+01 2.025227e+01 1.919864e+01 1.852320e+01 1.826717e+01 1.685995e+01
<GCONST> 6.311797e+01
<MIXTURE> 3 2.321641e-01
<MEAN> 13
 -1.050733e+01 1.445174e+00 -1.573449e+00 -2.381782e+00 -1.756410e+00 1.885389e+00 7.265289e-01 5.695124e-01 8.790076e-02 -2.566129e-01 3.840031e-01 -9.572906e-01 5.128907e+01
<VARIANCE> 13
 3.866328e+01 2.596716e+01 1.298330e+01 1.371173e+01 2.180988e+01 2.485414e+01 2.173359e+01 2.323159e+01 2.025227e+01 1.919864e+01 1.852321e+01 1.826718e+01 1.685995e+01
<GCONST> 6.311797e+01
<MIXTURE> 4 1.416457e-01
<MEAN> 13
 -1.381382e+01 -7.740240e+00 -5.637742e+00 -2.005986e+00 -2.425201e+00 -4.414150e+00 -1.103139e+00 -4.164911e+00 -3.312099e+00 -9.250849e-01 3.823451e-01 -4.107296e-01 6.438043e+01
<VARIANCE> 13
 3.363722e+01 4.344670e+01 1.768905e+01 1.941522e+01 2.559102e+01 2.478759e+01 2.605065e+01 2.021153e+01 2.652104e+01 2.094663e+01 1.768767e+01 1.479628e+01 6.682249e+01
<GCONST> 6.582664e+01
<STATE> 4
<NUMMIXES> 4
<MIXTURE> 1 2.064032e-01
<MEAN> 13
 -2.239294e+01 5.480840e+00 1.353092e+00 3.565324e+00 -3.568879e-01 1.301161e+00 7.199063e+00 3.091300e+00 -7.539083e-01 2.859600e+00 1.524896e+00 -1.204032e+00 5.417443e+01
<VARIANCE> 13
 2.731147e+01 1.744194e+01 1.691386e+01 2.184116e+01 1.654791e+01 1.734468e+01 2.271438e+01 1.690543e+01 1.823969e+01 2.682792e+01 1.673774e+01 2.023213e+01 1.541749e+01
<GCONST> 6.233418e+01
<MIXTURE> 2 3.024678e-01
<MEAN> 13
 -2.245286e+01 2.991558e+00 2.583232e+00 2.625087e+00 -2.407703e+00 -1.626838e-01 7.234826e+00 1.372651e-01 -3.640961e+00 4.269186e+00 3.841236e-01 -3.604374e+00 5.514618e+01
<VARIANCE> 13
 2.938817e+01 1.486933e+01 1.462265e+01 1.904503e+01 1.654084e+01 1.569796e+01 2.343369e+01 1.758506e+01 1.939418e+01 2.403561e+01 1.698884e+01 1.619014e+01 1.751645e+01
<GCONST> 6.180687e+01
<MIXTURE> 3 3.024685e-01
<MEAN> 13
 -2.245286e+01 2.991559e+00 2.583231e+00 2.625086e+00 -2.407702e+00 -1.626840e-01 7.234825e+00 1.372652e-01 -3.640959e+00 4.269185e+00 3.841227e-01 -3.604374e+00 5.514618e+01
<VARIANCE> 13
 2.938815e+01 1.486933e+01 1.462264e+01 1.904502e+01 1.654083e+01 1.569795e+01 2.343367e+01 1.758505e+01 1.939418e+01 2.403561e+01 1.698882e+01 1.619014e+01 1.751643e+01
<GCONST> 6.180686e+01
<MIXTURE> 4 1.886404e-01
<MEAN> 13
 -1.785546e+01 -2.217311e+00 -2.287712e+00 2.602361e-01 -3.533359e+00 -4.172152e+00 1.186500e+00 -2.984922e+00 -3.791119e+00 2.518027e+00 3.400798e-01 -1.863647e+00 5.865030e+01
<VARIANCE> 13
 4.457801e+01 4.442650e+01 2.643517e+01 1.981420e+01 2.042038e+01 1.984629e+01 2.612407e+01 1.898983e+01 2.169943e+01 2.290041e+01 1.982999e+01 1.776653e+01 4.487544e+01
<GCONST> 6.583273e+01
<TRANSP> 5
 0.000000e+00 1.000000e+00 0.000000e+00 0.000000e+00 0.000000e+00
 0.000000e+00 9.833297e-01 1.667035e-02 0.000000e+00 0.000000e+00
 0.000000e+00 0.000000e+00 9.955441e-01 4.455925e-03 0.000000e+00
 0.000000e+00 0.000000e+00 0.000000e+00 9.941767e-01 5.823243e-03
 0.000000e+00 0.000000e+00 0.000000e+00 0.000000e+00 0.000000e+00
<ENDHMM>
~h "kn"
<BEGINHMM>
<NUMSTATES> 5
<STATE> 2
<NUMMIXES> 4
<MIXTURE> 1 2.246549e-01
<MEAN> 13
 3.508243e+00 4.336178e+00 -2.046152e+00 -1.703240e+00 2.082307e+00 1.206657e+00 1.856784e+00 -1.590031e+00 1.515764e+00 2.065907e+00 2.610349e+00 -1.242170e+00 5.470228e+01
<VARIANCE> 13
 1.484291e+01 2.107328e+01 2.084698e+01 9.647802e+00 9.273910e+00 1.937322e+01 1.487035e+01 1.836005e+01 2.839571e+01 1.420735e+01 1.275508e+01 1.493376e+01 5.482304e+01
<GCONST> 6.099617e+01
<MIXTURE> 2 2.594347e-01
<MEAN> 13
 1.943493e+00 3.577681e+00 -1.126601e+00 -2.521791e+00 -8.915138e-02 -5.609785e-01 8.303040e-01 -3.801355e+00 -1.522567e-01 2.359919e+00 1.758817e+00 -1.037058e+00 5.338035e+01
<VARIANCE> 13
 2.037167e+01 2.225475e+01 2.354957e+01 1.032609e+01 1.709334e+01 2.302509e+01 3.348706e+01 2.288804e+01 2.573775e+01 3.122458e+01 2.627432e+01 2.098853e+01 6.177661e+01
<GCONST> 6.524519e+01
<MIXTURE> 3 2.594347e-01
<MEAN> 13
 1.943493e+00 3.577681e+00 -1.126601e+00 -2.521791e+00 -8.915142e-02 -5.609785e-01 8.303038e-01 -3.801355e+00 -1.522572e-01 2.359918e+00 1.758817e+00 -1.037058e+00 5.338035e+01
<VARIANCE> 13
 2.037168e+01 2.225475e+01 2.354958e+01 1.032610e+01 1.709334e+01 2.302509e+01 3.348706e+01 2.288804e+01 2.573775e+01 3.122458e+01 2.627432e+01 2.098853e+01 6.177662e+01
<GCONST> 6.524519e+01
<MIXTURE> 4 2.564732e-01
<MEAN> 13
 4.287879e+00 3.797269e-01 -5.856860e+00 -2.757440e+00 4.038320e-01 -2.775019e+00 -1.350347e+00 -7.282409e+00 -1.848025e+00 -1.618122e+00 5.220122e-01 -3.710021e+00 5.900154e+01
<VARIANCE> 13
 1.342115e+01 2.842701e+01 2.005788e+01 1.106976e+01 1.450281e+01 2.131102e+01 2.051553e+01 2.218470e+01 2.300213e+01 2.199577e+01 1.864238e+01 1.917066e+01 4.031066e+01
<GCONST> 6.289544e+01
<STATE> 3
<NUMMIXES> 4
<MIXTURE> 1 2.461340e-01
<MEAN> 13
 4.364231e+00 -6.227924e-01 -1.679934e+00 2.845952e+00 7.103234e+00 1.642484e+00 4.475746e+00 -1.232284e+00 1.548336e+00 1.004318e+00 2.792765e+00 -1.879977e-01 6.074792e+01
<VARIANCE> 13
 9.955964e+00 1.370446e+01 1.071155e+01 1.066117e+01 1.526259e+01 2.039925e+01 1.886030e+01 1.508122e+01 1.751425e+01 1.663874e+01 1.567472e+01 1.569501e+01 3.936609e+01
<GCONST> 5.979068e+01
<MIXTURE> 2 2.668151e-01
<MEAN> 13
 6.152274e+00 3.776397e-01 -1.607097e+00 1.899520e+00 5.810367e+00 4.210858e-01 1.840588e+00 -2.678613e+00 -1.655577e+00 -1.648636e+00 1.817954e-01 -2.547223e+00 5.735503e+01
<VARIANCE> 13
 9.124297e+00 1.853243e+01 1.444339e+01 1.032754e+01 1.521538e+01 2.044766e+01 1.775877e+01 1.820757e+01 1.873405e+01 1.532530e+01 1.430873e+01 1.496805e+01 3.444697e+01
<GCONST> 6.011286e+01
<MIXTURE> 3 2.668151e-01
<MEAN> 13
 6.152274e+00 3.776397e-01 -1.607097e+00 1.899520e+00 5.810367e+00 4.210858e-01 1.840588e+00 -2.678613e+00 -1.655577e+00 -1.648636e+00 1.817954e-01 -2.547223e+00 5.735503e+01
<VARIANCE> 13
 9.124297e+00 1.853243e+01 1.444339e+01 1.032754e+01 1.521538e+01 2.044766e+01 1.775877e+01 1.820757e+01 1.873405e+01 1.532530e+01 1.430873e+01 1.496805e+01 3.444697e+01
<GCONST> 6.011286e+01
<MIXTURE> 4 2.202113e-01
<MEAN> 13
 5.623421e+00 -2.292107e+00 -2.804331e+00 7.794505e-01 2.835599e+00 -3.023981e+00 4.347010e-01 -6.962396e+00 -3.441321e+00 -4.222459e+00 -8.905906e-01 -3.882496e+00 6.103115e+01
<VARIANCE> 13
 8.910265e+00 3.016172e+01 1.824418e+01 1.329966e+01 1.767044e+01 2.221032e+01 1.937406e+01 2.709899e+01 2.115336e+01 1.889388e+01 1.608818e+01 1.763654e+01 4.095765e+01
<GCONST> 6.256488e+01
<STATE> 4
<NUMMIXES> 4
<MIXTURE> 1 2.526523e-01
<MEAN> 13
 -2.909119e+00 1.014535e+00 1.186334e+00 -7.941105e-01 3.052737e+00 4.708866e+00 4.076835e+00 3.115241e+00 -2.925067e-01 7.928797e-01 6.246358e-01 -3.208620e+00 4.574056e+01
<VARIANCE> 13
 5.743206e+00 1.652329e+01 1.385380e+01 8.329488e+00 2.141386e+01 9.908191e+00 1.572821e+01 1.505381e+01 1.786952e+01 1.736209e+01 1.199570e+01 1.257469e+01 7.961741e+00
<GCONST> 5.684630e+01
<MIXTURE> 2 2.655305e-01
<MEAN> 13
 -3.364248e+00 -4.748143e-01 -1.270387e-02 -2.831712e+00 -7.673079e-01 2.469090e+00 3.022483e+00 1.286959e+00 -1.592151e-01 1.644861e+00 1.375756e-01 -3.370285e+00 4.634646e+01
<VARIANCE> 13
 4.392186e+00 1.510797e+01 1.518691e+01 9.092062e+00 2.122969e+01 1.315305e+01 2.074046e+01 1.988831e+01 1.869491e+01 2.045400e+01 1.735791e+01 1.452377e+01 8.354451e+00
<GCONST> 5.826862e+01
<MIXTURE> 3 2.655305e-01
<MEAN> 13
 -3.364248e+00 -4.748143e-01 -1.270387e-02 -2.831712e+00 -7.673079e-01 2.469090e+00 3.022483e+00 1.286959e+00 -1.592151e-01 1.644861e+00 1.375756e-01 -3.370285e+00 4.634646e+01
<VARIANCE> 13
 4.392186e+00 1.510797e+01 1.518691e+01 9.092062e+00 2.122969e+01 1.315305e+01 2.074046e+01 1.988831e+01 1.869491e+01 2.045400e+01 1.735791e+01 1.452377e+01 8.354451e+00
<GCONST> 5.826862e+01
<MIXTURE> 4 2.163130e-01
<MEAN> 13
 -4.567882e+00 -2.061521e+00 1.138407e+00 -3.429376e+00 -5.264427e+00 -5.320722e-01 2.000463e+00 -4.497031e+00 -1.984144e+00 3.676131e+00 -9.019866e-01 -2.272342e+00 4.791627e+01
<VARIANCE> 13
 7.283422e+00 1.336870e+01 2.093952e+01 1.308203e+01 2.148579e+01 2.146391e+01 4.203923e+01 3.581018e+01 1.966744e+01 4.747699e+01 4.214325e+01 1.944643e+01 1.202583e+01
<GCONST> 6.356940e+01
<TRANSP> 5
 0.000000e+00 1.000000e+00 0.000000e+00 0.000000e+00 0.000000e+00
 0.000000e+00 9.538300e-01 4.617000e-02 0.000000e+00 0.000000e+00
 0.000000e+00 0.000000e+00 9.864216e-01 1.357839e-02 0.000000e+00
 0.000000e+00 0.000000e+00 0.000000e+00 9.924387e-01 7.561248e-03
 0.000000e+00 0.000000e+00 0.000000e+00 0.000000e+00 0.000000e+00
<ENDHMM>
~h "kt"
<BEGINHMM>
<NUMSTATES> 5
<STATE> 2
<NUMMIXES> 4
<MIXTURE> 1 2.727545e-01
<MEAN> 13
 -1.055867e+01 3.442482e+00 -2.373435e+00 1.511927e+00 2.164188e+00 2.212121e-01 4.555927e+00 3.358957e+00 1.961276e+00 6.855710e-01 1.551793e+00 -1.235301e+00 4.969785e+01
<VARIANCE> 13
 5.136027e+00 4.830028e+00 7.423410e+00 8.908473e+00 1.007173e+01 1.063334e+01 1.255090e+01 1.319502e+01 1.428105e+01 1.415569e+01 1.208963e+01 1.104582e+01 8.622979e+00
<GCONST> 5.343642e+01
<MIXTURE> 2 2.536535e-01
<MEAN> 13
 -1.192013e+01 3.032176e+00 -3.042512e+00 1.093375e+00 1.017975e+00 -1.638656e+00 2.566658e+00 9.421740e-01 -1.927335e-01 -1.030983e+00 -1.688541e-01 -1.805080e+00 5.236251e+01
<VARIANCE> 13
 6.108355e+00 6.433895e+00 8.281189e+00 1.115047e+01 1.184497e+01 1.228078e+01 1.427297e+01 1.457348e+01 1.539998e+01 1.705513e+01 1.483465e+01 1.339852e+01 1.483389e+01
<GCONST> 5.596646e+01
<MIXTURE> 3 2.536534e-01
<MEAN> 13
 -1.192013e+01 3.032176e+00 -3.042512e+00 1.093376e+00 1.017976e+00 -1.638656e+00 2.566657e+00 9.421734e-01 -1.927336e-01 -1.030984e+00 -1.688540e-01 -1.805080e+00 5.236251e+01
<VARIANCE> 13
 6.108356e+00 6.433896e+00 8.281192e+00 1.115047e+01 1.184497e+01 1.228078e+01 1.427298e+01 1.457348e+01 1.539998e+01 1.705514e+01 1.483465e+01 1.339851e+01 1.483389e+01
<GCONST> 5.596646e+01
<MIXTURE> 4 2.199629e-01
<MEAN> 13
 -1.397393e+01 2.436368e+00 -4.193795e+00 -1.791198e-01 -9.225315e-01 -4.736415e+00 1.782955e-01 -5.601585e-01 -1.435616e+00 -1.416582e+00 -2.119817e+00 -1.941150e+00 5.629040e+01
<VARIANCE> 13
 7.784665e+00 1.112777e+01 9.756724e+00 1.480340e+01 1.628494e+01 1.892324e+01 1.993432e+01 1.960934e+01 2.102126e+01 2.464303e+01 2.074569e+01 1.621294e+01 2.102219e+01
<GCONST> 6.013965e+01
<STATE> 3
<NUMMIXES> 4
<MIXTURE> 1 2.407011e-01
<MEAN> 13
 -7.530328e+00 2.720823e+00 -1.200334e+00 4.264716e-01 1.053358e+00 2.608625e+00 5.599072e+00 3.790292e+00 2.130912e+00 2.125071e+00 1.751327e+00 -1.354246e+00 4.649665e+01
<VARIANCE> 13
 7.465581e+00 6.008300e+00 7.862237e+00 8.036975e+00 1.297771e+01 1.101932e+01 1.367362e+01 1.349309e+01 1.305582e+01 1.378176e+01 1.204418e+01 1.126207e+01 4.483418e+00
<GCONST> 5.362548e+01
<MIXTURE> 2 2.649120e-01
<MEAN> 13
 -7.982213e+00 2.667433e+00 -1.811821e+00 -5.539591e-01 -3.766970e-01 5.421687e-01 3.435585e+00 1.687466e+00 5.572632e-01 6.798210e-01 3.748242e-01 -2.123951e+00 4.724511e+01
<VARIANCE> 13
 8.508775e+00 7.227891e+00 8.893324e+00 8.638865e+00 1.527457e+01 1.234749e+01 1.435563e+01 1.535085e+01 1.482173e+01 1.622566e+01 1.372967e+01 1.237605e+01 6.215322e+00
<GCONST> 5.543301e+01
<MIXTURE> 3 2.649121e-01
<MEAN> 13
 -7.982213e+00 2.667433e+00 -1.811821e+00 -5.539591e-01 -3.766969e-01 5.421689e-01 3.435585e+00 1.687466e+00 5.572634e-01 6.798208e-01 3.748241e-01 -2.123952e+00 4.724511e+01
<VARIANCE> 13
 8.508774e+00 7.227891e+00 8.893327e+00 8.638864e+00 1.527456e+01 1.234750e+01 1.435563e+01 1.535085e+01 1.482173e+01 1.622566e+01 1.372967e+01 1.237605e+01 6.215322e+00
<GCONST> 5.543301e+01
<MIXTURE> 4 2.295759e-01
<MEAN> 13
 -9.445101e+00 2.016901e+00 -3.095880e+00 -2.056983e+00 -2.553147e+00 -2.150527e+00 1.208688e+00 -5.126238e-01 -6.925917e-01 -2.481178e-01 -8.002117e-01 -2.608437e+00 5.031017e+01
<VARIANCE> 13
 1.684571e+01 1.321131e+01 1.218057e+01 1.297986e+01 2.049592e+01 1.628888e+01 1.832257e+01 2.078196e+01 2.119116e+01 2.236948e+01 1.614509e+01 1.399502e+01 1.766133e+01
<GCONST> 6.056672e+01
<STATE> 4
<NUMMIXES> 4
<MIXTURE> 1 2.392433e-01
<MEAN> 13
 -9.872275e+00 -7.787907e-01 -5.394220e+00 -9.911234e-01 2.775636e+00 3.494871e+00 6.842072e+00 2.701414e+00 2.223467e+00 2.889592e+00 2.668522e+00 -7.268162e-01 5.446596e+01
<VARIANCE> 13
 1.424117e+01 7.321285e+00 6.969138e+00 8.442751e+00 9.321067e+00 1.322883e+01 1.166078e+01 1.267530e+01 1.444149e+01 1.330297e+01 1.259493e+01 1.159457e+01 1.401965e+01
<GCONST> 5.530707e+01
<MIXTURE> 2 2.567640e-01
<MEAN> 13
 -8.637444e+00 -1.670686e+00 -5.401010e+00 -2.026693e+00 1.724200e+00 2.825579e+00 5.016213e+00 4.177054e-01 -4.821526e-01 7.336386e-01 1.127062e+00 -1.558984e+00 5.319324e+01
<VARIANCE> 13
 1.251028e+01 7.931692e+00 7.761949e+00 7.974042e+00 9.269105e+00 1.209889e+01 1.087037e+01 1.230053e+01 1.249591e+01 1.183547e+01 1.193670e+01 1.179294e+01 8.862402e+00
<GCONST> 5.435617e+01
<MIXTURE> 3 2.567632e-01
<MEAN> 13
 -8.637448e+00 -1.670684e+00 -5.401009e+00 -2.026691e+00 1.724200e+00 2.825578e+00 5.016213e+00 4.177057e-01 -4.821508e-01 7.336377e-01 1.127061e+00 -1.558983e+00 5.319325e+01
<VARIANCE> 13
 1.251030e+01 7.931698e+00 7.761969e+00 7.974052e+00 9.269115e+00 1.209890e+01 1.087038e+01 1.230054e+01 1.249591e+01 1.183547e+01 1.193670e+01 1.179295e+01 8.862431e+00
<GCONST> 5.435618e+01
<MIXTURE> 4 2.470711e-01
<MEAN> 13
 -1.129032e+01 -2.532772e+00 -4.761195e+00 -2.696906e+00 -6.605436e-01 -1.355804e+00 1.647785e+00 -1.996180e+00 -1.428613e+00 -1.027060e+00 -4.961312e-01 -1.696039e+00 5.694810e+01
<VARIANCE> 13
 2.184385e+01 1.695663e+01 1.414165e+01 1.280504e+01 1.393869e+01 1.792002e+01 1.537726e+01 1.765010e+01 2.082836e+01 1.487078e+01 1.440501e+01 1.499612e+01 2.808967e+01
<GCONST> 6.057665e+01
<TRANSP> 5
 0.000000e+00 1.000000e+00 0.000000e+00 0.000000e+00 0.000000e+00
 0.000000e+00 9.900888e-01 9.911232e-03 0.000000e+00 0.000000e+00
 0.000000e+00 0.000000e+00 9.940820e-01 5.918021e-03 0.000000e+00
 0.000000e+00 0.000000e+00 0.000000e+00 9.962734e-01 3.726620e-03
 0.000000e+00 0.000000e+00 0.000000e+00 0.000000e+00 0.000000e+00
<ENDHMM>
~h "pr"
<BEGINHMM>
<NUMSTATES> 5
<STATE> 2
<NUMMIXES> 4
<MIXTURE> 1 2.368242e-01
<MEAN> 13
 -6.653315e+00 -2.836534e+00 3.021651e+00 -4.138540e+00 1.212901e+00 3.929003e+00 4.070841e+00 2.936495e+00 -7.411231e-01 3.067498e+00 1.022855e+00 -1.198697e+00 4.733749e+01
<VARIANCE> 13
 8.391317e+00 3.575225e+01 3.297850e+01 1.938353e+01 4.179097e+01 2.974057e+01 1.740802e+01 2.290133e+01 2.920018e+01 2.326692e+01 2.558621e+01 1.976640e+01 1.565353e+01
<GCONST> 6.466776e+01
<MIXTURE> 2 2.866221e-01
<MEAN> 13
 -7.267343e+00 -7.476835e+00 7.117056e-01 -5.783803e+00 1.586448e+00 7.419260e+00 1.671053e+00 1.955849e-01 -2.428986e-01 2.557889e+00 3.057930e+00 -2.306441e+00 5.092104e+01
<VARIANCE> 13
 1.217556e+01 5.127462e+01 3.746549e+01 3.677668e+01 8.291270e+01 8.887462e+01 2.816107e+01 3.551469e+01 4.641940e+01 4.186399e+01 5.714297e+01 3.791037e+01 1.904651e+01
<GCONST> 7.157002e+01
<MIXTURE> 3 2.866217e-01
<MEAN> 13
 -7.267344e+00 -7.476831e+00 7.117137e-01 -5.783795e+00 1.586434e+00 7.419245e+00 1.671059e+00 1.955863e-01 -2.428982e-01 2.557900e+00 3.057921e+00 -2.306449e+00 5.092103e+01
<VARIANCE> 13
 1.217557e+01 5.127459e+01 3.746551e+01 3.677672e+01 8.291271e+01 8.887450e+01 2.816112e+01 3.551471e+01 4.641949e+01 4.186408e+01 5.714297e+01 3.791045e+01 1.904650e+01
<GCONST> 7.157003e+01
<MIXTURE> 4 1.899433e-01
<MEAN> 13
 -8.792886e+00 -1.094035e+01 -9.359303e-01 -6.220390e+00 4.799895e+00 8.259318e+00 -1.785641e+00 -4.065495e+00 3.701415e+00 1.302538e+00 2.842952e+00 -2.836473e+00 5.375090e+01
<VARIANCE> 13
 1.646116e+01 4.629640e+01 3.045672e+01 5.519752e+01 7.666338e+01 1.201268e+02 3.165432e+01 5.110600e+01 1.019189e+02 4.882771e+01 1.078037e+02 5.993929e+01 1.693355e+01
<GCONST> 7.458786e+01
<STATE> 3
<NUMMIXES> 4
<MIXTURE> 1 1.843702e-01
<MEAN> 13
 -1.501639e+01 -5.879653e+00 3.203236e+00 -2.890365e+00 8.078900e+00 -7.626437e+00 3.204010e+00 9.454050e+00 5.310909e-01 -2.305420e+00 -4.345961e+00 6.749735e+00 5.531419e+01
<VARIANCE> 13
 3.005002e+01 3.375951e+01 2.525372e+01 4.289860e+01 7.771181e+01 9.920293e+01 4.702072e+01 7.607388e+01 4.229665e+01 4.225632e+01 8.635658e+01 9.160771e+01 3.470909e+01
<GCONST> 7.494629e+01
<MIXTURE> 2 3.127994e-01
<MEAN> 13
 -1.534939e+01 -8.405345e+00 1.363621e+00 -5.076898e+00 2.243391e+00 -1.311795e+00 6.591193e+00 3.627788e+00 1.934246e-01 -2.104069e+00 5.220365e-01 1.005388e+00 5.893684e+01
<VARIANCE> 13
 3.349731e+01 3.604102e+01 4.131740e+01 3.843607e+01 9.015670e+01 7.173938e+01 6.621662e+01 6.565902e+01 5.231185e+01 3.840216e+01 5.270681e+01 6.632182e+01 1.865743e+01
<GCONST> 7.420164e+01
<MIXTURE> 3 3.127993e-01
<MEAN> 13
 -1.534939e+01 -8.405345e+00 1.363621e+00 -5.076900e+00 2.243389e+00 -1.311793e+00 6.591194e+00 3.627788e+00 1.934245e-01 -2.104068e+00 5.220360e-01 1.005386e+00 5.893684e+01
<VARIANCE> 13
 3.349730e+01 3.604103e+01 4.131743e+01 3.843607e+01 9.015666e+01 7.173932e+01 6.621664e+01 6.565904e+01 5.231183e+01 3.840214e+01 5.270675e+01 6.632179e+01 1.865742e+01
<GCONST> 7.420164e+01
<MIXTURE> 4 1.900034e-01
<MEAN> 13
 -1.360661e+01 -8.397446e+00 1.397524e-01 -6.560668e+00 -9.881335e-01 1.269086e+00 6.861983e+00 3.557145e-01 -1.357929e+00 -2.742318e+00 1.583907e+00 -1.206616e+00 5.946124e+01
<VARIANCE> 13
 4.566484e+01 3.876464e+01 5.718170e+01 2.940599e+01 6.944206e+01 5.039696e+01 7.769408e+01 5.889707e+01 5.132196e+01 3.583438e+01 3.771066e+01 4.689132e+01 1.333994e+01
<GCONST> 7.297322e+01
<STATE> 4
<NUMMIXES> 4
<MIXTURE> 1 3.317770e-01
<MEAN> 13
 -2.103596e+01 4.554903e+00 1.712194e+01 -1.526004e+01 2.338099e+00 1.389266e+01 -4.689858e+00 -5.349929e+00 1.292847e+01 -6.809242e+00 -6.988691e+00 8.888680e+00 5.343652e+01
<VARIANCE> 13
 1.363765e+01 1.102940e+01 9.951174e+00 1.733727e+01 2.043812e+01 1.679698e+01 1.454513e+01 2.476332e+01 2.479251e+01 3.022925e+01 2.652557e+01 1.472373e+01 7.253465e+00
<GCONST> 6.034997e+01
<MIXTURE> 2 2.154148e-01
<MEAN> 13
 -1.608215e+01 2.327433e+00 1.556943e+01 -1.548186e+01 4.250349e+00 1.007353e+01 -5.365599e+00 -1.655498e+00 7.892590e+00 -2.650553e+00 -8.635863e+00 8.071054e+00 5.033997e+01
<VARIANCE> 13
 3.421772e+01 1.355038e+01 3.088792e+01 4.729912e+01 2.843235e+01 2.848948e+01 2.136909e+01 4.264722e+01 4.110234e+01 4.496952e+01 3.815281e+01 2.880096e+01 1.804577e+01
<GCONST> 6.824736e+01
<MIXTURE> 3 2.154148e-01
<MEAN> 13
 -1.608215e+01 2.327433e+00 1.556943e+01 -1.548186e+01 4.250349e+00 1.007353e+01 -5.365599e+00 -1.655498e+00 7.892590e+00 -2.650553e+00 -8.635863e+00 8.071054e+00 5.033997e+01
<VARIANCE> 13
 3.421772e+01 1.355038e+01 3.088792e+01 4.729912e+01 2.843235e+01 2.848948e+01 2.136909e+01 4.264722e+01 4.110234e+01 4.496952e+01 3.815281e+01 2.880096e+01 1.804577e+01
<GCONST> 6.824736e+01
<MIXTURE> 4 2.373732e-01
<MEAN> 13
 -8.049021e+00 2.609442e+00 5.121778e+00 -4.922635e+00 3.456797e+00 2.070097e+00 -7.831045e-01 2.540546e+00 4.294643e-01 -1.326400e+00 -1.913455e+00 -4.976770e-01 4.557096e+01
<VARIANCE> 13
 2.452748e+01 9.716025e+00 3.588670e+01 3.911615e+01 1.642709e+01 2.625261e+01 2.604924e+01 3.154118e+01 2.836543e+01 2.337861e+01 3.192815e+01 2.969063e+01 1.629598e+01
<GCONST> 6.553309e+01
<TRANSP> 5
 0.000000e+00 1.000000e+00 0.000000e+00 0.000000e+00 0.000000e+00
 0.000000e+00 9.749008e-01 2.509917e-02 0.000000e+00 0.000000e+00
 0.000000e+00 0.000000e+00 9.949654e-01 5.034556e-03 0.000000e+00
 0.000000e+00 0.000000e+00 0.000000e+00 9.924157e-01 7.584306e-03
 0.000000e+00 0.000000e+00 0.000000e+00 0.000000e+00 0.000000e+00
<ENDHMM>
~h "pw"
<BEGINHMM>
<NUMSTATES> 5
<STATE> 2
<NUMMIXES> 4
<MIXTURE> 1 2.722837e-01
<MEAN> 13
 -1.143692e+01 -6.251434e-01 -3.882318e-01 -3.724026e-02 2.570742e+00 1.120173e+00 4.963968e+00 2.603121e+00 1.009534e+00 2.380368e+00 1.472546e+00 -4.095592e-01 5.053411e+01
<VARIANCE> 13
 1.282829e+01 1.194346e+01 1.101665e+01 1.070189e+01 1.093108e+01 1.309002e+01 1.289205e+01 1.394013e+01 1.456672e+01 1.417807e+01 1.306622e+01 1.217983e+01 1.537968e+01
<GCONST> 5.698221e+01
<MIXTURE> 2 2.441431e-01
<MEAN> 13
 -1.338712e+01 -3.209478e+00 -1.228350e+00 -3.503486e-01 1.333559e+00 -1.182663e+00 2.818840e+00 -2.097418e-01 -9.819980e-01 7.036307e-01 1.979926e-01 -9.067589e-01 5.430527e+01
<VARIANCE> 13
 1.383942e+01 1.906695e+01 1.193866e+01 1.209857e+01 1.312552e+01 1.483859e+01 1.372852e+01 1.432010e+01 1.508733e+01 1.375102e+01 1.368714e+01 1.287078e+01 1.914805e+01
<GCONST> 5.845226e+01
<MIXTURE> 3 2.441426e-01
<MEAN> 13
 -1.338712e+01 -3.209478e+00 -1.228350e+00 -3.503492e-01 1.333559e+00 -1.182662e+00 2.818840e+00 -2.097422e-01 -9.819980e-01 7.036308e-01 1.979936e-01 -9.067586e-01 5.430527e+01
<VARIANCE> 13
 1.383940e+01 1.906693e+01 1.193866e+01 1.209858e+01 1.312549e+01 1.483857e+01 1.372852e+01 1.432010e+01 1.508733e+01 1.375102e+01 1.368712e+01 1.287077e+01 1.914804e+01
<GCONST> 5.845226e+01
<MIXTURE> 4 2.393282e-01
<MEAN> 13
 -1.456679e+01 -7.014122e+00 -2.661060e+00 -1.769246e+00 -1.166395e+00 -5.139724e+00 -6.242688e-01 -4.068987e+00 -2.947628e+00 -1.047791e+00 -6.731266e-01 -1.079477e+00 6.137757e+01
<VARIANCE> 13
 1.949183e+01 1.968756e+01 1.323751e+01 1.276339e+01 1.623170e+01 1.890082e+01 1.785532e+01 2.042795e+01 1.773684e+01 1.612230e+01 1.555950e+01 1.439218e+01 3.839061e+01
<GCONST> 6.131241e+01
<STATE> 3
<NUMMIXES> 4
<MIXTURE> 1 3.029908e-01
<MEAN> 13
 -1.067728e+01 -6.527049e+00 -2.303043e+00 1.720585e-02 1.733553e+00 -3.322771e+00 5.273133e-01 -5.078079e+00 -3.553631e+00 -5.034145e-01 1.690082e+00 3.710005e-01 6.044094e+01
<VARIANCE> 13
 9.434338e+00 1.286108e+01 1.115069e+01 8.776214e+00 1.320165e+01 1.712366e+01 1.731640e+01 1.895251e+01 1.851480e+01 1.668776e+01 1.419338e+01 1.284969e+01 3.984949e+01
<GCONST> 5.911335e+01
<MIXTURE> 2 2.502998e-01
<MEAN> 13
 -1.093242e+01 -8.427154e+00 -3.433581e+00 -1.875977e+00 -7.441474e-01 -6.857577e+00 -2.025958e+00 -7.212269e+00 -4.233701e+00 -1.995324e+00 7.271872e-02 -9.391443e-01 6.672610e+01
<VARIANCE> 13
 1.507750e+01 1.223085e+01 1.191923e+01 9.983936e+00 1.358723e+01 1.605390e+01 1.621008e+01 1.712183e+01 1.884029e+01 1.626065e+01 1.482847e+01 1.343197e+01 3.593872e+01
<GCONST> 5.950051e+01
<MIXTURE> 3 2.502977e-01
<MEAN> 13
 -1.093243e+01 -8.427155e+00 -3.433583e+00 -1.875980e+00 -7.441533e-01 -6.857580e+00 -2.025957e+00 -7.212265e+00 -4.233698e+00 -1.995327e+00 7.271644e-02 -9.391457e-01 6.672612e+01
<VARIANCE> 13
 1.507749e+01 1.223082e+01 1.191922e+01 9.983935e+00 1.358723e+01 1.605389e+01 1.621007e+01 1.712183e+01 1.884028e+01 1.626063e+01 1.482844e+01 1.343196e+01 3.593871e+01
<GCONST> 5.950051e+01
<MIXTURE> 4 1.964140e-01
<MEAN> 13
 -1.195186e+01 -9.682010e+00 -4.979488e+00 -4.836842e+00 -3.317253e+00 -9.433973e+00 -3.441389e+00 -8.356613e+00 -5.168461e+00 -4.050884e+00 -1.633093e+00 -1.659834e+00 7.197936e+01
<VARIANCE> 13
 1.746626e+01 8.763833e+00 1.081982e+01 1.418641e+01 2.133736e+01 1.563047e+01 1.695987e+01 2.256168e+01 2.148083e+01 1.624424e+01 1.612567e+01 1.519179e+01 2.957033e+01
<GCONST> 6.045659e+01
<STATE> 4
<NUMMIXES> 4
<MIXTURE> 1 3.104726e-01
<MEAN> 13
 -7.437476e+00 -4.629188e-01 -1.582702e-02 -2.214242e-02 3.545923e+00 -1.164738e-01 1.684534e+00 -1.096839e+00 -2.960131e+00 -2.919658e-01 -5.712244e-02 -9.599928e-01 4.944329e+01
<VARIANCE> 13
 1.270628e+01 1.658049e+01 8.264446e+00 8.491283e+00 1.202750e+01 1.228549e+01 1.654167e+01 1.984761e+01 1.544262e+01 1.591910e+01 1.259039e+01 1.286944e+01 2.230908e+01
<GCONST> 5.798074e+01
<MIXTURE> 2 2.203421e-01
<MEAN> 13
 -6.583441e+00 -5.219007e+00 -1.469122e+00 -1.328315e+00 8.320282e-02 -4.441967e+00 -1.956930e+00 -5.643055e+00 -4.337183e+00 -1.263351e+00 -6.705905e-01 -1.348295e+00 5.850869e+01
<VARIANCE> 13
 1.608841e+01 2.927733e+01 1.716273e+01 1.197875e+01 2.536506e+01 1.755387e+01 1.575840e+01 2.179765e+01 2.446629e+01 1.904403e+01 1.830647e+01 1.982457e+01 4.916772e+01
<GCONST> 6.324448e+01
<MIXTURE> 3 2.203417e-01
<MEAN> 13
 -6.583441e+00 -5.219007e+00 -1.469123e+00 -1.328315e+00 8.320253e-02 -4.441967e+00 -1.956930e+00 -5.643057e+00 -4.337183e+00 -1.263350e+00 -6.705894e-01 -1.348293e+00 5.850869e+01
<VARIANCE> 13
 1.608842e+01 2.927735e+01 1.716274e+01 1.197876e+01 2.536507e+01 1.755387e+01 1.575841e+01 2.179764e+01 2.446629e+01 1.904403e+01 1.830646e+01 1.982458e+01 4.916776e+01
<GCONST> 6.324448e+01
<MIXTURE> 4 2.488346e-01
<MEAN> 13
 -5.572188e+00 -8.519934e+00 -1.429668e+00 -3.732671e+00 -3.070588e+00 -6.185009e+00 -4.444969e+00 -7.348815e+00 -3.871414e+00 -1.910937e+00 -1.665588e+00 -3.398239e+00 6.518803e+01
<VARIANCE> 13
 1.643430e+01 3.653949e+01 2.173634e+01 1.569963e+01 3.494251e+01 3.634527e+01 2.003967e+01 2.947047e+01 3.368990e+01 2.066473e+01 2.140742e+01 2.712699e+01 8.177544e+01
<GCONST> 6.696452e+01
<TRANSP> 5
 0.000000e+00 1.000000e+00 0.000000e+00 0.000000e+00 0.000000e+00
 0.000000e+00 9.971645e-01 2.835474e-03 0.000000e+00 0.000000e+00
 0.000000e+00 0.000000e+00 9.613245e-01 3.867554e-02 0.000000e+00
 0.000000e+00 0.000000e+00 0.000000e+00 9.772535e-01 2.274649e-02
 0.000000e+00 0.000000e+00 0.000000e+00 0.000000e+00 0.000000e+00
<ENDHMM>
~h "si"
<BEGINHMM>
<NUMSTATES> 5
<STATE> 2
<NUMMIXES> 4
<MIXTURE> 1 2.465777e-01
<MEAN> 13
 -1.051641e+01 1.188504e+00 2.555029e+00 1.075393e+00 3.808630e+00 2.340328e+00 4.900402e+00 2.093249e+00 1.469476e+00 1.236336e+00 2.146885e+00 -5.420713e-01 4.979556e+01
<VARIANCE> 13
 1.493081e+01 8.715879e+00 8.233951e+00 1.081810e+01 1.122124e+01 1.303555e+01 1.468166e+01 1.809267e+01 1.751668e+01 1.604557e+01 1.577402e+01 1.331925e+01 3.317115e+01
<GCONST> 5.830590e+01
<MIXTURE> 2 2.734270e-01
<MEAN> 13
 -1.095151e+01 1.953357e-01 1.227538e+00 -7.280063e-01 1.498766e+00 -2.483816e-01 2.390083e+00 3.146785e-01 -3.757446e-01 -1.389768e-02 8.084023e-01 -1.565725e+00 5.044086e+01
<VARIANCE> 13
 1.648153e+01 1.232818e+01 8.977412e+00 1.131887e+01 1.208269e+01 1.318353e+01 1.383140e+01 1.672546e+01 1.613179e+01 1.539824e+01 1.440213e+01 1.317097e+01 2.091812e+01
<GCONST> 5.814338e+01
<MIXTURE> 3 2.734265e-01
<MEAN> 13
 -1.095151e+01 1.953358e-01 1.227538e+00 -7.280056e-01 1.498765e+00 -2.483818e-01 2.390083e+00 3.146785e-01 -3.757450e-01 -1.389786e-02 8.084025e-01 -1.565724e+00 5.044086e+01
<VARIANCE> 13
 1.648152e+01 1.232818e+01 8.977403e+00 1.131885e+01 1.208267e+01 1.318351e+01 1.383140e+01 1.672542e+01 1.613178e+01 1.539823e+01 1.440210e+01 1.317096e+01 2.091809e+01
<GCONST> 5.814337e+01
<MIXTURE> 4 2.063068e-01
<MEAN> 13
 -1.159723e+01 -3.214846e+00 -7.539542e-01 -2.557313e+00 -1.607457e+00 -4.236331e+00 -8.759580e-01 -3.146380e+00 -2.169316e+00 -8.959664e-01 7.134560e-01 -1.475641e+00 5.785753e+01
<VARIANCE> 13
 3.141766e+01 3.454271e+01 2.514419e+01 2.004711e+01 2.440941e+01 1.916026e+01 2.192271e+01 2.158237e+01 2.219419e+01 2.130393e+01 1.953280e+01 1.740850e+01 6.567118e+01
<GCONST> 6.558433e+01
<STATE> 3
<NUMMIXES> 4
<MIXTURE> 1 2.389387e-01
<MEAN> 13
 -5.367400e+00 2.843715e+00 2.352466e+00 -1.354666e+00 4.630151e+00 3.996779e+00 3.742656e+00 6.151987e+00 7.409222e-01 1.474448e+00 2.405457e+00 -1.857204e+00 4.261949e+01
<VARIANCE> 13
 3.611947e+00 3.743561e+00 5.640980e+00 7.250479e+00 1.091067e+01 1.042785e+01 1.128666e+01 1.299477e+01 1.309849e+01 1.444155e+01 1.203426e+01 1.116806e+01 1.625494e+00
<GCONST> 5.055944e+01
<MIXTURE> 2 2.620485e-01
<MEAN> 13
 -5.367593e+00 2.413585e+00 1.745583e+00 -2.404592e+00 3.417896e+00 2.414667e+00 1.846256e+00 4.441781e+00 -9.970058e-01 -1.438814e-01 1.072777e+00 -2.778918e+00 4.273267e+01
<VARIANCE> 13
 3.376335e+00 3.693943e+00 5.830503e+00 7.376885e+00 1.068475e+01 1.051943e+01 1.129942e+01 1.320462e+01 1.328623e+01 1.394223e+01 1.236975e+01 1.141306e+01 1.690797e+00
<GCONST> 5.060157e+01
<MIXTURE> 3 2.620485e-01
<MEAN> 13
 -5.367593e+00 2.413585e+00 1.745583e+00 -2.404592e+00 3.417896e+00 2.414667e+00 1.846256e+00 4.441781e+00 -9.970058e-01 -1.438814e-01 1.072777e+00 -2.778918e+00 4.273267e+01
<VARIANCE> 13
 3.376335e+00 3.693943e+00 5.830503e+00 7.376885e+00 1.068475e+01 1.051943e+01 1.129942e+01 1.320462e+01 1.328623e+01 1.394223e+01 1.236975e+01 1.141306e+01 1.690797e+00
<GCONST> 5.060157e+01
<MIXTURE> 4 2.365872e-01
<MEAN> 13
 -5.495214e+00 1.610989e+00 4.013951e-01 -4.265635e+00 9.922778e-01 -1.167248e-01 -3.771203e-01 2.349716e+00 -2.312806e+00 -1.260452e+00 -1.806390e-01 -3.737085e+00 4.323516e+01
<VARIANCE> 13
 5.445659e+00 5.410481e+00 8.542403e+00 9.798588e+00 1.263444e+01 1.363059e+01 1.413178e+01 1.596017e+01 1.595020e+01 1.623342e+01 1.519403e+01 1.366244e+01 3.006833e+00
<GCONST> 5.426308e+01
<STATE> 4
<NUMMIXES> 4
<MIXTURE> 1 2.402919e-01
<MEAN> 13
 -8.523649e+00 2.149208e+00 1.835242e+00 -2.187931e-01 3.474854e+00 2.713665e+00 4.724731e+00 4.525606e+00 1.530163e+00 1.580212e+00 1.879983e+00 -1.369885e+00 4.569110e+01
<VARIANCE> 13
 8.927053e+00 6.969145e+00 7.379777e+00 9.476353e+00 1.040290e+01 1.182216e+01 1.246933e+01 1.351130e+01 1.411839e+01 1.426838e+01 1.274741e+01 1.172416e+01 5.297172e+00
<GCONST> 5.418906e+01
<MIXTURE> 2 2.666880e-01
<MEAN> 13
 -8.297239e+00 1.788802e+00 1.072808e+00 -1.477045e+00 1.689640e+00 6.150201e-01 2.455724e+00 2.507714e+00 -1.490231e-01 1.130222e-01 5.504560e-01 -2.144142e+00 4.608923e+01
<VARIANCE> 13
 9.973966e+00 8.313991e+00 7.951307e+00 1.000628e+01 1.093065e+01 1.197018e+01 1.213367e+01 1.382429e+01 1.424071e+01 1.423857e+01 1.348948e+01 1.308370e+01 6.427946e+00
<GCONST> 5.502925e+01
<MIXTURE> 3 2.666880e-01
<MEAN> 13
 -8.297240e+00 1.788802e+00 1.072808e+00 -1.477045e+00 1.689640e+00 6.150203e-01 2.455723e+00 2.507713e+00 -1.490234e-01 1.130220e-01 5.504557e-01 -2.144141e+00 4.608923e+01
<VARIANCE> 13
 9.973964e+00 8.313993e+00 7.951308e+00 1.000628e+01 1.093065e+01 1.197018e+01 1.213368e+01 1.382429e+01 1.424072e+01 1.423857e+01 1.348949e+01 1.308370e+01 6.427949e+00
<GCONST> 5.502926e+01
<MIXTURE> 4 2.260389e-01
<MEAN> 13
 -8.863244e+00 -3.529800e-01 3.766971e-02 -3.188756e+00 -8.636672e-01 -2.614040e+00 5.321356e-02 -1.114887e-02 -1.054298e+00 -6.211941e-01 -2.823591e-01 -2.231043e+00 4.928577e+01
<VARIANCE> 13
 2.345950e+01 2.159408e+01 1.518275e+01 1.898869e+01 1.511177e+01 1.804826e+01 1.876822e+01 1.933910e+01 1.941485e+01 1.794892e+01 1.751338e+01 1.675653e+01 1.960670e+01
<GCONST> 6.179811e+01
<TRANSP> 5
 0.000000e+00 1.000000e+00 0.000000e+00 0.000000e+00 0.000000e+00
 0.000000e+00 9.896188e-01 1.038120e-02 0.000000e+00 0.000000e+00
 0.000000e+00 0.000000e+00 9.933223e-01 6.677776e-03 0.000000e+00
 0.000000e+00 0.000000e+00 0.000000e+00 9.894500e-01 1.054999e-02
 0.000000e+00 0.000000e+00 0.000000e+00 0.000000e+00 0.000000e+00
<ENDHMM>
~h "st"
<BEGINHMM>
<NUMSTATES> 5
<STATE> 2
<NUMMIXES> 4
<MIXTURE> 1 2.869353e-01
<MEAN> 13
 -5.369688e+00 3.787774e-02 -3.133243e+00 -3.729755e+00 -1.668537e-01 -1.359578e-01 -7.557447e-01 3.975075e-01 -1.184411e+00 5.654763e-02 -4.432923e-02 -2.020453e+00 6.907178e+01
<VARIANCE> 13
 9.065279e+00 6.318060e+00 8.171523e+00 9.818101e+00 1.199414e+01 1.013214e+01 1.172301e+01 1.660811e+01 1.456087e+01 1.354587e+01 1.372575e+01 1.320919e+01 4.450394e+01
<GCONST> 5.667691e+01
<MIXTURE> 2 2.471554e-01
<MEAN> 13
 -5.083901e+00 -1.701831e-01 -3.511382e+00 -5.417229e+00 -1.959681e+00 -2.413559e+00 -3.700243e+00 -2.187178e+00 -3.856446e+00 -2.517106e+00 -2.040981e+00 -3.063069e+00 7.163994e+01
<VARIANCE> 13
 4.527216e+00 7.041181e+00 7.405009e+00 9.889645e+00 1.086770e+01 9.588927e+00 1.085187e+01 1.310310e+01 1.222243e+01 1.152134e+01 1.230582e+01 1.205092e+01 2.932907e+01
<GCONST> 5.457679e+01
<MIXTURE> 3 2.471554e-01
<MEAN> 13
 -5.083901e+00 -1.701831e-01 -3.511382e+00 -5.417229e+00 -1.959681e+00 -2.413559e+00 -3.700243e+00 -2.187178e+00 -3.856446e+00 -2.517106e+00 -2.040981e+00 -3.063069e+00 7.163994e+01
<VARIANCE> 13
 4.527216e+00 7.041181e+00 7.405009e+00 9.889645e+00 1.086770e+01 9.588927e+00 1.085187e+01 1.310310e+01 1.222243e+01 1.152134e+01 1.230582e+01 1.205092e+01 2.932907e+01
<GCONST> 5.457679e+01
<MIXTURE> 4 2.187684e-01
<MEAN> 13
 -6.074193e+00 -1.422679e+00 -4.159000e+00 -7.038577e+00 -3.384045e+00 -4.410081e+00 -6.494377e+00 -4.844849e+00 -6.450957e+00 -4.379316e+00 -3.602715e+00 -3.332718e+00 7.356203e+01
<VARIANCE> 13
 6.552153e+00 1.033201e+01 8.853884e+00 1.207520e+01 1.160478e+01 8.932580e+00 1.185432e+01 1.509807e+01 1.472067e+01 1.288383e+01 1.291458e+01 1.262162e+01 2.735148e+01
<GCONST> 5.625559e+01
<STATE> 3
<NUMMIXES> 4
<MIXTURE> 1 2.334729e-01
<MEAN> 13
 -9.710526e+00 1.358039e+00 9.286072e-01 -6.259341e-01 1.591496e+00 9.953316e-01 3.920804e+00 1.099096e+00 1.359280e+00 1.191301e+00 2.030064e+00 -1.733727e+00 5.178051e+01
<VARIANCE> 13
 1.252870e+01 5.868738e+00 8.994172e+00 1.187829e+01 1.196722e+01 1.257502e+01 1.271126e+01 1.601078e+01 1.665872e+01 1.481432e+01 1.421220e+01 1.311825e+01 1.489733e+01
<GCONST> 5.662880e+01
<MIXTURE> 2 2.492140e-01
<MEAN> 13
 -9.629738e+00 3.604503e-01 4.410204e-01 -2.671480e+00 -5.872060e-01 -9.735506e-01 1.874388e+00 -7.658616e-01 -7.445111e-01 -6.759189e-01 4.834836e-01 -2.569693e+00 5.445190e+01
<VARIANCE> 13
 1.639659e+01 9.605450e+00 1.121051e+01 1.542627e+01 1.507580e+01 1.586788e+01 1.588521e+01 1.716408e+01 1.892936e+01 1.687523e+01 1.502876e+01 1.407508e+01 2.353651e+01
<GCONST> 5.946981e+01
<MIXTURE> 3 2.492160e-01
<MEAN> 13
 -9.629738e+00 3.604501e-01 4.410214e-01 -2.671481e+00 -5.872052e-01 -9.735512e-01 1.874387e+00 -7.658612e-01 -7.445101e-01 -6.759182e-01 4.834833e-01 -2.569693e+00 5.445190e+01
<VARIANCE> 13
 1.639658e+01 9.605447e+00 1.121049e+01 1.542625e+01 1.507577e+01 1.586787e+01 1.588520e+01 1.716405e+01 1.892935e+01 1.687521e+01 1.502874e+01 1.407507e+01 2.353648e+01
<GCONST> 5.946980e+01
<MIXTURE> 4 2.680627e-01
<MEAN> 13
 -9.178057e+00 -2.711904e+00 3.588232e-01 -6.031076e+00 -3.397010e+00 -3.931160e+00 -1.661305e-02 -2.079489e+00 -2.443177e+00 -2.012584e+00 -3.787848e-01 -3.331750e+00 6.179145e+01
<VARIANCE> 13
 1.997657e+01 2.441716e+01 1.496091e+01 1.987196e+01 1.868341e+01 2.306046e+01 2.352296e+01 2.322289e+01 2.326409e+01 2.150633e+01 1.840335e+01 1.599053e+01 5.061742e+01
<GCONST> 6.396996e+01
<STATE> 4
<NUMMIXES> 4
<MIXTURE> 1 3.644546e-01
<MEAN> 13
 -4.609350e+00 1.246541e+00 -5.001559e-01 -4.076027e+00 -1.834261e+00 2.037279e+00 9.987735e-01 -8.416118e-01 1.267090e+00 5.354646e-01 -1.838050e-01 -2.688497e+00 5.264214e+01
<VARIANCE> 13
 2.644954e+01 2.534740e+01 1.701345e+01 1.616399e+01 1.921366e+01 2.100848e+01 1.893938e+01 2.141689e+01 2.388860e+01 2.301025e+01 2.613564e+01 1.764084e+01 2.962411e+01
<GCONST> 6.385452e+01
<MIXTURE> 2 1.765265e-01
<MEAN> 13
 -5.248716e+00 -1.473426e+00 1.999606e-01 -6.852734e+00 -2.838610e+00 -1.754197e+00 -3.249012e+00 -3.821809e+00 -1.558920e+00 -2.592198e+00 -2.035654e+00 -1.560940e+00 5.973078e+01
<VARIANCE> 13
 2.949271e+01 3.135859e+01 3.520209e+01 2.986952e+01 3.471833e+01 4.545333e+01 2.997841e+01 2.956065e+01 3.070647e+01 2.713308e+01 3.961074e+01 2.582731e+01 7.488976e+01
<GCONST> 6.980263e+01
<MIXTURE> 3 1.765265e-01
<MEAN> 13
 -5.248716e+00 -1.473426e+00 1.999606e-01 -6.852734e+00 -2.838610e+00 -1.754197e+00 -3.249012e+00 -3.821809e+00 -1.558920e+00 -2.592198e+00 -2.035654e+00 -1.560940e+00 5.973078e+01
<VARIANCE> 13
 2.949271e+01 3.135859e+01 3.520209e+01 2.986952e+01 3.471833e+01 4.545333e+01 2.997841e+01 2.956065e+01 3.070647e+01 2.713308e+01 3.961074e+01 2.582731e+01 7.488976e+01
<GCONST> 6.980263e+01
<MIXTURE> 4 2.824719e-01
<MEAN> 13
 -3.428488e-01 -3.760157e+00 1.548563e+00 -1.918860e+01 -2.107633e+00 -9.800262e+00 -7.716886e+00 -4.941479e+00 -9.447170e-01 -5.274197e+00 -1.097787e+01 -1.601571e+00 6.345848e+01
<VARIANCE> 13
 2.391078e+01 3.204509e+01 8.678324e+01 4.253865e+01 5.146790e+01 5.123679e+01 5.244362e+01 6.471814e+01 4.631668e+01 4.081882e+01 2.800786e+01 3.627692e+01 8.056723e+00
<GCONST> 7.130972e+01
<TRANSP> 5
 0.000000e+00 1.000000e+00 0.000000e+00 0.000000e+00 0.000000e+00
 0.000000e+00 9.706191e-01 2.938090e-02 0.000000e+00 0.000000e+00
 0.000000e+00 0.000000e+00 9.911268e-01 8.873179e-03 0.000000e+00
 0.000000e+00 0.000000e+00 0.000000e+00 9.383701e-01 6.162991e-02
 0.000000e+00 0.000000e+00 0.000000e+00 0.000000e+00 0.000000e+00
<ENDHMM>
~h "spe"
<BEGINHMM>
<NUMSTATES> 5
<STATE> 2
<NUMMIXES> 4
<MIXTURE> 1 2.828296e-01
<MEAN> 13
 -2.549642e+00 -4.737126e+00 -3.201420e+00 -2.458985e+00 4.003099e+00 6.558008e+00 6.846900e+00 2.849298e+00 7.033098e-01 2.935734e+00 2.937015e+00 -1.898673e+00 4.937947e+01
<VARIANCE> 13
 1.841277e+00 2.790836e+00 4.222841e+00 5.470751e+00 7.532213e+00 9.116866e+00 1.068226e+01 1.056979e+01 1.111924e+01 1.195851e+01 1.149624e+01 1.034645e+01 6.652243e-01
<GCONST> 4.688617e+01
<MIXTURE> 2 2.527111e-01
<MEAN> 13
 -2.846425e+00 -5.014338e+00 -3.812630e+00 -3.614378e+00 2.254188e+00 4.466185e+00 4.552195e+00 5.911078e-01 -1.330720e+00 1.006791e+00 1.358568e+00 -2.611524e+00 4.963123e+01
<VARIANCE> 13
 3.088769e+00 3.863568e+00 5.144588e+00 6.155747e+00 8.315022e+00 9.368749e+00 1.008154e+01 1.160276e+01 1.205331e+01 1.185086e+01 1.207454e+01 1.114540e+01 1.173844e+00
<GCONST> 4.896864e+01
<MIXTURE> 3 2.527117e-01
<MEAN> 13
 -2.846424e+00 -5.014339e+00 -3.812631e+00 -3.614379e+00 2.254188e+00 4.466185e+00 4.552195e+00 5.911081e-01 -1.330720e+00 1.006791e+00 1.358568e+00 -2.611524e+00 4.963123e+01
<VARIANCE> 13
 3.088766e+00 3.863562e+00 5.144583e+00 6.155741e+00 8.315013e+00 9.368733e+00 1.008154e+01 1.160274e+01 1.205328e+01 1.185085e+01 1.207454e+01 1.114538e+01 1.173841e+00
<GCONST> 4.896863e+01
<MIXTURE> 4 2.118290e-01
<MEAN> 13
 -2.812403e+00 -6.056716e+00 -3.571734e+00 -5.358977e+00 -1.543310e-02 1.396904e+00 1.590921e+00 -1.058412e+00 -2.186147e+00 -7.915031e-01 -5.330085e-01 -3.692461e+00 5.200061e+01
<VARIANCE> 13
 9.261474e+00 1.177816e+01 1.681458e+01 2.154036e+01 2.111523e+01 2.163142e+01 1.425969e+01 2.224909e+01 1.898572e+01 1.795776e+01 1.925038e+01 1.843268e+01 1.198874e+01
<GCONST> 6.054790e+01
<STATE> 3
<NUMMIXES> 4
<MIXTURE> 1 3.258215e-01
<MEAN> 13
 -3.405457e+00 -2.161205e+00 -2.249305e+00 -2.803128e+00 2.570491e-01 2.456816e+00 4.060755e+00 1.136718e+00 7.474867e-02 1.880056e+00 1.160515e+00 -2.951049e+00 4.973975e+01
<VARIANCE> 13
 1.083178e+01 1.554678e+01 1.117385e+01 1.072220e+01 1.968697e+01 1.954438e+01 1.648656e+01 1.830317e+01 1.749838e+01 1.635388e+01 1.409223e+01 1.411531e+01 6.780958e+00
<GCONST> 5.833047e+01
<MIXTURE> 2 2.206438e-01
<MEAN> 13
 -1.727296e+00 -1.804784e+00 5.444227e-01 -4.106110e+00 -3.530196e+00 -1.455100e+00 -3.770068e-01 -1.006998e+00 -1.828341e+00 3.222940e-01 -1.156063e+00 -5.589438e+00 5.347139e+01
<VARIANCE> 13
 1.866505e+01 2.703850e+01 3.180315e+01 2.717997e+01 3.659467e+01 3.412494e+01 2.532827e+01 3.157468e+01 2.823335e+01 2.653000e+01 2.663134e+01 2.376069e+01 1.483607e+01
<GCONST> 6.645853e+01
<MIXTURE> 3 2.206438e-01
<MEAN> 13
 -1.727296e+00 -1.804784e+00 5.444227e-01 -4.106110e+00 -3.530196e+00 -1.455100e+00 -3.770068e-01 -1.006998e+00 -1.828341e+00 3.222940e-01 -1.156063e+00 -5.589438e+00 5.347139e+01
<VARIANCE> 13
 1.866505e+01 2.703850e+01 3.180315e+01 2.717997e+01 3.659467e+01 3.412494e+01 2.532827e+01 3.157468e+01 2.823335e+01 2.653000e+01 2.663134e+01 2.376069e+01 1.483607e+01
<GCONST> 6.645853e+01
<MIXTURE> 4 2.328958e-01
<MEAN> 13
 9.833809e-01 -6.951540e+00 2.596619e+00 -7.776628e+00 -5.613451e+00 -1.216807e+00 -4.931167e+00 -2.204995e+00 -3.783975e+00 -1.655578e+00 -2.707243e+00 -8.549320e+00 5.786046e+01
<VARIANCE> 13
 7.496439e+00 2.659114e+01 5.986103e+01 3.543366e+01 7.082933e+01 4.904231e+01 2.991334e+01 4.860865e+01 3.959930e+01 3.773391e+01 4.584121e+01 2.905556e+01 1.467223e+01
<GCONST> 6.947188e+01
<STATE> 4
<NUMMIXES> 4
<MIXTURE> 1 3.094754e-01
<MEAN> 13
 -5.459033e+00 1.899473e+00 -1.247199e+00 -1.780814e-01 -1.396783e-01 3.551326e+00 5.285641e+00 3.348874e+00 2.124952e+00 3.342447e+00 1.111973e+00 -1.881106e+00 4.617669e+01
<VARIANCE> 13
 8.516872e+00 4.580095e+00 5.462505e+00 6.981477e+00 1.140823e+01 1.160838e+01 1.141307e+01 1.136332e+01 1.357472e+01 1.294016e+01 1.222873e+01 1.108382e+01 6.082301e+00
<GCONST> 5.283175e+01
<MIXTURE> 2 2.282950e-01
<MEAN> 13
 -8.508689e+00 6.908287e-01 -1.610442e+00 -1.363840e+00 -7.180402e-01 5.208173e-01 2.978153e+00 3.633572e-01 2.559841e-01 1.604317e+00 -1.172832e-01 -1.846590e+00 4.996659e+01
<VARIANCE> 13
 2.216748e+01 1.068728e+01 1.049158e+01 9.858886e+00 1.679720e+01 1.501175e+01 1.411927e+01 1.375988e+01 1.585515e+01 1.536135e+01 1.488546e+01 1.525776e+01 1.462374e+01
<GCONST> 5.840184e+01
<MIXTURE> 3 2.282950e-01
<MEAN> 13
 -8.508689e+00 6.908286e-01 -1.610442e+00 -1.363840e+00 -7.180403e-01 5.208173e-01 2.978153e+00 3.633573e-01 2.559843e-01 1.604317e+00 -1.172832e-01 -1.846590e+00 4.996659e+01
<VARIANCE> 13
 2.216748e+01 1.068728e+01 1.049158e+01 9.858885e+00 1.679720e+01 1.501175e+01 1.411927e+01 1.375988e+01 1.585515e+01 1.536135e+01 1.488546e+01 1.525776e+01 1.462374e+01
<GCONST> 5.840184e+01
<MIXTURE> 4 2.339154e-01
<MEAN> 13
 -1.251213e+01 -3.619012e+00 -2.597438e+00 -2.372989e+00 -1.397497e+00 -3.147564e+00 3.204689e-01 -3.282630e+00 -2.059333e+00 -4.420486e-01 -2.138851e-01 -1.150186e+00 5.841685e+01
<VARIANCE> 13
 2.595802e+01 2.583410e+01 1.713304e+01 1.385007e+01 2.097664e+01 2.366015e+01 2.508700e+01 2.016896e+01 1.758242e+01 1.880266e+01 1.993303e+01 1.747180e+01 4.025225e+01
<GCONST> 6.365261e+01
<TRANSP> 5
 0.000000e+00 1.000000e+00 0.000000e+00 0.000000e+00 0.000000e+00
 0.000000e+00 9.965172e-01 3.482740e-03 0.000000e+00 0.000000e+00
 0.000000e+00 0.000000e+00 9.974521e-01 2.547898e-03 0.000000e+00
 0.000000e+00 0.000000e+00 0.000000e+00 9.978273e-01 2.172697e-03
 0.000000e+00 0.000000e+00 0.000000e+00 0.000000e+00 0.000000e+00
<ENDHMM>
